{
 "n_classes": 2,
 "n_features": 6,
 "n_trees": 100,
 "max_depth": 3,
 "init_predict": [
  0
 ],
 "norm": 1,
 "library": "xgboost",
 "splitting_convention": "<",
 "feature_map": {
  "f0": 0,
  "f1": 1,
  "f2": 2,
  "f3": 3,
  "f4": 4,
  "f5": 5
 },
 "trees": [
  [
   {
    "feature": [
     0,
     3,
     4,
     4,
     3,
     3,
     4,
     -2,
     -2,
     -2,
     -2,
     -2,
     -2,
     -2,
     -2
    ],
    "threshold": [
     5.0,
     11.0,
     127.0,
     90.0,
     42.0,
     73.0,
     200.0,
     0.0,
     0.0,
     0.0,
     0.0,
     0.0,
     0.0,
     0.0,
     0.0
    ],
    "value": [
     272315.781,
     25386.7891,
     8249.32812,
     10105.6289,
     3953.40625,
     5583.29688,
     154.065674,
     -0.145216167,
     -1.83093202,
     -1.29700339,
     -1.82086873,
     1.59657884,
     -0.945393026,
     -1.0566988,
     -1.87695825
    ],
    "children_left": [
     1,
     3,
     5,
     7,
     9,
     11,
     13,
     -1,
     -1,
     -1,
     -1,
     -1,
     -1,
     -1,
     -1
    ],
    "children_right": [
     2,
     4,
     6,
     8,
     10,
     12,
     14,
     -1,
     -1,
     -1,
     -1,
     -1,
     -1,
     -1,
     -1
    ]
   }
  ],
  [
   {
    "feature": [
     0,
     4,
     3,
     3,
     3,
     3,
     5,
     -2,
     -2,
     -2,
     -2,
     -2,
     -2,
     -2,
     -2
    ],
    "threshold": [
     6.0,
     96.0,
     21.0,
     5.0,
     11.0,
     14.0,
     1.0,
     0.0,
     0.0,
     0.0,
     0.0,
     0.0,
     0.0,
     0.0,
     0.0
    ],
    "value": [
     15183.7295,
     10488.915,
     1098.98828,
     7001.44238,
     207.486328,
     113.609375,
     1023.14832,
     0.479064763,
     -0.246061966,
     -0.805310309,
     -1.15405846,
     0.986612141,
     0.773014963,
     0.57530123,
     -0.737089694
    ],
    "children_left": [
     1,
     3,
     5,
     7,
     9,
     11,
     13,
     -1,
     -1,
     -1,
     -1,
     -1,
     -1,
     -1,
     -1
    ],
    "children_right": [
     2,
     4,
     6,
     8,
     10,
     12,
     14,
     -1,
     -1,
     -1,
     -1,
     -1,
     -1,
     -1,
     -1
    ]
   }
  ],
  [
   {
    "feature": [
     3,
     2,
     2,
     2,
     2,
     0,
     2,
     -2,
     -2,
     -2,
     -2,
     -2,
     -2,
     -2,
     -2
    ],
    "threshold": [
     33.0,
     109.90625,
     -89.3359375,
     -102.976562,
     248.867188,
     5.0,
     85.8828125,
     0.0,
     0.0,
     0.0,
     0.0,
     0.0,
     0.0,
     0.0,
     0.0
    ],
    "value": [
     5334.38867,
     4347.08203,
     1215.53247,
     7635.84033,
     2450.89941,
     1458.50415,
     2503.90869,
     -0.199778646,
     0.646569431,
     -0.535343409,
     0.277095377,
     -0.650021911,
     -2.05019259,
     0.0655501783,
     -0.87279892
    ],
    "children_left": [
     1,
     3,
     5,
     7,
     9,
     11,
     13,
     -1,
     -1,
     -1,
     -1,
     -1,
     -1,
     -1,
     -1
    ],
    "children_right": [
     2,
     4,
     6,
     8,
     10,
     12,
     14,
     -1,
     -1,
     -1,
     -1,
     -1,
     -1,
     -1,
     -1
    ]
   }
  ],
  [
   {
    "feature": [
     0,
     2,
     3,
     4,
     4,
     4,
     0,
     -2,
     -2,
     -2,
     -2,
     -2,
     -2,
     -2,
     -2
    ],
    "threshold": [
     5.0,
     -268.914062,
     16.0,
     53.0,
     88.0,
     104.0,
     6.0,
     0.0,
     0.0,
     0.0,
     0.0,
     0.0,
     0.0,
     0.0,
     0.0
    ],
    "value": [
     4730.10156,
     3276.79053,
     1506.57568,
     883.752197,
     2497.13306,
     298.946777,
     1229.79199,
     1.1219548,
     -0.238116413,
     -0.175267398,
     -0.887488484,
     0.537702501,
     -0.349914253,
     -0.243932739,
     0.405980766
    ],
    "children_left": [
     1,
     3,
     5,
     7,
     9,
     11,
     13,
     -1,
     -1,
     -1,
     -1,
     -1,
     -1,
     -1,
     -1
    ],
    "children_right": [
     2,
     4,
     6,
     8,
     10,
     12,
     14,
     -1,
     -1,
     -1,
     -1,
     -1,
     -1,
     -1,
     -1
    ]
   }
  ],
  [
   {
    "feature": [
     1,
     1,
     2,
     1,
     3,
     3,
     3,
     -2,
     -2,
     -2,
     -2,
     -2,
     -2,
     -2,
     -2
    ],
    "threshold": [
     296.75,
     -289.0,
     321.648438,
     -385.0,
     117.0,
     11.0,
     65.0,
     0.0,
     0.0,
     0.0,
     0.0,
     0.0,
     0.0,
     0.0,
     0.0
    ],
    "value": [
     2938.2019,
     3230.45605,
     235.85376,
     272.149414,
     1743.04712,
     244.914062,
     44.27108,
     -1.15712881,
     -0.614196897,
     0.148650482,
     -0.812281311,
     -1.16646504,
     -0.647698164,
     1.79723084,
     -1.04193735
    ],
    "children_left": [
     1,
     3,
     5,
     7,
     9,
     11,
     13,
     -1,
     -1,
     -1,
     -1,
     -1,
     -1,
     -1,
     -1
    ],
    "children_right": [
     2,
     4,
     6,
     8,
     10,
     12,
     14,
     -1,
     -1,
     -1,
     -1,
     -1,
     -1,
     -1,
     -1
    ]
   }
  ],
  [
   {
    "feature": [
     2,
     5,
     4,
     2,
     2,
     2,
     2,
     -2,
     -2,
     -2,
     -2,
     -2,
     -2,
     -2,
     -2
    ],
    "threshold": [
     -117.625,
     2.0,
     175.0,
     -214.546875,
     -238.3125,
     97.296875,
     128.648438,
     0.0,
     0.0,
     0.0,
     0.0,
     0.0,
     0.0,
     0.0,
     0.0
    ],
    "value": [
     1121.69653,
     794.980591,
     1280.76477,
     758.76416,
     148.101196,
     1307.07117,
     78.0689697,
     0.133054346,
     -0.353708476,
     -0.408804476,
     -0.873255968,
     0.239051327,
     -0.117301211,
     -0.945012033,
     -0.187292874
    ],
    "children_left": [
     1,
     3,
     5,
     7,
     9,
     11,
     13,
     -1,
     -1,
     -1,
     -1,
     -1,
     -1,
     -1,
     -1
    ],
    "children_right": [
     2,
     4,
     6,
     8,
     10,
     12,
     14,
     -1,
     -1,
     -1,
     -1,
     -1,
     -1,
     -1,
     -1
    ]
   }
  ],
  [
   {
    "feature": [
     3,
     4,
     4,
     0,
     0,
     3,
     4,
     -2,
     -2,
     -2,
     -2,
     -2,
     -2,
     -2,
     -2
    ],
    "threshold": [
     11.0,
     38.0,
     106.0,
     5.0,
     5.0,
     89.0,
     117.0,
     0.0,
     0.0,
     0.0,
     0.0,
     0.0,
     0.0,
     0.0,
     0.0
    ],
    "value": [
     786.477722,
     996.685303,
     661.346313,
     399.263336,
     581.262695,
     624.339111,
     45.58255,
     -0.0696823075,
     0.277703226,
     -0.492999464,
     0.000723473961,
     0.171837956,
     -0.443461299,
     -0.906397343,
     -0.470998377
    ],
    "children_left": [
     1,
     3,
     5,
     7,
     9,
     11,
     13,
     -1,
     -1,
     -1,
     -1,
     -1,
     -1,
     -1,
     -1
    ],
    "children_right": [
     2,
     4,
     6,
     8,
     10,
     12,
     14,
     -1,
     -1,
     -1,
     -1,
     -1,
     -1,
     -1,
     -1
    ]
   }
  ],
  [
   {
    "feature": [
     2,
     5,
     0,
     1,
     2,
     3,
     1,
     -2,
     -2,
     -2,
     -2,
     -2,
     -2,
     -2,
     -2
    ],
    "threshold": [
     361.445312,
     3.0,
     5.0,
     -174.375,
     302.4375,
     42.0,
     -18.375,
     0.0,
     0.0,
     0.0,
     0.0,
     0.0,
     0.0,
     0.0,
     0.0
    ],
    "value": [
     499.759064,
     377.759857,
     741.420044,
     278.080505,
     73.3415833,
     139.959778,
     378.533844,
     -0.174508765,
     0.0257673003,
     -0.710373938,
     0.858824551,
     1.01054239,
     3.14765763,
     0.0164623447,
     -2.79634905
    ],
    "children_left": [
     1,
     3,
     5,
     7,
     9,
     11,
     13,
     -1,
     -1,
     -1,
     -1,
     -1,
     -1,
     -1,
     -1
    ],
    "children_right": [
     2,
     4,
     6,
     8,
     10,
     12,
     14,
     -1,
     -1,
     -1,
     -1,
     -1,
     -1,
     -1,
     -1
    ]
   }
  ],
  [
   {
    "feature": [
     3,
     2,
     3,
     2,
     1,
     0,
     0,
     -2,
     -2,
     -2,
     -2,
     -2,
     -2,
     -2,
     -2
    ],
    "threshold": [
     3.0,
     314.960938,
     5.0,
     -238.3125,
     -16.375,
     6.0,
     5.0,
     0.0,
     0.0,
     0.0,
     0.0,
     0.0,
     0.0,
     0.0,
     0.0
    ],
    "value": [
     336.614563,
     290.154877,
     271.884827,
     301.356628,
     140.249847,
     424.814575,
     302.790161,
     0.650089681,
     0.0390643664,
     0.308006018,
     1.16644311,
     -0.305585206,
     0.501183689,
     0.0648351759,
     -0.108237892
    ],
    "children_left": [
     1,
     3,
     5,
     7,
     9,
     11,
     13,
     -1,
     -1,
     -1,
     -1,
     -1,
     -1,
     -1,
     -1
    ],
    "children_right": [
     2,
     4,
     6,
     8,
     10,
     12,
     14,
     -1,
     -1,
     -1,
     -1,
     -1,
     -1,
     -1,
     -1
    ]
   }
  ],
  [
   {
    "feature": [
     3,
     0,
     4,
     2,
     4,
     2,
     0,
     -2,
     -2,
     -2,
     -2,
     -2,
     -2,
     -2,
     -2
    ],
    "threshold": [
     196.0,
     7.0,
     38.0,
     -55.421875,
     135.0,
     361.445312,
     6.0,
     0.0,
     0.0,
     0.0,
     0.0,
     0.0,
     0.0,
     0.0,
     0.0
    ],
    "value": [
     299.413452,
     290.53653,
     27.8745117,
     226.779358,
     28.7954407,
     27.6290627,
     23.7462158,
     -0.0787189826,
     0.0531514548,
     0.662437022,
     3.61076188,
     -0.155917227,
     -1.1420629,
     -0.903904021,
     0.386695057
    ],
    "children_left": [
     1,
     3,
     5,
     7,
     9,
     11,
     13,
     -1,
     -1,
     -1,
     -1,
     -1,
     -1,
     -1,
     -1
    ],
    "children_right": [
     2,
     4,
     6,
     8,
     10,
     12,
     14,
     -1,
     -1,
     -1,
     -1,
     -1,
     -1,
     -1,
     -1
    ]
   }
  ],
  [
   {
    "feature": [
     2,
     4,
     4,
     2,
     2,
     5,
     4,
     -2,
     -2,
     -2,
     -2,
     -2,
     -2,
     -2,
     -2
    ],
    "threshold": [
     51.9375,
     65.0,
     55.0,
     -51.75,
     -51.75,
     2.0,
     112.0,
     0.0,
     0.0,
     0.0,
     0.0,
     0.0,
     0.0,
     0.0,
     0.0
    ],
    "value": [
     285.999268,
     250.688385,
     1235.98779,
     313.570374,
     895.63324,
     123.099899,
     172.257202,
     0.0505238399,
     -0.239226744,
     -0.409076571,
     0.293654203,
     0.0600226074,
     -0.152119145,
     -0.681134224,
     0.0411035568
    ],
    "children_left": [
     1,
     3,
     5,
     7,
     9,
     11,
     13,
     -1,
     -1,
     -1,
     -1,
     -1,
     -1,
     -1,
     -1
    ],
    "children_right": [
     2,
     4,
     6,
     8,
     10,
     12,
     14,
     -1,
     -1,
     -1,
     -1,
     -1,
     -1,
     -1,
     -1
    ]
   }
  ],
  [
   {
    "feature": [
     1,
     4,
     2,
     2,
     2,
     3,
     0,
     -2,
     -2,
     -2,
     -2,
     -2,
     -2,
     -2,
     -2
    ],
    "threshold": [
     428.625,
     71.0,
     -320.21875,
     -275.601562,
     -214.546875,
     3.0,
     6.0,
     0.0,
     0.0,
     0.0,
     0.0,
     0.0,
     0.0,
     0.0,
     0.0
    ],
    "value": [
     185.209152,
     158.258911,
     65.5904388,
     134.597321,
     195.905197,
     16.8399372,
     49.1107483,
     -0.157976076,
     0.0447915681,
     0.48672846,
     -0.145726413,
     -0.278801233,
     2.00621867,
     -0.744401336,
     0.852758229
    ],
    "children_left": [
     1,
     3,
     5,
     7,
     9,
     11,
     13,
     -1,
     -1,
     -1,
     -1,
     -1,
     -1,
     -1,
     -1
    ],
    "children_right": [
     2,
     4,
     6,
     8,
     10,
     12,
     14,
     -1,
     -1,
     -1,
     -1,
     -1,
     -1,
     -1,
     -1
    ]
   }
  ],
  [
   {
    "feature": [
     4,
     1,
     2,
     2,
     5,
     2,
     2,
     -2,
     -2,
     -2,
     -2,
     -2,
     -2,
     -2,
     -2
    ],
    "threshold": [
     255.0,
     142.875,
     -65.421875,
     128.648438,
     2.0,
     -263.265625,
     128.648438,
     0.0,
     0.0,
     0.0,
     0.0,
     0.0,
     0.0,
     0.0,
     0.0
    ],
    "value": [
     123.454819,
     96.8204041,
     22.3281021,
     102.524223,
     143.773132,
     33.3243256,
     24.9402313,
     0.0505363345,
     -0.0601459928,
     -0.0208956338,
     -0.297761708,
     -0.449027032,
     1.02179265,
     -0.762856543,
     -0.104641758
    ],
    "children_left": [
     1,
     3,
     5,
     7,
     9,
     11,
     13,
     -1,
     -1,
     -1,
     -1,
     -1,
     -1,
     -1,
     -1
    ],
    "children_right": [
     2,
     4,
     6,
     8,
     10,
     12,
     14,
     -1,
     -1,
     -1,
     -1,
     -1,
     -1,
     -1,
     -1
    ]
   }
  ],
  [
   {
    "feature": [
     2,
     2,
     0,
     3,
     0,
     2,
     2,
     -2,
     -2,
     -2,
     -2,
     -2,
     -2,
     -2,
     -2
    ],
    "threshold": [
     178.820312,
     126.3125,
     5.0,
     33.0,
     6.0,
     361.445312,
     254.242188,
     0.0,
     0.0,
     0.0,
     0.0,
     0.0,
     0.0,
     0.0,
     0.0
    ],
    "value": [
     145.126389,
     188.17038,
     145.089355,
     132.668427,
     230.560532,
     428.911255,
     245.338654,
     -0.0301862601,
     0.114214592,
     -0.339188963,
     0.198342204,
     0.350432009,
     -0.437521845,
     0.174659342,
     -0.325180352
    ],
    "children_left": [
     1,
     3,
     5,
     7,
     9,
     11,
     13,
     -1,
     -1,
     -1,
     -1,
     -1,
     -1,
     -1,
     -1
    ],
    "children_right": [
     2,
     4,
     6,
     8,
     10,
     12,
     14,
     -1,
     -1,
     -1,
     -1,
     -1,
     -1,
     -1,
     -1
    ]
   }
  ],
  [
   {
    "feature": [
     3,
     2,
     5,
     4,
     0,
     0,
     2,
     -2,
     -2,
     -2,
     -2,
     -2,
     -2,
     -2,
     -2
    ],
    "threshold": [
     20.0,
     361.445312,
     2.0,
     21.0,
     5.0,
     5.0,
     156.25,
     0.0,
     0.0,
     0.0,
     0.0,
     0.0,
     0.0,
     0.0,
     0.0
    ],
    "value": [
     230.265747,
     268.386444,
     334.580811,
     129.237457,
     99.963562,
     110.057587,
     65.5541382,
     -0.0882239267,
     0.0605845079,
     0.31621924,
     0.993578911,
     0.0435227044,
     -0.121770553,
     -0.310819179,
     -0.668500483
    ],
    "children_left": [
     1,
     3,
     5,
     7,
     9,
     11,
     13,
     -1,
     -1,
     -1,
     -1,
     -1,
     -1,
     -1,
     -1
    ],
    "children_right": [
     2,
     4,
     6,
     8,
     10,
     12,
     14,
     -1,
     -1,
     -1,
     -1,
     -1,
     -1,
     -1,
     -1
    ]
   }
  ],
  [
   {
    "feature": [
     3,
     2,
     2,
     3,
     0,
     2,
     2,
     -2,
     -2,
     -2,
     -2,
     -2,
     -2,
     -2,
     -2
    ],
    "threshold": [
     255.0,
     -388.578125,
     88.765625,
     4.0,
     6.0,
     -94.953125,
     361.445312,
     0.0,
     0.0,
     0.0,
     0.0,
     0.0,
     0.0,
     0.0,
     0.0
    ],
    "value": [
     81.7814407,
     81.8816605,
     9.75937653,
     46.2432632,
     75.0414886,
     14.9086151,
     12.3153753,
     1.00443852,
     0.185933262,
     -0.0148735866,
     0.0967090875,
     -0.197474778,
     -0.826973855,
     0.293334633,
     -0.83979857
    ],
    "children_left": [
     1,
     3,
     5,
     7,
     9,
     11,
     13,
     -1,
     -1,
     -1,
     -1,
     -1,
     -1,
     -1,
     -1
    ],
    "children_right": [
     2,
     4,
     6,
     8,
     10,
     12,
     14,
     -1,
     -1,
     -1,
     -1,
     -1,
     -1,
     -1,
     -1
    ]
   }
  ],
  [
   {
    "feature": [
     1,
     1,
     1,
     2,
     1,
     2,
     2,
     -2,
     -2,
     -2,
     -2,
     -2,
     -2,
     -2,
     -2
    ],
    "threshold": [
     296.75,
     -466.375,
     350.375,
     314.960938,
     -289.0,
     314.960938,
     -231.328125,
     0.0,
     0.0,
     0.0,
     0.0,
     0.0,
     0.0,
     0.0,
     0.0
    ],
    "value": [
     65.7356262,
     64.1497574,
     146.958847,
     26.6816559,
     73.80513,
     30.4880219,
     72.9433289,
     -0.666144311,
     1.75356746,
     0.16945599,
     -0.0127525497,
     0.470499277,
     -0.694824994,
     0.599010229,
     -0.158737957
    ],
    "children_left": [
     1,
     3,
     5,
     7,
     9,
     11,
     13,
     -1,
     -1,
     -1,
     -1,
     -1,
     -1,
     -1,
     -1
    ],
    "children_right": [
     2,
     4,
     6,
     8,
     10,
     12,
     14,
     -1,
     -1,
     -1,
     -1,
     -1,
     -1,
     -1,
     -1
    ]
   }
  ],
  [
   {
    "feature": [
     1,
     2,
     1,
     3,
     2,
     2,
     3,
     -2,
     -2,
     -2,
     -2,
     -2,
     -2,
     -2,
     -2
    ],
    "threshold": [
     -79.875,
     -159.546875,
     42.125,
     6.0,
     -86.375,
     -275.601562,
     54.0,
     0.0,
     0.0,
     0.0,
     0.0,
     0.0,
     0.0,
     0.0,
     0.0
    ],
    "value": [
     62.0765457,
     110.34433,
     82.4312134,
     118.211395,
     133.758881,
     137.239655,
     51.9675293,
     0.439726114,
     -0.00481676729,
     -0.309820831,
     -0.0445866771,
     -0.248112246,
     0.102461457,
     -0.00415000599,
     -0.187916934
    ],
    "children_left": [
     1,
     3,
     5,
     7,
     9,
     11,
     13,
     -1,
     -1,
     -1,
     -1,
     -1,
     -1,
     -1,
     -1
    ],
    "children_right": [
     2,
     4,
     6,
     8,
     10,
     12,
     14,
     -1,
     -1,
     -1,
     -1,
     -1,
     -1,
     -1,
     -1
    ]
   }
  ],
  [
   {
    "feature": [
     3,
     3,
     2,
     2,
     4,
     2,
     2,
     -2,
     -2,
     -2,
     -2,
     -2,
     -2,
     -2,
     -2
    ],
    "threshold": [
     33.0,
     25.0,
     244.117188,
     283.820312,
     34.0,
     38.65625,
     361.445312,
     0.0,
     0.0,
     0.0,
     0.0,
     0.0,
     0.0,
     0.0,
     0.0
    ],
    "value": [
     97.2233505,
     122.636002,
     129.141418,
     41.6577377,
     152.088547,
     208.825653,
     356.038788,
     0.00786892883,
     -0.117918387,
     -0.418662667,
     -0.0472749248,
     0.157486632,
     -0.181275144,
     0.996720672,
     -0.567794383
    ],
    "children_left": [
     1,
     3,
     5,
     7,
     9,
     11,
     13,
     -1,
     -1,
     -1,
     -1,
     -1,
     -1,
     -1,
     -1
    ],
    "children_right": [
     2,
     4,
     6,
     8,
     10,
     12,
     14,
     -1,
     -1,
     -1,
     -1,
     -1,
     -1,
     -1,
     -1
    ]
   }
  ],
  [
   {
    "feature": [
     3,
     2,
     4,
     4,
     1,
     3,
     2,
     -2,
     -2,
     -2,
     -2,
     -2,
     -2,
     -2,
     -2
    ],
    "threshold": [
     54.0,
     387.984375,
     25.0,
     65.0,
     -68.0,
     93.0,
     161.382812,
     0.0,
     0.0,
     0.0,
     0.0,
     0.0,
     0.0,
     0.0,
     0.0
    ],
    "value": [
     83.0753174,
     49.3555336,
     95.5167923,
     39.3565445,
     29.9716263,
     70.1585388,
     17.3083954,
     -0.0109335622,
     0.0533031151,
     0.22383976,
     0.988231599,
     -0.0210724305,
     0.618058205,
     -0.191974655,
     -0.412346303
    ],
    "children_left": [
     1,
     3,
     5,
     7,
     9,
     11,
     13,
     -1,
     -1,
     -1,
     -1,
     -1,
     -1,
     -1,
     -1
    ],
    "children_right": [
     2,
     4,
     6,
     8,
     10,
     12,
     14,
     -1,
     -1,
     -1,
     -1,
     -1,
     -1,
     -1,
     -1
    ]
   }
  ],
  [
   {
    "feature": [
     4,
     3,
     4,
     0,
     3,
     2,
     3,
     -2,
     -2,
     -2,
     -2,
     -2,
     -2,
     -2,
     -2
    ],
    "threshold": [
     77.0,
     11.0,
     98.0,
     5.0,
     13.0,
     -61.3203125,
     10.0,
     0.0,
     0.0,
     0.0,
     0.0,
     0.0,
     0.0,
     0.0,
     0.0
    ],
    "value": [
     48.5217781,
     43.1139832,
     78.478714,
     121.338737,
     125.266708,
     164.961456,
     85.2318268,
     -0.0637965798,
     0.0984487906,
     0.26075545,
     0.016193334,
     -0.617374718,
     -0.0761880577,
     0.415200144,
     -0.043077521
    ],
    "children_left": [
     1,
     3,
     5,
     7,
     9,
     11,
     13,
     -1,
     -1,
     -1,
     -1,
     -1,
     -1,
     -1,
     -1
    ],
    "children_right": [
     2,
     4,
     6,
     8,
     10,
     12,
     14,
     -1,
     -1,
     -1,
     -1,
     -1,
     -1,
     -1,
     -1
    ]
   }
  ],
  [
   {
    "feature": [
     4,
     0,
     0,
     3,
     4,
     2,
     3,
     -2,
     -2,
     -2,
     -2,
     -2,
     -2,
     -2,
     -2
    ],
    "threshold": [
     255.0,
     7.0,
     5.0,
     6.0,
     50.0,
     60.875,
     34.0,
     0.0,
     0.0,
     0.0,
     0.0,
     0.0,
     0.0,
     0.0,
     0.0
    ],
    "value": [
     45.0198669,
     29.8013592,
     13.3951225,
     30.6817799,
     79.2826462,
     8.31163788,
     14.9296055,
     0.0380011015,
     -0.0146600092,
     -0.280957997,
     0.643473804,
     -0.5094257,
     -0.130703092,
     1.28905725,
     -0.566294551
    ],
    "children_left": [
     1,
     3,
     5,
     7,
     9,
     11,
     13,
     -1,
     -1,
     -1,
     -1,
     -1,
     -1,
     -1,
     -1
    ],
    "children_right": [
     2,
     4,
     6,
     8,
     10,
     12,
     14,
     -1,
     -1,
     -1,
     -1,
     -1,
     -1,
     -1,
     -1
    ]
   }
  ],
  [
   {
    "feature": [
     3,
     4,
     2,
     0,
     1,
     0,
     2,
     -2,
     -2,
     -2,
     -2,
     -2,
     -2,
     -2,
     -2
    ],
    "threshold": [
     20.0,
     33.0,
     -39.8125,
     6.0,
     -228.25,
     6.0,
     91.7265625,
     0.0,
     0.0,
     0.0,
     0.0,
     0.0,
     0.0,
     0.0,
     0.0
    ],
    "value": [
     27.0431061,
     59.5455246,
     110.865059,
     109.31295,
     64.8817902,
     105.372879,
     73.4960632,
     0.0487219729,
     -0.306449205,
     -0.226811066,
     -0.034046445,
     -0.122076817,
     0.192825705,
     0.159647554,
     9.66449879e-05
    ],
    "children_left": [
     1,
     3,
     5,
     7,
     9,
     11,
     13,
     -1,
     -1,
     -1,
     -1,
     -1,
     -1,
     -1,
     -1
    ],
    "children_right": [
     2,
     4,
     6,
     8,
     10,
     12,
     14,
     -1,
     -1,
     -1,
     -1,
     -1,
     -1,
     -1,
     -1
    ]
   }
  ],
  [
   {
    "feature": [
     1,
     2,
     2,
     4,
     5,
     2,
     0,
     -2,
     -2,
     -2,
     -2,
     -2,
     -2,
     -2,
     -2
    ],
    "threshold": [
     -136.375,
     -369.554688,
     283.820312,
     69.0,
     3.0,
     74.0,
     5.0,
     0.0,
     0.0,
     0.0,
     0.0,
     0.0,
     0.0,
     0.0,
     0.0
    ],
    "value": [
     45.7748795,
     52.3877411,
     27.4871731,
     12.1396027,
     47.7980042,
     37.8881798,
     67.9234848,
     1.27031469,
     -0.266035229,
     0.0607615001,
     -0.478143036,
     -0.0260407608,
     0.0422907509,
     0.000624758599,
     -0.32100606
    ],
    "children_left": [
     1,
     3,
     5,
     7,
     9,
     11,
     13,
     -1,
     -1,
     -1,
     -1,
     -1,
     -1,
     -1,
     -1
    ],
    "children_right": [
     2,
     4,
     6,
     8,
     10,
     12,
     14,
     -1,
     -1,
     -1,
     -1,
     -1,
     -1,
     -1,
     -1
    ]
   }
  ],
  [
   {
    "feature": [
     2,
     1,
     2,
     3,
     1,
     0,
     5,
     -2,
     -2,
     -2,
     -2,
     -2,
     -2,
     -2,
     -2
    ],
    "threshold": [
     -170.984375,
     -212.125,
     -144.851562,
     3.0,
     -113.25,
     6.0,
     1.0,
     0.0,
     0.0,
     0.0,
     0.0,
     0.0,
     0.0,
     0.0,
     0.0
    ],
    "value": [
     42.6583443,
     58.5689163,
     129.240417,
     63.9905853,
     92.0342255,
     88.05159,
     64.1527176,
     -0.403218091,
     0.457412183,
     -0.220680416,
     0.0801656395,
     -0.376491129,
     0.125802323,
     -0.048448842,
     0.0298403073
    ],
    "children_left": [
     1,
     3,
     5,
     7,
     9,
     11,
     13,
     -1,
     -1,
     -1,
     -1,
     -1,
     -1,
     -1,
     -1
    ],
    "children_right": [
     2,
     4,
     6,
     8,
     10,
     12,
     14,
     -1,
     -1,
     -1,
     -1,
     -1,
     -1,
     -1,
     -1
    ]
   }
  ],
  [
   {
    "feature": [
     2,
     4,
     2,
     2,
     4,
     4,
     4,
     -2,
     -2,
     -2,
     -2,
     -2,
     -2,
     -2,
     -2
    ],
    "threshold": [
     -72.234375,
     50.0,
     -65.421875,
     -86.375,
     65.0,
     46.0,
     39.0,
     0.0,
     0.0,
     0.0,
     0.0,
     0.0,
     0.0,
     0.0,
     0.0
    ],
    "value": [
     27.5587711,
     138.900467,
     66.0820847,
     110.405823,
     145.295898,
     199.246429,
     65.1578369,
     0.0517859422,
     0.39124012,
     -0.320457935,
     0.0770023242,
     -0.00148214924,
     -1.21763933,
     -0.0610734075,
     0.0246812683
    ],
    "children_left": [
     1,
     3,
     5,
     7,
     9,
     11,
     13,
     -1,
     -1,
     -1,
     -1,
     -1,
     -1,
     -1,
     -1
    ],
    "children_right": [
     2,
     4,
     6,
     8,
     10,
     12,
     14,
     -1,
     -1,
     -1,
     -1,
     -1,
     -1,
     -1,
     -1
    ]
   }
  ],
  [
   {
    "feature": [
     2,
     4,
     1,
     3,
     4,
     4,
     4,
     -2,
     -2,
     -2,
     -2,
     -2,
     -2,
     -2,
     -2
    ],
    "threshold": [
     308.40625,
     10.0,
     181.75,
     4.0,
     67.0,
     7.0,
     87.0,
     0.0,
     0.0,
     0.0,
     0.0,
     0.0,
     0.0,
     0.0,
     0.0
    ],
    "value": [
     46.674511,
     39.4469528,
     47.2057114,
     74.9075775,
     38.1974258,
     42.830658,
     39.112381,
     0.17942591,
     -0.329703569,
     0.012853357,
     -0.0525627322,
     0.496057272,
     0.0436297916,
     0.658755958,
     -0.521490037
    ],
    "children_left": [
     1,
     3,
     5,
     7,
     9,
     11,
     13,
     -1,
     -1,
     -1,
     -1,
     -1,
     -1,
     -1,
     -1
    ],
    "children_right": [
     2,
     4,
     6,
     8,
     10,
     12,
     14,
     -1,
     -1,
     -1,
     -1,
     -1,
     -1,
     -1,
     -1
    ]
   }
  ],
  [
   {
    "feature": [
     1,
     1,
     4,
     2,
     4,
     1,
     0,
     -2,
     -2,
     -2,
     -2,
     -2,
     -2,
     -2,
     -2
    ],
    "threshold": [
     185.125,
     98.875,
     45.0,
     -388.578125,
     77.0,
     243.125,
     5.0,
     0.0,
     0.0,
     0.0,
     0.0,
     0.0,
     0.0,
     0.0,
     0.0
    ],
    "value": [
     28.0955276,
     25.690979,
     42.8588791,
     35.5821915,
     29.9039726,
     41.4266434,
     43.2428894,
     0.719522715,
     -0.0027136025,
     0.0861246958,
     -0.0999339521,
     -0.233752757,
     -0.0329825096,
     -0.058431156,
     0.18424058
    ],
    "children_left": [
     1,
     3,
     5,
     7,
     9,
     11,
     13,
     -1,
     -1,
     -1,
     -1,
     -1,
     -1,
     -1,
     -1
    ],
    "children_right": [
     2,
     4,
     6,
     8,
     10,
     12,
     14,
     -1,
     -1,
     -1,
     -1,
     -1,
     -1,
     -1,
     -1
    ]
   }
  ],
  [
   {
    "feature": [
     3,
     3,
     0,
     5,
     5,
     5,
     1,
     -2,
     -2,
     -2,
     -2,
     -2,
     -2,
     -2,
     -2
    ],
    "threshold": [
     251.0,
     5.0,
     5.0,
     2.0,
     1.0,
     2.0,
     -79.875,
     0.0,
     0.0,
     0.0,
     0.0,
     0.0,
     0.0,
     0.0,
     0.0
    ],
    "value": [
     26.0362949,
     20.1536617,
     11.6671295,
     129.133591,
     74.8241959,
     3.08950806,
     5.01931381,
     -0.0967810377,
     0.129180938,
     0.0627894253,
     -0.0229916293,
     -0.519726455,
     -0.166371837,
     -0.276217252,
     0.883222938
    ],
    "children_left": [
     1,
     3,
     5,
     7,
     9,
     11,
     13,
     -1,
     -1,
     -1,
     -1,
     -1,
     -1,
     -1,
     -1
    ],
    "children_right": [
     2,
     4,
     6,
     8,
     10,
     12,
     14,
     -1,
     -1,
     -1,
     -1,
     -1,
     -1,
     -1,
     -1
    ]
   }
  ],
  [
   {
    "feature": [
     1,
     0,
     1,
     2,
     3,
     0,
     1,
     -2,
     -2,
     -2,
     -2,
     -2,
     -2,
     -2,
     -2
    ],
    "threshold": [
     -427.75,
     6.0,
     -289.0,
     -221.148438,
     52.0,
     5.0,
     -252.375,
     0.0,
     0.0,
     0.0,
     0.0,
     0.0,
     0.0,
     0.0,
     0.0
    ],
    "value": [
     18.8160648,
     40.8173828,
     17.0074062,
     35.7157974,
     16.5126286,
     123.948029,
     34.8992538,
     0.959311426,
     -0.423846573,
     1.44115281,
     -0.948606849,
     -0.0790786818,
     0.436350137,
     -0.166649967,
     0.0018934356
    ],
    "children_left": [
     1,
     3,
     5,
     7,
     9,
     11,
     13,
     -1,
     -1,
     -1,
     -1,
     -1,
     -1,
     -1,
     -1
    ],
    "children_right": [
     2,
     4,
     6,
     8,
     10,
     12,
     14,
     -1,
     -1,
     -1,
     -1,
     -1,
     -1,
     -1,
     -1
    ]
   }
  ],
  [
   {
    "feature": [
     0,
     3,
     3,
     3,
     2,
     3,
     2,
     -2,
     -2,
     -2,
     -2,
     -2,
     -2,
     -2,
     -2
    ],
    "threshold": [
     5.0,
     69.0,
     72.0,
     42.0,
     88.765625,
     43.0,
     -86.375,
     0.0,
     0.0,
     0.0,
     0.0,
     0.0,
     0.0,
     0.0,
     0.0
    ],
    "value": [
     20.8763943,
     46.5182457,
     227.869949,
     70.2059021,
     105.776787,
     206.134399,
     128.680771,
     0.0102414377,
     0.189337358,
     -0.280866295,
     0.281529069,
     -0.00981683284,
     -0.38696453,
     2.53640628,
     0.554318547
    ],
    "children_left": [
     1,
     3,
     5,
     7,
     9,
     11,
     13,
     -1,
     -1,
     -1,
     -1,
     -1,
     -1,
     -1,
     -1
    ],
    "children_right": [
     2,
     4,
     6,
     8,
     10,
     12,
     14,
     -1,
     -1,
     -1,
     -1,
     -1,
     -1,
     -1,
     -1
    ]
   }
  ],
  [
   {
    "feature": [
     3,
     4,
     0,
     2,
     2,
     2,
     2,
     -2,
     -2,
     -2,
     -2,
     -2,
     -2,
     -2,
     -2
    ],
    "threshold": [
     66.0,
     56.0,
     5.0,
     -281.695312,
     -55.421875,
     -86.375,
     -192.632812,
     0.0,
     0.0,
     0.0,
     0.0,
     0.0,
     0.0,
     0.0,
     0.0
    ],
    "value": [
     38.1300087,
     36.6624069,
     43.2918243,
     45.8429413,
     38.3872261,
     105.364044,
     81.9794769,
     -0.138098687,
     -0.00529758167,
     -0.0635096133,
     0.0631000102,
     0.367926955,
     -0.183665812,
     -1.04663146,
     -0.171804264
    ],
    "children_left": [
     1,
     3,
     5,
     7,
     9,
     11,
     13,
     -1,
     -1,
     -1,
     -1,
     -1,
     -1,
     -1,
     -1
    ],
    "children_right": [
     2,
     4,
     6,
     8,
     10,
     12,
     14,
     -1,
     -1,
     -1,
     -1,
     -1,
     -1,
     -1,
     -1
    ]
   }
  ],
  [
   {
    "feature": [
     2,
     3,
     2,
     4,
     3,
     5,
     2,
     -2,
     -2,
     -2,
     -2,
     -2,
     -2,
     -2,
     -2
    ],
    "threshold": [
     -320.21875,
     8.0,
     -281.695312,
     49.0,
     35.0,
     2.0,
     -117.625,
     0.0,
     0.0,
     0.0,
     0.0,
     0.0,
     0.0,
     0.0,
     0.0
    ],
    "value": [
     52.83424,
     92.7914276,
     21.0796356,
     82.0580902,
     124.742043,
     108.399918,
     35.5878754,
     0.203298792,
     0.842904687,
     -0.297581941,
     0.422499627,
     -0.253432721,
     0.465102702,
     0.0487393402,
     -0.0173367262
    ],
    "children_left": [
     1,
     3,
     5,
     7,
     9,
     11,
     13,
     -1,
     -1,
     -1,
     -1,
     -1,
     -1,
     -1,
     -1
    ],
    "children_right": [
     2,
     4,
     6,
     8,
     10,
     12,
     14,
     -1,
     -1,
     -1,
     -1,
     -1,
     -1,
     -1,
     -1
    ]
   }
  ],
  [
   {
    "feature": [
     2,
     3,
     2,
     3,
     4,
     4,
     3,
     -2,
     -2,
     -2,
     -2,
     -2,
     -2,
     -2,
     -2
    ],
    "threshold": [
     74.0,
     82.0,
     85.8828125,
     34.0,
     68.0,
     46.0,
     28.0,
     0.0,
     0.0,
     0.0,
     0.0,
     0.0,
     0.0,
     0.0,
     0.0
    ],
    "value": [
     27.4049339,
     49.4992409,
     131.468765,
     73.8378143,
     30.7843857,
     187.916565,
     45.2551498,
     -0.0298909768,
     0.0920033157,
     -0.114024967,
     -0.483637929,
     0.626260996,
     -0.468482077,
     0.0363471806,
     -0.093558684
    ],
    "children_left": [
     1,
     3,
     5,
     7,
     9,
     11,
     13,
     -1,
     -1,
     -1,
     -1,
     -1,
     -1,
     -1,
     -1
    ],
    "children_right": [
     2,
     4,
     6,
     8,
     10,
     12,
     14,
     -1,
     -1,
     -1,
     -1,
     -1,
     -1,
     -1,
     -1
    ]
   }
  ],
  [
   {
    "feature": [
     5,
     4,
     2,
     2,
     2,
     2,
     2,
     -2,
     -2,
     -2,
     -2,
     -2,
     -2,
     -2,
     -2
    ],
    "threshold": [
     2.0,
     50.0,
     175.65625,
     -48.1875,
     53.6328125,
     91.7265625,
     239.851562,
     0.0,
     0.0,
     0.0,
     0.0,
     0.0,
     0.0,
     0.0,
     0.0
    ],
    "value": [
     21.2398548,
     25.6767178,
     62.856472,
     40.0307083,
     32.7690125,
     111.375778,
     147.92395,
     0.032629896,
     -0.0429651774,
     0.067074962,
     -0.0396628603,
     -0.0379759669,
     0.370061815,
     -0.463434964,
     0.101109102
    ],
    "children_left": [
     1,
     3,
     5,
     7,
     9,
     11,
     13,
     -1,
     -1,
     -1,
     -1,
     -1,
     -1,
     -1,
     -1
    ],
    "children_right": [
     2,
     4,
     6,
     8,
     10,
     12,
     14,
     -1,
     -1,
     -1,
     -1,
     -1,
     -1,
     -1,
     -1
    ]
   }
  ],
  [
   {
    "feature": [
     2,
     2,
     2,
     5,
     1,
     3,
     5,
     -2,
     -2,
     -2,
     -2,
     -2,
     -2,
     -2,
     -2
    ],
    "threshold": [
     109.90625,
     105.0625,
     116.65625,
     1.0,
     83.25,
     10.0,
     1.0,
     0.0,
     0.0,
     0.0,
     0.0,
     0.0,
     0.0,
     0.0,
     0.0
    ],
    "value": [
     85.4070511,
     73.059166,
     45.1676483,
     38.901329,
     100.376411,
     39.698494,
     31.1231422,
     -0.0625598505,
     0.00308445562,
     -0.061048083,
     -1.01000154,
     0.573485017,
     0.102415554,
     0.101041563,
     0.00801042933
    ],
    "children_left": [
     1,
     3,
     5,
     7,
     9,
     11,
     13,
     -1,
     -1,
     -1,
     -1,
     -1,
     -1,
     -1,
     -1
    ],
    "children_right": [
     2,
     4,
     6,
     8,
     10,
     12,
     14,
     -1,
     -1,
     -1,
     -1,
     -1,
     -1,
     -1,
     -1
    ]
   }
  ],
  [
   {
    "feature": [
     3,
     4,
     2,
     3,
     4,
     2,
     2,
     -2,
     -2,
     -2,
     -2,
     -2,
     -2,
     -2,
     -2
    ],
    "threshold": [
     113.0,
     3.0,
     -327.242188,
     6.0,
     7.0,
     -354.6875,
     335.492188,
     0.0,
     0.0,
     0.0,
     0.0,
     0.0,
     0.0,
     0.0,
     0.0
    ],
    "value": [
     16.7798653,
     14.1344585,
     51.1108704,
     10.10923,
     21.3874779,
     4.42810059,
     22.039917,
     0.175946921,
     -1.06478882,
     0.182808474,
     -0.00352187455,
     -0.72367084,
     -0.255210906,
     0.367418349,
     -0.348647237
    ],
    "children_left": [
     1,
     3,
     5,
     7,
     9,
     11,
     13,
     -1,
     -1,
     -1,
     -1,
     -1,
     -1,
     -1,
     -1
    ],
    "children_right": [
     2,
     4,
     6,
     8,
     10,
     12,
     14,
     -1,
     -1,
     -1,
     -1,
     -1,
     -1,
     -1,
     -1
    ]
   }
  ],
  [
   {
    "feature": [
     4,
     2,
     1,
     1,
     2,
     0,
     1,
     -2,
     -2,
     -2,
     -2,
     -2,
     -2,
     -2,
     -2
    ],
    "threshold": [
     9.0,
     -300.375,
     -321.625,
     85.25,
     369.953125,
     6.0,
     -295.875,
     0.0,
     0.0,
     0.0,
     0.0,
     0.0,
     0.0,
     0.0,
     0.0
    ],
    "value": [
     18.3081379,
     66.6440811,
     15.7950706,
     36.7810249,
     27.4504547,
     85.0278091,
     37.0337944,
     0.568408728,
     -0.162051097,
     -0.202502191,
     -0.77487582,
     -0.170265958,
     0.694576204,
     0.279669285,
     0.00218652398
    ],
    "children_left": [
     1,
     3,
     5,
     7,
     9,
     11,
     13,
     -1,
     -1,
     -1,
     -1,
     -1,
     -1,
     -1,
     -1
    ],
    "children_right": [
     2,
     4,
     6,
     8,
     10,
     12,
     14,
     -1,
     -1,
     -1,
     -1,
     -1,
     -1,
     -1,
     -1
    ]
   }
  ],
  [
   {
    "feature": [
     2,
     2,
     2,
     2,
     3,
     4,
     1,
     -2,
     -2,
     -2,
     -2,
     -2,
     -2,
     -2,
     -2
    ],
    "threshold": [
     207.351562,
     195.539062,
     239.851562,
     169.679688,
     19.0,
     128.0,
     -274.875,
     0.0,
     0.0,
     0.0,
     0.0,
     0.0,
     0.0,
     0.0,
     0.0
    ],
    "value": [
     16.5291786,
     54.4488068,
     73.4212494,
     25.9672546,
     38.7527428,
     78.2252808,
     55.7906227,
     -0.00670974376,
     0.123528063,
     -0.400495231,
     0.0597702786,
     0.191304103,
     2.16649842,
     0.411416948,
     -0.0361270458
    ],
    "children_left": [
     1,
     3,
     5,
     7,
     9,
     11,
     13,
     -1,
     -1,
     -1,
     -1,
     -1,
     -1,
     -1,
     -1
    ],
    "children_right": [
     2,
     4,
     6,
     8,
     10,
     12,
     14,
     -1,
     -1,
     -1,
     -1,
     -1,
     -1,
     -1,
     -1
    ]
   }
  ],
  [
   {
    "feature": [
     4,
     4,
     3,
     4,
     3,
     5,
     0,
     -2,
     -2,
     -2,
     -2,
     -2,
     -2,
     -2,
     -2
    ],
    "threshold": [
     67.0,
     65.0,
     3.0,
     59.0,
     12.0,
     1.0,
     6.0,
     0.0,
     0.0,
     0.0,
     0.0,
     0.0,
     0.0,
     0.0,
     0.0
    ],
    "value": [
     22.6611042,
     39.2214203,
     40.8700409,
     26.263586,
     53.0779839,
     78.1736908,
     40.7330017,
     0.00873088371,
     -0.10277728,
     0.351857603,
     0.0143332994,
     -0.792851567,
     -0.0882045627,
     0.00547351828,
     -0.153927445
    ],
    "children_left": [
     1,
     3,
     5,
     7,
     9,
     11,
     13,
     -1,
     -1,
     -1,
     -1,
     -1,
     -1,
     -1,
     -1
    ],
    "children_right": [
     2,
     4,
     6,
     8,
     10,
     12,
     14,
     -1,
     -1,
     -1,
     -1,
     -1,
     -1,
     -1,
     -1
    ]
   }
  ],
  [
   {
    "feature": [
     2,
     4,
     2,
     3,
     4,
     4,
     2,
     -2,
     -2,
     -2,
     -2,
     -2,
     -2,
     -2,
     -2
    ],
    "threshold": [
     1.2265625,
     85.0,
     29.0625,
     39.0,
     86.0,
     44.0,
     53.6328125,
     0.0,
     0.0,
     0.0,
     0.0,
     0.0,
     0.0,
     0.0,
     0.0
    ],
    "value": [
     19.2106838,
     25.3003998,
     54.9434433,
     36.061657,
     31.9824867,
     166.938431,
     44.2995567,
     0.025812557,
     -0.0830752701,
     0.533327281,
     0.0873958021,
     -0.776626229,
     -0.0624001697,
     0.111834228,
     -0.0163245779
    ],
    "children_left": [
     1,
     3,
     5,
     7,
     9,
     11,
     13,
     -1,
     -1,
     -1,
     -1,
     -1,
     -1,
     -1,
     -1
    ],
    "children_right": [
     2,
     4,
     6,
     8,
     10,
     12,
     14,
     -1,
     -1,
     -1,
     -1,
     -1,
     -1,
     -1,
     -1
    ]
   }
  ],
  [
   {
    "feature": [
     4,
     5,
     2,
     2,
     2,
     5,
     3,
     -2,
     -2,
     -2,
     -2,
     -2,
     -2,
     -2,
     -2
    ],
    "threshold": [
     198.0,
     2.0,
     -12.6796875,
     -86.375,
     -217.898438,
     2.0,
     5.0,
     0.0,
     0.0,
     0.0,
     0.0,
     0.0,
     0.0,
     0.0,
     0.0
    ],
    "value": [
     18.7154617,
     17.8881264,
     12.7161694,
     22.4283867,
     58.9824677,
     19.0442219,
     14.9173717,
     -0.0227868874,
     0.0256027225,
     0.178785294,
     -0.0619565956,
     -0.190420389,
     0.599388182,
     0.260078281,
     -0.457111627
    ],
    "children_left": [
     1,
     3,
     5,
     7,
     9,
     11,
     13,
     -1,
     -1,
     -1,
     -1,
     -1,
     -1,
     -1,
     -1
    ],
    "children_right": [
     2,
     4,
     6,
     8,
     10,
     12,
     14,
     -1,
     -1,
     -1,
     -1,
     -1,
     -1,
     -1,
     -1
    ]
   }
  ],
  [
   {
    "feature": [
     1,
     3,
     2,
     3,
     2,
     0,
     4,
     -2,
     -2,
     -2,
     -2,
     -2,
     -2,
     -2,
     -2
    ],
    "threshold": [
     486.375,
     255.0,
     195.539062,
     73.0,
     296.164062,
     5.0,
     29.0,
     0.0,
     0.0,
     0.0,
     0.0,
     0.0,
     0.0,
     0.0,
     0.0
    ],
    "value": [
     12.6937656,
     9.41684723,
     17.7308064,
     12.3893871,
     6.05093575,
     9.73650551,
     3.31096458,
     -0.00212030788,
     0.0843499154,
     -0.323670238,
     0.387552798,
     -0.736701608,
     0.466142386,
     2.24949312,
     0.290332645
    ],
    "children_left": [
     1,
     3,
     5,
     7,
     9,
     11,
     13,
     -1,
     -1,
     -1,
     -1,
     -1,
     -1,
     -1,
     -1
    ],
    "children_right": [
     2,
     4,
     6,
     8,
     10,
     12,
     14,
     -1,
     -1,
     -1,
     -1,
     -1,
     -1,
     -1,
     -1
    ]
   }
  ],
  [
   {
    "feature": [
     5,
     1,
     1,
     2,
     1,
     1,
     2,
     -2,
     -2,
     -2,
     -2,
     -2,
     -2,
     -2,
     -2
    ],
    "threshold": [
     3.0,
     -385.0,
     253.625,
     192.242188,
     -312.875,
     -274.875,
     321.648438,
     0.0,
     0.0,
     0.0,
     0.0,
     0.0,
     0.0,
     0.0,
     0.0
    ],
    "value": [
     9.65746117,
     13.066679,
     33.3838425,
     25.6921005,
     17.0995655,
     38.0934677,
     6.14633179,
     0.062889643,
     0.680602431,
     -0.126463652,
     0.00203036866,
     -0.769747853,
     0.0838532895,
     -0.664695561,
     -2.2158525
    ],
    "children_left": [
     1,
     3,
     5,
     7,
     9,
     11,
     13,
     -1,
     -1,
     -1,
     -1,
     -1,
     -1,
     -1,
     -1
    ],
    "children_right": [
     2,
     4,
     6,
     8,
     10,
     12,
     14,
     -1,
     -1,
     -1,
     -1,
     -1,
     -1,
     -1,
     -1
    ]
   }
  ],
  [
   {
    "feature": [
     2,
     2,
     4,
     4,
     4,
     4,
     2,
     -2,
     -2,
     -2,
     -2,
     -2,
     -2,
     -2,
     -2
    ],
    "threshold": [
     -53.515625,
     -55.421875,
     110.0,
     36.0,
     56.0,
     106.0,
     248.867188,
     0.0,
     0.0,
     0.0,
     0.0,
     0.0,
     0.0,
     0.0,
     0.0
    ],
    "value": [
     8.73683834,
     40.0808105,
     18.239584,
     32.3900757,
     17.6913033,
     28.7758331,
     26.7970371,
     0.0461333655,
     -0.0360223614,
     0.287991494,
     0.986788809,
     -0.00824379735,
     0.418687373,
     -0.21207127,
     0.23348777
    ],
    "children_left": [
     1,
     3,
     5,
     7,
     9,
     11,
     13,
     -1,
     -1,
     -1,
     -1,
     -1,
     -1,
     -1,
     -1
    ],
    "children_right": [
     2,
     4,
     6,
     8,
     10,
     12,
     14,
     -1,
     -1,
     -1,
     -1,
     -1,
     -1,
     -1,
     -1
    ]
   }
  ],
  [
   {
    "feature": [
     4,
     2,
     2,
     2,
     0,
     2,
     1,
     -2,
     -2,
     -2,
     -2,
     -2,
     -2,
     -2,
     -2
    ],
    "threshold": [
     23.0,
     121.523438,
     121.523438,
     -122.3125,
     6.0,
     67.171875,
     -246.875,
     0.0,
     0.0,
     0.0,
     0.0,
     0.0,
     0.0,
     0.0,
     0.0
    ],
    "value": [
     15.2960958,
     89.3149414,
     38.6291962,
     128.802551,
     59.2286453,
     31.7951775,
     39.5952911,
     -0.0306575969,
     -0.364643872,
     0.0980048552,
     -0.3328318,
     0.0123665733,
     0.105152525,
     -0.267703205,
     -0.0295161624
    ],
    "children_left": [
     1,
     3,
     5,
     7,
     9,
     11,
     13,
     -1,
     -1,
     -1,
     -1,
     -1,
     -1,
     -1,
     -1
    ],
    "children_right": [
     2,
     4,
     6,
     8,
     10,
     12,
     14,
     -1,
     -1,
     -1,
     -1,
     -1,
     -1,
     -1,
     -1
    ]
   }
  ],
  [
   {
    "feature": [
     1,
     2,
     1,
     4,
     0,
     0,
     1,
     -2,
     -2,
     -2,
     -2,
     -2,
     -2,
     -2,
     -2
    ],
    "threshold": [
     -187.0,
     -327.242188,
     -183.875,
     124.0,
     6.0,
     5.0,
     5.375,
     0.0,
     0.0,
     0.0,
     0.0,
     0.0,
     0.0,
     0.0,
     0.0
    ],
    "value": [
     15.4842663,
     58.1709023,
     13.8548317,
     14.6985703,
     41.2883911,
     90.1336288,
     11.0175285,
     0.83996737,
     -0.273710668,
     0.00397532573,
     0.251884013,
     0.283589751,
     -1.05565846,
     -0.0225987677,
     0.0081161065
    ],
    "children_left": [
     1,
     3,
     5,
     7,
     9,
     11,
     13,
     -1,
     -1,
     -1,
     -1,
     -1,
     -1,
     -1,
     -1
    ],
    "children_right": [
     2,
     4,
     6,
     8,
     10,
     12,
     14,
     -1,
     -1,
     -1,
     -1,
     -1,
     -1,
     -1,
     -1
    ]
   }
  ],
  [
   {
    "feature": [
     2,
     1,
     4,
     0,
     4,
     4,
     4,
     -2,
     -2,
     -2,
     -2,
     -2,
     -2,
     -2,
     -2
    ],
    "threshold": [
     -341.210938,
     -79.875,
     126.0,
     5.0,
     73.0,
     122.0,
     136.0,
     0.0,
     0.0,
     0.0,
     0.0,
     0.0,
     0.0,
     0.0,
     0.0
    ],
    "value": [
     14.7654295,
     23.9173775,
     10.784236,
     130.805969,
     29.8186569,
     21.378643,
     39.1463013,
     0.0793214962,
     -1.3951869,
     0.0158255845,
     -0.495606065,
     0.00254844013,
     -0.636087,
     0.713514507,
     0.0393362865
    ],
    "children_left": [
     1,
     3,
     5,
     7,
     9,
     11,
     13,
     -1,
     -1,
     -1,
     -1,
     -1,
     -1,
     -1,
     -1
    ],
    "children_right": [
     2,
     4,
     6,
     8,
     10,
     12,
     14,
     -1,
     -1,
     -1,
     -1,
     -1,
     -1,
     -1,
     -1
    ]
   }
  ],
  [
   {
    "feature": [
     1,
     2,
     5,
     2,
     2,
     0,
     0,
     -2,
     -2,
     -2,
     -2,
     -2,
     -2,
     -2,
     -2
    ],
    "threshold": [
     -62.375,
     354.882812,
     1.0,
     283.820312,
     361.445312,
     6.0,
     6.0,
     0.0,
     0.0,
     0.0,
     0.0,
     0.0,
     0.0,
     0.0,
     0.0
    ],
    "value": [
     10.3438549,
     36.2769852,
     15.9801941,
     35.1194839,
     52.2019615,
     66.8904495,
     93.5313568,
     0.0166343637,
     0.216927767,
     -0.800374866,
     -0.0674213991,
     0.0517925881,
     -0.120237447,
     -0.0451385379,
     0.208686948
    ],
    "children_left": [
     1,
     3,
     5,
     7,
     9,
     11,
     13,
     -1,
     -1,
     -1,
     -1,
     -1,
     -1,
     -1,
     -1
    ],
    "children_right": [
     2,
     4,
     6,
     8,
     10,
     12,
     14,
     -1,
     -1,
     -1,
     -1,
     -1,
     -1,
     -1,
     -1
    ]
   }
  ],
  [
   {
    "feature": [
     1,
     2,
     1,
     3,
     3,
     4,
     2,
     -2,
     -2,
     -2,
     -2,
     -2,
     -2,
     -2,
     -2
    ],
    "threshold": [
     -212.125,
     341.820312,
     -197.375,
     12.0,
     16.0,
     54.0,
     24.984375,
     0.0,
     0.0,
     0.0,
     0.0,
     0.0,
     0.0,
     0.0,
     0.0
    ],
    "value": [
     11.7589464,
     17.0039234,
     20.2195377,
     24.0489044,
     18.9479923,
     18.0789986,
     8.48532772,
     -0.124975882,
     0.0132478327,
     0.52467072,
     -0.11618311,
     0.268555909,
     -0.0311999284,
     0.0143610556,
     -0.012317556
    ],
    "children_left": [
     1,
     3,
     5,
     7,
     9,
     11,
     13,
     -1,
     -1,
     -1,
     -1,
     -1,
     -1,
     -1,
     -1
    ],
    "children_right": [
     2,
     4,
     6,
     8,
     10,
     12,
     14,
     -1,
     -1,
     -1,
     -1,
     -1,
     -1,
     -1,
     -1
    ]
   }
  ],
  [
   {
    "feature": [
     2,
     5,
     2,
     0,
     4,
     5,
     5,
     -2,
     -2,
     -2,
     -2,
     -2,
     -2,
     -2,
     -2
    ],
    "threshold": [
     -144.851562,
     1.0,
     -117.625,
     5.0,
     6.0,
     2.0,
     1.0,
     0.0,
     0.0,
     0.0,
     0.0,
     0.0,
     0.0,
     0.0,
     0.0
    ],
    "value": [
     14.9831581,
     78.5119476,
     27.7497349,
     61.7129059,
     35.2555771,
     116.414658,
     19.4230328,
     0.184476644,
     -0.0528885461,
     -1.82432771,
     -0.0965218171,
     0.075794071,
     1.47371125,
     -0.0259392075,
     0.0191004798
    ],
    "children_left": [
     1,
     3,
     5,
     7,
     9,
     11,
     13,
     -1,
     -1,
     -1,
     -1,
     -1,
     -1,
     -1,
     -1
    ],
    "children_right": [
     2,
     4,
     6,
     8,
     10,
     12,
     14,
     -1,
     -1,
     -1,
     -1,
     -1,
     -1,
     -1,
     -1
    ]
   }
  ],
  [
   {
    "feature": [
     0,
     4,
     4,
     4,
     4,
     3,
     3,
     -2,
     -2,
     -2,
     -2,
     -2,
     -2,
     -2,
     -2
    ],
    "threshold": [
     6.0,
     150.0,
     17.0,
     121.0,
     255.0,
     12.0,
     10.0,
     0.0,
     0.0,
     0.0,
     0.0,
     0.0,
     0.0,
     0.0,
     0.0
    ],
    "value": [
     15.9393673,
     22.3921089,
     60.6021423,
     28.8272381,
     27.3337479,
     67.7742004,
     67.0310287,
     -0.00803534687,
     -0.332075059,
     0.345141828,
     -0.0994028151,
     -0.108664945,
     -1.15565407,
     0.237906367,
     0.00539442198
    ],
    "children_left": [
     1,
     3,
     5,
     7,
     9,
     11,
     13,
     -1,
     -1,
     -1,
     -1,
     -1,
     -1,
     -1,
     -1
    ],
    "children_right": [
     2,
     4,
     6,
     8,
     10,
     12,
     14,
     -1,
     -1,
     -1,
     -1,
     -1,
     -1,
     -1,
     -1
    ]
   }
  ],
  [
   {
    "feature": [
     4,
     4,
     0,
     3,
     5,
     0,
     1,
     -2,
     -2,
     -2,
     -2,
     -2,
     -2,
     -2,
     -2
    ],
    "threshold": [
     153.0,
     112.0,
     6.0,
     60.0,
     1.0,
     5.0,
     -200.875,
     0.0,
     0.0,
     0.0,
     0.0,
     0.0,
     0.0,
     0.0,
     0.0
    ],
    "value": [
     15.2063761,
     7.25075054,
     37.6911545,
     8.88570404,
     38.0607033,
     21.5309029,
     14.8278503,
     0.00453754514,
     -0.0509458408,
     0.413853079,
     -0.11295487,
     -0.117930159,
     0.411688536,
     -1.36900902,
     -0.474739999
    ],
    "children_left": [
     1,
     3,
     5,
     7,
     9,
     11,
     13,
     -1,
     -1,
     -1,
     -1,
     -1,
     -1,
     -1,
     -1
    ],
    "children_right": [
     2,
     4,
     6,
     8,
     10,
     12,
     14,
     -1,
     -1,
     -1,
     -1,
     -1,
     -1,
     -1,
     -1
    ]
   }
  ],
  [
   {
    "feature": [
     1,
     2,
     3,
     3,
     4,
     1,
     2,
     -2,
     -2,
     -2,
     -2,
     -2,
     -2,
     -2,
     -2
    ],
    "threshold": [
     -257.5,
     119.046875,
     11.0,
     4.0,
     8.0,
     304.125,
     265.710938,
     0.0,
     0.0,
     0.0,
     0.0,
     0.0,
     0.0,
     0.0,
     0.0
    ],
    "value": [
     6.62246799,
     21.7680988,
     7.55048084,
     24.1353321,
     26.5853958,
     38.5356789,
     44.6722603,
     0.327868402,
     0.0505512916,
     0.925774753,
     -0.110584036,
     -0.0244297646,
     0.185034096,
     0.0190268606,
     -0.137719885
    ],
    "children_left": [
     1,
     3,
     5,
     7,
     9,
     11,
     13,
     -1,
     -1,
     -1,
     -1,
     -1,
     -1,
     -1,
     -1
    ],
    "children_right": [
     2,
     4,
     6,
     8,
     10,
     12,
     14,
     -1,
     -1,
     -1,
     -1,
     -1,
     -1,
     -1,
     -1
    ]
   }
  ],
  [
   {
    "feature": [
     2,
     2,
     4,
     1,
     5,
     2,
     3,
     -2,
     -2,
     -2,
     -2,
     -2,
     -2,
     -2,
     -2
    ],
    "threshold": [
     218.875,
     204.507812,
     11.0,
     271.0,
     1.0,
     302.4375,
     82.0,
     0.0,
     0.0,
     0.0,
     0.0,
     0.0,
     0.0,
     0.0,
     0.0
    ],
    "value": [
     25.8903008,
     22.2505722,
     23.8578739,
     26.8501549,
     51.8059044,
     76.0041962,
     32.7355003,
     0.000688103144,
     -0.103344038,
     -0.465857863,
     0.00437099067,
     0.556057334,
     -0.0400469676,
     0.0231699031,
     0.510563672
    ],
    "children_left": [
     1,
     3,
     5,
     7,
     9,
     11,
     13,
     -1,
     -1,
     -1,
     -1,
     -1,
     -1,
     -1,
     -1
    ],
    "children_right": [
     2,
     4,
     6,
     8,
     10,
     12,
     14,
     -1,
     -1,
     -1,
     -1,
     -1,
     -1,
     -1,
     -1
    ]
   }
  ],
  [
   {
    "feature": [
     4,
     3,
     2,
     4,
     1,
     4,
     4,
     -2,
     -2,
     -2,
     -2,
     -2,
     -2,
     -2,
     -2
    ],
    "threshold": [
     12.0,
     6.0,
     -361.609375,
     8.0,
     361.125,
     41.0,
     26.0,
     0.0,
     0.0,
     0.0,
     0.0,
     0.0,
     0.0,
     0.0,
     0.0
    ],
    "value": [
     12.4534225,
     83.5958557,
     14.929142,
     35.2155533,
     59.1646957,
     39.4107056,
     17.2122822,
     -0.164026976,
     0.225716606,
     -0.215824336,
     1.50662124,
     -0.308148175,
     0.188063815,
     0.0390828811,
     -0.00477618165
    ],
    "children_left": [
     1,
     3,
     5,
     7,
     9,
     11,
     13,
     -1,
     -1,
     -1,
     -1,
     -1,
     -1,
     -1,
     -1
    ],
    "children_right": [
     2,
     4,
     6,
     8,
     10,
     12,
     14,
     -1,
     -1,
     -1,
     -1,
     -1,
     -1,
     -1,
     -1
    ]
   }
  ],
  [
   {
    "feature": [
     4,
     3,
     2,
     2,
     3,
     4,
     4,
     -2,
     -2,
     -2,
     -2,
     -2,
     -2,
     -2,
     -2
    ],
    "threshold": [
     7.0,
     4.0,
     -300.375,
     232.195312,
     79.0,
     12.0,
     9.0,
     0.0,
     0.0,
     0.0,
     0.0,
     0.0,
     0.0,
     0.0,
     0.0
    ],
    "value": [
     20.4953403,
     24.5887489,
     16.5505867,
     40.8493118,
     31.7092476,
     26.071806,
     29.0822411,
     -0.636705518,
     0.291261643,
     0.416876912,
     -0.262604415,
     0.40378651,
     0.0445693508,
     -0.269576043,
     -0.00441512233
    ],
    "children_left": [
     1,
     3,
     5,
     7,
     9,
     11,
     13,
     -1,
     -1,
     -1,
     -1,
     -1,
     -1,
     -1,
     -1
    ],
    "children_right": [
     2,
     4,
     6,
     8,
     10,
     12,
     14,
     -1,
     -1,
     -1,
     -1,
     -1,
     -1,
     -1,
     -1
    ]
   }
  ],
  [
   {
    "feature": [
     2,
     3,
     0,
     4,
     3,
     3,
     1,
     -2,
     -2,
     -2,
     -2,
     -2,
     -2,
     -2,
     -2
    ],
    "threshold": [
     361.445312,
     5.0,
     5.0,
     89.0,
     6.0,
     7.0,
     29.75,
     0.0,
     0.0,
     0.0,
     0.0,
     0.0,
     0.0,
     0.0,
     0.0
    ],
    "value": [
     9.02328396,
     9.24300861,
     93.742363,
     37.9914017,
     20.10429,
     40.7724915,
     99.3215866,
     -0.0366842449,
     0.273596197,
     0.0922932699,
     -0.000243928982,
     0.131971419,
     -0.345679492,
     0.0843790993,
     1.24673331
    ],
    "children_left": [
     1,
     3,
     5,
     7,
     9,
     11,
     13,
     -1,
     -1,
     -1,
     -1,
     -1,
     -1,
     -1,
     -1
    ],
    "children_right": [
     2,
     4,
     6,
     8,
     10,
     12,
     14,
     -1,
     -1,
     -1,
     -1,
     -1,
     -1,
     -1,
     -1
    ]
   }
  ],
  [
   {
    "feature": [
     4,
     4,
     3,
     2,
     1,
     2,
     0,
     -2,
     -2,
     -2,
     -2,
     -2,
     -2,
     -2,
     -2
    ],
    "threshold": [
     84.0,
     83.0,
     42.0,
     248.867188,
     -23.375,
     259.632812,
     5.0,
     0.0,
     0.0,
     0.0,
     0.0,
     0.0,
     0.0,
     0.0,
     0.0
    ],
    "value": [
     14.5676041,
     13.2918558,
     35.8678894,
     11.5338802,
     22.0243607,
     28.2438812,
     31.6089993,
     0.00877697766,
     -0.0425001904,
     0.492045105,
     -0.00180023909,
     -0.119943447,
     0.227651015,
     -0.111197323,
     0.303421944
    ],
    "children_left": [
     1,
     3,
     5,
     7,
     9,
     11,
     13,
     -1,
     -1,
     -1,
     -1,
     -1,
     -1,
     -1,
     -1
    ],
    "children_right": [
     2,
     4,
     6,
     8,
     10,
     12,
     14,
     -1,
     -1,
     -1,
     -1,
     -1,
     -1,
     -1,
     -1
    ]
   }
  ],
  [
   {
    "feature": [
     2,
     3,
     3,
     5,
     2,
     4,
     4,
     -2,
     -2,
     -2,
     -2,
     -2,
     -2,
     -2,
     -2
    ],
    "threshold": [
     308.40625,
     24.0,
     24.0,
     1.0,
     244.117188,
     42.0,
     47.0,
     0.0,
     0.0,
     0.0,
     0.0,
     0.0,
     0.0,
     0.0,
     0.0
    ],
    "value": [
     7.68205166,
     9.74868584,
     44.8253822,
     14.513855,
     29.5822716,
     65.6394806,
     57.0419312,
     -0.0196285509,
     0.0212697722,
     -0.0141330836,
     -0.218812972,
     -0.126512647,
     0.26352945,
     0.455270141,
     -0.230410144
    ],
    "children_left": [
     1,
     3,
     5,
     7,
     9,
     11,
     13,
     -1,
     -1,
     -1,
     -1,
     -1,
     -1,
     -1,
     -1
    ],
    "children_right": [
     2,
     4,
     6,
     8,
     10,
     12,
     14,
     -1,
     -1,
     -1,
     -1,
     -1,
     -1,
     -1,
     -1
    ]
   }
  ],
  [
   {
    "feature": [
     3,
     3,
     2,
     2,
     4,
     2,
     4,
     -2,
     -2,
     -2,
     -2,
     -2,
     -2,
     -2,
     -2
    ],
    "threshold": [
     167.0,
     166.0,
     -89.3359375,
     166.929688,
     69.0,
     -129.46875,
     102.0,
     0.0,
     0.0,
     0.0,
     0.0,
     0.0,
     0.0,
     0.0,
     0.0
    ],
    "value": [
     7.38365126,
     7.55644083,
     8.04436493,
     6.1953845,
     6.84174585,
     28.56147,
     7.08433819,
     -0.00484164944,
     0.0223942772,
     2.55228591,
     -0.284793317,
     -0.133269221,
     1.45590723,
     -0.301457822,
     0.510109723
    ],
    "children_left": [
     1,
     3,
     5,
     7,
     9,
     11,
     13,
     -1,
     -1,
     -1,
     -1,
     -1,
     -1,
     -1,
     -1
    ],
    "children_right": [
     2,
     4,
     6,
     8,
     10,
     12,
     14,
     -1,
     -1,
     -1,
     -1,
     -1,
     -1,
     -1,
     -1
    ]
   }
  ],
  [
   {
    "feature": [
     3,
     2,
     2,
     2,
     4,
     1,
     5,
     -2,
     -2,
     -2,
     -2,
     -2,
     -2,
     -2,
     -2
    ],
    "threshold": [
     11.0,
     -69.796875,
     -252.0,
     -110.320312,
     39.0,
     116.375,
     1.0,
     0.0,
     0.0,
     0.0,
     0.0,
     0.0,
     0.0,
     0.0,
     0.0
    ],
    "value": [
     6.08188343,
     22.1933441,
     26.6221581,
     62.3453369,
     31.9273739,
     36.0843735,
     34.4065247,
     -0.0157769825,
     0.189083591,
     -0.07789547,
     0.0104494365,
     -0.168395102,
     0.111656182,
     0.058364965,
     -0.013489699
    ],
    "children_left": [
     1,
     3,
     5,
     7,
     9,
     11,
     13,
     -1,
     -1,
     -1,
     -1,
     -1,
     -1,
     -1,
     -1
    ],
    "children_right": [
     2,
     4,
     6,
     8,
     10,
     12,
     14,
     -1,
     -1,
     -1,
     -1,
     -1,
     -1,
     -1,
     -1
    ]
   }
  ],
  [
   {
    "feature": [
     2,
     4,
     2,
     1,
     2,
     0,
     4,
     -2,
     -2,
     -2,
     -2,
     -2,
     -2,
     -2,
     -2
    ],
    "threshold": [
     -159.546875,
     107.0,
     -129.46875,
     103.25,
     -180.265625,
     6.0,
     108.0,
     0.0,
     0.0,
     0.0,
     0.0,
     0.0,
     0.0,
     0.0,
     0.0
    ],
    "value": [
     18.5015945,
     27.0797596,
     47.9183807,
     26.1758881,
     62.5943336,
     71.7814941,
     27.1168861,
     0.063899152,
     -0.0481811315,
     0.231130287,
     2.33622599,
     -0.230260044,
     0.182672948,
     0.00370877143,
     -0.152001157
    ],
    "children_left": [
     1,
     3,
     5,
     7,
     9,
     11,
     13,
     -1,
     -1,
     -1,
     -1,
     -1,
     -1,
     -1,
     -1
    ],
    "children_right": [
     2,
     4,
     6,
     8,
     10,
     12,
     14,
     -1,
     -1,
     -1,
     -1,
     -1,
     -1,
     -1,
     -1
    ]
   }
  ],
  [
   {
    "feature": [
     4,
     2,
     2,
     2,
     2,
     2,
     2,
     -2,
     -2,
     -2,
     -2,
     -2,
     -2,
     -2,
     -2
    ],
    "threshold": [
     42.0,
     57.1953125,
     59.015625,
     -48.1875,
     97.296875,
     -26.125,
     166.929688,
     0.0,
     0.0,
     0.0,
     0.0,
     0.0,
     0.0,
     0.0,
     0.0
    ],
    "value": [
     15.3037491,
     61.3103409,
     45.06744,
     223.718414,
     23.8324318,
     44.4347382,
     48.6959877,
     0.00976432487,
     -0.413015783,
     0.154860839,
     0.0443644002,
     -0.0451151431,
     0.0505942404,
     -0.191552743,
     -0.0108578792
    ],
    "children_left": [
     1,
     3,
     5,
     7,
     9,
     11,
     13,
     -1,
     -1,
     -1,
     -1,
     -1,
     -1,
     -1,
     -1
    ],
    "children_right": [
     2,
     4,
     6,
     8,
     10,
     12,
     14,
     -1,
     -1,
     -1,
     -1,
     -1,
     -1,
     -1,
     -1
    ]
   }
  ],
  [
   {
    "feature": [
     1,
     4,
     4,
     4,
     4,
     1,
     4,
     -2,
     -2,
     -2,
     -2,
     -2,
     -2,
     -2,
     -2
    ],
    "threshold": [
     175.25,
     233.0,
     7.0,
     219.0,
     241.0,
     216.875,
     24.0,
     0.0,
     0.0,
     0.0,
     0.0,
     0.0,
     0.0,
     0.0,
     0.0
    ],
    "value": [
     9.30241585,
     9.49411392,
     15.5655594,
     13.4739447,
     12.8486319,
     52.8543167,
     13.8099527,
     -0.00601278013,
     -0.594733596,
     1.42392898,
     0.166063175,
     1.78386569,
     0.0397423208,
     -0.049188029,
     0.0505778305
    ],
    "children_left": [
     1,
     3,
     5,
     7,
     9,
     11,
     13,
     -1,
     -1,
     -1,
     -1,
     -1,
     -1,
     -1,
     -1
    ],
    "children_right": [
     2,
     4,
     6,
     8,
     10,
     12,
     14,
     -1,
     -1,
     -1,
     -1,
     -1,
     -1,
     -1,
     -1
    ]
   }
  ],
  [
   {
    "feature": [
     4,
     4,
     2,
     2,
     2,
     4,
     2,
     -2,
     -2,
     -2,
     -2,
     -2,
     -2,
     -2,
     -2
    ],
    "threshold": [
     64.0,
     56.0,
     -107.78125,
     148.523438,
     69.421875,
     72.0,
     -57.296875,
     0.0,
     0.0,
     0.0,
     0.0,
     0.0,
     0.0,
     0.0,
     0.0
    ],
    "value": [
     10.385704,
     18.2715454,
     22.154089,
     17.518261,
     71.5815277,
     41.281601,
     75.3652496,
     0.0144666424,
     -0.0353039056,
     -0.012457151,
     0.314009875,
     0.338842452,
     -0.0145354746,
     -0.462760806,
     -0.0238274131
    ],
    "children_left": [
     1,
     3,
     5,
     7,
     9,
     11,
     13,
     -1,
     -1,
     -1,
     -1,
     -1,
     -1,
     -1,
     -1
    ],
    "children_right": [
     2,
     4,
     6,
     8,
     10,
     12,
     14,
     -1,
     -1,
     -1,
     -1,
     -1,
     -1,
     -1,
     -1
    ]
   }
  ],
  [
   {
    "feature": [
     2,
     3,
     1,
     1,
     2,
     0,
     1,
     -2,
     -2,
     -2,
     -2,
     -2,
     -2,
     -2,
     -2
    ],
    "threshold": [
     -72.234375,
     40.0,
     -20.0,
     -26.875,
     -293.523438,
     7.0,
     -6.125,
     0.0,
     0.0,
     0.0,
     0.0,
     0.0,
     0.0,
     0.0,
     0.0
    ],
    "value": [
     14.0323753,
     21.6021423,
     12.0612154,
     22.8952522,
     34.0366135,
     20.891222,
     29.8166332,
     0.0368193537,
     -0.0414981321,
     0.112660766,
     -0.186178148,
     -0.0110704973,
     0.470569909,
     0.180250436,
     0.0180587154
    ],
    "children_left": [
     1,
     3,
     5,
     7,
     9,
     11,
     13,
     -1,
     -1,
     -1,
     -1,
     -1,
     -1,
     -1,
     -1
    ],
    "children_right": [
     2,
     4,
     6,
     8,
     10,
     12,
     14,
     -1,
     -1,
     -1,
     -1,
     -1,
     -1,
     -1,
     -1
    ]
   }
  ],
  [
   {
    "feature": [
     3,
     2,
     2,
     2,
     4,
     4,
     4,
     -2,
     -2,
     -2,
     -2,
     -2,
     -2,
     -2,
     -2
    ],
    "threshold": [
     4.0,
     308.40625,
     321.648438,
     296.164062,
     141.0,
     12.0,
     18.0,
     0.0,
     0.0,
     0.0,
     0.0,
     0.0,
     0.0,
     0.0,
     0.0
    ],
    "value": [
     5.93737221,
     39.2621155,
     33.1567879,
     65.7167511,
     40.315361,
     14.6423531,
     30.4186897,
     0.0124499695,
     -0.698163688,
     0.260270894,
     -0.856993794,
     -0.0896088853,
     0.00420036679,
     0.0531878322,
     -0.236846268
    ],
    "children_left": [
     1,
     3,
     5,
     7,
     9,
     11,
     13,
     -1,
     -1,
     -1,
     -1,
     -1,
     -1,
     -1,
     -1
    ],
    "children_right": [
     2,
     4,
     6,
     8,
     10,
     12,
     14,
     -1,
     -1,
     -1,
     -1,
     -1,
     -1,
     -1,
     -1
    ]
   }
  ],
  [
   {
    "feature": [
     2,
     2,
     1,
     1,
     3,
     4,
     0,
     -2,
     -2,
     -2,
     -2,
     -2,
     -2,
     -2,
     -2
    ],
    "threshold": [
     259.632812,
     248.867188,
     62.0,
     12.375,
     9.0,
     57.0,
     5.0,
     0.0,
     0.0,
     0.0,
     0.0,
     0.0,
     0.0,
     0.0,
     0.0
    ],
    "value": [
     8.06826782,
     48.8253632,
     40.5232658,
     12.1315908,
     49.0369301,
     32.6809998,
     43.407692,
     -0.0156790279,
     0.0160281491,
     -0.723903894,
     -0.036892321,
     0.0591272265,
     0.334509939,
     0.0348960124,
     -0.314130396
    ],
    "children_left": [
     1,
     3,
     5,
     7,
     9,
     11,
     13,
     -1,
     -1,
     -1,
     -1,
     -1,
     -1,
     -1,
     -1
    ],
    "children_right": [
     2,
     4,
     6,
     8,
     10,
     12,
     14,
     -1,
     -1,
     -1,
     -1,
     -1,
     -1,
     -1,
     -1
    ]
   }
  ],
  [
   {
    "feature": [
     4,
     1,
     1,
     0,
     1,
     1,
     2,
     -2,
     -2,
     -2,
     -2,
     -2,
     -2,
     -2,
     -2
    ],
    "threshold": [
     59.0,
     14.25,
     10.625,
     5.0,
     21.125,
     2.25,
     10.796875,
     0.0,
     0.0,
     0.0,
     0.0,
     0.0,
     0.0,
     0.0,
     0.0
    ],
    "value": [
     8.99454021,
     15.079649,
     24.8174839,
     28.4929142,
     55.855629,
     31.9095154,
     35.8310547,
     0.0163348131,
     -0.0633764043,
     0.331688374,
     0.0194951985,
     0.00648559956,
     0.346485764,
     -0.00345508568,
     -0.14357017
    ],
    "children_left": [
     1,
     3,
     5,
     7,
     9,
     11,
     13,
     -1,
     -1,
     -1,
     -1,
     -1,
     -1,
     -1,
     -1
    ],
    "children_right": [
     2,
     4,
     6,
     8,
     10,
     12,
     14,
     -1,
     -1,
     -1,
     -1,
     -1,
     -1,
     -1,
     -1
    ]
   }
  ],
  [
   {
    "feature": [
     0,
     2,
     1,
     4,
     4,
     5,
     4,
     -2,
     -2,
     -2,
     -2,
     -2,
     -2,
     -2,
     -2
    ],
    "threshold": [
     5.0,
     -281.695312,
     384.875,
     55.0,
     34.0,
     2.0,
     11.0,
     0.0,
     0.0,
     0.0,
     0.0,
     0.0,
     0.0,
     0.0,
     0.0
    ],
    "value": [
     27.6315384,
     32.9726486,
     69.0693817,
     51.8694801,
     33.9109612,
     34.6440887,
     38.4563599,
     -0.194041818,
     0.221909225,
     0.0281499438,
     -0.0364727527,
     0.0147764757,
     0.198480561,
     -1.56214356,
     0.772533894
    ],
    "children_left": [
     1,
     3,
     5,
     7,
     9,
     11,
     13,
     -1,
     -1,
     -1,
     -1,
     -1,
     -1,
     -1,
     -1
    ],
    "children_right": [
     2,
     4,
     6,
     8,
     10,
     12,
     14,
     -1,
     -1,
     -1,
     -1,
     -1,
     -1,
     -1,
     -1
    ]
   }
  ],
  [
   {
    "feature": [
     1,
     4,
     2,
     2,
     2,
     2,
     3,
     -2,
     -2,
     -2,
     -2,
     -2,
     -2,
     -2,
     -2
    ],
    "threshold": [
     373.625,
     37.0,
     198.453125,
     -234.867188,
     -224.5625,
     192.242188,
     21.0,
     0.0,
     0.0,
     0.0,
     0.0,
     0.0,
     0.0,
     0.0,
     0.0
    ],
    "value": [
     31.7737446,
     13.3223181,
     16.8439465,
     47.2360115,
     22.8642769,
     31.8208618,
     18.4538193,
     0.0987034962,
     -0.031290289,
     -0.0781843811,
     0.0260379538,
     -0.221478656,
     -1.77108717,
     0.680195332,
     -0.41126579
    ],
    "children_left": [
     1,
     3,
     5,
     7,
     9,
     11,
     13,
     -1,
     -1,
     -1,
     -1,
     -1,
     -1,
     -1,
     -1
    ],
    "children_right": [
     2,
     4,
     6,
     8,
     10,
     12,
     14,
     -1,
     -1,
     -1,
     -1,
     -1,
     -1,
     -1,
     -1
    ]
   }
  ],
  [
   {
    "feature": [
     2,
     5,
     3,
     1,
     4,
     1,
     1,
     -2,
     -2,
     -2,
     -2,
     -2,
     -2,
     -2,
     -2
    ],
    "threshold": [
     377.96875,
     2.0,
     9.0,
     -62.375,
     70.0,
     64.125,
     -177.25,
     0.0,
     0.0,
     0.0,
     0.0,
     0.0,
     0.0,
     0.0,
     0.0
    ],
    "value": [
     6.8958106,
     7.33665276,
     32.7908821,
     10.0885172,
     32.227272,
     53.4082222,
     29.3599224,
     0.0276176408,
     -0.0046114726,
     -0.0514227785,
     0.0861378536,
     -0.468685716,
     0.814721286,
     -0.323067933,
     0.584535956
    ],
    "children_left": [
     1,
     3,
     5,
     7,
     9,
     11,
     13,
     -1,
     -1,
     -1,
     -1,
     -1,
     -1,
     -1,
     -1
    ],
    "children_right": [
     2,
     4,
     6,
     8,
     10,
     12,
     14,
     -1,
     -1,
     -1,
     -1,
     -1,
     -1,
     -1,
     -1
    ]
   }
  ],
  [
   {
    "feature": [
     2,
     2,
     1,
     4,
     1,
     1,
     3,
     -2,
     -2,
     -2,
     -2,
     -2,
     -2,
     -2,
     -2
    ],
    "threshold": [
     387.984375,
     377.96875,
     -330.5,
     54.0,
     -55.25,
     -339.625,
     4.0,
     0.0,
     0.0,
     0.0,
     0.0,
     0.0,
     0.0,
     0.0,
     0.0
    ],
    "value": [
     21.8478107,
     12.3477697,
     27.9927158,
     9.88361549,
     44.1729889,
     50.7455368,
     19.4809074,
     0.00970579218,
     -0.019112844,
     0.328925222,
     -0.515982151,
     0.325305611,
     -3.28740668,
     0.776666939,
     0.158192545
    ],
    "children_left": [
     1,
     3,
     5,
     7,
     9,
     11,
     13,
     -1,
     -1,
     -1,
     -1,
     -1,
     -1,
     -1,
     -1
    ],
    "children_right": [
     2,
     4,
     6,
     8,
     10,
     12,
     14,
     -1,
     -1,
     -1,
     -1,
     -1,
     -1,
     -1,
     -1
    ]
   }
  ],
  [
   {
    "feature": [
     1,
     1,
     4,
     1,
     4,
     0,
     4,
     -2,
     -2,
     -2,
     -2,
     -2,
     -2,
     -2,
     -2
    ],
    "threshold": [
     71.375,
     65.875,
     16.0,
     64.125,
     70.0,
     5.0,
     26.0,
     0.0,
     0.0,
     0.0,
     0.0,
     0.0,
     0.0,
     0.0,
     0.0
    ],
    "value": [
     9.60401249,
     23.3257751,
     13.2290277,
     16.6239986,
     51.6079254,
     27.4505444,
     20.9046955,
     -0.00703432038,
     0.284124404,
     -0.0510493182,
     -0.726226509,
     0.0363189466,
     0.326680422,
     -0.0664973855,
     0.0272738971
    ],
    "children_left": [
     1,
     3,
     5,
     7,
     9,
     11,
     13,
     -1,
     -1,
     -1,
     -1,
     -1,
     -1,
     -1,
     -1
    ],
    "children_right": [
     2,
     4,
     6,
     8,
     10,
     12,
     14,
     -1,
     -1,
     -1,
     -1,
     -1,
     -1,
     -1,
     -1
    ]
   }
  ],
  [
   {
    "feature": [
     0,
     3,
     3,
     2,
     2,
     4,
     2,
     -2,
     -2,
     -2,
     -2,
     -2,
     -2,
     -2,
     -2
    ],
    "threshold": [
     7.0,
     34.0,
     21.0,
     166.929688,
     166.929688,
     26.0,
     164.125,
     0.0,
     0.0,
     0.0,
     0.0,
     0.0,
     0.0,
     0.0,
     0.0
    ],
    "value": [
     4.37979746,
     4.71711302,
     48.6199417,
     12.570344,
     25.5437202,
     47.0884933,
     48.351532,
     -0.0116847185,
     0.0304253977,
     0.0453842804,
     -0.0988207683,
     -1.85517001,
     0.444998085,
     -0.306392878,
     -2.06056905
    ],
    "children_left": [
     1,
     3,
     5,
     7,
     9,
     11,
     13,
     -1,
     -1,
     -1,
     -1,
     -1,
     -1,
     -1,
     -1
    ],
    "children_right": [
     2,
     4,
     6,
     8,
     10,
     12,
     14,
     -1,
     -1,
     -1,
     -1,
     -1,
     -1,
     -1,
     -1
    ]
   }
  ],
  [
   {
    "feature": [
     0,
     2,
     2,
     4,
     2,
     1,
     3,
     -2,
     -2,
     -2,
     -2,
     -2,
     -2,
     -2,
     -2
    ],
    "threshold": [
     7.0,
     -369.554688,
     166.929688,
     73.0,
     -341.210938,
     -312.875,
     69.0,
     0.0,
     0.0,
     0.0,
     0.0,
     0.0,
     0.0,
     0.0,
     0.0
    ],
    "value": [
     10.7203579,
     4.32553005,
     38.4062653,
     28.2675724,
     6.34688139,
     38.436039,
     7.15247345,
     0.150095671,
     -0.513611555,
     -0.0828259587,
     0.000362389343,
     -2.73128939,
     0.106080323,
     1.25079918,
     -0.552787185
    ],
    "children_left": [
     1,
     3,
     5,
     7,
     9,
     11,
     13,
     -1,
     -1,
     -1,
     -1,
     -1,
     -1,
     -1,
     -1
    ],
    "children_right": [
     2,
     4,
     6,
     8,
     10,
     12,
     14,
     -1,
     -1,
     -1,
     -1,
     -1,
     -1,
     -1,
     -1
    ]
   }
  ],
  [
   {
    "feature": [
     3,
     4,
     1,
     4,
     2,
     5,
     3,
     -2,
     -2,
     -2,
     -2,
     -2,
     -2,
     -2,
     -2
    ],
    "threshold": [
     105.0,
     89.0,
     290.0,
     86.0,
     232.195312,
     1.0,
     107.0,
     0.0,
     0.0,
     0.0,
     0.0,
     0.0,
     0.0,
     0.0,
     0.0
    ],
    "value": [
     4.54892778,
     4.94167662,
     14.3649225,
     13.9057207,
     26.2643394,
     11.0660286,
     5.16426659,
     0.00113195274,
     -0.146129966,
     0.0751984119,
     -0.215348095,
     -0.173475772,
     0.0715348497,
     -1.45614696,
     -0.448343605
    ],
    "children_left": [
     1,
     3,
     5,
     7,
     9,
     11,
     13,
     -1,
     -1,
     -1,
     -1,
     -1,
     -1,
     -1,
     -1
    ],
    "children_right": [
     2,
     4,
     6,
     8,
     10,
     12,
     14,
     -1,
     -1,
     -1,
     -1,
     -1,
     -1,
     -1,
     -1
    ]
   }
  ],
  [
   {
    "feature": [
     1,
     1,
     2,
     1,
     2,
     2,
     3,
     -2,
     -2,
     -2,
     -2,
     -2,
     -2,
     -2,
     -2
    ],
    "threshold": [
     296.75,
     234.5,
     302.4375,
     216.875,
     -208.570312,
     290.1875,
     11.0,
     0.0,
     0.0,
     0.0,
     0.0,
     0.0,
     0.0,
     0.0,
     0.0
    ],
    "value": [
     3.94973803,
     9.24112511,
     25.7055759,
     25.1124725,
     58.7605934,
     36.8654022,
     30.5548515,
     -0.00211444846,
     0.173511669,
     0.342337102,
     -0.13275516,
     0.0532387197,
     1.83044386,
     -1.15838802,
     0.243702665
    ],
    "children_left": [
     1,
     3,
     5,
     7,
     9,
     11,
     13,
     -1,
     -1,
     -1,
     -1,
     -1,
     -1,
     -1,
     -1
    ],
    "children_right": [
     2,
     4,
     6,
     8,
     10,
     12,
     14,
     -1,
     -1,
     -1,
     -1,
     -1,
     -1,
     -1,
     -1
    ]
   }
  ],
  [
   {
    "feature": [
     2,
     3,
     2,
     5,
     3,
     1,
     0,
     -2,
     -2,
     -2,
     -2,
     -2,
     -2,
     -2,
     -2
    ],
    "threshold": [
     -388.578125,
     28.0,
     -149.78125,
     1.0,
     34.0,
     166.625,
     7.0,
     0.0,
     0.0,
     0.0,
     0.0,
     0.0,
     0.0,
     0.0,
     0.0
    ],
    "value": [
     8.04159641,
     13.2455959,
     4.25385141,
     25.5904255,
     10.8544559,
     15.35186,
     19.2302647,
     -0.144938052,
     1.52596605,
     -1.25487578,
     -0.314868242,
     0.000599406601,
     -0.0988557488,
     0.00370206544,
     0.320867568
    ],
    "children_left": [
     1,
     3,
     5,
     7,
     9,
     11,
     13,
     -1,
     -1,
     -1,
     -1,
     -1,
     -1,
     -1,
     -1
    ],
    "children_right": [
     2,
     4,
     6,
     8,
     10,
     12,
     14,
     -1,
     -1,
     -1,
     -1,
     -1,
     -1,
     -1,
     -1
    ]
   }
  ],
  [
   {
    "feature": [
     1,
     0,
     1,
     2,
     1,
     4,
     5,
     -2,
     -2,
     -2,
     -2,
     -2,
     -2,
     -2,
     -2
    ],
    "threshold": [
     259.0,
     7.0,
     265.0,
     -117.625,
     -215.875,
     43.0,
     2.0,
     0.0,
     0.0,
     0.0,
     0.0,
     0.0,
     0.0,
     0.0,
     0.0
    ],
    "value": [
     5.23525429,
     3.96199656,
     26.399641,
     4.64761448,
     27.301981,
     27.7109661,
     14.95292,
     0.0150083089,
     -0.00728596607,
     0.810395539,
     -0.239600465,
     0.813803315,
     0.0402487069,
     -0.0157185849,
     0.174240157
    ],
    "children_left": [
     1,
     3,
     5,
     7,
     9,
     11,
     13,
     -1,
     -1,
     -1,
     -1,
     -1,
     -1,
     -1,
     -1
    ],
    "children_right": [
     2,
     4,
     6,
     8,
     10,
     12,
     14,
     -1,
     -1,
     -1,
     -1,
     -1,
     -1,
     -1,
     -1
    ]
   }
  ],
  [
   {
    "feature": [
     2,
     4,
     1,
     4,
     4,
     4,
     1,
     -2,
     -2,
     -2,
     -2,
     -2,
     -2,
     -2,
     -2
    ],
    "threshold": [
     -72.234375,
     77.0,
     373.625,
     71.0,
     82.0,
     13.0,
     384.875,
     0.0,
     0.0,
     0.0,
     0.0,
     0.0,
     0.0,
     0.0,
     0.0
    ],
    "value": [
     4.62273645,
     10.9352188,
     10.6308374,
     17.6421585,
     43.1503983,
     8.82879639,
     25.6584377,
     -0.0152783263,
     -0.269965678,
     0.546967864,
     -0.00257512531,
     -0.0558422506,
     0.012315765,
     -0.573940992,
     -0.00855867658
    ],
    "children_left": [
     1,
     3,
     5,
     7,
     9,
     11,
     13,
     -1,
     -1,
     -1,
     -1,
     -1,
     -1,
     -1,
     -1
    ],
    "children_right": [
     2,
     4,
     6,
     8,
     10,
     12,
     14,
     -1,
     -1,
     -1,
     -1,
     -1,
     -1,
     -1,
     -1
    ]
   }
  ],
  [
   {
    "feature": [
     1,
     2,
     0,
     4,
     4,
     2,
     2,
     -2,
     -2,
     -2,
     -2,
     -2,
     -2,
     -2,
     -2
    ],
    "threshold": [
     350.375,
     361.445312,
     6.0,
     10.0,
     7.0,
     -115.1875,
     3.9140625,
     0.0,
     0.0,
     0.0,
     0.0,
     0.0,
     0.0,
     0.0,
     0.0
    ],
    "value": [
     4.55785322,
     3.63927674,
     26.3791466,
     4.61795044,
     29.9180527,
     13.0201292,
     33.4310913,
     0.0560238659,
     -0.00397825008,
     -0.448254406,
     0.123891748,
     -0.150923654,
     0.102223679,
     1.1214422,
     -0.119544826
    ],
    "children_left": [
     1,
     3,
     5,
     7,
     9,
     11,
     13,
     -1,
     -1,
     -1,
     -1,
     -1,
     -1,
     -1,
     -1
    ],
    "children_right": [
     2,
     4,
     6,
     8,
     10,
     12,
     14,
     -1,
     -1,
     -1,
     -1,
     -1,
     -1,
     -1,
     -1
    ]
   }
  ],
  [
   {
    "feature": [
     1,
     2,
     4,
     2,
     2,
     5,
     2,
     -2,
     -2,
     -2,
     -2,
     -2,
     -2,
     -2,
     -2
    ],
    "threshold": [
     446.25,
     65.1953125,
     78.0,
     62.9375,
     67.171875,
     2.0,
     -20.0078125,
     0.0,
     0.0,
     0.0,
     0.0,
     0.0,
     0.0,
     0.0,
     0.0
    ],
    "value": [
     4.6273613,
     3.57219958,
     15.3699961,
     12.4964333,
     57.1594772,
     9.32016087,
     12.3125648,
     0.00531723676,
     0.246698365,
     -0.504088521,
     -0.00413685851,
     0.095705308,
     -0.500302732,
     -0.034745954,
     -1.53182375
    ],
    "children_left": [
     1,
     3,
     5,
     7,
     9,
     11,
     13,
     -1,
     -1,
     -1,
     -1,
     -1,
     -1,
     -1,
     -1
    ],
    "children_right": [
     2,
     4,
     6,
     8,
     10,
     12,
     14,
     -1,
     -1,
     -1,
     -1,
     -1,
     -1,
     -1,
     -1
    ]
   }
  ],
  [
   {
    "feature": [
     4,
     1,
     2,
     0,
     3,
     3,
     1,
     -2,
     -2,
     -2,
     -2,
     -2,
     -2,
     -2,
     -2
    ],
    "threshold": [
     26.0,
     -73.75,
     341.820312,
     5.0,
     7.0,
     73.0,
     -131.625,
     0.0,
     0.0,
     0.0,
     0.0,
     0.0,
     0.0,
     0.0,
     0.0
    ],
    "value": [
     3.83074045,
     28.2274036,
     12.3144407,
     34.4254227,
     32.1246643,
     10.5403748,
     19.7997017,
     0.129306704,
     -0.0705472529,
     0.0483342335,
     -0.0650154427,
     -0.00572636351,
     0.089729853,
     0.164870709,
     -0.210350633
    ],
    "children_left": [
     1,
     3,
     5,
     7,
     9,
     11,
     13,
     -1,
     -1,
     -1,
     -1,
     -1,
     -1,
     -1,
     -1
    ],
    "children_right": [
     2,
     4,
     6,
     8,
     10,
     12,
     14,
     -1,
     -1,
     -1,
     -1,
     -1,
     -1,
     -1,
     -1
    ]
   }
  ],
  [
   {
    "feature": [
     1,
     4,
     1,
     1,
     1,
     2,
     2,
     -2,
     -2,
     -2,
     -2,
     -2,
     -2,
     -2,
     -2
    ],
    "threshold": [
     -79.875,
     97.0,
     -73.75,
     -95.625,
     -85.625,
     218.875,
     239.851562,
     0.0,
     0.0,
     0.0,
     0.0,
     0.0,
     0.0,
     0.0,
     0.0
    ],
    "value": [
     12.2561255,
     16.0240021,
     22.9087086,
     22.6063614,
     27.5335827,
     33.0977936,
     24.9187603,
     -0.00280860183,
     -0.121286802,
     -0.202720419,
     1.07241166,
     0.289059103,
     -0.309051901,
     -0.00211066147,
     0.0855782926
    ],
    "children_left": [
     1,
     3,
     5,
     7,
     9,
     11,
     13,
     -1,
     -1,
     -1,
     -1,
     -1,
     -1,
     -1,
     -1
    ],
    "children_right": [
     2,
     4,
     6,
     8,
     10,
     12,
     14,
     -1,
     -1,
     -1,
     -1,
     -1,
     -1,
     -1,
     -1
    ]
   }
  ],
  [
   {
    "feature": [
     4,
     2,
     3,
     2,
     1,
     4,
     2,
     -2,
     -2,
     -2,
     -2,
     -2,
     -2,
     -2,
     -2
    ],
    "threshold": [
     18.0,
     387.984375,
     81.0,
     -139.453125,
     -193.625,
     22.0,
     88.765625,
     0.0,
     0.0,
     0.0,
     0.0,
     0.0,
     0.0,
     0.0,
     0.0
    ],
    "value": [
     7.90339375,
     21.7881241,
     6.85785103,
     20.1611099,
     21.6937943,
     6.44139528,
     28.5574265,
     0.033099588,
     -0.0770639032,
     -0.157767877,
     0.999958396,
     0.0504007116,
     0.00340703013,
     -0.159624562,
     0.205761045
    ],
    "children_left": [
     1,
     3,
     5,
     7,
     9,
     11,
     13,
     -1,
     -1,
     -1,
     -1,
     -1,
     -1,
     -1,
     -1
    ],
    "children_right": [
     2,
     4,
     6,
     8,
     10,
     12,
     14,
     -1,
     -1,
     -1,
     -1,
     -1,
     -1,
     -1,
     -1
    ]
   }
  ],
  [
   {
    "feature": [
     3,
     1,
     1,
     0,
     2,
     2,
     1,
     -2,
     -2,
     -2,
     -2,
     -2,
     -2,
     -2,
     -2
    ],
    "threshold": [
     5.0,
     -412.25,
     -236.875,
     5.0,
     -124.609375,
     -180.265625,
     -232.5,
     0.0,
     0.0,
     0.0,
     0.0,
     0.0,
     0.0,
     0.0,
     0.0
    ],
    "value": [
     5.19065905,
     17.6273003,
     8.23073292,
     12.173645,
     16.8994579,
     12.5406199,
     34.8614693,
     -0.263419956,
     -1.16395152,
     -0.0811814442,
     0.00604388956,
     -0.109386839,
     0.0830168054,
     -0.433343858,
     0.00349258096
    ],
    "children_left": [
     1,
     3,
     5,
     7,
     9,
     11,
     13,
     -1,
     -1,
     -1,
     -1,
     -1,
     -1,
     -1,
     -1
    ],
    "children_right": [
     2,
     4,
     6,
     8,
     10,
     12,
     14,
     -1,
     -1,
     -1,
     -1,
     -1,
     -1,
     -1,
     -1
    ]
   }
  ],
  [
   {
    "feature": [
     2,
     2,
     3,
     4,
     4,
     2,
     3,
     -2,
     -2,
     -2,
     -2,
     -2,
     -2,
     -2,
     -2
    ],
    "threshold": [
     271.773438,
     -300.375,
     10.0,
     123.0,
     173.0,
     277.5,
     19.0,
     0.0,
     0.0,
     0.0,
     0.0,
     0.0,
     0.0,
     0.0,
     0.0
    ],
    "value": [
     7.37401295,
     5.198452,
     21.6494865,
     15.8721132,
     7.29218197,
     32.1765442,
     31.6305161,
     0.0607837327,
     -0.302089125,
     -0.000144998121,
     0.159249067,
     -0.510675192,
     0.0552944727,
     -0.286094636,
     -0.0251436289
    ],
    "children_left": [
     1,
     3,
     5,
     7,
     9,
     11,
     13,
     -1,
     -1,
     -1,
     -1,
     -1,
     -1,
     -1,
     -1
    ],
    "children_right": [
     2,
     4,
     6,
     8,
     10,
     12,
     14,
     -1,
     -1,
     -1,
     -1,
     -1,
     -1,
     -1,
     -1
    ]
   }
  ],
  [
   {
    "feature": [
     4,
     4,
     0,
     4,
     0,
     2,
     1,
     -2,
     -2,
     -2,
     -2,
     -2,
     -2,
     -2,
     -2
    ],
    "threshold": [
     85.0,
     80.0,
     6.0,
     72.0,
     5.0,
     102.59375,
     -289.0,
     0.0,
     0.0,
     0.0,
     0.0,
     0.0,
     0.0,
     0.0,
     0.0
    ],
    "value": [
     4.25931215,
     11.3854036,
     19.360775,
     6.71932602,
     38.7667427,
     59.4954834,
     45.8393631,
     -0.0031830098,
     0.0433890112,
     -0.230644122,
     0.0985153168,
     0.0133920275,
     0.410730958,
     -1.2749958,
     -0.0506004281
    ],
    "children_left": [
     1,
     3,
     5,
     7,
     9,
     11,
     13,
     -1,
     -1,
     -1,
     -1,
     -1,
     -1,
     -1,
     -1
    ],
    "children_right": [
     2,
     4,
     6,
     8,
     10,
     12,
     14,
     -1,
     -1,
     -1,
     -1,
     -1,
     -1,
     -1,
     -1
    ]
   }
  ],
  [
   {
    "feature": [
     4,
     2,
     2,
     4,
     3,
     2,
     2,
     -2,
     -2,
     -2,
     -2,
     -2,
     -2,
     -2,
     -2
    ],
    "threshold": [
     156.0,
     321.648438,
     207.351562,
     16.0,
     81.0,
     128.648438,
     335.492188,
     0.0,
     0.0,
     0.0,
     0.0,
     0.0,
     0.0,
     0.0,
     0.0
    ],
    "value": [
     15.3429012,
     4.1060524,
     29.5725594,
     6.60521746,
     21.9652328,
     30.6855507,
     8.5419693,
     0.0375252999,
     -0.000331801828,
     -0.0156710707,
     -0.43984741,
     -0.0425354838,
     1.73626053,
     -0.5405972,
     -0.0691876933
    ],
    "children_left": [
     1,
     3,
     5,
     7,
     9,
     11,
     13,
     -1,
     -1,
     -1,
     -1,
     -1,
     -1,
     -1,
     -1
    ],
    "children_right": [
     2,
     4,
     6,
     8,
     10,
     12,
     14,
     -1,
     -1,
     -1,
     -1,
     -1,
     -1,
     -1,
     -1
    ]
   }
  ],
  [
   {
    "feature": [
     4,
     4,
     0,
     2,
     2,
     4,
     3,
     -2,
     -2,
     -2,
     -2,
     -2,
     -2,
     -2,
     -2
    ],
    "threshold": [
     227.0,
     211.0,
     6.0,
     -224.5625,
     -199.15625,
     237.0,
     15.0,
     0.0,
     0.0,
     0.0,
     0.0,
     0.0,
     0.0,
     0.0,
     0.0
    ],
    "value": [
     4.07520437,
     3.62245464,
     6.7913475,
     3.94613981,
     6.58202934,
     6.87892866,
     11.2366209,
     -0.0251331404,
     0.00254904642,
     1.04519272,
     0.0410757624,
     -0.574087322,
     -0.0900722891,
     2.43415356,
     0.0563157387
    ],
    "children_left": [
     1,
     3,
     5,
     7,
     9,
     11,
     13,
     -1,
     -1,
     -1,
     -1,
     -1,
     -1,
     -1,
     -1
    ],
    "children_right": [
     2,
     4,
     6,
     8,
     10,
     12,
     14,
     -1,
     -1,
     -1,
     -1,
     -1,
     -1,
     -1,
     -1
    ]
   }
  ],
  [
   {
    "feature": [
     2,
     4,
     4,
     4,
     2,
     2,
     2,
     -2,
     -2,
     -2,
     -2,
     -2,
     -2,
     -2,
     -2
    ],
    "threshold": [
     -117.625,
     27.0,
     33.0,
     26.0,
     -136.867188,
     -105.382812,
     -102.976562,
     0.0,
     0.0,
     0.0,
     0.0,
     0.0,
     0.0,
     0.0,
     0.0
    ],
    "value": [
     3.39126539,
     23.9113331,
     6.91882277,
     30.2960625,
     37.126873,
     58.4822922,
     27.3737774,
     -0.0203203019,
     -0.384923756,
     0.0231504682,
     0.229797482,
     -0.278405517,
     0.0270527136,
     0.171391472,
     -0.0202624947
    ],
    "children_left": [
     1,
     3,
     5,
     7,
     9,
     11,
     13,
     -1,
     -1,
     -1,
     -1,
     -1,
     -1,
     -1,
     -1
    ],
    "children_right": [
     2,
     4,
     6,
     8,
     10,
     12,
     14,
     -1,
     -1,
     -1,
     -1,
     -1,
     -1,
     -1,
     -1
    ]
   }
  ],
  [
   {
    "feature": [
     2,
     3,
     3,
     2,
     4,
     0,
     2,
     -2,
     -2,
     -2,
     -2,
     -2,
     -2,
     -2,
     -2
    ],
    "threshold": [
     82.8359375,
     4.0,
     5.0,
     71.78125,
     24.0,
     6.0,
     94.4296875,
     0.0,
     0.0,
     0.0,
     0.0,
     0.0,
     0.0,
     0.0,
     0.0
    ],
    "value": [
     7.00718546,
     12.1511917,
     27.481142,
     33.2276039,
     10.7494526,
     26.9396839,
     39.9352036,
     0.0350915268,
     0.456044734,
     -0.042280294,
     0.00808871351,
     -0.1029962,
     0.260651529,
     -0.254827857,
     0.018173337
    ],
    "children_left": [
     1,
     3,
     5,
     7,
     9,
     11,
     13,
     -1,
     -1,
     -1,
     -1,
     -1,
     -1,
     -1,
     -1
    ],
    "children_right": [
     2,
     4,
     6,
     8,
     10,
     12,
     14,
     -1,
     -1,
     -1,
     -1,
     -1,
     -1,
     -1,
     -1
    ]
   }
  ],
  [
   {
    "feature": [
     4,
     1,
     1,
     4,
     1,
     0,
     2,
     -2,
     -2,
     -2,
     -2,
     -2,
     -2,
     -2,
     -2
    ],
    "threshold": [
     27.0,
     -197.375,
     -321.625,
     26.0,
     -177.25,
     5.0,
     -313.890625,
     0.0,
     0.0,
     0.0,
     0.0,
     0.0,
     0.0,
     0.0,
     0.0
    ],
    "value": [
     6.19508028,
     19.9432545,
     9.67045784,
     23.5639687,
     21.5563774,
     35.2421379,
     9.31458855,
     -0.0512867607,
     -0.501585245,
     0.268615335,
     0.0232743118,
     -0.0395457596,
     0.368404031,
     0.0773756802,
     -0.0120435739
    ],
    "children_left": [
     1,
     3,
     5,
     7,
     9,
     11,
     13,
     -1,
     -1,
     -1,
     -1,
     -1,
     -1,
     -1,
     -1
    ],
    "children_right": [
     2,
     4,
     6,
     8,
     10,
     12,
     14,
     -1,
     -1,
     -1,
     -1,
     -1,
     -1,
     -1,
     -1
    ]
   }
  ],
  [
   {
    "feature": [
     2,
     1,
     2,
     3,
     2,
     5,
     5,
     -2,
     -2,
     -2,
     -2,
     -2,
     -2,
     -2,
     -2
    ],
    "threshold": [
     -72.234375,
     361.125,
     148.523438,
     89.0,
     -112.53125,
     1.0,
     1.0,
     0.0,
     0.0,
     0.0,
     0.0,
     0.0,
     0.0,
     0.0,
     0.0
    ],
    "value": [
     5.58300829,
     11.5832462,
     9.12513351,
     10.8391199,
     26.8623581,
     12.6605816,
     44.0472641,
     -0.0216394272,
     0.157542944,
     0.0625669733,
     0.951692939,
     -0.0113647319,
     0.0355560407,
     0.0624040142,
     -0.0649118423
    ],
    "children_left": [
     1,
     3,
     5,
     7,
     9,
     11,
     13,
     -1,
     -1,
     -1,
     -1,
     -1,
     -1,
     -1,
     -1
    ],
    "children_right": [
     2,
     4,
     6,
     8,
     10,
     12,
     14,
     -1,
     -1,
     -1,
     -1,
     -1,
     -1,
     -1,
     -1
    ]
   }
  ],
  [
   {
    "feature": [
     2,
     2,
     4,
     2,
     4,
     4,
     4,
     -2,
     -2,
     -2,
     -2,
     -2,
     -2,
     -2,
     -2
    ],
    "threshold": [
     218.875,
     148.523438,
     48.0,
     126.3125,
     19.0,
     23.0,
     50.0,
     0.0,
     0.0,
     0.0,
     0.0,
     0.0,
     0.0,
     0.0,
     0.0
    ],
    "value": [
     7.52009106,
     8.46264935,
     18.8712502,
     7.35136795,
     32.6726913,
     25.1878643,
     38.4614372,
     -0.00308724586,
     0.0600914434,
     0.112689167,
     -0.0895302445,
     -0.00893069617,
     0.131629661,
     -0.706163943,
     -0.0254394244
    ],
    "children_left": [
     1,
     3,
     5,
     7,
     9,
     11,
     13,
     -1,
     -1,
     -1,
     -1,
     -1,
     -1,
     -1,
     -1
    ],
    "children_right": [
     2,
     4,
     6,
     8,
     10,
     12,
     14,
     -1,
     -1,
     -1,
     -1,
     -1,
     -1,
     -1,
     -1
    ]
   }
  ],
  [
   {
    "feature": [
     2,
     1,
     1,
     2,
     4,
     0,
     3,
     -2,
     -2,
     -2,
     -2,
     -2,
     -2,
     -2,
     -2
    ],
    "threshold": [
     369.953125,
     398.625,
     150.375,
     166.929688,
     26.0,
     6.0,
     29.0,
     0.0,
     0.0,
     0.0,
     0.0,
     0.0,
     0.0,
     0.0,
     0.0
    ],
    "value": [
     6.29229307,
     5.31101942,
     28.8511047,
     4.78703117,
     21.6580582,
     19.2251053,
     14.6360569,
     -0.0022969991,
     0.0225299429,
     0.258513659,
     -0.24461779,
     -0.124659434,
     -1.99888527,
     0.657835543,
     3.33602953
    ],
    "children_left": [
     1,
     3,
     5,
     7,
     9,
     11,
     13,
     -1,
     -1,
     -1,
     -1,
     -1,
     -1,
     -1,
     -1
    ],
    "children_right": [
     2,
     4,
     6,
     8,
     10,
     12,
     14,
     -1,
     -1,
     -1,
     -1,
     -1,
     -1,
     -1,
     -1
    ]
   }
  ],
  [
   {
    "feature": [
     2,
     3,
     4,
     1,
     5,
     2,
     2,
     -2,
     -2,
     -2,
     -2,
     -2,
     -2,
     -2,
     -2
    ],
    "threshold": [
     -131.859375,
     69.0,
     23.0,
     486.375,
     2.0,
     -83.5,
     -100.3125,
     0.0,
     0.0,
     0.0,
     0.0,
     0.0,
     0.0,
     0.0,
     0.0
    ],
    "value": [
     4.72250414,
     7.77972126,
     11.0561647,
     8.48794556,
     35.4654808,
     26.8029232,
     6.38269663,
     0.024085708,
     -0.746662259,
     0.00599809689,
     -0.705369532,
     -0.204818338,
     -0.0176498685,
     0.0515618473,
     -0.00142787118
    ],
    "children_left": [
     1,
     3,
     5,
     7,
     9,
     11,
     13,
     -1,
     -1,
     -1,
     -1,
     -1,
     -1,
     -1,
     -1
    ],
    "children_right": [
     2,
     4,
     6,
     8,
     10,
     12,
     14,
     -1,
     -1,
     -1,
     -1,
     -1,
     -1,
     -1,
     -1
    ]
   }
  ],
  [
   {
    "feature": [
     2,
     1,
     3,
     1,
     1,
     3,
     2,
     -2,
     -2,
     -2,
     -2,
     -2,
     -2,
     -2,
     -2
    ],
    "threshold": [
     -287.734375,
     35.125,
     38.0,
     29.75,
     85.25,
     34.0,
     23.453125,
     0.0,
     0.0,
     0.0,
     0.0,
     0.0,
     0.0,
     0.0,
     0.0
    ],
    "value": [
     3.65278053,
     13.2782879,
     4.37040806,
     54.7070198,
     18.084137,
     11.7397118,
     10.0724106,
     -0.0523163565,
     -0.891933322,
     0.23621136,
     -0.0241037961,
     0.00238748617,
     0.0937626213,
     0.0127054267,
     -0.0635850132
    ],
    "children_left": [
     1,
     3,
     5,
     7,
     9,
     11,
     13,
     -1,
     -1,
     -1,
     -1,
     -1,
     -1,
     -1,
     -1
    ],
    "children_right": [
     2,
     4,
     6,
     8,
     10,
     12,
     14,
     -1,
     -1,
     -1,
     -1,
     -1,
     -1,
     -1,
     -1
    ]
   }
  ]
 ],
 "config": {
  "output_dir": "/home/am/CMS/TF/TrackFinder/l1-track-finding-track-quality/projects/default_new_kf_tschuh/trk_quality_bdt_ap_fixed_20_10",
  "project_name": "my_prj",
  "backend": "vhdl",
  "input_precision": "ap_fixed<20,10>",
  "threshold_precision": "ap_fixed<20,10>",
  "score_precision": "ap_fixed<20,10>",
  "xilinx_part": "xcvu9p-flgb2104-2L-e"
 },
 "metadata": [
  {
   "version": "1.6",
   "host": "cebrown-desktop",
   "user": "am",
   "time": 1781553243.136475
  }
 ]
}