<?xml version="1.0"?>
<MethodSetup Method="MLP::MLP">
  <GeneralInfo>
    <Info name="TMVA Release" value="4.1.2 [262402]"/>
    <Info name="ROOT Release" value="5.32/00 [335872]"/>
    <Info name="Creator" value="tomc"/>
    <Info name="Date" value="Thu Jan 10 16:44:49 2013"/>
    <Info name="Host" value="Linux lxbuild168.cern.ch 2.6.18-308.1.1.el5 #1 SMP Wed Mar 7 19:25:07 CET 2012 x86_64 x86_64 x86_64 GNU/Linux"/>
    <Info name="Dir" value="/user_mnt/user/tomc/QGTagger/training/c/11/aKDE03"/>
    <Info name="Training events" value="2571623"/>
    <Info name="TrainingTime" value="9.97619826e+03"/>
    <Info name="AnalysisType" value="Classification"/>
  </GeneralInfo>
  <Options>
    <Option name="NCycles" modified="No">500</Option>
    <Option name="HiddenLayers" modified="No">N,N-1</Option>
    <Option name="NeuronType" modified="No">sigmoid</Option>
    <Option name="RandomSeed" modified="No">1</Option>
    <Option name="EstimatorType" modified="No">MSE</Option>
    <Option name="NeuronInputType" modified="No">sum</Option>
    <Option name="V" modified="Yes">False</Option>
    <Option name="VerbosityLevel" modified="No">Default</Option>
    <Option name="VarTransform" modified="Yes">N</Option>
    <Option name="H" modified="Yes">False</Option>
    <Option name="CreateMVAPdfs" modified="Yes">True</Option>
    <Option name="IgnoreNegWeightsInTraining" modified="No">False</Option>
    <Option name="TrainingMethod" modified="No">BP</Option>
    <Option name="LearningRate" modified="No">2.000000e-02</Option>
    <Option name="DecayRate" modified="No">1.000000e-02</Option>
    <Option name="TestRate" modified="Yes">3</Option>
    <Option name="EpochMonitoring" modified="No">False</Option>
    <Option name="Sampling" modified="No">1.000000e+00</Option>
    <Option name="SamplingEpoch" modified="No">1.000000e+00</Option>
    <Option name="SamplingImportance" modified="No">1.000000e+00</Option>
    <Option name="SamplingTraining" modified="No">True</Option>
    <Option name="SamplingTesting" modified="No">False</Option>
    <Option name="ResetStep" modified="No">50</Option>
    <Option name="Tau" modified="No">3.000000e+00</Option>
    <Option name="BPMode" modified="No">sequential</Option>
    <Option name="BatchSize" modified="No">-1</Option>
    <Option name="ConvergenceImprove" modified="No">1.000000e-30</Option>
    <Option name="ConvergenceTests" modified="No">-1</Option>
    <Option name="UseRegulator" modified="Yes">True</Option>
    <Option name="UpdateLimit" modified="No">10000</Option>
    <Option name="CalculateErrors" modified="No">False</Option>
    <Option name="WeightRange" modified="No">1.000000e+00</Option>
  </Options>
  <Variables NVar="4">
    <Variable VarIndex="0" Expression="axis1" Label="axis1" Title="axis1" Unit="" Internal="axis1" Type="F" Min="6.85165636e-04" Max="3.83741915e-01"/>
    <Variable VarIndex="1" Expression="axis2" Label="axis2" Title="axis2" Unit="" Internal="axis2" Type="F" Min="-2.63972121e-04" Max="2.52391249e-01"/>
    <Variable VarIndex="2" Expression="mult" Label="mult" Title="mult" Unit="" Internal="mult" Type="I" Min="0.00000000e+00" Max="4.30000000e+01"/>
    <Variable VarIndex="3" Expression="ptD" Label="ptD" Title="ptD" Unit="" Internal="ptD" Type="F" Min="1.43202305e-01" Max="9.96178269e-01"/>
  </Variables>
  <Spectators NSpec="0"/>
  <Classes NClass="2">
    <Class Name="Signal" Index="0"/>
    <Class Name="Background" Index="1"/>
  </Classes>
  <Transformations NTransformations="1">
    <Transform Name="Normalize">
      <Selection>
        <Input NInputs="4">
          <Input Type="Variable" Label="axis1" Expression="axis1"/>
          <Input Type="Variable" Label="axis2" Expression="axis2"/>
          <Input Type="Variable" Label="mult" Expression="mult"/>
          <Input Type="Variable" Label="ptD" Expression="ptD"/>
        </Input>
        <Output NOutputs="4">
          <Output Type="Variable" Label="axis1" Expression="axis1"/>
          <Output Type="Variable" Label="axis2" Expression="axis2"/>
          <Output Type="Variable" Label="mult" Expression="mult"/>
          <Output Type="Variable" Label="ptD" Expression="ptD"/>
        </Output>
      </Selection>
      <Class ClassIndex="0">
        <Ranges>
          <Range Index="0" Min="2.2214017808437347e-03" Max="3.7785682082176208e-01"/>
          <Range Index="1" Min="8.6038641165941954e-04" Max="2.4691900610923767e-01"/>
          <Range Index="2" Min="0.0000000000000000e+00" Max="4.3000000000000000e+01"/>
          <Range Index="3" Min="1.4320230484008789e-01" Max="9.8245465755462646e-01"/>
        </Ranges>
      </Class>
      <Class ClassIndex="1">
        <Ranges>
          <Range Index="0" Min="6.8516563624143600e-04" Max="3.8374191522598267e-01"/>
          <Range Index="1" Min="-2.6397212059237063e-04" Max="2.5239124894142151e-01"/>
          <Range Index="2" Min="0.0000000000000000e+00" Max="3.9000000000000000e+01"/>
          <Range Index="3" Min="1.5722176432609558e-01" Max="9.9617826938629150e-01"/>
        </Ranges>
      </Class>
      <Class ClassIndex="2">
        <Ranges>
          <Range Index="0" Min="6.8516563624143600e-04" Max="3.8374191522598267e-01"/>
          <Range Index="1" Min="-2.6397212059237063e-04" Max="2.5239124894142151e-01"/>
          <Range Index="2" Min="0.0000000000000000e+00" Max="4.3000000000000000e+01"/>
          <Range Index="3" Min="1.4320230484008789e-01" Max="9.9617826938629150e-01"/>
        </Ranges>
      </Class>
    </Transform>
  </Transformations>
  <MVAPdfs>
    <PDF Name="MLP_PDFSig" MinNSmooth="0" MaxNSmooth="0" InterpolMethod="5" KDE_type="1" KDE_iter="2" KDE_border="1" KDE_finefactor="3.0000001192092896e-01">
      <Histogram Name="MLP_tr_S_original" NBins="250" XMin="-1.7089817672967911e-02" XMax="9.8560512065887451e-01" HasEquidistantBins="1">
        0.00000000e+00 0.00000000e+00 0.00000000e+00 0.00000000e+00 0.00000000e+00 0.00000000e+00 0.00000000e+00 0.00000000e+00 0.00000000e+00 0.00000000e+00 0.00000000e+00 0.00000000e+00 0.00000000e+00 0.00000000e+00 0.00000000e+00 1.47248851e-04 2.94497702e-04 0.00000000e+00 0.00000000e+00 5.88995405e-04 3.53397219e-03 8.98217969e-03 1.01601705e-02 1.97313447e-02 2.65047923e-02 2.73882858e-02 3.88736948e-02 4.28494141e-02 5.44820726e-02 5.81632927e-02 6.36115000e-02 7.21519366e-02 8.17231089e-02 9.30612683e-02 9.63007435e-02 9.90984738e-02 1.03515938e-01 1.12350866e-01 1.17504582e-01 1.20155059e-01 1.37235925e-01 1.34290949e-01 1.48574084e-01 1.45040110e-01 1.50193825e-01 1.66391194e-01 1.65802196e-01 1.62120983e-01 1.77140355e-01 1.83619305e-01 1.89067513e-01 1.78760096e-01 1.93779483e-01 1.98491439e-01 2.05853879e-01 2.11007595e-01 2.12332830e-01 2.22640261e-01 2.21609518e-01 2.38101378e-01 2.39132121e-01 2.43991330e-01 2.51059294e-01 2.62544692e-01 2.65636921e-01 2.57979989e-01 2.82865018e-01 2.72410363e-01 2.77269572e-01 2.75208086e-01 2.71232367e-01 2.74619102e-01 2.84043014e-01 2.88607746e-01 2.92141706e-01 3.00829381e-01 3.16143274e-01 3.07308346e-01 3.04216117e-01 3.10547829e-01 3.15259784e-01 3.23947459e-01 3.33960384e-01 3.22916716e-01 3.09811562e-01 3.36316377e-01 3.36463600e-01 3.24241966e-01 3.34696621e-01 3.26156199e-01 3.52955490e-01 3.50010514e-01 3.49274248e-01 3.55311453e-01 3.42500806e-01 3.56636703e-01 3.71214330e-01 3.65324378e-01 3.84761244e-01 3.85791987e-01 3.90209436e-01 3.93448919e-01 3.96246642e-01 3.93007159e-01 4.02725577e-01 3.96099389e-01 3.96688402e-01 4.17303234e-01 4.10677016e-01 4.16714221e-01 4.28052396e-01 4.23487693e-01 4.53968197e-01 4.28641379e-01 4.40274060e-01 4.50434208e-01 4.51612204e-01 4.66926098e-01 5.00204325e-01 4.87982661e-01 5.05358040e-01 4.99762595e-01 5.01382291e-01 5.10953486e-01 5.28476119e-01 5.29065073e-01 5.38636267e-01 5.45262456e-01 5.72061777e-01 5.69411278e-01 5.70736527e-01 5.94001830e-01 6.04898274e-01 5.83252668e-01 6.26985610e-01 6.33464515e-01 6.37145758e-01 6.48778439e-01 6.52606905e-01 6.79258943e-01 6.87357605e-01 6.82203889e-01 7.19605088e-01 6.96928799e-01 7.17249095e-01 7.37863958e-01 7.53030598e-01 7.38305688e-01 7.90873528e-01 7.95143783e-01 7.97794223e-01 8.23121071e-01 8.38140428e-01 8.46828103e-01 8.90119255e-01 8.92622471e-01 9.11470354e-01 9.35471892e-01 9.43717837e-01 9.52700019e-01 9.85389292e-01 1.00232291e+00 1.01233578e+00 1.01027429e+00 1.06976283e+00 1.07447481e+00 1.06254768e+00 1.08360422e+00 1.10186315e+00 1.10966730e+00 1.12174165e+00 1.12836790e+00 1.18108296e+00 1.18800366e+00 1.18829823e+00 1.22275436e+00 1.22378516e+00 1.22982240e+00 1.25721061e+00 1.30918944e+00 1.33039331e+00 1.32361984e+00 1.36175728e+00 1.38016343e+00 1.38340294e+00 1.41682839e+00 1.43420374e+00 1.45422959e+00 1.48544633e+00 1.51047862e+00 1.54066467e+00 1.56893647e+00 1.57953835e+00 1.63328421e+00 1.70249116e+00 1.71471286e+00 1.76197970e+00 1.77375960e+00 1.77140355e+00 1.84046328e+00 1.85975289e+00 1.89052796e+00 1.96783352e+00 1.98947918e+00 2.02835274e+00 2.08386564e+00 2.16411638e+00 2.17825222e+00 2.23641539e+00 2.29502058e+00 2.33801723e+00 2.42990041e+00 2.48629665e+00 2.53194380e+00 2.60394859e+00 2.62691951e+00 2.71953893e+00 2.73500013e+00 2.81642866e+00 2.86899638e+00 2.98414516e+00 3.07499766e+00 3.20280957e+00 3.20914125e+00 3.35270905e+00 3.43899679e+00 3.49907422e+00 3.58727646e+00 3.67135549e+00 3.76058817e+00 3.83539057e+00 3.92138410e+00 3.99574471e+00 4.08556652e+00 4.14004850e+00 4.16139984e+00 4.19350004e+00 4.21853209e+00 4.18952417e+00 4.12871027e+00 3.97910547e+00 3.80991673e+00 3.49244809e+00 3.14302659e+00 2.61690640e+00 1.95178342e+00 1.19860566e+00 4.37329084e-01 8.08396190e-02 1.10436631e-02 
      </Histogram>
    </PDF>
    <PDF Name="MLP_PDFBkg" MinNSmooth="0" MaxNSmooth="0" InterpolMethod="5" KDE_type="1" KDE_iter="2" KDE_border="1" KDE_finefactor="3.0000001192092896e-01">
      <Histogram Name="MLP_tr_B_original" NBins="250" XMin="-1.7089817672967911e-02" XMax="9.8560512065887451e-01" HasEquidistantBins="1">
        2.83850211e-04 0.00000000e+00 0.00000000e+00 0.00000000e+00 0.00000000e+00 0.00000000e+00 0.00000000e+00 0.00000000e+00 0.00000000e+00 2.83850211e-04 0.00000000e+00 0.00000000e+00 2.83850211e-04 5.67700423e-04 0.00000000e+00 0.00000000e+00 2.83850211e-04 0.00000000e+00 1.13540085e-03 2.98042744e-02 1.05592281e-01 1.94721252e-01 2.75050879e-01 3.55380476e-01 4.84248489e-01 5.87286115e-01 7.32333601e-01 7.98754513e-01 8.84761155e-01 9.94327307e-01 1.07039917e+00 1.12149227e+00 1.24184477e+00 1.25632107e+00 1.30542719e+00 1.34119236e+00 1.37440276e+00 1.43571448e+00 1.45643544e+00 1.49220061e+00 1.47460186e+00 1.50809622e+00 1.52711415e+00 1.58246505e+00 1.55549920e+00 1.56287932e+00 1.59750903e+00 1.56742096e+00 1.58274889e+00 1.60290217e+00 1.60261834e+00 1.59694135e+00 1.56628549e+00 1.54925454e+00 1.57622027e+00 1.62844872e+00 1.58445191e+00 1.62759721e+00 1.59750903e+00 1.59552217e+00 1.60006368e+00 1.60517299e+00 1.58331656e+00 1.57934260e+00 1.57139480e+00 1.56543398e+00 1.55748618e+00 1.55918932e+00 1.54982221e+00 1.51150239e+00 1.50355458e+00 1.49589074e+00 1.48113048e+00 1.44536531e+00 1.46580255e+00 1.43770134e+00 1.41981888e+00 1.40080082e+00 1.41896725e+00 1.40108466e+00 1.40818095e+00 1.33296061e+00 1.36361647e+00 1.31394267e+00 1.33125758e+00 1.28754461e+00 1.30230486e+00 1.27136517e+00 1.28754461e+00 1.27562296e+00 1.22878766e+00 1.21345973e+00 1.21998823e+00 1.22907150e+00 1.21942055e+00 1.22225904e+00 1.21005356e+00 1.18904865e+00 1.17968154e+00 1.18053305e+00 1.14590335e+00 1.13454938e+00 1.10900283e+00 1.16690826e+00 1.14874184e+00 1.12291145e+00 1.10559666e+00 1.13341391e+00 1.11723447e+00 1.12092459e+00 1.15129650e+00 1.09112024e+00 1.09793270e+00 1.12773693e+00 1.10644817e+00 1.11070597e+00 1.07891476e+00 1.07295382e+00 1.12149227e+00 1.10588050e+00 1.09963572e+00 1.06812835e+00 1.06784451e+00 1.08771408e+00 1.09850037e+00 1.07238615e+00 1.10616434e+00 1.06273520e+00 1.08884943e+00 1.06727684e+00 1.09764886e+00 1.09168792e+00 1.10417736e+00 1.06756067e+00 1.06358683e+00 1.08288860e+00 1.09225571e+00 1.08146930e+00 1.08856559e+00 1.08487558e+00 1.10133886e+00 1.10304201e+00 1.06046438e+00 1.09395874e+00 1.10332584e+00 1.07976627e+00 1.08288860e+00 1.08146930e+00 1.09112024e+00 1.12518227e+00 1.12120843e+00 1.09339106e+00 1.09140408e+00 1.10843515e+00 1.12489843e+00 1.10531282e+00 1.11524749e+00 1.15668964e+00 1.14590335e+00 1.11098981e+00 1.13029158e+00 1.13937485e+00 1.12603378e+00 1.14476800e+00 1.08686256e+00 1.13114309e+00 1.09481037e+00 1.13284624e+00 1.09055257e+00 1.07039917e+00 1.08175325e+00 1.09055257e+00 1.08515942e+00 1.10304201e+00 1.07295382e+00 1.10219038e+00 1.05393589e+00 1.07522464e+00 1.04002726e+00 1.04825890e+00 1.04570425e+00 1.07011533e+00 1.04314959e+00 1.05223274e+00 1.06841230e+00 1.02100921e+00 1.03378248e+00 1.03264713e+00 1.03690481e+00 9.86095667e-01 1.02810550e+00 1.01135838e+00 1.01135838e+00 1.02640235e+00 1.00738442e+00 9.81554091e-01 1.03264713e+00 9.88366485e-01 9.94043469e-01 9.89218056e-01 1.00397825e+00 9.55439866e-01 9.80986357e-01 9.73038554e-01 9.43518162e-01 9.46640491e-01 9.54588294e-01 9.46924329e-01 9.47775900e-01 9.31028724e-01 9.31312561e-01 9.40111935e-01 9.17687774e-01 9.31312561e-01 9.15416956e-01 8.92708957e-01 9.07469153e-01 9.08604562e-01 8.53537619e-01 9.04062986e-01 8.94979775e-01 8.91005874e-01 8.79084170e-01 8.52686048e-01 8.47292900e-01 8.46725225e-01 8.14366281e-01 8.22881818e-01 8.12095463e-01 7.80871987e-01 7.54190028e-01 7.48796880e-01 7.00542331e-01 6.77834332e-01 6.78402007e-01 6.29863620e-01 6.07723355e-01 5.60888052e-01 5.37896156e-01 4.97589439e-01 4.30884629e-01 4.05054271e-01 3.23589265e-01 2.62845308e-01 1.96140498e-01 1.34545013e-01 7.57880062e-02 2.52626706e-02 4.82545374e-03 8.51550663e-04 
      </Histogram>
    </PDF>
  </MVAPdfs>
  <Weights>
    <Layout NLayers="4">
      <Layer Index="0" NNeurons="5">
        <Neuron NSynapses="4">
          7.1829700781101948e+00 5.7555762166647497e+00 2.6779916588694226e+00 3.3839465074298833e+00 
        </Neuron>
        <Neuron NSynapses="4">
          -3.4144474102763667e+00 5.3244579761635693e+00 -1.0726420417462164e+00 9.8663927742176174e+00 
        </Neuron>
        <Neuron NSynapses="4">
          -5.8126182602277323e+00 -5.3134631530722742e-01 -3.2354757642523606e+00 7.7963871409887915e+00 
        </Neuron>
        <Neuron NSynapses="4">
          -7.0018849256595894e-01 -2.8986768944291490e+00 5.1107472169192780e+00 4.4487808739537882e-01 
        </Neuron>
        <Neuron NSynapses="4">
          -4.1659349687926417e+00 7.5124904248958879e+00 1.9749623658276827e+00 1.5171235432841765e+01 
        </Neuron>
      </Layer>
      <Layer Index="1" NNeurons="5">
        <Neuron NSynapses="3">
          -4.2415321931767451e+00 2.5172837024018553e+00 8.1157269791772291e-01 
        </Neuron>
        <Neuron NSynapses="3">
          1.8851484250853983e+00 -4.4875821217098233e+00 -1.0869374093913229e+00 
        </Neuron>
        <Neuron NSynapses="3">
          2.7971332395503619e+00 -5.4324607154490003e+00 -3.0511748333138184e+00 
        </Neuron>
        <Neuron NSynapses="3">
          -2.3695759647252612e+00 -3.4194871923789276e+00 7.6882860368567962e-01 
        </Neuron>
        <Neuron NSynapses="3">
          -4.3345873693187036e+00 2.9676090666534480e+00 1.1103556410943696e+00 
        </Neuron>
      </Layer>
      <Layer Index="2" NNeurons="4">
        <Neuron NSynapses="1">
          -1.7245339817426908e+00 
        </Neuron>
        <Neuron NSynapses="1">
          -2.9262334294173487e+00 
        </Neuron>
        <Neuron NSynapses="1">
          8.0362545423006060e-01 
        </Neuron>
        <Neuron NSynapses="1">
          4.5997734774401239e-01 
        </Neuron>
      </Layer>
      <Layer Index="3" NNeurons="1">
        <Neuron NSynapses="0"/>
      </Layer>
    </Layout>
    <InverseHessian NElements="1521" NRows="39" NCols="39">
      <Row Index="0">
        8.2540043218800130e-01 1.8904827840685953e-01 3.2950231613240920e-02 8.0102827797293885e-02 -3.9251815543714696e-01 2.4425045163384090e-01 -5.8367001226518993e-03 7.4470533955449558e-02 -5.9670323199839881e-01 -1.0624531405396376e-01 -4.4057868321174504e-02 1.0805407812053772e-01 1.0358614474436256e-02 -2.6949118415336180e-02 1.6175652155489931e-01 -3.4842788593686010e-02 -2.8659400817542618e-01 2.9267206021377784e-01 9.2456920286760946e-02 1.9784021999696494e-01 4.7924582632507662e-01 -3.7843737603498934e-01 -1.7645666415276731e-01 -2.6920162776730511e-01 1.9590246741432077e-01 1.1445307547893892e-01 -2.6432901913292745e-01 1.7997550128019069e-01 3.7803278943576984e-01 1.7273111301587987e-01 3.2721976077302234e-02 -4.7371871149008829e-02 6.8093273044333033e-02 -1.6942832267803618e-01 -2.1171526701393462e-01 -1.5402095404208960e-01 -1.1354177126693414e-01 7.8216369461365828e-02 -2.6439279060504254e-02 
      </Row>
      <Row Index="1">
        1.8904827840783867e-01 7.6615578487728375e-01 7.9795324389441410e-02 2.1156030626522392e-02 -6.9413893304272764e-02 2.1760156318423890e-01 -5.6585389642286807e-05 -3.3787331225035730e-02 -7.3563381115068494e-02 -3.1965971623364231e-01 -8.1012036487076791e-02 7.3222165025284086e-02 4.9542366975405080e-02 4.0403094691123459e-03 1.4046474011638982e-01 -7.3060456050613367e-03 -9.7692009829584980e-04 6.0187300452246850e-01 1.1040922108947859e-01 1.9690428580458125e-02 -3.0242825681084190e-01 -3.2024333005524591e-01 -3.8514973740708662e-02 -4.9250822930053777e-02 8.6120187465796727e-01 1.1979529220550969e-01 -1.3583667772315311e-02 9.7746423067304122e-01 3.2425812098897744e-01 -5.2619282990876995e-02 2.9720161628031327e-01 -1.0611323844014370e-01 -4.2941676434604920e-02 -1.7137696652189258e+00 -1.0786579065775330e-01 1.0018508924397251e-01 -2.2381221045289657e+00 7.9380975290059524e-02 -3.7719489752984919e-02 
      </Row>
      <Row Index="2">
        3.2950231612891019e-02 7.9795324388493932e-02 7.9518627981893117e-02 4.6470416274573371e-03 2.2339869136536617e-02 1.2622528574951886e-01 -1.9546836344490923e-02 3.1086684535895463e-02 1.6479735548609615e-02 -1.5359545492139803e-02 -6.3573594663090482e-02 4.4756674134232316e-02 -1.6098537789361558e-02 -5.2526364706418152e-04 5.5918728116447276e-02 -4.3809289571324402e-03 3.9936927217237253e-02 1.6191272162851864e-01 3.9457484240080741e-02 6.3673846726637007e-02 -1.6282184662161847e-01 -6.3070522710797716e-02 -1.1721087376646996e-02 2.2482608306759660e-02 1.0908818957257223e-01 7.1074395421718450e-02 1.7050538266459622e-02 1.3953764951678144e-01 1.9052772792443085e-01 -5.1511546206163980e-02 5.2621177979381609e-02 -2.1139351191076114e-02 4.9521917863718345e-02 -1.8378235875462326e-01 -1.2742180889256594e-01 1.6249499747707338e-01 -1.5095079147784909e-01 4.6467334307351775e-02 -1.9541965622419791e-02 
      </Row>
      <Row Index="3">
        8.0102827796474901e-02 2.1156030629327277e-02 4.6470416271175881e-03 2.9070231495659488e-01 -1.9840620846748837e-02 4.8288749442932932e-03 -1.0468637759294712e-02 2.4082014520857931e-01 -8.0868453948310798e-02 7.9533730545535253e-02 -2.5803974525514653e-02 8.5545233833907983e-02 -8.2029842954584570e-02 4.7642670469503039e-02 -4.1015716516504437e-04 3.7077677746196303e-02 -5.6492979448970242e-02 5.5719036094800015e-02 1.6814604637350555e-02 5.4774858985013597e-01 -4.5438525962198728e-01 1.5531938074672397e-01 -1.1866357119132727e-02 2.4251486451106652e-01 -3.8921131394922681e-01 4.5857628140930022e-02 4.5229557768560352e-01 -4.2322319303025113e-01 1.0676774657578730e-01 -1.6348843396694085e-01 -1.9444154270676747e-01 1.8497940360934353e-01 7.3609171639989479e-02 8.1482056956899829e-01 -2.0640168729465841e-01 8.4070933263765824e-01 1.2316811259805804e+00 8.0941304207969265e-03 -1.8441590733276322e-02 
      </Row>
      <Row Index="4">
        -3.9251815543747004e-01 -6.9413893304871868e-02 2.2339869136214302e-02 -1.9840620846735275e-02 4.5489143086020245e-01 -8.2729149624028303e-02 3.9089561209324566e-02 -4.9199746149749118e-02 3.8632264439124625e-01 2.6049135925290678e-02 1.1329292929656636e-02 -1.7807458420031605e-02 1.6651491572039531e-02 -2.1596931272639397e-03 -6.0303342943853935e-02 1.3324937321438357e-02 3.5165878751690804e-01 -1.1029465711316427e-01 2.3187857844158895e-02 -7.6217581713700647e-02 -7.2217381032114736e-01 2.1068402927273819e-01 9.4005343733764665e-02 2.1118166447824832e-01 -1.0475996135961011e-02 -8.7317236831645564e-03 2.4437246567621457e-01 -4.5516192197804888e-03 -7.6977111005114937e-02 -1.5011225814870241e-01 -2.4713631743717324e-02 2.5629126467174614e-02 -1.0687374564247608e-01 2.3046421455915123e-02 5.4545383205538346e-02 2.3531260142795779e-01 5.4448701585797989e-02 -1.1782604847230793e-02 -6.9370514739081597e-03 
      </Row>
      <Row Index="5">
        2.4425045163366027e-01 2.1760156318323320e-01 1.2622528575009209e-01 4.8288749439486349e-03 -8.2729149623086848e-02 6.7911426034981581e-01 -3.7932675395634621e-02 1.2056460248848554e-01 -1.6861766867304614e-01 6.2559175232479447e-04 -1.1324561093804782e-01 8.0018372041730651e-02 -2.6854906827609562e-02 1.1864280384874393e-01 1.2650221190819216e-01 4.0320979392081124e-03 -6.9440117175324542e-02 7.7449384007273925e-01 7.8193003230006358e-02 1.7411579286134268e-01 -3.9635946934624133e-02 -3.5603768747704284e-01 -6.6471613358755621e-02 -7.8100788474099112e-02 4.4227442442126502e-01 1.1632515374134757e-01 -1.4805822214220188e-01 6.4869108868168124e-01 3.9767686971363214e-01 -2.4065129731402721e-02 3.5532326304198153e-01 -5.2411820336542278e-02 6.8536771871272023e-02 -1.0551134908372470e+00 -2.1232601418064984e-01 2.5828597128178366e-02 -1.2355652717174810e+00 9.5398505737336686e-02 -3.8061248431536909e-02 
      </Row>
      <Row Index="6">
        -5.8367001225862747e-03 -5.6585389566030098e-05 -1.9546836344509010e-02 -1.0468637759436756e-02 3.9089561209259577e-02 -3.7932675395598060e-02 2.1637618224317385e-02 -2.6575276076066089e-02 1.2351087587664809e-02 -8.9583490565958157e-03 2.1249596364126450e-02 -1.3961086018671220e-02 1.2584778708041085e-02 -1.1854684156324458e-02 -1.0561105008248872e-02 -1.4322742688296641e-03 2.6473615275750359e-02 -3.9097287790124363e-02 7.8849545508010536e-03 -4.5001601188016840e-02 -4.1564129611309453e-02 1.3149706527012604e-02 7.6654065477846679e-03 3.4825483196289295e-03 9.1643646791742181e-03 -1.7171257461032537e-02 1.2102980256817743e-02 -3.2240137507781931e-03 -4.8001299701336014e-02 2.8988093982373290e-04 -9.4698709435169781e-03 3.7590447548741181e-03 -2.6979062162556036e-02 1.2462579362180065e-03 4.0484695586422474e-02 -2.4406504766012284e-02 -1.3155135370937699e-02 -1.0768447633747499e-02 2.9700710764171676e-03 
      </Row>
      <Row Index="7">
        7.4470533954719587e-02 -3.3787331222003177e-02 3.1086684535687178e-02 2.4082014520924575e-01 -4.9199746149771691e-02 1.2056460248896662e-01 -2.6575276075961288e-02 4.8523149437095359e-01 -4.4477382991523269e-02 7.0464438584153299e-02 -5.5728218307201864e-02 2.0029290371489705e-01 -9.0622704011955227e-02 4.3805372798690900e-02 3.0049794083090831e-02 5.7515250168938659e-02 -6.6921546140533750e-02 1.0141199857793162e-01 1.9254651127057498e-02 8.1007936843395434e-01 -5.9268564425253967e-01 2.0014077451044174e-01 -2.3403562258882377e-02 2.6296986902680930e-01 -4.3113745098873268e-01 7.7738975533910834e-02 5.2027257395175275e-01 -4.4360780567646879e-01 1.9598413917706153e-01 -1.4202929235850215e-01 -1.6344549238304612e-01 2.1657792196081285e-01 5.6324674384776285e-02 8.8956951349290170e-01 -3.3743533802147235e-01 9.3328188454268290e-01 1.4076022675348026e+00 3.0218492915893298e-02 -2.2579240381774602e-02 
      </Row>
      <Row Index="8">
        -5.9670323199870001e-01 -7.3563381114976706e-02 1.6479735548279716e-02 -8.0868453948831617e-02 3.8632264439122671e-01 -1.6861766867369019e-01 1.2351087587748073e-02 -4.4477382992036629e-02 6.6550039577006959e-01 -8.1832853526336846e-05 3.9181952218897462e-02 -5.5753667566527686e-02 2.8980294399400780e-02 -1.9453619390001425e-02 -8.9524879075637415e-02 2.4951640585115079e-02 3.6859021846017426e-01 -2.0630068291593567e-01 -8.4605437327979083e-03 -1.4203620326460431e-01 -9.6361505722378604e-01 3.9555061990601931e-01 1.3339781915897259e-01 2.3439856004686888e-01 -4.7050833150250729e-02 -3.6099222543572271e-02 2.6482464001310935e-01 -6.0832211457471273e-02 -1.4530954971669910e-01 -1.8983992995205104e-01 -3.5284398724715935e-02 2.1299919425011679e-02 1.1616533456175936e-02 5.1326172558749106e-02 1.0160498862912283e-01 3.8151775211729649e-01 3.9712693378216916e-02 -2.2418797828689222e-02 -2.2836799856001569e-03 
      </Row>
      <Row Index="9">
        -1.0624531405469625e-01 -3.1965971623337258e-01 -1.5359545492600287e-02 7.9533730546646031e-02 2.6049135925190505e-02 6.2559175174359272e-04 -8.9583490565267911e-03 7.0464438585149169e-02 -8.1832853220019375e-05 4.1778031439362029e-01 -1.6440059840613671e-03 -1.5413235084916705e-02 -8.3190802317935200e-02 1.4419961664154146e-01 -7.0820406537330072e-02 1.5127974701276858e-02 -4.6107685576286056e-02 2.9441245385831434e-02 -6.0473454911625465e-02 1.4199239132067812e-01 2.3806198168806469e-02 1.5485126250274528e-01 2.5183284840575512e-02 1.4256947680347742e-01 -5.3559471731546759e-01 -7.3028693066629388e-02 9.0563681131088231e-02 -4.1217236396376167e-01 -1.1203259589530523e-01 -8.1258326370926545e-02 5.0676366330362835e-02 1.2141964651091433e-01 4.4096007527926195e-03 6.8283581493189016e-01 -1.4307118204544014e-02 7.1257643701557044e-02 8.9318222773563016e-01 -2.8465555478171187e-02 1.2165747928291663e-02 
      </Row>
      <Row Index="10">
        -4.4057868320916738e-02 -8.1012036486361613e-02 -6.3573594663115962e-02 -2.5803974525825977e-02 1.1329292929406515e-02 -1.1324561093764240e-01 2.1249596364116097e-02 -5.5728218307353319e-02 3.9181952218626963e-02 -1.6440059844349264e-03 7.0522959762528342e-02 -5.1849534342338008e-02 2.5910072751782438e-02 -1.3061522539686177e-02 -5.8888850746169397e-02 4.1499493197866277e-03 1.3614491270601643e-02 -1.6288574947604770e-01 -2.5700564775354512e-02 -1.0960414303117363e-01 6.3268623032232796e-02 6.6758596329545242e-02 2.4913161209806189e-02 -1.1882974117002020e-02 -7.2143398208847645e-02 -6.7277568700877907e-02 -6.5281331247991712e-03 -1.0962555287891759e-01 -1.8540941987073165e-01 2.9235487057795467e-02 -4.8284102066160087e-02 1.4210966118700584e-02 -4.3544572480716956e-02 1.4081111718991954e-01 1.3830903575571538e-01 -1.2524898951882293e-01 1.0636637498213762e-01 -4.2764474736259474e-02 1.5696157148833483e-02 
      </Row>
      <Row Index="11">
        1.0805407812043777e-01 7.3222165025134539e-02 4.4756674134260412e-02 8.5545233834687665e-02 -1.7807458420023708e-02 8.0018372041555486e-02 -1.3961086018681578e-02 2.0029290371546263e-01 -5.5753667566429674e-02 -1.5413235084640320e-02 -5.1849534342393457e-02 1.9383713896352397e-01 -3.6188552042415514e-03 -7.1583940190922402e-03 6.2955645862010801e-02 2.1723514556897028e-02 -1.4092965199117850e-02 1.1705585261124851e-01 2.5492622188008837e-02 3.9554033330757721e-01 -1.5624182812216159e-01 4.9833432130717517e-02 -3.7805152748507070e-02 2.9973794573037102e-03 -6.2299947429068137e-02 7.1802931802401632e-02 8.2938688344975697e-02 -3.5955117629152877e-02 1.9758282473802455e-01 3.1263132628754062e-02 2.7576743977808071e-02 4.7756694698348319e-02 -2.1220461696152632e-02 1.4518686881618248e-01 -2.2376471328043004e-01 1.5647595309230466e-01 3.3182723120282931e-01 4.5602122418671474e-02 -1.4901068239395790e-02 
      </Row>
      <Row Index="12">
        1.0358614475018041e-02 4.9542366975054521e-02 -1.6098537789103012e-02 -8.2029842955187324e-02 1.6651491571969990e-02 -2.6854906827307068e-02 1.2584778707976751e-02 -9.0622704012374378e-02 2.8980294399067050e-02 -8.3190802317896884e-02 2.5910072751555116e-02 -3.6188552039912378e-03 1.3187679384779122e-01 -2.8123047008246305e-02 6.4160249079465740e-03 -4.4967839523042952e-03 9.4390335203156178e-02 -1.5930448120540886e-02 -5.8165829652414725e-03 -1.5895392713200285e-01 2.4513711942049976e-01 -8.7897463296715744e-02 5.2804734284485760e-03 -1.1475572682111189e-01 2.2688450157639251e-01 -3.3737490280441512e-02 -1.2939209745288638e-01 2.2978228614245508e-01 -6.2321226348148809e-02 1.0044353645589189e-01 1.0500744623802222e-01 -6.7860464819264180e-02 -3.2909510194507934e-02 -4.2018638521021123e-01 7.9119505199373136e-02 -2.6574252638540174e-01 -6.0973168406684519e-01 -4.4559708750429826e-03 1.1052521378267670e-02 
      </Row>
      <Row Index="13">
        -2.6949118415071749e-02 4.0403094695598829e-03 -5.2526364685443264e-04 4.7642670469009642e-02 -2.1596931271975275e-03 1.1864280384913459e-01 -1.1854684156351351e-02 4.3805372798257983e-02 -1.9453619390061537e-02 1.4419961664134401e-01 -1.3061522539869834e-02 -7.1583940189556151e-03 -2.8123047008095411e-02 1.9196875280815517e-01 -3.6469861256007444e-02 1.7968984930427312e-02 -1.2386498405388191e-02 2.4375227112039696e-01 -1.8356218709287064e-02 7.5134892156002733e-02 1.2577904353222813e-02 -6.1778871320605278e-02 1.3026425872574965e-02 7.9368952877221177e-02 9.2645324140536583e-03 -2.1078040764901367e-02 1.8300106761880194e-02 1.8014623241718497e-01 -1.4753824791385123e-02 -5.4686201110328292e-02 1.5745869563906048e-01 2.7423677166069957e-02 -1.0579368741106739e-01 -3.2315686250109182e-01 3.8465500462684030e-02 -8.8524313103845537e-02 -4.5254212940079863e-01 -6.2161606684886586e-03 -3.7924517320049381e-03 
      </Row>
      <Row Index="14">
        1.6175652155462822e-01 1.4046474011534765e-01 5.5918728116505889e-02 -4.1015716510354842e-04 -6.0303342943519883e-02 1.2650221190773747e-01 -1.0561105008232943e-02 3.0049794082912321e-02 -8.9524879075333089e-02 -7.0820406536862279e-02 -5.8888850746168980e-02 6.2955645861865722e-02 6.4160249077046261e-03 -3.6469861256272162e-02 1.2286906086031708e-01 -2.2267178014007905e-02 -5.0975182552757334e-02 1.6552632608874479e-01 6.2173694874477006e-02 7.1856331961450498e-02 -7.9116944910525344e-02 -1.0533412961307062e-01 -6.3954223638384877e-02 -6.5324440056250488e-02 1.6015463626064280e-01 7.7347471432113749e-02 -6.3371243158609980e-02 1.8176003826561743e-01 2.6148936707419956e-01 1.5473529798500533e-02 7.3403683501919503e-02 -3.4482682149437241e-02 1.2610655533617529e-01 -2.6498873381937860e-01 -1.8333972897254480e-01 1.5157513649692766e-01 -2.8643944218887712e-01 6.1738758074956643e-02 -1.7865887803053513e-02 
      </Row>
      <Row Index="15">
        -3.4842788593480611e-02 -7.3060456035384611e-03 -4.3809289570005223e-03 3.7077677745616086e-02 1.3324937321377088e-02 4.0320979399611490e-03 -1.4322742688272271e-03 5.7515250168281448e-02 2.4951640585049770e-02 1.5127974700608109e-02 4.1499493196731942e-03 2.1723514556831722e-02 -4.4967839519477332e-03 1.7968984930640218e-02 -2.2267178013743099e-02 3.7224570574315413e-02 1.5820659261778117e-02 7.8834472335461044e-03 -1.1430930194063481e-02 1.0534882849622873e-01 -7.5376109399683977e-02 2.7282105044041674e-02 1.6942526959184780e-02 4.7275601208047670e-02 -4.3802002383403878e-02 -6.6615508130666778e-03 9.8337671136584051e-02 -2.5440667153547918e-02 -3.4614002923591736e-02 -3.3096431776132210e-02 -1.4501294415453676e-03 2.3627172591262163e-02 3.3371294569864283e-02 2.8264712505967668e-02 6.1081358753911786e-03 1.8527924712400232e-01 4.4039195442861431e-02 -8.8269395351444832e-03 7.4522955990237254e-04 
      </Row>
      <Row Index="16">
        -2.8659400817540809e-01 -9.7692009785059486e-04 3.9936927217201289e-02 -5.6492979449759881e-02 3.5165878751697743e-01 -6.9440117175515154e-02 2.6473615275789619e-02 -6.6921546141307797e-02 3.6859021846013418e-01 -4.6107685576693813e-02 1.3614491270623252e-02 -1.4092965199068466e-02 9.4390335203489634e-02 -1.2386498405368873e-02 -5.0975182552740500e-02 1.5820659261618575e-02 4.1031939172926168e-01 -7.8933153108065007e-02 3.0275825536949769e-02 -1.2597315290843836e-01 -5.0555824725415111e-01 5.0627776788779832e-02 1.0179352399616837e-01 1.9013434696057474e-01 1.5810216122854442e-01 -2.0695685090761411e-02 2.7582935718735474e-01 1.5161611314391799e-01 -1.0076587581060678e-01 -1.4613600080123279e-01 1.3949999642093952e-02 -4.1784572631829806e-04 -7.2556114306505798e-02 -2.4302244718615845e-01 8.8879474254318663e-02 3.3711452256026242e-01 -3.0601275415484364e-01 -1.3520027791247202e-02 -4.4285683335597318e-03 
      </Row>
      <Row Index="17">
        2.9267206021421965e-01 6.0187300452151682e-01 1.6191272162961276e-01 5.5719036092812688e-02 -1.1029465711197761e-01 7.7449384007332078e-01 -3.9097287790213348e-02 1.0141199857569572e-01 -2.0630068291540873e-01 2.9441245386204962e-02 -1.6288574947685658e-01 1.1705585261150342e-01 -1.5930448120592411e-02 2.4375227111974285e-01 1.6552632608980763e-01 7.8834472319511129e-03 -7.8933153108169368e-02 1.2271942291840365e+00 1.0465854345870608e-01 2.2120442309748145e-01 -1.5299219390304808e-01 -5.0257488084229096e-01 -6.8072265410653143e-02 -4.9867196877390510e-02 8.0325492833639678e-01 1.3311565241166307e-01 -1.6422293125202775e-01 1.2013477200601237e+00 5.1265780838549679e-01 -8.3228604285820143e-02 6.6135564629477228e-01 -7.9392055879780613e-02 -1.3919808996700478e-02 -2.0432492526150510e+00 -2.3875767614345736e-01 -2.9277036842974391e-02 -2.5556089931054728e+00 1.2792318455634027e-01 -5.2875294414695455e-02 
      </Row>
      <Row Index="18">
        9.2456920286465072e-02 1.1040922108888394e-01 3.9457484240060195e-02 1.6814604637440868e-02 2.3187857844413573e-02 7.8193003229578784e-02 7.8849545508292845e-03 1.9254651127019684e-02 -8.4605437325380867e-03 -6.0473454911354585e-02 -2.5700564775310575e-02 2.5492622187942161e-02 -5.8165829653621937e-03 -1.8356218709419947e-02 6.2173694874417193e-02 -1.1430930194185729e-02 3.0275825536997737e-02 1.0465854345797043e-01 6.8464571416685965e-02 4.2703735734793094e-02 -2.5451522703002105e-01 -5.1518119640511589e-02 -2.3506319045137780e-02 2.6173607868929905e-02 1.1021625239369215e-01 5.8504290040898022e-02 6.0049297917297149e-02 1.0389091703475950e-01 1.6230686156954990e-01 -5.2853310924567035e-02 -6.7410913831678076e-03 -2.6176453639708656e-03 1.9396497080304598e-02 -1.3163417020529627e-01 -8.8891398670618404e-02 1.9431621822749851e-01 -1.2134399267861048e-01 3.4398314082363969e-02 -1.9605970595090932e-02 
      </Row>
      <Row Index="19">
        1.9784021999532009e-01 1.9690428586515846e-02 6.3673846726110483e-02 5.4774858985081198e-01 -7.6217581713682647e-02 1.7411579286219636e-01 -4.5001601187757617e-02 8.1007936843307160e-01 -1.4203620326347460e-01 1.4199239131851682e-01 -1.0960414303072130e-01 3.9554033330607929e-01 -1.5895392713096546e-01 7.5134892156893507e-02 7.1856331961658360e-02 1.0534882849743488e-01 -1.2597315290681871e-01 2.2120442310184174e-01 4.2703735734785697e-02 1.5401954009266154e+00 -1.1293046898363621e+00 3.7161649697445021e-01 -5.4359162406290795e-02 4.9187272856290343e-01 -8.4018730510557860e-01 1.5371882070437462e-01 1.0007740110829755e+00 -8.5967359569349500e-01 4.0593942135940886e-01 -2.8402593034549839e-01 -2.9147394479094602e-01 4.2505742257030993e-01 2.2434762346064929e-01 1.7194803320534477e+00 -6.8695104046506195e-01 1.9662052167752093e+00 2.7309423939302837e+00 6.7200407422882441e-02 -4.5190928741429756e-02 
      </Row>
      <Row Index="20">
        4.7924582632995372e-01 -3.0242825683979407e-01 -1.6282184662099539e-01 -4.5438525960707299e-01 -7.2217381032373629e-01 -3.9635946941698030e-02 -4.1564129612654432e-02 -5.9268564423225745e-01 -9.6361505722824403e-01 2.3806198183271121e-02 6.3268623030920401e-02 -1.5624182811540294e-01 2.4513711941147065e-01 1.2577904348894720e-02 -7.9116944911816547e-02 -7.5376109400184355e-02 -5.0555824726172993e-01 -1.5299219392638497e-01 -2.5451522703058022e-01 -1.1293046897992973e+00 6.9735130304613229e+00 -1.0931352215077479e+00 -3.9352477570983169e-01 -2.3764198508708043e+00 5.7023577180771978e-01 -9.1764341412650552e-02 -3.7669974968655300e+00 5.8198825625422468e-01 -3.3346445662905355e-01 2.2739687609477492e+00 4.0642329289666801e-01 -7.5860864459192145e-01 -2.1560693095302366e+00 -1.2862266158300659e+00 7.9134120928606633e-01 -9.2369032182641782e+00 -2.2440836491199323e+00 -9.5235209969964485e-02 1.2854585727268786e-01 
      </Row>
      <Row Index="21">
        -3.7843737603884986e-01 -3.2024333005746730e-01 -6.3070522713146032e-02 1.5531938075278828e-01 2.1068402927232313e-01 -3.5603768748100412e-01 1.3149706527320053e-02 2.0014077451611617e-01 3.9555061990758411e-01 1.5485126250426590e-01 6.6758596331485440e-02 4.9833432129448310e-02 -8.7897463297732542e-02 -6.1778871320129158e-02 -1.0533412961568513e-01 2.7282105046989358e-02 5.0627776790053883e-02 -5.0257488084725654e-01 -5.1518119642013041e-02 3.7161649698635169e-01 -1.0931352215729988e+00 1.3896483442917302e+00 6.0180971992175147e-02 2.0526388497949136e-01 -1.4291750544666448e+00 1.3438717601905192e-02 3.1908732831966996e-01 -1.7113957403580506e+00 -8.7363313832899123e-02 -1.7820706022636451e-01 -7.4684298558153173e-01 2.4184482964199031e-01 1.0758167643817600e-01 3.4494237459096020e+00 -1.5543764094178097e-01 5.1246194964643910e-01 5.3023261234380010e+00 -3.6391438758212866e-02 -4.8421554376054656e-03 
      </Row>
      <Row Index="22">
        -1.7645666415271766e-01 -3.8514973736551106e-02 -1.1721087376535495e-02 -1.1866357121418085e-02 9.4005343733804952e-02 -6.6471613357206860e-02 7.6654065478781869e-03 -2.3403562261470529e-02 1.3339781915905707e-01 2.5183284838491304e-02 2.4913161209761350e-02 -3.7805152748997831e-02 5.2804734297271505e-03 1.3026425873235992e-02 -6.3954223638027885e-02 1.6942526959191018e-02 1.0179352399689962e-01 -6.8072265406774024e-02 -2.3506319045001122e-02 -5.4359162411325580e-02 -3.9352477570427791e-01 6.0180971982873629e-02 1.1474501947235952e-01 2.5246181260455541e-01 -1.9605561725862364e-02 -8.6535142788623814e-02 3.9195346099402090e-01 -1.5704252250546891e-02 -2.4048771021007803e-01 -2.2656351433367972e-01 -9.3370207140427430e-03 7.1667104991981645e-02 1.2091513750690103e-01 -4.0368600953881173e-03 1.1445684481774829e-01 7.3907034629315660e-01 -2.9080929307448516e-02 -4.8902542853240555e-02 1.2160026113051855e-02 
      </Row>
      <Row Index="23">
        -2.6920162776892326e-01 -4.9250822912763503e-02 2.2482608306707674e-02 2.4251486450272811e-01 2.1118166447908221e-01 -7.8100788468959070e-02 3.4825483202397256e-03 2.6296986901597830e-01 2.3439856004857268e-01 1.4256947679502141e-01 -1.1882974116620829e-02 2.9973794540703591e-03 -1.1475572681598317e-01 7.9368952879873778e-02 -6.5324440055171101e-02 4.7275601208462636e-02 1.9013434696447781e-01 -4.9867196862551255e-02 2.6173607869386571e-02 4.9187272854289898e-01 -2.3764198508691972e+00 2.0526388494113951e-01 2.5246181260728096e-01 1.2509097989697759e+00 -4.0525401036731723e-01 -9.9341463770469748e-02 1.9792645758765823e+00 -3.7888533442033323e-01 -2.3809155235430704e-01 -1.0937562277787711e+00 -2.0387158989664333e-01 4.3222722057427693e-01 8.9744583073720285e-01 7.1988296398500229e-01 -1.7871181908096156e-01 4.3739727622851419e+00 1.0927802308130237e+00 -5.2769513422631947e-02 -1.6481199260286874e-02 
      </Row>
      <Row Index="24">
        1.9590246742097139e-01 8.6120187465676101e-01 1.0908818957635276e-01 -3.8921131395823161e-01 -1.0475996135325266e-02 4.4227442442579745e-01 9.1643646785781879e-03 -4.3113745099648576e-01 -4.7050833153265637e-02 -5.3559471731597319e-01 -7.2143398212053497e-02 -6.2299947426162308e-02 2.2688450157708834e-01 9.2645324123747930e-03 1.6015463626464013e-01 -4.3802002388774963e-02 1.5810216122526657e-01 8.0325492833988865e-01 1.1021625239591062e-01 -8.4018730512252793e-01 5.7023577192737207e-01 -1.4291750544564559e+00 -1.9605561743182148e-02 -4.0525401043706921e-01 2.7097670367230378e+00 3.2476500194632330e-02 -7.2798026878882904e-01 3.1477871175989236e+00 2.2356257982993941e-01 2.9542806145649747e-01 1.2851827715294768e+00 -5.4610856307189870e-01 -4.9986008019880657e-01 -6.2656346255115061e+00 3.5965588495835077e-01 -1.5443567384542387e+00 -9.4657920058002265e+00 1.0069109748841880e-01 -1.9555155257302753e-02 
      </Row>
      <Row Index="25">
        1.1445307547834449e-01 1.1979529220180196e-01 7.1074395421491854e-02 4.5857628143208415e-02 -8.7317236829255740e-03 1.1632515373952157e-01 -1.7171257461053496e-02 7.7738975536239208e-02 -3.6099222543229170e-02 -7.3028693064735695e-02 -6.7277568700704615e-02 7.1802931802647102e-02 -3.3737490281602889e-02 -2.1078040765497796e-02 7.7347471431674281e-02 -6.6615508129981293e-03 -2.0695685091147692e-02 1.3311565240779710e-01 5.8504290040739072e-02 1.5371882070910078e-01 -9.1764341421384010e-02 1.3438717610277429e-02 -8.6535142788119968e-02 -9.9341463766038945e-02 3.2476500178959089e-02 1.5648037217832808e-01 -1.6530561911585018e-01 8.9698004803785425e-03 3.6534855516136133e-01 6.3281927097260923e-02 -6.7957983336592864e-02 -5.1439201777493240e-02 -6.2118026195623371e-02 9.4652723280802820e-02 -2.1198833889525653e-01 -2.4321059751282254e-01 2.7930485112860615e-01 7.6871127961023702e-02 -3.4847509094422156e-02 
      </Row>
      <Row Index="26">
        -2.6432901913568735e-01 -1.3583667741286276e-02 1.7050538266413659e-02 4.5229557767133399e-01 2.4437246567750329e-01 -1.4805822213264563e-01 1.2102980257863785e-02 5.2027257393303827e-01 2.6482464001606126e-01 9.0563681116100359e-02 -6.5281331241742735e-03 8.2938688339199512e-02 -1.2939209744391938e-01 1.8300106766674595e-02 -6.3371243156619475e-02 9.8337671137534444e-02 2.7582935719429130e-01 -1.6422293122511622e-01 6.0049297918163179e-02 1.0007740110485950e+00 -3.7669974968693478e+00 3.1908732825118019e-01 3.9195346099955064e-01 1.9792645758800680e+00 -7.2798026866539844e-01 -1.6530561912416208e-01 3.3937865355930832e+00 -8.4139894481567445e-01 -4.0802714936765871e-01 -1.7365686576848063e+00 -4.9192345025963935e-01 7.6224259524914506e-01 1.6655179886749167e+00 1.6150515589721322e+00 -3.7090804536438499e-01 7.6326970952923414e+00 2.4718084264116920e+00 -9.5690293411220387e-02 -1.7971997250520306e-02 
      </Row>
      <Row Index="27">
        1.7997550128834872e-01 9.7746423067228438e-01 1.3953764952147260e-01 -4.2322319304180017e-01 -4.5516192189329896e-03 6.4869108868748748e-01 -3.2240137514906730e-03 -4.4360780568666147e-01 -6.0832211461119723e-02 -4.1217236396472501e-01 -1.0962555288288682e-01 -3.5955117625724467e-02 2.2978228614356649e-01 1.8014623241518546e-01 1.8176003827066536e-01 -2.5440667160235964e-02 1.5161611314002155e-01 1.2013477200650775e+00 1.0389091703753130e-01 -8.5967359571549673e-01 5.8198825640245078e-01 -1.7113957403469922e+00 -1.5704252271922375e-02 -3.7888533450678286e-01 3.1477871176018439e+00 8.9698004996246333e-03 -8.4139894496882273e-01 3.9282258841388060e+00 2.8044085167991101e-01 2.8572996471352480e-01 1.8051470948740302e+00 -5.9915471300350309e-01 -5.9266866898724713e-01 -7.8474870053634564e+00 3.7924275649779393e-01 -1.7833549769228134e+00 -1.1848930335712399e+01 1.2702734339764726e-01 -2.3217980827427268e-02 
      </Row>
      <Row Index="28">
        3.7803278943447727e-01 3.2425812098083284e-01 1.9052772792414704e-01 1.0676774657980471e-01 -7.6977111004253640e-02 3.9767686970973681e-01 -4.8001299701359856e-02 1.9598413918088364e-01 -1.4530954971576437e-01 -1.1203259589129555e-01 -1.8540941987046322e-01 1.9758282473834071e-01 -6.2321226350533054e-02 -1.4753824792877346e-02 2.6148936707348086e-01 -3.4614002923922360e-02 -1.0076587581140961e-01 5.1265780837705566e-01 1.6230686156936744e-01 4.0593942136735284e-01 -3.3346445664087021e-01 -8.7363313814120769e-02 -2.4048771020996251e-01 -2.3809155234902402e-01 2.2356257979632854e-01 3.6534855516221282e-01 -4.0802714935753309e-01 2.8044085163837451e-01 1.0151013926288053e+00 1.2405382216109737e-01 8.6076993571997829e-02 -1.2886835781313297e-01 4.6781810667849116e-02 -2.9188290247779669e-01 -6.1332067661622636e-01 -2.8440837245549888e-01 -1.1889271171745351e-01 2.2790439469410109e-01 -9.0208724486098235e-02 
      </Row>
      <Row Index="29">
        1.7273111301782590e-01 -5.2619283007675044e-02 -5.1511546206174492e-02 -1.6348843395840051e-01 -1.5011225814988982e-01 -2.4065129736583479e-02 2.8988093919957159e-04 -1.4202929234744449e-01 -1.8983992995413879e-01 -8.1258326362634747e-02 2.9235487057379911e-02 3.1263132632165999e-02 1.0044353645085485e-01 -5.4686201112962518e-02 1.5473529797531207e-02 -3.3096431776435287e-02 -1.4613600080537548e-01 -8.3228604300360054e-02 -5.2853310925078667e-02 -2.8402593032491569e-01 2.2739687609453423e+00 -1.7820706018877072e-01 -2.2656351433635014e-01 -1.0937562277781998e+00 2.9542806138761823e-01 6.3281927101535976e-02 -1.7365686576800654e+00 2.8572996462821815e-01 1.2405382216624503e-01 1.1029147633669703e+00 1.7352724918814144e-01 -3.3239018119228037e-01 -1.1587238373732662e+00 -5.8441638148651665e-01 1.6996366444596661e-01 -4.3865515480765476e+00 -9.6450390117690410e-01 2.0957553128646642e-02 2.6832104371709596e-02 
      </Row>
      <Row Index="30">
        3.2721976081332912e-02 2.9720161628064362e-01 5.2621177981652639e-02 -1.9444154271282404e-01 -2.4713631743378678e-02 3.5532326304509954e-01 -9.4698709438463292e-03 -1.6344549238864009e-01 -3.5284398726566205e-02 5.0676366329549194e-02 -4.8284102068069323e-02 2.7576743979253648e-02 1.0500744623881035e-01 1.5745869563814668e-01 7.3403683504440001e-02 -1.4501294448132918e-03 1.3949999640286037e-02 6.6135564629782806e-01 -6.7410913818127900e-03 -2.9147394480278760e-01 4.0642329296893498e-01 -7.4684298557792550e-01 -9.3370207243159836e-03 -2.0387158993867427e-01 1.2851827715339037e+00 -6.7957983327452870e-02 -4.9192345033418899e-01 1.8051470948776835e+00 8.6076993591922224e-02 1.7352724922946530e-01 1.1291021148753400e+00 -2.2927342375713633e-01 -1.2649377460237304e-01 -3.8052639308735619e+00 1.1977082526833463e-01 -8.4272734143462813e-01 -5.9011334691440505e+00 6.2827079523793378e-02 4.7228987963351451e-03 
      </Row>
      <Row Index="31">
        -4.7371871150403526e-02 -1.0611323843448935e-01 -2.1139351191648319e-02 1.8497940360808818e-01 2.5629126467257062e-02 -5.2411820335592829e-02 3.7590447551455516e-03 2.1657792195853645e-01 2.1299919425874898e-02 1.2141964650836698e-01 1.4210966119267606e-02 4.7756694696923917e-02 -6.7860464817740107e-02 2.7423677167135285e-02 -3.4482682149639801e-02 2.3627172592161294e-02 -4.1784572470277351e-04 -7.9392055875564069e-02 -2.6176453641669124e-03 4.2505742256656898e-01 -7.5860864460880173e-01 2.4184482962856430e-01 7.1667104995329342e-02 4.3222722058444274e-01 -5.4610856305027566e-01 -5.1439201781166941e-02 7.6224259526610405e-01 -5.9915471297626455e-01 -1.2886835781963743e-01 -3.3239018120253655e-01 -2.2927342374341353e-01 2.8314663409411828e-01 2.7062006709667263e-01 1.1276696058913220e+00 -1.5336267941781639e-01 1.5257326101200608e+00 1.6777617581655697e+00 -4.0319045962141128e-02 2.4395293199581075e-03 
      </Row>
      <Row Index="32">
        6.8093273041592461e-02 -4.2941676407852680e-02 4.9521917864048914e-02 7.3609171625822284e-02 -1.0687374564064961e-01 6.8536771881104852e-02 -2.6979062161631824e-02 5.6324674366348748e-02 1.1616533459525041e-02 4.4096007395285075e-03 -4.3544572480139009e-02 -2.1220461702263348e-02 -3.2909510186657664e-02 -1.0579368740679296e-01 1.2610655533786222e-01 3.3371294570231802e-02 -7.2556114299817315e-02 -1.3919808972366332e-02 1.9396497081404368e-02 2.2434762342617703e-01 -2.1560693095297152e+00 1.0758167637748252e-01 1.2091513751149520e-01 8.9744583073755668e-01 -4.9986008008828142e-01 -6.2118026202430711e-02 1.6655179886691769e+00 -5.9266866885048586e-01 4.6781810659794039e-02 -1.1587238373755036e+00 -1.2649377453636271e-01 2.7062006708031927e-01 2.9433598336772091e+00 1.1241210384769473e+00 -4.3548514453638731e-01 6.6736754041410444e+00 1.7650203405227116e+00 3.8523149955611277e-02 -7.0235459090771451e-03 
      </Row>
      <Row Index="33">
        -1.6942832269712338e-01 -1.7137696652216010e+00 -1.8378235876494764e-01 8.1482056959639404e-01 2.3046421454688548e-02 -1.0551134908517814e+00 1.2462579377029714e-03 8.8956951351760827e-01 5.1326172567777606e-02 6.8283581493620149e-01 1.4081111719869580e-01 1.4518686880881193e-01 -4.2018638521387935e-01 -3.2315686249735398e-01 -2.6498873383084931e-01 2.8264712520689628e-02 -2.4302244717760954e-01 -2.0432492526301056e+00 -1.3163417021150911e-01 1.7194803321062797e+00 -1.2862266161656821e+00 3.4494237458942578e+00 -4.0368600478991323e-03 7.1988296417969777e-01 -6.2656346255345952e+00 9.4652723238679876e-02 1.6150515593171881e+00 -7.8474870053838215e+00 -2.9188290256946803e-01 -5.8441638167863674e-01 -3.8052639308750864e+00 1.1276696059548750e+00 1.1241210387852485e+00 1.6885147909511229e+01 -8.9454178407891582e-01 3.5385993348143869e+00 2.6730021485946423e+01 -1.9387979152786966e-01 1.8769033014717655e-02 
      </Row>
      <Row Index="34">
        -2.1171526701167154e-01 -1.0786579065744917e-01 -1.2742180889182073e-01 -2.0640168729620986e-01 5.4545383204861242e-02 -2.1232601417887187e-01 4.0484695586177011e-02 -3.3743533802176640e-01 1.0160498862761513e-01 -1.4307118204893055e-02 1.3830903575496617e-01 -2.2376471327912634e-01 7.9119505199596984e-02 3.8465500462740110e-02 -1.8333972897185397e-01 6.1081358747716585e-03 8.8879474253320656e-02 -2.3875767614156096e-01 -8.8891398670317617e-02 -6.8695104046672673e-01 7.9134120931134699e-01 -1.5543764094197182e-01 1.1445684481435764e-01 -1.7871181909481104e-01 3.5965588496118173e-01 -2.1198833889225607e-01 -3.7090804538841077e-01 3.7924275650082917e-01 -6.1332067660983558e-01 1.6996366445996894e-01 1.1977082526917959e-01 -1.5336267942244211e-01 -4.3548514455887832e-01 -8.9454178408211371e-01 6.5496264940685567e-01 -1.3141980738237993e+00 -1.5929904399537673e+00 -1.3504814036717977e-01 5.1090444068018513e-02 
      </Row>
      <Row Index="35">
        -1.5402095405018179e-01 1.0018508932870063e-01 1.6249499747771043e-01 8.4070933259544101e-01 2.3531260143289512e-01 2.5828597156503541e-02 -2.4406504763105741e-02 9.3328188448751348e-01 3.8151775212675254e-01 7.1257643660121772e-02 -1.2524898951722563e-01 1.5647595307491854e-01 -2.6574252636067652e-01 -8.8524313090750262e-02 1.5157513650261906e-01 1.8527924712550714e-01 3.3711452258025165e-01 -2.9277036767907383e-02 1.9431621823055850e-01 1.9662052166730182e+00 -9.2369032182631088e+00 5.1246194945806889e-01 7.3907034630703305e-01 4.3739727622869911e+00 -1.5443567381115613e+00 -2.4321059753409746e-01 7.6326970952770523e+00 -1.7833549764983079e+00 -2.8440837248012835e-01 -4.3865515480830046e+00 -8.4272734122890203e-01 1.5257326100701312e+00 6.6736754041432409e+00 3.5385993338586319e+00 -1.3141980737560248e+00 2.1355213251522834e+01 5.6377462816974058e+00 -2.8386847820776273e-02 -7.3050168496544443e-02 
      </Row>
      <Row Index="36">
        -1.1354177129898280e-01 -2.2381221045364548e+00 -1.5095079149446181e-01 1.2316811260259437e+00 5.4448701584626696e-02 -1.2355652717423018e+00 -1.3155135368574995e-02 1.4076022675758024e+00 3.9712693393956819e-02 8.9318222774415479e-01 1.0636637499633878e-01 3.3182723119079205e-01 -6.0973168407360356e-01 -4.5254212939528421e-01 -2.8643944220761663e-01 4.4039195466478886e-02 -3.0601275414080842e-01 -2.5556089931328856e+00 -1.2134399268867796e-01 2.7309423940178568e+00 -2.2440836496687080e+00 5.3023261234199985e+00 -2.9080929230467074e-02 1.0927802311303505e+00 -9.4657920058493108e+00 2.7930485106080410e-01 2.4718084269739071e+00 -1.1848930335759727e+01 -1.1889271186547470e-01 -9.6450390149010778e-01 -5.9011334691532431e+00 1.6777617582706168e+00 1.7650203410254455e+00 2.6730021485978185e+01 -1.5929904399510966e+00 5.6377462832545415e+00 4.3616704451493028e+01 -2.1833159150810663e-01 -4.7043055021579478e-03 
      </Row>
      <Row Index="37">
        7.8216369461185931e-02 7.9380975288440236e-02 4.6467334307365972e-02 8.0941304213474723e-03 -1.1782604847005912e-02 9.5398505736633554e-02 -1.0768447633755340e-02 3.0218492916381290e-02 -2.2418797828513137e-02 -2.8465555477411586e-02 -4.2764474736256303e-02 4.5602122418736180e-02 -4.4559708754822736e-03 -6.2161606688302395e-03 6.1738758074890460e-02 -8.8269395353346436e-03 -1.3520027791434297e-02 1.2792318455471563e-01 3.4398314082374565e-02 6.7200407423916864e-02 -9.5235209969904533e-02 -3.6391438754369676e-02 -4.8902542853548309e-02 -5.2769513422997211e-02 1.0069109748194804e-01 7.6871127961482738e-02 -9.5690293411749006e-02 1.2702734338957755e-01 2.2790439469472629e-01 2.0957553129005328e-02 6.2827079519858775e-02 -4.0319045961325059e-02 3.8523149954976910e-02 -1.9387979150979334e-01 -1.3504814036842785e-01 -2.8386847822886030e-02 -2.1833159147874814e-01 5.5111669934845883e-02 -1.9896700339694751e-02 
      </Row>
      <Row Index="38">
        -2.6439279060339854e-02 -3.7719489752586266e-02 -1.9541965622392701e-02 -1.8441590733480395e-02 -6.9370514740197120e-03 -3.8061248431266903e-02 2.9700710764055047e-03 -2.2579240381926352e-02 -2.2836799857323953e-03 1.2165747928091775e-02 1.5696157148802417e-02 -1.4901068239378895e-02 1.1052521378381142e-02 -3.7924517319231077e-03 -1.7865887803007373e-02 7.4522955992673001e-04 -4.4285683335720943e-03 -5.2875294414211488e-02 -1.9605970595082699e-02 -4.5190928741784278e-02 1.2854585727360079e-01 -4.8421554385815330e-03 1.2160026113003361e-02 -1.6481199260694954e-02 -1.9555155255629619e-02 -3.4847509094424731e-02 -1.7971997251240886e-02 -2.3217980825368634e-02 -9.0208724486018133e-02 2.6832104372087742e-02 4.7228987973094161e-03 2.4395293195800805e-03 -7.0235459095768782e-03 1.8769033010230196e-02 5.1090444068329140e-02 -7.3050168498231427e-02 -4.7043055093613645e-03 -1.9896700339649298e-02 1.1257427944509018e-02 
      </Row>
    </InverseHessian>
  </Weights>
</MethodSetup>
