<?xml version="1.0"?>
<MethodSetup Method="MLP::MLP">
  <GeneralInfo>
    <Info name="TMVA Release" value="4.1.2 [262402]"/>
    <Info name="ROOT Release" value="5.32/00 [335872]"/>
    <Info name="Creator" value="tomc"/>
    <Info name="Date" value="Thu Jan 10 13:51:03 2013"/>
    <Info name="Host" value="Linux lxbuild168.cern.ch 2.6.18-308.1.1.el5 #1 SMP Wed Mar 7 19:25:07 CET 2012 x86_64 x86_64 x86_64 GNU/Linux"/>
    <Info name="Dir" value="/user_mnt/user/tomc/QGTagger/training/c/12/aKDE03"/>
    <Info name="Training events" value="2487015"/>
    <Info name="TrainingTime" value="9.62034974e+03"/>
    <Info name="AnalysisType" value="Classification"/>
  </GeneralInfo>
  <Options>
    <Option name="NCycles" modified="No">500</Option>
    <Option name="HiddenLayers" modified="No">N,N-1</Option>
    <Option name="NeuronType" modified="No">sigmoid</Option>
    <Option name="RandomSeed" modified="No">1</Option>
    <Option name="EstimatorType" modified="No">MSE</Option>
    <Option name="NeuronInputType" modified="No">sum</Option>
    <Option name="V" modified="Yes">False</Option>
    <Option name="VerbosityLevel" modified="No">Default</Option>
    <Option name="VarTransform" modified="Yes">N</Option>
    <Option name="H" modified="Yes">False</Option>
    <Option name="CreateMVAPdfs" modified="Yes">True</Option>
    <Option name="IgnoreNegWeightsInTraining" modified="No">False</Option>
    <Option name="TrainingMethod" modified="No">BP</Option>
    <Option name="LearningRate" modified="No">2.000000e-02</Option>
    <Option name="DecayRate" modified="No">1.000000e-02</Option>
    <Option name="TestRate" modified="Yes">3</Option>
    <Option name="EpochMonitoring" modified="No">False</Option>
    <Option name="Sampling" modified="No">1.000000e+00</Option>
    <Option name="SamplingEpoch" modified="No">1.000000e+00</Option>
    <Option name="SamplingImportance" modified="No">1.000000e+00</Option>
    <Option name="SamplingTraining" modified="No">True</Option>
    <Option name="SamplingTesting" modified="No">False</Option>
    <Option name="ResetStep" modified="No">50</Option>
    <Option name="Tau" modified="No">3.000000e+00</Option>
    <Option name="BPMode" modified="No">sequential</Option>
    <Option name="BatchSize" modified="No">-1</Option>
    <Option name="ConvergenceImprove" modified="No">1.000000e-30</Option>
    <Option name="ConvergenceTests" modified="No">-1</Option>
    <Option name="UseRegulator" modified="Yes">True</Option>
    <Option name="UpdateLimit" modified="No">10000</Option>
    <Option name="CalculateErrors" modified="No">False</Option>
    <Option name="WeightRange" modified="No">1.000000e+00</Option>
  </Options>
  <Variables NVar="4">
    <Variable VarIndex="0" Expression="axis1" Label="axis1" Title="axis1" Unit="" Internal="axis1" Type="F" Min="4.89932369e-04" Max="3.71896088e-01"/>
    <Variable VarIndex="1" Expression="axis2" Label="axis2" Title="axis2" Unit="" Internal="axis2" Type="F" Min="-2.24729345e-04" Max="2.35349566e-01"/>
    <Variable VarIndex="2" Expression="mult" Label="mult" Title="mult" Unit="" Internal="mult" Type="I" Min="0.00000000e+00" Max="5.10000000e+01"/>
    <Variable VarIndex="3" Expression="ptD" Label="ptD" Title="ptD" Unit="" Internal="ptD" Type="F" Min="1.38770446e-01" Max="9.96675193e-01"/>
  </Variables>
  <Spectators NSpec="0"/>
  <Classes NClass="2">
    <Class Name="Signal" Index="0"/>
    <Class Name="Background" Index="1"/>
  </Classes>
  <Transformations NTransformations="1">
    <Transform Name="Normalize">
      <Selection>
        <Input NInputs="4">
          <Input Type="Variable" Label="axis1" Expression="axis1"/>
          <Input Type="Variable" Label="axis2" Expression="axis2"/>
          <Input Type="Variable" Label="mult" Expression="mult"/>
          <Input Type="Variable" Label="ptD" Expression="ptD"/>
        </Input>
        <Output NOutputs="4">
          <Output Type="Variable" Label="axis1" Expression="axis1"/>
          <Output Type="Variable" Label="axis2" Expression="axis2"/>
          <Output Type="Variable" Label="mult" Expression="mult"/>
          <Output Type="Variable" Label="ptD" Expression="ptD"/>
        </Output>
      </Selection>
      <Class ClassIndex="0">
        <Ranges>
          <Range Index="0" Min="1.9969609566032887e-03" Max="3.6841738224029541e-01"/>
          <Range Index="1" Min="3.2561260741204023e-04" Max="2.3534956574440002e-01"/>
          <Range Index="2" Min="0.0000000000000000e+00" Max="5.1000000000000000e+01"/>
          <Range Index="3" Min="1.3877044618129730e-01" Max="9.8248600959777832e-01"/>
        </Ranges>
      </Class>
      <Class ClassIndex="1">
        <Ranges>
          <Range Index="0" Min="4.8993236850947142e-04" Max="3.7189608812332153e-01"/>
          <Range Index="1" Min="-2.2472934506367892e-04" Max="2.2808551788330078e-01"/>
          <Range Index="2" Min="0.0000000000000000e+00" Max="4.6000000000000000e+01"/>
          <Range Index="3" Min="1.4826968312263489e-01" Max="9.9667519330978394e-01"/>
        </Ranges>
      </Class>
      <Class ClassIndex="2">
        <Ranges>
          <Range Index="0" Min="4.8993236850947142e-04" Max="3.7189608812332153e-01"/>
          <Range Index="1" Min="-2.2472934506367892e-04" Max="2.3534956574440002e-01"/>
          <Range Index="2" Min="0.0000000000000000e+00" Max="5.1000000000000000e+01"/>
          <Range Index="3" Min="1.3877044618129730e-01" Max="9.9667519330978394e-01"/>
        </Ranges>
      </Class>
    </Transform>
  </Transformations>
  <MVAPdfs>
    <PDF Name="MLP_PDFSig" MinNSmooth="0" MaxNSmooth="0" InterpolMethod="5" KDE_type="1" KDE_iter="2" KDE_border="1" KDE_finefactor="3.0000001192092896e-01">
      <Histogram Name="MLP_tr_S_original" NBins="250" XMin="-1.1156007647514343e-02" XMax="1.0072284936904907e+00" HasEquidistantBins="1">
        0.00000000e+00 0.00000000e+00 0.00000000e+00 0.00000000e+00 0.00000000e+00 0.00000000e+00 0.00000000e+00 0.00000000e+00 1.56216280e-04 0.00000000e+00 0.00000000e+00 0.00000000e+00 0.00000000e+00 1.56216280e-04 0.00000000e+00 1.56216280e-04 0.00000000e+00 4.68648825e-04 1.09351391e-03 2.96810921e-03 5.31135313e-03 2.28075758e-02 4.29594740e-02 7.04535395e-02 8.01389515e-02 9.63854417e-02 1.15600042e-01 1.27160043e-01 1.27472475e-01 1.39188707e-01 1.44187629e-01 1.51217356e-01 1.59340605e-01 1.62621140e-01 1.72775194e-01 1.69494659e-01 1.79804936e-01 1.77149251e-01 1.91208720e-01 1.96676284e-01 1.95426553e-01 1.98394671e-01 1.98863313e-01 2.07767650e-01 2.07923859e-01 2.19171435e-01 2.15734676e-01 2.21827105e-01 2.34480634e-01 2.20421165e-01 2.38698468e-01 2.33855769e-01 2.36199006e-01 2.46977925e-01 2.32606038e-01 2.55569816e-01 2.46821716e-01 2.60412544e-01 2.54007667e-01 2.61349827e-01 2.69160628e-01 2.66973615e-01 2.72597402e-01 2.71816313e-01 2.71972537e-01 2.84001201e-01 2.92593092e-01 2.86813080e-01 2.94623882e-01 3.07746053e-01 3.00716341e-01 3.03059578e-01 3.01809847e-01 3.03059578e-01 3.24617416e-01 3.28991473e-01 3.26023370e-01 3.23836327e-01 3.30553651e-01 3.36333632e-01 3.59297425e-01 3.55079591e-01 3.39614183e-01 3.41488779e-01 3.69295269e-01 3.63827705e-01 3.78043383e-01 3.73044461e-01 3.60390961e-01 3.94289881e-01 3.80699068e-01 3.76012564e-01 3.88353646e-01 3.97101760e-01 4.12723392e-01 4.09442872e-01 4.17409897e-01 3.97257984e-01 4.29594755e-01 4.26939070e-01 4.18659627e-01 4.40061241e-01 4.51621264e-01 4.41935837e-01 4.53652054e-01 4.73647743e-01 4.73335326e-01 4.87082332e-01 4.86926138e-01 4.94580716e-01 4.90831524e-01 4.95361805e-01 5.10983407e-01 5.28011024e-01 5.26917517e-01 5.27229905e-01 5.43632627e-01 5.71126699e-01 5.67377508e-01 5.54567754e-01 5.92840791e-01 5.85967243e-01 5.94402909e-01 6.18772686e-01 6.04244530e-01 6.32832110e-01 6.37987256e-01 6.49078608e-01 6.67824566e-01 7.12033808e-01 6.64856493e-01 7.03754306e-01 6.92350507e-01 7.27186739e-01 7.29842424e-01 7.30467319e-01 7.54837036e-01 7.82018661e-01 7.69521356e-01 8.02483022e-01 7.97640324e-01 8.19666803e-01 8.29977095e-01 8.42943013e-01 8.47941935e-01 8.42943013e-01 8.87464643e-01 8.93400908e-01 8.99024665e-01 9.11521971e-01 9.32767391e-01 9.55731153e-01 9.62448478e-01 9.90254998e-01 9.88224149e-01 9.99940395e-01 1.02087331e+00 1.06336415e+00 1.03571391e+00 1.06539500e+00 1.08898365e+00 1.09741938e+00 1.11819613e+00 1.15271986e+00 1.15662527e+00 1.17755830e+00 1.19755399e+00 1.20895779e+00 1.23879504e+00 1.23910749e+00 1.30284369e+00 1.28097343e+00 1.30175018e+00 1.31377888e+00 1.35142696e+00 1.35830057e+00 1.39516759e+00 1.40469670e+00 1.41672540e+00 1.44968700e+00 1.45562327e+00 1.51920331e+00 1.47874331e+00 1.54185462e+00 1.52545190e+00 1.60543466e+00 1.61746335e+00 1.64980006e+00 1.65979791e+00 1.66401577e+00 1.71744168e+00 1.70213258e+00 1.76180720e+00 1.81413960e+00 1.82148182e+00 1.89209151e+00 1.90661967e+00 1.93161428e+00 1.96488833e+00 2.00128675e+00 2.05596232e+00 2.10423326e+00 2.14688039e+00 2.18281007e+00 2.24076629e+00 2.30825162e+00 2.36527061e+00 2.39604521e+00 2.46509290e+00 2.51211381e+00 2.58881617e+00 2.63739944e+00 2.75206208e+00 2.78846049e+00 2.89218807e+00 3.00013351e+00 3.05887079e+00 3.15291309e+00 3.26117086e+00 3.30475521e+00 3.41145110e+00 3.52423906e+00 3.64577532e+00 3.78730726e+00 3.88009977e+00 3.97336102e+00 4.06802797e+00 4.08818007e+00 4.16425705e+00 4.16003942e+00 4.08708620e+00 3.90228248e+00 3.73060083e+00 3.57047915e+00 3.20274615e+00 2.86297560e+00 2.50445938e+00 2.09220457e+00 1.71181798e+00 1.36892319e+00 1.06398904e+00 7.67803013e-01 5.30041814e-01 3.43832016e-01 2.00581700e-01 1.11694634e-01 4.32719067e-02 1.67151410e-02 5.93621843e-03 1.56216277e-03 
      </Histogram>
    </PDF>
    <PDF Name="MLP_PDFBkg" MinNSmooth="0" MaxNSmooth="0" InterpolMethod="5" KDE_type="1" KDE_iter="2" KDE_border="1" KDE_finefactor="3.0000001192092896e-01">
      <Histogram Name="MLP_tr_B_original" NBins="250" XMin="-1.1156007647514343e-02" XMax="1.0072284936904907e+00" HasEquidistantBins="1">
        2.68127827e-04 0.00000000e+00 0.00000000e+00 0.00000000e+00 0.00000000e+00 0.00000000e+00 2.68127827e-04 0.00000000e+00 0.00000000e+00 5.36255655e-04 2.68127827e-04 5.36255655e-04 2.68127827e-04 8.04383482e-04 8.04383482e-04 2.14502262e-03 2.94940616e-03 7.23945117e-03 1.71601810e-02 4.50454764e-02 1.63021713e-01 4.79680687e-01 9.57484484e-01 1.32937777e+00 1.55031514e+00 1.70824242e+00 1.82407367e+00 1.90799761e+00 1.93641913e+00 1.91791832e+00 1.92220843e+00 1.92328095e+00 1.93722355e+00 1.96055067e+00 1.90531635e+00 1.88976490e+00 1.90209877e+00 1.81629789e+00 1.89459121e+00 1.84686446e+00 1.81790674e+00 1.80289149e+00 1.78492701e+00 1.75141096e+00 1.77446997e+00 1.68223405e+00 1.66292882e+00 1.66963196e+00 1.66614628e+00 1.61466575e+00 1.65971124e+00 1.59696937e+00 1.58275855e+00 1.56533027e+00 1.53503180e+00 1.54387999e+00 1.54924262e+00 1.49347198e+00 1.46156478e+00 1.45191216e+00 1.47497118e+00 1.43984640e+00 1.39775038e+00 1.44386840e+00 1.40204036e+00 1.36530685e+00 1.35967624e+00 1.37147379e+00 1.36155307e+00 1.35994434e+00 1.36101687e+00 1.32803714e+00 1.32160211e+00 1.31409454e+00 1.29130363e+00 1.30283308e+00 1.33018219e+00 1.27816534e+00 1.28513670e+00 1.28647733e+00 1.25457013e+00 1.27414346e+00 1.23017049e+00 1.21032906e+00 1.22695291e+00 1.23740995e+00 1.22373545e+00 1.23151112e+00 1.19424140e+00 1.18190742e+00 1.17252302e+00 1.19692266e+00 1.18056679e+00 1.15563095e+00 1.16555166e+00 1.14624643e+00 1.13713014e+00 1.14758706e+00 1.16635609e+00 1.11326671e+00 1.13552141e+00 1.11728871e+00 1.13096321e+00 1.10763609e+00 1.09503400e+00 1.10522294e+00 1.12479627e+00 1.08189583e+00 1.11460733e+00 1.10039663e+00 1.09717906e+00 1.07948267e+00 1.09449780e+00 1.11970186e+00 1.11004925e+00 1.11621618e+00 1.09449780e+00 1.08216393e+00 1.10629547e+00 1.08001888e+00 1.08859897e+00 1.08940339e+00 1.08404076e+00 1.07653320e+00 1.10441852e+00 1.09798348e+00 1.07251132e+00 1.09557033e+00 1.06902564e+00 1.10978103e+00 1.06875753e+00 1.07412004e+00 1.06098187e+00 1.05159736e+00 1.06527185e+00 1.10012853e+00 1.05910492e+00 1.05883682e+00 1.06634438e+00 1.09851968e+00 1.05722797e+00 1.04140854e+00 1.05883682e+00 1.06419933e+00 1.06875753e+00 1.05240178e+00 1.06446743e+00 1.04033601e+00 1.04221284e+00 1.06607628e+00 1.06983006e+00 1.03470528e+00 1.01352322e+00 1.07277942e+00 1.05642366e+00 1.02398014e+00 1.06956196e+00 1.02666152e+00 1.03658223e+00 1.03765464e+00 1.04194474e+00 1.03309655e+00 1.00172555e+00 1.04060411e+00 1.00708807e+00 1.02853835e+00 1.01352322e+00 9.98508036e-01 1.00628376e+00 1.02532077e+00 1.00547934e+00 9.96631145e-01 1.00789249e+00 9.91268575e-01 9.88855422e-01 9.70354617e-01 9.69818354e-01 9.74912763e-01 9.52658176e-01 9.74644661e-01 9.84833539e-01 9.68745828e-01 9.45418715e-01 9.47563767e-01 9.63919520e-01 9.00373220e-01 9.26113546e-01 8.98496330e-01 9.30135429e-01 8.94742548e-01 9.05467689e-01 8.88039351e-01 9.14315879e-01 8.83213043e-01 8.72756064e-01 8.68466020e-01 8.67393553e-01 8.84821832e-01 8.49697113e-01 8.51305842e-01 8.38703871e-01 8.48088324e-01 8.32536936e-01 8.42189491e-01 8.28783095e-01 8.26638103e-01 8.01702201e-01 8.44066381e-01 8.49697113e-01 8.26638103e-01 8.05992246e-01 8.10014188e-01 7.93390274e-01 8.22884321e-01 7.81324506e-01 7.94194639e-01 7.92049587e-01 7.74085045e-01 7.77570724e-01 7.64164329e-01 7.22336352e-01 7.33061492e-01 7.36010909e-01 7.24213243e-01 6.76754653e-01 6.95791721e-01 6.54231906e-01 6.07845783e-01 6.14548981e-01 5.58242142e-01 5.38668811e-01 4.78071928e-01 4.12916869e-01 3.61168176e-01 3.15854579e-01 2.83947378e-01 2.23886743e-01 1.91175148e-01 1.25215694e-01 1.04301728e-01 6.46188036e-02 4.74586263e-02 2.81534214e-02 1.71601810e-02 8.58009048e-03 5.63068455e-03 2.14502262e-03 2.14502262e-03 2.68127827e-04 0.00000000e+00 
      </Histogram>
    </PDF>
  </MVAPdfs>
  <Weights>
    <Layout NLayers="4">
      <Layer Index="0" NNeurons="5">
        <Neuron NSynapses="4">
          1.2524235782180946e+00 1.0840280319679451e+01 4.0908027955885737e+00 7.6983182221804016e+00 
        </Neuron>
        <Neuron NSynapses="4">
          -1.8176816953665811e+00 1.7972760121734149e-01 -3.2841887917000641e+00 9.5372290284877597e+00 
        </Neuron>
        <Neuron NSynapses="4">
          3.0379892622998567e-01 -4.7826194137680984e+00 -6.3759333006798817e+00 7.3552039977001096e+00 
        </Neuron>
        <Neuron NSynapses="4">
          -3.8574944943264291e+00 1.7543845050856870e+00 7.0784876569263275e+00 9.2172612500140927e-01 
        </Neuron>
        <Neuron NSynapses="4">
          -3.1369382894510629e+00 7.5928890699356018e+00 2.0044353581395646e+00 1.8243331674648697e+01 
        </Neuron>
      </Layer>
      <Layer Index="1" NNeurons="5">
        <Neuron NSynapses="3">
          -2.2211395904862998e+00 -7.1295215558766145e-01 1.4987234826685958e+00 
        </Neuron>
        <Neuron NSynapses="3">
          3.5690315948983851e+00 -3.3038396069789098e+00 -5.3103815126187492e-01 
        </Neuron>
        <Neuron NSynapses="3">
          2.2458505591981188e+00 -2.8630849594076810e+00 -1.2314074223507634e+00 
        </Neuron>
        <Neuron NSynapses="3">
          -1.4387948113456013e+00 -8.2711956724776083e+00 6.0423304223191365e-01 
        </Neuron>
        <Neuron NSynapses="3">
          -3.9911504607874111e+00 2.9872979909072725e+00 -1.2779150606085765e+00 
        </Neuron>
      </Layer>
      <Layer Index="2" NNeurons="4">
        <Neuron NSynapses="1">
          -7.1551806321158518e-01 
        </Neuron>
        <Neuron NSynapses="1">
          -3.3372114981836551e+00 
        </Neuron>
        <Neuron NSynapses="1">
          3.7113380994648065e-01 
        </Neuron>
        <Neuron NSynapses="1">
          8.0730974017286161e-01 
        </Neuron>
      </Layer>
      <Layer Index="3" NNeurons="1">
        <Neuron NSynapses="0"/>
      </Layer>
    </Layout>
    <InverseHessian NElements="1521" NRows="39" NCols="39">
      <Row Index="0">
        1.5630697331899926e-01 -5.9903602127556167e-02 -1.5003362705881276e-01 -2.1178776156948156e-02 -1.7116178250062836e-01 -2.6750306460059260e-03 1.0766087042667058e-01 1.2134921393542643e-02 -7.0334296742466620e-02 1.5378982642978534e-02 2.4594727202193833e-01 2.1490031833491338e-02 -1.2878447070929605e-01 -3.5692356488845542e-03 -2.4902596877411812e-01 -3.8473439240072453e-02 -1.0378882081054580e-01 -3.2756023570270035e-02 -2.0599776001826151e-02 7.3331979741372757e-03 2.2243600593055884e-01 -9.4242489767447646e-02 -1.1610729891557073e-01 3.0063415857394971e-02 -2.7345829601324746e-02 -1.0045524704173654e-02 1.4152690934243131e-01 -2.4757317421547698e-01 1.0630947598678737e-01 1.0113458292442968e-02 -3.5381845735106852e-02 2.3826710609745064e-02 -2.0164560391381917e-01 3.4359653448858807e-01 1.0720984566551672e-01 7.3576937248598382e-03 2.0191732238175480e-01 1.3679108622722352e-02 -1.1854525645242642e-02 
      </Row>
      <Row Index="1">
        -5.9903602127925733e-02 9.4735412787960327e-01 5.9097594045861082e-02 8.2072555425594940e-03 2.0448001666002306e-02 -1.2777895423913521e-01 6.9706810004544761e-03 4.8819503101772951e-02 5.5550738622135554e-02 -5.1357490225271574e-01 2.6107218091454207e-02 6.1445497176145100e-02 -3.3218203359652726e-03 1.2063328706006002e-01 -7.8507856312908159e-02 3.2589161258462784e-03 2.9564285904848109e-03 2.8064640572557764e-01 3.4242615644932889e-02 1.0833294598705928e-01 1.2958987473653734e-02 -6.8737530890079585e-02 8.8828217977178292e-01 -6.4538113220204041e-01 3.8132169375793790e-01 -2.9856215724127622e-01 1.3160949008516151e-01 -2.4496015407626015e-01 -5.2267101855073050e-01 6.4209894481197502e-02 2.1136773843724095e-02 3.3952900351682958e-01 3.8700379774337967e-01 -1.3902714261128329e-01 4.6147432938975941e-02 -3.3023278884833460e-02 -1.0769668008098149e-01 -2.4176307447404030e-01 4.2909822667510228e-02 
      </Row>
      <Row Index="2">
        -1.5003362705898890e-01 5.9097594045695680e-02 4.0453796269236253e-01 6.7808248725819420e-02 2.3885280535329143e-01 3.4113901869367615e-03 -2.4245751855489375e-01 1.3031220137760653e-02 1.3823251484001078e-01 -3.0735983676653637e-02 -5.0201098683589729e-01 2.0388329209580780e-04 1.0930431080288205e-01 7.6701534436717303e-04 5.0470150538946135e-01 3.1016989721734722e-02 1.5773459366106690e-01 1.6967307360898923e-02 1.7653308835016999e-02 6.3897800603168353e-02 -3.1070679769614956e-01 5.3071685521715470e-02 4.5286215014507258e-01 -1.2801036978367772e-01 4.2497817666297448e-02 -7.1714391125976454e-02 -3.3462711929352601e-01 4.0423949426510375e-01 -4.6487715742758506e-01 8.7053688664175208e-03 2.4730346816995569e-02 1.2398556031327147e-01 4.5561586142835453e-01 -5.2861307701103433e-01 -2.5539288006995670e-01 -3.0301631060962637e-02 -2.4448859788782254e-01 -1.0980232339310549e-01 4.2682776457771181e-02 
      </Row>
      <Row Index="3">
        -2.1178776156996041e-02 8.2072555421986021e-03 6.7808248725738707e-02 4.8030633292180597e-01 4.2544841894849042e-02 4.0599936262396510e-02 -6.8170620167548684e-02 1.0558459852983182e-01 6.0969043211145046e-02 1.2357856842242163e-01 -1.2106498981835849e-01 -1.1458643028200037e-02 -6.0337399546004471e-02 -1.2830203008308942e-02 1.0020951632566788e-01 5.3820313181526414e-02 4.1931119859411822e-02 5.7228347410570771e-02 -1.8796519361557462e-02 4.4708541008443470e-01 -3.6161181791843681e-02 1.9731638782328004e-02 1.4709786923965715e-01 -2.0173674687765465e-02 1.4300371434900352e-01 -1.2776394778002700e-02 -9.1079031986328746e-02 1.8403001299369282e-02 -1.3981060395463157e-01 -1.3940473245924612e-02 -3.1108109464089723e-01 1.4850642495384464e-01 1.5275564646117668e-01 -3.6746352978401031e-01 -2.3710420071831181e-01 -1.1123882931109138e-02 -5.8769416866964219e-01 -4.5035160221278681e-02 1.9322190499605155e-02 
      </Row>
      <Row Index="4">
        -1.7116178250079114e-01 2.0448001665809741e-02 2.3885280535338543e-01 4.2544841894964894e-02 2.8367966461140248e-01 -2.1502631611786383e-02 -8.6156099179443321e-02 -2.2735262226769332e-02 8.1271489937728203e-02 -2.3152401519344369e-02 -3.5089125512801184e-01 -1.1968704823469373e-02 2.1751103833546442e-01 -3.4616929188028655e-03 3.9701229837705243e-01 5.3159160812223605e-02 2.2217224333279612e-01 -2.0293664403402523e-02 8.2958582086591209e-02 2.1786732447517068e-02 -2.8987411999540347e-01 8.6493382869980567e-02 2.9111492393822447e-01 -4.7077507895251086e-02 -2.3888953437369631e-02 -3.7741170135987601e-02 -2.1960218480678420e-01 3.9262062108242701e-01 -2.5855579215194813e-01 -2.5420342220620080e-03 6.0774398152174447e-02 4.4370653435735485e-02 2.9459903513716196e-01 -3.9377066317670129e-01 -1.6608430088040357e-01 -1.6580563233211266e-02 -3.3952107451039756e-02 -5.5938732195287881e-02 2.4134088765585711e-02 
      </Row>
      <Row Index="5">
        -2.6750306458245606e-03 -1.2777895423911304e-01 3.4113901866091867e-03 4.0599936262330244e-02 -2.1502631612065237e-02 3.0060709304157457e-01 -5.7679115086368277e-02 1.2011089506229743e-01 -1.3800741575329494e-02 1.5551889575220565e-01 -1.8995016863605649e-02 -5.6881658541561575e-03 -1.9695629988583180e-02 2.3729833686375684e-02 -5.5217552785565630e-03 1.0353618186244806e-02 -8.8915709087982589e-02 2.2600838684006916e-01 -9.4615490613764300e-02 1.1329639024770960e-01 -8.1794285879276507e-02 -4.9069782074707607e-02 -4.8508479018536799e-01 9.9601244050677884e-02 7.4204141540544069e-02 2.0526028436835925e-01 -1.1311429119550455e-01 9.2582824772574998e-02 1.8217793760549014e-01 -3.1549108853510061e-02 1.4200052036218658e-02 -1.1830590384194543e-01 7.2650226526149747e-02 -2.3562704086203945e-01 -1.4432745490150839e-01 1.2071866010036691e-02 -2.2309120136605465e-01 1.1910324996093848e-01 -1.3183916689047656e-02 
      </Row>
      <Row Index="6">
        1.0766087042664577e-01 6.9706810008330084e-03 -2.4245751855464409e-01 -6.8170620167476575e-02 -8.6156099179227327e-02 -5.7679115086560651e-02 2.8493110469940391e-01 -5.2610508313453250e-02 -1.0880248101905342e-01 -2.6419154717954217e-02 3.0546090650573027e-01 1.2506165026430940e-02 -9.3206221959480293e-03 -2.2511383611571456e-03 -2.4294598636972886e-01 -2.4600146550450341e-02 -3.0946309420489100e-02 -4.3540965358722677e-02 1.0594121049407829e-01 -7.8623823391836711e-02 1.9308670916972664e-01 -5.9522680218066185e-02 -1.1200834525996511e-01 2.6835567979530683e-02 -6.1516857332927451e-02 -2.5953970215204417e-02 2.2443707945887881e-01 -1.9861354188625197e-01 1.5801110280037689e-01 9.9205032519010389e-03 1.3922991429302201e-02 1.4839074058035272e-02 -2.7189156285897403e-01 3.9067434272280610e-01 1.3404624565446305e-01 1.0669534943217743e-02 4.0873301034475890e-01 2.3608319871212157e-02 -1.6690339479617372e-02 
      </Row>
      <Row Index="7">
        1.2134921393415897e-02 4.8819503102197966e-02 1.3031220138045398e-02 1.0558459853033825e-01 -2.2735262226583730e-02 1.2011089506225105e-01 -5.2610508313606363e-02 3.5055813162032445e-01 2.3983832211296980e-02 -4.7335209512675669e-02 3.5947958591084704e-02 1.0967849836835059e-01 5.1821669724551253e-03 4.0616756615313554e-02 -3.7036805308035325e-02 6.3662221559357107e-02 8.0705865657238057e-03 9.8428364554831366e-02 -3.1538747971385006e-02 4.6956143392470540e-01 -7.5640094507128351e-03 -1.2248360623928539e-01 -4.8145802498531204e-02 -7.8099237095879154e-02 5.3181732639144955e-02 2.7501402779377973e-02 3.8104076146759508e-03 -1.2750537524894504e-01 3.7775138081213612e-02 1.7247618813283218e-02 -1.0546653843633630e-01 7.3062024235951900e-02 7.0311205880298558e-02 9.5352561532435695e-02 -8.7210206245363200e-02 5.0404333664167984e-04 9.5726959537416723e-02 7.9209892783848167e-03 -1.9178948962462724e-03 
      </Row>
      <Row Index="8">
        -7.0334296742560698e-02 5.5550738621900554e-02 1.3823251484000609e-01 6.0969043211184799e-02 8.1271489937701405e-02 -1.3800741575168578e-02 -1.0880248101917928e-01 2.3983832211117537e-02 1.1648943773758237e-01 -2.4193457245575076e-02 -1.3745771027288586e-01 -1.0159413613164477e-02 1.3981922034414005e-02 8.6973677724493641e-03 1.9872580431000664e-01 1.7570855376329297e-02 9.0915572630410071e-02 1.1724359435309806e-02 4.0487481279860689e-02 5.8048578517673088e-02 -7.8058107354896794e-02 2.1703595602040160e-02 2.6147473542908994e-01 -7.3975824644808078e-02 3.9261830558055856e-02 -6.0399136253008079e-02 -1.1185530690331072e-01 1.0657304394031780e-01 -1.8484058243903470e-01 1.1422115385699429e-02 -1.4825125670135719e-02 8.4453961204147138e-02 1.7226920243593741e-01 -2.1505530030334913e-01 -8.9219262966125465e-02 -1.4572837772790342e-02 -2.2392242013765029e-01 -6.9915241974593770e-02 1.9970937963982520e-02 
      </Row>
      <Row Index="9">
        1.5378982643390141e-02 -5.1357490225319180e-01 -3.0735983677197654e-02 1.2357856842184958e-01 -2.3152401519789471e-02 1.5551889575228275e-01 -2.6419154717511439e-02 -4.7335209512550436e-02 -2.4193457245977702e-02 5.0429915800205549e-01 -9.2629130457799858e-02 -3.6782675685467503e-02 -4.8543579826641273e-02 -7.9058469137361698e-02 4.8822385398981885e-02 -3.8084272348664072e-03 -5.7665545717655461e-02 3.6019584469197806e-02 -1.0284794707163722e-01 8.9366975642488078e-04 -5.3033699629049358e-02 6.7378433949577668e-02 -1.0018356696593873e+00 4.9503834566524846e-01 -1.2867598128676622e-01 3.7722370315285370e-01 -1.8126799622411055e-01 2.5654770051140913e-01 5.4078566616657031e-01 -7.2917916369283284e-02 3.8335258805165751e-02 -3.3466836243823994e-01 -1.7176775515453552e-01 -2.6110172660452330e-01 -1.8757643765301382e-01 3.4657673676427483e-02 -3.5777799764569274e-01 2.6908706019764383e-01 -4.1095143817587131e-02 
      </Row>
      <Row Index="10">
        2.4594727202196193e-01 2.6107218091863227e-02 -5.0201098683554313e-01 -1.2106498981810941e-01 -3.5089125512759817e-01 -1.8995016864031367e-02 3.0546090650583585e-01 3.5947958591477286e-02 -1.3745771027266526e-01 -9.2629130458458428e-02 8.8541287945842406e-01 2.4523341308144146e-02 -1.1282699404011745e-01 1.3104865255815501e-02 -7.9890658717474639e-01 -4.5544731416253120e-02 -1.4509356064963391e-01 -1.9406786262612517e-02 3.1118947021535386e-02 -2.8057310446446410e-02 4.9568039486697113e-01 -1.5501420271796851e-01 -3.9509599162944276e-02 4.2657158096865211e-02 -6.4280405185231967e-02 -1.1430172276220638e-01 5.4699882345232975e-01 -6.4369330820423132e-01 3.5855280448208715e-01 2.9326881255532261e-02 -1.8079611154573544e-02 9.8027336998238818e-02 -6.4042577986090354e-01 9.2335023268900907e-01 4.9775683026014561e-01 2.9191947929845186e-02 6.3815052815627482e-01 -1.6522321221180695e-02 -3.9937178604655107e-02 
      </Row>
      <Row Index="11">
        2.1490031833390162e-02 6.1445497176695826e-02 2.0388329242121417e-04 -1.1458643027911528e-02 -1.1968704823209050e-02 -5.6881658542492636e-03 1.2506165026335475e-02 1.0967849836853139e-01 -1.0159413612997097e-02 -3.6782675685916116e-02 2.4523341307893270e-02 1.3460431423660540e-01 -1.7971224214293868e-02 2.4165263073256400e-02 -7.9209291717645361e-02 8.6530367877393211e-03 -1.3392944217276718e-02 3.9950700918686757e-02 -2.7644488795075882e-02 1.8871493246119164e-01 3.7428848335045992e-02 -1.1008308766453220e-01 -1.8781388742810795e-01 -6.1225475967562962e-03 -4.6316404018409557e-02 5.5597451599458163e-02 2.3372744349752568e-02 -1.2508002550292960e-01 1.8334014497744533e-01 1.8964356721683482e-02 1.2214844122111046e-02 -9.9406979762561853e-03 -3.9078987363844728e-02 3.0538237747535713e-01 3.1315235119490125e-03 1.0996144619763696e-02 4.4073874825959075e-01 5.3960333367536292e-02 -1.7491550682185136e-02 
      </Row>
      <Row Index="12">
        -1.2878447070945981e-01 -3.3218203359197179e-03 1.0930431080312850e-01 -6.0337399545679973e-02 2.1751103833557622e-01 -1.9695629988345092e-02 -9.3206221961632252e-03 5.1821669724784868e-03 1.3981922034524868e-02 -4.8543579826423842e-02 -1.1282699404060792e-01 -1.7971224214499808e-02 3.9090569960674065e-01 -3.1856758019719114e-03 2.6644907887108110e-01 7.4312979542695501e-02 2.3917854186168441e-01 -3.4854877767881820e-02 1.1292040018231211e-01 -1.1281761757685832e-02 -2.9851422668977584e-01 6.4515304157967690e-02 2.2969074073563001e-01 -1.2894551660807260e-02 -1.1411928412551461e-01 -3.6260188209746774e-02 -9.1402620019300079e-02 4.0101736278626299e-01 -2.2410226012213480e-01 -5.7344480528586450e-03 1.6003130280000921e-01 1.2964586477755131e-02 1.5061914808523086e-01 -1.9385461554270356e-01 -2.9799915136522942e-02 -1.0381049832365156e-02 3.6736430484574112e-01 -4.1935225516956734e-02 1.4600528698611672e-02 
      </Row>
      <Row Index="13">
        -3.5692356489430942e-03 1.2063328706028653e-01 7.6701534444506558e-04 -1.2830203008165727e-02 -3.4616929187604381e-03 2.3729833686334884e-02 -2.2511383612306701e-03 4.0616756615290905e-02 8.6973677725281171e-03 -7.9058469137447324e-02 1.3104865255746251e-02 2.4165263073164616e-02 -3.1856758020008544e-03 6.4790388835571741e-02 -3.3350684561165266e-04 1.8812509146787448e-02 -1.4545538731271034e-02 7.6782403166268720e-02 1.5095309098878195e-02 4.5539869475464942e-02 5.1094443279584012e-03 -7.1522217033636371e-02 1.5378234630519116e-01 -1.0096504138308660e-01 3.9101374202457205e-02 -5.4754305017626528e-02 2.4129015091565731e-02 -2.8250175775028079e-02 -1.0088378426432854e-01 1.4921110698172849e-02 -1.2127954506846117e-02 8.2710251350276584e-02 4.4038686104693150e-02 2.6319646574137441e-02 -9.0821063165996037e-03 -7.5092957094798577e-03 8.3590955806262371e-02 -4.5574388499438498e-02 8.9505529247142050e-03 
      </Row>
      <Row Index="14">
        -2.4902596877433189e-01 -7.8507856313015115e-02 5.0470150538940217e-01 1.0020951632567165e-01 3.9701229837674346e-01 -5.5217552779666945e-03 -2.4294598637010531e-01 -3.7036805308550212e-02 1.9872580430993711e-01 4.8822385399763329e-02 -7.9890658717532281e-01 -7.9209291718125296e-02 2.6644907887045388e-01 -3.3350684567047539e-04 1.1282966490028230e+00 7.2071512718683506e-02 2.8713460214582465e-01 -6.1415895031230530e-02 2.3260206057822924e-01 -1.6444308565251725e-02 -5.4660899286609188e-01 1.4413859025395859e-01 3.3846148437629808e-01 -1.2413434225233819e-01 2.8636662039481509e-04 1.5723356594166276e-02 -5.8460484454340578e-01 8.2841114779003933e-01 -6.6630323045787543e-01 -5.5806022445612172e-03 3.6566186511865828e-02 4.3056696804544471e-02 7.3240216161237370e-01 -1.0207192641164313e+00 -6.6700739662073760e-01 -5.8137613617845661e-02 -5.5446586070271497e-01 -7.2061223616103703e-02 7.3519106217490388e-02 
      </Row>
      <Row Index="15">
        -3.8473439240130303e-02 3.2589161258348865e-03 3.1016989721816990e-02 5.3820313181669632e-02 5.3159160812242451e-02 1.0353618186301775e-02 -2.4600146550540838e-02 6.3662221559270690e-02 1.7570855376375018e-02 -3.8084272347191778e-03 -4.5544731416468850e-02 8.6530367876206243e-03 7.4312979542613650e-02 1.8812509146769289e-02 7.2071512718898376e-02 5.5967560802949679e-02 6.7167535183381949e-02 9.8010016968208408e-03 2.1683746309685926e-02 1.1669974119221846e-01 -6.5205265828223613e-02 -6.2296444961150721e-03 1.2944185499079558e-01 -2.1128593134877159e-02 -6.1539707247831622e-03 -3.0175038761977933e-02 -2.2128079782605028e-02 1.0751935982536089e-01 -9.1576340712895124e-02 1.9694184499795897e-03 -3.0631565210981204e-04 4.2351095846042790e-02 5.4155172074428937e-02 -1.1728974294057913e-01 -4.7911071039105677e-02 -6.4703556932884437e-03 -3.3061390577495298e-02 -2.9980380204793378e-02 8.9632973904707636e-03 
      </Row>
      <Row Index="16">
        -1.0378882081084627e-01 2.9564285902344070e-03 1.5773459366146758e-01 4.1931119859707974e-02 2.2217224333304747e-01 -8.8915709087706851e-02 -3.0946309420847973e-02 8.0705865655069237e-03 9.0915572630581143e-02 -5.7665545717075106e-02 -1.4509356065051748e-01 -1.3392944217612932e-02 2.3917854186172519e-01 -1.4545538731346487e-02 2.8713460214680941e-01 6.7167535183429550e-02 3.2959452822986446e-01 -1.0154486928052453e-01 1.5889892793165095e-01 6.4453636079565890e-02 -1.1993706686178929e-01 1.1086786871931387e-01 6.0682102728013398e-01 -5.3034023470741390e-02 -7.5008129901825066e-02 -1.8078125643086965e-01 -7.0764354654201778e-02 3.1305586578965972e-01 -3.2056420601951408e-01 1.8734188103471126e-02 8.4695740085440896e-02 1.8313083348549355e-01 1.3656749113956432e-01 -2.2625624636083791e-01 -7.1714072424062136e-02 -1.9167663258101392e-02 9.5561578776076350e-02 -1.3967430513390144e-01 2.9320666611934117e-02 
      </Row>
      <Row Index="17">
        -3.2756023570131999e-02 2.8064640572550359e-01 1.6967307360487571e-02 5.7228347410465973e-02 -2.0293664403705419e-02 2.2600838684006236e-01 -4.3540965358554617e-02 9.8428364554755648e-02 1.1724359435137055e-02 3.6019584469265786e-02 -1.9406786262142595e-02 3.9950700918697589e-02 -3.4854877768154824e-02 7.6782403166241409e-02 -6.1415895032020107e-02 9.8010016967345903e-03 -1.0154486928082024e-01 4.1627737914596008e-01 -1.0797315956898626e-01 1.4603648904780173e-01 -6.9632379150895929e-02 -7.4747777533672011e-02 -4.1284421023112527e-01 -4.6056845546140764e-02 1.9206712707107321e-01 1.9088761929591636e-01 -8.5375769499865098e-02 6.8690310640526830e-02 1.7166838465732764e-01 -1.5432451468391881e-02 9.7117943759880143e-02 -6.5692326164890971e-02 1.6013578368824061e-01 -3.1038541993426555e-01 -1.4991614310650009e-01 1.2295000140111678e-02 -2.0685427567420572e-01 1.0115973613412955e-01 -1.3008516040731647e-02 
      </Row>
      <Row Index="18">
        -2.0599776002007953e-02 3.4242615645052946e-02 1.7653308835314352e-02 -1.8796519361337242e-02 8.2958582086748112e-02 -9.4615490613722486e-02 1.0594121049383171e-01 -3.1538747971522618e-02 4.0487481280039095e-02 -1.0284794707148864e-01 3.1118947021031129e-02 -2.7644488795286810e-02 1.1292040018226920e-01 1.5095309098844670e-02 2.3260206057879704e-01 2.1683746309706486e-02 1.5889892793171950e-01 -1.0797315956886457e-01 2.9296146461383454e-01 -4.9289504038271453e-02 1.1739951871646837e-02 2.6333866880198453e-02 5.5838440062492478e-01 -1.2727440772901247e-01 -4.3034707971641092e-02 -2.3617471666724285e-01 1.1819409524623448e-01 3.2524409870316073e-02 -2.8368854581196912e-01 3.2151246297204922e-02 -5.9476803018485569e-03 2.2152211600474145e-01 -3.9720987905448382e-02 4.8224245554611259e-02 -6.5606604299697752e-02 -2.4724514796455616e-02 1.2410339935772455e-01 -1.3835083019146824e-01 3.0711484371830616e-02 
      </Row>
      <Row Index="19">
        7.3331979738146535e-03 1.0833294598806364e-01 6.3897800603856261e-02 4.4708541008534119e-01 2.1786732447965550e-02 1.1329639024759930e-01 -7.8623823392196715e-02 4.6956143392455002e-01 5.8048578518078355e-02 8.9366975608012184e-04 -2.8057310447349167e-02 1.8871493246073795e-01 -1.1281761757679754e-02 4.5539869475517775e-02 -1.6444308564086640e-02 1.1669974119235987e-01 6.4453636080021012e-02 1.4603648904798824e-01 -4.9289504037980755e-02 9.1880692264354547e-01 -1.1633856040015305e-02 -1.8367137330630062e-01 6.1182205769074252e-03 -1.1311633271867326e-01 4.9232613010135748e-02 2.6421602445449888e-02 -3.9126436075812961e-02 -1.9469958114017227e-01 2.8329437318241779e-02 1.8496621787899126e-02 -2.9343879439961773e-01 2.0355426636785312e-01 1.6252457642974621e-01 2.3286810125681009e-01 -2.4821948797387006e-01 -3.9260776566793333e-03 4.1826989124273006e-01 -5.4097053981727750e-03 2.6259575084722868e-03 
      </Row>
      <Row Index="20">
        2.2243600593051724e-01 1.2958987474242713e-02 -3.1070679769574933e-01 -3.6161181791748487e-02 -2.8987411999497736e-01 -8.1794285879720013e-02 1.9308670916976906e-01 -7.5640094505046856e-03 -7.8058107354671377e-02 -5.3033699629816883e-02 4.9568039486689786e-01 3.7428848335229803e-02 -2.9851422668932148e-01 5.1094443280324531e-03 -5.4660899286558362e-01 -6.5205265828081324e-02 -1.1993706686101496e-01 -6.9632379151303769e-02 1.1739951872062823e-02 -1.1633856039441573e-02 5.6390681528832898e-01 -6.9619595774303766e-02 1.7206704166786699e-02 1.4094013165859232e-02 -4.6216194667318987e-02 -1.1320272820647818e-01 4.0082629677277276e-01 -6.0553203390300048e-01 3.6327665409041782e-01 3.5428590564566133e-02 -1.2140399777427205e-01 1.0341118202027286e-01 -4.9670175346470447e-01 8.1477273922725957e-01 2.4030272512239520e-01 1.7774965679006570e-02 4.8702847169380226e-01 -8.1831170284229742e-03 -2.8551269767898582e-02 
      </Row>
      <Row Index="21">
        -9.4242489767258325e-02 -6.8737530891357687e-02 5.3071685521166645e-02 1.9731638781744554e-02 8.6493382869572949e-02 -4.9069782074493931e-02 -5.9522680217875060e-02 -1.2248360623958246e-01 2.1703595601686963e-02 6.7378433950508854e-02 -1.5501420271768374e-01 -1.1008308766443167e-01 6.4515304157683612e-02 -7.1522217033805652e-02 1.4413859025331160e-01 -6.2296444963161057e-03 1.1086786871867657e-01 -7.4747777533703819e-02 2.6333866879791508e-02 -1.8367137330696676e-01 -6.9619595774033330e-02 3.3654173788026276e-01 1.5710762986961085e-02 1.1084479862605134e-01 5.1822351369033626e-02 1.5895876770842254e-02 -3.2639779833411549e-02 2.9822363650239525e-01 6.0244258995687978e-02 -1.7290488277034149e-02 9.3909442408014854e-02 -8.3932296885656441e-02 -1.8123296212077731e-02 -6.0205410384771518e-01 -7.8897236422466793e-02 4.1640751200765847e-03 -7.8855202002057467e-01 2.3439584638206581e-02 3.2343669093542983e-04 
      </Row>
      <Row Index="22">
        -1.1610729891736504e-01 8.8828217976982016e-01 4.5286215014668407e-01 1.4709786924155907e-01 2.9111492393914551e-01 -4.8508479018450767e-01 -1.1200834526239056e-01 -4.8145802500634716e-02 2.6147473543048338e-01 -1.0018356696548167e+00 -3.9509599166823506e-02 -1.8781388743072824e-01 2.2969074073492765e-01 1.5378234630395049e-01 3.3846148437946377e-01 1.2944185499071459e-01 6.0682102728062126e-01 -4.1284421022987233e-01 5.5838440062373285e-01 6.1182205718739863e-03 1.7206704162864739e-02 1.5710762993307981e-02 8.3747876138629866e+00 -1.9198857242756466e+00 5.3057313651562987e-01 -3.0453117522320192e+00 5.4916425237394251e-01 -1.9266471040650576e-01 -5.5248145615101754e+00 2.5168455469832152e-01 -1.6929156942045864e-01 3.0636587421168002e+00 8.9233572932045613e-01 -7.4199890491095466e-01 6.5983795738232831e-01 -3.0702055987032928e-01 -1.4865018914217787e+00 -2.3551678574500237e+00 4.5453590413169664e-01 
      </Row>
      <Row Index="23">
        3.0063415858134546e-02 -6.4538113220284821e-01 -1.2801036978447833e-01 -2.0173674688706275e-02 -4.7077507895766590e-02 9.9601244050634419e-02 2.6835567980419972e-02 -7.8099237095309304e-02 -7.3975824645447386e-02 4.9503834566486926e-01 4.2657158098118098e-02 -6.1225475957840114e-03 -1.2894551660685330e-02 -1.0096504138287221e-01 -1.2413434225334019e-01 -2.1128593134946083e-02 -5.3034023471207177e-02 -4.6056845546598807e-02 -1.2727440772889864e-01 -1.1311633271737073e-01 1.4094013167160746e-02 1.1084479862408170e-01 -1.9198857242815155e+00 8.9876141638538987e-01 -3.0824256885815804e-01 6.6575697191087624e-01 -8.7860204188505653e-02 2.8936300612706600e-01 1.3692867657731955e+00 -9.9030463073893016e-02 1.3523789724116853e-01 -7.3263877417400514e-01 -6.0874351807083760e-01 -1.7327398283125683e-03 1.1139073635454180e-01 9.9935363009156536e-02 -3.8842022904877982e-02 5.3909615552552836e-01 -1.2495753420746093e-01 
      </Row>
      <Row Index="24">
        -2.7345829601120863e-02 3.8132169375459335e-01 4.2497817665072102e-02 1.4300371434797376e-01 -2.3888953438255561e-02 7.4204141541026447e-02 -6.1516857332833019e-02 5.3181732638055326e-02 3.9261830557381860e-02 -1.2867598128385016e-01 -6.4280405185008549e-02 -4.6316404018576507e-02 -1.1411928412642515e-01 3.9101374201765737e-02 2.8636661887571080e-04 -6.1539707253150944e-03 -7.5008129903232162e-02 1.9206712707099888e-01 -4.3034707972956915e-02 4.9232613007732628e-02 -4.6216194667037858e-02 5.1822351370139241e-02 5.3057313649987248e-01 -3.0824256885229717e-01 6.4075868503085287e-01 -1.6164772368779556e-01 1.0131362306268731e-02 3.7000070061903867e-02 -4.6103016764022475e-01 1.9768067956988017e-02 1.1156390585672415e-01 1.5290534485139451e-01 2.8118819631732739e-01 -1.5990335360951096e+00 -2.7062251746204830e-02 -1.7543225928361519e-02 -3.1881325382093535e+00 -1.5998614262539179e-01 4.1066898203834558e-02 
      </Row>
      <Row Index="25">
        -1.0045524703590658e-02 -2.9856215724053992e-01 -7.1714391126564081e-02 -1.2776394778676824e-02 -3.7741170136364466e-02 2.0526028436818100e-01 -2.5953970214406485e-02 2.7501402780018336e-02 -6.0399136253529662e-02 3.7722370315135345e-01 -1.1430172276094508e-01 5.5597451600287506e-02 -3.6260188209601932e-02 -5.4754305017189253e-02 1.5723356593024596e-02 -3.0175038761987238e-02 -1.8078125643123771e-01 1.9088761929565790e-01 -2.3617471666692658e-01 2.6421602447009612e-02 -1.1320272820518884e-01 1.5895876768716732e-02 -3.0453117522327124e+00 6.6575697190897110e-01 -1.6164772369312896e-01 1.1771924806463456e+00 -3.7101473852832850e-01 2.6300203895409047e-01 1.9030797119027019e+00 -9.2288790703498047e-02 4.7374139120956116e-02 -1.1245445943616437e+00 -1.0873516177088027e-01 1.1154130542667586e-02 -3.8685876921103435e-01 1.0199196944632956e-01 4.3842263906764245e-01 8.5592549158743481e-01 -1.5337852021731566e-01 
      </Row>
      <Row Index="26">
        1.4152690934249251e-01 1.3160949008496572e-01 -3.3462711929337874e-01 -9.1079031986203179e-02 -2.1960218480653634e-01 -1.1311429119593830e-01 2.2443707945898139e-01 3.8104076148444133e-03 -1.1185530690314960e-01 -1.8126799622428913e-01 5.4699882345246864e-01 2.3372744349914043e-02 -9.1402620018983610e-02 2.4129015091499229e-02 -5.8460484454315376e-01 -2.2128079782474441e-02 -7.0764354653486558e-02 -8.5375769500457388e-02 1.1819409524657493e-01 -3.9126436075404308e-02 4.0082629677291176e-01 -3.2639779833421256e-02 5.4916425237648525e-01 -8.7860204188799307e-02 1.0131362306390057e-02 -3.7101473852921174e-01 6.5401855436299128e-01 -6.5522941380747834e-01 1.0756178802051797e-01 3.2633063113237035e-02 -4.0111916605582998e-02 2.3131048687144523e-01 -6.3619018216408585e-01 7.3743099202594031e-01 4.7441837666478848e-01 1.4546463105809404e-02 2.4102225709998626e-01 -1.3676123394863740e-01 -1.5131614753372529e-02 
      </Row>
      <Row Index="27">
        -2.4757317421523484e-01 -2.4496015407869851e-01 4.0423949426405892e-01 1.8403001298293246e-02 3.9262062108136370e-01 9.2582824773588729e-02 -1.9861354188620084e-01 -1.2750537524975197e-01 1.0657304393954818e-01 2.5654770051380388e-01 -6.4369330820435855e-01 -1.2508002550299421e-01 4.0101736278513678e-01 -2.8250175775338338e-02 8.2841114778904545e-01 1.0751935982481758e-01 3.1305586578748779e-01 6.8690310641250391e-02 3.2524409869019610e-02 -1.9469958114203625e-01 -6.0553203390289012e-01 2.9822363650266137e-01 -1.9266471042274813e-01 2.8936300613143640e-01 3.7000070060584943e-02 2.6300203895972285e-01 -6.5522941380799704e-01 1.5640685692194218e+00 -3.4983171001664337e-01 -2.0856413928992221e-02 5.5925034810652030e-01 -1.6306807670626267e-01 4.9116045512447226e-01 -2.2142694743692770e+00 -5.0117086714872117e-01 -1.5587815908182374e-02 -2.0242533385615848e+00 6.4979197173873779e-02 3.2405880043874263e-02 
      </Row>
      <Row Index="28">
        1.0630947598799123e-01 -5.2267101854932996e-01 -4.6487715742833835e-01 -1.3981060395579165e-01 -2.5855579215214108e-01 1.8217793760450007e-01 1.5801110280211894e-01 3.7775138082885684e-02 -1.8484058243979939e-01 5.4078566616298485e-01 3.5855280448466331e-01 1.8334014497941187e-01 -2.2410226012110090e-01 -1.0088378426345201e-01 -6.6630323045939610e-01 -9.1576340712645532e-02 -3.2056420601902852e-01 1.7166838465592971e-01 -2.8368854581067593e-01 2.8329437322308089e-02 3.6327665409303034e-01 6.0244258991126287e-02 -5.5248145615069042e+00 1.3692867657683674e+00 -4.6103016765149163e-01 1.9030797119011529e+00 1.0756178802206609e-01 -3.4983171002742619e-01 4.3617980574936439e+00 -1.3809043846683955e-01 5.2561514728093783e-02 -2.0203577955514014e+00 -1.1919415106562756e+00 1.2754937962466781e+00 -1.4579805933527229e-01 2.4460778542753145e-01 1.6240573371497682e+00 1.6151465606915716e+00 -3.5718218880422720e-01 
      </Row>
      <Row Index="29">
        1.0113458292334204e-02 6.4209894481297880e-02 8.7053688665720275e-03 -1.3940473245824956e-02 -2.5420342219677483e-03 -3.1549108853499985e-02 9.9205032517606095e-03 1.7247618813198397e-02 1.1422115385792020e-02 -7.2917916369221070e-02 2.9326881255265835e-02 1.8964356721577258e-02 -5.7344480528758457e-03 1.4921110698144113e-02 -5.5806022443209563e-03 1.9694184499808309e-03 1.8734188103517683e-02 -1.5432451468321950e-02 3.2151246297165523e-02 1.8496621787725487e-02 3.5428590564350326e-02 -1.7290488276803018e-02 2.5168455469872658e-01 -9.9030463073897096e-02 1.9768067957684890e-02 -9.2288790703583617e-02 3.2633063113061501e-02 -2.0856413928371120e-02 -1.3809043846730834e-01 3.1674685191129565e-02 2.4025060009595922e-03 1.2124673480980191e-01 2.0819654244941720e-02 4.8139684503500316e-03 -2.9671031865932930e-02 -1.2378057146321989e-02 -1.3499764531311964e-02 -6.8586885390055807e-02 1.4222671856342024e-02 
      </Row>
      <Row Index="30">
        -3.5381845734855727e-02 2.1136773840744735e-02 2.4730346816149773e-02 -3.1108109464194283e-01 6.0774398151519041e-02 1.4200052036881822e-02 1.3922991429402759e-02 -1.0546653843674877e-01 -1.4825125670780467e-02 3.8335258807471961e-02 -1.8079611154644376e-02 1.2214844122392432e-02 1.6003130279948857e-01 -1.2127954507258509e-02 3.6566186511150754e-02 -3.0631565246791448e-04 8.4695740084131971e-02 9.7117943759916892e-02 -5.9476803029445066e-03 -2.9343879440065068e-01 -1.2140399777414618e-01 9.3909442407997701e-02 -1.6929156943592266e-01 1.3523789724557350e-01 1.1156390585432704e-01 4.7374139126391823e-02 -4.0111916606391684e-02 5.5925034810646146e-01 5.2561514738619766e-02 2.4025060003959181e-03 1.0639014219367726e+00 -1.6044656543334959e-01 -5.1755502293146766e-02 -1.3558370775644739e+00 1.2139576506035404e-01 1.5856778086084780e-02 -2.3151720018567379e+00 5.2777330338683266e-02 -1.0815016948095562e-02 
      </Row>
      <Row Index="31">
        2.3826710608969126e-02 3.3952900351712240e-01 1.2398556031422014e-01 1.4850642495488908e-01 4.4370653436285323e-02 -1.1830590384178574e-01 1.4839074057015456e-02 7.3062024235245882e-02 8.4453961204884243e-02 -3.3466836243720444e-01 9.8027336996559633e-02 -9.9406979772984627e-03 1.2964586477509865e-02 8.2710251349942254e-02 4.3056696806087258e-02 4.2351095846079545e-02 1.8313083348593670e-01 -6.5692326164315862e-02 2.2152211600450866e-01 2.0355426636624196e-01 1.0341118201870270e-01 -8.3932296883277857e-02 3.0636587421205999e+00 -7.3263877417317669e-01 1.5290534485819407e-01 -1.1245445943626562e+00 2.3131048687049838e-01 -1.6306807670009543e-01 -2.0203577955553547e+00 1.2124673480981796e-01 -1.6044656542749358e-01 1.3384689829767744e+00 2.9581545899675071e-01 4.6995591157645733e-02 3.1810435648068847e-02 -1.1851231027813038e-01 7.8404111877537375e-02 -8.7510044221992833e-01 1.7242522997111759e-01 
      </Row>
      <Row Index="32">
        -2.0164560391442732e-01 3.8700379774391630e-01 4.5561586142869559e-01 1.5275564646174739e-01 2.9459903513721764e-01 7.2650226526689621e-02 -2.7189156285973620e-01 7.0311205879613980e-02 1.7226920243619898e-01 -1.7176775515380838e-01 -6.4042577986195215e-01 -3.9078987364797424e-02 1.5061914808474042e-01 4.4038686104550306e-02 7.3240216161274263e-01 5.4155172074320745e-02 1.3656749113907518e-01 1.6013578368920889e-01 -3.9720987905953020e-02 1.6252457642816986e-01 -4.9670175346580858e-01 -1.8123296210443396e-02 8.9233572932133765e-01 -6.0874351807007121e-01 2.8118819632172920e-01 -1.0873516177111711e-01 -6.3619018216423939e-01 4.9116045512742257e-01 -1.1919415106576314e+00 2.0819654244705083e-02 -5.1755502290438127e-02 2.9581545899599304e-01 1.2050776234800979e+00 -9.1688636692995718e-01 -6.0065673248770191e-01 -9.0212708045199166e-02 -4.0307461312888337e-01 -2.6630957645986858e-01 1.1378370661736548e-01 
      </Row>
      <Row Index="33">
        3.4359653448736849e-01 -1.3902714259678073e-01 -5.2861307700586657e-01 -3.6746352977889468e-01 -3.9377066317255605e-01 -2.3562704086498854e-01 3.9067434272223306e-01 9.5352561536531377e-02 -2.1505530030002484e-01 -2.6110172661691289e-01 9.2335023268858929e-01 3.0538237747534702e-01 -1.9385461553862615e-01 2.6319646576633549e-02 -1.0207192641108382e+00 -1.1728974293819538e-01 -2.2625624635344255e-01 -3.1038541993476310e-01 4.8224245560511747e-02 2.3286810126585233e-01 8.1477273922604332e-01 -6.0205410385031932e-01 -7.4199890483538056e-01 -1.7327398525127380e-03 -1.5990335360895047e+00 1.1154130516624922e-02 7.3743099202800932e-01 -2.2142694743718088e+00 1.2754937961942352e+00 4.8139684533596572e-03 -1.3558370775694477e+00 4.6995591187954600e-02 -9.1688636691297143e-01 7.7123035395240214e+00 5.2831555575696187e-01 3.7452546764171500e-02 1.3184345328047591e+01 2.1687684264340426e-01 -1.1522170451490735e-01 
      </Row>
      <Row Index="34">
        1.0720984566576075e-01 4.6147432937214468e-02 -2.5539288007029803e-01 -2.3710420071849075e-01 -1.6608430088034470e-01 -1.4432745490158622e-01 1.3404624565481049e-01 -8.7210206244936195e-02 -8.9219262966256596e-02 -1.8757643765220666e-01 4.9775683026073880e-01 3.1315235122975071e-03 -2.9799915135901023e-02 -9.0821063168202709e-03 -6.6700739662079456e-01 -4.7911071038918340e-02 -7.1714072423415598e-02 -1.4991614310720303e-01 -6.5606604299491833e-02 -2.4821948797325688e-01 2.4030272512260209e-01 -7.8897236422578398e-02 6.5983795737938444e-01 1.1139073635619270e-01 -2.7062251747590638e-02 -3.8685876921001283e-01 4.7441837666467768e-01 -5.0117086714797754e-01 -1.4579805933297382e-01 -2.9671031865960595e-02 1.2139576506101335e-01 3.1810435647134927e-02 -6.0065673248896623e-01 5.2831555575804179e-01 1.3468846155747773e+00 4.2772080826347543e-02 -1.2005908100374496e-01 -2.3382018534575913e-01 -3.6315277437705955e-02 
      </Row>
      <Row Index="35">
        7.3576937249613117e-03 -3.3023278884944524e-02 -3.0301631061075751e-02 -1.1123882931227208e-02 -1.6580563233261722e-02 1.2071866009999210e-02 1.0669534943353626e-02 5.0404333673671753e-04 -1.4572837772874436e-02 3.4657673676343093e-02 2.9191947930049533e-02 1.0996144619903614e-02 -1.0381049832309419e-02 -7.5092957094532453e-03 -5.8137613617999753e-02 -6.4703556932824702e-03 -1.9167663258106690e-02 1.2295000140001761e-02 -2.4724514796409733e-02 -3.9260776564633837e-03 1.7774965679198396e-02 4.1640751198055437e-03 -3.0702055987088184e-01 9.9935363009130140e-02 -1.7543225929174261e-02 1.0199196944649071e-01 1.4546463105897328e-02 -1.5587815908806535e-02 2.4460778542807463e-01 -1.2378057146317109e-02 1.5856778085492573e-02 -1.1851231027816728e-01 -9.0212708045327980e-02 3.7452546767507144e-02 4.2772080826209050e-02 1.7725682571843069e-02 1.0969402104814452e-02 8.7456033424580248e-02 -2.2739632918876467e-02 
      </Row>
      <Row Index="36">
        2.0191732237906823e-01 -1.0769668005128072e-01 -2.4448859787785704e-01 -5.8769416865931534e-01 -3.3952107443518953e-02 -2.2309120137092564e-01 4.0873301034322651e-01 9.5726959544839452e-02 -2.2392242013122599e-01 -3.5777799766972018e-01 6.3815052815494777e-01 4.4073874825869197e-01 3.6736430485266036e-01 8.3590955811360335e-02 -5.5446586069200043e-01 -3.3061390573054350e-02 9.5561578789010171e-02 -2.0685427567359183e-01 1.2410339936888681e-01 4.1826989125892688e-01 4.8702847169086494e-01 -7.8855202002470826e-01 -1.4865018912735590e+00 -3.8842022952466471e-02 -3.1881325381947199e+00 4.3842263901640938e-01 2.4102225710465969e-01 -2.0242533385654964e+00 1.6240573370461979e+00 -1.3499764525570945e-02 -2.3151720018653856e+00 7.8404111936543730e-02 -4.0307461309585485e-01 1.3184345328036919e+01 -1.2005908100554130e-01 1.0969402098334163e-02 2.7031645513010027e+01 4.5339322756803097e-01 -1.4115868913043195e-01 
      </Row>
      <Row Index="37">
        1.3679108623213532e-02 -2.4176307447345130e-01 -1.0980232339352280e-01 -4.5035160221811088e-02 -5.5938732195520591e-02 1.1910324996067589e-01 2.3608319871884165e-02 7.9209892789662284e-03 -6.9915241974972675e-02 2.6908706019631179e-01 -1.6522321220127090e-02 5.3960333368268110e-02 -4.1935225516742669e-02 -4.5574388499079355e-02 -7.2061223616936343e-02 -2.9980380204765567e-02 -1.3967430513401946e-01 1.0115973613375884e-01 -1.3835083019110839e-01 -5.4097053967554487e-03 -8.1831170273412024e-03 2.3439584636404831e-02 -2.3551678574497195e+00 5.3909615552378010e-01 -1.5998614262985533e-01 8.5592549158713582e-01 -1.3676123394793585e-01 6.4979197169293013e-02 1.6151465606922621e+00 -6.8586885389932739e-02 5.2777330334286887e-02 -8.7510044221874173e-01 -2.6630957645953551e-01 2.1687684266481519e-01 -2.3382018534660803e-01 8.7456033424408136e-02 4.5339322761009981e-01 6.7897177088454752e-01 -1.3018426650280021e-01 
      </Row>
      <Row Index="38">
        -1.1854525645355718e-02 4.2909822667455473e-02 4.2682776457853677e-02 1.9322190499709346e-02 2.4134088765606410e-02 -1.3183916688969233e-02 -1.6690339479779825e-02 -1.9178948964068410e-03 1.9970937964056079e-02 -4.1095143817316160e-02 -3.9937178604899704e-02 -1.7491550682363910e-02 1.4600528698505338e-02 8.9505529246458604e-03 7.3519106217627334e-02 8.9632973904422153e-03 2.9320666611879737e-02 -1.3008516040596607e-02 3.0711484371715114e-02 2.6259575081023501e-03 -2.8551269768129273e-02 3.2343669132917086e-04 4.5453590413156653e-01 -1.2495753420711579e-01 4.1066898204844729e-02 -1.5337852021723422e-01 -1.5131614753504455e-02 3.2405880044770685e-02 -3.5718218880433650e-01 1.4222671856304755e-02 -1.0815016947212763e-02 1.7242522997082665e-01 1.1378370661730429e-01 -1.1522170451943095e-01 -3.6315277437503096e-02 -2.2739632918836485e-02 -1.4115868913935903e-01 -1.3018426650278364e-01 3.1760252205061013e-02 
      </Row>
    </InverseHessian>
  </Weights>
</MethodSetup>
