<?xml version="1.0"?>
<MethodSetup Method="MLP::MLP">
  <GeneralInfo>
    <Info name="TMVA Release" value="4.1.2 [262402]"/>
    <Info name="ROOT Release" value="5.32/00 [335872]"/>
    <Info name="Creator" value="tomc"/>
    <Info name="Date" value="Thu Jan 10 16:22:03 2013"/>
    <Info name="Host" value="Linux lxbuild168.cern.ch 2.6.18-308.1.1.el5 #1 SMP Wed Mar 7 19:25:07 CET 2012 x86_64 x86_64 x86_64 GNU/Linux"/>
    <Info name="Dir" value="/user_mnt/user/tomc/QGTagger/training/c/13/aKDE03"/>
    <Info name="Training events" value="2212272"/>
    <Info name="TrainingTime" value="8.60854380e+03"/>
    <Info name="AnalysisType" value="Classification"/>
  </GeneralInfo>
  <Options>
    <Option name="NCycles" modified="No">500</Option>
    <Option name="HiddenLayers" modified="No">N,N-1</Option>
    <Option name="NeuronType" modified="No">sigmoid</Option>
    <Option name="RandomSeed" modified="No">1</Option>
    <Option name="EstimatorType" modified="No">MSE</Option>
    <Option name="NeuronInputType" modified="No">sum</Option>
    <Option name="V" modified="Yes">False</Option>
    <Option name="VerbosityLevel" modified="No">Default</Option>
    <Option name="VarTransform" modified="Yes">N</Option>
    <Option name="H" modified="Yes">False</Option>
    <Option name="CreateMVAPdfs" modified="Yes">True</Option>
    <Option name="IgnoreNegWeightsInTraining" modified="No">False</Option>
    <Option name="TrainingMethod" modified="No">BP</Option>
    <Option name="LearningRate" modified="No">2.000000e-02</Option>
    <Option name="DecayRate" modified="No">1.000000e-02</Option>
    <Option name="TestRate" modified="Yes">3</Option>
    <Option name="EpochMonitoring" modified="No">False</Option>
    <Option name="Sampling" modified="No">1.000000e+00</Option>
    <Option name="SamplingEpoch" modified="No">1.000000e+00</Option>
    <Option name="SamplingImportance" modified="No">1.000000e+00</Option>
    <Option name="SamplingTraining" modified="No">True</Option>
    <Option name="SamplingTesting" modified="No">False</Option>
    <Option name="ResetStep" modified="No">50</Option>
    <Option name="Tau" modified="No">3.000000e+00</Option>
    <Option name="BPMode" modified="No">sequential</Option>
    <Option name="BatchSize" modified="No">-1</Option>
    <Option name="ConvergenceImprove" modified="No">1.000000e-30</Option>
    <Option name="ConvergenceTests" modified="No">-1</Option>
    <Option name="UseRegulator" modified="Yes">True</Option>
    <Option name="UpdateLimit" modified="No">10000</Option>
    <Option name="CalculateErrors" modified="No">False</Option>
    <Option name="WeightRange" modified="No">1.000000e+00</Option>
  </Options>
  <Variables NVar="4">
    <Variable VarIndex="0" Expression="axis1" Label="axis1" Title="axis1" Unit="" Internal="axis1" Type="F" Min="-2.37558968e-04" Max="3.83462250e-01"/>
    <Variable VarIndex="1" Expression="axis2" Label="axis2" Title="axis2" Unit="" Internal="axis2" Type="F" Min="-1.85406112e-04" Max="2.37119809e-01"/>
    <Variable VarIndex="2" Expression="mult" Label="mult" Title="mult" Unit="" Internal="mult" Type="I" Min="0.00000000e+00" Max="5.00000000e+01"/>
    <Variable VarIndex="3" Expression="ptD" Label="ptD" Title="ptD" Unit="" Internal="ptD" Type="F" Min="1.37865424e-01" Max="1.00059175e+00"/>
  </Variables>
  <Spectators NSpec="0"/>
  <Classes NClass="2">
    <Class Name="Signal" Index="0"/>
    <Class Name="Background" Index="1"/>
  </Classes>
  <Transformations NTransformations="1">
    <Transform Name="Normalize">
      <Selection>
        <Input NInputs="4">
          <Input Type="Variable" Label="axis1" Expression="axis1"/>
          <Input Type="Variable" Label="axis2" Expression="axis2"/>
          <Input Type="Variable" Label="mult" Expression="mult"/>
          <Input Type="Variable" Label="ptD" Expression="ptD"/>
        </Input>
        <Output NOutputs="4">
          <Output Type="Variable" Label="axis1" Expression="axis1"/>
          <Output Type="Variable" Label="axis2" Expression="axis2"/>
          <Output Type="Variable" Label="mult" Expression="mult"/>
          <Output Type="Variable" Label="ptD" Expression="ptD"/>
        </Output>
      </Selection>
      <Class ClassIndex="0">
        <Ranges>
          <Range Index="0" Min="1.6340571455657482e-03" Max="3.6248841881752014e-01"/>
          <Range Index="1" Min="6.5714988159015775e-04" Max="2.2516353428363800e-01"/>
          <Range Index="2" Min="0.0000000000000000e+00" Max="5.0000000000000000e+01"/>
          <Range Index="3" Min="1.3786542415618896e-01" Max="9.8002272844314575e-01"/>
        </Ranges>
      </Class>
      <Class ClassIndex="1">
        <Ranges>
          <Range Index="0" Min="-2.3755896836519241e-04" Max="3.8346225023269653e-01"/>
          <Range Index="1" Min="-1.8540611199568957e-04" Max="2.3711980879306793e-01"/>
          <Range Index="2" Min="0.0000000000000000e+00" Max="4.2000000000000000e+01"/>
          <Range Index="3" Min="1.4755241572856903e-01" Max="1.0005917549133301e+00"/>
        </Ranges>
      </Class>
      <Class ClassIndex="2">
        <Ranges>
          <Range Index="0" Min="-2.3755896836519241e-04" Max="3.8346225023269653e-01"/>
          <Range Index="1" Min="-1.8540611199568957e-04" Max="2.3711980879306793e-01"/>
          <Range Index="2" Min="0.0000000000000000e+00" Max="5.0000000000000000e+01"/>
          <Range Index="3" Min="1.3786542415618896e-01" Max="1.0005917549133301e+00"/>
        </Ranges>
      </Class>
    </Transform>
  </Transformations>
  <MVAPdfs>
    <PDF Name="MLP_PDFSig" MinNSmooth="0" MaxNSmooth="0" InterpolMethod="5" KDE_type="1" KDE_iter="2" KDE_border="1" KDE_finefactor="3.0000001192092896e-01">
      <Histogram Name="MLP_tr_S_original" NBins="250" XMin="-1.8063017725944519e-01" XMax="9.8184293508529663e-01" HasEquidistantBins="1">
        0.00000000e+00 0.00000000e+00 0.00000000e+00 0.00000000e+00 0.00000000e+00 0.00000000e+00 0.00000000e+00 0.00000000e+00 0.00000000e+00 0.00000000e+00 0.00000000e+00 0.00000000e+00 0.00000000e+00 0.00000000e+00 0.00000000e+00 0.00000000e+00 0.00000000e+00 0.00000000e+00 0.00000000e+00 0.00000000e+00 0.00000000e+00 0.00000000e+00 0.00000000e+00 0.00000000e+00 0.00000000e+00 1.64583835e-04 0.00000000e+00 1.64583835e-04 0.00000000e+00 0.00000000e+00 0.00000000e+00 0.00000000e+00 0.00000000e+00 0.00000000e+00 1.64583835e-04 0.00000000e+00 0.00000000e+00 0.00000000e+00 0.00000000e+00 0.00000000e+00 0.00000000e+00 0.00000000e+00 0.00000000e+00 0.00000000e+00 1.64583835e-04 9.87502979e-04 3.12709296e-03 1.05333654e-02 1.89271420e-02 3.01188417e-02 4.06522080e-02 5.08564040e-02 6.36939481e-02 7.70252347e-02 8.45960900e-02 9.51294601e-02 1.01054475e-01 1.19487867e-01 1.25742048e-01 1.33971244e-01 1.50100455e-01 1.56025484e-01 1.70838028e-01 1.76763043e-01 1.72648445e-01 1.88448489e-01 2.01286033e-01 1.99475616e-01 2.04577714e-01 2.20048591e-01 2.36506969e-01 2.34367386e-01 2.55763292e-01 2.45723665e-01 2.60042459e-01 2.69423753e-01 2.93782145e-01 2.86046714e-01 2.75677919e-01 2.79792517e-01 2.79463351e-01 2.97896743e-01 2.99707174e-01 3.05632174e-01 3.13696802e-01 3.16330135e-01 3.14848870e-01 3.25875998e-01 3.13532203e-01 3.06619674e-01 3.32623929e-01 3.31636429e-01 3.27686429e-01 3.31801027e-01 3.25711399e-01 3.42169791e-01 3.57969850e-01 3.49905252e-01 3.41840625e-01 3.65376115e-01 3.67351115e-01 3.58134419e-01 3.69490713e-01 3.71136546e-01 3.97305369e-01 3.85126173e-01 3.84961605e-01 3.89569938e-01 4.04053330e-01 4.01090801e-01 4.13928360e-01 4.11788762e-01 4.13599193e-01 4.11294997e-01 4.32855487e-01 4.38945085e-01 4.52934712e-01 4.47503448e-01 4.52770144e-01 4.54251379e-01 4.75482702e-01 4.71532702e-01 5.00664055e-01 5.05930722e-01 5.00993192e-01 5.14818251e-01 5.29630780e-01 5.33580780e-01 5.31441212e-01 5.50532937e-01 5.53495467e-01 5.62712133e-01 5.60572565e-01 5.69953799e-01 5.84766388e-01 5.78512192e-01 6.06491446e-01 6.22620642e-01 6.04845583e-01 6.33647799e-01 6.43358231e-01 6.65906191e-01 6.50435328e-01 6.71008289e-01 6.98329210e-01 7.02772975e-01 7.23181367e-01 7.05077171e-01 7.27625132e-01 7.58402348e-01 7.67454445e-01 7.63339818e-01 7.84241974e-01 7.96256602e-01 8.09917092e-01 8.08929563e-01 8.44644248e-01 8.61760974e-01 8.64558876e-01 8.96158993e-01 9.23150718e-01 9.18213248e-01 9.57713366e-01 9.82236326e-01 9.98200953e-01 1.01844478e+00 1.01712811e+00 1.01548231e+00 1.03704274e+00 1.07753038e+00 1.05465329e+00 1.09826791e+00 1.10007834e+00 1.11587846e+00 1.12065136e+00 1.12377846e+00 1.16278481e+00 1.15340352e+00 1.19932246e+00 1.18599117e+00 1.21956623e+00 1.24589968e+00 1.25725591e+00 1.28770399e+00 1.29181850e+00 1.34497917e+00 1.34580207e+00 1.33428121e+00 1.37592089e+00 1.39764595e+00 1.40439391e+00 1.43072724e+00 1.41739595e+00 1.50034630e+00 1.50758791e+00 1.54297352e+00 1.55169642e+00 1.59481740e+00 1.63497579e+00 1.64945924e+00 1.69554269e+00 1.71117818e+00 1.75874293e+00 1.76466787e+00 1.80153465e+00 1.85617650e+00 1.88645995e+00 1.92513716e+00 1.94159555e+00 1.98372900e+00 2.04380202e+00 2.11391473e+00 2.12148571e+00 2.17777324e+00 2.19933391e+00 2.26648402e+00 2.32277179e+00 2.36161351e+00 2.47715139e+00 2.51352429e+00 2.55137873e+00 2.62017465e+00 2.68600821e+00 2.69275618e+00 2.82590437e+00 2.83660245e+00 2.95279860e+00 2.98011947e+00 3.01945519e+00 3.09779692e+00 3.18239307e+00 3.24230170e+00 3.30007052e+00 3.34384990e+00 3.35751033e+00 3.44572711e+00 3.42811680e+00 3.44770217e+00 3.44523358e+00 3.34500194e+00 3.25053072e+00 3.06488013e+00 2.88811707e+00 2.51796818e+00 2.09317732e+00 1.52964222e+00 8.66204739e-01 2.56421626e-01 5.72751760e-02 7.90002383e-03 
      </Histogram>
    </PDF>
    <PDF Name="MLP_PDFBkg" MinNSmooth="0" MaxNSmooth="0" InterpolMethod="5" KDE_type="1" KDE_iter="2" KDE_border="1" KDE_finefactor="3.0000001192092896e-01">
      <Histogram Name="MLP_tr_B_original" NBins="250" XMin="-1.8063017725944519e-01" XMax="9.8184293508529663e-01" HasEquidistantBins="1">
        2.37479398e-04 0.00000000e+00 0.00000000e+00 0.00000000e+00 0.00000000e+00 0.00000000e+00 0.00000000e+00 0.00000000e+00 0.00000000e+00 0.00000000e+00 0.00000000e+00 0.00000000e+00 0.00000000e+00 0.00000000e+00 0.00000000e+00 0.00000000e+00 0.00000000e+00 0.00000000e+00 0.00000000e+00 0.00000000e+00 0.00000000e+00 0.00000000e+00 2.37479398e-04 0.00000000e+00 0.00000000e+00 2.37479398e-04 0.00000000e+00 0.00000000e+00 0.00000000e+00 0.00000000e+00 2.37479398e-04 2.37479398e-04 0.00000000e+00 7.12438195e-04 2.37479398e-04 0.00000000e+00 2.37479398e-04 7.12438195e-04 1.42487639e-03 9.49917594e-04 1.18739705e-03 7.12438195e-04 4.74958797e-04 1.42487639e-03 5.93698537e-03 4.53585647e-02 1.43912524e-01 2.94949412e-01 4.53823149e-01 6.57342970e-01 8.80811095e-01 1.08148122e+00 1.24795425e+00 1.38474238e+00 1.48828340e+00 1.59514916e+00 1.72695029e+00 1.74856091e+00 1.79700661e+00 1.84901464e+00 1.89769793e+00 1.87561238e+00 1.93688202e+00 1.95279312e+00 1.95469296e+00 1.91479647e+00 1.94709361e+00 1.96039248e+00 1.94376898e+00 1.97582865e+00 1.96086740e+00 1.98366547e+00 1.96276724e+00 1.97867846e+00 1.96751690e+00 1.90600967e+00 1.88368666e+00 1.89627302e+00 1.85376430e+00 1.79795659e+00 1.79843152e+00 1.74666107e+00 1.68705368e+00 1.70343983e+00 1.61652231e+00 1.63504577e+00 1.58802474e+00 1.57805061e+00 1.56308949e+00 1.50941908e+00 1.47735941e+00 1.48258388e+00 1.44577467e+00 1.43627548e+00 1.35410762e+00 1.40231586e+00 1.37144351e+00 1.37595570e+00 1.35410762e+00 1.30708671e+00 1.31991053e+00 1.27312708e+00 1.27906406e+00 1.27431452e+00 1.23014331e+00 1.21826935e+00 1.22800601e+00 1.18098509e+00 1.19452143e+00 1.18146002e+00 1.16697383e+00 1.18739700e+00 1.12612736e+00 1.11282849e+00 1.15153766e+00 1.13633895e+00 1.11449087e+00 1.13016450e+00 1.14726305e+00 1.13230181e+00 1.10617912e+00 1.09121788e+00 1.09834230e+00 1.08076882e+00 1.12493992e+00 1.11591578e+00 1.07696915e+00 1.04894650e+00 1.08789313e+00 1.06200790e+00 1.10974121e+00 1.03422284e+00 1.08219361e+00 1.05298364e+00 1.05464602e+00 1.06034553e+00 1.05535853e+00 1.06224537e+00 1.04205966e+00 1.02757335e+00 1.05250871e+00 1.02472365e+00 1.07079458e+00 1.03920984e+00 1.03588521e+00 1.01617444e+00 1.02899826e+00 1.02947319e+00 1.00453794e+00 1.03541017e+00 1.02163637e+00 1.00097573e+00 1.00881255e+00 1.02021158e+00 1.02591097e+00 1.00928748e+00 1.01213717e+00 1.02258635e+00 1.01973653e+00 9.98838365e-01 1.02329874e+00 1.04799664e+00 1.00786257e+00 1.00216305e+00 1.04277205e+00 1.02211142e+00 9.84114647e-01 9.88389313e-01 9.75327909e-01 9.72953141e-01 9.78177667e-01 9.75802898e-01 9.88864243e-01 9.39706028e-01 9.56329584e-01 9.49205160e-01 9.12870824e-01 9.27832067e-01 9.39706028e-01 9.19045329e-01 8.68699670e-01 8.98147106e-01 8.86985600e-01 9.14533198e-01 9.02659237e-01 8.72261882e-01 8.66799831e-01 8.65137458e-01 8.57775629e-01 8.63950074e-01 8.66562366e-01 8.45426679e-01 8.59200478e-01 8.38539779e-01 8.17166626e-01 8.31890345e-01 8.34977567e-01 8.25240910e-01 7.96743393e-01 8.21678758e-01 8.13841939e-01 8.04105282e-01 7.65396118e-01 7.87481725e-01 7.76082695e-01 7.76082695e-01 7.54947007e-01 7.69433260e-01 7.65396118e-01 7.34048843e-01 7.44972885e-01 7.29774237e-01 7.40698278e-01 7.29061782e-01 7.07213700e-01 7.25262105e-01 6.96764588e-01 7.19800055e-01 7.07451165e-01 6.68504536e-01 6.82753265e-01 6.67792082e-01 6.71829224e-01 6.62805021e-01 6.35019958e-01 6.19108796e-01 6.24570847e-01 6.06522381e-01 5.93935966e-01 5.61401308e-01 5.54751873e-01 5.56889236e-01 5.34091175e-01 5.06306112e-01 4.80895787e-01 4.66884524e-01 4.35299754e-01 4.15826440e-01 3.79967064e-01 3.46244961e-01 3.28671485e-01 2.66451895e-01 2.24893004e-01 1.98057830e-01 1.51749343e-01 8.78673792e-02 4.91582379e-02 9.26169660e-03 2.84975278e-03 0.00000000e+00 
      </Histogram>
    </PDF>
  </MVAPdfs>
  <Weights>
    <Layout NLayers="4">
      <Layer Index="0" NNeurons="5">
        <Neuron NSynapses="4">
          6.6325273461826795e+00 7.7258013142346993e+00 3.2073863725637528e+00 3.9938722860312974e+00 
        </Neuron>
        <Neuron NSynapses="4">
          -4.2907229177033557e+00 5.7764344303283970e+00 -1.2534056913333242e+00 1.0624189151532713e+01 
        </Neuron>
        <Neuron NSynapses="4">
          -3.8409139795723224e+00 2.7987293016151693e-01 -3.4321790759945645e+00 8.6693658781004643e+00 
        </Neuron>
        <Neuron NSynapses="4">
          -7.6618212124770685e-02 -2.2235584610579577e+00 4.6083490483012097e+00 4.0604810449287049e-01 
        </Neuron>
        <Neuron NSynapses="4">
          -3.1994614693051591e+00 1.0807063999775412e+01 1.7847054882920481e+00 1.7606744583121873e+01 
        </Neuron>
      </Layer>
      <Layer Index="1" NNeurons="5">
        <Neuron NSynapses="3">
          -4.6113675575754840e+00 4.1564766306565808e+00 1.4953178661200472e+00 
        </Neuron>
        <Neuron NSynapses="3">
          1.5794618768364881e+00 -5.0325537761570631e+00 -1.9431796297899122e+00 
        </Neuron>
        <Neuron NSynapses="3">
          2.9283417951786888e+00 -6.3415355096062402e+00 -3.7420352270106867e+00 
        </Neuron>
        <Neuron NSynapses="3">
          -2.1022208217272329e+00 -2.5003115875857702e+00 1.3868627936165530e+00 
        </Neuron>
        <Neuron NSynapses="3">
          -3.2667798781903450e+00 3.0718518457567310e+00 1.2475632033934791e+00 
        </Neuron>
      </Layer>
      <Layer Index="2" NNeurons="4">
        <Neuron NSynapses="1">
          -9.1111863482422428e-01 
        </Neuron>
        <Neuron NSynapses="1">
          -3.7854339417897975e+00 
        </Neuron>
        <Neuron NSynapses="1">
          9.2022781167597767e-01 
        </Neuron>
        <Neuron NSynapses="1">
          4.2261435731778862e-01 
        </Neuron>
      </Layer>
      <Layer Index="3" NNeurons="1">
        <Neuron NSynapses="0"/>
      </Layer>
    </Layout>
    <InverseHessian NElements="1521" NRows="39" NCols="39">
      <Row Index="0">
        4.5784802108664868e-01 1.4238895532828227e-01 4.1088750900945922e-02 7.6905826126954305e-02 -2.3603606015093712e-01 1.6995075283680289e-01 1.6075375648856308e-02 3.5929213477232727e-02 -1.8629019972379371e-01 -3.6800798804379350e-02 -4.6697136896761790e-02 7.2532604771566506e-02 1.6118716230974849e-02 -2.0958314296361163e-02 1.1585570850629559e-01 -4.4413980496235829e-02 -7.4897268208209467e-02 2.2964855970377090e-01 9.2685577250589901e-02 1.5913699911947246e-01 -7.4061360607274085e-02 -1.7432354397431002e-01 -1.6635414613311700e-01 -3.4158103207788351e-02 4.1038561370973156e-04 1.4057483169779580e-01 7.9984243785419212e-02 -4.0737599439597587e-02 2.9758414337441741e-01 -1.1711462172101225e-02 -6.9775319627833274e-02 2.9026325654666767e-02 -9.9134482803539398e-03 2.9484950505790808e-01 -2.6379428590753595e-01 1.1003553580615832e-01 7.7178540991953914e-01 5.4569962908553045e-02 -2.0081672846300889e-02 
      </Row>
      <Row Index="1">
        1.4238895532761486e-01 8.4899176202739068e-01 5.7004594668924234e-02 1.9392374699149414e-01 -3.3667481614067865e-02 7.2638191824459811e-02 1.6321936440888783e-02 1.1072578397130078e-02 -3.3224887915260515e-02 -2.4122125127882718e-01 -5.8291865874353324e-02 1.1004135270202869e-01 3.0002539296806865e-02 4.6179623974406475e-02 7.7214737025721694e-02 1.5609544050905616e-02 6.5039155948559788e-02 6.1929799597091462e-01 1.0486259849679594e-01 2.3391003652205625e-01 -4.6223028625209051e-01 -4.5930171060920233e-01 -1.2706602735617561e-02 1.1607727786288329e-01 7.3622675838664375e-01 1.7682740293227117e-01 3.7894428551826509e-01 8.0333404635012673e-01 2.0567043804807469e-01 -1.3176842843618908e-01 5.2098933465300840e-02 -4.9456966203127561e-02 -2.7884118018883997e-01 -1.3892940839940862e+00 -1.2150560091687897e-01 1.5576559234598364e-01 -2.4916646150981006e+00 3.5757094439536015e-02 -3.2179702195214877e-02 
      </Row>
      <Row Index="2">
        4.1088750900812675e-02 5.7004594669021275e-02 7.2400020432228734e-02 1.8674459780379089e-02 1.4519442345973087e-03 8.9669294187863652e-02 -2.7149427189492502e-02 3.8835163866948061e-02 5.3284851982927650e-03 -5.8307671979378473e-03 -4.4445929915821691e-02 3.9854890011027030e-02 -1.5317592518832553e-02 7.1218794370671648e-04 3.1769330201330284e-02 -4.7587971831769870e-03 3.6366226784385405e-02 1.2047780159789281e-01 2.9526090594772549e-02 8.9995273152429181e-02 -2.5128112709967310e-01 2.8167159084321242e-02 -9.6449367929747620e-04 6.8363053757965517e-02 -9.0896763117419808e-03 7.1491824995580502e-02 1.4759838984149481e-01 -1.0479239011872589e-02 1.2410100389241335e-01 -8.9674665917863994e-02 -4.8630161951624179e-03 1.8323122263976862e-02 -1.3848591671777401e-02 9.1457688796799774e-02 -1.3936793368962083e-01 1.0491108255578570e-01 3.3477107107095549e-01 2.9739175690568807e-02 -1.3740754978721308e-02 
      </Row>
      <Row Index="3">
        7.6905826127802890e-02 1.9392374699197704e-01 1.8674459780744321e-02 3.5427677126186957e-01 6.3034175478515336e-03 2.3300170218614066e-02 6.7892071722993642e-04 1.2351517202393539e-01 -3.4989358142741178e-02 1.6315340514738041e-02 -2.6388689848589397e-02 3.3469232013250444e-02 -4.3562071205020703e-02 3.8008631892691505e-02 -1.0667642230458130e-02 4.2343519653782996e-02 3.0359929602303503e-02 1.7797893101745463e-01 4.0094428391276492e-02 4.6895944500557335e-01 -3.1577154013364372e-01 3.3676875115518307e-01 -4.1232133715886209e-02 1.3104319626739921e-01 -3.8664335544991241e-01 1.1082541699059711e-01 3.2900161547966389e-01 -4.9601413230489710e-01 1.3156803093938585e-01 -1.1831465565325350e-01 -2.3825601127564491e-01 1.6059851229802838e-01 -1.9807742655987076e-01 1.0228407025203730e+00 -1.9706704900365402e-01 1.1830975357482562e-01 2.2699839520424709e+00 -9.3035817800142476e-03 -2.4085078932738216e-02 
      </Row>
      <Row Index="4">
        -2.3603606015082201e-01 -3.3667481614613762e-02 1.4519442346086239e-03 6.3034175484769639e-03 2.6819351082655840e-01 -8.1163886044986949e-02 1.6253062974478455e-02 -3.5028809094506237e-02 1.2527016020328219e-01 3.1568894621347154e-03 2.1051733946235995e-02 -1.7761070786425550e-02 1.7137814521230692e-02 6.2439249380535078e-03 -5.6540328174057991e-02 2.3728965122525991e-02 1.7564102168120033e-01 -8.6491422111280483e-02 -8.6966695401083944e-03 -4.2939346236496645e-02 -2.0404473074670321e-01 6.1005933001491507e-02 1.1443415593330764e-01 9.6813468167749619e-02 7.4447623514691003e-02 -5.5493983283123251e-02 1.2141268772349380e-01 1.0036026372282447e-01 -1.4460466911870903e-01 -4.8485680710301744e-02 3.5070011985931876e-02 5.6172362830333288e-03 -9.4135976478941508e-02 -2.7429382261672064e-01 1.0931434722737970e-01 3.1284916280100369e-03 -6.1269675235272869e-01 -2.5010957142863548e-02 3.6862328817017440e-03 
      </Row>
      <Row Index="5">
        1.6995075283664696e-01 7.2638191824768827e-02 8.9669294187942158e-02 2.3300170218416349e-02 -8.1163886044879938e-02 5.3270467279984746e-01 -3.4884698829290219e-02 1.4555769062335194e-01 -6.2401564091543515e-02 2.4421977129892247e-02 -5.7450141717573920e-02 2.0511823807565600e-02 -2.5324479625224841e-02 9.6212881989164833e-02 4.7484301098272230e-02 8.2562641799585335e-03 -9.6646308084706867e-03 5.4855138632697775e-01 4.8518644711041503e-02 1.8735380768385584e-01 -3.1256212247120019e-01 -1.7372762860494773e-01 -2.2488704482204983e-02 8.9434320623621388e-02 1.4542009750055876e-01 8.2924351213850084e-02 1.9832611033585965e-01 2.7080729221486577e-01 1.8263916830666191e-01 -1.2593614194717917e-01 1.2227200233312728e-01 6.2043272834358322e-02 -5.4214929200391018e-02 -3.4487666359330083e-01 -1.8326820517305123e-01 1.4161858680646142e-01 -3.4276109023059032e-01 3.7500143080729131e-02 -2.1854506460771490e-02 
      </Row>
      <Row Index="6">
        1.6075375648934274e-02 1.6321936440852201e-02 -2.7149427189459188e-02 6.7892071734546727e-04 1.6253062974470857e-02 -3.4884698829237115e-02 2.7635475427918756e-02 -2.7299795959343627e-02 -1.0495513218283653e-02 -7.6042790844141270e-03 1.5255550910474154e-02 -8.6873251049343451e-03 1.5475194062993868e-02 -9.4629325920171439e-03 3.2655715091071402e-03 -3.5960622776160757e-03 5.9987912025327023e-03 -2.3443976244574984e-02 1.0400552953210069e-02 -3.4338012064002103e-02 3.1972967692556642e-02 -4.4360857966729832e-02 -6.7283530066520707e-03 -1.3205432872041895e-02 3.8237561959377608e-02 -1.7820831647391691e-02 -1.4703643176824169e-02 3.7791945581664134e-02 -2.9788858628252573e-02 2.1669802772626690e-02 8.2129616121441823e-04 -1.0611243917542986e-03 -1.4740281082165890e-02 -7.9090152217664272e-02 3.2980723847194943e-02 -1.8485777885599592e-02 -2.0334278376168718e-01 -7.8374501453962395e-03 3.4407169327791069e-03 
      </Row>
      <Row Index="7">
        3.5929213477648547e-02 1.1072578397383681e-02 3.8835163867087824e-02 1.2351517202312257e-01 -3.5028809095067739e-02 1.4555769062328516e-01 -2.7299795959418199e-02 4.2276816480060808e-01 -1.5031339733120763e-02 -2.1002386884166779e-02 -4.6242663988364824e-02 1.5280587555073291e-01 -4.8103183190451197e-02 -1.8070376227680429e-03 6.8693000663844206e-03 6.4746040508164376e-02 -4.1825808216221748e-03 9.8496275383654686e-02 1.8945951256395657e-02 6.2723563969045293e-01 -3.5151037354883724e-01 4.0338665270785817e-01 -3.1109839012680940e-02 1.2747121755176272e-01 -4.5571238144013637e-01 1.2134565732919779e-01 3.7202565557622419e-01 -5.9343903159910771e-01 1.3674008924708247e-01 -9.2839914130219053e-02 -2.3421566836363744e-01 1.6045335057422833e-01 -1.7464054330413978e-01 1.2341343377473910e+00 -2.7489804255390454e-01 1.3693374567739613e-01 2.7681241875416860e+00 2.1077279079512561e-03 -1.7103871002320331e-02 
      </Row>
      <Row Index="8">
        -1.8629019972395339e-01 -3.3224887915685127e-02 5.3284851981949032e-03 -3.4989358142478375e-02 1.2527016020342366e-01 -6.2401564091693972e-02 -1.0495513218245787e-02 -1.5031339732989740e-02 1.8647279044195592e-01 -3.8698846764154665e-02 3.5617277448420415e-02 -3.5997539248023958e-02 1.4585489741922168e-02 -4.1405843148311118e-03 -4.0096311388377409e-02 1.9560085673351629e-02 1.1588159617393275e-01 -9.9152615425861762e-02 -6.7395177194919499e-03 -7.3857928418669644e-02 -2.2099512376605288e-01 3.9554334040832501e-02 8.2769337842694302e-02 3.9473902200683780e-02 9.6727730968180742e-02 -3.8618347056593866e-02 6.3688377039588004e-02 9.6519728498608057e-02 -9.2293989021554335e-02 -3.1064051249663095e-02 1.0672685968486273e-02 -2.2562411260320769e-02 2.7408615706149414e-03 -2.6152179759140526e-01 1.0385743613464996e-01 2.7609460668739028e-02 -6.1982834458242586e-01 -1.4256202257174172e-02 9.6614705499760770e-04 
      </Row>
      <Row Index="9">
        -3.6800798803629270e-02 -2.4122125127880034e-01 -5.8307671976150586e-03 1.6315340515406854e-02 3.1568894616501126e-03 2.4421977130193118e-02 -7.6042790845332869e-03 -2.1002386883328162e-02 -3.8698846764506134e-02 2.6458503645417986e-01 -1.3363195334087868e-02 -5.3398762036252725e-02 -4.0265958293110277e-02 5.5745923498685734e-02 -2.2286845940236610e-02 -8.7006322127025082e-03 -5.5177411346606878e-02 -1.0667752384431243e-02 -3.6992948989670683e-02 -8.6247549842579565e-03 -3.6193088045466129e-02 2.5235217910886831e-01 1.0173179129328715e-02 8.1257213613860818e-02 -4.6009128400708882e-01 -8.2705088525674875e-02 3.4814298291712127e-02 -3.7947253154496685e-01 -4.4585705421512807e-02 -8.0215053460284805e-02 7.7548497486390672e-02 1.4421123436212574e-01 6.3405608839283756e-02 6.3876302099864168e-01 -6.7778699469911871e-02 2.9906644864323068e-02 1.2340104635589819e+00 -1.1650200663055041e-02 6.6474641035089189e-03 
      </Row>
      <Row Index="10">
        -4.6697136896723335e-02 -5.8291865874502087e-02 -4.4445929915850155e-02 -2.6388689848202584e-02 2.1051733946318325e-02 -5.7450141717540648e-02 1.5255550910513740e-02 -4.6242663988208366e-02 3.5617277448359297e-02 -1.3363195333729538e-02 5.0002839505307338e-02 -4.4168211803375192e-02 1.9333478992315342e-02 -2.1789792332520541e-03 -3.9131273304206071e-02 1.0187200350929487e-02 1.3857487593385672e-02 -1.0143938912118911e-01 -1.9824563338476747e-02 -1.0747018047008333e-01 1.6063209249310104e-01 -5.1496937314545688e-02 2.7785210730071001e-02 -4.8554830753846430e-02 7.0128109651837855e-02 -6.5415097575134362e-02 -1.0847725869244229e-01 7.6318916470985709e-02 -1.2578057573170656e-01 6.2529469889279696e-02 1.6476577159568954e-02 -2.9295576402216847e-02 7.8116781013797335e-03 -2.0825981986707656e-01 1.5137476274667480e-01 -7.7604533531632269e-02 -5.4201135391439381e-01 -2.6221140861318187e-02 9.5945868709145822e-03 
      </Row>
      <Row Index="11">
        7.2532604771518350e-02 1.1004135270199465e-01 3.9854890011031922e-02 3.3469232012627692e-02 -1.7761070786595470e-02 2.0511823807394899e-02 -8.6873251049754165e-03 1.5280587555045155e-01 -3.5997539247975774e-02 -5.3398762036658776e-02 -4.4168211803371354e-02 2.1192403472332400e-01 1.9023690228639256e-02 -3.9844763956901952e-02 4.7366967806715121e-02 1.6869985983109265e-02 1.9895280572821271e-02 6.7522390199125801e-02 2.1712215344326768e-02 3.2590666400195734e-01 -6.2577827219225918e-02 6.0098014480935380e-02 -3.2712153898761857e-02 2.5060518966814327e-05 -6.9812773597297068e-02 8.9746101185851440e-02 1.3561735984742992e-01 -1.1107637458197127e-01 1.2739723656756469e-01 1.7588838352249593e-02 -2.7605388449524870e-02 3.3232831900367382e-02 -6.9123558079509914e-02 2.9106232704360918e-01 -2.0539582748656554e-01 5.8279947668860174e-02 7.5990536895551752e-01 3.0926936510552817e-02 -6.7134909748222220e-03 
      </Row>
      <Row Index="12">
        1.6118716230846819e-02 3.0002539296624560e-02 -1.5317592518878589e-02 -4.3562071204863079e-02 1.7137814521364973e-02 -2.5324479625259154e-02 1.5475194063012435e-02 -4.8103183190498527e-02 1.4585489741949509e-02 -4.0265958292829834e-02 1.9333478992354231e-02 1.9023690228578007e-02 8.7382874893745965e-02 -1.4395919680690261e-02 9.7013852198239436e-03 -1.7340512261402721e-02 6.5096089009457292e-02 -6.0412543369941472e-03 -3.4752542818112381e-05 -7.6869143374728471e-02 2.4210551797135541e-01 -2.0937528737208816e-01 3.4043221278214075e-04 -7.5305613657873777e-02 2.1310113803124578e-01 -3.5868955728573813e-02 -1.0153605637510055e-01 2.3561201377982724e-01 -3.4673890820412653e-02 9.7084220843383112e-02 9.3857436556235518e-02 -4.6975093463592618e-02 -1.0683456096835561e-02 -4.4398954301565230e-01 5.2564801644667716e-02 -7.2675057659658204e-02 -9.2792282540396898e-01 7.3193973777755071e-03 8.0113990710571868e-03 
      </Row>
      <Row Index="13">
        -2.0958314296392472e-02 4.6179623974247963e-02 7.1218794372611698e-04 3.8008631893255165e-02 6.2439249382252610e-03 9.6212881989140048e-02 -9.4629325920057156e-03 -1.8070376222857343e-03 -4.1405843148397681e-03 5.5745923499045058e-02 -2.1789792333013107e-03 -3.9844763956722234e-02 -1.4395919680778021e-02 1.1994190504983093e-01 -3.3070001815116767e-02 1.2537492296285577e-02 4.0556190441955464e-03 1.9181242567261916e-01 -1.2708531680528164e-02 -3.0590414031593099e-03 -2.6302986394103202e-02 -1.5809135136570437e-01 3.0914898467513389e-02 5.4193105401762254e-02 1.6548882608609800e-01 -3.2089510991049626e-02 1.8700196334402355e-02 3.0882934245280597e-01 -3.1743087783003873e-02 -3.9070711581888816e-02 1.2986496545925968e-01 4.8397379389854452e-03 -7.7991899515817309e-02 -5.9666676721861789e-01 7.6097127690691976e-02 -1.7231012746133870e-02 -1.2165144753372055e+00 -8.3724445439993037e-03 -4.1613816371640459e-03 
      </Row>
      <Row Index="14">
        1.1585570850619398e-01 7.7214737025910168e-02 3.1769330201364666e-02 -1.0667642231028146e-02 -5.6540328174110054e-02 4.7484301098284179e-02 3.2655715090584543e-03 6.8693000660123606e-03 -4.0096311388271966e-02 -2.2286845940619471e-02 -3.9131273304188155e-02 4.7366967806647481e-02 9.7013852199061106e-03 -3.3070001815093120e-02 8.3887128839365555e-02 -3.2628656061828354e-02 -2.2228529117448510e-02 7.7518958993736564e-02 4.9567232319467254e-02 4.2103186188289718e-02 -1.5655785747001172e-01 -3.6682218820109025e-02 -6.6370981368186213e-02 9.8335337845215105e-03 -8.5956317655571102e-03 6.9652835753624839e-02 8.5377991156896260e-02 -2.7486159245382544e-02 1.6851160547410435e-01 -3.5659300204455145e-02 -9.5899024665998533e-03 1.8651292209256671e-02 3.2221410038898272e-02 1.3489147025256151e-01 -1.8247157110224807e-01 9.1686858498684798e-02 3.5725832976119209e-01 3.8581976398367621e-02 -8.0912294848550625e-03 
      </Row>
      <Row Index="15">
        -4.4413980496250088e-02 1.5609544050736546e-02 -4.7587971832165378e-03 4.2343519653917805e-02 2.3728965122553441e-02 8.2562641798529061e-03 -3.5960622775891207e-03 6.4746040508319391e-02 1.9560085673336225e-02 -8.7006322125860874e-03 1.0187200350941086e-02 1.6869985983140885e-02 -1.7340512261431323e-02 1.2537492296212316e-02 -3.2628656061829880e-02 5.9725776163255827e-02 1.0062171018042937e-02 1.0951754534767469e-02 -1.3097031228516760e-02 1.0668901840631521e-01 -5.3341579413592299e-02 7.0573708709779054e-02 3.6555806305359054e-02 1.7653171355722065e-02 -2.4549549591504044e-02 -5.5366526057926690e-03 6.3791405242525093e-02 -2.0923741215307642e-02 -6.3779246684730215e-02 -1.8514970550293025e-02 -2.9731708386314115e-02 -1.0487178506365189e-03 -2.4462264661907394e-02 1.1854457358864062e-02 6.0139149479535775e-02 1.5679625910256671e-02 5.4155001326531088e-02 -2.0856074659219074e-02 -6.4711572221506572e-05 
      </Row>
      <Row Index="16">
        -7.4897268208185513e-02 6.5039155948183575e-02 3.6366226784405500e-02 3.0359929602627900e-02 1.7564102168123041e-01 -9.6646308085772924e-03 5.9987912025268701e-03 -4.1825808212228241e-03 1.1588159617387953e-01 -5.5177411346320523e-02 1.3857487593322081e-02 1.9895280573004021e-02 6.5096089009390762e-02 4.0556190440624862e-03 -2.2228529117403806e-02 1.0062171018041917e-02 2.2656207449991311e-01 2.6050738943910037e-02 3.1881806139783656e-02 2.8927262494144082e-02 -1.6186571680501699e-01 -1.0569821830040563e-01 7.0269168312875108e-02 7.7063504715983444e-02 1.8985667406762610e-01 -4.5989395523836612e-03 1.8034490317898172e-01 1.8738072782752602e-01 -4.3806205117848648e-02 -3.7419359237606316e-02 2.2451930910985574e-02 -5.1557700297679906e-04 -1.4098475753344739e-01 -3.4741308568054541e-01 3.6641356603781886e-02 3.8816523926739177e-02 -6.6453927570859073e-01 -2.9334027929778482e-03 -5.4637211911724073e-03 
      </Row>
      <Row Index="17">
        2.2964855970337050e-01 6.1929799597098623e-01 1.2047780159801481e-01 1.7797893101757392e-01 -8.6491422110855323e-02 5.4855138632682787e-01 -2.3443976244639460e-02 9.8496275384135273e-02 -9.9152615425556978e-02 -1.0667752384420637e-02 -1.0143938912126682e-01 6.7522390199522761e-02 -6.0412543370179858e-03 1.9181242567262524e-01 7.7518958993686771e-02 1.0951754534995362e-02 2.6050738944233473e-02 1.0238468044885076e+00 9.2486168712046915e-02 3.0404043998541280e-01 -5.8572145587420232e-01 -5.2018928263090269e-01 -4.5270188018976532e-03 2.0708520650152101e-01 6.1347623656094985e-01 1.3487035083374313e-01 4.3767775751684324e-01 8.9737079271695352e-01 2.7007615571176935e-01 -2.4097869859855539e-01 2.9735599998345874e-01 6.4437309395097175e-02 -2.4314187643275695e-01 -1.4906503783486502e+00 -2.3364928481855815e-01 2.3055580039671633e-01 -2.5077539580100003e+00 5.8333005284814200e-02 -3.9315952833219543e-02 
      </Row>
      <Row Index="18">
        9.2685577250614881e-02 1.0486259849698459e-01 2.9526090594840623e-02 4.0094428390895664e-02 -8.6966695401823370e-03 4.8518644711075531e-02 1.0400552953171251e-02 1.8945951256283500e-02 -6.7395177194430334e-03 -3.6992948989983510e-02 -1.9824563338514511e-02 2.1712215344398267e-02 -3.4752542760980998e-05 -1.2708531680572954e-02 4.9567232319546128e-02 -1.3097031228536421e-02 3.1881806139755525e-02 9.2486168712092004e-02 6.1940222335971920e-02 7.0979727770049433e-02 -2.5696484530389907e-01 -1.2230798982260621e-02 -3.8203203571294191e-02 5.3883370191519148e-02 4.4279969898833316e-03 7.1781254245536677e-02 1.6499822964612285e-01 -3.2275729675798767e-02 1.2618552409250436e-01 -7.0215630664671097e-02 -6.4948417634114908e-02 3.0972673089400424e-02 -4.9253761040224560e-02 1.3433058187468006e-01 -1.2256978553929229e-01 1.0036885252286853e-01 3.5000270827485169e-01 1.8897052576077888e-02 -1.3182119814654692e-02 
      </Row>
      <Row Index="19">
        1.5913699912085111e-01 2.3391003652280540e-01 8.9995273153038680e-02 4.6895944500430642e-01 -4.2939346237931247e-02 1.8735380768395077e-01 -3.4338012064271839e-02 6.2723563969111529e-01 -7.3857928419077901e-02 -8.6247549861508954e-03 -1.0747018047071061e-01 3.2590666400291252e-01 -7.6869143374843962e-02 -3.0590414044073810e-03 4.2103186189374586e-02 1.0668901840595946e-01 2.8927262493211925e-02 3.0404043998454172e-01 7.0979727770545398e-02 1.2961933599531115e+00 -8.1175192767926596e-01 8.4694438232339220e-01 -1.0307433775004005e-01 2.8329163409600450e-01 -1.0120774321958961e+00 2.9009413298553965e-01 8.4537376777929851e-01 -1.2863036105261503e+00 3.8098285872821780e-01 -2.3240892011237113e-01 -4.6321442052032280e-01 4.0182028232229755e-01 -3.4973900743737174e-01 2.6381343891054314e+00 -7.0985423926351443e-01 3.5822958544415384e-01 5.8987815300825313e+00 2.4651212179688655e-02 -4.4450255784249590e-02 
      </Row>
      <Row Index="20">
        -7.4061360607429627e-02 -4.6223028624873308e-01 -2.5128112710042239e-01 -3.1577154013356923e-01 -2.0404473074609111e-01 -3.1256212247014492e-01 3.1972967693063348e-02 -3.5151037355197023e-01 -2.2099512376597463e-01 -3.6193088045524568e-02 1.6063209249396904e-01 -6.2577827220819240e-02 2.4210551797214125e-01 -2.6302986391963934e-02 -1.5655785747090656e-01 -5.3341579413346052e-02 -1.6186571680425571e-01 -5.8572145586950342e-01 -2.5696484530424701e-01 -8.1175192768386162e-01 5.8093613508156592e+00 -9.7912506333226079e-01 -3.3181362430128336e-01 -1.8413477975806321e+00 5.9648816198901722e-01 -2.8957841670013706e-01 -3.5439375621893903e+00 5.7119153255233535e-01 -4.3426598937582989e-01 1.9607404455242541e+00 2.4853738974952844e-01 -7.5060735640286247e-01 4.1606284999721554e-01 -1.0650074660537538e+00 1.0697774773985220e+00 -2.0958640882082875e+00 -2.4377065065925736e+00 -7.7922509916780819e-02 1.2265776214812936e-01 
      </Row>
      <Row Index="21">
        -1.7432354397018468e-01 -4.5930171060580793e-01 2.8167159085674798e-02 3.3676875115279825e-01 6.1005932997683227e-02 -1.7372762860313656e-01 -4.4360857967240430e-02 4.0338665270818019e-01 3.9554334039379579e-02 2.5235217910454266e-01 -5.1496937315830639e-02 6.0098014481940340e-02 -2.0937528737233832e-01 -1.5809135136746288e-01 -3.6682218817775336e-02 7.0573708708672300e-02 -1.0569821830260956e-01 -5.2018928262992259e-01 -1.2230798980867166e-02 8.4694438232170355e-01 -9.7912506331640969e-01 3.1118826353640143e+00 -9.4052193410740725e-02 2.2328670346108498e-01 -3.4160942111173811e+00 2.6314739941846454e-01 6.0728245259539315e-01 -4.3092776791311085e+00 2.5095910870668603e-01 -4.0534976227712138e-01 -1.3969589220156462e+00 6.4325727390164711e-01 1.8217055579948510e-01 9.0841506161790981e+00 -8.4331117276994694e-01 3.6967535988121702e-01 2.0129038053363768e+01 -5.7158246038007440e-02 -2.9874323898633093e-02 
      </Row>
      <Row Index="22">
        -1.6635414613323352e-01 -1.2706602736741179e-02 -9.6449367933942876e-04 -4.1232133714741354e-02 1.1443415593358172e-01 -2.2488704482438837e-02 -6.7283530066177544e-03 -3.1109839011748130e-02 8.2769337842592328e-02 1.0173179130442245e-02 2.7785210730007004e-02 -3.2712153898556619e-02 3.4043221254182604e-04 3.0914898467355734e-02 -6.6370981368245485e-02 3.6555806305392402e-02 7.0269168312975472e-02 -4.5270188026128736e-03 -3.8203203571247499e-02 -1.0307433774753674e-01 -3.3181362430401551e-01 -9.4052193404561890e-02 1.9445986431100160e-01 1.8605651611905602e-01 2.7115436429462525e-01 -1.3682948262391373e-01 2.5468193531743666e-01 3.9112857850238658e-01 -2.8305639670715987e-01 -1.5638698419516028e-01 1.5164825453413699e-01 4.6185838945619201e-04 -1.0583862727171073e-01 -8.6393981355352156e-01 2.3020508219407401e-01 8.0159552255184591e-02 -1.8415260293372688e+00 -4.3830341463474115e-02 8.9083613588956320e-03 
      </Row>
      <Row Index="23">
        -3.4158103207312274e-02 1.1607727786134325e-01 6.8363053758389289e-02 1.3104319626826594e-01 9.6813468167414596e-02 8.9434320623356239e-02 -1.3205432872244294e-02 1.2747121755371005e-01 3.9473902200403366e-02 8.1257213614439550e-02 -4.8554830754388212e-02 2.5060519907593032e-05 -7.5305613658358500e-02 5.4193105400769381e-02 9.8335337850673499e-03 1.7653171355573205e-02 7.7063504715649822e-02 2.0708520649974774e-01 5.3883370191854095e-02 2.8329163409984776e-01 -1.8413477975825288e+00 2.2328670347135182e-01 1.8605651611760204e-01 7.4106676155724116e-01 -1.6401862603490103e-01 -2.7725157519557803e-03 1.3247528714306780e+00 -8.0623475205937711e-02 -2.8494025707786187e-02 -7.0592574465155011e-01 2.6991590629898976e-03 3.1999848514120760e-01 -2.9791909562044339e-01 8.2946440793279119e-02 -2.6658868645693018e-01 6.8009726062170794e-01 2.0457025747914417e-01 -1.0265494385214100e-02 -2.9931149818058209e-02 
      </Row>
      <Row Index="24">
        4.1038560816497593e-04 7.3622675838217244e-01 -9.0896763136874004e-03 -3.8664335544723882e-01 7.4447623519644957e-02 1.4542009749797724e-01 3.8237561960111854e-02 -4.5571238144076220e-01 9.6727730970154191e-02 -4.6009128400170685e-01 7.0128109653674997e-02 -6.9812773598769542e-02 2.1310113803167277e-01 1.6548882608833715e-01 -8.5956317686881611e-03 -2.4549549590074715e-02 1.8985667407046924e-01 6.1347623655927508e-01 4.4279969880024715e-03 -1.0120774321945216e+00 5.9648816197026022e-01 -3.4160942111181614e+00 2.7115436430270529e-01 -1.6401862602215500e-01 4.3205168662735227e+00 -2.6592713854681693e-01 -5.5767448553930121e-01 5.3293769560781499e+00 -3.9525254798478199e-01 3.5024918037586072e-01 1.5506115804073888e+00 -8.8254066508834561e-01 -3.3311702658914727e-01 -1.1171338545404012e+01 1.1687178987194558e+00 -3.9613138353831645e-01 -2.4506118249131305e+01 4.9406576058201729e-02 2.1598504763111204e-02 
      </Row>
      <Row Index="25">
        1.4057483169770557e-01 1.7682740293326460e-01 7.1491824995576159e-02 1.1082541698903620e-01 -5.5493983283369186e-02 8.2924351213842673e-02 -1.7820831647436086e-02 1.2134565732824670e-01 -3.8618347056370350e-02 -8.2705088527071369e-02 -6.5415097575019981e-02 8.9746101185688432e-02 -3.5868955728279389e-02 -3.2089510991021086e-02 6.9652835753657216e-02 -5.5366526058012733e-03 -4.5989395524964616e-03 1.3487035083397558e-01 7.1781254245422282e-02 2.9009413298256082e-01 -2.8957841669662043e-01 2.6314739941165477e-01 -1.3682948262389089e-01 -2.7725157538126266e-03 -2.6592713853771066e-01 2.4435130843084979e-01 1.2501360887760476e-01 -4.3156908776630615e-01 3.7275676966688692e-01 -4.8423818571687760e-02 -2.5367836337164307e-01 2.9377978393418200e-02 -1.0591309113398506e-02 1.0012789236425519e+00 -3.5366592547092457e-01 1.1515136070134535e-01 2.3258777895389846e+00 5.7713751724303257e-02 -3.2093914344899319e-02 
      </Row>
      <Row Index="26">
        7.9984243786507037e-02 3.7894428551582016e-01 1.4759838984238208e-01 3.2900161548022755e-01 1.2141268772247904e-01 1.9832611033540221e-01 -1.4703643177264747e-02 3.7202565557933764e-01 6.3688377039083033e-02 3.4814298291943491e-02 -1.0847725869349711e-01 1.3561735984916157e-01 -1.0153605637588545e-01 1.8700196332363639e-02 8.5377991158133604e-02 6.3791405242128452e-02 1.8034490317809604e-01 4.3767775751346466e-01 1.6499822964676897e-01 8.4537376778477280e-01 -3.5439375621903499e+00 6.0728245261176972e-01 2.5468193531428107e-01 1.3247528714290977e+00 -5.5767448555933852e-01 1.2501360888151086e-01 2.6804687800217306e+00 -6.2294895910398107e-01 1.3211645668660543e-01 -1.3072717531623579e+00 -2.3465448928339461e-01 6.6405759492068006e-01 -5.3389969416288430e-01 1.1879274576205079e+00 -7.4945589758174314e-01 1.4151150760737068e+00 2.7259871415718049e+00 3.7636525515415617e-03 -6.7365123135438937e-02 
      </Row>
      <Row Index="27">
        -4.0737599446285522e-02 8.0333404634407435e-01 -1.0479239014109520e-02 -4.9601413230056179e-01 1.0036026372899709e-01 2.7080729221168187e-01 3.7791945582508091e-02 -5.9343903159895894e-01 9.6519728500899404e-02 -3.7947253153769189e-01 7.6318916473038012e-02 -1.1107637458345154e-01 2.3561201378007574e-01 3.0882934245539850e-01 -2.7486159249158870e-02 -2.0923741213509928e-02 1.8738072783105109e-01 8.9737079271461007e-01 -3.2275729677984685e-02 -1.2863036105220871e+00 5.7119153252666877e-01 -4.3092776791271961e+00 3.9112857851205829e-01 -8.0623475189262828e-02 5.3293769560720170e+00 -4.3156908777699310e-01 -6.2294895907693693e-01 6.8610539251562335e+00 -5.6483116638566300e-01 3.3377449118219849e-01 2.2184985153182888e+00 -1.0037621046938270e+00 -3.9125198818148643e-01 -1.4483876648388478e+01 1.4497052253842049e+00 -4.3981272739748556e-01 -3.1828084027306044e+01 5.7338073303854153e-02 3.2340045359297132e-02 
      </Row>
      <Row Index="28">
        2.9758414337413663e-01 2.0567043804956109e-01 1.2410100389244175e-01 1.3156803093691061e-01 -1.4460466911904823e-01 1.8263916830664995e-01 -2.9788858628376991e-02 1.3674008924553760e-01 -9.2293989021138945e-02 -4.4585705423723532e-02 -1.2578057573153256e-01 1.2739723656726676e-01 -3.4673890819988354e-02 -3.1743087782905910e-02 1.6851160547407917e-01 -6.3779246684683044e-02 -4.3806205118027686e-02 2.7007615571211779e-01 1.2618552409224895e-01 3.8098285872338816e-01 -4.3426598937041838e-01 2.5095910869563109e-01 -2.8305639670703014e-01 -2.8494025710717630e-02 -3.9525254796984233e-01 3.7275676966687432e-01 1.3211645668031646e-01 -5.6483116636805919e-01 7.2501049259908978e-01 -6.5903096265661709e-02 -2.2894809121335413e-01 6.3355703372945327e-02 9.6668803388012522e-02 1.3382861479239154e+00 -6.8311823562945584e-01 2.1847596607833975e-01 3.0615607754984286e+00 1.3833331304064025e-01 -5.1604586719996431e-02 
      </Row>
      <Row Index="29">
        -1.1711462172413034e-02 -1.3176842843494979e-01 -8.9674665918221000e-02 -1.1831465565358634e-01 -4.8485680709945689e-02 -1.2593614194692759e-01 2.1669802772829899e-02 -9.2839914131703283e-02 -3.1064051249502178e-02 -8.0215053460434227e-02 6.2529469889700762e-02 1.7588838351566383e-02 9.7084220843788011e-02 -3.9070711581028483e-02 -3.5659300204887501e-02 -1.8514970550168597e-02 -3.7419359237255034e-02 -2.4097869859690146e-01 -7.0215630664922105e-02 -2.3240892011488740e-01 1.9607404455246864e+00 -4.0534976228477132e-01 -1.5638698419385055e-01 -7.0592574465093505e-01 3.5024918038509201e-01 -4.8423818573368027e-02 -1.3072717531624307e+00 3.3377449119463320e-01 -6.5903096268239286e-02 7.7887306848370430e-01 8.9110318952784651e-02 -2.9573895033690589e-01 1.2125525671377078e-01 -6.7364416199003019e-01 3.2423397490358380e-01 -7.7319233286761446e-01 -1.5809426732465366e+00 -7.5248163433469222e-03 3.8643171528221540e-02 
      </Row>
      <Row Index="30">
        -6.9775319629754806e-02 5.2098933462877306e-02 -4.8630161957021190e-03 -2.3825601127351259e-01 3.5070011987791472e-02 1.2227200233213437e-01 8.2129616138706951e-04 -2.3421566836298072e-01 1.0672685969050910e-02 7.7548497489119961e-02 1.6476577160018657e-02 -2.7605388449805424e-02 9.3857436556046614e-02 1.2986496545988269e-01 -9.5899024677044142e-03 -2.9731708385746736e-02 2.2451930911977946e-02 2.9735599998237805e-01 -6.4948417634713956e-02 -4.6321442051741446e-01 2.4853738974058270e-01 -1.3969589220101668e+00 1.5164825453668632e-01 2.6991590683872746e-03 1.5506115804001877e+00 -2.5367836337433980e-01 -2.3465448927416704e-01 2.2184985153116230e+00 -2.2894809121786286e-01 8.9110318948460110e-02 1.0263455471964964e+00 -2.1405908725301093e-01 2.3841318055764976e-02 -4.9216855154041674e+00 3.6895836466176973e-01 -1.0811420766632118e-01 -1.1017895852253458e+01 3.8696136894932308e-02 2.4740601616803942e-02 
      </Row>
      <Row Index="31">
        2.9026325656378082e-02 -4.9456966202713337e-02 1.8323122264776615e-02 1.6059851229818095e-01 5.6172362817490384e-03 6.2043272834967134e-02 -1.0611243920511937e-03 1.6045335057552640e-01 -2.2562411260977244e-02 1.4421123436135108e-01 -2.9295576403048307e-02 3.3232831901389981e-02 -4.6975093463958159e-02 4.8397379379747640e-03 1.8651292210380310e-02 -1.0487178510538153e-03 -5.1557700372456550e-04 6.4437309394950931e-02 3.0972673090090275e-02 4.0182028232464440e-01 -7.5060735640116771e-01 6.4325727390733989e-01 4.6185838684850711e-04 3.1999848513886120e-01 -8.8254066509531892e-01 2.9377978396603055e-02 6.6405759491811256e-01 -1.0037621047041401e+00 6.3355703378269707e-02 -2.9573895033568098e-01 -2.1405908725730205e-01 4.1026683217329113e-01 -1.3287035558016602e-01 1.9117257945262325e+00 -4.2800466400695120e-01 3.2017071362298877e-01 4.0632258591709522e+00 -1.7084716375650462e-02 -1.1940500786277633e-02 
      </Row>
      <Row Index="32">
        -9.9134482810191646e-03 -2.7884118018849841e-01 -1.3848591672094367e-02 -1.9807742656073568e-01 -9.4135976478743055e-02 -5.4214929200429557e-02 -1.4740281082113863e-02 -1.7464054330554143e-01 2.7408615709233475e-03 6.3405608838821917e-02 7.8116781018153624e-03 -6.9123558080467787e-02 -1.0683456096675072e-02 -7.7991899515260005e-02 3.2221410038358794e-02 -2.4462264661795380e-02 -1.4098475753339479e-01 -2.4314187643244031e-01 -4.9253761040566710e-02 -3.4973900744062225e-01 4.1606285000054832e-01 1.8217055579392771e-01 -1.0583862727099405e-01 -2.9791909562142627e-01 -3.3311702658183601e-01 -1.0591309114396211e-02 -5.3389969416594751e-01 -3.9125198817222095e-01 9.6668803386223842e-02 1.2125525671489906e-01 2.3841318058406627e-02 -1.3287035558224713e-01 6.8207253073224405e-01 7.7232374407295101e-01 -1.7261710380546830e-02 1.6222449211342499e-02 1.5661717442807248e+00 4.3173279632332029e-02 1.5876512213641478e-02 
      </Row>
      <Row Index="33">
        2.9484950507241336e-01 -1.3892940839798276e+00 9.1457688801597881e-02 1.0228407025101363e+00 -2.7429382263023694e-01 -3.4487666358571301e-01 -7.9090152219461141e-02 1.2341343377463838e+00 -2.6152179759628424e-01 6.3876302098243176e-01 -2.0825981987139475e-01 2.9106232704647050e-01 -4.4398954301602406e-01 -5.9666676722377687e-01 1.3489147026069404e-01 1.1854457355018777e-02 -3.4741308568822316e-01 -1.4906503783420670e+00 1.3433058187936719e-01 2.6381343890948075e+00 -1.0650074659993010e+00 9.0841506161651608e+00 -8.6393981357378247e-01 8.2946440757675211e-02 -1.1171338545383906e+01 1.0012789236650512e+00 1.1879274575623349e+00 -1.4483876648379546e+01 1.3382861479611143e+00 -6.7364416196349453e-01 -4.9216855154156480e+00 1.9117257945028672e+00 7.7232374409281068e-01 3.2716049083069642e+01 -2.9975505445044019e+00 8.8535608880255134e-01 7.4414011167927015e+01 -8.4895689484581205e-02 -8.1366085343271166e-02 
      </Row>
      <Row Index="34">
        -2.6379428590873299e-01 -1.2150560091838147e-01 -1.3936793369033601e-01 -1.9706704900141436e-01 1.0931434722886468e-01 -1.8326820517350406e-01 3.2980723847586102e-02 -2.7489804255350569e-01 1.0385743613484966e-01 -6.7778699467243353e-02 1.5137476274723460e-01 -2.0539582748710616e-01 5.2564801644619324e-02 7.6097127691539868e-02 -1.8247157110319856e-01 6.0139149479885301e-02 3.6641356604688147e-02 -2.3364928481851177e-01 -1.2256978553962361e-01 -7.0985423926088298e-01 1.0697774773913071e+00 -8.4331117276526246e-01 2.3020508219636060e-01 -2.6658868645182898e-01 1.1687178987124325e+00 -3.5366592547375414e-01 -7.4945589757303854e-01 1.4497052253778659e+00 -6.8311823563421470e-01 3.2423397489990324e-01 3.6895836466163656e-01 -4.2800466400196158e-01 -1.7261710384374962e-02 -2.9975505444924888e+00 1.0559111509197845e+00 -5.1589363564798651e-01 -6.6229096600866111e+00 -1.1875965976333794e-01 4.9379007661513652e-02 
      </Row>
      <Row Index="35">
        1.1003553580623882e-01 1.5576559234465526e-01 1.0491108255611339e-01 1.1830975357454343e-01 3.1284916276378416e-03 1.4161858680606199e-01 -1.8485777885838439e-02 1.3693374567845490e-01 2.7609460668718722e-02 2.9906644864160059e-02 -7.7604533531981157e-02 5.8279947669374998e-02 -7.2675057660006370e-02 -1.7231012747022323e-02 9.1686858499056889e-02 1.5679625910134276e-02 3.8816523926310631e-02 2.3055580039475615e-01 1.0036885252299835e-01 3.5822958544543326e-01 -2.0958640882074580e+00 3.6967535988722222e-01 8.0159552253929400e-02 6.8009726062042919e-01 -3.9613138354524557e-01 1.1515136070292958e-01 1.4151150760723001e+00 -4.3981272740722532e-01 2.1847596608077863e-01 -7.7319233286710487e-01 -1.0811420766990576e-01 3.2017071362316746e-01 1.6222449213154688e-02 8.8535608882331540e-01 -5.1589363565063773e-01 9.2689727884773299e-01 2.0003285605768575e+00 4.5054174617539709e-02 -4.2749271418908066e-02 
      </Row>
      <Row Index="36">
        7.7178540995213396e-01 -2.4916646150649679e+00 3.3477107108174975e-01 2.2699839520189444e+00 -6.1269675238316701e-01 -3.4276109021283796e-01 -2.0334278376570669e-01 2.7681241875390512e+00 -6.1982834459335479e-01 1.2340104635223259e+00 -5.4201135392404520e-01 7.5990536896175609e-01 -9.2792282540476956e-01 -1.2165144753483688e+00 3.5725832977944094e-01 5.4155001317952589e-02 -6.6453927572583016e-01 -2.5077539579936743e+00 3.5000270828538893e-01 5.8987815300576152e+00 -2.4377065064732619e+00 2.0129038053327921e+01 -1.8415260293820281e+00 2.0457025740041379e-01 -2.4506118249080590e+01 2.3258777895889704e+00 2.7259871414430439e+00 -3.1828084027278564e+01 3.0615607755812064e+00 -1.5809426731880745e+00 -1.1017895852276631e+01 4.0632258591180186e+00 1.5661717443249570e+00 7.4414011167910289e+01 -6.6229096601122661e+00 2.0003285605313694e+00 1.7245605786332001e+02 -1.5196473269436650e-01 -1.9964180457371850e-01 
      </Row>
      <Row Index="37">
        5.4569962908264491e-02 3.5757094439598791e-02 2.9739175690499622e-02 -9.3035817804278803e-03 -2.5010957142764356e-02 3.7500143080612718e-02 -7.8374501454056000e-03 2.1077279075999572e-03 -1.4256202257015738e-02 -1.1650200663300136e-02 -2.6221140861210759e-02 3.0926936510404776e-02 7.3193973778577157e-03 -8.3724445439060657e-03 3.8581976398228135e-02 -2.0856074659153123e-02 -2.9334027929401041e-03 5.8333005284744131e-02 1.8897052575938517e-02 2.4651212178706042e-02 -7.7922509916111382e-02 -5.7158246040076494e-02 -4.3830341463187060e-02 -1.0265494385461330e-02 4.9406576061016505e-02 5.7713751723994580e-02 3.7636525507635452e-03 5.7338073307350079e-02 1.3833331304011898e-01 -7.5248163430832737e-03 3.8696136895988054e-02 -1.7084716376523770e-02 4.3173279632531300e-02 -8.4895689492175019e-02 -1.1875965976208488e-01 4.5054174617199752e-02 -1.5196473271144828e-01 3.8489065090951818e-02 -8.4457333351312235e-03 
      </Row>
      <Row Index="38">
        -2.0081672846278237e-02 -3.2179702195271526e-02 -1.3740754978728606e-02 -2.4085078932593734e-02 3.6862328817188900e-03 -2.1854506460748078e-02 3.4407169327897516e-03 -1.7103871002291410e-02 9.6614705496742004e-04 6.6474641036478183e-03 9.5945868709126844e-03 -6.7134909748382543e-03 8.0113990710386392e-03 -4.1613816371409706e-03 -8.0912294848627386e-03 -6.4711572227010850e-05 -5.4637211911632705e-03 -3.9315952833175571e-02 -1.3182119814645355e-02 -4.4450255784053511e-02 1.2265776214789037e-01 -2.9874323898154628e-02 8.9083613589039552e-03 -2.9931149817900772e-02 2.1598504762425391e-02 -3.2093914344931689e-02 -6.7365123135136970e-02 3.2340045358534616e-02 -5.1604586720037475e-02 3.8643171528088653e-02 2.4740601616641655e-02 -1.1940500785996205e-02 1.5876512213534429e-02 -8.1366085341646549e-02 4.9379007661314069e-02 -4.2749271418801582e-02 -1.9964180457006381e-01 -8.4457333351652536e-03 6.7881556018214041e-03 
      </Row>
    </InverseHessian>
  </Weights>
</MethodSetup>
