<?xml version="1.0"?>
<MethodSetup Method="MLP::MLP">
  <GeneralInfo>
    <Info name="TMVA Release" value="4.1.2 [262402]"/>
    <Info name="ROOT Release" value="5.32/00 [335872]"/>
    <Info name="Creator" value="tomc"/>
    <Info name="Date" value="Thu Jan 10 19:13:04 2013"/>
    <Info name="Host" value="Linux lxbuild168.cern.ch 2.6.18-308.1.1.el5 #1 SMP Wed Mar 7 19:25:07 CET 2012 x86_64 x86_64 x86_64 GNU/Linux"/>
    <Info name="Dir" value="/user_mnt/user/tomc/QGTagger/training/c/14/aKDE03"/>
    <Info name="Training events" value="1611570"/>
    <Info name="TrainingTime" value="6.21309669e+03"/>
    <Info name="AnalysisType" value="Classification"/>
  </GeneralInfo>
  <Options>
    <Option name="NCycles" modified="No">500</Option>
    <Option name="HiddenLayers" modified="No">N,N-1</Option>
    <Option name="NeuronType" modified="No">sigmoid</Option>
    <Option name="RandomSeed" modified="No">1</Option>
    <Option name="EstimatorType" modified="No">MSE</Option>
    <Option name="NeuronInputType" modified="No">sum</Option>
    <Option name="V" modified="Yes">False</Option>
    <Option name="VerbosityLevel" modified="No">Default</Option>
    <Option name="VarTransform" modified="Yes">N</Option>
    <Option name="H" modified="Yes">False</Option>
    <Option name="CreateMVAPdfs" modified="Yes">True</Option>
    <Option name="IgnoreNegWeightsInTraining" modified="No">False</Option>
    <Option name="TrainingMethod" modified="No">BP</Option>
    <Option name="LearningRate" modified="No">2.000000e-02</Option>
    <Option name="DecayRate" modified="No">1.000000e-02</Option>
    <Option name="TestRate" modified="Yes">3</Option>
    <Option name="EpochMonitoring" modified="No">False</Option>
    <Option name="Sampling" modified="No">1.000000e+00</Option>
    <Option name="SamplingEpoch" modified="No">1.000000e+00</Option>
    <Option name="SamplingImportance" modified="No">1.000000e+00</Option>
    <Option name="SamplingTraining" modified="No">True</Option>
    <Option name="SamplingTesting" modified="No">False</Option>
    <Option name="ResetStep" modified="No">50</Option>
    <Option name="Tau" modified="No">3.000000e+00</Option>
    <Option name="BPMode" modified="No">sequential</Option>
    <Option name="BatchSize" modified="No">-1</Option>
    <Option name="ConvergenceImprove" modified="No">1.000000e-30</Option>
    <Option name="ConvergenceTests" modified="No">-1</Option>
    <Option name="UseRegulator" modified="Yes">True</Option>
    <Option name="UpdateLimit" modified="No">10000</Option>
    <Option name="CalculateErrors" modified="No">False</Option>
    <Option name="WeightRange" modified="No">1.000000e+00</Option>
  </Options>
  <Variables NVar="4">
    <Variable VarIndex="0" Expression="axis1" Label="axis1" Title="axis1" Unit="" Internal="axis1" Type="F" Min="-1.73044042e-04" Max="3.99116725e-01"/>
    <Variable VarIndex="1" Expression="axis2" Label="axis2" Title="axis2" Unit="" Internal="axis2" Type="F" Min="-1.41752287e-04" Max="2.35077322e-01"/>
    <Variable VarIndex="2" Expression="mult" Label="mult" Title="mult" Unit="" Internal="mult" Type="I" Min="0.00000000e+00" Max="5.20000000e+01"/>
    <Variable VarIndex="3" Expression="ptD" Label="ptD" Title="ptD" Unit="" Internal="ptD" Type="F" Min="1.35389492e-01" Max="1.00045562e+00"/>
  </Variables>
  <Spectators NSpec="0"/>
  <Classes NClass="2">
    <Class Name="Signal" Index="0"/>
    <Class Name="Background" Index="1"/>
  </Classes>
  <Transformations NTransformations="1">
    <Transform Name="Normalize">
      <Selection>
        <Input NInputs="4">
          <Input Type="Variable" Label="axis1" Expression="axis1"/>
          <Input Type="Variable" Label="axis2" Expression="axis2"/>
          <Input Type="Variable" Label="mult" Expression="mult"/>
          <Input Type="Variable" Label="ptD" Expression="ptD"/>
        </Input>
        <Output NOutputs="4">
          <Output Type="Variable" Label="axis1" Expression="axis1"/>
          <Output Type="Variable" Label="axis2" Expression="axis2"/>
          <Output Type="Variable" Label="mult" Expression="mult"/>
          <Output Type="Variable" Label="ptD" Expression="ptD"/>
        </Output>
      </Selection>
      <Class ClassIndex="0">
        <Ranges>
          <Range Index="0" Min="9.9333550315350294e-04" Max="3.6158365011215210e-01"/>
          <Range Index="1" Min="5.8254506438970566e-04" Max="2.2101874649524689e-01"/>
          <Range Index="2" Min="0.0000000000000000e+00" Max="5.2000000000000000e+01"/>
          <Range Index="3" Min="1.3538949191570282e-01" Max="9.9012321233749390e-01"/>
        </Ranges>
      </Class>
      <Class ClassIndex="1">
        <Ranges>
          <Range Index="0" Min="-1.7304404173046350e-04" Max="3.9911672472953796e-01"/>
          <Range Index="1" Min="-1.4175228716339916e-04" Max="2.3507732152938843e-01"/>
          <Range Index="2" Min="0.0000000000000000e+00" Max="4.5000000000000000e+01"/>
          <Range Index="3" Min="1.3650454580783844e-01" Max="1.0004556179046631e+00"/>
        </Ranges>
      </Class>
      <Class ClassIndex="2">
        <Ranges>
          <Range Index="0" Min="-1.7304404173046350e-04" Max="3.9911672472953796e-01"/>
          <Range Index="1" Min="-1.4175228716339916e-04" Max="2.3507732152938843e-01"/>
          <Range Index="2" Min="0.0000000000000000e+00" Max="5.2000000000000000e+01"/>
          <Range Index="3" Min="1.3538949191570282e-01" Max="1.0004556179046631e+00"/>
        </Ranges>
      </Class>
    </Transform>
  </Transformations>
  <MVAPdfs>
    <PDF Name="MLP_PDFSig" MinNSmooth="0" MaxNSmooth="0" InterpolMethod="5" KDE_type="1" KDE_iter="2" KDE_border="1" KDE_finefactor="3.0000001192092896e-01">
      <Histogram Name="MLP_tr_S_original" NBins="250" XMin="-3.6165989935398102e-02" XMax="9.6806687116622925e-01" HasEquidistantBins="1">
        0.00000000e+00 0.00000000e+00 0.00000000e+00 0.00000000e+00 0.00000000e+00 0.00000000e+00 0.00000000e+00 2.67691037e-04 5.35382074e-04 2.67691037e-04 1.07076415e-03 8.03073111e-04 1.33845524e-03 1.60614622e-03 3.74767464e-03 4.55074757e-03 3.47998366e-03 9.10149515e-03 1.20460968e-02 1.49906985e-02 2.73044854e-02 3.23906168e-02 4.12244201e-02 5.86243384e-02 6.82612136e-02 7.95042366e-02 9.52980146e-02 1.08147182e-01 1.19390205e-01 1.21264040e-01 1.35451674e-01 1.48300841e-01 1.49639294e-01 1.74266875e-01 1.84706822e-01 1.83903754e-01 1.88989878e-01 2.02909812e-01 2.12278992e-01 1.97555989e-01 2.18971267e-01 2.18703583e-01 2.12278992e-01 2.22183570e-01 2.48952672e-01 2.55109578e-01 2.58857250e-01 2.56715715e-01 2.77327925e-01 2.60731071e-01 2.59124935e-01 2.74383307e-01 2.77863294e-01 2.77060241e-01 2.87500173e-01 2.94460148e-01 2.92318612e-01 3.09183151e-01 3.09450835e-01 3.12930822e-01 3.10521603e-01 3.14536989e-01 3.18284661e-01 3.07844698e-01 3.37290704e-01 3.15072358e-01 3.46659899e-01 3.37290704e-01 3.30330759e-01 3.42376858e-01 3.33543032e-01 3.38629156e-01 3.66201341e-01 3.72893631e-01 3.61115217e-01 3.59509081e-01 3.81995112e-01 3.58438313e-01 3.97788882e-01 3.83601278e-01 3.69949013e-01 3.91364306e-01 3.93773526e-01 3.85742784e-01 3.98324281e-01 4.05819625e-01 4.24290299e-01 4.08496529e-01 4.12511885e-01 4.28037971e-01 4.22951847e-01 4.53736305e-01 4.46776360e-01 4.57216293e-01 4.57216293e-01 4.59893197e-01 4.37942535e-01 4.64443952e-01 4.86662328e-01 4.83985394e-01 4.70868558e-01 5.03526866e-01 4.93889987e-01 5.08612990e-01 5.32972872e-01 5.09683728e-01 5.17714500e-01 5.22265196e-01 5.11022210e-01 5.45286655e-01 5.16911387e-01 5.33775926e-01 5.31902075e-01 5.57065070e-01 5.68040371e-01 5.72323442e-01 5.87314129e-01 5.97486436e-01 6.09264791e-01 6.14886343e-01 6.30412400e-01 6.43261552e-01 6.44867718e-01 6.73778355e-01 6.58787668e-01 6.64409161e-01 6.86895192e-01 6.62802994e-01 6.97602868e-01 6.86359823e-01 7.20088899e-01 7.13932037e-01 7.54621029e-01 7.77107120e-01 7.74965584e-01 7.88617790e-01 7.71217883e-01 8.01467001e-01 8.20740759e-01 8.31448376e-01 8.21276128e-01 8.91143501e-01 8.53131354e-01 8.68122041e-01 9.08811092e-01 9.11487997e-01 9.46823239e-01 9.21927929e-01 9.72521544e-01 9.91527617e-01 9.93133783e-01 9.92866099e-01 1.02900434e+00 1.03462589e+00 1.03703511e+00 1.04988432e+00 1.07986569e+00 1.12323165e+00 1.11439776e+00 1.13206542e+00 1.12617624e+00 1.17703748e+00 1.14973307e+00 1.19604361e+00 1.16231453e+00 1.21879733e+00 1.20594811e+00 1.23298490e+00 1.22281265e+00 1.24744022e+00 1.24663723e+00 1.26992631e+00 1.29482162e+00 1.33256602e+00 1.33203065e+00 1.34487975e+00 1.37887657e+00 1.33818758e+00 1.39199340e+00 1.42224252e+00 1.41903019e+00 1.44874394e+00 1.45463312e+00 1.48006380e+00 1.52155590e+00 1.52048516e+00 1.54725420e+00 1.56626034e+00 1.58847868e+00 1.60534322e+00 1.64362299e+00 1.61738932e+00 1.68324125e+00 1.68939817e+00 1.70519197e+00 1.72794569e+00 1.72339499e+00 1.80985916e+00 1.77532697e+00 1.78951466e+00 1.86473584e+00 1.88106501e+00 1.92443085e+00 1.92041552e+00 1.94236624e+00 1.95575070e+00 2.04087663e+00 2.05024576e+00 2.08531332e+00 2.12546682e+00 2.16187286e+00 2.16562057e+00 2.21380496e+00 2.27751541e+00 2.32221985e+00 2.32329059e+00 2.39101648e+00 2.48363757e+00 2.52459431e+00 2.57893562e+00 2.58054161e+00 2.61132622e+00 2.71331644e+00 2.78586078e+00 2.85198045e+00 2.89614940e+00 2.98288131e+00 3.13573289e+00 3.21175718e+00 3.35095644e+00 3.29607987e+00 3.37558413e+00 3.38120556e+00 3.46285129e+00 3.46526051e+00 3.44866371e+00 3.43474388e+00 3.37210417e+00 3.30357504e+00 3.16116357e+00 2.97672439e+00 2.79228520e+00 2.49648666e+00 2.22451258e+00 1.96565533e+00 1.72285950e+00 1.39145803e+00 9.85638440e-01 4.03678089e-01 3.23906168e-02 
      </Histogram>
    </PDF>
    <PDF Name="MLP_PDFBkg" MinNSmooth="0" MaxNSmooth="0" InterpolMethod="5" KDE_type="1" KDE_iter="2" KDE_border="1" KDE_finefactor="3.0000001192092896e-01">
      <Histogram Name="MLP_tr_B_original" NBins="250" XMin="-3.6165989935398102e-02" XMax="9.6806687116622925e-01" HasEquidistantBins="1">
        7.30483560e-04 3.65241780e-04 7.30483560e-04 1.09572534e-03 3.65241780e-04 1.82620890e-03 2.92193424e-03 3.65241780e-03 6.20911038e-03 8.40056129e-03 1.13224955e-02 1.97230559e-02 2.15492658e-02 3.50632109e-02 5.07686101e-02 6.79349750e-02 9.64238346e-02 1.52671069e-01 2.11109757e-01 3.07533592e-01 4.48882163e-01 5.96439838e-01 8.54300559e-01 1.04824388e+00 1.24766600e+00 1.39778030e+00 1.55556476e+00 1.66878974e+00 1.75279534e+00 1.88099515e+00 1.89414394e+00 2.01686525e+00 2.05375457e+00 2.03658819e+00 2.05046749e+00 2.08370447e+00 2.09612250e+00 2.09320068e+00 2.11730671e+00 2.07932138e+00 2.10561895e+00 2.06032896e+00 2.05411983e+00 2.05923319e+00 1.98764575e+00 1.95842648e+00 1.95842648e+00 1.93943393e+00 1.95258260e+00 1.89341342e+00 1.82292175e+00 1.81963456e+00 1.85944593e+00 1.82913089e+00 1.78457141e+00 1.77690125e+00 1.74731672e+00 1.69070423e+00 1.69727862e+00 1.65929341e+00 1.69581759e+00 1.65710199e+00 1.63482225e+00 1.61217725e+00 1.57967079e+00 1.57017446e+00 1.59135842e+00 1.52488446e+00 1.49749136e+00 1.50625718e+00 1.44708800e+00 1.42298198e+00 1.42152107e+00 1.42992163e+00 1.39303219e+00 1.40727663e+00 1.35942996e+00 1.31377470e+00 1.33495867e+00 1.31560087e+00 1.31085277e+00 1.27505910e+00 1.28382492e+00 1.23670864e+00 1.25643170e+00 1.27396333e+00 1.26738906e+00 1.21552467e+00 1.18630528e+00 1.22246420e+00 1.25497079e+00 1.18301809e+00 1.19032300e+00 1.20493269e+00 1.17607856e+00 1.17388713e+00 1.13371050e+00 1.15891218e+00 1.15233779e+00 1.12384903e+00 1.14503300e+00 1.12823188e+00 1.12056184e+00 1.11070025e+00 1.09791684e+00 1.06760180e+00 1.04824388e+00 1.05335736e+00 1.09207296e+00 1.06248832e+00 1.06614077e+00 1.05847073e+00 1.03801715e+00 1.03546047e+00 1.06906271e+00 1.06102741e+00 1.04459155e+00 1.04824388e+00 1.00952828e+00 1.06504500e+00 1.03509521e+00 1.02085078e+00 1.04787874e+00 1.02742517e+00 1.00806737e+00 1.04532194e+00 1.00441492e+00 1.02340746e+00 1.02523375e+00 1.06504500e+00 1.05847073e+00 9.80674207e-01 1.00514543e+00 9.74465072e-01 9.90170479e-01 1.03071237e+00 1.00879776e+00 1.01683319e+00 1.02852082e+00 1.02085078e+00 1.01135457e+00 9.77021754e-01 1.03692138e+00 1.01500690e+00 1.02048552e+00 1.02231181e+00 1.03765190e+00 1.00587583e+00 1.01500690e+00 1.02340746e+00 1.02961659e+00 1.03071237e+00 1.04897439e+00 1.01792884e+00 1.01646793e+00 1.00514543e+00 1.02377272e+00 1.06504500e+00 1.03436470e+00 1.00587583e+00 9.90170479e-01 9.87613797e-01 9.97840583e-01 1.00368440e+00 1.00624108e+00 9.54011559e-01 1.00149298e+00 9.72638905e-01 9.73734617e-01 9.50724363e-01 9.51820076e-01 9.52915847e-01 9.29540336e-01 9.18583095e-01 8.95207644e-01 8.71466875e-01 8.98129582e-01 8.74023616e-01 8.84250343e-01 8.70005965e-01 8.43343258e-01 8.84615600e-01 8.91555190e-01 8.45534742e-01 8.54665756e-01 8.40056121e-01 8.10106277e-01 8.15950155e-01 8.43708515e-01 8.37134182e-01 7.66277254e-01 7.97688067e-01 8.04992914e-01 7.71390676e-01 7.78695464e-01 7.71755874e-01 8.03897202e-01 7.73582101e-01 7.68103480e-01 7.71755874e-01 7.23909199e-01 7.70660162e-01 7.33040273e-01 7.11125731e-01 7.15873897e-01 7.05281913e-01 7.12221503e-01 6.82636917e-01 6.82636917e-01 6.98707521e-01 6.66566253e-01 6.81541145e-01 6.65835798e-01 6.69853449e-01 6.55609012e-01 6.71314418e-01 6.37712181e-01 6.47208452e-01 6.28946364e-01 6.53417528e-01 6.15432382e-01 6.46112740e-01 6.22372031e-01 6.26754880e-01 6.39173150e-01 6.09953761e-01 5.77447236e-01 6.09223306e-01 5.90595961e-01 5.80369174e-01 5.49688876e-01 5.57358980e-01 5.19008577e-01 5.06955624e-01 4.69335705e-01 4.54726011e-01 4.07975078e-01 4.14549440e-01 3.91173959e-01 3.44422996e-01 2.99863517e-01 2.57860690e-01 2.38868132e-01 1.85177580e-01 1.57784447e-01 1.22355998e-01 8.47360939e-02 6.79349750e-02 1.57053974e-02 2.55669258e-03 
      </Histogram>
    </PDF>
  </MVAPdfs>
  <Weights>
    <Layout NLayers="4">
      <Layer Index="0" NNeurons="5">
        <Neuron NSynapses="4">
          1.1563896980411426e+00 -1.5885048364245733e+00 1.3328781255208451e+01 6.4071223696640995e+00 
        </Neuron>
        <Neuron NSynapses="4">
          -5.8625172987963241e+00 3.3589793057523649e+00 1.7566769212721645e-02 8.3043251021667945e+00 
        </Neuron>
        <Neuron NSynapses="4">
          -5.6889569553377894e-01 2.6582856461610187e+00 -3.3379944221642739e+00 5.8462749406085015e+00 
        </Neuron>
        <Neuron NSynapses="4">
          -2.3565756866262904e+00 -3.5014024131152159e+00 1.5464016646717369e+00 1.4795604893949792e+00 
        </Neuron>
        <Neuron NSynapses="4">
          -3.9279154556725220e+00 -8.8582848831006145e-01 1.0847374694970904e+01 1.6782290322144743e+01 
        </Neuron>
      </Layer>
      <Layer Index="1" NNeurons="5">
        <Neuron NSynapses="3">
          -3.8190789289588162e-01 -1.4479906203980968e+00 3.1217426222283198e+00 
        </Neuron>
        <Neuron NSynapses="3">
          -2.6692476076462524e+00 -1.6786930997459419e+00 5.0973127626105894e+00 
        </Neuron>
        <Neuron NSynapses="3">
          -5.4317619006980946e+00 -2.7963658430460834e+00 -3.2941823367977947e+00 
        </Neuron>
        <Neuron NSynapses="3">
          -3.5921875690405480e+00 4.7231876110222915e-01 2.8841494339966274e+00 
        </Neuron>
        <Neuron NSynapses="3">
          1.6808653642466393e+00 -1.5051926297484091e+00 -2.3671313333112360e+00 
        </Neuron>
      </Layer>
      <Layer Index="2" NNeurons="4">
        <Neuron NSynapses="1">
          -2.5890743003153629e+00 
        </Neuron>
        <Neuron NSynapses="1">
          8.3310866514599802e-01 
        </Neuron>
        <Neuron NSynapses="1">
          8.7521450392237110e-01 
        </Neuron>
        <Neuron NSynapses="1">
          8.5497059514496251e-02 
        </Neuron>
      </Layer>
      <Layer Index="3" NNeurons="1">
        <Neuron NSynapses="0"/>
      </Layer>
    </Layout>
    <InverseHessian NElements="1521" NRows="39" NCols="39">
      <Row Index="0">
        1.0401475559002019e-01 -4.0878376026272312e-02 -6.6861020278075362e-02 2.4826171987560756e-02 -1.2043109960126594e-01 -7.0449392301368957e-03 -5.9335946965891714e-02 5.7797057079351156e-02 -9.3340470493560486e-03 1.0518167539281762e-02 2.6572211485385126e-02 3.4921343998082360e-02 -4.5876395087921920e-02 -1.5785913547699593e-02 -5.2586428106839445e-02 1.4817528086933393e-02 -6.0039159939055356e-02 -2.3180250114564670e-02 -1.0218353185574755e-01 9.6599914837425943e-02 1.4183264234674592e-01 1.3563382001748578e-01 -7.7234768556739164e-02 8.9330923031109372e-02 1.7809870971924519e-02 -3.1600843049825710e-02 -7.3179942149209240e-02 -1.0741530215279306e-01 -4.0053755496170781e-02 -2.4633258039840233e-02 3.8193428109093153e-01 -2.5841915431010477e-02 -3.1328700776886272e-02 6.8234192676161798e-01 1.2096506993313438e-01 1.0046397285005385e-01 -9.4238565579611056e-01 -6.1179346656702808e-04 1.0133243549090296e-03 
      </Row>
      <Row Index="1">
        -4.0878376026254937e-02 3.4852268787492736e-02 -9.5114119726053322e-03 4.2083172628512577e-04 4.5196925389977674e-02 -1.4810856369662541e-03 1.1667994758901420e-02 -4.4369003827059134e-02 -1.8855851415914799e-02 -2.0071911621305203e-02 -3.2284684084325499e-03 -1.0171762774380864e-02 4.3242939624607443e-02 4.3984947937522938e-02 1.5206712102637999e-02 -1.3228016927638328e-02 3.3448561697158832e-02 3.3434438135699532e-02 6.8986457913273146e-03 -5.3405764070454484e-02 -4.9122140409967492e-02 -6.0074628905707320e-02 6.2348670438717488e-02 -6.9004563385655124e-02 3.6231581650259005e-03 6.3163841844737278e-02 1.9416135209700060e-02 1.5707102187085348e-01 2.2096526492265929e-03 3.5051690594183962e-03 -1.9920737026725741e-01 2.1490980153920300e-03 2.4250680740189184e-02 -8.3541973162249861e-01 -6.4991828106607641e-02 -4.7629325766710591e-02 8.4015155803033958e-01 8.2642030489046251e-04 -1.0704633481438907e-03 
      </Row>
      <Row Index="2">
        -6.6861020277439731e-02 -9.5114119730135456e-03 1.6349515405438320e+00 -4.3091867311192522e-02 -6.2610525330271186e-02 -3.3448209711991500e-02 -1.1740167000868415e-01 1.9135392536847695e-01 9.1074221750515216e-02 -3.3456316376605566e-02 -5.2397828460058937e-01 1.8830840964067785e-01 -5.7168298616617999e-02 -1.0837198640361758e-02 2.0115543634155292e-01 1.9438598214159906e-02 -5.2504008764636893e-02 -3.7084646016618872e-02 8.8326562108146234e-01 2.6021727969693909e-01 -4.9871500020077369e-03 -4.9183637397392399e-02 -4.7369176517214617e-02 2.4707364314065283e-01 -5.4153420835054411e-01 -9.3430819180656544e-03 1.1623076187017545e+00 3.5114483430453669e-01 7.0122970546210739e-01 1.0271242376772509e-01 6.5753749317104460e-01 -1.4273028974712743e-01 -1.6121289987729239e+00 4.5815226358976435e+00 -5.2931836490579431e-01 -1.4770234234573429e+00 -4.2537722520476109e+00 -2.4739912527179876e-03 2.1891517230557614e-03 
      </Row>
      <Row Index="3">
        2.4826171987815476e-02 4.2083172615654471e-04 -4.3091867313651583e-02 4.7480989994466116e-01 8.2246215796762112e-03 -3.0449784965802938e-02 7.4219115393974175e-02 1.6356499867148860e-01 1.8474568489389949e-02 9.4974860007772752e-03 1.4562718939053942e-01 5.7483531060364211e-02 -8.0765273770240474e-03 -3.4965030939339004e-03 -3.3371699991056651e-02 8.1797885373524518e-02 1.8109792750120698e-02 -2.9235078852366536e-03 1.0143094773957445e-01 5.1938925068204045e-01 3.2554550937060234e-01 2.8459800562995541e-01 -3.3957520729519672e-02 -8.9991792931120279e-02 1.0856005911600581e+00 -4.2923804114658085e-02 -1.1408089420730211e-01 1.4884693099004629e+00 -1.5691795666022221e-01 -3.5181423092608588e-01 5.2240468423966113e-01 -9.9387378557236616e-02 2.4078653256479435e-01 -5.2634847486456176e+00 2.7346631105536751e-01 1.1109006477298360e+00 2.6418478189693517e+00 1.3045340201080654e-03 -2.7597631821527913e-03 
      </Row>
      <Row Index="4">
        -1.2043109960124898e-01 4.5196925390013472e-02 -6.2610525329842737e-02 8.2246215808981504e-03 5.6233911155172589e-01 4.6475376879822033e-02 7.9051257426248828e-02 8.9587761778780417e-02 -5.4743798709689526e-02 -5.8733818998806434e-02 3.3041551868880692e-02 4.7537110994748333e-02 3.5310016263112698e-01 2.1397827415132359e-01 -5.3353932742210633e-03 7.7083415662744011e-03 4.8052357730226553e-01 1.6057690758607335e-01 3.6852668836667560e-02 9.6563503970545000e-02 1.4847139139665205e-02 6.2099842091583479e-02 4.4261178885881836e-01 -1.6221008826180050e-02 2.4065819062059193e-01 2.9339797551586333e-01 -2.5081349166235223e-02 7.8355410910429901e-01 -3.3927903965720402e-02 -9.3210774486006093e-02 6.4692667062345621e-01 -3.0761713090770904e-02 7.2952627523376515e-02 -3.1006572971125896e+00 -3.2042873359451979e-01 1.7334772606795837e-01 1.6653941021137473e+00 -7.5100760751199702e-04 -7.7557801287288924e-04 
      </Row>
      <Row Index="5">
        -7.0449392301112149e-03 -1.4810856369918413e-03 -3.3448209711838539e-02 -3.0449784965575460e-02 4.6475376880338093e-02 9.8897688752008411e-02 4.2265260009237672e-02 3.8923032545495194e-02 -5.1426993579900014e-02 -1.0356440771455665e-02 1.9960323963389204e-02 2.6023256232227079e-02 1.0391796718566682e-01 1.0008092063037156e-01 4.7995816062275376e-04 -1.7121022589455054e-02 7.2642193985875111e-02 1.2524570199002924e-01 1.7235221715556862e-02 7.3642484590282775e-03 -8.4395707349936705e-03 -4.8331229594495617e-01 1.7304950120158474e-01 -2.9495262186122195e-02 -2.6308643980528812e-01 1.1359779624342151e-01 2.5545426757866918e-02 1.7194611991079745e-02 4.6345245199816629e-03 -1.3889674643609972e-02 2.2288443054410204e-01 -1.2036568353386849e-02 -3.1306501259597719e-02 3.7614714592358123e+00 -1.5355206456562290e-01 -4.6325480992670628e-02 -2.8979251140471067e+00 7.0398426365965308e-04 -3.8429061735248404e-04 
      </Row>
      <Row Index="6">
        -5.9335946966018918e-02 1.1667994758917943e-02 -1.1740167000828752e-01 7.4219115393459420e-02 7.9051257427159016e-02 4.2265260009408744e-02 4.3311214406119924e-01 4.8748343916916202e-02 4.9951909252950871e-03 5.7601964040973619e-04 9.1043310596296667e-02 -1.4454203269764707e-01 5.6514100098289319e-02 1.1872119108085166e-02 1.0678271463972694e-01 2.1158356664972441e-02 7.2327294298175054e-02 4.1882168581394374e-02 3.1727063082296186e-01 2.2505956634989013e-02 -4.0409066868797505e-01 -1.4578155589319557e+00 9.0626851717336088e-02 1.4128272544364506e-01 -1.3402401696265054e-01 -3.4435299175862508e-03 -3.4490192645472262e-02 -7.4169658186692378e-01 -1.2913943132011357e-02 -1.0057209155548759e-01 -1.9070370855744351e-01 1.0642820637438510e-01 4.2155891587968702e-01 9.8496979838557763e+00 -1.6339193790533763e-01 3.6823051024069636e-01 -6.8214871504979762e+00 1.4868428347249289e-03 -6.4924268555010753e-05 
      </Row>
      <Row Index="7">
        5.7797057080168739e-02 -4.4369003827456621e-02 1.9135392536277523e-01 1.6356499867379576e-01 8.9587761776158514e-02 3.8923032543882782e-02 4.8748343915847335e-02 9.9019062054108076e-01 9.2491017652116467e-02 -2.5883750982611808e-02 -1.0676297342266539e-01 4.5389654758019515e-01 2.3533381522253954e-02 4.1709106271789531e-02 1.8125014314785540e-02 2.6576299744535326e-01 1.2087680194461237e-01 3.3042705756899979e-02 1.8810040452414767e-01 1.2831707919568114e+00 4.8276156521081476e-01 -1.7388326145857513e-01 1.1384236307634046e-01 -1.0253383749066263e+00 6.9387871134401857e-01 4.2029768939562714e-02 -7.8271806889459228e-01 3.1090979771013982e+00 3.0982515937516969e-03 -1.0938170590129412e+00 4.8124712011222499e+00 -3.2181665087603839e-01 1.8062851095425192e+00 -9.2945585639227986e+00 2.0199091469859909e-01 4.1858311323094863e+00 2.0206335650212761e+00 -5.3308663257989114e-03 1.0585628788634359e-03 
      </Row>
      <Row Index="8">
        -9.3340470492405611e-03 -1.8855851415952529e-02 9.1074221749664230e-02 1.8474568489534077e-02 -5.4743798710645372e-02 -5.1426993580056785e-02 4.9951909254039219e-03 9.2491017650794524e-02 1.7163769278839663e-01 -5.2860656383413281e-03 -2.9794321636008814e-02 -4.8179260807820340e-02 -1.4175771789621910e-01 -1.5908750122859872e-01 4.1637279316576736e-02 6.3825930510118312e-02 -6.4776102986647252e-02 -1.4817654853991497e-01 7.4602035823909688e-02 1.2005343313390265e-01 -1.1023463490933505e-01 4.3338820093708097e-01 -1.9973328887329406e-01 -1.1112703251278555e-01 2.0706062884664256e-01 -2.0767050008357671e-01 -1.6975600616796349e-01 1.8045219406862015e-01 2.5715774203330481e-02 -1.0568547838635675e-01 3.0251516186836691e-01 3.8781679019567805e-02 3.9831035020452343e-01 -4.7055357747218558e+00 1.3716535097432903e-01 5.6113683654712632e-01 3.1613458311598981e+00 -1.7821897651322451e-03 1.4683329782389874e-03 
      </Row>
      <Row Index="9">
        1.0518167539182447e-02 -2.0071911621259257e-02 -3.3456316376759679e-02 9.4974860003108827e-03 -5.8733818998607322e-02 -1.0356440771342281e-02 5.7601964054912426e-04 -2.5883750983578105e-02 -5.2860656385848876e-03 5.7889858607227548e-02 1.3416019067597706e-02 -6.7887360364474666e-03 -7.9930748024559073e-02 -8.0056403446876007e-02 -2.0067769627451198e-03 -5.4062300146068276e-03 -8.8315673065009911e-02 -4.5451236455171684e-02 -2.0566197683571458e-02 -2.3557744586285637e-02 1.0715762427464063e-02 -7.5985960464842045e-02 -1.0197333134012013e-01 4.3102531774321440e-02 5.8410378857103984e-02 -1.0828474218436557e-01 7.6910836815245742e-04 -2.6375536785210130e-01 -1.6995151112109343e-02 2.6658758228020312e-02 -3.0384743978998491e-01 1.0578059444042512e-02 -7.8024346868281400e-03 1.2048759667157303e+00 1.1296832755720246e-01 -5.9439219532778226e-03 -6.2201059306899920e-01 1.0404612611693073e-04 -8.1135751645269871e-05 
      </Row>
      <Row Index="10">
        2.6572211485270513e-02 -3.2284684083115911e-03 -5.2397828460133700e-01 1.4562718938996394e-01 3.3041551868580502e-02 1.9960323963455408e-02 9.1043310596629359e-02 -1.0676297342458800e-01 -2.9794321636273016e-02 1.3416019067613305e-02 3.2487873034791259e-01 -7.4829675762916978e-02 4.4285980712357682e-02 3.6030727525961648e-02 -8.4973213342717541e-02 -1.0968133161787574e-02 4.0031871708233871e-02 4.3375075071161284e-02 -1.6474250189042422e-01 -4.2222881367608656e-02 1.2802428379241848e-01 4.2051164484355386e-01 4.1170207961698707e-02 1.3414191801948006e-01 5.7331690223861553e-01 2.2968409948054897e-02 -2.0360995543219595e-01 5.3695824698872285e-01 -3.0197099238183944e-01 1.0667583021175475e-01 -1.0460708136244742e-01 5.9353318983992806e-02 -2.7174097220537485e-02 -4.9303020375597271e+00 1.9837223872533521e-01 -1.9016475953367729e-01 3.6063972399669999e+00 -2.9035114589136903e-04 -9.6053439158630058e-05 
      </Row>
      <Row Index="11">
        3.4921343998545275e-02 -1.0171762774571075e-02 1.8830840963711620e-01 5.7483531061935655e-02 4.7537110993335831e-02 2.6023256231286009e-02 -1.4454203269846833e-01 4.5389654758027748e-01 -4.8179260806983086e-02 -6.7887360359690785e-03 -7.4829675761431513e-02 4.4986524894366664e-01 5.4680736375548079e-02 1.0470276742925161e-01 -4.8392355571184251e-02 8.0214674294185384e-02 6.2043136876384138e-02 8.2123343454508529e-02 2.1237314916596590e-02 6.4443214771404012e-01 6.8338731299047395e-01 5.5169714638290124e-01 1.3890999443367508e-01 -5.4982542992146843e-01 4.4590480264736954e-01 1.4830495106262509e-01 -1.9706211655540207e-02 2.4644950658966231e+00 1.0162924192525319e-02 -3.4017534237748936e-01 2.5204978333358081e+00 -3.2694426914032843e-01 -8.0019509358221719e-02 -7.4902997841417340e+00 1.5653183137260759e-01 1.0233090371450440e+00 2.6762902636426045e+00 -4.2378991429539697e-03 4.2587105418213575e-04 
      </Row>
      <Row Index="12">
        -4.5876395087929664e-02 4.3242939624595522e-02 -5.7168298615548362e-02 -8.0765273761863043e-03 3.5310016263200789e-01 1.0391796718546045e-01 5.6514100097639353e-02 2.3533381525896391e-02 -1.4175771789552580e-01 -7.9930748024875875e-02 4.4285980712277739e-02 5.4680736377652424e-02 4.0836047465428849e-01 3.0081453386255053e-01 -2.1247645541746650e-02 -6.4347522355475695e-02 3.9905050588629210e-01 2.5347772101721766e-01 1.7194520278421624e-02 -1.1877014264345398e-02 3.2189090095683978e-02 -4.3446529749577212e-01 4.9515673378912251e-01 2.3721648595836387e-01 -2.5410910030774225e-02 4.1641245515093489e-01 1.4487629858991008e-01 2.8949572397454792e-01 -1.1998357510552934e-02 -2.1798050735562180e-02 2.6847139743099874e-01 -5.1731158491686816e-02 -2.4647876043989281e-01 4.3867090818809693e+00 -4.0644378089653055e-01 -3.3008289354985998e-01 -3.5469441035327165e+00 8.8647737797849983e-04 -1.5136977433441619e-03 
      </Row>
      <Row Index="13">
        -1.5785913547498046e-02 4.3984947937438901e-02 -1.0837198640055973e-02 -3.4965030927650020e-03 2.1397827415146858e-01 1.0008092063016642e-01 1.1872119107656596e-02 4.1709106275151814e-02 -1.5908750122797383e-01 -8.0056403447028052e-02 3.6030727526016021e-02 1.0470276743095126e-01 3.0081453386218121e-01 3.4348219181811351e-01 -4.0676502669093936e-02 -2.4818970382965155e-02 2.5887889331661107e-01 2.8044174191190374e-01 1.4013244991797132e-02 5.6296595663189841e-02 1.5380880606688094e-01 -2.2461613973591898e-01 4.3074253810955015e-01 -6.2536704090282724e-02 -1.9207955900829288e-01 4.0855616726646543e-01 1.3911447043939643e-01 8.2979579568722706e-01 -6.1379555744717380e-03 3.5060414981595622e-02 6.3681095493844353e-01 -7.9685149003138070e-02 -3.7177359176177266e-01 -4.6317516269021791e-01 -3.4701856012032750e-01 -3.9701733764653963e-01 -1.8569923155207296e-01 1.4310509965890529e-03 -1.6471409184634737e-03 
      </Row>
      <Row Index="14">
        -5.2586428106912247e-02 1.5206712102603548e-02 2.0115543634250718e-01 -3.3371699991287737e-02 -5.3353932733349457e-03 4.7995816077294948e-04 1.0678271463965028e-01 1.8125014316064531e-02 4.1637279316502934e-02 -2.0067769628600018e-03 -8.4973213343059850e-02 -4.8392355570054002e-02 -2.1247645541137394e-02 -4.0676502668659520e-02 1.2887621676026059e-01 2.8203034334190136e-02 -1.4579084746584654e-02 -2.3207019845794388e-02 2.2272461982180075e-01 -1.4401447109083726e-02 -3.6680345843138557e-01 -1.1175574316627925e+00 -1.9771332292512933e-02 -1.6597206370683315e-01 -6.3063849346255907e-01 -5.3959672533970604e-02 -2.7216874207890429e-02 -9.4621040106528564e-01 1.2406939353420851e-01 -1.0742225796695948e-01 -4.2003678478720427e-02 4.1284107178745012e-02 4.7664712057653830e-01 8.6449764979483952e+00 -1.3285252491025348e-01 4.8125397230498373e-01 -5.9954849300067190e+00 1.2935765890691032e-03 3.4594147575748961e-04 
      </Row>
      <Row Index="15">
        1.4817528087215530e-02 -1.3228016927765873e-02 1.9438598212540500e-02 8.1797885374169960e-02 7.7083415650897186e-03 -1.7121022589903223e-02 2.1158356664895128e-02 2.6576299744471282e-01 6.3825930510394646e-02 -5.4062300142385111e-03 -1.0968133161374460e-02 8.0214674293670019e-02 -6.4347522356666020e-02 -2.4818970384148709e-02 2.8203034334116917e-02 1.4206537392183960e-01 -1.0558840287282052e-02 -3.2484268389021798e-02 5.5277286573132828e-02 3.9848391585387244e-01 3.1457585656944793e-02 -1.0810524998682891e-01 -4.6471471085101107e-02 -6.7711240779787119e-01 4.9097096798925932e-02 -6.2821333424397663e-02 -4.7703451882968362e-01 7.8799611143235415e-01 -4.2248396261871365e-02 -3.7808519646899774e-01 1.7265590769399803e+00 -4.4791906981900977e-02 1.0244549056045382e+00 -6.1757383606480589e+00 1.3230559648079265e-01 1.8355668944189487e+00 3.1327589141182237e+00 -1.3455930212209265e-03 1.0656500509400113e-03 
      </Row>
      <Row Index="16">
        -6.0039159938972922e-02 3.3448561697128794e-02 -5.2504008764070721e-02 1.8109792751403953e-02 4.8052357730239936e-01 7.2642193985374762e-02 7.2327294297330605e-02 1.2087680194790006e-01 -6.4776102985664760e-02 -8.8315673065195749e-02 4.0031871708432892e-02 6.2043136878189853e-02 3.9905050588548352e-01 2.5887889331642533e-01 -1.4579084747398212e-02 -1.0558840285986151e-02 5.0206708789222465e-01 1.9168621734534447e-01 3.7067676698887567e-02 1.2939965823060601e-01 2.0970597759168663e-02 -1.2218259155053801e-01 4.9446696240693261e-01 1.2422396646839756e-01 2.3507636667767473e-01 3.7273303918629319e-01 -3.9094494556754789e-03 7.8704043777799937e-01 -2.0118437147761625e-02 -1.2734674678682237e-01 7.6718089698043079e-01 -5.0309363086442141e-02 4.1225201891387467e-02 -4.2192839524892806e-01 -3.8600893885731213e-01 1.5877560426991119e-01 -4.7033043876732550e-01 -6.1945488620884911e-04 -1.2110132314435071e-03 
      </Row>
      <Row Index="17">
        -2.3180250114454022e-02 3.3434438135641828e-02 -3.7084646016289663e-02 -2.9235078845006868e-03 1.6057690758664855e-01 1.2524570198996113e-01 4.1882168581076018e-02 3.3042705759927037e-02 -1.4817654853950693e-01 -4.5451236455359229e-02 4.3375075071108160e-02 8.2123343456140308e-02 2.5347772101729638e-01 2.8044174191214050e-01 -2.3207019846113008e-02 -3.2484268388077164e-02 1.9168621734594166e-01 2.6879403701689364e-01 2.3600168321420117e-02 3.3399243415037527e-02 9.0013138006119986e-02 -5.6341853415867638e-01 3.7166233563220424e-01 -4.6186570822296158e-02 -2.9738879105630822e-01 3.1193197919944460e-01 1.0809212401212642e-01 4.3481623838644828e-01 -7.6297808270081660e-03 1.1879415859444298e-02 4.3701267511734354e-01 -5.8278957463553702e-02 -2.4340926628869736e-01 2.9174925680988011e+00 -2.9990793377746916e-01 -2.5680265544237141e-01 -2.4604459137139236e+00 1.9836564247838490e-03 -1.4616754869647038e-03 
      </Row>
      <Row Index="18">
        -1.0218353185531127e-01 6.8986457910664989e-03 8.8326562108080953e-01 1.0143094774110281e-01 3.6852668836355504e-02 1.7235221715439890e-02 3.1727063082276735e-01 1.8810040452810345e-01 7.4602035824460775e-02 -2.0566197683444809e-02 -1.6474250188992068e-01 2.1237314918939043e-02 1.7194520277658165e-02 1.4013244991486290e-02 2.2272461982124875e-01 5.5277286574291540e-02 3.7067676698467042e-02 2.3600168321126935e-02 8.8451904386379687e-01 2.6858649414171598e-01 -2.6647861657772731e-01 -9.6352888672892556e-01 5.7974310420103148e-02 1.0665122341088074e-01 -1.1792270763174351e-01 -3.6756526822875335e-03 6.1696446246835523e-01 3.7881087795821294e-01 3.3228140837599612e-01 -2.8102486675393390e-02 6.2633343511728734e-01 -1.7557887864320922e-02 -5.5583924890001901e-01 4.8578591634636652e+00 -3.7079153838028306e-01 -3.8462429096007467e-01 -4.1015164756657940e+00 -1.3442439043806070e-03 1.4813602445471544e-03 
      </Row>
      <Row Index="19">
        9.6599914838718562e-02 -5.3405764071082995e-02 2.6021727968863217e-01 5.1938925068517061e-01 9.6563503965951036e-02 7.3642484568981550e-03 2.2505956634252255e-02 1.2831707919552673e+00 1.2005343313544672e-01 -2.3557744584703499e-02 -4.2222881365036713e-02 6.4443214771268575e-01 -1.1877014269642938e-02 5.6296595658023918e-02 -1.4401447110219179e-02 3.9848391585425214e-01 1.2939965822528446e-01 3.3399243410713361e-02 2.6858649413608893e-01 1.9435801222468325e+00 8.7520332343938945e-01 1.9562028593539482e-01 8.9248989397405928e-02 -1.5577342862929715e+00 1.4966493909401315e+00 1.8738434313176455e-02 -1.1938078957115805e+00 5.2692011308543636e+00 -8.9449690014731187e-02 -1.6075203309755848e+00 6.8563878364253785e+00 -4.6620842663581430e-01 2.5819825781081285e+00 -2.0068478946741944e+01 4.3955711416506371e-01 6.2787684580373755e+00 7.6740656816247945e+00 -5.5555189182613235e-03 -8.2178765789871558e-04 
      </Row>
      <Row Index="20">
        1.4183264234744616e-01 -4.9122140410029935e-02 -4.9871500117685749e-03 3.2554550937307353e-01 1.4847139135204732e-02 -8.4395707367432016e-03 -4.0409066868896693e-01 4.8276156520559099e-01 -1.1023463490801866e-01 1.0715762428520570e-02 1.2802428379645470e-01 6.8338731298628375e-01 3.2189090090853023e-02 1.5380880606331382e-01 -3.6680345843349138e-01 3.1457585657176601e-02 2.0970597754104266e-02 9.0013138002974669e-02 -2.6647861658359984e-01 8.7520332343581264e-01 2.6016661830318686e+00 5.0032138152780607e+00 7.1797348924052595e-02 -7.0288623058014110e-01 2.3598046613605348e+00 2.2830904375200500e-01 6.8956185222146926e-01 6.2288599775884625e+00 -3.8552629744356814e-01 7.1249372242208509e-02 3.9946969443853781e+00 -6.3199423488009276e-01 -2.9032163798786823e+00 -3.6144660931180752e+01 8.6397236624922924e-01 -1.1930897626283572e+00 2.0532076740237592e+01 -1.4312440814511218e-02 5.4401810474153656e-03 
      </Row>
      <Row Index="21">
        1.3563382002696434e-01 -6.0074628906603422e-02 -4.9183637431809979e-02 2.8459800566003601e-01 6.2099842031588415e-02 -4.8331229595133174e-01 -1.4578155589257484e+00 -1.7388326149009448e-01 4.3338820094325081e-01 -7.5985960457394697e-02 4.2051164485818049e-01 5.5169714634464384e-01 -4.3446529753573415e-01 -2.2461613976047801e-01 -1.1175574316604866e+00 -1.0810524998134952e-01 -1.2218259160343362e-01 -5.6341853417484211e-01 -9.6352888674468051e-01 1.9562028592903574e-01 5.0032138151954086e+00 3.9362544467924153e+01 -8.7633671123557155e-01 8.9891132908297777e-01 2.4272233989940787e+01 -1.1251231289016062e-02 3.6240689364571210e+00 4.1235744338867086e+01 -1.1560440320798531e+00 3.8782750680572065e+00 -9.5105904979577645e+00 -6.3297707134948855e-01 -1.2276400013979917e+01 -4.6569986223530685e+02 2.4731129510236327e+00 -1.5568212661877720e+01 3.4776838981426869e+02 -2.6532694187386463e-02 -4.5310196958517943e-02 
      </Row>
      <Row Index="22">
        -7.7234768556536479e-02 6.2348670438613085e-02 -4.7369176516200186e-02 -3.3957520727823765e-02 4.4261178885944102e-01 1.7304950120115431e-01 9.0626851716352902e-02 1.1384236308195550e-01 -1.9973328887217098e-01 -1.0197333134043032e-01 4.1170207961665817e-02 1.3890999443678370e-01 4.9515673378859493e-01 4.3074253810962432e-01 -1.9771332293367777e-02 -4.6471471083187166e-02 4.9446696240749427e-01 3.7166233563175821e-01 5.7974310420806169e-02 8.9248989405834145e-02 7.1797348931035648e-02 -8.7633671118389633e-01 7.3160228782989378e-01 -4.6032504833136700e-02 -6.1900586179442385e-02 6.0972669469088481e-01 9.5111508293626884e-02 1.2658051177582588e+00 1.6405496094679048e-03 -1.2933719358345352e-01 1.1484178472247581e+00 -9.4276051053946916e-02 -1.3869552143143932e-01 3.1727776962318992e+00 -6.0533236575100735e-01 -5.9865326182261064e-02 -3.2805738521283994e+00 -2.8539742117109079e-04 -2.7317020232980049e-03 
      </Row>
      <Row Index="23">
        8.9330923029239895e-02 -6.9004563384828188e-02 2.4707364314391872e-01 -8.9991792935685211e-02 -1.6221008817287816e-02 -2.9495262183860893e-02 1.4128272544278264e-01 -1.0253383749038378e+00 -1.1112703251446626e-01 4.3102531772332142e-02 1.3414191801986064e-01 -5.4982542991749916e-01 2.3721648596544265e-01 -6.2536704083071104e-02 -1.6597206370894035e-01 -6.7711240779830995e-01 1.2422396647674372e-01 -4.6186570816914962e-02 1.0665122341382163e-01 -1.5577342862929084e+00 -7.0288623056800592e-01 8.9891132919346317e-01 -4.6032504821935563e-02 7.7377273149544337e+00 1.5020762752438372e+00 6.1403786551927908e-03 4.3326900613727046e+00 -7.8631715077664861e+00 3.6694101906813226e-01 2.7942236379258070e+00 -1.2013176946637060e+01 3.1088916899206220e-01 -9.4409472975442270e+00 6.6644359770959909e+01 -6.2845754183627811e-01 -1.6860385315281853e+01 -4.0682891813335694e+01 -6.0662028678486191e-03 8.4826582957449239e-03 
      </Row>
      <Row Index="24">
        1.7809870981454257e-02 3.6231581633856536e-03 -5.4153420837745281e-01 1.0856005911879558e+00 2.4065819056539289e-01 -2.6308643981121893e-01 -1.3402401695531552e-01 6.9387871132039081e-01 2.0706062885215260e-01 5.8410378864500956e-02 5.7331690224822296e-01 4.4590480261545196e-01 -2.5410910067055426e-02 -1.9207955903286233e-01 -6.3063849345726908e-01 4.9097096803961904e-02 2.3507636662947284e-01 -2.9738879107232957e-01 -1.1792270764424478e-01 1.4966493909388698e+00 2.3598046612822472e+00 2.4272233989752952e+01 -6.1900586227639498e-02 1.5020762751618975e+00 2.8586364989481581e+01 1.2215869921256228e-01 3.4798337636599541e-01 3.9183878957018415e+01 -1.1834207465801247e+00 -2.8620745600619557e-02 -7.4220223928394944e+00 -3.8369806573873055e-01 -1.6911172931769620e+00 -4.0634028667925179e+02 1.6040842688602286e+00 1.7770798890056883e-01 3.0498483953844647e+02 -1.8657122262641490e-02 -6.1786457331663817e-02 
      </Row>
      <Row Index="25">
        -3.1600843049555349e-02 6.3163841844630975e-02 -9.3430819174543673e-03 -4.2923804112956709e-02 2.9339797551584701e-01 1.1359779624303362e-01 -3.4435299183606105e-03 4.2029768944042811e-02 -2.0767050008259136e-01 -1.0828474218456548e-01 2.2968409948171731e-02 1.4830495106491401e-01 4.1641245515016101e-01 4.0855616726635702e-01 -5.3959672534682243e-02 -6.2821333422725889e-02 3.7273303918630113e-01 3.1193197919897653e-01 -3.6756526817802518e-03 1.8738434320274999e-02 2.2830904375725386e-01 -1.1251231245545279e-02 6.0972669469046825e-01 6.1403786446162512e-03 1.2215869925478051e-01 6.2273912445901125e-01 2.6882665052178922e-01 1.5446497159096779e+00 -4.9275467405639761e-03 4.0793390348477954e-02 8.5464044055288457e-01 -1.1595226947595211e-01 -6.5940210266561639e-01 -1.6527795128147180e+00 -4.8729574989274493e-01 -7.9225031991306205e-01 3.4943345043798207e-01 -1.7777158124721052e-03 -2.4577684793951095e-03 
      </Row>
      <Row Index="26">
        -7.3179942150073063e-02 1.9416135210640117e-02 1.1623076186925723e+00 -1.1408089420671119e-01 -2.5081349161354627e-02 2.5545426758412204e-02 -3.4490192649239582e-02 -7.8271806889185025e-01 -1.6975600616777961e-01 7.6910836673294014e-04 -2.0360995542538163e-01 -1.9706211652258609e-02 1.4487629859174689e-01 1.3911447044483860e-01 -2.7216874214909925e-02 -4.7703451882762238e-01 -3.9094494520716117e-03 1.0809212401534249e-01 6.1696446246432535e-01 -1.1938078957058083e+00 6.8956185224586664e-01 3.6240689367783636e+00 9.5111508298873312e-02 4.3326900613409940e+00 3.4798337664391710e-01 2.6882665052925514e-01 7.1858861826030989e+00 -4.7428936147475458e+00 4.1508265206258776e-01 4.7367614315980138e+00 -1.2380187190093604e+01 -2.5891683003618593e-01 -1.6581070953946647e+01 3.7781172036740465e+01 -2.8786701499414580e-01 -2.7305247534417333e+01 -1.9434520096510798e+01 -1.8690550160654240e-02 1.9635189664605080e-02 
      </Row>
      <Row Index="27">
        -1.0741530213213135e-01 1.5707102186575028e-01 3.5114483425728116e-01 1.4884693099601340e+00 7.8355410899631295e-01 1.7194611977481955e-02 -7.4169658185349618e-01 3.1090979770748071e+00 1.8045219408283142e-01 -2.6375536783659470e-01 5.3695824700361072e-01 2.4644950658458384e+00 2.8949572390056488e-01 8.2979579563378536e-01 -9.4621040105354837e-01 7.8799611144643222e-01 7.8704043768332044e-01 4.3481623835022576e-01 3.7881087793572732e-01 5.2692011308767723e+00 6.2288599774543343e+00 4.1235744338390873e+01 1.2658051176586516e+00 -7.8631715079218338e+00 3.9183878956908075e+01 1.5446497158212651e+00 -4.7428936152685708e+00 9.1566991278357364e+01 -1.1164203413517679e+00 -4.6995968060796542e+00 1.5589017021455334e+01 -1.7526728886955709e+00 7.7781887405373880e+00 -7.8763058639576332e+02 1.4216471669805530e+00 2.2664192716741827e+01 5.6672447778860351e+02 1.4635911269017754e-02 -1.6262818816336283e-01 
      </Row>
      <Row Index="28">
        -4.0053755496176346e-02 2.2096526490629209e-03 7.0122970546488117e-01 -1.5691795666013048e-01 -3.3927903964171557e-02 4.6345245203749663e-03 -1.2913943132085270e-02 3.0982515977670544e-03 2.5715774203376417e-02 -1.6995151112377815e-02 -3.0197099238261860e-01 1.0162924195483036e-02 -1.1998357509456770e-02 -6.1379555735325830e-03 1.2406939353419777e-01 -4.2248396261318710e-02 -2.0118437146218596e-02 -7.6297808262894562e-03 3.3228140837787945e-01 -8.9449690010320992e-02 -3.8552629743800915e-01 -1.1560440320804248e+00 1.6405496112008311e-03 3.6694101907092413e-01 -1.1834207465861155e+00 -4.9275467391018957e-03 4.1508265207662043e-01 -1.1164203413636544e+00 4.9714801979432033e-01 -3.2512379387772405e-02 -3.3224594591379741e-01 1.3025595486098163e-02 -2.5748960590036235e-01 1.5807539572646144e+01 -5.0514457749829222e-01 -3.6297100410961453e-01 -1.1196180154415604e+01 4.8874388382618497e-03 -3.2075022154682553e-03 
      </Row>
      <Row Index="29">
        -2.4633258040625196e-02 3.5051690604139540e-03 1.0271242376268434e-01 -3.5181423092590020e-01 -9.3210774483929282e-02 -1.3889674642746597e-02 -1.0057209155741359e-01 -1.0938170590137122e+00 -1.0568547838676232e-01 2.6658758226780488e-02 1.0667583021593918e-01 -3.4017534237777280e-01 -2.1798050734091301e-02 3.5060414986115840e-02 -1.0742225797090083e-01 -3.7808519646780159e-01 -1.2734674678493837e-01 1.1879415862554511e-02 -2.8102486677185401e-02 -1.6075203309740682e+00 7.1249372249821197e-02 3.8782750682641121e+00 -1.2933719357905374e-01 2.7942236378976744e+00 -2.8620745407671677e-02 4.0793390354161296e-02 4.7367614315775848e+00 -4.6995968056982242e+00 -3.2512379394725621e-02 4.3246154614286691e+00 -1.1261961747518971e+01 1.4328088055180457e-01 -1.1883615327936214e+01 6.5043655355749150e+00 -3.7240815421442086e-03 -2.1317619423015831e+01 4.9057505557911085e+00 -1.0467668730110978e-02 1.4580619665772038e-02 
      </Row>
      <Row Index="30">
        3.8193428109297561e-01 -1.9920737027001434e-01 6.5753749316414800e-01 5.2240468424400188e-01 6.4692667062311859e-01 2.2288443053688098e-01 -1.9070370856134677e-01 4.8124712011359012e+00 3.0251516187520022e-01 -3.0384743978622253e-01 -1.0460708136408758e-01 2.5204978333458263e+00 2.6847139742100778e-01 6.3681095492285333e-01 -4.2003678479177742e-02 1.7265590769426664e+00 7.6718089697564795e-01 4.3701267510286074e-01 6.2633343510862671e-01 6.8563878364405006e+00 3.9946969444150806e+00 -9.5105904980451150e+00 1.1484178472056619e+00 -1.2013176946608642e+01 -7.4220223929748848e+00 8.5464044053501276e-01 -1.2380187190034331e+01 1.5589017021099139e+01 -3.3224594592126983e-01 -1.1261961747489849e+01 6.0182537128516230e+01 -1.2568475787365014e+00 2.4764746830222951e+01 2.0056066796985572e+01 2.7442460572761007e-01 5.0199035801539885e+01 -6.8510534901850960e+01 -5.2827899091612562e-02 4.5276543348003934e-02 
      </Row>
      <Row Index="31">
        -2.5841915431275279e-02 2.1490980154814376e-03 -1.4273028974376073e-01 -9.9387378558146833e-02 -3.0761713089976411e-02 -1.2036568352693316e-02 1.0642820637510281e-01 -3.2181665087538730e-01 3.8781679019035578e-02 1.0578059443705518e-02 5.9353318982524161e-02 -3.2694426914005359e-01 -5.1731158490262830e-02 -7.9685149002028610e-02 4.1284107179862889e-02 -4.4791906982087237e-02 -5.0309363085255111e-02 -5.8278957462430475e-02 -1.7557887862152871e-02 -4.6620842663578810e-01 -6.3199423488372919e-01 -6.3297707138786641e-01 -9.4276051051794152e-02 3.1088916899464913e-01 -3.8369806576978149e-01 -1.1595226947449294e-01 -2.5891683003510790e-01 -1.7526728887443639e+00 1.3025595488869411e-02 1.4328088054941635e-01 -1.2568475787224072e+00 2.9790804991650688e-01 6.0923573504538509e-01 3.4983187928515238e+00 -1.9760163260853694e-01 -1.5504428917769542e-02 -6.9696694633165568e-01 2.4527326470993819e-03 2.7942159853592066e-04 
      </Row>
      <Row Index="32">
        -3.1328700775125562e-02 2.4250680737646357e-02 -1.6121289987422256e+00 2.4078653256180527e-01 7.2952627515870283e-02 -3.1306501259643293e-02 4.2155891588939554e-01 1.8062851095422265e+00 3.9831035020339123e-01 -7.8024346841467640e-03 -2.7174097240038719e-02 -8.0019509360854446e-02 -2.4647876044043882e-01 -3.7177359177226643e-01 4.7664712059461811e-01 1.0244549055994838e+00 4.1225201887201190e-02 -2.4340926629423776e-01 -5.5583924888498393e-01 2.5819825780991947e+00 -2.9032163799305946e+00 -1.2276400014808072e+01 -1.3869552143883651e-01 -9.4409472974511921e+00 -1.6911172939094570e+00 -6.5940210267953958e-01 -1.6581070953908139e+01 7.7781887391594502e+00 -2.5748960586345948e-01 -1.1883615327966993e+01 2.4764746830378016e+01 6.0923573504263406e-01 4.2535975218914537e+01 -5.2052429882204969e+01 -6.5973573692103216e-02 7.0829651750411827e+01 2.2560855535828722e+01 5.6818605757613244e-02 -5.5542086123405748e-02 
      </Row>
      <Row Index="33">
        6.8234192655619097e-01 -8.3541973158327210e-01 4.5815226363110071e+00 -5.2634847492585095e+00 -3.1006572959494179e+00 3.7614714593495648e+00 9.8496979836845640e+00 -9.2945585635470849e+00 -4.7055357748424917e+00 1.2048759665669877e+00 -4.9303020376964923e+00 -7.4902997835278029e+00 4.3867090826292383e+00 -4.6317516218266519e-01 8.6449764977943460e+00 -6.1757383607812244e+00 -4.2192839425101880e-01 2.9174925684234267e+00 4.8578591636328383e+00 -2.0068478946879623e+01 -3.6144660929471456e+01 -4.6569986222997750e+02 3.1727776972166462e+00 6.6644359772727967e+01 -4.0634028667824168e+02 -1.6527795119363873e+00 3.7781172042701655e+01 -7.8763058639668725e+02 1.5807539572418847e+01 6.5043655399131239e+00 2.0056066793101309e+01 3.4983187922392744e+00 -5.2052429898105345e+01 8.8170415820127037e+03 -2.1202159864477402e+01 -1.2192874778379405e+02 -6.5879769615459409e+03 -1.4594967649293267e-01 1.3417272315487827e+00 
      </Row>
      <Row Index="34">
        1.2096506993315376e-01 -6.4991828106409244e-02 -5.2931836491261519e-01 2.7346631105444896e-01 -3.2042873359726942e-01 -1.5355206456626785e-01 -1.6339193790507056e-01 2.0199091468860403e-01 1.3716535097371932e-01 1.1296832755805442e-01 1.9837223872751863e-01 1.5653183136648496e-01 -4.0644378089839595e-01 -3.4701856012231358e-01 -1.3285252491053323e-01 1.3230559647857465e-01 -3.8600893886039300e-01 -2.9990793377879588e-01 -3.7079153838484735e-01 4.3955711415253929e-01 8.6397236624069229e-01 2.4731129510147620e+00 -6.0533236575466454e-01 -6.2845754183079094e-01 1.6040842688523398e+00 -4.8729574989585123e-01 -2.8786701500346479e-01 1.4216471669482571e+00 -5.0514457749930908e-01 -3.7240815419696816e-03 2.7442460568687288e-01 -1.9760163260376584e-01 -6.5973573666851415e-02 -2.1202159864400937e+01 1.2654489548353263e+00 5.7303544476018153e-01 1.4447533572179477e+01 -6.5536244825167705e-03 5.1429631441290286e-03 
      </Row>
      <Row Index="35">
        1.0046397285439090e-01 -4.7629325771727515e-02 -1.4770234234151167e+00 1.1109006477285197e+00 1.7334772604998250e-01 -4.6325480995068835e-02 3.6823051025644915e-01 4.1858311323070714e+00 5.6113683654742352e-01 -5.9439219470576177e-03 -1.9016475956284751e-01 1.0233090371384339e+00 -3.3008289355708875e-01 -3.9701733766995240e-01 4.8125397233365685e-01 1.8355668944110981e+00 1.5877560425665138e-01 -2.5680265545652814e-01 -3.8462429094035677e-01 6.2787684580224123e+00 -1.1930897627107200e+00 -1.5568212663226070e+01 -5.9865326204469937e-02 -1.6860385315127949e+01 1.7770798770388296e-01 -7.9225031994457140e-01 -2.7305247534360561e+01 2.2664192714461102e+01 -3.6297100405353233e-01 -2.1317619423068123e+01 5.0199035801775977e+01 -1.5504428921648383e-02 7.0829651750422485e+01 -1.2192874775762536e+02 5.7303544473226609e-01 1.2578315182119385e+02 5.1357622000799140e+01 7.9490469464690738e-02 -8.9668095677107429e-02 
      </Row>
      <Row Index="36">
        -9.4238565564484134e-01 8.4015155800346975e-01 -4.2537722523369617e+00 2.6418478194228783e+00 1.6653941012483529e+00 -2.8979251141239644e+00 -6.8214871503653853e+00 2.0206335647376932e+00 3.1613458312432314e+00 -6.2201059296245376e-01 3.6063972400652347e+00 2.6762902631805332e+00 -3.5469441040787046e+00 -1.8569923191398630e-01 -5.9954849298880504e+00 3.1327589142169927e+00 -4.7033043950403197e-01 -2.4604459139405606e+00 -4.1015164757763500e+00 7.6740656817247554e+00 2.0532076738931210e+01 3.4776838981025992e+02 -3.2805738528402912e+00 -4.0682891814682080e+01 3.0498483953773029e+02 3.4943344980217717e-01 -1.9434520101011913e+01 5.6672447778949254e+02 -1.1196180154230944e+01 4.9057505525124725e+00 -6.8510534898876358e+01 -6.9696694586565400e-01 2.2560855547847922e+01 -6.5879769615476525e+03 1.4447533572189570e+01 5.1357622020574581e+01 4.9774273610414994e+03 1.7363092526723634e-01 -1.0417392719698371e+00 
      </Row>
      <Row Index="37">
        -6.1179346656249829e-04 8.2642030488633625e-04 -2.4739912526077395e-03 1.3045340200953303e-03 -7.5100760753112495e-04 7.0398426368102401e-04 1.4868428347714936e-03 -5.3308663257975635e-03 -1.7821897651529085e-03 1.0404612611640551e-04 -2.9035114594892081e-04 -4.2378991429678995e-03 8.8647737800630431e-04 1.4310509965955722e-03 1.2935765891288519e-03 -1.3455930212373339e-03 -6.1945488620432755e-04 1.9836564248048912e-03 -1.3442439043091798e-03 -5.5555189182843415e-03 -1.4312440814715473e-02 -2.6532694190094238e-02 -2.8539742113989700e-04 -6.0662028676203988e-03 -1.8657122264896658e-02 -1.7777158124690218e-03 -1.8690550160653623e-02 1.4635911265067927e-02 4.8874388383929081e-03 -1.0467668730297898e-02 -5.2827899090865091e-02 2.4527326471069219e-03 5.6818605757919659e-02 -1.4594967644559348e-01 -6.5536244826820324e-03 7.9490469465163055e-02 1.7363092523131257e-01 6.9286928027673740e-04 -5.8421531503301044e-04 
      </Row>
      <Row Index="38">
        1.0133243548730766e-03 -1.0704633481326900e-03 2.1891517230212777e-03 -2.7597631822345314e-03 -7.7557801268645504e-04 -3.8429061735086555e-04 -6.4924268615054737e-05 1.0585628789021029e-03 1.4683329782349411e-03 -8.1135751667738010e-05 -9.6053439129106799e-05 4.2587105427188687e-04 -1.5136977432538001e-03 -1.6471409183891200e-03 3.4594147568700606e-04 1.0656500509317879e-03 -1.2110132312999197e-03 -1.4616754869289580e-03 1.4813602445126889e-03 -8.2178765791686426e-04 5.4401810478012791e-03 -4.5310196955490906e-02 -2.7317020231730632e-03 8.4826582957965302e-03 -6.1786457329600308e-02 -2.4577684792642385e-03 1.9635189665414138e-02 -1.6262818816007940e-01 -3.2075022156043183e-03 1.4580619666527739e-02 4.5276543346803200e-02 2.7942159845333048e-04 -5.5542086125816056e-02 1.3417272315077835e+00 5.1429631442296980e-03 -8.9668095681073201e-02 -1.0417392719384206e+00 -5.8421531503921858e-04 8.4560729473733790e-04 
      </Row>
    </InverseHessian>
  </Weights>
</MethodSetup>
