<?xml version="1.0"?>
<MethodSetup Method="MLP::MLP">
  <GeneralInfo>
    <Info name="TMVA Release" value="4.1.2 [262402]"/>
    <Info name="ROOT Release" value="5.32/00 [335872]"/>
    <Info name="Creator" value="tomc"/>
    <Info name="Date" value="Thu Jan 10 17:09:46 2013"/>
    <Info name="Host" value="Linux lxbuild168.cern.ch 2.6.18-308.1.1.el5 #1 SMP Wed Mar 7 19:25:07 CET 2012 x86_64 x86_64 x86_64 GNU/Linux"/>
    <Info name="Dir" value="/user_mnt/user/tomc/QGTagger/training/c/18/aKDE03"/>
    <Info name="Training events" value="2169067"/>
    <Info name="TrainingTime" value="8.45753590e+03"/>
    <Info name="AnalysisType" value="Classification"/>
  </GeneralInfo>
  <Options>
    <Option name="NCycles" modified="No">500</Option>
    <Option name="HiddenLayers" modified="No">N,N-1</Option>
    <Option name="NeuronType" modified="No">sigmoid</Option>
    <Option name="RandomSeed" modified="No">1</Option>
    <Option name="EstimatorType" modified="No">MSE</Option>
    <Option name="NeuronInputType" modified="No">sum</Option>
    <Option name="V" modified="Yes">False</Option>
    <Option name="VerbosityLevel" modified="No">Default</Option>
    <Option name="VarTransform" modified="Yes">N</Option>
    <Option name="H" modified="Yes">False</Option>
    <Option name="CreateMVAPdfs" modified="Yes">True</Option>
    <Option name="IgnoreNegWeightsInTraining" modified="No">False</Option>
    <Option name="TrainingMethod" modified="No">BP</Option>
    <Option name="LearningRate" modified="No">2.000000e-02</Option>
    <Option name="DecayRate" modified="No">1.000000e-02</Option>
    <Option name="TestRate" modified="Yes">3</Option>
    <Option name="EpochMonitoring" modified="No">False</Option>
    <Option name="Sampling" modified="No">1.000000e+00</Option>
    <Option name="SamplingEpoch" modified="No">1.000000e+00</Option>
    <Option name="SamplingImportance" modified="No">1.000000e+00</Option>
    <Option name="SamplingTraining" modified="No">True</Option>
    <Option name="SamplingTesting" modified="No">False</Option>
    <Option name="ResetStep" modified="No">50</Option>
    <Option name="Tau" modified="No">3.000000e+00</Option>
    <Option name="BPMode" modified="No">sequential</Option>
    <Option name="BatchSize" modified="No">-1</Option>
    <Option name="ConvergenceImprove" modified="No">1.000000e-30</Option>
    <Option name="ConvergenceTests" modified="No">-1</Option>
    <Option name="UseRegulator" modified="Yes">True</Option>
    <Option name="UpdateLimit" modified="No">10000</Option>
    <Option name="CalculateErrors" modified="No">False</Option>
    <Option name="WeightRange" modified="No">1.000000e+00</Option>
  </Options>
  <Variables NVar="4">
    <Variable VarIndex="0" Expression="axis1" Label="axis1" Title="axis1" Unit="" Internal="axis1" Type="F" Min="3.30789684e-04" Max="3.54609638e-01"/>
    <Variable VarIndex="1" Expression="axis2" Label="axis2" Title="axis2" Unit="" Internal="axis2" Type="F" Min="2.83331974e-05" Max="2.18616679e-01"/>
    <Variable VarIndex="2" Expression="mult" Label="mult" Title="mult" Unit="" Internal="mult" Type="I" Min="0.00000000e+00" Max="7.20000000e+01"/>
    <Variable VarIndex="3" Expression="ptD" Label="ptD" Title="ptD" Unit="" Internal="ptD" Type="F" Min="1.27030611e-01" Max="9.96647477e-01"/>
  </Variables>
  <Spectators NSpec="0"/>
  <Classes NClass="2">
    <Class Name="Signal" Index="0"/>
    <Class Name="Background" Index="1"/>
  </Classes>
  <Transformations NTransformations="1">
    <Transform Name="Normalize">
      <Selection>
        <Input NInputs="4">
          <Input Type="Variable" Label="axis1" Expression="axis1"/>
          <Input Type="Variable" Label="axis2" Expression="axis2"/>
          <Input Type="Variable" Label="mult" Expression="mult"/>
          <Input Type="Variable" Label="ptD" Expression="ptD"/>
        </Input>
        <Output NOutputs="4">
          <Output Type="Variable" Label="axis1" Expression="axis1"/>
          <Output Type="Variable" Label="axis2" Expression="axis2"/>
          <Output Type="Variable" Label="mult" Expression="mult"/>
          <Output Type="Variable" Label="ptD" Expression="ptD"/>
        </Output>
      </Selection>
      <Class ClassIndex="0">
        <Ranges>
          <Range Index="0" Min="4.6689301962032914e-04" Max="3.5318347811698914e-01"/>
          <Range Index="1" Min="3.4985726233571768e-04" Max="2.1152193844318390e-01"/>
          <Range Index="2" Min="0.0000000000000000e+00" Max="7.2000000000000000e+01"/>
          <Range Index="3" Min="1.2703061103820801e-01" Max="9.8910564184188843e-01"/>
        </Ranges>
      </Class>
      <Class ClassIndex="1">
        <Ranges>
          <Range Index="0" Min="3.3078968408517540e-04" Max="3.5460963845252991e-01"/>
          <Range Index="1" Min="2.8333197406027466e-05" Max="2.1861667931079865e-01"/>
          <Range Index="2" Min="0.0000000000000000e+00" Max="6.2000000000000000e+01"/>
          <Range Index="3" Min="1.4091074466705322e-01" Max="9.9664747714996338e-01"/>
        </Ranges>
      </Class>
      <Class ClassIndex="2">
        <Ranges>
          <Range Index="0" Min="3.3078968408517540e-04" Max="3.5460963845252991e-01"/>
          <Range Index="1" Min="2.8333197406027466e-05" Max="2.1861667931079865e-01"/>
          <Range Index="2" Min="0.0000000000000000e+00" Max="7.2000000000000000e+01"/>
          <Range Index="3" Min="1.2703061103820801e-01" Max="9.9664747714996338e-01"/>
        </Ranges>
      </Class>
    </Transform>
  </Transformations>
  <MVAPdfs>
    <PDF Name="MLP_PDFSig" MinNSmooth="0" MaxNSmooth="0" InterpolMethod="5" KDE_type="1" KDE_iter="2" KDE_border="1" KDE_finefactor="3.0000001192092896e-01">
      <Histogram Name="MLP_tr_S_original" NBins="250" XMin="-7.0065394043922424e-02" XMax="1.0544219017028809e+00" HasEquidistantBins="1">
        0.00000000e+00 0.00000000e+00 0.00000000e+00 4.68519080e-04 0.00000000e+00 2.34259540e-04 0.00000000e+00 0.00000000e+00 2.34259540e-04 4.68519080e-04 2.34259540e-04 2.34259540e-04 0.00000000e+00 7.02778634e-04 7.02778634e-04 7.02778634e-04 1.17129763e-03 7.26204552e-03 2.08490994e-02 4.00583819e-02 7.21519366e-02 1.17598288e-01 1.41258493e-01 1.60936296e-01 1.89984486e-01 2.19266921e-01 2.17392847e-01 2.47378066e-01 2.91418850e-01 3.00554991e-01 2.82282740e-01 3.13439250e-01 3.47875416e-01 3.31711501e-01 3.28666121e-01 3.42018932e-01 3.77157837e-01 3.53263378e-01 3.78094882e-01 3.73409688e-01 3.84419888e-01 4.02457893e-01 4.04566228e-01 3.98709714e-01 4.04566228e-01 4.03629184e-01 4.05503243e-01 4.15576428e-01 4.11359757e-01 4.28929210e-01 4.82106119e-01 4.57274616e-01 4.50715333e-01 4.72267210e-01 4.72267210e-01 4.46030170e-01 4.47904229e-01 4.66879249e-01 4.94521886e-01 4.89836693e-01 4.91242260e-01 5.01081169e-01 5.23335814e-01 5.17479300e-01 5.36220074e-01 5.43950617e-01 5.26381195e-01 5.50041378e-01 5.63394189e-01 5.46058953e-01 5.52383959e-01 5.79323828e-01 6.06732190e-01 5.82603455e-01 6.20319247e-01 6.25004411e-01 6.02749765e-01 6.16805375e-01 6.56395197e-01 6.57566488e-01 6.64828539e-01 6.70216501e-01 6.47493362e-01 6.75370216e-01 6.96219325e-01 7.00435996e-01 6.98561907e-01 6.95048034e-01 7.31123984e-01 7.34169364e-01 7.66965747e-01 7.65091658e-01 8.00933361e-01 8.19908381e-01 7.89688885e-01 8.29747260e-01 8.15457463e-01 8.52236211e-01 8.48488033e-01 8.87140870e-01 8.87609363e-01 8.96277010e-01 9.17828858e-01 8.77770483e-01 9.23451066e-01 9.28370535e-01 9.32352960e-01 9.17828858e-01 9.48751092e-01 1.00637901e+00 9.95134532e-01 1.02113736e+00 1.04198647e+00 1.01762342e+00 1.04222071e+00 1.06517816e+00 1.06236696e+00 1.08321607e+00 1.09352350e+00 1.11109293e+00 1.10547078e+00 1.16028750e+00 1.13990688e+00 1.14342082e+00 1.16239583e+00 1.17082918e+00 1.17246902e+00 1.16169298e+00 1.19753480e+00 1.16778374e+00 1.18347919e+00 1.19238102e+00 1.19753480e+00 1.21861815e+00 1.22798848e+00 1.23290789e+00 1.22142923e+00 1.24368382e+00 1.19589496e+00 1.23056531e+00 1.22072649e+00 1.24883759e+00 1.27109230e+00 1.24743199e+00 1.27835429e+00 1.29662657e+00 1.30482566e+00 1.35144329e+00 1.34980345e+00 1.37252665e+00 1.36784148e+00 1.39618683e+00 1.40391743e+00 1.39454699e+00 1.43671370e+00 1.42078412e+00 1.48169160e+00 1.47419524e+00 1.48684525e+00 1.50933421e+00 1.55150092e+00 1.50746012e+00 1.56016850e+00 1.55196941e+00 1.62622964e+00 1.60327220e+00 1.63161767e+00 1.63349175e+00 1.61217415e+00 1.67050469e+00 1.66816211e+00 1.65527785e+00 1.75272989e+00 1.69814742e+00 1.77404749e+00 1.76467705e+00 1.77639008e+00 1.73211503e+00 1.77193916e+00 1.81855679e+00 1.90148461e+00 1.82862997e+00 1.85533547e+00 1.86470592e+00 1.87056243e+00 1.87548184e+00 1.94927359e+00 1.91436887e+00 1.91647720e+00 1.92701888e+00 1.94974208e+00 1.93310964e+00 1.96332920e+00 1.96262634e+00 1.98206997e+00 1.98417830e+00 1.96028376e+00 1.98886347e+00 1.92022538e+00 1.92795599e+00 1.92795599e+00 1.91835129e+00 1.86985958e+00 1.88930321e+00 1.83073831e+00 1.81996238e+00 1.81949377e+00 1.77849841e+00 1.71923077e+00 1.66769361e+00 1.64215934e+00 1.59530747e+00 1.53697681e+00 1.49223328e+00 1.44795823e+00 1.36245346e+00 1.29498672e+00 1.23126817e+00 1.13522172e+00 1.04315770e+00 9.99819696e-01 8.83861244e-01 8.23422253e-01 7.20348060e-01 6.18445158e-01 5.64096987e-01 4.84917223e-01 4.08080101e-01 3.48812461e-01 2.74083644e-01 2.23015085e-01 1.72649279e-01 1.23220518e-01 9.08927023e-02 6.62954450e-02 4.52120900e-02 3.65444869e-02 2.69398466e-02 1.73352063e-02 1.26500148e-02 1.00731598e-02 7.49630528e-03 2.34259525e-03 3.27963359e-03 1.63981679e-03 1.17129763e-03 2.34259540e-04 4.68519080e-04 2.34259540e-04 0.00000000e+00 
      </Histogram>
    </PDF>
    <PDF Name="MLP_PDFBkg" MinNSmooth="0" MaxNSmooth="0" InterpolMethod="5" KDE_type="1" KDE_iter="2" KDE_border="1" KDE_finefactor="3.0000001192092896e-01">
      <Histogram Name="MLP_tr_B_original" NBins="250" XMin="-7.0065394043922424e-02" XMax="1.0544219017028809e+00" HasEquidistantBins="1">
        3.64459440e-04 3.64459440e-04 7.28918880e-04 7.28918880e-04 1.82229720e-04 1.82229720e-04 1.09337829e-03 5.46689145e-04 7.28918880e-04 1.27560808e-03 3.64459440e-04 9.11148614e-04 2.00452702e-03 1.09337829e-03 1.09337829e-03 1.64006755e-03 9.65817552e-03 7.12518245e-02 2.95394391e-01 7.43315041e-01 1.31952548e+00 1.97445905e+00 2.55686522e+00 2.94738364e+00 3.25334716e+00 3.52650952e+00 3.46090698e+00 3.54527926e+00 3.69179201e+00 3.47056508e+00 3.16296124e+00 3.23803997e+00 3.33115935e+00 3.17280173e+00 2.84041476e+00 2.80542660e+00 2.82164502e+00 2.66346955e+00 2.57126141e+00 2.55085158e+00 2.41946411e+00 2.31340623e+00 2.27914715e+00 2.15195084e+00 2.06284046e+00 2.05044889e+00 1.99887788e+00 1.98921967e+00 1.91851449e+00 1.89427793e+00 1.86366343e+00 1.78639793e+00 1.72097754e+00 1.68489599e+00 1.63132048e+00 1.60179925e+00 1.55660629e+00 1.57592261e+00 1.54603696e+00 1.51378226e+00 1.49592376e+00 1.50558197e+00 1.47642517e+00 1.45182419e+00 1.39624417e+00 1.39314628e+00 1.34357977e+00 1.33173478e+00 1.29711115e+00 1.31843209e+00 1.31515193e+00 1.26941228e+00 1.26649654e+00 1.25793183e+00 1.29437768e+00 1.25009596e+00 1.24954927e+00 1.22640610e+00 1.21893466e+00 1.21456110e+00 1.18813777e+00 1.20508516e+00 1.19087124e+00 1.19615591e+00 1.17538166e+00 1.17046154e+00 1.13656676e+00 1.15169191e+00 1.13419783e+00 1.14130473e+00 1.13875353e+00 1.14422047e+00 1.11834383e+00 1.11251247e+00 1.10194314e+00 1.11233020e+00 1.12636197e+00 1.07588434e+00 1.09100938e+00 1.10813892e+00 1.08681810e+00 1.07315087e+00 1.08353794e+00 1.06823063e+00 1.06495047e+00 1.01921082e+00 1.05055439e+00 1.02358437e+00 1.01265061e+00 9.94063139e-01 1.00937045e+00 1.02959800e+00 1.00590813e+00 1.01647735e+00 1.01829970e+00 1.01720631e+00 9.98801112e-01 1.02959800e+00 9.92787540e-01 1.03542924e+00 9.85498369e-01 9.59803939e-01 9.64906394e-01 9.81489301e-01 9.48141277e-01 9.45043325e-01 9.26638126e-01 9.33380663e-01 8.83996367e-01 8.88916612e-01 8.84360850e-01 8.67960155e-01 8.31514239e-01 8.26229572e-01 8.51012826e-01 8.17847013e-01 8.17664742e-01 8.02175224e-01 7.94339359e-01 7.59169042e-01 7.72471786e-01 7.42586136e-01 7.53702164e-01 7.42221653e-01 7.32199013e-01 7.46595204e-01 7.17073977e-01 7.10878134e-01 7.13976085e-01 6.82450294e-01 6.76072299e-01 6.88463926e-01 6.99579895e-01 6.78441286e-01 6.70787632e-01 6.65685177e-01 6.39079630e-01 6.45093203e-01 6.33612752e-01 6.26505792e-01 6.31243765e-01 6.15207553e-01 6.12109661e-01 5.98806858e-01 5.90606511e-01 5.83681822e-01 5.79854965e-01 5.76210380e-01 5.50516009e-01 5.55618405e-01 5.59080780e-01 5.35026491e-01 5.29741824e-01 5.50333738e-01 5.52338302e-01 5.06963074e-01 5.23545980e-01 5.08420944e-01 4.83455449e-01 4.87828970e-01 4.85824436e-01 4.87464517e-01 4.57032144e-01 4.57578838e-01 4.42453772e-01 4.46645051e-01 4.23319638e-01 4.28968757e-01 4.13479239e-01 3.95074040e-01 3.74664307e-01 3.89242679e-01 3.55165720e-01 3.73388708e-01 3.58628094e-01 3.34573776e-01 3.28924656e-01 3.21453243e-01 3.06145936e-01 2.91020870e-01 2.91567564e-01 2.85371751e-01 2.69335538e-01 2.69882232e-01 2.46010125e-01 2.34529659e-01 2.20862418e-01 2.07195193e-01 2.01363847e-01 1.99177086e-01 1.73847154e-01 1.65646821e-01 1.38859048e-01 1.44143716e-01 1.26649663e-01 1.15898103e-01 1.03870943e-01 9.76751298e-02 9.12970901e-02 8.27322975e-02 6.88828379e-02 6.61493912e-02 5.22999316e-02 4.57396619e-02 4.04549986e-02 3.42591889e-02 2.40543243e-02 1.94985811e-02 1.96808111e-02 1.58539861e-02 1.36672296e-02 1.00226346e-02 4.19128360e-03 4.73797275e-03 2.55121617e-03 1.45783776e-03 2.55121617e-03 9.11148614e-04 5.46689145e-04 5.46689145e-04 3.64459440e-04 0.00000000e+00 0.00000000e+00 3.64459440e-04 0.00000000e+00 0.00000000e+00 0.00000000e+00 0.00000000e+00 0.00000000e+00 0.00000000e+00 
      </Histogram>
    </PDF>
  </MVAPdfs>
  <Weights>
    <Layout NLayers="4">
      <Layer Index="0" NNeurons="5">
        <Neuron NSynapses="4">
          -7.6888687315635140e+00 7.0458728027325690e-01 -9.5095386616718583e-02 3.5252629810923009e+00 
        </Neuron>
        <Neuron NSynapses="4">
          -3.6140934905455850e+00 7.6063341846862043e-01 -1.0537510674326336e+01 -5.2449364181319691e+00 
        </Neuron>
        <Neuron NSynapses="4">
          -2.7972098939938839e+00 -2.6862153711364161e+00 -7.5423061493274171e+00 -3.8237345689731703e+00 
        </Neuron>
        <Neuron NSynapses="4">
          1.3158009386066691e+00 2.4312575536912155e+00 -2.1551943533197879e+00 1.5465578354427556e+00 
        </Neuron>
        <Neuron NSynapses="4">
          -1.1626887551143929e+01 -1.5542884178338878e-01 -1.6769995804755698e+01 -4.2334989634143252e+00 
        </Neuron>
      </Layer>
      <Layer Index="1" NNeurons="5">
        <Neuron NSynapses="3">
          -1.0386408149224802e+00 -6.5372376762842572e+00 3.7691451676461671e+00 
        </Neuron>
        <Neuron NSynapses="3">
          -3.2735270220833095e+00 -2.9168998796940868e+00 -4.7479151727089626e+00 
        </Neuron>
        <Neuron NSynapses="3">
          -8.0004244201329733e-01 -3.9323887083384648e+00 -9.3867148250356411e+00 
        </Neuron>
        <Neuron NSynapses="3">
          3.4670487690963765e+00 3.1924271815326186e+00 -2.5591478199126820e+00 
        </Neuron>
        <Neuron NSynapses="3">
          -1.0528077141549745e+00 -3.0612213544452005e+00 6.6501176338128543e-01 
        </Neuron>
      </Layer>
      <Layer Index="2" NNeurons="4">
        <Neuron NSynapses="1">
          1.5072759425455302e+00 
        </Neuron>
        <Neuron NSynapses="1">
          -2.6106676446790575e+00 
        </Neuron>
        <Neuron NSynapses="1">
          1.2964556976762751e+00 
        </Neuron>
        <Neuron NSynapses="1">
          -1.2261988071747441e-01 
        </Neuron>
      </Layer>
      <Layer Index="3" NNeurons="1">
        <Neuron NSynapses="0"/>
      </Layer>
    </Layout>
    <InverseHessian NElements="1521" NRows="39" NCols="39">
      <Row Index="0">
        7.3935487791821808e-01 1.1291389329517371e-02 8.7297408141124522e-02 9.6407164518731533e-02 5.8018581231029903e-02 -3.1710703033302097e-02 1.9194185402943129e-01 -2.7627342934942994e-01 4.5406181927360109e-02 -2.4060760915671196e-02 9.8023164060839912e-02 -1.7569638447125197e-02 6.2094219627308114e-03 3.2885458238002083e-02 6.5053460351559941e-02 3.9381801470933717e-02 6.8863295349318809e-01 -4.1935020485347668e-02 2.2969330201609298e-01 -2.1226578444791069e-01 -1.4452640248085399e-01 1.4985015570858440e+00 2.9836460637826567e-01 8.4773127270763526e-02 4.4779589607229608e-01 -1.8147987914527472e-01 -6.6602629776791031e-02 1.5261154966958179e-02 -1.0719245246875995e+00 -1.0004896128568221e-01 -3.4820860257632580e-01 6.1941798986254570e-02 1.2818892085153102e-01 -8.6824054274982063e-02 -9.2464628937001803e-02 -6.0596158926301463e-02 -4.1616029188632592e-01 9.1728916907330704e-03 8.2877392170947316e-03 
      </Row>
      <Row Index="1">
        1.1291389329467473e-02 1.1463705259105658e-02 7.7900186603948544e-03 1.6463439432841703e-02 -5.5017884576381050e-03 -1.4549142541759971e-02 6.1295569924335056e-03 -3.7833155418680160e-02 -3.3009647294731789e-03 -5.6939733362159992e-03 6.0804132281693036e-03 -1.6919492838676834e-02 4.3849195748117101e-04 1.1199776207112483e-03 3.8772008087751078e-04 6.0087193120776389e-03 3.8901377719490222e-03 -5.9017613496518710e-03 1.3721098345948439e-02 -3.5576473275017242e-02 -6.2782178341491655e-03 7.7216782235531620e-02 4.6251225105416512e-03 3.2251835799003616e-03 -2.2929674544781547e-03 -1.4489195888152411e-02 -3.5535220282832940e-04 7.4727120261409985e-03 -3.7838937021162318e-02 -1.4903033970010089e-02 -1.3359734662831134e-02 2.7381400343775036e-02 1.4167360074862738e-02 8.4916172750498058e-03 -9.5660138742911776e-03 1.0719682952490261e-03 -1.5289124519466263e-02 4.2949617008480520e-05 -7.3625496177103650e-05 
      </Row>
      <Row Index="2">
        8.7297408141343458e-02 7.7900186604266640e-03 2.1516669961175772e-01 1.3281748741877705e-02 3.4569503633705569e-02 -2.4785535851990881e-03 -2.1529189257926074e-01 -7.1349492518726645e-02 5.1242966645764582e-02 -1.0238974268210623e-02 -1.5713024251716359e-01 -1.8444226822834302e-02 5.0289053511452686e-02 1.6153967683660158e-02 -2.0126779627363561e-02 -2.2597751580733183e-02 1.4237530541666324e-01 -1.6123822490673664e-04 -1.3866410864571282e-01 -7.4730673400125611e-02 -4.9604956475454764e-02 1.3132547126175040e-01 -5.8223772989083877e-02 -9.8789445591649885e-02 1.6632203363053263e-01 6.8086875766350557e-02 -5.5286067600406663e-02 3.7096990979417918e-02 -1.7152645691663526e-02 1.3964004538352232e-01 -4.3488648936799358e-02 -6.8780428010430626e-03 9.1638357387032049e-02 1.7678292863811648e-01 -4.8793474396876035e-02 -1.2060498057060606e-01 4.9446000644184857e-01 1.7268752977750018e-02 5.5770180019761636e-03 
      </Row>
      <Row Index="3">
        9.6407164521505606e-02 1.6463439433022455e-02 1.3281748742648347e-02 3.3815292918459094e-01 9.1776272715595339e-02 -4.0863868682892435e-02 -2.8923327890834110e-02 -7.1168602373263790e-01 -6.2922742433627592e-03 -1.5001256101976650e-02 -4.5587874625283097e-02 -1.8427141015438389e-01 3.4883696879143056e-02 -1.9869971733892707e-04 4.5076740068915305e-03 -8.7487473212117806e-02 1.5377906074323050e-01 -3.9106245228631750e-02 -3.7804867225365996e-02 -5.2918913465830675e-01 -3.7420063413985353e-03 3.4499048383774233e-01 -2.4292761164098607e-03 4.3664869707528292e-01 8.2139965594011530e-02 -3.6185114962518350e-01 6.6195728406407261e-03 2.3384569581204021e-01 1.3722672114375079e-01 -4.2452998161416411e-01 -1.4763775130986642e-01 3.9055473408181085e-01 -1.5616519603714327e-01 -1.8926868072081882e-02 -3.6926597250381429e-02 1.9137312042813115e-01 -2.8318978039471965e-01 2.2828462803137654e-02 1.4455440988585151e-03 
      </Row>
      <Row Index="4">
        5.8018581233750033e-02 -5.5017884574447840e-03 3.4569503634704749e-02 9.1776272717015439e-02 3.7799200930248855e-01 -8.4762578778874581e-03 -1.4022295553186509e-01 -2.2050953634207693e-01 6.1263223306884482e-02 -1.6925950416265680e-02 -1.8584749866099998e-01 -3.6020837356911493e-02 9.7867069305788063e-02 6.6931093401319947e-03 -2.8938071052929774e-02 -4.7786550797972449e-02 4.3142609829534462e-01 -2.3245472477042960e-02 -2.3055640554928669e-01 -1.6183739692461846e-01 1.2460459325022752e-02 3.8914996223468340e-01 3.9333745912174249e-02 2.5705223894270002e-01 -2.3086177668819746e-01 -2.4127016904819062e-01 1.7929786795180536e-03 2.4131306717903706e-01 1.6416062124719744e-01 -2.3094802545583173e-01 2.2764339157063032e-01 1.6103546254252152e-01 -1.9183816999674741e-01 1.8278135074025265e-01 -1.2918822405466449e-02 2.2166894058477327e-01 3.6417458296278499e-01 6.0506264455229899e-03 9.4452807282034007e-04 
      </Row>
      <Row Index="5">
        -3.1710703033452921e-02 -1.4549142541774441e-02 -2.4785535852299796e-03 -4.0863868682765425e-02 -8.4762578775504863e-03 3.0097201982345861e-02 -2.1655484575801675e-03 1.0132252555359188e-01 -5.3032210153650698e-03 2.6855185048936898e-03 -6.8306540342256425e-03 2.3733107249633147e-02 5.6894366460975528e-04 5.5774261701238507e-03 9.5324423270754530e-05 3.1502394287281354e-03 -3.7023958925144054e-02 1.8158827918444510e-02 -9.4664479638740008e-03 8.5207575652157572e-02 4.4851541183529905e-03 -1.5343896739297588e-01 -2.6912138679025605e-02 -4.2352351853377677e-02 1.5088824823119603e-02 8.0875465060661081e-02 1.2830471827925528e-03 -2.4878210271889082e-02 3.0345748658497814e-02 6.0423018796517923e-02 1.2019445541916401e-02 -6.2364035387890995e-02 -4.5438836507352750e-03 -2.5449061310221510e-02 4.2597400034060694e-03 -2.4954730424538361e-02 6.6649054525487993e-03 4.2326284098559031e-03 4.2015832420755578e-04 
      </Row>
      <Row Index="6">
        1.9194185402401828e-01 6.1295569920679152e-03 -2.1529189258167661e-01 -2.8923327894942480e-02 -1.4022295553118569e-01 -2.1655484570038963e-03 1.3318682427078297e+00 2.5148243555440414e-01 -1.3633649672145992e-01 3.7733209750669169e-02 7.7374294316596237e-01 9.7348075721237437e-02 -1.0563074958910096e-01 8.0615618486029952e-03 2.7186532778360822e-01 1.3204000662263926e-01 -7.0179414252641736e-02 1.0494668117628331e-02 1.2869778851474647e+00 2.6706386388903192e-01 -2.5836245833858518e-02 -1.3491451162518583e-01 2.1176546962680259e-01 -1.9285987980431543e-01 3.7488683112696786e-01 -2.7936106471481828e-02 -1.2425052591646740e-01 -1.5145047800133447e+00 -3.3976491278977949e+00 5.7577777913376045e-02 -5.6532013455837593e-01 6.3799479494666689e-04 2.4352823384789954e-01 -4.2127808324248628e-01 2.1125874708218206e-02 -2.4177583356596488e-01 -1.2100926549680735e+00 -1.7937219773451550e-02 5.5951292814366699e-03 
      </Row>
      <Row Index="7">
        -2.7627342935830634e-01 -3.7833155419215066e-02 -7.1349492521275426e-02 -7.1168602373293766e-01 -2.2050953633763670e-01 1.0132252555393045e-01 2.5148243554124045e-01 2.1350482093369889e+00 -8.2594328720874216e-02 1.5106262997848070e-02 1.9758362459319315e-01 3.8766625512888586e-01 -5.6742261794128335e-02 1.3798654332346064e-02 1.9260067621259248e-02 4.4390145862571107e-01 -4.7609900240282088e-01 8.2239541937810481e-02 2.7022567874712239e-01 1.7182798396190826e+00 4.2393120285140848e-02 -1.1457051044433131e+00 -2.6649328682107860e-02 -1.4275173502128020e+00 -3.3207671172489750e-01 1.1013143624100235e+00 1.7461475974633781e-02 -7.2956593992875796e-01 -5.8403711358261878e-01 1.1673160448650692e+00 3.1798648461422951e-01 -1.0165287234827458e+00 5.2547677228312095e-01 5.1358502346204860e-01 1.9193963040465396e-02 -5.2964763678635873e-01 1.5002350173678185e+00 -4.3858700791050365e-02 -2.6069212917854967e-04 
      </Row>
      <Row Index="8">
        4.5406181928334927e-02 -3.3009647294158784e-03 5.1242966646116807e-02 -6.2922742429229808e-03 6.1263223306622414e-02 -5.3032210154444794e-03 -1.3633649672095716e-01 -8.2594328722270641e-02 9.0222303391077840e-02 1.1964721359958772e-02 -7.7401344881103631e-02 4.1232321692448087e-02 1.9787087289858288e-02 -3.7570752429078357e-03 -2.5101816332462792e-02 -3.7882921887034793e-02 1.4956846473686958e-01 9.3773199158784376e-04 -1.3259631199335295e-01 -5.6604393532524805e-02 -1.9485430724982045e-02 3.3358784333582880e-01 2.9813546665988573e-02 8.1256123625119914e-02 6.3400524669188375e-03 -8.1365794177510886e-02 -6.1111441016999876e-03 1.3751685989593487e-01 1.0123599953801457e-01 -4.3638061903163904e-02 6.5608581286157819e-02 6.9789002853810119e-04 -4.1807606337083435e-02 3.0673184801250461e-02 2.3823715057974208e-02 4.4967738121642342e-02 1.1696423117035333e-01 -1.2854532545812137e-02 5.3690709285003201e-04 
      </Row>
      <Row Index="9">
        -2.4060760915779401e-02 -5.6939733362345391e-03 -1.0238974268267236e-02 -1.5001256101840062e-02 -1.6925950415980291e-02 2.6855185049043670e-03 3.7733209750312975e-02 1.5106262997454231e-02 1.1964721360014231e-02 1.8691916144416020e-02 3.1073962205682339e-02 2.8376627317610054e-02 -7.9834327380321132e-03 -7.7453742070220663e-03 1.1455993532315736e-02 -1.7532482612527461e-02 -3.0317101874165329e-02 5.1835716320042923e-03 4.3763318283443424e-02 1.9275849579348303e-02 1.1833398867403684e-02 -9.2339510490914989e-02 9.0188689041271206e-04 -1.0628243687682689e-04 -2.4178452140053857e-02 -2.8422033090118495e-02 -1.3900181617855166e-02 -7.2322121598176192e-02 -8.4257729569499479e-02 1.3434488734703020e-02 3.1760702434891847e-02 -6.6499997343974996e-03 -1.6543952805100830e-02 1.6103519860882348e-02 2.6649174552380948e-02 1.4094076704447081e-03 7.4376737548593641e-02 -6.2679280416765258e-03 -8.8211106934864975e-06 
      </Row>
      <Row Index="10">
        9.8023164057547435e-02 6.0804132279273365e-03 -1.5713024251858476e-01 -4.5587874627198682e-02 -1.8584749866008696e-01 -6.8306540338791133e-03 7.7374294316514547e-01 1.9758362459933651e-01 -7.7401344881233305e-02 3.1073962205896626e-02 5.7805772035763403e-01 9.9518031386830158e-02 -9.6520281377535294e-02 -4.7158773123409424e-03 1.7314280376636587e-01 7.7092253004346745e-02 -1.4465022052216459e-01 9.2621294023336655e-03 7.9703734635939694e-01 2.1539885625967409e-01 3.0963866478812288e-02 -2.6933244541879087e-01 1.5407547978108493e-01 -9.8287134100091267e-02 1.6230816561491682e-02 -3.8376978629581997e-02 -5.6865621917615773e-02 -1.0013893582410480e+00 -2.1895095547104546e+00 1.2846204837524307e-02 -1.4358127056349418e-01 -9.0283432151201382e-03 9.2959592932607887e-02 -1.4923923904917963e-01 5.0900225983355966e-02 -8.3623246881344149e-02 -3.8461574489543648e-01 -2.5508508113737137e-02 -2.4932869532964079e-03 
      </Row>
      <Row Index="11">
        -1.7569638448516577e-02 -1.6919492838781379e-02 -1.8444226823143402e-02 -1.8427141015419601e-01 -3.6020837355902516e-02 2.3733107249704032e-02 9.7348075718538138e-02 3.8766625512813446e-01 4.1232321692738848e-02 2.8376627317643958e-02 9.9518031385388533e-02 2.5595711040635805e-01 -2.6473368882069720e-02 -6.5781831900143580e-03 2.4164656709511532e-02 1.6853650926424879e-02 -3.3809260937946048e-02 1.9082840773750238e-02 1.1759882287471321e-01 3.8105414698663742e-01 -2.3928850488524243e-02 1.9171166972094200e-02 9.2467519867780207e-02 -1.5634658810755045e-01 6.6396223437247992e-02 1.2102462868180730e-02 -6.2962323331298272e-03 -1.8728408163886279e-01 -4.6900293968106660e-01 1.8673468626192721e-01 1.3577416938169912e-02 -1.8873621471547353e-01 4.4131526731584991e-02 3.5835678703749346e-03 8.5196938730204508e-02 -8.6902414293443336e-02 1.0696116284881207e-01 -3.6018849016121596e-02 4.5100108843780205e-03 
      </Row>
      <Row Index="12">
        6.2094219635500728e-03 4.3849195754046277e-04 5.0289053511718557e-02 3.4883696879415574e-02 9.7867069305598020e-02 5.6894366452204907e-04 -1.0563074958876251e-01 -5.6742261794971598e-02 1.9787087289867746e-02 -7.9834327380969745e-03 -9.6520281377477896e-02 -2.6473368882302350e-02 6.3581334347312723e-02 1.3065721712425073e-02 -1.8217463949642076e-02 2.5501855520342342e-03 1.1814886772000069e-01 1.1587010215477287e-03 -1.2197644350443307e-01 -3.7191139641138175e-02 -1.0972267840518579e-03 -2.9698037918430953e-02 -3.0610112189563207e-02 2.9679240905858925e-02 -4.2249302951318846e-02 -1.9416501198734087e-02 1.0453124406233361e-03 1.0266010017400884e-01 1.2473829330943818e-01 -2.1414528616928306e-02 4.1901809004432938e-02 4.1753911944941435e-02 -3.2944254403548021e-02 6.5345959713787954e-02 -1.8491692943186765e-02 2.9700569868352445e-02 1.4295500576059819e-01 9.9836971094845184e-03 1.1956861007871894e-03 
      </Row>
      <Row Index="13">
        3.2885458237916831e-02 1.1199776207096086e-03 1.6153967683605486e-02 -1.9869971760851438e-04 6.6931093399607141e-03 5.5774261701406888e-03 8.0615618489766495e-03 1.3798654333206015e-02 -3.7570752429767033e-03 -7.7453742070081972e-03 -4.7158773120996658e-03 -6.5781831898800713e-03 1.3065721712365115e-02 1.1774002338298032e-02 5.3572756239173101e-04 1.7284194941499464e-02 3.5846373921535023e-02 5.6534667145798877e-03 8.7615407077893601e-03 1.2497823235740174e-02 -1.2054965969636429e-02 3.5268269897678617e-02 -5.3013159807939209e-05 -1.6450298840907165e-02 4.7910817324284205e-02 3.8670124130215255e-02 1.9471180957928349e-03 6.7282757700790619e-03 -6.2302474785888518e-02 1.3724211527134321e-02 -4.0535990703726682e-02 -9.8581739258490030e-03 2.0989189896707214e-02 -2.8459913158548074e-02 -1.7536657109348541e-02 -2.0247167294530941e-02 -7.5604144933510170e-02 5.3870564488397001e-03 5.0159532993155351e-04 
      </Row>
      <Row Index="14">
        6.5053460350645104e-02 3.8772008081181236e-04 -2.0126779627816269e-02 4.5076740060813964e-03 -2.8938071052747632e-02 9.5324423382087131e-05 2.7186532778383282e-01 1.9260067623965167e-02 -2.5101816332586666e-02 1.1455993532369157e-02 1.7314280376660415e-01 2.4164656710032838e-02 -1.8217463949690139e-02 5.3572756233790557e-04 8.0011158615898165e-02 6.5899853700491784e-03 3.4173443923087993e-03 -6.2006552141188279e-04 2.8234262514818897e-01 3.6376123838651249e-02 9.6766475062442653e-03 -1.4919712071354324e-01 3.8996387602495582e-02 -2.0294285224253181e-02 3.8057205113513543e-02 -3.6016542156208149e-02 -4.5920938723438491e-02 -4.2101114198729350e-01 -8.4447443856122884e-01 1.8838238132577432e-02 -5.5126557043505504e-02 3.6043518863533339e-02 1.8445785249794146e-02 -2.3834031538048930e-02 6.0275282888254521e-03 -4.3422454704104385e-02 -3.3642797788426548e-02 3.1592617126535993e-03 1.1210102040648210e-03 
      </Row>
      <Row Index="15">
        3.9381801468243771e-02 6.0087193119385957e-03 -2.2597751581635104e-02 -8.7487473213216080e-02 -4.7786550797776439e-02 3.1502394288799342e-03 1.3204000662088369e-01 4.4390145862879060e-01 -3.7882921886973134e-02 -1.7532482612341197e-02 7.7092253003891192e-02 1.6853650927179831e-02 2.5501855519313721e-03 1.7284194941264534e-02 6.5899853696098042e-03 2.1927340214088309e-01 -2.6671256831791196e-02 6.8233308287092547e-03 1.2988654832559751e-01 3.7144091906371002e-01 -3.8776417210652059e-02 8.6084458686063403e-02 4.8824377084213139e-02 -4.0291504294366648e-01 3.8801511687321058e-02 3.0725551469536805e-01 3.0308648648074060e-02 -1.1552123636933587e-01 -3.0975080446504766e-01 2.2284695670665519e-01 -1.3390545503509599e-01 -2.2738226231888692e-01 2.4695852774877722e-01 8.7139090377400530e-02 -5.8721632299816154e-02 -1.6493590066662159e-01 4.6523680544328760e-02 -7.9840727188589949e-03 1.4871093678296907e-03 
      </Row>
      <Row Index="16">
        6.8863295349640707e-01 3.8901377722053709e-03 1.4237530541763882e-01 1.5377906074256442e-01 4.3142609829294060e-01 -3.7023958925383862e-02 -7.0179414248450492e-02 -4.7609900240061914e-01 1.4956846473632540e-01 -3.0317101874375585e-02 -1.4465022052019955e-01 -3.3809260937913282e-02 1.1814886771949593e-01 3.5846373921812016e-02 3.4173443929777884e-03 -2.6671256829809753e-02 1.0668473016869724e+00 -4.8492184822264965e-02 -1.1662836269651106e-01 -3.5919673912211925e-01 -1.1264943318345026e-01 1.7795060028471883e+00 2.8534541026601534e-01 3.6595740814086020e-01 1.2354299370253259e-01 -3.9164893208759777e-01 -4.2932814730544250e-02 3.5563838652565227e-01 -6.2051657774912461e-01 -3.3448694621252739e-01 -7.6138718038437636e-04 1.9477838479492615e-01 -1.0325149826462320e-01 1.0132971926447704e-01 -7.8029871730404030e-02 1.9625226311104799e-01 5.5383896792516069e-02 5.8044563579905568e-03 5.9523832938505709e-03 
      </Row>
      <Row Index="17">
        -4.1935020485551401e-02 -5.9017613496760227e-03 -1.6123822497942893e-04 -3.9106245228546499e-02 -2.3245472476724004e-02 1.8158827918459828e-02 1.0494668117150132e-02 8.2239541937559030e-02 9.3773199166434658e-04 5.1835716320109372e-03 9.2621294020669553e-03 1.9082840773739219e-02 1.1587010216191182e-03 5.6534667145577812e-03 -6.2006552149847531e-04 6.8233308285380791e-03 -4.8492184822088058e-02 2.0768026889581299e-02 1.3988015183428541e-02 6.7852783197475508e-02 7.0999105661625293e-03 -1.2105602515085824e-01 -2.7244966250485669e-02 -3.0823938728474568e-02 -1.1237541081151374e-02 7.5359973105047939e-02 7.3004647769562593e-03 -1.3054018360562438e-02 4.7419503446318456e-03 4.0977285672855662e-02 2.3965708298030262e-02 -4.8276706515623213e-02 -8.2806656658067183e-04 -3.5550056465718217e-02 8.9713442078752561e-03 -1.3694962518408651e-02 -2.8733522742092961e-02 -4.8285840486654509e-04 -1.1883732872447843e-03 
      </Row>
      <Row Index="18">
        2.2969330201010857e-01 1.3721098345535719e-02 -1.3866410864833781e-01 -3.7804867229898072e-02 -2.3055640554874385e-01 -9.4664479632013410e-03 1.2869778851480413e+00 2.7022567876163284e-01 -1.3259631199395999e-01 4.3763318283881567e-02 7.9703734636066892e-01 1.1759882287771101e-01 -1.2197644350484080e-01 8.7615407073906096e-03 2.8234262514809821e-01 1.2988654832750601e-01 -1.1662836270135953e-01 1.3988015184000453e-02 1.3552079776124490e+00 2.8869346486329839e-01 -3.4488340706387483e-02 -1.5328432277906945e-01 2.0960754032778400e-01 -2.6008700806389440e-01 4.0840111308973059e-01 2.1809601473469428e-03 -1.3834926183951879e-01 -1.5099694195300923e+00 -3.2899298001939283e+00 1.3899754477630899e-01 -5.3882104762974725e-01 -1.3701811266419284e-02 2.9442015335531457e-01 -2.6345580199831586e-01 2.3622428689203962e-02 -2.9842318546578500e-01 -7.8547329058922988e-01 -2.0592353441067225e-02 5.6427797574697888e-03 
      </Row>
      <Row Index="19">
        -2.1226578445487243e-01 -3.5576473275445018e-02 -7.4730673402075787e-02 -5.2918913465833450e-01 -1.6183739692078586e-01 8.5207575652415712e-02 2.6706386387794623e-01 1.7182798396184298e+00 -5.6604393531328484e-02 1.9275849579616165e-02 2.1539885625432711e-01 3.8105414698711543e-01 -3.7191139640367354e-02 1.2497823235065077e-02 3.6376123836370018e-02 3.7144091906111054e-01 -3.5919673912346012e-01 6.7852783197639779e-02 2.8869346485105574e-01 1.4762756678150875e+00 2.7165792572641317e-02 -8.7302925002810472e-01 9.6738440732137866e-03 -1.0865896324563291e+00 -2.3535314617216585e-01 7.9159543654307429e-01 4.1294791990370512e-02 -6.3491306611560638e-01 -6.8721102172724702e-01 8.7849010697008745e-01 2.1258917362408636e-01 -7.6111166856292867e-01 3.7636362251392208e-01 4.2628241399497346e-01 4.7734320890763168e-02 -3.9587793560800477e-01 1.1978353532593231e+00 -4.2033073464299492e-02 1.8666381130677534e-03 
      </Row>
      <Row Index="20">
        -1.4452640247973303e-01 -6.2782178341110207e-03 -4.9604956475017607e-02 -3.7420063395973147e-03 1.2460459326501479e-02 4.4851541181751952e-03 -2.5836245836545427e-02 4.2393120279546587e-02 -1.9485430724409891e-02 1.1833398867240885e-02 3.0963866476975500e-02 -2.3928850489417841e-02 -1.0972267835622218e-03 -1.2054965969605209e-02 9.6766475057772430e-03 -3.8776417211955572e-02 -1.1264943318075972e-01 7.0999105659486743e-03 -3.4488340709337234e-02 2.7165792568225058e-02 1.5419407180015010e-01 -6.8521539455966396e-01 -6.3735477920771916e-02 1.4725687347330141e-01 -4.5812904676912203e-01 -9.1649480758443647e-03 2.7161918643350033e-02 -8.9417779036759626e-02 1.0786310026971779e-01 -1.3649682266848689e-01 4.4002256374034676e-01 4.1230369054767194e-02 -1.9866409232458596e-01 1.0765574044648918e-01 3.0887504869801932e-02 2.0844707484124037e-01 4.6590173668026752e-01 8.7338146506678056e-04 -1.4809916676079121e-02 
      </Row>
      <Row Index="21">
        1.4985015570890412e+00 7.7216782235894871e-02 1.3132547126295671e-01 3.4499048383305725e-01 3.8914996222633469e-01 -1.5343896739296642e-01 -1.3491451161200296e-01 -1.1457051044294835e+00 3.3358784333372060e-01 -9.2339510490801885e-02 -2.6933244541118950e-01 1.9171166974163656e-02 -2.9698037920566134e-02 3.5268269898073176e-02 -1.4919712071121494e-01 8.6084458691488841e-02 1.7795060028404812e+00 -1.2105602515063417e-01 -1.5328432276371290e-01 -8.7302925001785825e-01 -6.8521539456473768e-01 8.1372934659209104e+00 8.4738519814046653e-01 5.1434116603222191e-01 1.4290484427140444e+00 -8.0171600184279745e-01 -8.2067991570356248e-03 2.2650581170303727e+00 5.6386955369550407e-02 -7.0047670336863255e-01 -1.3718796631218519e+00 1.8122522590553042e-01 3.5191351655815745e-01 -2.9356181496989153e-01 -1.4694122402604337e-01 1.5403328899612434e-01 -2.5146584172193958e+00 -9.3876252177189756e-02 4.2472677492420521e-02 
      </Row>
      <Row Index="22">
        2.9836460637790707e-01 4.6251225105295932e-03 -5.8223772989163439e-02 -2.4292761171110372e-03 3.9333745911633008e-02 -2.6912138678984211e-02 2.1176546962702078e-01 -2.6649328680113750e-02 2.9813546665865571e-02 9.0188689044203409e-04 1.5407547978130115e-01 9.2467519868235981e-02 -3.0610112189748608e-02 -5.3013159841666570e-05 3.8996387602489614e-02 4.8824377084630943e-02 2.8534541026509175e-01 -2.7244966250455017e-02 2.0960754032813936e-01 9.6738440748167405e-03 -6.3735477920960334e-02 8.4738519813961788e-01 2.9593312925779675e-01 6.5480612690608134e-02 1.2477588887258595e-01 -2.1435424069669717e-01 -1.9853019510380838e-02 4.8326761158851594e-02 -7.6793925042746447e-01 -1.4063198752893225e-01 -1.2542022741445072e-01 -4.5474246297471786e-02 4.8421436345398500e-02 -7.5436242419663083e-02 1.8832977219386378e-02 5.7365907786252689e-02 -3.9907308292606114e-01 -4.4363273135641076e-02 4.1247801511123576e-03 
      </Row>
      <Row Index="23">
        8.4773127280565630e-02 3.2251835804171462e-03 -9.8789445588293154e-02 4.3664869707905907e-01 2.5705223894189017e-01 -4.2352351854005030e-02 -1.9285987980007599e-01 -1.4275173502240814e+00 8.1256123625235654e-02 -1.0628243760385514e-04 -9.8287134099543039e-02 -1.5634658811000102e-01 2.9679240906178850e-02 -1.6450298840115403e-02 -2.0294285223241990e-02 -4.0291504294371805e-01 3.6595740814817834e-01 -3.0823938729152515e-02 -2.6008700805899299e-01 -1.0865896324659050e+00 1.4725687346828009e-01 5.1434116605511271e-01 6.5480612692532192e-02 1.6221547988515088e+00 -2.4088022273697374e-01 -9.6642217002499842e-01 1.5429551341305861e-01 8.8533495372556814e-01 7.6952293459826782e-01 -1.3305615918689446e+00 3.2127730144723721e-01 7.9863544468669634e-01 -8.5562150192620123e-01 -8.1982589095908254e-01 9.3444326129514255e-02 8.9071934444583445e-01 -1.8741633405136717e+00 8.1395209514098510e-03 -2.6009714248153723e-02 
      </Row>
      <Row Index="24">
        4.4779589606659098e-01 -2.2929674547571563e-03 1.6632203362795792e-01 8.2139965584495434e-02 -2.3086177669550789e-01 1.5088824824220363e-02 3.7488683114218263e-01 -3.3207671169516428e-01 6.3400524638266287e-03 -2.4178452139155787e-02 1.6230816571733142e-02 6.6396223442072300e-02 -4.2249302953881296e-02 4.7910817324162983e-02 3.8057205116258014e-02 3.8801511694053659e-02 1.2354299368891070e-01 -1.1237541079916834e-02 4.0840111310614485e-01 -2.3535314614856151e-01 -4.5812904676864658e-01 1.4290484426865575e+00 1.2477588887185298e-01 -2.4088022276207854e-01 2.9008358569433836e+00 1.5099043636403631e-01 -8.7739904210021702e-02 -3.7927363289141880e-01 -8.9265859265527048e-01 3.2801413737303958e-01 -2.6294573523355265e+00 -1.6040792971543952e-01 9.4416514662432305e-01 -1.8850690742104805e+00 -1.1203611359890227e-01 -1.0792201193490563e+00 -4.8936663311265987e+00 2.6257441468455933e-02 3.0586801097239658e-02 
      </Row>
      <Row Index="25">
        -1.8147987915102270e-01 -1.4489195888475886e-02 6.8086875764393873e-02 -3.6185114962705955e-01 -2.4127016904726878e-01 8.0875465061023444e-02 -2.7936106474879499e-02 1.1013143624154937e+00 -8.1365794177364836e-02 -2.8422033089684866e-02 -3.8376978630368569e-02 1.2102462869459818e-02 -1.9416501198804781e-02 3.8670124129730830e-02 -3.6016542156971233e-02 3.0725551469502044e-01 -3.9164893209132390e-01 7.5359973105442513e-02 2.1809601434782597e-03 7.9159543654776887e-01 -9.1649480726148230e-03 -8.0171600185551384e-01 -2.1435424069774772e-01 -9.6642217002349384e-01 1.5099043634753029e-01 1.0599981320887171e+00 3.2889157257018263e-02 -3.0569825967655717e-01 2.4043904877490085e-01 7.9405742793682232e-01 -1.2593859542280850e-01 -6.5476308299503327e-01 5.1394999941427255e-01 4.8267160240087259e-02 -1.2608222506818398e-01 -5.1770901455327445e-01 3.4495020860862324e-01 2.7210543530693770e-02 -4.9932709698548017e-03 
      </Row>
      <Row Index="26">
        -6.6602629775805583e-02 -3.5535220278056640e-04 -5.5286067599930072e-02 6.6195728416375554e-03 1.7929786797861239e-03 1.2830471826894146e-03 -1.2425052591756598e-01 1.7461475971301370e-02 -6.1111441014321047e-03 -1.3900181617950192e-02 -5.6865621918419221e-02 -6.2962323336993031e-03 1.0453124407899111e-03 1.9471180958475455e-03 -4.5920938723620450e-02 3.0308648647418446e-02 -4.2932814729307878e-02 7.3004647768491774e-03 -1.3834926184058643e-01 4.1294791987628379e-02 2.7161918642977956e-02 -8.2067991537186913e-03 -1.9853019510305624e-02 1.5429551341511469e-01 -8.7739904208109704e-02 3.2889157255684455e-02 1.3003864406123439e-01 3.5760222118466478e-01 6.7134703115686056e-01 -1.6597866042046813e-01 5.8979670241091575e-02 2.1423427894678732e-02 -8.9493051173378926e-02 -2.0392415889430243e-01 2.6411602687407346e-03 1.2795370656339841e-01 -4.7936718119993327e-01 -6.0293669666701757e-04 -9.6980200595855916e-03 
      </Row>
      <Row Index="27">
        1.5261154977712410e-02 7.4727120268099356e-03 3.7096990984261224e-02 2.3384569581859715e-01 2.4131306717793791e-01 -2.4878210272928025e-02 -1.5145047800146179e+00 -7.2956593995019126e-01 1.3751685989704238e-01 -7.2322121598981201e-02 -1.0013893582435176e+00 -1.8728408164301324e-01 1.0266010017463156e-01 6.7282757708038779e-03 -4.2101114198727285e-01 -1.1552123637181211e-01 3.5563838653414354e-01 -1.3054018361529730e-02 -1.5099694195301805e+00 -6.3491306613373899e-01 -8.9417779042522988e-02 2.2650581170589543e+00 4.8326761160012555e-02 8.8533495373077398e-01 -3.7927363286187865e-01 -3.0569825968171577e-01 3.5760222118261009e-01 4.2762368644680606e+00 5.5893208174324407e+00 -8.3958808310571076e-01 4.7499253000703723e-01 9.7831649936932774e-02 -6.2099480018132913e-01 -3.1806016497358747e-01 -2.4107025559781108e-02 9.4735744635049635e-01 -1.4856407547248889e+00 -3.5212138900180739e-02 -6.3853115662516197e-03 
      </Row>
      <Row Index="28">
        -1.0719245246741806e+00 -3.7838937020324315e-02 -1.7152645685201029e-02 1.3722672115677170e-01 1.6416062124752653e-01 3.0345748657017557e-02 -3.3976491279040051e+00 -5.8403711362484156e-01 1.0123599954025037e-01 -8.4257729570475726e-02 -2.1895095547159391e+00 -4.6900293968925222e-01 1.2473829331096531e-01 -6.2302474785036872e-02 -8.4447443856167914e-01 -3.0975080447246306e-01 -6.2051657773613977e-01 4.7419503433421550e-03 -3.2899298001989203e+00 -6.8721102176234683e-01 1.0786310026418450e-01 5.6386955405082873e-02 -7.6793925042757150e-01 7.6952293461909904e-01 -8.9265859262312763e-01 2.4043904876079730e-01 6.7134703115514360e-01 5.5893208174411519e+00 1.4267683517432312e+01 -4.0314995422015254e-01 1.1909519388601764e+00 3.8095254400283607e-02 -7.7877469050166992e-01 5.1673971934451801e-01 1.0084878258862437e-03 8.1486783445182920e-01 1.3849563893211603e+00 5.9560928114542527e-02 -3.0847986479334483e-02 
      </Row>
      <Row Index="29">
        -1.0004896129359009e-01 -1.4903033970435631e-02 1.3964004538080654e-01 -4.2452998161730071e-01 -2.3094802545523815e-01 6.0423018797072126e-02 5.7577777910722341e-02 1.1673160448746993e+00 -4.3638061903398029e-02 1.3434488735296762e-02 1.2846204837472980e-02 1.8673468626384937e-01 -2.1414528617191009e-02 1.3724211526527780e-02 1.8838238131945385e-02 2.2284695670687249e-01 -3.3448694621857156e-01 4.0977285673436545e-02 1.3899754477309101e-01 8.7849010697821750e-01 -1.3649682266439672e-01 -7.0047670338817980e-01 -1.4063198753061493e-01 -1.3305615918695410e+00 3.2801413735277041e-01 7.9405742793850465e-01 -1.6597866041894699e-01 -8.3958808310296007e-01 -4.0314995420554478e-01 1.2539552088448129e+00 -2.6471704620908554e-01 -6.4743484270739593e-01 6.6739998176731918e-01 6.4843354121749264e-01 -4.3528202769867276e-02 -8.3600456904828413e-01 1.7260114703928746e+00 1.2165290871040513e-02 2.5105414471585735e-02 
      </Row>
      <Row Index="30">
        -3.4820860256981601e-01 -1.3359734662513167e-02 -4.3488648933886154e-02 -1.4763775130031020e-01 2.2764339157753974e-01 1.2019445540803642e-02 -5.6532013457246111e-01 3.1798648458455503e-01 6.5608581289118728e-02 3.1760702433964116e-02 -1.4358127057323106e-01 1.3577416933204134e-02 4.1901809006950064e-02 -4.0535990703521263e-02 -5.5126557045987970e-02 -1.3390545504154261e-01 -7.6138716657386807e-04 2.3965708296773636e-02 -5.3882104764489525e-01 2.1258917360043458e-01 4.4002256373935794e-01 -1.3718796630935550e+00 -1.2542022741368825e-01 3.2127730147091521e-01 -2.6294573523329605e+00 -1.2593859543862135e-01 5.8979670242578899e-02 4.7499253003400099e-01 1.1909519388882801e+00 -2.6471704622807396e-01 2.6627925470761724e+00 7.1357188565643270e-02 -9.6863953218484500e-01 1.7900304398464297e+00 1.2031212145947362e-01 1.0363525126442528e+00 4.9843300459651143e+00 -2.3473603070024662e-02 -3.0912422408772955e-02 
      </Row>
      <Row Index="31">
        6.1941798991079655e-02 2.7381400344052037e-02 -6.8780427996161242e-03 3.9055473408276886e-01 1.6103546254138149e-01 -6.2364035388142211e-02 6.3799479957277194e-04 -1.0165287234851657e+00 6.9789002817510770e-04 -6.6499997347238479e-03 -9.0283432133829722e-03 -1.8873621471627766e-01 4.1753911944863553e-02 -9.8581739254013714e-03 3.6043518864484481e-02 -2.2738226231789582e-01 1.9477838479759671e-01 -4.8276706515862300e-02 -1.3701811261372931e-02 -7.6111166856514501e-01 4.1230369052073917e-02 1.8122522591524781e-01 -4.5474246296372367e-02 7.9863544468373115e-01 -1.6040792970153994e-01 -6.5476308299383001e-01 2.1423427893413480e-02 9.7831649930371967e-02 3.8095254383874622e-02 -6.4743484270487894e-01 7.1357188551991468e-02 6.9607013982926169e-01 -4.2180993204151079e-01 -8.2053013985891043e-02 1.0428478903944681e-02 3.7853329341700909e-01 -3.0338286231995915e-01 4.0563562560931132e-02 -2.7885125274331179e-03 
      </Row>
      <Row Index="32">
        1.2818892084458300e-01 1.4167360074506974e-02 9.1638357384341562e-02 -1.5616519604228518e-01 -1.9183816999899789e-01 -4.5438836500512336e-03 2.4352823385120215e-01 5.2547677229878387e-01 -4.1807606338203240e-02 -1.6543952804389576e-02 9.2959592936062818e-02 4.4131526734549453e-02 -3.2944254404658369e-02 2.0989189896245444e-02 1.8445785250270005e-02 2.4695852775101379e-01 -1.0325149827315794e-01 -8.2806656580113047e-04 2.9442015335873090e-01 3.7636362252671202e-01 -1.9866409232185442e-01 3.5191351653713809e-01 4.8421436344249946e-02 -8.5562150193444841e-01 9.4416514661177064e-01 5.1394999942043307e-01 -8.9493051172961940e-02 -6.2099480018888187e-01 -7.7877469050249193e-01 6.6739998177368320e-01 -9.6863953217389476e-01 -4.2180993204765016e-01 7.8333829279366363e-01 -1.0313305819808560e-01 -1.0559656670889467e-01 -7.6320088002631148e-01 -4.7025882508784544e-01 -4.7703244425220670e-03 1.6215173363442179e-02 
      </Row>
      <Row Index="33">
        -8.6824054275728493e-02 8.4916172750745290e-03 1.7678292863809919e-01 -1.8926868067884156e-02 1.8278135074438986e-01 -2.5449061310716028e-02 -4.2127808325153709e-01 5.1358502344917845e-01 3.0673184802745328e-02 1.6103519860681106e-02 -1.4923923905447303e-01 3.5835678683542593e-03 6.5345959715076188e-02 -2.8459913158794828e-02 -2.3834031539746128e-02 8.7139090373740125e-02 1.0132971926885617e-01 -3.5550056466194462e-02 -2.6345580200832075e-01 4.2628241398502492e-01 1.0765574044809428e-01 -2.9356181496426070e-01 -7.5436242420238081e-02 -8.1982589094527858e-01 -1.8850690742187006e+00 4.8267160231436707e-02 -2.0392415889251081e-01 -3.1806016495777056e-01 5.1673971936813690e-01 6.4843354120608288e-01 1.7900304398549569e+00 -8.2053013978715769e-02 -1.0313305820736339e-01 3.4028929443219242e+00 -8.8238648392385682e-03 1.4218551999809279e-01 8.1332323026228508e+00 -1.1758213847085537e-02 2.1464265263745331e-02 
      </Row>
      <Row Index="34">
        -9.2464628936635304e-02 -9.5660138742980141e-03 -4.8793474396658612e-02 -3.6926597249450549e-02 -1.2918822404653287e-02 4.2597400033596508e-03 2.1125874706695975e-02 1.9193963037534442e-02 2.3823715058254008e-02 2.6649174552310320e-02 5.0900225982309449e-02 8.5196938729753841e-02 -1.8491692942922001e-02 -1.7536657109341450e-02 6.0275282885859389e-03 -5.8721632300619220e-02 -7.8029871729171391e-02 8.9713442077821726e-03 2.3622428687517766e-02 4.7734320888470620e-02 3.0887504869883849e-02 -1.4694122402427690e-01 1.8832977219314033e-02 9.3444326132264777e-02 -1.1203611359945007e-01 -1.2608222506990344e-01 2.6411602689370020e-03 -2.4107025556856509e-02 1.0084878292445643e-03 -4.3528202771982313e-02 1.2031212146035170e-01 1.0428478905453620e-02 -1.0559656671058419e-01 -8.8238648399220354e-03 8.5727521844921120e-02 7.4402133441594853e-02 4.9781806978361043e-02 -2.3745934853417267e-02 -1.2433487015938716e-03 
      </Row>
      <Row Index="35">
        -6.0596158919066223e-02 1.0719682956312759e-03 -1.2060498056775754e-01 1.9137312043356269e-01 2.2166894058697062e-01 -2.4954730425299859e-02 -2.4177583357005433e-01 -5.2964763680324345e-01 4.4967738122935474e-02 1.4094076697168806e-03 -8.3623246885221936e-02 -8.6902414296468722e-02 2.9700569869466287e-02 -2.0247167294086717e-02 -4.3422454704751715e-02 -1.6493590066913733e-01 1.9625226311987101e-01 -1.3694962519246442e-02 -2.9842318546989527e-01 -3.9587793562178097e-01 2.0844707483829267e-01 1.5403328901889424e-01 5.7365907787529480e-02 8.9071934445478662e-01 -1.0792201193355242e+00 -5.1770901456006313e-01 1.2795370656302960e-01 9.4735744635926622e-01 8.1486783445452549e-01 -8.3600456905512865e-01 1.0363525126325350e+00 3.7853329342348563e-01 -7.6320088002631958e-01 1.4218551998815210e-01 7.4402133439942592e-02 9.0290165017146851e-01 3.3356542074473605e-01 -2.0322964259463561e-02 -2.1743889739585756e-02 
      </Row>
      <Row Index="36">
        -4.1616029188741499e-01 -1.5289124519432873e-02 4.9446000644203170e-01 -2.8318978038277565e-01 3.6417458297465927e-01 6.6649054512892131e-03 -1.2100926549921500e+00 1.5002350173315400e+00 1.1696423117444199e-01 7.4376737547995037e-02 -3.8461574490977535e-01 1.0696116284295565e-01 1.4295500576428363e-01 -7.5604144934075621e-02 -3.3642797792822157e-02 4.6523680534119372e-02 5.5383896805778571e-02 -2.8733522743384851e-02 -7.8547329061605997e-01 1.1978353532312533e+00 4.6590173668468576e-01 -2.5146584172031083e+00 -3.9907308292750887e-01 -1.8741633404749041e+00 -4.8936663311495998e+00 3.4495020858445735e-01 -4.7936718119525507e-01 -1.4856407546815582e+00 1.3849563893823849e+00 1.7260114703608262e+00 4.9843300459892008e+00 -3.0338286229967082e-01 -4.7025882511412570e-01 8.1332323026227691e+00 4.9781806979994139e-02 3.3356542077281071e-01 2.0558582778368404e+01 1.0545267068353681e-03 2.7985067897536964e-02 
      </Row>
      <Row Index="37">
        9.1728916908851849e-03 4.2949617023514339e-05 1.7268752977753335e-02 2.2828462802953801e-02 6.0506264453092876e-03 4.2326284098597499e-03 -1.7937219772760929e-02 -4.3858700790373156e-02 -1.2854532545915199e-02 -6.2679280416797914e-03 -2.5508508113354880e-02 -3.6018849016074536e-02 9.9836971094279543e-03 5.3870564488666950e-03 3.1592617127772682e-03 -7.9840727185762905e-03 5.8044563578572052e-03 -4.8285840485167385e-04 -2.0592353440338260e-02 -4.2033073463788810e-02 8.7338146494524279e-04 -9.3876252177231292e-02 -4.4363273135571230e-02 8.1395209505695683e-03 2.6257441469114406e-02 2.7210543531225109e-02 -6.0293669677754288e-04 -3.5212138901281526e-02 5.9560928112637593e-02 1.2165290871661799e-02 -2.3473603070788340e-02 4.0563562560553212e-02 -4.7703244418387143e-03 -1.1758213847213201e-02 -2.3745934853512327e-02 -2.0322964260125895e-02 1.0545267063593062e-03 1.8400688505554316e-02 -5.0323144341910724e-05 
      </Row>
      <Row Index="38">
        8.2877392169730946e-03 -7.3625496180927848e-05 5.5770180019336611e-03 1.4455440987169096e-03 9.4452807273836658e-04 4.2015832422045507e-04 5.5951292815958880e-03 -2.6069212872240153e-04 5.3690709280838737e-04 -8.8211106820034954e-06 -2.4932869531840130e-03 4.5100108844459696e-03 1.1956861007579450e-03 5.0159532992660803e-04 1.1210102040903973e-03 1.4871093679307279e-03 5.9523832936462847e-03 -1.1883732872299381e-03 5.6427797576393338e-03 1.8666381134304442e-03 -1.4809916676058396e-02 4.2472677491971672e-02 4.1247801510872380e-03 -2.6009714248524891e-02 3.0586801097154899e-02 -4.9932709696126829e-03 -9.6980200596012648e-03 -6.3853115666357985e-03 -3.0847986479604628e-02 2.5105414471881249e-02 -3.0912422408739017e-02 -2.7885125276349704e-03 1.6215173363608379e-02 2.1464265263946878e-02 -1.2433487015830660e-03 -2.1743889739760987e-02 2.7985067898072705e-02 -5.0323144352011802e-05 2.4933478603315347e-03 
      </Row>
    </InverseHessian>
  </Weights>
</MethodSetup>
