<?xml version="1.0"?>
<MethodSetup Method="MLP::MLP">
  <GeneralInfo>
    <Info name="TMVA Release" value="4.1.2 [262402]"/>
    <Info name="ROOT Release" value="5.32/00 [335872]"/>
    <Info name="Creator" value="tomc"/>
    <Info name="Date" value="Thu Jan 10 12:55:34 2013"/>
    <Info name="Host" value="Linux lxbuild168.cern.ch 2.6.18-308.1.1.el5 #1 SMP Wed Mar 7 19:25:07 CET 2012 x86_64 x86_64 x86_64 GNU/Linux"/>
    <Info name="Dir" value="/user_mnt/user/tomc/QGTagger/training/c/2/aKDE03"/>
    <Info name="Training events" value="805588"/>
    <Info name="TrainingTime" value="3.19810066e+03"/>
    <Info name="AnalysisType" value="Classification"/>
  </GeneralInfo>
  <Options>
    <Option name="NCycles" modified="No">500</Option>
    <Option name="HiddenLayers" modified="No">N,N-1</Option>
    <Option name="NeuronType" modified="No">sigmoid</Option>
    <Option name="RandomSeed" modified="No">1</Option>
    <Option name="EstimatorType" modified="No">MSE</Option>
    <Option name="NeuronInputType" modified="No">sum</Option>
    <Option name="V" modified="Yes">False</Option>
    <Option name="VerbosityLevel" modified="No">Default</Option>
    <Option name="VarTransform" modified="Yes">N</Option>
    <Option name="H" modified="Yes">False</Option>
    <Option name="CreateMVAPdfs" modified="Yes">True</Option>
    <Option name="IgnoreNegWeightsInTraining" modified="No">False</Option>
    <Option name="TrainingMethod" modified="No">BP</Option>
    <Option name="LearningRate" modified="No">2.000000e-02</Option>
    <Option name="DecayRate" modified="No">1.000000e-02</Option>
    <Option name="TestRate" modified="Yes">3</Option>
    <Option name="EpochMonitoring" modified="No">False</Option>
    <Option name="Sampling" modified="No">1.000000e+00</Option>
    <Option name="SamplingEpoch" modified="No">1.000000e+00</Option>
    <Option name="SamplingImportance" modified="No">1.000000e+00</Option>
    <Option name="SamplingTraining" modified="No">True</Option>
    <Option name="SamplingTesting" modified="No">False</Option>
    <Option name="ResetStep" modified="No">50</Option>
    <Option name="Tau" modified="No">3.000000e+00</Option>
    <Option name="BPMode" modified="No">sequential</Option>
    <Option name="BatchSize" modified="No">-1</Option>
    <Option name="ConvergenceImprove" modified="No">1.000000e-30</Option>
    <Option name="ConvergenceTests" modified="No">-1</Option>
    <Option name="UseRegulator" modified="Yes">True</Option>
    <Option name="UpdateLimit" modified="No">10000</Option>
    <Option name="CalculateErrors" modified="No">False</Option>
    <Option name="WeightRange" modified="No">1.000000e+00</Option>
  </Options>
  <Variables NVar="4">
    <Variable VarIndex="0" Expression="axis1" Label="axis1" Title="axis1" Unit="" Internal="axis1" Type="F" Min="-1.32424256e-03" Max="4.50553328e-01"/>
    <Variable VarIndex="1" Expression="axis2" Label="axis2" Title="axis2" Unit="" Internal="axis2" Type="F" Min="-1.00059505e-03" Max="2.73974150e-01"/>
    <Variable VarIndex="2" Expression="mult" Label="mult" Title="mult" Unit="" Internal="mult" Type="I" Min="0.00000000e+00" Max="2.40000000e+01"/>
    <Variable VarIndex="3" Expression="ptD" Label="ptD" Title="ptD" Unit="" Internal="ptD" Type="F" Min="1.77716300e-01" Max="1.00180352e+00"/>
  </Variables>
  <Spectators NSpec="0"/>
  <Classes NClass="2">
    <Class Name="Signal" Index="0"/>
    <Class Name="Background" Index="1"/>
  </Classes>
  <Transformations NTransformations="1">
    <Transform Name="Normalize">
      <Selection>
        <Input NInputs="4">
          <Input Type="Variable" Label="axis1" Expression="axis1"/>
          <Input Type="Variable" Label="axis2" Expression="axis2"/>
          <Input Type="Variable" Label="mult" Expression="mult"/>
          <Input Type="Variable" Label="ptD" Expression="ptD"/>
        </Input>
        <Output NOutputs="4">
          <Output Type="Variable" Label="axis1" Expression="axis1"/>
          <Output Type="Variable" Label="axis2" Expression="axis2"/>
          <Output Type="Variable" Label="mult" Expression="mult"/>
          <Output Type="Variable" Label="ptD" Expression="ptD"/>
        </Output>
      </Selection>
      <Class ClassIndex="0">
        <Ranges>
          <Range Index="0" Min="-1.3242425629869103e-03" Max="4.5055332779884338e-01"/>
          <Range Index="1" Min="-1.0005950462073088e-03" Max="2.7397415041923523e-01"/>
          <Range Index="2" Min="0.0000000000000000e+00" Max="2.4000000000000000e+01"/>
          <Range Index="3" Min="1.7771629989147186e-01" Max="1.0018035173416138e+00"/>
        </Ranges>
      </Class>
      <Class ClassIndex="1">
        <Ranges>
          <Range Index="0" Min="-1.3242425629869103e-03" Max="4.2365616559982300e-01"/>
          <Range Index="1" Min="-1.0005950462073088e-03" Max="2.5889825820922852e-01"/>
          <Range Index="2" Min="0.0000000000000000e+00" Max="2.0000000000000000e+01"/>
          <Range Index="3" Min="1.9855852425098419e-01" Max="1.0018035173416138e+00"/>
        </Ranges>
      </Class>
      <Class ClassIndex="2">
        <Ranges>
          <Range Index="0" Min="-1.3242425629869103e-03" Max="4.5055332779884338e-01"/>
          <Range Index="1" Min="-1.0005950462073088e-03" Max="2.7397415041923523e-01"/>
          <Range Index="2" Min="0.0000000000000000e+00" Max="2.4000000000000000e+01"/>
          <Range Index="3" Min="1.7771629989147186e-01" Max="1.0018035173416138e+00"/>
        </Ranges>
      </Class>
    </Transform>
  </Transformations>
  <MVAPdfs>
    <PDF Name="MLP_PDFSig" MinNSmooth="0" MaxNSmooth="0" InterpolMethod="5" KDE_type="1" KDE_iter="2" KDE_border="1" KDE_finefactor="3.0000001192092896e-01">
      <Histogram Name="MLP_tr_S_original" NBins="250" XMin="1.9621832668781281e-01" XMax="9.7161453962326050e-01" HasEquidistantBins="1">
        0.00000000e+00 0.00000000e+00 0.00000000e+00 0.00000000e+00 0.00000000e+00 0.00000000e+00 0.00000000e+00 0.00000000e+00 0.00000000e+00 4.78039728e-04 0.00000000e+00 4.78039728e-04 4.78039728e-04 4.78039728e-04 0.00000000e+00 4.78039728e-04 4.78039728e-04 1.91215891e-03 1.91215891e-03 1.91215891e-03 1.91215891e-03 2.86823837e-03 2.39019864e-03 2.39019864e-03 6.21451670e-03 1.43411919e-03 2.39019864e-03 2.86823837e-03 2.86823837e-03 4.30235779e-03 4.78039728e-03 4.30235779e-03 6.69255620e-03 8.60471558e-03 1.00388341e-02 6.21451670e-03 1.19509930e-02 1.09949140e-02 1.14729535e-02 1.05168745e-02 1.05168745e-02 1.09949140e-02 1.29070729e-02 1.62533503e-02 1.52972713e-02 1.72094312e-02 1.86435506e-02 2.24678684e-02 2.05557086e-02 2.72482652e-02 1.91215891e-02 2.86823846e-02 1.76874697e-02 3.53749394e-02 2.91604232e-02 2.96384636e-02 3.58529799e-02 2.86823846e-02 4.30235751e-02 3.68090607e-02 4.92380932e-02 5.49745709e-02 5.78428097e-02 4.82820123e-02 4.78039719e-02 5.78428097e-02 5.21063320e-02 5.35404496e-02 6.31012470e-02 5.68867289e-02 6.50134012e-02 7.64863566e-02 6.97937980e-02 8.07887167e-02 7.79204741e-02 7.93545991e-02 8.36569518e-02 8.98714736e-02 8.36569518e-02 9.70420688e-02 9.36957896e-02 1.06602862e-01 1.07558943e-01 1.09471098e-01 1.18075818e-01 1.40065640e-01 1.23812295e-01 1.29548773e-01 1.33373082e-01 1.34807199e-01 1.49148405e-01 1.42455846e-01 1.37675449e-01 1.45802125e-01 1.67313904e-01 1.64445668e-01 1.86913535e-01 2.01732770e-01 1.94084138e-01 1.80699021e-01 1.98386490e-01 2.05079049e-01 2.16552004e-01 2.06513166e-01 2.15595916e-01 2.21332401e-01 2.31849268e-01 2.24678680e-01 2.29459077e-01 2.46668503e-01 2.46190459e-01 2.53839105e-01 2.50970870e-01 2.64834017e-01 2.67224222e-01 2.76785016e-01 2.72004604e-01 2.94950515e-01 2.86345810e-01 2.95428544e-01 3.41798425e-01 3.20286632e-01 3.12637985e-01 3.38930160e-01 3.17896426e-01 3.29369366e-01 3.79563540e-01 3.59485894e-01 3.54705483e-01 3.80041599e-01 3.38930160e-01 3.94860834e-01 4.22109097e-01 3.98685127e-01 4.43142831e-01 4.03943568e-01 4.64176595e-01 4.44098920e-01 4.48879302e-01 4.58918154e-01 5.04809976e-01 4.92380917e-01 4.62742478e-01 5.11024475e-01 5.19629180e-01 5.17717063e-01 5.29668033e-01 5.57872355e-01 5.48311591e-01 5.72691619e-01 5.74603736e-01 6.08066559e-01 6.14281058e-01 6.23363793e-01 6.39617145e-01 6.07588530e-01 6.96503878e-01 7.25186288e-01 7.05586672e-01 7.32356906e-01 6.96503878e-01 7.53868639e-01 8.17447960e-01 7.41439641e-01 8.19360137e-01 8.31789136e-01 8.33223283e-01 8.58559370e-01 8.99670780e-01 9.22616720e-01 9.15924132e-01 9.51777101e-01 9.61815953e-01 9.97668922e-01 9.86195982e-01 1.00961995e+00 1.04451680e+00 1.11048627e+00 1.13869071e+00 1.14442718e+00 1.19079697e+00 1.23668885e+00 1.25389826e+00 1.30026805e+00 1.34376967e+00 1.40734899e+00 1.43077290e+00 1.45897722e+00 1.56032169e+00 1.55554128e+00 1.64445674e+00 1.68174374e+00 1.73002577e+00 1.78595650e+00 1.85766244e+00 1.90164208e+00 1.95852876e+00 2.01876187e+00 2.04935646e+00 2.14066195e+00 2.29076648e+00 2.37824774e+00 2.46955323e+00 2.54364944e+00 2.59862399e+00 2.70618296e+00 2.86728239e+00 2.86011171e+00 3.11729717e+00 3.12351155e+00 3.25592875e+00 3.38356519e+00 3.49590468e+00 3.60298538e+00 3.79611349e+00 3.92566228e+00 4.03561163e+00 4.20961809e+00 4.29040670e+00 4.48353481e+00 4.65371704e+00 4.77274895e+00 4.96635485e+00 4.98308611e+00 5.12601995e+00 5.32058239e+00 5.51323223e+00 5.71066284e+00 5.71687698e+00 5.78523684e+00 5.85359669e+00 5.95494080e+00 6.24845743e+00 6.36701107e+00 6.42724419e+00 6.41577148e+00 6.48221874e+00 6.64427423e+00 6.62658691e+00 6.78959846e+00 6.95882463e+00 6.92010307e+00 7.02049160e+00 7.06351519e+00 7.19927835e+00 6.93826866e+00 6.72506285e+00 6.01134968e+00 4.49070549e+00 1.23907900e+00 
      </Histogram>
    </PDF>
    <PDF Name="MLP_PDFBkg" MinNSmooth="0" MaxNSmooth="0" InterpolMethod="5" KDE_type="1" KDE_iter="2" KDE_border="1" KDE_finefactor="3.0000001192092896e-01">
      <Histogram Name="MLP_tr_B_original" NBins="250" XMin="1.9621832668781281e-01" XMax="9.7161453962326050e-01" HasEquidistantBins="1">
        2.45869323e-03 4.91738645e-03 0.00000000e+00 0.00000000e+00 0.00000000e+00 2.45869323e-03 0.00000000e+00 0.00000000e+00 0.00000000e+00 2.45869323e-03 7.37607945e-03 7.37607945e-03 7.37607945e-03 4.91738645e-03 9.83477291e-03 7.37607945e-03 1.96695458e-02 1.47521589e-02 1.96695458e-02 4.91738645e-03 1.72108524e-02 1.22934654e-02 1.96695458e-02 2.95043178e-02 2.21282393e-02 1.96695458e-02 3.19630131e-02 5.16325571e-02 4.42564785e-02 5.16325571e-02 3.93390916e-02 7.13021010e-02 4.67151701e-02 5.16325571e-02 9.58890319e-02 7.86781833e-02 7.86781833e-02 1.32769436e-01 1.13099888e-01 1.10641196e-01 1.10641196e-01 1.22934662e-01 1.52438983e-01 1.62273750e-01 1.49980277e-01 2.13906303e-01 1.72108516e-01 1.84401989e-01 1.96695447e-01 2.55704105e-01 2.33575851e-01 2.01612845e-01 2.13906303e-01 2.72914946e-01 3.04877967e-01 2.60621488e-01 2.72914946e-01 3.54051828e-01 3.27006191e-01 3.27006191e-01 3.34382266e-01 4.00766999e-01 3.27006191e-01 3.78638744e-01 4.03225690e-01 4.35188681e-01 4.76986468e-01 4.74527776e-01 5.08949459e-01 4.99114722e-01 5.58123350e-01 5.63040733e-01 4.76986468e-01 5.65499425e-01 6.26966774e-01 5.63040733e-01 6.66305840e-01 6.44177616e-01 6.78599298e-01 6.31884158e-01 7.32690573e-01 6.46636307e-01 7.08103657e-01 7.13021040e-01 6.68764532e-01 7.72029638e-01 7.40066648e-01 7.76947021e-01 7.79405713e-01 7.52360106e-01 8.16286147e-01 7.89240539e-01 8.97423029e-01 8.72836053e-01 8.97423029e-01 8.08910072e-01 9.83477294e-01 9.14633870e-01 9.51514244e-01 9.17092562e-01 9.29386020e-01 8.60542595e-01 9.56431627e-01 9.17092562e-01 9.98229444e-01 1.00314677e+00 1.01544023e+00 1.05232072e+00 8.94964337e-01 1.05232072e+00 9.81018603e-01 1.09903586e+00 1.19000745e+00 1.16787922e+00 1.12854016e+00 1.18754876e+00 1.04494464e+00 1.12362278e+00 1.18754876e+00 1.16787922e+00 1.16787922e+00 1.21951187e+00 1.24164009e+00 1.21459448e+00 1.24901617e+00 1.44079423e+00 1.18754876e+00 1.14575100e+00 1.25147486e+00 1.41128993e+00 1.41620731e+00 1.33752906e+00 1.25639224e+00 1.28097916e+00 1.33261168e+00 1.42112470e+00 1.43833554e+00 1.35719860e+00 1.39162040e+00 1.48750937e+00 1.30310738e+00 1.45554638e+00 1.36949205e+00 1.40637255e+00 1.40637255e+00 1.37440944e+00 1.44817030e+00 1.55635273e+00 1.51947236e+00 1.48750937e+00 1.58831584e+00 1.54897666e+00 1.61782014e+00 1.57110488e+00 1.55881143e+00 1.51209629e+00 1.61536145e+00 1.57848108e+00 1.56372881e+00 1.67191136e+00 1.69403958e+00 1.72354388e+00 1.69403958e+00 1.80222213e+00 1.65715921e+00 1.63748968e+00 1.74075472e+00 1.66945267e+00 1.85139596e+00 1.85139596e+00 1.81943297e+00 1.88827634e+00 1.79238737e+00 1.86123073e+00 1.88335896e+00 1.88090026e+00 1.89319372e+00 1.96695459e+00 1.95711982e+00 2.03088045e+00 2.13168693e+00 2.03088045e+00 1.99645889e+00 2.13660431e+00 2.13906312e+00 2.13414574e+00 2.15627384e+00 2.11201739e+00 2.24478698e+00 2.32346511e+00 2.30625415e+00 2.23741078e+00 2.19069552e+00 2.37018013e+00 2.33821726e+00 2.50294971e+00 2.45377588e+00 2.53245401e+00 2.64555383e+00 2.55458212e+00 2.41443682e+00 2.60867357e+00 2.64063644e+00 2.56441689e+00 2.78815818e+00 2.85454273e+00 2.86683631e+00 2.82749724e+00 2.80291033e+00 2.85700154e+00 2.93567967e+00 3.03156877e+00 3.08320117e+00 3.01435781e+00 3.21105337e+00 3.06107306e+00 3.36595106e+00 3.18400764e+00 3.19138384e+00 2.96272516e+00 3.28727269e+00 3.20859456e+00 3.23318148e+00 3.16187954e+00 3.12499905e+00 3.18400764e+00 3.21597075e+00 3.07582521e+00 2.95043182e+00 3.12991643e+00 2.79799294e+00 2.74144292e+00 2.77340579e+00 2.77094722e+00 2.71439719e+00 2.80536890e+00 2.62588429e+00 2.47098660e+00 2.32592368e+00 2.38984966e+00 2.18577814e+00 2.11939359e+00 2.04809141e+00 1.86368942e+00 1.67928743e+00 1.56372881e+00 1.43587685e+00 1.08920109e+00 7.49901414e-01 1.57356367e-01 
      </Histogram>
    </PDF>
  </MVAPdfs>
  <Weights>
    <Layout NLayers="4">
      <Layer Index="0" NNeurons="5">
        <Neuron NSynapses="4">
          5.9850436880418667e-01 2.7960445600523092e+00 3.9601014022681730e-01 4.4693764566278329e+00 
        </Neuron>
        <Neuron NSynapses="4">
          2.7968779445238351e-01 1.3560823251133309e+00 -5.2684860400633216e-01 2.8820971882649986e+00 
        </Neuron>
        <Neuron NSynapses="4">
          -4.6252738382114273e+00 -2.1275958238847679e+00 -4.7882169257586478e+00 4.3306409185928241e-01 
        </Neuron>
        <Neuron NSynapses="4">
          -7.0919842610241324e-01 -1.4114064389582759e+00 1.5848210168480656e+00 2.9843975993974485e+00 
        </Neuron>
        <Neuron NSynapses="4">
          -4.8313279925405492e+00 3.3115747838400185e+00 -1.8000797220493012e+00 6.0387900040830838e+00 
        </Neuron>
      </Layer>
      <Layer Index="1" NNeurons="5">
        <Neuron NSynapses="3">
          -2.0332722690147471e+00 -2.6766639600416386e+00 5.3915682915757168e-01 
        </Neuron>
        <Neuron NSynapses="3">
          -1.3298110650670025e+00 -1.4413638123695471e+00 -1.6572259770367657e+00 
        </Neuron>
        <Neuron NSynapses="3">
          2.2823302381251813e+00 2.3584002814912548e+00 -4.6645602423801780e+00 
        </Neuron>
        <Neuron NSynapses="3">
          -3.6173996413333835e+00 7.3058214100854446e-01 2.2380090967564410e+00 
        </Neuron>
        <Neuron NSynapses="3">
          1.4498654763313412e-01 -2.2293090079225770e+00 -2.3975170853512595e+00 
        </Neuron>
      </Layer>
      <Layer Index="2" NNeurons="4">
        <Neuron NSynapses="1">
          -1.0482662167101402e+00 
        </Neuron>
        <Neuron NSynapses="1">
          -1.2014287789816855e+00 
        </Neuron>
        <Neuron NSynapses="1">
          6.3065403479916991e-03 
        </Neuron>
        <Neuron NSynapses="1">
          1.0402490707500105e+00 
        </Neuron>
      </Layer>
      <Layer Index="3" NNeurons="1">
        <Neuron NSynapses="0"/>
      </Layer>
    </Layout>
    <InverseHessian NElements="1521" NRows="39" NCols="39">
      <Row Index="0">
        3.1020056950531327e-01 3.6160276970776328e-01 6.8363669483390149e-02 -1.1633382364522415e+00 1.3904166415213437e-01 2.3535431601195886e-01 -2.2999164300814258e-02 -7.3826215110389759e-01 -9.5640379711268853e-01 2.1789781429921457e-03 1.2956175918974533e-01 -1.0108444290559922e-01 -8.9386049191809799e-02 3.2420376059395251e-01 2.2755635029343424e-01 -6.8485173812998990e-01 -6.6201635995956853e-01 1.1277430532638222e-01 2.8150080719207765e-01 -1.9280665248073490e+00 5.5503584734641243e-01 1.4599348155875564e+00 8.3076087152072645e+01 4.9899041451084292e-01 3.1384077147592521e-01 2.0620592244015188e+00 -1.4857279231135923e-01 -4.1523394386481549e-01 -1.0659915197272669e+01 -2.7546478068955973e+00 -1.1759863751390522e+00 8.9110366990002206e+00 3.8677579821991975e-01 -4.3628522773347334e-01 1.5878565643594511e-01 6.9063488586370170e-01 -1.7895108630560914e+00 -9.0925994081365730e-02 -1.4772650404857666e-03 
      </Row>
      <Row Index="1">
        3.6160276975989875e-01 3.7557318129166816e+01 1.6326622566927620e-01 4.5532352544127459e+00 1.8192558021088073e-01 2.2361707664242591e+01 -6.6882282853494984e-03 3.0445887100748621e+00 -1.1945692012450650e+00 -9.5675972165995704e-01 -3.2853351050409618e-01 -1.6341449654391722e+00 -1.1375387290650105e+00 1.9171067985853146e+01 7.3388892377872339e-01 2.7488160532448087e+00 -1.6183284967057572e+00 4.0479511209032573e+01 1.3851391186553741e-01 5.8817388736248768e+00 -4.9419146696092453e-01 1.9073015940282696e+00 5.4551139794536584e+02 2.9470304163740185e+01 -1.3233844588731294e+01 5.6780440400807834e+02 2.8748823033498270e+00 -3.4679658791848800e+00 4.3488206169741062e+02 2.9388675954703980e+00 1.3826875708131281e+00 -3.2957650797593203e+02 -2.6851686624802717e+01 7.0758327261088008e+00 -1.1254441556359865e+02 3.1017102121060489e+00 -5.8697318187587264e+00 -6.0792432009203368e-02 -7.8821155437967430e-02 
      </Row>
      <Row Index="2">
        6.8363669483824524e-02 1.6326622565955304e-01 1.8342517877176173e-01 7.0293362919666966e-02 5.3359141266744875e-02 2.4649433247993922e-02 8.1754853613698303e-02 7.0995166497582474e-04 1.7043078874635170e-01 -2.9518752537576110e-01 -6.7137862327332209e-04 5.3564334630966416e-02 -1.0879951031239784e-02 -1.1270609002563113e-01 1.0294398863173365e-01 9.8071465957534021e-02 1.9068846806196293e-01 -1.9777530712107461e-01 2.3491937624261502e-01 1.3390436086302682e-01 -2.8679533108507999e-01 3.1544731399295051e-01 4.2586887426938972e+01 1.8492775502723338e-01 3.4352697580703717e-01 -2.9423132122554868e+01 2.0007241589959951e-02 -6.0084097603652659e-02 -2.7073667577594914e+01 -4.6676291426312827e-01 -5.5011006983806576e-01 -6.6770348940758595e+00 8.9087470239310226e-02 -2.6789089887941697e-01 5.3244191514006900e+00 2.1586368202558529e-01 -4.9399030324029947e-01 1.1139599827222360e-01 2.0442055097515122e-03 
      </Row>
      <Row Index="3">
        -1.1633382364455824e+00 4.5532352550573219e+00 7.0293362924316496e-02 2.0771501922496622e+01 -7.3922183266763219e-01 3.2849554757459964e+00 2.9311197311440168e-01 1.3137630618884696e+01 2.7668427273198266e+00 -1.9269043169155520e+00 -3.0953250107067809e-01 3.1011383068667762e+00 3.2866598981228257e-01 3.5410330344921137e-01 -8.2110141633990286e-01 1.2749965484119883e+01 2.4134112949221338e+00 5.9250654998084507e+00 -9.6039242219355181e-01 3.4229013245230995e+01 -5.8717642079759793e+00 -8.7725266014551906e+00 -2.0261229715763318e+02 2.5782509454653098e+00 -4.8923960246867608e+00 -5.7511467914125447e+01 1.0329737327969233e+00 3.2626582870825134e+00 7.7594182445540241e+01 4.5278613324721633e+01 1.8140628598191618e+01 2.4776470270405397e+01 -1.7417940443177518e+01 -2.2279891812538355e+00 7.3182371906502425e+01 -1.0593611388467464e+01 1.9491848715312994e+01 -1.1722665922490955e-01 -1.7277681716790578e-02 
      </Row>
      <Row Index="4">
        1.3904166415251049e-01 1.8192558018048793e-01 5.3359141266473134e-02 -7.3922183267640118e-01 1.7271052086388572e-01 1.4955851981380253e-01 3.6784582241219013e-02 -4.7499512627393015e-01 -3.2881011299181406e-01 -6.3731154419217229e-02 -6.5336210934263284e-02 -1.8072324273595335e-02 -5.5042821850184005e-02 1.5767071634832891e-01 1.8701490564906181e-01 -4.3553319789307277e-01 -2.1051558600534548e-01 -5.4415973934716450e-02 1.6498823351182540e-01 -1.1906196108944520e+00 1.2889585362601358e-01 7.8443609924470292e-01 4.7105031637486263e+01 2.9939306252515202e-01 3.2420643657327131e-01 1.5144764781824591e+01 -1.2686701263848960e-01 -2.9040880702097155e-01 -1.2779784328327155e+00 -1.7706297603608945e+00 -7.7449865381638550e-01 -1.7691670240414620e+01 3.1745970712272104e-01 -4.7915793160264541e-01 -4.3313938253716895e+00 4.5050218223498351e-01 -1.2266782382427346e+00 4.8698097477035580e-02 -6.9695555027288426e-03 
      </Row>
      <Row Index="5">
        2.3535431604334928e-01 2.2361707664208904e+01 2.4649433254533448e-02 3.2849554753453920e+00 1.4955851983221416e-01 1.6749961149580852e+01 4.3632829230961519e-02 1.3799520792924733e+00 -1.3353576281426143e+00 5.3803520158714502e-01 -2.2034554093647613e-01 -1.1987805016952393e+00 -6.8185131171217483e-01 1.3353455534142212e+01 5.2276832604826051e-01 1.8131603533348011e+00 -1.3942288437157002e+00 2.7699498165649285e+01 -3.4950371481233033e-02 3.6489997640612968e+00 -3.3373963800313988e-02 1.9446999017008944e+00 3.2669305973199926e+02 1.8347682638375481e+01 -9.7657175927734752e+00 3.4118179122291133e+02 2.0194311583661646e+00 -2.7702545447372247e+00 3.2437930335199371e+02 1.7679302732103788e+00 9.7646703548755320e-01 -1.8397540125425607e+02 -1.6343731362148283e+01 6.4370240756806716e+00 -6.1955022099480118e+01 2.2454791490765524e+00 -3.5338242118751260e+00 -1.1062689068243278e-01 -2.3607660473976763e-02 
      </Row>
      <Row Index="6">
        -2.2999164300182066e-02 -6.6882282665574194e-03 8.1754853614102271e-02 2.9311197311356457e-01 3.6784582241706242e-02 4.3632829241831844e-02 1.7433714519783883e-01 1.9445895822551088e-01 3.7135471873080017e-01 -1.2533130237951479e-01 2.0670831856394692e-01 -1.5755721780791043e-02 1.0898946817042703e-01 -1.3921170742538463e-01 -4.1941170861470686e-02 2.6562857423463659e-01 4.3274857812449247e-01 2.9525101123820674e-02 2.5783293956467707e-01 5.3963548226599412e-01 -4.0807984249108964e-01 -1.6612229428709743e-01 4.5923945198196805e+01 -1.1427193896613994e-01 3.3161577749264606e-02 -3.6055551045264345e+01 2.3549200834214859e-01 2.5900359967039827e-01 -3.0521632340185949e+01 4.1292113744234266e-01 1.3384153822612141e-02 3.6249713403357617e+01 4.7565026850349100e-02 1.3417693922579335e-01 -7.5321039497611348e+00 -2.0892585559122601e-02 3.8836351094162852e-01 -5.2976821405396210e-02 7.1625387967245184e-03 
      </Row>
      <Row Index="7">
        -7.3826215110002624e-01 3.0445887104944140e+00 7.0995166778813719e-04 1.3137630618889046e+01 -4.7499512626854246e-01 1.3799520795534670e+00 1.9445895822613848e-01 8.7297577489349649e+00 1.7548273313350595e+00 -1.2540900687129333e+00 -2.6628640143298654e-01 2.1590489634799415e+00 2.0185309643758503e-01 1.0362945930475220e-01 -5.3216609520622726e-01 8.2205985380036690e+00 1.5417457683085196e+00 3.2986754013803408e+00 -6.6144324609413974e-01 2.2117323504275578e+01 -3.6962191178385537e+00 -5.7149140448070570e+00 -1.0407811396077449e+02 1.4290764178078770e+00 -3.0444192886379398e+00 -5.3668532408390952e+01 4.6331547730284728e-01 2.1950917512413657e+00 3.7580970371456473e+01 2.9388791839021245e+01 1.1848802327708825e+01 1.5577250874677175e+01 -1.1169371106428940e+01 -1.7251344637341304e+00 5.0514301013089906e+01 -6.9898754186086087e+00 1.2622706998960464e+01 4.0675129523576603e-03 -1.4091869650056302e-02 
      </Row>
      <Row Index="8">
        -9.5640379710637069e-01 -1.1945692009753004e+00 1.7043078874850787e-01 2.7668427272852858e+00 -3.2881011298706536e-01 -1.3353576279790293e+00 3.7135471873181075e-01 1.7548273313109513e+00 7.7453720533115593e+00 -1.6023674328834128e+00 -6.7144217242393767e-01 7.2603120682508160e-01 9.2182231599823894e-01 -2.5888892639148962e+00 -8.9499951869104932e-01 1.7882220578034165e+00 5.9798367714890137e+00 -2.0080269042307881e+00 -5.8724336931329968e-01 5.1425528797238238e+00 -5.9999010819541194e+00 -7.2986181884630437e+00 -6.0111493177300213e+02 -1.8494048598705921e+00 9.1811759197039300e-01 2.2213046625501612e+01 9.1994302478221979e-01 2.1630989564636267e+00 1.0075398978905591e+01 7.6238895007340082e+00 3.6015078773302580e+00 -4.3613860990998319e+00 -3.6209633935872687e-01 -3.5001436244079742e-01 5.0862772401599754e-01 -2.1392716177611151e+00 5.8605650078993534e+00 2.5551786911236010e-02 -1.3460849154597410e-02 
      </Row>
      <Row Index="9">
        2.1789781329959526e-03 -9.5675972173918100e-01 -2.9518752537278392e-01 -1.9269043167913065e+00 -6.3731154425063399e-02 5.3803520153585005e-01 -1.2533130237291126e-01 -1.2540900686347753e+00 -1.6023674328501738e+00 7.3221555617274250e+00 7.3686835315626431e-01 -1.3073773493379606e+00 4.5124976957046614e-01 5.6943398002322096e+00 -9.1381897383389046e-02 -1.9035375762562054e-01 -1.2708585183697574e+00 6.7341887754847463e+00 -1.0833947428656981e-01 -3.3407900931971772e+00 1.7950575754004459e+00 2.1248524329120394e-01 2.1612776573569818e+01 -4.4791226395446504e+00 -7.1016948552184527e+00 1.4195925245513237e+02 1.3023121226053922e+00 -1.0816884779407498e-01 8.9313264632568576e+01 -4.5071982980672090e+00 -7.0992348440718356e-01 6.2648195741081679e+01 6.0585799417470918e+00 9.4000837048244161e+00 -3.2502250786987446e+01 2.0691284673502075e+00 7.1191300856653594e-01 -8.8520673345209078e-01 8.1275687383234440e-03 
      </Row>
      <Row Index="10">
        1.2956175919006888e-01 -3.2853351045600454e-01 -6.7137862196148940e-04 -3.0953250103941160e-01 -6.5336210934227451e-02 -2.2034554090847017e-01 2.0670831856459146e-01 -2.6628640141309540e-01 -6.7144217242745907e-01 7.3686835313960630e-01 1.7206375370443212e+00 -5.8174990489324641e-01 3.9360516000728230e-01 -2.0437255173509389e-02 -2.1855549310652961e-01 1.3162811294823128e-03 -3.1302273196170272e-01 5.4273557536445893e-01 1.1050442618517002e+00 -7.1786280898205412e-01 1.3373321125347590e-01 -1.2144004171833270e-01 1.5896205749294205e+02 -9.0598764966008771e-01 -3.9264756746416846e-01 5.5069823175694829e+01 1.0552731835064901e+00 1.2294919409152567e+00 -1.1215519865357611e+02 -9.0070067941189358e-01 -2.6453696328002158e-01 2.1223440728500981e+02 8.3458238188624856e-01 6.2698110791386930e-01 -7.5365648786811164e+01 3.5607022176638836e-01 7.2936209552458220e-01 -1.3959732897625963e+00 3.6849452528294946e-03 
      </Row>
      <Row Index="11">
        -1.0108444290856501e-01 -1.6341449653479891e+00 5.3564334629633142e-02 3.1011383068960900e+00 -1.8072324274635565e-02 -1.1987805016389996e+00 -1.5755721780121697e-02 2.1590489634988943e+00 7.2603120685218270e-01 -1.3073773493511842e+00 -5.8174990489672296e-01 2.0190072981767386e+00 7.0038553813899479e-02 -1.7777136179055710e+00 8.2356835624463040e-02 1.9807968089739707e+00 6.8111352943900749e-01 -3.1223465467082656e+00 -3.5524615594982678e-01 6.2460052645032054e+00 -1.9427264907111432e+00 -8.9702616203971275e-01 -2.4056599226592186e+02 -1.0978332894069363e+00 1.4155372775924553e+00 -7.2113528378851484e+01 -1.1147308469252701e+00 2.5226608064318862e-01 -3.0249066141178737e+01 8.6470139914227477e+00 3.4874602940618837e+00 1.5202056962273957e+01 -1.7867816470536839e+00 -3.2230920445091229e+00 8.0956699318490465e+01 -2.6625190211494387e+00 2.9983095207656221e+00 -8.0347538354347853e-02 1.2833631353546602e-02 
      </Row>
      <Row Index="12">
        -8.9386049192760123e-02 -1.1375387290107983e+00 -1.0879951030743691e-02 3.2866598983645484e-01 -5.5042821850580514e-02 -6.8185131168003266e-01 1.0898946817160013e-01 2.0185309645276378e-01 9.2182231600694708e-01 4.5124976956085877e-01 3.9360516000956958e-01 7.0038553812693610e-02 4.0927597689741074e-01 -5.9059111656690222e-01 -2.0118986499215846e-01 3.1109777997667099e-01 8.9329536754483729e-01 -5.9668713984002020e-01 1.3295619077518567e-01 7.1841436477825094e-01 -9.6210540565096037e-01 -1.0563459274055249e+00 -1.1182178412434484e+02 -1.3358744487392382e+00 -6.6988603391140406e-02 -4.6970837301148816e-01 3.1512772745247103e-01 6.2960106925004000e-01 -3.7018912824404403e+01 1.3948621169231841e+00 8.3616005580267228e-01 9.1328349588888472e+01 8.5863021073925139e-01 4.7947470249505664e-01 -2.2402225989035855e+00 -4.2607944130947800e-01 1.6332581476914918e+00 -5.7548389896878938e-01 1.5335644943213557e-02 
      </Row>
      <Row Index="13">
        3.2420376061337047e-01 1.9171067985736233e+01 -1.1270609001686954e-01 3.5410330318857780e-01 1.5767071635966262e-01 1.3353455534090134e+01 -1.3921170742874406e-01 1.0362945913154142e-01 -2.5888892640371322e+00 5.6943398002988097e+00 -2.0437255180333624e-02 -1.7777136179506936e+00 -5.9059111658631158e-01 1.7878260932264364e+01 4.9716820558065389e-03 1.0600903657922058e+00 -2.3807611261783324e+00 2.8312148176808762e+01 -3.8760051611343804e-01 -6.4300376994446751e-01 1.9486817742859286e+00 1.9984666633102750e+00 5.1345166683478544e+02 1.2236481915010033e+01 -1.6359693544304108e+01 4.6516986533990519e+00 2.5570966256919658e+00 -2.2123185783878583e+00 4.9791224105367053e+02 -3.8480734956202682e+00 -3.4949083977690487e-01 -2.2962423441940544e+02 -9.2957528243620633e+00 1.4851716290801690e+01 -6.0410592569767232e+00 3.8910822057443153e+00 -3.4757344089935045e+00 1.7128346803129144e+00 -5.2706555232615734e-02 
      </Row>
      <Row Index="14">
        2.2755635029353236e-01 7.3388892370905845e-01 1.0294398863066884e-01 -8.2110141635101785e-01 1.8701490564876694e-01 5.2276832600500245e-01 -4.1941170862876131e-02 -5.3216609521237657e-01 -8.9499951869629446e-01 -9.1381897378294052e-02 -2.1855549310918537e-01 8.2356835631203218e-02 -2.0118986499102576e-01 4.9716820223135727e-03 5.8529444483812465e-01 -4.9488679807475600e-01 -8.7120841954942940e-01 1.8975608075269262e-01 2.5516381515980191e-01 -1.2698190429272285e+00 2.9963246276319522e-01 1.5101401879851288e+00 6.5606307577210714e+01 9.1606598484811563e-01 1.2886979632532087e+00 1.6192321558737245e+02 -4.2384729730512982e-01 -8.7517556302028399e-01 -8.7420429180696164e+00 -2.3882184511979503e+00 -1.3392010205106661e+00 -7.5871131245924389e+01 1.0624233150452027e-01 -1.8792751202673346e+00 -3.3435818497803318e+01 6.8833519422655198e-01 -2.4915535982532719e+00 -2.0026101663001733e-01 -1.5690590740284747e-02 
      </Row>
      <Row Index="15">
        -6.8485173812972711e-01 2.7488160536355370e+00 9.8071465960645796e-02 1.2749965484168506e+01 -4.3553319788977840e-01 1.8131603535758383e+00 2.6562857423685010e-01 8.2205985380321085e+00 1.7882220578419137e+00 -1.9035375771032262e-01 1.3162811129151519e-03 1.9807968089629662e+00 3.1109777996486515e-01 1.0600903659359835e+00 -4.9488679807085634e-01 8.5176179590306180e+00 1.6012669747877351e+00 4.2423620750484474e+00 -5.2126679372959828e-01 2.1535937921227223e+01 -4.3663996613094485e+00 -5.3297246233428499e+00 -1.8756099370617369e+02 1.4752830645319881e-01 -3.7121137898951568e+00 -6.3491575710801321e+01 1.2843089139495807e+00 1.7871980712252489e+00 1.7560956767200713e+02 2.7923666248984354e+01 1.1314724049736315e+01 1.5454683708465236e+01 -9.2476212539775187e+00 -1.7129221442015341e-01 4.6014282087732276e+01 -6.2121101390826849e+00 1.2451571772486551e+01 1.3894867506361341e-01 -7.2454575255197088e-03 
      </Row>
      <Row Index="16">
        -6.6201635995569885e-01 -1.6183284964842799e+00 1.9068846806380146e-01 2.4134112949051154e+00 -2.1051558600209669e-01 -1.3942288435814147e+00 4.3274857812586864e-01 1.5417457682959790e+00 5.9798367714951084e+00 -1.2708585183964372e+00 -3.1302273195875180e-01 6.8111352941742431e-01 8.9329536753856709e-01 -2.3807611260773460e+00 -8.7120841954668782e-01 1.6012669747635446e+00 5.1696889606545948e+00 -2.0716118821905734e+00 -3.4602436533800263e-01 4.5561170426401434e+00 -4.5462137830996179e+00 -5.1187823795719041e+00 -5.3723884396141148e+02 -2.0520964628210847e+00 6.1013030776119903e-01 -1.3794754785733403e+02 7.0839448360955837e-01 1.8879296982959155e+00 -7.3490191105019221e+01 6.8581928356699908e+00 3.1656451076020247e+00 1.2500679012791051e+02 6.1603176949134308e-02 4.1944808364648534e-01 7.9970193391853144e+01 -1.9807473179465200e+00 5.5040272070337704e+00 -4.5645102223853862e-01 3.3155004478108874e-02 
      </Row>
      <Row Index="17">
        1.1277430537543998e-01 4.0479511209089765e+01 -1.9777530710469449e-01 5.9250654992280181e+00 -5.4415973905353465e-02 2.7699498165720275e+01 2.9525101111768259e-02 3.2986754009975354e+00 -2.0080269044941486e+00 6.7341887755547436e+00 5.4273557533013439e-01 -3.1223465468087319e+00 -5.9668713989501687e-01 2.8312148176928073e+01 1.8975608082852552e-01 4.2423620746986277e+00 -2.0716118824106218e+00 5.5347643446242124e+01 -2.5116904544302493e-01 7.1353683247689119e+00 3.4754290739598259e-01 -8.6389194661680990e-02 5.8046157827914931e+02 2.7949747675684993e+01 -2.5873498952785720e+01 6.8271989228649500e+02 5.1978225477382685e+00 -2.5955026409814295e+00 6.0444590916975858e+02 4.5656896540968459e+00 3.8252782772089882e+00 -2.5048387208724725e+02 -2.5063782039699113e+01 2.1731947860994779e+01 -1.3583693877639544e+02 4.2911644870101817e+00 -9.4648876892833167e-01 -9.0744703091256995e-01 -7.8973852173654241e-02 
      </Row>
      <Row Index="18">
        2.8150080719502169e-01 1.3851391186137657e-01 2.3491937624314480e-01 -9.6039242220435961e-01 1.6498823351317271e-01 -3.4950371485345952e-02 2.5783293956323794e-01 -6.6144324610050220e-01 -5.8724336933058197e-01 -1.0833947429684032e-01 1.1050442618482419e+00 -3.5524615594604003e-01 1.3295619077177029e-01 -3.8760051612665503e-01 2.5516381516486603e-01 -5.2126679373702967e-01 -3.4602436535148240e-01 -2.5116904546850410e-01 1.3427952327891983e+00 -1.7508644905654978e+00 2.1073357766980644e-01 8.9894248445264147e-01 2.9630411620988457e+02 1.7280289195350326e-01 1.1584828011256363e+00 1.0827696759668567e+02 3.4226673960823184e-01 7.0922447994331861e-01 -2.4981390076100593e+02 -3.1814512580864678e+00 -1.8658030952225602e+00 1.3640376139703122e+02 6.7238124883034978e-01 -1.5856149685066727e+00 -4.1117972846686996e+01 8.9753094624157004e-01 -1.8400969772429701e+00 -1.4562941236787756e+00 -1.4256564154234177e-02 
      </Row>
      <Row Index="19">
        -1.9280665248023545e+00 5.8817388747438351e+00 1.3390436086936103e-01 3.4229013245307577e+01 -1.1906196108834093e+00 3.6489997647544539e+00 5.3963548226949898e-01 2.2117323504317930e+01 5.1425528798137705e+00 -3.3407900934115777e+00 -7.1786280903000210e-01 6.2460052644618091e+00 7.1841436474335096e-01 -6.4300376949212690e-01 -1.2698190429183525e+00 2.1535937921191117e+01 4.5561170426952122e+00 7.1353683257987770e+00 -1.7508644905496347e+00 5.8117731524152205e+01 -1.1497954896455285e+01 -1.4952539497850506e+01 -4.9799206792415066e+02 1.7983431298498531e+00 -6.8631205389583823e+00 -1.2939842723737505e+02 1.4832237367275578e+00 5.3984455055689544e+00 2.0959351801312459e+02 7.7993256709413387e+01 3.1995072387357677e+01 6.0566561850812477e+01 -2.7166659434911271e+01 -5.5008651975461156e+00 1.4537658334169629e+02 -1.8638474203826032e+01 3.4021378859178874e+01 -1.3062148341304031e-01 -2.3806292983994400e-02 
      </Row>
      <Row Index="20">
        5.5503584734570577e-01 -4.9419146735498931e-01 -2.8679533108636446e-01 -5.8717642080386456e+00 1.2889585362428124e-01 -3.3373964040915471e-02 -4.0807984249361207e-01 -3.6962191178768737e+00 -5.9999010819844223e+00 1.7950575754626867e+00 1.3373321125485882e-01 -1.9427264906962063e+00 -9.6210540564321434e-01 1.9486817741214484e+00 2.9963246276447042e-01 -4.3663996613223848e+00 -4.5462137831187759e+00 3.4754290700826873e-01 2.1073357765786627e-01 -1.1497954896519534e+01 9.1920413939484238e+00 6.9321206905227575e+00 4.8789910697160758e+02 1.6866056183339375e+00 -6.2670195487539637e-01 -1.9722905570023983e+02 -1.8958255817596039e+00 -1.6656330363817533e+00 -4.1718849696345490e+02 -1.6721636714786769e+01 -8.4260297695688102e+00 8.6545235610310897e+01 3.1192575192491936e+00 3.3322167239851228e+00 1.5014660754157580e+02 4.0730999191870740e+00 -9.0682931791565800e+00 -7.1011761773293591e-01 6.8057865493181463e-02 
      </Row>
      <Row Index="21">
        1.4599348155825334e+00 1.9073015932741608e+00 3.1544731398754000e-01 -8.7725266015728423e+00 7.8443609923965552e-01 1.9446999012389448e+00 -1.6612229429314984e-01 -5.7149140448771751e+00 -7.2986181884889358e+00 2.1248524339955210e-01 -1.2144004172495859e-01 -8.9702616200216645e-01 -1.0563459273867239e+00 1.9984666629938665e+00 1.5101401879787344e+00 -5.3297246233709767e+00 -5.1187823795807610e+00 -8.6389195404399877e-02 8.9894248441715685e-01 -1.4952539497963576e+01 6.9321206905030390e+00 1.5423716083213765e+01 1.1966375374628842e+02 4.4896928425675391e+00 4.9137851693617041e+00 -4.8169389856496764e+02 -2.1561759425002389e+00 -7.2499918160747789e+00 -1.7214238029602564e+02 -2.3857926959116082e+01 -1.2877449398144048e+01 1.7883976662879752e+02 4.0478944539589508e+00 -1.7805478230092262e+00 3.1624901872327774e+02 6.3334947133125317e+00 -1.7988707228068758e+01 -5.8123665538711489e-01 2.3725308304757770e-01 
      </Row>
      <Row Index="22">
        8.3076087153864194e+01 5.4551139795969300e+02 4.2586887427374648e+01 -2.0261229716586564e+02 4.7105031638413095e+01 3.2669305974143333e+02 4.5923945197640776e+01 -1.0407811396615871e+02 -6.0111493178350258e+02 2.1612776571485256e+01 1.5896205749161186e+02 -2.4056599226708283e+02 -1.1182178412670052e+02 5.1345166684126593e+02 6.5606307580046206e+01 -1.8756099371166457e+02 -5.3723884397011489e+02 5.8046157828832224e+02 2.9630411621054157e+02 -4.9799206793971439e+02 4.8789910698161884e+02 1.1966375376921044e+02 5.1561623771366151e+05 5.0479901125571899e+02 -4.7400190424862041e+02 8.1554053549176751e+03 1.0075198198378844e+02 3.9490767257931401e+02 -1.3683550526737105e+05 -7.2260437531506409e+02 -2.8691103349827546e+02 -2.0015206711412568e+04 -3.7949439874808365e+02 -1.2085311827556737e+02 -1.6216740517378530e+03 2.5245337411579195e+02 -3.9383993471940863e+02 1.1165588685263913e+01 -3.0162148347099350e+01 
      </Row>
      <Row Index="23">
        4.9899041456152748e-01 2.9470304163595994e+01 1.8492775503242664e-01 2.5782509447852857e+00 2.9939306255405529e-01 1.8347682638319188e+01 -1.1427193898758181e-01 1.4290764173682955e+00 -1.8494048601343571e+00 -4.4791226394374597e+00 -9.0598764970938750e-01 -1.0978332894915657e+00 -1.3358744487866956e+00 1.2236481915081583e+01 9.1606598490933344e-01 1.4752830604760128e-01 -2.0520964630340548e+00 2.7949747675501289e+01 1.7280289194459031e-01 1.7983431286926859e+00 1.6866056187142802e+00 4.4896928432860141e+00 5.0479901123766024e+02 2.8765619512151279e+01 -6.4212834211151213e+00 2.7599728957740234e+02 1.7323164962449455e-02 -3.9079284585928540e+00 6.9032880441886775e+01 -2.0113361204865923e+00 -2.2466859706985227e+00 -2.6936977535194882e+02 -2.5440122076193877e+01 1.3813760629086553e+00 -5.8900377073175036e+00 2.6832883740004196e+00 -9.5010193867123469e+00 2.2176154947447496e-01 -8.7164245342571701e-03 
      </Row>
      <Row Index="24">
        3.1384077146536815e-01 -1.3233844588973454e+01 3.4352697579513503e-01 -4.8923960246126628e+00 3.2420643656574133e-01 -9.7657175929406641e+00 3.3161577744094672e-02 -3.0444192885806176e+00 9.1811759203526833e-01 -7.1016948552322106e+00 -3.9264756747159513e-01 1.4155372776467492e+00 -6.6988603371582245e-02 -1.6359693544441278e+01 1.2886979632273432e+00 -3.7121137898477539e+00 6.1013030782212041e-01 -2.5873498953046386e+01 1.1584828010927315e+00 -6.8631205387766130e+00 -6.2670195498792758e-01 4.9137851691706844e+00 -4.7400190425579331e+02 -6.4212834213507302e+00 2.3159253731271701e+01 2.8696894593236658e+02 -3.1742077636910699e+00 -2.5315005885630466e+00 -5.3465616045374838e+02 -8.1799461317924589e+00 -6.2488143980615387e+00 1.7687667631717022e+02 8.0616993113511128e+00 -2.3620109703944237e+01 -1.5882478092887027e+00 -3.7695117812265283e-01 -9.5340032230113980e+00 -2.8858038919450837e+00 1.0508037127286562e-01 
      </Row>
      <Row Index="25">
        2.0620592251300707e+00 5.6780440403048078e+02 -2.9423132122634172e+01 -5.7511467909645546e+01 1.5144764782034656e+01 3.4118179123626373e+02 -3.6055551045556683e+01 -5.3668532405413629e+01 2.2213046621966555e+01 1.4195925244958767e+02 5.5069823175679858e+01 -7.2113528377923416e+01 -4.6970837396783693e-01 4.6516986595661365e+00 1.6192321558830761e+02 -6.3491575709882738e+01 -1.3794754785994837e+02 6.8271989230440249e+02 1.0827696759762904e+02 -1.2939842723136582e+02 -1.9722905569742966e+02 -4.8169389855787449e+02 8.1554053552709520e+03 2.7599728960180528e+02 2.8696894593321167e+02 3.1406938165043789e+05 7.8324637791436274e+01 1.9901616637324975e+02 4.6757455976431665e+03 -1.6591376236501222e+02 5.0142755064021685e+01 -7.3751750883483051e+04 -1.6863958704809247e+02 -8.1553577031130862e+02 -1.7699582998227258e+05 1.0072219164925220e+02 -1.7519318601571774e+02 -2.4533176768827144e+02 -3.3416283759879718e+01 
      </Row>
      <Row Index="26">
        -1.4857279231033321e-01 2.8748823034746884e+00 2.0007241592842173e-02 1.0329737328356803e+00 -1.2686701263763089e-01 2.0194311584422544e+00 2.3549200834399572e-01 4.6331547732611245e-01 9.1994302477906653e-01 1.3023121225779857e+00 1.0552731835082991e+00 -1.1147308469284070e+00 3.1512772744753242e-01 2.5570966257276071e+00 -4.2384729729929876e-01 1.2843089139666304e+00 7.0839448360431856e-01 5.1978225478462265e+00 3.4226673961826753e-01 1.4832237367769712e+00 -1.8958255817552114e+00 -2.1561759424847007e+00 1.0075198198738053e+02 1.7323165085359471e-02 -3.1742077636901711e+00 7.8324637793878750e+01 2.7862548090226293e+00 7.4150847091885885e-01 3.3129544360842027e+02 1.8597112469104868e+00 1.7589740356597756e+00 3.8665019741651747e+00 -3.2104783861166730e-01 3.4615768421892397e+00 -1.3007502508951109e+02 5.2202252459646403e-01 2.8485541191943957e+00 4.2131618197620935e-01 -4.4693144954899414e-02 
      </Row>
      <Row Index="27">
        -4.1523394386215118e-01 -3.4679658787631249e+00 -6.0084097600337449e-02 3.2626582871770458e+00 -2.9040880701872629e-01 -2.7702545444800686e+00 2.5900359967370795e-01 2.1950917512994277e+00 2.1630989564703986e+00 -1.0816884785961722e-01 1.2294919409190057e+00 2.5226608062764411e-01 6.2960106923846992e-01 -2.2123185782173582e+00 -8.7517556301579336e-01 1.7871980712597466e+00 1.8879296982953513e+00 -2.5955026405715755e+00 7.0922447996255622e-01 5.3984455056822283e+00 -1.6656330363754264e+00 -7.2499918160774106e+00 3.9490767259278618e+02 -3.9079284581929383e+00 -2.5315005886671194e+00 1.9901616637647351e+02 7.4150847092863170e-01 5.8604305315025806e+00 -4.3268833026133473e+02 9.0801970782158303e+00 4.9958793175955707e+00 1.4290929239199829e+02 -1.3268898815106756e-01 1.1989218013203575e+00 -5.0889942589322558e+01 -2.8283557843981502e+00 9.2420545700410308e+00 -1.8962165703667708e+00 -1.3778649959727426e-01 
      </Row>
      <Row Index="28">
        -1.0659915199269349e+01 4.3488206169524778e+02 -2.7073667577833113e+01 7.7594182466547025e+01 -1.2779784340497429e+00 3.2437930335079000e+02 -3.0521632339192344e+01 3.7580970384701445e+01 1.0075398988058055e+01 8.9313264634225220e+01 -1.1215519865022392e+02 -3.0249066139229242e+01 -3.7018912821844133e+01 4.9791224104959485e+02 -8.7420429200998200e+00 1.7560956768532995e+02 -7.3490191097386912e+01 6.0444590917415621e+02 -2.4981390075987653e+02 2.0959351804864781e+02 -4.1718849697542805e+02 -1.7214238031906996e+02 -1.3683550526761962e+05 6.9032880433335890e+01 -5.3465616046044408e+02 4.6757455994290067e+03 3.3129544361324474e+02 -4.3268833024835061e+02 3.9590519498452160e+05 3.2335137497867930e+02 4.5867208215179039e+02 -1.4165865855718873e+05 -7.4974813318296199e+01 6.4369899731676196e+02 -2.8241945553420723e+05 4.4244662035412759e+01 2.9136165343570485e+02 2.5290408598520817e+03 -1.5514259223862396e+01 
      </Row>
      <Row Index="29">
        -2.7546478068908149e+00 2.9388675972759284e+00 -4.6676291425512340e-01 4.5278613324888063e+01 -1.7706297603472079e+00 1.7679302743306768e+00 4.1292113745122327e-01 2.9388791839117477e+01 7.6238895008859204e+00 -4.5071982983508612e+00 -9.0070067946344734e-01 8.6470139913464550e+00 1.3948621168776492e+00 -3.8480734948274704e+00 -2.3882184511989597e+00 2.7923666248965674e+01 6.8581928357688993e+00 4.5656896558523137e+00 -3.1814512580563261e+00 7.7993256709488676e+01 -1.6721636714713320e+01 -2.3857926959026369e+01 -7.2260437528480452e+02 -2.0113361186855983e+00 -8.1799461322350897e+00 -1.6591376237290922e+02 1.8597112468768375e+00 9.0801970781005572e+00 3.2335137492529390e+02 1.1552546581203229e+02 5.1759789722063061e+01 2.6543935253970193e+02 -3.7098027993909483e+01 -1.2489767870474688e+01 1.2607281684359172e+02 -2.9925235747007349e+01 5.2938834475249642e+01 -6.1974642264069879e-01 -6.7147253577415064e-02 
      </Row>
      <Row Index="30">
        -1.1759863751383524e+00 1.3826875717582787e+00 -5.5011006983367650e-01 1.8140628598321534e+01 -7.7449865381171923e-01 9.7646703607609497e-01 1.3384153829631984e-02 1.1848802327785860e+01 3.6015078774025979e+00 -7.0992348452580867e-01 -2.6453696329125803e-01 3.4874602940176920e+00 8.3616005578278707e-01 -3.4949083933907943e-01 -1.3392010205151044e+00 1.1314724049760864e+01 3.1656451076493810e+00 3.8252782781718198e+00 -1.8658030952007096e+00 3.1995072387468340e+01 -8.4260297695434172e+00 -1.2877449398136296e+01 -2.8691103347922217e+02 -2.2466859697912636e+00 -6.2488143983526454e+00 5.0142755062639566e+01 1.7589740356671926e+00 4.9958793175653451e+00 4.5867208212585518e+02 5.1759789722149605e+01 2.6114924161057477e+01 7.6424003981552403e+01 -1.5398008513248730e+01 -3.9249911933179082e+00 -8.4121971164363060e+01 -1.3739713232538595e+01 2.6440447885200911e+01 4.4983841005166486e-01 -1.1089661054312823e-01 
      </Row>
      <Row Index="31">
        8.9110366993307366e+00 -3.2957650797254882e+02 -6.6770348938915234e+00 2.4776470266022841e+01 -1.7691670240141235e+01 -1.8397540125221110e+02 3.6249713403229663e+01 1.5577250871910820e+01 -4.3613861000837630e+00 6.2648195740574465e+01 2.1223440728379589e+02 1.5202056961480196e+01 9.1328349588196389e+01 -2.2962423441602095e+02 -7.5871131245743328e+01 1.5454683705716405e+01 1.2500679012703937e+02 -2.5048387208472099e+02 1.3640376139651590e+02 6.0566561842941695e+01 8.6545235612976853e+01 1.7883976663350930e+02 -2.0015206711222185e+04 -2.6936977534765333e+02 1.7687667631590838e+02 -7.3751750884320179e+04 3.8665019734326620e+00 1.4290929238906352e+02 -1.4165865855733430e+05 2.6543935252646435e+02 7.6424003974838797e+01 1.2306808023006683e+05 1.1990947602984424e+02 -7.9242770585269056e+01 1.5261633073147017e+05 -1.3002220360614842e+02 2.0597469170890633e+02 -1.2432886266706143e+03 2.2730222843808274e+01 
      </Row>
      <Row Index="32">
        3.8677579816949320e-01 -2.6851686625294793e+01 8.9087470231718119e-02 -1.7417940442585142e+01 3.1745970709030263e-01 -1.6343731362485325e+01 4.7565026867624316e-02 -1.1169371106042171e+01 -3.6209633915902434e-01 6.0585799417385715e+00 8.3458238194930046e-01 -1.7867816469454676e+00 8.5863021079968616e-01 -9.2957528247128600e+00 1.0624233144731021e-01 -9.2476212535842208e+00 6.1603177118088437e-02 -2.5063782040142598e+01 6.7238124882781003e-01 -2.7166659433831526e+01 3.1192575188621054e+00 4.0478944532459558e+00 -3.7949439874186464e+02 -2.5440122076817492e+01 8.0616993112920259e+00 -1.6863958702210613e+02 -3.2104783848590490e-01 -1.3268898773317445e-01 -7.4974813308323945e+01 -3.7098027992190026e+01 -1.5398008512356398e+01 1.1990947602928607e+02 3.6660580220174445e+01 4.5662560837660129e+00 -1.4548927483085485e+01 8.1466339872999676e+00 -8.7030770150149674e+00 4.3717641428539900e-02 5.4589174808606325e-02 
      </Row>
      <Row Index="33">
        -4.3628522773869155e-01 7.0758327259770848e+00 -2.6789089886886314e-01 -2.2279891812042232e+00 -4.7915793160527109e-01 6.4370240756079129e+00 1.3417693923593663e-01 -1.7251344637104182e+00 -3.5001436246073420e-01 9.4000837048673915e+00 6.2698110794338369e-01 -3.2230920445322186e+00 4.7947470249684992e-01 1.4851716290727889e+01 -1.8792751202545297e+00 -1.7129221436973596e-01 4.1944808362389030e-01 2.1731947860892802e+01 -1.5856149684745382e+00 -5.5008651974777854e+00 3.3322167239908103e+00 -1.7805478230200196e+00 -1.2085311827008627e+02 1.3813760627411913e+00 -2.3620109703875169e+01 -8.1553577030168617e+02 3.4615768422270108e+00 1.1989218013411871e+00 6.4369899731785040e+02 -1.2489767870514793e+01 -3.9249911933969228e+00 -7.9242770589006426e+01 4.5662560839520463e+00 3.5248635408696146e+01 1.3467214791365859e+02 6.0512490724250618e+00 5.1931575062851358e+00 4.1284388086653605e+00 6.9054389076297545e-02 
      </Row>
      <Row Index="34">
        1.5878565773806486e-01 -1.1254441557562029e+02 5.3244191517709965e+00 7.3182371884881377e+01 -4.3313938243521193e+00 -6.1955022106482659e+01 -7.5321039505635810e+00 5.0514300999323709e+01 5.0862771748029445e-01 -3.2502250785535693e+01 -7.5365648790968791e+01 8.0956699316211143e+01 -2.2402226011481989e+00 -6.0410592560735950e+00 -3.3435818496428425e+01 4.6014282075296705e+01 7.9970193385892458e+01 -1.3583693879220220e+02 -4.1117972849140358e+01 1.4537658330599049e+02 1.5014660755107479e+02 3.1624901874134900e+02 -1.6216740517173894e+03 -5.8900377143663718e+00 -1.5882478038992929e+00 -1.7699582998428654e+05 -1.3007502509265521e+02 -5.0889942601323298e+01 -2.8241945553236530e+05 1.2607281678989395e+02 -8.4121971189468383e+01 1.5261633073040599e+05 -1.4548927458087348e+01 1.3467214792103329e+02 5.5891378302316810e+05 -4.7457925388984705e+01 -4.5455692563756543e+01 -3.0637177574239117e+03 2.3607355848532091e+01 
      </Row>
      <Row Index="35">
        6.9063488586475352e-01 3.1017102116243991e+00 2.1586368202506628e-01 -1.0593611388533116e+01 4.5050218223300176e-01 2.2454791487787906e+00 -2.0892585562074927e-02 -6.9898754186486771e+00 -2.1392716178153663e+00 2.0691284674171673e+00 3.5607022177574466e-01 -2.6625190211306369e+00 -4.2607944130150766e-01 3.8910822055217658e+00 6.8833519423355383e-01 -6.2121101390920144e+00 -1.9807473179852653e+00 4.2911644865218364e+00 8.9753094623546148e-01 -1.8638474203884869e+01 4.0730999191866468e+00 6.3334947133346615e+00 2.5245337410658874e+02 2.6832883735351105e+00 -3.7695117796183703e-01 1.0072219165101194e+02 5.2202252459432685e-01 -2.8283557843953795e+00 4.4244662048755977e+01 -2.9925235747083860e+01 -1.3739713232567615e+01 -1.3002220360995233e+02 8.1466339877716987e+00 6.0512490723840617e+00 -4.7457925402411526e+01 8.7552738990444912e+00 -1.3946796136535268e+01 3.5085578813931073e-01 9.5080205516007415e-03 
      </Row>
      <Row Index="36">
        -1.7895108630669718e+00 -5.8697318176220445e+00 -4.9399030323388710e-01 1.9491848715655628e+01 -1.2266782382440560e+00 -3.5338242111785858e+00 3.8836351095620153e-01 1.2622706999172532e+01 5.8605650080321121e+00 7.1191300838597282e-01 7.2936209552839948e-01 2.9983095207332680e+00 1.6332581476761627e+00 -3.4757344085316717e+00 -2.4915535982652059e+00 1.2451571772628867e+01 5.5040272071246736e+00 -9.4648876778655555e-01 -1.8400969772051297e+00 3.4021378859628278e+01 -9.0682931792161536e+00 -1.7988707228230059e+01 -3.9383993468894914e+02 -9.5010193856527856e+00 -9.5340032233593881e+00 -1.7519318600761852e+02 2.8485541192350814e+00 9.2420545701053580e+00 2.9136165340116486e+02 5.2938834475815106e+01 2.6440447885415761e+01 2.0597469171713664e+02 -8.7030770162157811e+00 5.1931575062718656e+00 -4.5455692535410407e+01 -1.3946796136616340e+01 3.4939789144837903e+01 3.4892805035505642e-01 -1.1242167271809367e-01 
      </Row>
      <Row Index="37">
        -9.0925994095123919e-02 -6.0792432070130964e-02 1.1139599826936125e-01 -1.1722665909525776e-01 4.8698097468256152e-02 -1.1062689071907406e-01 -5.2976821398262375e-02 4.0675130339650201e-03 2.5551786975895885e-02 -8.8520673342628831e-01 -1.3959732897313322e+00 -8.0347538342489311e-02 -5.7548389894654217e-01 1.7128346802629419e+00 -2.0026101664487506e-01 1.3894867514847653e-01 -4.5645102218347899e-01 -9.0744703091784928e-01 -1.4562941236670688e+00 -1.3062148318884215e-01 -7.1011761781994132e-01 -5.8123665556171178e-01 1.1165588682400994e+01 2.2176154936567527e-01 -2.8858038919836639e+00 -2.4533176767174643e+02 4.2131618201373267e-01 -1.8962165702614766e+00 2.5290408598525314e+03 -6.1974642228916499e-01 4.4983841023267923e-01 -1.2432886266692881e+03 4.3717641411995814e-02 4.1284388086610804e+00 -3.0637177574416887e+03 3.5085578804835504e-01 3.4892805061468868e-01 2.6150727714061603e+01 -1.0358281100316759e-01 
      </Row>
      <Row Index="38">
        -1.4772650406970622e-03 -7.8821155450413211e-02 2.0442055096828241e-03 -1.7277681719333374e-02 -6.9695555028250755e-03 -2.3607660481667625e-02 7.1625387966975165e-03 -1.4091869651610939e-02 -1.3460849153710000e-02 8.1275687400013119e-03 3.6849452526459964e-03 1.2833631353898617e-02 1.5335644943640496e-02 -5.2706555237721164e-02 -1.5690590740610799e-02 -7.2454575264422338e-03 3.3155004478962191e-02 -7.8973852185730997e-02 -1.4256564154814605e-02 -2.3806292987023581e-02 6.8057865492465675e-02 2.3725308304614279e-01 -3.0162148347424591e+01 -8.7164245461791023e-03 1.0508037127542205e-01 -3.3416283760051300e+01 -4.4693144954977428e-02 -1.3778649959641676e-01 -1.5514259223592667e+01 -6.7147253580246063e-02 -1.1089661054361169e-01 2.2730222843744276e+01 5.4589174820806552e-02 6.9054389077418094e-02 2.3607355848385893e+01 9.5080205515229808e-03 -1.1242167271513255e-01 -1.0358281100093254e-01 1.3922009944091911e-02 
      </Row>
    </InverseHessian>
  </Weights>
</MethodSetup>
