<?xml version="1.0"?>
<MethodSetup Method="MLP::MLP">
  <GeneralInfo>
    <Info name="TMVA Release" value="4.1.2 [262402]"/>
    <Info name="ROOT Release" value="5.32/00 [335872]"/>
    <Info name="Creator" value="tomc"/>
    <Info name="Date" value="Thu Jan 10 12:32:16 2013"/>
    <Info name="Host" value="Linux lxbuild168.cern.ch 2.6.18-308.1.1.el5 #1 SMP Wed Mar 7 19:25:07 CET 2012 x86_64 x86_64 x86_64 GNU/Linux"/>
    <Info name="Dir" value="/user_mnt/user/tomc/QGTagger/training/c/4/aKDE03"/>
    <Info name="Training events" value="1299218"/>
    <Info name="TrainingTime" value="5.06874970e+03"/>
    <Info name="AnalysisType" value="Classification"/>
  </GeneralInfo>
  <Options>
    <Option name="NCycles" modified="No">500</Option>
    <Option name="HiddenLayers" modified="No">N,N-1</Option>
    <Option name="NeuronType" modified="No">sigmoid</Option>
    <Option name="RandomSeed" modified="No">1</Option>
    <Option name="EstimatorType" modified="No">MSE</Option>
    <Option name="NeuronInputType" modified="No">sum</Option>
    <Option name="V" modified="Yes">False</Option>
    <Option name="VerbosityLevel" modified="No">Default</Option>
    <Option name="VarTransform" modified="Yes">N</Option>
    <Option name="H" modified="Yes">False</Option>
    <Option name="CreateMVAPdfs" modified="Yes">True</Option>
    <Option name="IgnoreNegWeightsInTraining" modified="No">False</Option>
    <Option name="TrainingMethod" modified="No">BP</Option>
    <Option name="LearningRate" modified="No">2.000000e-02</Option>
    <Option name="DecayRate" modified="No">1.000000e-02</Option>
    <Option name="TestRate" modified="Yes">3</Option>
    <Option name="EpochMonitoring" modified="No">False</Option>
    <Option name="Sampling" modified="No">1.000000e+00</Option>
    <Option name="SamplingEpoch" modified="No">1.000000e+00</Option>
    <Option name="SamplingImportance" modified="No">1.000000e+00</Option>
    <Option name="SamplingTraining" modified="No">True</Option>
    <Option name="SamplingTesting" modified="No">False</Option>
    <Option name="ResetStep" modified="No">50</Option>
    <Option name="Tau" modified="No">3.000000e+00</Option>
    <Option name="BPMode" modified="No">sequential</Option>
    <Option name="BatchSize" modified="No">-1</Option>
    <Option name="ConvergenceImprove" modified="No">1.000000e-30</Option>
    <Option name="ConvergenceTests" modified="No">-1</Option>
    <Option name="UseRegulator" modified="Yes">True</Option>
    <Option name="UpdateLimit" modified="No">10000</Option>
    <Option name="CalculateErrors" modified="No">False</Option>
    <Option name="WeightRange" modified="No">1.000000e+00</Option>
  </Options>
  <Variables NVar="4">
    <Variable VarIndex="0" Expression="axis1" Label="axis1" Title="axis1" Unit="" Internal="axis1" Type="F" Min="-1.19137811e-03" Max="4.17967141e-01"/>
    <Variable VarIndex="1" Expression="axis2" Label="axis2" Title="axis2" Unit="" Internal="axis2" Type="F" Min="-8.86450696e-04" Max="2.72305220e-01"/>
    <Variable VarIndex="2" Expression="mult" Label="mult" Title="mult" Unit="" Internal="mult" Type="I" Min="0.00000000e+00" Max="2.70000000e+01"/>
    <Variable VarIndex="3" Expression="ptD" Label="ptD" Title="ptD" Unit="" Internal="ptD" Type="F" Min="1.70458317e-01" Max="1.00142789e+00"/>
  </Variables>
  <Spectators NSpec="0"/>
  <Classes NClass="2">
    <Class Name="Signal" Index="0"/>
    <Class Name="Background" Index="1"/>
  </Classes>
  <Transformations NTransformations="1">
    <Transform Name="Normalize">
      <Selection>
        <Input NInputs="4">
          <Input Type="Variable" Label="axis1" Expression="axis1"/>
          <Input Type="Variable" Label="axis2" Expression="axis2"/>
          <Input Type="Variable" Label="mult" Expression="mult"/>
          <Input Type="Variable" Label="ptD" Expression="ptD"/>
        </Input>
        <Output NOutputs="4">
          <Output Type="Variable" Label="axis1" Expression="axis1"/>
          <Output Type="Variable" Label="axis2" Expression="axis2"/>
          <Output Type="Variable" Label="mult" Expression="mult"/>
          <Output Type="Variable" Label="ptD" Expression="ptD"/>
        </Output>
      </Selection>
      <Class ClassIndex="0">
        <Ranges>
          <Range Index="0" Min="-1.1520961998030543e-03" Max="4.1796714067459106e-01"/>
          <Range Index="1" Min="-8.8645069627091289e-04" Max="2.7230522036552429e-01"/>
          <Range Index="2" Min="0.0000000000000000e+00" Max="2.7000000000000000e+01"/>
          <Range Index="3" Min="1.7045831680297852e-01" Max="1.0014278888702393e+00"/>
        </Ranges>
      </Class>
      <Class ClassIndex="1">
        <Ranges>
          <Range Index="0" Min="-1.1913781054317951e-03" Max="4.1554310917854309e-01"/>
          <Range Index="1" Min="-8.8645069627091289e-04" Max="2.4602030217647552e-01"/>
          <Range Index="2" Min="0.0000000000000000e+00" Max="2.2000000000000000e+01"/>
          <Range Index="3" Min="1.8283878266811371e-01" Max="1.0014278888702393e+00"/>
        </Ranges>
      </Class>
      <Class ClassIndex="2">
        <Ranges>
          <Range Index="0" Min="-1.1913781054317951e-03" Max="4.1796714067459106e-01"/>
          <Range Index="1" Min="-8.8645069627091289e-04" Max="2.7230522036552429e-01"/>
          <Range Index="2" Min="0.0000000000000000e+00" Max="2.7000000000000000e+01"/>
          <Range Index="3" Min="1.7045831680297852e-01" Max="1.0014278888702393e+00"/>
        </Ranges>
      </Class>
    </Transform>
  </Transformations>
  <MVAPdfs>
    <PDF Name="MLP_PDFSig" MinNSmooth="0" MaxNSmooth="0" InterpolMethod="5" KDE_type="1" KDE_iter="2" KDE_border="1" KDE_finefactor="3.0000001192092896e-01">
      <Histogram Name="MLP_tr_S_original" NBins="250" XMin="2.2786451876163483e-01" XMax="9.8869782686233521e-01" HasEquidistantBins="1">
        0.00000000e+00 0.00000000e+00 6.26930443e-04 9.40395636e-04 9.40395636e-04 9.40395636e-04 1.56732602e-03 1.56732602e-03 3.44811729e-03 1.88079127e-03 6.26930408e-03 6.58276957e-03 5.95583906e-03 1.06578171e-02 1.37924692e-02 1.34790037e-02 1.81809831e-02 1.91213787e-02 2.53906827e-02 2.50772163e-02 2.88388003e-02 3.07195913e-02 2.85253339e-02 3.60484980e-02 4.89005744e-02 4.20043394e-02 4.82736416e-02 5.07813655e-02 5.36025502e-02 6.17526472e-02 6.36334345e-02 6.86488822e-02 7.42912516e-02 7.86797702e-02 6.77084848e-02 8.08740258e-02 8.27548131e-02 8.40086788e-02 8.93375874e-02 8.43221396e-02 9.62338224e-02 9.02779773e-02 1.02816589e-01 9.90550071e-02 1.03756987e-01 1.03130057e-01 1.10653222e-01 1.08145498e-01 1.11907080e-01 1.23505294e-01 1.24445692e-01 1.26953408e-01 1.28520742e-01 1.39805481e-01 1.35103509e-01 1.41372815e-01 1.50776774e-01 1.54851809e-01 1.49209440e-01 1.47642121e-01 1.67076960e-01 1.58299938e-01 1.81496352e-01 1.79302096e-01 1.67703882e-01 1.85257941e-01 1.79615572e-01 1.86511800e-01 1.83690608e-01 2.02498525e-01 1.99050412e-01 2.10335150e-01 2.10648626e-01 1.98736951e-01 2.14410201e-01 2.15664059e-01 2.18798712e-01 2.24127620e-01 2.22873762e-01 2.33845040e-01 2.49831781e-01 2.31337324e-01 2.57354945e-01 2.71460861e-01 2.71147400e-01 2.57668406e-01 2.76162863e-01 2.86507189e-01 2.96851546e-01 2.74282068e-01 2.96851546e-01 2.95911163e-01 3.05315107e-01 3.03747803e-01 3.11270952e-01 3.18794131e-01 3.13151747e-01 3.30392331e-01 3.54215682e-01 3.54842633e-01 3.45752120e-01 3.64246577e-01 3.52021426e-01 3.62679243e-01 3.66440833e-01 3.90891105e-01 4.15968329e-01 3.77725571e-01 4.11579818e-01 4.04997051e-01 4.31014657e-01 4.29760814e-01 4.46374446e-01 4.42299426e-01 4.48882192e-01 4.56405342e-01 4.53897625e-01 4.72705543e-01 5.04678965e-01 4.71451670e-01 5.13142526e-01 5.34458160e-01 5.31010091e-01 5.29756188e-01 5.28815806e-01 5.50131440e-01 5.62043130e-01 5.77716410e-01 5.89001119e-01 6.08122528e-01 5.74895203e-01 6.07182086e-01 6.48872972e-01 6.37274802e-01 6.56396151e-01 6.47305667e-01 6.85234964e-01 7.33195126e-01 7.02162087e-01 7.12192953e-01 7.37270176e-01 7.27552772e-01 7.45106816e-01 8.11561406e-01 7.91499674e-01 8.12501848e-01 8.09367180e-01 8.45415652e-01 8.67985189e-01 8.62969756e-01 9.07481790e-01 9.23155069e-01 9.11243379e-01 9.66099799e-01 9.48859215e-01 9.83653843e-01 9.77071047e-01 1.03788328e+00 1.06640863e+00 1.07205105e+00 1.06734908e+00 1.08678389e+00 1.12502658e+00 1.13881910e+00 1.18395805e+00 1.19367552e+00 1.21060264e+00 1.26420522e+00 1.26922059e+00 1.32250977e+00 1.31561351e+00 1.36075246e+00 1.39993560e+00 1.45134389e+00 1.47892892e+00 1.52061975e+00 1.56325102e+00 1.53691995e+00 1.60744965e+00 1.65352905e+00 1.69145823e+00 1.74380696e+00 1.75258398e+00 1.81245589e+00 1.85571408e+00 1.90273380e+00 1.99708688e+00 2.06166077e+00 2.09614182e+00 2.09488797e+00 2.18234491e+00 2.24597836e+00 2.28735566e+00 2.35600448e+00 2.40114355e+00 2.46132874e+00 2.54157591e+00 2.58734179e+00 2.61837482e+00 2.70489120e+00 2.77479410e+00 2.86663938e+00 2.92274952e+00 3.01365447e+00 3.07572055e+00 3.21583962e+00 3.24875355e+00 3.29890800e+00 3.41457653e+00 3.53745484e+00 3.63118100e+00 3.66190052e+00 3.73399758e+00 3.93461537e+00 4.02019119e+00 4.02896833e+00 4.21673393e+00 4.28193474e+00 4.39540911e+00 4.52863169e+00 4.62894058e+00 4.70762062e+00 4.93237495e+00 4.99788952e+00 5.18032598e+00 5.26339436e+00 5.41040945e+00 5.56181335e+00 5.62607384e+00 5.77779055e+00 5.90098238e+00 5.91226721e+00 6.16460705e+00 6.15206814e+00 6.24955606e+00 6.19814777e+00 6.20159578e+00 6.07307482e+00 5.93483686e+00 5.45147371e+00 5.15869713e+00 4.71169567e+00 4.06031466e+00 3.29263854e+00 2.40553212e+00 1.52281404e+00 8.44475269e-01 3.39169353e-01 7.80528411e-02 1.12847472e-02 
      </Histogram>
    </PDF>
    <PDF Name="MLP_PDFBkg" MinNSmooth="0" MaxNSmooth="0" InterpolMethod="5" KDE_type="1" KDE_iter="2" KDE_border="1" KDE_finefactor="3.0000001192092896e-01">
      <Histogram Name="MLP_tr_B_original" NBins="250" XMin="2.2786451876163483e-01" XMax="9.8869782686233521e-01" HasEquidistantBins="1">
        1.30923709e-03 2.61847419e-03 2.61847419e-03 7.85542279e-03 7.85542279e-03 1.83293186e-02 1.30923707e-02 2.88032163e-02 5.23694828e-02 4.71325368e-02 6.15341440e-02 7.85542279e-02 1.09975912e-01 1.36160657e-01 1.46634549e-01 1.64963871e-01 1.42706841e-01 2.16024116e-01 2.38281146e-01 2.56610483e-01 2.65775114e-01 3.31236988e-01 3.56112480e-01 3.60040188e-01 4.16337401e-01 4.35975939e-01 4.43831384e-01 4.54305261e-01 5.02747059e-01 5.79992056e-01 4.81799245e-01 5.48570335e-01 5.65590441e-01 5.64281166e-01 6.58546269e-01 6.19269133e-01 6.14032209e-01 6.59855485e-01 6.79494023e-01 7.06988037e-01 6.95204914e-01 7.21389651e-01 7.04369545e-01 7.54120588e-01 8.09108496e-01 8.02562356e-01 7.88160741e-01 7.98634648e-01 8.88971984e-01 8.24819386e-01 8.54931831e-01 9.20393646e-01 8.36602509e-01 9.71453905e-01 8.73261154e-01 8.60168755e-01 8.75879586e-01 8.51004124e-01 9.54433858e-01 9.40032244e-01 9.26939845e-01 9.84546304e-01 9.55743074e-01 9.16465938e-01 1.02120495e+00 9.89783227e-01 1.03953421e+00 9.46578383e-01 9.55743074e-01 1.03691578e+00 1.06702816e+00 1.04215276e+00 1.05262661e+00 1.07357442e+00 1.05524504e+00 1.08142984e+00 1.18485951e+00 1.11285150e+00 1.08404827e+00 1.16391182e+00 1.16653025e+00 1.08797598e+00 1.12201619e+00 1.12463462e+00 1.05524504e+00 1.17700410e+00 1.18224108e+00 1.18616879e+00 1.17307639e+00 1.13249004e+00 1.20842588e+00 1.17700410e+00 1.21104431e+00 1.31709254e+00 1.15474713e+00 1.22020900e+00 1.21497202e+00 1.19533348e+00 1.30269086e+00 1.25293994e+00 1.25032139e+00 1.26210451e+00 1.29352629e+00 1.32494795e+00 1.31316483e+00 1.29352629e+00 1.33018494e+00 1.34458649e+00 1.37600815e+00 1.36029732e+00 1.31185555e+00 1.32625711e+00 1.37600815e+00 1.32363868e+00 1.38386357e+00 1.43492389e+00 1.38517284e+00 1.38779128e+00 1.45718086e+00 1.41397607e+00 1.36815274e+00 1.50955033e+00 1.38386357e+00 1.51871502e+00 1.51216888e+00 1.47551024e+00 1.49514878e+00 1.45194387e+00 1.49383950e+00 1.51347804e+00 1.47551024e+00 1.54489970e+00 1.63523710e+00 1.62738168e+00 1.59596002e+00 1.60774314e+00 1.56584752e+00 1.58286762e+00 1.60905242e+00 1.61559856e+00 1.72426522e+00 1.58941376e+00 1.62476325e+00 1.59203231e+00 1.68236971e+00 1.68629742e+00 1.66796803e+00 1.66927731e+00 1.69022512e+00 1.72033751e+00 1.72688377e+00 1.70069897e+00 1.70331740e+00 1.67975116e+00 1.73735762e+00 1.70855439e+00 1.75699615e+00 1.74128532e+00 1.86042595e+00 1.69153428e+00 1.80412865e+00 1.76354229e+00 1.85126126e+00 1.72688377e+00 1.86173511e+00 1.98087573e+00 1.89970303e+00 1.91279542e+00 1.89053833e+00 1.94159865e+00 1.92065084e+00 1.95600021e+00 1.93898010e+00 1.94159865e+00 1.98611271e+00 1.91541386e+00 2.03979135e+00 1.91148615e+00 2.04502821e+00 1.94945407e+00 2.04371905e+00 2.03586364e+00 1.95207250e+00 2.05942988e+00 1.98873115e+00 2.12227321e+00 2.17857051e+00 2.13929343e+00 2.12227321e+00 2.05812073e+00 2.16416883e+00 2.11310863e+00 2.18118906e+00 2.16285968e+00 2.22308469e+00 2.21261072e+00 2.10656238e+00 2.23224926e+00 2.17464280e+00 2.32127738e+00 2.13405633e+00 2.23879552e+00 2.23486781e+00 2.11441779e+00 2.18118906e+00 2.25843406e+00 2.19035363e+00 2.22963071e+00 2.14453030e+00 2.29640174e+00 2.17071509e+00 2.20082760e+00 2.22570300e+00 2.23879552e+00 2.22308469e+00 2.30425715e+00 2.17071509e+00 2.21522903e+00 2.23748612e+00 2.14976740e+00 2.13929343e+00 2.17595196e+00 2.20475531e+00 2.19428134e+00 2.07645011e+00 2.03717279e+00 1.91410458e+00 2.03717279e+00 1.92326927e+00 1.90624917e+00 1.97563875e+00 1.73473918e+00 1.71379137e+00 1.65356648e+00 1.61559856e+00 1.49645793e+00 1.39302826e+00 1.22020900e+00 1.22282743e+00 1.06833744e+00 8.69333446e-01 8.07799280e-01 5.64281166e-01 4.33357477e-01 3.56112480e-01 1.84602425e-01 1.00811258e-01 2.88032163e-02 7.85542279e-03 0.00000000e+00 
      </Histogram>
    </PDF>
  </MVAPdfs>
  <Weights>
    <Layout NLayers="4">
      <Layer Index="0" NNeurons="5">
        <Neuron NSynapses="4">
          1.8277662417953600e+00 1.4458362364424637e+00 -1.3146696866452874e+00 5.5812812465445223e+00 
        </Neuron>
        <Neuron NSynapses="4">
          1.7251567768425098e+00 5.3048088480963006e-02 -1.6252827216927876e+00 4.9441065804677287e+00 
        </Neuron>
        <Neuron NSynapses="4">
          -9.7996557941347646e+00 -1.0260553940848045e+00 -6.3758936095637662e+00 2.4748399844138982e-01 
        </Neuron>
        <Neuron NSynapses="4">
          1.2676753170195537e-01 4.4816512771463728e+00 7.7893252837195903e-01 7.2081519132861649e-01 
        </Neuron>
        <Neuron NSynapses="4">
          -8.2851070722411890e+00 1.0755321620017884e+00 -5.3925453890873927e+00 9.1619167680763312e+00 
        </Neuron>
      </Layer>
      <Layer Index="1" NNeurons="5">
        <Neuron NSynapses="3">
          -5.3957301116752445e+00 -1.7672802002285837e+00 1.0092032702796891e+00 
        </Neuron>
        <Neuron NSynapses="3">
          -3.7781174752737490e-01 -1.8117280369546929e+00 -2.6338080409551807e+00 
        </Neuron>
        <Neuron NSynapses="3">
          2.3408086327176920e+00 -1.3620777959789436e+00 7.8153881739278994e-02 
        </Neuron>
        <Neuron NSynapses="3">
          -1.7588005319902531e+00 1.4021971511179236e+00 1.8967109543886316e+00 
        </Neuron>
        <Neuron NSynapses="3">
          -6.4684037027446240e-01 -2.9504372239583190e+00 -4.1793077676573196e+00 
        </Neuron>
      </Layer>
      <Layer Index="2" NNeurons="4">
        <Neuron NSynapses="1">
          -8.3198561036995788e-01 
        </Neuron>
        <Neuron NSynapses="1">
          1.1222678610033470e+00 
        </Neuron>
        <Neuron NSynapses="1">
          1.1003486085175309e+00 
        </Neuron>
        <Neuron NSynapses="1">
          7.6679550762330606e-01 
        </Neuron>
      </Layer>
      <Layer Index="3" NNeurons="1">
        <Neuron NSynapses="0"/>
      </Layer>
    </Layout>
    <InverseHessian NElements="1521" NRows="39" NCols="39">
      <Row Index="0">
        9.9292136761650007e-01 -5.1353208208255605e-02 -2.4124947473305286e-01 6.2079863504790234e-01 7.9065290121976672e-01 -2.9465027475783296e-02 -2.3284947484013874e-01 5.0138435552483862e-01 -2.8704173454497632e+00 -4.6334591972179907e-02 3.3385171898265897e-01 -4.2682552685635666e-01 1.5476243288420716e-01 -1.6180637926955607e-01 -6.5761986103595210e-02 2.0301478609680537e-01 -9.5091322182316129e-01 2.0147181536524783e-03 3.6851262589358957e-01 2.4176146217571159e-01 3.8992458996418549e+00 2.7448094125691109e+00 1.4555874588012685e+00 2.6072270891010940e-01 -1.2588613242825937e+00 -1.0999823523334369e+00 2.9074313912480504e-01 4.4023120574647900e-01 7.5904272223809743e-01 5.6281420941581939e-01 9.2930600986930212e-01 -2.2762492515929855e-01 -1.6500000896256890e+00 1.5114772673812578e+00 3.0426013622880164e+00 -1.8832773282862705e-01 -1.6317220157187311e+00 -4.6365609808799784e+00 5.2332243540779248e-03 
      </Row>
      <Row Index="1">
        -5.1353208211204482e-02 4.5900791743723918e-01 1.8604235710166886e-01 -8.9669155813029255e-02 -8.0017042984625628e-02 5.1225961129986480e-02 1.7656441821403407e-01 -8.8569692299192537e-02 1.7969948992970280e-01 -2.2834619405583047e-02 3.6696070947682657e-01 1.3931428571987398e-01 3.2973664988571599e-02 1.1884536634086182e+00 1.3974753505064477e-01 1.7641742314129799e-01 8.2782694797769826e-02 1.3032287736315746e+00 6.0175029572993288e-01 -2.7155205781535352e-02 -1.4168843530984465e-01 8.4078814256696066e-01 -1.5174820171834807e-01 -1.4568065005623998e-01 1.5510167800274988e+00 2.5633208888483643e+00 1.6720915584863716e-01 1.0759175947432480e+00 1.9501498905089565e-03 1.0273339333634013e-01 4.6370814404014238e-01 -2.9169101592792379e+00 -5.7732181369667124e-02 -2.7995812679321403e+00 7.6279582742820695e-01 5.8029474146889075e-03 2.4353238327654307e+00 2.0491947823692946e+00 -4.4018578686386298e-02 
      </Row>
      <Row Index="2">
        -2.4124947472231728e-01 1.8604235707512551e-01 5.0779423670276247e-01 -3.3461091070915755e-01 -2.7885323200364764e-01 1.1833292506186413e-01 3.8798363183857598e-01 -3.9930299942789471e-01 6.1690848291825462e-01 3.0608544640733920e-01 8.1047691560667501e-01 5.2822912197970980e-02 -2.3274591378720115e-02 4.2848330790913441e-01 4.4893868335216025e-02 -7.2905610767078313e-02 3.4849827521493426e-01 6.9370642723580667e-01 1.1769090914946090e+00 -3.6420035363116032e-01 -1.7778238132639376e-01 6.1740649800225023e-01 -2.2646721864006247e-01 -2.6819571280579546e-01 1.8256602352482851e-01 1.9587042910293633e+00 4.9473681625711430e-01 9.6953461716249367e-01 -5.3689641476526002e-02 -2.0541508547884557e-01 9.1248884122394092e-01 -1.5182207780819374e+00 2.5980548992117392e-01 -3.6671405801265489e-01 -2.8807816017633088e+00 9.0055478786901344e-02 -2.5060467208899534e-01 4.1544711438611275e+00 -2.5098970560252100e-02 
      </Row>
      <Row Index="3">
        6.2079863504148980e-01 -8.9669155827514224e-02 -3.3461091070771232e-01 1.9379296235395393e+00 6.1822413397421794e-01 -5.5593285734599332e-02 -4.4525229734836652e-01 1.3021765518282331e+00 -1.6589567403266647e+00 -1.8737249720478175e-02 2.0933395830597409e-01 -4.1314739333793238e-01 3.3570171542271127e-02 2.8876619413573834e-02 1.7518546105917104e-02 2.6909630836447646e-01 -5.9808238443932371e-01 -2.4811021465540092e-01 -2.1647570580758391e-03 1.7425319957891949e+00 1.9165159615097973e+00 1.1157761762533491e+00 1.3224967852960223e-01 2.6663392046681922e-01 -1.1784267047425274e+00 -1.9486931679976111e-01 3.7778998645784378e-01 -5.1705190684393287e-01 3.1443474743469740e-01 1.0810408913148510e+00 4.1803508134872303e-01 -3.9005213021159091e-01 -2.1304321944164917e+00 3.8523469692836865e-01 -1.9685062645360598e+00 -2.0181061477455484e-01 -7.4694086188022824e-01 1.6058994425553905e+00 1.6668591209138720e-02 
      </Row>
      <Row Index="4">
        7.9065290121726317e-01 -8.0017042977228670e-02 -2.7885323201448153e-01 6.1822413397876697e-01 9.6863673414794838e-01 -2.0059514717760192e-02 -1.9797848576234883e-01 5.0891803033664673e-01 -2.7798898944433965e+00 -3.8439216996651343e-02 2.6204877065010573e-01 -4.2296918911638631e-01 1.2210120328093810e-01 -2.0721014210032357e-01 -4.2298884021510288e-02 1.8385606711294514e-01 -8.9272004728140852e-01 -1.2977467812639712e-01 2.7721549476769514e-01 2.3833703904870071e-01 3.8299606754715025e+00 2.6432139153240182e+00 1.5716488001811759e+00 2.7712852576673097e-01 -1.3826611198255925e+00 -1.5380742338440530e+00 1.8627429295990802e-01 4.2877494763008983e-01 7.5319883308782420e-01 5.4414267631900104e-01 6.6167540634775968e-01 2.5199769000461369e-01 -1.5367018356750588e+00 1.4704736423734772e+00 2.5746810721142390e+00 -1.9424728789455842e-01 -1.3096065178367347e+00 -4.7827607770475522e+00 1.8176268112627427e-02 
      </Row>
      <Row Index="5">
        -2.9465027472496200e-02 5.1225961125789421e-02 1.1833292506016915e-01 -5.5593285733918023e-02 -2.0059514714290211e-02 1.0105859572863544e-01 4.8566269168944201e-02 -1.0412213602630281e-01 5.8087567860508407e-02 9.1174906578038811e-02 2.3998910487023412e-01 -6.4862752040053567e-02 4.8244661448657022e-04 1.4862475007472564e-01 8.2455914245836287e-03 -3.5622177713963928e-03 4.8336069261116645e-02 2.3872386790739558e-01 2.9086327202892881e-01 -1.4702519531623440e-01 6.1490014060832793e-03 3.1606199989391076e-01 1.1371237069998055e-01 -3.8222093781924718e-02 -4.6689788546769848e-02 2.4264659867501814e-01 1.7143189915211685e-01 1.0883593016575389e-01 7.3377061536685217e-03 -4.8611813629737370e-02 2.5771601778055692e-01 -2.9547554617829180e-01 -2.9455290969968316e-02 1.3149274895945129e-01 3.2813609986305760e-02 1.7786368307065772e-02 -2.8955994973702581e-01 1.0226481385088959e-01 -3.6298851843392403e-03 
      </Row>
      <Row Index="6">
        -2.3284947482443608e-01 1.7656441818128243e-01 3.8798363182848467e-01 -4.4525229735323052e-01 -1.9797848574489674e-01 4.8566269169369569e-02 5.2467302009858108e-01 -2.3610690359416192e-01 5.6053237384841936e-01 3.0627404705578981e-01 8.7921579232686065e-01 -3.8939958113366313e-02 -2.3772102736816514e-03 2.5389972747989586e-01 -2.9659623632844800e-02 -8.3740378249503908e-02 3.6896363038259311e-01 5.2043703382803752e-01 1.2477992983573039e+00 -3.7263454730658180e-01 -8.6783260895087200e-02 4.6553348230509989e-01 -1.6383205720066976e-01 -2.2017613302299485e-01 -2.8732502192936721e-01 1.5719133582733886e+00 5.6140475442522986e-01 8.1344348156880508e-01 -4.3320718938598110e-02 -1.9939288857478812e-01 1.0732886368873700e+00 -1.0543476022867215e+00 1.4225487566770914e-01 7.5153892128390420e-01 -2.8807724691837580e+00 7.9702114555840101e-02 -1.4961940539849830e+00 3.6578742864571616e+00 -1.6705076717692925e-02 
      </Row>
      <Row Index="7">
        5.0138435551698213e-01 -8.8569692311744497e-02 -3.9930299943101166e-01 1.3021765518226129e+00 5.0891803033151994e-01 -1.0412213602774356e-01 -2.3610690359582276e-01 1.5296979800002597e+00 -1.4159732251148609e+00 -1.9448302224417430e-02 1.4002227509296514e-01 -2.9714000740505142e-01 1.5271422672897494e-02 -1.4191699829292537e-01 2.9032398559985045e-02 1.1727200168417946e-01 -5.5060596729789713e-01 -4.8980226764299822e-01 2.6084995161371249e-02 1.6176349029335146e+00 1.6115313773312410e+00 1.0405610452177698e+00 9.0922070079633543e-02 2.2218674323460041e-01 -1.4299007950466291e+00 -4.7604095143433300e-01 3.5156215017695319e-01 -4.9285937564112281e-01 3.0201711027322736e-01 8.9415988430055759e-01 5.2659611940946971e-01 5.7533995184638076e-01 -1.8339477715715311e+00 4.4633684767371451e-01 -3.1427400454084831e+00 -1.6936697393229563e-01 -9.2175312554770195e-01 1.8388424315060212e+00 2.2600736758495676e-02 
      </Row>
      <Row Index="8">
        -2.8704173454330695e+00 1.7969948992353935e-01 6.1690848296085754e-01 -1.6589567403172878e+00 -2.7798898944378614e+00 5.8087567872551205e-02 5.6053237390939170e-01 -1.4159732251120367e+00 1.3230911018709360e+01 -2.7303978165993303e-01 -1.9721342037858922e+00 1.0595814622456521e+00 -1.4452470100084325e-01 5.9393040836465616e-01 -9.5195760357592807e-02 -3.9848593176437069e-01 4.8573599533905707e+00 5.4479525605316559e-01 -1.9398732246884012e+00 -8.2876874574457948e-01 -2.1537917856807656e+01 -1.4093148923343554e+01 -5.5466890206874133e+00 -7.0985504790028464e-01 6.5061913848684885e+00 4.1440180973083027e+00 -1.1369232322253817e+00 -2.6126982987007339e+00 -3.7778089471549299e+00 -1.1966110624635669e+00 -3.2196671796827410e+00 -1.9418108862112469e+00 4.3899214063125944e+00 -3.8180768142860328e+00 2.3985998536088764e+00 4.5031440552299473e-01 2.9728359440968837e+00 8.9797456212818769e+00 -8.9999405470711114e-02 
      </Row>
      <Row Index="9">
        -4.6334591953145932e-02 -2.2834619444070725e-02 3.0608544637873214e-01 -1.8737249734983474e-02 -3.8439216972530943e-02 9.1174906575638204e-02 3.0627404703481509e-01 -1.9448302229500794e-02 -2.7303978173514493e-01 5.9448423065476286e-01 9.8864123681584715e-01 -2.9584920306832474e-01 -4.2867138950915651e-02 -2.9007834420905310e-01 -3.8327459137145969e-02 -1.4817384021488181e-01 3.0541777306158202e-02 -5.4519887317809324e-02 1.1429384847447901e+00 -1.3083860212196011e-01 1.2325859375040182e+00 3.6133668017117798e-01 -9.5015504777151705e-02 -9.6937137050779318e-02 -1.5132537501330565e+00 -1.3533969493490283e-01 7.1089797082471240e-01 -2.3023834540857774e-01 -3.0582015749427732e-02 -1.3997407992376915e-01 9.5060308760865353e-01 6.9884850200465287e-01 -2.5569594468624562e-01 2.7588734408379958e+00 -3.8951111552897451e+00 5.8682424966213155e-02 -3.4591330329530487e+00 2.7751875447891292e+00 2.0740988633483167e-02 
      </Row>
      <Row Index="10">
        3.3385171904103839e-01 3.6696070934699065e-01 8.1047691555088885e-01 2.0933395828884849e-01 2.6204877071957355e-01 2.3998910486733749e-01 8.7921579230512226e-01 1.4002227510543541e-01 -1.9721342040410841e+00 9.8864123687434513e-01 3.4968928460189961e+00 -8.6832866207480930e-01 8.7511058615936221e-02 4.8148681838150376e-01 -1.8337346401690757e-01 -8.8577060942792135e-02 -3.4153581493607549e-01 1.2404981302240685e+00 4.1375808881295502e+00 -1.9194630274676988e-01 4.6373732268941783e+00 4.0564630505090502e+00 2.6744423552115393e-01 -3.6555084720304243e-01 -3.6316918478234728e+00 3.8264540601167889e+00 2.6580075726960373e+00 1.3857783727834518e+00 5.5075178084007703e-01 1.5964882541537381e-01 4.9338963801309230e+00 -3.5869012811223424e+00 -2.0609799209914899e+00 5.1995924980053401e+00 -8.5191044032712036e+00 7.2386908618986362e-02 -8.6635176133787279e+00 9.7018825828170208e+00 -2.4707638347311420e-02 
      </Row>
      <Row Index="11">
        -4.2682552688495701e-01 1.3931428574566063e-01 5.2822912256460519e-02 -4.1314739332129635e-01 -4.2296918915376747e-01 -6.4862752032821547e-02 -3.8939958052384149e-02 -2.9714000739732072e-01 1.0595814623414952e+00 -2.9584920301630885e-01 -8.6832866186737023e-01 1.5731488763973704e+00 5.0207397282990174e-02 6.2840717020494019e-01 2.7181176873421886e-01 -1.3425864115274838e-01 2.8748588793171359e-01 3.1017953915089502e-01 -5.2792094021564784e-01 7.4165172013742076e-01 -1.2293602367446717e+00 2.1500919516159911e-01 -7.3846681003476711e-01 -2.2834051915792644e-01 2.2140167065069756e+00 2.1638885650836497e+00 -5.8112033721507483e-01 1.6075924521518323e+00 -8.6336982764217141e-02 -1.9733506081606028e-01 1.6809861164101847e+00 -3.1362074050119353e+00 1.0461874652829759e+00 -8.6854462872997704e+00 -7.3086602062327588e-01 7.9382920161142317e-02 6.7019290404521321e+00 4.3305306593869437e+00 -4.1020755162058324e-02 
      </Row>
      <Row Index="12">
        1.5476243289042174e-01 3.2973664979225381e-02 -2.3274591379512044e-02 3.3570171547226239e-02 1.2210120328730500e-01 4.8244661459795335e-04 -2.3772102713583154e-03 1.5271422679738855e-02 -1.4452470102874845e-01 -4.2867138941745785e-02 8.7511058635300232e-02 5.0207397266936793e-02 1.7758617186672129e-01 1.2346633290943651e-01 -7.5205470795148902e-02 2.8861064100601429e-02 9.1101860498987802e-02 2.7772497410949498e-01 1.7935545527390151e-01 7.8520347626298115e-02 7.8369883337014196e-02 2.5059173090526077e-01 -1.0634552326984847e-01 2.1396524794185676e-02 5.7590108059883252e-02 7.3416457536219604e-01 2.6686597129532363e-01 4.5198649288801226e-02 3.7298793089311624e-02 2.4317703151700707e-02 9.9414657620790592e-01 -1.1414428892612338e+00 -3.1361584512171847e-01 -1.0359531785565135e-01 1.5552482720684346e+00 1.7837870360685640e-02 -8.9944087212101687e-01 -2.6348418663802758e-01 -2.1649389463176214e-02 
      </Row>
      <Row Index="13">
        -1.6180637929212871e-01 1.1884536634260421e+00 4.2848330800756163e-01 2.8876619460833086e-02 -2.0721014213921940e-01 1.4862475008933806e-01 2.5389972759467216e-01 -1.4191699825578219e-01 5.9393040843369094e-01 -2.9007834408601518e-01 4.8148681881867045e-01 6.2840717014469938e-01 1.2346633294263487e-01 3.6943230014573909e+00 3.7071930999497593e-01 6.1322308673617731e-01 1.8458622447496048e-01 3.7844421848951200e+00 1.0567033104511048e+00 2.9871791713186213e-01 -8.7846611237274885e-01 2.0274644746160249e+00 -7.5623277993463134e-01 -3.5114044344858830e-01 5.4181689706120508e+00 7.7926518836172551e+00 5.3596084622633988e-02 3.4361129786747746e+00 -5.1942287981818824e-02 4.3751456057650706e-01 4.3199208091244146e-01 -8.8848902657233602e+00 -2.0097883737902111e-02 -1.0156045428322889e+01 2.1637253721074585e+00 -8.2025670930064576e-03 9.7516768708754924e+00 6.7741471315739537e+00 -1.3643158074670758e-01 
      </Row>
      <Row Index="14">
        -6.5761986114882154e-02 1.3974753506127779e-01 4.4893868355061262e-02 1.7518546110456640e-02 -4.2298884035767870e-02 8.2455914270256336e-03 -2.9659623612741992e-02 2.9032398561308792e-02 -9.5195760318950690e-02 -3.8327459121267574e-02 -1.8337346395085985e-01 2.7181176873770929e-01 -7.5205470789675655e-02 3.7071931002204783e-01 3.1696252487323168e-01 6.4598095859484408e-02 -1.1346910790131705e-01 3.1717043539771289e-01 -7.8257105631132612e-02 2.4618631851569478e-01 2.1442530151709605e-01 5.5508457197316474e-01 -1.6855916194012677e-01 -9.8745092184776451e-02 8.4063280234937099e-01 9.9495875527590283e-01 -1.3760965078643328e-01 1.8192268561955099e-01 6.3644515615820435e-02 -2.1818312554942688e-02 -7.7178014880154189e-02 -7.6323986775579900e-01 2.3092303300595976e-01 -2.4501129915265132e+00 -9.4750464636799259e-01 2.0830156953618784e-02 2.5123736489991302e+00 1.6351860330968244e+00 -1.5134060505509007e-02 
      </Row>
      <Row Index="15">
        2.0301478609851076e-01 1.7641742314602027e-01 -7.2905610753433048e-02 2.6909630837891985e-01 1.8385606711161140e-01 -3.5622177692697932e-03 -8.3740378233526536e-02 1.1727200169623786e-01 -3.9848593176595271e-01 -1.4817384019781329e-01 -8.8577060874371491e-02 -1.3425864115973396e-01 2.8861064107188639e-02 6.1322308674301407e-01 6.4598095856092344e-02 5.2151403417369346e-01 -9.5630438378326216e-02 8.1130080203202048e-01 -1.5794585602102890e-01 9.2863992407095974e-02 3.8838430890326592e-01 2.4117518703704377e-01 2.1702252283475376e-01 1.4092116840788088e-01 1.2075394991439545e+00 9.7987905183780466e-01 -2.1595653114315638e-01 1.5717756745067302e-01 7.3811233097675510e-02 2.0718591901359645e-01 -5.5882889706639149e-01 -2.2049630985254072e+00 -1.8115018471863623e-01 -4.0941727570229669e-01 3.5112536385279429e+00 -5.4066050661076531e-02 1.0669876386473125e+00 -1.3699703262842964e+00 -2.2588139365248196e-02 
      </Row>
      <Row Index="16">
        -9.5091322179468918e-01 8.2782694756755149e-02 3.4849827521026011e-01 -5.9808238443951622e-01 -8.9272004725378284e-01 4.8336069264340864e-02 3.6896363039457647e-01 -5.5060596729220723e-01 4.8573599533046501e+00 3.0541777346891119e-02 -3.4153581485246531e-01 2.8748588783584239e-01 9.1101860503943755e-02 1.8458622432003191e-01 -1.1346910793517298e-01 -9.5630438396643536e-02 2.6097361026867913e+00 3.5031780197768841e-01 -2.3287867520614841e-01 -2.4551764003942206e-01 -5.5382408665743625e+00 -4.5689139211505960e+00 -2.1639738491956502e+00 -2.6018982206889651e-01 1.2793251073089968e+00 2.1952497290695234e+00 1.8307499481534573e-01 -1.3953964295096022e+00 -1.1510914879148690e+00 -6.3363801301041134e-01 8.2549671244371958e-01 -2.1826260684547396e+00 1.5266110694386010e+00 8.4280298348169858e-02 3.8209261095538999e-01 2.6517492842415225e-01 -2.1159028147066801e+00 4.9145744858842040e+00 -3.0667858015830787e-02 
      </Row>
      <Row Index="17">
        2.0147181632941269e-03 1.3032287736116714e+00 6.9370642731407273e-01 -2.4811021459953064e-01 -1.2977467813092503e-01 2.3872386792129596e-01 5.2043703393333773e-01 -4.8980226758991119e-01 5.4479525600731049e-01 -5.4519887179185322e-02 1.2404981306690328e+00 3.1017953902827067e-01 2.7772497414063224e-01 3.7844421847678689e+00 3.1717043535028394e-01 8.1130080200588095e-01 3.5031780209371288e-01 4.9007484599504174e+00 2.0444018608018482e+00 -3.1918924595894738e-01 -1.0948413931482364e+00 1.9084801412872991e+00 -9.4220568942040117e-01 -4.7052413098277235e-01 5.9308244089707642e+00 1.0076396259633215e+01 6.7590572681320427e-01 3.2417411053855547e+00 -1.9859470550127331e-01 3.6424191419775814e-01 1.5934864654982677e+00 -1.1318923346093154e+01 -3.5641829225521349e-01 -6.9724842303516708e+00 6.2297591203387945e+00 4.3287901797417046e-02 5.6193282483402349e+00 5.7527761221894185e+00 -1.9926351586395052e-01 
      </Row>
      <Row Index="18">
        3.6851262595373235e-01 6.0175029557817084e-01 1.1769090914546894e+00 -2.1647570668252847e-03 2.7721549483734975e-01 2.9086327202881179e-01 1.2477992983619011e+00 2.6084995185811977e-02 -1.9398732249706723e+00 1.1429384848475375e+00 4.1375808882423470e+00 -5.2792094047805094e-01 1.7935545525746033e-01 1.0567033099267786e+00 -7.8257105716145373e-02 -1.5794585610592549e-01 -2.3287867526522746e-01 2.0444018602974916e+00 5.5106093052157838e+00 -1.8086052459326502e-01 4.8011917115482845e+00 6.0135038898459356e+00 3.2106912593894066e-01 -6.0393532652651283e-01 -3.4075737792165981e+00 6.3857364253416646e+00 3.2760924455892106e+00 3.2520663380412551e+00 7.4654252772323593e-01 2.6077521056404868e-01 7.2462152798526063e+00 -6.5715516969647023e+00 -2.6234743880122360e+00 2.3547342254894059e+00 -1.0354941168338268e+01 6.8861194524729469e-02 -7.6857536570440548e+00 1.3760673529066910e+01 -6.9895501247170769e-02 
      </Row>
      <Row Index="19">
        2.4176146215204763e-01 -2.7155205796212556e-02 -3.6420035360047098e-01 1.7425319957874261e+00 2.3833703902366743e-01 -1.4702519531302194e-01 -3.7263454726769396e-01 1.6176349029364427e+00 -8.2876874570777437e-01 -1.3083860207099013e-01 -1.9194630261623180e-01 7.4165172009996816e-01 7.8520347626799047e-02 2.9871791706917483e-01 2.4618631850216860e-01 9.2863992388411809e-02 -2.4551763998628973e-01 -3.1918924599608106e-01 -1.8086052445443512e-01 3.0427900464590381e+00 1.2775886856148020e+00 1.2111523069374357e+00 -9.2632031995101372e-01 9.5665152178497692e-02 -5.2425064638133634e-01 1.7533160475307841e+00 4.6885693026987002e-01 -2.6944813139143604e-02 2.2681816132686750e-01 7.5797258324752215e-01 2.6254026855957919e+00 -1.5197570404354979e+00 -1.3931682343010952e+00 -5.3655484066384753e+00 -6.4594260902958096e+00 -2.6561000055308343e-02 2.4453078382875955e+00 7.7231487708896980e+00 -7.0006937175512811e-03 
      </Row>
      <Row Index="20">
        3.8992458996687103e+00 -1.4168843544365117e-01 -1.7778238144170189e-01 1.9165159614541145e+00 3.8299606755252427e+00 6.1490013876692728e-03 -8.6783260997009393e-02 1.6115313773148929e+00 -2.1537917857015799e+01 1.2325859374669843e+00 4.6373732265418672e+00 -1.2293602368551690e+00 7.8369883277858765e-02 -8.7846611276114495e-01 2.1442530149165379e-01 3.8838430883540376e-01 -5.5382408667505452e+00 -1.0948413936817434e+00 4.8011917110244973e+00 1.2775886854776830e+00 4.7912489545252996e+01 2.6420212750605515e+01 7.3133968614573988e+00 7.5206300037567075e-01 -1.4841661066624784e+01 -3.9303800375373026e+00 3.0376819190839903e+00 3.9913109156438566e+00 7.3528688311944936e+00 8.2740326671534792e-01 1.0611891510262964e+01 -7.8794615594599371e-01 -5.3351418526466485e+00 7.1208472629506225e+00 -2.1334868798163694e+01 -3.4830156735659989e-01 -9.8604076594255545e+00 4.3685237918995625e+00 2.4394705040361700e-01 
      </Row>
      <Row Index="21">
        2.7448094124707083e+00 8.4078814266721480e-01 6.1740649806099590e-01 1.1157761762812870e+00 2.6432139152247771e+00 3.1606199988775074e-01 4.6553348232559522e-01 1.0405610452293566e+00 -1.4093148923105666e+01 3.6133668012620562e-01 4.0564630504809802e+00 2.1500919539315611e-01 2.5059173089336229e-01 2.0274644749869237e+00 5.5508457205546635e-01 2.4117518706952756e-01 -4.5689139210952536e+00 1.9084801415796464e+00 6.0135038899166542e+00 1.2111523071215000e+00 2.6420212750414919e+01 3.2796038392456722e+01 1.3169490537410546e+01 1.2557543574404528e-01 -7.3247040851644103e+00 -1.7125009963440647e+00 2.9965939360315508e+00 1.3190116335800937e+01 8.4621449079529398e+00 1.0423826556356066e+00 1.0705411021330374e+01 -3.6244277687005164e+00 -5.1610232016598259e+00 -1.3997827587747631e+01 -7.3275648565986948e+00 -2.9782120009534718e-01 1.2847933353956996e+01 -1.0493869619063915e+01 2.0825881254560696e-02 
      </Row>
      <Row Index="22">
        1.4555874586771083e+00 -1.5174820137215761e-01 -2.2646721862957264e-01 1.3224967856691716e-01 1.5716488000536373e+00 1.1371237067915274e-01 -1.6383205732093131e-01 9.0922070051092874e-02 -5.5466890201919403e+00 -9.5015505136142320e-02 2.6744423485938995e-01 -7.3846680927965735e-01 -1.0634552327544355e-01 -7.5623277865651772e-01 -1.6855916168310259e-01 2.1702252301937364e-01 -2.1639738492582925e+00 -9.4220568838862861e-01 3.2106912550240563e-01 -9.2632031954153848e-01 7.3133968601307515e+00 1.3169490538241121e+01 1.4375388792139120e+01 1.1629921829693082e+00 -2.0459720800316106e+00 -1.9768684593618467e+01 -1.2111446095921128e+00 6.6636278496971180e+00 4.3270499003878449e+00 3.4812091105321674e-01 -2.5605822754965004e+00 1.4202435411946581e+01 -1.1407129639521609e+00 -2.8469552702770677e+00 2.6986302614360024e+01 -4.7059111455685299e-01 1.0570774909487362e+01 -5.4131520670999521e+01 2.2128244517635640e-01 
      </Row>
      <Row Index="23">
        2.6072270890064697e-01 -1.4568065001996189e-01 -2.6819571281613985e-01 2.6663392046636680e-01 2.7712852575849212e-01 -3.8222093785696742e-02 -2.2017613304925732e-01 2.2218674322821386e-01 -7.0985504785664666e-01 -9.6937137104030652e-02 -3.6555084732359600e-01 -2.2834051906802877e-01 2.1396524790767479e-02 -3.5114044330837013e-01 -9.8745092153902370e-02 1.4092116842850899e-01 -2.6018982209369912e-01 -4.7052413088297096e-01 -6.0393532663134719e-01 9.5665152218100430e-02 7.5206300018781747e-01 1.2557543588422959e-01 1.1629921831228920e+00 3.5841807946235282e-01 -4.5933626663873284e-01 -3.1613524263513306e+00 -3.4094295322580248e-01 -4.6734066662250656e-01 2.3157984909399554e-01 8.8759742206238654e-02 -9.6844561453117950e-01 2.6253689287880366e+00 -2.2599864414419965e-01 1.4525997894279765e+00 3.8224276635026131e+00 -7.7937068864832745e-02 -3.7757952611092804e-01 -7.0979680164614551e+00 4.6951499084995428e-02 
      </Row>
      <Row Index="24">
        -1.2588613244041920e+00 1.5510167802923966e+00 1.8256602378879450e-01 -1.1784267046151415e+00 -1.3826611199966816e+00 -4.6689788515646313e-02 -2.8732502169728846e-01 -1.4299007949919540e+00 6.5061913853898057e+00 -1.5132537500289531e+00 -3.6316918470618615e+00 2.2140167067701473e+00 5.7590108157421493e-02 5.4181689713994432e+00 8.4063280241934990e-01 1.2075394992578463e+00 1.2793251077062202e+00 5.9308244099980971e+00 -3.4075737780965394e+00 -5.2425064602923355e-01 -1.4841661066537867e+01 -7.3247040857571051e+00 -2.0459720833254984e+00 -4.5933626708676378e-01 1.9373579953513904e+01 8.2540923965496305e+00 -4.4481265286641092e+00 5.0114968756406606e+00 -2.4498716449032525e+00 4.7632195289857854e-01 -9.9271955401275918e+00 -9.1532444198364296e+00 4.1837896241221904e+00 -2.3624994158708560e+01 2.5510404905968020e+01 -1.4616414176910819e-01 3.0639109595959262e+01 -9.6478555213715946e+00 -2.7869983012333460e-01 
      </Row>
      <Row Index="25">
        -1.0999823521392642e+00 2.5633208881929477e+00 1.9587042911724382e+00 -1.9486931676464359e-01 -1.5380742336655828e+00 2.4264659873423966e-01 1.5719133586944736e+00 -4.7604095128332347e-01 4.1440180964106759e+00 -1.3533969402772694e-01 3.8264540621237906e+00 2.1638885635316853e+00 7.3416457541232916e-01 7.7926518811148000e+00 9.9495875474336515e-01 9.7987905145020449e-01 2.1952497294145275e+00 1.0076396257769115e+01 6.3857364270567611e+00 1.7533160468943880e+00 -3.9303800341779151e+00 -1.7125009984879398e+00 -1.9768684595835509e+01 -3.1613524262983574e+00 8.2540923887478783e+00 5.5099137507097083e+01 4.9121594092066871e+00 2.6069394915647415e+00 -3.0971074623806842e+00 9.2853782963849030e-01 1.4330226311827564e+01 -4.9160425067752485e+01 -1.7844142038415360e+00 -1.3801220427407980e+01 -4.9543836800874658e+01 6.6712486890283285e-01 -2.9710548645318298e+00 1.1028803799489063e+02 -8.0437094681910881e-01 
      </Row>
      <Row Index="26">
        2.9074313919567096e-01 1.6720915569106154e-01 4.9473681619250875e-01 3.7778998643779604e-01 1.8627429304357435e-01 1.7143189914897761e-01 5.6140475440242366e-01 3.5156215019243930e-01 -1.1369232325342136e+00 7.1089797089909745e-01 2.6580075727096402e+00 -5.8112033746749070e-01 2.6686597127312073e-01 5.3596084090266061e-02 -1.3760965086784660e-01 -2.1595653122674641e-01 1.8307499471836985e-01 6.7590572627579282e-01 3.2760924454693656e+00 4.6885693011269414e-01 3.0376819195248572e+00 2.9965939360612879e+00 -1.2111446088236164e+00 -3.4094295308416456e-01 -4.4481265296147985e+00 4.9121594068455749e+00 3.2903669692595865e+00 -8.1368872652766666e-01 2.9172840771543296e-01 -2.7037503806180996e-01 7.1884804061217293e+00 -4.5673950295897319e+00 -2.0638082789226924e+00 4.6887576275143301e+00 -7.9573745841810029e+00 3.0004931841346000e-01 -1.1297211306918108e+01 1.1817246332106498e+01 -5.0870752286209298e-02 
      </Row>
      <Row Index="27">
        4.4023120562147300e-01 1.0759175949166853e+00 9.6953461733894297e-01 -5.1705190677249124e-01 4.2877494747984901e-01 1.0883593018001747e-01 8.1344348171478442e-01 -4.9285937561224635e-01 -2.6126982982904847e+00 -2.3023834535249255e-01 1.3857783732113349e+00 1.6075924523694729e+00 4.5198649330062901e-02 3.4361129792166549e+00 1.8192268568717651e-01 1.5717756751690715e-01 -1.3953964292532173e+00 3.2417411060241763e+00 3.2520663386951290e+00 -2.6944812887183228e-02 3.9913109156375981e+00 1.3190116335367549e+01 6.6636278474240180e+00 -4.6734066693461873e-01 5.0114968757678309e+00 2.6069394968330495e+00 -8.1368872599731434e-01 1.4017081161257009e+01 2.8336753896444677e+00 1.3224618718539771e+00 1.2953659699303950e+00 -6.4038644552832800e+00 -9.8603764262458915e-01 -2.1809747556374298e+01 1.4003332552042560e+00 -4.9424692027600503e-01 2.4660011648593613e+01 -4.1969243026349092e+00 -9.6659228430474975e-02 
      </Row>
      <Row Index="28">
        7.5904272220591462e-01 1.9501499435712333e-03 -5.3689641474156780e-02 3.1443474743633471e-01 7.5319883305705915e-01 7.3377061487605033e-03 -4.3320718958845816e-02 3.0201711026613065e-01 -3.7778089470565459e+00 -3.0582015808023888e-02 5.5075178071794251e-01 -8.6336982636053605e-02 3.7298793082270798e-02 -5.1942287778650287e-02 6.3644515660996603e-02 7.3811233124020159e-02 -1.1510914879239933e+00 -1.9859470535208582e-01 7.4654252763247353e-01 2.2681816139449945e-01 7.3528688309684753e+00 8.4621449080594573e+00 4.3270499003535452e+00 2.3157984906550633e-01 -2.4498716443605577e+00 -3.0971074619984531e+00 2.9172840757144392e-01 2.8336753900115599e+00 2.6353483160245856e+00 2.0649269013904462e-01 1.6424532613790079e+00 1.6374208707528521e+00 -1.0105135969535897e+00 -1.8986814436180510e+00 -2.2527317242472689e-01 -1.0689130319713996e-01 3.0128398082468362e+00 -7.6224714875861830e+00 4.5954057369567994e-02 
      </Row>
      <Row Index="29">
        5.6281420940248161e-01 1.0273339333676379e-01 -2.0541508545336684e-01 1.0810408913302227e+00 5.4414267630312940e-01 -4.8611813627235989e-02 -1.9939288854532067e-01 8.9415988431645921e-01 -1.1966110624439428e+00 -1.3997407988917762e-01 1.5964882552349863e-01 -1.9733506083012053e-01 2.4317703155328219e-02 4.3751456056761029e-01 -2.1818312559525710e-02 2.0718591900428507e-01 -6.3363801297483557e-01 3.6424191420707719e-01 2.6077521069131004e-01 7.5797258327549621e-01 8.2740326682493937e-01 1.0423826555352207e+00 3.4812091070137807e-01 8.8759742168609213e-02 4.7632195267389299e-01 9.2853783028574988e-01 -2.7037503793129786e-01 1.3224618717102239e+00 2.0649269008686144e-01 1.3884713306811580e+00 -3.5518673781103260e-01 -2.2068806274225699e+00 -2.0636557042524357e+00 -1.4202622642062490e+00 1.9875300103634774e-01 -3.9526560552860662e-01 2.0357777927994709e+00 1.2838175881879179e+00 -1.6935768397406552e-02 
      </Row>
      <Row Index="30">
        9.2930601002595381e-01 4.6370814364189528e-01 9.1248884114891027e-01 4.1803508135142664e-01 6.6167540652408974e-01 2.5771601778323827e-01 1.0732886369346417e+00 5.2659611949527374e-01 -3.2196671804190942e+00 9.5060308791674597e-01 4.9338963805694558e+00 1.6809861157020265e+00 9.9414657617395541e-01 4.3199207952230978e-01 -7.7178015113565479e-02 -5.5882889729356755e-01 8.2549671232785027e-01 1.5934864641974240e+00 7.2462152800254653e+00 2.6254026852590604e+00 1.0611891511780755e+01 1.0705411021054033e+01 -2.5605822747657641e+00 -9.6844561430391352e-01 -9.9271955433482475e+00 1.4330226308160753e+01 7.1884804066036256e+00 1.2953659680665019e+00 1.6424532615602256e+00 -3.5518673812476542e-01 2.6818368689412484e+01 -2.3223317438058547e+01 -5.1180754567817264e+00 -3.8999177626435286e+00 -1.3210521403691992e+01 5.4763299808471821e-01 -2.0783639415668897e+01 3.3089595439976641e+01 -1.6169127336020783e-01 
      </Row>
      <Row Index="31">
        -2.2762492536804757e-01 -2.9169101586647344e+00 -1.5182207783017816e+00 -3.9005213037112618e-01 2.5199768982810156e-01 -2.9547554624411987e-01 -1.0543476027880843e+00 5.7533995159003837e-01 -1.9418108852648501e+00 6.9884850102102103e-01 -3.5869012834932050e+00 -3.1362074034760639e+00 -1.1414428893428443e+00 -8.8848902633270352e+00 -7.6323986722522008e-01 -2.2049630981418922e+00 -2.1826260688641490e+00 -1.1318923344404494e+01 -6.5715516991634111e+00 -1.5197570399808926e+00 -7.8794615973322379e-01 -3.6244277665434765e+00 1.4202435415275573e+01 2.6253689288738826e+00 -9.1532444115035716e+00 -4.9160425070283658e+01 -4.5673950323851322e+00 -6.4038644498523851e+00 1.6374208712569924e+00 -2.2068806268952001e+00 -2.3223317443017933e+01 6.7103267396368537e+01 4.4955620372902469e+00 2.5729800899566143e+01 1.2867831856917370e+01 -9.7300354394905253e-02 -1.6149710411706977e+00 -8.6960283930228371e+01 7.4314545217342698e-01 
      </Row>
      <Row Index="32">
        -1.6500000896554468e+00 -5.7732181275149230e-02 2.5980548995220087e-01 -2.1304321944242575e+00 -1.5367018357141178e+00 -2.9455290965930025e-02 1.4225487567561945e-01 -1.8339477716044450e+00 4.3899214065041150e+00 -2.5569594473924834e-01 -2.0609799210191140e+00 1.0461874654155570e+00 -3.1361584510227170e-01 -2.0097883426284935e-02 2.3092303304590533e-01 -1.8115018465486488e-01 1.5266110695030075e+00 -3.5641829191330371e-01 -2.6234743879705338e+00 -1.3931682342581317e+00 -5.3351418529781292e+00 -5.1610232017096394e+00 -1.1407129642748242e+00 -2.2599864421085536e-01 4.1837896247567965e+00 -1.7844142026927969e+00 -2.0638082789454026e+00 -9.8603764232529323e-01 -1.0105135970371142e+00 -2.0636557041858441e+00 -5.1180754565472268e+00 4.4955620357294137e+00 5.6333077456768397e+00 -3.5749339569044261e+00 1.4006026404519145e+00 5.1097951979115508e-01 7.4728005966185727e+00 -3.0389831701813677e+00 2.1673262014416182e-02 
      </Row>
      <Row Index="33">
        1.5114772677560806e+00 -2.7995812684276942e+00 -3.6671405865288698e-01 3.8523469669653387e-01 1.4704736428469367e+00 1.3149274889282481e-01 7.5153892069436612e-01 4.4633684757678260e-01 -3.8180768155794613e+00 2.7588734404833408e+00 5.1995924961252440e+00 -8.6854462877588308e+00 -1.0359531803125233e-01 -1.0156045429766190e+01 -2.4501129916471061e+00 -4.0941727588260157e-01 8.4280297358903189e-02 -6.9724842323166776e+00 2.3547342228671071e+00 -5.3655484073443871e+00 7.1208472624771844e+00 -1.3997827585803634e+01 -2.8469552620714467e+00 1.4525997904937427e+00 -2.3624994157791775e+01 -1.3801220445630802e+01 4.6887576251961214e+00 -2.1809747555381350e+01 -1.8986814422563674e+00 -1.4202622645802758e+00 -3.8999177699807852e+00 2.5729800918200205e+01 -3.5749339556095929e+00 8.2086371729345387e+01 -1.2655453107634139e+01 2.5505323907708777e-01 -7.8568901059444556e+01 -7.8679953569305621e+00 3.5018598300772391e-01 
      </Row>
      <Row Index="34">
        3.0426013620707408e+00 7.6279582863617179e-01 -2.8807816015724086e+00 -1.9685062641096813e+00 2.5746810718288202e+00 3.2813609953564082e-02 -2.8807724693795365e+00 -3.1427400452473648e+00 2.3985998548155578e+00 -3.8951111562458820e+00 -8.5191044043920101e+00 -7.3086601826486230e-01 1.5552482721911076e+00 2.1637253763843347e+00 -9.4750464559541570e-01 3.5112536391463323e+00 3.8209261087965274e-01 6.2297591241422907e+00 -1.0354941168429065e+01 -6.4594260886201891e+00 -2.1334868801188350e+01 -7.3275648535709479e+00 2.6986302612453301e+01 3.8224276627683764e+00 2.5510404915011293e+01 -4.9543836788880263e+01 -7.9573745854216860e+00 1.4003332620447537e+00 -2.2527317247933354e-01 1.9875300243435934e-01 -1.3210521402392253e+01 1.2867831840723852e+01 1.4006026402297644e+00 -1.2655453132263021e+01 2.1529507451522105e+02 -1.0639598201521983e+00 2.4452413482869943e+01 -2.2820245543534094e+02 8.6924633761587655e-02 
      </Row>
      <Row Index="35">
        -1.8832773282069781e-01 5.8029474014098525e-03 9.0055478780082465e-02 -2.0181061477942325e-01 -1.9424728788575329e-01 1.7786368307087130e-02 7.9702114552760106e-02 -1.6936697393470301e-01 4.5031440549762802e-01 5.8682424970831724e-02 7.2386908616019208e-02 7.9382920137637480e-02 1.7837870359678543e-02 -8.2025671388599175e-03 2.0830156945557066e-02 -5.4066050666115473e-02 2.6517492841650103e-01 4.3287901754802821e-02 6.8861194508858248e-02 -2.6561000076194038e-02 -3.4830156733008977e-01 -2.9782120009544499e-01 -4.7059111446767599e-01 -7.7937068849869562e-02 -1.4616414183731985e-01 6.6712486865761111e-01 3.0004931840869875e-01 -4.9424692032111650e-01 -1.0689130318378770e-01 -3.9526560554140538e-01 5.4763299803358290e-01 -9.7300354137142886e-02 5.1097951979597334e-01 2.5505323927986046e-01 -1.0639598198913855e+00 1.5711760880918313e-01 -9.4631578403312466e-01 1.5851291340196696e+00 -8.8063038970857023e-03 
      </Row>
      <Row Index="36">
        -1.6317220162706789e+00 2.4353238336926637e+00 -2.5060467138241904e-01 -7.4694086165050200e-01 -1.3096065185036707e+00 -2.8955994967853371e-01 -1.4961940534692388e+00 -9.2175312554064348e-01 2.9728359461794760e+00 -3.4591330329589645e+00 -8.6635176120669382e+00 6.7019290417155091e+00 -8.9944087192175637e-01 9.7516768738470212e+00 2.5123736493886710e+00 1.0669876390719040e+00 -2.1159028136286078e+00 5.6193282516873921e+00 -7.6857536547116272e+00 2.4453078393775716e+00 -9.8604076606459330e+00 1.2847933352414316e+01 1.0570774900646782e+01 -3.7757952741053025e-01 3.0639109598706391e+01 -2.9710548426171126e+00 -1.1297211305237918e+01 2.4660011649779264e+01 3.0128398067278788e+00 2.0357777935256056e+00 -2.0783639408607108e+01 -1.6149710648625124e+00 7.4728005956461043e+00 -7.8568901067883772e+01 2.4452413459872950e+01 -9.4631578389613069e-01 1.0113916833406196e+02 -3.2022919808303371e+01 -1.5394639919353204e-01 
      </Row>
      <Row Index="37">
        -4.6365609803567054e+00 2.0491947803739095e+00 4.1544711438842512e+00 1.6058994422854056e+00 -4.7827607764918980e+00 1.0226481396432519e-01 3.6578742872206931e+00 1.8388424316271994e+00 8.9797456188169065e+00 2.7751875469197120e+00 9.7018825867025811e+00 4.3305306550833507e+00 -2.6348418665988049e-01 6.7741471242435125e+00 1.6351860316502211e+00 -1.3699703273741051e+00 4.9145744863988909e+00 5.7527761162052471e+00 1.3760673531648735e+01 7.7231487685491338e+00 4.3685237994527597e+00 -1.0493869624604486e+01 -5.4131520672358533e+01 -7.0979680157265932e+00 -9.6478555405127508e+00 1.1028803798426773e+02 1.1817246336605535e+01 -4.1969243160933729e+00 -7.6224714880401621e+00 1.2838175860955072e+00 3.3089595444213536e+01 -8.6960283912441184e+01 -3.0389831717826077e+00 -7.8679953092857033e+00 -2.2820245545200288e+02 1.5851291345819023e+00 -3.2022919859879238e+01 3.3942457157345387e+02 -1.0218388972640220e+00 
      </Row>
      <Row Index="38">
        5.2332243524443323e-03 -4.4018578680957710e-02 -2.5098970564155110e-02 1.6668591206870170e-02 1.8176268111607996e-02 -3.6298851852634151e-03 -1.6705076724559009e-02 2.2600736755492234e-02 -8.9999405462791504e-02 2.0740988621923646e-02 -2.4707638377833102e-02 -4.1020755146404575e-02 -2.1649389464608204e-02 -1.3643158072417022e-01 -1.5134060499984003e-02 -2.2588139361503889e-02 -3.0667858022513927e-02 -1.9926351585053997e-01 -6.9895501277696892e-02 -7.0006937142801512e-03 2.4394705036038289e-01 2.0825881280988057e-02 2.2128244523027174e-01 4.6951499088297322e-02 -2.7869983003021703e-01 -8.0437094688761057e-01 -5.0870752322514617e-02 -9.6659228369429029e-02 4.5954057377838420e-02 -1.6935768392436740e-02 -1.6169127343283818e-01 7.4314545221634354e-01 2.1673262034852030e-02 3.5018598280524998e-01 8.6924633989084260e-02 -8.8063039003950863e-03 -1.5394639891520245e-01 -1.0218388975609274e+00 1.6151461909209845e-02 
      </Row>
    </InverseHessian>
  </Weights>
</MethodSetup>
