<?xml version="1.0"?>
<MethodSetup Method="MLP::MLP">
  <GeneralInfo>
    <Info name="TMVA Release" value="4.1.2 [262402]"/>
    <Info name="ROOT Release" value="5.32/00 [335872]"/>
    <Info name="Creator" value="tomc"/>
    <Info name="Date" value="Thu Jan 10 14:12:05 2013"/>
    <Info name="Host" value="Linux lxbuild168.cern.ch 2.6.18-308.1.1.el5 #1 SMP Wed Mar 7 19:25:07 CET 2012 x86_64 x86_64 x86_64 GNU/Linux"/>
    <Info name="Dir" value="/user_mnt/user/tomc/QGTagger/training/c/5/aKDE03"/>
    <Info name="Training events" value="1475700"/>
    <Info name="TrainingTime" value="5.71923452e+03"/>
    <Info name="AnalysisType" value="Classification"/>
  </GeneralInfo>
  <Options>
    <Option name="NCycles" modified="No">500</Option>
    <Option name="HiddenLayers" modified="No">N,N-1</Option>
    <Option name="NeuronType" modified="No">sigmoid</Option>
    <Option name="RandomSeed" modified="No">1</Option>
    <Option name="EstimatorType" modified="No">MSE</Option>
    <Option name="NeuronInputType" modified="No">sum</Option>
    <Option name="V" modified="Yes">False</Option>
    <Option name="VerbosityLevel" modified="No">Default</Option>
    <Option name="VarTransform" modified="Yes">N</Option>
    <Option name="H" modified="Yes">False</Option>
    <Option name="CreateMVAPdfs" modified="Yes">True</Option>
    <Option name="IgnoreNegWeightsInTraining" modified="No">False</Option>
    <Option name="TrainingMethod" modified="No">BP</Option>
    <Option name="LearningRate" modified="No">2.000000e-02</Option>
    <Option name="DecayRate" modified="No">1.000000e-02</Option>
    <Option name="TestRate" modified="Yes">3</Option>
    <Option name="EpochMonitoring" modified="No">False</Option>
    <Option name="Sampling" modified="No">1.000000e+00</Option>
    <Option name="SamplingEpoch" modified="No">1.000000e+00</Option>
    <Option name="SamplingImportance" modified="No">1.000000e+00</Option>
    <Option name="SamplingTraining" modified="No">True</Option>
    <Option name="SamplingTesting" modified="No">False</Option>
    <Option name="ResetStep" modified="No">50</Option>
    <Option name="Tau" modified="No">3.000000e+00</Option>
    <Option name="BPMode" modified="No">sequential</Option>
    <Option name="BatchSize" modified="No">-1</Option>
    <Option name="ConvergenceImprove" modified="No">1.000000e-30</Option>
    <Option name="ConvergenceTests" modified="No">-1</Option>
    <Option name="UseRegulator" modified="Yes">True</Option>
    <Option name="UpdateLimit" modified="No">10000</Option>
    <Option name="CalculateErrors" modified="No">False</Option>
    <Option name="WeightRange" modified="No">1.000000e+00</Option>
  </Options>
  <Variables NVar="4">
    <Variable VarIndex="0" Expression="axis1" Label="axis1" Title="axis1" Unit="" Internal="axis1" Type="F" Min="1.23533118e-03" Max="4.23817635e-01"/>
    <Variable VarIndex="1" Expression="axis2" Label="axis2" Title="axis2" Unit="" Internal="axis2" Type="F" Min="-7.93141779e-04" Max="2.78994918e-01"/>
    <Variable VarIndex="2" Expression="mult" Label="mult" Title="mult" Unit="" Internal="mult" Type="I" Min="0.00000000e+00" Max="2.80000000e+01"/>
    <Variable VarIndex="3" Expression="ptD" Label="ptD" Title="ptD" Unit="" Internal="ptD" Type="F" Min="1.64501920e-01" Max="9.91225064e-01"/>
  </Variables>
  <Spectators NSpec="0"/>
  <Classes NClass="2">
    <Class Name="Signal" Index="0"/>
    <Class Name="Background" Index="1"/>
  </Classes>
  <Transformations NTransformations="1">
    <Transform Name="Normalize">
      <Selection>
        <Input NInputs="4">
          <Input Type="Variable" Label="axis1" Expression="axis1"/>
          <Input Type="Variable" Label="axis2" Expression="axis2"/>
          <Input Type="Variable" Label="mult" Expression="mult"/>
          <Input Type="Variable" Label="ptD" Expression="ptD"/>
        </Input>
        <Output NOutputs="4">
          <Output Type="Variable" Label="axis1" Expression="axis1"/>
          <Output Type="Variable" Label="axis2" Expression="axis2"/>
          <Output Type="Variable" Label="mult" Expression="mult"/>
          <Output Type="Variable" Label="ptD" Expression="ptD"/>
        </Output>
      </Selection>
      <Class ClassIndex="0">
        <Ranges>
          <Range Index="0" Min="1.4517339877784252e-03" Max="4.2381763458251953e-01"/>
          <Range Index="1" Min="-7.9314177855849266e-04" Max="2.7899491786956787e-01"/>
          <Range Index="2" Min="0.0000000000000000e+00" Max="2.8000000000000000e+01"/>
          <Range Index="3" Min="1.6450192034244537e-01" Max="9.9122506380081177e-01"/>
        </Ranges>
      </Class>
      <Class ClassIndex="1">
        <Ranges>
          <Range Index="0" Min="1.2353311758488417e-03" Max="3.8953161239624023e-01"/>
          <Range Index="1" Min="-7.9314177855849266e-04" Max="2.3709879815578461e-01"/>
          <Range Index="2" Min="0.0000000000000000e+00" Max="2.3000000000000000e+01"/>
          <Range Index="3" Min="1.8243199586868286e-01" Max="9.9078589677810669e-01"/>
        </Ranges>
      </Class>
      <Class ClassIndex="2">
        <Ranges>
          <Range Index="0" Min="1.2353311758488417e-03" Max="4.2381763458251953e-01"/>
          <Range Index="1" Min="-7.9314177855849266e-04" Max="2.7899491786956787e-01"/>
          <Range Index="2" Min="0.0000000000000000e+00" Max="2.8000000000000000e+01"/>
          <Range Index="3" Min="1.6450192034244537e-01" Max="9.9122506380081177e-01"/>
        </Ranges>
      </Class>
    </Transform>
  </Transformations>
  <MVAPdfs>
    <PDF Name="MLP_PDFSig" MinNSmooth="0" MaxNSmooth="0" InterpolMethod="5" KDE_type="1" KDE_iter="2" KDE_border="1" KDE_finefactor="3.0000001192092896e-01">
      <Histogram Name="MLP_tr_S_original" NBins="250" XMin="1.8432995676994324e-01" XMax="9.9180883169174194e-01" HasEquidistantBins="1">
        0.00000000e+00 2.64598493e-04 2.64598493e-04 1.32299238e-03 1.05839397e-03 1.85218931e-03 2.64598476e-03 3.43978032e-03 5.29196952e-03 4.76277247e-03 4.49817395e-03 6.61496213e-03 1.19069312e-02 1.13777351e-02 1.32299243e-02 1.79926958e-02 2.14324761e-02 2.35492643e-02 2.54014544e-02 2.56660525e-02 3.36040072e-02 2.98996288e-02 3.94251719e-02 3.99543718e-02 3.59853916e-02 4.49817404e-02 5.15967049e-02 4.81569245e-02 5.74178696e-02 5.66240735e-02 6.53558224e-02 6.19160458e-02 6.58850223e-02 6.13868460e-02 7.59397671e-02 8.36131200e-02 9.15510729e-02 8.09671357e-02 9.12864730e-02 8.30839202e-02 9.26094651e-02 9.94890258e-02 8.73174965e-02 9.63138491e-02 1.00547425e-01 1.00018226e-01 1.03193410e-01 1.21979900e-01 1.14835739e-01 1.20921507e-01 1.23832092e-01 1.28065661e-01 1.36797413e-01 1.27801061e-01 1.33357629e-01 1.36532813e-01 1.43412381e-01 1.40501797e-01 1.53996319e-01 1.53202519e-01 1.51085734e-01 1.66961640e-01 1.48968950e-01 1.63257256e-01 1.77545577e-01 1.72253609e-01 1.75428793e-01 1.76751778e-01 1.79397777e-01 1.88658714e-01 1.88923314e-01 1.93156883e-01 1.95538282e-01 1.94215283e-01 2.15383157e-01 2.16970757e-01 2.27819294e-01 2.16706157e-01 2.22791925e-01 2.30465278e-01 2.42901400e-01 2.36815646e-01 2.41313815e-01 2.38932431e-01 2.56131321e-01 2.56131321e-01 2.67244458e-01 2.62217104e-01 2.62217104e-01 2.77828395e-01 2.78622210e-01 2.94233501e-01 2.92910516e-01 3.00583869e-01 2.98202485e-01 3.15665990e-01 3.24662328e-01 3.13284606e-01 3.29160511e-01 3.23603928e-01 3.32600296e-01 3.38686049e-01 3.43713433e-01 3.65939707e-01 3.71496260e-01 3.76259029e-01 3.76523644e-01 3.88165981e-01 3.86578381e-01 3.92399549e-01 4.08275455e-01 4.19653177e-01 4.35264498e-01 4.22034562e-01 4.56432372e-01 4.52198803e-01 4.60401356e-01 4.80246246e-01 4.73366678e-01 4.67545509e-01 5.00091136e-01 4.96915936e-01 5.08029103e-01 5.16496241e-01 5.35547316e-01 5.32372117e-01 5.66240728e-01 5.49571037e-01 5.67299128e-01 5.75766265e-01 6.06988907e-01 5.98257184e-01 5.99315584e-01 6.32654965e-01 6.52235270e-01 6.34242535e-01 6.65994346e-01 6.96952403e-01 6.78959727e-01 7.04096556e-01 7.13357508e-01 7.42727935e-01 7.60191441e-01 7.51459658e-01 7.48549104e-01 7.69716978e-01 7.92207837e-01 7.85592914e-01 8.31897616e-01 8.27134848e-01 8.48302722e-01 8.82171333e-01 8.78202379e-01 8.87992501e-01 9.27153051e-01 9.44351971e-01 9.71605599e-01 9.85629320e-01 1.01658738e+00 9.98330057e-01 1.02664208e+00 1.06844866e+00 1.08829355e+00 1.08432460e+00 1.12454355e+00 1.15126801e+00 1.13512743e+00 1.18884099e+00 1.21556544e+00 1.23752713e+00 1.26689756e+00 1.27351248e+00 1.32087564e+00 1.35447967e+00 1.36082995e+00 1.38411462e+00 1.43174243e+00 1.42750883e+00 1.51376796e+00 1.52144122e+00 1.55848503e+00 1.63257265e+00 1.66802883e+00 1.67914200e+00 1.72306526e+00 1.77704334e+00 1.82520032e+00 1.84478056e+00 1.91251779e+00 1.98237181e+00 2.03582072e+00 2.00936079e+00 2.09006333e+00 2.19299221e+00 2.14642286e+00 2.25093937e+00 2.32396841e+00 2.36762714e+00 2.43298292e+00 2.49966192e+00 2.54808331e+00 2.58883142e+00 2.66741729e+00 2.74494457e+00 2.82088447e+00 2.86983514e+00 2.91402316e+00 3.00478029e+00 3.08574748e+00 3.23207045e+00 3.25217986e+00 3.42893171e+00 3.51757216e+00 3.58610320e+00 3.63187885e+00 3.75068355e+00 3.89885855e+00 4.00840235e+00 4.10974360e+00 4.29602098e+00 4.36164141e+00 4.50717068e+00 4.55374002e+00 4.69741678e+00 4.92311954e+00 5.07182360e+00 5.10780907e+00 5.29726171e+00 5.38166857e+00 5.61716127e+00 5.67748976e+00 5.78941488e+00 5.94182348e+00 5.96193314e+00 6.02543640e+00 5.99103880e+00 5.92171383e+00 5.77274513e+00 5.60154963e+00 5.33562851e+00 4.93158627e+00 4.49341154e+00 3.67897725e+00 2.99895906e+00 2.19722581e+00 1.38596678e+00 7.24735260e-01 2.55337536e-01 7.24999830e-02 3.70437861e-03 
      </Histogram>
    </PDF>
    <PDF Name="MLP_PDFBkg" MinNSmooth="0" MaxNSmooth="0" InterpolMethod="5" KDE_type="1" KDE_iter="2" KDE_border="1" KDE_finefactor="3.0000001192092896e-01">
      <Histogram Name="MLP_tr_B_original" NBins="250" XMin="1.8432995676994324e-01" XMax="9.9180883169174194e-01" HasEquidistantBins="1">
        7.09168240e-03 6.07858459e-03 5.06548723e-03 1.11440718e-02 2.12750472e-02 2.43143383e-02 3.03929243e-02 4.15369943e-02 6.17989451e-02 6.38251379e-02 9.01656747e-02 1.02322847e-01 1.35755062e-01 1.48925319e-01 2.01606393e-01 2.19842151e-01 2.40104094e-01 2.72523224e-01 3.17099512e-01 3.43440026e-01 3.66741270e-01 3.99160385e-01 4.07265186e-01 4.21448529e-01 4.32592601e-01 5.32889247e-01 5.21745205e-01 5.52138090e-01 5.98740578e-01 5.72400093e-01 6.08871579e-01 6.02792978e-01 6.10897779e-01 6.46356165e-01 6.56487167e-01 6.63578808e-01 6.53447866e-01 7.05115855e-01 6.68644309e-01 7.40574241e-01 7.63875484e-01 7.57796884e-01 7.69954085e-01 7.78058827e-01 7.89202929e-01 7.80085027e-01 8.09464872e-01 8.28713715e-01 8.72276902e-01 8.65185201e-01 8.59106660e-01 9.00643647e-01 8.62145960e-01 9.04696047e-01 9.34075832e-01 9.31036592e-01 8.45936358e-01 9.17866290e-01 9.38128233e-01 9.75612879e-01 1.00094032e+00 1.01005816e+00 9.30023491e-01 9.29010391e-01 1.00195336e+00 9.64468777e-01 9.66494977e-01 1.01208436e+00 1.04956901e+00 1.00701892e+00 1.00397956e+00 1.04855585e+00 1.06071305e+00 1.06273925e+00 1.07996190e+00 1.08604050e+00 1.02221537e+00 1.10528934e+00 1.08198810e+00 1.05058205e+00 1.08705354e+00 1.09819770e+00 1.11643338e+00 1.17012751e+00 1.15594423e+00 1.12656438e+00 1.13770843e+00 1.21673000e+00 1.20355976e+00 1.22787416e+00 1.20254672e+00 1.24914920e+00 1.19241571e+00 1.21470380e+00 1.21369076e+00 1.21470380e+00 1.26231945e+00 1.20558596e+00 1.28764689e+00 1.26637185e+00 1.23192656e+00 1.25624084e+00 1.34438038e+00 1.26130629e+00 1.27852905e+00 1.33526242e+00 1.27852905e+00 1.33526242e+00 1.26333249e+00 1.35248506e+00 1.35552442e+00 1.35045886e+00 1.41327095e+00 1.41732335e+00 1.36058986e+00 1.41124475e+00 1.33424938e+00 1.35552442e+00 1.35552442e+00 1.40212691e+00 1.38389111e+00 1.39604831e+00 1.45582104e+00 1.40212691e+00 1.41631019e+00 1.41833639e+00 1.53281641e+00 1.47405684e+00 1.48925328e+00 1.52471173e+00 1.47912228e+00 1.46189964e+00 1.52775097e+00 1.54092121e+00 1.47000444e+00 1.49026632e+00 1.49634492e+00 1.56118321e+00 1.54497361e+00 1.61791658e+00 1.49634492e+00 1.52268553e+00 1.60677254e+00 1.50748897e+00 1.56928802e+00 1.53889501e+00 1.60170710e+00 1.53079021e+00 1.59056306e+00 1.65742743e+00 1.61386430e+00 1.64932263e+00 1.64628339e+00 1.65236199e+00 1.60170710e+00 1.60677254e+00 1.66046679e+00 1.61994278e+00 1.60170710e+00 1.63615239e+00 1.58448446e+00 1.73239660e+00 1.74860620e+00 1.68984652e+00 1.75569785e+00 1.66046679e+00 1.79318249e+00 1.78305149e+00 1.73442280e+00 1.74455380e+00 1.75265861e+00 1.69491208e+00 1.80939209e+00 1.79622185e+00 1.78406465e+00 1.66958463e+00 1.73746216e+00 1.79926109e+00 1.81952310e+00 1.81952310e+00 1.82560158e+00 1.76785505e+00 1.74961936e+00 1.86916482e+00 1.88638747e+00 1.85295522e+00 1.86713862e+00 1.84687662e+00 1.92792451e+00 1.91779351e+00 1.84586358e+00 1.90158391e+00 1.90664947e+00 1.94818640e+00 1.82965398e+00 1.98972344e+00 1.87321723e+00 1.91475415e+00 1.98769724e+00 1.98465788e+00 1.93906856e+00 1.97351384e+00 1.92893755e+00 1.98668408e+00 1.96946144e+00 1.95629120e+00 1.96439600e+00 1.93906856e+00 1.98060548e+00 1.98972344e+00 1.96540904e+00 2.00593305e+00 1.98972344e+00 1.99782825e+00 1.85802078e+00 1.91880655e+00 1.93906856e+00 1.97554004e+00 1.89246607e+00 1.93602920e+00 1.91171491e+00 1.92691135e+00 1.94818640e+00 1.88233507e+00 1.89651847e+00 1.86511242e+00 1.77393365e+00 1.76177645e+00 1.71213472e+00 1.71416092e+00 1.69896448e+00 1.62602139e+00 1.49735808e+00 1.58954990e+00 1.42542815e+00 1.29169929e+00 1.23597884e+00 1.18735027e+00 9.81691420e-01 8.82407904e-01 7.37534940e-01 6.70670509e-01 4.79195088e-01 3.39387655e-01 2.39090994e-01 1.29676476e-01 6.38251379e-02 2.33012419e-02 3.03929229e-03 1.01309747e-03 
      </Histogram>
    </PDF>
  </MVAPdfs>
  <Weights>
    <Layout NLayers="4">
      <Layer Index="0" NNeurons="5">
        <Neuron NSynapses="4">
          1.9671145601031217e+00 1.6443454308072547e+00 -1.1908190827950100e+00 6.2760810417106132e+00 
        </Neuron>
        <Neuron NSynapses="4">
          6.2112046317647440e-01 -2.1969943704238920e-01 -2.0914001135365181e+00 6.4056355655000141e+00 
        </Neuron>
        <Neuron NSynapses="4">
          -1.0033822495057240e+01 -1.4121903771059707e+00 -6.3389681757308214e+00 6.3331134243046250e-01 
        </Neuron>
        <Neuron NSynapses="4">
          -4.5844140202818284e-01 4.3158930581075516e+00 1.0275610968325881e+00 1.0178579798523602e+00 
        </Neuron>
        <Neuron NSynapses="4">
          -9.0211866367861901e+00 1.1332648806270136e+00 -6.0243160129752997e+00 1.1836039071209266e+01 
        </Neuron>
      </Layer>
      <Layer Index="1" NNeurons="5">
        <Neuron NSynapses="3">
          -4.8831445029422262e+00 -1.0363748753513429e+00 1.5798071487226697e+00 
        </Neuron>
        <Neuron NSynapses="3">
          -6.6947944059556608e-01 -1.6601902229136876e+00 -1.8419916864823465e+00 
        </Neuron>
        <Neuron NSynapses="3">
          2.4867624562770700e+00 -1.7900869106933386e+00 1.1858377317568574e+00 
        </Neuron>
        <Neuron NSynapses="3">
          -1.9354938825003805e+00 1.8754286404792997e+00 1.7140659366333282e+00 
        </Neuron>
        <Neuron NSynapses="3">
          9.5313639554642268e-02 -2.9234894555157855e+00 -4.3365296673604350e+00 
        </Neuron>
      </Layer>
      <Layer Index="2" NNeurons="4">
        <Neuron NSynapses="1">
          -7.1946799762711688e-01 
        </Neuron>
        <Neuron NSynapses="1">
          1.2799808079673565e+00 
        </Neuron>
        <Neuron NSynapses="1">
          9.3648832421107797e-01 
        </Neuron>
        <Neuron NSynapses="1">
          6.9892407432915127e-01 
        </Neuron>
      </Layer>
      <Layer Index="3" NNeurons="1">
        <Neuron NSynapses="0"/>
      </Layer>
    </Layout>
    <InverseHessian NElements="1521" NRows="39" NCols="39">
      <Row Index="0">
        1.1190714861127851e+00 1.7071139983745636e-02 -2.1371481653807572e-01 5.7004240192421696e-01 5.5218774170839768e-01 -1.0276499452289072e-02 -1.1782870063634251e-01 5.0199204784776297e-01 -2.3779852453273764e+00 1.2574388929284855e-02 3.5618473674188050e-01 -2.1266454075793695e-01 4.9237833478723431e-02 6.1093202645582226e-02 -2.2295854238334048e-01 1.7397693030353131e-01 -5.5979348372985971e-01 2.2566373840290999e-01 4.4377531440568069e-01 3.6857403208068940e-01 3.0430855561811505e+00 1.5704913695009666e+00 2.2887833186734974e+00 5.4751160606217131e-01 -2.6115620179726112e-01 -1.1872794834825213e+00 -6.4070036266463950e-03 1.1525860298956259e+00 1.9781643982923145e+00 4.6157321274424923e-01 3.9170171675977145e-01 -2.0728221182936579e-01 -1.5512381094764935e+00 6.0524195372764977e-01 1.1785257025722364e+00 -1.0034611495263515e-01 -6.6188520291165087e-01 -3.3210783908315720e+00 1.4435886065027475e-02 
      </Row>
      <Row Index="1">
        1.7071139988374506e-02 2.4742538105438944e-01 4.8234197332810799e-02 2.1228810557612998e-02 -2.0431335110508153e-03 -1.7790760969374410e-02 4.3151567644611359e-02 4.0591831296750987e-02 -1.1400604351003019e-01 -9.3312544372227621e-02 5.5790950220359341e-02 3.1568205905570371e-02 -1.8043758712420824e-02 5.7030694248874991e-01 9.4661161444688544e-02 8.1436295476984624e-02 1.9763238105049777e-02 4.5188179442278026e-01 3.6885632426661014e-02 2.2602420409112096e-02 4.7014659932435926e-01 1.0116361180088020e-01 2.5751538807832058e-01 -7.8470117551342713e-02 7.5656000003169555e-01 1.6788929389823787e-01 -1.8818957801290270e-01 4.9363428410225729e-01 2.0614557633902109e-01 1.0841367984909860e-01 -9.2274137607098361e-01 -2.9251761279373689e-01 1.6401499684062693e-01 -2.4898192157609017e-01 8.2628486722602390e-01 8.9049399763633554e-05 1.3086592793901173e+00 -6.2302259211021283e-01 -2.2463476527009141e-02 
      </Row>
      <Row Index="2">
        -2.1371481654138336e-01 4.8234197334316720e-02 3.5110195071366396e-01 -2.0548764574471196e-01 -1.3262164940459653e-01 7.9273219476334325e-02 2.4010091371885806e-01 -3.0023425132116421e-01 4.2421843517234126e-01 2.1792641631201792e-01 3.5480400361005587e-01 6.8562338105169263e-02 -5.2717839444810323e-02 3.9097102298614572e-02 1.7089704334357728e-01 5.7782057050545998e-04 3.3590756649648906e-01 1.8870993233592664e-01 5.7297897781036644e-01 -3.1552237602204364e-01 3.8958106854293972e-01 3.5307956549717058e-02 -6.7184191344741329e-01 -3.0391382363509611e-01 1.3056487328513118e-02 8.0668188757442727e-01 2.2411830158547758e-01 1.2402706805099150e-02 -3.7289354182622458e-01 -2.1586193553244398e-01 5.6348861897922820e-02 -1.3597148478751051e+00 4.6295939076453485e-01 5.4333919840247574e-02 -3.3972985715015808e-01 3.5047510829819911e-02 -2.1374155815035573e-02 1.6580499229753491e+00 -1.5430720411817068e-02 
      </Row>
      <Row Index="3">
        5.7004240192401456e-01 2.1228810562480938e-02 -2.0548764574198361e-01 1.6002431273813904e+00 3.7260910711797790e-01 -4.3878808920252407e-02 -3.2712747256866664e-01 1.1458692428029198e+00 -1.1634825654012495e+00 -9.5627151144009229e-02 9.1932553438864931e-02 -1.0792996417570166e-01 -3.2406418331799094e-02 2.5369871716329584e-01 2.8815187707679667e-02 3.5621595412810036e-01 -2.8459985805724053e-01 1.8017379909210610e-01 -2.1286984050193122e-02 1.6368524433681499e+00 1.5356745857754917e+00 6.4818866628082206e-01 3.0061758318119736e-01 1.7118674257656605e-01 2.5672606014406790e-01 2.3726565591581347e-01 1.3380714960230811e-01 3.5844352987019346e-01 3.7099362648046719e-01 1.1014531021248930e+00 -5.1673958666347064e-01 -1.6856528718905666e+00 -1.7830683451003455e+00 8.1809127397742321e-02 1.5046502267019122e+00 -9.5141645969046396e-02 4.6356490797096350e-01 -3.5858200263968765e-01 -2.7275700595133751e-02 
      </Row>
      <Row Index="4">
        5.5218774170683305e-01 -2.0431335132491402e-03 -1.3262164940180843e-01 3.7260910711771955e-01 5.3134264003847775e-01 1.0131342519857575e-02 -2.3294481114880021e-02 3.3555104199162350e-01 -1.0809150676206962e+00 4.4257204019276658e-03 1.8205761778832755e-01 -1.4371946526761836e-01 4.3492985311224697e-02 1.2455741890204319e-02 -1.2388985075729080e-01 1.3089300967929637e-01 -1.0213276017688958e-01 1.1624150787992107e-01 2.9717581274455823e-01 2.0753972211856569e-01 1.2278860724540441e+00 8.6405312880497953e-01 1.4460664036361754e+00 3.3406734649862019e-01 -2.4326235561264187e-01 -6.9742760126533565e-01 2.1042008311501839e-03 6.6988039055006920e-01 1.1726137192850798e+00 3.1435188691642607e-01 2.6716770362451908e-01 -5.4884659566879801e-01 -1.0172370268504132e+00 4.5088586809730447e-01 9.9391553473801020e-01 -7.4232267610427144e-02 -5.1966687067509931e-01 -1.9146605360054381e+00 1.1710818039346364e-02 
      </Row>
      <Row Index="5">
        -1.0276499454479893e-02 -1.7790760969671027e-02 7.9273219476868051e-02 -4.3878808919146702e-02 1.0131342518652105e-02 8.0122636360121138e-02 5.4958513246960716e-02 -9.2774984822064921e-02 -5.0976732862306751e-03 1.1861664636799089e-01 2.0109974879929182e-01 -8.3155665823987007e-02 -6.8954060596260192e-05 -5.5519023554386440e-02 -2.0261315460771152e-02 -1.4616748763099962e-02 4.1327316403524730e-02 4.3461726256203065e-02 2.4849988811018769e-01 -1.4643825420533946e-01 1.3328922877455990e-01 1.6024189747218356e-01 4.9753613931914575e-02 1.1638278863498204e-02 -2.5296792429647907e-01 9.0104596292259059e-03 1.5544727077660520e-01 -7.9205870433883635e-02 8.3636080721644315e-02 -8.9015720832767792e-02 2.8003212189424204e-01 -3.1763366153917449e-02 -3.8122559653589072e-02 2.2392553603890414e-01 -4.4168860743898269e-01 3.8314840120424287e-03 -4.9400933511183304e-01 1.9584080852532537e-01 9.2177490047393347e-03 
      </Row>
      <Row Index="6">
        -1.1782870064381168e-01 4.3151567644948763e-02 2.4010091372088124e-01 -3.2712747256817754e-01 -2.3294481119517894e-02 5.4958513246724738e-02 4.0228756322016712e-01 -2.0509688683877508e-01 1.7457806435736234e-01 2.8968509569244016e-01 5.8415101187804086e-01 -8.7841262666550013e-02 -1.7287576625585999e-02 -8.7918178538428177e-02 -3.0923598044402742e-03 5.7227298734302112e-03 2.7368984292346632e-01 1.7202556388272194e-01 8.4853119571765634e-01 -4.2252877293906410e-01 5.8034201308402233e-01 2.8880102193603802e-01 -1.7644893282136920e-01 -1.0082490416920417e-01 -4.4952131218820679e-01 4.6733686962563714e-01 3.4932710052501059e-01 7.4652514451460067e-02 6.7970978856693440e-02 -2.3425562199674554e-01 5.9234244130770419e-01 -8.2624383325543926e-01 1.4515612055734756e-01 6.5022378799986325e-01 -8.7201392263822575e-01 1.5965512883100517e-02 -1.1177187071032555e+00 1.0659661876617141e+00 5.8070665270335119e-03 
      </Row>
      <Row Index="7">
        5.0199204785145901e-01 4.0591831300435088e-02 -3.0023425131965359e-01 1.1458692428047417e+00 3.3555104199440827e-01 -9.2774984822688700e-02 -2.0509688683879340e-01 1.5978437563523527e+00 -9.4698410433794478e-01 -1.3299505659851329e-01 -1.8993063651212540e-02 3.0647704712197854e-02 -2.7619443412260858e-02 2.2097933301158196e-01 8.3303373005910564e-02 2.6815362909843349e-01 -2.9262479920658524e-01 6.4185410151348182e-02 -8.9927144082219274e-03 1.7743911867874487e+00 9.6040448802782119e-01 6.5630988226228726e-01 2.1213073360424173e-01 1.1172539872507820e-01 2.2689204608056537e-01 2.6305491376816192e-01 1.7530145201872244e-01 4.4139239565604554e-01 3.0275440018459732e-01 1.0941804620407671e+00 -9.0617349289719637e-02 -1.5585217460202130e+00 -1.7943061137035268e+00 -5.6080974205105205e-01 1.4127625767325409e+00 -9.2031553680112413e-02 6.4136424991367713e-01 -2.9175475336473955e-01 -2.9538833226476682e-02 
      </Row>
      <Row Index="8">
        -2.3779852453332868e+00 -1.1400604350064736e-01 4.2421843517344249e-01 -1.1634825654038463e+00 -1.0809150676263211e+00 -5.0976732894794097e-03 1.7457806434941117e-01 -9.4698410433423796e-01 8.4587528599751032e+00 -2.3751028960298981e-01 -1.5492045598647362e+00 4.7733681847407228e-01 2.4835177176940970e-01 -3.4453723306927597e-01 3.2225430891805079e-01 -4.1975916564078880e-01 2.8166503290930720e+00 -6.6186751336743932e-01 -1.4162438754368449e+00 -8.4579260060297567e-01 -1.3354917511396755e+01 -4.4830108204841528e+00 -4.6827890871434930e+00 -1.3510649721584589e+00 8.7830553348747764e-01 1.9534332149162172e+00 8.9209559972432018e-02 -2.7334311211641680e+00 -4.7054052611009789e+00 -6.5454837096568830e-01 -6.6996198458907152e-01 -9.8353281038172424e-01 2.8211609118152925e+00 -1.3535603651950789e+00 2.2965088124216093e+00 1.9007161213076443e-01 1.1141889493608248e+00 5.5566419742079551e+00 -8.5421842938856046e-02 
      </Row>
      <Row Index="9">
        1.2574388918873414e-02 -9.3312544371844552e-02 2.1792641631512244e-01 -9.5627151138491628e-02 4.4257203961750591e-03 1.1861664636748515e-01 2.8968509569276263e-01 -1.3299505659505143e-01 -2.3751028958763920e-01 4.9787198416474071e-01 7.3570618054009496e-01 -2.0743665058229532e-01 -2.3464159262259088e-02 -4.0979213544465110e-01 -6.4214395209663391e-02 -3.1482305011140625e-02 1.6441094454178174e-02 -2.6307417112078624e-03 9.8630121109363977e-01 -2.6687775063659669e-01 8.4104846931737431e-01 4.3804668573225658e-01 -2.4137537999175684e-01 2.0449296939424759e-02 -1.0546838916385155e+00 2.7770438788453866e-01 6.1713631375896028e-01 -3.3885339244871487e-01 4.1394206982004973e-02 -2.2087928248699340e-01 1.3178802720954548e+00 -4.8535968058576878e-01 -3.0462717313288884e-01 8.6627767006541923e-01 -1.6931216697035314e+00 6.0114092201001548e-03 -2.1871692168706693e+00 1.3626304889732053e+00 2.8260303119620470e-02 
      </Row>
      <Row Index="10">
        3.5618473672213291e-01 5.5790950220092839e-02 3.5480400361681674e-01 9.1932553445513321e-02 1.8205761777737894e-01 2.0109974879895454e-01 5.8415101188055496e-01 -1.8993063649113059e-02 -1.5492045598352673e+00 7.3570618054220149e-01 1.9081640503337385e+00 -6.3927831458225293e-01 -6.0354298065631085e-02 -2.2922038333348349e-01 -1.9604362342191364e-01 1.3207928092876700e-01 -1.3457860158298449e-01 4.6151686798583008e-01 2.1945280667185165e+00 -3.6890120509157354e-01 3.9411360984622323e+00 1.6658967689735178e+00 7.6165082531893802e-01 1.7860847703445404e-01 -1.6547346908913654e+00 3.2199946882470798e-01 1.1651393699477737e+00 1.6003988459049928e-01 1.2536301673935570e+00 -1.7096157727888633e-01 1.7793114016629878e+00 -1.0255838510682718e+00 -9.8199917499855660e-01 2.2798135910085580e+00 -2.6452251809786378e+00 -1.9104151717086244e-02 -3.7556080041415130e+00 8.3123585073011252e-01 4.8015709702494740e-02 
      </Row>
      <Row Index="11">
        -2.1266454073957783e-01 3.1568205902056556e-02 6.8562338098873687e-02 -1.0792996418148845e-01 -1.4371946525715362e-01 -8.3155665821920577e-02 -8.7841262665849240e-02 3.0647704709385184e-02 4.7733681843977671e-01 -2.0743665057698107e-01 -6.3927831456952311e-01 9.7877838563647912e-01 2.3106376772708659e-02 2.3227309208902389e-01 3.1857886872971047e-01 -1.1569050508268465e-01 1.3193637501521183e-01 -1.4240658679255561e-01 -4.6083993796424344e-01 6.3438594223026856e-01 -4.8152670398443309e-01 -2.5334302401093334e-01 -4.3529837025312035e-01 -3.0115809999084026e-01 8.9138383434564827e-01 3.3351554453805998e-01 -4.4450178365607751e-01 7.5845795814860484e-01 -4.0797632065586031e-01 -4.5644662166580509e-02 1.8355490001785196e-01 -1.4056240221921679e+00 7.1206190962530203e-01 -2.8527796746286809e+00 1.4786342376201098e+00 2.5390749783404734e-02 2.7021940307800558e+00 4.6544535227767680e-01 -3.0714364187363341e-02 
      </Row>
      <Row Index="12">
        4.9237833479717996e-02 -1.8043758715520664e-02 -5.2717839443670367e-02 -3.2406418330994557e-02 4.3492985312553190e-02 -6.8954059264214607e-05 -1.7287576621705325e-02 -2.7619443412525257e-02 2.4835177177056852e-01 -2.3464159255845631e-02 -6.0354298054148436e-02 2.3106376763817660e-02 1.5645563649124394e-01 -2.3181509784739575e-02 -1.2081718137320992e-01 -5.5851816007655535e-02 2.2297681016713677e-01 -1.6724736273038433e-02 -7.1507422979271346e-02 1.4451591465912350e-02 -4.8905512546616198e-01 2.8826934637622870e-02 4.3028644004154115e-01 7.8691618359960150e-02 -4.9201253061627294e-02 -5.2490862525538984e-01 5.8132098458265676e-02 3.2202509615904505e-02 3.4705893026262191e-01 -7.0750499680715617e-02 3.8052651316617880e-01 4.8647970530406159e-01 -2.5965057541848191e-02 -1.4768307134529163e-01 6.6589542491189480e-01 1.3392282515176400e-02 -2.4320528229536373e-01 -1.1389273829432183e+00 4.8633529992139907e-03 
      </Row>
      <Row Index="13">
        6.1093202662259039e-02 5.7030694248897973e-01 3.9097102293296437e-02 2.5369871714817682e-01 1.2455741898495631e-02 -5.5519023553518565e-02 -8.7918178539742264e-02 2.2097933300040973e-01 -3.4453723310091194e-01 -4.0979213544629417e-01 -2.2922038333283018e-01 2.3227309210129343e-01 -2.3181509773888109e-02 1.6406446260816885e+00 2.2152199287965710e-01 2.4998175694459948e-01 -8.8434094224682999e-03 1.1713505358604304e+00 -3.9245258420487178e-01 3.6230009306946809e-01 1.0753963375329292e+00 7.4674236433999397e-02 5.8379061062460380e-01 -1.8444812313998521e-01 2.4023891717823473e+00 4.5210326093657349e-01 -7.3420837654519366e-01 1.4874446794788989e+00 3.9447575771035215e-01 4.0738529445982280e-01 -2.9212784484876990e+00 -8.0279157656227229e-01 4.8781197282863931e-01 -1.0724066129728491e+00 2.8729688290954276e+00 5.8385839472102179e-03 4.3341954028531724e+00 -1.8955500041256546e+00 -7.5594756964559792e-02 
      </Row>
      <Row Index="14">
        -2.2295854237876767e-01 9.4661161448511777e-02 1.7089704334095057e-01 2.8815187701824119e-02 -1.2388985075593917e-01 -2.0261315461818974e-02 -3.0923598089982463e-03 8.3303373003055792e-02 3.2225430890354717e-01 -6.4214395217032511e-02 -1.9604362343391957e-01 3.1857886874552466e-01 -1.2081718136993391e-01 2.2152199289248922e-01 4.7020226387873321e-01 6.3283538003621131e-02 1.2131892892676388e-01 8.1956502731394543e-02 -1.1229939008641765e-01 2.5417178273415425e-01 2.1990627947212005e-01 -3.1176475995422415e-01 -1.2262848825268362e+00 -4.8360716002556581e-01 7.4316586947806496e-01 1.1059166475028630e+00 -7.0447578552617129e-02 -1.4201610907936801e-01 -9.2104767203142190e-01 5.3107004007405326e-02 -7.4549365440373572e-01 -1.9384943732140745e+00 4.9772155522809958e-01 -1.0072770302935441e+00 9.4527671586340811e-01 2.6999631557377606e-02 1.7259338574348531e+00 1.9193724780673516e+00 -4.7127442482415099e-02 
      </Row>
      <Row Index="15">
        1.7397693029532024e-01 8.1436295483428012e-02 5.7782057380806329e-04 3.5621595412232998e-01 1.3089300967344508e-01 -1.4616748765077681e-02 5.7227298703756979e-03 2.6815362909307927e-01 -4.1975916563196902e-01 -3.1482305020937532e-02 1.3207928091105886e-01 -1.1569050506733070e-01 -5.5851816010181743e-02 2.4998175696553887e-01 6.3283538013924598e-02 3.7025433557031751e-01 4.4849131317907381e-02 3.4990640064474343e-01 3.4125799290427930e-02 2.0386123858685554e-01 1.2165985944331048e+00 1.8405266847771884e-02 -4.4532675693259804e-01 -3.1820434693583949e-02 4.4950242162676324e-01 8.0579262868146806e-01 -8.1091155631757714e-02 -1.9323247303140903e-02 -2.8211647112936605e-01 3.1282960515883718e-01 -1.0915951954767056e+00 -2.0958714199915480e+00 -2.6297132465504225e-01 1.0040255248183985e+00 1.3493503216265521e+00 -2.7352921764503130e-02 1.9127868169762907e-01 9.0106874834635087e-01 -3.8740690973238914e-02 
      </Row>
      <Row Index="16">
        -5.5979348373519977e-01 1.9763238104669512e-02 3.3590756649985926e-01 -2.8459985806658439e-01 -1.0213276018082418e-01 4.1327316404463632e-02 2.7368984292630383e-01 -2.9262479921410461e-01 2.8166503290942400e+00 1.6441094456729588e-02 -1.3457860158052526e-01 1.3193637502084488e-01 2.2297681016641002e-01 -8.8434094247578365e-03 1.2131892892805625e-01 4.4849131312005991e-02 2.2957506886717529e+00 2.3333799452830702e-02 -6.9175652520553368e-02 -2.7197175591614015e-01 -6.6933878097074784e-01 -5.5768865589515748e-01 -5.4213867683367667e-01 -5.5476135056495202e-01 2.9055278859492928e-01 4.9944181660216591e-01 2.0288356855933526e-01 -3.4302602205984428e-01 -2.1704928466957224e-01 -3.0129078738486226e-01 -2.1083317900433060e-01 -2.3383477381488991e+00 1.0794769990568429e+00 -1.1221682416809661e-01 2.6216383008081112e+00 7.5718060795019956e-02 4.7288894300730888e-01 5.2806880802220735e-01 -3.9272882968152394e-02 
      </Row>
      <Row Index="17">
        2.2566373839986698e-01 4.5188179442672194e-01 1.8870993233848221e-01 1.8017379908068332e-01 1.1624150787680421e-01 4.3461726255495492e-02 1.7202556388185464e-01 6.4185410141305077e-02 -6.6186751336933836e-01 -2.6307417168800473e-03 4.6151686797582275e-01 -1.4240658677819318e-01 -1.6724736272445639e-02 1.1713505358728074e+00 8.1956502735559877e-02 3.4990640063824008e-01 2.3333799458539445e-02 1.3905494022674574e+00 4.8714454691662346e-01 -8.6658779327897423e-02 1.7139619174115097e+00 3.3237691146311477e-01 -5.1389096570165549e-02 -1.9939269819281111e-01 1.7190320063295745e+00 1.2265988889046526e+00 -1.3821924220389570e-01 9.8179513728982581e-01 7.8059997281595198e-02 3.8983205418505662e-01 -2.1147697096815743e+00 -1.8952755188395400e+00 -4.8810611128141224e-02 9.3384883365755877e-01 2.3482949022738002e+00 7.5839123243617058e-03 1.5702028598789008e+00 -3.5030925002881652e-01 -9.8570438858996773e-02 
      </Row>
      <Row Index="18">
        4.4377531438592754e-01 3.6885632424638715e-02 5.7297897781777340e-01 -2.1286984039504908e-02 2.9717581273423299e-01 2.4849988811070745e-01 8.4853119572218638e-01 -8.9927144036643369e-03 -1.4162438754103983e+00 9.8630121110000135e-01 2.1945280667267357e+00 -4.6083993798592493e-01 -7.1507422993114744e-02 -3.9245258421159468e-01 -1.1229939007539291e-01 3.4125799313220462e-02 -6.9175652526980796e-02 4.8714454692754355e-01 3.1624106071794786e+00 -4.0008094988291470e-01 3.3670741265783946e+00 2.3424049451346036e+00 5.6324856354038388e-01 1.2485552339095243e-01 -2.2143074127507196e+00 8.1440184363192636e-01 1.6764339851469834e+00 7.0530008716362369e-01 1.2861038870274941e+00 -1.9285422432918004e-01 3.3762127638746460e+00 -2.5446810689283268e+00 -1.5977159993980012e+00 1.6102367372385111e+00 -3.1390422426498712e+00 -3.9657465884798418e-02 -4.6819343415405710e+00 2.0560879842444262e+00 4.7637988647332777e-02 
      </Row>
      <Row Index="19">
        3.6857403210273454e-01 2.2602420407122459e-02 -3.1552237602733157e-01 1.6368524433712004e+00 2.0753972213260719e-01 -1.4643825420372103e-01 -4.2252877293769942e-01 1.7743911867900668e+00 -8.4579260063623229e-01 -2.6687775063189273e-01 -3.6890120507624868e-01 6.3438594222426392e-01 1.4451591473686243e-02 3.6230009306200056e-01 2.5417178272056329e-01 2.0386123858308822e-01 -2.7197175591598854e-01 -8.6658779329904831e-02 -4.0008094986194420e-01 2.9962216299940607e+00 9.0922302776603914e-01 6.2929904435974571e-01 -4.1260720606670631e-02 3.2568320165093423e-02 6.6627758674632254e-01 4.2237798328577847e-01 1.8443517553052782e-01 7.1464894419044400e-01 6.6225570896837241e-02 9.7568692535029466e-01 7.6342549025065898e-01 -1.0210826176354106e+00 -1.4165284658162021e+00 -3.1113957664574214e+00 7.8093320253422283e-01 -2.0631550307695729e-02 2.2633729795560384e+00 5.6028761879885147e-02 -4.1543491713513292e-02 
      </Row>
      <Row Index="20">
        3.0430855561756953e+00 4.7014659931688296e-01 3.8958106854213936e-01 1.5356745857486811e+00 1.2278860724491272e+00 1.3328922877817950e-01 5.8034201308933708e-01 9.6040448799904810e-01 -1.3354917511404540e+01 8.4104846932741806e-01 3.9411360984776325e+00 -4.8152670399908915e-01 -4.8905512546401475e-01 1.0753963375068647e+00 2.1990627945639779e-01 1.2165985944169257e+00 -6.6933878097692379e-01 1.7139619173870764e+00 3.3670741265886801e+00 9.0922302773525265e-01 3.9008114213839960e+01 9.0705446855040393e+00 5.5993112006126777e+00 8.0432053978942297e-01 -1.0694542662293531e+00 -1.7029927744604767e-01 1.1174762506254457e-01 4.8365978353670078e+00 9.0952828283205616e+00 6.3120313419828755e-01 -7.2531016360593847e-01 -6.7672622763547174e+00 -1.8867857224778155e+00 2.9401458517666330e+00 -1.8433659082582277e+00 -2.5662538051723560e-01 4.3777967530242901e-01 -4.8914201520092071e+00 1.0715474009349379e-01 
      </Row>
      <Row Index="21">
        1.5704913695184106e+00 1.0116361177879085e-01 3.5307956545152841e-02 6.4818866628671223e-01 8.6405312881859775e-01 1.6024189748031503e-01 2.8880102195254231e-01 6.5630988226138776e-01 -4.4830108205065713e+00 4.3804668576924599e-01 1.6658967690416202e+00 -2.5334302407404641e-01 2.8826934641521973e-02 7.4674236360041807e-02 -3.1176475998804670e-01 1.8405266853705471e-02 -5.5768865590833072e-01 3.3237691144463449e-01 2.3424049452105193e+00 6.2929904431460626e-01 9.0705446854840801e+00 5.5921987538093845e+00 5.4510638913823755e+00 9.9765000024369610e-01 -1.8672042291511590e+00 -2.1348867567054866e+00 1.0133820709170209e+00 3.3972315944357652e+00 5.9058382460346808e+00 5.7325496014586627e-02 3.3175117251307307e+00 5.9110175148918476e-01 -2.5663290732733710e+00 -8.4466720004872631e-01 -3.2044789412871952e+00 -9.2647049605144985e-02 -1.4361909344809933e+00 -5.6755866986029861e+00 1.0401283565736086e-01 
      </Row>
      <Row Index="22">
        2.2887833187306068e+00 2.5751538801474005e-01 -6.7184191345689337e-01 3.0061758318425236e-01 1.4460664036798399e+00 4.9753613956065479e-02 -1.7644893276715745e-01 2.1213073359380896e-01 -4.6827890871820808e+00 -2.4137537988236768e-01 7.6165082551895458e-01 -4.3529837041791564e-01 4.3028644006650829e-01 5.8379061040853208e-01 -1.2262848826286523e+00 -4.4532675693076812e-01 -5.4213867684119532e-01 -5.1389096620650512e-02 5.6324856377950627e-01 -4.1260720729763944e-02 5.5993112005125170e+00 5.4510638914162683e+00 1.7714203521441718e+01 2.9170990719246399e+00 -1.7602802981119852e+00 -1.3353169529682530e+01 -1.4969441913142743e+00 5.6087497798417152e+00 1.3490452878381907e+01 -6.0872068941237290e-01 2.1669466483063857e+00 1.3928290772931426e+01 -1.7106984266376650e+00 -1.6110513463123182e+00 1.3254815387657519e+00 -2.3723136895468594e-01 1.0729196192392374e+00 -2.8348950310833747e+01 4.3189017152816767e-01 
      </Row>
      <Row Index="23">
        5.4751160606625149e-01 -7.8470117560122787e-02 -3.0391382363641506e-01 1.7118674258690003e-01 3.3406734650330439e-01 1.1638278866051621e-02 -1.0082490416269074e-01 1.1172539873091569e-01 -1.3510649721519359e+00 2.0449296953837459e-02 1.7860847706073316e-01 -3.0115810002257737e-01 7.8691618359766125e-02 -1.8444812316905621e-01 -4.8360716003618032e-01 -3.1820434682537563e-02 -5.5476135056710441e-01 -1.9939269819213007e-01 1.2485552341732725e-01 3.2568320143597118e-02 8.0432053976015894e-01 9.9765000021221084e-01 2.9170990718411058e+00 1.0323279994775825e+00 -1.2061275604768431e+00 -2.4643931544925861e+00 -1.7639699742118742e-01 4.8820333189911952e-01 2.1670824843216328e+00 -9.7731721541389177e-02 1.3123295540792563e+00 3.6673991285495378e+00 -9.2744074108153085e-01 5.1440714115812591e-01 -2.6042240104809022e+00 -8.4727616826460989e-02 -1.7708179539148963e+00 -3.7795330226982160e+00 1.2845726248480824e-01 
      </Row>
      <Row Index="24">
        -2.6115620176953591e-01 7.5656000004111945e-01 1.3056487320524113e-02 2.5672606010544996e-01 -2.4326235560121034e-01 -2.5296792429774229e-01 -4.4952131219700320e-01 2.2689204605483226e-01 8.7830553342666684e-01 -1.0546838916567518e+00 -1.6547346909184721e+00 8.9138383440570923e-01 -4.9201253039420578e-02 2.4023891718123154e+00 7.4316586946602214e-01 4.4950242157566800e-01 2.9055278860678235e-01 1.7190320063060254e+00 -2.2143074127642639e+00 6.6627758678609306e-01 -1.0694542661534854e+00 -1.8672042289792898e+00 -1.7602802976192180e+00 -1.2061275604259318e+00 6.2140057361421013e+00 2.6129629416048816e+00 -2.0429184378329071e+00 1.9455785873001286e+00 -1.9654905273233259e+00 1.0974332231095389e+00 -7.5241847086936930e+00 -3.1993201674822882e+00 1.9452958355337260e+00 -2.2138088641486866e+00 8.6922745444745892e+00 7.8658661898870608e-02 1.0275224870733314e+01 -9.0228820344516691e-01 -3.0723903269521291e-01 
      </Row>
      <Row Index="25">
        -1.1872794835245211e+00 1.6788929395036334e-01 8.0668188757949455e-01 2.3726565589971482e-01 -6.9742760130011749e-01 9.0104596098932177e-03 4.6733686957939113e-01 2.6305491376539214e-01 1.9534332149256024e+00 2.7770438779277185e-01 3.2199946865755524e-01 3.3351554468235500e-01 -5.2490862527202609e-01 4.5210326111404670e-01 1.1059166475803599e+00 8.0579262866544332e-01 4.9944181660442544e-01 1.2265988889333066e+00 8.1440184343343236e-01 4.2237798338981081e-01 -1.7029927733765504e-01 -2.1348867566886796e+00 -1.3353169529557036e+01 -2.4643931545408222e+00 2.6129629419887626e+00 1.3026614159110698e+01 1.3554113439483668e+00 -1.8852733495038034e+00 -9.6573178762594303e+00 1.0796828767212041e+00 -3.0242879347168792e+00 -1.5070897777325836e+01 4.7430689648003121e-01 1.5841828149007431e+00 -1.2056844466321073e+00 1.7696623033104611e-01 1.0812545977142469e+00 2.3905446402677043e+01 -4.7491185370075784e-01 
      </Row>
      <Row Index="26">
        -6.4070036439058953e-03 -1.8818957801357783e-01 2.2411830159281276e-01 1.3380714961696594e-01 2.1042008226537234e-03 1.5544727077646669e-01 3.4932710052856741e-01 1.7530145202795211e-01 8.9209559998317867e-02 6.1713631376334965e-01 1.1651393699530077e+00 -4.4450178367264348e-01 5.8132098445071279e-02 -7.3420837654715310e-01 -7.0447578539304154e-02 -8.1091155607245557e-02 2.0288356855530859e-01 -1.3821924218978227e-01 1.6764339851458843e+00 1.8443517551654387e-01 1.1174762505676483e-01 1.0133820708425745e+00 -1.4969441915548956e+00 -1.7639699745103726e-01 -2.0429184378083449e+00 1.3554113441516251e+00 2.0716423540661908e+00 -1.1683698290781046e+00 -6.1846225461483606e-01 -4.3864118326534618e-01 3.6045297667228762e+00 -1.5944227559436501e+00 -1.0661206427812502e+00 6.7762346144643493e-01 -2.2063889408609869e+00 1.1122040586608273e-01 -4.6026174328658778e+00 3.4640792027944434e+00 -3.9910827953835715e-03 
      </Row>
      <Row Index="27">
        1.1525860299410098e+00 4.9363428408184973e-01 1.2402706791605267e-02 3.5844352985270977e-01 6.6988039057756277e-01 -7.9205870424854830e-02 7.4652514464432329e-02 4.4139239564055965e-01 -2.7334311212381035e+00 -3.3885339241651469e-01 1.6003988465512942e-01 7.5845795811403782e-01 3.2202509638544541e-02 1.4874446794093381e+00 -1.4201610913189855e-01 -1.9323247334499527e-02 -3.4302602206901089e-01 9.8179513724983736e-01 7.0530008724977922e-01 7.1464894416882929e-01 4.8365978353854473e+00 3.3972315945661080e+00 5.6087497801766162e+00 4.8820333197808746e-01 1.9455785870846509e+00 -1.8852733498212617e+00 -1.1683698290008453e+00 5.8988654709195973e+00 4.9325380239991450e+00 7.8585935992567524e-01 -1.1704002939929594e+00 -1.1331598546914901e-02 -9.8590100336997200e-01 -3.3962740874773694e+00 2.1799841498801689e+00 -1.4920024299648108e-01 5.9596643525061630e+00 -7.9503253708145696e+00 -2.0627660645717583e-02 
      </Row>
      <Row Index="28">
        1.9781643983329951e+00 2.0614557628981345e-01 -3.7289354183276746e-01 3.7099362648265188e-01 1.1726137193166641e+00 8.3636080740411956e-02 6.7970978898670431e-02 3.0275440017564170e-01 -4.7054052611302053e+00 4.1394207066909106e-02 1.2536301675482260e+00 -4.0797632078505197e-01 3.4705893027959789e-01 3.9447575754312852e-01 -9.2104767210864935e-01 -2.8211647112640842e-01 -2.1704928467829848e-01 7.8059997241834531e-02 1.2861038872105186e+00 6.6225570799301692e-02 9.0952828282464040e+00 5.9058382460542518e+00 1.3490452878360649e+01 2.1670824843855074e+00 -1.9654905277047323e+00 -9.6573178763391461e+00 -6.1846225443152170e-01 4.9325380237326604e+00 1.1634384737248627e+01 -3.2622353851374725e-01 2.4895111315204965e+00 8.9773175038242279e+00 -1.8907068125558648e+00 -1.0511076925123517e+00 1.2104412408328802e-01 -2.1537254442945128e-01 1.2608614426465348e-01 -2.1022538736378923e+01 3.3689988509376612e-01 
      </Row>
      <Row Index="29">
        4.6157321273834917e-01 1.0841367986144768e-01 -2.1586193552735122e-01 1.1014531021202374e+00 3.1435188691211557e-01 -8.9015720836350454e-02 -2.3425562200192029e-01 1.0941804620363031e+00 -6.5454837095777529e-01 -2.2087928250452560e-01 -1.7096157730715689e-01 -4.5644662139095571e-02 -7.0750499682647572e-02 4.0738529449964062e-01 5.3107004024383828e-02 3.1282960516178454e-01 -3.0129078736918780e-01 3.8983205420221478e-01 -1.9285422436437288e-01 9.7568692535999946e-01 6.3120313424296626e-01 5.7325496014087207e-02 -6.0872068939243462e-01 -9.7731721561491014e-02 1.0974332232044006e+00 1.0796828767358606e+00 -4.3864118330548735e-01 7.8585935999133061e-01 -3.2622353849924457e-01 1.7287912907592500e+00 -2.0173317111093847e+00 -2.8355514615991844e+00 -1.9449249646997808e+00 7.6122134456455159e-01 3.0481261901555348e+00 -1.9778176872246314e-01 1.3879580916523140e+00 4.0062422485445470e-01 -8.7115918787132152e-02 
      </Row>
      <Row Index="30">
        3.9170171675969812e-01 -9.2274137610462503e-01 5.6348861900378466e-02 -5.1673958660435559e-01 2.6716770363432829e-01 2.8003212190483850e-01 5.9234244133516967e-01 -9.0617349249374257e-02 -6.6996198456687051e-01 1.3178802721576020e+00 1.7793114017724161e+00 1.8355489988952733e-01 3.8052651314770003e-01 -2.9212784485990189e+00 -7.4549365442774773e-01 -1.0915951954142722e+00 -2.1083317903700149e-01 -2.1147697096749138e+00 3.3762127639888879e+00 7.6342549017664396e-01 -7.2531016369424606e-01 3.3175117249715811e+00 2.1669466477516153e+00 1.3123295540638447e+00 -7.5241847088939444e+00 -3.0242879343241946e+00 3.6045297668424299e+00 -1.1704002943488556e+00 2.4895111311039213e+00 -2.0173317109996987e+00 1.4410511169979994e+01 4.3620522395123578e+00 -2.4934407640945295e+00 -3.0985642400912874e+00 -1.0756918845075747e+01 7.4330803651531913e-02 -1.2131543758584002e+01 7.0490294591968805e-01 3.2614705625357177e-01 
      </Row>
      <Row Index="31">
        -2.0728221174320627e-01 -2.9251761286890243e-01 -1.3597148479125467e+00 -1.6856528718276893e+00 -5.4884659560601712e-01 -3.1763366133436222e-02 -8.2624383322058037e-01 -1.5585217459663285e+00 -9.8353281043122132e-01 -4.8535968047821187e-01 -1.0255838508764306e+00 -1.4056240223771264e+00 4.8647970533709639e-01 -8.0279157680492785e-01 -1.9384943733318587e+00 -2.0958714199845914e+00 -2.3383477381909445e+00 -1.8952755189011876e+00 -2.5446810686915233e+00 -1.0210826177007999e+00 -6.7672622766061750e+00 5.9110175149105260e-01 1.3928290772890342e+01 3.6673991286480874e+00 -3.1993201680171377e+00 -1.5070897777474219e+01 -1.5944227556687471e+00 -1.1331598949799876e-02 8.9773175037994566e+00 -2.8355514615477766e+00 4.3620522401371442e+00 3.8819407196391182e+01 1.9603230612760236e+00 -2.6311317894407908e+00 -2.0150409258608256e+01 1.9800592319356886e-01 -2.1100721398645517e+00 -2.5079629283244444e+01 6.1720235592390360e-01 
      </Row>
      <Row Index="32">
        -1.5512381094583854e+00 1.6401499683615484e-01 4.6295939075132875e-01 -1.7830683451189011e+00 -1.0172370268433220e+00 -3.8122559652469690e-02 1.4515612055077298e-01 -1.7943061137111200e+00 2.8211609117742320e+00 -3.0462717313371979e-01 -9.8199917500317613e-01 7.1206190964560601e-01 -2.5965057526857294e-02 4.8781197281573840e-01 4.9772155520725941e-01 -2.6297132469616008e-01 1.0794769990403510e+00 -4.8810611165480307e-02 -1.5977159993884640e+00 -1.4165284657847925e+00 -1.8867857225053086e+00 -2.5663290731676867e+00 -1.7106984263386877e+00 -9.2744074102757690e-01 1.9452958354544203e+00 4.7430689621155420e-01 -1.0661206427679712e+00 -9.8590100328553021e-01 -1.8907068123285706e+00 -1.9449249647595426e+00 -2.4934407638621141e+00 1.9603230617309675e+00 5.1867971727073954e+00 -1.9434135489461113e+00 -2.3690734001684899e-01 3.2114335960415719e-01 4.4304813348457479e+00 1.4128113745646798e+00 -2.6857659539537754e-02 
      </Row>
      <Row Index="33">
        6.0524195362081379e-01 -2.4898192154029175e-01 5.4333919879039350e-02 8.1809127400168435e-02 4.5088586803212571e-01 2.2392553602431065e-01 6.5022378798778213e-01 -5.6080974205666756e-01 -1.3535603650238055e+00 8.6627767001267475e-01 2.2798135908975743e+00 -2.8527796745704026e+00 -1.4768307139144454e-01 -1.0724066128536394e+00 -1.0072770301914813e+00 1.0040255248768073e+00 -1.1221682412910117e-01 9.3384883373232030e-01 1.6102367370800841e+00 -3.1113957664605181e+00 2.9401458517558510e+00 -8.4466720031694820e-01 -1.6110513470006929e+00 5.1440714099285634e-01 -2.2138088637433206e+00 1.5841828155529694e+00 6.7762346130162121e-01 -3.3962740875068085e+00 -1.0511076930542851e+00 7.6122134466108238e-01 -3.0985642407922080e+00 -2.6311317902057572e+00 -1.9434135487234947e+00 1.3753100645427677e+01 -8.3115604028471068e-02 -1.8691612764356128e-01 -1.0547277560143918e+01 3.3893628044208608e+00 -1.0900015076931613e-02 
      </Row>
      <Row Index="34">
        1.1785257025515179e+00 8.2628486723719163e-01 -3.3972985709939252e-01 1.5046502266093267e+00 9.9391553472639060e-01 -4.4168860743013738e-01 -8.7201392259191834e-01 1.4127625766391869e+00 2.2965088124528670e+00 -1.6931216696825269e+00 -2.6452251809332670e+00 1.4786342376640143e+00 6.6589542491738030e-01 2.8729688291112212e+00 9.4527671588021600e-01 1.3493503216126905e+00 2.6216383009045083e+00 2.3482949022978032e+00 -3.1390422425779527e+00 7.8093320245754061e-01 -1.8433659080317568e+00 -3.2044789411835950e+00 1.3254815388788757e+00 -2.6042240105185597e+00 8.6922745444971579e+00 -1.2056844466268088e+00 -2.2063889408421558e+00 2.1799841500033255e+00 1.2104412421005439e-01 3.0481261900362910e+00 -1.0756918845005091e+01 -2.0150409258710454e+01 -2.3690733983077550e-01 -8.3115604169166746e-02 4.8008321002899137e+01 -2.0131231930456017e-01 1.1581006452384644e+01 -1.8088799569823841e+01 -5.2299334098950157e-01 
      </Row>
      <Row Index="35">
        -1.0034611495135888e-01 8.9049398732776730e-05 3.5047510829038744e-02 -9.5141645969347599e-02 -7.4232267609758845e-02 3.8314840123310212e-03 1.5965512883215849e-02 -9.2031553679940786e-02 1.9007161212787188e-01 6.0114092213026382e-03 -1.9104151715290670e-02 2.5390749782770353e-02 1.3392282515833354e-02 5.8385839440193016e-03 2.6999631555580668e-02 -2.7352921766262507e-02 7.5718060793206601e-02 7.5839123216274026e-03 -3.9657465881693735e-02 -2.0631550306627503e-02 -2.5662538051947759e-01 -9.2647049600088405e-02 -2.3723136894478758e-01 -8.4727616822995067e-02 7.8658661889076095e-02 1.7696623032045081e-01 1.1122040586952837e-01 -1.4920024299692461e-01 -2.1537254442155820e-01 -1.9778176872494710e-01 7.4330803669188525e-02 1.9800592321242805e-01 3.2114335959998919e-01 -1.8691612764733212e-01 -2.0131231932117671e-01 5.1498172505673921e-02 8.7560387966499065e-02 2.9066182531852730e-01 -1.0919988332700279e-02 
      </Row>
      <Row Index="36">
        -6.6188520279950858e-01 1.3086592793837468e+00 -2.1374155857687427e-02 4.6356490790124028e-01 -5.1966687061701222e-01 -4.9400933510595735e-01 -1.1177187071155217e+00 6.4136424987164631e-01 1.1141889491567443e+00 -2.1871692168736185e+00 -3.7556080041285744e+00 2.7021940308457033e+00 -2.4320528222668258e-01 4.3341954028307983e+00 1.7259338573473992e+00 1.9127868156795014e-01 4.7288894299991269e-01 1.5702028597868241e+00 -4.6819343414807104e+00 2.2633729796277242e+00 4.3777967540304985e-01 -1.4361909340272234e+00 1.0729196205483333e+00 -1.7708179537190500e+00 1.0275224870484749e+01 1.0812545966065290e+00 -4.6026174328261780e+00 5.9596643528931761e+00 1.2608614527584350e-01 1.3879580914267393e+00 -1.2131543757806762e+01 -2.1100721383731824e+00 4.4304813348499419e+00 -1.0547277560854367e+01 1.1581006452254210e+01 8.7560387981395760e-02 2.3950292354297837e+01 -6.2658523254075007e+00 -3.3151263357351091e-01 
      </Row>
      <Row Index="37">
        -3.3210783909312580e+00 -6.2302259200162879e-01 1.6580499229763155e+00 -3.5858200262581785e-01 -1.9146605360829883e+00 1.9584080848082452e-01 1.0659661875521609e+00 -2.9175475332897416e-01 5.5566419742598763e+00 1.3626304887741953e+00 8.3123585036500991e-01 4.6544535254706276e-01 -1.1389273829916142e+00 -1.8955500037506119e+00 1.9193724782386978e+00 9.0106874834529505e-01 5.2806880799858091e-01 -3.5030924995194795e-01 2.0560879837944772e+00 5.6028762105088420e-02 -4.8914201518895677e+00 -5.6755866986957457e+00 -2.8348950310848743e+01 -3.7795330228241606e+00 -9.0228820259457287e-01 2.3905446402876816e+01 3.4640792023534046e+00 -7.9503253702674259e+00 -2.1022538736442641e+01 4.0062422491421701e-01 7.0490294490569516e-01 -2.5079629283197715e+01 1.4128113750548292e+00 3.3893628032661711e+00 -1.8088799569743408e+01 2.9066182533119744e-01 -6.2658523231398950e+00 5.6688183692174334e+01 -5.3154738942292834e-01 
      </Row>
      <Row Index="38">
        1.4435886065784109e-02 -2.2463476528635784e-02 -1.5430720412269616e-02 -2.7275700593170749e-02 1.1710818040156279e-02 9.2177490052083311e-03 5.8070665280403055e-03 -2.9538833225167149e-02 -8.5421842938020659e-02 2.8260303122222358e-02 4.8015709707131794e-02 -3.0714364193025756e-02 4.8633529991963798e-03 -7.5594756969931287e-02 -4.7127442484489086e-02 -3.8740690971653217e-02 -3.9272882969254040e-02 -9.8570438859349227e-02 4.7637988652167201e-02 -4.1543491716712816e-02 1.0715474008662262e-01 1.0401283565234021e-01 4.3189017151462217e-01 1.2845726248547204e-01 -3.0723903270546848e-01 -4.7491185369377253e-01 -3.9910827897890258e-03 -2.0627660659674647e-02 3.3689988508325919e-01 -8.7115918783754159e-02 3.2614705625873858e-01 6.1720235591119199e-01 -2.6857659549866908e-02 -1.0900015049359585e-02 -5.2299334098800110e-01 -1.0919988333333290e-02 -3.3151263360928473e-01 -5.3154738940166146e-01 3.1209987326699544e-02 
      </Row>
    </InverseHessian>
  </Weights>
</MethodSetup>
