<?xml version="1.0"?>
<MethodSetup Method="MLP::MLP">
  <GeneralInfo>
    <Info name="TMVA Release" value="4.1.2 [262402]"/>
    <Info name="ROOT Release" value="5.32/00 [335872]"/>
    <Info name="Creator" value="tomc"/>
    <Info name="Date" value="Thu Jan 10 12:49:59 2013"/>
    <Info name="Host" value="Linux lxbuild168.cern.ch 2.6.18-308.1.1.el5 #1 SMP Wed Mar 7 19:25:07 CET 2012 x86_64 x86_64 x86_64 GNU/Linux"/>
    <Info name="Dir" value="/user_mnt/user/tomc/QGTagger/training/c/6/aKDE03"/>
    <Info name="Training events" value="1609549"/>
    <Info name="TrainingTime" value="6.10964108e+03"/>
    <Info name="AnalysisType" value="Classification"/>
  </GeneralInfo>
  <Options>
    <Option name="NCycles" modified="No">500</Option>
    <Option name="HiddenLayers" modified="No">N,N-1</Option>
    <Option name="NeuronType" modified="No">sigmoid</Option>
    <Option name="RandomSeed" modified="No">1</Option>
    <Option name="EstimatorType" modified="No">MSE</Option>
    <Option name="NeuronInputType" modified="No">sum</Option>
    <Option name="V" modified="Yes">False</Option>
    <Option name="VerbosityLevel" modified="No">Default</Option>
    <Option name="VarTransform" modified="Yes">N</Option>
    <Option name="H" modified="Yes">False</Option>
    <Option name="CreateMVAPdfs" modified="Yes">True</Option>
    <Option name="IgnoreNegWeightsInTraining" modified="No">False</Option>
    <Option name="TrainingMethod" modified="No">BP</Option>
    <Option name="LearningRate" modified="No">2.000000e-02</Option>
    <Option name="DecayRate" modified="No">1.000000e-02</Option>
    <Option name="TestRate" modified="Yes">3</Option>
    <Option name="EpochMonitoring" modified="No">False</Option>
    <Option name="Sampling" modified="No">1.000000e+00</Option>
    <Option name="SamplingEpoch" modified="No">1.000000e+00</Option>
    <Option name="SamplingImportance" modified="No">1.000000e+00</Option>
    <Option name="SamplingTraining" modified="No">True</Option>
    <Option name="SamplingTesting" modified="No">False</Option>
    <Option name="ResetStep" modified="No">50</Option>
    <Option name="Tau" modified="No">3.000000e+00</Option>
    <Option name="BPMode" modified="No">sequential</Option>
    <Option name="BatchSize" modified="No">-1</Option>
    <Option name="ConvergenceImprove" modified="No">1.000000e-30</Option>
    <Option name="ConvergenceTests" modified="No">-1</Option>
    <Option name="UseRegulator" modified="Yes">True</Option>
    <Option name="UpdateLimit" modified="No">10000</Option>
    <Option name="CalculateErrors" modified="No">False</Option>
    <Option name="WeightRange" modified="No">1.000000e+00</Option>
  </Options>
  <Variables NVar="4">
    <Variable VarIndex="0" Expression="axis1" Label="axis1" Title="axis1" Unit="" Internal="axis1" Type="F" Min="-9.00879793e-04" Max="3.76353145e-01"/>
    <Variable VarIndex="1" Expression="axis2" Label="axis2" Title="axis2" Unit="" Internal="axis2" Type="F" Min="-6.68080582e-04" Max="2.54990011e-01"/>
    <Variable VarIndex="2" Expression="mult" Label="mult" Title="mult" Unit="" Internal="mult" Type="I" Min="0.00000000e+00" Max="3.10000000e+01"/>
    <Variable VarIndex="3" Expression="ptD" Label="ptD" Title="ptD" Unit="" Internal="ptD" Type="F" Min="1.63936585e-01" Max="1.00121391e+00"/>
  </Variables>
  <Spectators NSpec="0"/>
  <Classes NClass="2">
    <Class Name="Signal" Index="0"/>
    <Class Name="Background" Index="1"/>
  </Classes>
  <Transformations NTransformations="1">
    <Transform Name="Normalize">
      <Selection>
        <Input NInputs="4">
          <Input Type="Variable" Label="axis1" Expression="axis1"/>
          <Input Type="Variable" Label="axis2" Expression="axis2"/>
          <Input Type="Variable" Label="mult" Expression="mult"/>
          <Input Type="Variable" Label="ptD" Expression="ptD"/>
        </Input>
        <Output NOutputs="4">
          <Output Type="Variable" Label="axis1" Expression="axis1"/>
          <Output Type="Variable" Label="axis2" Expression="axis2"/>
          <Output Type="Variable" Label="mult" Expression="mult"/>
          <Output Type="Variable" Label="ptD" Expression="ptD"/>
        </Output>
      </Selection>
      <Class ClassIndex="0">
        <Ranges>
          <Range Index="0" Min="2.6500108651816845e-03" Max="3.7635314464569092e-01"/>
          <Range Index="1" Min="-6.6808058181777596e-04" Max="2.5499001145362854e-01"/>
          <Range Index="2" Min="0.0000000000000000e+00" Max="3.1000000000000000e+01"/>
          <Range Index="3" Min="1.6393658518791199e-01" Max="9.7670078277587891e-01"/>
        </Ranges>
      </Class>
      <Class ClassIndex="1">
        <Ranges>
          <Range Index="0" Min="-9.0087979333475232e-04" Max="3.6637639999389648e-01"/>
          <Range Index="1" Min="-6.6808058181777596e-04" Max="2.4851252138614655e-01"/>
          <Range Index="2" Min="0.0000000000000000e+00" Max="2.5000000000000000e+01"/>
          <Range Index="3" Min="1.7366087436676025e-01" Max="1.0012139081954956e+00"/>
        </Ranges>
      </Class>
      <Class ClassIndex="2">
        <Ranges>
          <Range Index="0" Min="-9.0087979333475232e-04" Max="3.7635314464569092e-01"/>
          <Range Index="1" Min="-6.6808058181777596e-04" Max="2.5499001145362854e-01"/>
          <Range Index="2" Min="0.0000000000000000e+00" Max="3.1000000000000000e+01"/>
          <Range Index="3" Min="1.6393658518791199e-01" Max="1.0012139081954956e+00"/>
        </Ranges>
      </Class>
    </Transform>
  </Transformations>
  <MVAPdfs>
    <PDF Name="MLP_PDFSig" MinNSmooth="0" MaxNSmooth="0" InterpolMethod="5" KDE_type="1" KDE_iter="2" KDE_border="1" KDE_finefactor="3.0000001192092896e-01">
      <Histogram Name="MLP_tr_S_original" NBins="250" XMin="1.3471341133117676e-01" XMax="9.9793177843093872e-01" HasEquidistantBins="1">
        0.00000000e+00 0.00000000e+00 4.62792756e-04 0.00000000e+00 2.31396378e-04 0.00000000e+00 4.62792756e-04 1.38837832e-03 2.31396384e-03 2.77675665e-03 3.47094564e-03 4.39653127e-03 6.01630565e-03 7.40468409e-03 6.71049487e-03 8.33026972e-03 1.71233322e-02 1.61977466e-02 1.61977466e-02 1.96686927e-02 2.08256748e-02 2.26768460e-02 2.61477903e-02 2.96187364e-02 3.14699076e-02 3.23954932e-02 3.81804034e-02 4.11885567e-02 4.14199531e-02 4.14199531e-02 4.53536920e-02 4.83618416e-02 5.41467518e-02 6.27084151e-02 5.25269769e-02 6.80305362e-02 6.22456260e-02 6.27084151e-02 7.52038211e-02 7.26584643e-02 7.91375637e-02 8.58480558e-02 8.02945420e-02 8.76992270e-02 9.25585479e-02 1.00426026e-01 1.07599318e-01 1.08293504e-01 1.06673732e-01 1.10607468e-01 1.07367918e-01 1.14309810e-01 1.24259852e-01 1.17086567e-01 1.30970344e-01 1.33284315e-01 1.34672686e-01 1.39069229e-01 1.47862285e-01 1.49944857e-01 1.53415799e-01 1.58737913e-01 1.60820484e-01 1.61051884e-01 1.63134441e-01 1.79100797e-01 1.79332197e-01 1.82340339e-01 1.85811296e-01 2.04554394e-01 1.85811296e-01 2.02934623e-01 2.09182322e-01 2.08025351e-01 2.20289350e-01 2.21909121e-01 2.35561520e-01 2.32090563e-01 2.42503405e-01 2.47131333e-01 2.44123176e-01 2.55924404e-01 2.53379047e-01 2.66800016e-01 2.72816330e-01 2.72122145e-01 2.59395331e-01 2.87162900e-01 2.97575742e-01 2.98501343e-01 2.98038542e-01 2.97807127e-01 2.98732728e-01 3.10533941e-01 3.15624654e-01 3.28120053e-01 3.38764310e-01 3.39458495e-01 3.45706195e-01 3.49408537e-01 3.41078252e-01 3.52648079e-01 3.60515565e-01 3.53573680e-01 3.76250505e-01 3.68383020e-01 3.78333092e-01 3.93142462e-01 3.97538990e-01 3.91059875e-01 4.13273931e-01 4.10728574e-01 4.33636814e-01 4.29471672e-01 4.24149573e-01 4.42661285e-01 4.60247397e-01 4.67883468e-01 4.71354425e-01 4.75750953e-01 4.99353379e-01 4.87552166e-01 4.97502208e-01 5.02130151e-01 5.18327892e-01 5.17633677e-01 5.24112821e-01 5.44938445e-01 5.48409402e-01 5.55351317e-01 5.40310562e-01 5.62756002e-01 5.91680527e-01 5.87978184e-01 5.80573499e-01 6.07646883e-01 6.08572483e-01 6.21762097e-01 6.20373666e-01 6.32174909e-01 6.76140189e-01 6.45133078e-01 6.86553061e-01 6.62487805e-01 7.02750802e-01 7.27278829e-01 7.61525452e-01 7.44170725e-01 7.68235981e-01 7.61988282e-01 7.78417408e-01 7.97854722e-01 8.05259407e-01 8.34646761e-01 8.17986190e-01 8.39968860e-01 8.60563159e-01 8.86710942e-01 9.15172696e-01 9.02908683e-01 9.20032024e-01 9.40626264e-01 9.95930016e-01 9.93616045e-01 1.04313493e+00 1.04406047e+00 1.04729998e+00 1.08386064e+00 1.13523066e+00 1.12134683e+00 1.20418680e+00 1.14356089e+00 1.20141006e+00 1.21483099e+00 1.25162303e+00 1.27591968e+00 1.35320604e+00 1.33330595e+00 1.33446288e+00 1.38537014e+00 1.44067383e+00 1.48602760e+00 1.49806011e+00 1.54665339e+00 1.54017425e+00 1.60565948e+00 1.63574100e+00 1.60843623e+00 1.72020066e+00 1.78221488e+00 1.80975103e+00 1.86343503e+00 1.88426065e+00 1.95367968e+00 2.00042176e+00 2.06590676e+00 2.11172342e+00 2.17674565e+00 2.25611472e+00 2.32969880e+00 2.36255693e+00 2.43752956e+00 2.52314615e+00 2.59696150e+00 2.68928862e+00 2.82882071e+00 2.83067179e+00 2.89800835e+00 2.92970943e+00 3.08381963e+00 3.22173166e+00 3.32586026e+00 3.39504766e+00 3.53249717e+00 3.65120339e+00 3.76921558e+00 3.94091177e+00 4.01287603e+00 4.20678616e+00 4.32826948e+00 4.45761967e+00 4.55619478e+00 4.75149345e+00 4.90051270e+00 5.02338409e+00 5.22030210e+00 5.35451221e+00 5.42693949e+00 5.54726553e+00 5.57017374e+00 5.69744158e+00 5.78976870e+00 5.70554066e+00 5.71086264e+00 5.70206976e+00 5.51556396e+00 5.35219812e+00 5.06225872e+00 4.69132996e+00 4.18503475e+00 3.70095372e+00 3.06391954e+00 2.44655395e+00 1.81946969e+00 1.19307971e+00 7.05527544e-01 3.61441135e-01 1.30970344e-01 3.26268896e-02 4.62792767e-03 
      </Histogram>
    </PDF>
    <PDF Name="MLP_PDFBkg" MinNSmooth="0" MaxNSmooth="0" InterpolMethod="5" KDE_type="1" KDE_iter="2" KDE_border="1" KDE_finefactor="3.0000001192092896e-01">
      <Histogram Name="MLP_tr_B_original" NBins="250" XMin="1.3471341133117676e-01" XMax="9.9793177843093872e-01" HasEquidistantBins="1">
        8.09076708e-04 0.00000000e+00 1.61815342e-03 4.04538354e-03 2.42723012e-03 8.09076708e-03 1.05179967e-02 2.18450706e-02 2.91267615e-02 4.20719869e-02 5.50172143e-02 7.68622831e-02 8.25258195e-02 1.27025038e-01 1.37543038e-01 1.56960875e-01 1.79615021e-01 1.90133020e-01 2.40295783e-01 2.71040678e-01 3.04212838e-01 3.22012514e-01 3.59230042e-01 3.70557129e-01 4.06965584e-01 4.29619730e-01 4.61173713e-01 4.15865421e-01 4.34474170e-01 5.00009418e-01 5.30754328e-01 5.51790297e-01 5.60690165e-01 5.55026591e-01 5.85771501e-01 6.40788734e-01 6.10043824e-01 6.56970263e-01 6.88524246e-01 7.07133055e-01 7.35450685e-01 7.45159626e-01 7.42732406e-01 7.50823140e-01 8.17167461e-01 8.10694873e-01 8.54384959e-01 8.47912371e-01 8.47912371e-01 8.49530518e-01 8.50339592e-01 8.75420988e-01 9.33674514e-01 9.23965573e-01 8.81084502e-01 1.00810957e+00 1.03723633e+00 1.01134586e+00 1.02671838e+00 1.03076375e+00 1.07121754e+00 1.01862752e+00 1.01458216e+00 1.05260873e+00 1.07607198e+00 1.09306264e+00 1.09306264e+00 1.17316115e+00 1.14322531e+00 1.15859783e+00 1.10924411e+00 1.12138033e+00 1.12218940e+00 1.16668856e+00 1.18125200e+00 1.14241624e+00 1.14969802e+00 1.19338810e+00 1.16668856e+00 1.27348673e+00 1.21037877e+00 1.22413301e+00 1.28724098e+00 1.26701415e+00 1.28805006e+00 1.17720664e+00 1.30180442e+00 1.23788738e+00 1.22736931e+00 1.31636775e+00 1.33497655e+00 1.30099535e+00 1.31151330e+00 1.36329424e+00 1.30989516e+00 1.27105951e+00 1.31151330e+00 1.35601258e+00 1.24840534e+00 1.33093119e+00 1.24921441e+00 1.28238654e+00 1.32041311e+00 1.34630358e+00 1.33578563e+00 1.33578563e+00 1.31798589e+00 1.34792173e+00 1.32364953e+00 1.34387636e+00 1.32769489e+00 1.36005795e+00 1.32688582e+00 1.33335841e+00 1.33335841e+00 1.40779340e+00 1.40698433e+00 1.38999379e+00 1.40051174e+00 1.37704849e+00 1.32041311e+00 1.33335841e+00 1.35682166e+00 1.39403915e+00 1.33659470e+00 1.37462127e+00 1.43934739e+00 1.36491239e+00 1.35924888e+00 1.40455711e+00 1.40212989e+00 1.34792173e+00 1.35763073e+00 1.40455711e+00 1.34873080e+00 1.38433027e+00 1.33578563e+00 1.39323008e+00 1.41669333e+00 1.39403915e+00 1.41183877e+00 1.41102970e+00 1.45148361e+00 1.43044758e+00 1.38756657e+00 1.42478406e+00 1.40941155e+00 1.42073870e+00 1.46847415e+00 1.45876527e+00 1.48708296e+00 1.43853831e+00 1.47575593e+00 1.47251964e+00 1.42154777e+00 1.47332871e+00 1.45471990e+00 1.47575593e+00 1.47171044e+00 1.47980130e+00 1.50407362e+00 1.55423629e+00 1.53886390e+00 1.51459157e+00 1.49598277e+00 1.50245547e+00 1.56313622e+00 1.46847415e+00 1.46766508e+00 1.51297343e+00 1.51701880e+00 1.54210019e+00 1.57203603e+00 1.57769954e+00 1.53077304e+00 1.53400946e+00 1.54776371e+00 1.56960881e+00 1.59711742e+00 1.61329889e+00 1.58174491e+00 1.64728010e+00 1.62705326e+00 1.64161658e+00 1.59145391e+00 1.61248982e+00 1.69825196e+00 1.65618002e+00 1.68126142e+00 1.67236149e+00 1.63433492e+00 1.71686077e+00 1.71200633e+00 1.63838029e+00 1.70634270e+00 1.67721593e+00 1.60116279e+00 1.73223317e+00 1.78239596e+00 1.75569642e+00 1.73546946e+00 1.74275124e+00 1.72009706e+00 1.76459622e+00 1.71362448e+00 1.76864159e+00 1.77349615e+00 1.75326920e+00 1.77268708e+00 1.79048669e+00 1.85440373e+00 1.85764003e+00 1.78563225e+00 1.79372299e+00 1.74679661e+00 1.79129577e+00 1.79453206e+00 1.88191235e+00 1.81394994e+00 1.84550393e+00 1.80666828e+00 1.82851326e+00 1.78563225e+00 1.66103446e+00 1.66427076e+00 1.69097030e+00 1.60520816e+00 1.58093584e+00 1.57203603e+00 1.51540065e+00 1.48546481e+00 1.44986546e+00 1.29047728e+00 1.25245070e+00 1.14160717e+00 1.06636310e+00 9.30438221e-01 8.26067328e-01 7.17651010e-01 6.52115822e-01 4.69264477e-01 3.81075114e-01 2.69422531e-01 1.99032873e-01 1.01134583e-01 7.44350553e-02 2.50813775e-02 1.13270739e-02 1.61815342e-03 0.00000000e+00 
      </Histogram>
    </PDF>
  </MVAPdfs>
  <Weights>
    <Layout NLayers="4">
      <Layer Index="0" NNeurons="5">
        <Neuron NSynapses="4">
          2.3056258042090993e+00 1.2915204490745544e+00 -8.2229326978170847e-01 5.9044641369499509e+00 
        </Neuron>
        <Neuron NSynapses="4">
          9.2046497965249596e-01 -3.4261370311533296e-01 -1.0927995875936924e+00 8.1333443836028021e+00 
        </Neuron>
        <Neuron NSynapses="4">
          -1.0673969514512317e+01 -1.5252169991526463e+00 -7.5837701083919322e+00 2.7250780078335954e+00 
        </Neuron>
        <Neuron NSynapses="4">
          -5.3270855686703122e-01 3.8845825008056480e+00 1.2908487583675794e+00 1.5324881779961119e+00 
        </Neuron>
        <Neuron NSynapses="4">
          -9.2221950302240678e+00 7.4827789550363000e-01 -6.8131868060331051e+00 1.4254996817808006e+01 
        </Neuron>
      </Layer>
      <Layer Index="1" NNeurons="5">
        <Neuron NSynapses="3">
          -4.8294273557502914e+00 -1.2145466001519853e+00 1.5396031728027630e+00 
        </Neuron>
        <Neuron NSynapses="3">
          -3.4161397097867124e-01 -1.2319696175714949e+00 -2.0209736805766103e+00 
        </Neuron>
        <Neuron NSynapses="3">
          1.1835312111400473e+00 -2.8065334530150601e+00 1.3468843418626633e+00 
        </Neuron>
        <Neuron NSynapses="3">
          -8.6090177775540400e-01 3.1600159545942823e+00 1.7455229002681210e+00 
        </Neuron>
        <Neuron NSynapses="3">
          -8.1030020843131179e-01 -4.0026198438782377e+00 -4.3673814187078275e+00 
        </Neuron>
      </Layer>
      <Layer Index="2" NNeurons="4">
        <Neuron NSynapses="1">
          -1.2147112140779655e+00 
        </Neuron>
        <Neuron NSynapses="1">
          1.6559906093470416e+00 
        </Neuron>
        <Neuron NSynapses="1">
          1.4120181337904598e+00 
        </Neuron>
        <Neuron NSynapses="1">
          6.0243757884868510e-01 
        </Neuron>
      </Layer>
      <Layer Index="3" NNeurons="1">
        <Neuron NSynapses="0"/>
      </Layer>
    </Layout>
    <InverseHessian NElements="1521" NRows="39" NCols="39">
      <Row Index="0">
        6.8960456140069626e-01 4.5271371754938318e-02 -6.1439724499247533e-02 1.6936845085335359e-01 2.0156115470820857e-01 -4.1443899176728548e-02 -8.5759926076545340e-02 1.6942505351286991e-01 -1.5547537449136262e+00 -5.1449515591220726e-02 -5.6798826374943968e-02 1.4802856535436978e-01 -9.7757510584670623e-02 1.7158179498973619e-01 1.0508976057328169e-01 7.0487156950173491e-02 -9.6030280136620272e-01 1.9760368484446855e-01 -3.7891784030588708e-03 3.0037664889417981e-01 4.6478354236200209e-01 2.7910637587513321e-01 -2.9965875532628188e-02 7.8084602033394276e-02 3.7208885349213666e-01 4.2989307632662688e-01 -3.3709506963692409e-01 4.6406593564766152e-01 -8.3654344960533034e-02 2.4273746695042267e-01 -4.5740262161219125e-01 -3.6491175290983680e-01 -1.2569910032578369e+00 8.3701355998357964e-03 6.4135179255941621e-01 -8.1454271140386247e-01 6.0126014450497367e-01 -2.2885129368043602e-01 -7.1048946473141236e-02 
      </Row>
      <Row Index="1">
        4.5271371755679982e-02 6.0587297717670588e-02 -1.2830396886218655e-02 -9.5403161998576201e-03 1.3848486572929905e-02 -1.5171167628484247e-02 8.5338287509858848e-03 -7.5043152111761557e-03 -6.8924231095912586e-02 -4.0261035661988291e-02 2.2252481153948334e-02 2.0643537668920834e-03 2.2986117506734911e-03 1.4608124200955644e-01 -1.9318513340268600e-03 6.7993065300667177e-03 -6.3994414975491590e-02 1.1535459959096897e-01 -6.4008938112313923e-03 -3.5386459791424208e-03 -4.8663903328207220e-02 -6.4870905479062022e-03 -8.3507529269211053e-02 -1.5885007926814184e-03 1.4135358780250856e-01 1.8498078625372114e-01 -4.3724267786747970e-02 1.7286590856390609e-02 -7.1989454510686640e-02 5.8083728484457822e-02 -1.1873954482687607e-01 -6.8500511892774646e-02 -1.6259020623453416e-01 -2.4520891718508971e-02 1.1538561286060640e-01 -1.1486393685293776e-01 1.7628420250900972e-01 9.3165472587860815e-02 -1.4761026631374626e-02 
      </Row>
      <Row Index="2">
        -6.1439724505654714e-02 -1.2830396886885698e-02 2.4924640111566854e-01 -1.4434006788567030e-01 -1.0401517661695038e-02 2.7508744944902189e-02 8.6202681110576676e-02 -2.8011045130737061e-01 3.4583771648083139e-01 7.0157449836025121e-02 -2.2423009416253036e-02 1.7366431872189281e-01 4.1718292019943634e-02 -4.1505125945784732e-02 1.6909774419065998e-01 -1.5177192254430794e-01 4.3876610766857782e-01 -5.9525119884955055e-02 1.4531339640736729e-01 -2.3848061168490586e-01 2.9552985595837566e-01 1.5511221430865563e-01 1.8352967750690376e-02 -1.3611533858194383e-01 -1.6548711405402223e-03 -1.0185582256232886e-01 4.8020481488617227e-02 6.8417857601046086e-02 1.1451806812654766e-01 -1.2198451083939940e-01 6.4429591113268625e-02 -4.0988081581148089e-01 5.1557990884932758e-01 -4.7226334049292706e-01 7.8554817997902870e-03 2.4989412880294565e-01 5.7598991061791915e-01 2.7234656608339708e-01 1.1462639527630450e-02 
      </Row>
      <Row Index="3">
        1.6936845088895680e-01 -9.5403161946827630e-03 -1.4434006788767828e-01 7.0981210140331363e-01 7.8918942719786001e-02 -1.8958925699788513e-02 -1.9499925430097131e-01 6.9631559340022675e-01 -3.7991023744198049e-01 -7.1310685152331903e-03 1.8358842972003139e-01 -4.8127241779292514e-02 -5.3212326149731065e-02 4.4957262466078111e-02 -2.9827742130473157e-02 3.5464543200059756e-01 -3.5967582034346868e-01 4.2704146091205507e-02 -1.5916521665808392e-01 7.7456281604671506e-01 1.6153864189728784e-01 -3.1696947762440897e-01 -2.3753554654876116e-01 7.6641301999361366e-02 1.2544632332107908e-01 2.1397452056905741e-01 -1.9074219080781699e-01 -4.5878345581777158e-01 -2.8454558595911189e-01 3.1642088593549966e-01 -1.4826110405948112e+00 -4.2931243984197553e-01 -8.7514461849183944e-01 1.4518788438961752e+00 3.9943702316951257e-01 -5.7140825742890111e-01 -4.9916081783446933e-02 5.3923366972390163e-01 -8.4773222124144565e-03 
      </Row>
      <Row Index="4">
        2.0156115471110156e-01 1.3848486573153351e-02 -1.0401517659175574e-02 7.8918942705436701e-02 2.7194174845068697e-01 7.9148007538973244e-04 1.9239291785786247e-02 8.8505430470934940e-02 -5.4723343341589759e-01 -1.8866202091841117e-02 -3.0562984916678981e-02 9.4231628821916241e-02 -2.4202135755786294e-02 7.4978841084270414e-02 8.1051616177412425e-02 3.6314351051860400e-02 -1.8947670525696381e-01 7.3754481431878696e-02 1.5519166419682796e-02 1.1503881319982129e-01 4.1057887625197820e-01 9.3903936259435550e-02 4.5234886057090258e-02 2.5714443796325807e-02 1.4240028971987989e-01 1.1755958730226014e-01 -1.8692541302340357e-01 1.9393854692713730e-01 1.2777431606246281e-02 1.0155112772552141e-01 -3.6853825439356980e-01 -4.0517540754825465e-01 -4.8665169239430145e-01 9.6048132592076341e-02 4.5084442147255577e-01 -3.6889707619028239e-01 3.8125003072401492e-01 -1.3640326429078950e-01 -1.9402958116086187e-02 
      </Row>
      <Row Index="5">
        -4.1443899175373194e-02 -1.5171167628177801e-02 2.7508744944104144e-02 -1.8958925695097970e-02 7.9148007636051405e-04 3.0296638658927559e-02 -6.5575543606170676e-04 -3.7583978099398709e-02 1.2284676746609116e-01 2.9662431200872780e-02 5.0267609564036912e-02 -3.8966076986750843e-02 1.6458040725309781e-02 -3.2710522856182450e-02 -2.3187642115527731e-02 -2.7577017356845337e-03 1.2066662294560870e-01 -5.8821816483266478e-03 3.3746835306211656e-02 -7.5756561092656993e-02 1.7947475441708799e-02 -2.6622334822327641e-03 5.8863149950632548e-02 -8.1193063866322798e-04 -5.9803601211471095e-02 -8.8694359914045978e-02 3.5126621074603882e-02 -5.9696804174964792e-02 4.8348994622486229e-02 -3.4046811342009604e-02 1.8651984160466199e-02 2.4824907398504778e-02 1.1922049164799547e-01 8.7626334527076508e-02 -7.6711919936429396e-03 7.9631036212539197e-02 -1.2229156676707632e-01 -1.0197254035068003e-01 7.3350612407599410e-03 
      </Row>
      <Row Index="6">
        -8.5759926076302284e-02 8.5338287512475297e-03 8.6202681109291843e-02 -1.9499925429228646e-01 1.9239291786676473e-02 -6.5575543577662404e-04 1.9172052774608925e-01 -1.9283135968614465e-01 2.6560458669112796e-01 5.9342365047590773e-02 1.2037951224339205e-01 -3.9963792153478728e-05 4.3629026016989543e-02 -3.9600981075988251e-02 1.1712127712144513e-03 -4.3236332881556094e-02 3.1445049172367578e-01 -4.7110149723306790e-03 2.4120064558646803e-01 -3.0931691778228787e-01 2.0853452422156099e-01 6.2578490939106751e-02 1.0388835890274978e-01 -1.4460380489559402e-02 -1.1877014772209478e-01 -1.7599887170292303e-01 4.8122266941617288e-02 -1.7572939073106249e-02 1.7543625062997562e-01 -1.0050717491500130e-01 1.9418601328571941e-01 -1.5129794010421393e-01 3.2626899584911301e-01 6.0339934705507275e-02 1.2214352209660734e-01 1.7350940196043019e-01 -2.5645058350075922e-01 -2.3116153993857624e-01 1.6722773724155829e-02 
      </Row>
      <Row Index="7">
        1.6942505356267201e-01 -7.5043152039964145e-03 -2.8011045131006806e-01 6.9631559339806381e-01 8.8505430490721348e-02 -3.7583978106059172e-02 -1.9283135969838375e-01 1.3298442844008609e+00 -4.2791870211145544e-01 -2.1964715888372899e-02 2.2578395666776740e-01 -6.1693779633228585e-02 -9.1371894802272230e-02 4.1850357608411048e-02 3.3079722843587109e-02 4.5955972426370084e-01 -4.6773565613226781e-01 9.0768315414288953e-03 -2.3320984514680765e-01 1.1346072123462490e+00 2.3374573322495928e-01 -4.4715135569158271e-01 -5.0375473767872503e-01 6.4036113268784722e-03 1.7509711854104498e-01 5.1139791679672753e-01 -2.1131642958647237e-01 -6.4691426276838326e-01 -5.5057304024396125e-01 4.7432124844831947e-01 -2.1328503304395880e+00 -7.6754628883781384e-01 -1.2347435684727084e+00 1.9143738593806703e+00 4.2102798737134339e-01 -8.1604050476102452e-01 1.4195343028717444e-01 1.3193043614344404e+00 -1.9831652398698371e-02 
      </Row>
      <Row Index="8">
        -1.5547537448810993e+00 -6.8924231089186438e-02 3.4583771646811440e-01 -3.7991023737588620e-01 -5.4723343339749853e-01 1.2284676746388742e-01 2.6560458668242926e-01 -4.2791870201591264e-01 5.9081876108292057e+00 -1.8134963929386603e-02 -2.0341400115193217e-01 -1.4102438274578011e-01 6.4232724895766569e-01 -3.6454653196693809e-01 -2.6415879455490515e-01 -1.4311444402947165e-01 4.2411188450886792e+00 -5.7580529448811280e-01 -4.7094539491064813e-01 -9.0982156994217600e-01 -8.5918981715975529e-01 -1.2532081003906745e+00 -1.1470072321068647e+00 -5.5305414690626509e-01 -5.0685548428951854e-01 -2.8452027715943107e-01 6.7587701641399767e-01 -1.8578908192422121e+00 -5.6058308309221205e-01 -1.3508039477195766e-01 -2.9731336773460726e-01 -1.8510855656283018e+00 2.3205147172519869e+00 6.3212830611232596e-01 1.4959489911127761e+00 1.1943900466055464e+00 -5.7334104923731966e-01 2.1327218074197618e+00 1.1150740082119014e-01 
      </Row>
      <Row Index="9">
        -5.1449515585257566e-02 -4.0261035660895728e-02 7.0157449832930222e-02 -7.1310684992688805e-03 -1.8866202088006153e-02 2.9662431200780187e-02 5.9342365046508395e-02 -2.1964715865859036e-02 -1.8134963924228198e-02 2.0694338441296695e-01 3.7690121585463998e-01 -1.1574081516185374e-01 9.5197184680248514e-05 -1.5778034944138522e-01 -3.5972436241654381e-02 3.0058152871371965e-02 6.6359792839894044e-02 -2.6097353740095960e-03 3.6680919327508543e-01 -1.2552257768527045e-01 3.1247648555046348e-01 4.0598778519515322e-02 2.2821046951399027e-01 2.1508477629566751e-02 -2.5183820522276840e-01 -3.0831299626797942e-01 1.0722918864764179e-01 -1.2242407656540046e-01 2.1639866836703323e-01 -1.0770086579636765e-01 1.0829558865985522e-01 1.2441211797889462e-01 2.8940536270357520e-01 4.2878150032636386e-01 -2.8827690754816548e-01 2.1056918231692751e-01 -6.1137028991123110e-01 -2.4615369120677152e-01 2.8770711334500085e-02 
      </Row>
      <Row Index="10">
        -5.6798826324329532e-02 2.2252481162095883e-02 -2.2423009429141522e-02 1.8358842978008894e-01 -3.0562984890831479e-02 5.0267609560002258e-02 1.2037951223252183e-01 2.2578395675423782e-01 -2.0341400118338970e-01 3.7690121584172892e-01 1.6099195225297056e+00 -7.3006372954204402e-01 2.3962875312008469e-02 -1.0600450843629394e-01 -4.1143756561473721e-01 4.0468208042791443e-01 -1.8540686303932630e-02 2.9306540085632143e-01 1.0522765610671452e+00 -3.3957007546560058e-01 7.9213951709820818e-01 -3.4183131380860932e-01 7.1914958238509774e-01 2.5911188164894133e-01 -5.9020229125812240e-01 -8.2766344846042772e-01 1.8849337770569966e-01 -1.0408727869728165e+00 5.8875403605644616e-01 -9.2033608472869316e-02 -5.6915600047665360e-01 7.2286604639297747e-01 1.9543577688015690e-01 2.9506080089547808e+00 -2.0890929765135202e-01 2.0959614616969274e-01 -2.8553686308931456e+00 -1.5309656521841506e+00 7.6774895270676879e-02 
      </Row>
      <Row Index="11">
        1.4802856532788722e-01 2.0643537626421349e-03 1.7366431873112567e-01 -4.8127241825754008e-02 9.4231628806940332e-02 -3.8966076985397759e-02 -3.9963787023422626e-05 -6.1693779699098367e-02 -1.4102438274533974e-01 -1.1574081515764043e-01 -7.3006372956393850e-01 8.2577978541528119e-01 1.1932512230994563e-02 1.2656911212697430e-01 4.9318357332178464e-01 -2.5948071442026377e-01 -5.7034809952818663e-02 -1.5519347189734656e-01 -4.4446539847526972e-01 4.1872191471656789e-01 6.8428624029866769e-03 2.1493855066296597e-01 -5.2433447778237774e-01 -2.6757947187262093e-01 5.6458831638570528e-01 5.1942174056541779e-01 -2.6796191852445633e-01 4.9685024805148892e-01 -3.3274335144027289e-01 1.2223922909877159e-01 -2.8364420138273283e-01 -1.2193983251969776e+00 -2.0277816605481691e-01 -1.8998058932012694e+00 6.0866897444206725e-01 -3.3696261524987736e-01 2.6951971695998744e+00 1.3187993587601889e+00 -4.8146255372757907e-02 
      </Row>
      <Row Index="12">
        -9.7757510581483187e-02 2.2986117514657289e-03 4.1718292019418873e-02 -5.3212326143756303e-02 -2.4202135753907436e-02 1.6458040725002090e-02 4.3629026015977734e-02 -9.1371894793318448e-02 6.4232724895847682e-01 9.5197183578569003e-05 2.3962875311987625e-02 1.1932512233629906e-02 1.7043960082157550e-01 -3.7297822923986201e-03 -7.4268469889633273e-02 -8.0607653142120289e-03 5.4716335362879320e-01 -2.3920237665694177e-02 -5.6990753585934049e-02 -1.1965881257890058e-01 -1.4029032631049124e-01 -1.6068336190403737e-01 -1.2684499061441001e-01 -5.0404029828911137e-02 3.9015202058233379e-03 -8.3390321323104519e-02 8.5866719208577830e-02 -2.9288784166699822e-01 -3.9029706668497220e-02 -1.3302909247503231e-02 2.2773647438775593e-02 -3.2158700759132480e-01 2.2683333430203628e-01 4.0545266788066185e-02 6.9626055912351414e-01 1.2803020689085129e-01 -1.0737087543669954e-01 -1.6097936961614900e-01 2.2932590218926498e-03 
      </Row>
      <Row Index="13">
        1.7158179498914128e-01 1.4608124200904671e-01 -4.1505125942537691e-02 4.4957262443834189e-02 7.4978841081845132e-02 -3.2710522857019156e-02 -3.9600981076229835e-02 4.1850357577369615e-02 -3.6454653198893922e-01 -1.5778034944443808e-01 -1.0600450846534308e-01 1.2656911214079175e-01 -3.7297822952758741e-03 4.8112027112297601e-01 1.7874083311222849e-02 3.1170534742529104e-02 -3.0463777560843186e-01 3.4866012888651032e-01 -1.8890700434880803e-01 1.8277378469666444e-01 -1.4305095785371685e-01 -1.2233056955707533e-02 -3.7903038163156921e-01 2.4856736621342752e-04 5.2515953892064315e-01 7.1247480544094044e-01 -1.8096308255629531e-01 1.2720871188531380e-01 -3.4717022072647163e-01 2.0880785207892569e-01 -4.0059308087263812e-01 -3.2885564472251250e-01 -5.8442803315271297e-01 -3.0475705718493373e-01 3.5018560467105070e-01 -4.0124308296049044e-01 8.4575028297768218e-01 6.0095844997648096e-01 -5.6386271492328575e-02 
      </Row>
      <Row Index="14">
        1.0508976055902686e-01 -1.9318513363795198e-03 1.6909774419542958e-01 -2.9827742158400006e-02 8.1051616168888951e-02 -2.3187642114932405e-02 1.1712127738662259e-03 3.3079722803972159e-02 -2.6415879455980834e-01 -3.5972436239355747e-02 -4.1143756562864997e-01 4.9318357332184565e-01 -7.4268469892176392e-02 1.7874083303586197e-02 5.3462111905881815e-01 -2.1042146548477350e-01 -1.1615107334474874e-01 -1.3937352039198286e-01 -1.3593474508793385e-01 2.6650447318057308e-01 2.4856207513824088e-01 2.4832811547571354e-01 -4.1095554806552759e-01 -3.0070216780946413e-01 3.4475439521608697e-01 5.1170232317477271e-01 -1.2016654713156807e-01 3.7638862414113455e-01 -3.0768962545388190e-01 5.3361146052907871e-02 -4.1734304917448239e-01 -9.2653282634716094e-01 -1.6975013055455346e-02 -1.2386512958264961e+00 -1.8383535390834940e-01 -1.5861566099597227e-01 2.0766527813010249e+00 1.6743348078486346e+00 -3.2564572982366272e-02 
      </Row>
      <Row Index="15">
        7.0487156989224031e-02 6.7993065358364912e-03 -1.5177192254952016e-01 3.5464543201775284e-01 3.6314351069137801e-02 -2.7577017400479686e-03 -4.3236332890626838e-02 4.5955972428980230e-01 -1.4311444408412013e-01 3.0058152856723298e-02 4.0468208038666587e-01 -2.5948071438234854e-01 -8.0607653182961370e-03 3.1170534765739610e-02 -2.1042146546194807e-01 4.0332857315186421e-01 -1.2465119678863579e-01 1.4266069300109888e-01 6.6072784094968889e-02 2.8360400072675884e-01 2.4068436898387491e-01 -3.5041258964482835e-01 -2.6155544011576803e-01 1.4796706491744935e-01 -4.8509316637142433e-02 2.7615793789940379e-01 -6.3352499443966120e-02 -6.1966170759482653e-01 -2.9792432778943445e-01 1.9252791720586968e-01 -9.5310274044265419e-01 -3.3658437698261706e-01 -5.5457885840483567e-01 1.7668249955383508e+00 2.2437194483070355e-01 -3.1673182003005695e-01 -1.0655612175113238e+00 6.2600116737553158e-01 -3.1753208234340524e-03 
      </Row>
      <Row Index="16">
        -9.6030280134407842e-01 -6.3994414970263369e-02 4.3876610765921042e-01 -3.5967582028688450e-01 -1.8947670524326682e-01 1.2066662294436381e-01 3.1445049171750067e-01 -4.6773565605033907e-01 4.2411188451027204e+00 6.6359792837235004e-02 -1.8540686271271450e-02 -5.7034809956686056e-02 5.4716335362944502e-01 -3.0463777559185456e-01 -1.1615107334182101e-01 -1.2465119674015776e-01 4.0395061756459372e+00 -3.7901079466510734e-01 -5.7494539456480476e-04 -7.9565514179486674e-01 1.6402259660726330e+00 -2.5442950090131822e-01 -5.4685867344752070e-01 -4.8476078990974825e-01 -5.5668671798907166e-01 -1.7949803639435014e-01 7.2300588895658158e-01 -8.7058945240222885e-01 -5.6321783063363107e-02 -3.1466367653715327e-01 1.4440896501049605e-01 -2.3712818308219057e+00 2.2843761808591445e+00 2.2705610200651383e-01 1.4386891525189478e+00 1.3387433305814938e+00 -3.6920014630295483e-01 1.4941692363939572e+00 7.4397286094517623e-02 
      </Row>
      <Row Index="17">
        1.9760368485708790e-01 1.1535459959206529e-01 -5.9525119885495158e-02 4.2704146082095717e-02 7.3754481435886310e-02 -5.8821816501404278e-03 -4.7110149750884123e-03 9.0768315288665830e-03 -5.7580529452070528e-01 -2.6097353802494137e-03 2.9306540082650351e-01 -1.5519347187909252e-01 -2.3920237668424660e-02 3.4866012889229125e-01 -1.3937352038270157e-01 1.4266069298678388e-01 -3.7901079469166371e-01 5.1559414062755482e-01 2.4286959722246734e-01 1.9338575078894221e-02 1.9948327473662661e-01 9.3409380147468801e-02 -7.1090761854855078e-01 3.4813880604211752e-03 2.8968089592437507e-01 1.3091033217845109e+00 4.6050385914590652e-02 1.5537435765543345e-01 -6.5352259926788436e-01 2.1051691595438818e-01 5.1757004585795519e-02 -7.5453153924038496e-01 -7.0118025859615152e-01 3.4270024853736542e-01 -2.4161457601270886e-01 -3.2080184476450624e-01 -4.6177421899412452e-01 2.0602206339481914e+00 -8.0952652616444312e-02 
      </Row>
      <Row Index="18">
        -3.7891784025383402e-03 -6.4008938108777169e-03 1.4531339640146795e-01 -1.5916521662234462e-01 1.5519166423267922e-02 3.3746835307828293e-02 2.4120064558759202e-01 -2.3320984509740350e-01 -4.7094539487173104e-01 3.6680919328071548e-01 1.0522765611174734e+00 -4.4446539850116440e-01 -5.6990753579976849e-02 -1.8890700435073959e-01 -1.3593474510377485e-01 6.6072784133906076e-02 -5.7494536361957227e-04 2.4286959723153795e-01 1.4186206047733707e+00 -4.7611536792134068e-01 1.0632481885238148e+00 6.5196958014924111e-01 9.1496357261067773e-01 1.2118606875641713e-01 -7.5300985030068157e-01 -5.5997432396775304e-01 4.5847921397079167e-01 7.4238618980620463e-01 8.8460396855986878e-01 -3.7901042857926298e-01 1.3670978759558163e+00 1.9537235782905857e-01 6.9997543242671123e-01 6.7703737659842200e-01 -9.3474215830676832e-01 6.9614770676256255e-01 -2.2733289586347780e+00 -9.9500712170117900e-01 5.2817865693761831e-02 
      </Row>
      <Row Index="19">
        3.0037664889051463e-01 -3.5386459806425741e-03 -2.3848061167837276e-01 7.7456281600211263e-01 1.1503881319406542e-01 -7.5756561093918151e-02 -3.0931691778200165e-01 1.1346072122835191e+00 -9.0982156998241348e-01 -1.2552257768993513e-01 -3.3957007551818980e-01 4.1872191474006126e-01 -1.1965881258417777e-01 1.8277378469456806e-01 2.6650447319294412e-01 2.8360400068143748e-01 -7.9565514182432762e-01 1.9338575065712342e-02 -4.7611536791400833e-01 1.7811228014504714e+00 -1.7534870188927076e-02 2.5069780825861643e-02 -6.7810228812241036e-01 -6.6031231060343115e-02 5.1774505053469511e-01 1.0479058335780129e+00 -1.6058191505456643e-01 3.3764860290796195e-01 -6.9977061186195666e-01 4.3869269287935675e-01 -6.9569097090099041e-01 -6.8861265947020378e-01 -1.2146417949660209e+00 -7.4912924312517037e-01 -3.0217421264228050e-01 -7.0103557093013213e-01 1.6683756332229076e+00 2.1298778006358448e+00 -7.3075745114213053e-02 
      </Row>
      <Row Index="20">
        4.6478354240627873e-01 -4.8663903323737934e-02 2.9552985595642767e-01 1.6153864186400524e-01 4.1057887626618150e-01 1.7947475435254212e-02 2.0853452421199314e-01 2.3374573317853597e-01 -8.5918981727665766e-01 3.1247648552845497e-01 7.9213951699421170e-01 6.8428624669775173e-03 -1.4029032632026839e-01 -1.4305095783175314e-01 2.4856207516978790e-01 2.4068436893177972e-01 1.6402259659773850e+00 1.9948327473660588e-01 1.0632481884933862e+00 -1.7534870141797554e-02 1.0059029511506319e+01 1.3700588421040552e+00 -1.2194509374561839e+00 -1.9304372213710683e-01 -4.1634944609713553e-01 1.7875880338693015e+00 -3.2821663354179043e-01 1.0406086425605467e+00 -1.4635004602941137e-01 5.6192366528747717e-01 -9.8785700807427790e-01 -4.1803272515998167e+00 -1.6260620657388860e+00 1.5792914261790547e+00 -1.4303030949422419e+00 -1.5021608525294132e+00 -1.5815119898957253e-01 6.0781622366214707e+00 -1.1092765826170581e-05 
      </Row>
      <Row Index="21">
        2.7910637580806874e-01 -6.4870905579152982e-03 1.5511221431760713e-01 -3.1696947764783895e-01 9.3903936230673848e-02 -2.6622334743593434e-03 6.2578490955286115e-02 -4.4715135572809256e-01 -1.2532081002851478e+00 4.0598778545264169e-02 -3.4183131373118658e-01 2.1493855059563449e-01 -1.6068336189458354e-01 -1.2233056996257097e-02 2.4832811543488853e-01 -3.5041258963881622e-01 -2.5442950080682991e-01 9.3409380122626076e-02 6.5196958021443263e-01 2.5069780745875445e-02 1.3700588420140754e+00 2.0070898579799872e+00 1.0854206988592794e+00 -2.4560622621473745e-02 -2.9196738442759218e-01 1.0098000822808831e-02 4.9517761517040898e-01 2.6088959772677458e+00 1.1705919088827565e+00 -5.2621126242694027e-01 2.5555346231511562e+00 1.5370446146809982e-01 7.9100968404060135e-01 -2.7983171478917517e+00 -1.3338221904081933e+00 9.5207698109124406e-01 6.6499118251459199e-01 -1.1104456739605642e+00 -4.3593043359922576e-02 
      </Row>
      <Row Index="22">
        -2.9965875663620523e-02 -8.3507529281924064e-02 1.8352967757193639e-02 -2.3753554644575914e-01 4.5234886017240683e-02 5.8863149970953543e-02 1.0388835893508919e-01 -5.0375473753782218e-01 -1.1470072317338236e+00 2.2821046957944446e-01 7.1914958270735641e-01 -5.2433447797761712e-01 -1.2684499057387555e-01 -3.7903038169662651e-01 -4.1095554817124658e-01 -2.6155543995656300e-01 -5.4685867312800129e-01 -7.1090761855533202e-01 9.1496357270642870e-01 -6.7810228827537256e-01 -1.2194509375105511e+00 1.0854206985962538e+00 1.1517792103656660e+01 2.0202342501643433e+00 -1.9045322249293193e+00 -1.3514718965925081e+01 -5.1392420301285568e-01 1.1399557251263341e+00 9.7168088997484645e+00 -2.2579552572868535e+00 2.4426325475608199e+00 1.3184729826465359e+01 4.1789042778234649e+00 -2.0637623673013428e-01 3.7733911648699690e+00 2.7663926777939798e+00 -2.4329430627482975e+00 -3.4313221011047062e+01 6.4222409990937313e-01 
      </Row>
      <Row Index="23">
        7.8084602019742988e-02 -1.5885007940266149e-03 -1.3611533858247826e-01 7.6641302018763735e-02 2.5714443793190878e-02 -8.1193063600171200e-04 -1.4460380485503244e-02 6.4036113532252859e-03 -5.5305414685690479e-01 2.1508477637888213e-02 2.5911188169601362e-01 -2.6757947189978537e-01 -5.0404029822257002e-02 2.4856735853440171e-04 -3.0070216782547066e-01 1.4796706494342660e-01 -4.8476078986597654e-01 3.4813880602144118e-03 1.2118606876744832e-01 -6.6031231079962657e-02 -1.9304372214366872e-01 -2.4560622662677556e-02 2.0202342501683912e+00 6.2408602155411863e-01 -3.3832903539354542e-01 -2.4362074225278758e+00 -2.9659456563789455e-01 -6.4632760300026168e-02 1.6863185661383344e+00 -2.7048023499433854e-01 3.2229439328408810e-01 2.9548303963072988e+00 1.6654606515296577e-01 7.1858716983320181e-01 2.5187853496393542e-01 1.1288723663629377e-01 -1.2876998205033234e+00 -6.2083466339249513e+00 1.2503950467305730e-01 
      </Row>
      <Row Index="24">
        3.7208885349893617e-01 1.4135358780208573e-01 -1.6548711321475729e-03 1.2544632325561444e-01 1.4240028971614704e-01 -5.9803601215043578e-02 -1.1877014772503247e-01 1.7509711844988565e-01 -5.0685548437289363e-01 -2.5183820523521572e-01 -5.9020229135652058e-01 5.6458831643580520e-01 3.9015201951060341e-03 5.2515953892524792e-01 3.4475439524398710e-01 -4.8509316709525345e-02 -5.5668671805519010e-01 2.8968089590870327e-01 -7.5300985030291601e-01 5.1774505055094378e-01 -4.1634944615064473e-01 -2.9196738430383484e-01 -1.9045322247503016e+00 -3.3832903537145742e-01 1.2226457750828663e+00 2.2855844711242552e+00 -4.7861002444190892e-01 -1.9234453390536821e-01 -1.6494969491546447e+00 6.7162489388495905e-01 -1.4875347978722435e+00 -1.8858685943658269e+00 -1.6412986965854934e+00 -8.9328469117871223e-01 6.8850958617933322e-01 -1.2858785044448304e+00 2.8223793025074766e+00 4.2678676025480131e+00 -1.6360327860178067e-01 
      </Row>
      <Row Index="25">
        4.2989307645365216e-01 1.8498078626401337e-01 -1.0185582256528392e-01 2.1397452042861431e-01 1.1755958733653316e-01 -8.8694359935011846e-02 -1.7599887173427931e-01 5.1139791660223999e-01 -2.8452027756436848e-01 -3.0831299633565834e-01 -8.2766344882022214e-01 5.1942174077272529e-01 -8.3390321367772913e-02 7.1247480549968145e-01 5.1170232328465737e-01 2.7615793770484792e-01 -1.7949803673817522e-01 1.3091033217790944e+00 -5.5997432405244785e-01 1.0479058337246472e+00 1.7875880338862729e+00 1.0098001149943414e-02 -1.3514718965785903e+01 -2.4362074225021964e+00 2.2855844712805835e+00 1.7572258930035112e+01 1.1000236852351151e+00 5.4257492268635588e-01 -1.1635735081201460e+01 2.4927674056226818e+00 -1.2413868033642632e+00 -1.6139209510418819e+01 -5.0228815642386326e+00 -1.1956344109485877e+00 -5.8042285533518099e+00 -2.7715143457144915e+00 2.8725946313732522e+00 4.2123668805361710e+01 -8.9175315106313013e-01 
      </Row>
      <Row Index="26">
        -3.3709506964414748e-01 -4.3724267787134785e-02 4.8020481482738964e-02 -1.9074219076779642e-01 -1.8692541302287746e-01 3.5126621077050224e-02 4.8122266943605663e-02 -2.1131642953059887e-01 6.7587701646781095e-01 1.0722918865703202e-01 1.8849337777106251e-01 -2.6796191856055979e-01 8.5866719213768317e-02 -1.8096308256170657e-01 -1.2016654715070718e-01 -6.3352499397296369e-02 7.2300588899585039e-01 4.6050385926013522e-02 4.5847921397532349e-01 -1.6058191506695005e-01 -3.2821663349759378e-01 4.9517761508899172e-01 -5.1392420315665444e-01 -2.9659456565348097e-01 -4.7861002444383216e-01 1.1000236853685355e+00 1.0328926659436093e+00 4.6873521142664609e-01 -5.5506426140243370e-01 -4.3946646210775714e-01 1.8523077812911815e+00 -9.9598832388867953e-01 1.6008847896635205e+00 -8.0548716333419823e-01 -1.1063207131413286e+00 1.5646563893918466e+00 -1.2401942748755779e+00 2.7885359688200180e+00 -4.9712327300779638e-02 
      </Row>
      <Row Index="27">
        4.6406593552131015e-01 1.7286590836301574e-02 6.8417857623023326e-02 -4.5878345590178188e-01 1.9393854686920528e-01 -5.9696804161506689e-02 -1.7572939042778901e-02 -6.4691426289364340e-01 -1.8578908190841765e+00 -1.2242407652248388e-01 -1.0408727868778296e+00 4.9685024794801913e-01 -2.9288784165322673e-01 1.2720871180772886e-01 3.7638862407494217e-01 -6.1966170762544004e-01 -8.7058945225326223e-01 1.5537435759484863e-01 7.4238618993315530e-01 3.3764860275843328e-01 1.0406086423408341e+00 2.6088959773427707e+00 1.1399557257888053e+00 -6.4632760200624417e-02 -1.9234453415322744e-01 5.4257492190403744e-01 4.6873521158760395e-01 4.9108468744270812e+00 1.2168714876142745e+00 -4.4588711852874846e-01 4.4954842906504187e+00 -3.7723400835927900e-01 1.5401101301396380e-01 -5.3574293593097453e+00 -1.5847841358038872e+00 6.1750198197865880e-01 1.5337929577541969e+00 -7.1944579886245719e-01 -8.7568534002697762e-02 
      </Row>
      <Row Index="28">
        -8.3654345076361381e-02 -7.1989454522494611e-02 1.1451806813394860e-01 -2.8454558588518886e-01 1.2777431569270359e-02 4.8348994639866305e-02 1.7543625065854940e-01 -5.5057304014382247e-01 -5.6058308278065283e-01 2.1639866842279787e-01 5.8875403632096779e-01 -3.3274335160441249e-01 -3.9029706634579497e-02 -3.4717022078482529e-01 -3.0768962554398271e-01 -2.9792432766620497e-01 -5.6321782794574185e-02 -6.5352259927932266e-01 8.8460396864743984e-01 -6.9977061199727686e-01 -1.4635004609721847e-01 1.1705919086817111e+00 9.7168088998203501e+00 1.6863185661452178e+00 -1.6494969493202598e+00 -1.1635735081396376e+01 -5.5506426127273301e-01 1.2168714870888877e+00 8.6545829328202615e+00 -1.8171110673042239e+00 2.0746436579336103e+00 1.0842368648526703e+01 3.3134484320177124e+00 -3.3251948868609960e-01 3.2519528584219439e+00 2.0413677569543909e+00 -1.7794191981360670e+00 -2.9070979598543829e+01 5.6369903558738366e-01 
      </Row>
      <Row Index="29">
        2.4273746699047649e-01 5.8083728488258934e-02 -1.2198451083653294e-01 3.1642088588278705e-01 1.0155112773630848e-01 -3.4046811349026207e-02 -1.0050717492490779e-01 4.7432124837564549e-01 -1.3508039490332635e-01 -1.0770086582063687e-01 -9.2033608603394157e-02 1.2223922917699548e-01 -1.3302909260593410e-02 2.0880785210057962e-01 5.3361146095090239e-02 1.9252791713278236e-01 -3.1466367664397943e-01 2.1051691594758520e-01 -3.7901042861049644e-01 4.3869269292885904e-01 5.6192366526677162e-01 -5.2621126230389770e-01 -2.2579552571877564e+00 -2.7048023498457407e-01 6.7162489393581026e-01 2.4927674055661964e+00 -4.3946646214519913e-01 -4.4588711824927962e-01 -1.8171110671969908e+00 9.2697992419714026e-01 -1.7142537003319349e+00 -2.3918063073485163e+00 -2.4005706125546222e+00 9.2984603093091900e-01 1.4923051742467430e-01 -1.8160190074808120e+00 8.8039849402864734e-01 5.6892836439224306e+00 -1.3082377255295061e-01 
      </Row>
      <Row Index="30">
        -4.5740262184509284e-01 -1.1873954486221727e-01 6.4429591127522334e-02 -1.4826110406024553e+00 -3.6853825448763666e-01 1.8651984191662585e-02 1.9418601334450081e-01 -2.1328503304661699e+00 -2.9731336730143809e-01 1.0829558876420275e-01 -5.6915600008798073e-01 -2.8364420168627313e-01 2.2773647481951986e-02 -4.0059308102289037e-01 -4.1734304936155353e-01 -9.5310274033720566e-01 1.4440896538990969e-01 5.1757004516975014e-02 1.3670978761947266e+00 -6.9569097120274981e-01 -9.8785700832972889e-01 2.5555346230171354e+00 2.4426325483486409e+00 3.2229439342411270e-01 -1.4875347983189999e+00 -1.2413868044114755e+00 1.8523077815627318e+00 4.4954842901251899e+00 2.0746436585103405e+00 -1.7142537007079326e+00 1.1396533662462335e+01 4.2978031366069249e+00 3.7511416762391878e+00 -8.5615431271739943e+00 -4.7923335438978514e+00 3.6065545290515963e+00 -3.1524574083574715e+00 -4.0521810713041848e+00 4.2812168964225905e-02 
      </Row>
      <Row Index="31">
        -3.6491175311079616e-01 -6.8500511917264362e-02 -4.0988081580703550e-01 -4.2931243973281141e-01 -4.0517540761635562e-01 2.4824907429398024e-02 -1.5129794005234132e-01 -7.6754628869596275e-01 -1.8510855651292246e+00 1.2441211808143038e-01 7.2286604686610278e-01 -1.2193983255095167e+00 -3.2158700753645064e-01 -3.2885564483922280e-01 -9.2653282652975122e-01 -3.3658437677693726e-01 -2.3712818303886234e+00 -7.5453153926670669e-01 1.9537235801580333e-01 -6.8861265972930630e-01 -4.1803272517350720e+00 1.5370446115393932e-01 1.3184729826786921e+01 2.9548303963667628e+00 -1.8858685947080884e+00 -1.6139209510977146e+01 -9.9598832366166334e-01 -3.7723400920877026e-01 1.0842368648695555e+01 -2.3918063075752016e+00 4.2978031357955757e+00 2.1989415186210028e+01 4.0495423692661703e+00 -1.1614526063984298e+00 -6.1971252138381239e-01 2.7070021136474485e+00 -3.9423802262228134e+00 -4.0660013326062064e+01 7.8559183393439003e-01 
      </Row>
      <Row Index="32">
        -1.2569910033321765e+00 -1.6259020623926901e-01 5.1557990883304328e-01 -8.7514461832143686e-01 -4.8665169240825956e-01 1.1922049166330062e-01 3.2626899586701796e-01 -1.2347435682347987e+00 2.3205147175634622e+00 2.8940536275930917e-01 1.9543577721698835e-01 -2.0277816624574041e-01 2.2683333433130226e-01 -5.8442803319055781e-01 -1.6975013154435725e-02 -5.5457885819162611e-01 2.2843761811011745e+00 -7.0118025855470500e-01 6.9997543247899463e-01 -1.2146417950577821e+00 -1.6260620655964608e+00 7.9100968367344393e-01 4.1789042773041274e+00 1.6654606509431469e-01 -1.6412986966510024e+00 -5.0228815637933799e+00 1.6008847897170693e+00 1.5401101223839397e-01 3.3134484315264938e+00 -2.4005706124590782e+00 3.7511416750550985e+00 4.0495423683674927e+00 7.5666676039505152e+00 -2.4078555443649572e+00 -8.4603023609182770e-01 5.5328043745273954e+00 -1.5267451754228794e+00 -9.5188462598801884e+00 3.1838725602216794e-01 
      </Row>
      <Row Index="33">
        8.3701358941337123e-03 -2.4520891672729084e-02 -4.7226334053508123e-01 1.4518788440625094e+00 9.6048132726196889e-02 8.7626334495036096e-02 6.0339934636372883e-02 1.9143738596308855e+00 6.3212830573833134e-01 4.2878150021928074e-01 2.9506080086837603e+00 -1.8998058929293886e+00 4.0545266760335541e-02 -3.0475705700448974e-01 -1.2386512956579341e+00 1.7668249955743001e+00 2.2705610166736592e-01 3.4270024865843957e-01 6.7703737629465666e-01 -7.4912924277781812e-01 1.5792914266183147e+00 -2.7983171480059488e+00 -2.0637623809643513e-01 7.1858716961285596e-01 -8.9328469060988613e-01 -1.1956344093140863e+00 -8.0548716369588824e-01 -5.3574293592065310e+00 -3.3251948975999479e-01 9.2984603152884582e-01 -8.5615431282292551e+00 -1.1614526081997714e+00 -2.4078555460512501e+00 1.4017709981398848e+01 3.5606190263535531e+00 -1.9692509457189298e+00 -6.9944618906268454e+00 -1.3360063840677805e+00 1.6412052191055171e-01 
      </Row>
      <Row Index="34">
        6.4135179261543485e-01 1.1538561287477478e-01 7.8554818187015485e-03 3.9943702316424456e-01 4.5084442149872683e-01 -7.6711920038299297e-03 1.2214352207781332e-01 4.2102798737687874e-01 1.4959489910397394e+00 -2.8827690759048252e-01 -2.0890929782836576e-01 6.0866897459457436e-01 6.9626055911661489e-01 3.5018560473393379e-01 -1.8383535380063698e-01 2.2437194477414477e-01 1.4386891524585441e+00 -2.4161457600378677e-01 -9.3474215842741937e-01 -3.0217421252502086e-01 -1.4303030949205855e+00 -1.3338221903570915e+00 3.7733911645306009e+00 2.5187853486811207e-01 6.8850958636965487e-01 -5.8042285529131590e+00 -1.1063207132003505e+00 -1.5847841356438046e+00 3.2519528581543113e+00 1.4923051752732808e-01 -4.7923335439679926e+00 -6.1971252182296332e-01 -8.4603023634006203e-01 3.5606190258760355e+00 1.6085672374666345e+01 -1.2313513043018285e+00 1.3921348836765897e+00 -2.0706260389289355e+01 1.0952150088259710e-01 
      </Row>
      <Row Index="35">
        -8.1454271146036561e-01 -1.1486393685692509e-01 2.4989412879046835e-01 -5.7140825729942080e-01 -3.6889707620085932e-01 7.9631036224308005e-02 1.7350940197429221e-01 -8.1604050458049326e-01 1.1943900468438873e+00 2.1056918235946220e-01 2.0959614642615232e-01 -3.3696261539572869e-01 1.2803020691370071e-01 -4.0124308299060374e-01 -1.5861566107217295e-01 -3.1673181986777599e-01 1.3387433307673451e+00 -3.2080184473443496e-01 6.9614770680251481e-01 -7.0103557100178160e-01 -1.5021608524242334e+00 9.5207698081208081e-01 2.7663926774080281e+00 1.1288723659287392e-01 -1.2858785044969987e+00 -2.7715143453873772e+00 1.5646563894330936e+00 6.1750198138783752e-01 2.0413677565879969e+00 -1.8160190074103812e+00 3.6065545281504265e+00 2.7070021129697812e+00 5.5328043745321098e+00 -1.9692509444317656e+00 -1.2313513041000173e+00 4.4203676528348321e+00 -1.9137222768449682e+00 -5.6655647580145168e+00 1.6484332200575325e-01 
      </Row>
      <Row Index="36">
        6.0126014442104125e-01 1.7628420249492649e-01 5.7598991065343297e-01 -4.9916081981645100e-02 3.8125003067115026e-01 -1.2229156676504527e-01 -2.5645058348594452e-01 1.4195343000741098e-01 -5.7334104929634755e-01 -6.1137028990471176e-01 -2.8553686310283721e+00 2.6951971696305712e+00 -1.0737087545432100e-01 8.4575028293555388e-01 2.0766527813186864e+00 -1.0655612176845899e+00 -3.6920014633998904e-01 -4.6177421906159050e-01 -2.2733289585469740e+00 1.6683756331567465e+00 -1.5815119922790100e-01 6.6499118282014091e-01 -2.4329430620022965e+00 -1.2876998203993728e+00 2.8223793023418313e+00 2.8725946306081642e+00 -1.2401942747542090e+00 1.5337929582640530e+00 -1.7794191974981111e+00 8.8039849373976931e-01 -3.1524574070425837e+00 -3.9423802249652899e+00 -1.5267451747577070e+00 -6.9944618919110377e+00 1.3921348830001872e+00 -1.9137222763340742e+00 1.2541777191568645e+01 6.1936423232871203e+00 -2.5143883803664824e-01 
      </Row>
      <Row Index="37">
        -2.2885129331993426e-01 9.3165472620427181e-02 2.7234656604736784e-01 5.3923366947894635e-01 -1.3640326418022219e-01 -1.0197254040393489e-01 -2.3116154002499911e-01 1.3193043610960160e+00 2.1327218064107001e+00 -2.4615369137185894e-01 -1.5309656529788089e+00 1.3187993592300504e+00 -1.6097936972732185e-01 6.0095845014035376e-01 1.6743348080937395e+00 6.2600116699249808e-01 1.4941692355192595e+00 2.0602206339855860e+00 -9.9500712193148377e-01 2.1298778010312205e+00 6.0781622368527479e+00 -1.1104456733156880e+00 -3.4313221011143725e+01 -6.2083466339002484e+00 4.2678676030089235e+00 4.2123668805825105e+01 2.7885359684117503e+00 -7.1944579718152113e-01 -2.9070979598428863e+01 5.6892836442402253e+00 -4.0521810693277320e+00 -4.0660013325285632e+01 -9.5188462614315092e+00 -1.3360063874245043e+00 -2.0706260390222166e+01 -5.6655647591624181e+00 6.1936423250720454e+00 1.1255570681114901e+02 -1.8655602840277954e+00 
      </Row>
      <Row Index="38">
        -7.1048946477224595e-02 -1.4761026631558316e-02 1.1462639526747198e-02 -8.4773222017525685e-03 -1.9402958116624291e-02 7.3350612416844818e-03 1.6722773725281082e-02 -1.9831652383876672e-02 1.1150740084026989e-01 2.8770711337665400e-02 7.6774895290945971e-02 -4.8146255383788805e-02 2.2932590240978268e-03 -5.6386271494253126e-02 -3.2564572988347806e-02 -3.1753208105262769e-03 7.4397286110189434e-02 -8.0952652614332613e-02 5.2817865696570196e-02 -7.3075745119709046e-02 -1.1092760039410621e-05 -4.3593043381625840e-02 6.4222409988602625e-01 1.2503950467008984e-01 -1.6360327860593979e-01 -8.9175315104546726e-01 -4.9712327297402492e-02 -8.7568534049431879e-02 5.6369903556411272e-01 -1.3082377254887953e-01 4.2812168889962907e-02 7.8559183388337117e-01 3.1838725602644946e-01 1.6412052201398031e-01 1.0952150091222390e-01 1.6484332200858065e-01 -2.5143883807526640e-01 -1.8655602839636258e+00 5.5152137829580367e-02 
      </Row>
    </InverseHessian>
  </Weights>
</MethodSetup>
