<?xml version="1.0"?>
<MethodSetup Method="MLP::MLP">
  <GeneralInfo>
    <Info name="TMVA Release" value="4.1.2 [262402]"/>
    <Info name="ROOT Release" value="5.32/00 [335872]"/>
    <Info name="Creator" value="tomc"/>
    <Info name="Date" value="Thu Jan 10 13:58:46 2013"/>
    <Info name="Host" value="Linux lxbuild168.cern.ch 2.6.18-308.1.1.el5 #1 SMP Wed Mar 7 19:25:07 CET 2012 x86_64 x86_64 x86_64 GNU/Linux"/>
    <Info name="Dir" value="/user_mnt/user/tomc/QGTagger/training/f/10/aKDE03"/>
    <Info name="Training events" value="259173"/>
    <Info name="TrainingTime" value="1.00409478e+03"/>
    <Info name="AnalysisType" value="Classification"/>
  </GeneralInfo>
  <Options>
    <Option name="NCycles" modified="No">500</Option>
    <Option name="HiddenLayers" modified="No">N,N-1</Option>
    <Option name="NeuronType" modified="No">sigmoid</Option>
    <Option name="RandomSeed" modified="No">1</Option>
    <Option name="EstimatorType" modified="No">MSE</Option>
    <Option name="NeuronInputType" modified="No">sum</Option>
    <Option name="V" modified="Yes">False</Option>
    <Option name="VerbosityLevel" modified="No">Default</Option>
    <Option name="VarTransform" modified="Yes">N</Option>
    <Option name="H" modified="Yes">False</Option>
    <Option name="CreateMVAPdfs" modified="Yes">True</Option>
    <Option name="IgnoreNegWeightsInTraining" modified="No">False</Option>
    <Option name="TrainingMethod" modified="No">BP</Option>
    <Option name="LearningRate" modified="No">2.000000e-02</Option>
    <Option name="DecayRate" modified="No">1.000000e-02</Option>
    <Option name="TestRate" modified="Yes">3</Option>
    <Option name="EpochMonitoring" modified="No">False</Option>
    <Option name="Sampling" modified="No">1.000000e+00</Option>
    <Option name="SamplingEpoch" modified="No">1.000000e+00</Option>
    <Option name="SamplingImportance" modified="No">1.000000e+00</Option>
    <Option name="SamplingTraining" modified="No">True</Option>
    <Option name="SamplingTesting" modified="No">False</Option>
    <Option name="ResetStep" modified="No">50</Option>
    <Option name="Tau" modified="No">3.000000e+00</Option>
    <Option name="BPMode" modified="No">sequential</Option>
    <Option name="BatchSize" modified="No">-1</Option>
    <Option name="ConvergenceImprove" modified="No">1.000000e-30</Option>
    <Option name="ConvergenceTests" modified="No">-1</Option>
    <Option name="UseRegulator" modified="Yes">True</Option>
    <Option name="UpdateLimit" modified="No">10000</Option>
    <Option name="CalculateErrors" modified="No">False</Option>
    <Option name="WeightRange" modified="No">1.000000e+00</Option>
  </Options>
  <Variables NVar="4">
    <Variable VarIndex="0" Expression="axis1" Label="axis1" Title="axis1" Unit="" Internal="axis1" Type="F" Min="3.55012366e-04" Max="3.35235417e-01"/>
    <Variable VarIndex="1" Expression="axis2" Label="axis2" Title="axis2" Unit="" Internal="axis2" Type="F" Min="-6.46638393e-04" Max="2.03560263e-01"/>
    <Variable VarIndex="2" Expression="mult" Label="mult" Title="mult" Unit="" Internal="mult" Type="F" Min="8.10357034e-01" Max="3.58103561e+01"/>
    <Variable VarIndex="3" Expression="ptD" Label="ptD" Title="ptD" Unit="" Internal="ptD" Type="F" Min="1.98135361e-01" Max="9.96809125e-01"/>
  </Variables>
  <Spectators NSpec="0"/>
  <Classes NClass="2">
    <Class Name="Signal" Index="0"/>
    <Class Name="Background" Index="1"/>
  </Classes>
  <Transformations NTransformations="1">
    <Transform Name="Normalize">
      <Selection>
        <Input NInputs="4">
          <Input Type="Variable" Label="axis1" Expression="axis1"/>
          <Input Type="Variable" Label="axis2" Expression="axis2"/>
          <Input Type="Variable" Label="mult" Expression="mult"/>
          <Input Type="Variable" Label="ptD" Expression="ptD"/>
        </Input>
        <Output NOutputs="4">
          <Output Type="Variable" Label="axis1" Expression="axis1"/>
          <Output Type="Variable" Label="axis2" Expression="axis2"/>
          <Output Type="Variable" Label="mult" Expression="mult"/>
          <Output Type="Variable" Label="ptD" Expression="ptD"/>
        </Output>
      </Selection>
      <Class ClassIndex="0">
        <Ranges>
          <Range Index="0" Min="3.2478747889399529e-03" Max="3.3523541688919067e-01"/>
          <Range Index="1" Min="-1.4842499513179064e-04" Max="2.0356026291847229e-01"/>
          <Range Index="2" Min="8.1035703420639038e-01" Max="3.5810356140136719e+01"/>
          <Range Index="3" Min="1.9813536107540131e-01" Max="9.8463821411132812e-01"/>
        </Ranges>
      </Class>
      <Class ClassIndex="1">
        <Ranges>
          <Range Index="0" Min="3.5501236561685801e-04" Max="3.1869596242904663e-01"/>
          <Range Index="1" Min="-6.4663839293643832e-04" Max="1.9887787103652954e-01"/>
          <Range Index="2" Min="8.1035703420639038e-01" Max="3.2810356140136719e+01"/>
          <Range Index="3" Min="2.1781028807163239e-01" Max="9.9680912494659424e-01"/>
        </Ranges>
      </Class>
      <Class ClassIndex="2">
        <Ranges>
          <Range Index="0" Min="3.5501236561685801e-04" Max="3.3523541688919067e-01"/>
          <Range Index="1" Min="-6.4663839293643832e-04" Max="2.0356026291847229e-01"/>
          <Range Index="2" Min="8.1035703420639038e-01" Max="3.5810356140136719e+01"/>
          <Range Index="3" Min="1.9813536107540131e-01" Max="9.9680912494659424e-01"/>
        </Ranges>
      </Class>
    </Transform>
  </Transformations>
  <MVAPdfs>
    <PDF Name="MLP_PDFSig" MinNSmooth="0" MaxNSmooth="0" InterpolMethod="5" KDE_type="1" KDE_iter="2" KDE_border="1" KDE_finefactor="3.0000001192092896e-01">
      <Histogram Name="MLP_tr_S_original" NBins="250" XMin="3.5921927541494370e-02" XMax="9.1724127531051636e-01" HasEquidistantBins="1">
        4.20469604e-03 1.68187842e-02 8.40939209e-03 1.68187842e-02 2.10234802e-02 6.30704388e-02 1.30345583e-01 1.59778461e-01 2.18644202e-01 2.56486475e-01 2.77509958e-01 3.91036749e-01 4.28878993e-01 6.34909093e-01 5.76043367e-01 7.98892260e-01 7.52640605e-01 8.36734533e-01 7.48435915e-01 9.58670735e-01 1.00492239e+00 1.06799281e+00 1.18572426e+00 1.19833839e+00 1.13106322e+00 1.25299942e+00 1.32027459e+00 1.21515715e+00 1.39595914e+00 1.41698265e+00 1.52209997e+00 1.50107658e+00 1.51369059e+00 1.70710659e+00 1.84165692e+00 1.87949920e+00 1.86268044e+00 1.95518374e+00 2.03086829e+00 2.14859962e+00 2.15700912e+00 2.24110293e+00 2.10234809e+00 2.34201574e+00 2.54384112e+00 2.70782423e+00 2.70782423e+00 2.61952567e+00 2.80032754e+00 2.73725724e+00 2.78771353e+00 2.94749188e+00 2.82135105e+00 3.00635767e+00 2.85498857e+00 3.16193151e+00 3.18715978e+00 3.15352201e+00 3.25863957e+00 3.27966309e+00 3.22079730e+00 3.38057566e+00 3.40580392e+00 3.33852863e+00 3.36375690e+00 3.16193151e+00 3.42682743e+00 3.17034078e+00 3.36796165e+00 3.28386760e+00 3.06522346e+00 3.27966309e+00 3.18295503e+00 3.36796165e+00 3.21238780e+00 3.10306573e+00 3.03999543e+00 3.12408924e+00 3.00635767e+00 3.11147523e+00 3.09465647e+00 2.89703560e+00 2.98533416e+00 2.82976055e+00 2.75828075e+00 2.76248527e+00 2.73725724e+00 2.51861310e+00 2.37144852e+00 2.41770029e+00 2.30837822e+00 2.37565327e+00 2.38826752e+00 2.17382789e+00 2.00984478e+00 2.02245879e+00 2.17382789e+00 2.04348230e+00 1.90893209e+00 2.12337160e+00 1.85006630e+00 1.91734147e+00 1.87529445e+00 1.80801940e+00 1.67767382e+00 1.71131134e+00 1.59357989e+00 1.56835163e+00 1.56835163e+00 1.69028783e+00 1.38334501e+00 1.48425770e+00 1.50948596e+00 1.37914038e+00 1.34129810e+00 1.24879479e+00 1.37914038e+00 1.32027459e+00 1.32868397e+00 1.26561356e+00 1.09322095e+00 1.28243232e+00 1.18572426e+00 9.92308319e-01 1.04696929e+00 1.06378818e+00 9.96513009e-01 9.88103569e-01 1.01333177e+00 9.92308319e-01 9.62875426e-01 8.78781497e-01 8.32529843e-01 8.40939224e-01 7.73664117e-01 8.87190878e-01 7.90482879e-01 7.56845295e-01 7.82073498e-01 8.19915771e-01 8.19915771e-01 7.14798331e-01 7.06388950e-01 6.93774879e-01 6.34909093e-01 6.97979569e-01 7.52640605e-01 6.72751367e-01 6.76956058e-01 6.89570189e-01 5.92862129e-01 5.29791713e-01 5.76043367e-01 6.39113843e-01 6.60137296e-01 4.87744749e-01 5.33996403e-01 5.00358820e-01 5.29791713e-01 4.96154159e-01 5.38201094e-01 4.62516576e-01 5.12972951e-01 5.29791713e-01 4.03650820e-01 4.96154159e-01 4.03650820e-01 4.16264921e-01 4.16264921e-01 4.28878993e-01 3.23761612e-01 4.37288404e-01 3.91036749e-01 3.65808576e-01 3.82627338e-01 3.36375684e-01 4.20469612e-01 3.36375684e-01 3.36375684e-01 3.86832058e-01 2.73305237e-01 3.02738130e-01 2.85919338e-01 2.60691166e-01 2.35462978e-01 2.01825410e-01 2.27053598e-01 2.56486475e-01 2.06030115e-01 2.48077080e-01 2.18644202e-01 1.59778461e-01 1.85006633e-01 1.93416029e-01 1.89211324e-01 1.42959669e-01 1.68187842e-01 1.55573756e-01 1.55573756e-01 1.26140878e-01 1.30345583e-01 1.21936187e-01 9.67080146e-02 9.67080146e-02 1.17731489e-01 9.25033167e-02 1.26140878e-01 9.67080146e-02 1.21936187e-01 1.09322101e-01 7.56845325e-02 9.67080146e-02 7.56845325e-02 5.04563525e-02 6.30704388e-02 1.00912705e-01 7.56845325e-02 3.36375684e-02 4.62516584e-02 3.78422663e-02 5.46610504e-02 5.46610504e-02 3.36375684e-02 2.94328723e-02 2.10234802e-02 3.36375684e-02 1.68187842e-02 1.26140881e-02 3.36375684e-02 2.52281763e-02 8.40939209e-03 3.36375684e-02 1.26140881e-02 4.20469604e-03 8.40939209e-03 1.26140881e-02 1.68187842e-02 1.68187842e-02 1.26140881e-02 8.40939209e-03 1.68187842e-02 1.26140881e-02 4.20469604e-03 4.20469604e-03 4.20469604e-03 1.26140881e-02 4.20469604e-03 0.00000000e+00 4.20469604e-03 0.00000000e+00 
      </Histogram>
    </PDF>
    <PDF Name="MLP_PDFBkg" MinNSmooth="0" MaxNSmooth="0" InterpolMethod="5" KDE_type="1" KDE_iter="2" KDE_border="1" KDE_finefactor="3.0000001192092896e-01">
      <Histogram Name="MLP_tr_B_original" NBins="250" XMin="3.5921927541494370e-02" XMax="9.1724127531051636e-01" HasEquidistantBins="1">
        1.18374033e-02 5.47479913e-02 7.84227997e-02 1.67203322e-01 3.09252173e-01 3.81756276e-01 5.97788870e-01 8.31577599e-01 1.04908991e+00 1.35390306e+00 1.50926900e+00 1.82887888e+00 2.13517165e+00 2.27574086e+00 2.34232616e+00 2.53024507e+00 2.65749717e+00 2.79362726e+00 2.79362726e+00 2.78474927e+00 2.67969227e+00 2.76995254e+00 2.90312314e+00 2.77735090e+00 2.95047283e+00 2.91939974e+00 2.90608263e+00 2.94899321e+00 3.14431024e+00 2.99486303e+00 3.11175752e+00 3.28339982e+00 3.32779002e+00 3.20941615e+00 3.46835923e+00 3.45208287e+00 3.48611546e+00 3.49795270e+00 3.54382277e+00 3.57637548e+00 3.72434306e+00 3.58081460e+00 3.72434306e+00 3.77909112e+00 3.76577401e+00 3.87970901e+00 3.75541639e+00 3.89302611e+00 3.73913980e+00 3.76725364e+00 3.83679843e+00 3.73174143e+00 3.62964392e+00 3.70510721e+00 3.68291211e+00 3.58525372e+00 3.53050566e+00 3.47427797e+00 3.53642440e+00 3.46539998e+00 3.42396903e+00 3.38549733e+00 3.30115604e+00 3.36182261e+00 3.25380635e+00 3.14726973e+00 3.24936724e+00 3.15910697e+00 2.97562742e+00 2.91496062e+00 2.83653784e+00 2.77883053e+00 2.74331832e+00 2.70928574e+00 2.55096054e+00 2.44146442e+00 2.41039133e+00 2.46809864e+00 2.40447259e+00 2.26686287e+00 2.24762702e+00 2.20767570e+00 2.12629366e+00 1.96352935e+00 1.88510656e+00 1.91470003e+00 1.83035851e+00 1.75341547e+00 1.73565924e+00 1.63504136e+00 1.61284626e+00 1.53590310e+00 1.48411453e+00 1.42344773e+00 1.40125263e+00 1.25180542e+00 1.25328505e+00 1.13047206e+00 1.05796790e+00 1.13047206e+00 1.05648828e+00 1.08312237e+00 9.89902854e-01 8.87805283e-01 9.21837807e-01 8.53772759e-01 8.36016655e-01 8.43415022e-01 7.75349915e-01 6.95447445e-01 7.20601916e-01 6.71772659e-01 6.54016554e-01 6.42179132e-01 6.15544975e-01 5.93349874e-01 5.84471822e-01 5.78553081e-01 5.47479928e-01 5.47479928e-01 4.79414850e-01 4.32065219e-01 4.45382297e-01 4.46861982e-01 4.51301008e-01 4.08390433e-01 4.18748140e-01 3.72878224e-01 3.49203408e-01 3.65479827e-01 3.49203408e-01 3.18130225e-01 3.21089566e-01 3.12211514e-01 2.76699305e-01 2.79658645e-01 2.57463515e-01 2.41187096e-01 2.48585477e-01 2.60422885e-01 2.50065148e-01 1.93837479e-01 2.32309043e-01 1.73122033e-01 2.05674887e-01 1.71642348e-01 1.74601704e-01 1.98276505e-01 1.70162678e-01 1.47967547e-01 1.83479756e-01 1.42048836e-01 1.65723652e-01 1.56845599e-01 1.45008191e-01 1.33170784e-01 1.56845599e-01 1.21333390e-01 1.45008191e-01 1.21333390e-01 1.03577279e-01 1.10975660e-01 9.46992263e-02 9.17398781e-02 1.21333390e-01 8.87805298e-02 8.87805298e-02 9.61789042e-02 9.17398781e-02 7.84227997e-02 7.69431219e-02 7.54634514e-02 9.76585820e-02 7.69431219e-02 5.91870174e-02 6.51057214e-02 4.58699390e-02 7.69431219e-02 6.51057214e-02 4.29105870e-02 4.58699390e-02 5.32683171e-02 4.73496132e-02 3.25528607e-02 4.73496132e-02 5.32683171e-02 3.99512388e-02 3.84715609e-02 2.81138327e-02 2.81138327e-02 3.69918868e-02 1.92357805e-02 3.69918868e-02 3.55122089e-02 2.66341586e-02 2.07154565e-02 2.95935087e-02 1.77561045e-02 2.81138327e-02 1.62764303e-02 1.62764303e-02 1.62764303e-02 7.39837717e-03 1.03577282e-02 1.33170793e-02 2.07154565e-02 4.43902612e-03 5.91870164e-03 8.87805223e-03 1.18374033e-02 2.95935082e-03 8.87805223e-03 8.87805223e-03 7.39837717e-03 5.91870164e-03 4.43902612e-03 1.03577282e-02 4.43902612e-03 1.47967541e-03 2.95935082e-03 4.43902612e-03 7.39837717e-03 1.47967541e-03 0.00000000e+00 1.47967541e-03 1.47967541e-03 1.47967541e-03 8.87805223e-03 1.47967541e-03 1.47967541e-03 2.95935082e-03 1.47967541e-03 1.47967541e-03 1.47967541e-03 0.00000000e+00 1.47967541e-03 2.95935082e-03 1.47967541e-03 1.47967541e-03 1.47967541e-03 1.47967541e-03 0.00000000e+00 1.47967541e-03 0.00000000e+00 0.00000000e+00 0.00000000e+00 1.47967541e-03 0.00000000e+00 1.47967541e-03 0.00000000e+00 
      </Histogram>
    </PDF>
  </MVAPdfs>
  <Weights>
    <Layout NLayers="4">
      <Layer Index="0" NNeurons="5">
        <Neuron NSynapses="4">
          -3.5640830558623766e+00 1.0956030521544811e+00 -7.5671901970844380e-01 2.9331541300198500e+00 
        </Neuron>
        <Neuron NSynapses="4">
          -1.6481683579635134e+00 -2.1344478228876480e+00 9.0456049988532045e-02 2.4300243596146356e-01 
        </Neuron>
        <Neuron NSynapses="4">
          3.1268128603433598e-01 -1.0830257912546488e+00 -3.2204853439141683e+00 1.3200550377140057e+00 
        </Neuron>
        <Neuron NSynapses="4">
          -7.2719850840620373e+00 -4.7661780413458910e-01 5.7368520824224889e-01 -3.3421500557963912e-01 
        </Neuron>
        <Neuron NSynapses="4">
          -4.5639243664265834e+00 1.1679775896084894e+00 -2.3203828875601080e+00 1.7771273125038196e+00 
        </Neuron>
      </Layer>
      <Layer Index="1" NNeurons="5">
        <Neuron NSynapses="3">
          -2.8285696862622216e+00 -3.3477876924641183e+00 1.5093681816360582e+00 
        </Neuron>
        <Neuron NSynapses="3">
          -1.0264355563656731e+00 -1.4231332490721889e+00 -2.0232555198256121e+00 
        </Neuron>
        <Neuron NSynapses="3">
          1.5963626067823615e+00 -1.7947976110704555e+00 -3.2620691942073905e+00 
        </Neuron>
        <Neuron NSynapses="3">
          -6.7766022729256881e-01 -7.8351174587524186e-01 2.2627321994421283e+00 
        </Neuron>
        <Neuron NSynapses="3">
          -2.0187790272157260e+00 -2.5071416191277412e-01 -1.8777319498257177e+00 
        </Neuron>
      </Layer>
      <Layer Index="2" NNeurons="4">
        <Neuron NSynapses="1">
          -1.3030611860276982e+00 
        </Neuron>
        <Neuron NSynapses="1">
          -1.7927041915831150e+00 
        </Neuron>
        <Neuron NSynapses="1">
          1.0042200541411495e+00 
        </Neuron>
        <Neuron NSynapses="1">
          3.2287705730226796e-01 
        </Neuron>
      </Layer>
      <Layer Index="3" NNeurons="1">
        <Neuron NSynapses="0"/>
      </Layer>
    </Layout>
    <InverseHessian NElements="1521" NRows="39" NCols="39">
      <Row Index="0">
        3.6003312057713344e+00 -1.5237785414900018e-01 -1.7008969356386900e+00 -5.6923302044956359e-01 1.1638731756899143e+00 8.0281283004033943e-01 3.5948690902152219e-02 -9.6024667259601182e-02 1.7427719678723499e+00 1.9185912425814189e+00 -3.4965642569500455e+00 2.0362923697055277e-01 5.7423006342814951e+00 -8.9057194858981392e-01 -2.9694428446690226e+00 2.3083114080545717e+00 2.3997086165406376e+00 -3.9688545373668788e-01 -3.0176044459031330e+00 9.3403313943353150e-01 -1.0805403443990256e+01 -1.2121616948038049e+01 1.6006516954614418e+00 7.9182852998172688e+00 -8.7103566526668921e+00 -2.3552684184803216e+00 -3.2132374183018371e+00 -6.8147330833086812e+00 7.7024678428629167e+00 -5.4888853575549290e-01 -1.0868500737282498e+00 2.7436150869915110e+00 -3.4344630174903026e+00 5.5534546990784200e+01 -7.4067512640716604e-01 9.1720845784827065e-01 7.6615127568771172e+01 -2.7630618140541796e-01 -1.4107734863163421e-01 
      </Row>
      <Row Index="1">
        -1.5237785210408533e-01 3.8427793288745470e+01 -7.8970061251313997e+00 1.8287924035335950e+00 4.5614838922666534e+00 -2.2138897644322665e+01 -5.9750942744750120e+00 -8.9632019357869588e+00 8.9270683207822312e+00 -8.7296171582010178e+00 -7.6546470375768356e+00 -7.2887833245915390e+00 9.3736412927960822e-01 1.0029336635822306e+01 -6.1141999928253732e+00 -6.7009369813841797e+00 1.0863070694739669e+01 -1.4868679237844390e+01 -8.6091192974821240e+00 -9.1277252440119589e+00 1.5118387859898865e+01 1.9638415563659164e+00 3.6545369320269554e+00 2.2372702887410792e+01 4.2165762830767804e+01 5.7534729751717151e+01 -1.2440725798600514e+01 -7.0238657108503686e+00 6.7178787953613259e+00 1.9671796539492835e+01 -1.3923805339880284e+01 -1.6910928501964493e+00 -8.5054050182139989e+01 4.8112076498144120e+01 -6.4398579961151682e+01 -7.9341585135105674e+01 1.3682438241607147e+02 3.1371966908201951e+00 2.8920913632732420e-01 
      </Row>
      <Row Index="2">
        -1.7008969357312367e+00 -7.8970061241954559e+00 1.3591880155773188e+01 -1.6714047280472459e+00 -1.5550666652153582e+00 3.4850597490171498e-01 1.3061779118527710e+00 1.6308567804556882e+00 -5.2514616403017440e+00 -1.2512156739385785e+00 7.6488658824001003e+00 5.5054571282669968e+00 -1.0593529372579282e+00 -2.3636355005536789e+00 6.6177185579439444e+00 2.3666643962958860e+00 -4.8647020790061006e+00 5.5017939159447451e+00 3.7379506965329048e+00 2.6948901294064633e+00 -1.6550449900505580e+01 1.4968919390553739e+00 -4.0157137273762364e+00 -2.5798844310517570e+01 -5.3157131074058128e+00 -1.2198243965981476e+01 -1.0342039888747637e+01 -2.3105067829858186e+01 -1.4795733598695735e+01 -1.7675408206314337e+01 9.0235036163773348e+00 5.5662947147052080e+00 1.0006016566584843e+02 -3.5055710576460740e+01 1.5580769439976180e+01 5.8739239616262843e+01 -5.4001340914672099e+01 -1.8667765271303101e+00 -1.9750665076912610e-01 
      </Row>
      <Row Index="3">
        -5.6923302074483573e-01 1.8287924035688539e+00 -1.6714047275202901e+00 8.0240361358847672e+00 3.1583010052696509e-01 -2.0836790710855937e-02 -1.9882311390984457e+00 8.3116437527668263e-01 -1.2382055307757425e+00 -3.5008353382021347e+00 7.6745416857376805e+00 -4.5995770126324764e+00 -2.2245474386934733e-01 3.0233689933533365e+00 9.4844828928578362e-01 3.4899374083966217e+00 -7.1278204909688114e-01 4.2816766789920848e+00 4.5309669318522801e+00 2.7358951082175791e+00 9.7159872651994874e+00 -1.0588263175127237e+00 1.2356599442217042e+00 -7.3910429711576402e+00 2.5475541502117713e+00 -3.3414842620222451e+00 1.6867424192312431e+01 1.3450352428869541e+01 -1.3900361828168970e+01 8.4329570107535101e+00 -2.1773527565818962e+00 -8.0045156142566611e+00 -1.1214767243137096e+01 -1.9763719248072164e+01 1.4255837744718963e+01 1.7595647082243557e+00 -3.6746686324692362e+01 -2.3620758725370576e+00 1.0540511026759564e-01 
      </Row>
      <Row Index="4">
        1.1638731758397896e+00 4.5614838900852579e+00 -1.5550666648898073e+00 3.1583010069418871e-01 2.4966837073935380e+00 -1.3316422194276373e-01 7.7773422226784655e-02 -6.6405633488633919e-01 1.2541401704358464e+00 2.4479858317614855e-01 1.4348201591715211e+00 -1.7246316821262893e+00 4.6983471322596868e+00 4.1026870088439438e+00 -1.3071639493799401e+00 1.8483308418158826e+00 3.8027946746728087e+00 3.1107367209530707e+00 -2.6835310716910930e+00 1.6883595952742425e-01 -3.7721882983678228e+00 -6.4060824882551213e+00 1.3882745716467300e+00 -4.4059743215233755e+00 -4.1504836407024195e+00 4.0459418549429443e-01 -5.6283399204517908e+00 -1.5188066480932983e+01 -7.7704406940697659e+00 2.4801130906484969e+00 -4.0870605312852657e+00 1.2376654190364851e+00 1.7531701939874232e+01 5.0679157525705975e+01 -9.6638797560922463e-01 4.1850984660092418e+00 7.4540295680582204e+01 -8.8196399664940039e-01 4.8548419188616285e-02 
      </Row>
      <Row Index="5">
        8.0281282660572906e-01 -2.2138897649228216e+01 3.4850597713126419e-01 -2.0836789376557169e-02 -1.3316422534913236e-01 4.8655301417520342e+01 7.9688011934517737e+00 4.9212046785681951e-01 -3.0656420578533243e+00 2.3698519972960000e+01 3.9901395854231616e+00 -2.8768413450812043e+00 2.8763531327129961e+00 1.1396368648993551e+01 2.8695293662048873e+00 5.8157743625038947e+00 -2.5541560015243863e+00 3.5052342745762388e+01 6.6451142520529398e+00 1.8678829623933388e+00 -7.7909062247548588e+00 -5.2805046096101833e+00 -5.4945519921271457e-01 1.5484549300605700e+01 -7.1874277100036707e+01 -8.4931982120244527e+01 6.3386121773705710e+00 7.9389357021948630e+00 9.2505315565376689e-01 -3.3677509858827381e+00 6.3138493973415271e+00 6.5418380479358929e+00 7.0603182582774844e+00 4.2682234910909116e+01 8.1623893336837909e+01 3.1117076463444683e+01 -3.5927142136550685e+01 -3.8601483843575997e+00 -1.5737716635819138e-01 
      </Row>
      <Row Index="6">
        3.5948690572368491e-02 -5.9750942747340101e+00 1.3061779116977021e+00 -1.9882311390889882e+00 7.7773421701304357e-02 7.9688011935225376e+00 6.8404094784659568e+00 1.9755608962573530e+00 -1.1070127846772448e+00 7.4649686929139385e+00 2.9138302444104136e+00 1.2407500544966883e+00 6.0130553436816570e-01 -1.1999490621539337e+00 3.4887106524153451e+00 1.7377379198213430e+00 -1.2734519953358385e+00 1.8296171679935469e+00 4.6766612893015642e+00 1.5650171501080419e+00 -1.1944966310031502e+01 -1.7585191836805814e+00 -1.6316436250012964e+00 6.9138995501421388e+00 -1.4247654021745642e+01 -1.2381515662943022e+01 1.5032843950278156e+00 -5.5246030700942752e+00 -3.3233840314031249e-01 -5.3331792386085830e+00 2.9903139862144514e+00 1.9877914848259415e+00 2.2445098850939079e+01 6.3093435068718584e+00 1.1052794481079424e+01 3.1250780634233688e+01 -8.1497795111574831e+00 6.0751333289065124e-01 -1.9274568168604372e-01 
      </Row>
      <Row Index="7">
        -9.6024667472590863e-02 -8.9632019361154391e+00 1.6308567809973908e+00 8.3116437504360496e-01 -6.6405633518635876e-01 4.9212046696189304e-01 1.9755608965519973e+00 5.8488973403298612e+00 -3.1946102841746149e+00 -1.8257437510266397e+00 7.4053852347433144e+00 1.1705833265624563e+00 1.2993885213295329e+00 -7.7429956724733984e-01 3.0062572019075589e+00 5.1575693423115911e+00 -2.0660932508221239e+00 6.1383737990712461e+00 3.5137899487762421e+00 5.7299647186206917e+00 -1.5385686112788588e+00 -2.1891204748797763e+00 -4.6849243435907906e-02 -2.7879726854070743e+01 -3.5376595342642219e+00 -1.0760197241585102e+01 6.1540170316875118e+00 -6.5951200833002463e+00 -1.6172804458466612e+01 -2.6216401138631835e+00 -2.5252197896234013e-01 -2.3835432025539287e+00 5.5658414874594868e+01 -1.1040154319289620e+01 1.8033015854102914e+01 3.3820107681330640e+01 -2.7705106241567403e+01 -2.2591842299235814e+00 2.7774001958278102e-02 
      </Row>
      <Row Index="8">
        1.7427719683784346e+00 8.9270683198608491e+00 -5.2514616407179346e+00 -1.2382055304584909e+00 1.2541401709689000e+00 -3.0656420545518301e+00 -1.1070127846385249e+00 -3.1946102839502966e+00 5.4481930084908328e+00 1.5887579919269754e+00 -8.3976076145516778e+00 -7.2024084118172138e-01 1.2167628591503643e+00 7.3486559734158163e-01 -3.5707859268432003e+00 -3.9132004323187495e+00 4.4905179334984151e+00 -7.2681045333224574e+00 -4.9611243250507524e+00 -3.8664083838573320e+00 4.4105127148698053e-01 -4.1042345604828245e+00 1.8533890458973648e+00 2.2158292498562481e+01 5.2843534778209671e+00 1.6218550020159768e+01 -6.5473223010692987e+00 2.9122433963704986e-01 1.6569281559245255e+01 6.1281771238451430e+00 -5.2759788902713538e+00 4.4357635584431976e-01 -5.6552101969087836e+01 4.7071027303515642e+01 -2.4235821249270451e+01 -4.1066733839217285e+01 8.3417735137155191e+01 2.8776451356539754e+00 -1.4977275407107749e-02 
      </Row>
      <Row Index="9">
        1.9185912414182793e+00 -8.7296171607432367e+00 -1.2512156736542455e+00 -3.5008353375973815e+00 2.4479858177899677e-01 2.3698519975221007e+01 7.4649686929370773e+00 -1.8257437509710754e+00 1.5887579908173710e+00 2.4675023651419558e+01 5.8241714366583137e+00 3.0574547194978763e-01 3.0495250245352761e+00 5.1715764711244105e-01 1.7935121123624143e+00 -4.7847131737021320e-01 1.3621901109783896e+00 7.1785995280150559e+00 1.2179353396658483e+00 -1.6487198840981128e+00 -2.3450251708961506e+01 -1.4970147970445125e-01 -2.6673359193312591e+00 4.3216210972805612e+01 -4.0994482298139424e+01 -3.2391081148854695e+01 -2.0062494513399109e+01 -2.8634541620986067e+01 -5.3956149983387114e+00 -5.8112716063580718e+00 2.4175997410972978e+00 2.4884489414209079e+00 4.0602148401956217e+00 4.8804625608763885e+01 2.4315202580514669e+01 1.9319509723795623e+01 2.8487840898027162e+01 3.8972127415950526e+00 -1.9715919715976665e-01 
      </Row>
      <Row Index="10">
        -3.4965642569765691e+00 -7.6546470427232496e+00 7.6488658853635343e+00 7.6745416847827403e+00 1.4348201585575802e+00 3.9901395881149710e+00 2.9138302467520703e+00 7.4053852354199439e+00 -8.3976076162242634e+00 5.8241714393700814e+00 6.7514385668078262e+01 -7.9282696167730595e+00 7.3733041844306513e+00 3.9260011633837166e+00 1.3735541958601743e+01 1.1529452700398881e+01 1.5268835652230044e+00 1.8633995861981020e+01 -3.5626513400517696e+00 1.0095841472414278e+01 -3.3763964163635436e+01 8.9979136964090767e+00 -2.8954643657787975e+00 -5.5134756886514651e+01 -2.1377549304742054e+01 -3.1168564517641808e+01 -8.6460384277514223e+01 -1.7518001928295578e+02 -1.7901133058844573e+02 -7.6498161462681731e+00 -9.7357671411869262e+00 -1.3730421710182741e+01 3.1278825102676439e+02 6.7001103233488664e+00 6.0838881011052820e+01 1.1743330514859474e+02 3.5791166616174284e+00 -6.0036446992851360e+00 7.6345447175777892e-01 
      </Row>
      <Row Index="11">
        2.0362923732021265e-01 -7.2887833228419989e+00 5.5054571274074320e+00 -4.5995770129119835e+00 -1.7246316818839145e+00 -2.8768413462903197e+00 1.2407500542357290e+00 1.1705833259571889e+00 -7.2024084027178148e-01 3.0574547179827372e-01 -7.9282696187416501e+00 9.8692843651761777e+00 -2.5022479354160794e+00 -5.9790144609688767e+00 3.1470037683096876e+00 -1.5817106293176906e+00 -2.1163742544016029e+00 -5.4792205778207688e+00 2.0762523079463821e-01 4.3286940760496706e-01 -5.3399969459614338e+00 6.2561952287558797e-01 -1.4836061584633933e+00 -5.0694029054662320e+00 3.7056582399272213e+00 5.0552322735576176e+00 1.6950569708328944e+00 6.7467716345335331e+00 2.2052711697839161e+01 -1.1606468676372499e+01 4.7707555662983872e+00 4.4735124665919663e+00 1.2380733283225739e+01 -1.5864883168126612e+01 -1.2139247283057696e+01 1.3033979896895323e+01 -1.7062901823280427e+01 2.3606731123111278e+00 -2.2445177581568246e-01 
      </Row>
      <Row Index="12">
        5.7423006342583705e+00 9.3736412249514567e-01 -1.0593529360146476e+00 -2.2245474342259550e-01 4.6983471316963916e+00 2.8763531420973436e+00 6.0130553596890479e-01 1.2993885221183645e+00 1.2167628573115081e+00 3.0495250283182571e+00 7.3733041847374494e+00 -2.5022479356570706e+00 1.6855092397763599e+01 6.3162987697553490e+00 -2.7789453154467481e+00 9.4813273783419891e+00 7.3112247371676435e+00 1.1012962186431878e+01 -6.2603254429525386e+00 4.5475433238381369e+00 -2.5143770464807059e+01 -2.5750613461649312e+01 2.6850100732009738e+00 -1.3395516258651792e+01 -2.3648327876270990e+01 -1.4950925273271150e+01 -1.9433304768205172e+01 -5.3504002583966447e+01 -2.4574479386916281e+01 -2.6644224348306622e+00 -6.9083853268352584e+00 5.6821176213002262e+00 8.7044306362205816e+01 1.4499864804084217e+02 1.6166943907055689e+01 4.3361853037756497e+01 1.9755462715028253e+02 -4.0123211124019482e+00 -4.2540440720254480e-02 
      </Row>
      <Row Index="13">
        -8.9057194936785500e-01 1.0029336631839094e+01 -2.3636354986008783e+00 3.0233689938583606e+00 4.1026870082345868e+00 1.1396368651697216e+01 -1.1999490614168344e+00 -7.7429956602152150e-01 7.3486559536264195e-01 5.1715764767884309e-01 3.9260011669548671e+00 -5.9790144607695375e+00 6.3162987689814223e+00 2.7957411457383138e+01 -2.6878999134773096e-02 7.5782470125089878e+00 6.1471684132721931e+00 2.8855882345659580e+01 2.5643442575977637e+00 1.7844691733530951e+00 1.8523045890573517e+01 -5.6149189660394399e+00 3.0194500832298643e+00 -3.5948039812236374e+01 -6.7580520084250573e+00 -2.0319122898283045e+01 9.7102050649873846e+00 -9.3193270577821963e-01 -8.3655724787445820e+00 1.2458497972811756e+01 -1.1012303641233263e+01 2.2644152844952399e+00 1.3615996076504043e+01 5.2070492155726100e+01 2.4609580714008722e+01 -1.2155232156176062e+01 5.5381907439653880e+01 -6.0786561122934453e+00 2.9971648751752622e-01 
      </Row>
      <Row Index="14">
        -2.9694428445240106e+00 -6.1141999924983832e+00 6.6177185579201137e+00 9.4844828883695076e-01 -1.3071639494762346e+00 2.8695293655111982e+00 3.4887106526910117e+00 3.0062572015105831e+00 -3.5707859265011024e+00 1.7935121127278109e+00 1.3735541956676331e+01 3.1470037688426871e+00 -2.7789453157957240e+00 -2.6879000364317562e-02 1.5722676125459813e+01 3.9237515726550423e+00 -2.1327984857520859e+00 2.5773648314818729e+00 6.9166820194351732e+00 4.3553989243780915e+00 3.3143422945261509e+00 4.7954140622284491e-01 -1.9392732687766037e+00 -1.1558865198100060e+01 -2.3093297912472104e+00 -6.0215215651727201e+00 -4.5765048765067604e+00 -2.5751449357769090e+01 -3.4226961851101926e+01 -2.5828015007156062e+00 -4.7431729066269668e+00 -2.4392202825271716e+00 6.8109970783397699e+01 -1.4519406494020359e+01 9.2025217877931240e+00 4.7382491058919939e+01 -2.9646265661961426e+01 2.3858715748992021e-01 1.6138973040604673e-01 
      </Row>
      <Row Index="15">
        2.3083114073240409e+00 -6.7009369845211371e+00 2.3666643975491866e+00 3.4899374085000217e+00 1.8483308408364532e+00 5.8157743645260211e+00 1.7377379205918544e+00 5.1575693426908256e+00 -3.9132004335966428e+00 -4.7847131658684816e-01 1.1529452699451884e+01 -1.5817106286187013e+00 9.4813273761751020e+00 7.5782470111716975e+00 3.9237515732790342e+00 1.6088715634387547e+01 -7.0918852677072042e-01 1.8367326549416475e+01 6.9947946298298733e+00 1.0103709253051150e+01 -9.8433217120623144e+00 -2.0990405759394186e+01 2.3980230594370977e+00 -3.2257517157886042e+01 -1.9515061682049101e+01 -2.7983011628507466e+01 1.5706682636856275e+01 -1.0201036430507884e+01 -1.5881433292044450e+01 6.6698985569651392e-01 -3.7005168564497737e+00 2.6837148482047710e+00 7.1166799791952357e+01 4.1835774571765086e+01 3.8233658081803327e+01 5.6598987756677474e+01 2.3724017889258395e+01 -7.1464862905913717e+00 -1.3092890672383034e-01 
      </Row>
      <Row Index="16">
        2.3997086172583657e+00 1.0863070690333835e+01 -4.8647020785270882e+00 -7.1278204877556639e-01 3.8027946751255053e+00 -2.5541559936473419e+00 -1.2734519942318734e+00 -2.0660932501453555e+00 4.4905179326046500e+00 1.3621901143070474e+00 1.5268835675897732e+00 -2.1163742552504186e+00 7.3112247397029932e+00 6.1471684153245576e+00 -2.1327984856400661e+00 -7.0918852415806088e-01 1.0153170047081709e+01 -1.2667702424641902e-01 -1.0239339339979034e+01 -2.2366011504975765e+00 -1.2794036937315489e-01 -6.1930503692082350e+00 3.7344609806334348e+00 2.5165789085059149e+00 -3.6902203690102420e-01 1.1191074933414820e+01 -2.3986870697760672e+01 -4.1883095779766691e+01 -2.1910226153302695e+01 7.1756532701449309e+00 -1.2786084053854694e+01 2.0346402416517995e-01 2.1877402517189704e+01 1.1154776058746583e+02 -1.7223723456545560e+01 -1.0828162856870854e+01 1.8015662517904610e+02 8.8991276246243489e-01 3.0608187423244071e-01 
      </Row>
      <Row Index="17">
        -3.9688545725999802e-01 -1.4868679246445172e+01 5.5017939205266657e+00 4.2816766800955675e+00 3.1107367174483880e+00 3.5052342747787520e+01 1.8296171693380359e+00 6.1383738010435280e+00 -7.2681045381827403e+00 7.1785995272232554e+00 1.8633995862800056e+01 -5.4792205757975410e+00 1.1012962177899311e+01 2.8855882341820006e+01 2.5773648339475415e+00 1.8367326548996630e+01 -1.2667703311252865e-01 6.4790503240883936e+01 9.1608902237058043e+00 1.0383817504084094e+01 3.7883969851104160e+00 -1.6408148505472955e+01 2.4871764429539045e+00 -7.8396985514790543e+01 -6.4308050615775656e+01 -9.5615248999024359e+01 1.4129458249024719e+01 -1.4703135568120501e+01 -3.3974783990960972e+01 -2.1559482280943643e-01 -2.4338808401447380e+00 6.9216665294870250e+00 1.2901242200215961e+02 7.4214578361588110e+01 1.1119141103285254e+02 6.2855934405239495e+01 6.2220757163192246e+00 -1.4105032435450871e+01 1.4551874088395780e-01 
      </Row>
      <Row Index="18">
        -3.0176044472251533e+00 -8.6091192930085363e+00 3.7379506957659601e+00 4.5309669318413626e+00 -2.6835310727927606e+00 6.6451142438621673e+00 4.6766612878580105e+00 3.5137899479000794e+00 -4.9611243243035545e+00 1.2179353358030056e+00 -3.5626513439006828e+00 2.0762523159945090e-01 -6.2603254475073413e+00 2.5643442552906208e+00 6.9166820190382339e+00 6.9947946263441478e+00 -1.0239339341193894e+01 9.1608902138341364e+00 3.1609979625889075e+01 5.7856896113275820e+00 2.4084675188040702e+01 -3.6562523558490918e+00 -3.2025097241579892e+00 3.9254421183823140e-01 -3.7298087169890448e+00 -1.7888666889475431e+01 9.9362041692149234e+01 1.1608412118474551e+02 6.5525214195867292e+01 5.5742485242910824e+00 7.9117416842869517e+00 -3.2155136214112998e+00 -1.0386873485220480e+02 -9.1986206622532123e+01 2.9706798024760857e+01 3.6030788802247216e+01 -1.9167703036252007e+02 -2.3245370669518177e+00 -5.6766941277327876e-01 
      </Row>
      <Row Index="19">
        9.3403313904688900e-01 -9.1277252450676762e+00 2.6948901301664989e+00 2.7358951080495757e+00 1.6883595899848824e-01 1.8678829621177897e+00 1.5650171505341746e+00 5.7299647187026324e+00 -3.8664083843680359e+00 -1.6487198839777761e+00 1.0095841471498389e+01 4.3286940830157761e-01 4.5475433225350343e+00 1.7844691719619732e+00 4.3553989248508174e+00 1.0103709252683617e+01 -2.2366011517787401e+00 1.0383817502453894e+01 5.7856896129882802e+00 8.5975109789900515e+00 -5.2548241449641546e+00 -1.0197940032018455e+01 4.6910498819629531e-01 -3.0024653009154239e+01 -9.1299002413485830e+00 -1.7195028630922465e+01 1.0089814305996839e+01 -7.9665825566843234e+00 -1.7854166377489967e+01 -1.2526873927684412e+00 -1.2037009107958880e+00 -8.5006228121048566e-01 6.2850947922057017e+01 9.3821034388042079e-01 2.6591334258118252e+01 4.3535850269558559e+01 -2.1126046733309060e+01 -4.1876911277659623e+00 -3.0333804006095172e-02 
      </Row>
      <Row Index="20">
        -1.0805403445053514e+01 1.5118387863275714e+01 -1.6550449900131980e+01 9.7159872666487672e+00 -3.7721882977504748e+00 -7.7909062306778196e+00 -1.1944966312209431e+01 -1.5385686096715858e+00 4.4105127074288930e-01 -2.3450251713769433e+01 -3.3763964152515243e+01 -5.3399969475715778e+00 -2.5143770463663827e+01 1.8523045894252846e+01 3.3143422954141215e+00 -9.8433217110697733e+00 -1.2794036730865299e-01 3.7883969877048003e+00 2.4084675182333768e+01 -5.2548241435158438e+00 1.8986680487060502e+02 9.7992644872915839e+00 1.2320971232831495e+01 1.2695580247271295e+01 5.1064497472247446e+01 2.8719376109500175e+01 1.4823777998153327e+02 2.3355259581478006e+02 9.7411546514446584e+01 6.5362820917497331e+01 -2.9613176648399815e+01 -1.4519075139248375e+01 -4.3713061597865487e+02 -5.3510676761881939e+01 -3.1793958409628033e+01 -2.1491917944447124e+02 -9.6634653776671598e+01 -2.6731856570041828e+00 1.2759263922292594e+00 
      </Row>
      <Row Index="21">
        -1.2121616946934111e+01 1.9638415766118964e+00 1.4968919359500319e+00 -1.0588263204948731e+00 -6.4060824863518047e+00 -5.2805046386550885e+00 -1.7585191869320056e+00 -2.1891204781271441e+00 -4.1042345541301017e+00 -1.4970148893667812e-01 8.9979136908937090e+00 6.2561952541039112e-01 -2.5750613460764093e+01 -5.6149189721912478e+00 4.7954140569750336e-01 -2.0990405766579286e+01 -6.1930503612945893e+00 -1.6408148537095371e+01 -3.6562523682875292e+00 -1.0197940036759992e+01 9.7992644835683507e+00 1.2518189678764860e+02 -1.3003128030383591e+01 -7.2097301047456108e+00 6.9323165378625077e+01 3.1725977790183535e+01 -6.3485257362495773e+00 3.5638118220604760e+01 -3.8083260695053582e+01 -1.1018225262693747e+01 2.7382245323860673e+01 -1.9267951381032997e+01 4.5485075540129415e+01 -4.7549775053149102e+02 -2.3615632687751074e+01 2.7925505281346549e+01 -6.3146328793535724e+02 1.1068081261070816e+01 8.0921731994899571e-01 
      </Row>
      <Row Index="22">
        1.6006516953871959e+00 3.6545369289616874e+00 -4.0157137267583920e+00 1.2356599447458336e+00 1.3882745715859088e+00 -5.4945519478981453e-01 -1.6316436245336590e+00 -4.6849242715959249e-02 1.8533890448421886e+00 -2.6673359180062945e+00 -2.8954643634864539e+00 -1.4836061590194403e+00 2.6850100737935207e+00 3.0194500846359915e+00 -1.9392732685225056e+00 2.3980230609846540e+00 3.7344609798835240e+00 2.4871764486969710e+00 -3.2025097229232102e+00 4.6910498921336785e-01 1.2320971232354708e+01 -1.3003128031565033e+01 5.5232064128012830e+00 4.0023378877174931e-01 -3.8894016933987881e+00 -4.6037590120042804e-01 2.8696718617832673e+00 1.2616768230745228e+00 1.5546804293219352e+00 9.7400079554840975e+00 -9.3418823253301397e+00 1.2121763924763986e+00 -2.9508944559751697e+01 7.0319542625745399e+01 -2.6227019392883975e+00 -2.5593300646120916e+01 9.9745073936647756e+01 -2.3128757831932005e+00 1.3040744134611842e-01 
      </Row>
      <Row Index="23">
        7.9182852995814983e+00 2.2372702891919914e+01 -2.5798844317088424e+01 -7.3910429683653547e+00 -4.4059743213849600e+00 1.5484549305863311e+01 6.9138995459293255e+00 -2.7879726855468164e+01 2.2158292500747166e+01 4.3216210970551060e+01 -5.5134756890015211e+01 -5.0694029105144693e+00 -1.3395516260061299e+01 -3.5948039803035499e+01 -1.1558865203639925e+01 -3.2257517158868666e+01 2.5165789099085241e+00 -7.8396985503863107e+01 3.9254420843690241e-01 -3.0024653010692283e+01 1.2695580277276463e+01 -7.2097301163328567e+00 4.0023379358143529e-01 3.7049334080351093e+02 -4.0350231229990406e+01 5.1238645548719830e+01 1.7297822020563899e+01 1.3595253405938726e+02 1.6380296088751658e+02 2.1692682166753777e+01 7.5461597117277961e+00 5.6004307881721456e+00 -6.5152517678927757e+02 9.8008865829162289e+01 -1.0906774337270701e+02 -2.3561061453952345e+02 1.1423888158656121e+02 2.4843731891958754e+01 -8.3701695498197637e-01 
      </Row>
      <Row Index="24">
        -8.7103566465032003e+00 4.2165762852215295e+01 -5.3157131128082256e+00 2.5475541465487339e+00 -4.1504836335518167e+00 -7.1874277119346402e+01 -1.4247654024206383e+01 -3.5376595371763528e+00 5.2843534869678876e+00 -4.0994482301315145e+01 -2.1377549299823961e+01 3.7056582389747525e+00 -2.3648327859350104e+01 -6.7580520063976905e+00 -2.3093297923603586e+00 -1.9515061682582822e+01 -3.6902201807702506e-01 -6.4308050630436583e+01 -3.7298087401971429e+00 -9.1299002441684731e+00 5.1064497459461194e+01 6.9323165330497787e+01 -3.8894016850844721e+00 -4.0350231224184029e+01 1.8905801218646164e+02 1.6495589143536168e+02 3.6988880240654467e+01 8.1223459004261500e+01 3.7743270282917393e+01 1.8066862407235764e+01 -1.9551423357983708e+00 -2.1660663863872852e+01 -1.0767748200305681e+02 -3.7240612845077658e+02 -1.6065651842418518e+02 -9.1685190870781753e+01 -3.3246484103001842e+02 1.2514914419311099e+01 5.8475191993615883e-01 
      </Row>
      <Row Index="25">
        -2.3552684106519735e+00 5.7534729765558154e+01 -1.2198243972911655e+01 -3.3414842644702389e+00 4.0459419351810055e-01 -8.4931982121108490e+01 -1.2381515664156950e+01 -1.0760197244088246e+01 1.6218550028627106e+01 -3.2391081145079056e+01 -3.1168564511978097e+01 5.0552322695786884e+00 -1.4950925251943488e+01 -2.0319122889971368e+01 -6.0215215681313339e+00 -2.7983011624505458e+01 1.1191074952477939e+01 -9.5615248993471596e+01 -1.7888666910216813e+01 -1.7195028632148990e+01 2.8719376103063951e+01 3.1725977720977234e+01 -4.6037588976672339e-01 5.1238645559671639e+01 1.6495589139332102e+02 2.0657267822273124e+02 -1.0060418073911393e+01 2.2592978453179892e+01 4.6668525610971415e+01 2.0675465460867461e+01 -1.6482230422539004e+01 -1.7042923377594722e+01 -1.9075936287948940e+02 -1.0425936770525398e+02 -2.2426135687501258e+02 -1.4493058107870954e+02 7.8367172200449360e+01 2.0932242980960780e+01 3.3027118450670717e-01 
      </Row>
      <Row Index="26">
        -3.2132374220586826e+00 -1.2440725777752448e+01 -1.0342039895619109e+01 1.6867424192838712e+01 -5.6283399235704934e+00 6.3386121486291813e+00 1.5032843881898543e+00 6.1540170268980887e+00 -6.5473222957242569e+00 -2.0062494527397462e+01 -8.6460384295693572e+01 1.6950569716031225e+00 -1.9433304783374751e+01 9.7102050599560243e+00 -4.5765048806281357e+00 1.5706682623337798e+01 -2.3986870699366854e+01 1.4129458214712940e+01 9.9362041689838236e+01 1.0089814298376588e+01 1.4823778001540882e+02 -6.3485257047141772e+00 2.8696718605065712e+00 1.7297822044693049e+01 3.6988880319102279e+01 -1.0060417998292820e+01 5.7706675948820487e+02 7.0292251656425185e+02 4.0587153059572984e+02 4.5483637807246168e+01 2.9074261423495841e+01 -1.2009988458660057e+01 -6.8555671002845384e+02 -2.6690129165032130e+02 3.0101139789681071e+01 1.4798508177516896e+02 -5.7741984926425459e+02 -4.5237600055560030e+00 -2.4189803015703912e+00 
      </Row>
      <Row Index="27">
        -6.8147330887304634e+00 -7.0238656703507161e+00 -2.3105067841389427e+01 1.3450352430246539e+01 -1.5188066483393442e+01 7.9389356471847350e+00 -5.5246030836253794e+00 -6.5951200896868158e+00 2.9122434924147456e-01 -2.8634541648985305e+01 -1.7518001929999471e+02 6.7467716340693755e+00 -5.3504002602436913e+01 -9.3193270914434834e-01 -2.5751449364078326e+01 -1.0201036450465296e+01 -4.1883095775939708e+01 -1.4703135621473848e+01 1.1608412116994430e+02 -7.9665825676275546e+00 2.3355259586469606e+02 3.5638118261993498e+01 1.2616768237122074e+00 1.3595253406502923e+02 8.1223459138953572e+01 2.2592978586163646e+01 7.0292251651420133e+02 1.0282689298120583e+03 6.6178829559495125e+02 6.2458536923830707e+01 6.5734647894126056e+01 -4.8778256782184997e+00 -1.2862550907547450e+03 -6.2196151655442418e+02 -3.1140387020097478e+01 -1.2959538183014183e+02 -1.1041193671614426e+03 4.1657730147254526e+00 -3.0929900859055532e+00 
      </Row>
      <Row Index="28">
        7.7024678403802227e+00 6.7178788162262038e+00 -1.4795733608073533e+01 -1.3900361825478399e+01 -7.7704406947413815e+00 9.2505313518813637e-01 -3.3233841190099156e-01 -1.6172804461914268e+01 1.6569281564832863e+01 -5.3956150121399560e+00 -1.7901133059658923e+02 2.2052711693971048e+01 -2.4574479395107574e+01 -8.3655724733052921e+00 -3.4226961857206334e+01 -1.5881433300916122e+01 -2.1910226150031942e+01 -3.3974784005651600e+01 6.5525214186873427e+01 -1.7854166382976203e+01 9.7411546556278154e+01 -3.8083260686360461e+01 1.5546804330615771e+00 1.6380296088637454e+02 3.7743270336548107e+01 4.6668525660731177e+01 4.0587153055625504e+02 6.6178829558526445e+02 6.1118051758726983e+02 2.2924900921594144e+01 4.6144804250343896e+01 3.3240318134789874e+01 -1.0167424004259749e+03 -1.5873307207311223e+02 -1.0260485540331604e+02 -2.3478703476388864e+02 -3.2780705699148888e+02 1.1876539365843573e+01 -3.6505490248033192e+00 
      </Row>
      <Row Index="29">
        -5.4888853577801910e-01 1.9671796537293275e+01 -1.7675408205662052e+01 8.4329570117796493e+00 2.4801130912231564e+00 -3.3677509821807234e+00 -5.3331792387718053e+00 -2.6216401124632256e+00 6.1281771226199169e+00 -5.8112716060315108e+00 -7.6498161388983590e+00 -1.1606468677839331e+01 -2.6644224324221000e+00 1.2458497976307854e+01 -2.5828015001799827e+00 6.6698985834651836e-01 7.1756532709068734e+00 -2.1559481409485670e-01 5.5742485227351608e+00 -1.2526873909486689e+00 6.5362820916005745e+01 -1.1018225266648727e+01 9.7400079562264708e+00 2.1692682150474024e+01 1.8066862398376585e+01 2.0675465448006996e+01 4.5483637792622119e+01 6.2458536897631767e+01 2.2924900898868259e+01 4.8369909476921009e+01 -2.7470975294692352e+01 -1.0813953510943570e+01 -2.0212377242548558e+02 6.2272003727267474e+01 -2.1461416222140684e+01 -1.1833432692612841e+02 8.6999655292914767e+01 -7.1675662308191335e-01 5.7744987421934701e-01 
      </Row>
      <Row Index="30">
        -1.0868500746354570e+00 -1.3923805330849877e+01 9.0235036146190044e+00 -2.1773527574236371e+00 -4.0870605319844815e+00 6.3138493830148406e+00 2.9903139841498425e+00 -2.5252198086355937e-01 -5.2759788878273381e+00 2.4175997354287082e+00 -9.7357671483454098e+00 4.7707555678420679e+00 -6.9083853313820320e+00 -1.1012303645247135e+01 -4.7431729075048086e+00 -3.7005168618009310e+00 -1.2786084053426039e+01 -2.4338808576688358e+00 7.9117416821269773e+00 -1.2037009138290629e+00 -2.9613176642522845e+01 2.7382245335334410e+01 -9.3418823261698218e+00 7.5461597216145648e+00 -1.9551423027509369e+00 -1.6482230386171093e+01 2.9074261423625146e+01 6.5734647907378104e+01 4.6144804264235887e+01 -2.7470975291870435e+01 3.5790732215572049e+01 4.5137620202791053e+00 -2.0037946873054477e+00 -2.0569235638977244e+02 2.0651237056442817e+01 5.1290143357973797e+01 -3.1631394315612340e+02 1.2252037857012121e+00 -7.0800640712638518e-01 
      </Row>
      <Row Index="31">
        2.7436150865078028e+00 -1.6910928529994151e+00 5.5662947148500859e+00 -8.0045156136741582e+00 1.2376654183866491e+00 6.5418380519824204e+00 1.9877914850652854e+00 -2.3835432022912122e+00 4.4357635493887093e-01 2.4884489423527887e+00 -1.3730421711106434e+01 4.4735124662519663e+00 5.6821176198720478e+00 2.2644152852256489e+00 -2.4392202828220242e+00 2.6837148486181812e+00 2.0346402227137306e-01 6.9216665333647356e+00 -3.2155136187066988e+00 -8.5006228086431534e-01 -1.4519075135921977e+01 -1.9267951378602987e+01 1.2121763920993924e+00 5.6004307883268343e+00 -2.1660663868259217e+01 -1.7042923386431681e+01 -1.2009988449835937e+01 -4.8778256626266492e+00 3.3240318142031100e+01 -1.0813953510799145e+01 4.5137620230777458e+00 1.9624542338609320e+01 4.2422909930467032e+00 7.3325663822341184e+01 2.5105210623353873e+00 -2.1814335255559554e+00 9.2624736917614456e+01 -3.0485958359305441e+00 -3.3519442449678089e-01 
      </Row>
      <Row Index="32">
        -3.4344630126943230e+00 -8.5054050217325766e+01 1.0006016568167979e+02 -1.1214767252487036e+01 1.7531701938002300e+01 7.0603182882259716e+00 2.2445098870023685e+01 5.5658414875271319e+01 -5.6552101975551523e+01 4.0602148689131354e+00 3.1278825100872507e+02 1.2380733297067650e+01 8.7044306366724413e+01 1.3615996050386457e+01 6.8109970793434513e+01 7.1166799798386222e+01 2.1877402505429899e+01 1.2901242199655098e+02 -1.0386873482290116e+02 6.2850947925134733e+01 -4.3713061605181792e+02 4.5485075540815046e+01 -2.9508944571008271e+01 -6.5152517670729480e+02 -1.0767748207923660e+02 -1.9075936293243234e+02 -6.8555670986821451e+02 -1.2862550905963069e+03 -1.0167424003126553e+03 -2.0212377247044969e+02 -2.0037946443439978e+00 4.2422910081459122e+00 2.8114644976829104e+03 2.3151280789127759e+02 3.0505019537928297e+02 1.1194619778992037e+03 4.7687136188313411e+02 -3.6140919635582236e+01 2.7901009292784487e+00 
      </Row>
      <Row Index="33">
        5.5534546989997722e+01 4.8112076371802473e+01 -3.5055710558415285e+01 -1.9763719232667569e+01 5.0679157518387655e+01 4.2682235100651610e+01 6.3093435306450374e+00 -1.1040154300638847e+01 4.7071027267651687e+01 4.8804625675931334e+01 6.7001103571073060e+00 -1.5864883184086423e+01 1.4499864804970156e+02 5.2070492193894893e+01 -1.4519406491185578e+01 4.1835774620779148e+01 1.1154776054698121e+02 7.4214578563103714e+01 -9.1986206551103876e+01 9.3821037332357804e-01 -5.3510676758076528e+01 -4.7549775057574971e+02 7.0319542623316849e+01 9.8008865785389872e+01 -3.7240612879923879e+02 -1.0425936815407266e+02 -2.6690129146485685e+02 -6.2196151634089961e+02 -1.5873307202320785e+02 6.2272003701240237e+01 -2.0569235633070937e+02 7.3325663846721241e+01 2.3151280791857835e+02 2.9686405412999620e+03 7.1359540539814077e+00 -5.9483421353827268e+01 4.1811915897487579e+03 -2.3704634272484842e+01 2.4341288052070587e-01 
      </Row>
      <Row Index="34">
        -7.4067513481196556e-01 -6.4398579973662322e+01 1.5580769448336582e+01 1.4255837746358225e+01 -9.6638798416547900e-01 8.1623893331595127e+01 1.1052794482612228e+01 1.8033015856574792e+01 -2.4235821257911198e+01 2.4315202575129774e+01 6.0838881004795013e+01 -1.2139247277289897e+01 1.6166943883974398e+01 2.4609580702054245e+01 9.2025217920637488e+00 3.8233658076327060e+01 -1.7223723476421569e+01 1.1119141101907053e+02 2.9706798045887950e+01 2.6591334258956866e+01 -3.1793958408968820e+01 -2.3615632609244003e+01 -2.6227019525962199e+00 -1.0906774338298003e+02 -1.6065651836803443e+02 -2.2426135686065129e+02 3.0101139870476800e+01 -3.1140386881546988e+01 -1.0260485535138309e+02 -2.1461416238723643e+01 2.0651237096253794e+01 2.5105210521912866e+00 3.0505019533780643e+02 7.1359535584294065e+00 2.7478526201212378e+02 2.1956999670312075e+02 -2.3819329565372175e+02 -2.7845676295442264e+01 -2.0620538630858176e-01 
      </Row>
      <Row Index="35">
        9.1720845718964483e-01 -7.9341585134637910e+01 5.8739239614949383e+01 1.7595647026104189e+00 4.1850984601464347e+00 3.1117076457002440e+01 3.1250780638762762e+01 3.3820107673636358e+01 -4.1066733835374521e+01 1.9319509729645915e+01 1.1743330510146961e+02 1.3033979906244213e+01 4.3361853019764339e+01 -1.2155232179186896e+01 4.7382491057039942e+01 5.6598987742774462e+01 -1.0828162868583377e+01 6.2855934362127300e+01 3.6030788823449598e+01 4.3535850260057380e+01 -2.1491917943702151e+02 2.7925505312892341e+01 -2.5593300653629996e+01 -2.3561061442468366e+02 -9.1685190840519226e+01 -1.4493058103362193e+02 1.4798508190505549e+02 -1.2959538161340265e+02 -2.3478703459681856e+02 -1.1833432693207351e+02 5.1290143388476736e+01 -2.1814335232589031e+00 1.1194619775877698e+03 -5.9483421585632868e+01 2.1956999663823649e+02 1.0505914699257514e+03 -2.3470487220545022e+02 -1.4917209940136530e+01 -1.6994149822911435e+00 
      </Row>
      <Row Index="36">
        7.6615127577847772e+01 1.3682438224390754e+02 -5.4001340893168617e+01 -3.6746686306275194e+01 7.4540295680315637e+01 -3.5927141858652249e+01 -8.1497794755180166e+00 -2.7705106215932005e+01 8.3417735093440854e+01 2.8487841003150436e+01 3.5791167231062389e+00 -1.7062901849782946e+01 1.9755462719256741e+02 5.5381907503348430e+01 -2.9646265658751759e+01 2.3724017968378227e+01 1.8015662514333167e+02 6.2220760191039517e+00 -1.9167703028292561e+02 -2.1126046689879622e+01 -9.6634653796161331e+01 -6.3146328808540477e+02 9.9745073945633010e+01 1.1423888152815123e+02 -3.3246484159946306e+02 7.8367171537845181e+01 -5.7741984908144673e+02 -1.1041193670248008e+03 -3.2780705699093312e+02 8.6999655262194437e+01 -3.1631394311135131e+02 9.2624736965368839e+01 4.7687136205395365e+02 4.1811915903132731e+03 -2.3819329493893230e+02 -2.3470487185917085e+02 6.2478201423989922e+03 -1.3908876844309603e+01 1.6252347897790340e+00 
      </Row>
      <Row Index="37">
        -2.7630618065806800e-01 3.1371966933527755e+00 -1.8667765284259588e+00 -2.3620758727961864e+00 -8.8196399591455066e-01 -3.8601483854766059e+00 6.0751333240791894e-01 -2.2591842305522594e+00 2.8776451369589111e+00 3.8972127414788389e+00 -6.0036447001529076e+00 2.3606731118591462e+00 -4.0123211108247645e+00 -6.0786561115702398e+00 2.3858715673608799e-01 -7.1464862908853579e+00 8.8991276447456635e-01 -1.4105032436373335e+01 -2.3245370692937044e+00 -4.1876911283916112e+00 -2.6731856554566278e+00 1.1068081254436478e+01 -2.3128757818685863e+00 2.4843731895677578e+01 1.2514914417689214e+01 2.0932242984114975e+01 -4.5237600132507509e+00 4.1657730042628813e+00 1.1876539364070737e+01 -7.1675662063524470e-01 1.2252037816800332e+00 -3.0485958351997930e+00 -3.6140919642564697e+01 -2.3704634230068869e+01 -2.7845676300764978e+01 -1.4917209954043525e+01 -1.3908876778453987e+01 6.4856953537849282e+00 -4.2534932129872360e-02 
      </Row>
      <Row Index="38">
        -1.4107734860677601e-01 2.8920913623159961e-01 -1.9750665070193740e-01 1.0540511025936139e-01 4.8548419222180783e-02 -1.5737716627056386e-01 -1.9274568164616301e-01 2.7774002003579934e-02 -1.4977275444247873e-02 -1.9715919710383512e-01 7.6345447198863847e-01 -2.2445177581458797e-01 -4.2540440585219663e-02 2.9971648754323077e-01 1.6138973046041372e-01 -1.3092890662604192e-01 3.0608187427842570e-01 1.4551874105812601e-01 -5.6766941282536054e-01 -3.0333803943044774e-02 1.2759263918651258e+00 8.0921731976296463e-01 1.3040744134907128e-01 -8.3701695536883758e-01 5.8475191956369765e-01 3.3027118417707868e-01 -2.4189803018729314e+00 -3.0929900868101390e+00 -3.6505490254859314e+00 5.7744987408004267e-01 -7.0800640717537755e-01 -3.3519442446013681e-01 2.7901009313548442e+00 2.4341288194533361e-01 -2.0620538591488558e-01 -1.6994149810980670e+00 1.6252347916123657e+00 -4.2534932174386253e-02 5.1324967618546526e-02 
      </Row>
    </InverseHessian>
  </Weights>
</MethodSetup>
