<?xml version="1.0"?>
<MethodSetup Method="MLP::MLP">
  <GeneralInfo>
    <Info name="TMVA Release" value="4.1.2 [262402]"/>
    <Info name="ROOT Release" value="5.32/00 [335872]"/>
    <Info name="Creator" value="tomc"/>
    <Info name="Date" value="Thu Jan 10 14:13:59 2013"/>
    <Info name="Host" value="Linux lxbuild168.cern.ch 2.6.18-308.1.1.el5 #1 SMP Wed Mar 7 19:25:07 CET 2012 x86_64 x86_64 x86_64 GNU/Linux"/>
    <Info name="Dir" value="/user_mnt/user/tomc/QGTagger/training/f/11/aKDE03"/>
    <Info name="Training events" value="222638"/>
    <Info name="TrainingTime" value="8.82098288e+02"/>
    <Info name="AnalysisType" value="Classification"/>
  </GeneralInfo>
  <Options>
    <Option name="NCycles" modified="No">500</Option>
    <Option name="HiddenLayers" modified="No">N,N-1</Option>
    <Option name="NeuronType" modified="No">sigmoid</Option>
    <Option name="RandomSeed" modified="No">1</Option>
    <Option name="EstimatorType" modified="No">MSE</Option>
    <Option name="NeuronInputType" modified="No">sum</Option>
    <Option name="V" modified="Yes">False</Option>
    <Option name="VerbosityLevel" modified="No">Default</Option>
    <Option name="VarTransform" modified="Yes">N</Option>
    <Option name="H" modified="Yes">False</Option>
    <Option name="CreateMVAPdfs" modified="Yes">True</Option>
    <Option name="IgnoreNegWeightsInTraining" modified="No">False</Option>
    <Option name="TrainingMethod" modified="No">BP</Option>
    <Option name="LearningRate" modified="No">2.000000e-02</Option>
    <Option name="DecayRate" modified="No">1.000000e-02</Option>
    <Option name="TestRate" modified="Yes">3</Option>
    <Option name="EpochMonitoring" modified="No">False</Option>
    <Option name="Sampling" modified="No">1.000000e+00</Option>
    <Option name="SamplingEpoch" modified="No">1.000000e+00</Option>
    <Option name="SamplingImportance" modified="No">1.000000e+00</Option>
    <Option name="SamplingTraining" modified="No">True</Option>
    <Option name="SamplingTesting" modified="No">False</Option>
    <Option name="ResetStep" modified="No">50</Option>
    <Option name="Tau" modified="No">3.000000e+00</Option>
    <Option name="BPMode" modified="No">sequential</Option>
    <Option name="BatchSize" modified="No">-1</Option>
    <Option name="ConvergenceImprove" modified="No">1.000000e-30</Option>
    <Option name="ConvergenceTests" modified="No">-1</Option>
    <Option name="UseRegulator" modified="Yes">True</Option>
    <Option name="UpdateLimit" modified="No">10000</Option>
    <Option name="CalculateErrors" modified="No">False</Option>
    <Option name="WeightRange" modified="No">1.000000e+00</Option>
  </Options>
  <Variables NVar="4">
    <Variable VarIndex="0" Expression="axis1" Label="axis1" Title="axis1" Unit="" Internal="axis1" Type="F" Min="-6.60753518e-04" Max="3.22167724e-01"/>
    <Variable VarIndex="1" Expression="axis2" Label="axis2" Title="axis2" Unit="" Internal="axis2" Type="F" Min="-5.33125771e-04" Max="2.02082530e-01"/>
    <Variable VarIndex="2" Expression="mult" Label="mult" Title="mult" Unit="" Internal="mult" Type="F" Min="8.15942049e-01" Max="3.68159409e+01"/>
    <Variable VarIndex="3" Expression="ptD" Label="ptD" Title="ptD" Unit="" Internal="ptD" Type="F" Min="1.99741453e-01" Max="1.00324583e+00"/>
  </Variables>
  <Spectators NSpec="0"/>
  <Classes NClass="2">
    <Class Name="Signal" Index="0"/>
    <Class Name="Background" Index="1"/>
  </Classes>
  <Transformations NTransformations="1">
    <Transform Name="Normalize">
      <Selection>
        <Input NInputs="4">
          <Input Type="Variable" Label="axis1" Expression="axis1"/>
          <Input Type="Variable" Label="axis2" Expression="axis2"/>
          <Input Type="Variable" Label="mult" Expression="mult"/>
          <Input Type="Variable" Label="ptD" Expression="ptD"/>
        </Input>
        <Output NOutputs="4">
          <Output Type="Variable" Label="axis1" Expression="axis1"/>
          <Output Type="Variable" Label="axis2" Expression="axis2"/>
          <Output Type="Variable" Label="mult" Expression="mult"/>
          <Output Type="Variable" Label="ptD" Expression="ptD"/>
        </Output>
      </Selection>
      <Class ClassIndex="0">
        <Ranges>
          <Range Index="0" Min="3.0770981684327126e-03" Max="3.2071015238761902e-01"/>
          <Range Index="1" Min="2.6273017283529043e-04" Max="1.8822214007377625e-01"/>
          <Range Index="2" Min="1.8159420490264893e+00" Max="3.6815940856933594e+01"/>
          <Range Index="3" Min="1.9974145293235779e-01" Max="9.6171575784683228e-01"/>
        </Ranges>
      </Class>
      <Class ClassIndex="1">
        <Ranges>
          <Range Index="0" Min="-6.6075351787731051e-04" Max="3.2216772437095642e-01"/>
          <Range Index="1" Min="-5.3312577074393630e-04" Max="2.0208252966403961e-01"/>
          <Range Index="2" Min="8.1594204902648926e-01" Max="3.3815940856933594e+01"/>
          <Range Index="3" Min="2.0705896615982056e-01" Max="1.0032458305358887e+00"/>
        </Ranges>
      </Class>
      <Class ClassIndex="2">
        <Ranges>
          <Range Index="0" Min="-6.6075351787731051e-04" Max="3.2216772437095642e-01"/>
          <Range Index="1" Min="-5.3312577074393630e-04" Max="2.0208252966403961e-01"/>
          <Range Index="2" Min="8.1594204902648926e-01" Max="3.6815940856933594e+01"/>
          <Range Index="3" Min="1.9974145293235779e-01" Max="1.0032458305358887e+00"/>
        </Ranges>
      </Class>
    </Transform>
  </Transformations>
  <MVAPdfs>
    <PDF Name="MLP_PDFSig" MinNSmooth="0" MaxNSmooth="0" InterpolMethod="5" KDE_type="1" KDE_iter="2" KDE_border="1" KDE_finefactor="3.0000001192092896e-01">
      <Histogram Name="MLP_tr_S_original" NBins="250" XMin="-9.4257362186908722e-02" XMax="8.5789227485656738e-01" HasEquidistantBins="1">
        0.00000000e+00 0.00000000e+00 0.00000000e+00 0.00000000e+00 0.00000000e+00 0.00000000e+00 0.00000000e+00 0.00000000e+00 0.00000000e+00 0.00000000e+00 0.00000000e+00 0.00000000e+00 0.00000000e+00 0.00000000e+00 0.00000000e+00 5.56290941e-03 0.00000000e+00 0.00000000e+00 0.00000000e+00 0.00000000e+00 0.00000000e+00 0.00000000e+00 0.00000000e+00 0.00000000e+00 0.00000000e+00 5.56290941e-03 0.00000000e+00 1.66887287e-02 1.66887287e-02 1.11258188e-02 5.56290941e-03 1.11258188e-02 1.66887287e-02 5.00661880e-02 1.22384012e-01 1.83576018e-01 2.44768023e-01 3.50463301e-01 5.34039319e-01 6.89800799e-01 8.06621909e-01 9.29005921e-01 9.79072094e-01 1.06251574e+00 1.14595938e+00 1.12370777e+00 1.34066117e+00 1.47417104e+00 1.54092598e+00 1.56874049e+00 1.60211802e+00 1.76900530e+00 1.80794561e+00 1.82463431e+00 1.96370709e+00 2.05827665e+00 1.98039579e+00 2.39205122e+00 2.10277987e+00 2.33085918e+00 2.48105764e+00 2.64794493e+00 2.76476598e+00 2.83708382e+00 2.66463375e+00 2.87046146e+00 2.96503091e+00 3.15973258e+00 3.19867301e+00 3.13748097e+00 2.97615671e+00 3.05403733e+00 3.22648764e+00 3.48794436e+00 3.17642140e+00 2.94834208e+00 3.30993128e+00 3.17642140e+00 3.38781190e+00 3.23761344e+00 3.44344115e+00 3.38224912e+00 3.09297776e+00 3.14860678e+00 3.25430202e+00 3.12635517e+00 3.10966659e+00 3.15973258e+00 2.89827585e+00 3.03734875e+00 2.88158727e+00 3.09297776e+00 2.79814363e+00 2.93165326e+00 2.91496468e+00 2.70357418e+00 2.82595801e+00 2.65350795e+00 2.67575955e+00 2.84820962e+00 2.73695159e+00 2.45324326e+00 2.69801116e+00 2.58675289e+00 2.65907073e+00 2.23628974e+00 2.47549486e+00 2.34754777e+00 1.99152160e+00 2.45324326e+00 2.18622351e+00 1.96926999e+00 2.17509770e+00 2.10277987e+00 2.04715085e+00 2.09165406e+00 1.88582635e+00 1.88582635e+00 1.86357474e+00 1.66330993e+00 1.74119067e+00 1.80238271e+00 1.58542919e+00 1.73562777e+00 1.52980018e+00 1.60768092e+00 1.62436962e+00 1.35734999e+00 1.45748234e+00 1.54092598e+00 1.56317759e+00 1.25721753e+00 1.28503215e+00 1.30172086e+00 1.35734999e+00 1.27390635e+00 1.19602561e+00 1.17377388e+00 9.62383389e-01 1.16264808e+00 1.10145617e+00 1.04582703e+00 1.11258197e+00 9.40131724e-01 1.09589314e+00 9.84634995e-01 1.00688660e+00 9.34568822e-01 8.78939748e-01 8.62250984e-01 8.45562279e-01 9.51257527e-01 7.56555736e-01 7.28741169e-01 7.34304070e-01 8.95628452e-01 7.06489503e-01 7.00926602e-01 7.84370244e-01 6.95363700e-01 6.61986232e-01 7.23178267e-01 5.61853886e-01 6.78674996e-01 6.00794256e-01 5.95231354e-01 6.61986232e-01 5.61853886e-01 4.33906943e-01 5.67416787e-01 5.89668393e-01 5.06224751e-01 5.06224751e-01 5.11787713e-01 4.28344041e-01 5.00661850e-01 3.89403671e-01 3.78277868e-01 4.00529504e-01 3.00397128e-01 3.00397128e-01 3.33774567e-01 2.94834197e-01 2.44768023e-01 3.17085862e-01 2.78145492e-01 3.44900399e-01 2.39205107e-01 2.67019659e-01 2.28079289e-01 1.66887283e-01 2.05827653e-01 2.05827653e-01 2.50330925e-01 2.11390570e-01 1.33509830e-01 1.39072746e-01 1.55761465e-01 1.50198564e-01 1.55761465e-01 1.00132376e-01 8.34436417e-02 9.45694670e-02 1.11258194e-01 1.05695285e-01 1.05695285e-01 5.00661880e-02 1.00132376e-01 8.34436417e-02 5.00661880e-02 8.90065506e-02 7.78807327e-02 6.11920059e-02 3.33774574e-02 5.56290969e-02 5.00661880e-02 5.00661880e-02 3.89403664e-02 3.33774574e-02 6.67549148e-02 3.33774574e-02 4.45032753e-02 3.89403664e-02 2.78145485e-02 3.33774574e-02 5.56290941e-03 3.33774574e-02 0.00000000e+00 1.11258188e-02 1.66887287e-02 3.33774574e-02 1.11258188e-02 2.22516377e-02 1.66887287e-02 0.00000000e+00 1.66887287e-02 5.56290941e-03 1.11258188e-02 1.66887287e-02 0.00000000e+00 5.56290941e-03 0.00000000e+00 5.56290941e-03 5.56290941e-03 5.56290941e-03 0.00000000e+00 0.00000000e+00 0.00000000e+00 0.00000000e+00 0.00000000e+00 
      </Histogram>
    </PDF>
    <PDF Name="MLP_PDFBkg" MinNSmooth="0" MaxNSmooth="0" InterpolMethod="5" KDE_type="1" KDE_iter="2" KDE_border="1" KDE_finefactor="3.0000001192092896e-01">
      <Histogram Name="MLP_tr_B_original" NBins="250" XMin="-9.4257362186908722e-02" XMax="8.5789227485656738e-01" HasEquidistantBins="1">
        1.49661861e-03 0.00000000e+00 0.00000000e+00 0.00000000e+00 0.00000000e+00 0.00000000e+00 0.00000000e+00 0.00000000e+00 0.00000000e+00 2.99323723e-03 1.49661861e-03 1.49661861e-03 0.00000000e+00 1.49661861e-03 0.00000000e+00 1.49661861e-03 4.48985584e-03 1.49661861e-03 7.48309307e-03 1.49661861e-03 8.97971168e-03 1.49661861e-03 4.48985584e-03 5.98647445e-03 5.98647445e-03 5.98647445e-03 1.04763303e-02 1.79594234e-02 1.19729489e-02 1.49661861e-02 2.54425164e-02 3.74154635e-02 1.25715956e-01 3.84630978e-01 6.57015562e-01 9.48856175e-01 1.43825042e+00 1.95308721e+00 2.31826210e+00 2.74629521e+00 3.06357837e+00 3.25514531e+00 3.58589816e+00 3.65923238e+00 3.80141115e+00 3.76399565e+00 3.81188750e+00 3.76399565e+00 3.82386041e+00 3.93461037e+00 3.89719486e+00 3.89420152e+00 3.92413402e+00 4.04835320e+00 4.07678890e+00 3.95107317e+00 4.14264011e+00 4.21447802e+00 4.19951153e+00 4.34019375e+00 4.36414003e+00 4.16059971e+00 4.37311935e+00 4.30427504e+00 4.29230213e+00 4.42550135e+00 4.24291372e+00 4.10372829e+00 4.28781223e+00 4.21896791e+00 4.07529259e+00 3.92114067e+00 4.08127880e+00 3.83433676e+00 3.77147889e+00 3.72957349e+00 3.59787107e+00 3.44072604e+00 3.48263144e+00 3.26711845e+00 3.24616575e+00 3.09800053e+00 3.03813577e+00 3.04711533e+00 2.89146709e+00 2.83908558e+00 2.68792701e+00 2.75078487e+00 2.44996452e+00 2.52329898e+00 2.36316085e+00 2.41254926e+00 2.29730964e+00 2.18655968e+00 2.16710377e+00 2.03390455e+00 1.92465150e+00 1.79145241e+00 1.76301670e+00 1.85730362e+00 1.80043221e+00 1.62233460e+00 1.72111142e+00 1.52206111e+00 1.53852391e+00 1.50410163e+00 1.42478085e+00 1.32001758e+00 1.29158187e+00 1.25416636e+00 1.17185235e+00 1.13294029e+00 1.19430161e+00 1.09253156e+00 9.95251358e-01 1.03416348e+00 9.47359562e-01 8.81508350e-01 8.85998189e-01 8.62052321e-01 7.78241694e-01 7.90214598e-01 7.60282218e-01 7.63275504e-01 7.31846511e-01 6.67491913e-01 6.39056146e-01 6.55518949e-01 5.73204935e-01 5.61231971e-01 4.89394277e-01 4.84904408e-01 5.11843562e-01 5.19326627e-01 4.53475446e-01 4.77421343e-01 4.71434861e-01 3.92114073e-01 3.84630978e-01 4.35516000e-01 3.63678306e-01 3.89120847e-01 3.44222277e-01 3.41229051e-01 3.47215503e-01 3.11296672e-01 3.05310190e-01 2.67894715e-01 2.84357518e-01 2.87350774e-01 2.45445445e-01 2.42452204e-01 2.22996175e-01 2.22996175e-01 2.21499547e-01 2.08029985e-01 1.76600993e-01 1.90070555e-01 1.76600993e-01 1.88573942e-01 1.64628044e-01 1.46668628e-01 1.51158482e-01 1.60138190e-01 1.21226102e-01 1.42178759e-01 1.46668628e-01 1.15239628e-01 1.28709197e-01 1.00273445e-01 1.21226102e-01 1.00273445e-01 9.12937373e-02 1.03266686e-01 1.10749774e-01 7.48309270e-02 8.53072628e-02 8.97971168e-02 7.78241679e-02 5.98647445e-02 4.48985584e-02 6.88444525e-02 4.93884124e-02 5.53748868e-02 4.19053212e-02 5.38782701e-02 5.53748868e-02 3.74154635e-02 5.23816496e-02 3.29256095e-02 4.19053212e-02 4.04087007e-02 2.54425164e-02 4.19053212e-02 1.79594234e-02 2.54425164e-02 1.04763303e-02 1.79594234e-02 2.09526606e-02 1.49661861e-02 1.49661861e-02 2.24492792e-02 1.04763303e-02 1.04763303e-02 7.48309307e-03 1.19729489e-02 8.97971168e-03 1.19729489e-02 1.79594234e-02 5.98647445e-03 1.49661861e-03 5.98647445e-03 1.04763303e-02 1.49661861e-03 8.97971168e-03 5.98647445e-03 5.98647445e-03 1.49661861e-03 0.00000000e+00 4.48985584e-03 2.99323723e-03 0.00000000e+00 5.98647445e-03 2.99323723e-03 5.98647445e-03 4.48985584e-03 0.00000000e+00 0.00000000e+00 2.99323723e-03 1.49661861e-03 0.00000000e+00 0.00000000e+00 1.49661861e-03 1.49661861e-03 1.49661861e-03 1.49661861e-03 1.49661861e-03 0.00000000e+00 0.00000000e+00 0.00000000e+00 0.00000000e+00 0.00000000e+00 0.00000000e+00 0.00000000e+00 0.00000000e+00 0.00000000e+00 0.00000000e+00 0.00000000e+00 0.00000000e+00 0.00000000e+00 
      </Histogram>
    </PDF>
  </MVAPdfs>
  <Weights>
    <Layout NLayers="4">
      <Layer Index="0" NNeurons="5">
        <Neuron NSynapses="4">
          -1.3906792220833171e+00 1.3679527567523180e+00 -1.2661244032298669e+00 4.2355710653628069e+00 
        </Neuron>
        <Neuron NSynapses="4">
          -1.9598864541605867e+00 -1.8338523502241741e+00 -1.5780054088296815e+00 3.0434848155392191e+00 
        </Neuron>
        <Neuron NSynapses="4">
          -7.1210869747318750e-01 -1.9952728961207216e+00 -2.4473890257146658e+00 -1.3778729394601449e-01 
        </Neuron>
        <Neuron NSynapses="4">
          -6.3786764623513097e+00 2.0510513700839193e-02 -1.1226956478859642e+00 2.1891984454020146e+00 
        </Neuron>
        <Neuron NSynapses="4">
          -3.0051363746973427e+00 1.5354030752622001e+00 -3.1886504567473013e+00 4.6931866877901633e+00 
        </Neuron>
      </Layer>
      <Layer Index="1" NNeurons="5">
        <Neuron NSynapses="3">
          5.0240190996003065e-01 -3.1155260407476439e+00 1.7396736258846230e+00 
        </Neuron>
        <Neuron NSynapses="3">
          -2.9871631970474893e-01 -3.3209155453182743e-01 -1.9611597100304321e+00 
        </Neuron>
        <Neuron NSynapses="3">
          2.0723758479472725e+00 -1.7743282642944800e+00 -3.6536412217525629e+00 
        </Neuron>
        <Neuron NSynapses="3">
          -3.1179280752572054e+00 4.6676675471008924e+00 1.7880180604518097e+00 
        </Neuron>
        <Neuron NSynapses="3">
          -1.8983034406709636e+00 5.5778291136497271e-01 -1.3077360805306937e+00 
        </Neuron>
      </Layer>
      <Layer Index="2" NNeurons="4">
        <Neuron NSynapses="1">
          -1.6101927361976214e+00 
        </Neuron>
        <Neuron NSynapses="1">
          -5.8515749593828470e-01 
        </Neuron>
        <Neuron NSynapses="1">
          9.7097511494156219e-01 
        </Neuron>
        <Neuron NSynapses="1">
          6.2707524931384506e-01 
        </Neuron>
      </Layer>
      <Layer Index="3" NNeurons="1">
        <Neuron NSynapses="0"/>
      </Layer>
    </Layout>
    <InverseHessian NElements="1521" NRows="39" NCols="39">
      <Row Index="0">
        3.6159331828011134e+00 9.4907560299833271e-01 -6.5516628264740095e-01 1.4255183973588956e+00 2.4808502275969539e+00 3.3167159426754689e-01 -1.7232721988279263e+00 -2.5729767790163777e-01 1.0007216050448189e+00 -2.3168778817842839e-01 -2.5155833245571619e+00 3.4668639796021172e-01 4.2067739847268601e+00 -3.6123498077084539e+00 -1.7930395804923236e+00 -9.5230300395466205e-01 4.2707254223211955e+00 -4.6390932861885865e+00 -3.3793314319196717e+00 1.1221443029950480e+00 8.7744400235613890e-02 -4.4925512224271991e+00 7.3382446812369961e-01 4.0844387499782995e+00 -2.5260180959723337e+00 3.1547076565117576e+00 -2.2185699857848102e+00 2.1254084457028881e+00 2.4213288859513051e+00 8.1502934236001093e-03 2.1752825842338104e+00 -1.8088138915309201e-01 -3.7720004903642343e+00 1.0811265898498730e+00 -7.5963109729568288e+00 -2.4185653709264354e-01 5.0936374454590072e-01 1.0168723259688068e+00 -4.3878689477112764e-01 
      </Row>
      <Row Index="1">
        9.4907560298797922e-01 1.2977321963150837e+01 1.6797148093426491e+00 9.1454481398943888e-01 1.3702006281804451e+00 -1.1891915301617294e+01 -7.4065133548550255e-01 1.6071703762372541e-01 7.0309846816528654e-01 -1.2712176238362497e+01 -9.2796367217086317e-01 -2.8498982560857533e-02 2.0458641334251837e+00 1.6570916136411538e+00 1.0469388196843527e-01 2.9919995890608564e-01 1.9706573527695834e+00 -4.0770018957239449e+00 1.1848149166755095e+00 8.4400234109418193e-01 2.0572141310887310e-01 -2.7600382453811227e+00 -1.9959339758068506e-01 -7.4269689015655505e-01 -1.6813455571313323e+00 2.1290151167334542e+01 1.4358308695629667e+00 6.3011576240639067e-01 2.9066229284639653e+00 -2.6709835650596054e+00 1.6473788323785969e+00 -1.2091145740130409e+00 -1.4787212736410078e+00 2.0513758030089884e+00 -1.9205334696389354e+01 8.1260032527373405e-01 6.1698851412371658e-01 9.2384459750946024e-01 -7.3099073299327311e-01 
      </Row>
      <Row Index="2">
        -6.5516628262792564e-01 1.6797148093091678e+00 2.1299081380565124e+00 -7.9746263925170124e-01 -9.9571120900425658e-01 -1.4873026968278096e+00 1.4025680275230781e+00 -4.1014804941586913e-01 -6.1022119943457198e-01 -1.4998225273438710e+00 8.8475994215642839e-01 8.0380051987525514e-01 -9.1459972090546637e-01 7.7844349775667387e-01 1.4505570803396219e+00 4.0642655370611902e-01 -1.1526611126814230e+00 1.3923199269077009e+00 3.1903377122909879e+00 -7.1020991329386618e-01 2.6674615354890630e-01 7.2326237345380151e-01 -2.1388043914530863e-02 -1.0267904735705411e+00 4.4634471385848618e-01 6.9630491376633696e-01 5.0880280452155136e-01 1.7141777278460431e+00 1.9475997509621199e+00 -3.4945461281999366e+00 2.0098561468054479e+00 1.3422498218384504e+00 8.4074580030910029e-01 -1.4647581408065669e+00 1.7879392885683654e-01 3.7226508799928992e-01 1.0300087525353430e-01 -2.6691375403580764e-01 -2.1542890526937084e-01 
      </Row>
      <Row Index="3">
        1.4255183972655425e+00 9.1454481386820774e-01 -7.9746263924946958e-01 8.3664828243531240e+00 1.3869677940737418e-01 -4.9484773803084021e+00 -2.5850158897163946e+00 4.3994192468249107e+00 6.3896229030877216e-01 -1.8804661672326684e+00 1.3312386936714438e+00 4.3830278378593712e-01 1.1585461752833677e+00 -1.5685355530270635e+00 -1.8429797594132874e-01 3.9438818255490040e+00 1.0746201448860564e+00 -2.1987034399399743e+00 -4.3975825831849513e-01 8.6513365175962775e+00 -4.2844006609728980e-02 -8.8418845187576145e-01 -7.3186406511839952e-01 -2.5199222657151226e+00 2.0493350372384844e-01 5.2681468211345859e+00 -1.4834019269378742e+00 9.4865739349818790e-02 -2.3913903266556535e+00 9.2381261895927995e+00 -8.3266356452465207e+00 -5.9453156884163549e+00 -5.9179736344522782e+00 4.5111724422290358e+00 -4.1358746656328815e-01 -7.3516303047720166e+00 -8.3755382230842473e-02 4.2209531335649653e-01 1.7830646863831814e-01 
      </Row>
      <Row Index="4">
        2.4808502275955853e+00 1.3702006281838806e+00 -9.9571120901340415e-01 1.3869677948291703e-01 3.5566747095568987e+00 1.9314069020403946e+00 -1.0510188673741211e-01 9.6951352665790203e-01 9.7565147994387558e-01 3.5488415895513759e-01 -2.4537203584174847e+00 -1.1994425740560069e-01 3.9650431443405880e+00 -5.8961654047822210e-01 -1.5510344686178910e+00 -1.0073159418163193e+00 4.4531241259501835e+00 -1.5479939657337627e+00 -2.0582202021846254e+00 9.1167481705235787e-01 7.4325494556324978e-02 -4.1945706853999187e+00 7.1860594139562561e-01 2.2278400026692844e+00 -1.5456431725919484e+00 2.4469288288358779e+00 -1.0588855454136534e+00 1.1181675694390774e+00 3.1561175431092585e+00 -8.7659843323997455e-01 2.3824280221547363e+00 1.1758053512713568e-01 -2.3077329535941455e+00 8.2165392144981952e-01 -6.2928815654164048e+00 3.7944324854975209e-01 5.4275137207356328e-01 8.5981109497149255e-01 -5.0841142425111574e-01 
      </Row>
      <Row Index="5">
        3.3167159427912907e-01 -1.1891915301565220e+01 -1.4873026968789467e+00 -4.9484773805189510e+00 1.9314069020586335e+00 2.8376519472153490e+01 4.9734420667025576e+00 -1.7496599913378326e+00 2.1311938609539646e-01 2.4253912943706499e+01 8.9714978731839501e-01 -9.9601003534308730e-01 5.5689289206734549e-02 8.2385782268893735e+00 1.4726894187518633e+00 -1.6767855058219112e+00 1.6634691546801910e+00 1.4960232262770676e+01 -1.2083673035185427e-01 -4.4223341258053637e+00 7.2540014773909489e-01 1.8495273392617841e+00 -5.4604292814962629e-01 8.6983896425973697e+00 -8.1191045941441260e+00 -3.5734043895418914e+01 1.0640459641114355e+00 -8.7837555067035122e-01 -3.2565409469922035e+00 -4.9241583326812757e+00 3.3972741764950052e+00 6.7166367175808377e+00 1.6521464737820044e+00 3.9530541823514866e+00 2.6280990417161469e+01 7.3437368418582007e+00 -6.5204115019412257e-01 -4.1165649792727754e-01 6.8724871054725112e-01 
      </Row>
      <Row Index="6">
        -1.7232721988041431e+00 -7.4065133553269302e-01 1.4025680275178676e+00 -2.5850158897886484e+00 -1.0510188672928972e-01 4.9734420667984951e+00 4.6199973917355095e+00 5.5009528384859141e-01 -9.5584654623897936e-01 4.6414759062141231e+00 2.1430618157988257e+00 4.8530316105132087e-01 -1.6894875762119612e+00 3.6577707029698727e+00 2.6221399290114045e+00 4.4430432783377671e-01 -1.2520746153094917e+00 4.8836525631520118e+00 4.8079261738114161e+00 -1.1811622167802902e+00 7.1408160922956776e-01 2.0333623034737829e+00 -6.2215329332562763e-01 1.0161310037206202e+00 5.4437786180713443e-01 -5.9067353811287111e+00 1.8546271105224499e+00 9.1765217912901775e-01 7.0913707936917980e-02 -5.2817420839121407e+00 1.9148054306371900e+00 2.6712200296771913e+00 1.2759756824108102e+00 -1.9178116091132420e+00 5.7802095858006561e+00 2.8665222015215952e+00 -1.5277751098183462e-01 -3.3444840490693228e-01 -8.0247584835004739e-03 
      </Row>
      <Row Index="7">
        -2.5729767794517855e-01 1.6071703746058574e-01 -4.1014804941734934e-01 4.3994192468394022e+00 9.6951352660762113e-01 -1.7496599910476291e+00 5.5009528393084228e-01 6.1685620750208505e+00 -1.1277273552664124e-01 -2.8416467516793609e-01 9.8764799941951731e-01 2.0551530452118016e+00 -5.2423459397479277e-02 1.7421180531298610e+00 1.2278266362278130e+00 4.6415811978484687e+00 6.0508448196817000e-01 1.4843022727080939e+00 2.9541226091224386e+00 7.7852555933342842e+00 -2.6166295218040958e-01 5.0076994168815558e-02 -8.2868904194814730e-01 -5.7139639191282274e+00 4.0743923429498352e+00 3.3861975861069205e+00 -2.0794603058468697e+00 3.3075725985130431e+00 3.1190007199974978e+00 4.4283498703737143e+00 -4.1661257352538259e+00 -3.8167882683851326e+00 -3.4521908973120938e+00 -1.6220307067403228e+00 7.8970213929729027e-01 -7.9582475614132413e+00 2.0770262761110184e-01 2.6324741722460165e-01 -2.4239800447100401e-01 
      </Row>
      <Row Index="8">
        1.0007216050228998e+00 7.0309846817515886e-01 -6.1022119943337538e-01 6.3896229031999585e-01 9.7565147993293633e-01 2.1311938606445757e-01 -9.5584654624039722e-01 -1.1277273551171690e-01 1.0412054924188343e+00 1.7233097799566305e-01 -6.5685336925362892e-01 -3.3639192270533042e-01 1.6400609480098207e+00 6.5470216392361780e-01 -8.5741619619780207e-01 -4.6700751378764682e-01 1.6823210775694644e+00 4.4806975055300513e-02 -1.4819529258232860e+00 3.0496764017698119e-01 -1.1884816164016848e-01 -1.4899878237992474e+00 4.0945287804659336e-01 8.9005444559475222e-01 -1.0694126468031442e+00 6.3257946724189029e-01 -3.0277856816956372e-01 -1.0316956046184664e+00 -5.9988517714325784e-02 1.3628619960741457e+00 -2.5572221327261446e-01 -3.9725544305158711e-01 -1.0465734605270118e+00 1.7490064781098387e+00 -1.6389538659679856e+00 -2.1017887612924369e-01 1.0271325436251089e-01 1.3297549356572319e-01 -3.0982551596271866e-02 
      </Row>
      <Row Index="9">
        -2.3168778821303349e-01 -1.2712176238389219e+01 -1.4998225273921186e+00 -1.8804661674743866e+00 3.5488415893294134e-01 2.4253912943808274e+01 4.6414759061451614e+00 -2.8416467547534724e-01 1.7233097801472314e-01 2.6680332846366674e+01 3.4538468734486147e+00 -5.0432040673841694e-01 -8.5836232529300105e-01 6.8355134132950557e+00 1.5565068893719847e+00 -6.3168421538815522e-01 7.4757555714308310e-02 1.5100788233494631e+01 1.2963135863096520e+00 -1.2725151470689724e+00 4.4249664108934783e-01 2.3758301268686659e+00 -8.0763735545565019e-01 6.6945973880693872e+00 -5.0152074528347699e+00 -3.5633650575382255e+01 8.9279223190576285e-01 -2.4287061893521926e+00 -6.7666564241007316e+00 2.0533608372392120e-01 -8.8498386330480072e-01 3.2176291173612692e+00 -3.2066464540839540e-01 3.6974771677492146e+00 3.0696288641943024e+01 3.5306477650527612e+00 -7.7410248494977607e-01 -4.4041311755774026e-01 8.6517188483242990e-01 
      </Row>
      <Row Index="10">
        -2.5155833245882135e+00 -9.2796367222660336e-01 8.8475994216967813e-01 1.3312386935443292e+00 -2.4537203584448140e+00 8.9714978739728224e-01 2.1430618158313171e+00 9.8764799932112368e-01 -6.5685336927033444e-01 3.4538468734971453e+00 5.8202187249662378e+00 -3.1654701685230435e-01 -3.0238909854611755e+00 2.4312610592328556e+00 2.8072127789262797e+00 2.0438933242083479e+00 -3.4450995759574536e+00 4.1056004961244605e+00 4.4508270437950710e+00 1.3522660856531061e+00 7.7498456783981406e-01 3.6687882942497017e+00 -1.4258905609237771e+00 -1.9353304203455248e+00 -1.2808559348863624e-01 -4.3029761731782461e+00 4.8965608166704939e+00 -3.2685418409356259e+00 -6.8002933903930884e+00 6.8010683397802085e-01 -5.1516376364670604e+00 -2.0110043619347939e+00 6.8389866608142325e-01 3.2438338541350893e+00 1.0399407463325559e+01 1.7413466294926332e+00 -5.3907441353527685e-01 -4.4091218882804650e-01 4.0336200380134274e-01 
      </Row>
      <Row Index="11">
        3.4668639796353595e-01 -2.8498982703041520e-02 8.0380051984415046e-01 4.3830278385362464e-01 -1.1994425741423784e-01 -9.9601003500123397e-01 4.8530316108558380e-01 2.0551530452075513e+00 -3.3639192268883483e-01 -5.0432040638928299e-01 -3.1654701677153163e-01 6.1383402053866227e+00 -4.9481674477932813e-01 6.9786716939065907e-05 2.1378338541163444e+00 4.0323099113663758e+00 5.3684709689736765e-02 -6.6004673708147643e-01 2.8138154994113913e+00 3.9607117347781440e+00 -7.9507425496595452e-01 -6.2452508419991087e-02 -6.0646111230371891e-01 -1.0339202422439548e+00 5.9057881438336635e-01 2.0735554180502120e+00 -7.5812253178606213e+00 1.1300038253020436e+01 7.9319242797523142e+00 -1.1529915498270205e+00 4.1947620845852969e+00 1.9451687991837677e-01 -4.4199469011010137e+00 -6.0207571721393647e+00 -2.6289890916215493e+00 -9.2973404240436217e+00 5.2283035684630375e-01 3.2478466584349941e-01 -5.5971588908056513e-01 
      </Row>
      <Row Index="12">
        4.2067739847384367e+00 2.0458641334452352e+00 -9.1459972092165309e-01 1.1585461754191089e+00 3.9650431443511831e+00 5.5689289124160268e-02 -1.6894875762407291e+00 -5.2423459296531888e-02 1.6400609480304287e+00 -8.5836232530296286e-01 -3.0238909854411418e+00 -4.9481674473848614e-01 6.6518034695341086e+00 -3.7046543212908003e+00 -3.0627667197026547e+00 -2.1393344640126131e+00 6.0727112287504719e+00 -4.8440582556592489e+00 -3.5713316017536654e+00 5.6007696508558524e-01 3.7440755050552038e-01 -7.0713213180196046e+00 1.2245369719535644e+00 3.0224733464954046e+00 -2.4106912661517992e+00 5.2190718355270995e+00 1.6809188588903684e-01 6.5177558244765321e-01 4.7968654647300877e+00 -2.0820679731112679e+00 2.8990564741086682e+00 -5.4725320524897558e-01 -3.8389147316142580e+00 2.6109465584131559e+00 -9.7548025845237412e+00 1.8699170558984828e+00 9.3397497222640014e-01 1.3555138843241044e+00 -9.6375705607058970e-01 
      </Row>
      <Row Index="13">
        -3.6123498077346188e+00 1.6570916135953837e+00 7.7844349777382715e-01 -1.5685355531690170e+00 -5.8961654049562895e-01 8.2385782269554468e+00 3.6577707030094833e+00 1.7421180530382037e+00 6.5470216389604086e-01 6.8355134133046498e+00 2.4312610592281683e+00 6.9786619894429691e-05 -3.7046543212905227e+00 2.3155096127986322e+01 3.5242754673376808e+00 3.1714342826486224e+00 -1.8804115690133347e+00 2.0074282009153190e+01 5.2752478668326699e+00 4.8897441678619202e-01 -4.6280780508942243e-02 5.1512248809473276e+00 -2.3559628803385588e+00 -4.0531018799226413e+00 -1.7395679173780751e+00 -9.3751485708151421e+00 3.0068648403122094e+00 -2.0451529379089828e+00 -1.0964766554392780e+00 -2.7145923012953723e+00 -2.2348403777628283e+00 1.4126683060180134e+00 4.5042051898136641e+00 3.0023688681678400e+00 1.3956236498981367e+01 1.6715684796253718e+00 -5.0249887515617919e-01 -1.4545525579520093e+00 3.4591983464326770e-01 
      </Row>
      <Row Index="14">
        -1.7930395804882782e+00 1.0469388189001805e-01 1.4505570803354415e+00 -1.8429797600617370e-01 -1.5510344686263953e+00 1.4726894189360671e+00 2.6221399290415386e+00 1.2278266361433552e+00 -8.5741619619999920e-01 1.5565068895298779e+00 2.8072127789409675e+00 2.1378338540695054e+00 -3.0627667197054222e+00 3.5242754673450527e+00 4.1808318091767429e+00 3.4730334293935794e+00 -2.3926703687108533e+00 3.6355622359796822e+00 4.6880848848957584e+00 1.7419682289031808e+00 5.4343468166231024e-01 3.5378658003554468e+00 -1.5887182811485150e+00 -8.7551084627908449e-01 1.9062443082597569e-01 -2.4228334649409309e+00 -2.7107450833176228e-02 3.2111804949382745e+00 -9.8390572522754149e-01 -2.2205749559378956e+00 -6.0363091777952338e-01 7.4909674705514451e-01 3.4488254386420136e-01 -1.6912398855318367e+00 4.6732163806869647e+00 -9.0828198139912075e-01 -3.1659732154307990e-01 -3.4898269943959248e-01 2.0979904947375455e-01 
      </Row>
      <Row Index="15">
        -9.5230300398351553e-01 2.9919995874621907e-01 4.0642655369727221e-01 3.9438818255261294e+00 -1.0073159418529674e+00 -1.6767855054572598e+00 4.4430432791648955e-01 4.6415811977862802e+00 -4.6700751379332267e-01 -6.3168421503542849e-01 2.0438933243067154e+00 4.0323099113144103e+00 -2.1393344640827685e+00 3.1714342827452322e+00 3.4730334294551048e+00 7.7272074421697781e+00 -1.3783670287975509e+00 2.3321661147676864e+00 3.9889863831991672e+00 7.6365275392744252e+00 -6.1340904462684254e-01 3.7172922577753127e+00 -1.4350104490418278e+00 -4.2509201068388522e+00 1.1205089594643405e+00 1.5970602148039363e+00 -3.2232043548577551e+00 6.6338380354492976e+00 2.2901742510931951e+00 2.2877090534122480e+00 -3.5018663726775965e+00 -2.5516421243829002e+00 -2.8868536302789423e+00 -2.0064431394124025e+00 2.6727914635789207e+00 -8.0782921073721123e+00 -1.0554042700435398e-01 -9.6469466683631544e-02 2.9466412322579946e-02 
      </Row>
      <Row Index="16">
        4.2707254223199449e+00 1.9706573527771667e+00 -1.1526611126993034e+00 1.0746201450074930e+00 4.4531241259511596e+00 1.6634691546473164e+00 -1.2520746153290752e+00 6.0508448204519638e-01 1.6823210775896489e+00 7.4757555745158299e-02 -3.4450995759180429e+00 5.3684709701187217e-02 6.0727112287346188e+00 -1.8804115689869751e+00 -2.3926703687035022e+00 -1.3783670287427299e+00 6.5073605323815382e+00 -3.4542490938160029e+00 -3.6021900488499399e+00 1.3835681766843351e+00 1.8429049345994225e-01 -6.4065109840924270e+00 1.2408507490504834e+00 3.6436050853223256e+00 -2.7175667200758356e+00 4.0253773685569794e+00 -1.6609482829498630e+00 1.8492839360820368e+00 4.4908213552869896e+00 -1.0846949787221032e+00 3.2342250626728508e+00 -1.5772892680328848e-01 -3.9812133170748951e+00 1.7864014185682109e+00 -9.6764522149205465e+00 4.2864267392858779e-01 8.1980549526907409e-01 1.2658584477364858e+00 -7.6304330685326027e-01 
      </Row>
      <Row Index="17">
        -4.6390932862426322e+00 -4.0770018957926055e+00 1.3923199269124100e+00 -2.1987034402204642e+00 -1.5479939657662727e+00 1.4960232262858852e+01 4.8836525631732677e+00 1.4843022724971178e+00 4.4806975015287964e-02 1.5100788233452548e+01 4.1056004960884529e+00 -6.6004673732332009e-01 -4.8440582556621408e+00 2.0074282009150210e+01 3.6355622359224604e+00 2.3321661145438455e+00 -3.4542490938669510e+00 2.9426518372325745e+01 7.3066702267846466e+00 -6.6401180887766031e-01 -3.8045352750329353e-01 6.6567154923050555e+00 -8.5780751854927351e-01 -7.1640648457133844e+00 -2.8553746811587155e+00 -3.0839930148293668e+01 3.5157927950238079e+00 -3.9095443740855087e+00 -3.7565633936951119e+00 -6.0712256346879123e-01 -2.6505682590606257e+00 2.5916696889414941e+00 7.4128769089930922e+00 4.8366035207195583e+00 3.5325193371415956e+01 5.1888656946306799e-01 -8.1302177407976262e-01 -2.4586960599992178e+00 7.6365161063489184e-01 
      </Row>
      <Row Index="18">
        -3.3793314319076142e+00 1.1848149164949504e+00 3.1903377122954586e+00 -4.3975825837530325e-01 -2.0582202021952716e+00 -1.2083673006023332e-01 4.8079261738784940e+00 2.9541226090891151e+00 -1.4819529258433217e+00 1.2963135865806379e+00 4.4508270438070969e+00 2.8138154994479194e+00 -3.5713316017694687e+00 5.2752478668394751e+00 4.6880848849418761e+00 3.9889863832128221e+00 -3.6021900488581040e+00 7.3066702268850872e+00 1.0495669667565160e+01 2.2871892274465395e+00 4.0173774082939012e-01 2.9238921146822583e+00 -1.2006441022070420e+00 -7.7244594796559536e+00 4.0935891825493691e+00 -2.1792199570861559e+00 2.4990372144605497e+00 3.8779735079087070e+00 5.5541770450164645e+00 -5.1478554030631383e+00 7.5558702804776079e-01 2.5828392933259048e-01 5.7158708857245688e-01 -3.5644482550895304e+00 8.3735719977721104e+00 -3.0646480892536547e+00 2.9198415442542586e-01 -6.7345396266087887e-01 -6.2401931556822465e-01 
      </Row>
      <Row Index="19">
        1.1221443029089326e+00 8.4400234086333015e-01 -7.1020991330613759e-01 8.6513365176321884e+00 9.1167481696764385e-01 -4.4223341253566559e+00 -1.1811622166686422e+00 7.7852555933161902e+00 3.0496764016822392e-01 -1.2725151465845261e+00 1.3522660858317721e+00 3.9607117347270506e+00 5.6007696491895498e-01 4.8897441697094224e-01 1.7419682290139198e+00 7.6365275393398591e+00 1.3835681765522270e+00 -6.6401180847747288e-01 2.2871892274835890e+00 1.2878832993951999e+01 -5.7314457658682771e-01 -2.3944628622952158e-01 -1.5148595032765109e+00 -4.7246981784734503e+00 2.3295636191304241e+00 6.5044090957765146e+00 -5.1863216016737761e+00 6.3296338892470851e+00 2.1022009966448554e+00 8.7287101438435073e+00 -6.9868888585304072e+00 -6.3623267079646784e+00 -7.4919692407258260e+00 -2.7080051052680343e-01 -1.1228886640013904e+00 -1.2618107817336920e+01 1.9930301771189540e-01 6.5670958914249589e-01 -1.5078696121441379e-01 
      </Row>
      <Row Index="20">
        8.7744400266648093e-02 2.0572141312645442e-01 2.6674615354560027e-01 -4.2844006601324758e-02 7.4325494572077100e-02 7.2540014768070904e-01 7.1408160921305064e-01 -2.6166295218277558e-01 -1.1884816163486422e-01 4.4249664104463626e-01 7.7498456780933300e-01 -7.9507425495280426e-01 3.7440755054114128e-01 -4.6280780577518721e-02 5.4343468164023800e-01 -6.1340904464724755e-01 1.8429049349014331e-01 -3.8045352761914253e-01 4.0173774080027380e-01 -5.7314457657925111e-01 1.2554140483076597e+00 -6.2807168111199596e-01 -7.2371811980748835e-01 6.6675799602827834e-01 -2.7242717765950319e-01 4.6764007057756518e-01 3.2291661803819025e+00 -1.2188557559014905e+00 -1.1993831616813893e+00 -3.0703819148605636e+00 -8.3864022953317174e-01 9.2625100169284519e-02 7.8133915930535858e-01 1.5693313093363903e+00 -8.1724099026563357e-02 4.5208931490651736e+00 -1.8106829502585943e-02 2.8993814141854590e-01 -1.2285267514218265e-01 
      </Row>
      <Row Index="21">
        -4.4925512224670214e+00 -2.7600382453801160e+00 7.2326237347527034e-01 -8.8418845212914476e-01 -4.1945706854291913e+00 1.8495273393952516e+00 2.0333623035161459e+00 5.0076993940052716e-02 -1.4899878238227409e+00 2.3758301268786965e+00 3.6687882942361227e+00 -6.2452508573514365e-02 -7.0713213180348475e+00 5.1512248809705490e+00 3.5378658003260810e+00 3.7172922575826561e+00 -6.4065109841395191e+00 6.6567154923265317e+00 2.9238921146175474e+00 -2.3944628659873501e-01 -6.2807168105448241e-01 1.1717113943346661e+01 -8.3005476011972978e-01 -1.1495926560756509e-01 1.2426814925159682e+00 -9.4639467642563879e+00 -1.4215625502241411e+00 -1.6199530123901860e+00 -9.5200776004649796e+00 4.5140738439072035e+00 -6.2217496228829194e+00 1.9179366508834628e+00 5.0488818161023703e+00 -2.0357739815475098e+00 1.2934171896238370e+01 -1.8563118460832240e+00 -1.9614358440094581e+00 -2.0251780916090705e+00 2.0797728182842241e+00 
      </Row>
      <Row Index="22">
        7.3382446810535962e-01 -1.9959339756167083e-01 -2.1388043909762372e-02 -7.3186406512534430e-01 7.1860594139082057e-01 -5.4604292818454070e-01 -6.2215329332883706e-01 -8.2868904193474058e-01 4.0945287804232688e-01 -8.0763735550001314e-01 -1.4258905609246291e+00 -6.0646111230357169e-01 1.2245369719386039e+00 -2.3559628803100745e+00 -1.5887182811437417e+00 -1.4350104490290887e+00 1.2408507490374932e+00 -8.5780751851579951e-01 -1.2006441021849392e+00 -1.5148595032726808e+00 -7.2371811981050749e-01 -8.3005476011083190e-01 2.5015598272470436e+00 1.2696234688132055e-01 3.3393277115804260e-01 -1.5174877558187425e+00 -1.5814216360220834e+00 -6.4486992573398139e-01 1.2101393592539065e+00 1.3327513874640553e+00 2.1043743147809204e+00 1.0361220403392390e+00 2.7096087192112756e-01 -6.9784566669841153e-01 -1.1880047977199768e+00 -1.4957063522012397e+00 9.6555263972967514e-02 -4.7175646816924743e-01 6.9403782936728553e-02 
      </Row>
      <Row Index="23">
        4.0844387499245585e+00 -7.4269689003043027e-01 -1.0267904736275577e+00 -2.5199222658329408e+00 2.2278400026577083e+00 8.6983896426402794e+00 1.0161310035936530e+00 -5.7139639194314995e+00 8.9005444568515468e-01 6.6945973880949197e+00 -1.9353304203222699e+00 -1.0339202426288239e+00 3.0224733465107647e+00 -4.0531018798010647e+00 -8.7551084649695099e-01 -4.2509201072393381e+00 3.6436050853004534e+00 -7.1640648454230362e+00 -7.7244594798882158e+00 -4.7246981789161708e+00 6.6675799596437724e-01 -1.1495926569029324e-01 1.2696234701280495e-01 3.1521380549758600e+01 -1.5894068510949378e+01 -6.2570011083800772e+00 -7.4890590879883936e+00 2.1170529590220086e+00 -1.1869744559921244e+01 -1.2094254712052206e+00 3.8692991344759733e+00 7.4338790345138896e+00 -1.0982771213717621e+01 6.2442351114488872e+00 -7.8654787967726421e+00 7.0691747451188425e+00 -1.1775828316930632e+00 6.1608753070055200e-01 1.5330925397248101e+00 
      </Row>
      <Row Index="24">
        -2.5260180958942549e+00 -1.6813455572352467e+00 4.4634471388762820e-01 2.0493350382058018e-01 -1.5456431725808333e+00 -8.1191045941018558e+00 5.4437786186999304e-01 4.0743923431252158e+00 -1.0694126468499123e+00 -5.0152074527794177e+00 -1.2808559355824833e-01 5.9057881477420260e-01 -2.4106912661809439e+00 -1.7395679175153342e+00 1.9062443097604920e-01 1.1205089597624855e+00 -2.7175667200492297e+00 -2.8553746814042209e+00 4.0935891826433153e+00 2.3295636194660077e+00 -2.7242717769689495e-01 1.2426814926274057e+00 3.3393277110743513e-01 -1.5894068510501130e+01 2.2282902657942593e+01 1.0933826292745801e+01 1.3140248277591509e+00 -1.9879604133543807e+00 7.2254623348284994e+00 2.2018866322977955e+00 -2.6942927583591461e+00 -2.7222004002826163e+00 6.2857726374326290e+00 -1.6169773872769177e+01 -4.8296370610952870e+00 -5.4788715570785840e+00 2.5002558087030091e-01 -4.7947091857350954e-01 -3.5743131506572090e-01 
      </Row>
      <Row Index="25">
        3.1547076565899488e+00 2.1290151167303009e+01 6.9630491382516624e-01 5.2681468216724809e+00 2.4469288288654987e+00 -3.5734043895509899e+01 -5.9067353810219032e+00 3.3861975866828544e+00 6.3257946723633118e-01 -3.5633650575205081e+01 -4.3029761730664688e+00 2.0735554187081249e+00 5.2190718354796672e+00 -9.3751485708086584e+00 -2.4228334646636469e+00 1.5970602154553575e+00 4.0253773686062226e+00 -3.0839930148303040e+01 -2.1792199566469463e+00 6.5044090967367367e+00 4.6764007043544709e-01 -9.4639467641461561e+00 -1.5174877558567381e+00 -6.2570011080155190e+00 1.0933826292685342e+01 6.9429347412797128e+01 6.2053792527331542e-01 4.7221153318247637e+00 1.2850573267627311e+01 -2.5761782303126246e+00 1.0090018186001799e+00 -9.1984376747997239e+00 -6.4726755498707238e+00 -7.6507634158859616e+00 -6.2053074799823520e+01 -3.3337592424423419e+00 2.1154182003798989e+00 3.7096227819579224e+00 -2.4723022455351056e+00 
      </Row>
      <Row Index="26">
        -2.2185699856491716e+00 1.4358308697302249e+00 5.0880280456300930e-01 -1.4834019269223857e+00 -1.0588855453242987e+00 1.0640459635332888e+00 1.8546271104680869e+00 -2.0794603057117982e+00 -3.0277856819579085e-01 8.9279223137177155e-01 4.8965608164602692e+00 -7.5812253176724269e+00 1.6809188608253578e-01 3.0068648399455302e+00 -2.7107450889868545e-02 -3.2232043548275371e+00 -1.6609482827944859e+00 3.5157927943000953e+00 2.4990372144979340e+00 -5.1863216015107128e+00 3.2291661804251248e+00 -1.4215625506129990e+00 -1.5814216360584323e+00 -7.4890590883090917e+00 1.3140248285065477e+00 6.2053792660625628e-01 2.3060274435047642e+01 -1.6272556293521088e+01 -6.6762745519262126e+00 -1.1879182322709427e+01 -5.2016959938578617e+00 -2.5119088208808087e+00 1.1066860362290162e+01 9.4151271382177537e+00 7.1003998074205015e+00 2.3682890262758598e+01 3.5430925367058524e-01 4.3377433191463521e-01 -1.0044178011062030e+00 
      </Row>
      <Row Index="27">
        2.1254084457322442e+00 6.3011576215998844e-01 1.7141777277699810e+00 9.4865739516921899e-02 1.1181675694427153e+00 -8.7837555000439238e-01 9.1765217917007291e-01 3.3075725984953337e+00 -1.0316956045641974e+00 -2.4287061886599872e+00 -3.2685418407771429e+00 1.1300038252995122e+01 6.5177558240082334e-01 -2.0451529377262734e+00 3.2111804950006579e+00 6.6338380355214710e+00 1.8492839360923359e+00 -3.9095443736154669e+00 3.8779735077970399e+00 6.3296338893525501e+00 -1.2188557559377244e+00 -1.6199530121345105e+00 -6.4486992571985624e-01 2.1170529598429342e+00 -1.9879604142233855e+00 4.7221153305323238e+00 -1.6272556293913809e+01 2.4763152928667800e+01 1.8614443418735380e+01 -5.2850257127512634e+00 1.0926437324016561e+01 2.5783662402173664e+00 -1.0687976913718769e+01 -1.0851932177866697e+01 -9.8297818276240214e+00 -1.7006550884947373e+01 1.1780604784335442e+00 9.4911036678612182e-01 -1.2903238019710730e+00 
      </Row>
      <Row Index="28">
        2.4213288860895545e+00 2.9066229282579457e+00 1.9475997509135610e+00 -2.3913903262680627e+00 3.1561175431870740e+00 -3.2565409466731126e+00 7.0913707960151839e-02 3.1190007203221342e+00 -5.9988517687742160e-02 -6.7666564236720603e+00 -6.8002933903509302e+00 7.9319242801086034e+00 4.7968654647712299e+00 -1.0964766554469279e+00 -9.8390572508360208e-01 2.2901742514908960e+00 4.4908213554158456e+00 -3.7565633936059406e+00 5.5541770450654742e+00 2.1022009972634805e+00 -1.1993831617373480e+00 -9.5200776003608780e+00 1.2101393592172798e+00 -1.1869744559366316e+01 7.2254623344615965e+00 1.2850573267085171e+01 -6.6762745527886835e+00 1.8614443419494673e+01 3.6006653068538142e+01 -1.3486649155233152e+01 1.6356825854655227e+01 1.6672819859797317e+00 -5.5204450433654912e+00 -1.3215530712567933e+01 -1.6511854879332439e+01 -1.1669926832224188e+01 3.1700197382762454e+00 1.6098080049788432e+00 -3.6763929974932448e+00 
      </Row>
      <Row Index="29">
        8.1502931238901510e-03 -2.6709835651569165e+00 -3.4945461281552772e+00 9.2381261893605888e+00 -8.7659843343511490e-01 -4.9241583324086378e+00 -5.2817420837798110e+00 4.4283498702107380e+00 1.3628619960191832e+00 2.0533608392142355e-01 6.8010683420800433e-01 -1.1529915500938870e+00 -2.0820679734425624e+00 -2.7145923008815771e+00 -2.2205749558386785e+00 2.2877090533411035e+00 -1.0846949790557276e+00 -6.0712256278241483e-01 -5.1478554029008015e+00 8.7287101434787928e+00 -3.0703819148533178e+00 4.5140738443838764e+00 1.3327513874752590e+00 -1.2094254715892001e+00 2.2018866322418913e+00 -2.5761782311523209e+00 -1.1879182322204786e+01 -5.2850257133801257e+00 -1.3486649155842287e+01 3.0829857081958099e+01 -1.4356036611673570e+01 -6.7955279418344237e+00 -6.5473045693257816e+00 3.2504666142571610e+00 6.5117911855358095e+00 -2.1356562974742367e+01 -1.7926596965573649e+00 -1.3851462221226196e+00 2.7673624860374444e+00 
      </Row>
      <Row Index="30">
        2.1752825843548109e+00 1.6473788324090037e+00 2.0098561467641662e+00 -8.3266356450379959e+00 2.3824280222504051e+00 3.3972741764590637e+00 1.9148054305534004e+00 -4.1661257351034564e+00 -2.5572221322832434e-01 -8.8498386329850121e-01 -5.1516376365267575e+00 4.1947620847335969e+00 2.8990564742353939e+00 -2.2348403778242396e+00 -6.0363091780190103e-01 -3.5018663725520582e+00 3.2342250628255931e+00 -2.6505682591337951e+00 7.5558702800073618e-01 -6.9868888582345789e+00 -8.3864022956994511e-01 -6.2217496230492406e+00 2.1043743147822500e+00 3.8692991345266865e+00 -2.6942927585128356e+00 1.0090018187038492e+00 -5.2016959941749636e+00 1.0926437324326560e+01 1.6356825854852531e+01 -1.4356036611423118e+01 1.9014955023744523e+01 6.9828165955704486e+00 -5.4065236865060129e-01 -8.3537410932916387e+00 -1.1310242592315101e+01 1.1319896382844865e+00 1.7962703778623863e+00 8.4856736074042072e-01 -1.9154894585857698e+00 
      </Row>
      <Row Index="31">
        -1.8088138910346530e-01 -1.2091145739448663e+00 1.3422498218185883e+00 -5.9453156884807452e+00 1.1758053516942057e-01 6.7166367175554598e+00 2.6712200296135400e+00 -3.8167882684914041e+00 -3.9725544302657068e-01 3.2176291172843818e+00 -2.0110043620091744e+00 1.9451687985019817e-01 -5.4725320516411813e-01 1.4126683059604885e+00 7.4909674696679751e-01 -2.5516421245157979e+00 -1.5772892673470384e-01 2.5916696888540938e+00 2.5828392920646959e-01 -6.3623267081017971e+00 9.2625100172962993e-02 1.9179366507316926e+00 1.0361220403591518e+00 7.4338790345536232e+00 -2.7222004004140983e+00 -9.1984376746804575e+00 -2.5119088207737308e+00 2.5783662401116456e+00 1.6672819860116537e+00 -6.7955279419475119e+00 6.9828165956995463e+00 7.8921762041944650e+00 2.2011475203205584e+00 -3.3746638413439305e+00 1.5583065431054788e+00 4.3143539973342211e+00 -4.0039156095040285e-01 -9.0786721797292858e-01 4.3181445247541461e-01 
      </Row>
      <Row Index="32">
        -3.7720004902214495e+00 -1.4787212734173139e+00 8.4074580035746704e-01 -5.9179736344879483e+00 -2.3077329534981823e+00 1.6521464732219897e+00 1.2759756823643738e+00 -3.4521908972087925e+00 -1.0465734605751107e+00 -3.2066464602492672e-01 6.8389866585171433e-01 -4.4199469008792995e+00 -3.8389147314230350e+00 4.5042051894602846e+00 3.4488254384808847e-01 -2.8868536302055539e+00 -3.9812133169156390e+00 7.4128769082030663e+00 5.7158708859147467e-01 -7.4919692405893130e+00 7.8133915938110343e-01 5.0488818157333863e+00 2.7096087183555362e-01 -1.0982771213966725e+01 6.2857726380270531e+00 -6.4726755484260217e+00 1.1066860362352671e+01 -1.0687976913198565e+01 -5.5204450424615281e+00 -6.5473045700811525e+00 -5.4065236826284713e-01 2.2011475202570594e+00 2.0100352745027003e+01 -3.0383673877273791e+00 9.2411979709781420e+00 1.5114975494479621e+01 -7.0127081895109677e-01 -1.2929195202549759e+00 5.3179010559730966e-01 
      </Row>
      <Row Index="33">
        1.0811265897354154e+00 2.0513758031198535e+00 -1.4647581407886348e+00 4.5111724420874175e+00 8.2165392140480020e-01 3.9530541821020790e+00 -1.9178116091326833e+00 -1.6220307068436224e+00 1.7490064781081314e+00 3.6974771675084632e+00 3.2438338541774892e+00 -6.0207571724453004e+00 2.6109465583978810e+00 3.0023688682365086e+00 -1.6912398856347490e+00 -2.0064431396444462e+00 1.7864014184885204e+00 4.8366035207967020e+00 -3.5644482550595775e+00 -2.7080051081819789e-01 1.5693313093900323e+00 -2.0357739816380169e+00 -6.9784566667166992e-01 6.2442351107377521e+00 -1.6169773872308230e+01 -7.6507634155506477e+00 9.4151271389865698e+00 -1.0851932178591156e+01 -1.3215530712634679e+01 3.2504666139874052e+00 -8.3537410933758753e+00 -3.3746638414708405e+00 -3.0383673869995209e+00 2.2861209366872234e+01 1.0498071241912054e+01 9.5906955433394696e+00 -4.4225563891787756e-01 2.2892171602459910e-01 4.3825071259199916e-01 
      </Row>
      <Row Index="34">
        -7.5963109730642486e+00 -1.9205334696468753e+01 1.7879392884232459e-01 -4.1358746714037942e-01 -6.2928815654821486e+00 2.6280990417313888e+01 5.7802095857932123e+00 7.8970213878839957e-01 -1.6389538660156733e+00 3.0696288641833661e+01 1.0399407463238418e+01 -2.6289890921733559e+00 -9.7548025845315465e+00 1.3956236498967288e+01 4.6732163805077604e+00 2.6727914630386920e+00 -9.6764522150231880e+00 3.5325193371409370e+01 8.3735719974740697e+00 -1.1228886649010121e+00 -8.1724098848196647e-02 1.2934171896214487e+01 -1.1880047977274657e+00 -7.8654787971760429e+00 -4.8296370607930577e+00 -6.2053074799856844e+01 7.1003998087497724e+00 -9.8297818286970884e+00 -1.6511854879690347e+01 6.5117911844281231e+00 -1.1310242592168766e+01 1.5583065433003416e+00 9.2411979724590978e+00 1.0498071241928521e+01 7.0399912553740052e+01 9.9036723725746079e-01 -2.2092442273058421e+00 -4.2573022117251007e+00 2.2581115020740254e+00 
      </Row>
      <Row Index="35">
        -2.4185653684545372e-01 8.1260032565802476e-01 3.7226508801035818e-01 -7.3516303047258340e+00 3.7944324872589208e-01 7.3437368409613129e+00 2.8665222013289853e+00 -7.9582475613313441e+00 -2.1017887610471919e-01 3.5306477641986120e+00 1.7413466291490529e+00 -9.2973404238898034e+00 1.8699170562617731e+00 1.6715684790737164e+00 -9.0828198160230933e-01 -8.0782921074806033e+00 4.2864267422778002e-01 5.1888656837592784e-01 -3.0646480893822781e+00 -1.2618107817208028e+01 4.5208931490900177e+00 -1.8563118467769697e+00 -1.4957063522041105e+00 7.0691747448299740e+00 -5.4788715563618089e+00 -3.3337592404477503e+00 2.3682890262751247e+01 -1.7006550884596280e+01 -1.1669926831170933e+01 -2.1356562975229494e+01 1.1319896387505650e+00 4.3143539971223177e+00 1.5114975494268709e+01 9.5906955426323162e+00 9.9036723521889503e-01 3.8530942944723172e+01 -1.2048594727559303e-01 8.7174899426607411e-01 -5.2179788837696894e-01 
      </Row>
      <Row Index="36">
        5.0936374456297173e-01 6.1698851411016165e-01 1.0300087524904677e-01 -8.3755382173035464e-02 5.4275137208457025e-01 -6.5204115019754738e-01 -1.5277751098477754e-01 2.0770262766625436e-01 1.0271325436596745e-01 -7.7410248492964584e-01 -5.3907441353436170e-01 5.2283035689434243e-01 9.3397497223568848e-01 -5.0249887516578040e-01 -3.1659732152938780e-01 -1.0554042695065391e-01 8.1980549528726776e-01 -8.1302177408837295e-01 2.9198415444055326e-01 1.9930301780472348e-01 -1.8106829511001621e-02 -1.9614358440112531e+00 9.6555263969675842e-02 -1.1775828316784367e+00 2.5002558087952909e-01 2.1154182003809083e+00 3.5430925357022347e-01 1.1780604785265136e+00 3.1700197383121562e+00 -1.7926596964771520e+00 1.7962703778352735e+00 -4.0039156097372730e-01 -7.0127081905464506e-01 -4.4225563894387787e-01 -2.2092442273069555e+00 -1.2048594742571295e-01 4.9382765186069066e-01 3.5825337013004876e-01 -5.6065851023440838e-01 
      </Row>
      <Row Index="37">
        1.0168723259860624e+00 9.2384459751175285e-01 -2.6691375404187445e-01 4.2209531342118645e-01 8.5981109498128472e-01 -4.1165649794751147e-01 -3.3444840491487327e-01 2.6324741727168188e-01 1.3297549357429461e-01 -4.4041311754575574e-01 -4.4091218882205219e-01 3.2478466588047183e-01 1.3555138843339627e+00 -1.4545525579655365e+00 -3.4898269943325033e-01 -9.6469466643107182e-02 1.2658584477537143e+00 -2.4586960600185410e+00 -6.7345396265346102e-01 6.5670958922876821e-01 2.8993814140471619e-01 -2.0251780916125774e+00 -4.7175646816702921e-01 6.1608753075143341e-01 -4.7947091858819907e-01 3.7096227819742404e+00 4.3377433179969160e-01 9.4911036685547190e-01 1.6098080049817334e+00 -1.3851462219968331e+00 8.4856736070278782e-01 -9.0786721799993308e-01 -1.2929195203935051e+00 2.2892171602948552e-01 -4.2573022117409032e+00 8.7174899409097661e-01 3.5825337012786213e-01 8.8923542042615922e-01 -4.2837939923768276e-01 
      </Row>
      <Row Index="38">
        -4.3878689479834243e-01 -7.3099073297842665e-01 -2.1542890526392533e-01 1.7830646857183075e-01 -5.0841142426790742e-01 6.8724871055493963e-01 -8.0247584789372439e-03 -2.4239800453356608e-01 -3.0982551600676977e-02 8.6517188481283824e-01 4.0336200380676779e-01 -5.5971588914061954e-01 -9.6375705608960516e-01 3.4591983466766596e-01 2.0979904946062433e-01 2.9466412263232655e-02 -7.6304330688172073e-01 7.6365161066701059e-01 -6.2401931558022383e-01 -1.5078696132264469e-01 -1.2285267513400289e-01 2.0797728182980233e+00 6.9403782941248160e-02 1.5330925396887156e+00 -3.5743131507856607e-01 -2.4723022455573331e+00 -1.0044178009827971e+00 -1.2903238020919852e+00 -3.6763929975486533e+00 2.7673624859572801e+00 -1.9154894585656657e+00 4.3181445249948713e-01 5.3179010573262619e-01 4.3825071263246085e-01 2.2581115021082390e+00 -5.2179788820604411e-01 -5.6065851023627589e-01 -4.2837939924363955e-01 6.7808918432613685e-01 
      </Row>
    </InverseHessian>
  </Weights>
</MethodSetup>
