<?xml version="1.0"?>
<MethodSetup Method="MLP::MLP">
  <GeneralInfo>
    <Info name="TMVA Release" value="4.1.2 [262402]"/>
    <Info name="ROOT Release" value="5.32/00 [335872]"/>
    <Info name="Creator" value="tomc"/>
    <Info name="Date" value="Thu Jan 10 14:34:56 2013"/>
    <Info name="Host" value="Linux lxbuild168.cern.ch 2.6.18-308.1.1.el5 #1 SMP Wed Mar 7 19:25:07 CET 2012 x86_64 x86_64 x86_64 GNU/Linux"/>
    <Info name="Dir" value="/user_mnt/user/tomc/QGTagger/training/f/13/aKDE03"/>
    <Info name="Training events" value="106726"/>
    <Info name="TrainingTime" value="4.03121178e+02"/>
    <Info name="AnalysisType" value="Classification"/>
  </GeneralInfo>
  <Options>
    <Option name="NCycles" modified="No">500</Option>
    <Option name="HiddenLayers" modified="No">N,N-1</Option>
    <Option name="NeuronType" modified="No">sigmoid</Option>
    <Option name="RandomSeed" modified="No">1</Option>
    <Option name="EstimatorType" modified="No">MSE</Option>
    <Option name="NeuronInputType" modified="No">sum</Option>
    <Option name="V" modified="Yes">False</Option>
    <Option name="VerbosityLevel" modified="No">Default</Option>
    <Option name="VarTransform" modified="Yes">N</Option>
    <Option name="H" modified="Yes">False</Option>
    <Option name="CreateMVAPdfs" modified="Yes">True</Option>
    <Option name="IgnoreNegWeightsInTraining" modified="No">False</Option>
    <Option name="TrainingMethod" modified="No">BP</Option>
    <Option name="LearningRate" modified="No">2.000000e-02</Option>
    <Option name="DecayRate" modified="No">1.000000e-02</Option>
    <Option name="TestRate" modified="Yes">3</Option>
    <Option name="EpochMonitoring" modified="No">False</Option>
    <Option name="Sampling" modified="No">1.000000e+00</Option>
    <Option name="SamplingEpoch" modified="No">1.000000e+00</Option>
    <Option name="SamplingImportance" modified="No">1.000000e+00</Option>
    <Option name="SamplingTraining" modified="No">True</Option>
    <Option name="SamplingTesting" modified="No">False</Option>
    <Option name="ResetStep" modified="No">50</Option>
    <Option name="Tau" modified="No">3.000000e+00</Option>
    <Option name="BPMode" modified="No">sequential</Option>
    <Option name="BatchSize" modified="No">-1</Option>
    <Option name="ConvergenceImprove" modified="No">1.000000e-30</Option>
    <Option name="ConvergenceTests" modified="No">-1</Option>
    <Option name="UseRegulator" modified="Yes">True</Option>
    <Option name="UpdateLimit" modified="No">10000</Option>
    <Option name="CalculateErrors" modified="No">False</Option>
    <Option name="WeightRange" modified="No">1.000000e+00</Option>
  </Options>
  <Variables NVar="4">
    <Variable VarIndex="0" Expression="axis1" Label="axis1" Title="axis1" Unit="" Internal="axis1" Type="F" Min="3.56535922e-04" Max="2.84824848e-01"/>
    <Variable VarIndex="1" Expression="axis2" Label="axis2" Title="axis2" Unit="" Internal="axis2" Type="F" Min="-3.75029340e-04" Max="1.69643760e-01"/>
    <Variable VarIndex="2" Expression="mult" Label="mult" Title="mult" Unit="" Internal="mult" Type="F" Min="8.29998970e-01" Max="4.08299980e+01"/>
    <Variable VarIndex="3" Expression="ptD" Label="ptD" Title="ptD" Unit="" Internal="ptD" Type="F" Min="2.02891082e-01" Max="9.99842942e-01"/>
  </Variables>
  <Spectators NSpec="0"/>
  <Classes NClass="2">
    <Class Name="Signal" Index="0"/>
    <Class Name="Background" Index="1"/>
  </Classes>
  <Transformations NTransformations="1">
    <Transform Name="Normalize">
      <Selection>
        <Input NInputs="4">
          <Input Type="Variable" Label="axis1" Expression="axis1"/>
          <Input Type="Variable" Label="axis2" Expression="axis2"/>
          <Input Type="Variable" Label="mult" Expression="mult"/>
          <Input Type="Variable" Label="ptD" Expression="ptD"/>
        </Input>
        <Output NOutputs="4">
          <Output Type="Variable" Label="axis1" Expression="axis1"/>
          <Output Type="Variable" Label="axis2" Expression="axis2"/>
          <Output Type="Variable" Label="mult" Expression="mult"/>
          <Output Type="Variable" Label="ptD" Expression="ptD"/>
        </Output>
      </Selection>
      <Class ClassIndex="0">
        <Ranges>
          <Range Index="0" Min="3.7543124053627253e-03" Max="2.8300434350967407e-01"/>
          <Range Index="1" Min="7.5897568603977561e-04" Max="1.6964375972747803e-01"/>
          <Range Index="2" Min="1.8299989700317383e+00" Max="3.7829998016357422e+01"/>
          <Range Index="3" Min="2.0539239048957825e-01" Max="9.6591144800186157e-01"/>
        </Ranges>
      </Class>
      <Class ClassIndex="1">
        <Ranges>
          <Range Index="0" Min="3.5653592203743756e-04" Max="2.8482484817504883e-01"/>
          <Range Index="1" Min="-3.7502933992072940e-04" Max="1.6813090443611145e-01"/>
          <Range Index="2" Min="8.2999897003173828e-01" Max="4.0829998016357422e+01"/>
          <Range Index="3" Min="2.0289108157157898e-01" Max="9.9984294176101685e-01"/>
        </Ranges>
      </Class>
      <Class ClassIndex="2">
        <Ranges>
          <Range Index="0" Min="3.5653592203743756e-04" Max="2.8482484817504883e-01"/>
          <Range Index="1" Min="-3.7502933992072940e-04" Max="1.6964375972747803e-01"/>
          <Range Index="2" Min="8.2999897003173828e-01" Max="4.0829998016357422e+01"/>
          <Range Index="3" Min="2.0289108157157898e-01" Max="9.9984294176101685e-01"/>
        </Ranges>
      </Class>
    </Transform>
  </Transformations>
  <MVAPdfs>
    <PDF Name="MLP_PDFSig" MinNSmooth="0" MaxNSmooth="0" InterpolMethod="5" KDE_type="1" KDE_iter="2" KDE_border="1" KDE_finefactor="3.0000001192092896e-01">
      <Histogram Name="MLP_tr_S_original" NBins="250" XMin="2.0656094420701265e-03" XMax="7.8710055351257324e-01" HasEquidistantBins="1">
        0.00000000e+00 2.19928976e-02 1.09964490e-01 2.41921872e-01 3.29893470e-01 5.05836666e-01 6.37794018e-01 7.47758508e-01 7.47758508e-01 9.23701704e-01 9.67687488e-01 1.01167333e+00 1.14363074e+00 1.47352421e+00 1.34156680e+00 1.31957388e+00 1.56149578e+00 1.47352421e+00 1.62747443e+00 1.56149578e+00 2.15530396e+00 2.44121170e+00 2.50719047e+00 2.66114068e+00 3.07900572e+00 3.51886368e+00 3.69480681e+00 4.31060791e+00 4.75046587e+00 4.11267185e+00 5.34427404e+00 4.94840193e+00 5.10235214e+00 5.27829552e+00 5.45423889e+00 5.98206806e+00 5.30028820e+00 5.41025305e+00 5.36626720e+00 5.16833115e+00 5.25630283e+00 4.92640924e+00 5.36626720e+00 5.43224573e+00 5.12434530e+00 4.64050150e+00 4.50854397e+00 4.26662207e+00 4.64050150e+00 4.72847319e+00 4.75046587e+00 3.45288491e+00 4.00270748e+00 3.87074995e+00 3.71679974e+00 4.31060791e+00 3.27694178e+00 3.45288491e+00 3.56284952e+00 3.76078558e+00 3.34292054e+00 2.99103403e+00 3.16697741e+00 3.05701280e+00 3.45288491e+00 2.92505550e+00 3.21096301e+00 2.72711945e+00 2.85907674e+00 2.44121170e+00 2.61715484e+00 2.68313360e+00 2.68313360e+00 2.68313360e+00 2.39722586e+00 2.22128272e+00 1.89138925e+00 2.26526856e+00 2.02334666e+00 2.24327564e+00 2.37523293e+00 2.08932519e+00 1.89138925e+00 2.06733251e+00 1.84740341e+00 1.80341768e+00 1.78142476e+00 1.80341768e+00 1.73743892e+00 1.36355972e+00 1.62747443e+00 1.53950286e+00 1.56149578e+00 1.20960939e+00 1.34156680e+00 1.42953837e+00 1.47352421e+00 1.56149578e+00 1.07765198e+00 9.89680409e-01 1.16562355e+00 1.18761647e+00 1.25359523e+00 1.16562355e+00 1.16562355e+00 1.05565906e+00 1.09964490e+00 9.01708841e-01 8.13737214e-01 7.47758508e-01 8.57722998e-01 5.49822450e-01 7.47758508e-01 6.59786940e-01 8.57722998e-01 9.89680409e-01 5.49822450e-01 8.79715919e-01 7.03772724e-01 4.83843744e-01 7.03772724e-01 9.45694625e-01 7.25765646e-01 7.25765646e-01 5.93808234e-01 4.61850852e-01 5.93808234e-01 4.83843744e-01 7.25765646e-01 4.83843744e-01 4.39857960e-01 5.49822450e-01 4.61850852e-01 3.51886362e-01 4.17865068e-01 4.83843744e-01 4.83843744e-01 4.83843744e-01 3.51886362e-01 4.17865068e-01 4.17865068e-01 5.05836666e-01 2.85907686e-01 4.39857960e-01 5.27829528e-01 3.95872176e-01 3.95872176e-01 2.19928980e-01 2.85907686e-01 3.73879254e-01 3.73879254e-01 1.97936088e-01 1.75943181e-01 1.31957382e-01 2.19928980e-01 2.41921872e-01 2.63914764e-01 2.85907686e-01 2.41921872e-01 3.29893470e-01 2.19928980e-01 3.95872176e-01 1.09964490e-01 2.41921872e-01 1.53950289e-01 1.75943181e-01 2.41921872e-01 1.31957382e-01 1.97936088e-01 1.97936088e-01 1.09964490e-01 3.07900578e-01 1.31957382e-01 1.09964490e-01 1.75943181e-01 6.59786910e-02 1.53950289e-01 6.59786910e-02 1.53950289e-01 1.09964490e-01 6.59786910e-02 6.59786910e-02 1.09964490e-01 4.39857952e-02 1.09964490e-01 1.31957382e-01 4.39857952e-02 1.31957382e-01 6.59786910e-02 4.39857952e-02 0.00000000e+00 8.79715905e-02 6.59786910e-02 6.59786910e-02 2.19928976e-02 2.19928976e-02 4.39857952e-02 1.09964490e-01 0.00000000e+00 1.09964490e-01 4.39857952e-02 2.19928976e-02 2.19928976e-02 2.19928976e-02 4.39857952e-02 8.79715905e-02 0.00000000e+00 4.39857952e-02 8.79715905e-02 0.00000000e+00 4.39857952e-02 6.59786910e-02 0.00000000e+00 2.19928976e-02 6.59786910e-02 0.00000000e+00 4.39857952e-02 0.00000000e+00 2.19928976e-02 0.00000000e+00 0.00000000e+00 2.19928976e-02 0.00000000e+00 0.00000000e+00 0.00000000e+00 0.00000000e+00 0.00000000e+00 2.19928976e-02 0.00000000e+00 0.00000000e+00 0.00000000e+00 0.00000000e+00 4.39857952e-02 2.19928976e-02 0.00000000e+00 0.00000000e+00 0.00000000e+00 2.19928976e-02 0.00000000e+00 0.00000000e+00 2.19928976e-02 0.00000000e+00 0.00000000e+00 0.00000000e+00 0.00000000e+00 0.00000000e+00 0.00000000e+00 0.00000000e+00 0.00000000e+00 0.00000000e+00 
      </Histogram>
    </PDF>
    <PDF Name="MLP_PDFBkg" MinNSmooth="0" MaxNSmooth="0" InterpolMethod="5" KDE_type="1" KDE_iter="2" KDE_border="1" KDE_finefactor="3.0000001192092896e-01">
      <Histogram Name="MLP_tr_B_original" NBins="250" XMin="2.0656094420701265e-03" XMax="7.8710055351257324e-01" HasEquidistantBins="1">
        8.63074288e-02 3.76300395e-01 8.97597313e-01 1.47067869e+00 1.80900371e+00 2.33720517e+00 2.47874951e+00 3.03111696e+00 3.21063638e+00 3.32801461e+00 3.60765076e+00 3.60419846e+00 3.67669654e+00 3.99776030e+00 3.91835737e+00 3.77681327e+00 4.09097242e+00 4.05990171e+00 4.62262583e+00 4.65024424e+00 4.87119150e+00 5.05416298e+00 5.45117760e+00 6.02080631e+00 6.41782045e+00 6.74924135e+00 6.96328354e+00 7.53981733e+00 7.36720228e+00 7.69862270e+00 7.86778545e+00 7.61231565e+00 7.42934370e+00 7.27744246e+00 7.13589859e+00 6.95983124e+00 6.36948824e+00 5.95521259e+00 6.00699711e+00 5.54093695e+00 5.49605703e+00 5.09904289e+00 5.05416298e+00 4.70548105e+00 4.62607813e+00 4.44310665e+00 4.33608532e+00 3.91835737e+00 3.63526893e+00 3.54896164e+00 3.42467880e+00 3.24170709e+00 3.21408868e+00 2.96207094e+00 2.79636073e+00 2.66862583e+00 2.64445972e+00 2.75838542e+00 2.41315579e+00 2.34410977e+00 2.44422650e+00 2.08173513e+00 2.16459036e+00 2.00578475e+00 1.93328643e+00 1.87459743e+00 1.70543480e+00 1.66400731e+00 1.70888710e+00 1.60531819e+00 1.52591538e+00 1.38091886e+00 1.38437116e+00 1.35330057e+00 1.22211325e+00 1.20830405e+00 1.11854434e+00 9.63190913e-01 1.06330752e+00 1.02188003e+00 9.21763361e-01 9.49381769e-01 9.28667963e-01 9.04501855e-01 7.18077838e-01 7.80219197e-01 7.45696187e-01 5.93795121e-01 6.42127275e-01 6.87007129e-01 6.38674974e-01 5.79985917e-01 5.14392316e-01 4.69512433e-01 4.79869306e-01 5.66176772e-01 5.10940015e-01 4.03918773e-01 3.86657298e-01 3.76300395e-01 3.69395822e-01 4.07371074e-01 2.79636085e-01 3.31420541e-01 3.31420541e-01 3.72848094e-01 2.58922309e-01 3.10706764e-01 2.96897560e-01 2.93445259e-01 2.76183784e-01 2.14042425e-01 3.07254463e-01 2.10590139e-01 1.62257969e-01 2.03685537e-01 1.79519460e-01 1.93328649e-01 1.58805668e-01 1.79519460e-01 1.69162571e-01 1.62257969e-01 1.58805668e-01 1.31187290e-01 1.51901081e-01 1.51901081e-01 1.86424047e-01 1.51901081e-01 1.20830402e-01 1.31187290e-01 1.24282703e-01 1.24282703e-01 1.00116618e-01 1.20830402e-01 9.66643244e-02 9.66643244e-02 7.24982396e-02 7.24982396e-02 6.55936450e-02 7.94028342e-02 5.52367568e-02 6.90459460e-02 6.55936450e-02 6.55936450e-02 6.21413514e-02 4.83321622e-02 5.86890541e-02 7.24982396e-02 4.48798649e-02 5.86890541e-02 4.83321622e-02 7.24982396e-02 4.14275676e-02 3.10706757e-02 4.83321622e-02 2.07137838e-02 4.48798649e-02 4.14275676e-02 4.14275676e-02 4.14275676e-02 4.48798649e-02 3.10706757e-02 3.79752703e-02 3.10706757e-02 1.72614865e-02 1.72614865e-02 3.79752703e-02 2.76183784e-02 2.41660811e-02 2.41660811e-02 3.10706757e-02 2.76183784e-02 4.48798649e-02 2.07137838e-02 1.03568919e-02 2.76183784e-02 2.07137838e-02 1.03568919e-02 3.45229730e-03 6.90459460e-03 3.45229730e-03 2.41660811e-02 1.72614865e-02 3.45229730e-03 1.03568919e-02 1.38091892e-02 6.90459460e-03 6.90459460e-03 6.90459460e-03 0.00000000e+00 1.03568919e-02 3.45229730e-03 1.38091892e-02 6.90459460e-03 1.03568919e-02 3.45229730e-03 1.03568919e-02 3.45229730e-03 6.90459460e-03 6.90459460e-03 1.38091892e-02 1.03568919e-02 3.45229730e-03 3.45229730e-03 0.00000000e+00 6.90459460e-03 0.00000000e+00 0.00000000e+00 6.90459460e-03 3.45229730e-03 0.00000000e+00 3.45229730e-03 3.45229730e-03 0.00000000e+00 6.90459460e-03 3.45229730e-03 0.00000000e+00 0.00000000e+00 3.45229730e-03 0.00000000e+00 0.00000000e+00 0.00000000e+00 0.00000000e+00 0.00000000e+00 0.00000000e+00 0.00000000e+00 0.00000000e+00 0.00000000e+00 3.45229730e-03 0.00000000e+00 0.00000000e+00 0.00000000e+00 0.00000000e+00 0.00000000e+00 3.45229730e-03 0.00000000e+00 0.00000000e+00 0.00000000e+00 0.00000000e+00 0.00000000e+00 0.00000000e+00 0.00000000e+00 0.00000000e+00 0.00000000e+00 0.00000000e+00 0.00000000e+00 0.00000000e+00 0.00000000e+00 0.00000000e+00 0.00000000e+00 
      </Histogram>
    </PDF>
  </MVAPdfs>
  <Weights>
    <Layout NLayers="4">
      <Layer Index="0" NNeurons="5">
        <Neuron NSynapses="4">
          -1.5590535656941493e+00 1.7685920775260759e+00 3.7168236460271613e-02 2.1933046544904302e+00 
        </Neuron>
        <Neuron NSynapses="4">
          -1.7772261427556886e+00 -1.2851113557295286e+00 -3.8352989472140281e-01 2.5787495351024390e+00 
        </Neuron>
        <Neuron NSynapses="4">
          -1.4112822916434160e+00 -1.3854431947728214e+00 -2.1132888118931596e+00 3.2902918286145710e-01 
        </Neuron>
        <Neuron NSynapses="4">
          -5.1778802967156876e+00 -6.6851493750054325e-01 -6.7495847679146348e-01 1.8838734386335758e+00 
        </Neuron>
        <Neuron NSynapses="4">
          -2.0953715760709426e+00 1.9586980706060459e+00 2.2568415304382874e-01 5.0530042586214758e+00 
        </Neuron>
      </Layer>
      <Layer Index="1" NNeurons="5">
        <Neuron NSynapses="3">
          -3.7133756356689684e-01 -1.4273509198100169e+00 2.5447070952897786e+00 
        </Neuron>
        <Neuron NSynapses="3">
          -8.5544206966094194e-01 -1.9389116040117937e+00 -1.6240689592175703e+00 
        </Neuron>
        <Neuron NSynapses="3">
          6.8754010603360938e-01 -1.7419552007449648e+00 -3.3534769311262531e+00 
        </Neuron>
        <Neuron NSynapses="3">
          -1.3295580415332333e+00 2.6532425140762950e-01 3.0942129742839768e+00 
        </Neuron>
        <Neuron NSynapses="3">
          -1.5059929281723843e+00 -1.0310404210014332e+00 -1.7103145104692217e+00 
        </Neuron>
      </Layer>
      <Layer Index="2" NNeurons="4">
        <Neuron NSynapses="1">
          -4.3840097305743297e-01 
        </Neuron>
        <Neuron NSynapses="1">
          -6.6939974240186706e-01 
        </Neuron>
        <Neuron NSynapses="1">
          1.0744437917550833e+00 
        </Neuron>
        <Neuron NSynapses="1">
          -3.1576757582750495e-03 
        </Neuron>
      </Layer>
      <Layer Index="3" NNeurons="1">
        <Neuron NSynapses="0"/>
      </Layer>
    </Layout>
    <InverseHessian NElements="1521" NRows="39" NCols="39">
      <Row Index="0">
        2.2430288686301758e+01 -5.7322010210579904e+01 -4.4862775458965762e+00 1.7272699887019456e+00 1.3259613599642423e+01 2.6794094934504511e+01 -6.3860501836996253e+00 -5.7442837339771691e-01 -2.7984899115244444e-01 2.6586447646328637e+01 -4.0941237581900323e+00 9.6668928757634121e-01 5.1076382468159970e+01 -1.6561317587643241e+01 -1.5756117172085913e+01 2.8638718707359496e+00 3.9866620550810659e+01 8.2290822130799540e+01 -1.3027292648943671e+01 9.9354000378990426e-01 -4.9610392398105382e+01 5.9083271661615839e+00 7.1531528877597765e+01 -5.7154503508208371e+01 -8.2903325907241424e+02 -1.8025276781076798e+02 4.7501404110528469e+01 3.7252515245002655e+01 -5.1935913020004065e+00 -6.1514893460555271e+01 -4.2149468378784519e+02 2.2133514275895347e+00 -3.1744687596277046e+01 2.3275151577520194e+02 1.1928231327776695e+02 -9.1735380899143095e+00 -3.9579713790332096e+02 -2.7318178653102390e+00 -3.0215096177861351e+00 
      </Row>
      <Row Index="1">
        -5.7322010204184039e+01 8.1079003952933692e+02 1.8497155340532785e+01 9.8870558721220370e-01 1.5684387277727136e+01 -3.8784995659564862e+02 -1.4767130416426673e+01 2.8427313242528960e+01 1.6948283064129939e+01 -2.9435542912670456e+02 3.0477365687088707e+01 1.4254096661879430e+01 -4.7799687927711872e+01 1.3255391857003016e+02 -2.2755497554056696e+01 2.4196035525159459e+01 -3.1931208841781856e+01 -8.1017284368052856e+02 3.7733822595596562e+00 2.1692335887406667e+01 -4.1625260540709476e+01 -4.2153509405383994e+02 -7.0545914947513253e+01 -2.2922085054682191e+02 6.1350195715147274e+03 2.1703699841327298e+03 -6.0083242109230412e+01 -7.3962024040224082e+02 -1.7855133383625952e+02 -9.9591424615706046e+01 2.8775547623200373e+02 -3.6827633719366339e+01 6.4214033537994601e+02 -1.6168901455037480e+03 -1.8811186894075449e+03 1.1867873033406752e+02 2.3345436033289011e+03 -9.3868840698949185e-01 2.1628469084337403e+00 
      </Row>
      <Row Index="2">
        -4.4862775498813701e+00 1.8497155418906871e+01 1.1861811202530141e+01 5.9124672126307343e-01 -4.8338918821007733e+00 -2.6741070014177950e+01 4.5826251459128837e+00 6.2758540752311980e+00 1.3396969557719911e+00 -7.0982692312845348e+00 1.0729754147461810e+00 1.3305048848733103e+00 -2.0817926751010646e+01 -1.9814512768077158e+01 1.5493156842642927e+01 4.9379003781991742e+00 -1.3526395607110214e+01 2.6237771141887780e+01 1.1168900194187829e+01 4.3247370969948840e+00 -8.2261436699888861e+01 5.2298338646288016e+01 -3.7948987501174528e+01 -2.3573146273820370e+02 1.4567157357057170e+01 7.8212083190538202e+00 1.4933767875698089e+02 7.8088224646768687e+00 5.7309476844775489e+00 -3.1432954091842959e+02 1.7716933911672714e+02 -6.1830448338063615e+00 3.8094280546269374e+01 4.4736546924727861e+01 2.7832613487600511e+01 -1.4066969397375285e+01 7.0159024953237662e+01 5.7178809167310147e+00 -6.4123130118616531e+00 
      </Row>
      <Row Index="3">
        1.7272699842712811e+00 9.8870565857347914e-01 5.9124672170064008e-01 1.5445462738551470e+01 1.7931496323963645e+00 1.3319754703986924e+01 4.3632688661469476e-01 1.0336786170392864e+01 3.0813353352626702e+00 5.0316130470691638e+00 -1.7515919348724687e+00 3.8431421797309326e+00 -1.1633877296012543e+00 1.0206912158317209e+01 3.9015454573683943e+00 1.3902445207871551e+01 2.3436276475911999e+00 7.1614655478064213e+00 -3.2992684541246162e+00 8.5187795004322417e+00 -6.9790011217406587e+01 4.1341536061155821e+01 -7.9552737020031330e+00 -5.8815237349485017e-01 -1.7110762764737157e+02 -1.3973812444426308e+00 1.8942336568483633e+01 2.0727479618876811e+02 1.9434863507915242e+01 -2.5309716171372622e+02 8.6693175280653008e+01 -3.7598476900423535e+01 -1.9732843156437386e+02 -2.5068849519147385e+01 2.3430723417951047e+01 -8.1605919664176511e+01 2.0750548845992430e+01 3.1189898566575893e+00 -4.3992597980694672e+00 
      </Row>
      <Row Index="4">
        1.3259613601769242e+01 1.5684387235690583e+01 -4.8338918842066638e+00 1.7931496311215631e+00 1.8730420069437411e+01 2.1117981828584522e+00 -3.1875417637276144e+00 1.3833037060272055e+00 5.1815889269195337e+00 -2.3329696579029942e+00 -3.1532138699248327e+00 8.2129893238672280e-01 4.4799575117938048e+01 1.5851817612326840e+01 -1.5912835149139369e+01 6.3528335502778646e+00 3.7035770969007956e+01 4.5755748252523585e+00 -1.2619802491665824e+01 2.8757174242925485e+00 -9.9455058380933039e+00 8.9254338560958288e+01 5.7205270379060508e+01 8.8050938945038297e+01 -1.3388991790832011e+02 1.6934863535508946e+01 -9.3897674673327316e+00 7.9914339056675217e+01 -9.2971036003123722e+00 6.4194893297540915e+01 -2.9671159322203175e+02 1.2945554941570587e+00 -1.5097644570247262e+01 -4.9472203387210733e+01 -6.1286221889324928e+01 1.0117671805869794e+01 -1.3896347876475116e+02 -3.4683013956113546e+00 1.9077313520584391e+00 
      </Row>
      <Row Index="5">
        2.6794094943826451e+01 -3.8784995682427433e+02 -2.6741069975187614e+01 1.3319754741508147e+01 2.1117981557635530e+00 3.5956621914952422e+02 3.4803735953450321e-01 -5.2900538751832556e+01 1.8549345093876055e+00 2.2195213590468833e+02 -2.7929264434136364e+01 -1.6420935887225426e+01 4.2769114689190701e+01 1.1647152460007419e+02 -4.6486993846729092e+00 -2.0738717191422438e+01 3.5375432203246660e+01 4.4352591684999709e+02 -2.0528776771164807e+01 -3.1116649569595946e+01 2.8864824356971201e+02 4.6761981082208735e+01 7.4344582549093971e+01 8.0904463678855348e+02 -2.2829101313174097e+03 -1.0779781557651713e+03 -2.3364166297422338e+02 9.2370579125263066e+02 1.2841025458719935e+02 7.0471670581929152e+02 -1.1565901867445305e+03 5.7994390823185185e+01 -4.3761582934988746e+02 7.3184379921598486e+02 8.2299981887324066e+02 9.9978699134884494e+01 -1.1441735919759158e+03 -1.1193132020967193e+01 1.3320592282189272e+01 
      </Row>
      <Row Index="6">
        -6.3860501847498714e+00 -1.4767130400354779e+01 4.5826251482706155e+00 4.3632688810228970e-01 -3.1875417645549944e+00 3.4803734569114053e-01 1.1235756658100886e+01 1.7911252335366945e+00 1.0161795995463154e+00 -6.0658637905363033e+00 5.7732793028431235e+00 -4.0506796775267269e+00 -2.0936375013258996e+01 -5.3469123311703584e+00 1.8771154743866440e+01 3.1499457490456422e+00 -1.5548661092719669e+01 -9.6045673132951421e+00 1.7260696321286300e+01 -7.8282824629976311e-01 -8.5722525901454780e+00 9.0021712707039399e+01 -4.0247135753023159e+01 -3.3754687218302635e+01 5.3759998424806248e+01 -2.2167615750986279e+01 2.0208406261116892e+01 -8.6614222060721630e+01 4.4051252895471995e+00 -2.2542435150377337e+01 3.7531635621086798e+02 -3.2285617826378568e+00 -4.0493080360453897e+00 -5.6449091517062996e+01 5.5948792272191135e+01 -2.1238286488945086e+01 9.6055882910274505e+01 2.2605110570168647e+00 3.1305954524527824e-01 
      </Row>
      <Row Index="7">
        -5.7442838523173023e-01 2.8427313449589750e+01 6.2758540712779407e+00 1.0336786166158209e+01 1.3833037131481176e+00 -5.2900538845091276e+01 1.7911252278388392e+00 3.4666495678653156e+01 2.1548136713050536e+00 -3.2102745709695242e+01 -1.0700141739876412e-01 1.0109362158215944e+01 -7.0709360933601602e+00 -3.1829492875151118e+01 6.1207963340366405e+00 2.5315087007821148e+01 -3.7464811365888817e+00 -2.6442219400955935e+01 3.0451877431813639e+00 2.3919276701684851e+01 -1.4720073320809985e+02 6.8931652577464334e+01 -2.4478886279688844e+01 -4.7017736361401307e+02 2.2772027883644711e+02 9.0307657005209663e+01 2.5865522674276173e+02 -6.4254643777383507e+01 6.4649391167397567e+00 -5.2904093900296471e+02 2.0063126629578986e+02 -6.1075910178101275e+01 -1.8610365956317980e+02 -1.8648869290230931e+02 -1.2986144350721105e+01 -1.4905447791762089e+02 6.0032736530272892e+01 7.5544929671782706e+00 -1.1419681204589200e+01 
      </Row>
      <Row Index="8">
        -2.7984899123691792e-01 1.6948283065033198e+01 1.3396969541861259e+00 3.0813353341188545e+00 5.1815889275608527e+00 1.8549345135615363e+00 1.0161795990486664e+00 2.1548136674039235e+00 1.0711903098766227e+01 3.3248705025310370e+00 -7.3481591935163877e+00 6.1986737529267124e+00 4.7561699910332216e+00 2.1295005255213823e+01 6.0132748169089467e-01 6.8929038024611380e+00 7.4975759626328147e+00 -7.2114998036532398e+00 -5.8496690185338114e+00 4.6105862381688700e+00 -4.2475045744145930e+01 2.0164108505072710e+02 -5.8699762963589706e+00 9.8396294855707453e+01 2.0618163093507883e+02 4.3520201227289427e+01 4.7890235124662812e+00 2.8460504243176797e+02 2.7031883958260313e+01 -1.4861093752955770e+02 1.7839238502977860e+01 -3.8352486195208666e+00 5.3087879094933017e+00 -1.8778541787959165e+02 -6.4177585765057870e+01 1.4486757110028684e+01 7.8801319892818611e+01 2.7131885404613230e+00 1.3922999792899265e-01 
      </Row>
      <Row Index="9">
        2.6586447640144513e+01 -2.9435542907214301e+02 -7.0982691964016622e+00 5.0316130809473334e+00 -2.3329696748015127e+00 2.2195213577568799e+02 -6.0658637851253951e+00 -3.2102745612108720e+01 3.3248705058748373e+00 2.5781856899517618e+02 -3.2776845523175375e+01 7.2632992917598180e+00 3.5041934657988349e+01 7.9205625551028334e+01 -7.9894926381483629e+00 -8.2521105416230398e+00 3.0848019787907244e+01 5.6712705464725241e+02 -1.8214480641861602e+01 -8.2453409509909736e+00 1.0821257301091818e+02 -1.6044143621916032e+02 6.0301831827972727e+01 -2.4776696647449455e+01 -1.9989648543803912e+03 -1.0529620733223314e+03 -1.6464766529161469e+02 4.9671030347088038e+02 9.3179977940495633e+01 3.2716385178920393e+02 -9.3043046072308789e+02 4.6076910698068062e+01 -1.6200331495370679e+02 4.2097529260038351e+02 8.6039003637614690e+02 -7.1297331490090301e+01 -1.1390622621708799e+03 -2.3979168078139415e+00 2.1991954417916810e+00 
      </Row>
      <Row Index="10">
        -4.0941237570778739e+00 3.0477365672955447e+01 1.0729754135974241e+00 -1.7515919375929827e+00 -3.1532138689124549e+00 -2.7929264421235946e+01 5.7732793032307503e+00 -1.0700142457329823e-01 -7.3481591931023402e+00 -3.2776845513865339e+01 3.1940829833989064e+01 -8.4957607629855900e+00 -9.2346127644451599e+00 -1.6380157104553291e+01 1.1442913584049734e+01 -1.4275382509271139e+00 -1.4296980609307990e+01 -6.3017083375309490e+01 2.4845898684256305e+01 -6.4480436431115598e+00 1.1082209176421189e+00 -1.0474410733471015e+02 -1.6322711410703256e+01 4.0935054991065840e+00 2.2293154034004249e+02 9.4613705767088163e+01 -2.2497422612604328e+02 -6.5411287918242169e+02 -8.8041232354040432e+01 2.5951733914256658e+02 6.5305807017592906e+02 -7.2638420003288289e+00 1.1484903686681912e+02 -1.3235990747445061e+02 9.5804398157325323e+00 -7.7884014967287754e+01 2.1435439680640661e+02 -3.9986542229934106e+00 4.5052243912960472e+00 
      </Row>
      <Row Index="11">
        9.6668927877265842e-01 1.4254096805449638e+01 1.3305048817073710e+00 3.8431421773911625e+00 8.2129893715193969e-01 -1.6420935950651259e+01 -4.0506796815684005e+00 1.0109362157964014e+01 6.1986737561395202e+00 7.2632992208490350e+00 -8.4957607595737574e+00 1.5637325263978994e+01 2.9797412326201993e+00 4.0884682970363428e+00 -4.3748906448521439e+00 1.0743153717954556e+01 5.6807232592626020e+00 8.3204944535676759e+00 -1.2782379108121697e+01 1.2384490309729298e+01 -1.5053793015820065e+02 -2.8508394463734604e+01 3.6618685953228702e-02 -1.4441504795905527e+02 -1.2405268052142208e+02 3.8297487339295230e+01 -3.6505205843896277e+01 1.5632551904973906e+02 2.9888467449722246e+01 -3.6148486669614249e+02 3.1355315403892419e+01 -1.7716228459197858e+01 -8.7833023388387147e+01 -1.8064664341866285e+02 -5.1998867029978236e+01 -1.2124498743776445e+02 -2.3138030110379376e+01 5.2620908048366992e+00 -7.1981633833004572e+00 
      </Row>
      <Row Index="12">
        5.1076382475339862e+01 -4.7799688067776351e+01 -2.0817926750370848e+01 -1.1633877264114370e+00 4.4799575114400390e+01 4.2769114755958576e+01 -2.0936375009059066e+01 -7.0709360952735780e+00 4.7561699890129034e+00 3.5041934721919063e+01 -9.2346127688377067e+00 2.9797412324476227e+00 1.4910760544387654e+02 1.4046307819200592e+01 -5.8814941036536538e+01 4.7924325123827884e+00 1.1513493003012140e+02 9.5928874058926539e+01 -4.4473957172109280e+01 -5.6349009028413644e-01 -4.1523051274829355e+00 -2.9015565038093719e+01 2.1279906762251798e+02 2.1018872378381946e+02 -1.2346182493152505e+03 -1.8456350350081371e+02 -1.4839640950424823e+02 -3.4332447092870382e+00 -3.9207504174302258e+01 3.5748739275644402e+02 -1.2078616044914418e+03 1.7710880049386763e+01 1.2625321437601670e+01 2.6375881515995337e+02 1.6210756801325459e+01 2.3719028024518465e+01 -7.5873538559681776e+02 -1.4393730351918105e+01 4.3231773773349165e+00 
      </Row>
      <Row Index="13">
        -1.6561317581996306e+01 1.3255391844978567e+02 -1.9814512776938166e+01 1.0206912152351455e+01 1.5851817613452141e+01 1.1647152468700210e+02 -5.3469123292091183e+00 -3.1829492904781304e+01 2.1295005254180111e+01 7.9205625593684090e+01 -1.6380157107856888e+01 4.0884682766647700e+00 1.4046307833073115e+01 3.0056116091610238e+02 -2.7900867096562251e+01 7.2665693378185097e+00 1.4511865914262968e+01 1.5162452872274514e+01 -2.3952662098007391e+01 -1.0535097193245235e+01 2.5649660064492519e+02 -4.6636468381031108e+02 2.1311201145817599e+01 7.6037404588652521e+02 1.9950950201147020e+03 2.5686415378036588e+02 -6.6159644971458533e+02 1.1457215352463257e+02 2.8054184314820596e+01 9.1918218213164118e+02 -7.6532933653253656e+02 2.8176634534816927e+01 -1.5930497520311110e+02 -6.4577379237772925e+02 -3.2339046163835792e+02 -2.3688839359163126e+01 4.1183811820620713e+02 -1.3949962077870243e+01 1.9403000746008622e+01 
      </Row>
      <Row Index="14">
        -1.5756117176365059e+01 -2.2755497474237870e+01 1.5493156847175618e+01 3.9015454603516515e+00 -1.5912835149284355e+01 -4.6486994363425609e+00 1.8771154742318551e+01 6.1207963483488745e+00 6.0132748358471488e-01 -7.9894926701574036e+00 1.1442913584173752e+01 -4.3748906345999004e+00 -5.8814941044569991e+01 -2.7900867094810565e+01 4.5725625122295753e+01 7.3342498901405406e+00 -4.2916785220846258e+01 -6.2557653053850970e-02 3.7355121817141949e+01 2.2803396045907807e+00 -5.4405915152697887e+01 6.5769808894270895e+01 -9.9175199731632290e+01 -2.1161959964108928e+02 4.8721197488771224e+01 -4.5001641472813972e+01 6.5515836382361513e+01 -1.7964831607952934e+02 1.6612495584609626e+01 -1.8833087659703438e+02 7.2312583199511198e+02 -1.4726705683154261e+01 3.3730844107486789e+01 2.8139175709915758e+01 1.3115691278931106e+02 -5.2524208484584861e+01 2.3372616577195333e+02 7.4504274610702907e+00 -3.7609490165954544e+00 
      </Row>
      <Row Index="15">
        2.8638718611977794e+00 2.4196035692489243e+01 4.9379003751775734e+00 1.3902445205141209e+01 6.3528335561265834e+00 -2.0738717267295229e+01 3.1499457443912986e+00 2.5315087008762230e+01 6.8929038060244139e+00 -8.2521106211571009e+00 -1.4275382460778943e+00 1.0743153719027603e+01 4.7924325136566495e+00 7.2665693613744224e+00 7.3342498785123098e+00 2.9352646410005946e+01 6.4254017972579582e+00 -3.7483749944497653e+00 3.0739752850424313e+00 2.0479360784955478e+01 -1.3599268270153527e+02 -2.1721043977280559e+01 -1.3488668391035517e+01 -3.2799143607022313e+02 1.4961105012431267e+02 6.3405620426466399e+01 8.4568098825570729e+01 -8.8966723583517918e+01 1.4969560959017510e+01 -3.7915634192044968e+02 7.6978620740422301e+01 -5.5235345976657193e+01 -1.4164345377433415e+02 -1.1324179527046577e+02 -8.8732788764555472e+00 -1.4936734469229387e+02 5.8589848456222370e+01 5.5308195838596976e+00 -9.0545423324332699e+00 
      </Row>
      <Row Index="16">
        3.9866620555220734e+01 -3.1931208937479063e+01 -1.3526395607645108e+01 2.3436276498286244e+00 3.7035770966732528e+01 3.5375432251233711e+01 -1.5548661090027078e+01 -3.7464811393935369e+00 7.4975759615083390e+00 3.0848019828470683e+01 -1.4296980613128365e+01 5.6807232580384976e+00 1.1513493003002475e+02 1.4511865905482409e+01 -4.2916785216333153e+01 6.4254017947754392e+00 9.7548030660742072e+01 8.4283211958780015e+01 -4.2197729220837722e+01 3.6661612907721652e+00 -7.0973535498134737e+01 -8.0207753096877397e+01 1.7390692304597204e+02 2.2701106148320710e+02 -1.2597152240462185e+03 -1.4103022159088252e+02 -1.5628235599261487e+02 2.1532820232615023e+02 -8.9310924838157746e-01 1.7490554651152013e+02 -9.3911534989187965e+02 1.4874261096917769e+01 1.9243192482303755e+00 1.4926067379843957e+02 -3.1312343852816408e+01 -4.2490606016834818e+00 -6.2675853196062326e+02 -1.1220122579839485e+01 2.4925695730825428e+00 
      </Row>
      <Row Index="17">
        8.2290822088167317e+01 -8.1017284303109420e+02 2.6237771261318215e+01 7.1614656546536413e+00 4.5755747802777194e+00 4.4352591617787135e+02 -9.6045673082956640e+00 -2.6442219049816131e+01 -7.2114997870337447e+00 5.6712705444585299e+02 -6.3017083391771024e+01 8.3204947077692850e+00 9.5928873841761742e+01 1.5162452773300174e+01 -6.2557570101489546e-02 -3.7483747108690295e+00 8.4283211823624427e+01 2.1503341581000536e+03 -3.8732773276704073e+01 -5.5760098300505234e-01 -5.2044137881915890e+02 5.0391383459339522e+02 1.0794820404116645e+02 -1.5523284501424896e+03 -9.4560941392308196e+03 -3.5115807678157262e+03 1.0251366928789973e+03 1.6176623308187766e+03 1.9123365223629008e+02 -1.9384992430338507e+03 -1.9624671201338922e+03 6.4976163741056951e+01 -4.9886860763590244e+02 2.8455297111415425e+03 3.1626305595522999e+03 -2.4037626241559744e+02 -4.0594224738839484e+03 2.5192543687061853e+01 -5.2284629156284225e+01 
      </Row>
      <Row Index="18">
        -1.3027292649430285e+01 3.7733822876553651e+00 1.1168900196072407e+01 -3.2992684540192103e+00 -1.2619802490949139e+01 -2.0528776789038275e+01 1.7260696320678303e+01 3.0451877477848579e+00 -5.8496690176556170e+00 -1.8214480646839483e+01 2.4845898684696575e+01 -1.2782379103255952e+01 -4.4473957171959974e+01 -2.3952662094145239e+01 3.7355121817285593e+01 3.0739752899316954e+00 -4.2197729219232428e+01 -3.8732773295137214e+01 5.6143435791461194e+01 -1.5592919827201186e+00 8.3059764838032521e+01 4.5298102316158605e+01 -8.2776447122656236e+01 -4.2641909631979649e+02 9.2291816094475939e+02 2.3548175003443049e+01 2.6586042003027666e+02 -7.9249659303900228e+02 -6.2054761159608553e+01 1.5318891296762212e+02 4.1011309052974593e+02 5.4731353587910503e+00 3.5520139544595963e+00 1.5072358324215006e+02 1.1597603967603438e+02 -1.0304886532988121e+01 2.9773122392019695e+02 8.9742602809330230e-01 -1.5956761782771192e-01 
      </Row>
      <Row Index="19">
        9.9353999314353203e-01 2.1692336046516012e+01 4.3247370942712493e+00 8.5187794982193523e+00 2.8757174287528442e+00 -3.1116649641529243e+01 -7.8282824996007427e-01 2.3919276702357159e+01 4.6105862416999912e+00 -8.2453410289946873e+00 -6.4480436380745196e+00 1.2384490310158952e+01 -5.6349009312179987e-01 -1.0535097170878544e+01 2.2803395951495986e+00 2.0479360784660116e+01 3.6661612896271736e+00 -5.5760126027532309e-01 -1.5592919864259440e+00 2.7574138517469656e+01 -5.7144084983116734e+01 6.6528134549520814e+00 -7.7833362198297493e+00 -2.0546697373169462e+02 2.3336734996953675e+02 4.8934406975208574e+01 1.0020053537637054e+02 -1.9568807176794323e+01 1.8777160481988496e+01 -1.3005179843247814e+02 -1.3455902877179614e+02 -2.5871933231217060e+01 -3.9566328057923329e+02 -1.2600133092090465e+02 -3.3821401301826270e+01 -1.7657861108492142e+02 -3.9850970172148983e+01 3.8177388509175372e+00 -4.2716728847347918e+00 
      </Row>
      <Row Index="20">
        -4.9610392669207386e+01 -4.1625257982893231e+01 -8.2261436677262282e+01 -6.9790011212499167e+01 -9.9455058475813871e+00 2.8864824229553778e+02 -8.5722525809950412e+00 -1.4720073314570959e+02 -4.2475045665832567e+01 1.0821257166616851e+02 1.1082210411125288e+00 -1.5053793012501228e+02 -4.1523054901772412e+00 2.5649660093284911e+02 -5.4405915146176994e+01 -1.3599268266795843e+02 -7.0973535773703546e+01 -5.2044138314412999e+02 8.3059764859656326e+01 -5.7144084965346480e+01 6.6163966702318639e+03 2.9713524481662233e+02 8.5707155380334427e+01 8.5876629111453476e+03 1.2489851597859528e+04 1.1051587766703409e+02 -4.7994142707791107e+03 -1.0751986867192661e+03 -2.2247009026136880e+02 1.8270567930138455e+04 -5.4954412847752064e+03 2.7234730025540671e+02 -2.7656627350530704e+04 -3.7744759794327883e+03 -2.1080908032712807e+02 -8.4670526728481909e+03 -1.0106292210630065e+03 -1.1718058334025331e+02 3.2214289368192783e+02 
      </Row>
      <Row Index="21">
        5.9083270821569158e+00 -4.2153509392548267e+02 5.2298338779253839e+01 4.1341536137661194e+01 8.9254338439756964e+01 4.6761980708189412e+01 9.0021712757889219e+01 6.8931652841780220e+01 2.0164108503205529e+02 -1.6044143619212355e+02 -1.0474410729925057e+02 -2.8508394328031386e+01 -2.9015565428549962e+01 -4.6636468398482248e+02 6.5769809088319562e+01 -2.1721043776124134e+01 -8.0207753414071959e+01 5.0391383535320011e+02 4.5298102481114114e+01 6.6528136175877748e+00 2.9713524536102949e+02 2.3562240801528795e+04 -8.7311657045589686e+02 1.4756143676551646e+03 8.2982797994266657e+03 -1.6175035237698532e+03 1.1962790042541603e+04 1.9728049070773581e+04 3.8798167641888796e+02 -1.1587336603096272e+04 8.4393939466624579e+02 -2.3258431043080918e+00 -1.9892947937051920e+03 -3.6026089183376826e+04 1.8550120344991392e+03 4.3893626205218434e+03 -2.0303973166808675e+04 2.2488994754120711e+02 -5.1044314996721731e+01 
      </Row>
      <Row Index="22">
        7.1531528899467901e+01 -7.0545915358486766e+01 -3.7948987502869372e+01 -7.9552736976919931e+00 5.7205270369996214e+01 7.4344582756250077e+01 -4.0247135741949151e+01 -2.4478886297990861e+01 -5.8699763029905228e+00 6.0301832012293971e+01 -1.6322711421906263e+01 3.6618675213617280e-02 2.1279906763013878e+02 2.1311201106967928e+01 -9.9175199711552523e+01 -1.3488668404542295e+01 1.7390692304989832e+02 1.0794820464980677e+02 -8.2776447121692271e+01 -7.7833362256876786e+00 8.5707155945572595e+01 -8.7311656961294170e+02 3.8927067350516955e+02 8.2165787491017534e+02 -2.3181861345049069e+03 -2.4791986579807332e+02 -6.6971124979149772e+02 -1.9836029922607378e+02 -7.4219537726792609e+01 1.3258039457853602e+03 -2.1142749826266927e+03 7.3872053124982699e+01 1.3849673340236643e+02 5.2008689072183211e+02 -1.0256343190231593e+02 5.0097700937410593e+01 -1.2347597877986022e+03 -4.3392830708969356e+01 2.2046246068130138e+01 
      </Row>
      <Row Index="23">
        -5.7154504012033613e+01 -2.2922084693387865e+02 -2.3573146266309732e+02 -5.8815235619294981e-01 8.8050938843290510e+01 8.0904463495272284e+02 -3.3754687139427006e+01 -4.7017736358405864e+02 9.8396294986968314e+01 -2.4776698832385591e+01 4.0935057013684855e+00 -1.4441504800507028e+02 2.1018872292706510e+02 7.6037404611380771e+02 -2.1161959949362790e+02 -3.2799143610600731e+02 2.2701106078304133e+02 -1.5523284565732533e+03 -4.2641909619591240e+02 -2.0546697382248340e+02 8.5876629070822491e+03 1.4756143711730983e+03 8.2165787343284364e+02 3.9089987550164689e+04 -5.5213511155794404e+03 6.4490831068978832e+02 -2.4340627108140201e+04 8.9409918649596657e+03 4.9216136233399766e+01 3.5938334802896381e+04 6.2251199831242238e+03 5.8911803395293646e+02 -6.0697907115119568e+04 -9.3667275450057950e+03 -2.4573730140918419e+03 -2.0640666784622154e+04 6.5044381505251579e+01 -3.3920605457567825e+02 8.2265944577374466e+02 
      </Row>
      <Row Index="24">
        -8.2903325901073367e+02 6.1350195696697574e+03 1.4567156720136154e+01 -1.7110762822461515e+02 -1.3388991766412005e+02 -2.2829101284711792e+03 5.3759998397538141e+01 2.2772027701377644e+02 2.0618163089248992e+02 -1.9989648538721449e+03 2.2293154051610304e+02 -1.2405268179927043e+02 -1.2346182483269513e+03 1.9950950210897136e+03 4.8721197051920171e+01 1.4961104869094561e+02 -1.2597152234119983e+03 -9.4560941417394952e+03 9.2291816084148343e+02 2.3336734857041665e+02 1.2489851577271525e+04 8.2982797977181144e+03 -2.3181861313555191e+03 -5.5213511431631596e+03 1.3659102593024255e+05 2.0023017117224332e+04 1.2713925743989399e+04 -1.1200913443493504e+04 -2.0212625008366667e+03 1.7699342726048606e+04 -1.7969465951957805e+04 1.7763830503365989e+02 -4.6144674360420322e+02 -6.6294898603642272e+04 -1.5695197793752412e+04 6.1983994492964830e+03 2.5285958382402841e+03 -9.8010042249533583e+01 4.1598605061181274e+02 
      </Row>
      <Row Index="25">
        -1.8025276777147033e+02 2.1703699837534095e+03 7.8212080590642472e+00 -1.3973814774793141e+00 1.6934863662548459e+01 -1.0779781548230085e+03 -2.2167615792126497e+01 9.0307656301995962e+01 4.3520201214122579e+01 -1.0529620733447084e+03 9.4613705815171073e+01 3.8297486840729448e+01 -1.8456350303824729e+02 2.5686415412306451e+02 -4.5001641713657136e+01 6.3405619856903286e+01 -1.4103022128579224e+02 -3.5115807693984079e+03 2.3548174928176952e+01 4.8934406426953394e+01 1.1051586895334290e+02 -1.6175035235363307e+03 -2.4791986445719539e+02 6.4490829817589497e+02 2.0023017120343429e+04 7.2824838739358456e+03 -9.9229318774744775e+02 -2.7834456669545043e+03 -4.1624214268891660e+02 6.6634697622934277e+02 2.1569523609858943e+03 -1.6731182373988150e+02 1.6819923104311333e+03 -5.5921575233634840e+03 -6.4518376556518815e+03 3.4902753179830324e+02 8.0920096804127907e+03 -1.5251779982864392e+01 3.0672225898328826e+01 
      </Row>
      <Row Index="26">
        4.7501404744958108e+01 -6.0083249167130816e+01 1.4933767875909598e+02 1.8942336597625399e+01 -9.3897675440422290e+00 -2.3364165960181708e+02 2.0208406315763682e+01 2.5865522666585287e+02 4.7890232830650348e+00 -1.6464766156886981e+02 -2.2497422634046688e+02 -3.6505205904797549e+01 -1.4839640885962581e+02 -6.6159645051264670e+02 6.5515836553531699e+01 8.4568098812102107e+01 -1.5628235553883178e+02 1.0251367050469391e+03 2.6586042014065390e+02 1.0020053538403431e+02 -4.7994142680516234e+03 1.1962790044644404e+04 -6.6971124890056672e+02 -2.4340627113808168e+04 1.2713925689408206e+04 -9.9229321201606786e+02 2.9942403181105161e+04 8.3564386294784181e+03 2.5633944416528902e+02 -3.2042080272612278e+04 -1.6034134797231829e+04 1.2989389368764478e+02 4.7740109344254786e+04 -1.3345876627849902e+03 1.5395862255785610e+03 2.3082323028240255e+04 -8.6216213327259247e+03 2.3329359317310943e+02 -5.7717463320739012e+02 
      </Row>
      <Row Index="27">
        3.7252515132504755e+01 -7.3962024053160667e+02 7.8088226096783160e+00 2.0727479631516908e+02 7.9914338885132238e+01 9.2370579094803281e+02 -8.6614221993168229e+01 -6.4254643454349392e+01 2.8460504240054127e+02 4.9671030348600107e+02 -6.5411287915797959e+02 1.5632551918114245e+02 -3.4332452435482992e+00 1.1457215323521814e+02 -1.7964831583874366e+02 -8.8966723358687887e+01 2.1532820187485336e+02 1.6176623318277443e+03 -7.9249659285313908e+02 -1.9568806988179631e+01 -1.0751986849017026e+03 1.9728049072602240e+04 -1.9836030036179642e+02 8.9409918644062091e+03 -1.1200913442991468e+04 -2.7834456678551192e+03 8.3564386262032240e+03 4.1498685710005870e+04 2.3842829423308121e+03 -1.7225751835155756e+04 -7.9158871178562322e+03 -7.1956062974335964e+01 -9.4388715582162513e+02 -4.8735289864802267e+04 3.8686389056128110e+02 5.8142844995597943e+03 -3.2960287563668149e+04 2.3896022742175205e+02 -1.0727141423188210e+02 
      </Row>
      <Row Index="28">
        -5.1935913211357843e+00 -1.7855133355192123e+02 5.7309476962009853e+00 1.9434863522390557e+01 -9.2971036027732765e+00 1.2841025440545758e+02 4.4051252840953019e+00 6.4649391687329327e+00 2.7031883962524574e+01 9.3179977799957442e+01 -8.8041232351193827e+01 2.9888467479608266e+01 -3.9207504210891784e+01 2.8054184314238228e+01 1.6612495581410258e+01 1.4969560996406472e+01 -8.9310927524842754e-01 1.9123365187103994e+02 -6.2054761159516318e+01 1.8777160515932309e+01 -2.2247008989879703e+02 3.8798167622482629e+02 -7.4219537811290564e+01 4.9216136660563450e+01 -2.0212624986555186e+03 -4.1624214177377883e+02 2.5633944325128255e+02 2.3842829419934174e+03 3.7440099649161152e+02 -1.3455150665790202e+03 -4.7268958285246322e+02 -4.0948448290544334e+01 -4.8180003432735691e+02 3.0967983774813979e+02 1.5034750724763558e+02 -2.9102746932082709e+01 -4.0219717367098883e+02 3.2640280638726182e+01 -2.3855457641954853e+01 
      </Row>
      <Row Index="29">
        -6.1514894474675202e+01 -9.9591414600613916e+01 -3.1432954088753286e+02 -2.5309716173054858e+02 6.4194893328693979e+01 7.0471670098217146e+02 -2.2542435152032112e+01 -5.2904093888143780e+02 -1.4861093719519795e+02 3.2716384646882943e+02 2.5951733954498377e+02 -3.6148486660547678e+02 3.5748739154130453e+02 9.1918218332016841e+02 -1.8833087668463122e+02 -3.7915634188521653e+02 1.7490554562066382e+02 -1.9384992604302440e+03 1.5318891291434431e+02 -1.3005179842381722e+02 1.8270567929366025e+04 -1.1587336604515222e+04 1.3258039439907488e+03 3.5938334819762487e+04 1.7699342805374326e+04 6.6634701072274856e+02 -3.2042080281012699e+04 -1.7225751839241537e+04 -1.3455150678816299e+03 6.9812962457781920e+04 -3.8927966210080194e+03 1.0751074669039008e+03 -9.7636672609437723e+04 -3.5832889637853077e+02 -1.7056860019872684e+03 -3.6501483239075242e+04 4.8751760828694314e+03 -5.9974271343604403e+02 1.2172965801996752e+03 
      </Row>
      <Row Index="30">
        -4.2149468388168606e+02 2.8775547842879371e+02 1.7716933915033178e+02 8.6693175234001444e+01 -2.9671159315453127e+02 -1.1565901878617351e+03 3.7531635614419582e+02 2.0063126634321509e+02 1.7839238566428037e+01 -9.3043046174502206e+02 6.5305807017246775e+02 3.1355315456038397e+01 -1.2078616044902592e+03 -7.6532933642115677e+02 7.2312583187493055e+02 7.6978620767975372e+01 -9.3911534986513732e+02 -1.9624671231503553e+03 4.1011309047653339e+02 -1.3455902880052710e+02 -5.4954412919112756e+03 8.4393939063698326e+02 -2.1142749826338772e+03 6.2251199676549768e+03 -1.7969465940925340e+04 2.1569523679471267e+03 -1.6034134784790907e+04 -7.9158871230182831e+03 -4.7268958312335559e+02 -3.8927966455719488e+03 5.5247828854998304e+04 -1.1952889067129595e+03 5.5429374921452218e+03 5.4077884654421905e+03 8.4224421004217993e+02 -6.0966481967541094e+03 2.5418167810733376e+04 1.9640963284760610e+02 6.0883763402127528e+01 
      </Row>
      <Row Index="31">
        2.2133514484490320e+00 -3.6827634110667304e+01 -6.1830448301522694e+00 -3.7598476894825339e+01 1.2945554813600566e+00 5.7994391010113191e+01 -3.2285617719322310e+00 -6.1075910186153322e+01 -3.8352486267121435e+00 4.6076910880253763e+01 -7.2638420134085777e+00 -1.7716228464164459e+01 1.7710880047881801e+01 2.8176634487856063e+01 -1.4726705658158153e+01 -5.5235345981061073e+01 1.4874261093309542e+01 6.4976164360608678e+01 5.4731353657248878e+00 -2.5871933233668557e+01 2.7234730044856087e+02 -2.3258425618528236e+00 7.3872053103513949e+01 5.8911803427386894e+02 1.7763830187068083e+02 -1.6731182503528998e+02 1.2989389346923883e+02 -7.1956062244069471e+01 -4.0948448197957866e+01 1.0751074673680214e+03 -1.1952889067193339e+03 2.1193561466217514e+02 2.3515618046512827e+01 3.3674866442163056e+02 -6.1077495069854926e+01 3.1542006551492614e+02 -4.5983141679851656e+02 -2.3442310052664073e+01 2.2655774318442717e+01 
      </Row>
      <Row Index="32">
        -3.1744673896747372e+01 6.4214015513674849e+02 3.8094281080659584e+01 -1.9732843040536318e+02 -1.5097647549653175e+01 -4.3761574195783942e+02 -4.0493052457965177e+00 -1.8610366407661854e+02 5.3087835482947412e+00 -1.6200322605462134e+02 1.1484903075887178e+02 -8.7833026650672764e+01 1.2625332051393343e+01 -1.5930499670328572e+02 3.3730850857304176e+01 -1.4164345634786878e+02 1.9243263098881016e+00 -4.9886830758466067e+02 3.5520161665716046e+00 -3.9566328317469561e+02 -2.7656627353190514e+04 -1.9892946704069545e+03 1.3849674451674048e+02 -6.0697907261162662e+04 -4.6144828607734235e+02 1.6819916981201550e+03 4.7740109451915923e+04 -9.4388698858056887e+02 -4.8180000334561919e+02 -9.7636672682065066e+04 5.5429373386033549e+03 2.3515623491633050e+01 8.5156187292421807e+05 -1.2971642512074322e+03 -1.4110676385504830e+03 3.2527370479422685e+05 3.1949825479782739e+03 -1.7792914059395457e+00 -7.5565781896773376e+02 
      </Row>
      <Row Index="33">
        2.3275151904761105e+02 -1.6168901702649955e+03 4.4736546666160393e+01 -2.5068849699055818e+01 -4.9472202851476766e+01 7.3184381098562517e+02 -5.6449091768546282e+01 -1.8648869360360328e+02 -1.8778541868506181e+02 4.2097530471811842e+02 -1.3235990846379582e+02 -1.8064664378431371e+02 2.6375882014057424e+02 -6.4577379647712223e+02 2.8139175032680214e+01 -1.1324179581049248e+02 1.4926067739200926e+02 2.8455297539036656e+03 1.5072358298549807e+02 -1.2600133146622079e+02 -3.7744759911289239e+03 -3.6026089162654986e+04 5.2008689742007800e+02 -9.3667276044897735e+03 -6.6294898828508274e+04 -5.5921576084247390e+03 -1.3345876082166196e+03 -4.8735289845590902e+04 3.0967983963332597e+02 -3.5832894663591651e+02 5.4077883873720548e+03 3.3674866724316757e+02 -1.2971643778437538e+03 7.1808078943202575e+05 4.8767237024993228e+03 -3.9772317216951114e+03 4.2378213915082155e+05 1.3906996969197678e+00 -3.0489010405093501e+02 
      </Row>
      <Row Index="34">
        1.1928231321489892e+02 -1.8811186884940619e+03 2.7832613730709852e+01 2.3430723625115661e+01 -6.1286221989517053e+01 8.2299981771741091e+02 5.5948792295744262e+01 -1.2986143676972446e+01 -6.4177585742169583e+01 8.6039003616489572e+02 9.5804397901945322e+00 -5.1998866547523903e+01 1.6210756375779965e+01 -3.2339046188657085e+02 1.3115691298376532e+02 -8.8732783292562090e+00 -3.1312344125955036e+01 3.1626305602228072e+03 1.1597603974070086e+02 -3.3821400780343879e+01 -2.1080907263321293e+02 1.8550120330730597e+03 -1.0256343311977015e+02 -2.4573730035223216e+03 -1.5695197792439874e+04 -6.4518376538601487e+03 1.5395862031684942e+03 3.8686388816959789e+02 1.5034750797475442e+02 -1.7056859706746966e+03 8.4224421662404711e+02 -6.1077496284460551e+01 -1.4110682035106120e+03 4.8767236274777279e+03 6.4387338484071615e+03 -6.5375837742623014e+02 -6.1165686816842799e+03 4.5381824930068888e+01 -5.7045153507834272e+01 
      </Row>
      <Row Index="35">
        -9.1735327347121256e+00 1.1867865930137168e+02 -1.4066969161571478e+01 -8.1605919192912324e+01 1.0117670587926710e+01 9.9978733516005377e+01 -2.1238285361422101e+01 -1.4905447966232390e+02 1.4486755382200727e+01 -7.1297296491671659e+01 -7.7884017331670520e+01 -1.2124498872674167e+02 2.3719032061708276e+01 -2.3688847876765067e+01 -5.2524205755671574e+01 -1.4936734568620159e+02 -4.2490579518723735e+00 -2.4037614412472317e+02 -1.0304885587677632e+01 -1.7657861210034162e+02 -8.4670526737025357e+03 4.3893626700149689e+03 5.0097705036808009e+01 -2.0640666842227925e+04 6.1983988427894910e+03 3.4902729044849349e+02 2.3082323070528524e+04 5.8142845653638233e+03 -2.9102734769636299e+01 -3.6501483267659620e+04 -6.0966482552305042e+03 3.1542006755312491e+02 3.2527370478369016e+05 -3.9772316774880164e+03 -6.5375815433763512e+02 1.2778516993774039e+05 -3.3728508415217530e+03 -1.7926232893245583e+01 -2.3639123182279400e+02 
      </Row>
      <Row Index="36">
        -3.9579713584282626e+02 2.3345435876386045e+03 7.0159024447365567e+01 2.0750548398696992e+01 -1.3896347825906469e+02 -1.1441735834540955e+03 9.6055882699063190e+01 6.0032735090308456e+01 7.8801319393722679e+01 -1.1390622547804983e+03 2.1435439624623467e+02 -2.3138031041185855e+01 -7.5873538190534600e+02 4.1183811614540173e+02 2.3372616502790424e+02 5.8589847311239282e+01 -6.2675852933372153e+02 -4.0594224497289365e+03 2.9773122364832204e+02 -3.9850971320996337e+01 -1.0106292435889899e+03 -2.0303973154988067e+04 -1.2347597818556681e+03 6.5044321312679131e+01 2.5285957005771979e+03 8.0920096281654041e+03 -8.6216212601373263e+03 -3.2960287552151356e+04 -4.0219717373259743e+02 4.8751759929102427e+03 2.5418167754487156e+04 -4.5983141324081930e+02 3.1949834066304406e+03 4.2378213931658136e+05 -6.1165686381340447e+03 -3.3728505005300653e+03 2.8295154226670659e+05 4.0132962368114732e+01 5.4397577896456447e+01 
      </Row>
      <Row Index="37">
        -2.7318178733169134e+00 -9.3868826027635777e-01 5.7178809170697988e+00 3.1189898563923037e+00 -3.4683013922270751e+00 -1.1193132095851695e+01 2.2605110530329426e+00 7.5544929758228747e+00 2.7131885430107587e+00 -2.3979168748106758e+00 -3.9986542196396400e+00 5.2620908106068498e+00 -1.4393730355168827e+01 -1.3949962063054045e+01 7.4504274533940134e+00 5.5308195900588544e+00 -1.1220122581089825e+01 2.5192543464904752e+01 8.9742602595084175e-01 3.8177388565419150e+00 -1.1718058334858110e+02 2.2488994734816220e+02 -4.3392830710763249e+01 -3.3920605465297558e+02 -9.8010041005358744e+01 -1.5251779498298610e+01 2.3329359312959679e+02 2.3896022718334473e+02 3.2640280614092859e+01 -5.9974271340111113e+02 1.9640963281075261e+02 -2.3442310062377949e+01 -1.7792935460428225e+00 1.3906995219364753e+00 4.5381824486873413e+01 -1.7926233767009069e+01 4.0132962916971110e+01 1.2688784950897887e+01 -1.2253724229786629e+01 
      </Row>
      <Row Index="38">
        -3.0215096170404365e+00 2.1628468163282477e+00 -6.4123130099861783e+00 -4.3992597967626637e+00 1.9077313468609702e+00 1.3320592327034262e+01 3.1305955035717759e-01 -1.1419681210307647e+01 1.3922999746100118e-01 2.1991954778081890e+00 4.5052243901651252e+00 -7.1981633879888705e+00 4.3231773669103859e+00 1.9403000733564113e+01 -3.7609490060044664e+00 -9.0545423369176206e+00 2.4925695635381828e+00 -5.2284629018962328e+01 -1.5956761376261674e-01 -4.2716728902074976e+00 3.2214289361031229e+02 -5.1044314800306211e+01 2.2046246044450609e+01 8.2265944577062498e+02 4.1598604970092106e+02 3.0672225594808570e+01 -5.7717463307899038e+02 -1.0727141404019312e+02 -2.3855457619355079e+01 1.2172965798657683e+03 6.0883763690510705e+01 2.2655774318272506e+01 -7.5565781555070532e+02 -3.0489010238532740e+02 -5.7045153211443953e+01 -2.3639123046581761e+02 5.4397578601543501e+01 -1.2253724226773162e+01 2.6104188205571468e+01 
      </Row>
    </InverseHessian>
  </Weights>
</MethodSetup>
