<?xml version="1.0"?>
<MethodSetup Method="MLP::MLP">
  <GeneralInfo>
    <Info name="TMVA Release" value="4.1.2 [262402]"/>
    <Info name="ROOT Release" value="5.32/00 [335872]"/>
    <Info name="Creator" value="tomc"/>
    <Info name="Date" value="Thu Jan 10 14:40:49 2013"/>
    <Info name="Host" value="Linux lxbuild168.cern.ch 2.6.18-308.1.1.el5 #1 SMP Wed Mar 7 19:25:07 CET 2012 x86_64 x86_64 x86_64 GNU/Linux"/>
    <Info name="Dir" value="/user_mnt/user/tomc/QGTagger/training/f/16/aKDE03"/>
    <Info name="Training events" value="16633"/>
    <Info name="TrainingTime" value="6.36490679e+01"/>
    <Info name="AnalysisType" value="Classification"/>
  </GeneralInfo>
  <Options>
    <Option name="NCycles" modified="No">500</Option>
    <Option name="HiddenLayers" modified="No">N,N-1</Option>
    <Option name="NeuronType" modified="No">sigmoid</Option>
    <Option name="RandomSeed" modified="No">1</Option>
    <Option name="EstimatorType" modified="No">MSE</Option>
    <Option name="NeuronInputType" modified="No">sum</Option>
    <Option name="V" modified="Yes">False</Option>
    <Option name="VerbosityLevel" modified="No">Default</Option>
    <Option name="VarTransform" modified="Yes">N</Option>
    <Option name="H" modified="Yes">False</Option>
    <Option name="CreateMVAPdfs" modified="Yes">True</Option>
    <Option name="IgnoreNegWeightsInTraining" modified="No">False</Option>
    <Option name="TrainingMethod" modified="No">BP</Option>
    <Option name="LearningRate" modified="No">2.000000e-02</Option>
    <Option name="DecayRate" modified="No">1.000000e-02</Option>
    <Option name="TestRate" modified="Yes">3</Option>
    <Option name="EpochMonitoring" modified="No">False</Option>
    <Option name="Sampling" modified="No">1.000000e+00</Option>
    <Option name="SamplingEpoch" modified="No">1.000000e+00</Option>
    <Option name="SamplingImportance" modified="No">1.000000e+00</Option>
    <Option name="SamplingTraining" modified="No">True</Option>
    <Option name="SamplingTesting" modified="No">False</Option>
    <Option name="ResetStep" modified="No">50</Option>
    <Option name="Tau" modified="No">3.000000e+00</Option>
    <Option name="BPMode" modified="No">sequential</Option>
    <Option name="BatchSize" modified="No">-1</Option>
    <Option name="ConvergenceImprove" modified="No">1.000000e-30</Option>
    <Option name="ConvergenceTests" modified="No">-1</Option>
    <Option name="UseRegulator" modified="Yes">True</Option>
    <Option name="UpdateLimit" modified="No">10000</Option>
    <Option name="CalculateErrors" modified="No">False</Option>
    <Option name="WeightRange" modified="No">1.000000e+00</Option>
  </Options>
  <Variables NVar="4">
    <Variable VarIndex="0" Expression="axis1" Label="axis1" Title="axis1" Unit="" Internal="axis1" Type="F" Min="1.31350243e-03" Max="2.60615945e-01"/>
    <Variable VarIndex="1" Expression="axis2" Label="axis2" Title="axis2" Unit="" Internal="axis2" Type="F" Min="-2.25889002e-04" Max="1.45570517e-01"/>
    <Variable VarIndex="2" Expression="mult" Label="mult" Title="mult" Unit="" Internal="mult" Type="F" Min="1.85225320e+00" Max="4.28522530e+01"/>
    <Variable VarIndex="3" Expression="ptD" Label="ptD" Title="ptD" Unit="" Internal="ptD" Type="F" Min="2.48471439e-01" Max="9.82105792e-01"/>
  </Variables>
  <Spectators NSpec="0"/>
  <Classes NClass="2">
    <Class Name="Signal" Index="0"/>
    <Class Name="Background" Index="1"/>
  </Classes>
  <Transformations NTransformations="1">
    <Transform Name="Normalize">
      <Selection>
        <Input NInputs="4">
          <Input Type="Variable" Label="axis1" Expression="axis1"/>
          <Input Type="Variable" Label="axis2" Expression="axis2"/>
          <Input Type="Variable" Label="mult" Expression="mult"/>
          <Input Type="Variable" Label="ptD" Expression="ptD"/>
        </Input>
        <Output NOutputs="4">
          <Output Type="Variable" Label="axis1" Expression="axis1"/>
          <Output Type="Variable" Label="axis2" Expression="axis2"/>
          <Output Type="Variable" Label="mult" Expression="mult"/>
          <Output Type="Variable" Label="ptD" Expression="ptD"/>
        </Output>
      </Selection>
      <Class ClassIndex="0">
        <Ranges>
          <Range Index="0" Min="3.5394032020121813e-03" Max="2.3861779272556305e-01"/>
          <Range Index="1" Min="5.3345621563494205e-04" Max="1.2700240314006805e-01"/>
          <Range Index="2" Min="3.8522531986236572e+00" Max="4.2852252960205078e+01"/>
          <Range Index="3" Min="2.4847143888473511e-01" Max="9.4050788879394531e-01"/>
        </Ranges>
      </Class>
      <Class ClassIndex="1">
        <Ranges>
          <Range Index="0" Min="1.3135024346411228e-03" Max="2.6061594486236572e-01"/>
          <Range Index="1" Min="-2.2588900174014270e-04" Max="1.4557051658630371e-01"/>
          <Range Index="2" Min="1.8522531986236572e+00" Max="3.9852252960205078e+01"/>
          <Range Index="3" Min="2.7815341949462891e-01" Max="9.8210579156875610e-01"/>
        </Ranges>
      </Class>
      <Class ClassIndex="2">
        <Ranges>
          <Range Index="0" Min="1.3135024346411228e-03" Max="2.6061594486236572e-01"/>
          <Range Index="1" Min="-2.2588900174014270e-04" Max="1.4557051658630371e-01"/>
          <Range Index="2" Min="1.8522531986236572e+00" Max="4.2852252960205078e+01"/>
          <Range Index="3" Min="2.4847143888473511e-01" Max="9.8210579156875610e-01"/>
        </Ranges>
      </Class>
    </Transform>
  </Transformations>
  <MVAPdfs>
    <PDF Name="MLP_PDFSig" MinNSmooth="0" MaxNSmooth="0" InterpolMethod="5" KDE_type="1" KDE_iter="2" KDE_border="1" KDE_finefactor="3.0000001192092896e-01">
      <Histogram Name="MLP_tr_S_original" NBins="250" XMin="-1.4780414290726185e-02" XMax="3.6388933658599854e-01" HasEquidistantBins="1">
        0.00000000e+00 0.00000000e+00 0.00000000e+00 7.34378099e-01 0.00000000e+00 0.00000000e+00 0.00000000e+00 0.00000000e+00 0.00000000e+00 7.34378099e-01 0.00000000e+00 7.34378099e-01 0.00000000e+00 0.00000000e+00 2.20313430e+00 0.00000000e+00 7.34378099e-01 1.46875620e+00 1.46875620e+00 1.46875620e+00 0.00000000e+00 1.46875620e+00 2.93751240e+00 2.20313430e+00 8.07815838e+00 3.67189050e+00 5.87502480e+00 3.67189050e+00 9.54691505e+00 9.54691505e+00 7.34378099e+00 1.24844275e+01 1.83594513e+01 1.32188053e+01 1.24844275e+01 1.54219398e+01 1.39531832e+01 1.98282089e+01 1.54219398e+01 1.02812929e+01 1.17500496e+01 1.10156708e+01 1.02812929e+01 1.24844275e+01 6.60940266e+00 1.61563168e+01 1.46875620e+01 1.39531832e+01 5.87502480e+00 6.60940266e+00 6.60940266e+00 4.40626860e+00 5.87502480e+00 1.10156708e+01 4.40626860e+00 5.14064646e+00 9.54691505e+00 7.34378099e+00 8.07815838e+00 8.81253719e+00 4.40626860e+00 8.07815838e+00 7.34378099e+00 2.20313430e+00 3.67189050e+00 5.87502480e+00 7.34378099e+00 5.14064646e+00 3.67189050e+00 5.14064646e+00 5.87502480e+00 6.60940266e+00 8.07815838e+00 3.67189050e+00 5.14064646e+00 5.14064646e+00 3.67189050e+00 7.34378099e+00 5.14064646e+00 5.87502480e+00 8.07815838e+00 7.34378099e+00 2.93751240e+00 5.87502480e+00 2.93751240e+00 5.14064646e+00 6.60940266e+00 4.40626860e+00 3.67189050e+00 5.87502480e+00 6.60940266e+00 5.87502480e+00 3.67189050e+00 2.20313430e+00 3.67189050e+00 3.67189050e+00 2.20313430e+00 2.20313430e+00 7.34378099e+00 2.93751240e+00 2.20313430e+00 5.87502480e+00 3.67189050e+00 7.34378099e-01 2.93751240e+00 2.93751240e+00 5.87502480e+00 4.40626860e+00 7.34378099e-01 7.34378099e-01 2.20313430e+00 7.34378099e-01 2.20313430e+00 7.34378099e-01 7.34378099e-01 7.34378099e-01 7.34378099e-01 0.00000000e+00 1.46875620e+00 0.00000000e+00 2.20313430e+00 7.34378099e-01 2.20313430e+00 7.34378099e-01 7.34378099e-01 1.46875620e+00 0.00000000e+00 7.34378099e-01 2.20313430e+00 7.34378099e-01 7.34378099e-01 3.67189050e+00 0.00000000e+00 0.00000000e+00 0.00000000e+00 0.00000000e+00 7.34378099e-01 0.00000000e+00 1.46875620e+00 2.20313430e+00 7.34378099e-01 1.46875620e+00 0.00000000e+00 7.34378099e-01 7.34378099e-01 1.46875620e+00 0.00000000e+00 0.00000000e+00 7.34378099e-01 0.00000000e+00 0.00000000e+00 1.46875620e+00 0.00000000e+00 0.00000000e+00 1.46875620e+00 0.00000000e+00 0.00000000e+00 1.46875620e+00 0.00000000e+00 0.00000000e+00 0.00000000e+00 0.00000000e+00 0.00000000e+00 7.34378099e-01 0.00000000e+00 1.46875620e+00 0.00000000e+00 7.34378099e-01 0.00000000e+00 0.00000000e+00 7.34378099e-01 0.00000000e+00 0.00000000e+00 0.00000000e+00 0.00000000e+00 7.34378099e-01 7.34378099e-01 0.00000000e+00 0.00000000e+00 0.00000000e+00 0.00000000e+00 0.00000000e+00 0.00000000e+00 0.00000000e+00 7.34378099e-01 0.00000000e+00 0.00000000e+00 0.00000000e+00 0.00000000e+00 0.00000000e+00 7.34378099e-01 7.34378099e-01 0.00000000e+00 0.00000000e+00 0.00000000e+00 0.00000000e+00 0.00000000e+00 0.00000000e+00 0.00000000e+00 0.00000000e+00 0.00000000e+00 1.46875620e+00 0.00000000e+00 0.00000000e+00 7.34378099e-01 0.00000000e+00 0.00000000e+00 0.00000000e+00 0.00000000e+00 0.00000000e+00 0.00000000e+00 0.00000000e+00 0.00000000e+00 0.00000000e+00 0.00000000e+00 7.34378099e-01 0.00000000e+00 0.00000000e+00 0.00000000e+00 0.00000000e+00 0.00000000e+00 0.00000000e+00 0.00000000e+00 0.00000000e+00 0.00000000e+00 0.00000000e+00 0.00000000e+00 0.00000000e+00 0.00000000e+00 0.00000000e+00 0.00000000e+00 0.00000000e+00 7.34378099e-01 0.00000000e+00 0.00000000e+00 0.00000000e+00 0.00000000e+00 0.00000000e+00 0.00000000e+00 0.00000000e+00 0.00000000e+00 0.00000000e+00 0.00000000e+00 0.00000000e+00 0.00000000e+00 0.00000000e+00 0.00000000e+00 0.00000000e+00 0.00000000e+00 0.00000000e+00 
      </Histogram>
    </PDF>
    <PDF Name="MLP_PDFBkg" MinNSmooth="0" MaxNSmooth="0" InterpolMethod="5" KDE_type="1" KDE_iter="2" KDE_border="1" KDE_finefactor="3.0000001192092896e-01">
      <Histogram Name="MLP_tr_B_original" NBins="250" XMin="-1.4780414290726185e-02" XMax="3.6388933658599854e-01" HasEquidistantBins="1">
        2.51778781e-01 3.35705012e-01 4.61594403e-01 7.55336285e-01 8.81225705e-01 1.21693075e+00 1.09104133e+00 1.17496753e+00 1.63656199e+00 1.13300443e+00 2.01423025e+00 2.05619335e+00 1.88834071e+00 1.97226703e+00 2.01423025e+00 2.81152964e+00 3.31508708e+00 3.35705018e+00 3.39901328e+00 4.61594391e+00 5.24539089e+00 8.01495743e+00 7.67925262e+00 1.05747080e+01 1.07845240e+01 1.38058691e+01 1.58620625e+01 1.71629200e+01 1.99744492e+01 2.14431591e+01 2.35832787e+01 2.19886799e+01 2.28699055e+01 2.21145687e+01 2.21565323e+01 2.06038952e+01 1.82119980e+01 1.77504025e+01 1.67013245e+01 1.54424314e+01 1.44353161e+01 1.42674637e+01 1.43933525e+01 1.25050125e+01 1.05747080e+01 1.04068556e+01 1.04488192e+01 8.64440441e+00 7.55336285e+00 9.27385139e+00 7.51139975e+00 8.30869961e+00 5.62305927e+00 5.32931709e+00 5.45520639e+00 6.08465338e+00 4.95164919e+00 6.12661648e+00 4.90968609e+00 5.20342779e+00 4.44809151e+00 4.15434980e+00 4.28023911e+00 3.81864452e+00 3.73471832e+00 4.11238670e+00 3.18919778e+00 3.44097638e+00 3.35705018e+00 3.73471832e+00 2.97938204e+00 3.02134514e+00 2.85349274e+00 2.47582459e+00 2.85349274e+00 1.93030393e+00 1.84637761e+00 2.01423025e+00 1.93030393e+00 2.68564010e+00 2.01423025e+00 1.72048819e+00 1.93030393e+00 1.80441451e+00 2.55975080e+00 2.39189839e+00 1.84637761e+00 1.84637761e+00 1.59459889e+00 2.34993505e+00 1.80441451e+00 1.25889385e+00 1.42674637e+00 1.30085695e+00 1.76245141e+00 1.13300443e+00 7.55336285e-01 1.46870947e+00 1.21693075e+00 1.00711513e+00 1.13300443e+00 9.23188806e-01 9.65151966e-01 7.97299445e-01 9.23188806e-01 7.55336285e-01 5.45520663e-01 4.61594403e-01 6.29446924e-01 8.81225705e-01 5.03557563e-01 3.77668142e-01 6.29446924e-01 4.19631273e-01 4.61594403e-01 7.55336285e-01 5.03557563e-01 5.03557563e-01 3.35705012e-01 7.13373184e-01 4.19631273e-01 3.35705012e-01 3.35705012e-01 4.19631273e-01 3.35705012e-01 3.35705012e-01 2.93741882e-01 5.03557563e-01 2.09815636e-01 5.03557563e-01 2.09815636e-01 2.51778781e-01 2.51778781e-01 1.25889391e-01 2.09815636e-01 1.25889391e-01 2.09815636e-01 1.25889391e-01 2.09815636e-01 2.09815636e-01 1.67852506e-01 1.67852506e-01 2.09815636e-01 1.25889391e-01 1.67852506e-01 1.67852506e-01 2.09815636e-01 1.25889391e-01 1.67852506e-01 4.19631265e-02 1.25889391e-01 2.09815636e-01 1.25889391e-01 1.25889391e-01 8.39262530e-02 3.35705012e-01 0.00000000e+00 0.00000000e+00 8.39262530e-02 0.00000000e+00 0.00000000e+00 8.39262530e-02 0.00000000e+00 8.39262530e-02 1.25889391e-01 8.39262530e-02 1.67852506e-01 4.19631265e-02 2.51778781e-01 8.39262530e-02 8.39262530e-02 4.19631265e-02 8.39262530e-02 1.25889391e-01 4.19631265e-02 1.25889391e-01 4.19631265e-02 0.00000000e+00 0.00000000e+00 8.39262530e-02 0.00000000e+00 4.19631265e-02 4.19631265e-02 4.19631265e-02 4.19631265e-02 4.19631265e-02 8.39262530e-02 4.19631265e-02 4.19631265e-02 0.00000000e+00 0.00000000e+00 4.19631265e-02 0.00000000e+00 0.00000000e+00 0.00000000e+00 0.00000000e+00 0.00000000e+00 0.00000000e+00 4.19631265e-02 4.19631265e-02 4.19631265e-02 0.00000000e+00 0.00000000e+00 0.00000000e+00 4.19631265e-02 4.19631265e-02 0.00000000e+00 0.00000000e+00 4.19631265e-02 0.00000000e+00 0.00000000e+00 0.00000000e+00 0.00000000e+00 0.00000000e+00 4.19631265e-02 0.00000000e+00 0.00000000e+00 0.00000000e+00 0.00000000e+00 0.00000000e+00 0.00000000e+00 0.00000000e+00 0.00000000e+00 0.00000000e+00 0.00000000e+00 0.00000000e+00 0.00000000e+00 0.00000000e+00 0.00000000e+00 4.19631265e-02 0.00000000e+00 0.00000000e+00 0.00000000e+00 0.00000000e+00 0.00000000e+00 0.00000000e+00 0.00000000e+00 0.00000000e+00 0.00000000e+00 0.00000000e+00 0.00000000e+00 0.00000000e+00 0.00000000e+00 0.00000000e+00 0.00000000e+00 0.00000000e+00 0.00000000e+00 0.00000000e+00 0.00000000e+00 0.00000000e+00 
      </Histogram>
    </PDF>
  </MVAPdfs>
  <Weights>
    <Layout NLayers="4">
      <Layer Index="0" NNeurons="5">
        <Neuron NSynapses="4">
          -5.3804364938916915e-01 2.0665819877985663e+00 1.0291936266454451e+00 1.4280618665139881e+00 
        </Neuron>
        <Neuron NSynapses="4">
          -1.7360766790598932e+00 -1.3712597252552297e+00 -1.1754376652667227e+00 1.6064277720621780e+00 
        </Neuron>
        <Neuron NSynapses="4">
          -1.2430443734733265e+00 -9.2852286812814477e-01 -2.0056127710192424e+00 -6.7907476540359457e-01 
        </Neuron>
        <Neuron NSynapses="4">
          -1.8782014144537325e+00 -6.9794263099200404e-01 -2.8586030302760623e-01 4.5771291272395925e-01 
        </Neuron>
        <Neuron NSynapses="4">
          -6.2454197992938310e-01 1.7836841445690541e+00 5.5876247646137456e-01 1.8081251118058408e+00 
        </Neuron>
      </Layer>
      <Layer Index="1" NNeurons="5">
        <Neuron NSynapses="3">
          -8.9598269820280041e-01 -9.7833024525098455e-01 8.8944714581088036e-01 
        </Neuron>
        <Neuron NSynapses="3">
          -4.9247940680037855e-01 -1.4009660588082107e+00 -2.6883075463872946e-01 
        </Neuron>
        <Neuron NSynapses="3">
          1.0090349118636721e+00 -1.0200653695369435e+00 -2.3441814449103884e+00 
        </Neuron>
        <Neuron NSynapses="3">
          -8.6452843311695407e-02 6.4367057104378855e-01 1.3679784400633772e+00 
        </Neuron>
        <Neuron NSynapses="3">
          -9.8977290095302939e-01 -4.4042992189109981e-01 -1.6710293545259474e-02 
        </Neuron>
      </Layer>
      <Layer Index="2" NNeurons="4">
        <Neuron NSynapses="1">
          -2.0244475645263085e-01 
        </Neuron>
        <Neuron NSynapses="1">
          -1.1964250226494784e+00 
        </Neuron>
        <Neuron NSynapses="1">
          1.1994423543640989e+00 
        </Neuron>
        <Neuron NSynapses="1">
          -2.0396923819943455e-01 
        </Neuron>
      </Layer>
      <Layer Index="3" NNeurons="1">
        <Neuron NSynapses="0"/>
      </Layer>
    </Layout>
    <InverseHessian NElements="1521" NRows="39" NCols="39">
      <Row Index="0">
        5.5782505471776926e+02 6.5862673589644055e+02 -2.1682338077825580e+02 7.8585545574397912e+01 3.0076328185200344e+02 -1.4898988515523477e+03 -1.1331857926318641e+02 1.5158594513474620e+02 -2.8483439472613804e+02 -9.4862726085876182e+02 5.4766262079115101e+01 -2.5950947103026870e+01 4.5279706817035469e+02 -1.3843876982760526e+03 -2.1582666101444087e+02 6.9096196211915569e+01 6.6617287440045061e+02 5.0147640733217810e+02 -2.2536489668775985e+02 1.8461194021124425e+02 -3.4931628774740125e+02 1.5655601950487969e+03 8.0608782181867014e+02 -1.1927361792875549e+03 3.1408456566568930e+01 -6.3496815084085888e+01 3.7577268282178284e+02 -1.5397737181718503e+02 -5.9004921782923191e+01 1.3581934998574777e+03 8.3835736127719667e+02 -1.0794539932538250e+02 1.0119193936826638e+02 -1.0455992102029909e+03 -4.4821222855106123e+02 2.2393164966740585e+01 1.6760492879590004e+01 2.6187882404915467e+02 -9.7022829224063159e+01 
      </Row>
      <Row Index="1">
        6.5862674031498170e+02 1.3215908189495860e+05 3.4766508580372152e+02 -1.7023405638446377e+02 -3.7315484524526510e+03 -8.1546339873775825e+04 7.4608451630536547e+02 -1.3784682013285899e+02 -3.1103985394454517e+03 -6.0110284376656833e+04 -3.4335931316028774e+02 -9.5368234633034660e+02 -4.5920255791014779e+03 -3.0321834382109671e+04 6.8510018717651838e+02 -6.7951493497225636e+02 -1.2635675318043326e+04 -5.8070065167685039e+04 1.0895257995849529e+03 -1.0724942423267640e+02 -1.5195475194548902e+04 -6.6775523165906285e+04 -5.3084136464349767e+03 -9.7436193406320649e+02 1.2003410820317685e+05 3.6954646292647900e+04 4.2955810722864662e+03 -2.5543303853642003e+04 -1.1756745142906166e+03 1.1216627840575680e+04 1.8521911906117431e+04 3.5554540530254749e+03 -2.1689657029056718e+04 -4.5426240122932235e+04 -2.9941967921685922e+04 -8.3106068509272791e+03 1.0640510843969372e+05 -9.1130231657784370e+03 -9.2081325193200030e+02 
      </Row>
      <Row Index="2">
        -2.1682338079634309e+02 3.4766508467668979e+02 1.5832685020760911e+02 -2.1464458123741139e+01 -1.1282790382798817e+02 -6.0428136129233667e+02 1.2444068706324002e+02 -1.0637213162401655e+02 1.1790016055140667e+02 -7.1988371027573658e+02 -1.9514178643122273e+00 -5.3121362706440777e+01 -2.6318501063766308e+02 -2.9109999785441875e+02 1.4049279152683357e+02 -4.5423998822813047e+01 -2.0053631738130133e+02 -6.7982930297409735e+02 2.4160479155699741e+02 -5.7608587154254266e+01 4.3835536253845606e+02 3.0609081290030150e+02 -5.7150951180711274e+02 7.4779349377902986e+02 1.6927179165264986e+03 5.3394004947643715e+01 1.1426343826625248e+03 2.5679921480767916e+02 -1.3808734756370839e+01 5.0220049123068304e+02 -4.4681432474022279e+02 2.2742703379039881e+02 -7.2229889179759016e+02 4.5192399650595939e+02 3.1365573231890585e+02 2.7922410214898719e+02 5.6629357185286358e+02 3.1205466611524869e+01 7.6152566413447630e+01 
      </Row>
      <Row Index="3">
        7.8585545532609032e+01 -1.7023405544996868e+02 -2.1464458133652908e+01 9.9910614828610562e+01 2.5724258524971567e+01 3.8240524857511957e+02 -1.5930113203564338e+02 1.6700447725472895e+02 -9.8494438803300469e+01 5.9790844835035739e+02 -9.0695017396540806e+01 6.6174740587618999e+00 -1.3832290029417111e+01 6.3952079534017321e+02 -6.0558033351202539e+01 3.5540304305028400e+01 2.1716955676220263e+02 6.0248554402213483e+02 -3.4796146046769969e+01 1.4861121282038363e+02 1.4560518555007216e+03 -1.1122748838790528e+00 2.7002850615830687e+02 -4.5932121617474780e+02 -1.0857572404906878e+03 -2.7173353883315036e+02 7.8140195963657436e+02 4.1706626048696296e+02 3.9534490348604123e+02 9.0183248711342753e+02 -2.3484382116211268e+02 -2.7180829538489184e+02 -4.3448206468889759e+02 4.8533513007363655e+02 7.4289041954697538e+01 2.2226274767293262e+02 -4.0900397383137278e+02 4.3686624085990289e+01 -6.4130838279792613e+01 
      </Row>
      <Row Index="4">
        3.0076328179641320e+02 -3.7315484630527390e+03 -1.1282790401958998e+02 2.5724258770817702e+01 9.1349400256929903e+02 -1.1676243644502676e+01 -8.5218492658719342e+01 3.9713067868362444e+01 4.2663921512091008e+02 -3.7161094862007644e+02 1.9136140957862622e+01 1.6007061048175365e+02 9.1526856217056411e+02 -1.3507851225641207e+03 -1.5174604923111474e+02 1.6290821285191672e+02 1.5769355083976898e+03 -1.1315421842704457e+03 -1.6589577962390254e+02 1.0383700309795118e+02 9.9519468211797414e+02 6.1482596236979480e+03 2.7929897032236499e+02 -2.3093319530116923e+03 1.1307966284386216e+03 -1.7141989771137314e+03 2.1539098410570759e+03 2.4323597755676424e+03 1.0879277800738730e+03 1.8424514287869429e+03 -9.0131145276356744e+02 -6.7791811796397849e+02 -5.8072782121550495e+02 2.1239992532242786e+03 8.1782705625635003e+02 1.8581447286824314e+03 -1.4622518486897802e+03 1.8326873451901643e+03 -3.8333729280958767e+02 
      </Row>
      <Row Index="5">
        -1.4898988524768774e+03 -8.1546339678091084e+04 -6.0428136298254151e+02 3.8240524690688119e+02 -1.1676261322747166e+01 1.2691427322020169e+05 -5.0190458901520032e+02 -1.1458891454554043e+03 -6.5248011582413062e+02 8.9686330590371595e+04 6.4674607333299264e+01 7.7630991497504147e+02 9.0383084150403738e+02 9.0191884749601479e+04 -7.0318193995469483e+02 -4.3437371586184526e+02 -8.7470253289888878e+03 5.6792462489104590e+04 -1.5257022708286665e+03 -9.2236485933306085e+02 -1.3827492384738352e+04 -6.0204708566377914e+04 7.8694004582215575e+02 -4.4472868149806491e+03 -1.3369890876589416e+05 -1.5629455823624827e+04 -1.6084352837339597e+04 2.2437233140764009e+04 -8.5795417096831952e+03 -9.1627652120681523e+02 -9.3790240085345285e+03 3.4214794181393700e+03 -8.6498137263540193e+03 2.6079042986959077e+04 2.3085659684630795e+04 1.5204608400076695e+03 -8.5101055551222875e+04 -1.0458545067024157e+04 -1.8829711734178379e+03 
      </Row>
      <Row Index="6">
        -1.1331857935565080e+02 7.4608450942136164e+02 1.2444068722338912e+02 -1.5930113205288944e+02 -8.5218491785269208e+01 -5.0190459237308988e+02 8.7205292657832297e+02 -7.2422446820261280e+02 -1.2108638378815252e+01 -1.3558762074003164e+03 4.6631224216443286e+02 -2.9294900125196909e+02 -2.0595294116701552e+02 -1.2799570474352222e+03 3.1878711047609977e+02 -2.0589785487790311e+02 -6.7843071394155379e+02 -6.5276495471270937e+02 6.0807858216288946e+02 -3.6047298691787495e+02 -5.0609529543381013e+03 6.3879929855474188e+02 -5.6252266675410033e+02 7.0183159138039059e+02 1.5708969986664988e+03 2.3836302556141277e+02 -5.8883175391018653e+02 -2.8343841982299127e+03 -2.9289587022105152e+03 2.2936722925730624e+02 1.5716229885402815e+03 2.1985283515503579e+03 4.2019736056835018e+02 -1.6684265956697782e+03 7.2076476727904378e+02 -1.2084217708667059e+03 2.2265026967832000e+02 -9.2791002537489317e+02 5.3111833479191034e+02 
      </Row>
      <Row Index="7">
        1.5158594541003467e+02 -1.3784681840804330e+02 -1.0637213184323855e+02 1.6700447728191531e+02 3.9713067177579148e+01 -1.1458891451470377e+03 -7.2422446791701429e+02 8.8293852516105460e+02 -8.7752647316677709e+01 -3.8556579406003613e+02 -4.1257476834376462e+02 2.7119702308341948e+02 5.6326289874057693e+01 -7.5512501871207496e+02 -2.4503137862778385e+02 2.8271638853263823e+02 7.4201927087635988e+02 7.9253418894138713e+02 -5.3614070415204947e+02 4.9819807800529497e+02 1.3472206020655080e+03 6.5275013895882012e+02 1.2419521324840462e+03 -4.2115278852667525e+03 -2.2399625126279025e+03 3.5717235485047763e+02 -8.8700815444941145e+02 -3.1380949804881368e+01 2.4084473001301417e+03 -4.0413120974340154e+02 3.4176768162064047e+02 -2.0340120835534640e+03 -1.8708753986300317e+03 -1.2540190020300624e+02 -1.7393528125869643e+03 8.2409614015109696e+01 1.0439816423753773e+03 7.3290485645067395e+02 -6.8411138960125118e+02 
      </Row>
      <Row Index="8">
        -2.8483439471073029e+02 -3.1103985458416655e+03 1.1790016034845985e+02 -9.8494438608165083e+01 4.2663921541852380e+02 -6.5248010150088885e+02 -1.2108639388592042e+01 -8.7752646209094621e+01 7.9924696390404404e+02 -7.0952582996870728e+02 -2.5167369043860410e+00 1.7398300353595732e+02 4.0351605346751239e+02 -1.4965762290815037e+03 7.2260974480908772e+01 1.0920553260877264e+02 7.9612911717799307e+02 -1.9559399461250475e+03 3.5504272531782988e+01 -1.4149957358477678e+02 1.5207706165972322e+03 4.9564555886879807e+03 -8.3711652429934861e+02 7.2748149518419598e+02 3.6458487062138120e+03 -1.0235223935720522e+03 7.0856701204054252e+02 2.3706632359147029e+03 1.2837863968380325e+03 -2.2709771883485837e+02 -2.2803037057183169e+03 -8.5678728055826161e+02 8.0873446300781279e+02 2.5365823836719728e+03 1.0284049325485855e+03 1.8736197704671772e+03 -7.9850752389903164e+02 1.7369591516836638e+03 -2.4103118054486512e+02 
      </Row>
      <Row Index="9">
        -9.4862726108026550e+02 -6.0110284236503467e+04 -7.1988371235866907e+02 5.9790844740409352e+02 -3.7161096072499532e+02 8.9686330611933663e+04 -1.3558762075960167e+03 -3.8556579022924706e+02 -7.0952584054162878e+02 8.1760117607305787e+04 -4.7979418239150209e+02 8.9956195929241949e+02 8.7055061770475004e+02 6.9229152958055958e+04 -8.1303326007642318e+02 -1.6111713941515012e+02 -5.1537369109768661e+03 4.7833908079235058e+04 -2.0093074196327797e+02 -5.0199558875157230e+01 -5.4749319760774561e+03 -4.2886106727058359e+04 8.6396195223865800e+02 -8.9385441822083521e+02 -9.8236361287104810e+04 -1.2440499333261341e+04 -9.5601051419149699e+03 9.6102956839203944e+03 -4.3250936570793001e+03 1.9712001766067813e+04 -2.0773571538768676e+04 -1.0745902390694664e+03 4.9544090466795242e+03 3.0287825577369738e+04 2.1157786864665279e+04 5.7180023279141142e+03 -6.8863419314593571e+04 -5.7614645053045051e+03 -2.4789703877551442e+03 
      </Row>
      <Row Index="10">
        5.4766262114930214e+01 -3.4335931633170992e+02 -1.9514178803515279e+00 -9.0695017376427145e+01 1.9136141429036989e+01 6.4674606954891956e+01 4.6631224197121367e+02 -4.1257476817948867e+02 -2.5167365037901481e+00 -4.7979418166696632e+02 3.4974538606638430e+02 -1.4986852173089665e+02 6.1827744567568516e+01 -5.7194161900169274e+02 1.2304331013081537e+02 -8.1919839723559491e+01 -3.5375033501033244e+02 6.8078711739271421e+02 2.2144239841455510e+02 -2.2781254611322152e+02 -4.2665799385919900e+03 6.6157649792747213e+02 -4.4772847735361108e+02 3.7985284961688143e+02 2.9857442521224243e+01 4.2263508857447960e+01 -1.5074087106952984e+03 -1.3944015706808430e+03 -1.6695745398408694e+03 -3.0952114872830202e+02 8.6692342259977033e+02 1.0056030025045260e+03 9.2223594925719431e+02 -4.0249429994558238e+02 7.4963531031542857e+02 -6.7047620871992274e+02 -5.5791208803688642e+02 -2.6816817154839549e+02 1.9576573060242757e+02 
      </Row>
      <Row Index="11">
        -2.5950946911018036e+01 -9.5368234385625180e+02 -5.3121362888066415e+01 6.6174740996374943e+00 1.6007061018197371e+02 7.7630991615373273e+02 -2.9294900137901914e+02 2.7119702348246318e+02 1.7398300293749890e+02 8.9956195806499454e+02 -1.4986852192753116e+02 2.4682273510241794e+02 2.2226774376197864e+02 7.2274326198626659e+02 -1.0106240947329934e+02 1.5814993679239541e+02 1.6043685412808594e+02 -2.5269694335013128e+02 -2.9836892882026223e+02 1.2736306761099141e+02 -4.8134420354292700e+02 -5.6278760598122221e+02 2.1163639368718381e+02 -1.5801934680846166e+03 -1.0142337488707927e+03 5.6384166213903569e+01 -1.4386432578510301e+03 3.7229755683383860e+02 1.0911317342132616e+03 -1.1041622207480398e+03 -3.4014827270640046e+02 -1.0054721054014617e+03 -5.3107966261277397e+02 9.3731792371394067e+02 -4.3585769312263511e+02 1.5096331332526705e+02 4.5704466528113289e+02 4.7833919583999960e+02 -3.8226464107627237e+02 
      </Row>
      <Row Index="12">
        4.5279706818199179e+02 -4.5920255861864980e+03 -2.6318501084653826e+02 -1.3832289815025025e+01 9.1526856213692645e+02 9.0383085561286748e+02 -2.0595294196220519e+02 5.6326290564077681e+01 4.0351605310266132e+02 8.7055062669893232e+02 6.1827744096832916e+01 2.2226774403013951e+02 1.2318574621655571e+03 -1.0525520070238563e+03 -2.8983161935386306e+02 1.7829323238182792e+02 1.5399794005528984e+03 -8.6053124305744223e+02 -4.3577537982811998e+02 4.0078287974717917e+01 5.6117348397295302e+01 5.4060202658034441e+03 3.7693317067646132e+02 -8.5990925566171472e+02 3.7451950138047118e+02 -1.4963775939564057e+03 -1.4442038747773233e+02 2.4028532367173893e+03 1.0509462301440412e+03 9.2509979278942615e+02 -1.2579712967659787e+03 -1.0092632258495948e+03 1.8280395383123882e+03 1.5448236127717291e+03 7.5529854237669872e+02 1.7688432898571800e+03 -2.6474107118996239e+03 1.8846972482803735e+03 -4.1703687510769942e+02 
      </Row>
      <Row Index="13">
        -1.3843876963323473e+03 -3.0321834160905812e+04 -2.9110000234311519e+02 6.3952079473760466e+02 -1.3507851385711242e+03 9.0191884787842559e+04 -1.2799570516990725e+03 -7.5512500457069109e+02 -1.4965762462820567e+03 6.9229152962749940e+04 -5.7194162190595841e+02 7.2274326683368417e+02 -1.0525520188607625e+03 9.0168284851564094e+04 -6.5788600728136953e+02 -5.1903974525793535e+02 -1.5348479336113876e+04 5.3438754160152283e+04 -1.2257706916519305e+02 -6.1945690312654870e+02 -2.7537550409715068e+03 -8.5029960234768965e+04 -1.3900867481255329e+04 -2.4520260125063571e+04 -7.5449568070875190e+04 -9.6724703454424980e+03 7.8688075439008608e+03 3.3489817037892797e+04 2.8318284517030106e+03 2.9788017297993389e+04 -2.5022786960095626e+04 -2.8575371532480058e+03 -3.0526351590583923e+04 4.7995272946439916e+04 2.8217121951573979e+04 8.6800725938470696e+03 -4.6700261007109293e+04 -3.9908548217909656e+03 -4.8908679564293197e+03 
      </Row>
      <Row Index="14">
        -2.1582666101226312e+02 6.8510018437343103e+02 1.4049279154409464e+02 -6.0558033344935559e+01 -1.5174604885323598e+02 -7.0318194051113653e+02 3.1878711034004834e+02 -2.4503137848351548e+02 7.2260974857770634e+01 -8.1303325940338618e+02 1.2304331016125107e+02 -1.0106240930846525e+02 -2.8983161898368598e+02 -6.5788600496058643e+02 2.2251436132915842e+02 -6.7003870436571262e+01 -3.1471821783329585e+02 -6.0881255266368703e+02 4.2410932346089078e+02 -1.1940868280148639e+02 -1.2969773552618947e+03 1.6866745444760352e+02 -4.0726224925066640e+02 -3.1945264769769369e+02 1.1297280609951049e+03 1.7979896830032141e+02 3.6250719918580768e+02 -1.5697983422963928e+03 -7.8735968182521208e+02 1.2453124535104798e+03 3.3109187734522027e+02 7.6430457979339326e+02 -6.7925672359638838e+01 8.2394272166414154e+01 2.9448128379071557e+02 -4.3919820226648392e+02 1.0386683139641223e+03 -3.3701897848935107e+02 1.7061860821399989e+02 
      </Row>
      <Row Index="15">
        6.9096196328705901e+01 -6.7951493574751669e+02 -4.5423998938091700e+01 3.5540304348843307e+01 1.6290821274513644e+02 -4.3437371408703984e+02 -2.0589785498678725e+02 2.8271638876213910e+02 1.0920553229276356e+02 -1.6111713934017826e+02 -8.1919839860458808e+01 1.5814993678415613e+02 1.7829323228855355e+02 -5.1903974783698504e+02 -6.7003870560438372e+01 1.8641601367918980e+02 2.9995857960889396e+02 2.5220751181759670e+02 -1.5284798353799238e+02 1.8896083030799744e+02 8.0143874547542083e+01 5.5373563968342842e+02 3.4095403330881339e+02 -1.3753514264935511e+03 -6.1886345985452181e+02 7.0075848153359033e+01 -5.6215871538484100e+02 -8.7589376905975541e+01 7.4730041328386983e+02 -7.7634531719485281e+01 -4.7787278101165896e+01 -6.9170585654965464e+02 -3.8923493820497310e+02 6.4243445448974114e+02 -3.9730848030838985e+02 8.4622760941746719e+01 4.3648449205705606e+02 3.8873346603731778e+02 -2.5119258617186162e+02 
      </Row>
      <Row Index="16">
        6.6617287235669119e+02 -1.2635675378095557e+04 -2.0053631583062452e+02 2.1716955706424631e+02 1.5769355098733020e+03 -8.7470253041763062e+03 -6.7843071337984668e+02 7.4201926565201757e+02 7.9612912068820151e+02 -5.1537368867618497e+03 -3.5375033471252959e+02 1.6043685242844367e+02 1.5399794012987841e+03 -1.5348479294704623e+04 -3.1471821730537340e+02 2.9995857815463955e+02 9.4354301685889513e+03 -1.0393240134156338e+04 -1.5477391002095939e+02 7.0202473409736797e+02 1.9122725832414315e+04 3.7257069603146840e+04 8.3036422418483708e+03 4.9637491725407344e+03 -5.6051904677441053e+02 -5.9469083697615715e+03 -1.3820834156438896e+03 -2.8862573547467318e+03 1.3578258648715330e+03 -1.2550672128348942e+03 1.9259964837787329e+03 -4.0430445861648695e+02 1.4375306737222752e+04 -6.5335487820369244e+03 -3.4862260327047543e+03 1.3514303081006233e+02 -4.9345232153527695e+03 2.5636831779581826e+03 1.6183857944667920e+03 
      </Row>
      <Row Index="17">
        5.0147640932061586e+02 -5.8070065020545364e+04 -6.7982931058992835e+02 6.0248554538933263e+02 -1.1315422018575846e+03 5.6792462711064029e+04 -6.5276496871769905e+02 7.9253421171491209e+02 -1.9559399675333116e+03 4.7833908211503760e+04 6.8078711012506892e+02 -2.5269693395073409e+02 -8.6053125393105438e+02 5.3438754328371026e+04 -6.0881255992577644e+02 2.5220751611794930e+02 -1.0393240201971346e+04 1.5189068820248157e+05 -2.6858297600673768e+03 -1.8675666530855869e+02 -3.3599949405459389e+04 -5.4368680024521082e+03 -2.1547920839777889e+04 -4.8996940435374956e+04 -1.2346911184351236e+05 -2.9090617799514097e+04 1.3902449532808087e+04 3.7512447994261878e+04 1.0637341099879141e+04 -1.6202237469701857e+04 -1.8649422811004952e+04 -1.1908753452689245e+04 -3.2105515978910669e+04 8.1649856962061647e+04 4.4598691817617771e+04 5.1892024207813683e+03 -9.6546343825076270e+04 1.2228359747932282e+04 -5.1333415171442857e+03 
      </Row>
      <Row Index="18">
        -2.2536489670251544e+02 1.0895257891144702e+03 2.4160479128568034e+02 -3.4796145842665368e+01 -1.6589577880063985e+02 -1.5257022560141932e+03 6.0807858057986130e+02 -5.3614070203369681e+02 3.5504273145276329e+01 -2.0093072736104932e+02 2.2144239799999028e+02 -2.9836892752083781e+02 -4.3577537882479101e+02 -1.2257704510399344e+02 4.2410932307883650e+02 -1.5284798270759529e+02 -1.5477391607765026e+02 -2.6858297204861046e+03 1.9704158796921674e+03 -5.0719346092390182e+01 3.8970247445022983e+03 -1.8039943363691157e+02 -1.2657144960264468e+03 -5.7687506242527470e+03 6.4153711959471639e+03 -6.0754569541610272e+02 1.0630417501628221e+04 -2.5754188197795220e+03 -1.1701113425038363e+03 1.9651969792604716e+04 -4.6173327442200998e+03 1.7385032674468566e+03 -1.1045686957145613e+03 4.7537533060264814e+03 3.3343258041072590e+03 2.2279627252734103e+03 1.7538998122538342e+03 -2.4895535247368159e+01 -6.3400459884260648e+01 
      </Row>
      <Row Index="19">
        1.8461194012555057e+02 -1.0724942960098269e+02 -5.7608587088544084e+01 1.4861121285308047e+02 1.0383700306463209e+02 -9.2236485697348144e+02 -3.6047298682991271e+02 4.9819807766856866e+02 -1.4149957355476181e+02 -5.0199557286874551e+01 -2.2781254613306814e+02 1.2736306740103328e+02 4.0078287899431416e+01 -6.1945690393645054e+02 -1.1940868280277482e+02 1.8896083016605920e+02 7.0202473557218730e+02 -1.8675666513629517e+02 -5.0719346194323755e+01 4.3214750565165167e+02 2.5868896611178197e+03 6.7678117498908864e+02 1.2717161423049367e+03 -1.6817496710656073e+03 -1.5915461040157124e+03 -5.4133105321676680e+01 2.2500373673931517e+03 -9.4188591380482717e+02 6.8730671434897226e+02 9.1379941688100985e+02 2.6671665512500209e+02 -5.2670891765985630e+02 -1.4472204501958545e+03 1.1476533536410002e+03 -9.3884040057386551e+02 -1.2100701740315615e+02 1.7624264515092127e+03 -1.2964405578006878e+02 -7.3755590382300980e+01 
      </Row>
      <Row Index="20">
        -3.4931630930272513e+02 -1.5195475012295879e+04 4.3835537762276363e+02 1.4560518531687012e+03 9.9519467003195314e+02 -1.3827492406029720e+04 -5.0609529561899053e+03 1.3472205756046460e+03 1.5207706394648412e+03 -5.4749318771534599e+03 -4.2665799357628257e+03 -4.8134420607902575e+02 5.6117337157018483e+01 -2.7537546188570559e+03 -1.2969773475783877e+03 8.0143869846592679e+01 1.9122725619895667e+04 -3.3599948997863248e+04 3.8970248056651635e+03 2.5868896435510542e+03 4.7802355738055665e+05 3.5380825699404333e+04 7.0797817877479174e+03 1.9596496089015057e+05 3.2007200785665969e+04 -3.6827460693450303e+04 -1.3896800191093521e+05 8.5703394397363329e+04 1.6646524835364839e+04 8.9374431447399635e+04 -5.3621913338254999e+04 1.3166534000746178e+04 -1.1789991816260711e+05 2.6338992323636427e+04 1.9937600658708470e+04 -4.2629727509081393e+04 -2.1801153821900079e+04 -8.5955928616215097e+03 2.7983654657287887e+04 
      </Row>
      <Row Index="21">
        1.5655601876386463e+03 -6.6775523409854271e+04 3.0609081599162892e+02 -1.1122728038931200e+00 6.1482596260853134e+03 -6.0204708331353555e+04 6.3879929618288452e+02 6.5275012507318024e+02 4.9564555962507147e+03 -4.2886106543883332e+04 6.6157649765603082e+02 -5.6278760907676769e+02 5.4060202673982712e+03 -8.5029959933686070e+04 1.6866745379712665e+02 5.5373563531571392e+02 3.7257069569163737e+04 -5.4368676202548741e+03 -1.8039941954812463e+02 6.7678116734990181e+02 3.5380826455984818e+04 2.3334659018253969e+05 8.9534958541858014e+03 1.3366737867820495e+04 4.1740487028115676e+04 -4.0044130774418561e+04 2.7583160445498252e+04 1.6018771509788858e+04 1.4783581248280549e+04 -3.3510917531401850e+04 -6.4112443642965327e+03 -8.4641534984927239e+03 4.5848552090376805e+04 -6.7363797221196859e+04 8.7784097407248482e+03 1.2773112171021667e+04 -1.0985707895704385e+05 3.3713472223631055e+04 5.4675319316856439e+03 
      </Row>
      <Row Index="22">
        8.0608781811192239e+02 -5.3084137384726200e+03 -5.7150950650694358e+02 2.7002850492938251e+02 2.7929897465167232e+02 7.8693995276640635e+02 -5.6252265589447643e+02 1.2419521114686577e+03 -8.3711651402237476e+02 8.6396189953887369e+02 -4.4772847232841423e+02 2.1163638496854401e+02 3.7693317236448638e+02 -1.3900867561979685e+04 -4.0726224450184964e+02 3.4095402781965623e+02 8.3036422795654507e+03 -2.1547920870664791e+04 -1.2657144749481222e+03 1.2717161394967115e+03 7.0797823464207177e+03 8.9534960492624323e+03 2.5760273691244063e+04 2.1883859265057828e+04 -3.3335837018151629e+04 4.5992795674116260e+03 -1.2199299466967153e+04 -2.8780454825242206e+04 -1.4579358125072707e+04 -3.8310673401454493e+04 2.5000291201969409e+04 8.4838126759892184e+03 8.5514232698493342e+03 -2.4509699654890079e+04 -2.2171592236205433e+04 -1.5181051104677954e+04 1.6849488724364983e+04 -1.5159760261581654e+04 4.9530284157248670e+03 
      </Row>
      <Row Index="23">
        -1.1927362030634831e+03 -9.7436202889494598e+02 7.4779351931970450e+02 -4.5932122284687648e+02 -2.3093319340742019e+03 -4.4472870806534775e+03 7.0183161981919329e+02 -4.2115279556428432e+03 7.2748155442974530e+02 -8.9385443716123700e+02 3.7985287267949934e+02 -1.5801934851427795e+03 -8.5990924190497026e+02 -2.4520259847022593e+04 -3.1945262764627114e+02 -1.3753514394319150e+03 4.9637490302247825e+03 -4.8996939901643258e+04 -5.7687504943274253e+03 -1.6817496996135451e+03 1.9596496112808981e+05 1.3366737695835591e+04 2.1883858529889600e+04 3.8860766308807122e+05 1.1962538598792860e+04 5.3060613685012777e+03 -2.2817353167872643e+04 3.4958887171552444e+04 -4.4092627871152159e+04 -2.6101912949867779e+05 2.3137880257245444e+04 3.4256442523273494e+04 -5.2573371313970420e+04 -7.4080912311948196e+04 -2.8153159271000026e+04 -4.9029516083230083e+04 -2.4047350550516458e+04 -4.5602912657853587e+04 4.0096267504467854e+04 
      </Row>
      <Row Index="24">
        3.1408461336617620e+01 1.2003410817960231e+05 1.6927179147976058e+03 -1.0857572401774605e+03 1.1307966380663274e+03 -1.3369890879475471e+05 1.5708969998854382e+03 -2.2399625034513956e+03 3.6458487079569022e+03 -9.8236361311605782e+04 2.9857444540966753e+01 -1.0142337455014640e+03 3.7451950837462209e+02 -7.5449568092677277e+04 1.1297280617362121e+03 -6.1886345608964484e+02 -5.6051903977137590e+02 -1.2346911177481402e+05 6.4153712040734354e+03 -1.5915461007061022e+03 3.2007200245353190e+04 4.1740487115124553e+04 -3.3335837037392062e+04 1.1962537830043744e+04 3.0205402019213431e+05 2.4742306838695804e+04 1.0025795652236593e+05 4.4375024765937131e+04 2.6422655001459872e+04 1.0062741705623150e+05 -5.1586933131988597e+04 -9.9735637692685305e+03 -2.2587157864949870e+04 -1.2976042012969084e+05 -4.7754474340928282e+03 4.7630142530431054e+04 8.0203353320623428e+03 3.0198497472231498e+04 -6.0810035983016469e+03 
      </Row>
      <Row Index="25">
        -6.3496811875536878e+01 3.6954646296350198e+04 5.3394005335308975e+01 -2.7173353990550845e+02 -1.7141989723352617e+03 -1.5629455962507971e+04 2.3836303295540210e+02 3.5717235037503997e+02 -1.0235223917390758e+03 -1.2440499444507295e+04 4.2263511699753508e+01 5.6384162492620817e+01 -1.4963775910181284e+03 -9.6724705412520561e+03 1.7979897034924943e+02 7.0075847115027955e+01 -5.9469083118770168e+03 -2.9090617978583730e+04 -6.0754569360733512e+02 -5.4133102301335384e+01 -3.6827460639734585e+04 -4.0044130560673577e+04 4.5992796855548186e+03 5.3060617116812136e+03 2.4742306830998979e+04 2.2750124657519733e+04 -2.0375074217114630e+04 -2.3891215777714537e+04 -6.4752683726937885e+03 -6.0377775742065060e+03 1.5030012851109626e+04 1.9246988445322922e+03 -7.7022920685486670e+03 -2.9850209737017038e+04 -2.0187051714348432e+04 -6.8233654178413854e+03 4.1064523729499124e+04 -8.7771827563893294e+03 -2.0028030224684280e+03 
      </Row>
      <Row Index="26">
        3.7577267295609863e+02 4.2955804863931844e+03 1.1426343861282330e+03 7.8140196235294957e+02 2.1539098623549753e+03 -1.6084352257480859e+04 -5.8883175733210680e+02 -8.8700815864089054e+02 7.0856703699255741e+02 -9.5601046064850525e+03 -1.5074087010304720e+03 -1.4386432496195921e+03 -1.4442036594150704e+02 7.8688083161007380e+03 3.6250720169741544e+02 -5.6215871268557885e+02 -1.3820835640103978e+03 1.3902450723168105e+04 1.0630417561245715e+04 2.2500373492515346e+03 -1.3896800280544648e+05 2.7583160417185911e+04 -1.2199300110894961e+04 -2.2817355501508973e+04 1.0025795650513784e+05 -2.0375074527249992e+04 7.4724904056687152e+05 7.9894683158866348e+04 -9.4943607520932928e+03 -1.2611702161571928e+05 -5.9933685702709168e+04 8.0272923189118046e+03 -2.3893767213958781e+03 4.4183533764148720e+04 2.8477081374630241e+04 1.3637777818810535e+05 -6.6989555428930180e+04 1.0764664443202116e+03 8.3184001261617811e+02 
      </Row>
      <Row Index="27">
        -1.5397737493008481e+02 -2.5543303617307334e+04 2.5679921319860478e+02 4.1706625920216095e+02 2.4323597539901548e+03 2.2437233260754234e+04 -2.8343841970812614e+03 -3.1380946025863523e+01 2.3706632192930774e+03 9.6102957607757417e+03 -1.3944015695345579e+03 3.7229755888685031e+02 2.4028532191267877e+03 3.3489817203588434e+04 -1.5697983413954207e+03 -8.7589377366373299e+01 -2.8862574571134301e+03 3.7512447967820081e+04 -2.5754188246243662e+03 -9.4188592031948065e+02 8.5703393975650833e+04 1.6018771016380317e+04 -2.8780454884869687e+04 3.4958886681740893e+04 4.4375024892279645e+04 -2.3891215608699214e+04 7.9894682414569950e+04 1.2438601513735595e+05 2.7618741792826917e+04 1.3465343460938122e+04 -6.1656599131183073e+04 -1.2686979455156241e+04 -3.1808985808620826e+04 -4.3366369856678190e+04 3.7866121707713610e+04 4.3988752713360736e+04 -1.4426560411024792e+05 2.1252873064036870e+04 -1.9596975348538381e+03 
      </Row>
      <Row Index="28">
        -5.9004917752765323e+01 -1.1756744204768911e+03 -1.3808740165091876e+01 3.9534490477346026e+02 1.0879277715782664e+03 -8.5795416284314124e+03 -2.9289587100128756e+03 2.4084473171792924e+03 1.2837863816609315e+03 -4.3250936349357944e+03 -1.6695745454005551e+03 1.0911317390549520e+03 1.0509462236491963e+03 2.8318284508613870e+03 -7.8735968650272116e+02 7.4730041630674077e+02 1.3578258595996776e+03 1.0637340999789973e+04 -1.1701113713197956e+03 6.8730671852426894e+02 1.6646524594031856e+04 1.4783581140820665e+04 -1.4579358012987494e+04 -4.4092628059361508e+04 2.6422654931192184e+04 -6.4752682539659263e+03 -9.4943613007423792e+03 2.7618741734043353e+04 2.7742241087909453e+04 5.0842422552065676e+04 -2.2740373092574577e+04 -1.7526650247172391e+04 1.2912926475378476e+03 9.1978934823424861e+03 1.1039549334665433e+04 1.6055929766560193e+04 -1.8481231398201038e+04 2.0729681359347152e+04 -7.7997563776345096e+03 
      </Row>
      <Row Index="29">
        1.3581935185183247e+03 1.1216628265402280e+04 5.0220046914572595e+02 9.0183249067118231e+02 1.8424514001922798e+03 -9.1627643184829503e+02 2.2936720031287041e+02 -4.0413113659183728e+02 -2.2709777475264855e+02 1.9712001696141902e+04 -3.0952116996701079e+02 -1.1041621989419218e+03 9.2509977135388181e+02 2.9788017057280988e+04 1.2453124376446940e+03 -7.7634515977530100e+01 -1.2550671757525997e+03 -1.6202238049946987e+04 1.9651969680127175e+04 9.1379944096881081e+02 8.9374430557816522e+04 -3.3510917850345228e+04 -3.8310672852555537e+04 -2.6101913022925073e+05 1.0062741661645478e+05 -6.0377770741228214e+03 -1.2611702421291395e+05 1.3465342752216180e+04 5.0842422494529194e+04 5.5059860444309725e+05 -1.1034714318253973e+05 -2.1516921328461685e+04 4.1422317866383193e+04 2.2910035194302043e+04 6.2570281227124142e+04 5.3653727076151576e+04 -3.8197944771845738e+04 4.6951674343765168e+04 -3.2883869156589979e+04 
      </Row>
      <Row Index="30">
        8.3835735947185822e+02 1.8521911760698073e+04 -4.4681431902824988e+02 -2.3484382187233223e+02 -9.0131144063152897e+02 -9.3790241562856827e+03 1.5716229983537532e+03 3.4176766033368767e+02 -2.2803036900803854e+03 -2.0773571627872530e+04 8.6692342692609191e+02 -3.4014828185786610e+02 -1.2579712886876659e+03 -2.5022787100217771e+04 3.3109188143978827e+02 -4.7787283092840880e+01 1.9259965515291042e+03 -1.8649422845160298e+04 -4.6173327209772015e+03 2.6671665503273834e+02 -5.3621912722269364e+04 -6.4112440301269016e+03 2.5000291218598955e+04 2.3137881103120351e+04 -5.1586933122728260e+04 1.5030012689806863e+04 -5.9933684715679461e+04 -6.1656599079415319e+04 -2.2740373220848596e+04 -1.1034714395681189e+05 7.1283833386993763e+04 1.3026803674692434e+04 1.2227136217175295e+04 -3.0992532271948025e+03 -3.8662143631118561e+04 -4.1198034285423215e+04 8.6768257273598851e+04 -2.1600462239314809e+04 7.3299537513626310e+03 
      </Row>
      <Row Index="31">
        -1.0794540327467985e+02 3.5554540030938806e+03 2.2742703829815582e+02 -2.7180829636744147e+02 -6.7791811285099539e+02 3.4214793604781153e+03 2.1985283565946675e+03 -2.0340120959949418e+03 -8.5678726898893365e+02 -1.0745902482586680e+03 1.0056030064444303e+03 -1.0054721085087804e+03 -1.0092632221501553e+03 -2.8575371249089949e+03 7.6430458353483118e+02 -6.9170585861239147e+02 -4.0430446919435599e+02 -1.1908753355414832e+04 1.7385032914006242e+03 -5.2670892129438289e+02 1.3166534136999544e+04 -8.4641534785860931e+03 8.4838125634518456e+03 3.4256442586174308e+04 -9.9735636928369495e+03 1.9246987631627708e+03 8.0272927248825636e+03 -1.2686979402753004e+04 -1.7526650226979651e+04 -2.1516921275901674e+04 1.3026803550287237e+04 1.4089950657529629e+04 6.8289111381636667e+03 -6.2764471118061356e+03 -5.4497244193224724e+03 -1.0224796693323571e+04 1.3213878703982606e+04 -1.4261799857742246e+04 6.9123220236788193e+03 
      </Row>
      <Row Index="32">
        1.0119193669488232e+02 -2.1689656879588263e+04 -7.2229888618916448e+02 -4.3448206601174934e+02 -5.8072780869260896e+02 -8.6498140241163201e+03 4.2019736415942316e+02 -1.8708753991537233e+03 8.0873447997041512e+02 4.9544088673741790e+03 9.2223595181972587e+02 -5.3107965948246419e+02 1.8280395438831183e+03 -3.0526351664120797e+04 -6.7925664921058342e+01 -3.8923493571662061e+02 1.4375306728744123e+04 -3.2105516028572394e+04 -1.1045686518570456e+03 -1.4472204473618694e+03 -1.1789991856433201e+05 4.5848552020599338e+04 8.5514231254941296e+03 -5.2573372201562044e+04 -2.2587157653483897e+04 -7.7022920828730439e+03 -2.3893764579502822e+03 -3.1808986132781731e+04 1.2912927585415407e+03 4.1422318502061396e+04 1.2227136167455930e+04 6.8289110544021605e+03 8.9762816594941809e+05 -1.0916621507660744e+04 -4.3104795515567857e+03 8.4096435043876161e+04 1.8635995505837382e+04 -2.7395016027136608e+03 6.6322871235736438e+03 
      </Row>
      <Row Index="33">
        -1.0455992078567408e+03 -4.5426240554129894e+04 4.5192398544100570e+02 4.8533514353282783e+02 2.1239992883564846e+03 2.6079043709146234e+04 -1.6684266780513317e+03 -1.2540181197191032e+02 2.5365824039617919e+03 3.0287826207497339e+04 -4.0249433236748484e+02 9.3731797207246655e+02 1.5448236534768548e+03 4.7995273942934466e+04 8.2394244998879003e+01 6.4243448394461450e+02 -6.5335489968707934e+03 8.1649858408963715e+04 4.7537532726863192e+03 1.1476533620204418e+03 2.6338990142750779e+04 -6.7363797666474711e+04 -2.4509700381375420e+04 -7.4080916424686598e+04 -1.2976042018457520e+05 -2.9850209819361775e+04 4.4183533071539256e+04 -4.3366369031939532e+04 9.1978945401945639e+03 2.2910038560338802e+04 -3.0992542481473001e+03 -6.2764479815488512e+03 -1.0916623209572594e+04 5.2469321892912709e+05 4.6884033179263301e+04 -1.0129531279055591e+04 3.3606765441903210e+05 6.9016426842337296e+03 2.8221332878165560e+02 
      </Row>
      <Row Index="34">
        -4.4821222767299332e+02 -2.9941967836955446e+04 3.1365572722050638e+02 7.4289043540310104e+01 8.1782704825608744e+02 2.3085659860605898e+04 7.2076475302940048e+02 -1.7393527908685865e+03 1.0284049217642314e+03 2.1157786987574946e+04 7.4963530425028307e+02 -4.3585768264951184e+02 7.5529853836889379e+02 2.8217122153141536e+04 2.9448127844033297e+02 -3.9730847465666551e+02 -3.4862261063060841e+03 4.4598691959160155e+04 3.3343257836781459e+03 -9.3884040039122192e+02 1.9937600130085426e+04 8.7784094110560873e+03 -2.2171592313526682e+04 -2.8153160162460801e+04 -4.7754474585516691e+03 -2.0187051602784348e+04 2.8477080493501478e+04 3.7866121744907396e+04 1.1039549513908254e+04 6.2570282076426396e+04 -3.8662143714416670e+04 -5.4497245745885430e+03 -4.3104796783998900e+03 4.6884032475456144e+04 3.8027770047870858e+04 1.9955986093693631e+04 -5.2711478105012713e+04 1.5081574871027053e+04 -3.4898856883838375e+03 
      </Row>
      <Row Index="35">
        2.2393167660029576e+01 -8.3106068306495436e+03 2.7922409763764881e+02 2.2226274848569301e+02 1.8581447243418734e+03 1.5204609672434162e+03 -1.2084217744795960e+03 8.2409627903834917e+01 1.8736197599320149e+03 5.7180024024185259e+03 -6.7047621000131585e+02 1.5096331867791014e+02 1.7688432869170792e+03 8.6800726762162521e+03 -4.3919820429477841e+02 8.4622764048557769e+01 1.3514300897706380e+02 5.1892024672602056e+03 2.2279627129265627e+03 -1.2100701659668994e+02 -4.2629727937487885e+04 1.2773112076904363e+04 -1.5181051087632226e+04 -4.9029516744278430e+04 4.7630142459273527e+04 -6.8233653437510739e+03 1.3637777753419834e+05 4.3988752672463343e+04 1.6055929841841813e+04 5.3653727638194046e+04 -4.1198034281740867e+04 -1.0224796769724740e+04 8.4096434966750458e+04 -1.0129532088732944e+04 1.9955986048497227e+04 5.9367627333064222e+04 -5.7580451213756074e+04 1.7384597630607535e+04 -8.9991299176089015e+03 
      </Row>
      <Row Index="36">
        1.6760497423794732e+01 1.0640510788770032e+05 5.6629357236459327e+02 -4.0900396511663166e+02 -1.4622517907419096e+03 -8.5101055425581115e+04 2.2265022604531441e+02 1.0439816815385057e+03 -7.9850747834934737e+02 -6.8863419118330232e+04 -5.5791210448039510e+02 4.5704468803957570e+02 -2.6474106601405074e+03 -4.6700260690357070e+04 1.0386683015533490e+03 4.3648450948387483e+02 -4.9345232112241811e+03 -9.6546342910549851e+04 1.7538998294705234e+03 1.7624264651326957e+03 -2.1801154853417975e+04 -1.0985707851767328e+05 1.6849488293554772e+04 -2.4047352509414486e+04 8.0203353137866507e+03 4.1064523426840555e+04 -6.6989553955647789e+04 -1.4426560367303112e+05 -1.8481230851011103e+04 -3.8197943710961699e+04 8.6768256654424171e+04 1.3213878250752270e+04 1.8635993998770864e+04 3.3606765634015627e+05 -5.2711477540931788e+04 -5.7580450626283993e+04 5.0132565855359437e+05 -2.7864922343745147e+04 6.4251358419615326e+03 
      </Row>
      <Row Index="37">
        2.6187882805507252e+02 -9.1130231285050977e+03 3.1205460929959372e+01 4.3686625847299183e+01 1.8326873398106400e+03 -1.0458544948489405e+04 -9.2791003474244553e+02 7.3290487417225086e+02 1.7369591387028340e+03 -5.7614644517964916e+03 -2.6816817728001070e+02 4.7833920170014608e+02 1.8846972448970191e+03 -3.9908547769640572e+03 -3.3701898376946338e+02 3.8873346958339255e+02 2.5636831714503151e+03 1.2228359730354605e+04 -2.4895562504359987e+01 -1.2964405197943415e+02 -8.5955930720200704e+03 3.3713472140775288e+04 -1.5159760185261541e+04 -4.5602912973420913e+04 3.0198497367240576e+04 -8.7771826733975722e+03 1.0764658300468436e+03 2.1252873053955496e+04 2.0729681399696809e+04 4.6951674547110153e+04 -2.1600462163724311e+04 -1.4261799903603442e+04 -2.7395017484317468e+03 6.9016417317097148e+03 1.5081574749239466e+04 1.7384597572458169e+04 -2.7864922946606435e+04 2.2322198816585646e+04 -7.6109353562498154e+03 
      </Row>
      <Row Index="38">
        -9.7022833123250166e+01 -9.2081328624393791e+02 7.6152570245307288e+01 -6.4130838865456099e+01 -3.8333728931888618e+02 -1.8829711975550163e+03 5.3111833725579208e+02 -6.8411139907674078e+02 -2.4103117098877556e+02 -2.4789703764627920e+03 1.9576573313847257e+02 -3.8226464298152132e+02 -4.1703687250684015e+02 -4.8908678937088698e+03 1.7061861075088382e+02 -2.5119258774041543e+02 1.6183857720052183e+03 -5.1333414038294941e+03 -6.3400440478579185e+01 -7.3755594157977612e+01 2.7983654729381640e+04 5.4675319031281615e+03 4.9530282943415514e+03 4.0096267488222140e+04 -6.0810035067270874e+03 -2.0028030869116192e+03 8.3184035759510334e+02 -1.9596974413570370e+03 -7.7997563354820795e+03 -3.2883869025560380e+04 7.3299536073404015e+03 6.9123220054610938e+03 6.6322872005814570e+03 2.8221401410606177e+02 -3.4898855363680123e+03 -8.9991298188349992e+03 6.4251361384308984e+03 -7.6109352990515108e+03 6.4990345554024270e+03 
      </Row>
    </InverseHessian>
  </Weights>
</MethodSetup>
