<?xml version="1.0"?>
<MethodSetup Method="MLP::MLP">
  <GeneralInfo>
    <Info name="TMVA Release" value="4.1.2 [262402]"/>
    <Info name="ROOT Release" value="5.32/00 [335872]"/>
    <Info name="Creator" value="tomc"/>
    <Info name="Date" value="Thu Jan 10 14:41:16 2013"/>
    <Info name="Host" value="Linux lxbuild168.cern.ch 2.6.18-308.1.1.el5 #1 SMP Wed Mar 7 19:25:07 CET 2012 x86_64 x86_64 x86_64 GNU/Linux"/>
    <Info name="Dir" value="/user_mnt/user/tomc/QGTagger/training/f/17/aKDE03"/>
    <Info name="Training events" value="3517"/>
    <Info name="TrainingTime" value="1.24064050e+01"/>
    <Info name="AnalysisType" value="Classification"/>
  </GeneralInfo>
  <Options>
    <Option name="NCycles" modified="No">500</Option>
    <Option name="HiddenLayers" modified="No">N,N-1</Option>
    <Option name="NeuronType" modified="No">sigmoid</Option>
    <Option name="RandomSeed" modified="No">1</Option>
    <Option name="EstimatorType" modified="No">MSE</Option>
    <Option name="NeuronInputType" modified="No">sum</Option>
    <Option name="V" modified="Yes">False</Option>
    <Option name="VerbosityLevel" modified="No">Default</Option>
    <Option name="VarTransform" modified="Yes">N</Option>
    <Option name="H" modified="Yes">False</Option>
    <Option name="CreateMVAPdfs" modified="Yes">True</Option>
    <Option name="IgnoreNegWeightsInTraining" modified="No">False</Option>
    <Option name="TrainingMethod" modified="No">BP</Option>
    <Option name="LearningRate" modified="No">2.000000e-02</Option>
    <Option name="DecayRate" modified="No">1.000000e-02</Option>
    <Option name="TestRate" modified="Yes">3</Option>
    <Option name="EpochMonitoring" modified="No">False</Option>
    <Option name="Sampling" modified="No">1.000000e+00</Option>
    <Option name="SamplingEpoch" modified="No">1.000000e+00</Option>
    <Option name="SamplingImportance" modified="No">1.000000e+00</Option>
    <Option name="SamplingTraining" modified="No">True</Option>
    <Option name="SamplingTesting" modified="No">False</Option>
    <Option name="ResetStep" modified="No">50</Option>
    <Option name="Tau" modified="No">3.000000e+00</Option>
    <Option name="BPMode" modified="No">sequential</Option>
    <Option name="BatchSize" modified="No">-1</Option>
    <Option name="ConvergenceImprove" modified="No">1.000000e-30</Option>
    <Option name="ConvergenceTests" modified="No">-1</Option>
    <Option name="UseRegulator" modified="Yes">True</Option>
    <Option name="UpdateLimit" modified="No">10000</Option>
    <Option name="CalculateErrors" modified="No">False</Option>
    <Option name="WeightRange" modified="No">1.000000e+00</Option>
  </Options>
  <Variables NVar="4">
    <Variable VarIndex="0" Expression="axis1" Label="axis1" Title="axis1" Unit="" Internal="axis1" Type="F" Min="1.20715285e-03" Max="2.34526396e-01"/>
    <Variable VarIndex="1" Expression="axis2" Label="axis2" Title="axis2" Unit="" Internal="axis2" Type="F" Min="4.48117440e-04" Max="1.02999099e-01"/>
    <Variable VarIndex="2" Expression="mult" Label="mult" Title="mult" Unit="" Internal="mult" Type="F" Min="1.86260581e+00" Max="4.38626060e+01"/>
    <Variable VarIndex="3" Expression="ptD" Label="ptD" Title="ptD" Unit="" Internal="ptD" Type="F" Min="2.72294521e-01" Max="9.94369686e-01"/>
  </Variables>
  <Spectators NSpec="0"/>
  <Classes NClass="2">
    <Class Name="Signal" Index="0"/>
    <Class Name="Background" Index="1"/>
  </Classes>
  <Transformations NTransformations="1">
    <Transform Name="Normalize">
      <Selection>
        <Input NInputs="4">
          <Input Type="Variable" Label="axis1" Expression="axis1"/>
          <Input Type="Variable" Label="axis2" Expression="axis2"/>
          <Input Type="Variable" Label="mult" Expression="mult"/>
          <Input Type="Variable" Label="ptD" Expression="ptD"/>
        </Input>
        <Output NOutputs="4">
          <Output Type="Variable" Label="axis1" Expression="axis1"/>
          <Output Type="Variable" Label="axis2" Expression="axis2"/>
          <Output Type="Variable" Label="mult" Expression="mult"/>
          <Output Type="Variable" Label="ptD" Expression="ptD"/>
        </Output>
      </Selection>
      <Class ClassIndex="0">
        <Ranges>
          <Range Index="0" Min="4.8951930366456509e-03" Max="2.2888578474521637e-01"/>
          <Range Index="1" Min="1.7489918973296881e-03" Max="7.7147059142589569e-02"/>
          <Range Index="2" Min="4.8626055717468262e+00" Max="4.3862606048583984e+01"/>
          <Range Index="3" Min="3.0099591612815857e-01" Max="9.5017480850219727e-01"/>
        </Ranges>
      </Class>
      <Class ClassIndex="1">
        <Ranges>
          <Range Index="0" Min="1.2071528472006321e-03" Max="2.3452639579772949e-01"/>
          <Range Index="1" Min="4.4811744010075927e-04" Max="1.0299909859895706e-01"/>
          <Range Index="2" Min="1.8626058101654053e+00" Max="3.7862606048583984e+01"/>
          <Range Index="3" Min="2.7229452133178711e-01" Max="9.9436968564987183e-01"/>
        </Ranges>
      </Class>
      <Class ClassIndex="2">
        <Ranges>
          <Range Index="0" Min="1.2071528472006321e-03" Max="2.3452639579772949e-01"/>
          <Range Index="1" Min="4.4811744010075927e-04" Max="1.0299909859895706e-01"/>
          <Range Index="2" Min="1.8626058101654053e+00" Max="4.3862606048583984e+01"/>
          <Range Index="3" Min="2.7229452133178711e-01" Max="9.9436968564987183e-01"/>
        </Ranges>
      </Class>
    </Transform>
  </Transformations>
  <MVAPdfs>
    <PDF Name="MLP_PDFSig" MinNSmooth="0" MaxNSmooth="0" InterpolMethod="5" KDE_type="1" KDE_iter="2" KDE_border="1" KDE_finefactor="3.0000001192092896e-01">
      <Histogram Name="MLP_tr_S_original" NBins="250" XMin="-1.4787157997488976e-02" XMax="2.7218797802925110e-01" HasEquidistantBins="1">
        0.00000000e+00 0.00000000e+00 0.00000000e+00 0.00000000e+00 0.00000000e+00 0.00000000e+00 0.00000000e+00 0.00000000e+00 0.00000000e+00 0.00000000e+00 0.00000000e+00 6.85949278e+00 0.00000000e+00 0.00000000e+00 6.85949278e+00 0.00000000e+00 6.85949278e+00 2.05784798e+01 6.85949278e+00 0.00000000e+00 0.00000000e+00 0.00000000e+00 0.00000000e+00 6.85949278e+00 2.05784798e+01 0.00000000e+00 6.85949278e+00 2.05784798e+01 6.85949278e+00 6.85949278e+00 1.37189856e+01 1.37189856e+01 6.85949278e+00 2.74379711e+01 6.85949278e+00 6.85949278e+00 0.00000000e+00 6.85949278e+00 6.85949278e+00 3.42974663e+01 6.85949278e+00 6.85949278e+00 2.74379711e+01 1.37189856e+01 1.37189856e+01 6.85949278e+00 1.37189856e+01 0.00000000e+00 1.37189856e+01 6.85949278e+00 1.37189856e+01 6.85949278e+00 2.05784798e+01 6.85949278e+00 6.85949278e+00 6.85949278e+00 6.85949278e+00 1.37189856e+01 6.85949278e+00 6.85949278e+00 6.85949278e+00 2.05784798e+01 6.85949278e+00 6.85949278e+00 6.85949278e+00 6.85949278e+00 6.85949278e+00 6.85949278e+00 1.37189856e+01 6.85949278e+00 1.37189856e+01 0.00000000e+00 1.37189856e+01 0.00000000e+00 6.85949278e+00 0.00000000e+00 0.00000000e+00 0.00000000e+00 0.00000000e+00 0.00000000e+00 0.00000000e+00 6.85949278e+00 0.00000000e+00 6.85949278e+00 1.37189856e+01 6.85949278e+00 6.85949278e+00 0.00000000e+00 0.00000000e+00 0.00000000e+00 0.00000000e+00 0.00000000e+00 1.37189856e+01 0.00000000e+00 0.00000000e+00 6.85949278e+00 0.00000000e+00 6.85949278e+00 0.00000000e+00 0.00000000e+00 0.00000000e+00 0.00000000e+00 6.85949278e+00 0.00000000e+00 1.37189856e+01 0.00000000e+00 6.85949278e+00 6.85949278e+00 0.00000000e+00 1.37189856e+01 0.00000000e+00 0.00000000e+00 6.85949278e+00 6.85949278e+00 0.00000000e+00 6.85949278e+00 6.85949278e+00 0.00000000e+00 0.00000000e+00 0.00000000e+00 6.85949278e+00 0.00000000e+00 6.85949278e+00 0.00000000e+00 0.00000000e+00 6.85949278e+00 0.00000000e+00 0.00000000e+00 0.00000000e+00 0.00000000e+00 0.00000000e+00 0.00000000e+00 0.00000000e+00 6.85949278e+00 0.00000000e+00 0.00000000e+00 0.00000000e+00 0.00000000e+00 0.00000000e+00 0.00000000e+00 0.00000000e+00 0.00000000e+00 0.00000000e+00 0.00000000e+00 0.00000000e+00 0.00000000e+00 6.85949278e+00 0.00000000e+00 6.85949278e+00 0.00000000e+00 0.00000000e+00 6.85949278e+00 6.85949278e+00 0.00000000e+00 0.00000000e+00 6.85949278e+00 0.00000000e+00 0.00000000e+00 1.37189856e+01 0.00000000e+00 0.00000000e+00 0.00000000e+00 0.00000000e+00 0.00000000e+00 0.00000000e+00 0.00000000e+00 0.00000000e+00 0.00000000e+00 0.00000000e+00 6.85949278e+00 0.00000000e+00 0.00000000e+00 0.00000000e+00 0.00000000e+00 0.00000000e+00 0.00000000e+00 6.85949278e+00 0.00000000e+00 0.00000000e+00 0.00000000e+00 0.00000000e+00 0.00000000e+00 0.00000000e+00 0.00000000e+00 1.37189856e+01 0.00000000e+00 0.00000000e+00 0.00000000e+00 0.00000000e+00 6.85949278e+00 0.00000000e+00 0.00000000e+00 0.00000000e+00 0.00000000e+00 0.00000000e+00 0.00000000e+00 0.00000000e+00 0.00000000e+00 0.00000000e+00 0.00000000e+00 0.00000000e+00 0.00000000e+00 0.00000000e+00 6.85949278e+00 0.00000000e+00 0.00000000e+00 0.00000000e+00 0.00000000e+00 6.85949278e+00 6.85949278e+00 0.00000000e+00 0.00000000e+00 0.00000000e+00 6.85949278e+00 0.00000000e+00 0.00000000e+00 0.00000000e+00 0.00000000e+00 6.85949278e+00 0.00000000e+00 0.00000000e+00 0.00000000e+00 0.00000000e+00 0.00000000e+00 0.00000000e+00 0.00000000e+00 0.00000000e+00 0.00000000e+00 0.00000000e+00 0.00000000e+00 0.00000000e+00 0.00000000e+00 0.00000000e+00 0.00000000e+00 0.00000000e+00 0.00000000e+00 0.00000000e+00 0.00000000e+00 0.00000000e+00 6.85949278e+00 0.00000000e+00 0.00000000e+00 0.00000000e+00 0.00000000e+00 0.00000000e+00 0.00000000e+00 0.00000000e+00 0.00000000e+00 0.00000000e+00 6.85949278e+00 
      </Histogram>
    </PDF>
    <PDF Name="MLP_PDFBkg" MinNSmooth="0" MaxNSmooth="0" InterpolMethod="5" KDE_type="1" KDE_iter="2" KDE_border="1" KDE_finefactor="3.0000001192092896e-01">
      <Histogram Name="MLP_tr_B_original" NBins="250" XMin="-1.4787157997488976e-02" XMax="2.7218797802925110e-01" HasEquidistantBins="1">
        2.57053882e-01 0.00000000e+00 0.00000000e+00 5.14107764e-01 2.57053882e-01 1.28526938e+00 2.31348491e+00 1.79937720e+00 2.57053876e+00 3.34170055e+00 4.36991596e+00 7.19750881e+00 6.42634726e+00 1.13103704e+01 9.25393963e+00 1.54232330e+01 1.67085018e+01 1.74796638e+01 1.72226105e+01 2.21066341e+01 2.00502033e+01 1.72226105e+01 1.90219879e+01 2.10784187e+01 2.41630650e+01 2.15925255e+01 2.00502033e+01 2.05643101e+01 1.82508259e+01 2.00502033e+01 2.05643101e+01 1.87649326e+01 1.85078793e+01 1.90219879e+01 1.92790413e+01 1.79937725e+01 1.51661787e+01 1.38809099e+01 1.56802874e+01 1.67085018e+01 1.51661787e+01 1.51661787e+01 1.23385868e+01 1.25956402e+01 1.02821550e+01 1.00251017e+01 1.13103704e+01 1.10533171e+01 1.15674248e+01 8.99688625e+00 8.48277855e+00 9.25393963e+00 8.99688625e+00 5.91223955e+00 7.71161652e+00 6.94045496e+00 6.42634726e+00 9.51099396e+00 4.36991596e+00 4.11286211e+00 4.88402367e+00 5.65518522e+00 3.85580826e+00 3.08464670e+00 5.39813137e+00 5.91223955e+00 5.65518522e+00 4.11286211e+00 5.65518522e+00 3.59875441e+00 4.62696981e+00 3.34170055e+00 5.14107752e+00 2.82759261e+00 3.34170055e+00 3.08464670e+00 4.11286211e+00 4.11286211e+00 1.79937720e+00 4.11286211e+00 3.59875441e+00 3.08464670e+00 1.79937720e+00 2.82759261e+00 1.54232335e+00 2.05643106e+00 3.85580826e+00 1.79937720e+00 2.57053876e+00 1.54232335e+00 1.02821553e+00 1.28526938e+00 2.57053882e-01 2.05643106e+00 1.02821553e+00 1.02821553e+00 1.02821553e+00 1.28526938e+00 7.71161675e-01 1.28526938e+00 2.57053876e+00 2.57053882e-01 1.28526938e+00 7.71161675e-01 1.54232335e+00 2.57053882e-01 2.57053882e-01 1.28526938e+00 1.54232335e+00 1.02821553e+00 5.14107764e-01 1.79937720e+00 5.14107764e-01 2.57053882e-01 7.71161675e-01 7.71161675e-01 5.14107764e-01 1.02821553e+00 2.57053882e-01 2.57053882e-01 1.54232335e+00 0.00000000e+00 0.00000000e+00 2.57053882e-01 2.57053882e-01 0.00000000e+00 5.14107764e-01 2.57053882e-01 2.57053882e-01 5.14107764e-01 2.57053882e-01 0.00000000e+00 1.02821553e+00 7.71161675e-01 2.57053882e-01 2.57053882e-01 5.14107764e-01 5.14107764e-01 0.00000000e+00 7.71161675e-01 2.57053882e-01 2.57053882e-01 2.57053882e-01 0.00000000e+00 5.14107764e-01 2.57053882e-01 0.00000000e+00 5.14107764e-01 0.00000000e+00 2.57053882e-01 5.14107764e-01 0.00000000e+00 2.57053882e-01 0.00000000e+00 2.57053882e-01 5.14107764e-01 7.71161675e-01 0.00000000e+00 5.14107764e-01 2.57053882e-01 0.00000000e+00 0.00000000e+00 2.57053882e-01 0.00000000e+00 0.00000000e+00 2.57053882e-01 5.14107764e-01 7.71161675e-01 0.00000000e+00 0.00000000e+00 0.00000000e+00 5.14107764e-01 2.57053882e-01 5.14107764e-01 0.00000000e+00 0.00000000e+00 2.57053882e-01 2.57053882e-01 2.57053882e-01 5.14107764e-01 0.00000000e+00 0.00000000e+00 2.57053882e-01 0.00000000e+00 0.00000000e+00 5.14107764e-01 0.00000000e+00 0.00000000e+00 2.57053882e-01 0.00000000e+00 0.00000000e+00 0.00000000e+00 0.00000000e+00 0.00000000e+00 0.00000000e+00 7.71161675e-01 2.57053882e-01 5.14107764e-01 2.57053882e-01 2.57053882e-01 2.57053882e-01 2.57053882e-01 2.57053882e-01 2.57053882e-01 2.57053882e-01 2.57053882e-01 0.00000000e+00 5.14107764e-01 0.00000000e+00 0.00000000e+00 0.00000000e+00 0.00000000e+00 0.00000000e+00 0.00000000e+00 2.57053882e-01 2.57053882e-01 0.00000000e+00 0.00000000e+00 2.57053882e-01 0.00000000e+00 0.00000000e+00 0.00000000e+00 0.00000000e+00 0.00000000e+00 0.00000000e+00 0.00000000e+00 2.57053882e-01 0.00000000e+00 2.57053882e-01 2.57053882e-01 2.57053882e-01 0.00000000e+00 2.57053882e-01 0.00000000e+00 0.00000000e+00 2.57053882e-01 0.00000000e+00 0.00000000e+00 0.00000000e+00 0.00000000e+00 0.00000000e+00 0.00000000e+00 2.57053882e-01 0.00000000e+00 2.57053882e-01 0.00000000e+00 0.00000000e+00 0.00000000e+00 2.57053882e-01 0.00000000e+00 
      </Histogram>
    </PDF>
  </MVAPdfs>
  <Weights>
    <Layout NLayers="4">
      <Layer Index="0" NNeurons="5">
        <Neuron NSynapses="4">
          -3.2442396626781811e-01 2.0745685091019515e+00 9.6152409846096043e-01 1.6066087167355569e+00 
        </Neuron>
        <Neuron NSynapses="4">
          -1.6013521712594196e+00 -1.4279921534815265e+00 -9.5106236041768366e-01 2.2230983103762378e+00 
        </Neuron>
        <Neuron NSynapses="4">
          -1.2845428189751815e+00 -9.9995014237159996e-01 -1.4427969489897359e+00 -3.8086759805205184e-01 
        </Neuron>
        <Neuron NSynapses="4">
          -1.5018481227323444e+00 -5.3437453300080895e-01 -4.9355773209403736e-01 5.3837850814999699e-01 
        </Neuron>
        <Neuron NSynapses="4">
          -6.5644656400091694e-01 1.7435336344051549e+00 2.9036107515262094e-01 1.0307144759816029e+00 
        </Neuron>
      </Layer>
      <Layer Index="1" NNeurons="5">
        <Neuron NSynapses="3">
          -4.7387784665841237e-01 -7.0798071101637194e-01 8.1560889239921242e-01 
        </Neuron>
        <Neuron NSynapses="3">
          -4.9802672097235108e-02 -1.3292218930230095e+00 -1.3892062584244969e-01 
        </Neuron>
        <Neuron NSynapses="3">
          1.3899856710307439e+00 -1.1034286570677458e+00 -1.7981409086073428e+00 
        </Neuron>
        <Neuron NSynapses="3">
          1.0441501075091124e-01 5.1854555374708522e-01 1.3466203498478910e+00 
        </Neuron>
        <Neuron NSynapses="3">
          -5.0567810861350670e-01 -3.1617383585393344e-01 2.5372410954476593e-01 
        </Neuron>
      </Layer>
      <Layer Index="2" NNeurons="4">
        <Neuron NSynapses="1">
          1.2031033820405590e-01 
        </Neuron>
        <Neuron NSynapses="1">
          -1.2944720310291933e+00 
        </Neuron>
        <Neuron NSynapses="1">
          1.4638881342769499e+00 
        </Neuron>
        <Neuron NSynapses="1">
          -5.6425014538623885e-01 
        </Neuron>
      </Layer>
      <Layer Index="3" NNeurons="1">
        <Neuron NSynapses="0"/>
      </Layer>
    </Layout>
    <InverseHessian NElements="1521" NRows="39" NCols="39">
      <Row Index="0">
        7.4517800354538458e+03 -5.9061103111294042e+03 -3.6896218191961098e+03 4.7213789846295396e+02 4.3688824164573834e+03 -5.3346043344481877e+03 -1.9604066719469770e+03 1.5265906022193738e+02 -9.9561353705777253e+02 -6.8155666694666297e+03 5.2322483049585890e+02 -9.5660905460943741e+02 5.4740953333710677e+03 -8.9789298950735683e+03 -2.8838609451473981e+03 -6.8885753900667794e+02 1.1858516458031101e+04 -6.2274048744209022e+03 -3.2323597037540667e+03 -4.5979917208550819e+02 1.1028595229284278e+04 1.9592722265689816e+04 1.4130761411514164e+04 6.1022117201336587e+03 -5.4037280956750892e+03 -1.2325938954001967e+03 7.2464084543016515e+03 -6.2095390867864808e+02 -1.0677718538343006e+04 -1.6375208258000321e+03 3.7195450735049512e+03 2.1175037628752402e+03 8.1346361410811696e+03 -7.3054736993034658e+03 -2.3997261728437461e+03 -1.2887507146741632e+03 1.3539941050835093e+03 -2.2483468429992963e+03 7.4832651506149375e+02 
      </Row>
      <Row Index="1">
        -5.9061102575603436e+03 2.2953640779882265e+05 1.9389620678581205e+03 -8.6272697694346334e+02 -1.2800391114039925e+04 -1.2950691878481071e+05 1.6808326542255973e+03 1.9521588180757963e+03 -8.4373118244802590e+03 -8.3364334277644200e+04 -7.2206698782499843e+03 -6.6214570933304083e+02 -1.5876725475789919e+04 -2.5420474920656532e+04 2.7308462314155881e+03 8.1943472550576553e+02 -3.8777052995734775e+04 -2.5059207526116032e+04 -1.6227666228751877e+04 -2.9265127467824391e+03 -6.3518647621758573e+03 -1.3407500836042594e+05 -1.1431984747251367e+04 9.5303149397753732e+03 1.1167369114133094e+05 3.7116640111057779e+04 9.9848974105185653e+02 1.7867061720302048e+04 3.2190998113720132e+04 7.4828765248017044e+03 3.4188319956885534e+04 1.2395504467908684e+04 8.1756498660429643e+03 -1.1664428712442114e+05 -4.7387044479029617e+04 9.8807216708629785e+03 1.1696386008727853e+05 -2.7284018099128458e+04 -9.4053409974894475e+03 
      </Row>
      <Row Index="2">
        -3.6896218152374731e+03 1.9389621045198292e+03 3.2138212239255599e+03 -2.2928517883772724e+01 -2.7689764715192055e+03 5.0336450460738006e+03 1.0460621198950073e+03 6.7122955493474620e+01 -1.0672133209129521e+02 2.9880091072309929e+03 -4.6016261292260350e+02 1.2754124099540677e+02 -3.8835232856723078e+03 6.0725672830774711e+03 1.7782228795689414e+03 6.1801929537934484e+01 -6.9862241993342168e+03 1.0199194984178075e+02 1.6596632472168208e+03 2.6057832488024815e+02 -8.7466122670144487e+03 -1.3248699292732168e+04 -8.3781305959504498e+03 -4.9019429099276967e+03 3.3846568026394671e+03 2.1788181094040901e+03 1.3542056033410546e+02 4.0087856861232740e+03 4.4850752032250921e+03 3.2631314255660400e+03 -5.4544852461260984e+02 -2.2797388494374095e+03 -6.1781356402606270e+03 3.0256737495628686e+03 1.2327539336826974e+03 4.2689228347272574e+03 2.7247010150883611e+03 1.6138146234257292e+03 -2.4598310314906225e+03 
      </Row>
      <Row Index="3">
        4.7213789935983056e+02 -8.6272696548319072e+02 -2.2928518092606399e+01 3.5073138801849495e+02 -6.7696501985847739e+00 1.1629650142894174e+02 -5.0618865468819047e+02 5.3290794701623531e+02 -5.7769704516268848e+02 -4.8993040197503188e+02 -1.9745722613540448e+02 -1.9930957491622758e+02 -1.8110117784199434e+02 -4.4158666475738630e+02 -1.9281284682535477e+02 -3.5336318434070563e+01 2.1328106523626286e+02 3.3062017836794587e+02 -3.7733815907183742e+02 1.3944356276489884e+02 -9.7729911354966021e+02 9.7878704169352613e+02 -1.1486824628259349e+03 7.7546483966208280e+02 -5.4667134415483088e+02 1.2982462368955689e+02 3.1599420578632120e+01 1.1267696426732050e+03 2.3175813679250127e+03 -2.0523815670627300e+03 7.8931813490374623e+02 -2.2462833891232199e+03 8.3240265740654786e+02 1.0488941014422957e+02 1.4558027810286490e+01 4.8175397024937803e+02 1.5308107434417923e+02 2.1999944463075849e+03 -1.2737187711315250e+03 
      </Row>
      <Row Index="4">
        4.3688824090652170e+03 -1.2800391158424667e+04 -2.7689764697547762e+03 -6.7696497657528241e+00 4.7031244211921830e+03 -2.6420609839731783e+03 -6.7970056577098239e+02 -7.7901202529535374e+02 1.1997434120302723e+03 -5.2010791479110540e+03 8.7584454402458834e+02 -4.0604338346434815e+02 5.3309559810706569e+03 -8.2075890863218810e+03 -1.8323156975799591e+03 -4.3544159366824897e+02 1.1659784142639663e+04 -4.3349884403501237e+03 -1.3551662193148527e+03 -4.6788728724497258e+02 5.3637297309890346e+02 2.5193701069772647e+04 1.1488301622785602e+04 2.3876972620145098e+03 -2.8588055025363055e+03 -4.8645574105019314e+03 -2.1193499984396367e+03 3.4819992811439261e+03 -1.0119648536381057e+04 -1.6923195124413214e+03 -1.6800803905739831e+03 3.8211564435325367e+03 1.5210422064944451e+03 1.6470175844791966e+03 1.1248672385676277e+03 -2.7775837802685755e+03 -5.0646295026959797e+03 -1.6745921252357252e+03 3.9935307279555877e+03 
      </Row>
      <Row Index="5">
        -5.3346042694085500e+03 -1.2950691883192724e+05 5.0336450129315726e+03 1.1629649635519135e+02 -2.6420609388987987e+03 2.0663265401253378e+05 1.0978225511422165e+03 -2.8440010951963137e+02 3.0667551390536977e+02 1.5005073270683759e+05 4.1851121359918801e+02 1.6420765270477859e+03 -8.2424344736538319e+02 1.2290280020696111e+05 1.3723953884895593e+03 1.2803218536684290e+02 -1.9741583612673421e+04 1.3773834001033083e+03 7.4141138311006416e+03 1.2776592589247625e+03 1.0210665756897997e+03 -1.0438285033589446e+05 -5.2470791040442673e+03 3.0326345006725704e+04 -1.4703180629501466e+05 -1.0662677648039396e+04 4.7185154916143947e+03 6.8783072823098119e+03 -1.7529062131644496e+04 1.1275103881542105e+04 -1.6098425960070104e+04 -9.9156298618830770e+03 -6.5115963231676433e+03 2.6232127893757490e+04 3.9259907790230689e+04 3.1364533747270529e+04 -9.2678114552670537e+04 -4.1578565729041948e+03 -2.5587705233136498e+04 
      </Row>
      <Row Index="6">
        -1.9604066725660434e+03 1.6808326374613971e+03 1.0460621206501858e+03 -5.0618865479683734e+02 -6.7970056514321175e+02 1.0978225579037055e+03 2.0184989395192138e+03 -1.2456464119973350e+03 7.6336428976079503e+02 6.6828708316398024e+02 5.8336780044961461e+02 -6.3911902239749907e+01 -1.2956520059528775e+03 2.0291469403299270e+03 1.3250198282744823e+03 -1.3115795148431789e+02 -1.8060142728922151e+03 1.7591240670108323e+02 2.0881632057445531e+03 -2.9413718534527879e+02 2.6752008492936748e+03 -2.6174300371983568e+03 -6.2415062275037508e+02 4.3248172992928139e+03 1.2918524163527122e+03 -9.2509648281823013e+02 2.3618863467004820e+02 -1.4030704125621169e+03 -4.1400078251895138e+03 1.1429489343157547e+03 -5.7392554411791207e+02 4.8801575892862784e+03 1.8086158995355158e+03 1.0772390495231978e+03 1.1680476087080035e+03 -3.0022931272019810e+02 -1.2805212407639510e+02 -4.3326666074690129e+03 2.4414717825209341e+03 
      </Row>
      <Row Index="7">
        1.5265906759534701e+02 1.9521588575228816e+03 6.7122951336206711e+01 5.3290794654006891e+02 -7.7901202294944289e+02 -2.8440010957763468e+02 -1.2456464117555654e+03 2.0235147379148459e+03 -1.3271893048159727e+03 1.0419840340946103e+03 -1.0182483689616364e+03 3.0069591041048989e+02 -8.9044861935211088e+02 -1.0030831703464501e+03 -4.6597143971404876e+02 3.5090963091468439e+02 -1.0105021697584224e+03 -1.9008676799514112e+03 -5.3089489791912729e+02 8.7530841044041529e+02 -6.8544212096674783e+03 -1.1214392046628413e+03 -1.9775913813472234e+03 -6.1469845763291278e+02 -1.3006410634212959e+03 2.8039081347195743e+03 -9.8314424129694657e+02 -6.4435204937085437e+03 7.7430788485203102e+03 2.0915757533517535e+02 4.0547160565709346e+03 -8.8091969595508363e+03 -4.4592900735785815e+02 -3.8583312225195546e+03 -2.2656634800402130e+03 4.4873113562717663e+03 2.8192729085167143e+03 7.3717902904652256e+03 -6.9890009960574334e+03 
      </Row>
      <Row Index="8">
        -9.9561354510772196e+02 -8.4373118415456265e+03 -1.0672132783421928e+02 -5.7769704396497309e+02 1.1997434075438439e+03 3.0667549947317445e+02 7.6336428800893918e+02 -1.3271893019970025e+03 2.8966595415898869e+03 -1.4579180203827564e+03 1.1497018133796053e+03 3.9421460475370986e+02 1.9619429801692572e+03 -2.3231346477039624e+03 3.3908909803567803e+02 9.3822216324973851e+01 3.5864058320825197e+03 -1.5513574747122024e+02 1.1369982973516931e+03 -2.7473533403819408e+02 -6.2353244266842976e+03 1.1259101044882784e+04 3.8228596134496147e+03 -7.4797687541099986e+03 1.8720555233958662e+03 -2.6660062083731659e+03 -9.4525698760797659e+03 2.0394164535152531e+03 -6.8061035179902065e+03 -3.7455761955122907e+03 -5.4623794003362709e+03 4.4231401687700045e+03 -8.3525828151833903e+03 8.0189556532380429e+03 2.1758598231613400e+03 -7.2367108026303640e+02 -4.1459207271909954e+03 -1.9497710259690123e+03 3.9613710677524568e+03 
      </Row>
      <Row Index="9">
        -6.8155666339034624e+03 -8.3364334322805516e+04 2.9880090897101627e+03 -4.8993040496364443e+02 -5.2010791211933893e+03 1.5005073270105821e+05 6.6828708036331227e+02 1.0419840323342480e+03 -1.4579180099920370e+03 1.5558987031436642e+05 -2.1279409168356533e+03 3.1432205703759100e+03 -3.2559870682258743e+03 1.0063272839627136e+05 1.0615697610867792e+03 1.5127948469370604e+03 -1.8136661272389538e+04 1.0055185085357527e+04 1.0387014908895100e+04 4.3351313051053548e+03 6.9755841668238809e+03 -6.5025845284268493e+04 -2.2371219998377483e+03 5.2366724933263475e+04 -1.0382290805630041e+05 -1.0742455812813329e+04 1.5932372179452703e+04 -7.7735121554862373e+04 -4.5167154999298245e+03 1.5255080343010108e+04 -1.2064519600189058e+04 -9.5802212762758118e+03 2.2173798001671195e+04 1.1858741620880051e+04 2.3311462460024835e+04 7.3138248822301321e+03 -8.6226186888201613e+04 -3.7971823806385601e+03 -1.4245293155034144e+04 
      </Row>
      <Row Index="10">
        5.2322482384364844e+02 -7.2206699007729185e+03 -4.6016260930677754e+02 -1.9745722542375461e+02 8.7584454109913520e+02 4.1851120541622487e+02 5.8336779980747815e+02 -1.0182483678814126e+03 1.1497018144922822e+03 -2.1279409230190213e+03 1.3342394759433946e+03 -1.3743378782224318e+02 1.2691820173242397e+03 -1.5929611401893198e+03 1.2902668803311826e+02 -1.6893998849065974e+02 2.7106287108818651e+03 9.4309030297848085e+02 1.3300021444397596e+03 -3.2000484312931133e+02 1.8061414328429964e+03 7.4531144557825774e+03 2.7449184374814408e+03 -8.8784490726381046e+02 -1.0377051453585395e+03 -1.4619573315333548e+03 -3.9357831599666879e+03 2.8985497372835425e+02 -6.2689514740652266e+03 -2.5482712091100839e+03 -2.5925556903009710e+03 4.0936382750846965e+03 1.0784992867207934e+03 7.1617677564980095e+03 1.6707091327984272e+03 -2.5176499451968311e+03 -1.3983863571954546e+03 -2.6502684089381792e+03 3.8476942582955930e+03 
      </Row>
      <Row Index="11">
        -9.5660905304477808e+02 -6.6214569982455578e+02 1.2754124018526915e+02 -1.9930957482865051e+02 -4.0604338318405343e+02 1.6420765250462964e+03 -6.3911902666204696e+01 3.0069591127286270e+02 3.9421460381918610e+02 3.1432205693820724e+03 -1.3743378846151995e+02 6.6880170448342687e+02 -1.0714403509537442e+02 1.2733610380532918e+03 5.4574793074236368e+01 3.8533852815331193e+02 -1.0425383576352738e+03 -8.4332597544673877e+02 5.8787397467663686e+02 3.9401146225880814e+02 -3.3837655086012228e+03 -1.7166253749168650e+03 -1.2502207791248418e+02 -2.4234306607168860e+03 -6.5649160212779032e+02 9.8563711784524696e+02 -2.2981791901148658e+03 -5.1846574716451905e+03 1.2204697234209355e+03 1.7714002142731006e+03 -3.3277486662541924e+02 -2.1607470800533574e+03 -2.5744878399857057e+03 7.2705636868735985e+02 -2.6293511181799806e+02 1.6773130292256253e+03 -2.0153245630631810e+02 1.7642051466171797e+03 -1.9997764925415850e+03 
      </Row>
      <Row Index="12">
        5.4740953274036729e+03 -1.5876725533690595e+04 -3.8835232849895192e+03 -1.8110117730028469e+02 5.3309559831805600e+03 -8.2424350485198750e+02 -1.2956520076175439e+03 -8.9044862122984978e+02 1.9619429862059485e+03 -3.2559871032448136e+03 1.2691820210364385e+03 -1.0714403507068346e+02 7.4476195471282335e+03 -8.6101228844721336e+03 -2.4870043895270210e+03 -3.6016086314531276e+02 1.4184620341734906e+04 -5.7817702150187833e+03 -1.7493682505300840e+03 -5.9864824456548740e+02 9.0036659878490900e+03 2.7388404507520954e+04 1.5555751974673803e+04 1.3451841181911077e+03 -5.9886648163849150e+03 -5.0059766724596457e+03 -6.4814093717443359e+02 1.5116745064744518e+03 -1.4348091408454235e+04 -4.2176953992988801e+03 -3.5008402159249235e+03 4.3518854502861795e+03 1.5071277671975822e+03 2.9721802995034182e+02 2.3209216503535827e+03 -1.7312508565264877e+03 -7.8345498938262754e+03 -2.3559890848840810e+03 2.9685901790785078e+03 
      </Row>
      <Row Index="13">
        -8.9789298475567412e+03 -2.5420474955700687e+04 6.0725672616590928e+03 -4.4158666978671681e+02 -8.2075890553692570e+03 1.2290280030081082e+05 2.0291469404910895e+03 -1.0030831739499038e+03 -2.3231346379151487e+03 1.0063272845456668e+05 -1.5929611336031885e+03 1.2733610395080759e+03 -8.6101228391186596e+03 1.0257519635234028e+05 3.3053981110914028e+03 5.6422848967369646e+02 -3.6374616604207491e+04 9.4574478419155857e+03 2.6307267183904160e+03 1.0127791689543938e+02 -1.9451943484768948e+04 -1.4336602359248186e+05 -1.9600274098727921e+04 2.2646518875664435e+04 -7.2314374293361325e+04 -1.6983674460094335e+01 -1.2087143436614342e+03 2.1205507616056784e+04 2.2611647160777029e+03 7.8453707362069981e+03 -1.6275528393037093e+04 1.8458263672378632e+03 -1.8801814197051062e+03 6.2589329557548153e+03 2.1864512217124309e+04 1.4706684030527029e+04 -3.9610924229057899e+04 -1.7019351720524886e+04 -1.1150705996150691e+04 
      </Row>
      <Row Index="14">
        -2.8838609454144371e+03 2.7308462410013308e+03 1.7782228812132194e+03 -1.9281284661964946e+02 -1.8323156996885946e+03 1.3723954138120225e+03 1.3250198282175152e+03 -4.6597143757349420e+02 3.3908909623391349e+02 1.0615697746334918e+03 1.2902668623245791e+02 5.4574793741030589e+01 -2.4870043906649453e+03 3.3053981272684177e+03 1.5493606296748876e+03 5.7690511487700860e+01 -4.2765645128789984e+03 2.1415001416011819e+03 1.8493445848253000e+03 -5.0905336597404542e+01 -2.2525290977063360e+03 -7.4349421542855671e+03 -5.0883527777754398e+03 2.4119618461447681e+02 2.1052086018572090e+03 2.2332451259025083e+02 -6.0632978237576560e+02 1.4149247897114201e+03 1.8571368316772814e+03 1.1299725789696233e+03 -1.2670956532912751e+03 1.3198108886873424e+03 -2.2983152621158376e+02 3.2609041822399195e+03 1.2363216913263698e+03 4.8851480014142567e+01 9.4809056332453338e+02 -1.2829814029897002e+03 8.8679962798212352e+02 
      </Row>
      <Row Index="15">
        -6.8885753786258135e+02 8.1943473143610754e+02 6.1801928254518586e+01 -3.5336318661841233e+01 -4.3544159284982288e+02 1.2803217770599076e+02 -1.3115795112252272e+02 3.5090962981359814e+02 9.3822216176364236e+01 1.5127948444923968e+03 -1.6893998808560173e+02 3.8533852763138202e+02 -3.6016086277937211e+02 5.6422848696273286e+02 5.7690511329579749e+01 3.4018598012594157e+02 -9.1986979134741068e+02 1.6417638212390048e+02 8.3082849986005400e+01 3.2122725985306232e+02 -3.0085334904364286e+03 -1.3252955887388355e+03 -1.0948745257764875e+02 -2.6829197909335203e+03 -1.0306102874791573e+03 1.1726610489216521e+03 -2.1591649765936031e+03 -4.3801967268943172e+03 1.9592326763121264e+03 -7.0684976564560839e+02 8.8198647127563163e+02 -1.4903569095282769e+03 -1.6930963612883224e+03 1.8151707927600995e+02 -1.6218176005843904e+03 7.9598336317134613e+02 1.2487690107636486e+03 1.2599913959362204e+03 -1.2700172027322478e+03 
      </Row>
      <Row Index="16">
        1.1858516438735118e+04 -3.8777053136099013e+04 -6.9862242017216868e+03 2.1328106546689196e+02 1.1659784149833100e+04 -1.9741583847128670e+04 -1.8060142744152399e+03 -1.0105021849503792e+03 3.5864058499606253e+03 -1.8136661399656441e+04 2.7106287250759779e+03 -1.0425383613455924e+03 1.4184620339334113e+04 -3.6374616754756775e+04 -4.2765645071647596e+03 -9.1986979441845324e+02 4.1682817639145091e+04 -2.1938922114775141e+04 -1.4007934657346323e+03 -1.3622604479463109e+02 1.5152092016483133e+04 1.0318403858230059e+05 4.3644569376348722e+04 -3.0119512659231405e+03 -1.1456417401135277e+04 -8.9697710522155649e+03 1.0648693452133093e+03 -2.5441229379786593e+04 -3.3186293955818044e+04 -9.9550460253904166e+03 3.9902329702000134e+03 1.0088694697672156e+04 -2.2671928605091452e+03 -5.8536768736596050e+03 -8.0845401080670927e+03 -5.4167861367125952e+03 -6.7655124421271703e+03 -4.5344052836526425e+03 8.7755358207299778e+03 
      </Row>
      <Row Index="17">
        -6.2274049158918597e+03 -2.5059207439519698e+04 1.0199198870547025e+02 3.3062018528218323e+02 -4.3349884906226544e+03 1.3773836506472435e+03 1.7591240441901027e+02 -1.9008676485504839e+03 -1.5513577516410442e+02 1.0055185220478568e+04 9.4309027739007433e+02 -8.4332596704852767e+02 -5.7817702645825921e+03 9.4574480302920565e+03 2.1415001538500655e+03 1.6417638286040165e+02 -2.1938922292378822e+04 1.6158122781759431e+05 -5.2015436633238896e+03 -2.0154263744516770e+03 -3.2745734186262562e+04 -5.9230151874693274e+03 -4.3640367036250180e+04 -2.1997998453490873e+03 -4.9455020380876565e+04 -2.7355552764656688e+04 -1.5358521511190306e+03 7.9440089363848354e+04 2.7490155303528976e+04 -7.2631329997093417e+01 -2.9891616140712635e+04 7.3203451670096547e+02 -2.4239349214973117e+01 1.0044389318773951e+05 3.5167596752598896e+04 -2.1311816123873028e+04 -7.0140146211031257e+04 1.0469611223347660e+04 1.9974260617841421e+04 
      </Row>
      <Row Index="18">
        -3.2323597259697030e+03 -1.6227666183363355e+04 1.6596632704737171e+03 -3.7733815397421677e+02 -1.3551662457714228e+03 7.4141139675488521e+03 2.0881632023759812e+03 -5.3089487536068918e+02 1.1369982824565159e+03 1.0387014966451738e+04 1.3300021284024588e+03 5.8787398060668784e+02 -1.7493682768184808e+03 2.6307268112215679e+03 1.8493445904026012e+03 8.3082851245941129e+01 -1.4007935612862557e+03 -5.2015436690445058e+03 1.0871673616180780e+04 1.2782112866031243e+03 6.0259622904725293e+03 1.7349935272740535e+04 -1.2721924819193397e+04 2.3274425886014622e+04 1.6938289164550570e+04 -6.2474212612902284e+03 9.5486040554578976e+03 -2.6391190667122781e+04 3.3023987182286937e+03 1.1158372778863824e+04 -8.4422863593923685e+03 -4.8214733545209710e+03 2.1921572687927015e+04 2.6726936600295747e+04 1.2860294921284134e+04 -1.1193830744750021e+04 -5.2488866804899990e+03 7.8425169242795473e+03 4.7389405974928186e+03 
      </Row>
      <Row Index="19">
        -4.5979917234825342e+02 -2.9265127187042090e+03 2.6057832542466866e+02 1.3944356321246960e+02 -4.6788728965056907e+02 1.2776592589397187e+03 -2.9413718579777924e+02 8.7530841254976076e+02 -2.7473533724752087e+02 4.3351313046471623e+03 -3.2000484539250829e+02 3.9401146220273222e+02 -5.9864824809923448e+02 1.0127792253089137e+02 -5.0905336604824697e+01 3.2122726047469769e+02 -1.3622605129941721e+02 -2.0154263831781136e+03 1.2782112796163560e+03 9.4957088759883322e+02 -3.5807802165268149e+03 5.6924484579581604e+03 -1.3370242766523922e+03 -1.1303830870417914e+02 1.7643242663117617e+03 8.2728171176945625e+02 -2.0189925159469713e+03 -1.2380742373011710e+04 3.5554770845456287e+03 -3.5618536156266719e+03 1.2235621921210550e+03 -5.0124466520698670e+03 -2.3725040187832992e+03 4.9087549249705023e+02 -1.0076957679534569e+03 1.1582813785507515e+03 -1.3546603838765905e+03 5.3516651350590582e+03 -2.7588033385015347e+03 
      </Row>
      <Row Index="20">
        1.1028595265818138e+04 -6.3518647325774655e+03 -8.7466122508002027e+03 -9.7729910945719166e+02 5.3637296627377509e+02 1.0210671214861795e+03 2.6752008419028425e+03 -6.8544211585775338e+03 -6.2353244473890809e+03 6.9755844315974973e+03 1.8061414068227459e+03 -3.3837654910591664e+03 9.0036660061134899e+03 -1.9451943236814812e+04 -2.2525291151135461e+03 -3.0085334807573818e+03 1.5152092050922736e+04 -3.2745734531809809e+04 6.0259621185683645e+03 -3.5807802085246703e+03 9.1158341458163294e+05 4.5153119162179391e+04 -4.7541283460320417e+04 -4.1008907165704586e+04 -1.8406890402117358e+04 1.2102646662059851e+03 -4.5425584749802365e+04 -6.0108064956813498e+04 -1.3865329802028453e+04 2.6812973567464505e+03 2.2003074129198212e+04 -7.0679534756942157e+03 -4.5074276133950523e+04 1.5740351753014849e+04 3.6296156738294725e+04 7.5751382035878487e+03 3.9345872861792799e+04 1.3355950683498939e+04 -2.6147065571343766e+04 
      </Row>
      <Row Index="21">
        1.9592722094545235e+04 -1.3407500813042140e+05 -1.3248699188913633e+04 9.7878706952535140e+02 2.5193700930145336e+04 -1.0438285047525167e+05 -2.6174300637197448e+03 -1.1214391281115240e+03 1.1259100985986326e+04 -6.5025845427527092e+04 7.4531143970741250e+03 -1.7166253604437225e+03 2.7388404328911507e+04 -1.4336602353304997e+05 -7.4349421088341624e+03 -1.3252955870078877e+03 1.0318403801198682e+05 -5.9230147833875380e+03 1.7349935505445756e+04 5.6924485038944104e+03 4.5153119948326814e+04 4.3671377080523287e+05 3.8783390845763744e+04 -1.2558224467228283e+04 1.1008547595944424e+05 -5.3568547358741489e+04 -9.6130908856051974e+02 -1.0837527350093097e+05 -2.8806134926976796e+04 -1.9074966343067470e+04 -1.6520790603924775e+04 -1.4343237044294976e+04 -1.2732410316545065e+04 7.5618248515460291e+03 1.2395468799229864e+04 -5.7267010999452075e+04 -1.3152568224204739e+05 6.2188135430238799e+04 4.5502077374933469e+04 
      </Row>
      <Row Index="22">
        1.4130761456922482e+04 -1.1431985266749864e+04 -8.3781306748113257e+03 -1.1486824811459928e+03 1.1488301734069617e+04 -5.2470798679313448e+03 -6.2415060897954754e+02 -1.9775914871267669e+03 3.8228597064694823e+03 -2.2371223613144539e+03 2.7449185217236882e+03 -1.2502210247586481e+02 1.5555752076633122e+04 -1.9600274647966027e+04 -5.0883527867092489e+03 -1.0948746526209288e+02 4.3644569727039598e+04 -4.3640366716824443e+04 -1.2721924641886315e+04 -1.3370242885967925e+03 -4.7541284063384417e+04 3.8783392712036584e+04 1.0828319184852092e+05 -2.3726325686747048e+04 -8.8351364020347741e+04 1.7019704071283646e+04 -2.8013856553714737e+04 -6.3723166105415796e+04 -7.9117490337730953e+04 2.4603112164298218e+03 3.7245945869841671e+04 4.3920977308990732e+04 -5.6644732129122931e+03 -5.1153056238448291e+04 -5.4171695576672362e+04 2.1051720414757012e+04 4.7631653314056945e+04 -5.7611661134041111e+04 2.3645951753700247e+03 
      </Row>
      <Row Index="23">
        6.1022117550858775e+03 9.5303146396299126e+03 -4.9019428776313753e+03 7.7546484408265133e+02 2.3876972599649580e+03 3.0326345994912186e+04 4.3248173008549138e+03 -6.1469840635285982e+02 -7.4797687644924563e+03 5.2366725441451330e+04 -8.8784492965476238e+02 -2.4234306390408274e+03 1.3451841648657191e+03 2.2646519321661384e+04 2.4119617170359925e+02 -2.6829197907239577e+03 -3.0119512377783399e+03 -2.1998001063697302e+03 2.3274425737397829e+04 -1.1303830673319072e+02 -4.1008906675864244e+04 -1.2558225364241298e+04 -2.3726325184170673e+04 8.8058738614988863e+05 2.3223768169143965e+04 -9.1940819382502057e+04 -3.9915285424825706e+04 -6.4224139916497683e+04 2.3874452980185386e+04 -2.8060582338021806e+04 -8.1774501687662123e+03 -3.3847994225979137e+03 -4.0853184668159127e+04 6.7752638011291841e+04 8.6843406574503999e+04 -4.0487955224655881e+04 7.1022093486106605e+03 8.5716996570153660e+03 8.7837632960700194e+02 
      </Row>
      <Row Index="24">
        -5.4037282327982975e+03 1.1167369186533662e+05 3.3846569459092607e+03 -5.4667130941348296e+02 -2.8588056964480784e+03 -1.4703180549879750e+05 1.2918523849873454e+03 -1.3006409032295196e+03 1.8720553930284805e+03 -1.0382290775331482e+05 -1.0377052702156943e+03 -6.5649156425253022e+02 -5.9886650124422740e+03 -7.2314373635124415e+04 2.1052086339135421e+03 -1.0306102737872861e+03 -1.1456418099369926e+04 -4.9455020552376518e+04 1.6938289097554712e+04 1.7643243000260943e+03 -1.8406889178346340e+04 1.1008547372310254e+05 -8.8351365019851597e+04 2.3223769584939451e+04 3.3712073142218823e+05 -2.3212057181035983e+04 -9.0564175383534748e+03 4.1671822532124832e+04 5.8847920562732899e+04 2.2229406413477147e+04 -5.3858044879985275e+04 -2.8951047530238517e+04 3.2869408465835004e+04 -9.1906795245504327e+04 4.0832217056253634e+04 -5.5002496025363915e+04 -7.3379200722811918e+04 6.0119321119642031e+04 3.4896756285283031e+04 
      </Row>
      <Row Index="25">
        -1.2325938479270626e+03 3.7116640063887229e+04 2.1788180613823988e+03 1.2982461290102947e+02 -4.8645573564429797e+03 -1.0662677925656491e+04 -9.2509647269526613e+02 2.8039080873994972e+03 -2.6660061809112376e+03 -1.0742455929403426e+04 -1.4619573001953686e+03 9.8563710406643804e+02 -5.0059766217424185e+03 -1.6983853369951248e+01 2.2332450196321588e+02 1.1726610465263948e+03 -8.9697708572958654e+03 -2.7355552766423789e+04 -6.2474212738024144e+03 8.2728169518690675e+02 1.2102642665755629e+03 -5.3568546966269962e+04 1.7019704492367113e+04 -9.1940819649300756e+04 -2.3212057423107766e+04 3.6012867823978275e+04 -6.8630193727929145e+02 -2.9893468211142485e+04 -2.2997207898716538e+03 -1.4845370329998783e+04 3.1014112651854404e+04 -2.2831981694745191e+03 -4.6857406065730356e+03 -3.1466435193384645e+04 -3.9900966599619394e+04 2.7332753638771850e+04 6.5164276560945742e+04 -8.7788401122779360e+03 -2.1247724228166629e+04 
      </Row>
      <Row Index="26">
        7.2464083979920251e+03 9.9848970901651774e+02 1.3542060006873089e+02 3.1599432631812306e+01 -2.1193500454636596e+03 4.7185156073550024e+03 2.3618862422241364e+02 -9.8314420749906276e+02 -9.4525698999634405e+03 1.5932372221678961e+04 -3.9357831813742450e+03 -2.2981791823791864e+03 -6.4814098856672354e+02 -1.2087142441687174e+03 -6.0632976739256992e+02 -2.1591649798168801e+03 1.0648691208502460e+03 -1.5358519835719198e+03 9.5486041730995203e+03 -2.0189925006011404e+03 -4.5425584229887172e+04 -9.6130918487512099e+02 -2.8013857325570134e+04 -3.9915284870472387e+04 -9.0564167556680623e+03 -6.8630213855465627e+02 9.6090841624307109e+05 -2.3368786178424605e+04 3.6440586005192526e+03 -1.4962892893215758e+04 6.1459406569862040e+03 -1.2653337471542469e+04 -3.2019479668767788e+04 2.1885957608083478e+04 2.6243530667387720e+04 -6.6237470935453413e+04 1.6227408227236709e+04 1.9276006549734804e+04 7.3546554068434307e+03 
      </Row>
      <Row Index="27">
        -6.2095389860736032e+02 1.7867062049386208e+04 4.0087857167633856e+03 1.1267696523487411e+03 3.4819992326436695e+03 6.8783077532722091e+03 -1.4030704363839468e+03 -6.4435204148978701e+03 2.0394164028259984e+03 -7.7735121349210502e+04 2.8985492057651572e+02 -5.1846574489921913e+03 1.5116744768080389e+03 2.1205507891970687e+04 1.4149247753509553e+03 -4.3801967096116859e+03 -2.5441229456571600e+04 7.9440088963326503e+04 -2.6391190889266582e+04 -1.2380742361659664e+04 -6.0108064890745387e+04 -1.0837527466835294e+05 -6.3723165589791060e+04 -6.4224140311530326e+04 4.1671821304827266e+04 -2.9893467710805322e+04 -2.3368786737816525e+04 3.7702654991324479e+05 1.6918703777670496e+04 -1.1482565083948721e+04 -7.4716488479428197e+04 1.0563293910650573e+04 -3.7686360663308144e+04 -4.5376554293202389e+04 7.2601409484671341e+04 2.0761782149766685e+04 -1.2582072770177372e+05 -1.2060041121519407e+02 8.5923914238645339e+03 
      </Row>
      <Row Index="28">
        -1.0677718564493844e+04 3.2190998572083306e+04 4.4850752439434154e+03 2.3175813770819113e+03 -1.0119648609597927e+04 -1.7529061705453729e+04 -4.1400078257998684e+03 7.7430789004479775e+03 -6.8061035870072374e+03 -4.5167152742479229e+03 -6.2689515257417734e+03 1.2204697314471996e+03 -1.4348091481004172e+04 2.2611650910009630e+03 1.8571368413364107e+03 1.9592326810171362e+03 -3.3186294208204999e+04 2.7490155120695475e+04 3.3023986203339809e+03 3.5554770802777221e+03 -1.3865329317297670e+04 -2.8806136285346867e+04 -7.9117490344054575e+04 2.3874453638740481e+04 5.8847919908692187e+04 -2.2997205546181085e+03 3.6440581617978751e+03 1.6918704020406229e+04 9.9720034128363972e+04 -1.1968950856314041e+04 -7.7870572421911638e+03 -5.0381015038252437e+04 -2.1813400211386346e+04 -7.2511346993229381e+02 9.2385696114018174e+03 -2.2909986433825950e+04 -2.8990004432978007e+04 5.6232914873038913e+04 -8.3961715901075786e+03 
      </Row>
      <Row Index="29">
        -1.6375209688757022e+03 7.4828761339616030e+03 3.2631315161158855e+03 -2.0523815508153639e+03 -1.6923195937285200e+03 1.1275103984662797e+04 1.1429489281355636e+03 2.0915760879201116e+02 -3.7455761909519788e+03 1.5255080368718132e+04 -2.5482712184233824e+03 1.7714002330368385e+03 -4.2176954760825029e+03 7.8453708056360483e+03 1.1299726221985184e+03 -7.0684978301636875e+02 -9.9550464530314202e+03 -7.2630872721783817e+01 1.1158373187265679e+04 -3.5618535768334068e+03 2.6812987267111894e+03 -1.9074965719070206e+04 2.4603091981625475e+03 -2.8060580616881081e+04 2.2229409047941313e+04 -1.4845371091153764e+04 -1.4962892624543980e+04 -1.1482563758589909e+04 -1.1968949866629049e+04 9.3697878894691821e+05 1.4175709316851571e+03 3.3938460010527924e+04 -1.2121295233192759e+04 1.5564480607795284e+04 1.6519358764285018e+04 -1.2572346603349215e+05 -4.4618819230393274e+02 -1.0805129231938766e+05 1.1021255010260298e+05 
      </Row>
      <Row Index="30">
        3.7195451399866070e+03 3.4188319768939167e+04 -5.4544859474560508e+02 7.8931811779302370e+02 -1.6800803044815548e+03 -1.6098426343210624e+04 -5.7392552472374518e+02 4.0547159768648125e+03 -5.4623793499068415e+03 -1.2064519751794171e+04 -2.5925556360542541e+03 -3.3277488856890704e+02 -3.5008401327499596e+03 -1.6275528655786067e+04 -1.2670956661137752e+03 8.8198646383034065e+02 3.9902332640197128e+03 -2.9891616072891979e+04 -8.4422863442235684e+03 1.2235621664835489e+03 2.2003073606899299e+04 -1.6520789856200769e+04 3.7245946388002660e+04 -8.1774505158137181e+03 -5.3858045059714437e+04 3.1014112561562972e+04 6.1459410028079292e+03 -7.4716489097986472e+04 -7.7870575794775032e+03 1.4175721588805318e+03 6.3053993778943550e+04 -1.5804516608833801e+03 -1.1172119964119494e+04 -2.7278950587614705e+04 -5.3612100568365451e+04 2.9597097497789055e+04 9.4888089539203211e+04 -1.0091682714240005e+04 -2.6227508456970623e+04 
      </Row>
      <Row Index="31">
        2.1175037343854056e+03 1.2395504030569457e+04 -2.2797388571963420e+03 -2.2462833953353402e+03 3.8211564726742217e+03 -9.9156301499317633e+03 4.8801576000343775e+03 -8.8091970119741163e+03 4.4231402219518204e+03 -9.5802214050013572e+03 4.0936383190762135e+03 -2.1607470876171719e+03 4.3518854797601234e+03 1.8458261604905128e+03 1.3198109021034325e+03 -1.4903569252993912e+03 1.0088694721141728e+04 7.3203486285125837e+02 -4.8214731158906070e+03 -5.0124466503345593e+03 -7.0679532463027863e+03 -1.4343235896608021e+04 4.3920976592120183e+04 -3.3847990019462304e+03 -2.8951046082661800e+04 -2.2831986902468561e+03 -1.2653336922126357e+04 1.0563294212726410e+04 -5.0381014726565416e+04 3.3938461192036280e+04 -1.5804524182931054e+03 6.7466819542105208e+04 1.6559286618004553e+03 -4.8988003009296463e+03 -2.0443635052488324e+04 -3.3148279006373894e+04 2.2090572075819131e+04 -7.3568698602183547e+04 4.8424262396621023e+04 
      </Row>
      <Row Index="32">
        8.1346361603628102e+03 8.1756498329841997e+03 -6.1781356136175818e+03 8.3240264706910966e+02 1.5210422268526163e+03 -6.5115958745418466e+03 1.8086159310529765e+03 -4.4592902252099884e+02 -8.3525827833624062e+03 2.2173798143434804e+04 1.0784992929325381e+03 -2.5744878372154199e+03 1.5071278069144755e+03 -1.8801811893153936e+03 -2.2983152255805908e+02 -1.6930963676967658e+03 -2.2671927915722190e+03 -2.4239533832995221e+01 2.1921572543417231e+04 -2.3725040402252835e+03 -4.5074276331621542e+04 -1.2732410864941721e+04 -5.6644726295248984e+03 -4.0853185005547537e+04 3.2869407620897371e+04 -4.6857404151694536e+03 -3.2019480467926012e+04 -3.7686360257423716e+04 -2.1813400916704060e+04 -1.2121296118709492e+04 -1.1172119735767366e+04 1.6559287467995455e+03 9.4969353856133134e+05 4.7059426130280262e+04 3.5250507017208445e+04 -5.7025003280878664e+03 6.5741647207424976e+03 -1.6971485358731625e+03 -2.0648526913276819e+04 
      </Row>
      <Row Index="33">
        -7.3054738094192471e+03 -1.1664428762957919e+05 3.0256738484212146e+03 1.0488942230396060e+02 1.6470175085015944e+03 2.6232128723445116e+04 1.0772390715607035e+03 -3.8583311883530696e+03 8.0189556444142654e+03 1.1858742069231812e+04 7.1617677378322696e+03 7.2705638184328564e+02 2.9721795205812668e+02 6.2589334078151733e+03 3.2609042253383668e+03 1.8151707142870873e+02 -5.8536771856597261e+03 1.0044389358021342e+05 2.6726936702564799e+04 4.9087551145715133e+02 1.5740352478348126e+04 7.5618245279903495e+03 -5.1153057082370782e+04 6.7752638685652288e+04 -9.1906794969457260e+04 -3.1466435441157162e+04 2.1885957141306251e+04 -4.5376553187654994e+04 -7.2511320926521876e+02 1.5564479299664032e+04 -2.7278950999994297e+04 -4.8988010830901767e+03 4.7059426703216188e+04 5.7110307176742028e+05 6.9184356623150263e+04 -4.0787109653243635e+04 3.0908641277726786e+05 2.0248932149044114e+04 2.5286183689480935e+04 
      </Row>
      <Row Index="34">
        -2.3997262060731455e+03 -4.7387044246545367e+04 1.2327540021130803e+03 1.4558045421884231e+01 1.1248671597465463e+03 3.9259908428673501e+04 1.1680475861844998e+03 -2.2656633788376812e+03 2.1758597635731976e+03 2.3311462731549895e+04 1.6707090662804126e+03 -2.6293508399508210e+02 2.3209215843965012e+03 2.1864512585531251e+04 1.2363216910897245e+03 -1.6218175857160822e+03 -8.0845403234734504e+03 3.5167596480593005e+04 1.2860294760264171e+04 -1.0076957432748953e+03 3.6296157044234715e+04 1.2395467610471298e+04 -5.4171695528118653e+04 8.6843406437416561e+04 4.0832216258294997e+04 -3.9900966215945606e+04 2.6243529987763915e+04 7.2601409929385336e+04 9.2385695922887426e+03 1.6519356825032657e+04 -5.3612100149126505e+04 -2.0443635765926119e+04 3.5250507117049259e+04 6.9184355643986317e+04 8.0964077529980073e+04 -7.9273296201476896e+03 -7.4766042411045899e+04 3.2635742765571329e+04 5.1418478597947728e+02 
      </Row>
      <Row Index="35">
        -1.2887505628400977e+03 9.8807217853572220e+03 4.2689227391715249e+03 4.8175395423045848e+02 -2.7775836724263499e+03 3.1364533559758449e+04 -3.0022931537462864e+02 4.4873113254727214e+03 -7.2367105407570489e+02 7.3138247910393402e+03 -2.5176499202324194e+03 1.6773130181501620e+03 -1.7312507410740945e+03 1.4706683805026114e+04 4.8851428671274334e+01 7.9598338034376502e+02 -5.4167856117257325e+03 -2.1311816579398699e+04 -1.1193831087117680e+04 1.1582813550269102e+03 7.5751368412164738e+03 -5.7267011033538351e+04 2.1051722335114158e+04 -4.0487957052792772e+04 -5.5002498303006432e+04 2.7332754298759319e+04 -6.6237471146021504e+04 2.0761780770022830e+04 -2.2909987430228764e+04 -1.2572346599030960e+05 2.9597098560621496e+04 -3.3148277961804532e+04 -5.7025014078836539e+03 -4.0787110659055674e+04 -7.9273313648871990e+03 1.1628796477717457e+05 3.3793786142308032e+04 3.0093168930535590e+04 -8.5592432211136125e+04 
      </Row>
      <Row Index="36">
        1.3539941753408566e+03 1.1696385920401895e+05 2.7247009367650680e+03 1.5308104553908925e+02 -5.0646293635049660e+03 -9.2678114651781099e+04 -1.2805206540087238e+02 2.8192727623501269e+03 -4.1459206154423591e+03 -8.6226186838949565e+04 -1.3983862491090549e+03 -2.0153249032981694e+02 -7.8345497518306365e+03 -3.9610924424787983e+04 9.4809056487481575e+02 1.2487689879755490e+03 -6.7655120128350827e+03 -7.0140145782144973e+04 -5.2488865710094542e+03 -1.3546604273065507e+03 3.9345872394611710e+04 -1.3152568096276408e+05 4.7631653877055636e+04 7.1022093152218731e+03 -7.3379201151691130e+04 6.5164276180633795e+04 1.6227408604216063e+04 -1.2582072822967776e+05 -2.8990005099954771e+04 -4.4618664594355505e+02 9.4888089259867440e+04 2.2090573103340590e+04 6.5741645815817028e+03 3.0908641408575850e+05 -7.4766042511516542e+04 3.3793784780712915e+04 5.3379852680063748e+05 -4.6703243319947127e+04 -2.7859403502519068e+04 
      </Row>
      <Row Index="37">
        -2.2483468382595383e+03 -2.7284017536516301e+04 1.6138146544809097e+03 2.1999944583638862e+03 -1.6745921874254709e+03 -4.1578561669451883e+03 -4.3326666235575685e+03 7.3717903689896630e+03 -1.9497711017868714e+03 -3.7971822052430362e+03 -2.6502684741547564e+03 1.7642051595379598e+03 -2.3559891507762368e+03 -1.7019351411666721e+04 -1.2829814108675346e+03 1.2599914149176329e+03 -4.5344054189449671e+03 1.0469610857495805e+04 7.8425166639368399e+03 5.3516651394483388e+03 1.3355950583889498e+04 6.2188133939837731e+04 -5.7611660558874464e+04 8.5716993387775728e+03 6.0119319657142638e+04 -8.7788395346132675e+03 1.9276005869312910e+04 -1.2060052243387327e+02 5.6232914685524825e+04 -1.0805129392810818e+05 -1.0091681910455460e+04 -7.3568698815827025e+04 -1.6971483731331828e+03 2.0248931171016378e+04 3.2635742121167124e+04 3.0093170314235373e+04 -4.6703242326527368e+04 9.5830022148852615e+04 -4.6955606594950310e+04 
      </Row>
      <Row Index="38">
        7.4832639545544225e+02 -9.4053412014516070e+03 -2.4598309656534329e+03 -1.2737187607430387e+03 3.9935306580816396e+03 -2.5587705232989509e+04 2.4414717840771191e+03 -6.9890009867962799e+03 3.9613710648657870e+03 -1.4245293157232925e+04 3.8476942524070619e+03 -1.9997764861355536e+03 2.9685901019303128e+03 -1.1150705927737057e+04 8.8679966793209314e+02 -1.2700172181446105e+03 8.7755354544230213e+03 1.9974261048929766e+04 4.7389409126001556e+03 -2.7588033180996272e+03 -2.6147064578633406e+04 4.5502077807298134e+04 2.3645935701384078e+03 8.7837768228072673e+02 3.4896758406608424e+04 -2.1247724850026600e+04 7.3546557527487166e+03 8.5923924792896723e+03 -8.3961707344487659e+03 1.1021255044804979e+05 -2.6227509445401840e+04 4.8424261641599645e+04 -2.0648526309844514e+04 2.5286184578749304e+04 5.1418621428433835e+02 -8.5592432577528351e+04 -2.7859404841755633e+04 -4.6955605526735519e+04 7.8600054992307792e+04 
      </Row>
    </InverseHessian>
  </Weights>
</MethodSetup>
