<?xml version="1.0"?>
<MethodSetup Method="MLP::MLP">
  <GeneralInfo>
    <Info name="TMVA Release" value="4.1.2 [262402]"/>
    <Info name="ROOT Release" value="5.32/00 [335872]"/>
    <Info name="Creator" value="tomc"/>
    <Info name="Date" value="Thu Jan 10 12:57:39 2013"/>
    <Info name="Host" value="Linux lxbuild168.cern.ch 2.6.18-308.1.1.el5 #1 SMP Wed Mar 7 19:25:07 CET 2012 x86_64 x86_64 x86_64 GNU/Linux"/>
    <Info name="Dir" value="/user_mnt/user/tomc/QGTagger/training/f/1/aKDE03"/>
    <Info name="Training events" value="171896"/>
    <Info name="TrainingTime" value="6.63510699e+02"/>
    <Info name="AnalysisType" value="Classification"/>
  </GeneralInfo>
  <Options>
    <Option name="NCycles" modified="No">500</Option>
    <Option name="HiddenLayers" modified="No">N,N-1</Option>
    <Option name="NeuronType" modified="No">sigmoid</Option>
    <Option name="RandomSeed" modified="No">1</Option>
    <Option name="EstimatorType" modified="No">MSE</Option>
    <Option name="NeuronInputType" modified="No">sum</Option>
    <Option name="V" modified="Yes">False</Option>
    <Option name="VerbosityLevel" modified="No">Default</Option>
    <Option name="VarTransform" modified="Yes">N</Option>
    <Option name="H" modified="Yes">False</Option>
    <Option name="CreateMVAPdfs" modified="Yes">True</Option>
    <Option name="IgnoreNegWeightsInTraining" modified="No">False</Option>
    <Option name="TrainingMethod" modified="No">BP</Option>
    <Option name="LearningRate" modified="No">2.000000e-02</Option>
    <Option name="DecayRate" modified="No">1.000000e-02</Option>
    <Option name="TestRate" modified="Yes">3</Option>
    <Option name="EpochMonitoring" modified="No">False</Option>
    <Option name="Sampling" modified="No">1.000000e+00</Option>
    <Option name="SamplingEpoch" modified="No">1.000000e+00</Option>
    <Option name="SamplingImportance" modified="No">1.000000e+00</Option>
    <Option name="SamplingTraining" modified="No">True</Option>
    <Option name="SamplingTesting" modified="No">False</Option>
    <Option name="ResetStep" modified="No">50</Option>
    <Option name="Tau" modified="No">3.000000e+00</Option>
    <Option name="BPMode" modified="No">sequential</Option>
    <Option name="BatchSize" modified="No">-1</Option>
    <Option name="ConvergenceImprove" modified="No">1.000000e-30</Option>
    <Option name="ConvergenceTests" modified="No">-1</Option>
    <Option name="UseRegulator" modified="Yes">True</Option>
    <Option name="UpdateLimit" modified="No">10000</Option>
    <Option name="CalculateErrors" modified="No">False</Option>
    <Option name="WeightRange" modified="No">1.000000e+00</Option>
  </Options>
  <Variables NVar="4">
    <Variable VarIndex="0" Expression="axis1" Label="axis1" Title="axis1" Unit="" Internal="axis1" Type="F" Min="2.75810109e-03" Max="3.62237155e-01"/>
    <Variable VarIndex="1" Expression="axis2" Label="axis2" Title="axis2" Unit="" Internal="axis2" Type="F" Min="-1.45602447e-03" Max="2.34511912e-01"/>
    <Variable VarIndex="2" Expression="mult" Label="mult" Title="mult" Unit="" Internal="mult" Type="F" Min="8.11214089e-01" Max="1.98112144e+01"/>
    <Variable VarIndex="3" Expression="ptD" Label="ptD" Title="ptD" Unit="" Internal="ptD" Type="F" Min="2.03509867e-01" Max="9.86350834e-01"/>
  </Variables>
  <Spectators NSpec="0"/>
  <Classes NClass="2">
    <Class Name="Signal" Index="0"/>
    <Class Name="Background" Index="1"/>
  </Classes>
  <Transformations NTransformations="1">
    <Transform Name="Normalize">
      <Selection>
        <Input NInputs="4">
          <Input Type="Variable" Label="axis1" Expression="axis1"/>
          <Input Type="Variable" Label="axis2" Expression="axis2"/>
          <Input Type="Variable" Label="mult" Expression="mult"/>
          <Input Type="Variable" Label="ptD" Expression="ptD"/>
        </Input>
        <Output NOutputs="4">
          <Output Type="Variable" Label="axis1" Expression="axis1"/>
          <Output Type="Variable" Label="axis2" Expression="axis2"/>
          <Output Type="Variable" Label="mult" Expression="mult"/>
          <Output Type="Variable" Label="ptD" Expression="ptD"/>
        </Output>
      </Selection>
      <Class ClassIndex="0">
        <Ranges>
          <Range Index="0" Min="5.5333571508526802e-03" Max="3.4435606002807617e-01"/>
          <Range Index="1" Min="6.0767517425119877e-05" Max="2.3451191186904907e-01"/>
          <Range Index="2" Min="8.1121408939361572e-01" Max="1.9811214447021484e+01"/>
          <Range Index="3" Min="2.0350986719131470e-01" Max="9.5066261291503906e-01"/>
        </Ranges>
      </Class>
      <Class ClassIndex="1">
        <Ranges>
          <Range Index="0" Min="2.7581010945141315e-03" Max="3.6223715543746948e-01"/>
          <Range Index="1" Min="-1.4560244744643569e-03" Max="2.3175297677516937e-01"/>
          <Range Index="2" Min="8.1121408939361572e-01" Max="1.9811214447021484e+01"/>
          <Range Index="3" Min="2.1074180305004120e-01" Max="9.8635083436965942e-01"/>
        </Ranges>
      </Class>
      <Class ClassIndex="2">
        <Ranges>
          <Range Index="0" Min="2.7581010945141315e-03" Max="3.6223715543746948e-01"/>
          <Range Index="1" Min="-1.4560244744643569e-03" Max="2.3451191186904907e-01"/>
          <Range Index="2" Min="8.1121408939361572e-01" Max="1.9811214447021484e+01"/>
          <Range Index="3" Min="2.0350986719131470e-01" Max="9.8635083436965942e-01"/>
        </Ranges>
      </Class>
    </Transform>
  </Transformations>
  <MVAPdfs>
    <PDF Name="MLP_PDFSig" MinNSmooth="0" MaxNSmooth="0" InterpolMethod="5" KDE_type="1" KDE_iter="2" KDE_border="1" KDE_finefactor="3.0000001192092896e-01">
      <Histogram Name="MLP_tr_S_original" NBins="250" XMin="1.1637687683105469e-01" XMax="8.5477530956268311e-01" HasEquidistantBins="1">
        3.36474366e-03 0.00000000e+00 0.00000000e+00 0.00000000e+00 3.36474366e-03 6.72948733e-03 0.00000000e+00 3.36474366e-03 3.36474366e-03 1.00942310e-02 0.00000000e+00 0.00000000e+00 3.36474366e-03 1.34589747e-02 3.36474366e-03 3.36474366e-03 3.36474366e-03 1.00942310e-02 1.34589747e-02 6.72948733e-03 6.72948733e-03 2.35532057e-02 6.72948733e-03 2.35532057e-02 1.34589747e-02 1.68237183e-02 3.36474366e-02 4.03769240e-02 3.70121785e-02 2.35532057e-02 5.04711531e-02 6.72948733e-02 6.39301315e-02 8.41185898e-02 9.42128226e-02 8.07538480e-02 6.39301315e-02 1.41319230e-01 1.34589747e-01 1.68237180e-01 1.31225005e-01 1.31225005e-01 2.01884612e-01 1.91790387e-01 2.35532060e-01 3.09556425e-01 2.32167318e-01 2.69179493e-01 2.96097428e-01 3.43203843e-01 3.43203843e-01 3.83580774e-01 3.46568584e-01 3.83580774e-01 4.03769225e-01 4.71064121e-01 4.77793604e-01 4.30687189e-01 4.20592964e-01 4.91252571e-01 4.34051931e-01 4.71064121e-01 5.55182695e-01 6.05653882e-01 6.05653882e-01 4.94617313e-01 5.34994245e-01 6.56125009e-01 5.78735888e-01 5.75371146e-01 6.29207075e-01 6.49395525e-01 6.09018624e-01 6.35936558e-01 6.19112849e-01 6.35936558e-01 6.72948718e-01 7.06596136e-01 5.92194855e-01 7.23419905e-01 7.53702581e-01 7.46973097e-01 7.40243614e-01 7.73891032e-01 7.30149388e-01 8.34456444e-01 7.77255774e-01 7.36878872e-01 7.40243614e-01 7.87349999e-01 7.80620515e-01 8.04173708e-01 8.14267933e-01 8.71468604e-01 8.98386538e-01 8.95021796e-01 8.88292313e-01 8.17632675e-01 7.90714741e-01 8.20997477e-01 9.62316692e-01 8.44550669e-01 9.58951950e-01 9.38763499e-01 9.08480763e-01 9.92599368e-01 9.28669274e-01 1.06325901e+00 9.32034016e-01 9.72410917e-01 9.32034016e-01 1.06325901e+00 1.10027122e+00 9.69046175e-01 9.79140401e-01 1.04643524e+00 9.08480763e-01 1.04643524e+00 1.07335317e+00 1.04307055e+00 9.95964110e-01 1.09017694e+00 1.05652952e+00 1.07671797e+00 1.11709487e+00 1.18438971e+00 1.22813141e+00 1.30888534e+00 1.24831986e+00 1.09354174e+00 1.24159038e+00 1.29206157e+00 1.15747178e+00 1.22476673e+00 1.26514363e+00 1.29206157e+00 1.21467245e+00 1.19448400e+00 1.33580327e+00 1.28196728e+00 1.38290966e+00 1.40309811e+00 1.44347501e+00 1.33243847e+00 1.53095841e+00 1.50067568e+00 1.46702826e+00 1.47375774e+00 1.45693398e+00 1.44347501e+00 1.45356929e+00 1.64535964e+00 1.63863015e+00 1.62180638e+00 1.49731088e+00 1.66218340e+00 1.73284292e+00 1.74293721e+00 1.79340839e+00 1.69246602e+00 1.84387946e+00 1.85733855e+00 1.85060894e+00 1.80686736e+00 1.81696153e+00 2.00538731e+00 1.98856354e+00 2.04912877e+00 2.01884627e+00 1.99529302e+00 2.12315321e+00 2.06258774e+00 2.11305904e+00 2.28802562e+00 2.34522629e+00 2.28129625e+00 2.31494355e+00 2.48318076e+00 2.41252112e+00 2.43607450e+00 2.47645140e+00 2.48318076e+00 2.57066417e+00 2.47308660e+00 2.60431147e+00 2.57402897e+00 2.71871281e+00 2.65814757e+00 2.85666728e+00 2.78600764e+00 2.96097445e+00 3.12584686e+00 3.02826929e+00 3.12248206e+00 3.42194438e+00 3.15949416e+00 3.09892893e+00 3.16622376e+00 3.40512061e+00 3.50606298e+00 3.53971028e+00 3.56326342e+00 3.69448853e+00 3.46232128e+00 3.40175581e+00 3.60027575e+00 3.58345199e+00 3.83580780e+00 3.67093539e+00 3.87954950e+00 3.73150063e+00 3.71131229e+00 3.58345199e+00 3.78533649e+00 3.66420579e+00 3.58681679e+00 3.51615715e+00 3.43540335e+00 3.55653405e+00 3.46232128e+00 3.56999302e+00 3.39839101e+00 3.48250961e+00 3.55653405e+00 3.32436681e+00 3.19650650e+00 3.12248206e+00 3.00808072e+00 2.78937244e+00 2.59758210e+00 2.73553658e+00 2.32503796e+00 2.24764872e+00 2.21736598e+00 2.00538731e+00 1.85733855e+00 1.85733855e+00 1.49731088e+00 1.36272120e+00 1.23486090e+00 1.08008265e+00 9.48857725e-01 7.33514130e-01 5.34994245e-01 3.90310258e-01 3.29744875e-01 1.95155129e-01 1.21130772e-01 5.72006404e-02 1.68237183e-02 
      </Histogram>
    </PDF>
    <PDF Name="MLP_PDFBkg" MinNSmooth="0" MaxNSmooth="0" InterpolMethod="5" KDE_type="1" KDE_iter="2" KDE_border="1" KDE_finefactor="3.0000001192092896e-01">
      <Histogram Name="MLP_tr_B_original" NBins="250" XMin="1.1637687683105469e-01" XMax="8.5477530956268311e-01" HasEquidistantBins="1">
        4.75040125e-03 4.75040125e-03 9.50080249e-03 4.75040125e-03 4.75040125e-03 4.75040125e-03 4.75040125e-03 9.50080249e-03 9.50080249e-03 1.42512042e-02 1.90016050e-02 9.50080249e-03 4.75040125e-03 1.42512042e-02 5.22544123e-02 1.90016050e-02 4.27536108e-02 2.37520058e-02 4.27536108e-02 4.27536108e-02 3.32528092e-02 8.55072215e-02 8.07568207e-02 9.50080231e-02 1.18760034e-01 1.42512038e-01 1.37761638e-01 1.71014443e-01 2.09017649e-01 2.66022474e-01 1.85265645e-01 1.90016046e-01 2.99275279e-01 3.61030489e-01 3.84782493e-01 3.89532894e-01 4.22785699e-01 5.22544146e-01 5.65297723e-01 5.41545749e-01 7.03059375e-01 7.64814615e-01 8.74073863e-01 8.97825837e-01 9.92833853e-01 1.05933952e+00 1.21610272e+00 1.17334914e+00 1.19710112e+00 1.41561961e+00 1.36336517e+00 1.41086912e+00 1.38711715e+00 1.47262442e+00 1.50112677e+00 1.57713318e+00 1.62463725e+00 1.56763244e+00 1.68164206e+00 1.58663404e+00 1.73389649e+00 1.82890451e+00 1.65789008e+00 1.77189970e+00 1.90491092e+00 1.76239884e+00 1.80040205e+00 1.82890451e+00 1.82890451e+00 1.80515254e+00 1.91916215e+00 1.90966129e+00 1.91916215e+00 1.87165809e+00 1.71489489e+00 1.92391253e+00 1.92391253e+00 2.01417017e+00 1.82890451e+00 1.96191573e+00 1.90966129e+00 1.89541006e+00 1.94291413e+00 1.72914600e+00 1.90966129e+00 2.14243102e+00 1.95716536e+00 1.90491092e+00 1.90491092e+00 1.84790611e+00 1.87165809e+00 1.81940365e+00 1.80040205e+00 1.96191573e+00 1.75289810e+00 1.65789008e+00 1.78140044e+00 1.69114280e+00 1.70539403e+00 1.73389649e+00 1.82890451e+00 1.84790611e+00 1.60563564e+00 1.65789008e+00 1.76714933e+00 1.63888848e+00 1.82890451e+00 1.76239884e+00 1.76239884e+00 1.67214119e+00 1.79090130e+00 1.58663404e+00 1.79565167e+00 1.56763244e+00 1.94291413e+00 1.65789008e+00 1.58188367e+00 1.70539403e+00 1.62938762e+00 1.70064366e+00 1.63413799e+00 1.50112677e+00 1.65789008e+00 1.67214119e+00 1.71014440e+00 1.69114280e+00 1.74814773e+00 1.53912997e+00 1.51537800e+00 1.59613478e+00 1.60088527e+00 1.58188367e+00 1.62938762e+00 1.72439563e+00 1.85740685e+00 1.54863083e+00 1.57238281e+00 1.51062763e+00 1.75764847e+00 1.48212516e+00 1.70539403e+00 1.71014440e+00 1.62463725e+00 1.47262442e+00 1.72439563e+00 1.61988688e+00 1.76239884e+00 1.73389649e+00 1.71964526e+00 1.60563564e+00 1.86215734e+00 1.70539403e+00 1.71489489e+00 1.65313959e+00 1.58188367e+00 1.74339724e+00 1.63888848e+00 1.95241487e+00 1.67689168e+00 1.71964526e+00 1.71964526e+00 1.70539403e+00 1.78615093e+00 1.89065969e+00 1.88590932e+00 1.80040205e+00 1.65789008e+00 1.81940365e+00 1.84315574e+00 1.70539403e+00 1.87165809e+00 1.75289810e+00 1.98566771e+00 1.81465328e+00 1.83840525e+00 1.88590932e+00 1.89541006e+00 1.89065969e+00 1.84790611e+00 1.85265648e+00 2.07592535e+00 2.09017658e+00 2.00941968e+00 1.99041808e+00 1.90966129e+00 1.78140044e+00 1.94291413e+00 1.97616696e+00 1.92391253e+00 1.97616696e+00 2.00466943e+00 1.91441166e+00 1.99516857e+00 1.96191573e+00 2.08067584e+00 2.05217338e+00 1.90966129e+00 1.87165809e+00 2.09017658e+00 1.88115895e+00 2.08542609e+00 2.01892042e+00 1.95716536e+00 1.89541006e+00 1.99041808e+00 1.97141647e+00 1.94291413e+00 1.93341327e+00 1.90016055e+00 1.99516857e+00 1.96666610e+00 1.85740685e+00 1.91441166e+00 1.72439563e+00 1.80515254e+00 1.69589329e+00 1.59613478e+00 1.67689168e+00 1.65789008e+00 1.54863083e+00 1.48687565e+00 1.31586111e+00 1.55338120e+00 1.24460518e+00 1.26835716e+00 1.14009631e+00 1.15909791e+00 1.20185149e+00 1.07359064e+00 8.97825837e-01 9.12077069e-01 8.36070597e-01 7.26811409e-01 7.88566589e-01 6.98309004e-01 6.27052963e-01 4.65539336e-01 5.03542542e-01 4.60788935e-01 4.41787332e-01 3.08776081e-01 2.04267249e-01 2.04267249e-01 1.23510435e-01 1.09259233e-01 7.60064200e-02 7.12560192e-02 1.42512042e-02 4.75040125e-03 0.00000000e+00 
      </Histogram>
    </PDF>
  </MVAPdfs>
  <Weights>
    <Layout NLayers="4">
      <Layer Index="0" NNeurons="5">
        <Neuron NSynapses="4">
          1.2976205518978357e+00 2.0088092492739569e+00 -2.0582348444444252e+00 5.3785765660263705e+00 
        </Neuron>
        <Neuron NSynapses="4">
          -1.1096771624125243e+00 -7.2619368243078408e-02 -9.3711439978645295e-01 1.5812195622132053e+00 
        </Neuron>
        <Neuron NSynapses="4">
          -1.3751248837474512e+00 -2.3994988110112577e-02 -1.0405081202347284e+00 2.4996367124125847e+00 
        </Neuron>
        <Neuron NSynapses="4">
          -8.6927472323125077e-01 -6.2353679489004155e-01 -4.7229445790773186e+00 4.1045011101739366e+00 
        </Neuron>
        <Neuron NSynapses="4">
          -2.0554639962981849e+00 3.5329485447124653e-01 -2.5524539134438013e+00 6.9764147557310459e+00 
        </Neuron>
      </Layer>
      <Layer Index="1" NNeurons="5">
        <Neuron NSynapses="3">
          -1.3638442840016709e+00 6.1185918352147051e-01 -1.7096932801397067e+00 
        </Neuron>
        <Neuron NSynapses="3">
          -1.1562817614376133e+00 -1.1227486353254965e+00 -1.8709422115722482e-01 
        </Neuron>
        <Neuron NSynapses="3">
          6.3941110223837161e-01 -2.8408859951896575e+00 -3.9341878571563424e+00 
        </Neuron>
        <Neuron NSynapses="3">
          -8.7597204592341660e-01 1.4923962376345576e-01 5.8031905812116573e+00 
        </Neuron>
        <Neuron NSynapses="3">
          -1.8696280556049192e+00 -3.5109362603415306e-01 -1.9915581114525249e+00 
        </Neuron>
      </Layer>
      <Layer Index="2" NNeurons="4">
        <Neuron NSynapses="1">
          2.0703545499849574e-01 
        </Neuron>
        <Neuron NSynapses="1">
          -1.8576885171078890e+00 
        </Neuron>
        <Neuron NSynapses="1">
          8.2633932965190338e-01 
        </Neuron>
        <Neuron NSynapses="1">
          3.0099169984587987e-01 
        </Neuron>
      </Layer>
      <Layer Index="3" NNeurons="1">
        <Neuron NSynapses="0"/>
      </Layer>
    </Layout>
    <InverseHessian NElements="1521" NRows="39" NCols="39">
      <Row Index="0">
        7.0095291368209871e+01 -4.0569119834225951e+01 -9.9717467911202746e+00 -1.8058609330809265e+01 1.3491793181234462e+01 1.0598337024279340e+01 -7.4399154436991954e-01 -5.7669144377916330e+00 1.6671514343493072e+01 1.4782922710676470e+01 -1.8820275835941940e+00 -9.6245918156949752e+00 9.0716322398461955e+01 9.7830516598641033e+00 7.9555784569347914e+00 -1.5269224457944969e+01 6.3336515576597833e+01 -3.1378948972825804e+00 1.8529944488287029e+00 -2.2948368488555317e+01 -1.1700324371267232e+03 2.0149315025022911e+01 -1.8652822290228947e+01 -4.9833429565933432e+02 -6.2668964808281871e+01 -2.4425388360811631e+01 1.2816082414592145e+03 -1.0601515105429870e+02 -2.9473641666568071e+01 -5.5226656690661616e+02 6.3628808159741030e+00 3.4597134678513342e+01 6.3018595297436173e+02 1.1744211012952398e+02 1.5965373376875526e+01 -3.0767733927916692e+02 1.7257164420127538e+02 -5.8956232039442824e+00 9.9226111593154798e-01 
      </Row>
      <Row Index="1">
        -4.0569119842022658e+01 1.9846241001061435e+02 2.9352182444038121e+01 7.7585108501288200e+00 -5.3733771012739950e+00 2.1780743145083882e+01 4.1795257182320116e+00 -2.8915401356690046e-01 -7.8119132772096940e+00 2.2917966743759205e+01 5.4912425883653624e+00 1.6671492223738252e-01 -2.8733876608018114e+01 2.0019938024843015e+02 1.8941687791668517e+01 -1.6380870231680369e+00 -1.6788650921022523e+01 7.5881760919375182e+01 1.7202687532320496e+01 3.2342749304002001e+00 1.7709857328601026e+03 2.1724183529199763e+00 4.2305229099372269e+01 9.0322308446888076e+02 5.9894379571294159e+01 3.4298489363696788e+01 -8.3217874305117766e+02 4.5590239997809228e+00 -2.5443564014188347e+01 1.0994948031388660e+03 9.2172449508387331e+00 -2.5578516651970922e+01 -2.1832346622806799e+03 -8.1918602237008898e+01 7.0174852814980486e+00 5.0165794915015613e+02 -1.0207372157298177e+02 5.9896678868114268e+00 -1.0772799129382747e+01 
      </Row>
      <Row Index="2">
        -9.9717467948054122e+00 2.9352182449379683e+01 2.1406875711884801e+01 -5.8658589711034137e-01 2.4157952791010384e+00 3.2878496026362631e+00 5.4648556062705742e+00 -2.4937094651571559e+00 2.0846602178031843e+00 2.9333302542747388e+00 6.6792924939215332e+00 -2.2111838836027675e+00 1.7753042886774577e+00 3.8039302252773886e+01 2.2607571500019358e+01 -1.0495205155838553e+01 6.0770069105165305e+00 2.6326182565915701e+01 1.9853648602083869e+01 -7.4039842841688968e+00 3.1936614960064753e+02 8.4169732281307539e+00 -2.1393398574078630e+00 6.2739370280453414e+01 1.0371857861493922e+01 2.4032251128706910e+01 -5.5224816228040531e+01 -1.7468537462768534e+01 -3.4561318042094094e+01 2.0219246582881863e+02 8.5083095327751650e+00 -1.0704215975105399e+01 -3.0187521586096824e+02 6.3794365520330061e+00 2.6627349202427709e+01 5.9099234892330180e+01 1.2232631077974013e+01 -2.7302783715098755e-02 -2.2172760540236354e+00 
      </Row>
      <Row Index="3">
        -1.8058609327577191e+01 7.7585108417938784e+00 -5.8658589875570044e-01 2.1290185109428172e+01 -9.1129288650699714e+00 -3.3472455541364412e+00 -1.0415171436089934e+00 8.2628475088689139e+00 -1.1104865507370706e+01 -3.8759960538522038e+00 -1.3714344076016227e+00 1.1781582643669811e+01 -3.7495535129028241e+01 -2.3408407567757660e+01 -8.8825467165759608e+00 2.4796907774747403e+01 -2.6594818138717429e+01 -5.9865064358483497e+00 -8.7803500050572580e+00 2.7172642804479707e+01 2.1801108373680580e+02 -1.8273856637934610e+01 1.1179167860575683e+01 6.7714700779964474e+00 3.1903966857776133e+01 1.5151342272622784e+01 -2.4707886849547742e+02 4.5004637475149671e+01 2.5007077535165681e+01 1.8237531117249264e+02 -1.2073353940107672e+00 -3.5344139224635541e+01 -1.0549487005479379e+02 -6.5333637703178368e+01 -6.2679066932766823e+00 5.1032415963334699e+01 -8.2741048800147524e+01 3.1548144305338428e+00 1.1540212933911826e+00 
      </Row>
      <Row Index="4">
        1.3491793179952900e+01 -5.3733770955495288e+00 2.4157952803483767e+00 -9.1129288657303960e+00 1.8779031075817294e+01 1.8234237314135315e+00 2.4306133678948592e+00 -4.4910873319687878e+00 2.0142705128041577e+01 -1.8396199031897225e+00 3.6834409622865030e+00 -6.2817182906198870e+00 5.3459287479154447e+01 1.2785920074410289e+01 1.1357093185924342e+01 -1.3933909042539495e+01 3.4958188486530140e+01 7.0658077666355092e+00 9.3809416764784554e+00 -1.6304781487013429e+01 -1.8063797853323723e+02 1.6276797702153605e+01 -3.2333336086039203e+01 -1.4844263182290132e+02 -2.5147405076476161e+01 -4.7771037888814033e-01 3.6671302124984692e+02 -4.0324311745651521e+01 -2.9023508568976936e+01 -8.5247733490878559e+01 4.6630382045099230e+00 5.2703612943270830e+00 2.0642657789866843e+02 5.3615663828650227e+01 3.0058439537324936e+01 -8.5825968894820008e+01 7.4527735281546597e+01 -1.9276979556690788e+00 -1.6591899809121931e+00 
      </Row>
      <Row Index="5">
        1.0598337021435993e+01 2.1780743147697194e+01 3.2878496026751591e+00 -3.3472455527288609e+00 1.8234237302454284e+00 2.4357916181372040e+01 3.3777376769237577e-01 -1.1738457248483303e+00 -2.9778999545420826e-01 2.4224822596433658e+01 1.2272568777745172e+00 -1.9523443084798142e+00 7.2037620938797753e+00 6.6784839593558189e+01 7.6420594068605547e+00 -3.8063236024196234e+00 3.4064877238258200e+00 2.6830504676015778e+01 5.4422500791500088e+00 -5.3548865329685782e+00 -1.0345392147377586e+02 1.8382328645070318e+00 -4.2437761935364033e+00 -2.5322438466561010e+00 -5.4653241370589702e+00 -2.9086609128443057e+00 2.5265899892875885e+02 -3.9655739285010533e+01 -1.3808295093076604e+01 -2.6724049723217391e+01 1.9567386064031650e-01 7.3453435189175247e+00 -4.9363461011400443e+02 2.8931943904285699e+01 6.2400736082089123e+00 3.9609445594241990e+01 3.6684827493999038e+01 -1.7082028796657005e+00 2.9182065287594039e-02 
      </Row>
      <Row Index="6">
        -7.4399154477981222e-01 4.1795257202276872e+00 5.4648556067456724e+00 -1.0415171438867130e+00 2.4306133680859423e+00 3.3777376798291803e-01 3.4445062470098655e+00 -1.3587534919322011e+00 3.5512274714507575e+00 1.0589135263957186e+00 3.6397256654399017e+00 -1.5019098737866716e+00 7.3017174632693660e+00 9.5210065559848935e+00 9.7977761429886385e+00 -4.6224073455934800e+00 6.5397733594808489e+00 7.6096238340177269e+00 8.2422187521263410e+00 -3.9836072033164096e+00 -2.6717699078763815e+01 3.6585484589307649e-01 -9.7630007560721168e+00 -3.4126473417413600e+01 -5.8321045257656967e-02 5.2604468455890547e+00 4.4247809262659437e+01 -1.1739015199594443e+01 -1.3838492523974820e+01 -7.9336770295657892e+00 2.4429088678823958e+00 -1.6281291674142073e+00 8.0805142863979128e+01 1.3000574938649015e+01 1.2710415630373939e+01 -2.0942628340150286e+01 1.6218547402085836e+01 -4.0684845868389063e-01 -1.4779704251658982e-01 
      </Row>
      <Row Index="7">
        -5.7669144374641208e+00 -2.8915401710577271e-01 -2.4937094662538399e+00 8.2628475097734331e+00 -4.4910873324170577e+00 -1.1738457257399251e+00 -1.3587534919907469e+00 4.2935143403085965e+00 -5.4366257412986920e+00 -1.1143173766301442e+00 -1.7017960336793738e+00 5.5887282413623343e+00 -1.6794037101079503e+01 -1.2980821409828387e+01 -6.5680170180513286e+00 1.2485198038053266e+01 -1.3245712200013557e+01 -6.7671012396931545e+00 -6.5522338720622626e+00 1.3257814431555252e+01 8.4231586987834106e+01 -9.4532764071367996e+00 7.4477617159063509e+00 5.1206151737625440e+01 1.2729105876960398e+01 3.3741190585723397e+00 -1.1186876908913987e+02 1.9949304395869781e+01 1.6472632554683145e+01 8.1038332665065440e+01 -7.1381983751170286e-01 -1.1130058061953431e+01 -2.4464504707430228e+02 -3.0457010444613275e+01 -1.1252036114712368e+01 5.6627852533864363e+01 -3.7974384919664828e+01 1.5518139916828715e+00 4.6522118989374706e-01 
      </Row>
      <Row Index="8">
        1.6671514341506526e+01 -7.8119132698800513e+00 2.0846602193241210e+00 -1.1104865507961840e+01 2.0142705127865501e+01 -2.9778999407059104e-01 3.5512274711800913e+00 -5.4366257406365639e+00 2.4883385448586374e+01 4.1411823549528687e-02 3.7181686313432594e+00 -7.4000268812383183e+00 6.1881159302080690e+01 1.3082881829060870e+01 1.3432417398663667e+01 -1.6652158920295218e+01 4.0679783370334192e+01 6.4872368445012576e+00 1.1285890919807265e+01 -1.9740388830252094e+01 -2.0445800509075690e+02 1.8870875193889951e+01 -3.7971382458172918e+01 -1.4940922560944841e+02 -3.1024807164683782e+01 -1.3640819277508978e+00 4.0844041103380681e+02 -4.8180586357627689e+01 -3.4228470955450106e+01 -1.1200288945523974e+02 3.4915914077031727e+00 6.2809468730579319e+00 2.4224401634740428e+02 6.7216855994771777e+01 3.6523554158465423e+01 -9.6530035508017619e+01 9.0350824948252253e+01 -2.4810633116200860e+00 -2.0684294701058450e+00 
      </Row>
      <Row Index="9">
        1.4782922706056519e+01 2.2917966747958474e+01 2.9333302543418753e+00 -3.8759960515585483e+00 -1.8396199051077833e+00 2.4224822596351075e+01 1.0589135259343045e+00 -1.1143173752246966e+00 4.1411821266007953e-02 3.3798149903722361e+01 4.1190985125075308e-01 -1.9333131337028888e+00 5.8255016622533713e+00 7.4390971500981536e+01 9.0126108425749081e+00 -3.7515335116979820e+00 2.7327461444572685e+00 2.9950501442014325e+01 6.3030034966922317e+00 -5.8032089620887550e+00 -1.4114605084890576e+02 2.1796426930172164e+00 -2.7245910979980654e+00 3.8596519989047437e+01 -8.9453705932572021e+00 -4.2055666821377526e+00 2.9933242587511108e+02 -5.0149683736899377e+01 -1.5790947492031131e+01 -4.9578052051141235e+01 -1.1980985859210682e+00 9.8357849996175926e+00 -6.6409840628711640e+02 3.9797172931768486e+01 6.6337194801882120e+00 6.0244722138378222e+01 4.9694090392800149e+01 -2.5061824260972201e+00 -7.4942970863029701e-02 
      </Row>
      <Row Index="10">
        -1.8820275835942548e+00 5.4912425902811179e+00 6.6792924945029029e+00 -1.3714344081859817e+00 3.6834409627361686e+00 1.2272568781494302e+00 3.6397256654999488e+00 -1.7017960337625291e+00 3.7181686319337492e+00 4.1190985183299489e-01 4.6551588010477687e+00 -1.8961378014522730e+00 8.2320674365272719e+00 1.2298173071003232e+01 1.1228140449972788e+01 -5.7444035633774222e+00 7.3654301093810943e+00 1.0086028491204708e+01 9.5012089769599761e+00 -4.8034980454700431e+00 -2.9441593594296844e+01 6.6808211225707215e-01 -1.1713365556874834e+01 -5.5832736644337103e+01 5.3661245601408891e-01 6.3233108462259437e+00 5.2722127746829074e+01 -1.2282969331597901e+01 -1.5983419045881735e+01 -4.4746177068789912e+00 3.9103528975095139e+00 -1.3289732783685260e+00 1.3000459669442859e+02 1.2819957264234233e+01 1.3932264618207252e+01 -3.1208737711294223e+01 1.6826467879164849e+01 -3.6490433785617116e-01 -6.5755217412587441e-02 
      </Row>
      <Row Index="11">
        -9.6245918154653705e+00 1.6671491779840153e-01 -2.2111838850564070e+00 1.1781582644966321e+01 -6.2817182912613134e+00 -1.9523443096968709e+00 -1.5019098738841237e+00 5.5887282414162209e+00 -7.4000268821760349e+00 -1.9333131356192013e+00 -1.8961378013650698e+00 7.7563355118063555e+00 -2.4122304175053166e+01 -1.7779016315226471e+01 -7.7726019826202233e+00 1.6455067994182922e+01 -1.8472843647710469e+01 -7.9869844927614757e+00 -7.6435523419146074e+00 1.7694057844842273e+01 1.4289350318050538e+02 -1.2431834376908947e+01 9.7503089617184422e+00 8.4237896197060024e+01 1.7974023177433320e+01 6.1554124282744116e+00 -1.8363780403515185e+02 2.7828735861093914e+01 2.0207893447635399e+01 1.2025746860909742e+02 -1.2777191726548796e+00 -1.7256515308364371e+01 -3.1676264490386870e+02 -4.0593775924524223e+01 -1.1747473930415660e+01 7.9176730340086792e+01 -5.1619218525308121e+01 2.0073808790146810e+00 5.1035459918208237e-01 
      </Row>
      <Row Index="12">
        9.0716322390181105e+01 -2.8733876583730080e+01 1.7753042939068564e+00 -3.7495535129852698e+01 5.3459287477510429e+01 7.2037620984176556e+00 7.3017174623546452e+00 -1.6794037098445173e+01 6.1881159300831875e+01 5.8255016698357167e+00 8.2320674345553613e+00 -2.4122304171291489e+01 2.1501534687593295e+02 4.9698615318891193e+01 4.0735294809353348e+01 -4.7589619226966846e+01 1.4317472692722703e+02 1.7570904556503031e+01 2.8780029964268838e+01 -5.9335451744265654e+01 -1.3485292764905907e+03 5.5697071877703465e+01 -8.1505638685276068e+01 -4.0590668793386135e+02 -1.1207674688476919e+02 -2.5110769973157019e+01 1.8584747698475769e+03 -2.0290976726952860e+02 -1.0069730847017051e+02 -5.7965180350613275e+02 2.0909602820841613e+01 4.5098383279758416e+01 4.2536404884362469e+02 2.3683641030103800e+02 8.5814901696032351e+01 -3.4466893561741790e+02 3.4110141719660038e+02 -9.1337591984475193e+00 -5.9554357036724284e+00 
      </Row>
      <Row Index="13">
        9.7830516406122889e+00 2.0019938026878572e+02 3.8039302251074901e+01 -2.3408407556744265e+01 1.2785920065617375e+01 6.6784839593090240e+01 9.5210065531039163e+00 -1.2980821403029992e+01 1.3082881818422749e+01 7.4390971500545106e+01 1.2298173067519038e+01 -1.7779016306206607e+01 4.9698615285047005e+01 3.5391609342538794e+02 5.3703754747619087e+01 -4.1241818125622331e+01 3.7761169324993674e+01 1.3904223011278850e+02 4.6997430640099566e+01 -4.4396479277872103e+01 1.0512091523631659e+03 3.3282330179402308e+01 6.3662217521897304e+00 7.5094962204776732e+02 -1.2386302229922002e+01 7.7988814937694588e+00 8.0920232606797427e+01 -1.4935955356844320e+02 -1.0105034997528064e+02 6.8150941775495505e+02 1.1589709257219697e+01 1.9564219079501083e+01 -2.6809321358319526e+03 1.0878585815004183e+02 6.2023080640310809e+01 4.4158427456783494e+02 1.2835226856080766e+02 -2.7808051021520055e+00 -1.1131528355565587e+01 
      </Row>
      <Row Index="14">
        7.9555784508576277e+00 1.8941687804199233e+01 2.2607571502101692e+01 -8.8825467155267397e+00 1.1357093184728871e+01 7.6420594080572890e+00 9.7977761424987015e+00 -6.5680170164380831e+00 1.3432417397425452e+01 9.0126108446011983e+00 1.1228140449103101e+01 -7.7726019803568915e+00 4.0735294805544541e+01 5.3703754760175940e+01 4.0163949425362745e+01 -2.1492891258962686e+01 3.1977334760348985e+01 3.1122141833183768e+01 3.3151526246036049e+01 -2.1582474161379452e+01 -1.9173737335105577e+02 1.8259365663646918e+01 -2.6205085081641386e+01 1.7381342571398619e+01 -1.6596611802664402e+01 1.0970337764590870e+01 3.4110632363366744e+02 -7.9620376651340820e+01 -6.1697738420691962e+01 -8.8801080817551224e+01 7.0255668266673181e+00 2.3264800615549497e+00 -5.0845586206805464e+01 8.5927740686560441e+01 5.3182084195384320e+01 -4.5591419317028695e+01 1.1052536848815832e+02 -3.4416158877467464e+00 -2.1082331224275781e+00 
      </Row>
      <Row Index="15">
        -1.5269224455261892e+01 -1.6380870349075849e+00 -1.0495205158684968e+01 2.4796907776260106e+01 -1.3933909042964125e+01 -3.8063236047698510e+00 -4.6224073454917587e+00 1.2485198037463164e+01 -1.6652158921122457e+01 -3.7515335154135698e+00 -5.7444035628451857e+00 1.6455067993263611e+01 -4.7589619231014034e+01 -4.1241818144165592e+01 -2.1492891262133071e+01 3.8596778055911429e+01 -3.9712829422567523e+01 -2.3065738814500886e+01 -2.1528837198513887e+01 4.0226814524015253e+01 9.3472159854764186e+01 -2.8859432872719999e+01 2.2590434101372299e+01 1.6178303578784585e+02 3.5801392130639698e+01 3.3072575249399949e+00 -2.8919570023034248e+02 5.5130180443183377e+01 5.3297699715378599e+01 1.6379754695451518e+02 -3.2692189774427063e+00 -2.8634904488234067e+01 -4.8762159618286796e+02 -8.5814489769025840e+01 -3.8055506065160735e+01 1.1963979307282928e+02 -1.0683124572618587e+02 4.4000012866608484e+00 1.7660904219933617e+00 
      </Row>
      <Row Index="16">
        6.3336515568513363e+01 -1.6788650901242363e+01 6.0770069140018279e+00 -2.6594818138034171e+01 3.4958188484387904e+01 3.4064877268751133e+00 6.5397733585337647e+00 -1.3245712197420403e+01 4.0679783368221486e+01 2.7327461495311525e+00 7.3654301076542623e+00 -1.8472843644109620e+01 1.4317472692319683e+02 3.7761169348512851e+01 3.1977334761388946e+01 -3.9712829417674570e+01 1.0797474747010010e+02 2.0909562767958164e+01 2.5262189998172733e+01 -4.7476869452614913e+01 -6.0265214888546564e+02 4.3702267497589077e+01 -5.1232470198478332e+01 -4.6531582092632010e+02 -7.8045717723844547e+01 -4.4018613857826052e+00 1.2981556699986352e+03 -1.3301456425406693e+02 -8.2912520790852341e+01 -2.9610982924604616e+02 1.5065785280486860e+01 1.8768429842249134e+01 3.1534643684578413e+01 1.6367921907567523e+02 8.0791873367409764e+01 -1.8985635631614417e+02 2.3440667838626530e+02 -6.5327596334432521e+00 -4.3953246644070330e+00 
      </Row>
      <Row Index="17">
        -3.1378949002129439e+00 7.5881760926663674e+01 2.6326182566794031e+01 -5.9865064353903419e+00 7.0658077662875458e+00 2.6830504676879738e+01 7.6096238336957365e+00 -6.7671012388291594e+00 6.4872368441702575e+00 2.9950501443326015e+01 1.0086028490663191e+01 -7.9869844915664565e+00 1.7570904555613826e+01 1.3904223012047353e+02 3.1122141833056133e+01 -2.3065738812783607e+01 2.0909562768120164e+01 8.4314904382710580e+01 2.8396221387398064e+01 -2.0125318543349444e+01 4.0416452990919151e+02 1.7286577188968327e+01 -1.2044478228176057e+01 -1.5212782391350623e+02 -4.8549559075667759e-01 2.7803856275349386e+01 1.7471085078610258e+02 -4.9651894737002422e+01 -6.2745957052344849e+01 3.1180446777333407e+02 1.8123813091321818e+01 -9.2113779851256972e-01 -2.9012030784726915e+02 3.5184861135070221e+01 4.4285490148840282e+01 1.6061863719348725e+01 5.1193780682631342e+01 -1.9423775241049830e+00 -2.6152895497847775e+00 
      </Row>
      <Row Index="18">
        1.8529944429826841e+00 1.7202687544155232e+01 1.9853648603887564e+01 -8.7803500039213471e+00 9.3809416752533483e+00 5.4422500801774607e+00 8.2422187516152050e+00 -6.5522338704815688e+00 1.1285890918498058e+01 6.3030034984252694e+00 9.5012089761012621e+00 -7.6435523397205216e+00 2.8780029960212506e+01 4.6997430651404379e+01 3.3151526245662239e+01 -2.1528837195315820e+01 2.5262189996831264e+01 2.8396221387360690e+01 2.9651344244059764e+01 -2.1672113353165130e+01 1.6439992141682840e+01 1.7685564309816943e+01 -2.1503194527688244e+01 2.5438204903992741e+01 -1.4822068772791877e+01 1.1139430837533965e+01 1.3831409770980656e+02 -5.9117432944471183e+01 -5.5200360755371676e+01 -3.3004647660438849e+01 2.3423619671362381e+00 -3.4223667381607115e-01 -4.4854434506588348e+00 7.6212861949660734e+01 5.1800718553266009e+01 -1.8465588678213930e+01 8.9796680090648437e+01 -3.0459896349733420e+00 -2.1276158919530470e+00 
      </Row>
      <Row Index="19">
        -2.2948368484168142e+01 3.2342749163882445e+00 -7.4039842873016966e+00 2.7172642805331591e+01 -1.6304781486766338e+01 -5.3548865354670099e+00 -3.9836072030294716e+00 1.3257814430404284e+01 -1.9740388830312497e+01 -5.8032089661159034e+00 -4.8034980446635522e+00 1.7694057843157914e+01 -5.9335451746026926e+01 -4.4396479297937532e+01 -2.1582474164100816e+01 4.0226814522685537e+01 -4.7476869456227583e+01 -2.0125318544659745e+01 -2.1672113356016830e+01 4.4488080461375660e+01 1.7466287870642856e+02 -3.3950150463108407e+01 2.5126120508931230e+01 1.4073532044664560e+02 4.7471054650984051e+01 1.1030051241774327e+01 -3.9414539149162783e+02 7.1507493139446339e+01 5.6550778354977460e+01 2.4215284985848157e+02 1.1881115247751275e+00 -2.8935566319800095e+01 -4.0773672164787928e+02 -1.1195821312210143e+02 -4.7871837649231210e+01 1.1963884380775920e+02 -1.3625174502600288e+02 5.4119676684619709e+00 2.1580675211139742e+00 
      </Row>
      <Row Index="20">
        -1.1700324380437733e+03 1.7709857332730171e+03 3.1936614931015720e+02 2.1801108445005593e+02 -1.8063797907610933e+02 -1.0345392167909449e+02 -2.6717699236938643e+01 8.4231587325313740e+01 -2.0445800577314913e+02 -1.4114605115876475e+02 -2.9441593753645066e+01 1.4289350361423885e+02 -1.3485292787394628e+03 1.0512091510690298e+03 -1.9173737431575137e+02 9.3472160887482460e+01 -6.0265215058899935e+02 4.0416452936488650e+02 1.6439991245091733e+01 1.7466287994044660e+02 6.9086654068087853e+04 -1.9314693784259430e+02 9.9647963146976599e+02 2.5011270436144128e+04 9.5893981683795187e+02 1.0424280709413008e+03 -3.7306580672020093e+04 2.3564889339156452e+03 5.9118990836744608e+01 3.5810645045394471e+04 -1.6574099515991202e+02 -1.3204292708278490e+03 -1.4420191294372201e+05 -2.3903778835406456e+03 4.8131501582449835e+02 3.1436632272487685e+04 -3.6395506302191225e+03 1.6172050195658210e+02 -2.7262729036436849e+02 
      </Row>
      <Row Index="21">
        2.0149315017731258e+01 2.1724183676870439e+00 8.4169732307905605e+00 -1.8273856636789240e+01 1.6276797700344389e+01 1.8382328664125360e+00 3.6585484527353174e-01 -9.4532764051078626e+00 1.8870875192028080e+01 2.1796426962131221e+00 6.6808211111616700e-01 -1.2431834374050634e+01 5.5697071872657048e+01 3.3282330195688871e+01 1.8259365664094645e+01 -2.8859432868792972e+01 4.3702267496362730e+01 1.7286577189042212e+01 1.7685564310675673e+01 -3.3950150459946691e+01 -1.9314693659443196e+02 5.5294171696456672e+01 -1.6147757983381602e+01 -8.3733918608552585e+01 -5.1295105423648010e+01 -5.9818423133067791e+00 5.8996764106375031e+02 -8.6065290054143205e+01 -5.3259370422878575e+01 -1.8027510798644659e+02 4.7132852643690804e-01 1.6752247285747476e+01 3.0964369261695310e+00 1.1146279109881776e+02 5.1577691651135403e+01 -8.6993108629760869e+01 1.5052524238144858e+02 -6.3716003844965616e+00 -3.2369456044320577e+00 
      </Row>
      <Row Index="22">
        -1.8652822296363418e+01 4.2305229093834214e+01 -2.1393398621639790e+00 1.1179167868322565e+01 -3.2333336091343313e+01 -4.2437761969453618e+00 -9.7630007573202420e+00 7.4477617183986240e+00 -3.7971382465071244e+01 -2.7245911033933794e+00 -1.1713365557762671e+01 9.7503089648241570e+00 -8.1505638709125407e+01 6.3662217265705294e+00 -2.6205085092456500e+01 2.2590434110509392e+01 -5.1232470217944936e+01 -1.2044478233820731e+01 -2.1503194537986815e+01 2.5126120520896158e+01 9.9647963060669531e+02 -1.6147757997482501e+01 9.6912278739336159e+01 7.2709621162074166e+02 3.9090676619530306e+01 -1.1298302451667039e+00 -8.5918017391524836e+02 7.1238321644422427e+01 5.2943219096132367e+01 5.3166109747656617e+02 -4.8248582434932175e+00 -1.0052119297633972e+01 -1.6512407704742254e+03 -1.0526839724931911e+02 -6.0368583889103675e+01 4.1568089196381914e+02 -1.3882810947194176e+02 5.7400403753975402e+00 -3.3594302736295250e+00 
      </Row>
      <Row Index="23">
        -4.9833429648554966e+02 9.0322308492085722e+02 6.2739370090384909e+01 6.7714706657989154e+00 -1.4844263227910596e+02 -2.5322439974715962e+00 -3.4126473544729379e+01 5.1206152027253665e+01 -1.4940922617633987e+02 3.8596519770628220e+01 -5.5832736777735590e+01 8.4237896574916704e+01 -4.0590668980745613e+02 7.5094962116670649e+02 1.7381341830001475e+01 1.6178303664865143e+02 -4.6531582231142681e+02 -1.5212782433790329e+02 2.5438204223621142e+01 1.4073532145912645e+02 2.5011270448802170e+04 -8.3733919588845310e+01 7.2709621244804111e+02 3.4974940244938603e+04 1.5105272354285242e+02 -2.5924180538164956e+02 -2.2395438292790030e+04 -1.8776520645700657e+02 1.9407614295635375e+02 1.4750427936828049e+04 -2.6088414960926229e+02 5.2667946357200975e+01 -1.1215609269416396e+05 9.3552833211305710e+01 -2.9487300984709088e+02 2.3053917027754043e+04 -2.5733703943065962e+02 2.0864621560832859e+01 -2.0171378425233624e+02 
      </Row>
      <Row Index="24">
        -6.2668964794197159e+01 5.9894379546811592e+01 1.0371857857371083e+01 3.1903966854324224e+01 -2.5147405072051669e+01 -5.4653241396228474e+00 -5.8321043962763497e-02 1.2729105872832726e+01 -3.1024807159844730e+01 -8.9453705978271216e+00 5.3661245817364289e-01 1.7974023171688778e+01 -1.1207674687111268e+02 -1.2386302253514685e+01 -1.6596611801791198e+01 3.5801392121861468e+01 -7.8045717717953266e+01 -4.8549558971453677e-01 -1.4822068772670590e+01 4.7471054642970756e+01 9.5893981476870567e+02 -5.1295105421171804e+01 3.9090676593819083e+01 1.5105272193469276e+02 1.0574723549363661e+02 4.1418959067381039e+01 -9.9123005879424261e+02 1.3981294293457046e+02 5.9281061389483824e+01 5.8736553866497866e+02 6.5239617909444974e+00 -4.9151233261904387e+01 1.3592832259723599e+02 -2.1479495467610928e+02 -5.6215472629865872e+01 1.1821217729973549e+02 -2.6939984283675955e+02 1.0802194267094299e+01 1.8923438498550436e+00 
      </Row>
      <Row Index="25">
        -2.4425388363147285e+01 3.4298489362702071e+01 2.4032251126009072e+01 1.5151342275667957e+01 -4.7771038090222362e-01 -2.9086609144049973e+00 5.2604468448194837e+00 3.3741190596022079e+00 -1.3640819304757059e+00 -4.2055666847689110e+00 6.3233108456159783e+00 6.1554124294485177e+00 -2.5110769982682228e+01 7.7988814826347266e+00 1.0970337758663049e+01 3.3072575288724089e+00 -4.4018613940339559e+00 2.7803856272458926e+01 1.1139430831886948e+01 1.1030051247077665e+01 1.0424280705551105e+03 -5.9818423201529640e+00 -1.1298302451881312e+00 -2.5924180576413988e+02 4.1418959079692840e+01 6.4924348652041743e+01 -2.4612391902526167e+02 5.3914575402895011e+01 -2.1688024108246463e+01 6.7715788369200789e+02 1.6588355763709121e+01 -4.9059562017332901e+01 -8.1685500660192588e+02 -8.6788476839669229e+01 2.5602467798406249e+01 1.8118827093129389e+02 -9.3892769632230895e+01 3.8090699746854302e+00 -2.4627569259868753e+00 
      </Row>
      <Row Index="26">
        1.2816082418356159e+03 -8.3217874313682842e+02 -5.5224816076770367e+01 -2.4707886881723061e+02 3.6671302148238556e+02 2.5265899904406615e+02 4.4247809329701340e+01 -1.1186876922841293e+02 4.0844041132992379e+02 2.9933242605148916e+02 5.2722127809832500e+01 -1.8363780421261936e+02 1.8584747708462291e+03 8.0920233325294248e+01 3.4110632408240417e+02 -2.8919570067213363e+02 1.2981556707681020e+03 1.7471085103053508e+02 1.3831409812718539e+02 -3.9414539203251445e+02 -3.7306580663010289e+04 5.8996764164067827e+02 -8.5918017420480101e+02 -2.2395438279231723e+04 -9.9123005977226785e+02 -2.4612391916406796e+02 4.0030742611745809e+04 -2.4744319167855579e+03 -7.0090627507181125e+02 -1.8048030334978437e+04 4.4147998641532013e+02 5.1838370165853814e+02 5.6476985108617686e+04 2.0171526161915572e+03 4.7203460733260289e+02 -1.6258736001488822e+04 3.6263220923488921e+03 -1.1312764461926571e+02 9.8359663095233344e+01 
      </Row>
      <Row Index="27">
        -1.0601515102962070e+02 4.5590239573278950e+00 -1.7468537470476491e+01 4.5004637469475995e+01 -4.0324311738649911e+01 -3.9655739289520433e+01 -1.1739015197632455e+01 1.9949304389008738e+01 -4.8180586350129516e+01 -5.0149683744994661e+01 -1.2282969328138208e+01 2.7828735851405540e+01 -2.0290976724731789e+02 -1.4935955361061326e+02 -7.9620376651157954e+01 5.5130180428857187e+01 -1.3301456424468725e+02 -4.9651894735943131e+01 -5.9117432945679312e+01 7.1507493126662069e+01 2.3564889303368127e+03 -8.6065290051221865e+01 7.1238321601592077e+01 -1.8776520926066206e+02 1.3981294293643043e+02 5.3914575381705909e+01 -2.4744319150742440e+03 3.6922033391259868e+02 1.4141683519567113e+02 1.1430680928536606e+03 -9.1075333807864247e+00 -7.9434363473424426e+01 7.7874156094595014e+02 -3.9341740439984937e+02 -1.0650633570902069e+02 2.6307739436944104e+02 -5.3371621699737409e+02 1.8521409468030324e+01 5.1279796438279419e+00 
      </Row>
      <Row Index="28">
        -2.9473641651460291e+01 -2.5443564042784146e+01 -3.4561318045889152e+01 2.5007077531514948e+01 -2.9023508564843631e+01 -1.3808295095699968e+01 -1.3838492522397814e+01 1.6472632550264930e+01 -3.4228470950893168e+01 -1.5790947496481635e+01 -1.5983419043395362e+01 2.0207893441569404e+01 -1.0069730845680826e+02 -1.0105035000124546e+02 -6.1697738418497202e+01 5.3297699705865860e+01 -8.2912520784973680e+01 -6.2745957051036648e+01 -5.5200360754091136e+01 5.6550778346199316e+01 5.9118988621896662e+01 -5.3259370419354838e+01 5.2943219069043039e+01 1.9407614126179686e+02 5.9281061388007629e+01 -2.1688024121730280e+01 -7.0090627403052383e+02 1.4141683519023235e+02 1.2735567651851724e+02 5.4707699025179508e+01 -8.8302837361789557e+00 -7.1027417620295097e+00 2.9738542283873977e+02 -1.8361237333490257e+02 -1.1912596627943029e+02 4.7278127025857735e+01 -2.3338557310388370e+02 8.8880544184627492e+00 5.4158926754309933e+00 
      </Row>
      <Row Index="29">
        -5.5226656750990696e+02 1.0994948033931869e+03 2.0219246563688102e+02 1.8237531164287793e+02 -8.5247733850654186e+01 -2.6724049859612933e+01 -7.9336771329108160e+00 8.1038332885892942e+01 -1.1200288990704576e+02 -4.9578052255998045e+01 -4.4746178106627212e+00 1.2025746889339280e+02 -5.7965180499588860e+02 6.8150941688535386e+02 -8.8801081450219499e+01 1.6379754763235906e+02 -2.9610983037640813e+02 3.1180446741509513e+02 -3.3004648248505873e+01 2.4215285066952015e+02 3.5810645044240344e+04 -1.8027510880521913e+02 5.3166109803485779e+02 1.4750427927803446e+04 5.8736554002791672e+02 6.7715788393752678e+02 -1.8048030340523721e+04 1.1430680952042676e+03 5.4707700484402380e+01 2.2881801337403209e+04 1.4225744964119167e+02 -5.8132035346047337e+02 -9.7769465241346945e+04 -1.6351593398500645e+03 -7.5475547295702796e+01 1.9957441954897731e+04 -2.0521130076355084e+03 9.1057821173105992e+01 -1.5486560288219528e+02 
      </Row>
      <Row Index="30">
        6.3628808184856043e+00 9.2172449484151571e+00 8.5083095325239384e+00 -1.2073353950602801e+00 4.6630382053654458e+00 1.9567386081524241e-01 2.4429088680890558e+00 -7.1381983823864736e-01 3.4915914087192395e+00 -1.1980985857532715e+00 3.9103528977851578e+00 -1.2777191736338489e+00 2.0909602824442842e+01 1.1589709256574309e+01 7.0255668276161387e+00 -3.2692189791903878e+00 1.5065785282518872e+01 1.8123813091896643e+01 2.3423619678352168e+00 1.1881115228742112e+00 -1.6574099538528890e+02 4.7132852810241488e-01 -4.8248582466876897e+00 -2.6088414975076807e+02 6.5239617889012500e+00 1.6588355761633856e+01 4.4147998653204922e+02 -9.1075333856050840e+00 -8.8302837378921133e+00 1.4225744949629700e+02 2.9768929861738886e+01 9.9659708669792906e+00 -1.4617175345246102e+02 -3.2675141804627557e+01 -1.7310779353805280e+01 -5.1805380683440418e+01 -2.0836591728491127e+00 1.6528911089357514e+00 -1.1850488438404039e-01 
      </Row>
      <Row Index="31">
        3.4597134679251440e+01 -2.5578516645283685e+01 -1.0704215971486946e+01 -3.5344139228417532e+01 5.2703612961871187e+00 7.3453435217367229e+00 -1.6281291667748405e+00 -1.1130058062825817e+01 6.2809468757305353e+00 9.8357850041335837e+00 -1.3289732780494496e+00 -1.7256515309253171e+01 4.5098383289852762e+01 1.9564219099387685e+01 2.3264800685497846e+00 -2.8634904492257128e+01 1.8768429851442175e+01 -9.2113779460299838e-01 -3.4223666711213241e-01 -2.8935566325728324e+01 -1.3204292700458727e+03 1.6752247294316462e+01 -1.0052119293505129e+01 5.2667947095338377e+01 -4.9151233277529755e+01 -4.9059562016801941e+01 5.1838370133850719e+02 -7.9434363500600909e+01 -7.1027417787336891e+00 -5.8132035295440789e+02 9.9659708640198801e+00 1.1418068582836403e+02 8.1812504396558722e+02 8.5011480596390015e+01 -7.0678613127646145e+01 -2.3512334721482529e+02 1.2435500345930981e+02 -6.7109762460401843e+00 2.7136275814380451e+00 
      </Row>
      <Row Index="32">
        6.3018595852667841e+02 -2.1832346653337008e+03 -3.0187521458380797e+02 -1.0549487399445206e+02 2.0642658098121319e+02 -4.9363460910548019e+02 8.0805143715202576e+01 -2.4464504901965483e+02 2.4224402018197361e+02 -6.6409840482019354e+02 1.3000459758266697e+02 -3.1676264743757019e+02 4.2536406146262016e+02 -2.6809321298658033e+03 -5.0845581216461142e+01 -4.8762160197471894e+02 3.1534653044948755e+01 -2.9012030498226522e+02 -4.4854388518142514e+00 -4.0773672848235765e+02 -1.4420191302489559e+05 3.0964435792920995e+00 -1.6512407760167844e+03 -1.1215609269270604e+05 1.3592831167621625e+02 -8.1685500915635794e+02 5.6476985197757720e+04 7.7874154209582775e+02 2.9738541135828200e+02 -9.7769465300358992e+04 -1.4617175448290800e+02 8.1812504878205777e+02 8.0856972505713906e+05 6.3629940027696557e+02 -1.3895819460970608e+02 -1.5032136617002581e+05 3.4330169743298029e+02 -1.7849271177742253e+01 7.8288325371609494e+02 
      </Row>
      <Row Index="33">
        1.1744211009800475e+02 -8.1918602175448314e+01 6.3794365645197786e+00 -6.5333637698398235e+01 5.3615663821350267e+01 2.8931943911288911e+01 1.3000574936423902e+01 -3.0457010436144273e+01 6.7216855987323697e+01 3.9797172944071974e+01 1.2819957259880091e+01 -4.0593775912507539e+01 2.3683641028015305e+02 1.0878585821754382e+02 8.5927740689728807e+01 -8.5814489753023921e+01 1.6367921907117662e+02 3.5184861136051836e+01 7.6212861954635230e+01 -1.1195821310900871e+02 -2.3903778782531267e+03 1.1146279109913252e+02 -1.0526839719000449e+02 9.3552837337568008e+01 -2.1479495468675231e+02 -8.6788476808858789e+01 2.0171526137359383e+03 -3.9341740441145839e+02 -1.8361237335185518e+02 -1.6351593363840698e+03 -3.2675141810968711e+01 8.5011480559569222e+01 6.3629937230642656e+02 5.7295326735933111e+02 1.9267937009109411e+02 -4.0475158707257486e+02 6.8212679338884902e+02 -2.6327522171065741e+01 -4.6320696426663321e+00 
      </Row>
      <Row Index="34">
        1.5965373362654349e+01 7.0174853077108850e+00 2.6627349205827429e+01 -6.2679066893262245e+00 3.0058439533477490e+01 6.2400736100533347e+00 1.2710415628841503e+01 -1.1252036110310145e+01 3.6523554154163797e+01 6.6337194834632669e+00 1.3932264615830693e+01 -1.1747473924453748e+01 8.5814901683021162e+01 6.2023080661819591e+01 5.3182084192432207e+01 -3.8055506055550687e+01 8.0791873361698464e+01 4.4285490146775018e+01 5.1800718551286948e+01 -4.7871837640044191e+01 4.8131501789711933e+02 5.1577691646387393e+01 -6.0368583863811239e+01 -2.9487300830929632e+02 -5.6215472626499341e+01 2.5602467812513595e+01 4.7203460636638175e+02 -1.0650633569951843e+02 -1.1912596627779216e+02 -7.5475545930206323e+01 -1.7310779354735544e+01 -7.0678613144528668e+01 -1.3895820519677807e+02 1.9267937006953034e+02 1.9419793236524350e+02 -2.0482515193902547e+01 2.1107936423289604e+02 -7.1553779987459949e+00 -5.7460163301265927e+00 
      </Row>
      <Row Index="35">
        -3.0767734031166378e+02 5.0165794970192655e+02 5.9099234645218530e+01 5.1032416703917988e+01 -8.5825969471561621e+01 3.9609445400024924e+01 -2.0942628500028150e+01 5.6627852896941477e+01 -9.6530036226484299e+01 6.0244721854563977e+01 -3.1208737877163003e+01 7.9176730812330334e+01 -3.4466893798465208e+02 4.4158427341397328e+02 -4.5591420261822350e+01 1.1963979415762333e+02 -1.8985635807620906e+02 1.6061863178882049e+01 -1.8465589549509787e+01 1.1963884509055515e+02 3.1436632285574582e+04 -8.6993109885792364e+01 4.1568089298363338e+02 2.3053917025596034e+04 1.1821217936545327e+02 1.8118827140184339e+02 -1.6258736017220828e+04 2.6307739793873952e+02 4.7278129199960858e+01 1.9957441964555655e+04 -5.1805380484477610e+01 -2.3512334810977825e+02 -1.5032136615760467e+05 -4.0475159235828369e+02 -2.0482517200391726e+01 2.8888652818526611e+04 -6.1437545975598641e+02 2.1368750382531289e+01 -1.5440339490962975e+02 
      </Row>
      <Row Index="36">
        1.7257164416428830e+02 -1.0207372149950834e+02 1.2232631093223574e+01 -8.2741048795096447e+01 7.4527735272877266e+01 3.6684827503095860e+01 1.6218547399501745e+01 -3.7974384909765533e+01 9.0350824939533922e+01 4.9694090408666625e+01 1.6826467873967843e+01 -5.1619218511182190e+01 3.4110141717295926e+02 1.2835226864382935e+02 1.1052536849319978e+02 -1.0683124570771990e+02 2.3440667838169810e+02 5.1193780684146645e+01 8.9796680097671754e+01 -1.3625174501136937e+02 -3.6395506238711068e+03 1.5052524238359044e+02 -1.3882810940105094e+02 -2.5733703441575472e+02 -2.6939984285231122e+02 -9.3892769596580237e+01 3.6263220894000101e+03 -5.3371621701783010e+02 -2.3338557312656167e+02 -2.0521130034705839e+03 -2.0836591813519760e+00 1.2435500341678672e+02 3.4330166356990730e+02 6.8212679339695126e+02 2.1107936426060189e+02 -6.1437545336115602e+02 8.8418214797102758e+02 -3.2628238961371920e+01 -5.8090688921306821e+00 
      </Row>
      <Row Index="37">
        -5.8956232022302384e+00 5.9896678837349242e+00 -2.7302784348908204e-02 3.1548144302652865e+00 -1.9276979552686804e+00 -1.7082028800081428e+00 -4.0684845858273810e-01 1.5518139912550226e+00 -2.4810633112073761e+00 -2.5061824267018622e+00 -3.6490433765157304e-01 2.0073808784013583e+00 -9.1337591972033678e+00 -2.7808051055132594e+00 -3.4416158879151055e+00 4.4000012858494930e+00 -6.5327596330935069e+00 -1.9423775241657708e+00 -3.0459896352459213e+00 5.4119676677927391e+00 1.6172050169000664e+02 -6.3716003844654860e+00 5.7400403724284601e+00 2.0864621353041159e+01 1.0802194267556690e+01 3.8090699731583832e+00 -1.1312764449340906e+02 1.8521409468458174e+01 8.8880544192904463e+00 9.1057820999222002e+01 1.6528911093121184e+00 -6.7109762441107028e+00 -1.7849269773074880e+01 -2.6327522171029905e+01 -7.1553779999115585e+00 2.1368750116682119e+01 -3.2628238960781523e+01 1.8431752285503198e+00 -2.4283298197201836e-01 
      </Row>
      <Row Index="38">
        9.9226112187230742e-01 -1.0772799133467458e+01 -2.2172760527613065e+00 1.1540212893212640e+00 -1.6591899776587695e+00 2.9182066143405905e-02 -1.4779704155033357e-01 4.6522118776505650e-01 -2.0684294660832272e+00 -7.4942969634008705e-02 -6.5755216362488156e-02 5.1035459640942626e-01 -5.9554356906255066e+00 -1.1131528350567521e+01 -2.1082331172014648e+00 1.7660904157761159e+00 -4.3953246548500875e+00 -2.6152895467613178e+00 -2.1276158871542918e+00 2.1580675139140553e+00 -2.7262729052720465e+02 -3.2369455976747830e+00 -3.3594302802897573e+00 -2.0171378431443179e+02 1.8923438389856244e+00 -2.4627569289177993e+00 9.8359663220870516e+01 5.1279796248444285e+00 5.4158926637667761e+00 -1.5486560299567424e+02 -1.1850488531781878e-01 2.7136275867923589e+00 7.8288325415301335e+02 -4.6320696140138100e+00 -5.7460163194045686e+00 -1.5440339500427930e+02 -5.8090688574552516e+00 -2.4283298339982018e-01 2.3844965297729979e+00 
      </Row>
    </InverseHessian>
  </Weights>
</MethodSetup>
