<?xml version="1.0"?>
<MethodSetup Method="MLP::MLP">
  <GeneralInfo>
    <Info name="TMVA Release" value="4.1.2 [262402]"/>
    <Info name="ROOT Release" value="5.32/00 [335872]"/>
    <Info name="Creator" value="tomc"/>
    <Info name="Date" value="Thu Jan 10 14:00:32 2013"/>
    <Info name="Host" value="Linux lxbuild168.cern.ch 2.6.18-308.1.1.el5 #1 SMP Wed Mar 7 19:25:07 CET 2012 x86_64 x86_64 x86_64 GNU/Linux"/>
    <Info name="Dir" value="/user_mnt/user/tomc/QGTagger/training/f/4/aKDE03"/>
    <Info name="Training events" value="345595"/>
    <Info name="TrainingTime" value="1.38300840e+03"/>
    <Info name="AnalysisType" value="Classification"/>
  </GeneralInfo>
  <Options>
    <Option name="NCycles" modified="No">500</Option>
    <Option name="HiddenLayers" modified="No">N,N-1</Option>
    <Option name="NeuronType" modified="No">sigmoid</Option>
    <Option name="RandomSeed" modified="No">1</Option>
    <Option name="EstimatorType" modified="No">MSE</Option>
    <Option name="NeuronInputType" modified="No">sum</Option>
    <Option name="V" modified="Yes">False</Option>
    <Option name="VerbosityLevel" modified="No">Default</Option>
    <Option name="VarTransform" modified="Yes">N</Option>
    <Option name="H" modified="Yes">False</Option>
    <Option name="CreateMVAPdfs" modified="Yes">True</Option>
    <Option name="IgnoreNegWeightsInTraining" modified="No">False</Option>
    <Option name="TrainingMethod" modified="No">BP</Option>
    <Option name="LearningRate" modified="No">2.000000e-02</Option>
    <Option name="DecayRate" modified="No">1.000000e-02</Option>
    <Option name="TestRate" modified="Yes">3</Option>
    <Option name="EpochMonitoring" modified="No">False</Option>
    <Option name="Sampling" modified="No">1.000000e+00</Option>
    <Option name="SamplingEpoch" modified="No">1.000000e+00</Option>
    <Option name="SamplingImportance" modified="No">1.000000e+00</Option>
    <Option name="SamplingTraining" modified="No">True</Option>
    <Option name="SamplingTesting" modified="No">False</Option>
    <Option name="ResetStep" modified="No">50</Option>
    <Option name="Tau" modified="No">3.000000e+00</Option>
    <Option name="BPMode" modified="No">sequential</Option>
    <Option name="BatchSize" modified="No">-1</Option>
    <Option name="ConvergenceImprove" modified="No">1.000000e-30</Option>
    <Option name="ConvergenceTests" modified="No">-1</Option>
    <Option name="UseRegulator" modified="Yes">True</Option>
    <Option name="UpdateLimit" modified="No">10000</Option>
    <Option name="CalculateErrors" modified="No">False</Option>
    <Option name="WeightRange" modified="No">1.000000e+00</Option>
  </Options>
  <Variables NVar="4">
    <Variable VarIndex="0" Expression="axis1" Label="axis1" Title="axis1" Unit="" Internal="axis1" Type="F" Min="-1.85560109e-03" Max="3.85554612e-01"/>
    <Variable VarIndex="1" Expression="axis2" Label="axis2" Title="axis2" Unit="" Internal="axis2" Type="F" Min="-1.47463963e-03" Max="2.46142179e-01"/>
    <Variable VarIndex="2" Expression="mult" Label="mult" Title="mult" Unit="" Internal="mult" Type="F" Min="7.91189313e-01" Max="2.57911892e+01"/>
    <Variable VarIndex="3" Expression="ptD" Label="ptD" Title="ptD" Unit="" Internal="ptD" Type="F" Min="1.90686375e-01" Max="1.00481951e+00"/>
  </Variables>
  <Spectators NSpec="0"/>
  <Classes NClass="2">
    <Class Name="Signal" Index="0"/>
    <Class Name="Background" Index="1"/>
  </Classes>
  <Transformations NTransformations="1">
    <Transform Name="Normalize">
      <Selection>
        <Input NInputs="4">
          <Input Type="Variable" Label="axis1" Expression="axis1"/>
          <Input Type="Variable" Label="axis2" Expression="axis2"/>
          <Input Type="Variable" Label="mult" Expression="mult"/>
          <Input Type="Variable" Label="ptD" Expression="ptD"/>
        </Input>
        <Output NOutputs="4">
          <Output Type="Variable" Label="axis1" Expression="axis1"/>
          <Output Type="Variable" Label="axis2" Expression="axis2"/>
          <Output Type="Variable" Label="mult" Expression="mult"/>
          <Output Type="Variable" Label="ptD" Expression="ptD"/>
        </Output>
      </Selection>
      <Class ClassIndex="0">
        <Ranges>
          <Range Index="0" Min="2.3832949809730053e-03" Max="3.3870193362236023e-01"/>
          <Range Index="1" Min="-8.3853030810132623e-04" Max="2.4614217877388000e-01"/>
          <Range Index="2" Min="7.9118931293487549e-01" Max="2.5791189193725586e+01"/>
          <Range Index="3" Min="1.9068637490272522e-01" Max="9.5409679412841797e-01"/>
        </Ranges>
      </Class>
      <Class ClassIndex="1">
        <Ranges>
          <Range Index="0" Min="-1.8556010909378529e-03" Max="3.8555461168289185e-01"/>
          <Range Index="1" Min="-1.4746396336704493e-03" Max="2.3132564127445221e-01"/>
          <Range Index="2" Min="7.9118931293487549e-01" Max="2.3791189193725586e+01"/>
          <Range Index="3" Min="2.1314838528633118e-01" Max="1.0048195123672485e+00"/>
        </Ranges>
      </Class>
      <Class ClassIndex="2">
        <Ranges>
          <Range Index="0" Min="-1.8556010909378529e-03" Max="3.8555461168289185e-01"/>
          <Range Index="1" Min="-1.4746396336704493e-03" Max="2.4614217877388000e-01"/>
          <Range Index="2" Min="7.9118931293487549e-01" Max="2.5791189193725586e+01"/>
          <Range Index="3" Min="1.9068637490272522e-01" Max="1.0048195123672485e+00"/>
        </Ranges>
      </Class>
    </Transform>
  </Transformations>
  <MVAPdfs>
    <PDF Name="MLP_PDFSig" MinNSmooth="0" MaxNSmooth="0" InterpolMethod="5" KDE_type="1" KDE_iter="2" KDE_border="1" KDE_finefactor="3.0000001192092896e-01">
      <Histogram Name="MLP_tr_S_original" NBins="250" XMin="3.1820808071643114e-03" XMax="8.9316451549530029e-01" HasEquidistantBins="1">
        0.00000000e+00 0.00000000e+00 0.00000000e+00 0.00000000e+00 0.00000000e+00 0.00000000e+00 0.00000000e+00 0.00000000e+00 0.00000000e+00 0.00000000e+00 1.64026988e-03 1.64026988e-03 0.00000000e+00 0.00000000e+00 1.64026988e-03 0.00000000e+00 1.64026988e-03 1.64026988e-03 0.00000000e+00 3.28053976e-03 0.00000000e+00 1.31221591e-02 3.28053976e-03 3.28053976e-03 1.64026988e-03 1.64026988e-03 6.56107953e-03 6.56107953e-03 4.92080953e-03 9.84161906e-03 8.20134953e-03 2.46040486e-02 1.80429686e-02 2.62443181e-02 4.10067476e-02 3.11651286e-02 3.11651286e-02 4.10067476e-02 3.77262086e-02 3.60859372e-02 3.28053981e-02 3.77262086e-02 5.90497144e-02 6.39705285e-02 6.88913390e-02 8.52940381e-02 1.23020239e-01 1.04977272e-01 9.51356515e-02 1.27941057e-01 1.14818893e-01 1.09898083e-01 1.50904834e-01 1.78789422e-01 1.98472664e-01 2.69004256e-01 2.87047237e-01 3.16572100e-01 3.44456673e-01 3.36255342e-01 3.75621796e-01 3.19852620e-01 3.78902346e-01 4.39592332e-01 4.51074213e-01 5.67533374e-01 5.64252853e-01 5.77374995e-01 6.00338757e-01 6.10180378e-01 6.70870364e-01 6.90553606e-01 6.79071724e-01 6.83992565e-01 8.05372536e-01 7.52883852e-01 8.90666544e-01 9.48076010e-01 9.34953868e-01 1.01368678e+00 1.05633378e+00 1.05961430e+00 1.04157138e+00 1.07601702e+00 1.10226142e+00 1.13998759e+00 1.23184264e+00 1.17607355e+00 1.20231783e+00 1.24168432e+00 1.29253268e+00 1.34830189e+00 1.36142397e+00 1.38438773e+00 1.46312070e+00 1.48280394e+00 1.45984018e+00 1.48116374e+00 1.45984018e+00 1.49100530e+00 1.41555297e+00 1.48116374e+00 1.49264562e+00 1.46148050e+00 1.48608458e+00 1.53693295e+00 1.55661619e+00 1.68619740e+00 1.48936510e+00 1.52217042e+00 1.52709126e+00 1.50084698e+00 1.61238527e+00 1.58778131e+00 1.60910475e+00 1.66487396e+00 1.66487396e+00 1.49100530e+00 1.54021347e+00 1.59106183e+00 1.60910475e+00 1.57301879e+00 1.60746455e+00 1.49920666e+00 1.56481743e+00 1.59270203e+00 1.65339208e+00 1.59598255e+00 1.64847124e+00 1.65011156e+00 1.63534904e+00 1.70095992e+00 1.60090339e+00 1.62714767e+00 1.57957995e+00 1.64026988e+00 1.60582423e+00 1.63206851e+00 1.57793963e+00 1.64847124e+00 1.62222695e+00 1.58942151e+00 1.68291688e+00 1.63042831e+00 1.66651416e+00 1.63370883e+00 1.76329017e+00 1.64355040e+00 1.76329017e+00 1.72392368e+00 1.68947804e+00 1.63042831e+00 1.66651416e+00 1.82890093e+00 1.68291688e+00 1.69767928e+00 1.75016797e+00 1.88795066e+00 1.72228336e+00 1.78133309e+00 1.80593717e+00 1.97324467e+00 1.97652519e+00 1.88138962e+00 1.99784875e+00 2.05033731e+00 2.03721523e+00 2.11594820e+00 2.19468117e+00 2.11266756e+00 2.20780325e+00 2.23076701e+00 2.36034846e+00 2.34886646e+00 2.46204519e+00 2.56374192e+00 2.41775775e+00 2.55554056e+00 2.59818745e+00 2.56866264e+00 2.62279153e+00 2.66707873e+00 2.65067625e+00 2.55390024e+00 2.70644522e+00 2.72776890e+00 2.66051769e+00 2.63263321e+00 2.73268962e+00 2.53749752e+00 2.58998609e+00 2.66543865e+00 2.54241824e+00 2.59654713e+00 2.66051769e+00 2.52765584e+00 2.46532559e+00 2.37839127e+00 2.44400215e+00 2.42103839e+00 2.38331223e+00 2.19796157e+00 2.28325558e+00 2.24388933e+00 2.08150244e+00 2.09134412e+00 2.01425147e+00 1.98144603e+00 1.91419494e+00 1.88138962e+00 1.88795066e+00 1.74032640e+00 1.64847124e+00 1.58450067e+00 1.55825639e+00 1.49592614e+00 1.39915025e+00 1.29417300e+00 1.13670707e+00 1.08093786e+00 1.04813242e+00 9.80881393e-01 9.25112247e-01 8.49659801e-01 7.90610075e-01 7.56164432e-01 6.54467702e-01 5.80655515e-01 4.93721247e-01 4.11707729e-01 3.57578844e-01 3.31334531e-01 2.60802925e-01 2.31278062e-01 2.29637787e-01 1.44343749e-01 1.04977272e-01 1.16459161e-01 7.87329525e-02 5.90497144e-02 5.08483648e-02 3.60859372e-02 3.11651286e-02 2.29637790e-02 1.14818895e-02 6.56107953e-03 4.92080953e-03 3.28053976e-03 1.64026988e-03 1.64026988e-03 
      </Histogram>
    </PDF>
    <PDF Name="MLP_PDFBkg" MinNSmooth="0" MaxNSmooth="0" InterpolMethod="5" KDE_type="1" KDE_iter="2" KDE_border="1" KDE_finefactor="3.0000001192092896e-01">
      <Histogram Name="MLP_tr_B_original" NBins="250" XMin="3.1820808071643114e-03" XMax="8.9316451549530029e-01" HasEquidistantBins="1">
        1.61125406e-03 0.00000000e+00 0.00000000e+00 0.00000000e+00 0.00000000e+00 0.00000000e+00 0.00000000e+00 1.61125406e-03 0.00000000e+00 0.00000000e+00 0.00000000e+00 0.00000000e+00 4.83376207e-03 0.00000000e+00 0.00000000e+00 1.61125406e-03 3.22250812e-03 6.44501625e-03 4.83376207e-03 6.44501625e-03 2.09463034e-02 1.12787783e-02 1.45012867e-02 1.93350483e-02 2.73913182e-02 3.38363349e-02 3.06138266e-02 2.73913182e-02 4.18926068e-02 5.15601300e-02 5.15601300e-02 1.01509005e-01 9.66752395e-02 1.32122830e-01 1.32122830e-01 1.45012870e-01 1.57902896e-01 1.53069139e-01 1.43401608e-01 1.78849205e-01 1.86905473e-01 2.51355618e-01 2.70690680e-01 3.57698411e-01 4.02813524e-01 4.88209993e-01 4.52762395e-01 5.13990045e-01 5.20435035e-01 5.78440189e-01 5.22046328e-01 5.63938916e-01 6.83171690e-01 7.68568158e-01 1.01186752e+00 1.02959132e+00 1.03120255e+00 1.15849161e+00 1.19716179e+00 1.14076781e+00 1.12626660e+00 1.22133052e+00 1.41306984e+00 1.41951478e+00 1.70148432e+00 1.69020545e+00 1.74015439e+00 1.78043568e+00 1.98667622e+00 1.96089613e+00 1.90127981e+00 1.88194478e+00 1.97056365e+00 2.13168907e+00 2.10107517e+00 2.21708560e+00 2.26703453e+00 2.42977118e+00 2.45877361e+00 2.54900384e+00 2.59734154e+00 2.41204739e+00 2.60378647e+00 2.56511641e+00 2.50872254e+00 2.53772521e+00 2.54900384e+00 2.56350517e+00 2.49099874e+00 2.56350517e+00 2.66340303e+00 2.69885063e+00 2.67468166e+00 2.64084530e+00 2.63117790e+00 2.62795544e+00 2.54255891e+00 2.64084530e+00 2.51677895e+00 2.52322388e+00 2.63601160e+00 2.47649741e+00 2.38626719e+00 2.44910622e+00 2.38787842e+00 2.39915729e+00 2.41849232e+00 2.38948965e+00 2.30570459e+00 2.40721345e+00 2.31214952e+00 2.25253320e+00 2.32665086e+00 2.38143349e+00 2.36370969e+00 2.15102410e+00 2.10590911e+00 2.02212381e+00 1.98506498e+00 1.95283997e+00 1.97378623e+00 1.92222607e+00 2.00762248e+00 2.00278878e+00 1.85133088e+00 1.87549973e+00 1.83038461e+00 1.82877338e+00 1.79977083e+00 1.80621576e+00 1.76593447e+00 1.68859422e+00 1.72887564e+00 1.58225143e+00 1.64186788e+00 1.63381159e+00 1.71920812e+00 1.58708525e+00 1.55808270e+00 1.51619005e+00 1.58386278e+00 1.50330007e+00 1.50813377e+00 1.46140742e+00 1.59675276e+00 1.42595983e+00 1.53552508e+00 1.46785247e+00 1.36956596e+00 1.38567853e+00 1.34539711e+00 1.48074245e+00 1.35989845e+00 1.28900325e+00 1.42434859e+00 1.38728976e+00 1.38406718e+00 1.38890100e+00 1.32767332e+00 1.40984726e+00 1.37762225e+00 1.37117720e+00 1.45496237e+00 1.43884993e+00 1.37601101e+00 1.42757106e+00 1.45657361e+00 1.41790354e+00 1.42757106e+00 1.41468108e+00 1.36473215e+00 1.45335114e+00 1.45496237e+00 1.42112613e+00 1.43401611e+00 1.45012867e+00 1.50007749e+00 1.52585757e+00 1.42595983e+00 1.45335114e+00 1.40823603e+00 1.36312091e+00 1.31639457e+00 1.34056342e+00 1.37439966e+00 1.31639457e+00 1.25194442e+00 1.30511582e+00 1.27450192e+00 1.17460418e+00 1.18749428e+00 1.24872184e+00 1.13754535e+00 1.06181645e+00 1.08598518e+00 1.03120255e+00 1.09243023e+00 1.01347876e+00 9.84476209e-01 1.01831257e+00 9.24859822e-01 8.74910951e-01 8.94245982e-01 8.20128322e-01 7.54066885e-01 7.26675570e-01 6.78337932e-01 6.46112859e-01 6.47724152e-01 5.96163988e-01 5.75217724e-01 5.30102611e-01 5.17212570e-01 5.09156287e-01 4.88209993e-01 3.89923483e-01 4.39872354e-01 3.27084571e-01 3.43197107e-01 2.73913175e-01 2.25575566e-01 2.62634397e-01 1.94961742e-01 1.85294211e-01 1.62736654e-01 1.45012870e-01 1.22455306e-01 1.20844051e-01 9.82864946e-02 1.09565273e-01 7.89514482e-02 6.12276532e-02 4.02813517e-02 4.02813517e-02 3.38363349e-02 2.90025733e-02 3.06138266e-02 2.41688099e-02 2.25575566e-02 1.12787783e-02 4.83376207e-03 3.22250812e-03 4.83376207e-03 1.61125406e-03 1.61125406e-03 0.00000000e+00 1.61125406e-03 0.00000000e+00 0.00000000e+00 0.00000000e+00 
      </Histogram>
    </PDF>
  </MVAPdfs>
  <Weights>
    <Layout NLayers="4">
      <Layer Index="0" NNeurons="5">
        <Neuron NSynapses="4">
          -9.6510617828304801e-01 1.6694379012939318e+00 2.6909131594607332e+00 7.3946075197806911e+00 
        </Neuron>
        <Neuron NSynapses="4">
          -2.8893603085947777e+00 6.5389249321154780e-02 -1.4125790493121715e+00 3.2329143502354887e+00 
        </Neuron>
        <Neuron NSynapses="4">
          3.6200574972812721e-01 -1.1585047617501223e+00 -3.7127918121477057e+00 1.1295572274412085e+00 
        </Neuron>
        <Neuron NSynapses="4">
          -2.6066490257567172e+00 -2.4028478228844206e+00 -7.7552456814213777e-01 5.4463682234754573e+00 
        </Neuron>
        <Neuron NSynapses="4">
          -3.7345011868791835e+00 -7.6119169910443307e-01 -1.5206944959612358e+00 6.1526716154708661e+00 
        </Neuron>
      </Layer>
      <Layer Index="1" NNeurons="5">
        <Neuron NSynapses="3">
          -3.8955885965838433e+00 -1.7787964538905815e-01 4.2724680508063984e-01 
        </Neuron>
        <Neuron NSynapses="3">
          1.2629267537229125e+00 -3.8139049389333914e+00 3.2120266736903287e+00 
        </Neuron>
        <Neuron NSynapses="3">
          1.7579465019996665e+00 -1.8801413965752114e+00 -1.9568556288716170e+00 
        </Neuron>
        <Neuron NSynapses="3">
          -4.3520944456196773e+00 -1.6885065679377116e+00 -1.0990692602862213e-01 
        </Neuron>
        <Neuron NSynapses="3">
          -1.5806043531882243e+00 -1.2471439654943215e+00 -3.4543066228984016e+00 
        </Neuron>
      </Layer>
      <Layer Index="2" NNeurons="4">
        <Neuron NSynapses="1">
          -2.1255679760147634e+00 
        </Neuron>
        <Neuron NSynapses="1">
          -1.8699008156767327e+00 
        </Neuron>
        <Neuron NSynapses="1">
          1.2302852933549975e+00 
        </Neuron>
        <Neuron NSynapses="1">
          5.7872175481903954e-01 
        </Neuron>
      </Layer>
      <Layer Index="3" NNeurons="1">
        <Neuron NSynapses="0"/>
      </Layer>
    </Layout>
    <InverseHessian NElements="1521" NRows="39" NCols="39">
      <Row Index="0">
        5.0542481524979666e+00 6.7138520102637000e-01 -6.2499517690465378e-01 1.7737928180720535e+00 5.8071277893117603e+00 4.2213959106632876e-01 -9.6744784694297392e-01 1.5179718799497732e+00 -8.8323452708403427e-01 -2.7322986735163579e-01 1.0176090789317780e+00 8.0561840371134585e-01 5.2556494752452352e+00 5.9776936130302138e-01 -3.9885347119457931e-01 2.2575438796533511e+00 5.4542579633869419e+00 3.1249661988951183e-01 -3.3389955650959924e-01 2.0483989980268671e+00 -9.3141629733438691e+00 -1.7437205599910586e+00 1.5553500945816896e+00 5.6834684893235665e-01 -1.8777212988656229e+00 -1.1751548175813604e+00 -4.5067813983133198e-01 -2.3291662827291839e+00 -2.8198674210562008e-01 1.6506169032819131e+00 8.7094396760752424e-01 -1.3004981005222566e-01 -1.0000211331099913e+00 3.6843789598765575e+00 7.3370963701104097e-01 -3.0791757082626887e+00 5.6157817810273736e+00 3.2787477095024997e-01 -4.0359656710030667e-02 
      </Row>
      <Row Index="1">
        6.7138520101699006e-01 1.8735578084632649e+00 -3.4508885133297057e-01 4.3375571705577431e-01 6.3913968855831904e-01 8.9985621602512667e-02 3.2414997454611250e-01 1.4251571213172537e-01 2.1552425055951008e-02 -9.8544786735796253e-01 7.9111284744642107e-01 2.0814659214630057e-01 4.7484025708859251e-01 -8.0618015745929383e-01 4.7593654767986682e-01 2.9688141279558483e-01 4.5863576255024852e-01 -3.4119237576944372e-01 5.0100420402758383e-01 2.7395602273124370e-01 3.9877139261800942e-01 8.6950672293902465e-02 -9.4027644709030023e-02 -7.1133618121683539e-01 -2.3685591544130440e+00 -9.6689045705194787e-01 -9.2498014674059326e-01 -1.5436116709022367e+00 -8.8897566561756058e-01 1.0549742017945287e+00 9.8817138493494783e-01 -4.6458414808928533e-01 -1.2328499351068423e+00 -1.4256715560901565e+00 2.5970880661205911e+00 -3.1527190227003175e+00 -1.2075980777172857e+00 -1.3591584013761449e+00 -6.8385603503850340e-04 
      </Row>
      <Row Index="2">
        -6.2499517691176232e-01 -3.4508885133628819e-01 2.7574171281257760e+00 1.9202472155972462e-02 4.1322098704870414e-01 3.6552052102261084e-01 -7.8851836834926281e-01 9.9510972949895388e-02 8.1445719708663278e-01 1.0792952795545165e+00 -2.3792316201163741e+00 -2.6041253031214739e-01 5.9718284211646522e-01 4.5144239321311602e-01 -5.5417258918042422e-01 -9.7407176300747772e-02 4.8667845807852628e-01 5.0752093142688859e-02 -5.7369648773601944e-01 2.3328016903243604e-01 -8.5160754301778541e-01 2.5185654600079270e+00 -5.9293362283256734e-01 -4.2749749890219024e-01 -6.5511029408828092e-01 9.9347918092487919e-01 -1.4164430426982437e+00 8.3419438956014957e-01 1.7405511589752409e+00 5.7727839509596235e-01 1.8532624901015893e+00 -3.8335866771679034e-01 1.7983864792544180e+00 -3.9954955490200543e+00 -2.1375075400706711e-01 2.9624792093039831e-01 -4.4309947636628593e+00 -6.0933356157654650e-01 4.7922442361596151e-02 
      </Row>
      <Row Index="3">
        1.7737928180820184e+00 4.3375571707008298e-01 1.9202472158236228e-02 5.1241011323986649e+00 8.3859478919711361e-01 4.0526084380765204e-01 -6.3274551388154121e-01 2.2256075634891701e+00 1.7236724540372719e+00 -5.9713257207557957e-01 -7.2323044104846967e-01 2.0810292778821502e+00 2.2754575853365626e+00 -1.0535642297688990e+00 2.5991464394934227e-01 4.6737267500551969e+00 1.4819127447041465e+00 4.0215705640840327e-01 1.7534721360252470e-02 5.6534042578033059e+00 1.8176473325963207e+00 -9.7354264299500926e-01 -1.2996763033767694e-01 -2.6352513452628106e+00 -3.0972718399168175e+00 -2.0589851043644813e+00 -2.5597430162817534e+00 -1.6600380828730903e+00 1.9732141627900077e+00 7.0676912569842383e+00 3.5051698647988994e-01 4.5094897370150194e-01 -4.7401242161817780e+00 9.2698449266225840e+00 -3.3057463797836211e+00 -6.9746694354839738e+00 1.4628750034848931e+01 3.3127439263289573e+00 1.7485750925743310e-02 
      </Row>
      <Row Index="4">
        5.8071277893137019e+00 6.3913968857171177e-01 4.1322098706484672e-01 8.3859478920034625e-01 1.6111305138172991e+01 1.8425169963604326e+00 -2.1225742608380105e+00 1.6440281485906267e+00 -5.3938588204528237e-02 2.0124487319848444e-01 -5.0577051267599749e-01 2.5953512202038875e-01 1.4184230887940911e+01 2.2400319433330527e+00 -1.4451618771857431e+00 1.8227067909014343e+00 1.2540759914615325e+01 1.3986769193981119e+00 -1.4436809062043559e+00 1.5745301437230710e+00 -2.8529724991724528e+01 -7.9424052061634143e-01 4.5137182376622729e+00 1.0100005050532050e+00 4.6949399461031116e-01 -4.1572832038355765e+00 -2.1467813744633641e+00 -2.0308763548435733e+00 2.8221819719258412e+00 7.9829902708239531e-02 9.3603282351870276e-01 -1.7416738481948554e-01 4.8830011834334197e+00 -1.0886066094778393e+00 -2.8589023470023482e+00 -5.9771055479494350e-01 -1.7227751604735531e+00 5.4359215781118850e+00 -1.0617341850653615e-01 
      </Row>
      <Row Index="5">
        4.2213959107414201e-01 8.9985621607499233e-02 3.6552052102577037e-01 4.0526084381637134e-01 1.8425169963693371e+00 1.4333718453986535e+00 -2.9305445909307704e-01 5.3164130123736453e-01 4.6454761967096836e-01 1.4683192404040568e-01 -1.0896542827430049e+00 3.3446244220515797e-01 1.7974078256892214e+00 8.2306852967410549e-01 1.4991410000474686e-01 7.3223758021631458e-01 1.7112299289988107e+00 1.0055536319621337e+00 -3.9446070965161917e-01 7.2685321847486539e-01 -1.6320464347088814e+00 -9.5789622533637020e-01 1.8441639522861228e+00 -3.1097307510047678e-01 -8.7767533126886654e-01 -2.0812827041057362e+00 -1.1348308228341755e+00 -9.6034316411543696e-01 1.8062910367805241e+00 5.4876893252918213e-01 2.3789338570066879e-01 1.0527941655696461e-01 3.1811189194479683e-01 1.7040161534489329e+00 -2.8767555585235898e+00 -7.9520345271136839e-01 2.4399532388287746e+00 3.3453462093098172e+00 -2.6021260513189801e-02 
      </Row>
      <Row Index="6">
        -9.6744784696034025e-01 3.2414997453978955e-01 -7.8851836835168143e-01 -6.3274551389761868e-01 -2.1225742608654738e+00 -2.9305445909603822e-01 1.6612970830787372e+00 -6.5509954532059511e-01 -2.5917045760595236e-01 -5.0287824351850219e-01 1.2644431163189269e+00 -1.9846189400085334e-01 -1.7651687285150988e+00 1.1914254504877786e-01 1.0024586678470577e+00 -7.4693253606131460e-01 -2.1465766821257741e+00 -5.8702526188596105e-01 1.1134405932436979e+00 -1.0287525946211886e+00 4.0873004291595683e+00 -1.7254922079598012e-01 -3.8976587520883710e-01 -4.3016404599003588e-01 -9.8025864742466462e-01 2.3884872209422952e+00 7.3480228565673511e-01 4.1980727074567092e-01 -2.8355745720205130e+00 -6.9707080422999190e-01 5.1146152188204386e-01 -2.6485322938455175e-01 -8.8226417866122153e-01 -4.1232933718103464e+00 4.3563739494724505e+00 -3.1366643145933160e-01 -6.7586305815391734e+00 -4.8286827096557490e+00 2.9984616878232485e-02 
      </Row>
      <Row Index="7">
        1.5179718799571997e+00 1.4251571214091108e-01 9.9510972952127741e-02 2.2256075634943664e+00 1.6440281485905248e+00 5.3164130123292752e-01 -6.5509954531061820e-01 1.6298117590991044e+00 9.2968762246175296e-01 -1.5333622019929649e-01 -4.1322386410899947e-01 9.8738372356388704e-01 2.1578956298367991e+00 8.5916547685994715e-02 -3.4724926765540232e-02 2.5412876795264365e+00 2.3529600803919442e+00 5.1615835968852697e-01 -2.0103785164973154e-01 2.9621840166312809e+00 -1.1184471357686929e+00 -3.7044497529408660e-01 5.7021003282959881e-01 -8.2485840385578402e-01 -1.4928248290584252e+00 -1.4095427475713560e+00 -1.5143104187927168e+00 -1.2363762989256197e+00 1.2775204071667738e+00 3.0865429236081376e+00 6.9294270591344231e-01 2.5336504026540774e-01 -1.2661066982960745e+00 4.8561343393500991e+00 -2.2284218858753131e+00 -2.7835070613898143e+00 7.6355779976073439e+00 2.4139026444231622e+00 -1.2467689942832379e-03 
      </Row>
      <Row Index="8">
        -8.8323452707616168e-01 2.1552425061725167e-02 8.1445719708768038e-01 1.7236724540481780e+00 -5.3938588202980392e-02 4.6454761966953573e-01 -2.5917045760201274e-01 9.2968762246562853e-01 2.4723281309569316e+00 -1.4860600215609665e-01 -1.2044781910247380e+00 6.0008846290113904e-01 8.2980336066511828e-01 -2.7112155471644844e-01 7.9118017303118104e-01 1.4687597893503690e+00 5.8369980791792664e-01 3.1911983341131545e-01 3.1295743190800540e-01 2.0794857277488772e+00 1.5195177553898545e+00 6.7270204896873453e-01 -2.9006413858530816e-01 -8.3997894299471421e-01 -1.6512482421388819e-01 -2.1504649422575710e+00 -2.2922730032854721e+00 -3.3425558220443086e-01 2.1410431312518470e+00 2.6022381350035908e+00 -1.4674713911392320e-01 4.1091939136460998e-01 -6.9001447801591587e-01 2.1910155176628137e+00 -3.0147165252669539e+00 -1.4729028789748790e+00 3.4419386157711038e+00 3.4805264878202395e+00 2.6171296447010366e-03 
      </Row>
      <Row Index="9">
        -2.7322986735042520e-01 -9.8544786736039991e-01 1.0792952795528927e+00 -5.9713257206910220e-01 2.0124487320125903e-01 1.4683192404312906e-01 -5.0287824352194710e-01 -1.5333622019476156e-01 -1.4860600215211611e-01 1.3783261400932989e+00 -8.7301933306790303e-01 -5.2611876262094970e-01 2.3750605395275837e-01 1.2093185310286212e+00 -2.1447090845541344e-01 -4.7637211520087924e-01 2.8125454610185902e-01 7.3910159918434526e-01 -3.6686062194909907e-01 -5.0704941084400579e-01 -1.8259103219580979e+00 9.9411854149339107e-01 -2.7571776432589340e-01 8.5202189251659455e-01 1.0571189699787080e+00 1.3000688829928801e+00 6.1394565396808942e-01 1.1725567832637986e+00 1.0557996624855450e+00 -1.1184414448503992e+00 3.5272094628496808e-01 -2.8600796576030824e-01 1.7832141948289693e+00 -5.6569938315469859e-01 -1.3230099209161996e+00 2.6031977888148332e+00 -1.0026783514279438e+00 3.1480792337774305e-01 1.8204202904478634e-02 
      </Row>
      <Row Index="10">
        1.0176090789062071e+00 7.9111284744098498e-01 -2.3792316201185590e+00 -7.2323044107382517e-01 -5.0577051271648854e-01 -1.0896542827493505e+00 1.2644431163261309e+00 -4.1322386412541229e-01 -1.2044781910320435e+00 -8.7301933306383717e-01 4.7263971372083242e+00 -4.4115257641988670e-01 -6.2651344687760080e-01 1.0099707249726668e+00 1.1517716615467268e+00 -6.7007914730687457e-01 -1.1927306476638377e-01 -8.0439846166971318e-01 2.0007642081327108e+00 -1.0648892656429996e+00 2.9993480320768207e-02 -2.9575455840579434e-01 2.2751163493555404e-01 1.4917704462237951e+00 -4.0052706119042114e-01 3.8740063452151290e+00 2.4359685040484980e+00 -3.7084894770549159e-02 -5.4516006969666835e+00 -1.4212405945857260e+00 6.9920496998640180e-01 -3.5411038633640324e-01 -9.8753244299532894e-01 -3.6171701835242231e+00 8.1810547330384153e+00 2.3437658965584518e-01 -7.0589749118851675e+00 -8.2840153710305167e+00 1.9938603378490891e-02 
      </Row>
      <Row Index="11">
        8.0561840372427007e-01 2.0814659215659148e-01 -2.6041253030931055e-01 2.0810292778837294e+00 2.5953512203744389e-01 3.3446244220262766e-01 -1.9846189399451508e-01 9.8738372356275761e-01 6.0008846289550632e-01 -5.2611876262509583e-01 -4.4115257640760164e-01 1.8971183069801887e+00 5.1433700763650947e-01 -6.3917248084247058e-01 7.7339721586727350e-01 2.5052078825743478e+00 2.0024796384482441e-01 3.3230297871527770e-01 1.5977245778992294e-01 2.8199977433071073e+00 2.5617539777129696e+00 -1.1900805551989424e+00 3.3314292971093812e-01 -1.5325523377156252e+00 -3.0660473313991972e+00 -2.4526700683302911e+00 -2.2261613880891620e+00 -2.4022021814895189e+00 1.1031355146628112e+00 3.6602301655320555e+00 1.2125541143604839e+00 5.8375340411537335e-01 -3.7340923607765397e+00 8.5042286548335024e+00 -2.9860526301441390e+00 -5.8331290419525414e+00 1.3246396919596897e+01 3.4706176075568158e+00 -3.2410938696662839e-03 
      </Row>
      <Row Index="12">
        5.2556494752408103e+00 4.7484025710152888e-01 5.9718284212965123e-01 2.2754575853391517e+00 1.4184230887921885e+01 1.7974078256786843e+00 -1.7651687284869146e+00 2.1578956298345444e+00 8.2980336066251636e-01 2.3750605394835489e-01 -6.2651344684022015e-01 5.1433700762265389e-01 1.4587239347903258e+01 2.1235762144173553e+00 -1.3842461976559881e+00 3.1771479263221973e+00 1.1695386610818383e+01 1.7162412374217522e+00 -1.3492000999038047e+00 3.0168233498783974e+00 -2.5256974270240114e+01 5.8767207649717079e-01 4.5439868588130681e+00 -1.5860369057014960e+00 -1.2643833062230014e+00 -1.9012173159835546e+00 -1.8025415356327941e+00 -5.7140690310176989e-01 2.2423345334561309e+00 1.8764475371817584e+00 9.4199543964381949e-01 -1.8146560231404640e-01 4.2154897111280363e+00 -5.6557337412313657e-01 -3.3460748504093774e+00 -1.1075814926652594e+00 -6.3635160670223456e-01 3.9434231068690941e+00 -6.1678261983705900e-02 
      </Row>
      <Row Index="13">
        5.9776936128375691e-01 -8.0618015746239458e-01 4.5144239321189505e-01 -1.0535642297797922e+00 2.2400319432923523e+00 8.2306852966704724e-01 1.1914254505987770e-01 8.5916547677073726e-02 -2.7112155472048016e-01 1.2093185310294601e+00 1.0099707249814236e+00 -6.3917248085017264e-01 2.1235762143859249e+00 4.3601872514068205e+00 5.4920813284529346e-01 -3.8487243237310231e-01 2.4596023675464340e+00 1.3912505788905511e+00 7.9654832458050440e-01 -7.8524770540987665e-01 -4.8385687266097284e+00 -1.5765737568543159e-02 2.4170812030584061e+00 2.2099968961996646e+00 1.2986311803931154e+00 4.3133116397862326e+00 1.1014976350210921e+00 1.8757882439006803e+00 -2.1262688631554321e+00 -2.5245644391928255e+00 1.5359639421828208e+00 -3.9646684995907400e-01 2.2895829651559039e+00 -5.8526548638407556e+00 3.7433532413457788e+00 3.0346960268202166e+00 -1.1018769379507155e+01 -5.3389071134093760e+00 1.5312745606951374e-02 
      </Row>
      <Row Index="14">
        -3.9885347118585412e-01 4.7593654768381111e-01 -5.5417258917829570e-01 2.5991464395070585e-01 -1.4451618771645425e+00 1.4991410000730188e-01 1.0024586678458052e+00 -3.4724926764828627e-02 7.9118017303048971e-01 -2.1447090845661876e-01 1.1517716615450520e+00 7.7339721586850030e-01 -1.3842461976381188e+00 5.4920813284740588e-01 3.9244541729563758e+00 4.7133795736612605e-01 -1.3666563102363365e+00 7.5055469638891492e-01 2.5162044296662991e+00 4.3432126326288267e-01 4.5990332294791454e+00 -1.7421234305472266e+00 -8.9193559863723970e-01 1.3241470865211928e+00 -1.8229723289048958e+00 -2.8756027442364318e+00 -1.3564637469777232e+00 -1.9675421617738176e+00 5.6837639071406931e-01 1.1480954506213026e+00 6.4732682224060145e-01 4.6336703102076715e-02 -3.7577803946363391e+00 6.0325827896216566e+00 -1.4342385804390485e+00 -3.4942939079572590e+00 7.3385759577803746e+00 3.3648301828678844e+00 -1.2183502151547392e-02 
      </Row>
      <Row Index="15">
        2.2575438796690781e+00 2.9688141281346603e-01 -9.7407176296988585e-02 4.6737267500614266e+00 1.8227067909091657e+00 7.3223758020931484e-01 -7.4693253604515719e-01 2.5412876795245887e+00 1.4687597893415281e+00 -4.7637211520944334e-01 -6.7007914728071927e-01 2.5052078825763964e+00 3.1771479263303251e+00 -3.8487243236019286e-01 4.7133795736555784e-01 5.1575772230050356e+00 2.6101580476976665e+00 9.9227288744118725e-01 -6.8858793705928734e-02 5.8400214911457331e+00 9.2964987547425282e-01 -1.0207052100097929e+00 6.6217559505320156e-01 -2.8553883378957012e+00 -4.6351980284540115e+00 -2.5915526188059719e+00 -2.9545718831736174e+00 -2.6412993974137384e+00 2.1557259310689929e+00 6.7932123058670699e+00 1.4643543586512919e+00 5.5232489159834053e-01 -4.4881321010803150e+00 1.2743184589779432e+01 -4.7265516821320812e+00 -7.6937806927770218e+00 1.9981908655078559e+01 4.8034103474872625e+00 3.1679477215651869e-03 
      </Row>
      <Row Index="16">
        5.4542579633908641e+00 4.5863576256511962e-01 4.8667845809083987e-01 1.4819127447143332e+00 1.2540759914608179e+01 1.7112299289898942e+00 -2.1465766820997692e+00 2.3529600803941255e+00 5.8369980791698062e-01 2.8125454609634915e-01 -1.1927306472795740e-01 2.0024796383712085e-01 1.1695386610828507e+01 2.4596023675789582e+00 -1.3666563102491212e+00 2.6101580476992954e+00 1.1810610791520931e+01 1.4021144663989169e+00 -1.2281087896640803e+00 2.4194360444953071e+00 -2.0981857785609826e+01 -1.8998190074649313e-01 3.8477556488815132e+00 8.2866666655417598e-01 -1.8863977969621493e-01 -2.9662768993038293e+00 -1.7752599822446635e+00 -1.8684230094868561e+00 2.2828396467039749e+00 6.5949331013362456e-01 1.0494129096272298e+00 -1.5109901933695902e-01 4.3231971335651487e+00 1.6295150666480573e-01 -2.2000687505363841e+00 -9.1017720824847714e-02 2.1657093408461581e-01 4.1033696552202725e+00 -9.0825916085347791e-02 
      </Row>
      <Row Index="17">
        3.1249661991591138e-01 -3.4119237575858463e-01 5.0752093145112226e-02 4.0215705643993038e-01 1.3986769194541564e+00 1.0055536319761202e+00 -5.8702526189464166e-01 5.1615835970735768e-01 3.1911983342445271e-01 7.3910159917626572e-01 -8.0439846168035256e-01 3.3230297873767656e-01 1.7162412374755425e+00 1.3912505788924392e+00 7.5055469639630112e-01 9.9227288747741671e-01 1.4021144664441541e+00 2.9936142021934198e+00 -1.2737576714877191e-01 8.2633525731926571e-01 -2.2338135174903511e+00 -1.2276793541880937e+00 1.1510197156441713e+00 9.3272547131741212e-02 -2.4752361777018224e+00 -1.3976832180209160e+00 -3.0885937293491328e-01 -1.2327371348183003e+00 2.9686434230135648e+00 1.0974965043146734e-01 -2.3686545939150330e+00 2.4603433564096377e-01 -1.1725378791151064e-01 1.8572578802050899e+01 -8.1058224633368852e+00 4.1034458598611551e-01 2.7895819517793043e+01 6.8797664471798248e+00 -5.6376306200149884e-02 
      </Row>
      <Row Index="18">
        -3.3389955652077319e-01 5.0100420402587353e-01 -5.7369648773699655e-01 1.7534721347876037e-02 -1.4436809062228173e+00 -3.9446070965501923e-01 1.1134405932477962e+00 -2.0103785165877247e-01 3.1295743190304459e-01 -3.6686062194754498e-01 2.0007642081324777e+00 1.5977245778445948e-01 -1.3492000999213709e+00 7.9654832457579561e-01 2.5162044296676833e+00 -6.8858793719632327e-02 -1.2281087896845584e+00 -1.2737576714696697e-01 2.3827162649819837e+00 -2.8292464634157279e-02 3.2242076985309178e+00 -1.0377194445616007e+00 -7.2838804509459876e-01 1.2824786939132340e+00 -5.7404263600463734e-01 7.7429739301436595e-01 3.9619846559579841e-03 -3.9576918018324192e-01 -1.7861509468252934e+00 3.8972433889336500e-01 6.6141911511760032e-01 -1.4357503020710416e-01 -2.3233227973918575e+00 6.9584396441491947e-02 3.5640708240115528e+00 -1.5868387246946134e+00 -1.5605603083692547e+00 -2.8842539517587586e+00 1.8085128662100644e-02 
      </Row>
      <Row Index="19">
        2.0483989980431572e+00 2.7395602275036168e-01 2.3328016903559912e-01 5.6534042578088766e+00 1.5745301437248045e+00 7.2685321846503648e-01 -1.0287525946016465e+00 2.9621840166278930e+00 2.0794857277371501e+00 -5.0704941085322375e-01 -1.0648892656108309e+00 2.8199977433080772e+00 3.0168233498811556e+00 -7.8524770539474531e-01 4.3432126326191534e-01 5.8400214911436494e+00 2.4194360444881142e+00 8.2633525727801949e-01 -2.8292464617646951e-02 7.0782379920470051e+00 1.6961858701332748e+00 -8.4780824742724004e-01 2.2427211116535933e-01 -3.0423917547220305e+00 -4.1405903904568442e+00 -2.9369195563120298e+00 -3.6780674866462246e+00 -2.5957856422888836e+00 2.8855111275159819e+00 8.6012636799884223e+00 1.8629856914831660e+00 6.6069591604485378e-01 -5.1376056121313223e+00 1.2506375898700586e+01 -5.2468015798051120e+00 -8.6173878829782939e+00 1.9729477275874899e+01 5.2735453517785471e+00 3.2406394234933120e-02 
      </Row>
      <Row Index="20">
        -9.3141629733239739e+00 3.9877139261880989e-01 -8.5160754303194730e-01 1.8176473325726121e+00 -2.8529724991681316e+01 -1.6320464347032264e+00 4.0873004291311794e+00 -1.1184471357833865e+00 1.5195177553718533e+00 -1.8259103219588635e+00 2.9993480282357932e-02 2.5617539777286824e+00 -2.5256974270243045e+01 -4.8385687266545627e+00 4.5990332295066692e+00 9.2964987545704614e-01 -2.0981857785609080e+01 -2.2338135174640747e+00 3.2242076985115582e+00 1.6961858701066082e+00 6.3559357659775046e+01 -2.9783228430968478e-02 -7.9735064700228273e+00 -5.7970779977923099e+00 -1.3213859424451890e+01 6.9880466453757595e-01 -3.3346317025727004e+00 -5.0017192465803220e+00 -2.0225058362564199e+00 9.5487497304328048e+00 1.7735855538537346e+00 7.4934303397735658e-02 -1.8386703853145466e+01 2.2030575327029837e+01 8.5912561841452728e-01 -1.8320252600257309e+01 3.6185941621693573e+01 -1.5336223742238191e+00 1.9518002059646536e-01 
      </Row>
      <Row Index="21">
        -1.7437205600343098e+00 8.6950672280035946e-02 2.5185654600060543e+00 -9.7354264302064486e-01 -7.9424052067580253e-01 -9.5789622533999541e-01 -1.7254922079635282e-01 -3.7044497531139187e-01 6.7270204896787344e-01 9.9411854150064016e-01 -2.9575455842548415e-01 -1.1900805552062814e+00 5.8767207643890984e-01 -1.5765737588989026e-02 -1.7421234305412376e+00 -1.0207052100347749e+00 -1.8998190080316718e-01 -1.2276793541673179e+00 -1.0377194445679230e+00 -8.4780824745592187e-01 -2.9783228352583180e-02 1.4602609910230813e+01 -1.5520655067609452e+00 -3.9584771700120500e+00 -1.1872269849300723e+01 8.1357569126739548e+00 -1.2138634393133967e+00 -1.3144645148746399e+00 -3.1500752450373573e+00 7.2938601340839360e-01 7.0706556636967841e+00 -1.3164649965160375e+00 5.0030793142988665e+00 -1.9648812946191860e+00 5.9672462056108628e+00 -1.0922846487384064e-02 5.2116641533670105e+00 -1.0017537191917052e+01 1.8400043654568235e-01 
      </Row>
      <Row Index="22">
        1.5553500945720289e+00 -9.4027644706000224e-02 -5.9293362283038542e-01 -1.2996763033640413e-01 4.5137182376361027e+00 1.8441639522815843e+00 -3.8976587519858669e-01 5.7021003282759908e-01 -2.9006413858518676e-01 -2.7571776432837503e-01 2.2751163494467730e-01 3.3314292970913506e-01 4.5439868587958605e+00 2.4170812030601474e+00 -8.9193559863995231e-01 6.6217559505184020e-01 3.8477556488624352e+00 1.1510197156323128e+00 -7.2838804508891442e-01 2.2427211116527096e-01 -7.9735064699817819e+00 -1.5520655067398668e+00 5.9950209850833254e+00 -2.5228517065263245e-01 -6.4684200640069411e-02 1.5332734219444388e+00 5.5201722491294225e-01 2.7137467127985904e-01 -1.7683547986549741e+00 -2.0337515414819798e+00 2.3408448155147088e-02 8.4928122946977513e-01 2.4275146541198152e+00 -2.3571583270695031e+00 7.8432775409130562e-01 2.0433864576513656e+00 -4.7797340009732032e+00 -2.7745986592578853e+00 -3.8041337243458498e-02 
      </Row>
      <Row Index="23">
        5.6834684893878840e-01 -7.1133618122311537e-01 -4.2749749890500166e-01 -2.6352513452528443e+00 1.0100005050597600e+00 -3.1097307509839600e-01 -4.3016404599358254e-01 -8.2485840384652087e-01 -8.3997894298938669e-01 8.5202189251916094e-01 1.4917704462279191e+00 -1.5325523377157271e+00 -1.5860369056882688e+00 2.2099968962080783e+00 1.3241470865181146e+00 -2.8553883378825784e+00 8.2866666657295951e-01 9.3272547149420681e-02 1.2824786939143733e+00 -3.0423917547088362e+00 -5.7970779978238909e+00 -3.9584771700121202e+00 -2.5228517063931233e-01 7.7205706716660023e+00 1.1200464561227818e+01 -1.9409080646048262e+00 2.5374181510247733e+00 2.9503565240944218e+00 1.5524473900463082e-01 -6.0579419308497133e+00 -1.9076303151614975e+00 1.0858574842256863e-01 2.7013859041821715e+00 -1.3006285743918681e+01 2.2150662845243732e+00 8.5070692270104438e+00 -2.4647960702575176e+01 5.6350222651761150e-01 -8.6279892538202743e-02 
      </Row>
      <Row Index="24">
        -1.8777212988761089e+00 -2.3685591544528957e+00 -6.5511029410552479e-01 -3.0972718399461190e+00 4.6949399447850404e-01 -8.7767533131515973e-01 -9.8025864740083579e-01 -1.4928248290630621e+00 -1.6512482424282457e-01 1.0571189699971995e+00 -4.0052706110022329e-01 -3.0660473314681576e+00 -1.2643833063257377e+00 1.2986311804426600e+00 -1.8229723289708220e+00 -4.6351980284990093e+00 -1.8863977973134410e-01 -2.4752361777412086e+00 -5.7404263599014516e-01 -4.1405903905042729e+00 -1.3213859424504889e+01 -1.1872269849252213e+01 -6.4684200621798138e-02 1.1200464561320306e+01 5.7322373273195467e+01 -4.7486069123588397e+00 7.9879747314060285e+00 2.6259559704574922e+01 1.9249617313370468e-01 -1.0906254707170781e+01 -1.7425520004775517e+00 4.5168474195626773e-01 7.8230248861962002e+00 -1.2256444666863558e+02 5.6647960468632901e+00 2.2682138593821371e+01 -2.0522865938578212e+02 2.2348128125275216e-01 -2.4864244159863630e-02 
      </Row>
      <Row Index="25">
        -1.1751548177213795e+00 -9.6689045709312893e-01 9.9347918090526122e-01 -2.0589851044639254e+00 -4.1572832040692731e+00 -2.0812827041310129e+00 2.3884872209617551e+00 -1.4095427476395259e+00 -2.1504649422801485e+00 1.3000688830126137e+00 3.8740063451844069e+00 -2.4526700683664995e+00 -1.9012173161978936e+00 4.3133116397190960e+00 -2.8756027442203749e+00 -2.5915526189029805e+00 -2.9662768995164148e+00 -1.3976832179461811e+00 7.7429739300257694e-01 -2.9369195564325192e+00 6.9880466482781411e-01 8.1357569127218596e+00 1.5332734218820150e+00 -1.9409080646336714e+00 -4.7486069127517148e+00 3.1916725689260169e+01 6.5540829053959797e+00 7.4237025147727991e+00 -1.8612083909009794e+01 -4.3589151518568041e+00 4.6671616950460120e+00 -1.6923560742023867e+00 5.8911335117950472e+00 -1.7661005381621020e+01 2.7881752245160321e+01 8.5047760786835518e+00 -2.4495965668387846e+01 -4.5111691849265341e+01 4.5046342177421594e-01 
      </Row>
      <Row Index="26">
        -4.5067813985292404e-01 -9.2498014675821238e-01 -1.4164430427101768e+00 -2.5597430162778423e+00 -2.1467813745030786e+00 -1.1348308228286754e+00 7.3480228564310734e-01 -1.5143104187881757e+00 -2.2922730032745351e+00 6.1394565397236533e-01 2.4359685040230974e+00 -2.2261613880804756e+00 -1.8025415356662258e+00 1.1014976349949261e+00 -1.3564637469675915e+00 -2.9545718831598640e+00 -1.7752599822654169e+00 -3.0885937287818988e-01 3.9619846457874530e-03 -3.6780674866361429e+00 -3.3346317025020413e+00 -1.2138634393286125e+00 5.5201722490328464e-01 2.5374181510081844e+00 7.9879747311568350e+00 6.5540829052998024e+00 6.7658744786068326e+00 5.9399531211599665e+00 -4.5195465638976966e+00 -7.1944788388848426e+00 -2.9133819125524756e+00 -9.3081127879267811e-02 5.1034844241305208e+00 -1.3876719750774063e+01 5.9467447966345048e+00 1.2523668810566386e+01 -2.4106578716024799e+01 -9.0044441835597357e+00 -2.5695191028204181e-03 
      </Row>
      <Row Index="27">
        -2.3291662827756205e+00 -1.5436116709364676e+00 8.3419438954476099e-01 -1.6600380829181001e+00 -2.0308763549814706e+00 -9.6034316414675658e-01 4.1980727076146629e-01 -1.2363762989477578e+00 -3.3425558222627139e-01 1.1725567832791484e+00 -3.7084894735621265e-02 -2.4022021815363508e+00 -5.7140690322088972e-01 1.8757882439043847e+00 -1.9675421618060673e+00 -2.6412993974666676e+00 -1.8684230095673362e+00 -1.2327371348215097e+00 -3.9576918018255469e-01 -2.5957856423494379e+00 -5.0017192465226197e+00 -1.3144645148433227e+00 2.7137467126897263e-01 2.9503565241406231e+00 2.6259559704509741e+01 7.4237025149534155e+00 5.9399531213184611e+00 1.8216318805464592e+01 -4.3482747293696740e+00 -5.9427383961103981e+00 8.2883846756316615e-01 -5.9707498728556097e-01 5.6700772038588898e+00 -7.0289355691232132e+01 8.7603488421801536e+00 1.3202332071774002e+01 -1.1471391566198201e+02 -1.1412484948512045e+01 1.3089792184765714e-01 
      </Row>
      <Row Index="28">
        -2.8198674199848295e-01 -8.8897566558620866e-01 1.7405511589864204e+00 1.9732141628846058e+00 2.8221819721149819e+00 1.8062910368108689e+00 -2.8355745720449290e+00 1.2775204072282595e+00 2.1410431312808420e+00 1.0557996624666828e+00 -5.4516006969652242e+00 1.1031355147113970e+00 2.2423345336312224e+00 -2.1262688631181845e+00 5.6837639071554413e-01 2.1557259311688206e+00 2.2828396468716061e+00 2.9686434229809082e+00 -1.7861509468218699e+00 2.8855111276350343e+00 -2.0225058364371691e+00 -3.1500752450971419e+00 -1.7683547986094510e+00 1.5524473900265806e-01 1.9249617337541913e-01 -1.8612083909114201e+01 -4.5195465640174532e+00 -4.3482747292839292e+00 1.6266068700740696e+01 4.1855553234741727e+00 -5.3502429665766797e+00 9.0961488561800152e-01 -1.7356784931093050e+00 2.9175284587912561e+01 -2.5694837069356449e+01 -3.2781038078051585e+00 4.4836728442381613e+01 3.3408034579637352e+01 -2.5907848454899435e-01 
      </Row>
      <Row Index="29">
        1.6506169032993041e+00 1.0549742018193307e+00 5.7727839510693180e-01 7.0676912569569366e+00 7.9829902728429838e-02 5.4876893251201331e-01 -6.9707080420106560e-01 3.0865429235862361e+00 2.6022381349746810e+00 -1.1184414448563800e+00 -1.4212405945396942e+00 3.6602301655105403e+00 1.8764475371925720e+00 -2.5245644391624680e+00 1.1480954506082075e+00 6.7932123058239808e+00 6.5949331012694745e-01 1.0974965035059447e-01 3.8972433891034353e-01 8.6012636799443669e+00 9.5487497303835962e+00 7.2938601344803367e-01 -2.0337515414801484e+00 -6.0579419308306566e+00 -1.0906254706888364e+01 -4.3589151516806819e+00 -7.1944788388679690e+00 -5.9427383959098066e+00 4.1855553232809655e+00 1.5593454022016143e+01 3.4391342019798063e+00 -2.5127947805464679e-01 -1.1414747248062080e+01 2.1301683951130077e+01 -6.4511167094730482e+00 -2.0717329273006268e+01 3.5675140189048847e+01 7.8068223789317077e+00 1.3389541301392843e-01 
      </Row>
      <Row Index="30">
        8.7094396754426429e-01 9.8817138491776291e-01 1.8532624901013830e+00 3.5051698640061346e-01 9.3603282337403393e-01 2.3789338565842932e-01 5.1146152192025995e-01 6.9294270586246109e-01 -1.4674713915311877e-01 3.5272094630009576e-01 6.9920497003566240e-01 1.2125541142985670e+00 9.4199543951048170e-01 1.5359639421945879e+00 6.4732682221299442e-01 1.4643543585527947e+00 1.0494129095070972e+00 -2.3686545939599664e+00 6.6141911513142659e-01 1.8629856913752443e+00 1.7735855539223309e+00 7.0706556637689602e+00 2.3408448130798121e-02 -1.9076303151169931e+00 -1.7425520004124349e+00 4.6671616953249124e+00 -2.9133819123995277e+00 8.2883846767230551e-01 -5.3502429667601508e+00 3.4391342017853095e+00 1.5775791322832596e+01 -1.5605043356650938e+00 1.0664965247771341e-01 -4.1030295800942696e+01 1.3342883288649512e+01 -6.6786542810610703e+00 -6.0527427963056333e+01 -1.3039388503816836e+01 2.5768690983086301e-01 
      </Row>
      <Row Index="31">
        -1.3004981003783911e-01 -4.6458414808399429e-01 -3.8335866771776006e-01 4.5094897372108700e-01 -1.7416738479775001e-01 1.0527941656291517e-01 -2.6485322938965339e-01 2.5336504027628109e-01 4.1091939137124500e-01 -2.8600796576496634e-01 -3.5411038634107050e-01 5.8375340412940369e-01 -1.8146560229351572e-01 -3.9646684996172787e-01 4.6336703108361868e-02 5.5232489162064313e-01 -1.5109901931825334e-01 2.4603433564625332e-01 -1.4357503020671580e-01 6.6069591606984190e-01 7.4934303401387847e-02 -1.3164649965273707e+00 8.4928122947216256e-01 1.0858574841054169e-01 4.5168474192583952e-01 -1.6923560742410004e+00 -9.3081127910246586e-02 -5.9707498731266551e-01 9.0961488564088022e-01 -2.5127947800785178e-01 -1.5605043356592101e+00 1.0418127163701985e+00 -2.3972616863253249e-01 6.4170329914234685e+00 -2.8879037353632926e+00 1.0006444913264025e+00 9.2406904323794130e+00 2.7273781256791874e+00 -5.2928419848111238e-02 
      </Row>
      <Row Index="32">
        -1.0000211331398130e+00 -1.2328499351298969e+00 1.7983864792440811e+00 -4.7401242161433013e+00 4.8830011833699816e+00 3.1811189195554057e-01 -8.8226417867876528e-01 -1.2661066982729228e+00 -6.9001447798452364e-01 1.7832141948318281e+00 -9.8753244303015286e-01 -3.7340923607500618e+00 4.2154897110851408e+00 2.2895829651276216e+00 -3.7577803946212169e+00 -4.4881321010287811e+00 4.3231971335403019e+00 -1.1725378783836510e-01 -2.3233227973985029e+00 -5.1376056120750695e+00 -1.8386703853005855e+01 5.0030793142789953e+00 2.4275146541115618e+00 2.7013859041425778e+00 7.8230248858467100e+00 5.8911335116887997e+00 5.1034844241136508e+00 5.6700772036459313e+00 -1.7356784929600688e+00 -1.1414747248038832e+01 1.0664965230038437e-01 -2.3972616858706086e-01 1.6958910217880010e+01 -2.3612210821607757e+01 4.5861174690745621e+00 2.2484371259955708e+01 -3.5450920783853618e+01 -7.7389004682465359e+00 -2.3872227106965876e-02 
      </Row>
      <Row Index="33">
        3.6843789602215651e+00 -1.4256715558974520e+00 -3.9954955489783046e+00 9.2698449270535477e+00 -1.0886066085186428e+00 1.7040161537203176e+00 -4.1232933720002460e+00 4.8561343395852230e+00 2.1910155178793147e+00 -5.6569938327385216e-01 -3.6171701838738812e+00 8.5042286552589594e+00 -5.6557337327610924e-01 -5.8526548639586480e+00 6.0325827898878943e+00 1.2743184590316957e+01 1.6295150728549501e-01 1.8572578802273174e+01 6.9584396383454816e-02 1.2506375899289319e+01 2.2030575326820362e+01 -1.9648812950082970e+00 -2.3571583269891789e+00 -1.3006285744326220e+01 -1.2256444666884354e+02 -1.7661005383483761e+01 -1.3876719752001229e+01 -7.0289355691752064e+01 2.9175284589039101e+01 2.1301683952675155e+01 -4.1030295800630299e+01 6.4170329913430351e+00 -2.3612210823239788e+01 4.7135521627953028e+02 -8.1124565599476739e+01 -3.3983767234075593e+01 7.5154410215176154e+02 6.9777538620115649e+01 -7.7523731478578162e-01 
      </Row>
      <Row Index="34">
        7.3370963679862555e-01 2.5970880660569264e+00 -2.1375075402445987e-01 -3.3057463799795528e+00 -2.8589023474082547e+00 -2.8767555586015447e+00 4.3563739495389280e+00 -2.2284218860032547e+00 -3.0147165253367518e+00 -1.3230099208739148e+00 8.1810547330749532e+00 -2.9860526302623320e+00 -3.3460748507793241e+00 3.7433532413015911e+00 -1.4342385804593176e+00 -4.7265516823493599e+00 -2.2000687508841592e+00 -8.1058224633055254e+00 3.5640708240208383e+00 -5.2468015800580980e+00 8.5912561875349525e-01 5.9672462057607589e+00 7.8432775400759169e-01 2.2150662845524920e+00 5.6647960464442768e+00 2.7881752245567057e+01 5.9467447969366418e+00 8.7603488420879785e+00 -2.5694837069498739e+01 -6.4511167099137623e+00 1.3342883288336132e+01 -2.8879037353260557e+00 4.5861174694419802e+00 -8.1124565597623132e+01 5.3999757421130091e+01 4.7153777475609395e+00 -1.2446656555278764e+02 -6.0690288501711670e+01 4.1661884821201361e-01 
      </Row>
      <Row Index="35">
        -3.0791757082834166e+00 -3.1527190227384452e+00 2.9624792090130736e-01 -6.9746694353958443e+00 -5.9771055485653957e-01 -7.9520345268067061e-01 -3.1366643150880147e-01 -2.7835070613341926e+00 -1.4729028789154226e+00 2.6031977888151658e+00 2.3437658957979179e-01 -5.8331290418857193e+00 -1.1075814927018026e+00 3.0346960267574090e+00 -3.4942939079185606e+00 -7.6937806926569117e+00 -9.1017720826486403e-02 4.1034458614589087e-01 -1.5868387247146964e+00 -8.6173878828520429e+00 -1.8320252600039090e+01 -1.0922846559367372e-02 2.0433864576389258e+00 8.5070692269335026e+00 2.2682138593102458e+01 8.5047760783696411e+00 1.2523668810490271e+01 1.3202332071304035e+01 -3.2781038074498561e+00 -2.0717329272911737e+01 -6.6786542814300009e+00 1.0006444914141355e+00 2.2484371259890203e+01 -3.3983767230684258e+01 4.7153777467201792e+00 4.2109161890936839e+01 -5.7448390730857589e+01 -1.0199227709424761e+01 -1.0931843927781226e-01 
      </Row>
      <Row Index="36">
        5.6157817815485700e+00 -1.2075980774176571e+00 -4.4309947635943416e+00 1.4628750035510954e+01 -1.7227751589810922e+00 2.4399532392568517e+00 -6.7586305818392747e+00 7.6355779979660614e+00 3.4419386161110594e+00 -1.0026783516132127e+00 -7.0589749124508039e+00 1.3246396920264104e+01 -6.3635160539014635e-01 -1.1018769379704082e+01 7.3385759582059169e+00 1.9981908655909038e+01 2.1657093503534153e-01 2.7895819518152102e+01 -1.5605603084644883e+00 1.9729477276783712e+01 3.6185941621394420e+01 5.2116641527551906e+00 -4.7797340008596905e+00 -2.4647960703218217e+01 -2.0522865938610977e+02 -2.4495965671361489e+01 -2.4106578717963714e+01 -1.1471391566280562e+02 4.4836728444193227e+01 3.5675140191474952e+01 -6.0527427962585897e+01 9.2406904322530039e+00 -3.5450920786431546e+01 7.5154410215184066e+02 -1.2446656555578676e+02 -5.7448390736205873e+01 1.2056276686425895e+03 1.0473079296910090e+02 -1.1279075659727713e+00 
      </Row>
      <Row Index="37">
        3.2787477121387631e-01 -1.3591584012993678e+00 -6.0933356154804130e-01 3.3127439265430922e+00 5.4359215785919739e+00 3.3453462093851130e+00 -4.8286827097185014e+00 2.4139026445674108e+00 3.4805264878866211e+00 3.1480792333297813e-01 -8.2840153710296356e+00 3.4706176076652611e+00 3.9434231073070833e+00 -5.3389071133200474e+00 3.3648301828659628e+00 4.8034103477142622e+00 4.1033696556425854e+00 6.8797664470949513e+00 -2.8842539517564703e+00 5.2735453520489344e+00 -1.5336223747190587e+00 -1.0017537192061980e+01 -2.7745986591447149e+00 5.6350222652856985e-01 2.2348128188960459e-01 -4.5111691849546055e+01 -9.0044441838418905e+00 -1.1412484948288579e+01 3.3408034579647335e+01 7.8068223793694500e+00 -1.3039388503369267e+01 2.7273781256220246e+00 -7.7389004685734601e+00 6.9777538617236573e+01 -6.0690288501366723e+01 -1.0199227710241955e+01 1.0473079296447474e+02 8.0287450186001209e+01 -6.5564983374398933e-01 
      </Row>
      <Row Index="38">
        -4.0359656712461112e-02 -6.8385603580067844e-04 4.7922442361391232e-02 1.7485750923046883e-02 -1.0617341851099624e-01 -2.6021260514158207e-02 2.9984616879009302e-02 -1.2467689959800221e-03 2.6171296436506286e-03 1.8204202905001576e-02 1.9938603378957032e-02 -3.2410938712774395e-03 -6.1678261987938465e-02 1.5312745606537170e-02 -1.2183502151989599e-02 3.1679477185510008e-03 -9.0825916089350006e-02 -5.6376306200353520e-02 1.8085128662056138e-02 3.2406394231462896e-02 1.9518002059952289e-01 1.8400043654713660e-01 -3.8041337244490103e-02 -8.6279892537273750e-02 -2.4864244159747001e-02 4.5046342177830384e-01 -2.5695190990278061e-03 1.3089792184909088e-01 -2.5907848455093607e-01 1.3389541300833735e-01 2.5768690982848225e-01 -5.2928419847954600e-02 -2.3872227102546707e-02 -7.7523731478119462e-01 4.1661884821336886e-01 -1.0931843926789014e-01 -1.1279075659651618e+00 -6.5564983374816288e-01 1.3816780180368315e-02 
      </Row>
    </InverseHessian>
  </Weights>
</MethodSetup>
