<?xml version="1.0"?>
<MethodSetup Method="MLP::MLP">
  <GeneralInfo>
    <Info name="TMVA Release" value="4.1.2 [262402]"/>
    <Info name="ROOT Release" value="5.32/00 [335872]"/>
    <Info name="Creator" value="tomc"/>
    <Info name="Date" value="Thu Jan 10 14:47:49 2013"/>
    <Info name="Host" value="Linux lxbuild168.cern.ch 2.6.18-308.1.1.el5 #1 SMP Wed Mar 7 19:25:07 CET 2012 x86_64 x86_64 x86_64 GNU/Linux"/>
    <Info name="Dir" value="/user_mnt/user/tomc/QGTagger/training/f/6/aKDE03"/>
    <Info name="Training events" value="334857"/>
    <Info name="TrainingTime" value="1.29778854e+03"/>
    <Info name="AnalysisType" value="Classification"/>
  </GeneralInfo>
  <Options>
    <Option name="NCycles" modified="No">500</Option>
    <Option name="HiddenLayers" modified="No">N,N-1</Option>
    <Option name="NeuronType" modified="No">sigmoid</Option>
    <Option name="RandomSeed" modified="No">1</Option>
    <Option name="EstimatorType" modified="No">MSE</Option>
    <Option name="NeuronInputType" modified="No">sum</Option>
    <Option name="V" modified="Yes">False</Option>
    <Option name="VerbosityLevel" modified="No">Default</Option>
    <Option name="VarTransform" modified="Yes">N</Option>
    <Option name="H" modified="Yes">False</Option>
    <Option name="CreateMVAPdfs" modified="Yes">True</Option>
    <Option name="IgnoreNegWeightsInTraining" modified="No">False</Option>
    <Option name="TrainingMethod" modified="No">BP</Option>
    <Option name="LearningRate" modified="No">2.000000e-02</Option>
    <Option name="DecayRate" modified="No">1.000000e-02</Option>
    <Option name="TestRate" modified="Yes">3</Option>
    <Option name="EpochMonitoring" modified="No">False</Option>
    <Option name="Sampling" modified="No">1.000000e+00</Option>
    <Option name="SamplingEpoch" modified="No">1.000000e+00</Option>
    <Option name="SamplingImportance" modified="No">1.000000e+00</Option>
    <Option name="SamplingTraining" modified="No">True</Option>
    <Option name="SamplingTesting" modified="No">False</Option>
    <Option name="ResetStep" modified="No">50</Option>
    <Option name="Tau" modified="No">3.000000e+00</Option>
    <Option name="BPMode" modified="No">sequential</Option>
    <Option name="BatchSize" modified="No">-1</Option>
    <Option name="ConvergenceImprove" modified="No">1.000000e-30</Option>
    <Option name="ConvergenceTests" modified="No">-1</Option>
    <Option name="UseRegulator" modified="Yes">True</Option>
    <Option name="UpdateLimit" modified="No">10000</Option>
    <Option name="CalculateErrors" modified="No">False</Option>
    <Option name="WeightRange" modified="No">1.000000e+00</Option>
  </Options>
  <Variables NVar="4">
    <Variable VarIndex="0" Expression="axis1" Label="axis1" Title="axis1" Unit="" Internal="axis1" Type="F" Min="1.47072016e-04" Max="3.57722163e-01"/>
    <Variable VarIndex="1" Expression="axis2" Label="axis2" Title="axis2" Unit="" Internal="axis2" Type="F" Min="-1.28264225e-03" Max="2.22368136e-01"/>
    <Variable VarIndex="2" Expression="mult" Label="mult" Title="mult" Unit="" Internal="mult" Type="F" Min="7.84654260e-01" Max="2.87846546e+01"/>
    <Variable VarIndex="3" Expression="ptD" Label="ptD" Title="ptD" Unit="" Internal="ptD" Type="F" Min="1.94024727e-01" Max="1.00062001e+00"/>
  </Variables>
  <Spectators NSpec="0"/>
  <Classes NClass="2">
    <Class Name="Signal" Index="0"/>
    <Class Name="Background" Index="1"/>
  </Classes>
  <Transformations NTransformations="1">
    <Transform Name="Normalize">
      <Selection>
        <Input NInputs="4">
          <Input Type="Variable" Label="axis1" Expression="axis1"/>
          <Input Type="Variable" Label="axis2" Expression="axis2"/>
          <Input Type="Variable" Label="mult" Expression="mult"/>
          <Input Type="Variable" Label="ptD" Expression="ptD"/>
        </Input>
        <Output NOutputs="4">
          <Output Type="Variable" Label="axis1" Expression="axis1"/>
          <Output Type="Variable" Label="axis2" Expression="axis2"/>
          <Output Type="Variable" Label="mult" Expression="mult"/>
          <Output Type="Variable" Label="ptD" Expression="ptD"/>
        </Output>
      </Selection>
      <Class ClassIndex="0">
        <Ranges>
          <Range Index="0" Min="5.0750244408845901e-03" Max="3.5772216320037842e-01"/>
          <Range Index="1" Min="-1.1516169179230928e-03" Max="2.2236813604831696e-01"/>
          <Range Index="2" Min="7.8465425968170166e-01" Max="2.8784654617309570e+01"/>
          <Range Index="3" Min="1.9402472674846649e-01" Max="9.7029477357864380e-01"/>
        </Ranges>
      </Class>
      <Class ClassIndex="1">
        <Ranges>
          <Range Index="0" Min="1.4707201626151800e-04" Max="3.2915320992469788e-01"/>
          <Range Index="1" Min="-1.2826422462239861e-03" Max="2.1832452714443207e-01"/>
          <Range Index="2" Min="7.8465425968170166e-01" Max="2.8784654617309570e+01"/>
          <Range Index="3" Min="1.9577112793922424e-01" Max="1.0006200075149536e+00"/>
        </Ranges>
      </Class>
      <Class ClassIndex="2">
        <Ranges>
          <Range Index="0" Min="1.4707201626151800e-04" Max="3.5772216320037842e-01"/>
          <Range Index="1" Min="-1.2826422462239861e-03" Max="2.2236813604831696e-01"/>
          <Range Index="2" Min="7.8465425968170166e-01" Max="2.8784654617309570e+01"/>
          <Range Index="3" Min="1.9402472674846649e-01" Max="1.0006200075149536e+00"/>
        </Ranges>
      </Class>
    </Transform>
  </Transformations>
  <MVAPdfs>
    <PDF Name="MLP_PDFSig" MinNSmooth="0" MaxNSmooth="0" InterpolMethod="5" KDE_type="1" KDE_iter="2" KDE_border="1" KDE_finefactor="3.0000001192092896e-01">
      <Histogram Name="MLP_tr_S_original" NBins="250" XMin="6.9689542055130005e-02" XMax="1.0448092222213745e+00" HasEquidistantBins="1">
        0.00000000e+00 1.78745878e-03 1.78745878e-03 1.78745878e-03 3.57491756e-03 3.57491756e-03 1.42996702e-02 2.32369639e-02 1.96620468e-02 1.96620468e-02 3.93240936e-02 3.39617170e-02 5.00488468e-02 6.61359727e-02 8.93729404e-02 1.09034985e-01 1.34059414e-01 1.46571621e-01 1.62658751e-01 2.21644893e-01 2.12707594e-01 2.35944554e-01 2.48456776e-01 2.73481190e-01 3.00293088e-01 3.86091083e-01 3.57491761e-01 3.53916824e-01 4.68314201e-01 4.84401315e-01 5.32662690e-01 6.14885807e-01 5.52324772e-01 5.82711577e-01 6.13098383e-01 6.73871934e-01 6.97108924e-01 7.04258740e-01 8.11506271e-01 8.38318169e-01 8.99091780e-01 9.00879204e-01 1.00097692e+00 1.00812674e+00 1.08141255e+00 1.04566336e+00 1.21010959e+00 1.17614782e+00 1.15648580e+00 1.28339541e+00 1.35310626e+00 1.30663240e+00 1.41387987e+00 1.56223893e+00 1.59798813e+00 1.56760132e+00 1.57475114e+00 1.59083831e+00 1.61407530e+00 1.59977555e+00 1.66948652e+00 1.78745878e+00 1.91973066e+00 1.74813473e+00 1.82857037e+00 1.90543103e+00 1.85001981e+00 1.87504423e+00 2.00731611e+00 1.92688060e+00 1.92866802e+00 2.00731611e+00 1.89291883e+00 2.04127789e+00 1.94654262e+00 1.99659145e+00 2.02876568e+00 2.08238935e+00 2.00016642e+00 2.10383892e+00 2.03234053e+00 1.91615582e+00 1.99301648e+00 1.96620464e+00 2.03234053e+00 2.05557752e+00 1.94833004e+00 2.03234053e+00 1.81427062e+00 1.92330563e+00 1.86610699e+00 1.86610699e+00 1.92151821e+00 1.86968184e+00 1.98944163e+00 1.84465742e+00 1.71774793e+00 1.83214521e+00 1.80354595e+00 1.85538220e+00 1.76064694e+00 1.94475520e+00 1.82678282e+00 1.83214521e+00 1.64982450e+00 1.81069577e+00 1.76243436e+00 1.83214521e+00 1.83214521e+00 1.81248319e+00 1.78745878e+00 1.90721846e+00 1.94118023e+00 1.99659145e+00 1.90006864e+00 1.97871685e+00 1.91079342e+00 1.96620464e+00 2.00195384e+00 1.98765421e+00 1.92509305e+00 2.00731611e+00 1.96262968e+00 2.05200267e+00 1.95726740e+00 1.93224287e+00 1.98944163e+00 1.95726740e+00 2.01982832e+00 1.91615582e+00 1.95011747e+00 1.83750761e+00 1.93760526e+00 1.85538220e+00 1.85895717e+00 1.84108257e+00 1.74813473e+00 1.85180724e+00 1.81069577e+00 1.70702314e+00 1.68199873e+00 1.80712080e+00 1.76243436e+00 1.73204756e+00 1.68378615e+00 1.73204756e+00 1.68021119e+00 1.68557358e+00 1.56223893e+00 1.56760132e+00 1.60335052e+00 1.53185213e+00 1.46929109e+00 1.54972672e+00 1.44962907e+00 1.48001587e+00 1.53185213e+00 1.36561847e+00 1.46571624e+00 1.37813067e+00 1.32629442e+00 1.31914461e+00 1.32986927e+00 1.23870897e+00 1.24228382e+00 1.24407125e+00 1.12252414e+00 1.22619677e+00 1.12073660e+00 1.21189702e+00 1.09213734e+00 1.11537433e+00 1.13503635e+00 1.02242637e+00 1.00633931e+00 1.05996311e+00 9.65227723e-01 9.15178895e-01 7.98994064e-01 9.43778217e-01 7.59669960e-01 8.74067366e-01 8.09718847e-01 7.50732660e-01 7.43582845e-01 7.00683832e-01 7.22133338e-01 6.30972922e-01 6.11310899e-01 6.59572303e-01 5.23725390e-01 5.41599989e-01 4.70101655e-01 4.41502303e-01 4.11115527e-01 4.11115527e-01 3.84303629e-01 2.84205943e-01 2.78843582e-01 2.48456776e-01 2.32369646e-01 1.93045542e-01 1.73383504e-01 1.37634322e-01 1.07247524e-01 1.01885147e-01 9.11603943e-02 7.50732720e-02 8.40105638e-02 6.07735999e-02 5.00488468e-02 2.32369639e-02 2.68118810e-02 3.93240936e-02 3.21742594e-02 1.60871297e-02 1.60871297e-02 1.07247522e-02 1.42996702e-02 1.78745873e-02 7.14983512e-03 7.14983512e-03 5.36237611e-03 1.07247522e-02 3.57491756e-03 0.00000000e+00 0.00000000e+00 3.57491756e-03 0.00000000e+00 1.78745878e-03 3.57491756e-03 0.00000000e+00 0.00000000e+00 1.78745878e-03 0.00000000e+00 1.78745878e-03 1.78745878e-03 0.00000000e+00 0.00000000e+00 0.00000000e+00 0.00000000e+00 0.00000000e+00 0.00000000e+00 0.00000000e+00 0.00000000e+00 0.00000000e+00 0.00000000e+00 0.00000000e+00 0.00000000e+00 0.00000000e+00 
      </Histogram>
    </PDF>
    <PDF Name="MLP_PDFBkg" MinNSmooth="0" MaxNSmooth="0" InterpolMethod="5" KDE_type="1" KDE_iter="2" KDE_border="1" KDE_finefactor="3.0000001192092896e-01">
      <Histogram Name="MLP_tr_B_original" NBins="250" XMin="6.9689542055130005e-02" XMax="1.0448092222213745e+00" HasEquidistantBins="1">
        9.37526859e-03 9.37526859e-03 9.37526859e-03 2.00898629e-02 3.21437791e-02 2.94651315e-02 6.96448535e-02 1.35271743e-01 1.21878497e-01 1.16521202e-01 1.92862675e-01 2.93311983e-01 3.26795101e-01 3.93761307e-01 3.73671442e-01 5.57158828e-01 6.00017190e-01 6.77698016e-01 7.24574387e-01 7.32610285e-01 9.40205574e-01 9.50920165e-01 1.01520765e+00 1.11431766e+00 1.21476698e+00 1.29512644e+00 1.25494671e+00 1.47861385e+00 1.41298699e+00 1.54424071e+00 1.66210127e+00 1.66344059e+00 1.81880224e+00 1.90987623e+00 1.95005596e+00 1.92996609e+00 2.07327390e+00 2.15765119e+00 2.27952981e+00 2.33979940e+00 2.36122847e+00 2.22461748e+00 2.25542188e+00 2.38265777e+00 2.51123285e+00 2.54337645e+00 2.71481013e+00 2.61034274e+00 2.73356056e+00 2.65721917e+00 2.81124139e+00 2.75231123e+00 2.72418523e+00 2.90365481e+00 3.04562306e+00 3.08178496e+00 3.07642746e+00 2.97196031e+00 2.89160085e+00 2.80990195e+00 2.88892221e+00 2.98401427e+00 2.91436934e+00 3.00008607e+00 2.85945702e+00 2.84070659e+00 2.74427509e+00 2.88758278e+00 2.89963675e+00 2.82329535e+00 2.80990195e+00 2.75766850e+00 2.70141673e+00 2.71481013e+00 2.60498548e+00 2.58757424e+00 2.61168218e+00 2.48578572e+00 2.41078353e+00 2.38265777e+00 2.48980355e+00 2.23131394e+00 2.25676131e+00 2.14559722e+00 2.14559722e+00 2.13220406e+00 2.11747146e+00 2.00228953e+00 2.00898623e+00 2.04246926e+00 1.92193019e+00 1.86969650e+00 1.84692800e+00 1.79201567e+00 1.68219113e+00 1.75853264e+00 1.74380004e+00 1.60584962e+00 1.56968796e+00 1.58174181e+00 1.61522496e+00 1.51477563e+00 1.50540030e+00 1.51745427e+00 1.52950823e+00 1.43039823e+00 1.48129249e+00 1.44111276e+00 1.42504084e+00 1.46388125e+00 1.30450177e+00 1.45450604e+00 1.45450604e+00 1.35137808e+00 1.38352180e+00 1.37682521e+00 1.38084316e+00 1.40093303e+00 1.29110849e+00 1.29646575e+00 1.36477137e+00 1.18664122e+00 1.21208835e+00 1.23083889e+00 1.16387272e+00 1.17190862e+00 1.16789067e+00 1.11297834e+00 1.11565697e+00 1.09288847e+00 1.07011998e+00 1.05270875e+00 1.02726161e+00 1.01922572e+00 8.74578655e-01 9.52259481e-01 8.55828106e-01 9.09401119e-01 8.81275296e-01 8.10291111e-01 7.99576521e-01 8.06273162e-01 7.25913703e-01 7.32610285e-01 7.17877746e-01 7.01805830e-01 7.00466514e-01 6.87073290e-01 6.56268835e-01 6.85733974e-01 6.21446431e-01 5.77248693e-01 5.86623967e-01 5.78588009e-01 5.57158828e-01 5.61176836e-01 5.08943200e-01 4.98228580e-01 4.82156694e-01 4.68763441e-01 4.48673576e-01 4.55370218e-01 4.36619669e-01 3.87064666e-01 3.72332126e-01 3.69653463e-01 3.22777122e-01 3.61617535e-01 3.14741164e-01 2.89294004e-01 3.16080511e-01 3.08044553e-01 3.08044553e-01 2.26345778e-01 2.63846844e-01 2.23667130e-01 2.27685109e-01 1.84826732e-01 2.33042404e-01 2.02237949e-01 1.95541322e-01 1.83487415e-01 1.67415515e-01 1.28575116e-01 1.64736867e-01 1.55361608e-01 1.29914448e-01 1.17860526e-01 1.24557145e-01 8.97347182e-02 8.70560706e-02 9.10740420e-02 7.76808038e-02 6.42875582e-02 5.22336401e-02 5.75909391e-02 5.49122915e-02 4.15190496e-02 3.88404019e-02 2.54471581e-02 2.94651315e-02 2.27685105e-02 2.00898629e-02 9.37526859e-03 1.60718895e-02 1.47325657e-02 1.33932419e-02 9.37526859e-03 8.03594477e-03 1.20539172e-02 2.67864834e-03 5.35729667e-03 0.00000000e+00 4.01797239e-03 1.33932417e-03 0.00000000e+00 2.67864834e-03 5.35729667e-03 0.00000000e+00 0.00000000e+00 0.00000000e+00 0.00000000e+00 2.67864834e-03 0.00000000e+00 0.00000000e+00 1.33932417e-03 1.33932417e-03 0.00000000e+00 2.67864834e-03 0.00000000e+00 0.00000000e+00 0.00000000e+00 0.00000000e+00 0.00000000e+00 0.00000000e+00 0.00000000e+00 0.00000000e+00 0.00000000e+00 0.00000000e+00 0.00000000e+00 0.00000000e+00 0.00000000e+00 0.00000000e+00 0.00000000e+00 0.00000000e+00 0.00000000e+00 0.00000000e+00 0.00000000e+00 0.00000000e+00 0.00000000e+00 
      </Histogram>
    </PDF>
  </MVAPdfs>
  <Weights>
    <Layout NLayers="4">
      <Layer Index="0" NNeurons="5">
        <Neuron NSynapses="4">
          -3.3601613488942528e+00 -2.0899959619958168e+00 2.8648018590698134e+00 7.0127733746704655e+00 
        </Neuron>
        <Neuron NSynapses="4">
          -2.8990318864998161e+00 -1.0609892310384619e+00 -5.3136057990269692e-01 3.0016032216558761e+00 
        </Neuron>
        <Neuron NSynapses="4">
          -5.1592071515144007e-02 1.3065240096739876e+00 -3.3279290779133270e+00 1.7526275878767839e+00 
        </Neuron>
        <Neuron NSynapses="4">
          -5.8865973221418528e+00 2.3419517265670011e+00 1.1612703658722885e+00 4.1943354479780020e+00 
        </Neuron>
        <Neuron NSynapses="4">
          -5.8112860156475579e+00 5.8503332061608848e-01 -1.1654818383399121e+00 5.0790883755840719e+00 
        </Neuron>
      </Layer>
      <Layer Index="1" NNeurons="5">
        <Neuron NSynapses="3">
          -2.7583456031880149e+00 -1.9209423831793400e+00 2.2901234402071413e+00 
        </Neuron>
        <Neuron NSynapses="3">
          -2.0343944000979461e+00 -1.3545379573739114e+00 -3.0342647738472102e+00 
        </Neuron>
        <Neuron NSynapses="3">
          4.3901389590057471e-01 -1.1911114238666598e+00 -2.9955636812063280e+00 
        </Neuron>
        <Neuron NSynapses="3">
          -6.1791286721148815e+00 -2.3402653977660743e+00 4.6542380791508908e-01 
        </Neuron>
        <Neuron NSynapses="3">
          4.6571703426783670e-02 -1.3121846136409274e+00 -1.6794925906192673e+00 
        </Neuron>
      </Layer>
      <Layer Index="2" NNeurons="4">
        <Neuron NSynapses="1">
          -3.2244032108407059e+00 
        </Neuron>
        <Neuron NSynapses="1">
          -1.2077682668733298e+00 
        </Neuron>
        <Neuron NSynapses="1">
          2.1202452385910218e+00 
        </Neuron>
        <Neuron NSynapses="1">
          5.0946819078633820e-01 
        </Neuron>
      </Layer>
      <Layer Index="3" NNeurons="1">
        <Neuron NSynapses="0"/>
      </Layer>
    </Layout>
    <InverseHessian NElements="1521" NRows="39" NCols="39">
      <Row Index="0">
        1.7581481860767372e+00 -2.6640401712604350e-01 -3.2566154009403936e-02 7.1068785372965049e-01 9.0418341763957188e-01 -3.8094763762363086e-03 -6.8424543715970809e-01 5.5339357312177151e-01 1.0203087937602370e-01 -4.7440776349327674e-01 -1.2946649988457232e-01 1.4790901822070782e-01 1.7684853290002358e+00 -7.2846254736433558e-01 -1.3198259781722350e+00 6.9653413392672703e-01 1.8534863874944463e+00 -4.2330709969119834e-01 -6.2536941845368332e-01 8.2113855988636342e-01 -1.9837629706294286e+00 -5.9822635835445750e+00 3.5799843340725623e-01 -1.4555710557790409e+00 -4.4055701517792363e+00 -1.1207872673524419e+00 1.2925805045349814e+00 5.6561512491633934e+00 8.3942110721491048e-01 -4.2237819421650036e+00 -1.2842137872672305e+01 -1.0222291433672541e+00 3.4262869891762029e+00 3.3064101434102746e+01 1.2746515393144056e+00 1.0356432383818227e+01 2.3453637829583506e+01 -7.4109649042719683e-01 2.5284540439038314e-03 
      </Row>
      <Row Index="1">
        -2.6640401706776590e-01 1.9855052596842173e+00 3.4215716371450317e-01 -1.6608117208703193e+00 -1.9559105818996614e-01 8.8901817073681455e-01 1.9409312708386389e-01 -5.8179190545892479e-01 -3.8138182567642581e-01 -5.1573271286647737e-02 -5.0327452109295501e-01 -2.9347442214024810e-01 -4.9458528982870748e-01 1.9993843872879502e+00 -9.3469043406831154e-01 -8.9414768968741898e-01 -1.5100848638325226e-01 1.8301659787407587e+00 -8.9426417229287636e-01 -2.3607285123439423e+00 -6.3310358597477612e-01 -1.9577728003083714e+00 -7.2214651154313947e-01 -8.6688665650699459e-01 -1.7068150318901720e+00 3.5243386931421317e-01 6.7604317172059381e-01 5.0711974769973924e+00 2.3909237596719302e-01 -9.3299826774327368e+00 -5.5002903357043493e+00 5.4733923987521116e-01 4.6927283834621107e+00 1.0832836733008792e+01 -3.6676310266880552e-01 1.2892528685347793e+01 6.5212317544203549e+00 4.5010118505115208e-02 -1.9874000173788958e-02 
      </Row>
      <Row Index="2">
        -3.2566154168536234e-02 3.4215716350811520e-01 6.1108661653919860e+00 -1.2085294351567470e+00 9.0427005994768417e-01 -2.3771939134463008e-01 -7.5753399957926723e-02 -3.6227188200650257e-01 8.6509356213447208e-01 -1.6334259669272451e+00 -5.4394554178408265e+00 1.9679575543970580e-03 1.1835472939823786e+00 -1.6513634357809777e+00 1.8846662778264871e+00 -8.8470380707692597e-01 1.2429426022836414e+00 -6.2579245265374084e-01 1.7922282045976561e+00 -1.1598505013753337e+00 -9.6668539536144971e-01 -7.7680324506223295e+00 4.2991505476014424e-01 -1.5247742826786110e+00 -1.0093578994447933e+01 -9.0720393318967352e-01 -1.4468062032745102e-01 -2.6702465994910329e+00 8.5997927476438001e+00 -4.0472148794153622e+00 -2.0261611895744252e+01 -7.1126728658457372e-01 6.4434982981399624e-01 7.4754745031038325e+01 -2.1176335453584205e-01 -5.5993344227652853e-01 6.9026200431562089e+01 7.5191157512198536e-01 -1.2969547243385748e-01 
      </Row>
      <Row Index="3">
        7.1068785349884733e-01 -1.6608117207807958e+00 -1.2085294362867292e+00 9.0354336086721805e+00 -5.5839704979225557e-01 -3.9420204538733511e-01 -5.1196135342950833e-01 3.1677403853915895e+00 1.4977592771351154e+00 1.3834423390844757e+00 3.5498206483393568e-01 3.4760684250073512e+00 -1.2213912727463198e-01 2.1792826906770904e+00 -1.3194461710363763e+00 5.9625031458567594e+00 -1.2637259597908925e+00 9.5025678458560492e-01 -3.5263799375557153e-01 9.4305232800607595e+00 4.7609118667956114e+00 4.1443881253659089e+00 -9.1760157510589124e-01 7.1058525259462400e+00 1.3317443990162626e+01 -4.2588876992466074e-01 -1.0298484531546970e+00 8.1590853301155555e+00 -6.6458668449692859e-01 2.2751787921261410e+01 1.9241402803153331e+01 -1.1836610934574470e+00 -3.3400432605875714e+01 -1.0707987324079923e+02 2.8931540397476914e+00 -7.2929204640517057e+01 -1.0914986495130643e+02 -3.0075569320985518e+00 1.7755718836424306e-01 
      </Row>
      <Row Index="4">
        9.0418341769214949e-01 -1.9559105821706524e-01 9.0427006021518364e-01 -5.5839704978069349e-01 1.1438007371880927e+00 2.4007594733057677e-02 -3.0676663924319486e-01 -2.1808889550340810e-01 1.8913674103071965e-01 -7.3026944507042835e-01 -8.1699427143442604e-01 -4.4392658649008432e-01 1.6648317505424668e+00 -1.4254718540515252e+00 -2.8499819314140151e-01 -4.4514695346670419e-01 1.7134947617595893e+00 -7.9583694809379324e-01 -4.7057814015930496e-03 -1.8584058949041621e-01 -2.8450804929037128e+00 -2.9722571259344560e-01 4.1569476398188954e-01 -2.1663061821499112e+00 -4.1790483195374089e+00 -8.1603125992339165e-01 5.0558475369789979e-01 -5.7524804431478982e-01 1.8077080144571473e+00 -2.1723020346128350e+00 -7.7116548226426698e+00 -6.8336253526493707e-01 7.6975666244841321e+00 2.7359740940330852e+01 4.8299371926612844e-01 1.6729646436485510e+01 2.3597179764829555e+01 2.4628478000258042e-01 -3.2433486981243889e-02 
      </Row>
      <Row Index="5">
        -3.8094763640034238e-03 8.8901817069882494e-01 -2.3771939121417210e-01 -3.9420204526184216e-01 2.4007594708888105e-02 9.1962801941938010e-01 -1.0342001445566318e-01 -2.9224934286018128e-01 -8.6294258094059051e-02 1.8215864687136887e-01 2.9073409544776169e-01 -1.1117627065315450e-01 -2.3599805873863267e-01 1.5574593890381494e+00 -8.5204574185490223e-01 -4.0162393528128160e-01 -9.3567629016299281e-02 1.2853170261319065e+00 -4.0474994742355408e-01 -6.3040692362785022e-01 -1.3779849394864589e+00 4.8098068217472612e-01 -8.6462256102351631e-01 -5.8024840931939581e-01 -1.6375210522426427e+00 1.9556709303977590e-01 3.2933555651903218e-01 1.1815123460116106e+00 -9.0710024431391534e-02 -2.9066264661174563e+00 -3.4810104905676722e+00 6.0005213322796708e-02 2.5840724718599244e+00 1.8605791892238020e+01 4.7688374353700835e-01 6.5636228110003323e+00 1.7860547229701805e+01 -4.2323942863301606e-01 -1.6292473584624372e-02 
      </Row>
      <Row Index="6">
        -6.8424543712519925e-01 1.9409312710748317e-01 -7.5753399875385014e-02 -5.1196135359613260e-01 -3.0676663920550951e-01 -1.0342001442917614e-01 7.2748307612456919e-01 -2.2006449545843537e-01 2.7088191792417934e-02 1.1242067289173144e-01 2.8014618920459633e-01 -8.5998803297656190e-02 -5.3398372213704792e-01 -1.4444970143416662e-03 6.7965109238729060e-01 -2.4576466182642998e-01 -4.6751736959455725e-01 1.4225413449116786e-01 2.5559529414551307e-01 -5.8256402921475980e-01 4.2211323076853607e-01 -2.9002717724580984e-01 7.4073817077472448e-01 -1.8195128987738562e-01 1.7183973326797077e+00 -2.4332736811165986e-01 1.6630868451086206e-01 7.6244155814560299e-01 -1.2109616697642860e+00 -1.4291884384078979e+00 -2.0984013934536554e+00 5.8814957377853005e-01 1.0793440406762773e+00 -2.6059428973038661e+00 4.4990001053940920e-01 2.9894021593098756e+00 -1.6924740012577153e+00 -1.9188672482589735e+00 -6.3226014707684700e-03 
      </Row>
      <Row Index="7">
        5.5339357297733205e-01 -5.8179190553614579e-01 -3.6227188233394830e-01 3.1677403859588873e+00 -2.1808889564079253e-01 -2.9224934296047833e-01 -2.2006449544666307e-01 1.4557978165825036e+00 5.3258714601838009e-01 4.2664988370650780e-01 -3.5817061970001868e-02 1.3551856598273457e+00 2.5635616602011996e-01 6.0674937770930193e-01 -5.4671035529253320e-01 2.3942426817894371e+00 -1.4565533850364248e-01 2.1045637425926778e-01 -1.7958074421215364e-01 3.4991135757914389e+00 1.5284249565327348e+00 -5.4980843536306043e+00 -1.0456271963303543e-01 2.2225246851093052e+00 1.0769885839361328e+00 -4.3666096697405943e-01 3.2314073346870942e-01 3.0615697540156308e+00 -6.0844708633251463e-02 5.4433767071981984e+00 -2.6923451503266591e+00 -5.2981045144188776e-01 -1.0315342355684285e+01 8.2877563943456902e+00 1.0296328243706703e+00 -2.0007059632443777e+01 5.4553083801060147e+00 -1.0769217894054566e+00 4.3036297899751011e-02 
      </Row>
      <Row Index="8">
        1.0203087931286631e-01 -3.8138182572102242e-01 8.6509356201068877e-01 1.4977592774194752e+00 1.8913674096361502e-01 -8.6294258142126212e-02 2.7088191791927230e-02 5.3258714603880652e-01 8.3924189309413455e-01 4.5797722028944832e-02 -8.2582753449497437e-01 5.9558542780356438e-01 5.4233768671927784e-01 -1.5843008417441361e-02 1.0565473181065688e-01 9.7985331133951703e-01 2.9576750185833045e-01 1.0699887074890668e-02 1.5043785691419975e-01 1.8606536755210763e+00 -5.1686896368165169e-01 3.4167576226459153e+00 -3.9379511418534108e-01 8.5518483961838898e-01 6.5369537175047676e-01 -2.2411485924926106e-01 -2.9777272803789134e-01 -1.9206536799136034e+00 1.1445091877602795e+00 4.6791037313223418e+00 1.1981175355172331e+00 -6.4119449151009444e-01 -3.6601966761555209e+00 7.2331305517976601e+00 7.4952533319026537e-01 -8.3564201509938059e+00 9.2042118950484610e+00 -1.3414772797263827e-01 3.8695162825261448e-03 
      </Row>
      <Row Index="9">
        -4.7440776358421355e-01 -5.1573271317598479e-02 -1.6334259672034195e+00 1.3834423393700481e+00 -7.3026944513668179e-01 1.8215864681038718e-01 1.1242067291151336e-01 4.2664988365147294e-01 4.5797721993323243e-02 1.2031438438671094e+00 1.1775801386229230e+00 6.4451445321196221e-01 -9.8176237790906862e-01 1.7782261536192758e+00 -6.8610543820104364e-01 9.2442962817744989e-01 -1.1791706038142635e+00 1.0047839926044890e+00 -4.0081780522799676e-01 1.2495880935216044e+00 1.7305581156345800e+00 2.5104372171354039e+00 -9.4353251775269875e-01 2.6479116909843166e+00 2.9455564246782990e+00 1.0769846720424581e+00 -6.8392381635835942e-01 -2.9960356212713646e+00 -2.0178864137579744e+00 5.1600985334746685e+00 9.4394820589240300e+00 3.5041539968446361e-01 -7.9041544055865565e+00 -8.3365536481078273e+00 -2.4267943329486372e-01 -1.7116802022620060e+01 -1.5033325104716599e+00 3.7836593895092702e-01 2.3593707213496004e-02 
      </Row>
      <Row Index="10">
        -1.2946649962695561e-01 -5.0327452081095103e-01 -5.4394554176559389e+00 3.5498206321228221e-01 -8.1699427105399713e-01 2.9073409565248376e-01 2.8014618929522328e-01 -3.5817062350290030e-02 -8.2582753462923220e-01 1.1775801382744362e+00 6.0464736973514475e+00 -3.1013878251012983e-01 -1.2058684339111783e+00 8.3370629425885712e-01 -4.3347850554857814e-01 2.2331274150978750e-01 -1.1161034381219017e+00 2.0969109547388598e-01 -8.7378162812306515e-01 3.2327333877491071e-01 1.2818136260421636e-01 7.5051887638307981e+00 4.3423228660516600e-01 -2.2378420544699232e-01 1.0983510102298439e+01 1.9192379364917389e-01 8.6631408413901767e-01 6.5996199235931226e+00 -9.0142376798885451e+00 5.1162890180445952e-01 1.3687678754984887e+01 8.3762108789632261e-01 3.5938106789736795e+00 -8.8311625433545444e+01 9.0802176044544514e-01 1.0228240412062663e+01 -8.8419053766662032e+01 -2.5612212752482635e+00 1.3411775945300838e-01 
      </Row>
      <Row Index="11">
        1.4790901797091000e-01 -2.9347442227705134e-01 1.9679569941706276e-03 3.4760684260237786e+00 -4.4392658673263657e-01 -1.1117627082537895e-01 -8.5998803284192959e-02 1.3551856598413790e+00 5.9558542777579049e-01 6.4451445331779667e-01 -3.1013878186949206e-01 2.0050601102120131e+00 -2.3168198421153818e-01 1.6267791827199862e+00 -3.9880640731184469e-01 2.6799887290693589e+00 -6.8078288814193644e-01 8.8858507330650838e-01 -2.8843873172175549e-01 3.2333182840766188e+00 2.9337649175910072e+00 -8.0434527525038337e+00 -4.9064172285818231e-01 3.4043727786685878e+00 1.9624649477517437e+00 1.0806735696865284e-01 2.0161687344372137e-01 4.2144987328353833e+00 -4.5465727076244633e-02 3.8482720135864907e+00 -3.9471167110680572e+00 -3.2103414043907369e-01 -1.6347515211168211e+01 1.3156927279277868e+01 3.9038950980862197e-01 -3.3002437039100265e+01 1.0575863799070804e+01 -4.8711344126586098e-01 3.3398501385747278e-02 
      </Row>
      <Row Index="12">
        1.7684853291281866e+00 -4.9458528986254713e-01 1.1835472945430503e+00 -1.2213912733080644e-01 1.6648317505605044e+00 -2.3599805866991108e-01 -5.3398372220562607e-01 2.5635616629179925e-01 5.4233768685271388e-01 -9.8176237778537256e-01 -1.2058684346971020e+00 -2.3168198373235782e-01 3.3930555210297388e+00 -2.2044831972809842e+00 -6.2243131205413960e-01 5.0401282353196564e-01 3.1919930086117567e+00 -1.3714318908815102e+00 -2.3160771392484170e-01 9.3886305029868722e-01 -5.0332712653812344e+00 -2.2499010154554560e+00 5.7176243830851092e-01 -3.3260584079960975e+00 -4.5054067253820786e+00 -1.2284032892918892e+00 1.7154921219062405e+00 1.3521906623075122e+00 2.6089603536546506e+00 -5.2384078646719283e+00 -1.4147669993020752e+01 -1.3621550040623951e+00 1.6003111228744196e+01 5.3643922628300011e+01 2.1143979757722109e-01 4.0040859885724913e+01 4.6239982204907989e+01 1.6602739971465161e+00 -2.6301390937516406e-02 
      </Row>
      <Row Index="13">
        -7.2846254758724116e-01 1.9993843871458652e+00 -1.6513634362923182e+00 2.1792826916882273e+00 -1.4254718542799958e+00 1.5574593888811075e+00 -1.4444970089950715e-03 6.0674937775173876e-01 -1.5843008425406670e-02 1.7782261537367354e+00 8.3370629482701997e-01 1.6267791827607865e+00 -2.2044831977430066e+00 6.5478269049001439e+00 -2.3634521759839417e+00 1.6068822636611415e+00 -2.4287968987892663e+00 4.3609414354683125e+00 -1.8299873468425658e+00 9.3386565938261090e-01 2.7348116453742750e+00 -1.5654224798825807e+00 -3.6963756583448522e+00 4.4249000151083377e+00 3.4129045214542559e+00 2.4124132707306889e+00 -2.9141462623071412e-01 3.9402490851301351e+00 -1.7881091693650508e+00 -3.6887923373621145e-01 7.9544485677365691e+00 3.1020120691911335e-01 -1.4981454249560406e+01 9.5742899336165781e+00 -8.5533020549853989e-01 -2.9281020456391090e+01 1.4593236822084387e+01 1.9726236657728276e+00 3.9563017982235271e-02 
      </Row>
      <Row Index="14">
        -1.3198259781645445e+00 -9.3469043402994423e-01 1.8846662777431566e+00 -1.3194461710577512e+00 -2.8499819314153219e-01 -8.5204574183527404e-01 6.7965109240424759e-01 -5.4671035530547796e-01 1.0565473179591400e-01 -6.8610543820905789e-01 -4.3347850544137678e-01 -3.9880640734312056e-01 -6.2243131201094926e-01 -2.3634521759698615e+00 8.4443992968452442e+00 -8.9721806355701261e-01 -1.2975320613952768e+00 -2.4442410967200559e+00 5.0101330081168767e+00 2.2598622074221464e-01 -3.1474224817059870e-01 -2.3696142392588699e+00 1.7219380525794037e-01 -1.5932020251203531e+00 7.7038105488808508e+00 1.9817702736468252e+00 -2.6625075771490136e-01 -1.2234621580260072e+01 1.3140110204853246e+00 7.3652389385796919e+00 2.7147844437694713e+00 8.3368180151623350e-01 6.4247037241218194e+00 -1.7611696821480614e+01 -6.9008122760694359e+00 1.2407827832034503e+01 -8.6259959910819219e+00 8.6708371609523915e+00 -1.5843070207589655e-02 
      </Row>
      <Row Index="15">
        6.9653413385601470e-01 -8.9414768964013369e-01 -8.8470380748022670e-01 5.9625031458228950e+00 -4.4514695346432243e-01 -4.0162393531183760e-01 -2.4576466175554401e-01 2.3942426815842488e+00 9.7985331123531516e-01 9.2442962807042051e-01 2.2331274209640029e-01 2.6799887286976247e+00 5.0401282356147559e-01 1.6068822632977227e+00 -8.9721806361351142e-01 4.8490078189590733e+00 -2.0233822587069103e-01 7.4423255703645452e-01 -4.7990126918128917e-01 6.3579660736492345e+00 1.7980082447126990e+00 -3.5928497082449478e+00 -2.5602009578381058e-01 3.2917998878287369e+00 9.4170982469437714e+00 -2.8137063611750679e-01 1.3132615706409629e+00 1.2166281184041019e+01 -7.0441684633623269e-01 5.7365956504783266e+00 -4.7778470510941418e-01 -8.0503911562567776e-01 -1.2963741912191725e+01 -3.7880220011779450e+01 1.0438718334357593e+00 -2.0093516104670801e+01 -4.6039007358002650e+01 -1.0761645607379000e+00 1.1639820215109997e-01 
      </Row>
      <Row Index="16">
        1.8534863877869521e+00 -1.5100848633247921e-01 1.2429426032411328e+00 -1.2637259604798636e+00 1.7134947619283198e+00 -9.3567628830380833e-02 -4.6751736967534896e-01 -1.4565533821754162e-01 2.9576750202136282e-01 -1.1791706037426479e+00 -1.1161034393745339e+00 -6.8078288762279726e-01 3.1919930088987893e+00 -2.4287968982577515e+00 -1.2975320614911166e+00 -2.0233822614208208e-01 3.7892473780854843e+00 -1.0820117760191295e+00 -6.4994634171149857e-01 -9.1841012908374575e-01 -7.0712923549753031e+00 1.7903487408986885e-01 8.7933035332955001e-01 -6.1343123155307167e+00 -6.7237280657606728e+00 -1.4062803779019948e+00 3.3873423211328055e+00 1.1689487909009753e+01 2.8029233602921217e+00 -1.7938422610617298e+01 -2.6931378245837834e+01 -1.5806078447742475e+00 2.5536455560126736e+01 5.3221741591257867e+01 8.7335708890555352e-01 6.4864465571640707e+01 3.3009161953961360e+01 6.4839782335529383e-01 -4.2236531183740579e-02 
      </Row>
      <Row Index="17">
        -4.2330709974285985e-01 1.8301659786971749e+00 -6.2579245275808759e-01 9.5025678485169851e-01 -7.9583694814933148e-01 1.2853170260950393e+00 1.4225413448885682e-01 2.1045637428042857e-01 1.0699887081686343e-02 1.0047839926409994e+00 2.0969109558232146e-01 8.8858507333253800e-01 -1.3714318910094394e+00 4.3609414354786979e+00 -2.4442410967572763e+00 7.4423255711317715e-01 -1.0820117761822434e+00 3.4552961515561496e+00 -1.6417567921244103e+00 -2.5056578559287557e-01 6.7933753940818087e-01 1.1474156627330148e+00 -1.9921360665334618e+00 1.4350977717539564e+00 9.9758183802909706e-01 9.7646831462272643e-01 6.1762407529332342e-01 9.0193091596594854e+00 -7.2117279949195812e-01 -6.5538398900375494e+00 -2.0663554226142171e+00 1.5322258447130604e-01 -5.7102941513149545e+00 4.5282092835372412e+00 1.0390523887205745e+00 -8.6999331285049646e+00 5.4115629314946112e-01 -1.2399943686965340e+00 1.7187164641129599e-02 
      </Row>
      <Row Index="18">
        -6.2536941850214767e-01 -8.9426417238299472e-01 1.7922282046852942e+00 -3.5263799326843071e-01 -4.7057815216380305e-03 -4.0474994746529092e-01 2.5559529410097426e-01 -1.7958074401682200e-01 1.5043785699057999e-01 -4.0081780507937026e-01 -8.7378162833347162e-01 -2.8843873138369425e-01 -2.3160771417347714e-01 -1.8299873465174914e+00 5.0101330081398627e+00 -4.7990126899747310e-01 -6.4994634218423730e-01 -1.6417567920431253e+00 4.3391686035925012e+00 1.0070770225954928e+00 -9.4490226134884314e-01 -8.6633530513829822e+00 1.1460522360914851e+00 -1.4400203521782788e+00 -1.0244855564038904e+00 1.7394181464646413e-01 -8.0906440156050252e-03 -9.9040134975356260e+00 3.1958281775358479e+00 6.9163742923074238e+00 -1.1437556542387171e+01 7.1887296173844406e-01 4.5449084990761950e+00 4.0037022902729696e+01 -2.0980949731205492e+00 9.4068365641851859e+00 4.4642818839444125e+01 1.2600918312491083e+00 -8.3402235930487983e-02 
      </Row>
      <Row Index="19">
        8.2113855963184790e-01 -2.3607285124021544e+00 -1.1598505022014471e+00 9.4305232807252519e+00 -1.8584058965651984e-01 -6.3040692379685792e-01 -5.8256402912978444e-01 3.4991135755751257e+00 1.8606536753855192e+00 1.2495880934719068e+00 3.2327333986019013e-01 3.2333182836682663e+00 9.3886305000511339e-01 9.3386565892877105e-01 2.2598622075159369e-01 6.3579660739101520e+00 -9.1841012914589415e-01 -2.5056578572385035e-01 1.0070770221763086e+00 1.1982309420272340e+01 1.9621131875463576e+00 1.6542237779395865e+00 -5.3076456665466765e-01 6.0383228389502097e+00 1.3302462656902243e+01 -7.3884896584851545e-01 -1.1639137123208734e+00 -5.0545802459991469e+00 -1.5922844234556144e-01 3.3239825170232137e+01 1.9261535501637368e+01 -1.1037102147461360e+00 -2.3622573423520915e+01 -3.4356483978609475e+01 2.1738867614880073e+00 -5.1127856960490448e+01 -2.1385648508433327e+01 -1.8947577527397128e+00 1.6109957937635311e-01 
      </Row>
      <Row Index="20">
        -1.9837629722102648e+00 -6.3310358643762044e-01 -9.6668539991156877e-01 4.7609118711685596e+00 -2.8450804939699594e+00 -1.3779849405365745e+00 4.2211323106633358e-01 1.5284249554495517e+00 -5.1686896435624874e-01 1.7305581155324035e+00 1.2818136840454031e-01 2.9337649156112704e+00 -5.0332712673117754e+00 2.7348116432392882e+00 -3.1474224751406510e-01 1.7980082463662086e+00 -7.0712923559057197e+00 6.7933753866316238e-01 -9.4490226366094254e-01 1.9621131879805926e+00 3.3796691209782132e+01 -3.0705303898342517e+01 1.1380396720797137e+00 2.6595941439089817e+01 2.5838520202803812e+00 -7.1529982204459530e-01 -1.4046497887282037e+01 -4.2387978448645150e+01 -6.0216235242215514e+00 6.5967388632735265e+01 7.7821234062321139e+01 3.3762810361847473e+00 -1.2665838531185861e+02 -1.6312364603822516e+02 3.2037188071432303e+00 -3.2141477238383646e+02 -1.1224621051424023e+02 -9.6251351553111650e+00 6.0372361555185799e-02 
      </Row>
      <Row Index="21">
        -5.9822635650366465e+00 -1.9577727756118293e+00 -7.7680324507186924e+00 4.1443879921994267e+00 -2.9722568134911853e-01 4.8098069768911955e-01 -2.9002716829472774e-01 -5.4980843916093818e+00 3.4167576081722473e+00 2.5104371852157783e+00 7.5051887848148908e+00 -8.0434528175446758e+00 -2.2499009480825407e+00 -1.5654225374416342e+00 -2.3696142430542295e+00 -3.5928497536278883e+00 1.7903498790410000e-01 1.1474156507720181e+00 -8.6633530389114028e+00 1.6542236825631562e+00 -3.0705304449332392e+01 1.1103654437823914e+03 -5.3995975207584706e+01 3.5456745881708107e+00 5.1704511413497755e+02 4.3208208331489821e+01 -2.5686435752361149e+01 2.9149296799752790e+02 9.7201442566297622e+00 7.3226294117015470e+01 1.2655141192067713e+03 -2.2126329528547075e+01 7.0445712379305661e+01 -8.8205841952604715e+03 -3.3314318925113113e+01 7.9987257505617436e+01 -9.2805055147712774e+03 1.2151867090231553e+02 4.7780246436071314e+00 
      </Row>
      <Row Index="22">
        3.5799843331832903e-01 -7.2214651191046642e-01 4.2991505568753041e-01 -9.1760157371354012e-01 4.1569476363396518e-01 -8.6462256114122837e-01 7.4073817055833047e-01 -1.0456271885587043e-01 -3.9379511383995691e-01 -9.4353251721366860e-01 4.3423228509763589e-01 -4.9064172145061491e-01 5.7176243740862986e-01 -3.6963756570905861e+00 1.7219380522961103e-01 -2.5602009548774163e-01 8.7933035143899452e-01 -1.9921360662785332e+00 1.1460522363089169e+00 -5.3076456530849336e-01 1.1380396823066876e+00 -5.3995975303051083e+01 1.2321303047957798e+01 -3.9795457118814088e+00 -9.5092420898578993e+00 -9.2393689706088438e+00 3.2506665416983829e+00 1.2623109769090075e+01 -5.1780720952351809e+00 -8.3021111302895267e+00 -7.1101444249350493e+01 4.0237069670868610e+00 6.7069258548927380e+00 1.9977450365458154e+02 1.1851279031404701e+01 2.2086799429824907e+01 1.9316394515587589e+02 -3.0948939063861559e+01 -1.0498264986352251e-01 
      </Row>
      <Row Index="23">
        -1.4555710571079317e+00 -8.6688665678011745e-01 -1.5247742869439378e+00 7.1058525291516901e+00 -2.1663061829276415e+00 -5.8024841019293305e-01 -1.8195128953550466e-01 2.2225246838641723e+00 8.5518483889969588e-01 2.6479116906759259e+00 -2.2378419987316533e-01 3.4043727764013880e+00 -3.3260584093117913e+00 4.4249000127305926e+00 -1.5932020245420802e+00 3.2917998891071534e+00 -6.1343123156055439e+00 1.4350977709781887e+00 -1.4400203542477561e+00 6.0383228387772911e+00 2.6595941435245393e+01 3.5456750998097082e+00 -3.9795457206334675e+00 2.7498801845931386e+01 7.1879017871195803e+00 1.9385819709926047e+00 -1.5233068493700753e+01 -5.5149933710801363e+01 -3.4198460166976514e+00 7.7482704810830569e+01 1.1140943997638078e+02 1.1375730705906564e+00 -1.1475074888493731e+02 -2.1355554694099817e+02 1.2360423650982419e+00 -2.9336600202545623e+02 -1.5098933478051720e+02 -1.7277144350895535e-01 1.0629172497955178e-01 
      </Row>
      <Row Index="24">
        -4.4055701410607071e+00 -1.7068150172217429e+00 -1.0093578995161806e+01 1.3317443911590544e+01 -4.1790483011561719e+00 -1.6375210431525602e+00 1.7183973381211217e+00 1.0769885611153995e+00 6.5369536299704123e-01 2.9455564056588628e+00 1.0983510115687295e+01 1.9624649086895261e+00 -4.5054066858426722e+00 3.4129044868120673e+00 7.7038105461989517e+00 9.4170982199893842e+00 -6.7237279983821914e+00 9.9758183088306396e-01 -1.0244855495116099e+00 1.3302462599938313e+01 2.5838516939307397e+00 5.1704511422088763e+02 -9.5092420337150543e+00 7.1879014842696245e+00 3.7258334694764744e+02 1.3618468496040919e+01 -6.1218152250328330e+00 2.3832901016048007e+02 -1.8914647088839597e+01 5.1062438377405108e+01 6.6640336424338784e+02 -7.6067587806345793e-01 2.0183636770147579e+00 -5.2790299476575456e+03 -1.3300616632746943e+01 -4.9779454410927428e+00 -5.5635402263590231e+03 2.6594558925151027e+01 3.3132531984347158e+00 
      </Row>
      <Row Index="25">
        -1.1207872671910764e+00 3.5243386969492718e-01 -9.0720393384152942e-01 -4.2588877145462334e-01 -8.1603125954577393e-01 1.9556709321023291e-01 -2.4332736792078435e-01 -4.3666096765358020e-01 -2.2411485954259547e-01 1.0769846715422773e+00 1.9192379478504051e-01 1.0806735574421111e-01 -1.2284032883532277e+00 2.4124132696766960e+00 1.9817702736281149e+00 -2.8137063647488958e-01 -1.4062803760738771e+00 9.7646831443859128e-01 1.7394181454546498e-01 -7.3884896714830384e-01 -7.1529983170322886e-01 4.3208208394143348e+01 -9.2393689701058861e+00 1.9385819625290954e+00 1.3618468532810155e+01 9.3372253762612196e+00 -2.0710654600100256e+00 -9.6582539903602402e+00 3.4920319550524388e+00 2.4617874569425995e+00 5.7330210002820138e+01 -2.0541748923604857e+00 1.4180712563707853e+00 -1.8258994099653603e+02 -1.3867152344455109e+01 -6.9377193781424751e-01 -1.7534672408172295e+02 2.9361387673834777e+01 6.4641293502378905e-02 
      </Row>
      <Row Index="26">
        1.2925805053202239e+00 6.7604317188406071e-01 -1.4468061778315189e-01 -1.0298484549997227e+00 5.0558475414135984e-01 3.2933555704931550e-01 1.6630868431366252e-01 3.2314073423642498e-01 -2.9777272759995554e-01 -6.8392381614728492e-01 8.6631408080071992e-01 2.0161687483470558e-01 1.7154921226321704e+00 -2.9141462475985325e-01 -2.6625075816121679e-01 1.3132615698841903e+00 3.3873423210953253e+00 6.1762407579544742e-01 -8.0906428094920102e-03 -1.1639137121739207e+00 -1.4046497884556343e+01 -2.5686436060391372e+01 3.2506665470920950e+00 -1.5233068493347318e+01 -6.1218154071975182e+00 -2.0710654652568614e+00 1.3575612200078263e+01 5.6358777319884567e+01 2.7124728141940868e-01 -6.0879151334429942e+01 -1.0359598989901201e+02 -7.3386028866504560e-01 6.2685455894235830e+01 1.3992252357472461e+02 2.9988482523064242e-01 1.8052150734985537e+02 6.8610681165309288e+01 -3.0438187000177082e+00 -3.9769981382885622e-02 
      </Row>
      <Row Index="27">
        5.6561512614473486e+00 5.0711974905955230e+00 -2.6702465907496844e+00 8.1590852534254736e+00 -5.7524802636567074e-01 1.1815123559892982e+00 7.6244156223310711e-01 3.0615697364241896e+00 -1.9206536861197492e+00 -2.9960356374158437e+00 6.5996199232031358e+00 4.2144987030533230e+00 1.3521906999708335e+00 3.9402490595649056e+00 -1.2234621584189767e+01 1.2166281157056801e+01 1.1689487968604363e+01 9.0193091550245299e+00 -9.9040134869571830e+00 -5.0545802963182851e+00 -4.2387978727963855e+01 2.9149296696019292e+02 1.2623109838035816e+01 -5.5149933977759275e+01 2.3832900949948163e+02 -9.6582540416758889e+00 5.6358777480913602e+01 5.6879347871680284e+02 -3.6756024733752053e+00 -2.8728397847188813e+02 1.6054953413795374e+01 -6.5927428413917823e+00 1.9289987155063733e+02 -4.1278720240541388e+03 1.4224344826206615e+01 6.0207057654833307e+02 -4.8392259166362501e+03 -2.8601620990401976e+01 2.5956717844692836e+00 
      </Row>
      <Row Index="28">
        8.3942110717958940e-01 2.3909237586600085e-01 8.5997927476938152e+00 -6.6458668384502317e-01 1.8077080143141036e+00 -9.0710024464296879e-02 -1.2109616698264603e+00 -6.0844708357256749e-02 1.1445091878693141e+00 -2.0178864135574770e+00 -9.0142376801005710e+00 -4.5465726631213954e-02 2.6089603534153163e+00 -1.7881091688983299e+00 1.3140110205755171e+00 -7.0441684600326226e-01 2.8029233597794150e+00 -7.2117279936149714e-01 3.1958281775551800e+00 -1.5922844169768791e-01 -6.0216235219483716e+00 9.7201442406813214e+00 -5.1780720955986652e+00 -3.4198460145712763e+00 -1.8914647097400664e+01 3.4920319552871906e+00 2.7124728029193257e-01 -3.6756024856108027e+00 2.0833036312045650e+01 -8.2080438411085765e+00 -1.7733358506297861e+01 -3.6721337518925434e+00 1.1604663925319221e+01 4.5076252292290540e+01 -7.2153559855449885e+00 2.6508063857476483e+01 2.2391802287980106e+01 1.8983631514675167e+01 -2.5010849016131920e-01 
      </Row>
      <Row Index="29">
        -4.2237819461646495e+00 -9.3299826784541438e+00 -4.0472148918069877e+00 2.2751787931406199e+01 -2.1723020370720576e+00 -2.9066264688472927e+00 -1.4291884374713959e+00 5.4433767037937173e+00 4.6791037293004933e+00 5.1600985327216904e+00 5.1162891791449283e-01 3.8482720073711789e+00 -5.2384078688866822e+00 -3.6887924047871223e-01 7.3652389405390863e+00 5.7365956545060044e+00 -1.7938422611510465e+01 -6.5538398923756631e+00 6.9163742862784261e+00 3.3239825170296164e+01 6.5967388624912431e+01 7.3226295612453782e+01 -8.3021111565774390e+00 7.7482704813898707e+01 5.1062439263364553e+01 2.4617874822647963e+00 -6.0879151337328331e+01 -2.8728397769821169e+02 -8.2080438472688542e+00 3.6739469288386533e+02 4.6335509780896427e+02 4.4408397636187118e+00 -3.1733361320577364e+02 -5.9493603950760996e+02 6.4497542100203660e+00 -8.8533042041584167e+02 -2.4319787645554948e+02 -3.9689981187244019e+00 4.1866751740136343e-01 
      </Row>
      <Row Index="30">
        -1.2842137856671343e+01 -5.5002903084782702e+00 -2.0261611912551416e+01 1.9241402663184090e+01 -7.7116547899045145e+00 -3.4810104762498213e+00 -2.0984013818651874e+00 -2.6923451987161116e+00 1.1981175161035935e+00 9.4394820211200567e+00 1.3687678800868525e+01 -3.9471167944302579e+00 -1.4147669920989983e+01 7.9544484924768994e+00 2.7147844418173008e+00 -4.7778475203631388e-01 -2.6931378115720257e+01 -2.0663554393686354e+00 -1.1437556536225202e+01 1.9261535391638077e+01 7.7821233416015843e+01 1.2655141212162980e+03 -7.1101444174544667e+01 1.1140943939012952e+02 6.6640336533483787e+02 5.7330209964522282e+01 -1.0359598954737271e+02 1.6054955651597993e+01 -1.7733358496224383e+01 4.6335509608279790e+02 2.0458320161628108e+03 -1.1502944847970639e+01 -3.4301054975685196e+02 -1.0988011827615877e+04 -4.6390706558173278e+01 -1.0549169312250719e+03 -1.1098560283123003e+04 1.4497089258940116e+02 6.2049390002227147e+00 
      </Row>
      <Row Index="31">
        -1.0222291435415833e+00 5.4733923965858011e-01 -7.1126728656333782e-01 -1.1836610923595323e+00 -6.8336253552917725e-01 6.0005213179090688e-02 5.8814957369995824e-01 -5.2981045114801795e-01 -6.4119449139657192e-01 3.5041539994435311e-01 8.3762108770233823e-01 -3.2103413991771390e-01 -1.3621550046606963e+00 3.1020120736404877e-01 8.3368180154795013e-01 -8.0503911530071548e-01 -1.5806078457660850e+00 1.5322258454636994e-01 7.1887296162520187e-01 -1.1037102140103898e+00 3.3762810410734199e+00 -2.2126329526074215e+01 4.0237069661942115e+00 1.1375730751250164e+00 -7.6067587622087984e-01 -2.0541748917620266e+00 -7.3386029146766951e-01 -6.5927428498168226e+00 -3.6721337519701178e+00 4.4408397769241361e+00 -1.1502944827239503e+01 3.0668489959611804e+00 -4.8731090513144721e+00 7.5241153223899090e+01 2.5138993541881387e+00 -1.2500863163578089e+01 9.0168238749793517e+01 -1.0415054006811362e+01 -5.5135889942294604e-02 
      </Row>
      <Row Index="32">
        3.4262869965949108e+00 4.6927283860422051e+00 6.4434985038047898e-01 -3.3400432628088225e+01 7.6975666298396845e+00 2.5840724768892045e+00 1.0793440394782010e+00 -1.0315342351539329e+01 -3.6601966733963707e+00 -7.9041544056908606e+00 3.5938106531181120e+00 -1.6347515203429310e+01 1.6003111238591458e+01 -1.4981454240891164e+01 6.4247037211043931e+00 -1.2963741920575785e+01 2.5536455566300837e+01 -5.7102941481273319e+00 4.5449085096835233e+00 -2.3622573427393263e+01 -1.2665838532141308e+02 7.0445709897058634e+01 6.7069259023271570e+00 -1.1475074891112443e+02 2.0183622044038998e+00 1.4180712120555796e+00 6.2685455911767349e+01 1.9289987030921537e+02 1.1604663936112404e+01 -3.1733361326732870e+02 -3.4301055270340885e+02 -4.8731090293973836e+00 5.6651856107936976e+02 5.8598933800487134e+02 -1.9525144922985678e+01 1.4447822354262994e+03 3.6463614942430092e+02 3.0867934862088344e+01 -2.5270666396397301e-01 
      </Row>
      <Row Index="33">
        3.3064101242918696e+01 1.0832836465615401e+01 7.4754745058500703e+01 -1.0707987180969940e+02 2.7359740605774277e+01 1.8605791729136399e+01 -2.6059429971792269e+00 8.2877568176099885e+00 7.2331307147542248e+00 -8.3365532986063045e+00 -8.8311625696856936e+01 1.3156928003962093e+01 5.3643921906641481e+01 9.5742905770148354e+00 -1.7611696781023056e+01 -3.7880219521510298e+01 5.3221740355771544e+01 4.5282094190479256e+00 4.0037022781223641e+01 -3.4356482933900352e+01 -1.6312364003325547e+02 -8.8205841986816595e+03 1.9977450267309905e+02 -2.1355554138709067e+02 -5.2790299487227458e+03 -1.8258994036894728e+02 1.3992252023721085e+02 -4.1278720370784868e+03 4.5076252130537341e+01 -5.9493602325428219e+02 -1.0988011809718970e+04 7.5241153279217542e+01 5.8598931088500024e+02 9.6964859978836539e+04 1.2546655612538457e+02 1.6395654109629104e+03 1.0393964480735672e+05 -4.4986095488033294e+02 -4.8838699491759371e+01 
      </Row>
      <Row Index="34">
        1.2746515392183824e+00 -3.6676310290842906e-01 -2.1176335392879508e-01 2.8931540402295823e+00 4.8299371912351319e-01 4.7688374341380424e-01 4.4990001041682603e-01 1.0296328246443611e+00 7.4952533332830029e-01 -2.4267943309243378e-01 9.0802175956942222e-01 3.9038951036964420e-01 2.1143979707734317e-01 -8.5533020513384095e-01 -6.9008122760239381e+00 1.0438718333035837e+00 8.7335708790707067e-01 1.0390523886709389e+00 -2.0980949729634659e+00 2.1738867618548099e+00 3.2037188129482832e+00 -3.3314318967248624e+01 1.1851279031190984e+01 1.2360423700810701e+00 -1.3300616659111107e+01 -1.3867152344538034e+01 2.9988482185610188e-01 1.4224344791004626e+01 -7.2153559850437698e+00 6.4497542253666751e+00 -4.6390706586330168e+01 2.5138993545768145e+00 -1.9525144949390768e+01 1.2546655655917124e+02 2.8036869707124680e+01 -4.6000042058170820e+01 1.1995389213008367e+02 -5.2921993862183179e+01 -3.6589824452396558e-03 
      </Row>
      <Row Index="35">
        1.0356432402877658e+01 1.2892528691853329e+01 -5.5993338894415956e-01 -7.2929204696813485e+01 1.6729646450044129e+01 6.5636228239592640e+00 2.9894021561610771e+00 -2.0007059621300044e+01 -8.3564201436925032e+00 -1.7116802022530010e+01 1.0228240344792766e+01 -3.3002437018373143e+01 4.0040859910489303e+01 -2.9281020433247207e+01 1.2407827823827347e+01 -2.0093516126039503e+01 6.4864465586423051e+01 -8.6999331199845074e+00 9.4068365914799301e+00 -5.1127856969618989e+01 -3.2141477240253926e+02 7.9987251057355252e+01 2.2086799552790580e+01 -2.9336600208792134e+02 -4.9779492652388058e+00 -6.9377205304650147e-01 1.8052150739204265e+02 6.0207057331375950e+02 2.6508063884766877e+01 -8.8533042055940416e+02 -1.0549169388579521e+03 -1.2500863106322669e+01 1.4447822353991096e+03 1.6395654813609206e+03 -4.6000041988385831e+01 3.7679428655549682e+03 9.3013971933658615e+02 6.4922038505673470e+01 -6.0109807763830680e-01 
      </Row>
      <Row Index="36">
        2.3453637619539222e+01 6.5212314650088956e+00 6.9026200448985037e+01 -1.0914986339764437e+02 2.3597179401589528e+01 1.7860547051097456e+01 -1.6924741080729291e+00 5.4553088333541382e+00 9.2042120688420255e+00 -1.5033321342489216e+00 -8.8419054034820874e+01 1.0575864574690058e+01 4.6239981422495475e+01 1.4593237509498977e+01 -8.6259959454619093e+00 -4.6039006825056276e+01 3.3009160620615830e+01 5.4115643698605709e-01 4.4642818702413933e+01 -2.1385647381430317e+01 -1.1224620404543384e+02 -9.2805055169918196e+03 1.9316394407128973e+02 -1.5098932878753658e+02 -5.5635402266363526e+03 -1.7534672337975098e+02 6.8610677563045101e+01 -4.8392259299219004e+03 2.2391802107472358e+01 -2.4319785892644722e+02 -1.1098560262124985e+04 9.0168238796253718e+01 3.6463612023490714e+02 1.0393964479138624e+05 1.1995389164665994e+02 9.3013964355107601e+02 1.1207824621459861e+05 -4.5098487401733473e+02 -5.1833875833534535e+01 
      </Row>
      <Row Index="37">
        -7.4109648994988220e-01 4.5010119467519871e-02 7.5191157353316385e-01 -3.0075569356110066e+00 2.4628478089273642e-01 -4.2323942814532245e-01 -1.9188672477996533e+00 -1.0769217908614479e+00 -1.3414772861483470e-01 3.7836593783492845e-01 -2.5612212725628183e+00 -4.8711344396895129e-01 1.6602739994975622e+00 1.9726236635834020e+00 8.6708371608963404e+00 -1.0761645613056885e+00 6.4839782779298938e-01 -1.2399943689528072e+00 1.2600918310510849e+00 -1.8947577554776274e+00 -9.6251351791277351e+00 1.2151867103127518e+02 -3.0948939062221427e+01 -1.7277146446219405e-01 2.6594559002495146e+01 2.9361387673470269e+01 -3.0438186866777173e+00 -2.8601620874607590e+01 1.8983631513876766e+01 -3.9689981817081161e+00 1.4497089265383920e+02 -1.0415054008070818e+01 3.0867934970613113e+01 -4.4986095615757540e+02 -5.2921993861892112e+01 6.4922038789520030e+01 -4.5098487545771809e+02 1.1384670604883763e+02 1.4450316705179245e-01 
      </Row>
      <Row Index="38">
        2.5284541407621930e-03 -1.9874000038742068e-02 -1.2969547244638946e-01 1.7755718764200168e-01 -3.2433486812500689e-02 -1.6292473502081961e-02 -6.3226014198036751e-03 4.3036297686604108e-02 3.8695162003783423e-03 2.3593707037008471e-02 1.3411775958486771e-01 3.3398501020847959e-02 -2.6301390574428041e-02 3.9563017657512578e-02 -1.5843070231747802e-02 1.1639820190287509e-01 -4.2236530561406915e-02 1.7187164573428504e-02 -8.3402235869661112e-02 1.6109957884846260e-01 6.0372358535937476e-02 4.7780246451632387e+00 -1.0498264935583279e-01 1.0629172218209115e-01 3.3132531988839737e+00 6.4641293173439252e-02 -3.9769979701498315e-02 2.5956717909720410e+00 -2.5010849008585134e-01 4.1866750921421669e-01 6.2049389910157657e+00 -5.5135889965289842e-02 -2.5270665032352868e-01 -4.8838699490237680e+01 -3.6589822056112276e-03 -6.0109804222733842e-01 -5.1833875839947950e+01 1.4450316636127050e-01 3.5803962490280006e-02 
      </Row>
    </InverseHessian>
  </Weights>
</MethodSetup>
