<?xml version="1.0"?>
<MethodSetup Method="MLP::MLP">
  <GeneralInfo>
    <Info name="TMVA Release" value="4.1.2 [262402]"/>
    <Info name="ROOT Release" value="5.32/00 [335872]"/>
    <Info name="Creator" value="tomc"/>
    <Info name="Date" value="Thu Jan 10 13:41:26 2013"/>
    <Info name="Host" value="Linux lxbuild168.cern.ch 2.6.18-308.1.1.el5 #1 SMP Wed Mar 7 19:25:07 CET 2012 x86_64 x86_64 x86_64 GNU/Linux"/>
    <Info name="Dir" value="/user_mnt/user/tomc/QGTagger/training/f/9/aKDE03"/>
    <Info name="Training events" value="288601"/>
    <Info name="TrainingTime" value="1.13116606e+03"/>
    <Info name="AnalysisType" value="Classification"/>
  </GeneralInfo>
  <Options>
    <Option name="NCycles" modified="No">500</Option>
    <Option name="HiddenLayers" modified="No">N,N-1</Option>
    <Option name="NeuronType" modified="No">sigmoid</Option>
    <Option name="RandomSeed" modified="No">1</Option>
    <Option name="EstimatorType" modified="No">MSE</Option>
    <Option name="NeuronInputType" modified="No">sum</Option>
    <Option name="V" modified="Yes">False</Option>
    <Option name="VerbosityLevel" modified="No">Default</Option>
    <Option name="VarTransform" modified="Yes">N</Option>
    <Option name="H" modified="Yes">False</Option>
    <Option name="CreateMVAPdfs" modified="Yes">True</Option>
    <Option name="IgnoreNegWeightsInTraining" modified="No">False</Option>
    <Option name="TrainingMethod" modified="No">BP</Option>
    <Option name="LearningRate" modified="No">2.000000e-02</Option>
    <Option name="DecayRate" modified="No">1.000000e-02</Option>
    <Option name="TestRate" modified="Yes">3</Option>
    <Option name="EpochMonitoring" modified="No">False</Option>
    <Option name="Sampling" modified="No">1.000000e+00</Option>
    <Option name="SamplingEpoch" modified="No">1.000000e+00</Option>
    <Option name="SamplingImportance" modified="No">1.000000e+00</Option>
    <Option name="SamplingTraining" modified="No">True</Option>
    <Option name="SamplingTesting" modified="No">False</Option>
    <Option name="ResetStep" modified="No">50</Option>
    <Option name="Tau" modified="No">3.000000e+00</Option>
    <Option name="BPMode" modified="No">sequential</Option>
    <Option name="BatchSize" modified="No">-1</Option>
    <Option name="ConvergenceImprove" modified="No">1.000000e-30</Option>
    <Option name="ConvergenceTests" modified="No">-1</Option>
    <Option name="UseRegulator" modified="Yes">True</Option>
    <Option name="UpdateLimit" modified="No">10000</Option>
    <Option name="CalculateErrors" modified="No">False</Option>
    <Option name="WeightRange" modified="No">1.000000e+00</Option>
  </Options>
  <Variables NVar="4">
    <Variable VarIndex="0" Expression="axis1" Label="axis1" Title="axis1" Unit="" Internal="axis1" Type="F" Min="1.20296027e-04" Max="3.30325395e-01"/>
    <Variable VarIndex="1" Expression="axis2" Label="axis2" Title="axis2" Unit="" Internal="axis2" Type="F" Min="-7.73561595e-04" Max="2.16892332e-01"/>
    <Variable VarIndex="2" Expression="mult" Label="mult" Title="mult" Unit="" Internal="mult" Type="F" Min="8.02573740e-01" Max="3.48025742e+01"/>
    <Variable VarIndex="3" Expression="ptD" Label="ptD" Title="ptD" Unit="" Internal="ptD" Type="F" Min="1.83985308e-01" Max="9.99096394e-01"/>
  </Variables>
  <Spectators NSpec="0"/>
  <Classes NClass="2">
    <Class Name="Signal" Index="0"/>
    <Class Name="Background" Index="1"/>
  </Classes>
  <Transformations NTransformations="1">
    <Transform Name="Normalize">
      <Selection>
        <Input NInputs="4">
          <Input Type="Variable" Label="axis1" Expression="axis1"/>
          <Input Type="Variable" Label="axis2" Expression="axis2"/>
          <Input Type="Variable" Label="mult" Expression="mult"/>
          <Input Type="Variable" Label="ptD" Expression="ptD"/>
        </Input>
        <Output NOutputs="4">
          <Output Type="Variable" Label="axis1" Expression="axis1"/>
          <Output Type="Variable" Label="axis2" Expression="axis2"/>
          <Output Type="Variable" Label="mult" Expression="mult"/>
          <Output Type="Variable" Label="ptD" Expression="ptD"/>
        </Output>
      </Selection>
      <Class ClassIndex="0">
        <Ranges>
          <Range Index="0" Min="2.6352878194302320e-04" Max="3.3032539486885071e-01"/>
          <Range Index="1" Min="-7.7356159454211593e-04" Max="2.1689233183860779e-01"/>
          <Range Index="2" Min="8.0257374048233032e-01" Max="3.4802574157714844e+01"/>
          <Range Index="3" Min="1.8398530781269073e-01" Max="9.9619364738464355e-01"/>
        </Ranges>
      </Class>
      <Class ClassIndex="1">
        <Ranges>
          <Range Index="0" Min="1.2029602658003569e-04" Max="3.2203692197799683e-01"/>
          <Range Index="1" Min="-7.7356159454211593e-04" Max="2.1259312331676483e-01"/>
          <Range Index="2" Min="8.0257374048233032e-01" Max="3.0802574157714844e+01"/>
          <Range Index="3" Min="2.0607133209705353e-01" Max="9.9909639358520508e-01"/>
        </Ranges>
      </Class>
      <Class ClassIndex="2">
        <Ranges>
          <Range Index="0" Min="1.2029602658003569e-04" Max="3.3032539486885071e-01"/>
          <Range Index="1" Min="-7.7356159454211593e-04" Max="2.1689233183860779e-01"/>
          <Range Index="2" Min="8.0257374048233032e-01" Max="3.4802574157714844e+01"/>
          <Range Index="3" Min="1.8398530781269073e-01" Max="9.9909639358520508e-01"/>
        </Ranges>
      </Class>
    </Transform>
  </Transformations>
  <MVAPdfs>
    <PDF Name="MLP_PDFSig" MinNSmooth="0" MaxNSmooth="0" InterpolMethod="5" KDE_type="1" KDE_iter="2" KDE_border="1" KDE_finefactor="3.0000001192092896e-01">
      <Histogram Name="MLP_tr_S_original" NBins="250" XMin="6.0159657150506973e-02" XMax="9.7197043895721436e-01" HasEquidistantBins="1">
        2.21800022e-02 7.92142972e-02 1.07731447e-01 1.45754308e-01 1.96451455e-01 2.85171479e-01 2.94677198e-01 3.35868627e-01 3.70722920e-01 4.53105778e-01 5.29151499e-01 5.54500103e-01 5.89354396e-01 6.84411526e-01 6.30545795e-01 6.40051544e-01 8.36502969e-01 8.39671552e-01 8.23828697e-01 8.39671552e-01 8.55514407e-01 1.02978587e+00 1.05513442e+00 1.06780875e+00 1.22623730e+00 1.09632587e+00 1.14068592e+00 1.19772017e+00 1.34664309e+00 1.36248589e+00 1.43536305e+00 1.51774597e+00 1.59379160e+00 1.64765739e+00 1.57161164e+00 1.72687173e+00 1.76489449e+00 1.76489449e+00 1.79341173e+00 1.97402024e+00 2.00887465e+00 1.92015457e+00 2.04372883e+00 2.17997742e+00 2.12928033e+00 2.12928033e+00 2.21800041e+00 2.25602317e+00 2.34157467e+00 2.48099184e+00 2.43663168e+00 2.53802609e+00 2.58238602e+00 2.68061185e+00 2.60773468e+00 2.76616335e+00 2.72497177e+00 2.62040901e+00 2.88023186e+00 2.71546602e+00 2.93409753e+00 2.80418611e+00 2.76616335e+00 2.65843177e+00 2.91191745e+00 2.86438894e+00 2.89924335e+00 2.96261477e+00 2.82319760e+00 2.93092895e+00 3.03232336e+00 2.99746895e+00 2.94360328e+00 2.92459178e+00 2.89290619e+00 2.74715185e+00 2.65209460e+00 2.74398327e+00 2.42712617e+00 2.62991476e+00 2.64892602e+00 2.70596027e+00 2.57604885e+00 2.56971169e+00 2.60773468e+00 2.50317168e+00 2.34474325e+00 2.35741758e+00 2.70596027e+00 2.56020617e+00 2.35424900e+00 2.23701167e+00 2.18631458e+00 2.21483183e+00 2.16730309e+00 2.00253749e+00 2.08492041e+00 2.07858324e+00 2.12611175e+00 1.94233453e+00 2.05957174e+00 1.84094024e+00 1.92649174e+00 1.72370315e+00 1.72687173e+00 1.73637736e+00 1.79024315e+00 1.65716314e+00 1.62230885e+00 1.61597168e+00 1.53675735e+00 1.64765739e+00 1.46071160e+00 1.47655451e+00 1.37832880e+00 1.44170022e+00 1.28327155e+00 1.36248589e+00 1.25475442e+00 1.27376592e+00 1.33080018e+00 1.30862021e+00 1.24841738e+00 1.23257446e+00 1.16603446e+00 1.22623730e+00 1.26426017e+00 1.15019155e+00 1.15652871e+00 1.12484300e+00 1.02661729e+00 1.08048296e+00 1.11216867e+00 1.11216867e+00 1.02661729e+00 1.02661729e+00 9.12548721e-01 1.05513442e+00 1.01394296e+00 8.30165803e-01 8.52345824e-01 7.88974404e-01 8.01648676e-01 7.85805821e-01 8.96705866e-01 8.20660114e-01 8.14322948e-01 8.46008718e-01 7.85805821e-01 7.69962966e-01 6.93917215e-01 7.66794384e-01 7.44614363e-01 6.36882961e-01 6.62231505e-01 6.65400088e-01 6.74905837e-01 6.11534357e-01 6.46388650e-01 6.11534357e-01 6.24208689e-01 5.89354396e-01 5.67174375e-01 6.27377212e-01 5.13308644e-01 5.10140061e-01 5.32320082e-01 5.35488665e-01 5.06971478e-01 4.30925786e-01 4.24588621e-01 5.03802955e-01 4.05577213e-01 4.08745766e-01 4.56274360e-01 4.56274360e-01 3.70722920e-01 3.73891473e-01 3.73891473e-01 4.11914349e-01 3.86565775e-01 3.48542899e-01 3.32700044e-01 3.13688606e-01 3.16857189e-01 2.59822905e-01 2.31305748e-01 2.66160041e-01 2.47148603e-01 2.43980035e-01 2.24968597e-01 2.21800029e-01 2.12294310e-01 2.05957174e-01 1.67934313e-01 1.64765731e-01 1.93282887e-01 1.26742870e-01 1.23574302e-01 1.42585739e-01 1.64765731e-01 8.87200087e-02 1.01394303e-01 8.55514407e-02 7.60457218e-02 1.23574302e-01 1.07731447e-01 6.02028668e-02 7.92142972e-02 6.33714348e-02 5.70342951e-02 4.11914326e-02 6.02028668e-02 3.16857174e-02 5.06971516e-02 6.65400103e-02 3.16857174e-02 2.85171475e-02 4.11914326e-02 9.50571522e-03 2.21800022e-02 2.85171475e-02 3.16857197e-03 1.26742879e-02 6.33714395e-03 6.33714395e-03 6.33714395e-03 2.53485758e-02 3.16857197e-03 6.33714395e-03 6.33714395e-03 3.16857197e-03 6.33714395e-03 0.00000000e+00 0.00000000e+00 3.16857197e-03 3.16857197e-03 3.16857197e-03 0.00000000e+00 0.00000000e+00 0.00000000e+00 3.16857197e-03 3.16857197e-03 0.00000000e+00 0.00000000e+00 0.00000000e+00 0.00000000e+00 0.00000000e+00 0.00000000e+00 0.00000000e+00 
      </Histogram>
    </PDF>
    <PDF Name="MLP_PDFBkg" MinNSmooth="0" MaxNSmooth="0" InterpolMethod="5" KDE_type="1" KDE_iter="2" KDE_border="1" KDE_finefactor="3.0000001192092896e-01">
      <Histogram Name="MLP_tr_B_original" NBins="250" XMin="6.0159657150506973e-02" XMax="9.7197043895721436e-01" HasEquidistantBins="1">
        1.03121489e-01 3.21576238e-01 5.23748636e-01 7.76124895e-01 1.04885411e+00 1.17775595e+00 1.40163815e+00 1.61330855e+00 1.79377115e+00 1.98373187e+00 2.00272799e+00 2.17233562e+00 2.23068070e+00 2.21846890e+00 2.32294726e+00 2.40571594e+00 2.36093950e+00 2.53326082e+00 2.44777846e+00 2.53733134e+00 2.53868818e+00 2.53733134e+00 2.57125306e+00 2.63909602e+00 2.64859414e+00 2.80734682e+00 2.79106450e+00 2.79513526e+00 2.83177042e+00 2.82091546e+00 2.99866438e+00 2.82091546e+00 3.08957410e+00 2.97559786e+00 3.08143306e+00 3.12620950e+00 3.19540930e+00 3.21983290e+00 3.25918198e+00 3.23340154e+00 3.14113498e+00 3.31616998e+00 3.31888390e+00 3.20219374e+00 3.21983290e+00 3.36230326e+00 3.38129950e+00 3.26732302e+00 3.41793466e+00 3.28903294e+00 3.35144854e+00 3.35280538e+00 3.40843678e+00 3.27275038e+00 3.27546430e+00 3.23475838e+00 3.20626426e+00 3.22390342e+00 3.22390342e+00 3.17234278e+00 3.15470362e+00 3.09500170e+00 3.00544882e+00 2.98102522e+00 3.00680566e+00 2.84669590e+00 2.91589594e+00 2.76528430e+00 2.65944910e+00 2.66216278e+00 2.59974718e+00 2.53054714e+00 2.50340986e+00 2.45727658e+00 2.39757466e+00 2.36908054e+00 2.25374722e+00 2.21982574e+00 2.13298655e+00 2.08549643e+00 2.13162971e+00 1.97152007e+00 1.89553583e+00 1.88196719e+00 1.79648495e+00 1.76392031e+00 1.81141043e+00 1.68522227e+00 1.61466551e+00 1.73135555e+00 1.60923803e+00 1.52375567e+00 1.53053999e+00 1.48440671e+00 1.44912827e+00 1.39621067e+00 1.30530095e+00 1.26459515e+00 1.21439123e+00 1.17097163e+00 1.05292475e+00 1.15604615e+00 1.11805403e+00 9.90509033e-01 1.00543451e+00 8.88744414e-01 8.99599314e-01 8.76532674e-01 8.45324874e-01 8.03262115e-01 8.07332754e-01 8.14117014e-01 7.44917095e-01 7.17779875e-01 6.74360275e-01 6.93356335e-01 6.56721056e-01 5.56313336e-01 6.09230936e-01 6.09230936e-01 5.26462376e-01 5.44101536e-01 5.22391737e-01 4.85756487e-01 4.84399647e-01 4.42336917e-01 4.53191817e-01 4.53191817e-01 3.69066387e-01 4.58619267e-01 4.36909467e-01 3.60925227e-01 3.52784038e-01 3.56854647e-01 3.45999748e-01 3.27003688e-01 2.79513508e-01 3.10721338e-01 2.60517448e-01 3.12078208e-01 2.61874318e-01 2.94438988e-01 2.59160578e-01 2.38807663e-01 2.19811603e-01 2.61874318e-01 2.27952763e-01 2.74086058e-01 2.15741009e-01 2.36093938e-01 2.04886124e-01 2.27952763e-01 1.76392019e-01 1.96744949e-01 1.68250859e-01 1.70964584e-01 1.64180264e-01 1.84533194e-01 1.64180264e-01 1.56039104e-01 1.56039104e-01 1.07192077e-01 1.35686174e-01 1.24831282e-01 1.38399899e-01 1.04478352e-01 1.15333244e-01 8.27685669e-02 1.03121489e-01 1.16690107e-01 8.00548419e-02 7.46273920e-02 8.81960094e-02 9.22665969e-02 8.68391544e-02 8.54822919e-02 6.78430870e-02 4.47764359e-02 6.51293620e-02 5.15607446e-02 6.10587783e-02 4.88470234e-02 6.10587783e-02 5.02038822e-02 5.69881909e-02 4.20627147e-02 2.98509579e-02 3.93489897e-02 3.93489897e-02 3.66352685e-02 3.52784060e-02 2.03529261e-02 3.93489897e-02 3.12078204e-02 2.71372348e-02 2.84940954e-02 2.44235117e-02 2.03529261e-02 9.49803181e-03 2.03529261e-02 1.35686174e-02 1.62823405e-02 1.35686174e-02 1.49254790e-02 9.49803181e-03 5.42744715e-03 1.08548943e-02 1.22117558e-02 1.22117558e-02 1.35686174e-02 1.35686179e-03 4.07058513e-03 4.07058513e-03 2.71372357e-03 2.71372357e-03 2.71372357e-03 2.71372357e-03 1.35686179e-03 1.35686179e-03 1.35686179e-03 0.00000000e+00 1.35686179e-03 2.71372357e-03 1.35686179e-03 2.71372357e-03 0.00000000e+00 0.00000000e+00 1.35686179e-03 0.00000000e+00 1.35686179e-03 1.35686179e-03 0.00000000e+00 1.35686179e-03 0.00000000e+00 0.00000000e+00 0.00000000e+00 0.00000000e+00 0.00000000e+00 0.00000000e+00 0.00000000e+00 0.00000000e+00 0.00000000e+00 0.00000000e+00 0.00000000e+00 0.00000000e+00 0.00000000e+00 0.00000000e+00 0.00000000e+00 0.00000000e+00 0.00000000e+00 
      </Histogram>
    </PDF>
  </MVAPdfs>
  <Weights>
    <Layout NLayers="4">
      <Layer Index="0" NNeurons="5">
        <Neuron NSynapses="4">
          -3.9818382550987539e+00 2.6314218470645817e-01 7.6117388189406510e-01 4.5478525550434385e+00 
        </Neuron>
        <Neuron NSynapses="4">
          -1.8773423032318706e+00 -3.2604192321311363e+00 -2.9775623561951270e-01 -7.4057657726858528e-01 
        </Neuron>
        <Neuron NSynapses="4">
          5.4527145472900451e-01 -2.5320891021023284e-01 -2.8878162397580063e+00 2.2866410739858658e+00 
        </Neuron>
        <Neuron NSynapses="4">
          -6.7369123565626143e+00 4.0827553759306029e-01 2.1190333822165659e+00 -2.0220735896714968e+00 
        </Neuron>
        <Neuron NSynapses="4">
          -4.9811623280055786e+00 1.3275721860884382e+00 -1.0864384470006474e+00 1.4375914799985530e+00 
        </Neuron>
      </Layer>
      <Layer Index="1" NNeurons="5">
        <Neuron NSynapses="3">
          -2.4746244921515705e+00 -3.5490744876602616e+00 9.6572011409427883e-01 
        </Neuron>
        <Neuron NSynapses="3">
          -7.7627608395258385e-01 -5.3293111145789707e-01 -2.2659843516972744e+00 
        </Neuron>
        <Neuron NSynapses="3">
          1.4053388084116747e+00 -1.9662454832675331e+00 -2.2295736215013706e+00 
        </Neuron>
        <Neuron NSynapses="3">
          -1.5414444228285402e+00 -1.1680653385890836e+00 2.6345647190845654e+00 
        </Neuron>
        <Neuron NSynapses="3">
          -2.0238046266656493e+00 -5.1595366221083905e-01 -1.4046724910468162e+00 
        </Neuron>
      </Layer>
      <Layer Index="2" NNeurons="4">
        <Neuron NSynapses="1">
          -1.3032261917552443e+00 
        </Neuron>
        <Neuron NSynapses="1">
          -1.7713782275268837e+00 
        </Neuron>
        <Neuron NSynapses="1">
          7.9400173688897990e-01 
        </Neuron>
        <Neuron NSynapses="1">
          3.9511612615371311e-01 
        </Neuron>
      </Layer>
      <Layer Index="3" NNeurons="1">
        <Neuron NSynapses="0"/>
      </Layer>
    </Layout>
    <InverseHessian NElements="1521" NRows="39" NCols="39">
      <Row Index="0">
        2.7960029230743824e+00 -1.7341760332088032e+00 -3.3516761743955964e-01 -1.7843373745364144e-01 1.4329238850707573e+00 1.9633141672865184e+00 9.0216326116316026e-01 4.8131550804604883e-01 3.5953805874027889e-01 3.3289986307191066e-01 -1.7168810865137831e+00 -4.0327967273272386e-01 4.6969930858832187e+00 -2.3739650992998325e+00 -1.2689756263424878e+00 1.1853184250552440e+00 2.4909255592626041e+00 -7.4040414872676696e-01 -2.0100663376704300e+00 5.2318084664252651e-01 -7.5219535702797806e+00 -1.3392918835540380e+01 1.7737463245807423e+00 -3.8791081283507334e-01 -4.6984544292945092e+00 -3.7116663715713343e+00 3.4814757653177488e+00 -5.8081654380039609e+00 8.1393242304775071e-01 -2.7071676586498583e+00 -3.4028665668505678e+00 4.2052716822941405e-01 1.3891753085813601e+01 5.0031116564530045e+01 2.7146145859834085e+00 1.8271098951777130e+01 6.8414733762785943e+01 -1.9634125504523720e-01 -1.7844088720685092e-01 
      </Row>
      <Row Index="1">
        -1.7341760330480351e+00 7.5837324629632077e+00 1.8769531823022589e-01 -3.1928418896775645e-01 -4.1786441951151732e-01 -6.5520617159316421e+00 -4.2581069036573602e+00 -1.6581258544622766e+00 8.6725932388573279e-01 -6.8622981858188181e-01 6.1366887767064382e-01 -7.2915935647531571e-01 -3.0510395277582001e+00 9.9130238312752681e+00 -1.3257204137368979e+00 -1.1531297496817792e+00 -1.0001163455011510e+00 3.3453053393973713e+00 -4.9326509487772263e-01 -1.6030523597275939e+00 2.9125675573794858e+00 9.1710525238453986e+00 -1.9365718910490606e+00 -2.4381022281496030e+00 1.1187600815656541e+01 1.1631766256069618e+01 -4.3300829877175477e+00 3.4502310017533206e+00 1.1604171724822885e+00 4.1651135185355113e+00 1.8927283669182335e+00 -1.6091587176055189e-01 -1.2333741033098054e+01 -3.5812185559631878e+01 -9.6301152798991829e+00 -2.0140578021844441e+01 -3.7534529332839746e+01 -3.1670701499114551e-02 1.0494209159542386e-01 
      </Row>
      <Row Index="2">
        -3.3516761762053404e-01 1.8769531849454779e-01 1.9969163386575246e+01 -3.9494785691701080e+00 -1.1535296900778571e+00 2.7760837303852909e-01 1.4623396841982104e+00 1.1982580342240952e+00 -2.4603183412889367e+00 -5.6411346544870566e-01 2.8208647070015580e+00 1.6544224438353652e+00 6.7249854396857600e-01 1.1001728196224094e+00 1.3602958750101291e+01 -3.7242876751432602e-01 -3.4722792494548682e+00 1.4333551450823068e+00 1.5188332996268796e+01 -9.4094917589557425e-01 1.8051253228652531e+00 -2.4929358670502246e+00 -5.3132545866774601e+00 -1.8910067092689280e+00 -5.4427453366087986e-01 2.7849342867306164e+00 1.9042496031381173e+01 1.4681018184152745e+01 9.2706508627239934e+00 -1.2793292221923831e+01 5.7508322977992217e+00 1.9076503535414693e+00 9.4253987128340260e+00 -3.1453316274440478e+01 -1.1088103805753668e+00 3.4447909639200063e+01 -5.1541608303464479e+01 1.2802883366778475e+00 -2.9715347357897348e-01 
      </Row>
      <Row Index="3">
        -1.7843373760066861e-01 -3.1928418884339749e-01 -3.9494785691510970e+00 3.1650522593324921e+00 -6.9763163134706296e-01 1.1048838362396260e+00 -1.0186172598564069e-01 -7.0077316207112761e-01 -4.0254289435632251e-02 -3.2078852955681253e-01 -8.8793222438769392e-01 3.1570849974768861e-01 -2.1860191224350363e+00 -9.0943570327168288e-01 -2.2041382285988673e+00 2.8385657854652147e-01 -7.2340722403916657e-01 -1.8708522148845352e-01 -1.6549700168469819e+00 4.1524261227863624e-01 2.1803112746917623e+00 2.9408730142171673e+00 1.4097208266953816e+00 2.0813189307191395e+00 -1.0499051527675678e+00 -2.4190214626712989e+00 -1.9929385978174634e+00 2.7173262147670592e+00 -4.7851851867108075e-01 2.8300309325290769e+00 -3.5358968870128793e-01 -2.4873130917875113e+00 -1.2760887725603528e+01 -8.5235205626019575e+00 4.0005166643157342e+00 -1.2855367429962088e+01 -1.3473584173504033e+01 -3.4028315204756399e-01 1.5193200894045300e-02 
      </Row>
      <Row Index="4">
        1.4329238851316646e+00 -4.1786441968815780e-01 -1.1535296899969580e+00 -6.9763163122663907e-01 1.9747009879392179e+00 8.0436921266448280e-01 -6.7054693059902970e-02 4.9787351430073179e-02 5.2199879799010951e-01 1.8325787225991652e-01 -5.5101717735370137e-01 -9.5010047465984004e-01 3.9132785107089743e+00 -6.2912756847684381e-02 -1.8924304122098077e+00 1.2208171471196132e+00 2.5578295953096504e+00 7.2430260197405538e-01 -2.4120719088459150e+00 2.8356828627464914e-01 -5.4117900821566813e+00 -9.4727196200335584e+00 1.3716842779870075e+00 -3.9687486031235828e+00 -2.0769082803789418e+00 -2.4037010224371138e+00 1.8703137590687042e+00 -6.5763320383769051e+00 -7.0094697302469666e-01 -6.3788939792193233e-01 -3.4585775737225219e+00 1.4196793352751906e+00 1.5705943163362846e+01 4.1250588062801818e+01 1.2862132334216199e+00 1.3847984700415136e+01 5.8259059648160630e+01 -4.9499812803523702e-01 -7.4798368510583357e-02 
      </Row>
      <Row Index="5">
        1.9633141665245546e+00 -6.5520617156037133e+00 2.7760837380628800e-01 1.1048838364839206e+00 8.0436921197617650e-01 2.4570707686211449e+01 9.2249166142200441e+00 3.4803978956695913e-01 -2.0831593505487387e+00 6.1813831886501824e-01 1.5038932870631925e+00 -5.9881265138362161e-01 4.6031589739743488e+00 -6.1864753272289024e+00 -1.7007839232711119e-01 4.1452987946056297e+00 4.2481534274207577e-01 7.0374033257243855e+00 4.6966884170549452e+00 1.7529473353518590e+00 -5.7027056208047560e+00 -9.9896198476575240e+00 1.5322338785095979e+00 4.2345487007977258e+00 -2.0770653004420019e+01 -3.6338575521660943e+01 1.3956282396727381e+01 6.3288347583393345e-01 -9.5602620217755285e-01 -6.1534253703938635e+00 -8.2505722003011328e-01 6.7900018398386930e-01 2.0706351342435084e+01 3.8892323259645963e+01 3.8264668267579360e+01 4.2775853423601184e+01 2.6837974556178199e+01 -2.2387127212294127e+00 -2.3092374686841668e-01 
      </Row>
      <Row Index="6">
        9.0216326105708156e-01 -4.2581069036497752e+00 1.4623396845831849e+00 -1.0186172597304521e-01 -6.7054693147543878e-02 9.2249166142615024e+00 1.4105838064340105e+01 1.0720135404840621e+00 -1.9769861360083449e+00 2.9746992137646959e+00 7.4086924032849737e+00 2.7284090028439201e-01 3.2273216159651952e+00 -8.0847521576711578e+00 8.5429674351958269e+00 2.2498677184853109e+00 -1.0207108333193822e+00 -3.2972224884836074e+00 1.1622440553332790e+01 1.7084169079518303e+00 -7.7317589556575950e+00 -9.9495498116850953e+00 -1.8414626801512566e+00 4.4551344046069188e+00 -8.6840623326821600e+00 -1.0636385794313426e+01 1.2749609869303926e+01 -6.4566052610807629e+00 -6.7943489204623049e+00 -7.6572159150463071e+00 -5.9097998417454478e-01 -1.2446283312232989e+00 2.7410337748775479e+01 8.0233678736364773e+00 1.3136129303884228e+01 4.6544172881315660e+01 -6.3007871072353527e+00 4.8301368132514577e-01 -2.6494774942689897e-01 
      </Row>
      <Row Index="7">
        4.8131550801630585e-01 -1.6581258544492812e+00 1.1982580342232154e+00 -7.0077316203204554e-01 4.9787351406154062e-02 3.4803978956618664e-01 1.0720135403938158e+00 1.5059390724988901e+00 -5.7143895664756394e-01 -2.1546309041067957e-01 5.4849987719798321e-01 2.3601574785235344e-01 1.3487233052159784e+00 -1.0149466183165217e+00 1.6411180192289481e+00 1.0210411945801432e+00 2.7920831484994751e-01 3.5074641343939938e-01 1.1637122866499523e+00 9.9060486627876454e-01 4.6382915360860133e-01 -1.7003859506617220e+00 8.0812599020580356e-02 -3.3883253235914266e+00 -1.6974238173329699e+00 -2.0913274630312801e+00 4.5940039018844399e+00 7.6727699420313933e-01 -4.5462932225891728e-01 -2.4463354243612403e+00 -2.5763632289709831e-01 7.0578330710071269e-01 1.0078212698743663e+01 5.1274285508821054e+00 1.6740274386335310e+00 1.2622797547110224e+01 3.8696067026949157e+00 -4.8586548553140263e-02 -9.9888195585060569e-03 
      </Row>
      <Row Index="8">
        3.5953805877210598e-01 8.6725932382216797e-01 -2.4603183412820044e+00 -4.0254289404837967e-02 5.2199879798232285e-01 -2.0831593502380201e+00 -1.9769861358749159e+00 -5.7143895666514688e-01 2.1301842116739738e+00 6.1624707610803853e-01 -3.2905313868268991e+00 -5.8619382932830311e-01 -1.5781876711578491e-01 3.3198775725279284e-01 -2.3938516437660469e+00 -8.6092993386574257e-01 1.6305331347283554e+00 -1.4757900698946571e+00 -3.4286350096568383e+00 -6.6335184432903294e-01 -1.4464910294212974e-01 -2.1707639381859005e+00 2.1649193088817031e+00 3.4947671517483032e+00 1.1319483843578813e+00 3.1212300209051449e+00 -5.6003701698597572e+00 -2.6062191479653696e+00 2.8148868357591610e+00 4.9278526598899237e+00 -3.4500160389864214e+00 5.6425549110916551e-01 -1.5105963271053309e+01 2.0555968237511728e+01 -5.7517218890450330e+00 -1.8328380215461777e+01 3.3237110291875837e+01 -1.5494321784233478e-01 4.0285030346916051e-02 
      </Row>
      <Row Index="9">
        3.3289986292060370e-01 -6.8622981845456366e-01 -5.6411346537134932e-01 -3.2078852951927050e-01 1.8325787213466385e-01 6.1813831869747560e-01 2.9746992136674351e+00 -2.1546309043156539e-01 6.1624707607624263e-01 4.1862875662133376e+00 6.8394007521580136e-01 -1.7436532844881103e-01 6.2536855440744432e-01 -1.6401519327692413e+00 -1.5255165711411056e-02 -2.4368794800247642e-01 2.3611676998555020e-01 -2.3360431458803177e+00 3.8217114161380836e+00 1.1950767867649767e-01 8.3969276884168820e-01 -7.2093857964658015e-01 -8.6504891962842190e-01 4.1681244816368848e+00 -1.8006490136448172e+00 2.3253843191617580e+00 7.6230275186528607e+00 4.6312645059063353e+00 2.5681888848575953e+00 2.3172492656179000e-01 -1.2390693068867602e+00 -9.0115828558269662e-01 -1.0640011083769483e+01 6.2865071612359911e+00 -2.6251131962911902e+00 4.2273236620684669e+00 3.4412240397369693e+00 1.0689249336639737e+00 -5.3845975662062701e-02 
      </Row>
      <Row Index="10">
        -1.7168810861708295e+00 6.1366887749909438e-01 2.8208647070473489e+00 -8.8793222461817456e-01 -5.5101717698328145e-01 1.5038932867121275e+00 7.4086924032451407e+00 5.4849987736567130e-01 -3.2905313868325599e+00 6.8394007519145816e-01 2.0805299775182334e+01 1.0580023247927761e-01 8.4224260131054507e-01 1.1913151489534519e+00 6.4814511582115513e+00 2.3457355762197505e+00 -2.5745270913595348e+00 3.5017959419080285e+00 1.0866429355218171e+01 1.0369305101232904e+00 -9.8481580513915077e+00 5.9513501780876501e+00 -6.3585665043086737e+00 -2.9391370392894309e+00 2.1576549804343013e+00 -1.8102549870053366e+00 9.9388287363611187e+00 -1.1910214230023975e+01 -1.8959301879099986e+01 -1.0366385595466722e+01 6.1264054605101119e+00 -1.6808415543116055e+00 5.3072389054519462e+01 -5.5238919763714797e+01 1.0933813968224399e+01 5.7098553563515452e+01 -8.6389136518533405e+01 2.5052287233328752e-01 -1.0183982500086652e-01 
      </Row>
      <Row Index="11">
        -4.0327967267325704e-01 -7.2915935643334251e-01 1.6544224437625417e+00 3.1570849965126030e-01 -9.5010047457645352e-01 -5.9881265172566600e-01 2.7284090025125352e-01 2.3601574785902457e-01 -5.8619382931531128e-01 -1.7436532851809261e-01 1.0580023263196381e-01 1.9069142649587552e+00 -1.6610366800172756e+00 -8.1937461159772207e-01 3.1702948057079410e+00 -1.1132054547365089e+00 -1.0381790065982435e+00 -1.8272135294330809e+00 1.1252913855344844e+00 6.3959380894265117e-02 2.6355401229118049e+00 5.0996459876389686e+00 -8.8778805822587514e-01 2.9906677660178507e+00 1.7469472862696718e+00 3.1564502665574254e+00 -1.9821170061502349e+00 2.6411364335719769e+00 -4.6930035762598488e-01 -1.7698971790079323e+00 2.5805706728863820e+00 -7.3872585050767814e-01 -5.0169901803323231e+00 -2.5126270562274549e+01 -3.6977063701151547e+00 -4.6381567379556063e+00 -3.4222864609039178e+01 6.8892756587157333e-01 6.5562150775971634e-02 
      </Row>
      <Row Index="12">
        4.6969930860239515e+00 -3.0510395282021818e+00 6.7249854434612644e-01 -2.1860191221621195e+00 3.9132785107146715e+00 4.6031589756566973e+00 3.2273216161781875e+00 1.3487233053355965e+00 -1.5781876716751952e-01 6.2536855474354525e-01 8.4224260044084076e-01 -1.6610366802265588e+00 1.1722214846310862e+01 -2.4144863942460537e+00 -8.3242802208047106e-01 3.3002674681475455e+00 5.3959076068624388e+00 1.2654493920190362e+00 -2.2921186853446174e+00 1.3753777992247884e+00 -1.6883999431812203e+01 -2.7127520477832768e+01 1.5107320807016478e+00 -4.6658144911799910e+00 -8.8775042455457793e+00 -8.7369687440181121e+00 1.0518768440001709e+01 -1.6692441562832595e+01 -4.1455654823710324e+00 -8.4776809247807350e+00 -6.1979599421551370e+00 2.8258508133522691e+00 5.1824427609764356e+01 9.9896670503287226e+01 7.4989465880861097e+00 5.9584597160540646e+01 1.3484953487279969e+02 -6.1498545614903921e-01 -3.1178243760529112e-01 
      </Row>
      <Row Index="13">
        -2.3739650989963792e+00 9.9130238311934136e+00 1.1001728191199618e+00 -9.0943570343288871e-01 -6.2912756528352168e-02 -6.1864753276122428e+00 -8.0847521577152293e+00 -1.0149466183308249e+00 3.3198775740186193e-01 -1.6401519329485836e+00 1.1913151490183509e+00 -8.1937461171113124e-01 -2.4144863935049727e+00 2.5275472380308116e+01 -5.1208942988837274e+00 -7.1152512174022675e-01 -1.4011155112554352e+00 1.5281689462988538e+01 -3.0086443089082824e+00 -7.5494957188086809e-01 1.6625392303200517e+00 1.5057430857130313e+01 -4.7244441145546787e+00 -1.5367023686592404e+01 1.7617443792272745e+01 1.1545407489131486e+01 -8.2201066635805091e+00 3.2564612673720079e+00 -8.2608032137552834e-01 2.8818932282608647e+00 6.8334271362314709e+00 1.3838641724494112e+00 5.0102152467494605e+00 -5.9714481615825804e+01 -6.5790366546533559e+00 -2.1608138522544508e+01 -6.2319403308259552e+01 -9.8594820168921227e-01 2.2397177303861787e-01 
      </Row>
      <Row Index="14">
        -1.2689756264332743e+00 -1.3257204134658878e+00 1.3602958750215066e+01 -2.2041382287643230e+00 -1.8924304121960389e+00 -1.7007839335110475e-01 8.5429674349338711e+00 1.6411180192752752e+00 -2.3938516438347186e+00 -1.5255165822964045e-02 6.4814511585309447e+00 3.1702948057922509e+00 -8.3242802210961031e-01 -5.1208942983314980e+00 2.4351991435851154e+01 -1.5175060108961169e-01 -3.8228665237962742e+00 -5.8912814768041812e+00 1.9449072934301402e+01 8.5183445195681240e-01 8.1440728970687566e+00 -3.8458985043644485e+00 -3.8260183799902974e+00 1.1397980064364935e+01 4.5707177363941476e-02 6.1302408565666227e+00 1.6980269904607134e+01 7.7916440465514984e+00 7.4802414285730645e-01 -7.1158452891851258e+00 -2.5335338148252889e-01 8.2757650723901621e-01 -4.1286020711382250e+00 -4.5014327989387397e+01 -7.5463094518621006e+00 3.0197663075009494e+01 -7.8507084114462913e+01 1.8825565970640552e+00 -1.3126243202626997e-01 
      </Row>
      <Row Index="15">
        1.1853184246669954e+00 -1.1531297494947239e+00 -3.7242876729783347e-01 2.8385657875647574e-01 1.2208171467722686e+00 4.1452987946305484e+00 2.2498677182488791e+00 1.0210411945476991e+00 -8.6092993393043926e-01 -2.4368794791485016e-01 2.3457355759731513e+00 -1.1132054546095755e+00 3.3002674671570560e+00 -7.1152512151577829e-01 -1.5175060084413161e-01 5.0983359671770030e+00 1.3096040624291612e+00 3.3323874379075704e+00 2.8656220312500023e+00 1.9650646239609906e+00 -7.1244083255613755e-01 -7.4233161335900508e+00 1.9283682799530732e+00 -6.0057159243869407e+00 -6.4353299674769522e+00 -1.0452464864049842e+01 1.8567527184356237e+01 4.3301046959858693e+00 1.6080075435246182e+00 -2.0388082899216045e+00 -4.5170786821951410e+00 3.5188253807139858e-01 1.6160887937140430e+01 3.2133906755096760e+01 1.2386428583083724e+01 3.5067797650710666e+01 3.2718177715171421e+01 -1.3083829528984356e+00 -1.7991246007389419e-01 
      </Row>
      <Row Index="16">
        2.4909255593762225e+00 -1.0001163458150586e+00 -3.4722792492466397e+00 -7.2340722386104006e-01 2.5578295953127279e+00 4.2481534397325049e-01 -1.0207108330755545e+00 2.7920831490227727e-01 1.6305331347007410e+00 2.3611677019607669e-01 -2.5745270918387178e+00 -1.0381790067303598e+00 5.3959076069243110e+00 -1.4011155118104202e+00 -3.8228665237317472e+00 1.3096040630404104e+00 5.3068954896969593e+00 -5.8453822082174156e-01 -7.0012145945250062e+00 -6.1308628541166699e-02 -6.6147118083985070e+00 -1.2333407064949721e+01 4.1205337622866427e+00 -8.2550827243162317e-02 -3.9169000131480440e+00 -3.3224865479713501e+00 -4.4297808870381061e-01 -1.1984186974522713e+01 -2.0703095770852360e+00 -1.4467524683747435e-01 -7.0922094584720048e+00 1.6173088601794341e+00 1.7632986296978270e+01 7.4128565327604122e+01 4.3717131236999052e-02 1.6293519766159577e+01 1.0603046240879850e+02 -9.3962469278963756e-01 -3.3428678107411236e-02 
      </Row>
      <Row Index="17">
        -7.4040414910515473e-01 3.3453053396131622e+00 1.4333551451506423e+00 -1.8708522136131234e-01 7.2430260166464255e-01 7.0374033254178983e+00 -3.2972224886839854e+00 3.5074641338743717e-01 -1.4757900699429944e+00 -2.3360431458879702e+00 3.5017959419633655e+00 -1.8272135292678513e+00 1.2654493911441200e+00 1.5281689463286725e+01 -5.8912814765767809e+00 3.3323874376618647e+00 -5.8453822135787870e-01 1.9126066317965005e+01 -1.6960322411996076e-01 9.1038757466850706e-01 1.2530298896638747e-01 4.3391764787269294e+00 -1.6660190959464216e+00 -1.5173677309278693e+01 -2.2636633186625583e+00 -1.7387806903789151e+01 7.3838366160651709e+00 4.8617715726622945e+00 -1.7762266433653608e+00 -1.7511141969984918e+00 3.2527146762935759e+00 2.5035985181722875e+00 2.2529836101592458e+01 -9.4702548454382303e+00 2.3567583777372064e+01 1.6425818860533564e+01 -1.8440668533379647e+01 -3.0755629665807485e+00 2.7204775094137310e-02 
      </Row>
      <Row Index="18">
        -2.0100663390531963e+00 -4.9326509349953085e-01 1.5188332996492136e+01 -1.6549700167306760e+00 -2.4120719098481080e+00 4.6966884140945240e+00 1.1622440552149101e+01 1.1637122864281366e+00 -3.4286350098409173e+00 3.8217114158460390e+00 1.0866429355919990e+01 1.1252913862421394e+00 -2.2921186882254290e+00 -3.0086443067698316e+00 1.9449072934953335e+01 2.8656220297520694e+00 -7.0012145962620576e+00 -1.6960322470106348e-01 3.5326281130524592e+01 2.1830731784493649e+00 2.5416015051649186e+01 3.4583344923914838e+00 -6.8234572529768061e+00 3.2410757107542230e+00 -5.5199194635531876e+00 -2.8083387687221704e+00 5.6670862921591805e+01 4.6402991971440045e+01 1.8026010083166266e+01 -4.2400794209594856e+00 3.2641813507822803e-01 -2.0866475282173891e-02 -4.3317240503632767e+01 -7.0004537934941652e+01 7.7448766574404146e+00 3.9580037463691035e+01 -1.3751777074055914e+02 1.4334228722973121e+00 -2.9274731776534135e-01 
      </Row>
      <Row Index="19">
        5.2318084644489815e-01 -1.6030523595729136e+00 -9.4094917586100735e-01 4.1524261234281212e-01 2.8356828611652485e-01 1.7529473350962270e+00 1.7084169077763711e+00 9.9060486624604938e-01 -6.6335184433882100e-01 1.1950767867399748e-01 1.0369305100707216e+00 6.3959380977077873e-02 1.3753777987536839e+00 -7.5494957166814469e-01 8.5183445203755226e-01 1.9650646238232972e+00 -6.1308628811504617e-02 9.1038757465430553e-01 2.1830731787450190e+00 1.8576522206063573e+00 1.9984138841554300e+00 -1.6748381938518380e+00 1.1316130839214804e-01 -2.8395812739231290e+00 -2.3665856959716436e+00 -3.7561741874686887e+00 8.3455315230778595e+00 4.4455557683308804e+00 6.0769646340653005e-01 1.0791939487591190e-03 -9.5956079641544734e-01 4.6346740438964729e-01 2.8992412296063952e+00 1.4389832791503805e+00 3.8561771152047548e+00 1.1406218582324886e+01 -4.8575724169301289e+00 -2.0095219767020644e-01 -1.1284651305292145e-02 
      </Row>
      <Row Index="20">
        -7.5219535736463001e+00 2.9125675606669574e+00 1.8051253227940833e+00 2.1803112751053639e+00 -5.4117900847368912e+00 -5.7027056271576839e+00 -7.7317589579763535e+00 4.6382915275762571e-01 -1.4464910322355706e-01 8.3969276800326043e-01 -9.8481580492743888e+00 2.6355401247178847e+00 -1.6883999438848832e+01 1.6625392351120354e+00 8.1440728988177256e+00 -7.1244083676878844e-01 -6.6147118124866866e+00 1.2530298720474775e-01 2.5416015050161263e+01 1.9984138830518756e+00 1.0766972855620217e+02 4.3365614147215872e+01 3.7362725274171265e+00 1.5463909936114067e+01 -3.1278092203565055e+00 1.3510378763082764e+00 7.4871305864644256e+01 1.1817519815167812e+02 4.7749457979763044e+01 2.9766919864765246e+01 -1.2058824954491328e+01 4.7881015428834663e+00 -2.2504452423671447e+02 -1.0488434752970279e+02 -1.1632040694426253e+01 -9.4798428017078677e+01 -1.9635548781641734e+02 -1.1253881096880392e+00 9.6059209476673024e-01 
      </Row>
      <Row Index="21">
        -1.3392918836060289e+01 9.1710525257149129e+00 -2.4929358685549232e+00 2.9408730130897851e+00 -9.4727196198568890e+00 -9.9896198553487920e+00 -9.9495498134019726e+00 -1.7003859509599124e+00 -2.1707639379055763e+00 -7.2093858099833596e-01 5.9513501806050044e+00 5.0996459883275236e+00 -2.7127520477898997e+01 1.5057430860564352e+01 -3.8458985052614025e+00 -7.4233161373031464e+00 -1.2333407064675548e+01 4.3391764754740052e+00 3.4583344810461085e+00 -1.6748381955317484e+00 4.3365614121290697e+01 1.3736980466449589e+02 -1.3866535202906400e+01 -1.5919663932738328e+00 3.3572235724246802e+01 2.5619161353690600e+01 -2.2601366112578489e+00 8.1439988675506839e+01 5.7263129968740634e-01 4.1121248550490490e+00 4.1862070763189877e+01 -7.7477418165958305e+00 -7.8690922646524882e+01 -4.5711188868095559e+02 -1.7003152490368009e+01 -8.1411983853246113e+01 -6.3134836780546459e+02 3.1329800359150690e+00 1.4686682012522438e+00 
      </Row>
      <Row Index="22">
        1.7737463242561091e+00 -1.9365718910366923e+00 -5.3132545863736595e+00 1.4097208269801911e+00 1.3716842776036335e+00 1.5322338793635026e+00 -1.8414626800104088e+00 8.0812598957706427e-02 2.1649193087888250e+00 -8.6504891944923656e-01 -6.3585665044836333e+00 -8.8778805812181005e-01 1.5107320798204569e+00 -4.7244441147257277e+00 -3.8260183794965670e+00 1.9283682801479678e+00 4.1205337617053095e+00 -1.6660190955547591e+00 -6.8234572508415852e+00 1.1316130857820639e-01 3.7362725325493500e+00 -1.3866535199635925e+01 8.3313411568193789e+00 3.9244863202356957e+00 -8.4265039512690425e+00 -9.2355666931083888e+00 1.3895957869110163e+00 -3.6311779858710627e+00 4.4397272564759582e+00 6.7022690227184398e+00 -1.2111668276426968e+01 1.3204087921811167e+00 -1.6295352091587414e+01 8.4755056840538458e+01 4.1126723771633102e+00 -9.0628483824080774e+00 1.1417026361850442e+02 -2.0270219311960154e+00 -3.3623749337813397e-02 
      </Row>
      <Row Index="23">
        -3.8791081358051116e-01 -2.4381022276219255e+00 -1.8910067077154054e+00 2.0813189304894406e+00 -3.9687486037780468e+00 4.2345487003145763e+00 4.4551344053570574e+00 -3.3883253234755344e+00 3.4947671509502634e+00 4.1681244816327307e+00 -2.9391370368394973e+00 2.9906677665810779e+00 -4.6658144920831575e+00 -1.5367023685720483e+01 1.1397980066374657e+01 -6.0057159245925824e+00 -8.2550828431302570e-02 -1.5173677309237377e+01 3.2410757129668397e+00 -2.8395812738380961e+00 1.5463909936403134e+01 -1.5919663847513323e+00 3.9244863180500733e+00 9.6515964624901613e+01 -2.0322939356430016e+01 -2.9174069921815349e-01 -6.0149982801167710e+00 1.6035755654682000e+00 2.8283555093517793e-02 1.0174016606461393e+01 -1.0595275982667257e+01 -1.6803235322498260e+00 -1.2567462239332333e+02 3.5894922416853476e+01 -9.3558865744650070e+00 -3.5637990819621365e+01 2.0824314905352018e+01 1.6683231323060213e+00 2.0826403009869168e-01 
      </Row>
      <Row Index="24">
        -4.6984544276484144e+00 1.1187600814928373e+01 -5.4427453509015322e-01 -1.0499051535207791e+00 -2.0769082788302953e+00 -2.0770653005002259e+01 -8.6840623323851105e+00 -1.6974238172234095e+00 1.1319483848826337e+00 -1.8006490140587630e+00 2.1576549804631213e+00 1.7469472856169901e+00 -8.8775042416413612e+00 1.7617443791512741e+01 4.5707175495380170e-02 -6.4353299675509064e+00 -3.9169000104943494e+00 -2.2636633196437970e+00 -5.5199194704416072e+00 -2.3665856965464194e+00 -3.1278092369179680e+00 3.3572235707960864e+01 -8.4265039499654648e+00 -2.0322939358987973e+01 4.2579935156627521e+01 4.4785874565410644e+01 -4.4606697812146137e+01 -1.2693263694934377e+01 -7.9088452844064818e+00 6.8833241189357750e+00 1.6913641694621731e+01 -1.8987659632956826e+00 8.1514131235831044e+00 -1.6806170545637778e+02 -4.2308115203848708e+01 -7.4194271539957086e+01 -1.8065706643887523e+02 2.9072246107158244e+00 5.1599898059347737e-01 
      </Row>
      <Row Index="25">
        -3.7116663698202501e+00 1.1631766255358798e+01 2.7849342852450718e+00 -2.4190214634088960e+00 -2.4037010208011615e+00 -3.6338575522112933e+01 -1.0636385794131002e+01 -2.0913274629266283e+00 3.1212300214691879e+00 2.3253843187394523e+00 -1.8102549872794498e+00 3.1564502658205740e+00 -8.7369687399352074e+00 1.1545407488439594e+01 6.1302408544333815e+00 -1.0452464863989725e+01 -3.3224865451568437e+00 -1.7387806904593276e+01 -2.8083387756493323e+00 -3.7561741880350219e+00 1.3510378602349844e+00 2.5619161336500753e+01 -9.2355666915590433e+00 -2.9174070186878254e-01 4.4785874564936925e+01 7.4783109932305507e+01 -3.1115719783334185e+01 -1.3780021800379474e+00 1.1919301802845155e+00 5.2016758381556087e+00 1.0997074177305194e+01 -4.5325532208231074e+00 -3.3433929694304211e+01 -1.3415172527089226e+02 -7.7233945113651600e+01 -7.4266311039248976e+01 -1.3119452247278892e+02 7.2776066402380808e+00 3.4099734128122133e-01 
      </Row>
      <Row Index="26">
        3.4814757597416985e+00 -4.3300829831748615e+00 1.9042496032654071e+01 -1.9929385961837802e+00 1.8703137546401871e+00 1.3956282389874787e+01 1.2749609864795048e+01 4.5940039009924192e+00 -5.6003701704850712e+00 7.6230275183183949e+00 9.9388287360827690e+00 -1.9821170037705684e+00 1.0518768427170301e+01 -8.2201066569102963e+00 1.6980269907021501e+01 1.8567527180511242e+01 -4.4297809629807894e-01 7.3838366162043485e+00 5.6670862929294081e+01 8.3455315229810836e+00 7.4871305892160052e+01 -2.2601365634745552e+00 1.3895957809628765e+00 -6.0149982832718631e+00 -4.4606697795005076e+01 -3.1115719767322815e+01 2.3978900279008693e+02 1.7497355842031288e+02 6.3096907907767942e+01 -2.4340615085665689e+01 -2.5391310306273667e+01 8.4619267309713031e-01 -9.2782656399642320e+01 6.8259833507779632e+01 3.7191364316253512e+01 2.3906349602945380e+02 -3.5155889005613133e+01 -7.2140593857245250e-01 -1.0175324263226253e+00 
      </Row>
      <Row Index="27">
        -5.8081654437037287e+00 3.4502310074085472e+00 1.4681018183942797e+01 2.7173262155409361e+00 -6.5763320426049994e+00 6.3288346430272213e-01 -6.4566052659911293e+00 7.6727699290023565e-01 -2.6062191482916717e+00 4.6312645045372847e+00 -1.1910214227770666e+01 2.6411364364594476e+00 -1.6692441575042039e+01 3.2564612758626765e+00 7.7916440486397676e+00 4.3301046891477526e+00 -1.1984186981474714e+01 4.8617715699981545e+00 4.6402991969462221e+01 4.4455557666979075e+00 1.1817519815557353e+02 8.1439988719826033e+01 -3.6311779940685334e+00 1.6035755607398432e+00 -1.2693263666768772e+01 -1.3780021524953969e+00 1.7497355837868938e+02 2.2569633551250513e+02 8.6090378530290081e+01 6.2522245690787486e+00 3.0650356444594138e+00 -1.4768521705830260e+00 -2.5742299265258106e+02 -2.3568872712062415e+02 1.5058268564275892e+00 4.3235902331557554e+00 -4.2188173567733099e+02 1.7970258009116797e+00 3.1278830577808625e-01 
      </Row>
      <Row Index="28">
        8.1393242056316950e-01 1.1604171746192264e+00 9.2706508627699122e+00 -4.7851851799957368e-01 -7.0094697505691927e-01 -9.5602620535919414e-01 -6.7943489221125333e+00 -4.5462932289979108e-01 2.8148868356130183e+00 2.5681888845260801e+00 -1.8959301878539748e+01 -4.6930035643734680e-01 -4.1455654879617754e+00 -8.2608031845722962e-01 7.4802414411055729e-01 1.6080075410797345e+00 -2.0703095802846141e+00 -1.7762266439680587e+00 1.8026010084501344e+01 6.0769646292502477e-01 4.7749457986614452e+01 5.7263131930979450e-01 4.4397272535399459e+00 2.8283556899390661e-02 -7.9088452754964003e+00 1.1919301885919753e+00 6.3096907897270341e+01 8.6090378537994667e+01 5.8678153566395252e+01 1.4765643419770178e+01 -1.1189151250735101e+01 2.6986433820172184e+00 -1.4569818526689494e+02 1.7738665464070106e+01 -8.5022863043939054e+00 -4.5483606534871200e+01 -4.6825017180695045e+00 2.6362175968229273e-01 -2.0610336579699029e-01 
      </Row>
      <Row Index="29">
        -2.7071676591335838e+00 4.1651135189871766e+00 -1.2793292222087274e+01 2.8300309325553163e+00 -6.3788939838028591e-01 -6.1534253710112736e+00 -7.6572159148592220e+00 -2.4463354246302975e+00 4.9278526598577530e+00 2.3172492639260156e-01 -1.0366385594462393e+01 -1.7698971786352753e+00 -8.4776809256615184e+00 2.8818932286965993e+00 -7.1158452884963737e+00 -2.0388082908955290e+00 -1.4467524735332341e-01 -1.7511141976547400e+00 -4.2400794220167448e+00 1.0791935503341454e-03 2.9766919861659421e+01 4.1121248579949095e+00 6.7022690217396681e+00 1.0174016609509700e+01 6.8833241215424383e+00 5.2016758406590977e+00 -2.4340615094900485e+01 6.2522245625354813e+00 1.4765643415844469e+01 3.7139217010855859e+01 -1.2030163382541364e+01 3.5691775427537067e+00 -1.1109475406168981e+02 2.2459914751320671e+00 -1.4256189764369402e+01 -1.2933530066672489e+02 9.0867528922965981e+00 -1.7973159882414906e+00 5.8866874796994195e-01 
      </Row>
      <Row Index="30">
        -3.4028665660242154e+00 1.8927283667762822e+00 5.7508322970434165e+00 -3.5358968937365631e-01 -3.4585775728072257e+00 -8.2505722174801122e-01 -5.9097998428023857e-01 -2.5763632277741522e-01 -3.4500160387453747e+00 -1.2390693072829890e+00 6.1264054610369385e+00 2.5805706726386148e+00 -6.1979599399414838e+00 6.8334271363676606e+00 -2.5335338251431949e-01 -4.5170786826707143e+00 -7.0922094570223155e+00 3.2527146752672706e+00 3.2641812995132113e-01 -9.5956079688847140e-01 -1.2058824967219785e+01 4.1862070754777641e+01 -1.2111668276355470e+01 -1.0595275986720086e+01 1.6913641697274375e+01 1.0997074180529342e+01 -2.5391310321056352e+01 3.0650356238340351e+00 -1.1189151258168636e+01 -1.2030163384900050e+01 2.9229050846587484e+01 -3.6953213355341887e+00 3.6530176373882938e+01 -1.9508660996471099e+02 -2.4085358173389864e+00 -1.1105715495939819e+01 -2.5347292956752614e+02 2.6576974925670172e+00 2.6223975333952043e-01 
      </Row>
      <Row Index="31">
        4.2052716810547253e-01 -1.6091587174014421e-01 1.9076503536305154e+00 -2.4873130916778035e+00 1.4196793351341639e+00 6.7900018425143571e-01 -1.2446283312039554e+00 7.0578330707350645e-01 5.6425549108548267e-01 -9.0115828552256971e-01 -1.6808415544055038e+00 -7.3872585046990835e-01 2.8258508130081310e+00 1.3838641724154215e+00 8.2757650739340605e-01 3.5188253812647918e-01 1.6173088599618857e+00 2.5035985183109091e+00 -2.0866474538500768e-02 4.6346740445374657e-01 4.7881015447621289e+00 -7.7477418153922653e+00 1.3204087921838188e+00 -1.6803235315291767e+00 -1.8987659636964374e+00 -4.5325532213166078e+00 8.4619267510752394e-01 -1.4768521676432442e+00 2.6986433831034446e+00 3.5691775431743906e+00 -3.6953213355512240e+00 5.8064257898990128e+00 -2.4068942561310638e+00 3.0912937776442806e+01 -3.8637621763111341e-01 -2.7280274955768640e+00 4.1495626835089489e+01 -1.2051715622129429e+00 1.2088322155053753e-01 
      </Row>
      <Row Index="32">
        1.3891753093521856e+01 -1.2333741040528366e+01 9.4253987123365732e+00 -1.2760887726277307e+01 1.5705943169483991e+01 2.0706351355926017e+01 2.7410337752376108e+01 1.0078212700802993e+01 -1.5105963269979000e+01 -1.0640011081851299e+01 5.3072389047141314e+01 -5.0169901847801768e+00 5.1824427625213389e+01 5.0102152362709944e+00 -4.1286020769138929e+00 1.6160887947072396e+01 1.7632986306351217e+01 2.2529836106128869e+01 -4.3317240500045727e+01 2.8992412324227104e+00 -2.2504452423082765e+02 -7.8690922705962322e+01 -1.6295352078721603e+01 -1.2567462239860012e+02 8.1514130857796374e+00 -3.3433929731102786e+01 -9.2782656331992570e+01 -2.5742299263534812e+02 -1.4569818524531246e+02 -1.1109475406561182e+02 3.6530176342988568e+01 -2.4068942513417113e+00 7.4760786993952854e+02 1.8273907644488452e+02 6.7931063431024683e+01 4.5298924762864624e+02 3.4256324277682387e+02 -1.7240081302674994e+00 -1.7773709173378389e+00 
      </Row>
      <Row Index="33">
        5.0031116563412070e+01 -3.5812185565009713e+01 -3.1453316267346963e+01 -8.5235205569209143e+00 4.1250588059315305e+01 3.8892323289052001e+01 8.0233678791228158e+00 5.1274285514787152e+00 2.0555968235823002e+01 6.2865071666165022e+00 -5.5238919773339148e+01 -2.5126270563640674e+01 9.9896670496205843e+01 -5.9714481626732777e+01 -4.5014327983554040e+01 3.2133906768186421e+01 7.4128565321963890e+01 -9.4702548317427500e+00 -7.0004537883271041e+01 1.4389832859506555e+00 -1.0488434740807605e+02 -4.5711188865305741e+02 8.4755056850398063e+01 3.5894922454452569e+01 -1.6806170551506148e+02 -1.3415172533480984e+02 6.8259833703305503e+01 -2.3568872691607567e+02 1.7738665549209600e+01 2.2459914920736992e+00 -1.9508660999038193e+02 3.0912937780173252e+01 1.8273907616164610e+02 2.0226818651338526e+03 8.1837479056611755e+01 3.1220831049873300e+02 2.7732276996142218e+03 -2.0440438662775477e+01 -4.0919975357531237e+00 
      </Row>
      <Row Index="34">
        2.7146145843354219e+00 -9.6301152791993445e+00 -1.1088103791817048e+00 4.0005166649399762e+00 1.2862132319382384e+00 3.8264668267588831e+01 1.3136129303563621e+01 1.6740274385875153e+00 -5.7517218895841040e+00 -2.6251131959356826e+00 1.0933813968513277e+01 -3.6977063694223062e+00 7.4989465842876086e+00 -6.5790366538608822e+00 -7.5463094499681489e+00 1.2386428582981122e+01 4.3717128604447097e-02 2.3567583778056758e+01 7.7448766636419606e+00 3.8561771157405378e+00 -1.1632040680002858e+01 -1.7003152474106180e+01 4.1126723755981907e+00 -9.3558865733550824e+00 -4.2308115202755026e+01 -7.7233945112944099e+01 3.7191364330511121e+01 1.5058268815824363e+00 -8.5022862968933879e+00 -1.4256189762207470e+01 -2.4085358140246171e+00 -3.8637621812018352e-01 6.7931063398937042e+01 8.1837478995195141e+01 9.1197271237856114e+01 1.0505988834239832e+02 5.6544282820176576e+01 -7.2165130832703639e+00 -5.7220269997750306e-01 
      </Row>
      <Row Index="35">
        1.8271098950560486e+01 -2.0140578022035697e+01 3.4447909641959995e+01 -1.2855367428499164e+01 1.3847984699373086e+01 4.2775853426469439e+01 4.6544172879163852e+01 1.2622797547905179e+01 -1.8328380216067984e+01 4.2273236634246132e+00 5.7098553558414096e+01 -4.6381567383067761e+00 5.9584597156318068e+01 -2.1608138522355148e+01 3.0197663074834026e+01 3.5067797654556571e+01 1.6293519763265742e+01 1.6425818865099927e+01 3.9580037480072519e+01 1.1406218584941421e+01 -9.4798427972410423e+01 -8.1411983834575523e+01 -9.0628483805713209e+00 -3.5637990828661238e+01 -7.4194271549557499e+01 -7.4266311049442152e+01 2.3906349609677000e+02 4.3235903125539608e+00 -4.5483606501279951e+01 -1.2933530066027276e+02 -1.1105715500764973e+01 -2.7280274945254064e+00 4.5298924753791596e+02 3.1220831045795865e+02 1.0505988835202241e+02 7.2166285164215856e+02 3.1142307829215235e+02 -8.5051013673236753e-01 -2.9515252742575040e+00 
      </Row>
      <Row Index="36">
        6.8414733765283927e+01 -3.7534529343436589e+01 -5.1541608295345213e+01 -1.3473584166529008e+01 5.8259059646600633e+01 2.6837974601825408e+01 -6.3007870972433011e+00 3.8696067040591515e+00 3.3237110290326427e+01 3.4412240473320708e+00 -8.6389136533201963e+01 -3.4222864612849435e+01 1.3484953487185339e+02 -6.2319403327901455e+01 -7.8507084109352945e+01 3.2718177736089388e+01 1.0603046240658216e+02 -1.8440668514109348e+01 -1.3751777067506646e+02 -4.8575724074386812e+00 -1.9635548766524221e+02 -6.3134836780237697e+02 1.1417026363729090e+02 2.0824314958601327e+01 -1.8065706653289476e+02 -1.3119452257371142e+02 -3.5155888735012013e+01 -4.2188173542214554e+02 -4.6825016053271611e+00 9.0867529114002537e+00 -2.5347292961501125e+02 4.1495626841998273e+01 3.4256324242500330e+02 2.7732276997626595e+03 5.6544282915783697e+01 3.1142307838816964e+02 3.9191442980155784e+03 -2.5985531002338121e+01 -5.2397317732868878e+00 
      </Row>
      <Row Index="37">
        -1.9634125488991927e-01 -3.1670701532107159e-02 1.2802883365532125e+00 -3.4028315213978866e-01 -4.9499812787518915e-01 -2.2387127214217344e+00 4.8301368129244793e-01 -4.8586548534476748e-02 -1.5494321779368292e-01 1.0689249336128341e+00 2.5052287232222170e-01 6.8892756580991321e-01 -6.1498545576861829e-01 -9.8594820168474406e-01 1.8825565968529236e+00 -1.3083829529200903e+00 -9.3962469252973757e-01 -3.0755629666895103e+00 1.4334228715703361e+00 -2.0095219773054573e-01 -1.1253881113602597e+00 3.1329800343940870e+00 -2.0270219311016122e+00 1.6683231317365554e+00 2.9072246109071056e+00 7.2776066405257414e+00 -7.2140594029453098e-01 1.7970257981559357e+00 2.6362175881002514e-01 -1.7973159885449022e+00 2.6576974923676602e+00 -1.2051715621799328e+00 -1.7240081261908746e+00 -2.0440438657378106e+01 -7.2165130836083167e+00 -8.5051013579424328e-01 -2.5985530993335701e+01 1.4496308483299218e+00 -1.2270347232686656e-02 
      </Row>
      <Row Index="38">
        -1.7844088720204443e-01 1.0494209160565049e-01 -2.9715347359709199e-01 1.5193200879283553e-02 -7.4798368502117685e-02 -2.3092374692717499e-01 -2.6494774942765531e-01 -9.9888195616402164e-03 4.0285030350080575e-02 -5.3845975675898217e-02 -1.0183982496374711e-01 6.5562150780181794e-02 -3.1178243758052915e-01 2.2397177305813543e-01 -1.3126243203279264e-01 -1.7991246010832995e-01 -3.3428678090416442e-02 2.7204775057519726e-02 -2.9274731790227904e-01 -1.1284651324872441e-02 9.6059209441473481e-01 1.4686682011591961e+00 -3.3623749364239230e-02 2.0826403005944624e-01 5.1599898072792239e-01 3.4099734142424087e-01 -1.0175324268668122e+00 3.1278830518205147e-01 -2.0610336605336776e-01 5.8866874791429247e-01 2.6223975340659855e-01 1.2088322153985898e-01 -1.7773709165464657e+00 -4.0919975356882148e+00 -5.7220270011123753e-01 -2.9515252743078833e+00 -5.2397317728197246e+00 -1.2270347219840438e-02 3.8580284361406626e-02 
      </Row>
    </InverseHessian>
  </Weights>
</MethodSetup>
