A
3
12
24
1
B

  0.1707E+00  -0.1395E+02  -0.1674E+01  -0.1008E+02  -0.6484E+01  -0.1473E+01 
 -0.4310E+01  -0.6674E+01   0.4893E+00   0.1191E+01   0.3659E+01  -0.4503E+01 
  0.1229E+01   0.5513E+00  -0.4315E+01  -0.2490E+01   0.1492E+01  -0.2358E+01 
 -0.3617E+01   0.1261E+02  -0.3113E+01   0.3193E+01  -0.2506E+01  -0.3974E+01 

 -0.3228E+00   0.6007E+01   0.8697E+00  -0.6519E+01   0.1898E+01   0.7772E+00 
  0.2405E+01   0.2057E+01  -0.5460E+00   0.2165E+02  -0.2748E+01   0.5635E+01 
 -0.1150E+01  -0.5536E+00   0.2809E+01   0.1306E+01  -0.1407E+01   0.1294E+01 
  0.1974E+01  -0.7896E+01   0.1727E+01  -0.4177E+01   0.1499E+01   0.7286E+01 

 -0.1656E+01  -0.2503E+01  -0.1510E+01  -0.6359E+01  -0.1276E+02  -0.1576E+01 
 -0.1793E+00  -0.7130E+00  -0.1847E+01   0.2625E+02  -0.4323E+00  -0.1823E+00 
 -0.2254E+01  -0.2115E+01  -0.5270E+00  -0.8701E+00  -0.2254E+01  -0.1043E+01 
 -0.8570E+00  -0.9263E+01  -0.6833E+00  -0.4549E+01  -0.1205E+01   0.1771E+01 

  0.1308E+01  -0.6665E+01  -0.6232E+00   0.2243E+01  -0.5892E+00  -0.5495E+00 
 -0.8923E+00   0.2646E+01   0.1414E+01   0.2927E+01   0.1044E+01  -0.1926E+01 
  0.1786E+01   0.1369E+01  -0.1417E+01  -0.1053E+01   0.1923E+01  -0.1189E+01 
 -0.1118E+01   0.6340E+01  -0.1236E+01   0.4093E+01  -0.1263E+01   0.1063E+01 

  0.1309E+01   0.1176E+02   0.1543E+01   0.7684E+00   0.1952E+02   0.1533E+01 
  0.2557E+01   0.2281E+01   0.1293E+01   0.1014E+02  -0.3502E+00   0.8615E+01 
  0.6757E+00   0.1345E+01   0.3141E+01   0.1641E+01   0.3337E+00   0.1716E+01 
  0.2470E+01   0.1861E+00   0.2006E+01  -0.1791E+01   0.1985E+01   0.1036E+02 

 -0.4578E+01  -0.1467E+02  -0.4544E+01  -0.4148E+01  -0.1221E+02  -0.4293E+01 
 -0.6431E+01  -0.9100E+01  -0.4476E+01  -0.4814E+02   0.4609E+00  -0.1027E+02 
 -0.4241E+01  -0.4399E+01  -0.6178E+01  -0.5013E+01  -0.4081E+01  -0.4784E+01 
 -0.5870E+01  -0.4655E+01  -0.5399E+01  -0.4368E+01  -0.4885E+01  -0.1155E+02 

  0.1030E+01   0.8214E+01  -0.2048E+00   0.3441E+01  -0.8293E+01  -0.2395E+00 
  0.5043E-01   0.2252E+01   0.1081E+01   0.4815E+01  -0.3397E+01   0.2605E+01 
  0.1463E+01   0.1027E+01  -0.5175E+00  -0.3009E+00   0.1600E+01  -0.5216E+00 
 -0.3918E+00   0.8139E+01  -0.4100E+00   0.4795E+01  -0.6245E+00   0.2247E+01 

 -0.1458E+00  -0.9595E+00  -0.7811E+00   0.4689E+01   0.3055E+01  -0.7423E+00 
 -0.9896E+00   0.6835E+00  -0.1346E+00   0.6952E+00  -0.8961E-01  -0.9371E+01 
 -0.1963E+00  -0.1472E+00  -0.1186E+01  -0.8731E+00  -0.2618E+00  -0.8985E+00 
 -0.9088E+00  -0.3141E+01  -0.9203E+00  -0.1488E+01  -0.9168E+00  -0.5374E+01 

  0.6234E+00   0.3810E+00  -0.2926E+00  -0.3008E+01  -0.2561E+01  -0.8725E-01 
 -0.6978E+00  -0.1799E+00   0.8261E+00  -0.7316E+01   0.6306E+01   0.2362E+01 
  0.5423E+00   0.8825E+00  -0.4430E+00  -0.5762E+00   0.4772E+00  -0.3832E+00 
 -0.5081E+00  -0.2034E+01  -0.5527E+00   0.3225E+00  -0.4781E+00   0.4622E+01 

  0.5995E+00   0.9467E-01   0.9176E+00   0.1555E+00  -0.1602E+01   0.7566E+00 
  0.2096E+01   0.4790E+01   0.4844E+00  -0.3964E+01  -0.2907E+01   0.3764E+01 
  0.7485E+00   0.4304E+00   0.1542E+01   0.1344E+01   0.9162E+00   0.1092E+01 
  0.1547E+01   0.1375E+01   0.1469E+01   0.3660E+01   0.1015E+01   0.3098E+00 

 -0.3583E+00   0.3052E+01  -0.1672E+01  -0.1617E+01  -0.1395E+02  -0.1555E+01 
 -0.2891E+01  -0.3813E+01   0.3590E-01  -0.1325E+02   0.2304E+01   0.1212E+00 
  0.5857E+00   0.1027E+00  -0.3064E+01  -0.2097E+01   0.8627E+00  -0.2076E+01 
 -0.2778E+01   0.9855E+01  -0.2428E+01   0.2996E+01  -0.2294E+01  -0.1047E+01 

  0.2924E+00   0.8460E+01   0.7196E+00   0.7406E+00  -0.1036E+01   0.5868E+00 
  0.1259E+01   0.2354E+00   0.7362E-01   0.1281E+02  -0.5655E+01   0.2553E+01 
 -0.2091E+00  -0.3352E-01   0.1407E+01   0.1068E+01  -0.4459E+00   0.9746E+00 
  0.1139E+01  -0.8940E+00   0.1142E+01  -0.1148E+01   0.1064E+01   0.5473E+00 
C

  0.2183E+00  -0.3196E+01   0.2977E+00  -0.2814E+00   0.1041E+02   0.2278E+00 
  0.4988E+00   0.4631E+00   0.5319E-01   0.3510E+02  -0.2034E+01  -0.2820E+01 
 -0.1568E+00  -0.7126E-01   0.6757E+00   0.4169E+00  -0.3088E+00   0.3537E+00 
  0.6302E+00  -0.6271E+01   0.4920E+00  -0.1338E+01   0.4733E+00  -0.2992E+01 
D

 -0.8822E+00 

 -0.6952E+00 

 -0.9088E+00 

 -0.1235E+01 

 -0.9666E+00 

 -0.6999E+00 

 -0.1075E+01 

 -0.1732E+01 

 -0.9118E+00 

 -0.1878E+01 

 -0.1457E+01 

 -0.4898E+00 

 -0.8078E+00 

 -0.9336E+00 

 -0.3926E+00 

 -0.9989E+00 

 -0.7768E+00 

 -0.9343E+00 

 -0.1041E+01 

 -0.1614E+01 

 -0.1010E+01 

 -0.9480E+00 

 -0.8452E+00 

 -0.5428E+00 
E

  0.3082E+01 
