A
3
12
24
1
B
 -0.1120E+01  -0.1440E+02  -0.1221E+02  -0.4329E+01  -0.5182E+01  -0.9438E+00 
 -0.1188E+02  -0.6007E+01  -0.9880E+00   0.2760E+01  -0.1336E+01  -0.1606E+01 
 -0.1069E+01  -0.8529E+00   0.1275E+02  -0.1987E+01  -0.6515E+00  -0.1420E+01 
 -0.3181E+01   0.3792E+01  -0.1847E+01  -0.4641E+00  -0.1978E+01   0.6242E-01 

 -0.9731E+00   0.6788E+01  -0.5441E+01   0.2323E+01  -0.2007E+01  -0.1177E+01 
  0.1634E+02   0.2528E+01  -0.1260E+01   0.3166E+00  -0.1180E+02   0.3626E+01 
 -0.1257E+01  -0.1780E+01   0.2924E+01   0.1201E+01  -0.2261E+01  -0.3745E+00 
 -0.4351E+00  -0.2273E+01   0.6609E+00  -0.3168E+01   0.1230E+01   0.2642E+01 

 -0.3846E+01   0.1998E+01  -0.3531E+01  -0.2503E+00  -0.2518E+02  -0.8603E+01 
  0.2504E+00  -0.2534E+01  -0.4711E+01   0.3076E+02  -0.5555E+01  -0.1177E+01 
 -0.4250E+01  -0.5970E+01  -0.1227E+00  -0.1699E+01  -0.6100E+01  -0.3219E+01 
  0.5167E+00  -0.5581E+01  -0.1708E+01  -0.7101E+01  -0.2767E+01  -0.3275E+01 

  0.6795E+00   0.4918E+01   0.4410E+01  -0.3035E+00  -0.9176E+00   0.4818E+00 
 -0.4342E+01  -0.3583E+00   0.8579E+00  -0.4441E+01  -0.1436E+00  -0.3333E+01 
  0.7596E+00   0.1145E+01  -0.7448E+00  -0.4946E+00   0.1324E+01   0.2170E+00 
 -0.9021E+00   0.3783E+01  -0.3309E+00   0.1777E+01  -0.4293E+00  -0.7095E+01 

  0.8594E+00   0.1545E+01  -0.8536E+01  -0.8361E-01   0.9527E+01   0.1816E+00 
  0.4965E+01   0.2618E+01   0.6842E+00   0.8651E+01  -0.2224E+00   0.6061E+00 
  0.6730E+00   0.4051E+00  -0.5025E+01   0.9752E+00   0.1060E+00   0.9408E+00 
  0.1056E+01  -0.2403E+01   0.9948E+00  -0.2859E+00   0.1050E+01   0.1185E+01 

 -0.2967E+01  -0.1201E+02  -0.5147E+01  -0.4192E+01   0.1305E+00  -0.3627E+01 
 -0.3088E+01  -0.5251E+01  -0.2984E+01  -0.4894E+02  -0.5681E+01  -0.5011E+01 
 -0.2804E+01  -0.3006E+01   0.4795E+01  -0.3506E+01  -0.2706E+01  -0.3026E+01 
 -0.2462E+01  -0.2762E+01  -0.3314E+01  -0.2775E+01  -0.3715E+01  -0.5646E+01 

  0.4101E+00   0.3666E+01   0.1007E+00  -0.5105E+00  -0.7964E+01   0.3804E+00 
  0.2542E+01   0.1444E+01   0.5161E+00   0.3057E+01  -0.1649E+01   0.9061E+00 
  0.4293E+00   0.6940E+00  -0.6944E+01   0.3224E-02   0.7586E+00   0.1610E+00 
 -0.6951E+00  -0.1718E+01  -0.1227E+00   0.8310E+00   0.2260E+00   0.4239E+01 

  0.2206E+00  -0.1961E+01   0.7887E+01  -0.6853E-01   0.2661E+01   0.3497E+00 
 -0.2440E+01  -0.2920E+01   0.2330E+00  -0.1730E+01   0.9736E+00  -0.5252E+01 
  0.2528E+00   0.2599E+00  -0.8118E+00  -0.8240E+00   0.2630E+00   0.1795E+00 
  0.1881E+01  -0.9299E+00  -0.3005E+00   0.2604E+00  -0.1053E+01  -0.1041E+02 

  0.1192E+01   0.2261E+01  -0.2807E+01   0.1409E+00   0.3522E+01   0.2436E+01 
  0.9795E+01   0.2907E+01   0.1382E+01  -0.1942E-01  -0.3517E+01   0.2209E+01 
  0.1171E+01   0.1346E+01  -0.5445E+01   0.1277E+01   0.9970E+00   0.1434E+01 
 -0.4950E+00   0.8408E+00   0.1118E+01   0.1004E+01   0.1922E+01   0.3368E+01 

  0.7431E-01   0.8354E+01   0.7266E+01   0.1998E+01  -0.3350E+01  -0.4561E+00 
 -0.4697E+01   0.4783E+00   0.4843E-01   0.1409E+00   0.1563E+01   0.8905E+00 
  0.6330E-01   0.1322E+00  -0.7817E+01   0.5659E-01   0.2769E+00   0.3019E-01 
 -0.2275E+01  -0.4958E+00   0.8743E-01   0.4572E+00  -0.3601E-01   0.1219E+01 

 -0.1184E+01  -0.3717E+01   0.3053E+01  -0.2483E+01  -0.1713E+01  -0.6391E+00 
 -0.5472E+01  -0.2050E+00  -0.9461E+00  -0.9173E+01   0.6931E+01  -0.4916E-03 
 -0.9997E+00  -0.6419E+00   0.4330E+01  -0.1133E+01  -0.2231E+00  -0.1302E+01 
 -0.7990E+00   0.3486E+00  -0.1343E+01  -0.3271E+00  -0.9716E+00   0.3551E+01 

 -0.2845E+00   0.7157E+00   0.2079E+01   0.4357E+00  -0.6333E+01  -0.4281E+00 
 -0.1311E+01   0.1133E+01  -0.4880E+00   0.1276E+02   0.7918E+01   0.1832E+01 
 -0.4441E+00  -0.6957E+00   0.2729E+01   0.4448E+00  -0.9336E+00  -0.1608E+00 
  0.1637E+01   0.9682E-01   0.2435E+00  -0.1041E+01   0.4112E+00   0.4773E+01 
C

  0.5529E+00  -0.8847E+00  -0.5090E+01  -0.6306E-01  -0.7719E+00   0.1648E+01 
 -0.3176E+01  -0.2093E+01   0.6748E+00   0.3372E+02  -0.4494E+01  -0.1137E+01 
  0.7524E+00   0.1032E+01   0.1971E+00  -0.6316E+00   0.1113E+01   0.2744E+00 
 -0.4301E+00   0.3390E+01  -0.3182E+00   0.1694E+01  -0.8768E+00  -0.1793E+01 
D

 -0.1395E+01 

 -0.8811E+00 

 -0.2887E+01 

 -0.1232E+01 

 -0.2109E+01 

 -0.2532E+01 

 -0.5643E+01 

 -0.7853E-01 

 -0.1537E+01 

 -0.2031E+01 

  0.3859E+01 

 -0.1183E+01 

 -0.1474E+01 

 -0.1675E+01 

 -0.1295E+01 

 -0.7052E+00 

 -0.1562E+01 

 -0.1269E+01 

 -0.2563E+01 

 -0.1375E+01 

 -0.9024E+00 

 -0.1467E+01 

 -0.6500E+00 

 -0.3868E+01 
E

  0.3761E+01 
