A
3
12
24
1
B

 -0.2639E+01  -0.5107E+01  -0.1949E+01  -0.1183E+02  -0.2649E+01  -0.9398E+00 
 -0.7624E+01  -0.9106E+01  -0.1646E+01  -0.9030E+00   0.3887E+01  -0.5751E+01 
 -0.2905E+01  -0.9661E+00  -0.5021E+01  -0.2792E+01  -0.2602E+01  -0.3041E+01 
 -0.2895E+01   0.4576E-01  -0.3114E+01  -0.2159E+01  -0.1925E+01  -0.4883E+01 

  0.4739E+00   0.2724E+01   0.2553E+00   0.2212E+01   0.7763E+01  -0.1545E+00 
 -0.6038E+00   0.1638E+01   0.1405E+00  -0.1134E+00  -0.3389E+01   0.1313E+01 
  0.5627E+00  -0.2907E+00   0.1321E+01   0.5408E+00   0.3926E+00   0.5754E+00 
  0.5236E+00  -0.8404E+01   0.6280E+00   0.2674E+00   0.2531E+00   0.1358E+01 

  0.1809E+01   0.1127E+02   0.1460E+01  -0.6483E+01   0.3058E+02   0.9887E+00 
  0.5542E+01  -0.4892E+00   0.1444E+01   0.1021E+01  -0.2243E+01   0.2165E+01 
  0.1847E+01   0.7993E+00   0.2560E+01   0.1941E+01   0.1773E+01   0.1976E+01 
  0.1955E+01  -0.6743E+01   0.2067E+01   0.1510E+01   0.1535E+01   0.2575E+01 

 -0.1347E+01  -0.5794E+00  -0.1383E+01   0.7978E+01  -0.5404E+01  -0.1249E+01 
  0.3607E+01   0.3723E+01  -0.1309E+01  -0.1169E+01   0.1103E+01  -0.6805E+00 
 -0.1373E+01  -0.8121E+00  -0.1288E+01  -0.1476E+01  -0.1391E+01  -0.1506E+01 
 -0.1470E+01   0.4795E+01  -0.1512E+01  -0.1209E+01  -0.1451E+01  -0.1326E+01 

  0.1072E+01   0.7943E+01   0.8516E+00   0.4042E+01   0.1037E+02   0.1154E+01 
 -0.8477E-01   0.5488E+01   0.8041E+00   0.1583E+01   0.5763E+00   0.2886E+01 
  0.1019E+01   0.9218E+00   0.2461E+01   0.1161E+01   0.9130E+00   0.1200E+01 
  0.1323E+01   0.1863E+01   0.1282E+01   0.6626E+00   0.9341E+00   0.2468E+01 

 -0.4515E+01  -0.1371E+02  -0.3935E+01  -0.4254E+01  -0.3897E+02  -0.3256E+01 
 -0.7637E+01  -0.6987E+01  -0.3727E+01  -0.3301E+01  -0.1396E+01  -0.6126E+01 
 -0.4570E+01  -0.3088E+01  -0.5911E+01  -0.4544E+01  -0.4337E+01  -0.4667E+01 
 -0.4655E+01  -0.2702E+01  -0.4749E+01  -0.4050E+01  -0.3860E+01  -0.5830E+01 

 -0.9121E+00   0.1829E+01  -0.1097E+01   0.2394E+01  -0.5166E-01  -0.1590E+01 
 -0.7477E+01   0.6066E+01  -0.1093E+01  -0.1715E+01  -0.8297E+00  -0.2239E+00 
 -0.8744E+00  -0.1346E+01  -0.7354E+00  -0.1018E+01  -0.9623E+00  -0.1031E+01 
 -0.1071E+01  -0.2339E+01  -0.1021E+01  -0.8189E+00  -0.1198E+01  -0.7263E+00 

 -0.1019E+01  -0.1028E+02  -0.9534E+00   0.2389E+01  -0.4050E+00  -0.7020E+00 
 -0.6126E-01  -0.4029E+01  -0.9509E+00  -0.6127E+00  -0.2461E+00  -0.1305E+01 
 -0.1029E+01  -0.6460E+00  -0.1224E+01  -0.1031E+01  -0.9980E+00  -0.1030E+01 
 -0.1014E+01   0.6887E+00  -0.1049E+01  -0.9679E+00  -0.9497E+00  -0.1283E+01 

 -0.1164E+01   0.2361E+01  -0.1019E+01  -0.3763E+01  -0.4288E+01  -0.7263E+00 
 -0.4674E+00  -0.1814E+00  -0.9624E+00  -0.5930E+00   0.2361E-01  -0.1380E+01 
 -0.1129E+01  -0.8247E+00  -0.1335E+01  -0.1146E+01  -0.1008E+01  -0.1032E+01 
 -0.1122E+01  -0.9994E+00  -0.1120E+01  -0.1142E+01  -0.1019E+01  -0.1218E+01 

  0.1359E+01   0.9064E+00   0.1001E+01   0.4720E+01   0.1209E+01   0.5276E+00 
  0.2230E+01   0.4696E+01   0.9214E+00   0.4972E+00  -0.1969E+01   0.2806E+01 
  0.1481E+01   0.6604E+00   0.2196E+01   0.1326E+01   0.1338E+01   0.1423E+01 
  0.1333E+01  -0.2559E+01   0.1447E+01   0.1293E+01   0.9022E+00   0.2064E+01 

 -0.2234E+01  -0.3801E+00  -0.1828E+01  -0.6023E+01  -0.1756E+02  -0.1597E+01 
 -0.1578E+01  -0.2648E+01  -0.1758E+01  -0.1750E+01  -0.3037E+00  -0.3062E+01 
 -0.2198E+01  -0.1373E+01  -0.3109E+01  -0.2263E+01  -0.2038E+01  -0.2328E+01 
 -0.2349E+01  -0.2509E+01  -0.2376E+01  -0.1844E+01  -0.1987E+01  -0.2986E+01 

  0.8789E+00   0.5872E+01   0.6146E+00  -0.3456E+01   0.1243E+02   0.3148E+00 
  0.4278E+01  -0.4412E+00   0.6049E+00   0.5499E+00  -0.9770E+00   0.7611E+00 
  0.8438E+00   0.4281E+00   0.8994E+00   0.8228E+00   0.7033E+00   0.8014E+00 
  0.7688E+00  -0.1149E+01   0.8328E+00   0.7689E+00   0.6433E+00   0.8207E+00 
C

  0.2578E+00   0.1968E+01   0.1800E+00  -0.1005E+00   0.3400E+02  -0.7407E-02 
  0.3166E+00  -0.1335E+01   0.3895E-01   0.3128E-01   0.1802E+01  -0.3356E-01 
  0.2574E+00  -0.1813E+00   0.2984E+00   0.2839E+00   0.2175E+00   0.2735E+00 
  0.3215E+00   0.5429E+01   0.3082E+00   0.1804E+00   0.2011E+00   0.1636E+00 
D

 -0.1064E+01 

 -0.3584E+00 

 -0.1025E+01 

 -0.3867E+01 

 -0.1474E+01 

 -0.5740E+00 

  0.1164E+01 

 -0.8991E+00 

 -0.9631E+00 

 -0.7388E-02 

 -0.8283E+00 

 -0.9258E+00 

 -0.1096E+01 

 -0.7808E+00 

 -0.9271E+00 

 -0.1060E+01 

 -0.1078E+01 

 -0.1093E+01 

 -0.1061E+01 

 -0.7641E+00 

 -0.1071E+01 

 -0.1055E+01 

 -0.9747E+00 

 -0.9646E+00 
E

  0.1493E+01 
