A
3
12
24
1
B

  0.1363E+01  -0.1792E+01  -0.8188E+01  -0.5451E+01   0.4646E+01  -0.1153E+01 
 -0.1314E+01  -0.8397E+00  -0.9981E+00  -0.3209E+01  -0.1103E+01  -0.3121E+01 
 -0.3135E+01   0.4550E+01   0.2039E+01  -0.1533E+01  -0.5201E+01  -0.3066E+01 
 -0.3152E+01  -0.5039E+00  -0.1299E+01  -0.5002E+01  -0.1290E+01  -0.1340E+01 

 -0.4982E+01   0.3489E+01  -0.3869E+01   0.1713E+01   0.2158E+01   0.4307E+01 
  0.2716E+01  -0.8748E+00  -0.4248E+00   0.7185E+01  -0.1660E+02   0.9186E+01 
 -0.5531E+01   0.3009E+01   0.8226E+01   0.2730E+01  -0.1112E+02  -0.1745E+01 
  0.1630E+01  -0.2204E+01  -0.3776E+00  -0.2252E+01   0.8614E+01   0.4267E+01 

 -0.4623E+01  -0.2249E+01  -0.1040E+02  -0.8335E+00  -0.1874E+02  -0.1106E+01 
 -0.1522E+01  -0.2560E+01  -0.2459E+01  -0.8137E+01   0.5606E+01  -0.8074E+01 
 -0.2787E+01   0.4618E+00   0.1597E+01  -0.1761E+01  -0.6304E+01  -0.6799E+01 
 -0.1491E+01  -0.1381E+01  -0.2334E+01  -0.4190E+01  -0.7328E+01  -0.6208E+01 

  0.1356E+01  -0.1949E+01   0.6256E+01  -0.5436E+00   0.1879E+00  -0.4988E+01 
 -0.1643E+01  -0.1833E+00  -0.3966E+00  -0.7118E+01  -0.6591E+01  -0.3240E+01 
  0.1241E+01   0.1812E+01  -0.9843E+00  -0.1706E+01  -0.2511E+01  -0.2262E+01 
 -0.1023E+01   0.4630E+00  -0.4021E+00   0.6072E+01  -0.2086E+01  -0.9108E+00 

 -0.1684E+01  -0.1150E+00   0.2277E+01  -0.1663E+00  -0.7275E+00  -0.3762E+00 
 -0.5449E+00  -0.8856E+00  -0.2922E+00   0.8910E+01   0.2236E+01   0.7357E+01 
  0.1401E+01  -0.1199E+01  -0.3133E+01  -0.5124E+00   0.6362E+00   0.5884E+01 
 -0.5537E+00  -0.2529E+00  -0.4770E+00   0.1034E+02   0.2190E-01  -0.1287E+00 

  0.1341E+01  -0.1436E+01   0.4604E+00  -0.3412E+01  -0.6260E+01  -0.1349E+01 
 -0.1221E+01  -0.7365E+00  -0.7600E+00  -0.6805E+01  -0.7520E+01  -0.1187E+01 
  0.1632E+01  -0.5090E-01   0.1478E+01  -0.1496E+01  -0.3730E+01  -0.1873E+01 
 -0.2034E+01   0.5999E+00  -0.8203E+00   0.2740E+02  -0.1305E+01   0.7418E+00 

  0.1000E+01   0.2391E+00  -0.4228E+00  -0.7558E+00   0.7302E+00  -0.1824E+01 
  0.2448E+00  -0.1410E+00  -0.2419E+00  -0.2996E+01  -0.2204E+01   0.1644E+01 
 -0.1186E+01   0.3244E+00  -0.3090E+01  -0.1827E+00  -0.3800E+01  -0.3684E+01 
 -0.2628E+00  -0.2031E+00  -0.2760E+00  -0.3572E+01   0.2013E+01   0.2613E+01 

  0.8637E-02  -0.2997E+01   0.8317E+01   0.1550E+00  -0.9039E+00  -0.6932E+00 
 -0.2225E+01   0.1341E+00   0.5554E-01  -0.5644E+00  -0.2571E+00  -0.9224E+01 
  0.1344E+01   0.9574E+00  -0.1971E+01  -0.8200E+00  -0.3470E+00   0.1251E+01 
  0.6803E-01   0.5841E-01   0.1004E+00   0.1606E+01  -0.7453E+01  -0.7354E+01 

 -0.2469E+01  -0.8224E+00  -0.2885E+01   0.1529E+01  -0.3317E+00   0.2898E+01 
 -0.9789E+00  -0.1291E+01  -0.1229E+01  -0.1151E+01   0.7105E+01  -0.6940E-02 
 -0.6114E+00  -0.2960E+01  -0.3191E+00  -0.8099E+00  -0.4252E+00  -0.1827E+01 
 -0.4173E+00  -0.4653E+00  -0.1191E+01   0.9526E+01   0.9407E+00  -0.2595E+00 

  0.1774E+01   0.5078E+00  -0.6618E+01   0.3787E+00  -0.2277E+01  -0.3866E+01 
  0.5948E+00   0.8832E+00   0.5500E+00  -0.8621E+01   0.1732E+01  -0.2944E+01 
 -0.1398E+01  -0.6807E+01  -0.9859E+01   0.2161E+00   0.3818E+00  -0.1208E+01 
  0.4429E-01   0.1327E+01   0.5933E+00   0.1670E+01   0.1885E+01   0.1587E+01 

  0.1529E+01  -0.5340E+00  -0.2532E+01  -0.3669E+01  -0.3410E+01   0.2964E+00 
 -0.4290E+00  -0.2831E+00  -0.4449E+00  -0.7185E+01  -0.3083E+01   0.2577E+01 
 -0.1153E+00  -0.1078E+01   0.1327E+01  -0.5089E+00  -0.1176E+01  -0.3226E+01 
 -0.1325E+01   0.4562E+00  -0.5344E+00   0.1226E+02   0.5812E+00   0.1241E+01 

 -0.6529E+00   0.5599E+00  -0.3788E+01   0.9922E+00   0.2127E+01   0.2274E+01 
  0.5139E+00   0.2010E+00   0.3685E+00   0.4122E+01   0.2642E+01   0.2362E+01 
 -0.5660E+00   0.9432E+00   0.3120E+01   0.8475E+00   0.5403E+01   0.1284E+01 
  0.8325E+00  -0.4686E+00   0.3116E+00  -0.1455E+02   0.1372E+01   0.1256E-01 
C

 -0.3901E-01  -0.1512E+00  -0.1676E+01   0.2970E+01   0.7929E+01   0.3948E+00 
 -0.1948E+00   0.6081E+00   0.2358E+00   0.1189E+02   0.2922E+01  -0.3459E+01 
 -0.6131E+00   0.5265E+00  -0.2136E+01   0.7803E-01   0.3403E+01   0.2253E+01 
  0.8250E+00  -0.4386E+00   0.3412E+00  -0.4389E+02  -0.4508E-01  -0.1560E+01 
D

 -0.2660E+01 

 -0.1192E+01 

 -0.9497E+00 

 -0.3110E+01 

 -0.3775E+01 

 -0.1779E+01 

 -0.1046E+01 

 -0.1086E+01 

 -0.1084E+01 

 -0.9271E+00 

  0.2126E+01 

 -0.8490E+00 

 -0.9390E+00 

 -0.2662E+01 

 -0.2496E+01 

 -0.1170E+01 

  0.2306E+01 

 -0.1659E+01 

 -0.1515E+01 

 -0.8343E+00 

 -0.1132E+01 

  0.1750E+01 

 -0.1610E+00 

 -0.1962E+01 
E

  0.7326E+00 
