A
3
12
24
1
B

  0.2308E+01  -0.6032E+01  -0.6168E+01  -0.5246E+01  -0.8458E+01   0.1358E+01 
 -0.3356E+01  -0.2772E+01   0.1624E+01  -0.2410E+01  -0.2655E+01  -0.7772E+01 
  0.2138E+01   0.4249E+01   0.8261E+01  -0.1245E+01   0.1152E+01   0.6026E+00 
 -0.5082E+01   0.2274E+01  -0.8459E+00  -0.3281E+01  -0.8762E+01  -0.5797E+01 

 -0.2939E+01   0.4184E+01  -0.9454E+01   0.2714E+01  -0.1075E+02  -0.8077E+00 
  0.2089E+01   0.1187E+01  -0.1864E+01   0.2926E+02  -0.1044E+02   0.1551E+01 
 -0.5755E+01   0.2093E+01   0.4060E-01   0.2700E+00  -0.1001E+02  -0.3487E+01 
  0.3050E+01   0.6173E+00  -0.4597E-01   0.1274E+01   0.5275E+01   0.4249E+01 

 -0.9242E+01  -0.2863E+01  -0.1169E+02  -0.5346E+01  -0.1944E+02  -0.1170E+02 
 -0.3353E+01  -0.4369E+01  -0.9167E+01   0.1753E+02  -0.4451E+01  -0.5511E+01 
 -0.1108E+02  -0.2088E+02  -0.1050E+02  -0.6265E+01  -0.8350E+01  -0.1873E+02 
 -0.5297E+01  -0.1145E+01  -0.6507E+01  -0.9887E+01  -0.2569E+01  -0.2871E+01 

  0.3151E+01  -0.7378E+00   0.6903E+01   0.1759E+01   0.1025E+02   0.1287E+01 
  0.2861E+00   0.9646E+00   0.2204E+01  -0.5976E+01   0.4797E-01   0.1907E+01 
  0.5391E+01   0.3603E+00   0.1164E+01   0.1262E+01   0.8783E+01   0.2429E+01 
  0.1674E+01   0.1914E+01   0.1319E+01   0.9700E+01   0.6462E+00  -0.1813E+01 

 -0.2840E+01   0.2117E+01  -0.3561E+01   0.2140E+01   0.1419E+02  -0.7282E+00 
  0.8862E+00   0.5233E+00  -0.1673E+01   0.1070E+02   0.1160E+01   0.1060E+02 
 -0.5011E+01  -0.2640E+01  -0.1927E+01  -0.4922E-01   0.1084E+01   0.3877E+01 
  0.2176E+01  -0.3586E+00  -0.2342E+00   0.1118E+01   0.3122E+01   0.1980E+01 

 -0.1541E+01  -0.5491E+01  -0.2200E+01  -0.5590E+01  -0.8331E+01  -0.3846E+01 
 -0.4050E+01  -0.4234E+01  -0.2250E+01  -0.2559E+02  -0.3097E+01  -0.7039E+01 
 -0.2497E+00  -0.4024E+01   0.4010E+01  -0.3881E+01  -0.7021E+00  -0.3378E+01 
 -0.5552E+01   0.3501E+01  -0.3621E+01   0.2818E+02  -0.5883E+01  -0.5175E+01 

  0.2218E+01   0.1247E+01  -0.2136E+01   0.4594E+00  -0.6828E+01   0.6803E+00 
  0.9595E+00   0.5689E+00   0.1340E+01   0.8211E+00  -0.2746E+01   0.4513E+01 
  0.3275E+01   0.1124E+01  -0.2570E+01   0.5223E+00   0.6005E+00  -0.7099E+00 
  0.5580E+00  -0.3498E+01   0.4790E+00  -0.2937E+01  -0.1664E+00   0.1758E+01 

 -0.1422E-01  -0.2586E+01   0.5281E+01   0.4975E+00   0.6607E+01  -0.2269E-01 
 -0.1205E+01  -0.4440E+00  -0.4007E-01   0.6260E+00   0.4851E+00  -0.5173E+01 
  0.2207E+00  -0.8372E+00  -0.8508E+01  -0.1983E+00   0.1838E+00   0.6100E+00 
  0.2897E+00   0.7732E+00  -0.1378E+00   0.2723E+01   0.6066E+00  -0.4598E+01 

 -0.3392E+01  -0.1351E+01  -0.1390E+00  -0.1361E+01  -0.2649E+01  -0.1763E+01 
 -0.1651E+01  -0.1736E+01  -0.2634E+01  -0.1703E+02  -0.2778E+01  -0.2299E+01 
 -0.3845E+01  -0.5708E+00   0.3139E+01  -0.1926E+01  -0.2919E+01   0.9235E+00 
 -0.1205E+01  -0.2230E+00  -0.1905E+01   0.8127E+01  -0.3542E+00  -0.1517E+01 

  0.1929E+01   0.2062E+01   0.1241E+01   0.9454E+00   0.4316E+01  -0.5667E-01 
  0.1566E+01   0.1386E+01   0.8604E+00  -0.7587E+01   0.1453E+01   0.1966E+01 
  0.4048E+01  -0.1321E+01  -0.1385E+01   0.9762E+00   0.2695E+01  -0.2691E+01 
  0.1413E+01  -0.7404E+01   0.8624E+00   0.1512E+01  -0.9385E+00   0.2387E+01 

  0.4645E+00  -0.4197E+01  -0.3002E+01  -0.5429E+01  -0.1694E+02  -0.1250E+01 
 -0.3268E+01  -0.3545E+01  -0.4452E+00  -0.1362E+02   0.1973E+01  -0.4817E+01 
  0.1991E+01  -0.9627E+00  -0.1330E+01  -0.2922E+01  -0.7714E+00  -0.1659E+00 
 -0.5171E+01  -0.5042E+00  -0.2598E+01   0.7222E+01  -0.6245E+01  -0.3599E+01 

  0.2745E+00   0.1678E+01  -0.2206E+01   0.8280E+00  -0.7426E+01   0.9841E+00 
  0.8233E+00   0.4808E+00   0.3546E+00   0.1271E+02   0.5891E+01   0.1473E+01 
 -0.3733E+00   0.1537E+01  -0.3662E+01   0.5490E+00  -0.3839E+01  -0.1920E+01 
  0.8113E+00  -0.3383E+01   0.4468E+00  -0.1787E+02   0.2034E+01   0.2071E+01 
C

  0.1601E+01   0.2345E+01   0.2638E+01   0.3897E+01   0.9232E+01   0.3463E+01 
  0.1927E+01   0.2614E+01   0.2059E+01   0.3200E+02  -0.2106E+01   0.6603E+00 
  0.7448E+00   0.5993E+01  -0.2077E+00   0.2654E+01   0.1368E+01   0.2087E+01 
  0.3736E+01   0.4529E+00   0.2516E+01  -0.3228E+02   0.4015E+01   0.2039E+01 
D

 -0.9901E+00 

 -0.1223E+01 

 -0.9666E+00 

 -0.2237E+01 

 -0.8791E+00 

 -0.1897E+01 

 -0.1623E+01 

 -0.1671E+01 

 -0.1375E+01 

 -0.1772E+01 

  0.4826E+01 

 -0.1411E+01 

 -0.2008E+01 

 -0.4498E+01 

 -0.4526E+01 

 -0.1586E+01 

 -0.2017E+01 

 -0.2276E+01 

 -0.2227E+01 

 -0.2910E+01 

 -0.1515E+01 

  0.2574E+01 

 -0.4137E+01 

 -0.1263E+01 
E

  0.1688E+01 
