A
3
12
24
1
B

 -0.3091E+01  -0.1360E+02  -0.3063E+01  -0.5606E+01  -0.1006E+02  -0.2501E+01 
 -0.5842E+01  -0.8496E+01  -0.2539E+01   0.6835E+01   0.1524E+00  -0.6821E+01 
 -0.2511E+01  -0.1535E+01   0.7217E+01  -0.4398E+01  -0.2219E+01  -0.4152E+01 
 -0.5742E+01  -0.2164E+01  -0.5445E+01   0.3435E+01  -0.3765E+01  -0.5288E+01 

  0.1152E+01   0.5390E+01   0.1422E+01  -0.1311E+01   0.5072E+01   0.1395E+01 
  0.2902E+01   0.3465E+01   0.1079E+01   0.2368E+02  -0.4085E+01   0.3174E+01 
  0.8828E+00   0.4100E+00  -0.9735E+00   0.1944E+01   0.6633E+00   0.1915E+01 
  0.2567E+01   0.5205E+00   0.2296E+01  -0.7104E+01   0.1982E+01   0.4518E+00 

 -0.3427E-01  -0.2705E+01   0.3552E+00  -0.1513E+01  -0.1552E+02   0.3473E+00 
  0.1073E+01  -0.2438E+01   0.2044E+00   0.2098E+02  -0.4989E+01   0.1219E+01 
 -0.1241E+01  -0.1633E+01   0.1375E+02   0.6977E+00  -0.1577E+01   0.7282E+00 
  0.9061E+00  -0.1736E+02   0.1003E+01  -0.3331E+01   0.7245E+00   0.2019E+01 

 -0.5967E+00  -0.4806E+00  -0.1370E+01   0.5472E+01   0.5701E+01  -0.1993E+01 
 -0.7970E+00   0.3087E+01  -0.1205E+01   0.7774E+01  -0.2331E+01  -0.3834E-01 
  0.8019E+00  -0.4725E+00  -0.8175E+01  -0.8857E+00   0.8928E+00  -0.1305E+01 
 -0.5206E+00   0.4085E+01  -0.3415E+00   0.4400E+00  -0.1691E+01   0.4393E+01 

  0.2389E+01   0.4327E+01   0.2873E+01   0.1668E+01   0.1126E+02   0.3597E+01 
  0.5268E+01   0.4970E+01   0.2431E+01   0.3786E+00   0.3313E+01   0.5657E+01 
  0.1595E+01   0.2225E+01   0.4641E+01   0.3393E+01   0.1424E+01   0.3506E+01 
  0.4642E+01   0.9464E+01   0.3711E+01  -0.1218E+01   0.3956E+01   0.4466E+01 

 -0.4254E+01  -0.1556E+02  -0.4425E+01  -0.8733E+01  -0.1194E+02  -0.4264E+01 
 -0.6991E+01  -0.1109E+02  -0.3895E+01  -0.1885E+02   0.1464E+00  -0.8066E+01 
 -0.3389E+01  -0.3349E+01  -0.3196E+02  -0.5510E+01  -0.3322E+01  -0.5248E+01 
 -0.6835E+01  -0.1626E+01  -0.6561E+01  -0.4215E+01  -0.5129E+01  -0.9222E+01 

 -0.6057E+00   0.8237E+01  -0.1167E+01   0.4495E+01  -0.4470E+01  -0.1930E+01 
 -0.7257E+00   0.3416E+01  -0.1074E+01   0.7732E+01   0.1488E+01  -0.6662E-01 
 -0.4850E+00  -0.1166E+01   0.2446E+01  -0.6154E+00  -0.4487E+00  -0.1041E+01 
 -0.4836E+00  -0.1574E+01   0.1967E-01  -0.8988E+00  -0.1494E+01  -0.8430E+01 

 -0.6646E+00  -0.2686E+01  -0.9468E+00  -0.2332E+01   0.5418E+01  -0.1237E+01 
 -0.9307E+00   0.1427E+01  -0.8871E+00  -0.5584E+00  -0.6051E+01  -0.9763E+00 
 -0.5217E+00  -0.1129E+00  -0.4032E+01  -0.9243E+00   0.2744E+00  -0.9546E+00 
 -0.8621E+00   0.1430E+01  -0.1051E+01  -0.9545E+00  -0.1049E+01  -0.1021E+01 

 -0.1016E+01  -0.1582E+01  -0.1204E+01  -0.5545E+00  -0.3421E+01  -0.1295E+01 
 -0.1433E+01  -0.1139E+01  -0.1104E+01   0.5902E+01   0.1642E+01  -0.1179E+01 
 -0.1746E+00  -0.3657E+00  -0.5821E+01  -0.1235E+01  -0.4986E-01  -0.1156E+01 
 -0.1247E+01  -0.3007E+01  -0.1126E+01   0.1515E+01  -0.1402E+01  -0.1914E+01 

  0.8726E+00   0.7156E+01   0.5387E+00   0.6435E+01   0.2213E+01  -0.2747E+00 
  0.1716E+01   0.5645E+01   0.3664E+00  -0.2442E+01  -0.1775E+01   0.2233E+01 
  0.9435E+00  -0.1303E-01  -0.2176E+01   0.1435E+01   0.1127E+01   0.1063E+01 
  0.1859E+01  -0.2639E+01   0.2174E+01  -0.3146E+01   0.5807E+00   0.2395E+01 

 -0.2456E+01  -0.2786E+01  -0.2668E+01  -0.2913E+01  -0.1678E+02  -0.2822E+01 
 -0.4238E+01  -0.5019E+01  -0.2339E+01  -0.1918E+02   0.2016E+01  -0.4820E+01 
 -0.1803E+01  -0.1709E+01  -0.3168E+01  -0.3245E+01  -0.1604E+01  -0.3246E+01 
 -0.4126E+01  -0.1364E+01  -0.3735E+01  -0.1587E+01  -0.3381E+01  -0.4644E+01 

  0.5494E+00   0.6187E+01   0.5509E+00  -0.4269E+00  -0.4037E+01   0.5396E+00 
  0.6566E+00   0.2299E+00   0.5212E+00  -0.7133E+01   0.2213E+00   0.3609E+00 
  0.1820E+00   0.1165E+00   0.1662E+02   0.6352E+00   0.4240E-01   0.6300E+00 
  0.4985E+00  -0.4823E+01   0.4851E+00   0.1895E+01   0.7529E+00   0.2313E+01 
C

  0.6924E+00   0.4772E+01   0.8685E+00   0.9713E+00   0.1460E+02   0.9090E+00 
  0.1226E+01   0.2723E+01   0.6018E+00   0.2459E+02  -0.1550E+01   0.1444E+01 
  0.8610E+00   0.2557E+00   0.2575E+02   0.1007E+01   0.8853E+00   0.9938E+00 
  0.1275E+01   0.3279E+00   0.1178E+01   0.7388E+01   0.1097E+01   0.2494E+01 
D

 -0.1360E+01 

 -0.3987E+00 

 -0.1427E+01 

 -0.2079E+01 

 -0.1625E+01 

 -0.1207E+01 

 -0.1172E+01 

 -0.9282E+00 

 -0.1324E+01 

 -0.1462E+01 

 -0.7530E+00 

 -0.9732E+00 

 -0.1392E+01 

 -0.9765E+00 

 -0.1852E+01 

 -0.1506E+01 

 -0.1383E+01 

 -0.1489E+01 

 -0.1464E+01 

 -0.2098E+01 

 -0.1498E+01 

 -0.1760E+01 

 -0.1377E+01 

  0.4250E+01 
E

  0.4620E+01 
