A
3
25
26
1
B

  0.1988E-01  -0.3497E+00  -0.1906E-01  -0.1115E+00  -0.5173E-01   0.2154E+01 
 -0.3635E+00   0.5026E+01   0.1034E+02  -0.6422E-01  -0.1931E+00  -0.9358E-01 
  0.2688E+00  -0.1398E+02   0.2056E+01   0.3099E+01   0.5843E+00  -0.1215E+02 
 -0.4777E+00   0.1353E+01   0.7927E-01   0.7622E+00   0.7604E+00  -0.5362E+00 
 -0.9833E-02   0.7762E+00 

 -0.1307E+00  -0.4875E+00  -0.6273E-01  -0.2141E+00  -0.1076E+00   0.1984E+01 
 -0.5824E+00  -0.1432E+02   0.8560E+01   0.6924E-01  -0.4079E+01  -0.3009E+00 
  0.1788E+01   0.1407E+01  -0.1579E+02  -0.5296E+01   0.1687E+01  -0.2051E+02 
  0.5613E+00  -0.4002E+01  -0.6322E-02  -0.5191E+00   0.2348E+01  -0.7450E+00 
 -0.1405E+01  -0.2090E+01 

 -0.2039E+00  -0.2165E+00  -0.2166E+00  -0.2120E+00  -0.2031E+00  -0.5169E+01 
 -0.2842E+00  -0.7579E+01  -0.4953E+01  -0.2197E+00  -0.4363E+01  -0.8983E-01 
 -0.7888E+00   0.3395E+01  -0.8513E+01  -0.5615E+01  -0.1002E+01  -0.3960E+01 
  0.1100E+01  -0.3260E+01  -0.2653E+00   0.1154E+01   0.9898E+00  -0.6737E+00 
 -0.9283E-01  -0.2067E+01 

  0.2277E+00   0.5240E+00   0.1533E+00   0.2974E-01   0.2076E+00  -0.9064E+01 
  0.7110E+00  -0.5486E+01  -0.7482E+01  -0.2225E+00  -0.3753E+01   0.4135E-01 
 -0.2054E+01   0.1096E+01  -0.5588E+01  -0.3836E+01  -0.3963E+00  -0.5871E+01 
  0.1355E+01  -0.3993E+01  -0.1250E-01   0.3533E+01  -0.1199E+01  -0.5955E+00 
 -0.1265E+01  -0.5175E+00 

  0.2453E+00   0.7022E+00   0.2222E+00   0.2222E+00   0.1055E+00  -0.4042E+01 
  0.7337E+00  -0.7708E+01   0.7143E-01   0.3639E+00   0.7634E+01   0.2968E+00 
  0.5043E+00  -0.2684E+01  -0.3019E+01  -0.1178E+01  -0.7224E+00  -0.7090E+01 
  0.6887E+00  -0.1400E+01   0.6945E-01   0.2630E+01   0.7963E+00  -0.8484E-01 
 -0.2612E+00   0.1508E+01 

  0.8029E-01   0.3950E+00   0.2172E+00   0.1978E+00   0.1988E+00  -0.8032E+01 
  0.4621E+00  -0.3985E+00  -0.4649E+00   0.2440E+00   0.6930E+01   0.1939E+00 
  0.3726E+00  -0.5165E+01  -0.9347E+01  -0.1240E+01   0.2192E+01  -0.5088E+01 
  0.4997E+00  -0.3962E+01   0.1444E+00   0.3453E+01  -0.9463E-01  -0.1602E+00 
 -0.2980E+01   0.1512E+01 

 -0.1396E+00  -0.1808E+00  -0.2906E+00  -0.2588E+00  -0.3731E+00  -0.1068E+02 
 -0.3102E+00   0.9256E+01  -0.1452E+02  -0.7131E+00  -0.3405E+01  -0.4914E+00 
 -0.3512E+01  -0.1671E+02   0.3550E+01   0.2114E+01   0.1154E+01   0.2143E+01 
  0.2763E+00  -0.1192E+00  -0.2534E+00   0.1783E+01  -0.1441E+01  -0.2822E-01 
 -0.3547E+01  -0.2804E+00 

 -0.4461E-01  -0.8150E+00  -0.2204E+00  -0.5673E-01  -0.1009E+00  -0.7385E+01 
 -0.7370E+00  -0.5017E+01  -0.5471E+01  -0.7964E+00  -0.4394E+01  -0.6745E-01 
 -0.3833E+01  -0.6651E+01  -0.5745E+01  -0.5882E+00  -0.2382E+01   0.4841E+01 
 -0.2281E+01  -0.1898E+01  -0.1929E+00  -0.7161E+00  -0.5881E+00  -0.1799E+01 
 -0.6573E+01  -0.3906E+01 

  0.2676E+00   0.6815E+00  -0.1030E+00   0.4874E-01   0.2837E-01  -0.6945E+01 
  0.6158E+00  -0.5711E+01  -0.6924E+01  -0.3806E+00  -0.1911E+01  -0.1562E-01 
 -0.8619E+00  -0.9353E+01  -0.7297E+00  -0.1539E+01  -0.1111E+01  -0.2526E+01 
 -0.1073E+01  -0.1807E+01  -0.7035E-02   0.1224E+01  -0.5592E+00  -0.1024E+01 
 -0.4155E+01   0.5649E-01 

  0.1852E+00   0.5381E+00   0.2281E+00   0.2310E+00   0.8613E-01  -0.7709E+01 
  0.4551E+00  -0.2581E+01  -0.4381E+00  -0.8915E-02   0.4806E+01   0.2314E+00 
 -0.6292E+00  -0.4116E+01  -0.2449E+01  -0.3308E+01  -0.1795E+01  -0.1777E+01 
 -0.6267E+00  -0.2510E+01   0.1748E+00   0.2444E+01  -0.5077E+00  -0.6575E+00 
 -0.5296E+00  -0.1220E+01 

  0.1526E+00   0.5836E+00   0.2575E-01   0.1037E+00   0.7374E-01  -0.9791E+01 
  0.5158E+00   0.1722E+00  -0.6142E+01  -0.1985E+00   0.4579E+01  -0.6307E-01 
 -0.1933E+01  -0.7687E+01  -0.3336E+01  -0.4269E+00  -0.4468E+00  -0.3538E+01 
  0.1033E-01  -0.1349E+01  -0.5985E-01   0.1915E+01  -0.9143E+00  -0.5539E+00 
 -0.8297E+01   0.1219E+00 

 -0.1469E+00  -0.3590E+00  -0.8711E-01  -0.2590E-01  -0.1259E+00  -0.1657E+02 
 -0.3181E+00   0.5584E+01   0.3954E+01  -0.1563E+00  -0.1833E+01  -0.2549E+00 
  0.4677E+00   0.3875E+01  -0.1528E+02   0.5571E+00   0.2248E+01   0.4785E+01 
 -0.2225E+00  -0.1293E+02  -0.8524E-01  -0.2001E+01   0.1013E+01   0.1077E+01 
 -0.1688E+02  -0.3892E+01 

 -0.3641E+00  -0.4859E-01  -0.6249E+00  -0.4528E+00  -0.6495E+00   0.5218E-01 
 -0.7556E-02  -0.1186E+01   0.2293E+01  -0.1210E+01  -0.3538E+01  -0.6376E+00 
 -0.4300E+01   0.3085E+01  -0.2540E+02   0.2288E+01   0.6179E+01  -0.6966E+01 
  0.1028E+01  -0.7783E+01  -0.6361E+00  -0.4575E+01   0.7765E+00  -0.1921E+01 
  0.1690E+02   0.1570E+01 

 -0.1743E+00  -0.3756E+00  -0.2094E+00  -0.2120E+00  -0.9033E-01   0.3595E+01 
 -0.1955E+00  -0.7569E+01  -0.1002E+02  -0.1300E+00  -0.1273E+01   0.7358E-01 
 -0.2238E+01  -0.1293E+01  -0.9110E+01  -0.8333E+00  -0.1901E+01  -0.3096E+01 
  0.3735E+00  -0.4598E+01  -0.2165E+00   0.1198E+01   0.1126E+01  -0.7794E+00 
  0.5043E+01  -0.1668E+01 

  0.7751E-01   0.5253E+00   0.2436E-01   0.4842E-01   0.1641E-01  -0.4101E+01 
  0.4629E+00  -0.4992E+01  -0.7118E+01  -0.1354E+00  -0.7156E+01   0.4985E-01 
 -0.1051E+01  -0.3325E+01  -0.8484E+01  -0.5127E+01  -0.4550E+00  -0.4993E+01 
  0.6379E+00   0.3606E+01  -0.1087E+00   0.1158E+01  -0.3808E+00   0.1278E+00 
  0.3409E+01   0.8805E+00 

  0.1410E+00   0.6529E+00   0.5715E-02  -0.7761E-01  -0.8609E-01  -0.5620E+01 
  0.6245E+00  -0.6357E+01  -0.3278E+01  -0.2240E+00  -0.2279E+01  -0.3805E-01 
 -0.1305E+01  -0.1534E+01  -0.7930E+01   0.1257E+01  -0.5305E+00  -0.6154E+01 
  0.5153E+00   0.1428E+01  -0.1131E+00   0.8180E+00   0.1592E+00  -0.7185E+00 
 -0.3644E+01   0.2977E+00 

  0.1489E+00   0.5044E+00  -0.4724E-01  -0.7041E-01   0.2189E-01  -0.3096E+01 
  0.5148E+00  -0.2121E+01   0.9358E+00  -0.6155E-01   0.5870E+01  -0.6430E-02 
 -0.9540E+00  -0.2786E+01  -0.7368E+01   0.1411E+00   0.1832E+00  -0.2506E+01 
  0.9384E-01  -0.2442E+01  -0.9082E-01   0.2094E+01  -0.6207E+00  -0.3150E+00 
 -0.4289E+01  -0.3571E+00 

 -0.3670E+00  -0.2495E+00  -0.2800E+00  -0.3152E+00  -0.3920E+00  -0.1448E+02 
 -0.1890E+00  -0.2768E+01   0.4771E+00  -0.2728E+00  -0.3363E+01  -0.3877E+00 
  0.2180E+01  -0.6206E+01   0.1376E+02   0.2188E+01  -0.8600E+01   0.1263E+01 
  0.1095E+01  -0.5678E+01  -0.2724E+00   0.3650E+01  -0.4773E+00   0.6330E+00 
 -0.2558E+02   0.2221E+01 

 -0.1468E+00  -0.3294E+00  -0.2867E+00  -0.1897E+00  -0.2567E+00   0.9927E+00 
 -0.2654E+00  -0.8414E+01  -0.7384E+01  -0.5813E+00  -0.2643E+01  -0.3635E+00 
 -0.1032E+01  -0.3047E+01   0.3167E+01  -0.2857E+01  -0.2378E+01  -0.3753E+01 
 -0.3154E+01   0.4776E+01  -0.2991E+00   0.1166E+00  -0.7278E+00  -0.8987E+00 
 -0.1171E+02   0.8027E+00 

  0.1419E+00   0.5910E+00  -0.1796E+00  -0.1973E-01  -0.9672E-01  -0.8659E+01 
  0.4669E+00  -0.6573E+01  -0.4676E+01  -0.5823E+00  -0.4170E+01  -0.2489E+00 
 -0.2181E+01  -0.2558E+01  -0.3960E+01  -0.1286E+01   0.1376E+00  -0.2046E+01 
 -0.1572E+01   0.3689E+01  -0.6882E-01  -0.1498E+00  -0.7108E+00  -0.6026E+00 
 -0.2813E+01   0.5364E+00 

  0.1716E+00   0.6017E+00  -0.1117E+00  -0.9390E-01  -0.1580E+00  -0.1056E+02 
  0.6081E+00  -0.4023E+01  -0.2611E+01  -0.3669E+00   0.2220E+00  -0.9846E-01 
 -0.1071E-01  -0.3104E+01  -0.6364E+01  -0.1806E+00  -0.1334E+01  -0.9560E+00 
 -0.3579E+00  -0.2362E+01  -0.3081E-01   0.2488E+01  -0.7212E+00  -0.8446E+00 
 -0.4153E+01   0.1371E+00 

  0.5634E-01   0.5553E+00   0.3760E-01  -0.1268E-02   0.1493E-01  -0.6674E+01 
  0.4418E+00  -0.5406E+01  -0.4321E+01  -0.1052E+00   0.8204E+01   0.1033E+00 
 -0.8673E+00  -0.3895E+01  -0.2821E+01  -0.2184E+01  -0.1825E+01  -0.3922E+01 
 -0.1997E+00   0.5712E+00  -0.7628E-01   0.9871E+00  -0.6643E+00  -0.4255E+00 
 -0.5539E+01  -0.1648E+01 

 -0.1979E+00  -0.1177E+01  -0.2070E+00  -0.2359E+00  -0.4930E-01  -0.5274E+00 
 -0.1110E+01  -0.1243E+01   0.4274E+00   0.1783E+00   0.1671E+01  -0.1112E+00 
  0.1051E+01   0.4899E+00   0.2959E+00   0.2691E+01  -0.3899E-01   0.1098E+01 
 -0.2930E+00   0.1483E+01  -0.1628E+00  -0.9162E+00   0.6609E+00  -0.4297E-01 
  0.7769E+00   0.2080E+00 

 -0.4090E+00  -0.1026E+01   0.1225E-01  -0.3446E+00  -0.2864E+00   0.6637E+01 
 -0.9520E+00   0.5789E+01   0.4956E+01   0.5847E+00  -0.1192E+02   0.8246E-01 
  0.2305E+01   0.3593E+01   0.6053E+01  -0.2292E+01   0.4150E+01   0.5555E+01 
 -0.4039E+00   0.1689E+01  -0.3974E+00   0.4400E+01  -0.4567E+00   0.1681E+01 
  0.3487E+01  -0.3710E+01 

 -0.7170E+00  -0.5088E+00  -0.8011E+00  -0.8179E+00  -0.8850E+00  -0.5888E+01 
 -0.5035E+00  -0.5376E+01  -0.4951E+01  -0.1662E+01   0.5097E+01  -0.1079E+01 
 -0.5121E+01  -0.5537E+01  -0.7818E+01  -0.1075E+02  -0.2018E+01  -0.6251E+01 
  0.1095E+01  -0.5461E+01  -0.8890E+00  -0.1490E+01  -0.3615E+01  -0.2237E+01 
 -0.7454E+01   0.1443E+01 
C

 -0.1786E+01  -0.1393E+01  -0.1458E+01  -0.1622E+01  -0.1526E+01  -0.1318E+01 
 -0.1737E+01   0.4954E-01  -0.4812E+00  -0.8893E+00   0.1008E+01  -0.1237E+01 
  0.5234E+00  -0.1957E+00   0.2974E+00   0.3788E+01  -0.1479E+01  -0.6190E+00 
 -0.1309E+01   0.5004E-01  -0.1663E+01  -0.2212E+01  -0.7311E+00  -0.2160E+00 
  0.6632E+00  -0.2011E+00 
D

  0.4098E+00 

 -0.9436E+00 

  0.7912E+00 

  0.5668E+00 

  0.7205E+00 

  0.6004E+01 

 -0.7341E+00 

  0.7966E+00 

  0.6779E+00 

  0.1294E+01 

 -0.8169E+01 

  0.9457E+00 

  0.2000E+01 

  0.1982E+01 

  0.1295E+01 

  0.9207E+00 

  0.1209E+01 

  0.1592E+01 

 -0.2825E+01 

  0.2276E+01 

  0.6158E+00 

  0.1631E+01 

  0.2687E+01 

  0.1615E+01 

  0.1079E+01 

 -0.3858E+01 
E

 -0.1974E+01 
