A
3
25
26
1
B

 -0.1909E+01   0.2589E+00   0.1050E+01   0.4944E+00   0.6780E+00   0.2384E+00 
  0.1786E-02  -0.6818E+01   0.1017E+01  -0.7778E+00  -0.5705E+01  -0.1704E+02 
  0.2663E+00  -0.1758E+02   0.8922E+00   0.4501E+00   0.7108E+00   0.1738E+01 
 -0.5232E+00   0.6255E+00   0.1351E+01   0.1587E+01   0.2252E+01  -0.3990E+00 
  0.1129E+02  -0.5787E+00 

  0.7502E+00  -0.3626E+01  -0.1694E+01  -0.4364E+00  -0.3222E+00  -0.3496E+01 
  0.6800E+00  -0.6111E+01  -0.3561E+00  -0.3159E+01  -0.3584E+01  -0.1080E+02 
  0.1429E+01   0.7594E+01  -0.1962E+02  -0.7430E+01   0.9469E+00  -0.4836E+00 
 -0.6505E+00   0.5955E-01  -0.1709E+00   0.2189E+01   0.1043E+01   0.3626E+00 
  0.7997E+01  -0.6835E+00 

 -0.1047E+01  -0.2426E+01   0.4586E+00  -0.1501E+01  -0.3684E+00  -0.1210E+02 
 -0.5136E+01   0.2988E+01  -0.1915E+01  -0.3821E+01  -0.1164E+01   0.2224E+01 
 -0.1870E+01   0.4158E+01  -0.3043E+01  -0.6278E+01   0.1561E+01  -0.3453E+01 
  0.3688E-03  -0.1818E+01  -0.9580E+00  -0.8142E+00  -0.1481E+01  -0.1540E+01 
 -0.3767E+01   0.2292E-01 

 -0.8395E+00  -0.2660E+01   0.1311E+01  -0.3237E+00   0.9891E+00  -0.1073E+02 
 -0.2718E+01  -0.5344E+01   0.6699E+00  -0.4086E+00  -0.8287E+00  -0.1842E+01 
 -0.2465E+01   0.1470E+01   0.6893E+00  -0.6199E+01  -0.7860E+00  -0.3921E+01 
  0.2014E+00  -0.6903E+01  -0.1852E+00  -0.1770E+01  -0.3014E+00  -0.1504E+01 
 -0.2343E+01   0.9473E-01 

 -0.7153E+00   0.6520E+01   0.3082E+00   0.7572E+00  -0.3751E+00  -0.8860E+01 
  0.2124E+01  -0.3209E+01   0.3241E+00  -0.3134E+00   0.2680E+01  -0.2938E+01 
 -0.1336E+01  -0.1044E+01  -0.4798E+01  -0.3356E+01  -0.6921E+00   0.1899E+00 
  0.5299E+00  -0.3977E+01   0.5008E+00  -0.3903E+00   0.3106E+01   0.1037E-01 
  0.1313E+01   0.5920E+00 

  0.1357E+01   0.9406E+01   0.6716E+00   0.1455E+01   0.5769E+00  -0.8631E+01 
  0.1630E+01  -0.3481E+01  -0.3271E+01  -0.5855E+00   0.2572E+01  -0.8405E+00 
 -0.6562E+00  -0.1915E+01  -0.1599E+01   0.6030E+00  -0.8795E+00  -0.1761E+01 
  0.5808E+00  -0.1392E+01   0.6716E+00  -0.3516E+01   0.7406E+00  -0.4088E-01 
  0.8413E+00   0.5080E+00 

 -0.2978E+01  -0.4188E+01   0.2057E+01  -0.7153E+00  -0.1731E+00  -0.5976E+01 
 -0.3143E+00  -0.3137E+00  -0.2950E+01  -0.1562E+01  -0.4849E+01  -0.2712E+00 
 -0.6849E+01  -0.1587E+02   0.1299E+02   0.3354E+01  -0.2996E+00  -0.2872E+01 
 -0.5666E+00  -0.7438E+00   0.3194E+00   0.1664E+01  -0.9407E+00  -0.1149E+01 
 -0.1149E+02  -0.4578E+00 

 -0.1341E+01  -0.3209E+01  -0.7441E+00  -0.8451E+00  -0.4745E+00  -0.9049E+01 
 -0.1576E+00  -0.4655E+01  -0.1304E+01  -0.1867E+01  -0.1336E+01   0.4513E+01 
 -0.1586E+01   0.4231E+00   0.1081E+01  -0.2824E+01  -0.4626E+00  -0.1064E+01 
 -0.2213E-01  -0.2841E+01  -0.5648E+00   0.7991E+00   0.3958E+00  -0.1002E+01 
 -0.5308E+01  -0.8074E-01 

 -0.1131E+01   0.9838E+00  -0.9465E+00  -0.2763E+00   0.2573E+00  -0.8705E+01 
 -0.9952E+00  -0.3034E+01  -0.3679E+01  -0.1802E+01   0.9570E+00   0.2847E+01 
 -0.1904E+01  -0.6739E+01  -0.9673E+00  -0.1551E+01   0.7017E-01  -0.2899E+01 
  0.5834E+00   0.9872E+00   0.3572E-01   0.9923E-01   0.8594E+00  -0.8034E+00 
 -0.3391E+01   0.6134E+00 

  0.5254E+00   0.2962E+01   0.1879E+01   0.8666E+00  -0.6093E+00  -0.7453E+01 
  0.9269E+00  -0.2774E+01  -0.2004E+01  -0.6659E+00   0.2047E+01  -0.4975E+00 
 -0.9890E+00  -0.4193E+01  -0.3636E+01  -0.3474E+00  -0.8543E+00  -0.4121E+01 
  0.5881E+00  -0.3914E+01   0.9876E-01  -0.1751E+01  -0.8259E+00  -0.4176E+00 
 -0.1532E+01   0.7071E+00 

 -0.4378E+00   0.7712E+01   0.2483E+01  -0.2732E-01   0.4247E+00  -0.8131E+01 
 -0.1310E+01  -0.1857E+01  -0.4439E+01   0.3109E+00   0.2040E+01  -0.3155E+01 
 -0.2656E+01  -0.6256E+01   0.1163E+01  -0.2433E+01  -0.2839E+00  -0.1060E+01 
  0.5489E+00  -0.5677E+00   0.2963E+00  -0.4229E+01  -0.6551E+00  -0.4363E+00 
 -0.4439E+01   0.6412E+00 

  0.6687E+00  -0.6195E+01  -0.2217E+00   0.2518E+01  -0.5204E+00  -0.7583E+01 
 -0.1534E+01   0.4627E+01  -0.1279E+02   0.8021E+00  -0.4937E+01  -0.6689E+00 
  0.1615E+01  -0.1599E+01   0.6998E+00   0.1796E+01   0.1024E+00  -0.9734E+01 
 -0.5261E+00  -0.2000E+02   0.7665E+00   0.6829E+00   0.9867E+00   0.1355E+01 
  0.4539E+01  -0.5827E+00 

  0.2328E+01  -0.3313E+01  -0.3502E+01  -0.1142E+01  -0.8013E+00  -0.1942E-01 
  0.3164E+01  -0.6563E+01   0.1412E+02  -0.5149E+00  -0.3396E+01  -0.2007E+01 
  0.3448E-01  -0.2513E+01  -0.5015E+01   0.7633E+01  -0.3236E+00  -0.2193E+02 
 -0.2924E+00  -0.1513E+02  -0.1430E+01   0.3325E+01   0.2102E+01   0.8607E-01 
 -0.8737E+01  -0.2696E+00 

  0.1029E+01  -0.4102E+01  -0.4532E+00  -0.1254E+01   0.2950E+00  -0.2849E+01 
 -0.1898E+01  -0.1996E+01   0.4159E+01  -0.1485E+01  -0.2221E+01  -0.1195E+01 
 -0.2449E+01  -0.3234E+01  -0.3726E+01  -0.4493E+01  -0.5760E+00  -0.7753E+01 
 -0.3151E+00   0.3493E+01  -0.6048E+00  -0.9674E+00  -0.1436E+01  -0.3197E+00 
 -0.9433E+01  -0.2961E+00 

 -0.5978E+00  -0.2628E+01  -0.1134E-01  -0.6162E+00  -0.1017E+01  -0.7350E+01 
 -0.3097E+01  -0.1654E+01  -0.1301E+01  -0.5873E+00  -0.6846E+00  -0.2219E+01 
 -0.7088E+00  -0.3133E+01   0.1192E+00  -0.1600E+01  -0.9446E+00  -0.4681E+01 
  0.5614E+00   0.2953E+01  -0.8559E+00  -0.2355E+01  -0.6534E+00  -0.4399E+00 
 -0.4870E+01   0.4761E+00 

  0.2254E+01   0.2487E+01  -0.7500E+00   0.5910E+00   0.3434E+00  -0.6947E+01 
  0.1071E+01  -0.2491E+01  -0.1544E+00  -0.9874E+00   0.2158E+01   0.5866E+00 
 -0.5843E+00   0.2276E+01  -0.3584E+01  -0.1146E+01  -0.3184E+00  -0.8818E+01 
  0.5085E+00  -0.4946E+01   0.1011E+00   0.3602E+00  -0.1602E+01   0.2366E+00 
  0.1610E+01   0.5458E+00 

  0.5265E+00   0.2334E+01   0.4078E+00   0.2916E+00  -0.1130E+00  -0.2933E+01 
  0.1436E+01  -0.5132E+00   0.1479E+01   0.3712E+00   0.1659E+01  -0.3783E+01 
 -0.1533E+01  -0.5447E+01  -0.1225E+01   0.2626E+00  -0.9223E+00  -0.4938E+01 
  0.3637E+00  -0.1237E+01  -0.7095E-01  -0.2536E+01   0.1081E+01  -0.4135E-01 
 -0.9546E+00   0.3398E+00 

  0.5397E+00  -0.3466E+01   0.1070E+00  -0.9112E+00  -0.3418E+00  -0.3668E+01 
 -0.5437E+00  -0.1327E+01  -0.2232E+02   0.3613E+01  -0.4199E+01  -0.1503E+01 
 -0.3784E+01  -0.4355E+00  -0.3121E+01  -0.8565E+01  -0.2159E+01   0.1527E+02 
 -0.3922E+00  -0.8540E+01  -0.2955E-01   0.1268E+01  -0.4381E+01   0.1122E+01 
 -0.1508E+01  -0.3680E+00 

  0.2105E+00  -0.4424E+01  -0.6786E+00  -0.1313E+01  -0.4743E+00  -0.5584E+01 
  0.1312E+01  -0.1843E+00  -0.7062E+01   0.1141E+01  -0.6764E+00   0.6904E+00 
 -0.9195E+00  -0.2029E+01  -0.1913E+01  -0.2410E+01  -0.1334E+01  -0.1217E+01 
  0.1663E-01   0.7174E+01  -0.8409E+00   0.1554E+01  -0.4061E+00  -0.4095E+00 
 -0.6199E+01   0.3462E-02 

  0.1160E+01  -0.1633E+01  -0.2982E+00   0.2410E+00  -0.7464E+00  -0.9346E+01 
  0.5365E+00   0.1777E+00   0.2965E+01  -0.1164E+01  -0.1512E+01  -0.5218E+01 
 -0.6489E+00  -0.4178E+00  -0.5397E+01   0.1994E+01  -0.2198E+01   0.3762E+01 
  0.3884E+00  -0.1746E+01  -0.3526E+00  -0.1703E+01  -0.1995E+01   0.1224E+00 
 -0.8820E+01   0.4717E+00 

  0.1164E+01  -0.1485E+01  -0.2092E+00  -0.2839E+00  -0.6802E+00  -0.8582E+01 
 -0.2277E+01  -0.2607E+01   0.5549E+00   0.8402E+00   0.6029E+00  -0.2963E+01 
 -0.1248E+01  -0.1933E+01   0.5746E+00  -0.2757E+01  -0.2039E+01  -0.5351E+01 
  0.2002E+00  -0.9580E+00   0.9616E-01   0.1248E+00  -0.1581E+01   0.3514E+00 
  0.6874E-01   0.1604E+00 

  0.8055E+00   0.6081E+01   0.6114E-01   0.4287E+00  -0.1429E+00  -0.8349E+01 
 -0.1653E+01  -0.2448E+01   0.1072E+01   0.5514E+00   0.2076E+01  -0.1039E+01 
 -0.1865E+01  -0.9424E+00  -0.2402E+01   0.8007E+00  -0.9453E+00   0.1201E+00 
  0.3422E+00  -0.1256E+01   0.6734E-01  -0.8766E+00  -0.6650E+00   0.5337E+00 
 -0.3825E+01   0.3043E+00 

 -0.3954E+00   0.3191E+01   0.7193E+00  -0.1852E+01   0.6327E+00  -0.2189E+01 
 -0.3696E-01  -0.2663E+01   0.1796E+01   0.1827E+01  -0.1401E+01   0.4439E+00 
  0.3963E+00   0.2810E+01   0.1099E+01  -0.5210E+00   0.1547E+01   0.8672E+00 
 -0.1222E+01   0.5764E+00  -0.5092E+00   0.2886E+00   0.1242E+01   0.1293E+00 
  0.1939E+01  -0.1275E+01 

  0.7832E+00  -0.9732E+01   0.3804E+01   0.2441E+01   0.3070E+01   0.3576E+01 
 -0.5662E+01   0.7012E+01   0.5762E+01   0.1440E+01   0.5190E+01   0.3705E+01 
  0.3720E+01   0.5308E+01   0.7163E+01   0.2403E+01   0.2659E+01   0.6726E+01 
 -0.1354E+01   0.7268E+01   0.2477E+01  -0.2899E+01   0.3828E+01   0.2401E+01 
  0.5593E+01  -0.1363E+01 

 -0.9594E+00   0.4523E+01  -0.2699E+01  -0.2435E+01  -0.3118E+01  -0.3397E-01 
 -0.1460E+01   0.2916E+00  -0.9195E+01  -0.5413E+01  -0.3270E+01  -0.4733E+01 
 -0.4503E+01  -0.7976E+01  -0.8220E+01  -0.6079E+01  -0.4995E+01  -0.9851E+01 
 -0.8744E+00  -0.7990E+01  -0.2661E+01  -0.6778E+01  -0.3034E+01  -0.3785E+01 
 -0.7372E+01  -0.9369E+00 
C

 -0.1442E+01   0.1568E+00  -0.2226E+01   0.6921E+00  -0.7142E+00  -0.1325E+01 
  0.1669E+01  -0.3284E+01   0.3617E+00  -0.3949E+00  -0.1059E+01  -0.3870E+00 
 -0.5188E+00  -0.1850E+00  -0.2989E+00   0.1274E+01  -0.5632E+00   0.6374E+00 
 -0.1350E+01  -0.6599E+00  -0.2604E+00   0.1683E+01  -0.2876E+01  -0.4587E+00 
 -0.5834E-01  -0.8403E+00 
D

  0.2705E+01 

 -0.6915E+01 

  0.2514E+01 

  0.1409E+01 

  0.1719E+01 

  0.2593E+01 

 -0.3925E+01 

  0.7039E+00 

  0.1297E+01 

  0.3249E+01 

 -0.4273E+01 

  0.1790E+01 

  0.2570E+01 

  0.1139E+01 

  0.1064E+01 

  0.9750E+00 

  0.2402E+01 

  0.1248E+01 

 -0.8191E+00 

  0.2290E+01 

  0.9795E+00 

  0.2056E+01 

  0.2619E+01 

  0.1600E+01 

  0.6319E+00 

 -0.1129E+01 
E

 -0.3133E+01 
