A
3
25
26
1
B

  0.5311E-01  -0.2494E+01   0.5218E-01   0.7897E+00   0.2674E+00  -0.1164E+01 
 -0.4040E+01  -0.8534E+01   0.2742E+01  -0.1764E+01  -0.7982E+00  -0.6334E-01 
 -0.3337E+01  -0.8680E+01   0.5097E+00  -0.6503E-01   0.4882E+00   0.2801E+01 
  0.1344E+01   0.6904E-01   0.4707E+00   0.8531E+00   0.1345E+00   0.4863E+00 
  0.5397E+01  -0.5940E+01 

 -0.2147E+00  -0.2982E+01  -0.1421E+00   0.1040E+01  -0.1029E+01   0.9004E+00 
 -0.1476E+01  -0.1670E+02   0.6355E+00  -0.3958E+01  -0.7165E+00  -0.2828E+00 
 -0.1572E+01   0.6650E+01  -0.9473E+01  -0.2912E+01  -0.7395E+00   0.1316E+01 
 -0.9140E+00  -0.4351E+00  -0.4314E+00   0.1900E+01  -0.2602E+00  -0.6624E+00 
 -0.3091E-01   0.3139E+01 

 -0.1396E+00  -0.6402E+01  -0.1340E+00   0.1253E+01  -0.3358E+00  -0.5852E+01 
 -0.1658E+01  -0.9208E+01  -0.2420E+01  -0.4455E+01  -0.3543E+01  -0.1260E+00 
  0.2364E+01   0.1254E+01  -0.6535E+01  -0.3062E+01  -0.5125E+00  -0.1178E+01 
 -0.1055E+01  -0.1750E+00  -0.3847E+00   0.2873E+00  -0.3162E+00  -0.6233E+00 
 -0.5218E+01   0.2856E+00 

  0.1224E+00  -0.5266E+01   0.1468E+00   0.5345E+00  -0.2137E+00  -0.1046E+02 
 -0.2671E+01  -0.1012E+02  -0.1678E+01   0.5659E-02  -0.5919E+01   0.1065E-01 
 -0.2679E+01  -0.2404E-01  -0.7636E+01  -0.2992E+01  -0.6787E+00  -0.1688E+01 
 -0.2036E+00  -0.2786E+00  -0.5201E+00  -0.2872E+00  -0.2566E-02  -0.4363E+00 
 -0.3364E+01  -0.2139E-01 

  0.1239E+00   0.4727E+01   0.7256E-01   0.6809E+00  -0.2399E+00  -0.4721E+01 
  0.1153E+01  -0.5916E+01  -0.7804E-01  -0.1486E+01  -0.1517E+01   0.7549E-01 
  0.1181E+01  -0.4160E+00  -0.8132E+01   0.1396E+01  -0.6286E+00   0.3738E+00 
  0.1276E+01  -0.2011E+00  -0.4312E+00  -0.1105E+01  -0.8449E-01  -0.5642E+00 
 -0.4604E+01  -0.2500E+01 

  0.1414E-01   0.5623E+01   0.1043E+00  -0.2619E+00  -0.3980E+00  -0.8224E+01 
  0.1435E+00  -0.6937E+01  -0.2889E+01  -0.1866E+01   0.7499E+01   0.7980E-01 
 -0.1797E+01  -0.4473E+00  -0.6775E+01   0.2056E+01  -0.8467E+00  -0.2497E+00 
 -0.1757E+01  -0.2373E+00  -0.3100E+00  -0.3547E+01   0.1955E-01  -0.4978E+00 
 -0.5029E+01  -0.1988E+01 

 -0.7930E-01  -0.8497E+01   0.2677E-01  -0.1896E+01   0.3220E+00  -0.1130E+02 
 -0.1520E+01   0.6534E+01  -0.1276E+02  -0.2425E+01   0.3750E+00  -0.1567E+00 
 -0.4542E+01  -0.1889E+02  -0.3039E+00   0.2177E+01   0.1137E+00   0.2329E+00 
 -0.4554E+01  -0.5054E-01   0.2475E+00   0.4828E+00   0.2792E-01   0.3234E+00 
 -0.2927E+01   0.1821E+01 

 -0.1496E+00  -0.4667E+01  -0.2109E+00   0.1369E+01   0.1927E+00  -0.1022E+02 
 -0.1941E+01   0.1668E+01  -0.9059E+01   0.4391E+00  -0.3247E+01  -0.7806E-01 
  0.1487E+01  -0.5666E+01  -0.3406E+01  -0.1750E+01  -0.3949E+00  -0.1887E+01 
 -0.1619E+01  -0.3289E+00  -0.4717E+00   0.8106E+00  -0.3179E+00  -0.3270E+00 
 -0.4883E+01   0.3086E+00 

  0.2317E+00  -0.3600E+01   0.2052E-01   0.1312E+00  -0.2569E+00  -0.9528E+01 
  0.3289E+00  -0.2096E+01  -0.3994E+01   0.7838E-01  -0.6513E+01   0.2418E+00 
 -0.2325E+01  -0.7330E+01  -0.3444E+01  -0.1480E+01  -0.8360E+00  -0.1216E+01 
 -0.2155E+01  -0.2578E+00  -0.4988E+00  -0.2460E+01  -0.6529E-01  -0.5796E+00 
 -0.6003E+01  -0.4450E+01 

  0.1401E+00   0.2979E+01   0.2506E+00  -0.1516E+01  -0.7392E+00  -0.8913E+01 
 -0.1416E+01  -0.4705E+01  -0.6959E+01  -0.4695E+00   0.2430E+01   0.2520E+00 
 -0.3641E+00  -0.5397E+01  -0.6351E+01  -0.2124E+01  -0.6875E-01  -0.2633E+01 
 -0.6281E-01   0.1715E+00   0.6560E-01  -0.2997E+01   0.1281E+00   0.8296E-02 
 -0.2060E+01  -0.2727E+01 

  0.1234E+00   0.4469E+01   0.4473E-01   0.2659E+00  -0.3237E+00  -0.5169E+01 
 -0.1622E+00  -0.1694E+01  -0.4072E+01  -0.1565E+01   0.4752E+01   0.6839E-02 
 -0.1286E+01  -0.6140E+01  -0.7651E+01   0.3504E+00  -0.4943E+00  -0.1471E+01 
 -0.6678E+00  -0.7448E-01  -0.2699E+00  -0.1381E+01  -0.7137E-01  -0.4113E+00 
 -0.3918E+01  -0.3412E+01 

 -0.1645E+00  -0.7992E+01  -0.2023E+00   0.1807E+01   0.8612E+00  -0.1037E+02 
 -0.7454E+00   0.3942E+01  -0.1311E+02  -0.5569E+00   0.2308E+01  -0.2244E+00 
 -0.4070E+00   0.2885E+01  -0.1845E+02   0.1635E+00   0.4239E+00  -0.3765E+01 
 -0.4765E+01  -0.2495E+00  -0.3471E-01   0.3198E+01  -0.1395E+00  -0.8348E-01 
  0.4550E+01   0.7711E+00 

 -0.2301E+00  -0.3217E+01  -0.4135E+00  -0.2019E+01   0.7681E+00   0.7492E+00 
 -0.1836E+01  -0.7177E+01   0.1596E+02  -0.2603E+01   0.4174E-03  -0.3679E+00 
 -0.3424E+01   0.2792E+01  -0.2522E+02   0.7044E+01  -0.9213E+00  -0.6053E+01 
  0.6432E+01  -0.8818E+00  -0.1055E+01   0.2322E+01  -0.4625E+00  -0.1213E+01 
 -0.1459E+01   0.1878E+01 

 -0.2791E+00  -0.3528E+01  -0.2692E+00  -0.1401E+01  -0.1887E+00   0.2756E+01 
 -0.2538E+00  -0.4760E+01   0.4157E+01  -0.1821E+01  -0.5821E+01  -0.1171E+00 
 -0.8764E+00  -0.2988E+01  -0.1057E+02   0.4988E+00  -0.3036E+00  -0.3261E+01 
  0.4389E+00  -0.3980E+00  -0.5295E+00  -0.9588E-01  -0.4364E+00  -0.2802E+00 
 -0.6120E+01   0.1548E+01 

  0.1119E+00  -0.7225E+01   0.3382E-01  -0.1983E+00   0.1348E+00  -0.1086E+01 
 -0.6865E+00  -0.6001E+01   0.1582E+01  -0.2861E+00  -0.5667E+01   0.5225E-01 
 -0.2887E+00  -0.4112E+01  -0.1223E+02  -0.2415E+01  -0.4461E+00  -0.4425E+01 
  0.1396E+01  -0.2021E+00  -0.4913E+00  -0.8583E+00  -0.1920E+00   0.1480E-01 
 -0.4239E+01  -0.3326E+01 

  0.1674E+00  -0.1822E+01   0.1263E+00  -0.7331E+00  -0.1795E+00  -0.7110E+01 
 -0.4606E+00  -0.4503E+01   0.1748E+01   0.9513E+00  -0.9011E+00   0.7135E-01 
 -0.1049E+01  -0.6165E+01  -0.8567E+01  -0.1785E+01  -0.5059E+00  -0.2191E+01 
 -0.1082E+01  -0.1253E+00  -0.3762E+00  -0.2390E+01   0.1959E-01  -0.2403E+00 
 -0.8123E+01  -0.6186E+01 

  0.1352E+00   0.6702E+01  -0.6846E-01   0.4260E+00  -0.2221E+00  -0.7632E+01 
 -0.4372E+00  -0.6682E+01  -0.2768E+01  -0.1009E+01   0.3940E+01  -0.3207E-01 
 -0.1193E+01  -0.2014E+01  -0.9968E+01  -0.8161E+00  -0.6097E+00  -0.3279E+01 
 -0.2109E+00  -0.2507E+00  -0.5280E+00  -0.1026E+01  -0.1839E-01  -0.4744E+00 
 -0.9836E+00  -0.3873E+01 

 -0.3146E+00  -0.2288E+01  -0.2912E+00  -0.1990E+00   0.4422E+00  -0.1374E+02 
 -0.1286E+01   0.5850E+01  -0.2237E+02   0.2001E+01   0.2973E+00  -0.2528E+00 
 -0.3859E+01   0.2717E+01   0.4168E+01  -0.5759E+01  -0.1340E+01   0.7694E+01 
  0.2014E+01  -0.7342E+00  -0.8935E+00  -0.2387E+00  -0.4573E+00  -0.7301E+00 
  0.1473E+01   0.1901E+01 

 -0.9193E-01  -0.6674E+01  -0.1431E+00  -0.3739E+01   0.8224E-01  -0.9945E+01 
  0.1869E+01  -0.2079E+01  -0.8589E+01  -0.2811E-01  -0.7277E-01  -0.8764E-01 
 -0.2081E+01  -0.3250E+01   0.5786E+01  -0.1886E+01  -0.1003E+01   0.8477E+00 
 -0.2920E+00  -0.3028E+00  -0.6449E+00  -0.1609E+01  -0.4241E+00  -0.6507E+00 
 -0.6562E+01  -0.1269E+00 

  0.1988E+00  -0.5910E+01  -0.1715E-02   0.4130E+00  -0.2663E+00  -0.9720E+01 
  0.9804E+00  -0.6576E+01  -0.4144E+01   0.2715E+01  -0.7488E+01   0.3863E-01 
 -0.8327E+00  -0.5445E+01   0.1944E+00  -0.1911E+01  -0.6333E+00  -0.2419E+00 
 -0.1555E+01  -0.1503E+00  -0.2981E+00  -0.2327E+01  -0.4263E-01  -0.2397E+00 
 -0.5103E+01  -0.3033E+01 

  0.2065E+00  -0.2370E+01   0.1784E-01   0.1038E+00  -0.4328E+00  -0.7686E+01 
  0.3350E+00  -0.3544E+01  -0.4788E+01   0.8701E+00  -0.3765E+01   0.1654E+00 
 -0.1999E+01  -0.3230E+01  -0.2976E+01  -0.3712E+01  -0.1007E+01  -0.1463E+01 
 -0.1911E+01  -0.2994E+00  -0.5490E+00  -0.3264E+01  -0.6474E-01  -0.7150E+00 
 -0.6672E+01  -0.4080E+01 

  0.4845E-01   0.4915E+01   0.7831E-01   0.5110E+00  -0.6295E+00  -0.1036E+02 
  0.1932E+00  -0.7117E+01  -0.7852E+01  -0.1580E+01   0.2623E+01   0.1503E+00 
 -0.2690E+01  -0.4231E+01  -0.5075E+01  -0.2826E+00  -0.1179E+01   0.2210E+00 
 -0.7279E+00  -0.2737E+00  -0.6182E+00  -0.2452E+01  -0.1539E+00  -0.1008E+01 
 -0.1215E+01  -0.3617E+01 

 -0.3050E+00   0.2657E+01  -0.4446E+00  -0.1023E+01   0.6677E+00   0.6130E+00 
  0.1067E+01   0.1126E+01   0.3585E+01  -0.5312E+00   0.2085E+01  -0.4413E+00 
  0.2034E+01   0.1718E+01   0.2203E+01   0.1329E+01   0.1374E+00   0.6162E+01 
  0.5667E+00  -0.4227E+00   0.1204E-02   0.2228E+01  -0.4024E+00  -0.3547E+00 
 -0.1177E+01   0.7239E+00 

 -0.5806E+00  -0.1067E+02  -0.4875E+00  -0.3107E+01  -0.1889E+01   0.7412E+01 
 -0.2483E+01   0.5195E+01   0.1950E+01  -0.1151E+01  -0.2434E+02  -0.5310E+00 
  0.9478E+00   0.5078E+01   0.6901E+01   0.3558E+01  -0.8086E+00  -0.4253E+00 
 -0.4202E+01  -0.9879E+00  -0.9800E+00  -0.9191E+00  -0.6850E+00  -0.1309E+01 
  0.7627E+01  -0.4253E+01 

 -0.6424E+00   0.4567E+01  -0.7363E+00  -0.4877E+00  -0.4803E-01  -0.7701E+01 
  0.1712E+01  -0.7071E+01  -0.1038E+02  -0.7238E+01  -0.1433E+02  -0.7529E+00 
 -0.4799E+01  -0.7801E+01  -0.9608E+01  -0.2717E+01  -0.2896E+01  -0.7552E+01 
  0.2698E+01  -0.1717E+01  -0.2221E+01  -0.8111E+01  -0.1132E+01  -0.3050E+01 
 -0.8536E+01   0.3221E+01 
C

 -0.1955E+01   0.7630E+00  -0.2042E+01   0.2270E-01   0.6913E+00  -0.1019E+01 
 -0.2762E+00   0.1684E+00   0.1254E+01   0.1266E+01   0.6552E+01  -0.1912E+01 
 -0.5241E-01   0.1309E+00   0.7049E-02  -0.1680E+01  -0.1205E+01  -0.1369E+00 
 -0.3447E+00  -0.1872E+01  -0.1706E+01   0.1019E+01  -0.2102E+01  -0.4259E+00 
  0.7684E+00  -0.7693E+00 
D

 -0.3102E+00 

 -0.6151E+01 

 -0.1211E+00 

 -0.3674E+01 

 -0.2105E+01 

  0.7813E+01 

 -0.2404E+01 

  0.1667E+01 

  0.1459E+01 

  0.2672E+01 

 -0.1125E+02 

 -0.3047E+00 

  0.2815E+01 

  0.1721E+01 

  0.2628E+01 

  0.2071E+01 

  0.1491E+01 

  0.1345E+01 

 -0.2084E+01 

  0.6702E+00 

  0.1102E+01 

  0.2580E+01 

  0.2194E+00 

  0.1646E+01 

  0.1556E+01 

 -0.2540E+01 
E

  0.5529E+00 
