A
3
25
26
1
B

 -0.6406E+00  -0.4488E+01   0.1351E+00  -0.2931E+01  -0.9439E+01   0.3891E+00 
  0.3935E+00  -0.3168E+00  -0.6845E+01  -0.1681E+01  -0.1200E+01  -0.1872E+01 
  0.1779E+00   0.1123E+00  -0.3660E+01  -0.6860E-01   0.4408E+00  -0.2823E+01 
 -0.9449E+01  -0.6305E+01   0.5290E+00  -0.4166E+01   0.1261E+01  -0.6149E+00 
 -0.2266E+01   0.8060E-01 

 -0.1774E+00  -0.3570E+01   0.7405E-01  -0.2967E+01  -0.4035E+01   0.1803E+01 
 -0.1071E+01  -0.1319E+00  -0.1462E+01   0.7846E+00  -0.1197E+01   0.2792E+01 
  0.3930E-01  -0.2007E+00  -0.1463E+02  -0.1527E+00  -0.2513E-01  -0.2421E+01 
 -0.1358E+02   0.4499E+00   0.8790E-01  -0.1723E+01  -0.5382E+00  -0.2012E+00 
 -0.2920E+01  -0.9807E-01 

 -0.1386E-01  -0.9452E+00  -0.3769E-01  -0.1829E+00  -0.8930E-01  -0.1087E+01 
  0.1896E+01  -0.5848E+00  -0.1971E+01   0.1323E+01  -0.7478E+00  -0.4547E+00 
 -0.3696E-01   0.5936E+00  -0.1083E+02  -0.7200E-01  -0.2472E+00  -0.2456E+01 
 -0.6045E+01   0.2320E+01  -0.2630E+00   0.2642E+01  -0.1126E+01  -0.4038E-01 
 -0.3065E+01  -0.9874E-01 

  0.3188E-01   0.6379E+01  -0.7951E-03   0.1611E+01   0.1436E+00  -0.1420E+01 
  0.8535E-01  -0.2160E+01  -0.5820E+01   0.5605E+00  -0.2512E+01  -0.2861E+01 
 -0.1872E+00   0.1077E+00  -0.1105E+02   0.6530E-01  -0.2884E+00  -0.8678E+00 
 -0.4057E+01  -0.3219E+01  -0.1914E+00   0.4680E+00  -0.3056E+00  -0.1878E-01 
 -0.5778E+01  -0.1340E+00 

  0.6710E-01   0.8032E+01  -0.4519E-01   0.2819E+01  -0.6573E+00  -0.2308E+01 
 -0.3295E+01  -0.1959E+01  -0.7197E+01   0.2527E+01  -0.1665E+01  -0.2941E+01 
 -0.1214E+00  -0.4656E+00  -0.1364E+02   0.1007E+00  -0.3506E+00   0.9026E+00 
  0.4200E+01  -0.2033E+01  -0.2517E+00   0.1423E+01  -0.8812E+00  -0.1615E-01 
 -0.3702E+01  -0.4252E-01 

  0.3412E-01   0.6802E+01  -0.5309E-01   0.1210E+01   0.8691E+00  -0.4050E+01 
 -0.2098E+01  -0.1358E+01  -0.8116E+01   0.1911E+01   0.4902E+00  -0.1232E+01 
 -0.4846E-01  -0.5101E+00  -0.1143E+02   0.4698E-01  -0.4479E+00  -0.5891E+00 
  0.1001E+02  -0.1509E+01  -0.2976E+00   0.2167E+01   0.1189E+01   0.1659E+00 
 -0.3969E+01  -0.1004E-01 

 -0.2300E+00  -0.2245E+01   0.5862E-01   0.1192E+01  -0.3352E+01  -0.3659E+01 
  0.7555E-01   0.1291E+01  -0.1657E+02  -0.1922E+01  -0.1647E+00  -0.2144E+01 
 -0.6206E-01   0.5571E+00  -0.6559E+00   0.2513E-01   0.9021E-01   0.1318E+01 
 -0.1094E+02  -0.1660E+01  -0.1893E-01  -0.7030E+01   0.8781E+00  -0.2669E+00 
  0.3064E+01   0.5947E-01 

  0.1720E+00  -0.4264E+00  -0.1507E+00   0.1907E+01  -0.9552E+00  -0.2267E+01 
  0.1192E+01   0.1017E+01  -0.1644E+02  -0.3342E+01  -0.7962E+00  -0.2787E+01 
 -0.2534E+00  -0.1148E+01  -0.2956E+00   0.3466E-01  -0.7903E+00   0.1986E+01 
 -0.5925E+01   0.2004E+00  -0.6095E+00  -0.3216E+01  -0.6571E+00   0.1068E+00 
 -0.1749E+01  -0.9128E-01 

  0.2918E+00   0.5467E+01  -0.1826E+00  -0.8630E+00   0.2327E+01  -0.4604E+01 
 -0.2133E+01  -0.6712E+00  -0.1536E+02  -0.2944E+01  -0.4092E+01  -0.1916E+00 
 -0.1433E+00  -0.1500E+01   0.9588E+00  -0.6447E-01  -0.5975E+00   0.1784E+01 
 -0.1416E+01   0.1305E+01  -0.5665E+00  -0.3723E+01   0.4074E+00   0.1667E+00 
 -0.6907E+00  -0.3212E-01 

  0.1203E+00   0.8523E+01  -0.2272E-01  -0.7659E+00  -0.5858E+00  -0.2660E+01 
 -0.9573E+00   0.2235E+01  -0.1094E+02  -0.3001E+01  -0.1076E+01   0.2165E+01 
 -0.1179E+00  -0.1384E+01  -0.3981E+01   0.1802E-01  -0.4089E+00   0.7652E+00 
  0.3818E+01   0.9829E+00  -0.3468E+00  -0.4092E+01   0.8046E+00   0.1088E+00 
 -0.1014E+01   0.2017E-01 

  0.3058E+00   0.9373E+01  -0.1518E+00  -0.1167E+01   0.2021E+00  -0.6277E+01 
 -0.6994E+00   0.1841E+01  -0.1030E+02  -0.4306E+01   0.4611E+01   0.3599E+01 
 -0.1620E+00  -0.1545E+01  -0.2982E+01  -0.1036E-01  -0.6677E+00   0.5700E+01 
  0.9480E+01  -0.1065E+01  -0.6284E+00  -0.7090E+01   0.4634E+01   0.1766E+00 
 -0.4009E+01   0.2469E-01 

 -0.9353E+00  -0.2214E+01   0.1742E+00  -0.1367E+01  -0.2733E+01   0.1150E+00 
 -0.8483E+01  -0.1897E+01  -0.4300E+01   0.1467E+00  -0.1670E+01  -0.3597E+01 
  0.2186E+00   0.9713E+00  -0.6161E+01  -0.1888E+00   0.9049E+00  -0.1579E+01 
 -0.6476E+01  -0.4218E+00   0.8353E+00  -0.7190E+01  -0.2741E+01  -0.5247E+00 
  0.2043E+01   0.3354E-01 

 -0.1609E+00   0.5227E+00  -0.1263E-01   0.2375E+01  -0.2011E+01   0.3026E+01 
 -0.2056E+01  -0.5617E+00   0.1401E+01   0.9579E-01   0.5126E+00  -0.9706E+00 
  0.9911E-01   0.1321E+01  -0.1701E+02  -0.5315E-01   0.4923E+00   0.2628E+01 
 -0.5968E+01   0.6937E+00   0.3306E+00   0.1900E+01  -0.3761E+01  -0.8436E-01 
 -0.1956E+01   0.5912E-01 

 -0.1100E+00   0.3842E+01  -0.1063E+00   0.1195E+01   0.1499E+01  -0.3524E-02 
  0.2515E+00   0.3480E+00   0.5735E+00   0.5033E+00  -0.1288E+00   0.1192E+01 
 -0.5435E-01   0.9897E+00  -0.8559E+01  -0.1535E+00   0.1351E+00   0.2050E+01 
 -0.4301E+01   0.7761E+00  -0.4525E-01   0.2026E+01  -0.2778E+01  -0.1129E+00 
 -0.2105E+01  -0.4041E-02 

  0.1527E+00   0.7979E+01  -0.1295E-01   0.7950E+00   0.3002E+01  -0.2867E+00 
  0.9197E+00  -0.9781E+00  -0.6128E+00   0.1208E+01  -0.2675E+01   0.7459E+00 
 -0.2759E-01   0.1158E+01  -0.1326E+02  -0.6193E-01   0.1755E+00   0.2746E+01 
 -0.5422E+01  -0.3232E+00  -0.9231E-01   0.2712E+01  -0.1838E+01   0.1286E+00 
 -0.3166E+01  -0.3948E-01 

  0.2248E+00   0.7696E+01  -0.6225E-01  -0.8075E+00   0.1058E+01  -0.2824E+00 
  0.1015E+01  -0.2160E+00   0.9105E-01  -0.2494E+01  -0.7838E+00   0.4894E+00 
 -0.8775E-01  -0.3567E+00  -0.1290E+02   0.8034E-01  -0.1954E+00   0.3969E+01 
  0.2129E+01   0.1874E+01  -0.4842E+00   0.7533E+00   0.4072E+01   0.1455E+00 
 -0.1243E+01  -0.8021E-02 

  0.3496E+00   0.8342E+01  -0.2344E+00  -0.5263E+00   0.8490E+00   0.1632E+01 
  0.2692E+01  -0.2211E+01  -0.3659E+01  -0.2254E+01  -0.1111E+01   0.5174E+00 
 -0.2185E+00  -0.1260E+00  -0.1638E+02   0.3951E-01  -0.2814E+00   0.2461E+01 
  0.1009E+02   0.5604E+00  -0.6548E+00   0.1055E+02   0.8644E+01   0.2721E+00 
 -0.2231E+01  -0.1584E+00 

 -0.3542E+00  -0.4144E+01   0.3323E-01  -0.8610E+00   0.9445E+00  -0.2047E+01 
 -0.3619E+01   0.4403E+00  -0.1559E+02   0.1724E+01  -0.2918E-01  -0.9715E+00 
  0.3646E-01  -0.9180E+00   0.1327E+01  -0.1038E+00  -0.2645E+00  -0.3014E+01 
 -0.9682E+01   0.9087E+00   0.2319E+00  -0.9246E+01  -0.1324E+01  -0.6263E-01 
  0.2189E+00   0.4696E-01 

 -0.2515E+00   0.2184E+01   0.4718E-02  -0.1632E+01   0.3715E+01  -0.2727E+01 
  0.1609E+01   0.9411E-01  -0.1039E+02   0.3079E+01   0.8991E+00   0.2264E+00 
 -0.7512E-01   0.7813E+00   0.2577E+01  -0.1002E+00   0.3211E+00  -0.2069E+00 
 -0.5550E+01   0.1354E+01   0.3687E+00  -0.3330E+01  -0.1975E+01  -0.1105E+00 
 -0.3949E+01   0.2102E-01 

  0.1050E-01   0.9468E+01  -0.1128E+00  -0.9656E+00  -0.2110E+01  -0.2706E+01 
  0.2158E+01   0.3761E+00  -0.1550E+02   0.1701E+01  -0.3276E+01   0.6504E+00 
 -0.4078E-01   0.1023E+00  -0.7178E+00  -0.3165E-02  -0.2548E-01  -0.1010E+01 
 -0.3873E+01  -0.6694E+00   0.6326E-01  -0.4508E+01  -0.2263E+01  -0.7892E-01 
 -0.1478E+01   0.2308E-01 

  0.2324E+00   0.8611E+01  -0.1308E+00   0.1540E+01  -0.2092E+01  -0.2774E+01 
 -0.1045E+01   0.3773E-01  -0.1331E+02   0.1578E+01  -0.2958E+01   0.1130E+01 
 -0.1806E+00  -0.1174E+00   0.9834E+00  -0.4087E-01  -0.1788E+00   0.7289E+00 
  0.4322E+01  -0.5967E+00  -0.1078E+00  -0.3431E+01   0.2400E+01  -0.1937E-02 
 -0.3241E+01  -0.1318E+00 

  0.3044E+00   0.1188E+02  -0.1055E+00   0.1303E+01  -0.2733E+01  -0.5528E+01 
 -0.5773E+00   0.9715E+00  -0.1532E+02   0.7360E+00   0.7673E-02   0.1545E+01 
 -0.2078E+00  -0.1502E+01   0.4173E+01  -0.7871E-01  -0.8635E+00  -0.1798E+01 
  0.1153E+02  -0.4375E+00  -0.6976E+00  -0.8467E+01   0.5899E+01   0.1011E+00 
 -0.2912E+01  -0.2759E-02 

 -0.2844E+00  -0.1445E+01  -0.1595E+00   0.2250E+01  -0.6354E-01   0.2266E+01 
  0.1697E+01   0.1209E+02  -0.2607E+01   0.7878E+01   0.5277E+01  -0.1042E+01 
 -0.5003E-03  -0.7925E+00  -0.1703E+01  -0.1660E+00   0.1072E+00   0.1777E+01 
 -0.3587E+00   0.2605E+01   0.3346E+00   0.5248E+01  -0.1670E+01  -0.3531E+00 
  0.4609E+01  -0.1830E+00 

 -0.8483E+00   0.9711E-01  -0.1730E+00  -0.3732E+01  -0.1853E+01   0.5287E+01 
 -0.3871E+01  -0.4539E+01   0.1419E+02   0.2875E+01  -0.3442E+02  -0.4360E+01 
 -0.1787E+00  -0.1933E+00   0.1450E+02  -0.4620E+00  -0.2413E-01   0.5122E+01 
 -0.1014E+02  -0.2269E+01  -0.3460E+00   0.3055E+01  -0.5604E+01  -0.7383E+00 
  0.6069E+01  -0.3225E+00 

  0.7466E-01   0.1713E+02  -0.4990E+00   0.1505E+01   0.6459E+01  -0.4010E+01 
  0.2969E+01  -0.1770E+02  -0.8855E+01  -0.5192E+01  -0.2194E+02   0.3805E+01 
 -0.5604E+00  -0.3356E+01  -0.1056E+02  -0.3626E+00  -0.1535E+01   0.1496E+01 
  0.1155E+02   0.3799E+01  -0.1766E+01  -0.1015E+02   0.5491E+01  -0.5557E-02 
 -0.2110E+01  -0.3612E+00 
C

 -0.1874E+01  -0.3795E+01  -0.2293E+01  -0.5771E+00  -0.1833E+01  -0.1103E+01 
 -0.1024E+01   0.9582E+00  -0.1183E+01  -0.2392E+01   0.4219E+01  -0.4657E+00 
 -0.2306E+01  -0.7812E+00  -0.8473E+00  -0.2217E+01  -0.2232E+01  -0.2891E+01 
 -0.6632E+00  -0.2145E+01  -0.2388E+01  -0.3032E+00  -0.8624E+00  -0.1914E+01 
 -0.2305E+01  -0.2303E+01 
D

 -0.9112E+00 

 -0.1125E+01 

  0.2172E+00 

 -0.2723E+01 

 -0.4888E+01 

  0.1629E+01 

 -0.3791E+01 

  0.4089E+01 

  0.6909E+01 

  0.4580E+01 

 -0.1206E+02 

 -0.2277E+01 

  0.2804E+00 

  0.2164E+01 

  0.5183E+01 

 -0.2007E+00 

  0.1028E+01 

  0.3836E+01 

 -0.6419E+01 

 -0.3843E+01 

  0.9771E+00 

  0.3177E+01 

 -0.2705E+01 

 -0.7484E+00 

  0.3264E+01 

  0.3281E-01 
E

  0.5338E+00 
