-0.1722233 -0.1722233 -0.1722233          0    1.08266  0.2199886 -0.1614138 -0.3029017 -0.3216635          0 
-0.1502749 -0.1502749 -0.1502749          0   1.030529  0.1677933 -0.1619186 -0.2841568  -0.301422          0 
-0.1089498 -0.1089498 -0.1089498          0  0.8551314 0.07566116 -0.1447909 -0.2325757 -0.2265765          0 
-0.1447401 -0.1447401 -0.1447401          0   1.295656  0.1210968 -0.2582153 -0.3713774 -0.3529398          0 
-0.09493371 -0.09493371 -0.09493371          0    1.02314 0.09202164 -0.2314858 -0.3131803 -0.2856941          0 
-0.08463531 -0.08463531 -0.08463531          0   1.094758 0.04884441 -0.2610524 -0.3263128 -0.3023311          0 
-0.07365247 -0.07365247 -0.07365247          0   1.238583 0.05971835 -0.3271509 -0.3969765 -0.3532167          0 
-0.06107195 -0.06107195 -0.06107195          0   1.231276 0.001700192 -0.3408732 -0.3779411 -0.3309458          0 
-0.03858701 -0.03858701 -0.03858701          0   1.207098 -0.0133203  -0.354245 -0.3861253 -0.3376463          0 
-0.02179584 -0.02179584 -0.02179584          0   1.250466 -0.03207299 -0.3834052 -0.4249651 -0.3446349          0 
0.002620844 0.002620844 0.002620844          0    1.21463 -0.03812831 -0.4031324 -0.4313319 -0.3499002          0 
0.02186105 0.02186105 0.02186105          0   1.568952 -0.06545191 -0.5470741 -0.5715215 -0.4504879          0 
0.04066309 0.04066309 0.04066309          0   1.325176 -0.04997078  -0.504338 -0.5024844 -0.3903718          0 
0.06349962 0.06349962 0.06349962          0   1.509836 -0.1085079 -0.5798561 -0.5652345 -0.4467366          0 
 0.1031096  0.1031096  0.1031096          0   1.683293  -0.106991 -0.6672435 -0.6826601 -0.5357277          0 
 0.1434847  0.1434847  0.1434847          0    2.08225 -0.1376497 -0.8756553 -0.8580875  -0.641312          0 
  0.139097   0.139097   0.139097          0   1.689433 -0.1293136 -0.7212663 -0.7156301 -0.5405142          0 
 0.1714725  0.1714725  0.1714725          0   1.785332 -0.1214419 -0.8185696 -0.7883881 -0.5713499          0 
 0.2046678  0.2046678  0.2046678          0   2.103287 -0.2803276 -0.9287918 -0.8547438 -0.6534278          0 
  0.238415   0.238415   0.238415          0   1.988387 -0.1686909 -0.9345287 -0.9236076 -0.6768047          0 
 0.2397122  0.2397122  0.2397122          0   2.028149  -0.302599 -0.9375263 -0.8913953  -0.615765          0 
 0.3714909  0.3714909  0.3714909          0   2.559393 -0.2243697  -1.278821  -1.243361 -0.9273143          0 
 0.4487159  0.4487159  0.4487159          0   2.875757 -0.1717505  -1.515012  -1.525407  -1.009735          0 
 0.3746148  0.3746148  0.3746148          0   2.453932 -0.3629014  -1.216847  -1.109481 -0.8885464          0 
 0.4371479  0.4371479  0.4371479          0   2.516575 -0.2629263  -1.296533  -1.312229 -0.9563309          0 
         0          0          0          0          0          0          0          0          0          0 
         0          0          0          0          0          0          0          0          0          0 
         0          0          0          0          0          0          0          0          0          0 
         0          0          0          0          0          0          0          0          0          0 
         0          0          0          0          0          0          0          0          0          0 
         0          0          0          0          0          0          0          0          0          0 
         0          0          0          0          0          0          0          0          0          0 
         0          0          0          0          0          0          0          0          0          0 
         0          0          0          0          0          0          0          0          0          0 
         0          0          0          0          0          0          0          0          0          0 
         0          0          0          0          0          0          0          0          0          0 
         0          0          0          0          0          0          0          0          0          0 
         0          0          0          0          0          0          0          0          0          0 
         0          0          0          0          0          0          0          0          0          0 
         0          0          0          0          0          0          0          0          0          0 
         0          0          0          0          0          0          0          0          0          0 
         0          0          0          0          0          0          0          0          0          0 
         0          0          0          0          0          0          0          0          0          0 
         0          0          0          0          0          0          0          0          0          0 
         0          0          0          0          0          0          0          0          0          0 
         0          0          0          0          0          0          0          0          0          0 
         0          0          0          0          0          0          0          0          0          0 
         0          0          0          0          0          0          0          0          0          0 
         0          0          0          0          0          0          0          0          0          0 
         0          0          0          0          0          0          0          0          0          0 
