         0          0          0          0          0   2.610619 -0.3071155  -1.311726  -1.369228  -1.093547 
         0          0          0          0          0   2.589676 -0.2853282  -1.314601   -1.42452  -1.131628 
         0          0          0          0          0   2.487381 -0.2515143  -1.380704  -1.349077  -1.084495 
         0          0          0          0          0   3.588952 -0.5416101  -1.913221  -1.866068  -1.510746 
         0          0          0          0          0   2.694474 -0.4714848  -1.445177  -1.367688  -1.134427 
         0          0          0          0          0   3.121362 -0.5661185  -1.652293  -1.703784  -1.275541 
         0          0          0          0          0   3.282208 -0.6570851  -1.758295  -1.737279  -1.365005 
         0          0          0          0          0   3.669832  -0.842527  -1.914684  -1.920414  -1.520574 
         0          0          0          0          0   3.459366 -0.7791004  -1.819069  -1.903939  -1.455003 
         0          0          0          0          0   3.533255 -0.7720355   -2.01673  -1.851038  -1.496003 
         0          0          0          0          0   3.252494 -0.7638853  -1.825963   -1.75012  -1.392965 
         0          0          0          0          0   4.170797  -1.045824  -2.357142  -2.186587  -1.800313 
         0          0          0          0          0   3.359801 -0.9785724  -1.847994   -1.71506  -1.408774 
         0          0          0          0          0   3.948724  -1.103143  -2.156254  -2.150494  -1.781233 
         0          0          0          0          0   4.035276  -1.026054  -2.362321  -2.336678  -1.737863 
         0          0          0          0          0   4.980291  -1.470341  -2.863721   -2.62864  -2.216038 
         0          0          0          0          0   3.950168  -1.106705  -2.333733  -2.220135  -1.746043 
         0          0          0          0          0   4.071097  -1.318494  -2.414864   -2.15875  -1.652028 
         0          0          0          0          0   5.314522  -1.611728  -3.025345  -3.122889  -2.454276 
         0          0          0          0          0   4.299378   -1.26343  -2.649999  -2.474647  -1.920499 
         0          0          0          0          0   5.000337   -1.52144  -3.173219  -2.757413  -2.251402 
         0          0          0          0          0    5.23695  -1.577953  -3.202732  -3.141965  -2.470662 
         0          0          0          0          0   5.630799  -1.811012  -3.689617  -2.965542  -2.590658 
         0          0          0          0          0   5.276135  -1.571116  -3.048396  -3.522501  -2.747324 
         0          0          0          0          0   4.729484  -1.272202  -3.052437  -2.931116  -2.708306 
         0          0          0          0   1.107921   0.174114 -0.1841944  -0.278339  -0.253074          0 
         0          0          0          0   1.050901  0.1287839 -0.1819063 -0.2630412 -0.2415244          0 
         0          0          0          0  0.8668392 0.04909039 -0.1593142 -0.2173459 -0.1839008          0 
         0          0          0          0   1.312221 0.08491896 -0.2770704 -0.3511874 -0.2962357          0 
         0          0          0          0   1.034637 0.06783582 -0.2437514 -0.2998302 -0.2485062          0 
         0          0          0          0   1.104052 0.02778239  -0.271919 -0.3145715 -0.2691198          0 
         0          0          0          0    1.24732 0.04107483 -0.3366388 -0.3867348 -0.3243419          0 
         0          0          0          0   1.237479 -0.0134781 -0.3484876 -0.3693614 -0.3069522          0 
         0          0          0          0     1.2112 -0.02294244 -0.3591076 -0.3807499 -0.3224858          0 
         0          0          0          0   1.252776 -0.03750591 -0.3861575 -0.4219122 -0.3360853          0 
         0          0          0          0   1.214337 -0.03747316 -0.4027972 -0.4316941 -0.3509251          0 
         0          0          0          0   1.566519 -0.05999641 -0.5442761 -0.5745441 -0.4590385          0 
         0          0          0          0   1.320468 -0.03984249  -0.499047 -0.5080405 -0.4062186          0 
         0          0          0          0   1.502744 -0.09261751 -0.5717449 -0.5740571 -0.4715516          0 
         0          0          0          0   1.670559 -0.08141397 -0.6536179 -0.6962289 -0.5753786          0 
         0          0          0          0   2.065032 -0.1022092 -0.8566201 -0.8771761 -0.6969029          0 
         0          0          0          0   1.672232 -0.09504119 -0.7026957 -0.7337754 -0.5939788          0 
         0          0          0          0   1.763886 -0.07977951 -0.7950461 -0.8104109 -0.6372672          0 
         0          0          0          0   2.079831 -0.2285402 -0.9027075 -0.8836335 -0.7333837          0 
         0          0          0          0   1.957293 -0.1112531 -0.9016468 -0.9527784 -0.7669121          0 
         0          0          0          0   2.000525 -0.2420506 -0.9071293 -0.9243639 -0.7101374          0 
         0          0          0          0   2.509567 -0.1373278  -1.225833  -1.286695  -1.064631          0 
         0          0          0          0   2.815782 -0.07090253  -1.448812  -1.573048  -1.177093          0 
         0          0          0          0   2.405184  -0.270093  -1.166415   -1.15904  -1.028292          0 
         0          0          0          0    2.45604 -0.1615474  -1.234699   -1.35957  -1.115095          0 
