<?xml version="1.0"?>
<MethodSetup Method="BDT::BDTG">
  <GeneralInfo>
    <Info name="TMVA Release" value="4.2.0 [262656]"/>
    <Info name="ROOT Release" value="5.34/18 [336402]"/>
    <Info name="Creator" value="botta"/>
    <Info name="Date" value="Tue Feb 17 02:52:56 2015"/>
    <Info name="Host" value="Linux cmsdev02.cern.ch 2.6.32-431.23.3.el6.x86_64 #1 SMP Wed Jul 30 09:43:11 CEST 2014 x86_64 x86_64 x86_64 GNU/Linux"/>
    <Info name="Dir" value="/afs/cern.ch/user/b/botta/CMGToolsGit/newRecipe72/CMSSW_7_2_3/src/CMGTools/TTHAnalysis/macros/leptons/trainingPHYS14leptonMVA_PHYS14eleMVA_SusyTT"/>
    <Info name="Training events" value="252156"/>
    <Info name="TrainingTime" value="1.56207689e+02"/>
    <Info name="AnalysisType" value="Classification"/>
  </GeneralInfo>
  <Options>
    <Option name="V" modified="Yes">False</Option>
    <Option name="VerbosityLevel" modified="No">Default</Option>
    <Option name="VarTransform" modified="No">None</Option>
    <Option name="H" modified="Yes">False</Option>
    <Option name="CreateMVAPdfs" modified="Yes">True</Option>
    <Option name="IgnoreNegWeightsInTraining" modified="No">False</Option>
    <Option name="NTrees" modified="Yes">500</Option>
    <Option name="MaxDepth" modified="Yes">2</Option>
    <Option name="MinNodeSize" modified="No">0.0396583.2</Option>
    <Option name="nCuts" modified="Yes">2000</Option>
    <Option name="BoostType" modified="Yes">Grad</Option>
    <Option name="AdaBoostR2Loss" modified="No">quadratic</Option>
    <Option name="UseBaggedBoost" modified="No">False</Option>
    <Option name="Shrinkage" modified="Yes">1.000000e-01</Option>
    <Option name="AdaBoostBeta" modified="No">5.000000e-01</Option>
    <Option name="UseRandomisedTrees" modified="No">False</Option>
    <Option name="UseNvars" modified="Yes">9</Option>
    <Option name="UsePoissonNvars" modified="No">True</Option>
    <Option name="BaggedSampleFraction" modified="No">6.000000e-01</Option>
    <Option name="UseYesNoLeaf" modified="No">True</Option>
    <Option name="NegWeightTreatment" modified="No">ignorenegweightsintraining</Option>
    <Option name="Css" modified="No">1.000000e+00</Option>
    <Option name="Cts_sb" modified="No">1.000000e+00</Option>
    <Option name="Ctb_ss" modified="No">1.000000e+00</Option>
    <Option name="Cbb" modified="No">1.000000e+00</Option>
    <Option name="NodePurityLimit" modified="No">5.000000e-01</Option>
    <Option name="SeparationType" modified="No">giniindex</Option>
    <Option name="DoBoostMonitor" modified="No">False</Option>
    <Option name="UseFisherCuts" modified="No">False</Option>
    <Option name="MinLinCorrForFisher" modified="No">8.000000e-01</Option>
    <Option name="UseExclusiveVars" modified="No">False</Option>
    <Option name="DoPreselection" modified="No">False</Option>
    <Option name="SigToBkgFraction" modified="No">1.000000e+00</Option>
    <Option name="PruneMethod" modified="Yes">costcomplexity</Option>
    <Option name="PruneStrength" modified="Yes">5.000000e+00</Option>
    <Option name="PruningValFraction" modified="No">5.000000e-01</Option>
    <Option name="nEventsMin" modified="Yes">100</Option>
    <Option name="UseBaggedGrad" modified="Yes">False</Option>
    <Option name="GradBaggingFraction" modified="No">6.000000e-01</Option>
    <Option name="UseNTrainEvents" modified="No">0</Option>
    <Option name="NNodesMax" modified="Yes">9</Option>
  </Options>
  <Variables NVar="9">
    <Variable VarIndex="0" Expression="LepGood_relIso03-LepGood_chargedHadRelIso03" Label="LepGood_neuRelIso03" Title="LepGood_neuRelIso03" Unit="" Internal="LepGood_neuRelIso03" Type="D" Min="0.00000000e+00" Max="4.99721229e-01"/>
    <Variable VarIndex="1" Expression="LepGood_chargedHadRelIso03" Label="LepGood_chRelIso03" Title="LepGood_chRelIso03" Unit="" Internal="LepGood_chRelIso03" Type="D" Min="0.00000000e+00" Max="4.99946386e-01"/>
    <Variable VarIndex="2" Expression="min(LepGood_jetDR,0.5)" Label="LepGood_jetDR" Title="LepGood_jetDR" Unit="" Internal="LepGood_jetDR" Type="D" Min="0.00000000e+00" Max="3.89448434e-01"/>
    <Variable VarIndex="3" Expression="min(LepGood_jetPtRatio,1.5)" Label="LepGood_jetPtRatio" Title="LepGood_jetPtRatio" Unit="" Internal="LepGood_jetPtRatio" Type="D" Min="7.78085664e-02" Max="1.50000000e+00"/>
    <Variable VarIndex="4" Expression="max(LepGood_jetBTagCSV,0)" Label="LepGood_jetBTagCSV" Title="LepGood_jetBTagCSV" Unit="" Internal="LepGood_jetBTagCSV" Type="D" Min="0.00000000e+00" Max="1.00000000e+00"/>
    <Variable VarIndex="5" Expression="LepGood_sip3d" Label="LepGood_sip3d" Title="LepGood_sip3d" Unit="" Internal="LepGood_sip3d" Type="D" Min="3.23869940e-03" Max="7.25025696e+02"/>
    <Variable VarIndex="6" Expression="log(abs(LepGood_dxy))" Label="LepGood_dxy" Title="LepGood_dxy" Unit="" Internal="LepGood_dxy" Type="D" Min="-1.78547268e+01" Max="-2.99590611e+00"/>
    <Variable VarIndex="7" Expression="log(abs(LepGood_dz))" Label="LepGood_dz" Title="LepGood_dz" Unit="" Internal="LepGood_dz" Type="D" Min="-2.05064983e+01" Max="-2.30260038e+00"/>
    <Variable VarIndex="8" Expression="LepGood_mvaIdPhys14" Label="LepGood_mvaIdPhys14" Title="LepGood_mvaIdPhys14" Unit="" Internal="LepGood_mvaIdPhys14" Type="D" Min="-5.19952953e-01" Max="9.95521128e-01"/>
  </Variables>
  <Spectators NSpec="0"/>
  <Classes NClass="2">
    <Class Name="Signal" Index="0"/>
    <Class Name="Background" Index="1"/>
  </Classes>
  <Transformations NTransformations="0"/>
  <MVAPdfs>
    <PDF Name="BDTG_PDFSig" MinNSmooth="0" MaxNSmooth="0" InterpolMethod="2" KDE_type="1" KDE_iter="1" KDE_border="1" KDE_finefactor="1.0000000000000000e+00">
      <Histogram Name="BDT_tr_S_original" NBins="5043" XMin="-9.9739664793014526e-01" XMax="9.9506479501724243e-01" HasEquidistantBins="1">
        0.00000000e+00 0.00000000e+00 0.00000000e+00 0.00000000e+00 0.00000000e+00 1.16267028e-02 0.00000000e+00 1.16267028e-02 1.16267028e-02 0.00000000e+00 1.16267028e-02 1.16267028e-02 2.32534057e-02 3.48801085e-02 1.16267028e-02 1.16267028e-02 2.32534057e-02 2.32534057e-02 1.16267028e-02 1.16267028e-02 1.16267028e-02 3.48801085e-02 2.32534057e-02 3.48801085e-02 4.65068114e-02 5.81335142e-02 1.16267028e-02 5.81335142e-02 2.32534057e-02 5.81335142e-02 3.48801085e-02 4.65068114e-02 6.97602171e-02 2.32534057e-02 1.04640326e-01 3.48801085e-02 6.97602171e-02 1.16267028e-02 3.48801085e-02 3.48801085e-02 2.32534057e-02 2.32534057e-02 5.81335142e-02 4.65068114e-02 3.48801085e-02 5.81335142e-02 6.97602171e-02 3.48801085e-02 5.81335142e-02 4.65068114e-02 4.65068114e-02 3.48801085e-02 1.16267028e-02 0.00000000e+00 4.65068114e-02 5.81335142e-02 2.32534057e-02 4.65068114e-02 5.81335142e-02 6.97602171e-02 2.32534057e-02 1.04640326e-01 5.81335142e-02 1.16267028e-02 5.81335142e-02 8.13869199e-02 6.97602171e-02 2.32534057e-02 3.48801085e-02 1.27893731e-01 8.13869199e-02 9.30136227e-02 4.65068114e-02 8.13869199e-02 8.13869199e-02 1.39520434e-01 3.48801085e-02 9.30136227e-02 9.30136227e-02 5.81335142e-02 8.13869199e-02 8.13869199e-02 3.48801085e-02 8.13869199e-02 4.65068114e-02 6.97602171e-02 5.81335142e-02 1.16267028e-02 4.65068114e-02 8.13869199e-02 5.81335142e-02 4.65068114e-02 1.04640326e-01 4.65068114e-02 5.81335142e-02 8.13869199e-02 5.81335142e-02 8.13869199e-02 5.81335142e-02 3.48801085e-02 4.65068114e-02 2.32534057e-02 4.65068114e-02 9.30136227e-02 8.13869199e-02 8.13869199e-02 6.97602171e-02 2.32534057e-02 9.30136227e-02 1.04640326e-01 3.48801085e-02 8.13869199e-02 1.04640326e-01 6.97602171e-02 1.16267028e-02 8.13869199e-02 3.48801085e-02 3.48801085e-02 6.97602171e-02 1.16267028e-01 5.81335142e-02 5.81335142e-02 4.65068114e-02 9.30136227e-02 4.65068114e-02 5.81335142e-02 4.65068114e-02 1.04640326e-01 3.48801085e-02 9.30136227e-02 8.13869199e-02 8.13869199e-02 9.30136227e-02 6.97602171e-02 5.81335142e-02 1.04640326e-01 5.81335142e-02 5.81335142e-02 4.65068114e-02 1.27893731e-01 2.32534057e-02 1.04640326e-01 1.04640326e-01 6.97602171e-02 9.30136227e-02 4.65068114e-02 5.81335142e-02 6.97602171e-02 9.30136227e-02 1.04640326e-01 3.48801085e-02 1.16267028e-01 3.48801085e-02 6.97602171e-02 1.04640326e-01 8.13869199e-02 5.81335142e-02 6.97602171e-02 5.81335142e-02 1.16267028e-01 1.04640326e-01 8.13869199e-02 5.81335142e-02 5.81335142e-02 1.27893731e-01 9.30136227e-02 1.16267028e-02 4.65068114e-02 4.65068114e-02 1.16267028e-01 9.30136227e-02 5.81335142e-02 9.30136227e-02 9.30136227e-02 6.97602171e-02 4.65068114e-02 8.13869199e-02 4.65068114e-02 8.13869199e-02 1.51147137e-01 5.81335142e-02 8.13869199e-02 5.81335142e-02 9.30136227e-02 1.16267028e-01 1.16267028e-01 9.30136227e-02 4.65068114e-02 3.48801085e-02 5.81335142e-02 8.13869199e-02 8.13869199e-02 6.97602171e-02 8.13869199e-02 1.16267028e-01 1.62773840e-01 1.27893731e-01 3.48801085e-02 1.27893731e-01 1.16267028e-01 4.65068114e-02 1.04640326e-01 9.30136227e-02 6.97602171e-02 1.04640326e-01 9.30136227e-02 5.81335142e-02 1.39520434e-01 8.13869199e-02 8.13869199e-02 1.04640326e-01 4.65068114e-02 8.13869199e-02 6.97602171e-02 9.30136227e-02 6.97602171e-02 1.04640326e-01 1.62773840e-01 9.30136227e-02 2.32534057e-02 1.04640326e-01 5.81335142e-02 1.04640326e-01 1.27893731e-01 8.13869199e-02 1.62773840e-01 1.04640326e-01 3.48801085e-02 8.13869199e-02 1.16267028e-01 1.16267028e-01 8.13869199e-02 4.65068114e-02 1.74400543e-01 6.97602171e-02 8.13869199e-02 4.65068114e-02 6.97602171e-02 6.97602171e-02 1.16267028e-01 1.51147137e-01 9.30136227e-02 4.65068114e-02 1.04640326e-01 1.04640326e-01 9.30136227e-02 5.81335142e-02 1.16267028e-02 1.74400543e-01 1.04640326e-01 5.81335142e-02 1.04640326e-01 1.16267028e-01 1.39520434e-01 4.65068114e-02 9.30136227e-02 1.04640326e-01 6.97602171e-02 8.13869199e-02 6.97602171e-02 4.65068114e-02 8.13869199e-02 1.16267028e-01 1.62773840e-01 9.30136227e-02 8.13869199e-02 6.97602171e-02 5.81335142e-02 5.81335142e-02 6.97602171e-02 5.81335142e-02 6.97602171e-02 1.16267028e-01 9.30136227e-02 1.39520434e-01 1.04640326e-01 1.27893731e-01 1.27893731e-01 6.97602171e-02 8.13869199e-02 1.51147137e-01 5.81335142e-02 1.04640326e-01 1.04640326e-01 6.97602171e-02 1.51147137e-01 1.16267028e-01 1.16267028e-01 1.27893731e-01 9.30136227e-02 2.32534057e-02 8.13869199e-02 5.81335142e-02 8.13869199e-02 1.16267028e-01 1.27893731e-01 1.16267028e-01 6.97602171e-02 0.00000000e+00 8.13869199e-02 1.16267028e-01 5.81335142e-02 8.13869199e-02 5.81335142e-02 1.16267028e-01 4.65068114e-02 5.81335142e-02 9.30136227e-02 1.04640326e-01 9.30136227e-02 5.81335142e-02 2.32534057e-02 1.27893731e-01 5.81335142e-02 6.97602171e-02 1.16267028e-01 8.13869199e-02 8.13869199e-02 1.04640326e-01 1.16267028e-01 8.13869199e-02 6.97602171e-02 5.81335142e-02 9.30136227e-02 9.30136227e-02 1.16267028e-01 8.13869199e-02 1.51147137e-01 8.13869199e-02 6.97602171e-02 5.81335142e-02 1.04640326e-01 9.30136227e-02 6.97602171e-02 5.81335142e-02 5.81335142e-02 6.97602171e-02 1.04640326e-01 1.04640326e-01 1.39520434e-01 1.04640326e-01 1.86027245e-01 1.04640326e-01 1.04640326e-01 8.13869199e-02 1.16267028e-01 3.48801085e-02 1.16267028e-01 9.30136227e-02 1.16267028e-01 5.81335142e-02 1.27893731e-01 9.30136227e-02 6.97602171e-02 8.13869199e-02 6.97602171e-02 9.30136227e-02 9.30136227e-02 8.13869199e-02 6.97602171e-02 5.81335142e-02 2.32534057e-02 3.48801085e-02 9.30136227e-02 8.13869199e-02 8.13869199e-02 9.30136227e-02 8.13869199e-02 6.97602171e-02 5.81335142e-02 1.51147137e-01 1.51147137e-01 9.30136227e-02 5.81335142e-02 5.81335142e-02 1.27893731e-01 1.27893731e-01 1.27893731e-01 9.30136227e-02 6.97602171e-02 6.97602171e-02 8.13869199e-02 9.30136227e-02 1.16267028e-01 6.97602171e-02 4.65068114e-02 4.65068114e-02 1.04640326e-01 1.39520434e-01 8.13869199e-02 9.30136227e-02 5.81335142e-02 6.97602171e-02 8.13869199e-02 1.27893731e-01 4.65068114e-02 4.65068114e-02 1.27893731e-01 6.97602171e-02 9.30136227e-02 8.13869199e-02 4.65068114e-02 9.30136227e-02 5.81335142e-02 1.04640326e-01 5.81335142e-02 1.16267028e-01 9.30136227e-02 1.04640326e-01 1.04640326e-01 1.04640326e-01 9.30136227e-02 9.30136227e-02 1.04640326e-01 4.65068114e-02 6.97602171e-02 5.81335142e-02 5.81335142e-02 1.16267028e-01 8.13869199e-02 4.65068114e-02 5.81335142e-02 8.13869199e-02 5.81335142e-02 1.04640326e-01 6.97602171e-02 8.13869199e-02 9.30136227e-02 4.65068114e-02 9.30136227e-02 4.65068114e-02 1.27893731e-01 1.27893731e-01 1.04640326e-01 1.27893731e-01 9.30136227e-02 8.13869199e-02 5.81335142e-02 9.30136227e-02 9.30136227e-02 3.48801085e-02 4.65068114e-02 1.04640326e-01 8.13869199e-02 5.81335142e-02 1.04640326e-01 6.97602171e-02 1.39520434e-01 1.16267028e-02 1.04640326e-01 6.97602171e-02 4.65068114e-02 4.65068114e-02 4.65068114e-02 9.30136227e-02 3.48801085e-02 4.65068114e-02 1.04640326e-01 9.30136227e-02 9.30136227e-02 1.04640326e-01 1.62773840e-01 5.81335142e-02 6.97602171e-02 5.81335142e-02 8.13869199e-02 4.65068114e-02 1.04640326e-01 1.16267028e-01 8.13869199e-02 4.65068114e-02 8.13869199e-02 5.81335142e-02 8.13869199e-02 6.97602171e-02 4.65068114e-02 1.04640326e-01 4.65068114e-02 8.13869199e-02 5.81335142e-02 6.97602171e-02 9.30136227e-02 1.27893731e-01 6.97602171e-02 6.97602171e-02 6.97602171e-02 3.48801085e-02 4.65068114e-02 9.30136227e-02 8.13869199e-02 6.97602171e-02 1.16267028e-01 6.97602171e-02 1.16267028e-01 9.30136227e-02 1.04640326e-01 1.16267028e-01 1.04640326e-01 9.30136227e-02 8.13869199e-02 8.13869199e-02 5.81335142e-02 6.97602171e-02 1.04640326e-01 8.13869199e-02 8.13869199e-02 6.97602171e-02 6.97602171e-02 9.30136227e-02 8.13869199e-02 1.16267028e-01 6.97602171e-02 1.04640326e-01 1.27893731e-01 6.97602171e-02 9.30136227e-02 6.97602171e-02 4.65068114e-02 8.13869199e-02 5.81335142e-02 1.39520434e-01 3.48801085e-02 6.97602171e-02 8.13869199e-02 1.97653948e-01 8.13869199e-02 1.04640326e-01 5.81335142e-02 1.04640326e-01 1.16267028e-01 8.13869199e-02 1.04640326e-01 6.97602171e-02 5.81335142e-02 4.65068114e-02 1.16267028e-01 6.97602171e-02 8.13869199e-02 1.62773840e-01 8.13869199e-02 6.97602171e-02 9.30136227e-02 8.13869199e-02 6.97602171e-02 1.04640326e-01 6.97602171e-02 9.30136227e-02 5.81335142e-02 1.62773840e-01 1.16267028e-01 1.27893731e-01 1.62773840e-01 8.13869199e-02 4.65068114e-02 5.81335142e-02 1.16267028e-01 9.30136227e-02 4.65068114e-02 6.97602171e-02 1.04640326e-01 1.27893731e-01 1.16267028e-01 1.27893731e-01 9.30136227e-02 6.97602171e-02 8.13869199e-02 6.97602171e-02 3.48801085e-02 1.27893731e-01 1.04640326e-01 4.65068114e-02 5.81335142e-02 6.97602171e-02 1.04640326e-01 9.30136227e-02 8.13869199e-02 3.48801085e-02 5.81335142e-02 9.30136227e-02 3.48801085e-02 8.13869199e-02 1.04640326e-01 8.13869199e-02 8.13869199e-02 9.30136227e-02 6.97602171e-02 1.39520434e-01 3.48801085e-02 1.04640326e-01 1.16267028e-01 9.30136227e-02 5.81335142e-02 8.13869199e-02 5.81335142e-02 8.13869199e-02 1.04640326e-01 5.81335142e-02 8.13869199e-02 1.16267028e-01 1.16267028e-01 8.13869199e-02 3.48801085e-02 1.27893731e-01 1.62773840e-01 8.13869199e-02 4.65068114e-02 8.13869199e-02 4.65068114e-02 8.13869199e-02 9.30136227e-02 9.30136227e-02 4.65068114e-02 4.65068114e-02 5.81335142e-02 5.81335142e-02 3.48801085e-02 1.04640326e-01 4.65068114e-02 5.81335142e-02 6.97602171e-02 8.13869199e-02 9.30136227e-02 5.81335142e-02 1.04640326e-01 5.81335142e-02 8.13869199e-02 1.04640326e-01 1.04640326e-01 9.30136227e-02 6.97602171e-02 5.81335142e-02 6.97602171e-02 1.51147137e-01 1.04640326e-01 3.48801085e-02 4.65068114e-02 8.13869199e-02 2.32534057e-02 8.13869199e-02 3.48801085e-02 8.13869199e-02 8.13869199e-02 1.39520434e-01 6.97602171e-02 6.97602171e-02 4.65068114e-02 5.81335142e-02 4.65068114e-02 2.32534057e-02 1.16267028e-01 6.97602171e-02 4.65068114e-02 5.81335142e-02 8.13869199e-02 9.30136227e-02 4.65068114e-02 4.65068114e-02 6.97602171e-02 6.97602171e-02 6.97602171e-02 4.65068114e-02 6.97602171e-02 2.32534057e-02 6.97602171e-02 4.65068114e-02 1.04640326e-01 1.27893731e-01 3.48801085e-02 6.97602171e-02 1.51147137e-01 6.97602171e-02 5.81335142e-02 4.65068114e-02 9.30136227e-02 1.16267028e-01 5.81335142e-02 9.30136227e-02 8.13869199e-02 5.81335142e-02 9.30136227e-02 1.04640326e-01 1.16267028e-02 1.27893731e-01 1.04640326e-01 4.65068114e-02 4.65068114e-02 9.30136227e-02 6.97602171e-02 6.97602171e-02 5.81335142e-02 9.30136227e-02 9.30136227e-02 9.30136227e-02 8.13869199e-02 6.97602171e-02 5.81335142e-02 6.97602171e-02 6.97602171e-02 1.04640326e-01 8.13869199e-02 8.13869199e-02 1.39520434e-01 5.81335142e-02 1.27893731e-01 9.30136227e-02 1.86027245e-01 1.16267028e-01 5.81335142e-02 5.81335142e-02 5.81335142e-02 8.13869199e-02 1.16267028e-01 5.81335142e-02 6.97602171e-02 6.97602171e-02 8.13869199e-02 8.13869199e-02 4.65068114e-02 5.81335142e-02 8.13869199e-02 1.04640326e-01 3.48801085e-02 9.30136227e-02 2.32534057e-02 5.81335142e-02 1.27893731e-01 1.04640326e-01 1.04640326e-01 5.81335142e-02 3.48801085e-02 5.81335142e-02 9.30136227e-02 9.30136227e-02 8.13869199e-02 3.48801085e-02 1.16267028e-01 2.32534057e-02 8.13869199e-02 1.04640326e-01 5.81335142e-02 1.04640326e-01 8.13869199e-02 6.97602171e-02 1.04640326e-01 4.65068114e-02 5.81335142e-02 5.81335142e-02 6.97602171e-02 8.13869199e-02 9.30136227e-02 1.27893731e-01 5.81335142e-02 1.16267028e-01 1.62773840e-01 9.30136227e-02 1.04640326e-01 9.30136227e-02 1.16267028e-02 6.97602171e-02 5.81335142e-02 8.13869199e-02 1.04640326e-01 5.81335142e-02 1.27893731e-01 5.81335142e-02 9.30136227e-02 1.16267028e-01 6.97602171e-02 6.97602171e-02 9.30136227e-02 8.13869199e-02 6.97602171e-02 5.81335142e-02 9.30136227e-02 5.81335142e-02 5.81335142e-02 9.30136227e-02 5.81335142e-02 4.65068114e-02 6.97602171e-02 1.04640326e-01 3.48801085e-02 8.13869199e-02 9.30136227e-02 6.97602171e-02 3.48801085e-02 3.48801085e-02 8.13869199e-02 1.04640326e-01 6.97602171e-02 1.27893731e-01 2.32534057e-02 3.48801085e-02 8.13869199e-02 8.13869199e-02 6.97602171e-02 6.97602171e-02 8.13869199e-02 1.16267028e-01 1.39520434e-01 4.65068114e-02 1.16267028e-01 6.97602171e-02 1.04640326e-01 4.65068114e-02 6.97602171e-02 9.30136227e-02 9.30136227e-02 1.16267028e-02 6.97602171e-02 3.48801085e-02 1.04640326e-01 1.39520434e-01 5.81335142e-02 8.13869199e-02 9.30136227e-02 6.97602171e-02 9.30136227e-02 6.97602171e-02 5.81335142e-02 9.30136227e-02 9.30136227e-02 1.16267028e-01 4.65068114e-02 9.30136227e-02 1.16267028e-01 4.65068114e-02 4.65068114e-02 8.13869199e-02 5.81335142e-02 6.97602171e-02 3.48801085e-02 4.65068114e-02 3.48801085e-02 6.97602171e-02 1.04640326e-01 1.39520434e-01 1.27893731e-01 9.30136227e-02 5.81335142e-02 1.04640326e-01 8.13869199e-02 4.65068114e-02 8.13869199e-02 8.13869199e-02 8.13869199e-02 6.97602171e-02 3.48801085e-02 8.13869199e-02 1.39520434e-01 1.04640326e-01 8.13869199e-02 3.48801085e-02 8.13869199e-02 8.13869199e-02 6.97602171e-02 5.81335142e-02 1.04640326e-01 4.65068114e-02 4.65068114e-02 1.16267028e-01 4.65068114e-02 6.97602171e-02 9.30136227e-02 1.16267028e-01 9.30136227e-02 4.65068114e-02 9.30136227e-02 1.04640326e-01 1.27893731e-01 4.65068114e-02 8.13869199e-02 1.04640326e-01 8.13869199e-02 5.81335142e-02 1.27893731e-01 1.27893731e-01 5.81335142e-02 9.30136227e-02 1.04640326e-01 8.13869199e-02 1.27893731e-01 8.13869199e-02 4.65068114e-02 5.81335142e-02 4.65068114e-02 5.81335142e-02 4.65068114e-02 9.30136227e-02 8.13869199e-02 1.04640326e-01 5.81335142e-02 6.97602171e-02 6.97602171e-02 9.30136227e-02 4.65068114e-02 3.48801085e-02 9.30136227e-02 1.39520434e-01 3.48801085e-02 5.81335142e-02 1.04640326e-01 5.81335142e-02 1.51147137e-01 8.13869199e-02 8.13869199e-02 9.30136227e-02 5.81335142e-02 9.30136227e-02 4.65068114e-02 4.65068114e-02 1.27893731e-01 8.13869199e-02 4.65068114e-02 8.13869199e-02 6.97602171e-02 1.16267028e-01 4.65068114e-02 1.16267028e-01 5.81335142e-02 1.04640326e-01 8.13869199e-02 5.81335142e-02 2.32534057e-02 5.81335142e-02 1.16267028e-01 1.16267028e-01 1.16267028e-02 1.62773840e-01 1.27893731e-01 6.97602171e-02 4.65068114e-02 3.48801085e-02 6.97602171e-02 8.13869199e-02 1.27893731e-01 4.65068114e-02 2.32534057e-02 8.13869199e-02 1.16267028e-01 6.97602171e-02 9.30136227e-02 6.97602171e-02 6.97602171e-02 8.13869199e-02 9.30136227e-02 6.97602171e-02 8.13869199e-02 6.97602171e-02 5.81335142e-02 1.04640326e-01 1.16267028e-01 9.30136227e-02 1.16267028e-01 9.30136227e-02 9.30136227e-02 8.13869199e-02 8.13869199e-02 5.81335142e-02 1.04640326e-01 1.04640326e-01 9.30136227e-02 6.97602171e-02 6.97602171e-02 8.13869199e-02 6.97602171e-02 8.13869199e-02 8.13869199e-02 9.30136227e-02 1.04640326e-01 2.32534057e-02 4.65068114e-02 9.30136227e-02 1.04640326e-01 5.81335142e-02 1.16267028e-01 1.04640326e-01 5.81335142e-02 8.13869199e-02 5.81335142e-02 6.97602171e-02 5.81335142e-02 8.13869199e-02 1.04640326e-01 6.97602171e-02 5.81335142e-02 5.81335142e-02 9.30136227e-02 3.48801085e-02 8.13869199e-02 2.32534057e-02 1.04640326e-01 8.13869199e-02 2.32534057e-02 8.13869199e-02 6.97602171e-02 8.13869199e-02 9.30136227e-02 5.81335142e-02 9.30136227e-02 4.65068114e-02 8.13869199e-02 1.27893731e-01 4.65068114e-02 1.04640326e-01 8.13869199e-02 8.13869199e-02 6.97602171e-02 3.48801085e-02 1.16267028e-02 9.30136227e-02 4.65068114e-02 1.39520434e-01 1.04640326e-01 1.16267028e-01 4.65068114e-02 9.30136227e-02 4.65068114e-02 6.97602171e-02 5.81335142e-02 1.16267028e-01 9.30136227e-02 1.16267028e-02 2.32534057e-02 1.04640326e-01 8.13869199e-02 6.97602171e-02 1.27893731e-01 2.32534057e-02 1.04640326e-01 8.13869199e-02 4.65068114e-02 1.04640326e-01 6.97602171e-02 4.65068114e-02 5.81335142e-02 9.30136227e-02 5.81335142e-02 5.81335142e-02 4.65068114e-02 5.81335142e-02 1.16267028e-01 1.16267028e-01 3.48801085e-02 1.86027245e-01 1.16267028e-01 5.81335142e-02 1.04640326e-01 8.13869199e-02 9.30136227e-02 9.30136227e-02 6.97602171e-02 1.39520434e-01 1.16267028e-01 3.48801085e-02 9.30136227e-02 5.81335142e-02 1.27893731e-01 8.13869199e-02 9.30136227e-02 8.13869199e-02 9.30136227e-02 1.16267028e-01 9.30136227e-02 8.13869199e-02 6.97602171e-02 8.13869199e-02 5.81335142e-02 6.97602171e-02 3.48801085e-02 5.81335142e-02 5.81335142e-02 6.97602171e-02 6.97602171e-02 1.27893731e-01 9.30136227e-02 8.13869199e-02 6.97602171e-02 8.13869199e-02 4.65068114e-02 9.30136227e-02 8.13869199e-02 3.48801085e-02 8.13869199e-02 3.48801085e-02 5.81335142e-02 6.97602171e-02 3.48801085e-02 1.16267028e-01 1.04640326e-01 1.39520434e-01 1.39520434e-01 1.16267028e-01 4.65068114e-02 1.04640326e-01 1.16267028e-01 1.39520434e-01 4.65068114e-02 3.48801085e-02 3.48801085e-02 8.13869199e-02 4.65068114e-02 8.13869199e-02 4.65068114e-02 5.81335142e-02 5.81335142e-02 1.27893731e-01 6.97602171e-02 5.81335142e-02 9.30136227e-02 1.04640326e-01 1.27893731e-01 9.30136227e-02 9.30136227e-02 4.65068114e-02 8.13869199e-02 4.65068114e-02 6.97602171e-02 1.16267028e-01 1.27893731e-01 1.16267028e-01 6.97602171e-02 8.13869199e-02 4.65068114e-02 4.65068114e-02 5.81335142e-02 5.81335142e-02 4.65068114e-02 1.04640326e-01 5.81335142e-02 2.32534057e-02 1.16267028e-01 8.13869199e-02 2.32534057e-02 1.04640326e-01 6.97602171e-02 4.65068114e-02 8.13869199e-02 1.04640326e-01 4.65068114e-02 3.48801085e-02 1.04640326e-01 8.13869199e-02 6.97602171e-02 8.13869199e-02 1.39520434e-01 9.30136227e-02 1.51147137e-01 3.48801085e-02 1.16267028e-02 9.30136227e-02 9.30136227e-02 6.97602171e-02 2.32534057e-02 9.30136227e-02 5.81335142e-02 1.27893731e-01 2.32534057e-02 4.65068114e-02 5.81335142e-02 3.48801085e-02 1.16267028e-01 5.81335142e-02 5.81335142e-02 8.13869199e-02 8.13869199e-02 9.30136227e-02 6.97602171e-02 9.30136227e-02 9.30136227e-02 8.13869199e-02 1.04640326e-01 9.30136227e-02 9.30136227e-02 9.30136227e-02 5.81335142e-02 8.13869199e-02 1.04640326e-01 1.04640326e-01 6.97602171e-02 5.81335142e-02 5.81335142e-02 4.65068114e-02 1.04640326e-01 6.97602171e-02 1.16267028e-01 1.04640326e-01 1.04640326e-01 8.13869199e-02 9.30136227e-02 9.30136227e-02 1.39520434e-01 3.48801085e-02 5.81335142e-02 8.13869199e-02 9.30136227e-02 3.48801085e-02 1.16267028e-01 8.13869199e-02 8.13869199e-02 3.48801085e-02 5.81335142e-02 5.81335142e-02 9.30136227e-02 1.04640326e-01 8.13869199e-02 8.13869199e-02 9.30136227e-02 1.39520434e-01 8.13869199e-02 9.30136227e-02 1.04640326e-01 4.65068114e-02 1.04640326e-01 9.30136227e-02 6.97602171e-02 4.65068114e-02 8.13869199e-02 6.97602171e-02 8.13869199e-02 5.81335142e-02 1.04640326e-01 9.30136227e-02 8.13869199e-02 5.81335142e-02 1.27893731e-01 1.27893731e-01 6.97602171e-02 6.97602171e-02 6.97602171e-02 1.51147137e-01 9.30136227e-02 8.13869199e-02 5.81335142e-02 1.04640326e-01 3.48801085e-02 4.65068114e-02 5.81335142e-02 8.13869199e-02 1.39520434e-01 3.48801085e-02 1.16267028e-01 3.48801085e-02 9.30136227e-02 3.48801085e-02 8.13869199e-02 8.13869199e-02 3.48801085e-02 2.32534057e-02 9.30136227e-02 8.13869199e-02 5.81335142e-02 1.16267028e-01 8.13869199e-02 8.13869199e-02 1.04640326e-01 4.65068114e-02 5.81335142e-02 8.13869199e-02 9.30136227e-02 8.13869199e-02 5.81335142e-02 5.81335142e-02 9.30136227e-02 5.81335142e-02 6.97602171e-02 6.97602171e-02 3.48801085e-02 8.13869199e-02 1.27893731e-01 9.30136227e-02 3.48801085e-02 6.97602171e-02 8.13869199e-02 2.32534057e-02 8.13869199e-02 4.65068114e-02 9.30136227e-02 3.48801085e-02 1.04640326e-01 6.97602171e-02 5.81335142e-02 9.30136227e-02 8.13869199e-02 4.65068114e-02 1.39520434e-01 8.13869199e-02 6.97602171e-02 9.30136227e-02 8.13869199e-02 5.81335142e-02 5.81335142e-02 1.39520434e-01 1.04640326e-01 3.48801085e-02 4.65068114e-02 3.48801085e-02 5.81335142e-02 5.81335142e-02 2.32534057e-02 5.81335142e-02 8.13869199e-02 4.65068114e-02 4.65068114e-02 6.97602171e-02 4.65068114e-02 6.97602171e-02 1.04640326e-01 5.81335142e-02 1.16267028e-01 5.81335142e-02 6.97602171e-02 9.30136227e-02 8.13869199e-02 1.04640326e-01 8.13869199e-02 9.30136227e-02 6.97602171e-02 5.81335142e-02 9.30136227e-02 6.97602171e-02 5.81335142e-02 6.97602171e-02 9.30136227e-02 5.81335142e-02 6.97602171e-02 4.65068114e-02 2.32534057e-02 2.32534057e-02 6.97602171e-02 3.48801085e-02 8.13869199e-02 6.97602171e-02 1.04640326e-01 4.65068114e-02 6.97602171e-02 1.27893731e-01 1.16267028e-02 5.81335142e-02 6.97602171e-02 1.16267028e-01 8.13869199e-02 4.65068114e-02 5.81335142e-02 4.65068114e-02 9.30136227e-02 8.13869199e-02 9.30136227e-02 6.97602171e-02 5.81335142e-02 9.30136227e-02 6.97602171e-02 1.27893731e-01 5.81335142e-02 9.30136227e-02 6.97602171e-02 6.97602171e-02 6.97602171e-02 5.81335142e-02 9.30136227e-02 9.30136227e-02 1.04640326e-01 3.48801085e-02 9.30136227e-02 1.04640326e-01 5.81335142e-02 9.30136227e-02 1.27893731e-01 6.97602171e-02 5.81335142e-02 1.16267028e-01 6.97602171e-02 3.48801085e-02 5.81335142e-02 4.65068114e-02 1.04640326e-01 5.81335142e-02 5.81335142e-02 6.97602171e-02 6.97602171e-02 4.65068114e-02 5.81335142e-02 1.74400543e-01 1.16267028e-01 2.32534057e-02 5.81335142e-02 4.65068114e-02 6.97602171e-02 1.39520434e-01 5.81335142e-02 3.48801085e-02 5.81335142e-02 6.97602171e-02 9.30136227e-02 1.39520434e-01 9.30136227e-02 6.97602171e-02 2.32534057e-02 3.48801085e-02 9.30136227e-02 9.30136227e-02 9.30136227e-02 1.04640326e-01 6.97602171e-02 6.97602171e-02 3.48801085e-02 6.97602171e-02 9.30136227e-02 4.65068114e-02 1.16267028e-01 4.65068114e-02 4.65068114e-02 1.16267028e-01 8.13869199e-02 5.81335142e-02 8.13869199e-02 1.39520434e-01 4.65068114e-02 3.48801085e-02 6.97602171e-02 6.97602171e-02 9.30136227e-02 8.13869199e-02 8.13869199e-02 3.48801085e-02 8.13869199e-02 1.04640326e-01 8.13869199e-02 6.97602171e-02 3.48801085e-02 3.48801085e-02 4.65068114e-02 5.81335142e-02 3.48801085e-02 1.04640326e-01 5.81335142e-02 9.30136227e-02 8.13869199e-02 6.97602171e-02 4.65068114e-02 9.30136227e-02 1.16267028e-01 4.65068114e-02 6.97602171e-02 9.30136227e-02 1.16267028e-01 0.00000000e+00 9.30136227e-02 6.97602171e-02 5.81335142e-02 5.81335142e-02 1.04640326e-01 5.81335142e-02 3.48801085e-02 8.13869199e-02 5.81335142e-02 5.81335142e-02 6.97602171e-02 6.97602171e-02 5.81335142e-02 6.97602171e-02 3.48801085e-02 5.81335142e-02 8.13869199e-02 5.81335142e-02 1.39520434e-01 1.16267028e-01 5.81335142e-02 9.30136227e-02 9.30136227e-02 6.97602171e-02 5.81335142e-02 3.48801085e-02 6.97602171e-02 6.97602171e-02 6.97602171e-02 8.13869199e-02 1.39520434e-01 1.16267028e-01 1.27893731e-01 1.04640326e-01 3.48801085e-02 1.27893731e-01 8.13869199e-02 1.04640326e-01 8.13869199e-02 8.13869199e-02 6.97602171e-02 6.97602171e-02 1.04640326e-01 8.13869199e-02 1.51147137e-01 1.51147137e-01 1.04640326e-01 1.39520434e-01 9.30136227e-02 1.16267028e-01 6.97602171e-02 4.65068114e-02 2.32534057e-02 1.16267028e-01 5.81335142e-02 5.81335142e-02 1.27893731e-01 2.32534057e-02 6.97602171e-02 3.48801085e-02 5.81335142e-02 1.04640326e-01 4.65068114e-02 6.97602171e-02 9.30136227e-02 3.48801085e-02 6.97602171e-02 8.13869199e-02 6.97602171e-02 8.13869199e-02 6.97602171e-02 8.13869199e-02 2.32534057e-02 4.65068114e-02 9.30136227e-02 8.13869199e-02 3.48801085e-02 8.13869199e-02 5.81335142e-02 6.97602171e-02 9.30136227e-02 1.27893731e-01 8.13869199e-02 5.81335142e-02 6.97602171e-02 4.65068114e-02 1.16267028e-02 8.13869199e-02 1.16267028e-01 4.65068114e-02 1.16267028e-01 8.13869199e-02 3.48801085e-02 5.81335142e-02 6.97602171e-02 2.32534057e-02 3.48801085e-02 6.97602171e-02 1.27893731e-01 1.51147137e-01 2.32534057e-02 3.48801085e-02 1.04640326e-01 5.81335142e-02 3.48801085e-02 2.32534057e-02 1.16267028e-01 3.48801085e-02 3.48801085e-02 6.97602171e-02 3.48801085e-02 9.30136227e-02 3.48801085e-02 1.27893731e-01 6.97602171e-02 6.97602171e-02 5.81335142e-02 1.04640326e-01 1.39520434e-01 1.04640326e-01 3.48801085e-02 5.81335142e-02 3.48801085e-02 6.97602171e-02 3.48801085e-02 4.65068114e-02 6.97602171e-02 4.65068114e-02 4.65068114e-02 1.04640326e-01 9.30136227e-02 1.27893731e-01 1.04640326e-01 1.04640326e-01 1.04640326e-01 6.97602171e-02 5.81335142e-02 1.16267028e-01 6.97602171e-02 1.27893731e-01 5.81335142e-02 6.97602171e-02 8.13869199e-02 8.13869199e-02 1.04640326e-01 3.48801085e-02 1.27893731e-01 5.81335142e-02 8.13869199e-02 1.39520434e-01 2.32534057e-02 9.30136227e-02 4.65068114e-02 6.97602171e-02 6.97602171e-02 1.51147137e-01 4.65068114e-02 5.81335142e-02 1.04640326e-01 1.27893731e-01 1.16267028e-01 5.81335142e-02 6.97602171e-02 6.97602171e-02 1.04640326e-01 9.30136227e-02 5.81335142e-02 9.30136227e-02 5.81335142e-02 8.13869199e-02 8.13869199e-02 1.39520434e-01 1.39520434e-01 4.65068114e-02 1.27893731e-01 9.30136227e-02 3.48801085e-02 2.32534057e-02 6.97602171e-02 8.13869199e-02 5.81335142e-02 5.81335142e-02 6.97602171e-02 1.16267028e-01 8.13869199e-02 4.65068114e-02 4.65068114e-02 4.65068114e-02 1.39520434e-01 9.30136227e-02 8.13869199e-02 1.16267028e-01 8.13869199e-02 3.48801085e-02 6.97602171e-02 5.81335142e-02 8.13869199e-02 8.13869199e-02 5.81335142e-02 8.13869199e-02 5.81335142e-02 2.32534057e-02 6.97602171e-02 1.16267028e-01 9.30136227e-02 8.13869199e-02 9.30136227e-02 1.04640326e-01 8.13869199e-02 6.97602171e-02 6.97602171e-02 4.65068114e-02 9.30136227e-02 5.81335142e-02 9.30136227e-02 5.81335142e-02 1.16267028e-01 6.97602171e-02 1.16267028e-01 9.30136227e-02 4.65068114e-02 3.48801085e-02 8.13869199e-02 4.65068114e-02 6.97602171e-02 8.13869199e-02 5.81335142e-02 5.81335142e-02 5.81335142e-02 1.16267028e-01 1.16267028e-01 1.16267028e-02 1.04640326e-01 1.74400543e-01 9.30136227e-02 3.48801085e-02 1.51147137e-01 1.51147137e-01 8.13869199e-02 2.32534057e-02 6.97602171e-02 6.97602171e-02 1.04640326e-01 9.30136227e-02 6.97602171e-02 1.04640326e-01 6.97602171e-02 5.81335142e-02 1.16267028e-01 4.65068114e-02 8.13869199e-02 6.97602171e-02 5.81335142e-02 1.16267028e-01 5.81335142e-02 4.65068114e-02 6.97602171e-02 9.30136227e-02 1.62773840e-01 2.32534057e-02 8.13869199e-02 1.16267028e-01 9.30136227e-02 4.65068114e-02 5.81335142e-02 1.16267028e-01 6.97602171e-02 6.97602171e-02 8.13869199e-02 1.04640326e-01 6.97602171e-02 8.13869199e-02 4.65068114e-02 2.32534057e-02 1.27893731e-01 6.97602171e-02 1.27893731e-01 8.13869199e-02 8.13869199e-02 8.13869199e-02 4.65068114e-02 4.65068114e-02 9.30136227e-02 9.30136227e-02 9.30136227e-02 5.81335142e-02 9.30136227e-02 8.13869199e-02 1.04640326e-01 4.65068114e-02 4.65068114e-02 1.16267028e-01 5.81335142e-02 8.13869199e-02 1.04640326e-01 8.13869199e-02 1.16267028e-01 9.30136227e-02 1.04640326e-01 6.97602171e-02 8.13869199e-02 1.16267028e-01 1.27893731e-01 5.81335142e-02 8.13869199e-02 6.97602171e-02 6.97602171e-02 6.97602171e-02 5.81335142e-02 6.97602171e-02 6.97602171e-02 1.16267028e-01 0.00000000e+00 9.30136227e-02 4.65068114e-02 1.16267028e-01 1.04640326e-01 4.65068114e-02 4.65068114e-02 9.30136227e-02 3.48801085e-02 9.30136227e-02 1.51147137e-01 6.97602171e-02 1.04640326e-01 1.27893731e-01 5.81335142e-02 4.65068114e-02 1.04640326e-01 1.16267028e-02 8.13869199e-02 9.30136227e-02 4.65068114e-02 8.13869199e-02 5.81335142e-02 5.81335142e-02 5.81335142e-02 1.04640326e-01 3.48801085e-02 6.97602171e-02 1.39520434e-01 9.30136227e-02 9.30136227e-02 6.97602171e-02 6.97602171e-02 8.13869199e-02 5.81335142e-02 9.30136227e-02 6.97602171e-02 8.13869199e-02 6.97602171e-02 1.04640326e-01 1.16267028e-01 1.74400543e-01 5.81335142e-02 5.81335142e-02 6.97602171e-02 8.13869199e-02 8.13869199e-02 8.13869199e-02 4.65068114e-02 1.16267028e-01 6.97602171e-02 3.48801085e-02 5.81335142e-02 9.30136227e-02 5.81335142e-02 5.81335142e-02 9.30136227e-02 6.97602171e-02 1.04640326e-01 6.97602171e-02 9.30136227e-02 4.65068114e-02 9.30136227e-02 1.04640326e-01 8.13869199e-02 8.13869199e-02 6.97602171e-02 8.13869199e-02 5.81335142e-02 4.65068114e-02 1.04640326e-01 1.16267028e-01 5.81335142e-02 3.48801085e-02 8.13869199e-02 6.97602171e-02 3.48801085e-02 1.04640326e-01 4.65068114e-02 6.97602171e-02 6.97602171e-02 5.81335142e-02 6.97602171e-02 8.13869199e-02 1.39520434e-01 1.16267028e-01 2.32534057e-02 1.39520434e-01 6.97602171e-02 8.13869199e-02 6.97602171e-02 6.97602171e-02 3.48801085e-02 1.04640326e-01 8.13869199e-02 3.48801085e-02 8.13869199e-02 8.13869199e-02 2.32534057e-02 6.97602171e-02 4.65068114e-02 1.39520434e-01 8.13869199e-02 9.30136227e-02 1.39520434e-01 9.30136227e-02 3.48801085e-02 5.81335142e-02 6.97602171e-02 9.30136227e-02 5.81335142e-02 9.30136227e-02 5.81335142e-02 6.97602171e-02 8.13869199e-02 3.48801085e-02 9.30136227e-02 5.81335142e-02 9.30136227e-02 5.81335142e-02 9.30136227e-02 6.97602171e-02 1.16267028e-01 1.86027245e-01 6.97602171e-02 5.81335142e-02 9.30136227e-02 4.65068114e-02 1.16267028e-02 1.04640326e-01 5.81335142e-02 4.65068114e-02 5.81335142e-02 1.16267028e-02 8.13869199e-02 5.81335142e-02 9.30136227e-02 4.65068114e-02 9.30136227e-02 1.16267028e-01 1.04640326e-01 5.81335142e-02 6.97602171e-02 4.65068114e-02 1.16267028e-01 9.30136227e-02 9.30136227e-02 1.27893731e-01 1.27893731e-01 2.32534057e-02 1.27893731e-01 1.04640326e-01 6.97602171e-02 1.39520434e-01 6.97602171e-02 1.04640326e-01 5.81335142e-02 6.97602171e-02 1.16267028e-01 5.81335142e-02 1.39520434e-01 6.97602171e-02 4.65068114e-02 9.30136227e-02 9.30136227e-02 3.48801085e-02 1.16267028e-01 4.65068114e-02 6.97602171e-02 6.97602171e-02 5.81335142e-02 1.51147137e-01 1.16267028e-01 9.30136227e-02 5.81335142e-02 1.51147137e-01 5.81335142e-02 9.30136227e-02 4.65068114e-02 1.04640326e-01 9.30136227e-02 3.48801085e-02 9.30136227e-02 6.97602171e-02 6.97602171e-02 5.81335142e-02 8.13869199e-02 8.13869199e-02 2.32534057e-02 1.62773840e-01 1.86027245e-01 1.16267028e-01 1.74400543e-01 9.30136227e-02 8.13869199e-02 5.81335142e-02 9.30136227e-02 1.27893731e-01 1.27893731e-01 9.30136227e-02 1.51147137e-01 9.30136227e-02 5.81335142e-02 9.30136227e-02 5.81335142e-02 3.48801085e-02 8.13869199e-02 3.48801085e-02 1.51147137e-01 6.97602171e-02 1.27893731e-01 1.39520434e-01 3.48801085e-02 1.62773840e-01 1.27893731e-01 1.16267028e-02 1.16267028e-01 1.16267028e-01 5.81335142e-02 4.65068114e-02 8.13869199e-02 1.16267028e-01 5.81335142e-02 1.16267028e-01 1.16267028e-01 5.81335142e-02 2.32534057e-02 5.81335142e-02 6.97602171e-02 8.13869199e-02 6.97602171e-02 4.65068114e-02 5.81335142e-02 5.81335142e-02 6.97602171e-02 6.97602171e-02 5.81335142e-02 4.65068114e-02 9.30136227e-02 5.81335142e-02 6.97602171e-02 9.30136227e-02 1.39520434e-01 3.48801085e-02 1.27893731e-01 1.27893731e-01 9.30136227e-02 8.13869199e-02 3.48801085e-02 1.27893731e-01 5.81335142e-02 1.16267028e-01 5.81335142e-02 8.13869199e-02 1.04640326e-01 1.16267028e-01 1.04640326e-01 5.81335142e-02 8.13869199e-02 9.30136227e-02 5.81335142e-02 1.04640326e-01 1.04640326e-01 5.81335142e-02 6.97602171e-02 4.65068114e-02 8.13869199e-02 4.65068114e-02 3.48801085e-02 4.65068114e-02 2.32534057e-02 9.30136227e-02 9.30136227e-02 9.30136227e-02 1.04640326e-01 1.04640326e-01 5.81335142e-02 3.48801085e-02 8.13869199e-02 8.13869199e-02 5.81335142e-02 6.97602171e-02 6.97602171e-02 6.97602171e-02 1.16267028e-01 8.13869199e-02 3.48801085e-02 8.13869199e-02 1.04640326e-01 8.13869199e-02 1.04640326e-01 6.97602171e-02 8.13869199e-02 6.97602171e-02 1.39520434e-01 8.13869199e-02 4.65068114e-02 8.13869199e-02 6.97602171e-02 6.97602171e-02 1.16267028e-01 4.65068114e-02 1.04640326e-01 4.65068114e-02 1.16267028e-01 1.04640326e-01 6.97602171e-02 5.81335142e-02 8.13869199e-02 1.27893731e-01 1.16267028e-01 9.30136227e-02 4.65068114e-02 8.13869199e-02 1.04640326e-01 1.04640326e-01 9.30136227e-02 5.81335142e-02 5.81335142e-02 1.39520434e-01 6.97602171e-02 2.32534057e-02 1.04640326e-01 6.97602171e-02 9.30136227e-02 8.13869199e-02 8.13869199e-02 6.97602171e-02 1.04640326e-01 1.27893731e-01 9.30136227e-02 1.04640326e-01 6.97602171e-02 4.65068114e-02 5.81335142e-02 4.65068114e-02 8.13869199e-02 8.13869199e-02 6.97602171e-02 8.13869199e-02 8.13869199e-02 9.30136227e-02 5.81335142e-02 1.16267028e-01 1.16267028e-01 4.65068114e-02 8.13869199e-02 1.62773840e-01 9.30136227e-02 1.27893731e-01 4.65068114e-02 6.97602171e-02 1.04640326e-01 1.16267028e-01 3.48801085e-02 9.30136227e-02 6.97602171e-02 1.16267028e-01 4.65068114e-02 8.13869199e-02 4.65068114e-02 3.48801085e-02 9.30136227e-02 1.04640326e-01 5.81335142e-02 5.81335142e-02 5.81335142e-02 2.32534057e-02 1.04640326e-01 8.13869199e-02 6.97602171e-02 8.13869199e-02 5.81335142e-02 1.51147137e-01 9.30136227e-02 9.30136227e-02 5.81335142e-02 1.16267028e-01 5.81335142e-02 1.04640326e-01 1.62773840e-01 9.30136227e-02 1.16267028e-01 9.30136227e-02 1.04640326e-01 6.97602171e-02 5.81335142e-02 4.65068114e-02 1.16267028e-01 8.13869199e-02 5.81335142e-02 1.39520434e-01 4.65068114e-02 4.65068114e-02 6.97602171e-02 4.65068114e-02 9.30136227e-02 9.30136227e-02 6.97602171e-02 5.81335142e-02 5.81335142e-02 5.81335142e-02 6.97602171e-02 1.04640326e-01 1.27893731e-01 1.04640326e-01 8.13869199e-02 8.13869199e-02 4.65068114e-02 8.13869199e-02 3.48801085e-02 1.16267028e-01 4.65068114e-02 3.48801085e-02 4.65068114e-02 1.16267028e-01 9.30136227e-02 1.04640326e-01 9.30136227e-02 8.13869199e-02 6.97602171e-02 9.30136227e-02 5.81335142e-02 8.13869199e-02 1.04640326e-01 1.04640326e-01 6.97602171e-02 1.04640326e-01 4.65068114e-02 8.13869199e-02 1.04640326e-01 1.16267028e-01 3.48801085e-02 8.13869199e-02 2.32534057e-02 8.13869199e-02 3.48801085e-02 6.97602171e-02 9.30136227e-02 8.13869199e-02 5.81335142e-02 4.65068114e-02 1.27893731e-01 1.16267028e-01 8.13869199e-02 4.65068114e-02 4.65068114e-02 5.81335142e-02 1.39520434e-01 1.27893731e-01 9.30136227e-02 9.30136227e-02 5.81335142e-02 6.97602171e-02 9.30136227e-02 1.16267028e-01 8.13869199e-02 3.48801085e-02 8.13869199e-02 1.39520434e-01 3.48801085e-02 4.65068114e-02 6.97602171e-02 9.30136227e-02 6.97602171e-02 5.81335142e-02 8.13869199e-02 1.16267028e-01 4.65068114e-02 5.81335142e-02 1.62773840e-01 6.97602171e-02 1.04640326e-01 9.30136227e-02 1.04640326e-01 6.97602171e-02 1.39520434e-01 4.65068114e-02 1.27893731e-01 8.13869199e-02 6.97602171e-02 8.13869199e-02 1.27893731e-01 9.30136227e-02 6.97602171e-02 4.65068114e-02 8.13869199e-02 6.97602171e-02 4.65068114e-02 1.04640326e-01 5.81335142e-02 1.04640326e-01 6.97602171e-02 9.30136227e-02 4.65068114e-02 9.30136227e-02 1.27893731e-01 6.97602171e-02 1.16267028e-01 6.97602171e-02 4.65068114e-02 1.16267028e-01 1.39520434e-01 5.81335142e-02 1.04640326e-01 4.65068114e-02 1.04640326e-01 8.13869199e-02 3.48801085e-02 3.48801085e-02 1.16267028e-01 9.30136227e-02 6.97602171e-02 4.65068114e-02 6.97602171e-02 1.16267028e-01 2.32534057e-02 4.65068114e-02 3.48801085e-02 1.16267028e-01 9.30136227e-02 1.62773840e-01 5.81335142e-02 5.81335142e-02 9.30136227e-02 1.04640326e-01 1.27893731e-01 1.04640326e-01 1.27893731e-01 6.97602171e-02 8.13869199e-02 6.97602171e-02 1.16267028e-01 9.30136227e-02 1.16267028e-01 1.04640326e-01 9.30136227e-02 9.30136227e-02 1.04640326e-01 2.32534057e-02 5.81335142e-02 1.04640326e-01 9.30136227e-02 8.13869199e-02 1.04640326e-01 4.65068114e-02 8.13869199e-02 5.81335142e-02 1.04640326e-01 1.62773840e-01 9.30136227e-02 1.27893731e-01 1.04640326e-01 1.04640326e-01 9.30136227e-02 3.48801085e-02 5.81335142e-02 1.62773840e-01 5.81335142e-02 1.27893731e-01 4.65068114e-02 4.65068114e-02 8.13869199e-02 1.04640326e-01 8.13869199e-02 1.74400543e-01 3.48801085e-02 1.27893731e-01 8.13869199e-02 9.30136227e-02 8.13869199e-02 1.04640326e-01 6.97602171e-02 8.13869199e-02 4.65068114e-02 1.16267028e-02 1.16267028e-01 9.30136227e-02 8.13869199e-02 1.16267028e-01 9.30136227e-02 5.81335142e-02 1.04640326e-01 1.04640326e-01 5.81335142e-02 4.65068114e-02 3.48801085e-02 8.13869199e-02 6.97602171e-02 1.39520434e-01 8.13869199e-02 2.32534057e-02 4.65068114e-02 1.62773840e-01 6.97602171e-02 1.27893731e-01 8.13869199e-02 9.30136227e-02 6.97602171e-02 3.48801085e-02 4.65068114e-02 3.48801085e-02 6.97602171e-02 1.04640326e-01 8.13869199e-02 9.30136227e-02 6.97602171e-02 1.27893731e-01 1.16267028e-01 4.65068114e-02 1.04640326e-01 8.13869199e-02 8.13869199e-02 6.97602171e-02 9.30136227e-02 4.65068114e-02 3.48801085e-02 6.97602171e-02 6.97602171e-02 1.16267028e-01 1.86027245e-01 3.48801085e-02 3.48801085e-02 3.48801085e-02 5.81335142e-02 5.81335142e-02 8.13869199e-02 3.48801085e-02 1.16267028e-01 1.27893731e-01 1.51147137e-01 1.16267028e-01 1.04640326e-01 6.97602171e-02 9.30136227e-02 9.30136227e-02 1.16267028e-01 1.04640326e-01 1.04640326e-01 4.65068114e-02 6.97602171e-02 5.81335142e-02 8.13869199e-02 8.13869199e-02 5.81335142e-02 6.97602171e-02 1.16267028e-01 1.04640326e-01 1.04640326e-01 9.30136227e-02 5.81335142e-02 8.13869199e-02 9.30136227e-02 1.16267028e-01 5.81335142e-02 5.81335142e-02 5.81335142e-02 8.13869199e-02 6.97602171e-02 1.04640326e-01 6.97602171e-02 1.04640326e-01 9.30136227e-02 9.30136227e-02 1.62773840e-01 5.81335142e-02 9.30136227e-02 8.13869199e-02 9.30136227e-02 8.13869199e-02 1.16267028e-01 8.13869199e-02 1.16267028e-01 5.81335142e-02 6.97602171e-02 9.30136227e-02 9.30136227e-02 6.97602171e-02 1.27893731e-01 9.30136227e-02 1.16267028e-01 6.97602171e-02 8.13869199e-02 1.27893731e-01 8.13869199e-02 3.48801085e-02 1.16267028e-01 8.13869199e-02 5.81335142e-02 1.27893731e-01 6.97602171e-02 1.16267028e-01 1.16267028e-01 6.97602171e-02 8.13869199e-02 9.30136227e-02 1.04640326e-01 1.27893731e-01 9.30136227e-02 1.04640326e-01 5.81335142e-02 1.62773840e-01 1.27893731e-01 9.30136227e-02 6.97602171e-02 1.27893731e-01 1.04640326e-01 3.48801085e-02 1.04640326e-01 1.39520434e-01 1.27893731e-01 9.30136227e-02 8.13869199e-02 1.27893731e-01 8.13869199e-02 1.86027245e-01 6.97602171e-02 1.04640326e-01 9.30136227e-02 6.97602171e-02 8.13869199e-02 8.13869199e-02 6.97602171e-02 1.04640326e-01 6.97602171e-02 1.04640326e-01 8.13869199e-02 8.13869199e-02 9.30136227e-02 9.30136227e-02 6.97602171e-02 8.13869199e-02 1.27893731e-01 1.16267028e-01 1.04640326e-01 1.04640326e-01 1.39520434e-01 4.65068114e-02 8.13869199e-02 1.16267028e-01 1.04640326e-01 1.27893731e-01 6.97602171e-02 8.13869199e-02 6.97602171e-02 4.65068114e-02 6.97602171e-02 1.74400543e-01 8.13869199e-02 1.16267028e-01 3.48801085e-02 3.48801085e-02 1.62773840e-01 1.39520434e-01 1.51147137e-01 1.39520434e-01 1.04640326e-01 1.04640326e-01 1.27893731e-01 6.97602171e-02 5.81335142e-02 5.81335142e-02 6.97602171e-02 9.30136227e-02 1.86027245e-01 5.81335142e-02 8.13869199e-02 9.30136227e-02 1.16267028e-01 4.65068114e-02 1.27893731e-01 1.16267028e-01 2.32534057e-02 3.48801085e-02 1.16267028e-01 1.04640326e-01 5.81335142e-02 1.04640326e-01 1.51147137e-01 1.74400543e-01 8.13869199e-02 1.27893731e-01 1.04640326e-01 1.16267028e-01 1.04640326e-01 3.48801085e-02 8.13869199e-02 8.13869199e-02 6.97602171e-02 1.39520434e-01 5.81335142e-02 1.27893731e-01 1.27893731e-01 1.04640326e-01 8.13869199e-02 1.39520434e-01 6.97602171e-02 8.13869199e-02 9.30136227e-02 1.27893731e-01 1.27893731e-01 6.97602171e-02 1.51147137e-01 1.51147137e-01 6.97602171e-02 8.13869199e-02 1.04640326e-01 8.13869199e-02 1.27893731e-01 3.48801085e-02 8.13869199e-02 8.13869199e-02 1.16267028e-01 6.97602171e-02 1.04640326e-01 8.13869199e-02 3.48801085e-02 1.16267028e-01 6.97602171e-02 5.81335142e-02 9.30136227e-02 8.13869199e-02 5.81335142e-02 4.65068114e-02 6.97602171e-02 9.30136227e-02 1.16267028e-01 3.48801085e-02 9.30136227e-02 6.97602171e-02 1.16267028e-01 1.51147137e-01 1.16267028e-01 1.16267028e-01 1.04640326e-01 1.39520434e-01 1.62773840e-01 1.16267028e-01 8.13869199e-02 8.13869199e-02 1.04640326e-01 6.97602171e-02 1.16267028e-01 5.81335142e-02 8.13869199e-02 1.27893731e-01 1.27893731e-01 4.65068114e-02 1.04640326e-01 8.13869199e-02 1.51147137e-01 9.30136227e-02 4.65068114e-02 1.16267028e-01 1.39520434e-01 9.30136227e-02 1.62773840e-01 8.13869199e-02 1.16267028e-01 8.13869199e-02 4.65068114e-02 8.13869199e-02 2.32534057e-02 8.13869199e-02 5.81335142e-02 2.32534057e-02 8.13869199e-02 1.62773840e-01 9.30136227e-02 1.16267028e-01 1.04640326e-01 1.39520434e-01 1.39520434e-01 9.30136227e-02 8.13869199e-02 9.30136227e-02 1.27893731e-01 1.27893731e-01 1.86027245e-01 1.27893731e-01 1.27893731e-01 8.13869199e-02 1.27893731e-01 1.74400543e-01 1.04640326e-01 5.81335142e-02 6.97602171e-02 1.16267028e-01 1.27893731e-01 5.81335142e-02 1.04640326e-01 8.13869199e-02 1.27893731e-01 6.97602171e-02 1.27893731e-01 9.30136227e-02 8.13869199e-02 9.30136227e-02 6.97602171e-02 1.04640326e-01 1.04640326e-01 1.04640326e-01 1.04640326e-01 8.13869199e-02 5.81335142e-02 1.04640326e-01 1.16267028e-01 9.30136227e-02 6.97602171e-02 1.16267028e-01 8.13869199e-02 8.13869199e-02 1.04640326e-01 6.97602171e-02 2.32534057e-02 1.16267028e-01 1.04640326e-01 6.97602171e-02 9.30136227e-02 1.27893731e-01 8.13869199e-02 3.48801085e-02 8.13869199e-02 1.27893731e-01 1.04640326e-01 1.27893731e-01 1.86027245e-01 6.97602171e-02 8.13869199e-02 9.30136227e-02 8.13869199e-02 6.97602171e-02 1.16267028e-01 5.81335142e-02 1.27893731e-01 5.81335142e-02 8.13869199e-02 8.13869199e-02 1.27893731e-01 1.04640326e-01 9.30136227e-02 1.39520434e-01 1.16267028e-01 5.81335142e-02 1.39520434e-01 1.16267028e-01 9.30136227e-02 8.13869199e-02 9.30136227e-02 1.51147137e-01 6.97602171e-02 1.16267028e-01 3.48801085e-02 6.97602171e-02 6.97602171e-02 8.13869199e-02 1.97653948e-01 1.27893731e-01 1.16267028e-01 1.39520434e-01 1.04640326e-01 1.04640326e-01 1.16267028e-01 1.39520434e-01 1.27893731e-01 4.65068114e-02 3.48801085e-02 1.51147137e-01 5.81335142e-02 1.62773840e-01 6.97602171e-02 4.65068114e-02 5.81335142e-02 9.30136227e-02 1.39520434e-01 8.13869199e-02 1.27893731e-01 6.97602171e-02 1.27893731e-01 9.30136227e-02 8.13869199e-02 1.51147137e-01 1.04640326e-01 1.16267028e-01 1.04640326e-01 1.62773840e-01 5.81335142e-02 8.13869199e-02 1.39520434e-01 1.04640326e-01 6.97602171e-02 1.16267028e-01 1.39520434e-01 9.30136227e-02 6.97602171e-02 5.81335142e-02 1.74400543e-01 5.81335142e-02 6.97602171e-02 6.97602171e-02 4.65068114e-02 1.04640326e-01 1.86027245e-01 6.97602171e-02 8.13869199e-02 1.16267028e-01 1.04640326e-01 6.97602171e-02 9.30136227e-02 6.97602171e-02 1.16267028e-01 8.13869199e-02 1.39520434e-01 1.04640326e-01 1.16267028e-01 8.13869199e-02 4.65068114e-02 9.30136227e-02 8.13869199e-02 1.04640326e-01 4.65068114e-02 6.97602171e-02 8.13869199e-02 8.13869199e-02 1.04640326e-01 1.62773840e-01 9.30136227e-02 9.30136227e-02 4.65068114e-02 8.13869199e-02 1.39520434e-01 1.27893731e-01 1.16267028e-01 1.04640326e-01 1.27893731e-01 1.51147137e-01 1.51147137e-01 9.30136227e-02 1.04640326e-01 5.81335142e-02 5.81335142e-02 1.51147137e-01 1.74400543e-01 1.16267028e-01 1.39520434e-01 1.27893731e-01 4.65068114e-02 8.13869199e-02 1.16267028e-01 1.27893731e-01 1.51147137e-01 1.39520434e-01 6.97602171e-02 1.62773840e-01 1.04640326e-01 5.81335142e-02 1.04640326e-01 1.16267028e-01 9.30136227e-02 9.30136227e-02 5.81335142e-02 1.39520434e-01 1.39520434e-01 1.39520434e-01 1.62773840e-01 1.51147137e-01 8.13869199e-02 3.48801085e-02 1.04640326e-01 1.04640326e-01 6.97602171e-02 6.97602171e-02 6.97602171e-02 1.04640326e-01 1.62773840e-01 1.16267028e-01 1.16267028e-01 1.04640326e-01 1.51147137e-01 1.27893731e-01 1.04640326e-01 8.13869199e-02 9.30136227e-02 1.39520434e-01 1.16267028e-01 1.04640326e-01 1.27893731e-01 6.97602171e-02 6.97602171e-02 1.04640326e-01 6.97602171e-02 1.16267028e-01 1.51147137e-01 1.27893731e-01 9.30136227e-02 8.13869199e-02 8.13869199e-02 6.97602171e-02 5.81335142e-02 1.74400543e-01 1.27893731e-01 6.97602171e-02 5.81335142e-02 1.04640326e-01 1.04640326e-01 6.97602171e-02 1.16267028e-01 1.16267028e-01 5.81335142e-02 1.27893731e-01 6.97602171e-02 1.62773840e-01 3.48801085e-02 9.30136227e-02 9.30136227e-02 1.51147137e-01 1.39520434e-01 1.51147137e-01 1.39520434e-01 9.30136227e-02 9.30136227e-02 1.62773840e-01 1.62773840e-01 3.48801085e-02 1.51147137e-01 1.16267028e-01 1.16267028e-01 1.51147137e-01 8.13869199e-02 5.81335142e-02 8.13869199e-02 9.30136227e-02 5.81335142e-02 1.04640326e-01 6.97602171e-02 6.97602171e-02 9.30136227e-02 1.27893731e-01 8.13869199e-02 8.13869199e-02 8.13869199e-02 1.04640326e-01 1.51147137e-01 1.39520434e-01 1.16267028e-01 1.74400543e-01 1.51147137e-01 9.30136227e-02 3.48801085e-02 9.30136227e-02 1.51147137e-01 4.65068114e-02 8.13869199e-02 1.16267028e-01 9.30136227e-02 5.81335142e-02 1.39520434e-01 1.62773840e-01 4.65068114e-02 1.16267028e-01 4.65068114e-02 9.30136227e-02 1.04640326e-01 9.30136227e-02 9.30136227e-02 9.30136227e-02 1.04640326e-01 1.04640326e-01 1.27893731e-01 1.04640326e-01 9.30136227e-02 8.13869199e-02 4.65068114e-02 6.97602171e-02 1.16267028e-01 1.27893731e-01 1.04640326e-01 1.74400543e-01 9.30136227e-02 6.97602171e-02 5.81335142e-02 9.30136227e-02 1.16267028e-01 1.16267028e-01 1.16267028e-01 1.04640326e-01 6.97602171e-02 9.30136227e-02 9.30136227e-02 9.30136227e-02 1.27893731e-01 1.16267028e-01 5.81335142e-02 1.74400543e-01 1.62773840e-01 1.51147137e-01 1.04640326e-01 1.04640326e-01 9.30136227e-02 6.97602171e-02 9.30136227e-02 1.27893731e-01 1.51147137e-01 8.13869199e-02 8.13869199e-02 5.81335142e-02 9.30136227e-02 6.97602171e-02 6.97602171e-02 6.97602171e-02 9.30136227e-02 8.13869199e-02 2.09280651e-01 8.13869199e-02 9.30136227e-02 6.97602171e-02 4.65068114e-02 1.16267028e-01 8.13869199e-02 1.16267028e-01 1.04640326e-01 1.16267028e-01 1.51147137e-01 4.65068114e-02 1.51147137e-01 1.16267028e-01 1.04640326e-01 8.13869199e-02 1.04640326e-01 3.48801085e-02 5.81335142e-02 1.39520434e-01 9.30136227e-02 1.27893731e-01 1.27893731e-01 8.13869199e-02 9.30136227e-02 1.27893731e-01 1.04640326e-01 6.97602171e-02 6.97602171e-02 1.16267028e-01 9.30136227e-02 1.27893731e-01 1.39520434e-01 1.39520434e-01 3.48801085e-02 1.04640326e-01 1.39520434e-01 4.65068114e-02 1.74400543e-01 6.97602171e-02 6.97602171e-02 1.62773840e-01 1.27893731e-01 1.39520434e-01 8.13869199e-02 1.04640326e-01 8.13869199e-02 6.97602171e-02 9.30136227e-02 1.04640326e-01 1.04640326e-01 6.97602171e-02 3.48801085e-02 1.39520434e-01 1.16267028e-01 8.13869199e-02 5.81335142e-02 1.51147137e-01 1.16267028e-01 8.13869199e-02 6.97602171e-02 1.74400543e-01 1.16267028e-01 9.30136227e-02 1.16267028e-01 1.62773840e-01 8.13869199e-02 1.51147137e-01 1.86027245e-01 5.81335142e-02 8.13869199e-02 8.13869199e-02 1.51147137e-01 1.04640326e-01 5.81335142e-02 1.39520434e-01 1.04640326e-01 8.13869199e-02 1.39520434e-01 9.30136227e-02 1.04640326e-01 1.16267028e-01 9.30136227e-02 1.27893731e-01 5.81335142e-02 6.97602171e-02 9.30136227e-02 6.97602171e-02 8.13869199e-02 1.51147137e-01 1.04640326e-01 1.27893731e-01 6.97602171e-02 9.30136227e-02 1.27893731e-01 1.39520434e-01 1.39520434e-01 1.27893731e-01 1.39520434e-01 1.16267028e-01 1.27893731e-01 8.13869199e-02 5.81335142e-02 1.27893731e-01 1.04640326e-01 6.97602171e-02 6.97602171e-02 1.27893731e-01 1.16267028e-01 1.16267028e-01 9.30136227e-02 1.51147137e-01 1.04640326e-01 1.04640326e-01 1.86027245e-01 9.30136227e-02 1.62773840e-01 1.51147137e-01 1.27893731e-01 4.65068114e-02 1.39520434e-01 1.39520434e-01 1.27893731e-01 3.48801085e-02 1.51147137e-01 1.16267028e-01 5.81335142e-02 1.27893731e-01 1.16267028e-01 1.16267028e-01 1.27893731e-01 1.74400543e-01 9.30136227e-02 6.97602171e-02 8.13869199e-02 1.39520434e-01 1.27893731e-01 1.51147137e-01 9.30136227e-02 4.65068114e-02 1.39520434e-01 1.16267028e-01 1.51147137e-01 1.97653948e-01 4.65068114e-02 8.13869199e-02 1.27893731e-01 6.97602171e-02 1.04640326e-01 1.27893731e-01 9.30136227e-02 1.04640326e-01 1.62773840e-01 9.30136227e-02 1.04640326e-01 1.62773840e-01 9.30136227e-02 6.97602171e-02 1.62773840e-01 1.27893731e-01 8.13869199e-02 9.30136227e-02 1.04640326e-01 9.30136227e-02 1.04640326e-01 6.97602171e-02 1.39520434e-01 6.97602171e-02 9.30136227e-02 1.16267028e-01 2.09280651e-01 1.16267028e-01 1.04640326e-01 9.30136227e-02 9.30136227e-02 1.16267028e-01 9.30136227e-02 8.13869199e-02 5.81335142e-02 8.13869199e-02 8.13869199e-02 1.16267028e-01 1.16267028e-01 1.16267028e-01 1.51147137e-01 1.62773840e-01 1.51147137e-01 1.16267028e-01 9.30136227e-02 1.62773840e-01 1.27893731e-01 1.04640326e-01 1.74400543e-01 8.13869199e-02 1.51147137e-01 8.13869199e-02 1.27893731e-01 4.65068114e-02 1.62773840e-01 1.62773840e-01 1.04640326e-01 1.04640326e-01 1.16267028e-01 1.04640326e-01 1.51147137e-01 3.48801085e-02 1.39520434e-01 1.04640326e-01 1.04640326e-01 9.30136227e-02 6.97602171e-02 6.97602171e-02 1.51147137e-01 1.27893731e-01 5.81335142e-02 1.04640326e-01 8.13869199e-02 1.16267028e-01 1.86027245e-01 8.13869199e-02 1.16267028e-01 1.39520434e-01 6.97602171e-02 1.51147137e-01 1.97653948e-01 1.16267028e-01 1.97653948e-01 1.27893731e-01 8.13869199e-02 5.81335142e-02 1.16267028e-01 1.97653948e-01 9.30136227e-02 1.16267028e-01 1.74400543e-01 9.30136227e-02 1.51147137e-01 6.97602171e-02 1.16267028e-01 1.39520434e-01 8.13869199e-02 1.16267028e-01 1.04640326e-01 1.97653948e-01 1.16267028e-01 6.97602171e-02 1.51147137e-01 1.04640326e-01 1.04640326e-01 1.16267028e-01 5.81335142e-02 1.39520434e-01 1.51147137e-01 1.51147137e-01 5.81335142e-02 2.20907354e-01 1.39520434e-01 9.30136227e-02 9.30136227e-02 8.13869199e-02 1.39520434e-01 1.16267028e-01 1.39520434e-01 6.97602171e-02 9.30136227e-02 1.16267028e-01 1.27893731e-01 1.51147137e-01 9.30136227e-02 1.39520434e-01 1.62773840e-01 1.16267028e-01 1.39520434e-01 8.13869199e-02 1.39520434e-01 1.27893731e-01 1.97653948e-01 1.51147137e-01 9.30136227e-02 1.39520434e-01 1.51147137e-01 1.74400543e-01 1.86027245e-01 1.16267028e-01 1.04640326e-01 1.62773840e-01 1.27893731e-01 8.13869199e-02 1.86027245e-01 1.04640326e-01 1.51147137e-01 1.39520434e-01 1.27893731e-01 6.97602171e-02 1.27893731e-01 1.04640326e-01 8.13869199e-02 1.16267028e-01 1.39520434e-01 9.30136227e-02 1.51147137e-01 5.81335142e-02 1.04640326e-01 1.16267028e-01 1.04640326e-01 1.04640326e-01 1.27893731e-01 4.65068114e-02 1.62773840e-01 1.27893731e-01 1.27893731e-01 1.97653948e-01 9.30136227e-02 9.30136227e-02 1.27893731e-01 1.27893731e-01 1.16267028e-01 1.16267028e-01 1.39520434e-01 1.04640326e-01 1.62773840e-01 3.48801085e-02 1.04640326e-01 1.16267028e-01 8.13869199e-02 1.62773840e-01 1.51147137e-01 1.51147137e-01 8.13869199e-02 1.97653948e-01 9.30136227e-02 1.27893731e-01 1.16267028e-01 1.27893731e-01 1.16267028e-01 1.39520434e-01 1.39520434e-01 1.39520434e-01 1.16267028e-01 1.39520434e-01 1.39520434e-01 1.97653948e-01 1.51147137e-01 1.39520434e-01 9.30136227e-02 8.13869199e-02 6.97602171e-02 9.30136227e-02 1.27893731e-01 1.16267028e-01 1.04640326e-01 1.39520434e-01 2.20907354e-01 2.09280651e-01 1.16267028e-01 1.27893731e-01 1.27893731e-01 1.86027245e-01 1.62773840e-01 1.86027245e-01 3.48801085e-02 1.51147137e-01 1.39520434e-01 1.86027245e-01 1.04640326e-01 1.51147137e-01 1.27893731e-01 1.39520434e-01 1.51147137e-01 8.13869199e-02 1.74400543e-01 1.27893731e-01 1.27893731e-01 6.97602171e-02 1.51147137e-01 1.51147137e-01 9.30136227e-02 1.16267028e-01 1.86027245e-01 2.20907354e-01 2.44160760e-01 1.62773840e-01 1.27893731e-01 8.13869199e-02 2.32534057e-01 1.62773840e-01 5.81335142e-02 1.51147137e-01 1.97653948e-01 1.74400543e-01 1.16267028e-01 1.27893731e-01 1.16267028e-01 2.09280651e-01 1.04640326e-01 8.13869199e-02 1.62773840e-01 4.65068114e-02 1.86027245e-01 1.39520434e-01 1.74400543e-01 1.16267028e-01 5.81335142e-02 1.51147137e-01 1.16267028e-01 1.86027245e-01 2.32534057e-02 8.13869199e-02 1.27893731e-01 1.74400543e-01 1.27893731e-01 1.51147137e-01 1.62773840e-01 1.51147137e-01 1.86027245e-01 1.16267028e-01 1.27893731e-01 8.13869199e-02 1.04640326e-01 1.04640326e-01 1.86027245e-01 1.86027245e-01 1.97653948e-01 1.16267028e-01 1.39520434e-01 9.30136227e-02 1.86027245e-01 1.39520434e-01 1.16267028e-01 1.04640326e-01 1.51147137e-01 2.32534057e-01 1.74400543e-01 1.39520434e-01 1.62773840e-01 1.51147137e-01 1.51147137e-01 1.51147137e-01 8.13869199e-02 8.13869199e-02 6.97602171e-02 2.09280651e-01 1.04640326e-01 1.16267028e-01 9.30136227e-02 1.39520434e-01 1.39520434e-01 1.51147137e-01 5.81335142e-02 1.86027245e-01 1.86027245e-01 1.04640326e-01 1.86027245e-01 1.39520434e-01 1.27893731e-01 1.51147137e-01 1.39520434e-01 1.51147137e-01 1.86027245e-01 9.30136227e-02 1.27893731e-01 9.30136227e-02 1.04640326e-01 1.51147137e-01 1.16267028e-01 1.16267028e-01 1.39520434e-01 6.97602171e-02 1.97653948e-01 1.04640326e-01 1.16267028e-01 2.20907354e-01 1.39520434e-01 1.16267028e-01 1.27893731e-01 1.51147137e-01 1.27893731e-01 1.27893731e-01 1.51147137e-01 1.51147137e-01 1.16267028e-01 1.51147137e-01 1.51147137e-01 1.51147137e-01 2.09280651e-01 2.44160760e-01 1.04640326e-01 2.09280651e-01 1.62773840e-01 9.30136227e-02 2.32534057e-01 1.16267028e-01 1.27893731e-01 1.27893731e-01 1.51147137e-01 1.39520434e-01 2.09280651e-01 1.16267028e-01 1.27893731e-01 1.51147137e-01 1.16267028e-01 1.16267028e-01 1.39520434e-01 1.04640326e-01 1.16267028e-01 1.86027245e-01 1.39520434e-01 1.16267028e-01 9.30136227e-02 1.39520434e-01 1.04640326e-01 1.74400543e-01 1.62773840e-01 1.51147137e-01 1.86027245e-01 1.39520434e-01 1.04640326e-01 1.04640326e-01 1.62773840e-01 1.51147137e-01 1.39520434e-01 5.81335142e-02 1.51147137e-01 1.39520434e-01 2.20907354e-01 1.27893731e-01 1.39520434e-01 1.16267028e-01 1.51147137e-01 6.97602171e-02 1.39520434e-01 1.86027245e-01 2.32534057e-01 1.27893731e-01 1.51147137e-01 1.62773840e-01 1.16267028e-01 1.39520434e-01 8.13869199e-02 1.27893731e-01 1.97653948e-01 2.20907354e-01 1.39520434e-01 8.13869199e-02 1.51147137e-01 1.51147137e-01 1.62773840e-01 1.04640326e-01 1.04640326e-01 1.62773840e-01 1.27893731e-01 1.74400543e-01 1.74400543e-01 6.97602171e-02 1.74400543e-01 2.09280651e-01 1.16267028e-01 1.74400543e-01 1.39520434e-01 1.62773840e-01 1.16267028e-01 1.86027245e-01 1.74400543e-01 1.39520434e-01 1.04640326e-01 1.04640326e-01 1.39520434e-01 2.32534057e-01 2.32534057e-01 1.39520434e-01 1.51147137e-01 1.74400543e-01 1.62773840e-01 1.62773840e-01 2.32534057e-01 1.74400543e-01 9.30136227e-02 1.27893731e-01 1.27893731e-01 1.27893731e-01 9.30136227e-02 1.62773840e-01 1.62773840e-01 1.04640326e-01 1.97653948e-01 1.51147137e-01 1.16267028e-01 2.09280651e-01 1.27893731e-01 2.09280651e-01 1.51147137e-01 1.04640326e-01 1.86027245e-01 1.86027245e-01 1.51147137e-01 1.62773840e-01 9.30136227e-02 1.62773840e-01 1.74400543e-01 2.67414165e-01 1.97653948e-01 1.86027245e-01 2.09280651e-01 8.13869199e-02 1.27893731e-01 6.97602171e-02 1.86027245e-01 1.86027245e-01 9.30136227e-02 1.27893731e-01 1.62773840e-01 1.27893731e-01 1.86027245e-01 2.44160760e-01 9.30136227e-02 1.97653948e-01 1.62773840e-01 1.62773840e-01 1.62773840e-01 2.20907354e-01 1.62773840e-01 1.39520434e-01 1.39520434e-01 1.27893731e-01 1.74400543e-01 1.27893731e-01 1.62773840e-01 1.74400543e-01 1.16267028e-01 1.27893731e-01 1.62773840e-01 1.74400543e-01 2.09280651e-01 1.62773840e-01 1.16267028e-01 1.86027245e-01 1.04640326e-01 1.27893731e-01 1.39520434e-01 1.39520434e-01 1.51147137e-01 1.39520434e-01 1.39520434e-01 2.09280651e-01 1.86027245e-01 2.09280651e-01 1.86027245e-01 1.16267028e-01 1.39520434e-01 1.04640326e-01 1.74400543e-01 2.20907354e-01 1.39520434e-01 2.20907354e-01 2.44160760e-01 1.51147137e-01 2.55787463e-01 1.62773840e-01 1.27893731e-01 1.27893731e-01 1.74400543e-01 1.39520434e-01 1.74400543e-01 9.30136227e-02 2.79040868e-01 2.09280651e-01 2.90667571e-01 1.51147137e-01 2.09280651e-01 1.62773840e-01 1.16267028e-01 1.39520434e-01 1.62773840e-01 1.62773840e-01 2.20907354e-01 1.27893731e-01 1.51147137e-01 1.39520434e-01 1.51147137e-01 2.44160760e-01 1.27893731e-01 2.32534057e-01 1.16267028e-01 1.97653948e-01 1.62773840e-01 2.32534057e-01 1.97653948e-01 1.62773840e-01 2.55787463e-01 1.51147137e-01 1.62773840e-01 1.51147137e-01 9.30136227e-02 1.74400543e-01 1.74400543e-01 1.04640326e-01 2.32534057e-01 1.74400543e-01 1.97653948e-01 1.39520434e-01 2.20907354e-01 5.81335142e-02 1.16267028e-01 1.74400543e-01 1.74400543e-01 1.51147137e-01 6.97602171e-02 1.62773840e-01 2.20907354e-01 2.20907354e-01 2.44160760e-01 1.04640326e-01 1.16267028e-01 1.97653948e-01 1.97653948e-01 1.51147137e-01 1.97653948e-01 1.62773840e-01 6.97602171e-02 1.04640326e-01 2.09280651e-01 2.09280651e-01 1.62773840e-01 2.20907354e-01 1.86027245e-01 2.20907354e-01 1.74400543e-01 9.30136227e-02 2.09280651e-01 1.74400543e-01 1.51147137e-01 1.86027245e-01 1.62773840e-01 1.86027245e-01 2.09280651e-01 1.51147137e-01 2.20907354e-01 2.09280651e-01 2.09280651e-01 1.51147137e-01 1.86027245e-01 2.20907354e-01 2.09280651e-01 1.62773840e-01 1.86027245e-01 5.81335142e-02 2.67414165e-01 9.30136227e-02 1.04640326e-01 2.55787463e-01 1.62773840e-01 2.20907354e-01 1.27893731e-01 2.20907354e-01 1.62773840e-01 1.62773840e-01 2.20907354e-01 3.02294274e-01 1.97653948e-01 1.74400543e-01 2.20907354e-01 1.86027245e-01 2.44160760e-01 1.62773840e-01 1.74400543e-01 1.97653948e-01 2.09280651e-01 2.09280651e-01 1.74400543e-01 1.62773840e-01 1.27893731e-01 1.86027245e-01 2.79040868e-01 1.97653948e-01 1.62773840e-01 1.86027245e-01 2.32534057e-01 2.09280651e-01 1.74400543e-01 2.09280651e-01 2.20907354e-01 1.97653948e-01 1.97653948e-01 2.44160760e-01 1.39520434e-01 1.51147137e-01 1.74400543e-01 1.27893731e-01 1.51147137e-01 2.55787463e-01 1.62773840e-01 1.74400543e-01 1.51147137e-01 2.20907354e-01 1.86027245e-01 1.74400543e-01 2.20907354e-01 2.20907354e-01 2.20907354e-01 1.97653948e-01 1.86027245e-01 1.97653948e-01 1.74400543e-01 1.16267028e-01 2.20907354e-01 1.62773840e-01 1.62773840e-01 2.79040868e-01 2.09280651e-01 1.62773840e-01 1.51147137e-01 1.62773840e-01 1.51147137e-01 2.44160760e-01 2.09280651e-01 1.62773840e-01 2.09280651e-01 1.97653948e-01 1.62773840e-01 2.09280651e-01 1.74400543e-01 1.74400543e-01 2.09280651e-01 1.86027245e-01 1.62773840e-01 1.86027245e-01 2.32534057e-01 2.20907354e-01 2.67414165e-01 1.97653948e-01 2.67414165e-01 2.09280651e-01 1.51147137e-01 2.67414165e-01 1.39520434e-01 2.67414165e-01 2.67414165e-01 1.62773840e-01 2.20907354e-01 1.51147137e-01 1.39520434e-01 1.97653948e-01 2.55787463e-01 1.97653948e-01 1.27893731e-01 1.74400543e-01 2.44160760e-01 2.20907354e-01 1.97653948e-01 1.86027245e-01 2.09280651e-01 1.74400543e-01 1.51147137e-01 2.20907354e-01 1.62773840e-01 2.09280651e-01 2.20907354e-01 1.74400543e-01 1.62773840e-01 1.16267028e-01 2.20907354e-01 1.97653948e-01 2.09280651e-01 2.09280651e-01 2.44160760e-01 2.20907354e-01 1.97653948e-01 1.74400543e-01 1.74400543e-01 2.44160760e-01 1.74400543e-01 2.32534057e-01 2.55787463e-01 1.51147137e-01 8.13869199e-02 1.97653948e-01 1.97653948e-01 1.51147137e-01 1.51147137e-01 1.62773840e-01 3.48801085e-01 2.44160760e-01 2.55787463e-01 2.67414165e-01 2.20907354e-01 1.16267028e-01 1.86027245e-01 2.90667571e-01 2.09280651e-01 1.97653948e-01 2.32534057e-01 2.90667571e-01 2.09280651e-01 2.79040868e-01 1.39520434e-01 1.51147137e-01 1.74400543e-01 2.32534057e-01 2.44160760e-01 2.09280651e-01 2.55787463e-01 1.62773840e-01 1.97653948e-01 1.51147137e-01 1.97653948e-01 2.09280651e-01 2.20907354e-01 1.86027245e-01 3.13920977e-01 1.74400543e-01 1.27893731e-01 1.97653948e-01 3.02294274e-01 1.74400543e-01 1.51147137e-01 3.37174382e-01 2.09280651e-01 2.90667571e-01 2.09280651e-01 2.20907354e-01 2.32534057e-01 2.67414165e-01 2.44160760e-01 3.13920977e-01 2.32534057e-01 2.44160760e-01 2.67414165e-01 2.44160760e-01 2.20907354e-01 2.20907354e-01 2.20907354e-01 2.09280651e-01 1.62773840e-01 2.20907354e-01 1.74400543e-01 1.74400543e-01 1.27893731e-01 2.44160760e-01 2.67414165e-01 2.79040868e-01 1.62773840e-01 1.39520434e-01 2.44160760e-01 2.67414165e-01 1.62773840e-01 2.90667571e-01 1.74400543e-01 2.55787463e-01 2.20907354e-01 1.97653948e-01 2.32534057e-01 1.86027245e-01 1.86027245e-01 1.51147137e-01 2.55787463e-01 1.86027245e-01 1.27893731e-01 2.20907354e-01 1.62773840e-01 1.97653948e-01 2.79040868e-01 1.74400543e-01 1.62773840e-01 1.27893731e-01 1.86027245e-01 3.60427788e-01 2.44160760e-01 2.67414165e-01 2.79040868e-01 3.02294274e-01 2.90667571e-01 1.97653948e-01 1.51147137e-01 2.32534057e-01 2.20907354e-01 3.48801085e-01 2.44160760e-01 1.86027245e-01 2.32534057e-01 2.09280651e-01 2.79040868e-01 2.44160760e-01 1.97653948e-01 2.55787463e-01 2.67414165e-01 3.13920977e-01 3.02294274e-01 4.18561302e-01 1.51147137e-01 2.55787463e-01 2.32534057e-01 1.86027245e-01 1.97653948e-01 2.55787463e-01 1.97653948e-01 2.79040868e-01 1.97653948e-01 1.74400543e-01 2.32534057e-01 2.09280651e-01 2.44160760e-01 2.55787463e-01 1.97653948e-01 1.97653948e-01 2.55787463e-01 2.20907354e-01 2.55787463e-01 2.67414165e-01 3.37174382e-01 2.09280651e-01 1.51147137e-01 1.62773840e-01 2.67414165e-01 1.74400543e-01 1.86027245e-01 2.32534057e-01 2.20907354e-01 1.86027245e-01 2.44160760e-01 3.02294274e-01 3.13920977e-01 1.86027245e-01 2.32534057e-01 2.20907354e-01 1.97653948e-01 2.55787463e-01 2.44160760e-01 1.27893731e-01 2.55787463e-01 1.62773840e-01 3.37174382e-01 2.44160760e-01 2.67414165e-01 1.62773840e-01 2.44160760e-01 1.27893731e-01 2.67414165e-01 1.97653948e-01 2.90667571e-01 1.74400543e-01 2.32534057e-01 2.79040868e-01 2.20907354e-01 2.55787463e-01 2.55787463e-01 1.97653948e-01 3.25547680e-01 2.20907354e-01 2.20907354e-01 3.02294274e-01 3.48801085e-01 2.20907354e-01 2.55787463e-01 2.44160760e-01 2.90667571e-01 2.79040868e-01 2.90667571e-01 2.32534057e-01 2.20907354e-01 3.02294274e-01 3.60427788e-01 3.13920977e-01 3.02294274e-01 2.32534057e-01 1.97653948e-01 2.09280651e-01 2.20907354e-01 4.30188005e-01 3.72054491e-01 2.32534057e-01 2.44160760e-01 2.90667571e-01 2.20907354e-01 1.74400543e-01 2.55787463e-01 2.67414165e-01 4.06934600e-01 1.16267028e-01 2.67414165e-01 2.32534057e-01 2.09280651e-01 1.97653948e-01 2.44160760e-01 2.09280651e-01 2.20907354e-01 2.55787463e-01 2.20907354e-01 2.44160760e-01 3.13920977e-01 2.32534057e-01 2.09280651e-01 2.55787463e-01 2.67414165e-01 4.06934600e-01 1.86027245e-01 2.32534057e-01 2.90667571e-01 2.67414165e-01 2.90667571e-01 2.44160760e-01 2.44160760e-01 2.44160760e-01 1.74400543e-01 3.25547680e-01 3.37174382e-01 2.09280651e-01 3.60427788e-01 2.32534057e-01 3.13920977e-01 2.55787463e-01 2.09280651e-01 3.48801085e-01 1.86027245e-01 3.48801085e-01 2.09280651e-01 2.79040868e-01 3.83681194e-01 2.44160760e-01 3.02294274e-01 1.97653948e-01 2.90667571e-01 3.25547680e-01 2.90667571e-01 2.55787463e-01 2.09280651e-01 2.44160760e-01 2.55787463e-01 1.97653948e-01 3.60427788e-01 2.55787463e-01 2.79040868e-01 3.13920977e-01 2.67414165e-01 2.90667571e-01 3.25547680e-01 3.25547680e-01 1.62773840e-01 2.79040868e-01 2.44160760e-01 2.55787463e-01 2.55787463e-01 2.79040868e-01 2.20907354e-01 2.55787463e-01 3.13920977e-01 3.02294274e-01 1.74400543e-01 2.09280651e-01 2.67414165e-01 3.25547680e-01 3.72054491e-01 3.13920977e-01 2.79040868e-01 2.90667571e-01 2.67414165e-01 1.97653948e-01 3.60427788e-01 3.72054491e-01 4.06934600e-01 3.37174382e-01 1.97653948e-01 3.25547680e-01 2.44160760e-01 2.44160760e-01 2.67414165e-01 2.32534057e-01 2.90667571e-01 3.25547680e-01 3.02294274e-01 3.48801085e-01 3.25547680e-01 3.83681194e-01 4.30188005e-01 2.90667571e-01 2.55787463e-01 2.55787463e-01 1.97653948e-01 3.48801085e-01 2.20907354e-01 2.79040868e-01 2.67414165e-01 3.13920977e-01 2.09280651e-01 3.48801085e-01 2.55787463e-01 2.79040868e-01 2.55787463e-01 2.32534057e-01 2.67414165e-01 2.55787463e-01 3.60427788e-01 3.48801085e-01 2.67414165e-01 3.13920977e-01 4.18561302e-01 4.06934600e-01 3.13920977e-01 3.25547680e-01 2.90667571e-01 3.48801085e-01 3.13920977e-01 3.02294274e-01 2.79040868e-01 2.67414165e-01 1.74400543e-01 3.25547680e-01 4.53441411e-01 2.67414165e-01 3.13920977e-01 2.32534057e-01 3.25547680e-01 4.30188005e-01 4.53441411e-01 2.44160760e-01 2.44160760e-01 2.79040868e-01 2.67414165e-01 3.48801085e-01 3.13920977e-01 3.83681194e-01 3.48801085e-01 3.37174382e-01 3.02294274e-01 3.37174382e-01 3.02294274e-01 3.48801085e-01 3.48801085e-01 2.55787463e-01 3.37174382e-01 3.25547680e-01 4.18561302e-01 4.30188005e-01 3.48801085e-01 2.90667571e-01 3.72054491e-01 4.18561302e-01 3.72054491e-01 2.90667571e-01 3.72054491e-01 3.95307897e-01 2.20907354e-01 2.79040868e-01 3.83681194e-01 3.02294274e-01 2.67414165e-01 2.55787463e-01 3.95307897e-01 4.18561302e-01 3.83681194e-01 3.60427788e-01 3.72054491e-01 3.37174382e-01 3.95307897e-01 3.02294274e-01 3.72054491e-01 3.37174382e-01 2.90667571e-01 3.13920977e-01 3.02294274e-01 4.53441411e-01 3.72054491e-01 3.25547680e-01 4.18561302e-01 3.13920977e-01 3.48801085e-01 4.06934600e-01 3.83681194e-01 3.25547680e-01 2.67414165e-01 4.99948222e-01 4.76694817e-01 3.02294274e-01 3.60427788e-01 2.67414165e-01 3.48801085e-01 3.72054491e-01 3.72054491e-01 4.30188005e-01 2.90667571e-01 4.88321519e-01 3.60427788e-01 2.79040868e-01 1.97653948e-01 3.02294274e-01 3.48801085e-01 2.79040868e-01 3.72054491e-01 2.79040868e-01 4.18561302e-01 3.72054491e-01 4.30188005e-01 2.79040868e-01 2.79040868e-01 3.60427788e-01 4.30188005e-01 4.18561302e-01 5.46455034e-01 2.44160760e-01 3.13920977e-01 3.48801085e-01 3.25547680e-01 3.02294274e-01 2.79040868e-01 3.60427788e-01 3.60427788e-01 3.37174382e-01 4.30188005e-01 4.41814708e-01 4.06934600e-01 3.72054491e-01 4.06934600e-01 4.41814708e-01 3.60427788e-01 3.37174382e-01 4.88321519e-01 3.37174382e-01 4.53441411e-01 5.23201628e-01 3.25547680e-01 3.83681194e-01 4.41814708e-01 3.13920977e-01 4.41814708e-01 4.18561302e-01 4.88321519e-01 3.02294274e-01 3.83681194e-01 4.18561302e-01 3.02294274e-01 3.72054491e-01 4.53441411e-01 3.02294274e-01 4.06934600e-01 4.30188005e-01 4.18561302e-01 3.72054491e-01 4.06934600e-01 4.65068114e-01 2.90667571e-01 3.48801085e-01 3.83681194e-01 3.25547680e-01 4.99948222e-01 4.06934600e-01 4.06934600e-01 4.30188005e-01 3.60427788e-01 4.53441411e-01 4.76694817e-01 4.41814708e-01 5.23201628e-01 3.95307897e-01 5.11574925e-01 4.65068114e-01 4.76694817e-01 3.95307897e-01 3.83681194e-01 5.46455034e-01 3.37174382e-01 4.06934600e-01 4.99948222e-01 3.37174382e-01 4.53441411e-01 4.88321519e-01 4.30188005e-01 4.99948222e-01 4.18561302e-01 3.13920977e-01 3.13920977e-01 4.76694817e-01 4.41814708e-01 4.99948222e-01 5.46455034e-01 4.65068114e-01 5.11574925e-01 4.99948222e-01 3.95307897e-01 4.30188005e-01 3.83681194e-01 5.58081736e-01 4.76694817e-01 5.34828331e-01 4.18561302e-01 4.88321519e-01 5.11574925e-01 3.83681194e-01 4.65068114e-01 5.58081736e-01 4.99948222e-01 4.41814708e-01 5.81335142e-01 3.72054491e-01 4.53441411e-01 3.48801085e-01 4.30188005e-01 3.83681194e-01 3.72054491e-01 4.99948222e-01 3.25547680e-01 4.18561302e-01 4.41814708e-01 4.30188005e-01 2.90667571e-01 3.25547680e-01 4.41814708e-01 4.41814708e-01 4.65068114e-01 3.25547680e-01 4.88321519e-01 5.81335142e-01 3.95307897e-01 5.46455034e-01 3.95307897e-01 4.41814708e-01 5.34828331e-01 4.88321519e-01 4.99948222e-01 4.88321519e-01 4.88321519e-01 4.53441411e-01 5.58081736e-01 4.76694817e-01 4.06934600e-01 4.53441411e-01 4.41814708e-01 4.99948222e-01 5.34828331e-01 5.46455034e-01 5.11574925e-01 3.95307897e-01 4.41814708e-01 5.46455034e-01 4.30188005e-01 4.76694817e-01 5.46455034e-01 4.53441411e-01 4.06934600e-01 6.51095359e-01 5.34828331e-01 4.53441411e-01 5.23201628e-01 7.44108982e-01 4.18561302e-01 5.11574925e-01 4.99948222e-01 3.25547680e-01 5.46455034e-01 4.30188005e-01 5.46455034e-01 4.88321519e-01 5.11574925e-01 4.99948222e-01 4.76694817e-01 5.58081736e-01 4.53441411e-01 5.23201628e-01 3.72054491e-01 5.58081736e-01 5.11574925e-01 6.04588548e-01 4.76694817e-01 4.88321519e-01 5.46455034e-01 4.41814708e-01 4.99948222e-01 5.11574925e-01 3.95307897e-01 5.23201628e-01 6.39468656e-01 5.92961845e-01 6.04588548e-01 4.88321519e-01 5.81335142e-01 5.69708439e-01 5.69708439e-01 6.97602171e-01 4.76694817e-01 5.58081736e-01 5.11574925e-01 5.92961845e-01 4.06934600e-01 4.65068114e-01 5.23201628e-01 4.76694817e-01 4.76694817e-01 5.58081736e-01 5.11574925e-01 6.16215251e-01 5.23201628e-01 6.39468656e-01 5.46455034e-01 5.34828331e-01 4.41814708e-01 5.81335142e-01 5.34828331e-01 4.76694817e-01 8.25495902e-01 5.92961845e-01 5.69708439e-01 6.04588548e-01 6.51095359e-01 5.92961845e-01 5.46455034e-01 5.34828331e-01 4.88321519e-01 4.18561302e-01 5.23201628e-01 6.62722062e-01 6.51095359e-01 6.04588548e-01 5.92961845e-01 7.78989091e-01 6.16215251e-01 6.97602171e-01 6.85975468e-01 6.27841954e-01 6.04588548e-01 5.23201628e-01 6.97602171e-01 5.11574925e-01 5.92961845e-01 6.85975468e-01 6.51095359e-01 5.58081736e-01 7.32482279e-01 6.97602171e-01 6.27841954e-01 7.90615793e-01 5.46455034e-01 7.32482279e-01 6.74348765e-01 7.20855576e-01 5.81335142e-01 6.27841954e-01 5.81335142e-01 6.97602171e-01 7.55735685e-01 6.39468656e-01 4.76694817e-01 8.02242496e-01 6.85975468e-01 4.99948222e-01 7.09228873e-01 6.39468656e-01 6.62722062e-01 7.09228873e-01 6.16215251e-01 6.16215251e-01 6.51095359e-01 6.27841954e-01 8.37122605e-01 8.13869199e-01 7.09228873e-01 7.44108982e-01 4.41814708e-01 6.04588548e-01 7.09228873e-01 6.74348765e-01 8.95256119e-01 8.13869199e-01 6.74348765e-01 7.09228873e-01 7.44108982e-01 6.62722062e-01 6.39468656e-01 7.09228873e-01 8.25495902e-01 8.95256119e-01 5.34828331e-01 6.16215251e-01 7.09228873e-01 7.32482279e-01 7.32482279e-01 6.62722062e-01 7.09228873e-01 6.74348765e-01 7.44108982e-01 7.78989091e-01 9.88269742e-01 7.55735685e-01 8.95256119e-01 8.60376010e-01 8.95256119e-01 8.25495902e-01 6.39468656e-01 8.72002713e-01 6.62722062e-01 8.37122605e-01 7.67362388e-01 8.13869199e-01 8.25495902e-01 7.67362388e-01 6.16215251e-01 8.48749308e-01 8.13869199e-01 7.32482279e-01 8.37122605e-01 5.81335142e-01 7.09228873e-01 7.78989091e-01 8.13869199e-01 5.92961845e-01 9.06882822e-01 5.92961845e-01 6.04588548e-01 8.13869199e-01 8.37122605e-01 9.88269742e-01 8.13869199e-01 7.09228873e-01 7.55735685e-01 1.11616347e+00 8.25495902e-01 7.55735685e-01 8.02242496e-01 8.60376010e-01 7.09228873e-01 9.18509525e-01 7.90615793e-01 6.27841954e-01 6.74348765e-01 9.18509525e-01 7.90615793e-01 8.95256119e-01 7.90615793e-01 9.06882822e-01 8.60376010e-01 8.25495902e-01 7.67362388e-01 8.48749308e-01 8.83629416e-01 8.13869199e-01 8.95256119e-01 6.04588548e-01 8.37122605e-01 9.76643039e-01 9.65016336e-01 7.67362388e-01 8.95256119e-01 8.37122605e-01 1.01152315e+00 7.78989091e-01 8.83629416e-01 9.18509525e-01 1.17429699e+00 8.48749308e-01 7.20855576e-01 9.53389633e-01 8.83629416e-01 8.13869199e-01 8.13869199e-01 9.76643039e-01 8.83629416e-01 9.88269742e-01 1.01152315e+00 9.30136227e-01 9.53389633e-01 1.08128336e+00 1.03477655e+00 9.53389633e-01 1.09291007e+00 9.99896445e-01 1.05802996e+00 9.41762930e-01 9.99896445e-01 1.20917710e+00 1.04640326e+00 6.74348765e-01 9.99896445e-01 1.05802996e+00 1.11616347e+00 1.06965666e+00 9.41762930e-01 1.12779018e+00 8.25495902e-01 9.65016336e-01 8.72002713e-01 1.09291007e+00 9.99896445e-01 1.17429699e+00 9.76643039e-01 8.37122605e-01 1.02314985e+00 9.53389633e-01 1.10453677e+00 1.04640326e+00 9.06882822e-01 1.20917710e+00 1.03477655e+00 1.10453677e+00 1.01152315e+00 1.03477655e+00 9.88269742e-01 1.04640326e+00 1.22080380e+00 1.08128336e+00 1.10453677e+00 9.76643039e-01 1.05802996e+00 1.04640326e+00 1.15104358e+00 1.02314985e+00 1.06965666e+00 9.18509525e-01 1.25568391e+00 1.09291007e+00 1.17429699e+00 1.23243050e+00 1.25568391e+00 1.19755039e+00 1.30219072e+00 1.27893731e+00 1.03477655e+00 1.12779018e+00 1.22080380e+00 1.02314985e+00 1.01152315e+00 1.13941688e+00 1.25568391e+00 1.20917710e+00 1.25568391e+00 1.41845775e+00 1.25568391e+00 1.16267028e+00 1.22080380e+00 1.25568391e+00 1.29056402e+00 1.22080380e+00 1.33707083e+00 1.27893731e+00 1.17429699e+00 1.22080380e+00 1.10453677e+00 1.19755039e+00 1.10453677e+00 1.33707083e+00 1.52309807e+00 1.36032423e+00 1.37195094e+00 1.53472478e+00 1.19755039e+00 1.25568391e+00 1.10453677e+00 1.30219072e+00 1.41845775e+00 1.19755039e+00 1.29056402e+00 1.44171115e+00 1.45333786e+00 1.24405720e+00 1.48821796e+00 1.32544412e+00 1.52309807e+00 1.36032423e+00 1.51147137e+00 1.47659126e+00 1.33707083e+00 1.60448499e+00 1.17429699e+00 1.67424521e+00 1.36032423e+00 1.43008445e+00 1.36032423e+00 1.56960488e+00 1.45333786e+00 1.46496456e+00 1.48821796e+00 1.37195094e+00 1.40683104e+00 1.66261851e+00 1.58123159e+00 1.72075202e+00 1.81376564e+00 1.41845775e+00 1.58123159e+00 1.62773840e+00 1.38357764e+00 1.63936510e+00 1.34869753e+00 1.51147137e+00 1.56960488e+00 1.65099180e+00 1.37195094e+00 1.52309807e+00 1.53472478e+00 1.66261851e+00 1.31381742e+00 1.62773840e+00 1.56960488e+00 1.63936510e+00 1.45333786e+00 1.58123159e+00 1.67424521e+00 1.66261851e+00 1.60448499e+00 1.56960488e+00 1.98816619e+00 1.82539235e+00 1.89515256e+00 1.52309807e+00 1.76725883e+00 2.03467300e+00 1.79051224e+00 1.94165937e+00 1.54635148e+00 1.93003267e+00 1.67424521e+00 1.86027245e+00 1.63936510e+00 1.93003267e+00 1.69749862e+00 1.93003267e+00 1.97653948e+00 2.02304629e+00 2.11605992e+00 1.89515256e+00 1.95328608e+00 2.10443321e+00 2.04629970e+00 2.22070024e+00 1.88352586e+00 2.08117981e+00 1.81376564e+00 1.97653948e+00 1.98816619e+00 1.82539235e+00 1.90677927e+00 2.16256673e+00 2.22070024e+00 2.16256673e+00 2.22070024e+00 1.75563213e+00 2.29046046e+00 1.87189916e+00 2.19744684e+00 2.17419343e+00 2.08117981e+00 2.39510079e+00 2.31371387e+00 2.18582013e+00 2.11605992e+00 2.33696727e+00 2.03467300e+00 2.12768662e+00 2.06955311e+00 2.25558035e+00 2.24395365e+00 2.36022068e+00 2.37184738e+00 2.41835419e+00 2.69739506e+00 2.45323430e+00 2.34859397e+00 2.54624792e+00 2.27883376e+00 2.41835419e+00 2.61600814e+00 2.52299452e+00 2.63926155e+00 2.39510079e+00 2.56950133e+00 2.49974111e+00 2.54624792e+00 2.54624792e+00 2.73227517e+00 2.72064847e+00 2.45323430e+00 2.44160760e+00 2.41835419e+00 2.61600814e+00 2.83691549e+00 2.63926155e+00 2.86016890e+00 2.81366209e+00 2.96480923e+00 2.97643593e+00 2.75552857e+00 2.79040868e+00 2.98806263e+00 2.84854220e+00 3.18571658e+00 2.77878198e+00 2.97643593e+00 3.29035690e+00 3.02294274e+00 2.88342231e+00 3.09270296e+00 2.95318252e+00 3.41825064e+00 3.12758306e+00 3.32523701e+00 3.42987734e+00 3.18571658e+00 3.56939777e+00 3.40662393e+00 3.54614437e+00 3.58102448e+00 3.38337053e+00 3.26710350e+00 3.62753129e+00 3.81355853e+00 3.42987734e+00 3.66241140e+00 3.92982556e+00 3.94145226e+00 3.19734328e+00 3.66241140e+00 3.60427788e+00 3.65078469e+00 4.41814708e+00 3.79030513e+00 3.99958578e+00 3.90657216e+00 3.95307897e+00 4.09259940e+00 4.29025335e+00 4.19723973e+00 3.94145226e+00 4.51116070e+00 4.47628059e+00 4.31350676e+00 4.59254762e+00 4.05771929e+00 4.47628059e+00 4.47628059e+00 4.77857487e+00 4.72044135e+00 5.26689639e+00 4.75532146e+00 4.72044135e+00 4.84833509e+00 4.76694817e+00 5.01110893e+00 5.26689639e+00 4.79020157e+00 5.58081736e+00 5.38316342e+00 5.37153671e+00 5.23201628e+00 5.26689639e+00 5.58081736e+00 5.29014979e+00 5.25526969e+00 5.68545769e+00 5.72033780e+00 5.81335142e+00 5.72033780e+00 5.62732418e+00 5.87148494e+00 6.01100537e+00 6.05751218e+00 5.85985823e+00 5.44129693e+00 6.29004624e+00 5.75521791e+00 5.90636504e+00 6.59234051e+00 6.55746040e+00 6.99927511e+00 6.75511435e+00 6.82487457e+00 6.61559392e+00 6.54583370e+00 7.23180917e+00 7.22018247e+00 7.10391544e+00 7.16204895e+00 7.48759663e+00 7.40620971e+00 7.82477101e+00 7.42946312e+00 7.63874377e+00 7.88290453e+00 7.99917156e+00 8.87117427e+00 8.45261297e+00 8.68514702e+00 7.87127783e+00 8.72002713e+00 8.65026692e+00 9.28973557e+00 8.55725329e+00 8.74328054e+00 9.15021514e+00 9.52226963e+00 9.31298898e+00 1.01152315e+01 9.30136227e+00 8.68514702e+00 9.96408434e+00 1.01152315e+01 1.04175257e+01 1.03593922e+01 1.02547519e+01 1.10453677e+01 1.01617383e+01 1.07081933e+01 1.08477138e+01 1.01733650e+01 1.09872342e+01 1.11965148e+01 1.13476620e+01 1.06849399e+01 1.22894249e+01 1.16964631e+01 1.23010516e+01 1.22080380e+01 1.22312914e+01 1.31730543e+01 1.30451606e+01 1.34288418e+01 1.37660162e+01 1.32311878e+01 1.37543895e+01 1.41031905e+01 1.52426074e+01 1.47542859e+01 1.45915121e+01 1.46380189e+01 1.46845257e+01 1.60215965e+01 1.55449017e+01 1.54751415e+01 1.60448499e+01 1.46728990e+01 1.52426074e+01 1.71726401e+01 1.70331197e+01 1.55332750e+01 1.76842150e+01 1.71610134e+01 1.75912014e+01 1.63238908e+01 1.63238908e+01 1.87654984e+01 1.75330679e+01 1.83236837e+01 1.75563213e+01 1.84515774e+01 1.71261333e+01 1.83353104e+01 1.82888036e+01 1.70331197e+01 1.64750379e+01 1.44519916e+01 1.37776429e+01 1.54751415e+01 1.17662233e+01 9.40600260e+00 7.13879555e+00 5.76684461e+00 6.70860754e+00 3.68566480e+00 1.96491278e+00 6.39468656e-01 6.74348765e-01 4.41814708e-01 3.37174382e-01 3.48801085e-01 2.20907354e-01 1.39520434e-01 1.51147137e-01 1.86027245e-01 1.27893731e-01 6.97602171e-02 6.97602171e-02 3.48801085e-02 2.32534057e-02 4.65068114e-02 2.32534057e-02 0.00000000e+00 2.32534057e-02 
      </Histogram>
    </PDF>
    <PDF Name="BDTG_PDFBkg" MinNSmooth="0" MaxNSmooth="0" InterpolMethod="2" KDE_type="1" KDE_iter="1" KDE_border="1" KDE_finefactor="1.0000000000000000e+00">
      <Histogram Name="BDT_tr_B_original" NBins="5043" XMin="-9.9739664793014526e-01" XMax="9.9506479501724243e-01" HasEquidistantBins="1">
