{"max_depth": 3, "n_trees": 60, "n_classes": 2, "n_features": 7, "trees": [[{"feature": [5, 2, 5, 5, 4, 4, 4, -2, -2, -2, -2, -2, -2, -2, -2], "threshold": [9.5, 4.5, 12.5, 8.5, 1.5, 1.5, 0.5, 0, 0, 0, 0, 0, 0, 0, 0], "children_left": [1, 3, 5, 7, 9, 11, 13, -1, -1, -1, -1, -1, -1, -1, -1], "children_right": [2, 4, 6, 8, 10, 12, 14, -1, -1, -1, -1, -1, -1, -1, -1], "value": [0, 0, 0, 0, 0, 0, 0, 0.569735169, 0.346000016, 0.372727275, -0.223880604, 0.0720000044, -0.285517246, -0.191460684, -0.432699054], "parent": [-1, 0, 0, 1, 1, 2, 2, 3, 3, 4, 4, 5, 5, 6, 6], "depth": [0, 1, 1, 2, 2, 2, 2, 3, 3, 3, 3, 3, 3, 3, 3], "iLeaf": [7, 8, 9, 10, 11, 12, 13, 14]}], [{"feature": [5, 5, 5, 4, 4, 6, 0, -2, -2, -2, -2, -2, -2, -2, -2], "threshold": [10.5, 8.5, 14.5, 1.5, 1.5, 9.5, -1.67611718, 0, 0, 0, 0, 0, 0, 0, 0], "children_left": [1, 3, 5, 7, 9, 11, 13, -1, -1, -1, -1, -1, -1, -1, -1], "children_right": [2, 4, 6, 8, 10, 12, 14, -1, -1, -1, -1, -1, -1, -1, -1], "value": [0, 0, 0, 0, 0, 0, 0, 0.44537726, 0.295746773, 0.26891467, -0.0776110068, -0.0908334777, -0.357546777, -0.173003554, -0.361991435], "parent": [-1, 0, 0, 1, 1, 2, 2, 3, 3, 4, 4, 5, 5, 6, 6], "depth": [0, 1, 1, 2, 2, 2, 2, 3, 3, 3, 3, 3, 3, 3, 3], "iLeaf": [7, 8, 9, 10, 11, 12, 13, 14]}], [{"feature": [5, 2, 4, 4, 6, 6, 5, -2, -2, -2, -2, -2, -2, -2, -2], "threshold": [9.5, 4.5, 0.5, 1.5, 3.5, 8.5, 13.5, 0, 0, 0, 0, 0, 0, 0, 0], "children_left": [1, 3, 5, 7, 9, 11, 13, -1, -1, -1, -1, -1, -1, -1, -1], "children_right": [2, 4, 6, 8, 10, 12, 14, -1, -1, -1, -1, -1, -1, -1, -1], "value": [0, 0, 0, 0, 0, 0, 0, 0.377441198, 0.231379673, 0.240393177, -0.227549344, 0.11916139, -0.233897597, -0.126222238, -0.275772661], "parent": [-1, 0, 0, 1, 1, 2, 2, 3, 3, 4, 4, 5, 5, 6, 6], "depth": [0, 1, 1, 2, 2, 2, 2, 3, 3, 3, 3, 3, 3, 3, 3], "iLeaf": [7, 8, 9, 10, 11, 12, 13, 14]}], [{"feature": [5, 6, 5, 4, 0, 2, 2, -2, -2, -2, -2, -2, -2, -2, -2], "threshold": [8.5, 11.5, 13.5, 1.5, 1.00649357, 3.5, 4.5, 0, 0, 0, 0, 0, 0, 0, 0], "children_left": [1, 3, 5, 7, 9, 11, 13, -1, -1, -1, -1, -1, -1, -1, -1], "children_right": [2, 4, 6, 8, 10, 12, 14, -1, -1, -1, -1, -1, -1, -1, -1], "value": [0, 0, 0, 0, 0, 0, 0, 0.344449013, 0.195207119, -0.275394261, 0.233630762, 0.0688160211, -0.186005712, -0.159853011, -0.330066204], "parent": [-1, 0, 0, 1, 1, 2, 2, 3, 3, 4, 4, 5, 5, 6, 6], "depth": [0, 1, 1, 2, 2, 2, 2, 3, 3, 3, 3, 3, 3, 3, 3], "iLeaf": [7, 8, 9, 10, 11, 12, 13, 14]}], [{"feature": [5, 2, 4, 6, 4, 6, 2, -2, -2, -2, -2, -2, -2, -2, -2], "threshold": [8.5, 4.5, 0.5, 11.5, 0.5, 4.5, 3.5, 0, 0, 0, 0, 0, 0, 0, 0], "children_left": [1, 3, 5, 7, 9, 11, 13, -1, -1, -1, -1, -1, -1, -1, -1], "children_right": [2, 4, 6, 8, 10, 12, 14, -1, -1, -1, -1, -1, -1, -1, -1], "value": [0, 0, 0, 0, 0, 0, 0, 0.304263324, -0.114193492, 0.254318982, -0.129828393, 0.174121857, -0.0997295752, -0.0943170115, -0.238305658], "parent": [-1, 0, 0, 1, 1, 2, 2, 3, 3, 4, 4, 5, 5, 6, 6], "depth": [0, 1, 1, 2, 2, 2, 2, 3, 3, 3, 3, 3, 3, 3, 3], "iLeaf": [7, 8, 9, 10, 11, 12, 13, 14]}], [{"feature": [5, 4, 5, 6, 5, 4, 0, -2, -2, -2, -2, -2, -2, -2, -2], "threshold": [10.5, 0.5, 14.5, 9.5, 3.5, 1.5, -1.67611718, 0, 0, 0, 0, 0, 0, 0, 0], "children_left": [1, 3, 5, 7, 9, 11, 13, -1, -1, -1, -1, -1, -1, -1, -1], "children_right": [2, 4, 6, 8, 10, 12, 14, -1, -1, -1, -1, -1, -1, -1, -1], "value": [0, 0, 0, 0, 0, 0, 0, 0.314020067, -0.0352478288, 0.235430822, 0.0235035233, 0.00859131105, -0.16387336, 0.0118241077, -0.194260553], "parent": [-1, 0, 0, 1, 1, 2, 2, 3, 3, 4, 4, 5, 5, 6, 6], "depth": [0, 1, 1, 2, 2, 2, 2, 3, 3, 3, 3, 3, 3, 3, 3], "iLeaf": [7, 8, 9, 10, 11, 12, 13, 14]}], [{"feature": [5, 4, 6, 6, 5, 5, 2, -2, -2, -2, -2, -2, -2, -2, -2], "threshold": [7.5, 1.5, 13.5, 9.5, 1.5, 14.5, 0.5, 0, 0, 0, 0, 0, 0, 0, 0], "children_left": [1, 3, 5, 7, 9, 11, 13, -1, -1, -1, -1, -1, -1, -1, -1], "children_right": [2, 4, 6, 8, 10, 12, 14, -1, -1, -1, -1, -1, -1, -1, -1], "value": [0, 0, 0, 0, 0, 0, 0, 0.281345397, -0.0302054193, 0.184357911, -0.0624720939, 0.0234743189, -0.137734309, 0.0155999148, -0.307757735], "parent": [-1, 0, 0, 1, 1, 2, 2, 3, 3, 4, 4, 5, 5, 6, 6], "depth": [0, 1, 1, 2, 2, 2, 2, 3, 3, 3, 3, 3, 3, 3, 3], "iLeaf": [7, 8, 9, 10, 11, 12, 13, 14]}], [{"feature": [5, 4, 3, 6, 2, 2, 6, -2, -2, -2, -2, -2, -2, -2, -2], "threshold": [6.5, 0.5, 4.5, 9.5, 3.5, 4.5, 6.5, 0, 0, 0, 0, 0, 0, 0, 0], "children_left": [1, 3, 5, 7, 9, 11, 13, -1, -1, -1, -1, -1, -1, -1, -1], "children_right": [2, 4, 6, 8, 10, 12, 14, -1, -1, -1, -1, -1, -1, -1, -1], "value": [0, 0, 0, 0, 0, 0, 0, 0.297965169, 0.0226501301, 0.17479834, -0.129837587, -0.00838830415, -0.176705763, 0.354871064, 0.168260142], "parent": [-1, 0, 0, 1, 1, 2, 2, 3, 3, 4, 4, 5, 5, 6, 6], "depth": [0, 1, 1, 2, 2, 2, 2, 3, 3, 3, 3, 3, 3, 3, 3], "iLeaf": [7, 8, 9, 10, 11, 12, 13, 14]}], [{"feature": [5, 4, 4, 6, 4, 6, 2, -2, -2, -2, -2, -2, -2, -2, -2], "threshold": [5.5, 1.5, 0.5, 9.5, 2.5, 6.5, 2.5, 0, 0, 0, 0, 0, 0, 0, 0], "children_left": [1, 3, 5, 7, 9, 11, 13, -1, -1, -1, -1, -1, -1, -1, -1], "children_right": [2, 4, 6, 8, 10, 12, 14, -1, -1, -1, -1, -1, -1, -1, -1], "value": [0, 0, 0, 0, 0, 0, 0, 0.256370872, -0.0087354118, 0.0856639594, -0.263054967, 0.126283452, -0.069016993, -0.0225399081, -0.129463822], "parent": [-1, 0, 0, 1, 1, 2, 2, 3, 3, 4, 4, 5, 5, 6, 6], "depth": [0, 1, 1, 2, 2, 2, 2, 3, 3, 3, 3, 3, 3, 3, 3], "iLeaf": [7, 8, 9, 10, 11, 12, 13, 14]}], [{"feature": [5, 4, 0, 6, 3, 0, 1, -2, -2, -2, -2, -2, -2, -2, -2], "threshold": [10.5, 0.5, 1.78323174, 6.5, 4.5, -1.74487138, -0.338368177, 0, 0, 0, 0, 0, 0, 0, 0], "children_left": [1, 3, 5, 7, 9, 11, 13, -1, -1, -1, -1, -1, -1, -1, -1], "children_right": [2, 4, 6, 8, 10, 12, 14, -1, -1, -1, -1, -1, -1, -1, -1], "value": [0, 0, 0, 0, 0, 0, 0, 0.259301335, 0.0214969199, 0.0212137103, 0.301541626, 0.143713281, -0.0664696246, -0.241647944, 0.298916727], "parent": [-1, 0, 0, 1, 1, 2, 2, 3, 3, 4, 4, 5, 5, 6, 6], "depth": [0, 1, 1, 2, 2, 2, 2, 3, 3, 3, 3, 3, 3, 3, 3], "iLeaf": [7, 8, 9, 10, 11, 12, 13, 14]}], [{"feature": [3, 5, 5, 2, 2, -2, 6, -2, -2, -2, -2, -2, -2, -2, -2], "threshold": [4.5, 3.5, 13.5, 2.5, 1.5, 0, 1.5, 0, 0, 0, 0, 0, 0, -2.0, -2.0], "children_left": [1, 3, 5, 7, 9, 13, 11, -1, -1, -1, -1, -1, -1, -1, -1], "children_right": [2, 4, 6, 8, 10, 14, 12, -1, -1, -1, -1, -1, -1, -1, -1], "value": [0, 0, 0, 0, 0, 0.304454476, 0, 0.176985651, -0.0232225824, 0.0293723438, -0.0752227977, 0.16986309, -0.0609804094, 0.304454476, 0.304454476], "parent": [-1, 0, 0, 1, 1, 2, 2, 3, 3, 4, 4, 6, 6, 5, 5], "depth": [0, 1, 1, 2, 2, 2, 2, 3, 3, 3, 3, 3, 3, 3, 3], "iLeaf": [7, 8, 9, 10, 11, 12, 13, 14]}], [{"feature": [3, 1, 5, 5, 0, -2, 6, -2, -2, -2, -2, -2, -2, -2, -2], "threshold": [4.5, 0.447990388, 13.5, 12.5, -0.673618078, 0, 1.5, 0, 0, 0, 0, 0, 0, -2.0, -2.0], "children_left": [1, 3, 5, 7, 9, 13, 11, -1, -1, -1, -1, -1, -1, -1, -1], "children_right": [2, 4, 6, 8, 10, 14, 12, -1, -1, -1, -1, -1, -1, -1, -1], "value": [0, 0, 0, 0, 0, 0.29399702, 0, 0.0674701333, -0.0417686068, -0.368799567, -0.1434488, 0.144862607, -0.0507081561, 0.29399702, 0.29399702], "parent": [-1, 0, 0, 1, 1, 2, 2, 3, 3, 4, 4, 6, 6, 5, 5], "depth": [0, 1, 1, 2, 2, 2, 2, 3, 3, 3, 3, 3, 3, 3, 3], "iLeaf": [7, 8, 9, 10, 11, 12, 13, 14]}], [{"feature": [3, 4, 5, 0, 6, -2, 6, -2, -2, -2, -2, -2, -2, -2, -2], "threshold": [4.5, 1.5, 13.5, -1.79288733, 2.5, 0, 1.5, 0, 0, 0, 0, 0, 0, -2.0, -2.0], "children_left": [1, 3, 5, 7, 9, 13, 11, -1, -1, -1, -1, -1, -1, -1, -1], "children_right": [2, 4, 6, 8, 10, 14, 12, -1, -1, -1, -1, -1, -1, -1, -1], "value": [0, 0, 0, 0, 0, 0.282798856, 0, 0.259406388, 0.0287507623, -0.00274735689, -0.12918815, 0.124189951, -0.0421721376, 0.282798856, 0.282798856], "parent": [-1, 0, 0, 1, 1, 2, 2, 3, 3, 4, 4, 6, 6, 5, 5], "depth": [0, 1, 1, 2, 2, 2, 2, 3, 3, 3, 3, 3, 3, 3, 3], "iLeaf": [7, 8, 9, 10, 11, 12, 13, 14]}], [{"feature": [5, 4, 6, 6, 1, 4, 2, -2, -2, -2, -2, -2, -2, -2, -2], "threshold": [3.5, 0.5, 13.5, 9.5, -0.383889198, 2.5, 1.5, 0, 0, 0, 0, 0, 0, 0, 0], "children_left": [1, 3, 5, 7, 9, 11, 13, -1, -1, -1, -1, -1, -1, -1, -1], "children_right": [2, 4, 6, 8, 10, 12, 14, -1, -1, -1, -1, -1, -1, -1, -1], "value": [0, 0, 0, 0, 0, 0, 0, 0.245455533, -0.0633364245, -0.411560953, 0.0675109699, 0.00969387405, -0.263343662, -0.0278027672, -0.230446801], "parent": [-1, 0, 0, 1, 1, 2, 2, 3, 3, 4, 4, 5, 5, 6, 6], "depth": [0, 1, 1, 2, 2, 2, 2, 3, 3, 3, 3, 3, 3, 3, 3], "iLeaf": [7, 8, 9, 10, 11, 12, 13, 14]}], [{"feature": [3, 6, 5, 4, 2, 6, 6, -2, -2, -2, -2, -2, -2, -2, -2], "threshold": [4.5, 4.5, 13.5, 0.5, 4.5, 0.5, 1.5, 0, 0, 0, 0, 0, 0, 0, 0], "children_left": [1, 3, 5, 7, 9, 11, 13, -1, -1, -1, -1, -1, -1, -1, -1], "children_right": [2, 4, 6, 8, 10, 12, 14, -1, -1, -1, -1, -1, -1, -1, -1], "value": [0, 0, 0, 0, 0, 0, 0, 0.106846794, -0.00797925889, -0.025296336, -0.196729258, 0.166653767, 0.281109601, 0.105510212, -0.0358988605], "parent": [-1, 0, 0, 1, 1, 2, 2, 3, 3, 4, 4, 5, 5, 6, 6], "depth": [0, 1, 1, 2, 2, 2, 2, 3, 3, 3, 3, 3, 3, 3, 3], "iLeaf": [7, 8, 9, 10, 11, 12, 13, 14]}], [{"feature": [0, 0, 1, 5, 4, 0, 5, -2, -2, -2, -2, -2, -2, -2, -2], "threshold": [1.77991533, 1.13382971, -0.338473171, 11.5, 0.5, 2.134027, 14.5, 0, 0, 0, 0, 0, 0, 0, 0], "children_left": [1, 3, 5, 7, 9, 11, 13, -1, -1, -1, -1, -1, -1, -1, -1], "children_right": [2, 4, 6, 8, 10, 12, 14, -1, -1, -1, -1, -1, -1, -1, -1], "value": [0, 0, 0, 0, 0, 0, 0, 0.0763296038, -0.0355653353, 0.100019544, -0.21124123, -0.248517781, 0.129009604, 0.281843722, -0.19797647], "parent": [-1, 0, 0, 1, 1, 2, 2, 3, 3, 4, 4, 5, 5, 6, 6], "depth": [0, 1, 1, 2, 2, 2, 2, 3, 3, 3, 3, 3, 3, 3, 3], "iLeaf": [7, 8, 9, 10, 11, 12, 13, 14]}], [{"feature": [3, 1, 5, 1, 0, -2, 6, -2, -2, -2, -2, -2, -2, -2, -2], "threshold": [4.5, 0.35641107, 5.5, -0.321041793, -1.412884, 0, 0.5, 0, 0, 0, 0, 0, 0, -2.0, -2.0], "children_left": [1, 3, 5, 7, 9, 13, 11, -1, -1, -1, -1, -1, -1, -1, -1], "children_right": [2, 4, 6, 8, 10, 14, 12, -1, -1, -1, -1, -1, -1, -1, -1], "value": [0, 0, 0, 0, 0, 0.278618723, 0, -0.106026657, 0.0245455392, -0.273924112, -0.0781146362, -0.159105182, 0.189846441, 0.278618723, 0.278618723], "parent": [-1, 0, 0, 1, 1, 2, 2, 3, 3, 4, 4, 6, 6, 5, 5], "depth": [0, 1, 1, 2, 2, 2, 2, 3, 3, 3, 3, 3, 3, 3, 3], "iLeaf": [7, 8, 9, 10, 11, 12, 13, 14]}], [{"feature": [5, 1, 1, 0, 0, 0, 1, -2, -2, -2, -2, -2, -2, -2, -2], "threshold": [14.5, 0.447754204, 0.436233878, 1.77991533, -0.466066003, -1.67611718, 0.532773495, 0, 0, 0, 0, 0, 0, 0, 0], "children_left": [1, 3, 5, 7, 9, 11, 13, -1, -1, -1, -1, -1, -1, -1, -1], "children_right": [2, 4, 6, 8, 10, 12, 14, -1, -1, -1, -1, -1, -1, -1, -1], "value": [0, 0, 0, 0, 0, 0, 0, 0.019617334, 0.191550657, -0.286956131, -0.058403343, 0.083512485, -0.0894180909, 0.537767708, -0.160026893], "parent": [-1, 0, 0, 1, 1, 2, 2, 3, 3, 4, 4, 5, 5, 6, 6], "depth": [0, 1, 1, 2, 2, 2, 2, 3, 3, 3, 3, 3, 3, 3, 3], "iLeaf": [7, 8, 9, 10, 11, 12, 13, 14]}], [{"feature": [2, 5, 1, 4, 0, 0, 4, -2, -2, -2, -2, -2, -2, -2, -2], "threshold": [1.5, 6.5, -0.375137836, 0.5, -1.79454696, 0.892001987, 2.5, 0, 0, 0, 0, 0, 0, 0, 0], "children_left": [1, 3, 5, 7, 9, 11, 13, -1, -1, -1, -1, -1, -1, -1, -1], "children_right": [2, 4, 6, 8, 10, 12, 14, -1, -1, -1, -1, -1, -1, -1, -1], "value": [0, 0, 0, 0, 0, 0, 0, 0.216519833, 0.043676611, 0.301288843, -0.00938293152, -0.143600896, -0.349543959, -0.00612025661, -0.264865428], "parent": [-1, 0, 0, 1, 1, 2, 2, 3, 3, 4, 4, 5, 5, 6, 6], "depth": [0, 1, 1, 2, 2, 2, 2, 3, 3, 3, 3, 3, 3, 3, 3], "iLeaf": [7, 8, 9, 10, 11, 12, 13, 14]}], [{"feature": [0, 6, 1, 0, 1, 6, -2, -2, -2, -2, -2, -2, -2, -2, -2], "threshold": [2.11853409, 8.5, 0.284804493, -2.0463419, -0.436369658, 8.5, 0, 0, 0, 0, 0, 0, 0, -2.0, -2.0], "children_left": [1, 3, 5, 7, 9, 11, 13, -1, -1, -1, -1, -1, -1, -1, -1], "children_right": [2, 4, 6, 8, 10, 12, 14, -1, -1, -1, -1, -1, -1, -1, -1], "value": [0, 0, 0, 0, 0, 0, -0.0232233293, 0.254474044, 0.00730585912, -0.249668583, -0.0688692033, 0.161379561, 0.441547334, -0.0232233293, -0.0232233293], "parent": [-1, 0, 0, 1, 1, 2, 2, 3, 3, 4, 4, 5, 5, 6, 6], "depth": [0, 1, 1, 2, 2, 2, 2, 3, 3, 3, 3, 3, 3, 3, 3], "iLeaf": [7, 8, 9, 10, 11, 12, 13, 14]}], [{"feature": [3, 0, 5, 0, 0, -2, 6, -2, -2, -2, -2, -2, -2, -2, -2], "threshold": [4.5, -1.14826775, 5.5, -1.50340807, -0.430564612, 0, 0.5, 0, 0, 0, 0, 0, 0, -2.0, -2.0], "children_left": [1, 3, 5, 7, 9, 13, 11, -1, -1, -1, -1, -1, -1, -1, -1], "children_right": [2, 4, 6, 8, 10, 14, 12, -1, -1, -1, -1, -1, -1, -1, -1], "value": [0, 0, 0, 0, 0, 0.26425007, 0, 0.0336445794, -0.207073227, 0.0755070373, -0.00691682566, -0.150109559, 0.145621777, 0.26425007, 0.26425007], "parent": [-1, 0, 0, 1, 1, 2, 2, 3, 3, 4, 4, 6, 6, 5, 5], "depth": [0, 1, 1, 2, 2, 2, 2, 3, 3, 3, 3, 3, 3, 3, 3], "iLeaf": [7, 8, 9, 10, 11, 12, 13, 14]}], [{"feature": [6, 0, 0, 5, 0, 0, 0, -2, -2, -2, -2, -2, -2, -2, -2], "threshold": [4.5, 1.03751588, -1.23676825, 10.5, 1.44100285, -1.72944891, -0.364761472, 0, 0, 0, 0, 0, 0, 0, 0], "children_left": [1, 3, 5, 7, 9, 11, 13, -1, -1, -1, -1, -1, -1, -1, -1], "children_right": [2, 4, 6, 8, 10, 12, 14, -1, -1, -1, -1, -1, -1, -1, -1], "value": [0, 0, 0, 0, 0, 0, 0, 0.0927361995, -0.00217429316, -0.203373551, 0.0875786543, -0.0165494122, -0.283919185, 0.0570483804, -0.0447841883], "parent": [-1, 0, 0, 1, 1, 2, 2, 3, 3, 4, 4, 5, 5, 6, 6], "depth": [0, 1, 1, 2, 2, 2, 2, 3, 3, 3, 3, 3, 3, 3, 3], "iLeaf": [7, 8, 9, 10, 11, 12, 13, 14]}], [{"feature": [4, 5, 2, 1, 1, 1, 6, -2, -2, -2, -2, -2, -2, -2, -2], "threshold": [2.5, 14.5, 0.5, 0.292439759, 0.436233878, 0.132154554, 6.5, 0, 0, 0, 0, 0, 0, 0, 0], "children_left": [1, 3, 5, 7, 9, 11, 13, -1, -1, -1, -1, -1, -1, -1, -1], "children_right": [2, 4, 6, 8, 10, 12, 14, -1, -1, -1, -1, -1, -1, -1, -1], "value": [0, 0, 0, 0, 0, 0, 0, 0.0294416826, -0.0657617301, -0.0583807193, 0.139577225, 0.0993168131, -0.183385164, -0.279589951, 0.0899053589], "parent": [-1, 0, 0, 1, 1, 2, 2, 3, 3, 4, 4, 5, 5, 6, 6], "depth": [0, 1, 1, 2, 2, 2, 2, 3, 3, 3, 3, 3, 3, 3, 3], "iLeaf": [7, 8, 9, 10, 11, 12, 13, 14]}], [{"feature": [0, 6, 0, 0, 1, -2, 1, -2, -2, -2, -2, -2, -2, -2, -2], "threshold": [2.11853409, 8.5, 2.19984961, -2.0463419, -0.436369658, 0, -0.240860552, 0, 0, 0, 0, 0, 0, -2.0, -2.0], "children_left": [1, 3, 5, 7, 9, 13, 11, -1, -1, -1, -1, -1, -1, -1, -1], "children_right": [2, 4, 6, 8, 10, 14, 12, -1, -1, -1, -1, -1, -1, -1, -1], "value": [0, 0, 0, 0, 0, 0.321501076, 0, 0.19565247, 0.00402001757, -0.20607923, -0.0481025875, -0.102449909, 0.17862238, 0.321501076, 0.321501076], "parent": [-1, 0, 0, 1, 1, 2, 2, 3, 3, 4, 4, 6, 6, 5, 5], "depth": [0, 1, 1, 2, 2, 2, 2, 3, 3, 3, 3, 3, 3, 3, 3], "iLeaf": [7, 8, 9, 10, 11, 12, 13, 14]}], [{"feature": [0, 4, 0, 1, 0, 2, 2, -2, -2, -2, -2, -2, -2, -2, -2], "threshold": [-0.984397352, 0.5, -0.75457263, 0.412768304, -1.50340807, 5.5, 0.5, 0, 0, 0, 0, 0, 0, 0, 0], "children_left": [1, 3, 5, 7, 9, 11, 13, -1, -1, -1, -1, -1, -1, -1, -1], "children_right": [2, 4, 6, 8, 10, 12, 14, -1, -1, -1, -1, -1, -1, -1, -1], "value": [0, 0, 0, 0, 0, 0, 0, 0.108227611, -0.252973378, 0.00886631012, -0.200218782, 0.110369429, 0.492725819, 0.0366172791, -0.0287139006], "parent": [-1, 0, 0, 1, 1, 2, 2, 3, 3, 4, 4, 5, 5, 6, 6], "depth": [0, 1, 1, 2, 2, 2, 2, 3, 3, 3, 3, 3, 3, 3, 3], "iLeaf": [7, 8, 9, 10, 11, 12, 13, 14]}], [{"feature": [3, 4, 5, 0, 1, 1, 1, -2, -2, -2, -2, -2, -2, -2, -2], "threshold": [4.5, 2.5, 5.5, 1.44089341, -0.167576641, 0.16346316, 0.0797092244, 0, 0, 0, 0, 0, 0, 0, 0], "children_left": [1, 3, 5, 7, 9, 11, 13, -1, -1, -1, -1, -1, -1, -1, -1], "children_right": [2, 4, 6, 8, 10, 12, 14, -1, -1, -1, -1, -1, -1, -1, -1], "value": [0, 0, 0, 0, 0, 0, 0, -0.00600795122, 0.0640103966, -0.27578634, -0.0587667637, 0.268573821, 0.109860994, -0.0736817792, 0.180292755], "parent": [-1, 0, 0, 1, 1, 2, 2, 3, 3, 4, 4, 5, 5, 6, 6], "depth": [0, 1, 1, 2, 2, 2, 2, 3, 3, 3, 3, 3, 3, 3, 3], "iLeaf": [7, 8, 9, 10, 11, 12, 13, 14]}], [{"feature": [5, 1, 1, 1, 0, -2, 6, -2, -2, -2, -2, -2, -2, -2, -2], "threshold": [14.5, 0.447754204, -0.57754457, -0.321041793, -0.313290358, 0, 13.5, 0, 0, 0, 0, 0, 0, -2.0, -2.0], "children_left": [1, 3, 5, 7, 9, 13, 11, -1, -1, -1, -1, -1, -1, -1, -1], "children_right": [2, 4, 6, 8, 10, 14, 12, -1, -1, -1, -1, -1, -1, -1, -1], "value": [0, 0, 0, 0, 0, 0.29853642, 0, -0.0606751814, 0.0227054693, -0.193420991, -0.0124641769, -0.0399348736, -0.223397464, 0.29853642, 0.29853642], "parent": [-1, 0, 0, 1, 1, 2, 2, 3, 3, 4, 4, 6, 6, 5, 5], "depth": [0, 1, 1, 2, 2, 2, 2, 3, 3, 3, 3, 3, 3, 3, 3], "iLeaf": [7, 8, 9, 10, 11, 12, 13, 14]}], [{"feature": [0, 0, 0, 6, 6, 0, 2, -2, -2, -2, -2, -2, -2, -2, -2], "threshold": [1.01417255, 0.611560404, 1.44089341, 6.5, 1.5, 1.31539512, 4.5, 0, 0, 0, 0, 0, 0, 0, 0], "children_left": [1, 3, 5, 7, 9, 11, 13, -1, -1, -1, -1, -1, -1, -1, -1], "children_right": [2, 4, 6, 8, 10, 12, 14, -1, -1, -1, -1, -1, -1, -1, -1], "value": [0, 0, 0, 0, 0, 0, 0, 0.0109856874, -0.0639054328, 0.204868063, 0.0423880816, -0.0411710329, -0.349679232, 0.106142171, -0.160210639], "parent": [-1, 0, 0, 1, 1, 2, 2, 3, 3, 4, 4, 5, 5, 6, 6], "depth": [0, 1, 1, 2, 2, 2, 2, 3, 3, 3, 3, 3, 3, 3, 3], "iLeaf": [7, 8, 9, 10, 11, 12, 13, 14]}], [{"feature": [3, 0, 6, 0, 0, -2, -2, -2, -2, -2, -2, -2, -2, -2, -2], "threshold": [5.5, -1.85828578, 0.5, -1.88894796, -1.14826775, 0, 0, 0, 0, 0, 0, -2.0, -2.0, -2.0, -2.0], "children_left": [1, 3, 5, 7, 9, 11, 13, -1, -1, -1, -1, -1, -1, -1, -1], "children_right": [2, 4, 6, 8, 10, 12, 14, -1, -1, -1, -1, -1, -1, -1, -1], "value": [0, 0, 0, 0, 0, -0.0629278123, 0.264401793, 0.0328599252, 0.375876963, -0.0636906475, 0.00542140473, -0.0629278123, -0.0629278123, 0.264401793, 0.264401793], "parent": [-1, 0, 0, 1, 1, 2, 2, 3, 3, 4, 4, 5, 5, 6, 6], "depth": [0, 1, 1, 2, 2, 2, 2, 3, 3, 3, 3, 3, 3, 3, 3], "iLeaf": [7, 8, 9, 10, 11, 12, 13, 14]}], [{"feature": [1, 2, 5, -2, 6, 4, 0, -2, -2, -2, -2, -2, -2, -2, -2], "threshold": [-0.627389312, 0.5, 14.5, 0, 12.5, 0.5, 1.70605993, 0, 0, 0, 0, 0, 0, -2.0, -2.0], "children_left": [1, 3, 5, 13, 7, 9, 11, -1, -1, -1, -1, -1, -1, -1, -1], "children_right": [2, 4, 6, 14, 8, 10, 12, -1, -1, -1, -1, -1, -1, -1, -1], "value": [0, 0, 0, 0.251464248, 0, 0, 0, -0.332528621, -0.124801345, 0.0363320075, -0.0062458734, -0.02884073, -0.204989657, 0.251464248, 0.251464248], "parent": [-1, 0, 0, 1, 1, 2, 2, 4, 4, 5, 5, 6, 6, 3, 3], "depth": [0, 1, 1, 2, 2, 2, 2, 3, 3, 3, 3, 3, 3, 3, 3], "iLeaf": [7, 8, 9, 10, 11, 12, 13, 14]}], [{"feature": [0, 0, 0, 5, 0, 2, 0, -2, -2, -2, -2, -2, -2, -2, -2], "threshold": [2.11853409, 1.19560099, 2.19984961, 13.5, 1.43359137, 0.5, 2.30931044, 0, 0, 0, 0, 0, 0, 0, 0], "children_left": [1, 3, 5, 7, 9, 11, 13, -1, -1, -1, -1, -1, -1, -1, -1], "children_right": [2, 4, 6, 8, 10, 12, 14, -1, -1, -1, -1, -1, -1, -1, -1], "value": [0, 0, 0, 0, 0, 0, 0, 0.0223726444, -0.0222138036, -0.160933137, 0.0173230991, 0.0932633281, 0.301108241, -0.00938315224, 0.200643212], "parent": [-1, 0, 0, 1, 1, 2, 2, 3, 3, 4, 4, 5, 5, 6, 6], "depth": [0, 1, 1, 2, 2, 2, 2, 3, 3, 3, 3, 3, 3, 3, 3], "iLeaf": [7, 8, 9, 10, 11, 12, 13, 14]}], [{"feature": [4, 0, 6, 1, 0, 1, 2, -2, -2, -2, -2, -2, -2, -2, -2], "threshold": [2.5, -1.74487138, 1.5, 0.371798337, -1.14826775, 0.146571904, 2.5, 0, 0, 0, 0, 0, 0, 0, 0], "children_left": [1, 3, 5, 7, 9, 11, 13, -1, -1, -1, -1, -1, -1, -1, -1], "children_right": [2, 4, 6, 8, 10, 12, 14, -1, -1, -1, -1, -1, -1, -1, -1], "value": [0, 0, 0, 0, 0, 0, 0, 0.111929774, -0.180868268, -0.0642423704, 0.00687222416, -0.0896403566, -0.461485416, 0.107647493, -0.138016373], "parent": [-1, 0, 0, 1, 1, 2, 2, 3, 3, 4, 4, 5, 5, 6, 6], "depth": [0, 1, 1, 2, 2, 2, 2, 3, 3, 3, 3, 3, 3, 3, 3], "iLeaf": [7, 8, 9, 10, 11, 12, 13, 14]}], [{"feature": [6, 1, 0, -2, 1, 5, 0, -2, -2, -2, -2, -2, -2, -2, -2], "threshold": [12.5, -0.627389312, 0.679490328, 0, -0.604498267, 6.5, 1.78131568, 0, 0, 0, 0, 0, 0, -2.0, -2.0], "children_left": [1, 3, 5, 13, 7, 9, 11, -1, -1, -1, -1, -1, -1, -1, -1], "children_right": [2, 4, 6, 14, 8, 10, 12, -1, -1, -1, -1, -1, -1, -1, -1], "value": [0, 0, 0, -0.306234479, 0, 0, 0, 0.310062796, 0.00475746067, -0.297760993, -0.0554196276, 0.177546322, -0.0755164996, -0.306234479, -0.306234479], "parent": [-1, 0, 0, 1, 1, 2, 2, 4, 4, 5, 5, 6, 6, 3, 3], "depth": [0, 1, 1, 2, 2, 2, 2, 3, 3, 3, 3, 3, 3, 3, 3], "iLeaf": [7, 8, 9, 10, 11, 12, 13, 14]}], [{"feature": [5, 6, 0, 1, 2, 0, 1, -2, -2, -2, -2, -2, -2, -2, -2], "threshold": [1.5, 5.5, -2.15032291, -0.111823313, 1.5, -2.22506881, -0.515841246, 0, 0, 0, 0, 0, 0, 0, 0], "children_left": [1, 3, 5, 7, 9, 11, 13, -1, -1, -1, -1, -1, -1, -1, -1], "children_right": [2, 4, 6, 8, 10, 12, 14, -1, -1, -1, -1, -1, -1, -1, -1], "value": [0, 0, 0, 0, 0, 0, 0, -0.00745349983, 0.125685617, 0.00770841213, -0.223365575, 0.00409929687, 0.318293005, -0.137315124, -0.00505692791], "parent": [-1, 0, 0, 1, 1, 2, 2, 3, 3, 4, 4, 5, 5, 6, 6], "depth": [0, 1, 1, 2, 2, 2, 2, 3, 3, 3, 3, 3, 3, 3, 3], "iLeaf": [7, 8, 9, 10, 11, 12, 13, 14]}], [{"feature": [1, 1, 1, 1, 2, 5, 0, -2, -2, -2, -2, -2, -2, -2, -2], "threshold": [0.0430948064, 0.0325047672, 0.0513488576, -0.0218619388, 3.5, 11.5, 1.2024157, 0, 0, 0, 0, 0, 0, 0, 0], "children_left": [1, 3, 5, 7, 9, 11, 13, -1, -1, -1, -1, -1, -1, -1, -1], "children_right": [2, 4, 6, 8, 10, 12, 14, -1, -1, -1, -1, -1, -1, -1, -1], "value": [0, 0, 0, 0, 0, 0, 0, -0.00676600588, 0.0651616082, 0.16132322, 0.448367476, -0.428808451, -0.0583015569, -0.000163603967, -0.0636683926], "parent": [-1, 0, 0, 1, 1, 2, 2, 3, 3, 4, 4, 5, 5, 6, 6], "depth": [0, 1, 1, 2, 2, 2, 2, 3, 3, 3, 3, 3, 3, 3, 3], "iLeaf": [7, 8, 9, 10, 11, 12, 13, 14]}], [{"feature": [0, 0, 1, 0, 1, 1, 6, -2, -2, -2, -2, -2, -2, -2, -2], "threshold": [1.76459122, 1.70648968, 0.151107043, 1.44089341, 0.0205752105, 0.0843725652, 11.5, 0, 0, 0, 0, 0, 0, 0, 0], "children_left": [1, 3, 5, 7, 9, 11, 13, -1, -1, -1, -1, -1, -1, -1, -1], "children_right": [2, 4, 6, 8, 10, 12, 14, -1, -1, -1, -1, -1, -1, -1, -1], "value": [0, 0, 0, 0, 0, 0, 0, -0.00363892666, 0.0759838074, -0.164576724, -0.46830824, 0.080155395, -0.331314117, 0.285110593, -0.100477055], "parent": [-1, 0, 0, 1, 1, 2, 2, 3, 3, 4, 4, 5, 5, 6, 6], "depth": [0, 1, 1, 2, 2, 2, 2, 3, 3, 3, 3, 3, 3, 3, 3], "iLeaf": [7, 8, 9, 10, 11, 12, 13, 14]}], [{"feature": [3, 4, 6, 2, 0, -2, -2, -2, -2, -2, -2, -2, -2, -2, -2], "threshold": [5.5, 2.5, 0.5, 6.5, 1.88544059, 0, 0, 0, 0, 0, 0, -2.0, -2.0, -2.0, -2.0], "children_left": [1, 3, 5, 7, 9, 11, 13, -1, -1, -1, -1, -1, -1, -1, -1], "children_right": [2, 4, 6, 8, 10, 12, 14, -1, -1, -1, -1, -1, -1, -1, -1], "value": [0, 0, 0, 0, 0, -0.0580590144, 0.251621783, 0.00199853349, -0.268755376, -0.114300117, 0.134398192, -0.0580590144, -0.0580590144, 0.251621783, 0.251621783], "parent": [-1, 0, 0, 1, 1, 2, 2, 3, 3, 4, 4, 5, 5, 6, 6], "depth": [0, 1, 1, 2, 2, 2, 2, 3, 3, 3, 3, 3, 3, 3, 3], "iLeaf": [7, 8, 9, 10, 11, 12, 13, 14]}], [{"feature": [0, 0, 6, 0, 4, 6, 1, -2, -2, -2, -2, -2, -2, -2, -2], "threshold": [2.11853409, 1.01417255, 8.5, 0.611560404, 0.5, 5.5, 0.279945105, 0, 0, 0, 0, 0, 0, 0, 0], "children_left": [1, 3, 5, 7, 9, 11, 13, -1, -1, -1, -1, -1, -1, -1, -1], "children_right": [2, 4, 6, 8, 10, 12, 14, -1, -1, -1, -1, -1, -1, -1, -1], "value": [0, 0, 0, 0, 0, 0, 0, -0.00383445784, 0.0680384859, 0.0735590309, -0.0716376901, 0.153631806, -0.155046597, 0.274239838, -0.019884957], "parent": [-1, 0, 0, 1, 1, 2, 2, 3, 3, 4, 4, 5, 5, 6, 6], "depth": [0, 1, 1, 2, 2, 2, 2, 3, 3, 3, 3, 3, 3, 3, 3], "iLeaf": [7, 8, 9, 10, 11, 12, 13, 14]}], [{"feature": [5, 0, 1, 4, 0, 1, 1, -2, -2, -2, -2, -2, -2, -2, -2], "threshold": [3.5, -0.542584896, -0.117741689, 0.5, 0.0719685853, -0.13063696, -0.02960537, 0, 0, 0, 0, 0, 0, 0, 0], "children_left": [1, 3, 5, 7, 9, 11, 13, -1, -1, -1, -1, -1, -1, -1, -1], "children_right": [2, 4, 6, 8, 10, 12, 14, -1, -1, -1, -1, -1, -1, -1, -1], "value": [0, 0, 0, 0, 0, 0, 0, 0.112539373, -0.0927365273, 0.19916445, 0.0369423665, 0.00249798666, 0.249084756, -0.0651079491, -0.00328178494], "parent": [-1, 0, 0, 1, 1, 2, 2, 3, 3, 4, 4, 5, 5, 6, 6], "depth": [0, 1, 1, 2, 2, 2, 2, 3, 3, 3, 3, 3, 3, 3, 3], "iLeaf": [7, 8, 9, 10, 11, 12, 13, 14]}], [{"feature": [1, 0, 0, -2, 6, 6, 6, -2, -2, -2, -2, -2, -2, -2, -2], "threshold": [0.620313525, -2.35811758, -0.674132109, 0, 6.5, 6.5, 13.5, 0, 0, 0, 0, 0, 0, -2.0, -2.0], "children_left": [1, 3, 5, 13, 7, 9, 11, -1, -1, -1, -1, -1, -1, -1, -1], "children_right": [2, 4, 6, 14, 8, 10, 12, -1, -1, -1, -1, -1, -1, -1, -1], "value": [0, 0, 0, 0.25583145, 0, 0, 0, 0.00711945351, -0.0245643165, -0.109329715, 0.240047261, -0.280487329, -0.080451861, 0.25583145, 0.25583145], "parent": [-1, 0, 0, 1, 1, 2, 2, 4, 4, 5, 5, 6, 6, 3, 3], "depth": [0, 1, 1, 2, 2, 2, 2, 3, 3, 3, 3, 3, 3, 3, 3], "iLeaf": [7, 8, 9, 10, 11, 12, 13, 14]}], [{"feature": [0, 0, 0, 1, -2, 1, 0, -2, -2, -2, -2, -2, -2, -2, -2], "threshold": [-1.56902361, -1.58186102, -1.14826775, 0.372367978, 0, 0.377255917, -1.12260151, 0, 0, 0, 0, 0, 0, -2.0, -2.0], "children_left": [1, 3, 5, 7, 13, 9, 11, -1, -1, -1, -1, -1, -1, -1, -1], "children_right": [2, 4, 6, 8, 14, 10, 12, -1, -1, -1, -1, -1, -1, -1, -1], "value": [0, 0, 0, 0, 0.405320108, 0, 0, 0.0478557646, -0.173502386, -0.0999561697, 0.164471418, 0.30298996, 0.00177493901, 0.405320108, 0.405320108], "parent": [-1, 0, 0, 1, 1, 2, 2, 3, 3, 5, 5, 6, 6, 4, 4], "depth": [0, 1, 1, 2, 2, 2, 2, 3, 3, 3, 3, 3, 3, 3, 3], "iLeaf": [7, 8, 9, 10, 11, 12, 13, 14]}], [{"feature": [0, 0, 1, 0, 4, 1, 2, -2, -2, -2, -2, -2, -2, -2, -2], "threshold": [1.76459122, 1.71558797, 0.151107043, 1.44089341, 1.5, 0.0843725652, 3.5, 0, 0, 0, 0, 0, 0, 0, 0], "children_left": [1, 3, 5, 7, 9, 11, 13, -1, -1, -1, -1, -1, -1, -1, -1], "children_right": [2, 4, 6, 8, 10, 12, 14, -1, -1, -1, -1, -1, -1, -1, -1], "value": [0, 0, 0, 0, 0, 0, 0, -0.00307621085, 0.0636771247, -0.352835804, -0.0144841326, 0.0604974777, -0.2392364, 0.255570769, -0.0501870997], "parent": [-1, 0, 0, 1, 1, 2, 2, 3, 3, 4, 4, 5, 5, 6, 6], "depth": [0, 1, 1, 2, 2, 2, 2, 3, 3, 3, 3, 3, 3, 3, 3], "iLeaf": [7, 8, 9, 10, 11, 12, 13, 14]}], [{"feature": [3, 1, 6, 1, 1, -2, -2, -2, -2, -2, -2, -2, -2, -2, -2], "threshold": [5.5, 0.0430948064, 0.5, 0.0324761234, 0.0702932253, 0, 0, 0, 0, 0, 0, -2.0, -2.0, -2.0, -2.0], "children_left": [1, 3, 5, 7, 9, 11, 13, -1, -1, -1, -1, -1, -1, -1, -1], "children_right": [2, 4, 6, 8, 10, 12, 14, -1, -1, -1, -1, -1, -1, -1, -1], "value": [0, 0, 0, 0, 0, -0.0510847121, 0.238097623, 0.00346303289, 0.156914502, -0.102493055, -0.00356678781, -0.0510847121, -0.0510847121, 0.238097623, 0.238097623], "parent": [-1, 0, 0, 1, 1, 2, 2, 3, 3, 4, 4, 5, 5, 6, 6], "depth": [0, 1, 1, 2, 2, 2, 2, 3, 3, 3, 3, 3, 3, 3, 3], "iLeaf": [7, 8, 9, 10, 11, 12, 13, 14]}], [{"feature": [5, 0, 0, 0, 0, 2, 0, -2, -2, -2, -2, -2, -2, -2, -2], "threshold": [0.5, -1.31307042, 1.31539512, -2.20027614, -1.20147192, 4.5, 1.43359137, 0, 0, 0, 0, 0, 0, 0, 0], "children_left": [1, 3, 5, 7, 9, 11, 13, -1, -1, -1, -1, -1, -1, -1, -1], "children_right": [2, 4, 6, 8, 10, 12, 14, -1, -1, -1, -1, -1, -1, -1, -1], "value": [0, 0, 0, 0, 0, 0, 0, -0.205481946, 0.187423497, -0.30292803, 0.02513979, -0.00392210716, 0.0587592237, -0.22669296, 0.00386589486], "parent": [-1, 0, 0, 1, 1, 2, 2, 3, 3, 4, 4, 5, 5, 6, 6], "depth": [0, 1, 1, 2, 2, 2, 2, 3, 3, 3, 3, 3, 3, 3, 3], "iLeaf": [7, 8, 9, 10, 11, 12, 13, 14]}], [{"feature": [1, 2, 1, 1, 1, 1, 5, -2, -2, -2, -2, -2, -2, -2, -2], "threshold": [-0.278015047, 5.5, -0.270599455, -0.400252879, -0.457662404, -0.273708433, 13.5, 0, 0, 0, 0, 0, 0, 0, 0], "children_left": [1, 3, 5, 7, 9, 11, 13, -1, -1, -1, -1, -1, -1, -1, -1], "children_right": [2, 4, 6, 8, 10, 12, 14, -1, -1, -1, -1, -1, -1, -1, -1], "value": [0, 0, 0, 0, 0, 0, 0, 0.0541438051, -0.0584778525, -0.277869582, -0.0537278578, -0.00757850474, 0.494316339, 0.0145921567, -0.020080233], "parent": [-1, 0, 0, 1, 1, 2, 2, 3, 3, 4, 4, 5, 5, 6, 6], "depth": [0, 1, 1, 2, 2, 2, 2, 3, 3, 3, 3, 3, 3, 3, 3], "iLeaf": [7, 8, 9, 10, 11, 12, 13, 14]}], [{"feature": [1, 6, 6, 1, 1, -2, 0, -2, -2, -2, -2, -2, -2, -2, -2], "threshold": [0.658703923, 13.5, 6.5, 0.491130471, 0.210540771, 0, -0.699366808, 0, 0, 0, 0, 0, 0, -2.0, -2.0], "children_left": [1, 3, 5, 7, 9, 13, 11, -1, -1, -1, -1, -1, -1, -1, -1], "children_right": [2, 4, 6, 8, 10, 14, 12, -1, -1, -1, -1, -1, -1, -1, -1], "value": [0, 0, 0, 0, 0, -0.288244277, 0, 0.00161295361, 0.0939577594, -0.101742372, 0.105906911, 0.154102862, -0.0958666503, -0.288244277, -0.288244277], "parent": [-1, 0, 0, 1, 1, 2, 2, 3, 3, 4, 4, 6, 6, 5, 5], "depth": [0, 1, 1, 2, 2, 2, 2, 3, 3, 3, 3, 3, 3, 3, 3], "iLeaf": [7, 8, 9, 10, 11, 12, 13, 14]}], [{"feature": [1, 1, 5, 1, 0, 2, 1, -2, -2, -2, -2, -2, -2, -2, -2], "threshold": [0.292131126, 0.28182292, 6.5, 0.262649804, -1.16727519, 3.5, 0.295924455, 0, 0, 0, 0, 0, 0, 0, 0], "children_left": [1, 3, 5, 7, 9, 11, 13, -1, -1, -1, -1, -1, -1, -1, -1], "children_right": [2, 4, 6, 8, 10, 12, 14, -1, -1, -1, -1, -1, -1, -1, -1], "value": [0, 0, 0, 0, 0, 0, 0, 0.00452497741, -0.0934499949, -0.230132177, 0.259121478, -0.0424214005, -0.398078948, -0.331308335, 0.00395832257], "parent": [-1, 0, 0, 1, 1, 2, 2, 3, 3, 4, 4, 5, 5, 6, 6], "depth": [0, 1, 1, 2, 2, 2, 2, 3, 3, 3, 3, 3, 3, 3, 3], "iLeaf": [7, 8, 9, 10, 11, 12, 13, 14]}], [{"feature": [4, 2, 1, 0, -2, 5, 1, -2, -2, -2, -2, -2, -2, -2, -2], "threshold": [2.5, 6.5, -0.167576641, -1.50340807, 0, 2.5, -0.125869602, 0, 0, 0, 0, 0, 0, -2.0, -2.0], "children_left": [1, 3, 5, 7, 13, 9, 11, -1, -1, -1, -1, -1, -1, -1, -1], "children_right": [2, 4, 6, 8, 14, 10, 12, -1, -1, -1, -1, -1, -1, -1, -1], "value": [0, 0, 0, 0, -0.210876226, 0, 0, 0.0445692725, -0.00239371322, 0.118101254, -0.309955835, 0.31051296, -0.0662811175, -0.210876226, -0.210876226], "parent": [-1, 0, 0, 1, 1, 2, 2, 3, 3, 5, 5, 6, 6, 4, 4], "depth": [0, 1, 1, 2, 2, 2, 2, 3, 3, 3, 3, 3, 3, 3, 3], "iLeaf": [7, 8, 9, 10, 11, 12, 13, 14]}], [{"feature": [0, 5, 0, 1, 2, 5, 5, -2, -2, -2, -2, -2, -2, -2, -2], "threshold": [-0.984397352, 12.5, -0.75457263, -0.213770494, 4.5, 11.5, 12.5, 0, 0, 0, 0, 0, 0, 0, 0], "children_left": [1, 3, 5, 7, 9, 11, 13, -1, -1, -1, -1, -1, -1, -1, -1], "children_right": [2, 4, 6, 8, 10, 12, 14, -1, -1, -1, -1, -1, -1, -1, -1], "value": [0, 0, 0, 0, 0, 0, 0, -0.184270576, -0.0236631259, 0.0902842432, -0.144332156, 0.211611018, 0.0399404354, 0.0185751058, -0.0248175934], "parent": [-1, 0, 0, 1, 1, 2, 2, 3, 3, 4, 4, 5, 5, 6, 6], "depth": [0, 1, 1, 2, 2, 2, 2, 3, 3, 3, 3, 3, 3, 3, 3], "iLeaf": [7, 8, 9, 10, 11, 12, 13, 14]}], [{"feature": [0, 0, 0, 1, 1, -2, 5, -2, -2, -2, -2, -2, -2, -2, -2], "threshold": [0.11979048, 0.0769504011, 0.125727117, 0.221271425, -0.143486127, 0, 9.5, 0, 0, 0, 0, 0, 0, -2.0, -2.0], "children_left": [1, 3, 5, 7, 9, 13, 11, -1, -1, -1, -1, -1, -1, -1, -1], "children_right": [2, 4, 6, 8, 10, 14, 12, -1, -1, -1, -1, -1, -1, -1, -1], "value": [0, 0, 0, 0, 0, 0.374540716, 0, 0.00823519845, -0.0483595729, -0.00956386235, -0.296785504, -0.0267673861, 0.0281508248, 0.374540716, 0.374540716], "parent": [-1, 0, 0, 1, 1, 2, 2, 3, 3, 4, 4, 6, 6, 5, 5], "depth": [0, 1, 1, 2, 2, 2, 2, 3, 3, 3, 3, 3, 3, 3, 3], "iLeaf": [7, 8, 9, 10, 11, 12, 13, 14]}], [{"feature": [5, 6, 1, 4, 6, 1, 1, -2, -2, -2, -2, -2, -2, -2, -2], "threshold": [3.5, 4.5, -0.117741689, 0.5, 13.5, -0.13063696, -0.115256101, 0, 0, 0, 0, 0, 0, 0, 0], "children_left": [1, 3, 5, 7, 9, 11, 13, -1, -1, -1, -1, -1, -1, -1, -1], "children_right": [2, 4, 6, 8, 10, 12, 14, -1, -1, -1, -1, -1, -1, -1, -1], "value": [0, 0, 0, 0, 0, 0, 0, 0.145082027, 0.0165147576, -0.0809599236, 0.0967912972, 0.00318184681, 0.172719926, -0.304579854, -0.0106149344], "parent": [-1, 0, 0, 1, 1, 2, 2, 3, 3, 4, 4, 5, 5, 6, 6], "depth": [0, 1, 1, 2, 2, 2, 2, 3, 3, 3, 3, 3, 3, 3, 3], "iLeaf": [7, 8, 9, 10, 11, 12, 13, 14]}], [{"feature": [0, 0, 4, 0, 6, 0, 0, -2, -2, -2, -2, -2, -2, -2, -2], "threshold": [1.01417255, 0.532589793, 0.5, 0.405408442, 0.5, 1.0579505, 1.43105435, 0, 0, 0, 0, 0, 0, 0, 0], "children_left": [1, 3, 5, 7, 9, 11, 13, -1, -1, -1, -1, -1, -1, -1, -1], "children_right": [2, 4, 6, 8, 10, 12, 14, -1, -1, -1, -1, -1, -1, -1, -1], "value": [0, 0, 0, 0, 0, 0, 0, 0.00362612191, -0.0890569314, 0.173714608, 0.018144425, -0.281109601, 0.100851923, -0.112101652, -0.00292083342], "parent": [-1, 0, 0, 1, 1, 2, 2, 3, 3, 4, 4, 5, 5, 6, 6], "depth": [0, 1, 1, 2, 2, 2, 2, 3, 3, 3, 3, 3, 3, 3, 3], "iLeaf": [7, 8, 9, 10, 11, 12, 13, 14]}], [{"feature": [1, 2, 1, 1, 0, -2, 1, -2, -2, -2, -2, -2, -2, -2, -2], "threshold": [-0.515860558, 0.5, -0.507418156, -0.602601588, 0.258421481, 0, -0.496100187, 0, 0, 0, 0, 0, 0, -2.0, -2.0], "children_left": [1, 3, 5, 7, 9, 13, 11, -1, -1, -1, -1, -1, -1, -1, -1], "children_right": [2, 4, 6, 8, 10, 14, 12, -1, -1, -1, -1, -1, -1, -1, -1], "value": [0, 0, 0, 0, 0, 0.354773521, 0, 0.409849197, -0.0395271741, -0.0376998708, -0.25421524, -0.203880861, 0.00098014751, 0.354773521, 0.354773521], "parent": [-1, 0, 0, 1, 1, 2, 2, 3, 3, 4, 4, 6, 6, 5, 5], "depth": [0, 1, 1, 2, 2, 2, 2, 3, 3, 3, 3, 3, 3, 3, 3], "iLeaf": [7, 8, 9, 10, 11, 12, 13, 14]}], [{"feature": [5, 0, 1, 2, 0, 0, 0, -2, -2, -2, -2, -2, -2, -2, -2], "threshold": [14.5, -1.79726815, 0.336633921, 2.5, -1.78534627, -1.69743228, 0.40229094, 0, 0, 0, 0, 0, 0, 0, 0], "children_left": [1, 3, 5, 7, 9, 11, 13, -1, -1, -1, -1, -1, -1, -1, -1], "children_right": [2, 4, 6, 8, 10, 12, 14, -1, -1, -1, -1, -1, -1, -1, -1], "value": [0, 0, 0, 0, 0, 0, 0, 0.118869893, -0.04013744, -0.348523974, 0.00333131454, -0.217648998, -0.0195783023, 0.230124027, -0.120088778], "parent": [-1, 0, 0, 1, 1, 2, 2, 3, 3, 4, 4, 5, 5, 6, 6], "depth": [0, 1, 1, 2, 2, 2, 2, 3, 3, 3, 3, 3, 3, 3, 3], "iLeaf": [7, 8, 9, 10, 11, 12, 13, 14]}], [{"feature": [1, 1, 4, 6, 5, 0, 1, -2, -2, -2, -2, -2, -2, -2, -2], "threshold": [0.540313244, 0.519111931, 1.5, 1.5, 13.5, -1.49776864, 0.942231536, 0, 0, 0, 0, 0, 0, 0, 0], "children_left": [1, 3, 5, 7, 9, 11, 13, -1, -1, -1, -1, -1, -1, -1, -1], "children_right": [2, 4, 6, 8, 10, 12, 14, -1, -1, -1, -1, -1, -1, -1, -1], "value": [0, 0, 0, 0, 0, 0, 0, 0.0138321724, -0.0080374144, 0.301369697, -0.062999852, 0.366568208, -0.0349165127, -0.262210488, 0.0220929235], "parent": [-1, 0, 0, 1, 1, 2, 2, 3, 3, 4, 4, 5, 5, 6, 6], "depth": [0, 1, 1, 2, 2, 2, 2, 3, 3, 3, 3, 3, 3, 3, 3], "iLeaf": [7, 8, 9, 10, 11, 12, 13, 14]}], [{"feature": [0, 0, 0, 0, 0, 4, 0, -2, -2, -2, -2, -2, -2, -2, -2], "threshold": [0.118214741, -0.229793072, 0.391625047, -0.258049339, -0.219006717, 1.5, 0.460859179, 0, 0, 0, 0, 0, 0, 0, 0], "children_left": [1, 3, 5, 7, 9, 11, 13, -1, -1, -1, -1, -1, -1, -1, -1], "children_right": [2, 4, 6, 8, 10, 12, 14, -1, -1, -1, -1, -1, -1, -1, -1], "value": [0, 0, 0, 0, 0, 0, 0, -0.000787236146, 0.227235705, -0.429931402, -0.0500176512, 0.00973688997, 0.189250737, -0.117063396, 0.00495118322], "parent": [-1, 0, 0, 1, 1, 2, 2, 3, 3, 4, 4, 5, 5, 6, 6], "depth": [0, 1, 1, 2, 2, 2, 2, 3, 3, 3, 3, 3, 3, 3, 3], "iLeaf": [7, 8, 9, 10, 11, 12, 13, 14]}], [{"feature": [3, 0, 6, 2, 0, -2, -2, -2, -2, -2, -2, -2, -2, -2, -2], "threshold": [5.5, 1.31539512, 0.5, 4.5, 1.43359137, 0, 0, 0, 0, 0, 0, -2.0, -2.0, -2.0, -2.0], "children_left": [1, 3, 5, 7, 9, 11, 13, -1, -1, -1, -1, -1, -1, -1, -1], "children_right": [2, 4, 6, 8, 10, 12, 14, -1, -1, -1, -1, -1, -1, -1, -1], "value": [0, 0, 0, 0, 0, -0.064555198, 0.219309807, -0.00410571089, 0.0683128387, -0.162180781, 0.0108656622, -0.064555198, -0.064555198, 0.219309807, 0.219309807], "parent": [-1, 0, 0, 1, 1, 2, 2, 3, 3, 4, 4, 5, 5, 6, 6], "depth": [0, 1, 1, 2, 2, 2, 2, 3, 3, 3, 3, 3, 3, 3, 3], "iLeaf": [7, 8, 9, 10, 11, 12, 13, 14]}], [{"feature": [0, 0, 5, 4, -2, 0, 0, -2, -2, -2, -2, -2, -2, -2, -2], "threshold": [-0.984397352, -0.990323365, 12.5, 0.5, 0, 0.0722847283, 0.120202973, 0, 0, 0, 0, 0, 0, -2.0, -2.0], "children_left": [1, 3, 5, 7, 13, 9, 11, -1, -1, -1, -1, -1, -1, -1, -1], "children_right": [2, 4, 6, 8, 14, 10, 12, -1, -1, -1, -1, -1, -1, -1, -1], "value": [0, 0, 0, 0, -0.502459228, 0, 0, 0.059899535, -0.0404806547, 0.0788684115, -0.00384675083, -0.0614159778, 0.0182350073, -0.502459228, -0.502459228], "parent": [-1, 0, 0, 1, 1, 2, 2, 3, 3, 5, 5, 6, 6, 4, 4], "depth": [0, 1, 1, 2, 2, 2, 2, 3, 3, 3, 3, 3, 3, 3, 3], "iLeaf": [7, 8, 9, 10, 11, 12, 13, 14]}], [{"feature": [6, 1, 1, 2, 1, 2, 0, -2, -2, -2, -2, -2, -2, -2, -2], "threshold": [8.5, -0.515860558, -0.121117383, 2.5, -0.507418156, 0.5, 1.05605149, 0, 0, 0, 0, 0, 0, 0, 0], "children_left": [1, 3, 5, 7, 9, 11, 13, -1, -1, -1, -1, -1, -1, -1, -1], "children_right": [2, 4, 6, 8, 10, 12, 14, -1, -1, -1, -1, -1, -1, -1, -1], "value": [0, 0, 0, 0, 0, 0, 0, 0.0211998541, -0.267560929, 0.340089351, 0.00449817581, 0.150774434, -0.0391894393, -0.0708331838, 0.116911568], "parent": [-1, 0, 0, 1, 1, 2, 2, 3, 3, 4, 4, 5, 5, 6, 6], "depth": [0, 1, 1, 2, 2, 2, 2, 3, 3, 3, 3, 3, 3, 3, 3], "iLeaf": [7, 8, 9, 10, 11, 12, 13, 14]}], [{"feature": [0, 1, 0, 1, 1, -2, 0, -2, -2, -2, -2, -2, -2, -2, -2], "threshold": [-1.50340807, -0.24919197, -1.49509978, -0.260874808, -0.233375579, 0, -1.48567784, 0, 0, 0, 0, 0, 0, -2.0, -2.0], "children_left": [1, 3, 5, 7, 9, 13, 11, -1, -1, -1, -1, -1, -1, -1, -1], "children_right": [2, 4, 6, 8, 10, 14, 12, -1, -1, -1, -1, -1, -1, -1, -1], "value": [0, 0, 0, 0, 0, -0.371670455, 0, -0.0499104038, -0.413122147, 0.551196098, 0.0397617705, 0.282573909, -0.00314710522, -0.371670455, -0.371670455], "parent": [-1, 0, 0, 1, 1, 2, 2, 3, 3, 4, 4, 6, 6, 5, 5], "depth": [0, 1, 1, 2, 2, 2, 2, 3, 3, 3, 3, 3, 3, 3, 3], "iLeaf": [7, 8, 9, 10, 11, 12, 13, 14]}]], "init_predict": [0, 0], "norm": 1, "Config": {"Backend": "cpp", "ProjectName": "my_prj", "OutputDir": "prj_cpp", "Precision": "ap_fixed<10,5>"}}
