//Numpy array shape [80, 25]
//Min -2.676796197891
//Max 3.172224998474
//Number of zeros 0

#ifndef W1_H_
#define W1_H_

weight_default_t w1[2000] = {
    -0.24994563, -0.01592130, 0.02984710,  -0.03246316, -0.19607241, -0.02163565, -0.00572438, 0.01376110,  0.06863546,
    -0.21986796, -0.05606571, 0.06991967,  0.07118288,  -0.00832175, -0.03974251, -0.12646708, 0.01565769,  0.02143256,
    0.04822187,  -0.01806841, -0.00104700, 0.08732048,  -0.19190465, -0.00814264, -0.15155232, 1.28681350,  0.13748017,
    0.39079481,  -0.31852159, -0.28351930, 0.04033466,  -0.42634365, -0.13127394, -0.20465094, -0.26889697, 0.70893532,
    0.43394735,  0.70848930,  0.04386011,  0.51139277,  0.40600044,  -0.50317824, -0.25791675, 0.66503000,  -0.40065920,
    0.65473962,  -0.00253041, -0.33962274, -0.08765265, -0.11767972, 0.06714126,  -0.60412002, -0.38466910, 0.15584932,
    -0.06518575, -0.71045715, 0.46661234,  0.24567224,  0.29929164,  0.07424527,  0.00885416,  0.34313247,  -0.40707770,
    0.49099818,  -0.74588889, -0.10123775, 0.53515995,  -0.42928374, -0.12010060, 0.12295905,  -0.69315630, 0.38088876,
    0.01870272,  0.10997168,  0.26679659,  0.93503916,  1.01998508,  -0.10151886, 0.15381983,  0.08079384,  0.12287367,
    -0.29244336, 0.00544387,  -0.31489906, -0.21896380, -0.07303306, 0.38462871,  -0.88183403, 0.03077884,  0.05728795,
    1.33863544,  0.30312559,  0.28246397,  -0.04266880, -0.50959545, 0.60257953,  0.41271350,  0.17042276,  0.60114610,
    0.22945273,  0.73635733,  0.20843484,  0.33445162,  -1.11147344, -0.30075341, 0.51580977,  -0.18865807, -0.91119158,
    -0.39129823, 0.03684294,  -0.68891215, -0.59370238, 0.65122741,  -0.17603758, 0.66590655,  1.25159955,  -0.37625167,
    0.32980818,  0.77502394,  -1.58798909, 0.22748075,  -0.95392829, -0.37276012, -0.61004913, 0.92332447,  -0.09721770,
    -0.72238702, -0.34178290, 1.19741392,  -0.44719616, -0.75276721, 0.17758735,  0.02224001,  -0.08087371, 0.25889483,
    0.03444218,  0.33437315,  -0.78717542, 0.07385066,  -1.37520838, -0.00982160, 0.42453086,  0.38150313,  0.19821575,
    0.93540424,  -1.05033779, 0.57981151,  0.33810690,  0.24172245,  -0.02910789, -2.12628174, -0.63280356, 0.29773250,
    3.17222500,  -0.49264374, 0.29331800,  1.39211619,  -0.76175922, -0.45130953, 0.42933312,  -1.54781485, 0.02419901,
    -2.16194177, -0.48207095, -0.31510717, -2.11770678, 0.76639241,  1.87467754,  -0.52695322, 1.70596778,  -2.33492446,
    0.41794685,  1.27378273,  -0.10234303, -0.49648684, 1.86050689,  -0.50189257, -0.16991651, -0.46694538, -0.00889901,
    0.58299482,  0.08892005,  -0.20688151, 0.31415370,  -0.20101114, -0.33977607, 0.07279664,  0.60349727,  -0.34133548,
    -0.48008150, 1.27710438,  -0.29224181, -0.02558731, 0.86315304,  0.27016857,  0.12425910,  -0.73576742, -0.41963914,
    0.04202708,  0.95604628,  0.15431352,  0.01539763,  -0.01423682, 0.10296305,  -0.08639759, 0.11045294,  -0.03732327,
    0.13618803,  0.10233897,  0.21258777,  0.09800927,  -0.05657235, -0.05041919, -0.16974531, 0.12601873,  -0.14161462,
    0.12978475,  -0.18991150, 0.07589593,  0.06911660,  0.10042754,  -0.24628711, -0.28696042, -0.25114185, 0.07191065,
    0.36939719,  0.20196825,  0.19622889,  0.01961792,  -0.52867746, 0.02060650,  0.32239082,  0.21925712,  -0.29252347,
    -0.07450268, 0.07430969,  0.19808058,  -0.08999527, -0.41864324, 0.12763937,  0.10551479,  0.13380286,  0.26029557,
    -0.09461474, 0.01125190,  -0.01001714, 0.38791370,  -0.59581864, -0.31798267, 0.13044289,  -0.29599217, 0.06823352,
    -0.13354187, -0.04749685, 0.44879583,  -0.51446730, 0.37497100,  -0.19995253, 0.11865021,  -0.35735917, 0.28974858,
    0.12435340,  0.00421873,  0.08717419,  -0.20247488, -0.05830143, -0.04514945, 0.03859331,  -0.02609805, -0.22617900,
    0.09613950,  -0.33556163, 0.23096344,  0.06258421,  -0.05920995, -0.81900448, -0.61287695, 0.12958381,  0.79978222,
    -0.32717428, 0.23371933,  -0.11298512, 0.06942000,  0.52603680,  0.06176474,  -1.15612555, 0.38241693,  0.13082752,
    -0.69803941, -0.44519529, 0.24077913,  -0.18162382, -0.41263813, 0.00626828,  -0.56472856, -0.09948663, -0.18302669,
    0.95950598,  -0.30670726, 0.02000829,  1.03344405,  0.48644996,  0.34142539,  -0.14057057, -0.08406556, 0.58438534,
    -0.22699004, -1.44362915, -0.95808500, 0.35579941,  0.29348719,  -0.11956982, 0.27683857,  0.57247722,  1.37406516,
    0.18090977,  -0.48121765, 0.06628983,  -0.17082840, -0.86288124, -0.12994859, -0.10934682, -0.44934374, 0.64140421,
    0.43463030,  -0.40653625, -0.92759031, -0.26878390, 0.47970986,  -0.45654160, -0.31465080, 0.94702774,  -0.16918387,
    -0.42442611, 0.00438548,  0.00923580,  0.90002447,  -0.55483723, -0.11998936, -0.24002072, 0.48533896,  0.11834613,
    -0.07799944, -0.42383757, -0.16936988, -0.90337831, 0.50523067,  0.72644299,  0.32532176,  0.05432085,  0.68847007,
    -0.60442829, 0.80158204,  0.99259549,  -0.30103669, 0.05667507,  0.36611405,  -0.94233608, 0.23696357,  -0.61583829,
    0.52145499,  0.14344153,  0.00328588,  0.36766458,  -0.71754855, 0.42685041,  -0.52480674, -0.41898140, 0.29636848,
    -0.70113719, -0.20197862, -0.37344661, -0.17589939, -0.54375410, -0.72718179, -1.11110735, 0.32055253,  -0.25643155,
    -0.30023971, -0.58632553, 0.50699002,  0.73423439,  0.04769143,  -0.69287294, 0.71418941,  -0.98707741, -0.48756132,
    0.14591850,  -0.00972518, -0.18280549, 0.33020869,  0.07739078,  -0.27737662, 0.32508579,  0.52724129,  -0.13557516,
    0.27238563,  0.73315942,  0.99855763,  0.84088510,  0.08538753,  0.13155562,  -0.14930172, 0.02797297,  0.10585469,
    0.02903437,  -0.30760777, -0.08591483, -0.16532275, -0.04133916, 0.12315685,  0.08694953,  0.12440344,  -0.39931026,
    -0.06502170, -0.07466459, 0.25206035,  -0.11492801, 0.01234671,  0.02252278,  0.10730736,  0.00707526,  -0.04144976,
    0.16572779,  -0.06111651, -0.05090914, 0.22255808,  0.21892326,  0.02140033,  -0.26701146, -0.09199855, -0.34320089,
    0.04647652,  0.24066357,  0.00315903,  -0.14013545, 0.20657861,  0.19460022,  0.13409390,  -0.12650517, -0.00711635,
    -0.36546883, -0.27223793, 0.22557122,  0.15888590,  -0.19231611, -0.01208463, -0.42694032, 0.00924643,  -0.04871246,
    0.14489457,  0.19934957,  0.03268532,  -0.26802376, -0.06917346, -0.08818764, -0.06936200, -0.00991716, -0.14875649,
    0.20260695,  -0.03016085, -0.11772685, -0.06528303, 0.33984911,  -0.42861041, 0.04678998,  0.24468878,  -0.26212654,
    0.05760178,  -0.01277140, 0.25944546,  0.21451963,  -0.22919317, 0.08311309,  0.01015522,  -0.07370505, -0.28775448,
    0.28065524,  0.80104679,  -0.69237137, 0.09623399,  0.04745018,  -0.11536954, 0.21645974,  -0.17521553, -0.12839432,
    -0.32616171, -0.19263010, -0.05076053, -0.32757092, 0.14068608,  -0.31371123, -0.36700678, 1.02383471,  0.41596910,
    -0.39243886, -0.39699236, -0.18623418, 0.23590773,  0.44462955,  -0.01158825, 0.15543512,  0.36914709,  -0.19606984,
    0.04083448,  0.11609410,  0.10854912,  -0.93667829, -0.59664226, -0.10577209, -0.03770705, -0.82973319, 0.07100462,
    0.46515539,  0.70493704,  0.11769867,  -0.09642658, 0.19184169,  -0.60267162, -0.15556012, -0.06323973, 0.25728056,
    0.32714555,  0.37354282,  0.64966816,  -0.85379928, -0.52891093, -0.53338081, 0.00071357,  -0.80146301, -0.23014045,
    0.31370798,  0.19652064,  -0.30330509, 0.59732527,  -0.61618036, 0.43174049,  -0.33461112, -0.09222537, -0.57418764,
    0.31234556,  -0.06441883, -0.29923901, 0.04574157,  0.00199618,  -0.07604899, 0.18836573,  0.22399814,  0.11964659,
    0.27587023,  0.54073912,  -0.07070547, 1.09669447,  0.60586989,  -0.56627184, 0.73163223,  -0.06587803, -0.95469141,
    0.05797904,  -0.32544577, 0.46618402,  -0.42818251, -0.15697184, -0.07984095, -0.06863761, 0.27211952,  -0.63966370,
    -0.85368210, 1.04474986,  -0.03273144, 0.04721467,  -0.57129002, -0.51463783, -0.01716019, 0.41848388,  -0.92354447,
    -0.02085111, -0.35023081, -0.28929639, -0.12352847, -0.06491212, 0.62791741,  0.52128577,  -0.08786132, 0.50663567,
    -0.85222739, -0.67956436, -0.07901944, -0.20291066, -0.12427756, 0.21070847,  0.36405188,  0.01811016,  -0.35558707,
    -0.07505420, -0.51016599, 0.08317504,  0.78687006,  0.26184845,  0.32996735,  -0.11742579, 0.13708171,  0.09675904,
    0.00351471,  0.17156938,  0.04663955,  -0.01313619, 0.07353903,  0.11845510,  -0.03040916, -0.11860044, -0.05890951,
    0.13578244,  -0.27024615, 0.12044270,  -0.06773756, 0.26196989,  0.03754797,  -0.69103962, 0.11767364,  0.08418153,
    -0.07073509, -0.08945126, -0.04465364, -0.01228451, 0.61217988,  0.36905605,  -0.06841971, 0.01820075,  0.22142294,
    0.20999679,  -0.00854848, -0.21310976, -0.48690179, -0.06172886, 0.09083650,  0.47623742,  -0.38875908, 0.29984316,
    0.35164335,  0.07724196,  0.25907773,  -0.03366175, 0.00794181,  -0.16796382, 0.12707716,  0.67827290,  -0.46863237,
    0.40221474,  -0.01072991, -0.01881496, -0.22039062, -0.00463564, -0.20179020, 0.14899430,  0.09645735,  0.08785056,
    0.05667125,  -0.08783643, -0.57045329, -0.27956113, 0.32969514,  -0.32422251, 0.03947007,  0.04782788,  0.12597121,
    0.12803499,  0.24237561,  0.03641291,  0.02941555,  -0.13378389, 0.71286631,  0.13059177,  -0.11221728, -0.04303265,
    0.32258469,  0.03121127,  0.19749436,  0.80445844,  -0.83933711, 0.40717539,  -0.08058111, 0.18654235,  0.58147413,
    -0.22004756, -0.21094175, -0.49914742, -0.07245248, 0.21281776,  -0.72978270, 0.11609764,  -0.12739497, -0.49795446,
    0.91565651,  0.71345496,  -0.19992878, 0.12728572,  -0.34958413, 0.51537168,  0.36229423,  -0.20545541, -0.04014085,
    -0.15503673, 0.46182132,  -0.18324539, -0.02288571, -0.12150281, -0.35487393, -0.25479561, 0.34288880,  0.01429710,
    0.03762121,  0.01153337,  0.11537866,  -0.11222634, -0.04343228, 0.09371492,  0.24208696,  0.02680596,  0.08744393,
    -0.01195653, -0.02051427, 0.46111181,  0.34674245,  0.17142926,  -0.32360074, -0.30470049, -0.08778754, 0.56703365,
    -0.39670938, 0.01970642,  -0.24996454, 0.59148031,  -0.04976763, 0.42775628,  -0.51978588, 0.74823248,  -0.24332942,
    -0.10120203, -0.71067011, -0.05833459, 0.24460207,  0.12378100,  0.39883280,  0.15179272,  -0.45821238, -0.26472330,
    -0.11036454, 0.47337988,  -0.19236894, 0.44863826,  0.19078662,  0.46045646,  0.55434424,  -1.23575699, 0.89674824,
    0.14763579,  -0.29703000, 0.11096095,  -0.23884353, 0.32712832,  -0.55054861, 0.67220551,  -0.28248659, -0.10569336,
    0.04621894,  -0.49375376, -0.12733379, 0.67400223,  -0.12935409, 0.09695239,  -0.28661168, -0.36145869, 0.06896356,
    0.46334738,  -0.83616781, -0.68781477, -0.22872619, -0.02656318, -0.46397430, -0.16735579, 0.57318032,  -0.05219025,
    -0.06242780, 0.30701312,  -0.43937260, -0.05616235, -0.35246953, 0.47527167,  -0.36845928, 0.13797158,  0.46169606,
    0.03073783,  -0.16647297, 0.35587814,  -0.52273571, 0.22240485,  0.32394350,  0.29325587,  0.38622752,  -0.12588513,
    0.21903162,  -0.03870760, -0.07586532, 0.09732155,  -0.44541699, 0.01353051,  0.07500879,  -0.22210084, -0.02879842,
    -0.02839135, 0.02233995,  0.01847041,  -0.22886260, 0.09602077,  -0.10249722, 0.02895709,  -0.11213382, -0.32242554,
    0.21315952,  0.13921122,  -0.05876900, -0.14110731, 0.17718993,  0.06612965,  -0.03701587, 0.34920025,  -0.22553837,
    -0.25041988, 0.16762421,  -0.04839466, -0.57936865, 0.20034809,  0.28770819,  0.07073146,  0.06286270,  -0.14398633,
    0.08881986,  -0.26472491, 0.27725342,  0.22914961,  0.32062715,  0.15277733,  -0.33009961, 0.21074554,  -0.15565939,
    0.47236079,  0.03225322,  0.06781324,  -0.16307135, 0.73327172,  -0.11553932, -0.13312288, -0.30246657, -0.04846320,
    -0.39416528, 0.15607847,  0.08472254,  -0.12179766, 0.23342557,  -0.02313556, -0.16107082, 0.19552790,  -0.05060831,
    0.08372914,  0.37613615,  -0.26624736, 0.05994382,  0.57154304,  -0.03778595, 0.15102805,  0.26144159,  -0.64846903,
    -0.11667332, 0.64444566,  0.53041399,  -0.37275234, 0.12701584,  0.25457710,  -0.91777927, 0.63840097,  -0.04469256,
    -0.01554284, 0.52316505,  -0.07778227, -0.11871518, 0.13643374,  -0.16263111, 0.12193766,  -0.43915382, 0.17769964,
    0.06158905,  -0.40595376, 0.36887977,  0.21324196,  -0.16621692, 0.07623006,  -0.07362154, 0.53180701,  0.40119246,
    -0.41867191, -0.17060547, 0.11066595,  0.33041847,  -0.30610490, -0.01155049, 0.06596804,  0.06266157,  0.11539320,
    0.53958863,  -0.19265023, 0.19687888,  -0.32241911, 0.17509246,  0.06316098,  0.22965759,  -0.10924519, 0.13696006,
    0.34725070,  0.05508206,  -0.31879237, -0.07152238, 0.30400902,  0.47540823,  0.05332027,  -1.34034514, -0.63157010,
    -0.20077212, 0.82977784,  -0.83980680, 0.05455742,  0.23470649,  0.15096639,  -0.02279334, 0.74177665,  -0.51908326,
    0.57153726,  -0.20008761, -0.44515362, -0.52133244, -0.53501129, 0.30665237,  0.03230446,  -0.27042213, 0.69568527,
    -0.53271943, 0.12585282,  0.84569460,  1.16614997,  0.30099568,  1.01664233,  -0.04021535, 0.35936305,  0.12363404,
    -0.44788554, 0.65720278,  0.14622304,  -0.57894391, -0.17871566, -0.13646793, 0.06899100,  -0.13851331, 0.07404158,
    -0.32255191, 0.22225420,  0.05467210,  -0.22595364, -0.09422892, 0.08064129,  -0.14696676, 0.24685700,  -0.36180913,
    -0.50487852, 0.09818821,  0.23832101,  -1.06369340, -0.94318706, 0.00698828,  0.28264612,  -0.01870376, -0.69367069,
    0.32556781,  0.29627222,  0.17554468,  0.22879148,  -0.32052159, 0.18480402,  -0.76028723, 0.17409454,  -0.52946806,
    -1.31131041, 0.72142994,  -0.21024033, 0.65006751,  0.28911707,  -0.45603541, 0.30260912,  0.22917707,  0.76010191,
    0.50517660,  -0.43544480, 0.01703142,  0.15579990,  -0.06952365, 0.26123571,  -0.32477272, -0.07388589, 0.23853466,
    0.02649050,  -0.04410565, 0.35238847,  0.10454764,  -0.21788062, -0.05252795, 0.12990016,  -0.20476976, 0.02988371,
    -0.20392458, 0.07077907,  0.07255822,  0.03174250,  0.19428524,  -0.27959460, 0.17289197,  -0.06749524, 0.07314484,
    0.04101936,  0.00711376,  0.39040637,  -0.09693181, -0.13249642, 0.06778622,  -0.20384689, -0.08403887, -0.06206702,
    0.39903295,  0.01676942,  0.16174519,  -0.24540325, -0.15171684, 0.36854738,  -0.04578711, -0.20637585, -0.58331889,
    0.23066565,  -0.40027916, -0.33852276, 0.22725138,  -0.22780336, -0.45288083, 0.05498514,  -0.15462326, -0.01167145,
    0.14075157,  -0.23809917, -0.04884083, -0.15133418, 0.16887660,  0.08024041,  -0.26719818, -0.08086196, 0.27881959,
    0.03904902,  -0.05400108, -0.14138514, 0.16911660,  -0.10002459, 0.31475541,  0.20939967,  0.07277112,  0.10095973,
    0.33317840,  -0.23609909, 0.10387685,  0.08162952,  0.30970895,  -0.19202805, 0.11137805,  -0.08374452, -0.64609599,
    0.49284625,  -0.02431013, 0.22352953,  0.35399213,  -0.04173037, 0.01117679,  -0.26933041, -0.07039601, 0.30380678,
    -0.05741419, 0.47689995,  0.20879868,  -0.06093958, -0.08551129, -0.07670606, -0.23868953, -0.26600242, -0.24509941,
    0.40901592,  0.42221358,  -0.76004744, 0.13680586,  -0.25070697, 0.08168428,  -0.19393569, -0.23131981, -0.35523322,
    0.31124046,  -0.02291389, 0.52390915,  -0.46724460, 0.13923384,  -0.12886441, -0.03299529, -0.27032244, -1.19288146,
    0.24336755,  -0.20915434, -0.14846808, 0.10754984,  0.02535326,  0.28236297,  0.90321386,  0.28560060,  0.31486535,
    -0.78192097, -0.21997991, -0.19503053, 0.71680617,  -0.23815078, -0.38749680, 0.09747923,  -0.11504970, 0.19734858,
    0.98412722,  -0.13073727, 0.75299066,  -0.85745215, -0.40456349, -0.51684064, -0.47700635, 0.39638016,  0.17537507,
    0.52784997,  0.63105047,  -0.69734496, -0.28434739, 0.58557647,  0.96909130,  0.17804323,  0.09428761,  0.17061329,
    0.33784506,  -0.14671242, -0.48270255, 0.31931961,  0.04116327,  -0.46874690, -0.45884821, -0.19885214, -0.39863971,
    -0.41624883, 0.43567199,  -0.28685057, 0.40880397,  0.18431477,  -0.15750097, -0.56084317, -0.13018279, 0.18903515,
    0.30848095,  -0.34719062, -0.19633505, -0.02658261, 0.24495831,  -0.78052413, -0.85096359, -0.37101209, 0.22163752,
    -0.14013411, -0.24140479, 0.23052573,  0.54393709,  0.13316275,  0.12203635,  0.20220585,  0.49100202,  -0.62808341,
    0.16586047,  -0.38358831, -1.00215280, 0.77456385,  -0.27937427, 0.11909273,  0.50655580,  -0.87544155, 0.59288806,
    0.01167453,  0.57931119,  -0.02249480, -0.12532967, -0.25048557, -0.28306130, 0.06188992,  0.48368040,  -0.36783400,
    -0.21773575, 0.14827894,  0.13848552,  0.04230130,  -0.04214389, -0.07091486, -0.04140090, -0.30136281, 0.00464335,
    -0.21866782, -0.02765239, -0.17025313, 0.08577426,  0.06893988,  0.11575132,  0.07546596,  0.02867554,  0.19112501,
    0.27582642,  0.12627265,  0.10898180,  -0.18745209, 0.23613420,  0.23121634,  0.28491151,  0.02902788,  0.15380767,
    0.03966511,  -0.01862929, -0.00648489, 0.01908036,  -0.19008325, -0.18426324, -0.07000075, -0.29073888, -0.22639032,
    -0.11762336, 0.33500755,  -0.21507888, -0.07346634, -0.03355709, -0.04096937, -0.33768243, -0.19027354, -0.18297306,
    -0.50098300, -0.02807480, 0.23949267,  -0.15996224, -0.07754000, -0.17378184, 0.00657926,  0.39929193,  0.45185298,
    -0.34957576, -0.24467568, 0.21933684,  -0.10674803, -0.35011348, 0.35258722,  -0.14792293, 0.02977267,  0.63623291,
    0.01652745,  0.28561106,  -0.24670583, 0.39176771,  0.05463742,  0.32333028,  0.14167164,  -0.06670932, 0.23938650,
    0.31829852,  -0.41095898, 0.35032102,  0.03883050,  0.14073621,  0.64508480,  0.25743634,  -0.24900754, 0.26631746,
    -0.12656187, 0.01745303,  -0.18157384, 0.34143060,  0.32021353,  0.30565801,  -0.26965511, 0.23778385,  -0.02008655,
    -0.08103817, -0.07159230, 0.32048982,  0.06949183,  -2.33522058, 0.02816298,  -0.10037031, 0.37423018,  -0.22492132,
    -0.36854437, 0.40015242,  0.28485346,  0.22778602,  0.19501299,  -0.93215930, 0.07858350,  -0.40451255, -0.27547240,
    -0.02443204, -1.41666114, 0.05133143,  -0.06660908, 0.50325763,  0.31695950,  -0.18681468, -0.12560664, 2.13244534,
    0.22775133,  0.42665431,  -1.29449880, -0.23370074, 0.01759187,  0.25374168,  0.06429626,  -0.52347112, 0.34470561,
    -0.26376522, -0.04219850, -0.01756793, -0.43413332, -0.22707182, 0.05281873,  -0.45199049, 0.04030637,  -0.54730064,
    -0.13315515, 0.10807105,  -0.34840381, -0.12949815, -0.38297817, -0.13845149, 0.97675931,  0.20487542,  0.41703507,
    0.23882188,  0.23847181,  0.40595204,  0.22122343,  -0.59291810, 0.16200593,  -0.23582739, -0.33778340, -0.05766481,
    -0.25944924, -0.28257781, -0.02519164, 0.15628809,  0.22581941,  0.29877603,  0.11747632,  -0.13611910, -0.68844485,
    0.10147709,  -0.19454663, 0.21278845,  0.02120594,  0.12139316,  -0.17088807, 0.38014871,  -0.78083509, -0.60448849,
    0.05090213,  0.61401623,  -0.32977888, -0.38970327, 0.26832360,  0.53781092,  0.20194471,  0.82220250,  0.23819874,
    0.49616402,  -0.43314114, -0.50223577, -0.46702045, -1.17008650, 0.48856854,  -0.03626145, 0.75825346,  0.49573380,
    -0.68196982, 0.29390180,  0.22509925,  0.79214412,  0.17140889,  -0.22514503, 0.10945672,  -0.20663217, -0.00440216,
    0.21418120,  -0.34781390, -0.11805713, 0.12930803,  -0.02661256, -0.16583513, 0.50446808,  0.12406299,  -0.18522657,
    -0.42358905, 0.14963409,  -1.34551275, 0.13522045,  0.17906164,  0.25551242,  0.31629464,  -0.21916427, -0.00383488,
    -0.16207457, 0.18151720,  -0.08251988, 0.89760458,  0.44453332,  -0.27497387, 0.29844183,  0.01738336,  0.12566963,
    0.00516657,  -0.15164798, -0.07898259, -0.25138238, 0.47278392,  0.46358061,  0.20548722,  0.38698843,  -0.07769089,
    0.21403231,  -0.12140352, 0.01454621,  0.27465621,  -0.04136071, -0.18499696, -0.33877471, -0.52207792, -0.06982010,
    -0.67964226, -0.37841988, -0.05654239, -0.44023779, -0.34978950, -0.11707290, 0.43336329,  0.23595251,  0.51182544,
    0.45589104,  0.46062201,  -0.28254399, 0.04058569,  0.35703275,  0.09476561,  -0.19271792, -0.85225898, 0.18226382,
    0.07547066,  -0.23841362, 0.07214766,  0.05686964,  -0.64615160, 0.89725614,  -0.09489815, -0.24773495, 0.18898845,
    -0.05227394, -0.04989563, -0.04141004, -0.68845397, 0.44256380,  0.15174553,  0.16641839,  0.20559123,  0.18821712,
    -0.18444933, 0.75212121,  0.04695220,  -0.14553900, -0.25279966, -0.78429103, 0.21485479,  0.24854848,  -0.34898055,
    0.12131061,  -0.01442323, 0.31166860,  -0.03168157, 0.23537874,  -0.04150987, -0.73491955, 0.30445504,  0.01360191,
    0.11793279,  -0.01071012, -0.86158031, -0.44057927, -0.11391853, -0.08041152, 0.30659840,  -0.07929188, 0.14337794,
    -0.16240485, -0.37871391, -0.12544847, -0.75813878, 0.07463507,  0.30250356,  -0.08979524, -0.05500457, -0.00572075,
    -0.15594503, 0.03389021,  0.33084431,  0.39045012,  -0.42743438, -0.61926889, -1.01879334, 0.43193951,  0.11156862,
    -0.76947951, -0.20159762, 0.24022132,  0.20872289,  0.69780248,  -0.16525456, 0.63648707,  -1.59807694, -0.14674914,
    -0.52725124, -0.42184243, 0.85394889,  0.03816247,  -0.73201150, 0.72350580,  -0.94382733, 0.30476892,  0.62137985,
    0.76275116,  0.58395672,  0.12438627,  0.09742960,  0.15616673,  -0.26625797, 0.15280285,  0.40855104,  -0.06499965,
    0.07652657,  -0.03907230, -0.03445091, -0.13297464, 0.12203576,  0.49042386,  -0.46612582, 0.23596950,  -0.60011405,
    0.01329148,  -0.40629655, 0.34626818,  0.00672128,  0.21219759,  0.12195532,  -0.24550790, 0.25495195,  0.50089574,
    -0.69004655, -0.82626939, -0.04906785, 0.22566023,  -0.19735636, -0.32598498, -0.23328499, 0.59350103,  0.50138974,
    0.03376095,  -0.21038638, 0.23230115,  -0.67481101, -0.46950540, -0.53264731, -1.31645954, 0.43338448,  -0.07359013,
    0.19401260,  0.85574108,  -0.58386785, 0.27350774,  0.94151503,  0.99626285,  0.16530964,  -0.52822798, 0.02781926,
    0.19514728,  0.02097620,  0.00889074,  -0.16201399, -0.07028764, 0.22292475,  -0.00996018, 0.11951973,  -0.02360463,
    0.18132643,  0.03626538,  -0.40536785, -0.24706507, -1.10316157, 0.23488073,  -0.11203269, -0.26491979, 0.32530117,
    -0.07893114, -0.00744999, 0.26029640,  0.33739540,  0.02217237,  0.02589254,  -0.42112139, 0.24534294,  0.70596570,
    -0.23823494, -0.01574550, -0.57523948, -0.01305772, -0.10088185, 0.27640396,  -0.16561478, 0.15046248,  -0.04703883,
    0.12256249,  -0.13618535, -0.25345358, 0.13640152,  0.11063136,  0.76222241,  0.26646805,  -0.26234278, 0.19928859,
    0.05528985,  -0.14719652, 0.09461970,  -0.29426023, -0.11857925, -0.33014619, -0.16937710, 0.49556774,  0.09860725,
    -0.08043962, 0.60073936,  -0.16133121, 0.60515904,  0.05304303,  0.21871525,  0.45007041,  -0.18452203, -0.23329300,
    0.15948120,  0.03171407,  0.05523947,  -0.19391575, -0.06312876, 0.05657719,  -0.01570622, 0.34798819,  0.35875756,
    0.64115590,  -0.12868474, -0.21662687, -0.07916048, -0.02071994, -0.39688477, 0.34791452,  -0.01536988, -0.01980658,
    0.20821385,  0.32254547,  0.03658571,  0.53079057,  0.11581320,  -0.52330321, 0.08113370,  -0.35415897, -0.01983317,
    0.34641969,  -0.06101644, -0.00271639, -0.19201282, -0.43245769, -0.21427184, 0.11255077,  -0.15757668, -1.97429311,
    0.25491333,  0.18619338,  -0.13669698, -0.33716843, -1.20977962, -0.06677102, 0.12260284,  0.31985071,  0.98761481,
    -0.66411626, -0.41700807, -0.00110240, -0.32249039, 0.21490636,  -0.67965972, -0.16568908, -0.11263562, -1.06136537,
    -0.06080189, 0.00003523,  -0.27638850, 0.54172385,  0.15916675,  0.66536385,  -0.61083424, -1.17721260, -0.79620224,
    1.62779248,  -1.29850137, -0.40923908, -0.21678016, 1.11565304,  1.38857508,  1.67485464,  -0.48776993, 1.54490137,
    -0.99453592, -0.23702216, -1.28989625, -0.32184783, 1.73645914,  0.50596559,  -0.42633674, 2.06059289,  -1.31561661,
    0.09407058,  0.71311694,  1.60583699,  0.67549241,  -0.75638843, -0.11993816, 0.25794804,  -0.30944440, -0.43204123,
    0.36899459,  0.19363843,  -0.08060863, -0.05935695, 0.27492559,  -0.16506658, -0.00417477, 0.57574582,  -0.39738783,
    0.30795437,  -1.27800059, -0.36806244, 0.00201544,  0.41062146,  -0.01292078, 0.33908349,  0.05562977,  0.15150607,
    0.33948043,  -0.19380097, -0.34239587, -0.26843691, 0.14322159,  0.16285747,  -0.12242185, -0.39411676, -0.39972457,
    0.32914063,  -0.14964050, 0.18657172,  -0.32965264, 0.50208765,  -0.61841202, -0.96437931, -0.19447599, -1.48685813,
    0.36768064,  -0.19042422, -0.14381048, 0.16720532,  -0.38585469, 0.28041863,  1.07230306,  0.34857085,  0.56100559,
    -0.60621732, -0.27094939, 0.03308203,  0.28440759,  -0.05372868, -0.37450859, -0.23122661, 0.14196907,  -0.08391851,
    0.58788222,  0.06581475,  0.12165748,  -0.56094503, -0.62536222, -0.32290021, -1.14628315, 0.28745806,  0.09321925,
    -0.11868286, 0.73546922,  -0.14506210, 0.10030940,  0.65942341,  0.56377023,  0.38628533,  -0.42766783, -0.12002008,
    -0.27770182, 0.38072130,  -0.41092056, 0.07260298,  0.32786149,  -0.18012661, -0.02678201, 0.29315698,  -0.62710303,
    0.16001518,  -0.31741443, -0.36174574, -0.17293620, -0.11350867, 0.18780905,  0.17321175,  0.81462449,  0.27337193,
    -0.34306210, -0.12359867, 0.26058146,  0.48336327,  0.48286983,  0.00497185,  -0.08108788, -0.37280399, -0.07095718,
    0.07272183,  0.25405398,  -0.01350151, 0.19333066,  0.50434202,  0.30863705,  0.23423783,  0.27947450,  -0.35671273,
    0.39509684,  -0.28312561, 0.13625887,  0.05653338,  0.26617846,  0.24114241,  0.22899513,  -0.34379941, 0.14200218,
    0.16892987,  0.41087806,  0.25089607,  -0.16019906, 0.13426897,  -0.13074127, -0.23068653, -0.45294666, 0.30708107,
    -0.05777374, -0.03524012, -0.18545437, 0.26572716,  0.34135580,  -0.10212494, 0.15759155,  -0.29985228, 0.00604882,
    -1.35232568, 0.02671386,  -0.18605591, 0.28203139,  0.06673647,  0.21136442,  0.02198954,  -0.02589645, -0.13472135,
    -0.33945116, -1.36670744, 0.26497167,  -0.01333835, 0.35838512,  -0.00214932, -0.67533672, -0.01949281, -0.15939406,
    -0.17611854, 0.62018734,  -1.11697268, 0.25882152,  -0.40646151, -0.21743414, -0.35022104, -0.48264894, 0.15348732,
    0.32525846,  -0.62968028, -0.14668293, 0.04142878,  -0.18443897, 1.67367685,  0.29640922,  0.54300213,  -0.38739282,
    -1.12135983, -0.95634991, 1.56781328,  -0.78718096, -0.65814853, -0.09405752, 1.45496094,  1.55392945,  1.32255197,
    -0.49480981, 1.84735644,  -1.09742570, 0.03602623,  -1.19865084, 0.01194180,  1.76398528,  0.22691993,  -0.24130857,
    2.00458288,  -1.63459969, 0.28926355,  0.26902235,  1.57351863,  0.59064698,  -2.67679620, 0.40217704,  0.49060968,
    0.01024920,  -0.21290652, 0.01566074,  -0.11393169, -0.32448450, -0.27194211, 0.21742176,  -0.57667369, -0.03412761,
    0.36706647,  -0.42090943, 0.39278191,  -0.02046515, -0.30790815, -0.07676671, 0.48708537,  -0.19606759, 0.39258122,
    0.11010294,  1.56427002,  -0.23800702, 0.70309281,  -1.84958696, -0.04740064, 0.06504993,  0.21830852,  -0.09291255,
    -1.47656202, -0.76586556, -0.02407140, -0.12262835, 0.55286926,  -0.37243509, -0.11549302, -0.16901262, -0.81201553,
    -0.16746910, -1.11338747, -0.03933520, 0.25118551,  -0.27406788, 0.25855088,  -0.24614365, -0.05488263, 0.42877647,
    0.41920695,  0.49124199};

#endif
