//Numpy array shape [80, 25]
//Min -3.289977788925
//Max 3.700143098831
//Number of zeros 0

#ifndef W1_H_
#define W1_H_

weight_default_t w1[2000] = {
    -0.0275631975, 0.1840968430,  0.0017615402,  -0.0511833914, -0.0200780518, -0.0042256247, -0.0364550948,
    0.0384720340,  -0.0489867255, -0.0225831568, -0.0905258134, -0.0269556697, 0.0101243807,  0.1125041321,
    0.0465865135,  0.0026750101,  -0.0463647135, 0.0408502258,  0.0250505060,  0.0417109914,  0.1548669636,
    0.0711558312,  0.1098393202,  -0.0506406687, -0.0291560069, -0.6492317319, 0.2198102921,  0.1887888014,
    0.0349061787,  -0.0283092018, -1.0081952810, -0.0272938609, 1.0008006096,  0.0338130370,  -0.0007302842,
    -0.0617842078, -0.0273153540, -0.3009278476, -0.6890239120, -0.2352750599, 0.3157918751,  0.0302133597,
    0.5854118466,  -0.6246618629, -0.2802330554, 0.0929862931,  -0.8329776525, 1.2516969442,  -0.6786904931,
    -0.1535482258, -0.7423998713, 0.4872898161,  0.5682671666,  0.0370868929,  -0.0022424087, -0.1562964022,
    -0.0046133399, -0.1033513546, 0.0123399999,  -0.0044850325, -0.2373198271, -0.0159488562, 0.0260351524,
    0.3955667615,  0.2467150390,  0.4625576437,  -0.0292643905, -0.7233461738, 0.2747081518,  -0.1658903807,
    0.7204536200,  0.8856796622,  0.5151911974,  0.3123708665,  0.1316079199,  0.5885148048,  0.0295058079,
    0.4927506149,  0.0299622882,  -0.0262605082, -1.0056939125, -0.0008065328, -1.3022788763, 0.0055024284,
    -0.0289485976, 0.2242033482,  0.0042681322,  0.5684482455,  -0.3274582922, 0.2859292626,  1.1116024256,
    0.0214838646,  -0.6427668929, 0.7815344334,  0.1261892021,  0.2290971130,  -1.2223799229, -0.4961220622,
    1.0111559629,  0.6050338745,  0.5045208931,  0.2650687695,  -0.7037590146, 0.0297495946,  0.0222873390,
    0.6111736894,  0.0005295388,  -0.5739755630, 0.0052538514,  -0.0307949428, -0.1104973704, 0.0296904631,
    0.5579725504,  -0.1175562739, 0.4259014130,  -0.1541411281, 0.0119326226,  -0.6764405966, 0.9869034290,
    0.3535545766,  0.0040392140,  0.1765626371,  -0.4597047269, -0.6800388098, 0.3780533969,  -0.8040967584,
    -0.6617923379, -0.7268909812, 0.0169448685,  -0.0069919117, 0.8752303720,  -0.0284540299, 0.4849638045,
    0.0029829517,  -0.0327314287, -0.1543710381, -0.0053135268, -0.2826291621, 0.1962907910,  -0.0196111575,
    -0.9708192945, 0.0061271563,  0.4227552414,  -0.8056537509, -0.5267382264, -1.0296963453, -0.3315088451,
    -0.0536016747, -0.1942309588, -0.3144842982, 0.5679528117,  -1.9735404253, 0.9347930551,  -0.0300587546,
    -0.0339946374, -0.7351798415, -0.0418845899, -0.1872052401, -0.0383353606, -0.0133074354, 1.1689522266,
    0.0359998457,  0.3681480289,  0.0382503718,  0.4525004029,  0.7792146206,  -0.0130382665, -0.2055867761,
    -2.0509274006, 0.8194679022,  -1.9078072309, -0.0428799093, -0.3958085477, -0.3275701106, 0.6287524104,
    0.4016268849,  0.3687422872,  -0.9715765119, -0.0442459360, -0.0036972165, 0.8315604329,  -0.0365467891,
    -0.2349074483, 0.0066335849,  -0.0011842133, -0.0949637517, 0.0012807772,  -0.1491129249, -0.2132425010,
    -0.4479730725, 0.3647912443,  -0.0349627361, -0.1971846074, 0.8265561461,  0.1157044247,  0.4788555801,
    0.5409259200,  0.4084890485,  -0.3301912248, -0.1015564576, 0.0552721694,  -0.1001074612, 0.0117295543,
    -0.0081389183, -0.0320042521, 0.1011462882,  0.0058988929,  -0.0258922745, -0.0222880021, -0.0649969801,
    0.1800477803,  -0.0160458256, 0.0775651112,  -0.0058082407, 0.1404013932,  0.0138113825,  -0.0076866262,
    0.0423264354,  -0.0252220053, -0.0024362383, 0.1017613336,  -0.1683959067, -0.0741082877, 0.1154814586,
    0.0737652481,  -0.0575968660, 0.0525054187,  0.3668349385,  -0.0134584792, -0.0107941143, -0.0590788126,
    -0.0428394340, 0.1588237137,  0.0307290424,  0.0128393173,  0.0514947511,  -0.0478221104, 0.0371550396,
    -0.2819215953, 0.3036379218,  -0.2870236635, -0.0292269941, 0.1646602750,  0.2382705659,  0.2441869527,
    0.1541452259,  -0.4535261393, 0.7680447102,  -0.4386458099, -0.2863874733, 0.2696151137,  0.1384935081,
    0.3358684182,  0.0214936174,  -0.0302639008, -0.4491205513, 0.0185948946,  -0.6768887639, 0.0131031843,
    0.0409274511,  -0.3085698485, 0.0321140029,  0.0778901279,  -0.3827026486, 0.6066994071,  -0.0433584340,
    0.0426415466,  -0.5007877350, -0.3528825939, 0.6109297276,  -0.0108267041, 0.2303432971,  -0.1687270403,
    0.2333775014,  -0.1115449220, 0.3741680384,  -0.2567584515, 0.5571648479,  -0.0433077328, 0.0437150858,
    0.0754363760,  0.0162365548,  -1.0052497387, -0.0245950222, 0.0104747498,  0.1608157903,  -0.0057357922,
    0.2024615258,  0.2402681261,  0.0871868879,  0.2321397513,  0.0325985588,  0.2439140677,  0.1481058747,
    0.0567306653,  -0.3911590278, -0.2595056295, -0.0403101370, 0.6333256960,  0.4113848507,  0.6748535037,
    -1.2513297796, -0.7839609385, 0.0329567418,  -0.0024726763, -0.1283916235, 0.0336718298,  -0.0657793283,
    -0.0131994374, -0.0059115877, -0.2056767642, 0.0290575884,  -0.4871744812, -0.7013683319, -0.8681734204,
    -0.5431044102, -0.0054946318, -0.4296252728, -0.5223876834, 0.3792691529,  -0.4847563803, 0.5626786351,
    0.5225822330,  -1.0988533497, -0.5452597141, -0.4102534056, 0.1492930502,  -1.1875908375, -0.0405668244,
    0.0112952217,  -1.0899050236, 0.0220720507,  1.0389884710,  -0.0009252541, -0.0136074265, -0.4482565820,
    -0.0367560871, 0.5741182566,  0.1035321355,  1.0542180538,  -0.9191005826, -0.0282482989, 0.9454858899,
    -0.7347041965, -0.7605232000, -2.1308665276, -0.0733887479, 0.4966790676,  -0.3489643931, 0.3535223007,
    0.2120424807,  0.0650976971,  0.7401156425,  -0.0076716733, -0.0485326760, 0.2756471336,  -0.0225947145,
    -0.7769182920, 0.0330444016,  -0.0061788419, -0.3183784783, 0.0289460383,  0.1563081443,  0.0019258521,
    0.0561595149,  0.2160817832,  0.0098051056,  -0.5246943235, 1.1672511101,  0.0638373643,  -0.5476062298,
    -0.3600058556, -0.4550855160, 0.8063696623,  0.1595083326,  -0.4357669950, -0.7297945619, -0.8471348882,
    0.0006241986,  -0.0226010084, 0.4875481427,  0.0267590918,  0.5019536018,  0.0281460695,  -0.0385978222,
    0.2667064071,  0.0006921819,  -0.2500030696, 0.6910701394,  -0.3940408528, -0.2922672033, -0.0233109239,
    0.0973728672,  -0.4336659908, -0.7539330125, -0.7263449430, 0.7418795824,  0.6334456205,  -0.8008428812,
    -0.3402410150, -0.0469207838, -0.1598144323, 0.0065430230,  0.0235820860,  -0.0462826975, -0.0961134136,
    -0.0456765778, 0.1207541078,  0.0114686005,  0.0099800816,  0.0039214366,  -0.0475820675, -0.0156605877,
    -0.2458557189, 0.0061893822,  -0.0153258415, 0.0390211679,  0.0085149910,  -0.0563477352, 0.0585263297,
    0.1308556795,  0.0291182809,  -0.0494102761, -0.0279191844, 0.0002100755,  0.5546772480,  -0.2250652909,
    -0.5960002542, 0.0368660912,  0.0351069830,  -1.0457959175, -0.0193158034, -0.0687266514, 0.0294584874,
    0.0304741058,  -0.6063022017, 0.0479554087,  0.3543168604,  -0.1647543758, 0.4151002765,  0.5927023292,
    0.0369217135,  0.1877718866,  -0.4108899236, -0.8684850931, -0.0650646091, -0.5334713459, 0.3685727119,
    -0.0024711322, 0.3164618611,  0.3290246427,  0.3174677789,  0.5689647198,  0.0119487131,  -0.0017232411,
    0.1511385888,  -0.0245076306, -0.2573692799, 0.0345959328,  -0.0144945998, -0.3072093129, 0.0377629474,
    0.2019411772,  -0.0135241337, 0.7739552855,  -0.0872047544, -0.0106268898, -0.2725397050, -0.1122459993,
    0.3538818359,  0.2059551775,  0.5403658748,  -0.1154610962, -0.4107205868, 0.4160876274,  0.0399494767,
    -0.3815422058, 0.4317961633,  -0.0273265708, -0.0011414662, -0.4350538254, -0.0436208844, 0.0784541443,
    -0.0078072771, -0.0214462057, -0.5320805311, -0.0219098926, -0.5725433230, -0.2413637787, -1.2555998564,
    -0.1182860062, -0.0321678072, 0.4499124289,  0.1929507703,  0.1390888542,  -0.1651152074, 0.0169600658,
    0.0079317233,  0.4918144941,  -0.4162785411, 0.1136433110,  -0.7038186789, -0.4256927967, -0.0443868265,
    0.0119067803,  0.6235798001,  0.0439075939,  -0.1331029534, -0.0209721494, -0.0101545481, -0.5826767683,
    0.0016922839,  0.0107500199,  0.6613684297,  0.0096620312,  -0.8467749953, -0.0212519523, -0.2839061916,
    0.0088990871,  -0.3103987575, -0.0481924191, 0.2750563025,  0.7255851626,  0.0206207428,  -0.1890642494,
    -0.9130650163, -0.3930812180, -0.1302175373, 0.0280487537,  -0.0232239123, -0.4841814637, 0.0483692400,
    0.9080810547,  -0.0317223892, -0.0076600569, -0.9822427034, -0.0170758255, 0.1477649659,  0.1290871054,
    -0.4550983310, -0.4435813427, 0.0177123286,  0.6803352237,  -0.1834562719, -1.1524848938, -1.0398877859,
    -0.4649286866, 0.4694361389,  0.3323754072,  -0.1144977063, 0.4595791698,  0.0876737237,  0.8537898660,
    -0.0482646413, 0.0048400983,  -0.7586640716, 0.0464481227,  -0.5925642252, -0.0411571264, -0.0424648672,
    -0.1133467332, 0.0350278206,  -0.4751182497, -0.5563073158, -0.1296347231, 0.0313198157,  -0.0102985613,
    0.1861536503,  0.5267242193,  0.0368519723,  -0.3862408698, 0.2183276862,  -0.2191678733, 0.5044022202,
    -0.2727276385, -0.5753355026, -0.7795884013, -0.4371784329, -0.0385104008, 0.0453653373,  0.9454209805,
    -0.0213055965, 0.4308182895,  -0.0147529943, 0.0073038843,  -0.3879997432, -0.0085734846, -0.3646063507,
    0.8428437114,  -0.5474193096, -0.1213414371, -0.0447582118, 0.3180017769,  -0.6903175712, -1.5116691589,
    -0.4761842191, 0.3577857614,  0.8554373980,  -0.3223759830, -0.3117367029, 0.0420887396,  0.0089452937,
    -0.0616157129, 0.0011440844,  -0.0256317016, -0.0264497921, -0.0221411716, 0.0136214150,  -0.0284178350,
    0.0181288514,  -0.0289485678, 0.0008052384,  0.0214692168,  -0.0017591950, 0.0450270809,  -0.4118867815,
    -0.0074286349, 0.0637306646,  -0.0332321078, -0.2063446492, 0.1343170851,  0.0676441118,  -0.0789061263,
    0.0039714044,  0.0469334908,  -0.4258472323, -0.0031129576, 0.1694611311,  -0.0229218155, 0.0065105185,
    -0.1568274647, 0.0442711748,  -0.4040796161, 0.0128678223,  0.0067370874,  -0.0270004030, -0.0364642292,
    -0.2776701748, -0.2626651525, -0.2820671797, 0.6879999638,  -0.0167431831, -0.0217852611, 0.2239535451,
    0.1765681207,  0.0004533622,  0.1616515517,  0.4690179527,  -0.2932064235, -0.1863811612, -0.4326858819,
    0.5367636681,  0.8232741952,  -0.0076241791, -0.0208735596, 0.3781396747,  0.0083103403,  0.0368625633,
    -0.0208129082, -0.0092617041, -0.0518519543, 0.0075824461,  -0.2745567262, 0.7515665889,  -0.3270216882,
    -0.1037794799, 0.0054932609,  -0.0004360063, 1.5855798721,  -0.5013164282, 0.2409702539,  0.5102282763,
    0.0323204994,  0.0443114154,  -0.0743079633, 0.5015363693,  -0.4499847591, -0.5266178250, -0.0303816795,
    0.0113547444,  -0.4145325720, 0.0155029558,  -0.5903900266, 0.0132576860,  -0.0552800857, -0.3000935614,
    -0.0300054196, -0.1883252263, 0.1547352970,  -0.4416965246, 0.0176533815,  0.0298686288,  0.0877649859,
    0.3754878938,  0.5241811872,  -0.1328917295, 0.1846721023,  -0.0684443712, 0.0305131841,  -0.0899124667,
    0.0746154487,  -0.2723464668, 0.0320945904,  -0.0005060069, 0.0357921608,  0.4950470328,  -0.0148497112,
    0.1005883962,  0.0352807678,  0.0172633622,  -0.0869081467, -0.0152430534, -0.1883669794, -0.2390221804,
    0.0668689683,  -2.5013699532, -0.0269711744, -0.1674331278, 0.1789376289,  -1.2393864393, -0.2605231106,
    0.4330428243,  0.2570144534,  -0.0086775580, -0.1490048021, -0.5241391063, -0.0278369375, 0.2762182951,
    0.0199576281,  0.0066871047,  0.7151912451,  -0.0024265163, 0.3064782321,  0.0487763546,  -0.0112981694,
    -0.2035348862, 0.0493254997,  -0.2012788653, 0.1452431232,  -0.2540090382, 0.2975836694,  -0.0369952545,
    0.0682778209,  -0.1628300995, 0.0986325592,  -0.7109689116, 0.3238805830,  0.5708168745,  0.0253408048,
    -0.2716795206, 0.9938709736,  -0.0739620626, 0.0717267692,  0.0293982662,  -0.0265223514, -0.3170827329,
    0.0181263424,  -0.7185852528, 0.0195867456,  0.0033374443,  0.3110558093,  0.0028834590,  0.2549804747,
    -0.4352625012, -0.0825110674, 0.0671706498,  0.0240719654,  -0.5600070953, 0.3716776669,  0.6693077683,
    -0.1732302159, -0.0300535280, -0.3385710716, -0.0674085692, 0.1381938905,  -0.8376773596, -0.2104889005,
    -0.3976771533, 0.0174542665,  -0.0294472463, 0.5069975257,  0.0314344503,  0.1266442239,  -0.0184428375,
    -0.0113735562, -0.6051728725, -0.0321377702, -0.2472074926, 0.4815337062,  -0.2199861258, 0.7497748137,
    -0.0454755314, 0.3922365904,  -0.6062285304, -1.6602826118, -0.6259492040, 0.5432906747,  0.8129641414,
    -0.1297754496, -0.1781818271, -0.0433640033, 0.0857717618,  -0.0634498149, -0.0337122343, 0.0376215614,
    -0.1296353936, -0.0357829705, 0.0735422820,  -0.0182135999, 0.0211684871,  -0.0388115384, 0.0320480876,
    0.0199006833,  0.0938707665,  -0.0393314250, -0.2282720208, -0.0348386541, 0.0919079781,  -0.0631114319,
    -0.2506425679, -0.1178641915, 0.0474984273,  -0.0599489510, 0.0388556086,  0.0208455287,  0.1706432998,
    -0.3912288845, 0.0646863803,  -0.0412294790, 0.0065013990,  -0.6113595366, -0.0309886932, -0.4187072515,
    0.0181138869,  0.0137019735,  0.5188140869,  -0.0054722503, -0.1139752790, -0.2633494437, -0.1226351783,
    -1.1872086525, 0.0032318123,  0.1287258714,  -0.0034283027, 0.2808924615,  0.0632052049,  -0.2965689003,
    -0.0082631623, 0.3466319144,  -0.2775699794, 0.2096666694,  -0.2093079388, -0.2335083485, -0.0226903427,
    -0.0181468017, 0.2967273891,  -0.0483438261, 0.2503305972,  -0.0409849882, 0.0516897514,  0.3434285820,
    -0.0291223079, -0.1667241752, -0.1001765728, 0.2396512926,  0.5946724415,  -0.0358862393, -0.0951117501,
    -0.1029280201, -0.2618341744, 0.3290935159,  0.0175822675,  -0.4756616056, -0.1702777147, 0.1173091084,
    0.6074576974,  0.1073398814,  -0.3684058785, 0.0480201729,  -0.0015499704, 0.5559393167,  0.0338939913,
    -0.4553005397, 0.0349906124,  0.0031389890,  -0.3105476499, 0.0079499427,  -0.1186323687, 0.2069108784,
    -1.0224379301, 0.0116371298,  -0.0004839785, 0.0869038552,  0.0972586870,  -0.0391659029, 0.2789616585,
    0.0861895606,  0.0461108424,  -0.1098890752, 0.0860277712,  -0.4243687093, -0.0834341794, 0.0190984122,
    -0.0063930326, 0.0137155987,  0.7129291892,  -0.0202291254, 0.3586359024,  -0.0238374118, -0.0155034000,
    -0.7634453177, 0.0053239241,  -0.4975944161, -0.0906796083, -0.3312668502, -0.2476382852, -0.0328092724,
    0.1509385556,  0.2201244086,  -0.6723868847, -0.1287524849, 0.9522626996,  0.4031330645,  -0.0488846414,
    -0.6026415229, -0.0940965116, 0.2768926620,  -0.8198524117, -0.0326367989, -0.0255582817, 0.8920773268,
    -0.0109668858, 0.3828944266,  0.0119301453,  -0.0123951333, -0.1709069312, 0.0238716714,  -0.1706337482,
    0.3240826428,  0.0393569022,  0.4952742457,  -0.0015368350, -0.0197133217, 0.0394634083,  -0.2541337311,
    -0.2783952951, 0.3719478846,  -0.1173014492, -0.3776190877, -0.4898634553, 0.4771644473,  -0.1552882195,
    -0.0168435965, 0.0220468529,  -0.0234047771, -0.1242834181, -0.0035077333, -0.7012911439, 0.0329820998,
    -0.0014328394, 0.2872559428,  -0.0355794802, 0.2669203281,  0.0872863978,  0.0738353357,  -0.4003589749,
    0.0020517111,  -0.4586439133, 0.5128808618,  0.0952107608,  0.0757242739,  -0.1753569543, -0.0696651936,
    -0.2118204683, 0.2049609423,  -0.7322594523, -0.2756121457, -0.3130523264, 0.0488914773,  0.0454624332,
    0.1791424453,  0.0192562677,  0.6879280806,  -0.0109258108, -0.0589247681, -0.5332060456, -0.0355291367,
    -0.6683956981, 0.7817873955,  -0.3539718986, 0.5217394829,  0.0450545587,  1.2865257263,  -0.4225950837,
    -0.9668461084, -0.2438656390, 0.6077676415,  0.7250677347,  0.2058400363,  -0.6094794869, -0.0127743725,
    -0.0269410182, -0.0443292111, -0.0047174916, -0.0286554936, 0.0164860860,  0.0216391198,  0.0000547430,
    0.0034230519,  -0.0193539821, -0.0048638578, -0.0331782587, -0.1216600835, 0.0783850402,  -0.2200009823,
    -0.5484527349, -0.0338481553, 0.1067893505,  0.0193015374,  0.0190553423,  0.0077600847,  0.0194670819,
    0.0364076868,  0.0389590003,  -0.0194327328, -0.5235614777, -0.3690682352, -0.0535990894, 0.0222456716,
    -0.0237181541, -0.3437302709, 0.0336950310,  -0.2471015453, 0.0347703956,  0.0105486372,  -0.1146475747,
    -0.0128530264, -0.7887002230, -0.2139095515, -0.2573784292, 0.5604884624,  -0.0414251201, 0.0268225595,
    -0.0052164104, -0.4037641585, 0.5882292390,  0.1508283466,  0.0373637229,  -0.5168998837, -0.5980069041,
    0.0902188942,  -0.3578412831, 0.4200122952,  0.0489844419,  -0.0343268141, 0.2538180053,  -0.0488515757,
    0.1652212143,  0.0102397157,  -0.0399376042, 0.6666966081,  -0.0027583018, 0.6611607671,  0.2796159685,
    0.3751438558,  0.2801287174,  -0.0047272928, -0.7540323734, -0.1706158668, -0.4846105278, -0.5296305418,
    -0.0237145554, 0.0754747763,  -0.4194953144, 0.4079932868,  0.1623633057,  -0.3142811954, -0.6698747873,
    -0.0349363089, 0.0393353440,  0.4525082111,  0.0487212576,  -0.1602965444, 0.0442362241,  -0.0024233470,
    -0.2512975633, 0.0364286639,  -0.4211257696, -0.1201224327, -0.7451843023, -1.2653163671, 0.0160685070,
    0.0687002018,  -0.1986775994, -0.1360448450, -0.0749344677, -0.1515689939, 0.1962397844,  -0.2993898094,
    -0.1054843217, -0.5224688649, -0.0881583691, 0.3346495926,  -0.0048073307, 0.0400011428,  0.7032503486,
    0.0217781998,  0.5896643400,  -0.0448040739, 0.0197922196,  -0.5217272639, -0.0366307609, -0.5235586762,
    0.7335209846,  -0.6986209154, -1.3687721491, 0.0277355798,  0.8085011244,  0.1786081195,  -0.1857656986,
    -0.1415506601, 0.6941767931,  0.5569129586,  0.0070422618,  -0.7057129145, -1.6167650223, 0.4103705585,
    -0.6340282559, -0.0154078826, 0.0446273200,  0.8124088049,  -0.0420845263, 0.1450776011,  0.0106168017,
    0.0039060870,  -0.3815846443, 0.0423646010,  0.0475320518,  0.3476380408,  -0.5829945207, -0.6226695180,
    -0.0224926602, 0.6960749626,  0.2341582626,  -1.4045158625, 0.2748194635,  -0.0400918908, -0.0817347243,
    0.0842497200,  0.1486685127,  0.5849114060,  0.1625861973,  -0.2580044866, 0.0302444436,  -0.0218294747,
    0.1385417581,  -0.0310730822, -0.5560604930, -0.0437082313, -0.0103870695, -0.0567841679, -0.0021472089,
    0.0536326170,  0.1611684412,  -0.1831469238, 0.2545364499,  -0.0459524058, -0.1049438119, 0.2443634421,
    0.0227323826,  0.1885968298,  0.0852972195,  0.1999463588,  0.0207023229,  0.0881121606,  -0.5414125919,
    -0.3002434075, -0.1424637288, 0.0200603493,  0.0113324746,  0.5935490727,  0.0293819644,  0.6670605540,
    -0.0253547784, -0.0393749438, -0.7709679008, -0.0365138873, -0.4396755397, 0.6884223819,  -0.2611112595,
    -1.8774693012, -0.0382625945, 0.8725510836,  -0.4928644598, -0.2189266533, 0.2001470923,  0.5869948268,
    0.5472967625,  0.7693622112,  -0.5423539877, -0.0667493343, 0.0380085669,  -0.0239525307, -0.0449014418,
    0.0077688210,  -0.1430912316, 0.0260939710,  0.0525648743,  0.0446856730,  0.0048831305,  0.1151780188,
    -0.0031947494, -0.0155405290, -0.1372660995, -0.0895780846, -1.4037353992, -0.0026806965, -0.1067251340,
    0.0272771921,  -0.0559473746, 0.0230121389,  -0.0061843856, 0.0015697938,  0.0832877457,  -0.0696524903,
    -0.3867762685, 0.8635419607,  -0.0891173854, 0.0034306645,  -0.0194078218, -0.6117094159, -0.0385323875,
    0.0980508998,  0.0028843454,  0.0030354180,  -0.5710870028, -0.0170821771, -0.3774715364, -0.0032055390,
    -0.0651721805, 0.0269364621,  0.0278133489,  -0.2507851720, 0.2601221800,  0.6104131937,  -0.2581859231,
    0.4611452520,  0.1026301757,  0.5664731860,  -0.4654701352, 0.8525296450,  -0.7390667200, 0.1472975314,
    -0.0111428984, -0.0404090881, 0.3386467993,  0.0248792283,  -0.2538463473, -0.0259546135, -0.0171344150,
    -0.3922840655, -0.0310988780, -0.1847026944, -0.1067288741, 0.0350882299,  0.0545480996,  -0.0285120849,
    -0.1929141283, 0.1348992586,  0.4968050718,  0.2134823650,  -0.0042959554, -0.3756020069, -0.0269969516,
    -0.1611916125, -0.2077403367, -0.2371500582, -0.6373690367, -0.0304267760, -0.0349376425, 0.7959181666,
    -0.0316127092, -0.1119868234, 0.0337211527,  -0.0071961484, -0.0262746271, 0.0020413511,  -0.2010388523,
    0.2658497691,  0.0118317511,  -0.5845263004, 0.0029303320,  -0.0133678624, -0.0977094546, -0.3142478466,
    0.3855778277,  0.2161775231,  0.2007939517,  -0.0901769325, -0.1543459892, 0.0224080794,  0.2095545381,
    0.4173698127,  -0.0358691216, -0.0145311728, 0.9287641644,  0.0244402178,  0.9638146758,  0.0150271170,
    -0.0541157387, -0.4310163558, -0.0316328891, -0.4609151185, 0.1989493966,  -0.3272954524, -0.7784904838,
    -0.0165412538, 0.2622301280,  -0.6295908093, 0.2951786220,  0.2422311753,  0.8495292068,  0.6268782020,
    0.1836655438,  -0.6979805231, 0.1071579084,  -1.9053711891, 0.5337630510,  -0.0393848419, 0.0199204572,
    0.3263296187,  0.0102138408,  0.4045059979,  0.0067795031,  0.0336568840,  -0.0957986638, -0.0441556461,
    -0.4123474360, 0.1715452522,  -3.2899777889, -0.1192793176, -0.0152495131, -0.1897758394, 0.1874453872,
    -0.6838648319, 0.4448648095,  0.3387575150,  0.7274349332,  -0.2438905537, -0.1766054630, 0.2571379244,
    -0.3342683911, -0.0333744362, -0.0496788397, -0.0060048699, 0.0281973872,  0.0298788287,  -0.5464175940,
    -0.0316888839, -0.0078338645, -0.0942152888, 0.0147767402,  -0.0103216004, -0.0674225315, -1.3291354179,
    -0.3171196878, 0.0113801248,  0.0392228104,  0.2852381170,  -0.1502476782, 0.0695211142,  0.0142092993,
    0.2161683738,  0.1448096037,  0.1512847692,  -0.8002882004, -0.0595479496, 0.5712021589,  -0.0227902662,
    0.0353799127,  0.1896413714,  -0.0004423037, 0.9913336039,  -0.0143754967, -0.0395907573, -0.6992436051,
    0.0183372013,  -0.8203246593, 0.5868998766,  -0.4024432600, -1.3700423241, -0.0025487542, 0.9975725412,
    -0.2618308365, -0.6395715475, 0.2104645967,  0.5754511952,  0.7471023798,  1.0783131123,  -0.7854349017,
    -0.0068165897, 0.1311189681,  0.1236141175,  -0.0060322173, -0.0189587362, -0.2687618136, 0.0417966880,
    0.0198493917,  -0.0133285644, 0.0169729777,  0.0958536118,  -0.0073037259, 0.1229945868,  -0.1836925745,
    0.1018262282,  -1.1953188181, -0.0320160165, -0.1015609577, -0.0014065404, 0.0876024812,  -0.0653611943,
    -0.0779995173, -0.0327110328, 0.0981066823,  0.0758420303,  0.4111435711,  -0.3568826318, 0.3434506059,
    0.0279183425,  -0.0183128715, -0.2883189619, -0.0283980723, -0.2920386493, 0.0278911013,  -0.0313658006,
    0.6201892495,  0.0323423184,  -0.0395300500, -0.4890304804, -0.3237088025, 0.1850017756,  -0.0082991496,
    -0.2044751197, -0.2546317875, -0.1463038176, 1.0237698555,  0.2653035820,  0.1094458923,  -0.3526209593,
    0.0814269111,  -0.1548318565, 0.4255304635,  -0.1347719580, -0.0227344986, -0.0373442285, -0.1933275908,
    0.0265721716,  -0.1351318061, -0.0286027025, 0.0318547115,  -0.4003780782, 0.0147478320,  0.0300735664,
    0.2054808438,  0.3550937772,  0.0463373661,  -0.0228597168, 0.0476531982,  -0.4984072745, 0.8174489141,
    0.1830573529,  0.2413281500,  0.1680587232,  -0.1579141021, 0.3081762493,  -0.1589800268, -0.1786419451,
    0.5353065729,  -0.0170124173, 0.0236417912,  1.8752166033,  0.0207607262,  0.3994472623,  -0.0423962586,
    -0.0356416479, -0.1865476072, 0.0499989428,  -0.2910636365, 0.3568102717,  -0.8324245811, -0.4837874174,
    0.0449443720,  0.3211084306,  0.4314349890,  -0.5057532787, 1.0553083420,  0.4730113745,  0.1899735034,
    0.3485227227,  -0.4126980603, -0.4424137771, -0.1170865819, 0.4439237416,  0.0269787647,  0.0181932710,
    0.3949256539,  0.0440328233,  0.2834262550,  -0.0164299011, 0.0375958458,  -0.2360804081, -0.0036757477,
    -0.8198620081, -0.0002998045, -0.7792702317, -0.5419439077, -0.0194247607, 0.2417463362,  -0.4271444976,
    -0.0764846727, 0.1383299977,  0.5036548972,  0.2920281589,  0.8199911118,  -0.5878306627, -1.2778795958,
    0.7124420404,  1.3059445620,  -0.0286112316, 0.0316767804,  0.1078707576,  0.0366549157,  1.7090015411,
    0.0080462322,  0.0222956222,  -0.1941069961, 0.0396030061,  -0.0920261592, 1.0979866982,  -0.7296712399,
    -0.5150372982, 0.0039320104,  0.6271898746,  -0.8605564833, -1.2512462139, 1.1115969419,  0.0502445102,
    -0.0068334118, 0.1084898785,  -0.3850990832, 0.4214206636,  -1.0038114786, 0.2044304609,  0.0078590885,
    -0.0108357556, -0.3498951197, -0.0056974664, -0.2641506791, -0.0335249528, -0.0272149052, -0.3646773696,
    -0.0355445854, -0.5063526630, 0.3608566523,  -0.4627398551, -0.2056866288, 0.0314389728,  0.3119669855,
    -0.0745992735, 0.2019843161,  0.4260723293,  0.1498487443,  0.5227327943,  0.1954478025,  -0.3949721754,
    -1.0407074690, -0.2556259632, 0.5501220226,  -0.0202705264, 0.0399887599,  0.0332411751,  0.0181643404,
    0.4340880811,  -0.0158595555, 0.0280248299,  -0.7869564891, -0.0438322090, -0.2051930130, 0.5463204384,
    -0.2414627969, -1.2405043840, 0.0408474468,  0.2430282831,  -0.8686886430, -0.3778093159, 0.2200338393,
    0.8543496728,  1.0129809380,  0.9148719907,  -0.1336318254, -0.0621013120, -0.0424140245, 0.0459826365,
    -0.0464573763, -0.0030330308, -0.2646920979, -0.0006133430, -0.0221885610, 0.0077072424,  -0.0334133096,
    0.0190080479,  -0.0366195552, 0.0594232604,  -0.0967265293, 0.1483206749,  -1.0690969229, 0.0136405267,
    -0.2495157272, -0.0741728023, 0.1747024208,  -0.0292489193, 0.0105351172,  -0.1137630865, -0.0775343254,
    0.0247715060,  -0.4604588449, 0.5981205702,  -0.6210471988, -0.0354419947, -0.0266215336, 0.1559787691,
    -0.0235465523, 0.6589985490,  -0.0131545644, -0.0098283142, 0.1084643453,  -0.0228822827, 0.2508457601,
    0.3650615811,  0.1267749220,  -0.0162414368, -0.0315973312, 0.7237749696,  -0.0600906387, 0.8835039735,
    1.2918497324,  0.1131694168,  -0.1085247472, -0.2277299166, 0.0366072915,  0.1433445960,  0.3335800171,
    0.3501141369,  0.0115572810,  0.0318727382,  0.5640623569,  -0.0335407257, 0.0249900799,  0.0038993331,
    -0.0248970166, -0.2782051861, -0.0410117395, 0.2523306310,  0.3517462909,  0.2121896595,  -0.1162448376,
    0.0054595582,  -0.4676983058, 0.4563185275,  -0.1712279469, -0.1131843030, 0.5749317408,  0.0786591992,
    0.0123988315,  0.2857176960,  0.1028187424,  -0.4653768241, -0.0813126788, -0.0188388824, 0.0421144478,
    0.9026269317,  -0.0141519532, 0.1383557618,  0.0367890857,  0.0053361808,  -0.0178884547, 0.0094673038,
    -0.2738531828, 0.3822990954,  -0.1030377969, -0.3883157372, 0.0101224557,  0.1001654044,  -0.0747024119,
    0.6006180048,  0.6424841285,  0.1733836979,  0.4141313434,  0.2577677667,  0.0196546391,  0.0306565147,
    -0.0644585490, 1.1456140280,  -0.0261694919, -0.0351552740, 0.0118874945,  -0.0269273873, 0.2447904199,
    0.0277601518,  -0.0310750119, -0.8901538253, -0.0329257250, -0.7822555900, 0.8472951651,  -0.5997539163,
    -0.5599926710, -0.0345624685, -0.0284180790, -0.3063721359, 0.1183450669,  0.7996146083,  1.3596835136,
    0.5488421917,  0.2623258829,  -0.8360809088, -1.0534168482, 0.2761985064,  0.0701652467,  0.0265866555,
    -0.0175058469, -0.5787774324, 0.0162952580,  -0.5390081406, 0.0217363723,  0.0048607374,  0.5082998276,
    0.0298146345,  0.7032709122,  -0.4476767182, 0.6333382726,  -0.0702254623, -0.0111619607, -0.2203527093,
    -1.3252762556, 0.1918622106,  -0.5391735435, -0.6053310037, -0.4060880840, -0.5177740455, 0.7152566314,
    -0.1525194645, -0.7066713572, -0.1851055920, -0.0405507907, -0.0179623142, 0.6384886503,  -0.0350592025,
    0.2167061567,  -0.0110048875, 0.0403056815,  0.1018915400,  0.0335987471,  0.1785299480,  0.0907991529,
    -0.9045218825, -0.2081759572, 0.0145147778,  0.2902441025,  0.1892959177,  -0.6062126756, -0.1715902835,
    -0.2030725628, -0.0454456098, -0.0325598530, 0.0316967256,  -1.0412836075, 0.1042325199,  0.7389448881,
    -0.0315108448, 0.0161139406,  0.6608737111,  -0.0278646350, 0.6341997385,  0.0240364224,  0.0289974492,
    -1.0020937920, -0.0050924048, -0.8173771501, 0.0980714336,  -0.6252622604, -1.0978114605, 0.0140398778,
    0.4661926031,  -0.0560285747, -0.5825963616, 0.9664432406,  0.4695834517,  0.1042769328,  0.6328668594,
    -0.8096875548, -0.1974821538, 0.0603384487,  0.1525808424,  0.0068174973,  0.0268414356,  -0.7763271332,
    0.0174683444,  0.2644013166,  -0.0111980326, -0.0471895151, -0.0116205923, -0.0227108840, -0.1594015211,
    0.0952647924,  0.0387158804,  -0.9336721897, 0.0474351905,  0.0543322414,  -0.1767173111, -0.0091935284,
    -0.1534161121, 0.0854202509,  0.0338279344,  0.1157898754,  -0.0844622776, 0.0474394448,  0.3694055676,
    -0.6652798057, 0.0305196084,  -0.0066180341, 0.8347792625,  0.0477602221,  0.4235672951,  -0.0132840648,
    0.0128012868,  -0.0184550937, 0.0343486406,  0.0460694805,  -0.1225851104, -0.1292703748, -0.1817471832,
    -0.0478985421, 0.2783367634,  -0.5327829719, -0.2661572695, 0.8686574101,  -0.0709094033, -0.0582687892,
    0.0423842631,  -0.1033001021, 0.6995526552,  -0.1032795608, 0.3756015301,  -0.0467913263, 0.0386442803,
    0.2745943069,  0.0066912882,  -0.1094110534, -0.0350673199, -0.0435243323, -0.2208653539, 0.0376370810,
    0.6540331244,  -0.8201739788, 0.1041640341,  0.0678936169,  0.0339470543,  -0.1251623631, -0.5500101447,
    0.2536099851,  -0.5599420071, -0.8515334129, -0.8221063614, 0.0267463233,  0.3377620280,  0.0956432298,
    -0.7992894650, 0.0376259387,  -0.0492405891, 0.0248947479,  -0.8014723063, 0.0386015065,  0.3422433138,
    -0.0049428940, -0.0233486611, 0.0531458147,  0.0204061605,  -0.4921406209, 0.2143180966,  -0.9124107361,
    -0.5282543302, -0.0082188137, 0.3940183222,  -0.0703973770, 0.2838156521,  0.1259212643,  -0.0552438870,
    0.0686918423,  -0.0180950686, -0.0875097886, -0.2869284451, 0.1590942740,  0.3322785795,  0.0325080790,
    0.0033236369,  0.0557972416,  -0.0277688149, 0.4219309092,  0.0037146322,  -0.0338882506, -0.4120204747,
    0.0432067402,  -0.7439932227, 0.3922487497,  -0.4141609371, -0.3591470718, 0.0238076113,  0.2847858965,
    0.1163747385,  -0.3206885457, 0.1907688230,  0.0906408504,  0.3747521043,  0.2750247419,  -0.7959539294,
    -1.1823486090, 0.1879484802,  0.9548650384,  -0.0111556277, 0.0337821878,  3.7001430988,  0.0358772390,
    1.1270211935,  -0.0360346325, -0.0162308309, -0.0125768138, -0.0061665662, 0.0613936894,  -0.3352574110,
    0.2092920393,  -0.3123878837, -0.0001231916, 0.6323376298,  -0.6722851396, -1.9193249941, -1.1372646093,
    -0.6384195685, -0.6505790353, -0.1470468044, 0.0513535812,  0.0227893032,  -0.3263072968, 0.2549263537,
    -0.0148570053, 0.0227769949,  0.3594914079,  0.0248929597,  0.0588637441,  0.0340429060,  -0.0331005305,
    -0.2544456422, 0.0161518119,  -0.1758094430, 0.5367755294,  -0.7055914998, -0.3781234324, -0.0464113355,
    0.0190908965,  0.2719711363,  -0.4060737491, 0.6330465078,  0.7658862472,  0.3664361835,  0.1379054785,
    -0.3733623028, -0.6987259984, -0.0851245970, 1.5353600979,  -0.0303403623, 0.0126178898,  0.8448222876,
    -0.0277430657, 0.0630089492,  0.0197844543,  0.0351737067,  -0.3107087314, 0.0025146492,  -0.3074116111,
    -0.0241411477, -0.4679161012, -0.8294273615, 0.0100592971,  -0.1811828911, 0.1472923756,  0.0489724167,
    0.7992106080,  0.2863916159,  0.0960692614,  0.4893977344,  -0.3130331337};
#endif
