//Numpy array shape [25, 10]
//Min -1.045674681664
//Max 0.718651175499
//Number of zeros 0

#ifndef W2_H_
#define W2_H_

weight_default_t w2[250] = {
    -0.7057377100, 0.1404066533,  0.2397147864,  -0.0538846180, -0.0136500485, -1.0456746817, 0.2339422107,
    -0.2464046478, -0.0155451894, 0.3114753366,  0.0252490267,  0.0652531609,  0.2230684459,  -0.0703721792,
    -0.0061709168, -0.4667471945, 0.2732006609,  -0.1566423327, -0.0504947454, -0.2795722485, 0.3157102764,
    -0.2208270580, -0.3470733166, -0.0298985839, 0.0033523447,  0.4046282768,  -0.3606239557, 0.6249889731,
    -0.0325289443, 0.3911077976,  -0.0111113638, 0.0061787963,  0.0062978785,  -0.0141930580, 0.0326538198,
    -0.0164757688, -0.0086768735, 0.0389737710,  -0.0255079512, 0.0343580954,  -0.0220158268, 0.0359050333,
    0.0078137182,  -0.0094889030, 0.0315879099,  -0.0038071091, -0.0228841919, 0.0211039726,  -0.0303417332,
    0.0266918801,  0.0846779272,  -0.1972407401, -0.2197024226, -0.0482244752, -0.0594943352, 0.6427704096,
    -0.1127861366, 0.3480221033,  -0.0235439185, 0.1047359556,  -0.0122122988, -0.0466807000, 0.0192838348,
    0.0184221603,  0.0298816897,  0.0179036893,  0.0378936641,  -0.0134130828, 0.0245604031,  -0.0230461247,
    0.4430962801,  -0.3229490817, -0.4796850085, -0.0328346863, -0.0463326760, -0.1059406400, 0.0650193691,
    0.1677540839,  -0.0191161763, -0.9446775317, 0.0047525112,  -0.0430214256, -0.0086042080, -0.0065273754,
    0.0322899334,  -0.0063139671, -0.0088419663, -0.0265105683, 0.0207859948,  0.0300601982,  -0.0358567573,
    -0.0101170968, -0.0055280370, 0.0417956375,  -0.0293978676, 0.0215279460,  -0.0163401272, 0.0019495651,
    -0.0018129245, -0.0349077098, 0.0724146366,  0.4244908690,  0.3408450186,  0.0095429150,  -0.0044469568,
    -0.1800813526, 0.1598049104,  -0.0686975494, -0.0571451373, -0.2389617860, -0.0001860010, 0.0376826450,
    -0.0334893614, -0.0493457690, 0.0032638730,  -0.0276949946, 0.0366198681,  -0.0292772222, -0.0406004563,
    0.0360089242,  -0.1218376979, 0.1806843132,  0.1113958284,  -0.0405312218, 0.0022432276,  -0.1337593943,
    0.0729509220,  0.1634687930,  0.0032948528,  0.0776214898,  0.1600115597,  -0.0854228437, -0.1109891087,
    -0.0564341992, -0.0124987122, 0.0338483378,  0.0216468368,  0.2892125845,  -0.0419363230, 0.0799390525,
    0.0079131620,  0.1280078143,  0.0930886343,  0.0150845889,  -0.0122468621, -0.3565736711, 0.3034112155,
    0.1370847970,  -0.0515636019, 0.1990947574,  -0.6926737428, 0.6633190513,  0.7186511755,  -0.0038143450,
    -0.0632954985, -0.5240395665, 0.6481059194,  -0.1913139373, -0.0223663468, -0.0330061354, -0.0007724538,
    0.0031711236,  0.0164572485,  -0.0087732449, -0.0083233602, -0.0083719268, 0.0295558013,  -0.0158381946,
    0.0207662024,  -0.0032593012, 0.0831812173,  -0.0175970923, -0.3239497840, 0.0158007033,  -0.0106937513,
    -0.0832406804, -0.0439340621, 0.0818050355,  -0.0590137169, -0.3678484261, -0.8252559304, 0.2230938077,
    0.3108801544,  0.0021616002,  -0.0497470722, -0.6720880866, 0.2066508830,  -0.5620029569, -0.0025763733,
    0.0753768012,  -0.3516313136, 0.3203991950,  0.3835750520,  0.0187730733,  -0.0582833514, -0.4428557158,
    0.4818525016,  -0.2054705173, -0.0675888211, 0.2989248335,  0.0312647708,  0.0990447775,  0.1213422418,
    -0.0735856369, -0.0349877253, 0.1899046749,  0.1087389141,  0.1551754475,  0.0041319388,  -0.5746779442,
    0.0658814609,  -0.1868388653, 0.0325599350,  -0.0466500595, -0.0395346284, 0.2296674401,  0.0618919656,
    0.1525417417,  0.0100804977,  0.2973885834,  0.0829108581,  -0.2141572684, -0.2578293085, -0.0191419479,
    -0.0261756163, 0.1556160152,  -0.1592844576, 0.1052642092,  -0.0549823083, 0.4501740336,  0.2459395975,
    -0.1690156311, -0.3005261421, -0.0201924089, -0.0455512740, 0.0550876595,  -0.5089792013, 0.3866674900,
    -0.0132356742, 0.3193220496,  -0.0581676178, 0.1859592199,  0.0603353418,  -0.0743811354, -0.0334267654,
    -0.0704199299, 0.1037535146,  0.1687176079,  -0.0629248247, -0.0154705839};

#endif
