//Numpy array shape [25, 10]
//Min -1.512127518654
//Max 2.787853240967
//Number of zeros 0

#ifndef W2_H_
#define W2_H_

weight_default_t w2[250] = {
    0.20997065,  0.23109458,  0.56466961,  0.22711204,  -0.20132071, -0.27363914, 0.14927717,  -0.16103272, -0.83456266,
    -0.16359854, 0.42116061,  0.25756207,  0.04047282,  0.21591994,  -0.26583776, -0.55054820, 0.41611665,  -0.02321975,
    0.07042803,  0.50135452,  0.00703545,  -0.20829202, -0.33702660, -0.12396229, -0.11880612, -0.27329573, -0.11452802,
    -0.31897750, 0.21264470,  0.13742544,  -0.28871939, 0.41868410,  -0.63091415, -0.19237195, -0.65478534, 0.38763866,
    -0.24744406, -0.16881032, 0.39083633,  -0.50035834, -0.19310105, -0.31465644, 0.00439816,  0.10827218,  -0.49906382,
    -0.32572702, -0.91848624, 0.37550700,  -0.71738565, -0.34755468, 0.06423171,  0.32547599,  0.02474762,  0.03221778,
    0.48550412,  -0.33728692, -0.32770881, 0.17164232,  0.55661368,  0.11896797,  0.36957362,  0.47705862,  -0.49895954,
    0.33941826,  0.19965869,  0.01562935,  0.11520918,  -0.64897013, 0.09584811,  -0.06691046, -0.22340138, -0.28523839,
    0.47164100,  0.39281282,  -0.27396747, 0.23841321,  -0.16906965, 0.23569225,  -0.15681265, 0.18717216,  -0.60413569,
    -0.08125137, 0.03988006,  -0.21231870, -0.22519483, 0.12118224,  0.16755132,  0.12627158,  0.01710406,  0.12804474,
    0.15039428,  -0.44942543, -0.31897655, 0.23188710,  0.18285972,  0.19390795,  -1.01665187, 0.21815108,  -0.29137248,
    -0.33327803, -0.59519506, 0.28375888,  -0.21275434, 0.20035347,  0.24234673,  -0.23726320, 0.13105272,  -0.11671171,
    -1.04230368, -0.01892293, 0.24302486,  -0.11491518, 0.00009525,  0.16215059,  -0.33812979, 0.25157502,  0.08174099,
    0.02176141,  0.21500087,  0.09077536,  -0.76118916, 0.10925286,  0.29795000,  0.12469041,  0.37909570,  -0.20281483,
    0.27489746,  0.37251407,  0.22438200,  0.38048640,  0.05875695,  -0.26088551, -0.21821247, -0.16538695, 0.41207287,
    -0.16648161, -0.84085250, -0.41789296, -0.34957457, -0.61002076, 0.31845343,  0.14742102,  0.19950806,  0.16061406,
    0.06558945,  -0.37494221, -0.08883159, -0.04767518, -0.01558618, -0.38022742, -1.51212752, 0.86078125,  0.19461697,
    0.17105880,  -0.30809617, -0.31512862, 2.78785324,  -0.00088534, 1.45783448,  1.60251164,  0.00830983,  -0.11042736,
    -0.09234238, -0.63981187, -0.12528154, 0.26517308,  -0.64378422, 0.26114368,  -0.03288542, -0.30414325, 0.06316128,
    0.20465648,  0.13085699,  -0.47638854, -0.23346442, 0.28762946,  0.11337498,  -0.16003485, -0.03085457, -0.34413737,
    -0.20898604, 0.25293669,  0.12700504,  -0.57297736, 0.37069905,  -0.10958206, -0.02782927, -0.04480676, 0.37059775,
    0.22780053,  -0.46436781, 0.21395527,  -0.12828122, 0.25643846,  0.42216083,  0.38164839,  -0.21980932, 0.36473754,
    0.07016987,  -0.35408738, -0.16640140, -0.25358951, 0.39250490,  -0.54550570, -0.19580491, -0.40004924, 0.17290805,
    0.03295039,  0.15710174,  0.38565248,  0.17310381,  -0.26752374, -0.01243732, 0.19979088,  -0.15178865, 0.05851814,
    -0.30287826, -0.22805928, 0.13903613,  -0.17035685, 0.42811340,  -0.32098049, 0.01897480,  0.19527332,  0.15685958,
    0.24155772,  -1.29652667, 0.23406981,  -0.14959824, 0.22470856,  0.06737669,  -0.17472392, -0.07033237, 0.12923102,
    -0.45487776, 0.28186423,  -0.08404353, 0.05938773,  -0.14591871, -0.37163615, -0.11934289, 0.09545202,  0.20201178,
    0.15774842,  0.09092412,  0.54094648,  0.01843318,  -0.20180281, -1.01475310, -0.02641589};

#endif
