//Numpy array shape [10, 10]
//Min -1.255380868912
//Max 1.165371656418
//Number of zeros 0

#ifndef W3_H_
#define W3_H_

weight_default_t w3[100] = {
    -0.24639761, 0.36854371,  -0.20667994, 0.63942766,  -0.48512432, -0.20601453, 0.95860600,  -0.76670301, -0.62915105,
    -0.16087309, -0.71208179, -0.22137630, -0.61618358, -0.28030652, -0.16592601, 0.01428368,  -0.02218036, 0.18670039,
    -0.05923353, 0.38925353,  -0.03025977, 0.18113941,  0.04013579,  -0.24923514, 0.04662795,  -0.21779495, -0.11618838,
    0.27686477,  -0.12692934, -0.14645813, 0.13050388,  -0.61944312, -0.97363800, 0.34909710,  -0.49283633, 0.35699531,
    -0.21654762, 0.29707199,  -0.37069076, -0.45038351, 0.23440604,  -0.01497080, -0.43628553, 0.47897390,  -0.57205141,
    0.28325596,  0.45101821,  0.30717590,  -0.82709831, -1.01788270, 0.11227678,  0.40207320,  -0.01430387, 0.33558398,
    0.14979517,  0.40087056,  0.56262153,  -0.08988120, -0.39212254, 0.19313116,  0.18044059,  -0.09485760, 0.07735054,
    -1.25538087, -0.37033975, 0.96087897,  -0.62376523, 0.97630143,  0.54678482,  1.16537166,  -0.38099980, 0.25253880,
    -0.48733908, 0.30896747,  0.00154836,  -1.06780457, -0.38455144, 0.22028424,  0.40647805,  -0.58109504, -0.29596746,
    -0.19207183, -0.55882788, 0.12817945,  -0.23813887, 0.05867399,  0.29090765,  0.50279891,  0.23116076,  0.11913682,
    -0.03850375, -0.61140555, 0.42096528,  -0.28724584, 0.06309307,  -0.41296995, -0.22518104, 0.10956753,  0.17092451,
    0.46520787};

#endif
