//Numpy array shape [10, 10]
//Min -1.066073656082
//Max 0.681088924408
//Number of zeros 0

#ifndef W3_H_
#define W3_H_

weight_default_t w3[100] = {
    -0.1038735062, -0.0083230771, -0.0552374311, -0.5224462748, -0.0573509037, -0.1265300810, -0.0112661421,
    -0.5452736616, -0.0644872189, -0.1275455654, 0.1141930372,  -0.0077123214, 0.1154981479,  0.3085378408,
    -0.0414689742, 0.0115689430,  -0.0417736508, 0.1851192564,  -0.0965978727, 0.0469020531,  -0.0236889981,
    -0.0430007130, 0.0516370200,  0.2873915136,  -0.0340524092, -0.1160606891, -0.0130381659, 0.1598475724,
    0.0319193080,  -0.2202762365, -0.0452292822, -0.0490893982, -0.0062470436, -0.0103780562, -0.0179754607,
    0.0128578581,  -0.0021512285, -0.0128093800, -0.0163365994, 0.0363431089,  0.0190900937,  0.0117608421,
    -0.0029030738, -0.0137901427, 0.0414321311,  0.0412845612,  -0.0302784089, -0.0485344902, -0.0001797759,
    -0.0344933569, 0.2524053454,  -0.0404473692, 0.4452796578,  0.1888252646,  -0.0498852022, 0.6810889244,
    -0.0330508612, 0.2906026244,  -0.1345981210, 0.5589192510,  -0.1634582132, 0.0017064024,  -0.0490242988,
    0.1130080819,  -0.0318347588, -0.0584588088, -0.0371478200, 0.1148293316,  0.1451935470,  -0.1724624336,
    0.0266404785,  -0.0216521453, 0.0870701820,  -0.4996633530, -0.0126784481, 0.0649333969,  -0.0329958349,
    -0.1830419898, -0.3936564028, 0.0841621608,  -0.0027621964, 0.0302785076,  0.0032740140,  0.0303986724,
    0.0166636966,  -0.0340096354, 0.0390744917,  -0.0281386729, 0.0063985521,  0.0091940211,  -1.0660736561,
    -0.0350735374, -0.6366914511, -0.6618690491, -0.0448695309, 0.1518789679,  -0.0225193389, -0.6637751460,
    -0.4656083286, -0.5459096432};

#endif
