//Numpy array shape [25, 15]
//Min -0.859375000000
//Max 0.750000000000
//Number of zeros 225

#ifndef W8_H_
#define W8_H_

weight8_t w8[375] = {
    0.000000,  -0.250000, 0.000000,  0.000000,  0.000000,  0.000000,  0.562500,  -0.187500, 0.312500,  0.234375,
    0.234375,  0.140625,  -0.203125, 0.000000,  0.000000,  -0.218750, -0.281250, 0.000000,  0.000000,  0.000000,
    0.187500,  0.296875,  0.000000,  -0.296875, 0.000000,  -0.203125, 0.328125,  -0.390625, 0.000000,  0.000000,
    0.593750,  -0.234375, 0.000000,  0.000000,  -0.375000, 0.000000,  0.000000,  0.000000,  0.000000,  0.000000,
    0.000000,  0.265625,  0.000000,  0.000000,  0.000000,  0.000000,  -0.343750, 0.000000,  0.000000,  0.062500,
    0.000000,  0.000000,  0.000000,  0.312500,  0.000000,  0.000000,  0.406250,  -0.265625, -0.421875, 0.000000,
    0.171875,  0.000000,  0.000000,  0.000000,  0.000000,  -0.328125, 0.000000,  0.000000,  -0.468750, 0.000000,
    0.000000,  0.000000,  0.000000,  0.562500,  0.453125,  0.453125,  0.000000,  0.000000,  0.421875,  -0.437500,
    -0.296875, -0.250000, -0.359375, 0.000000,  -0.234375, -0.625000, 0.000000,  -0.328125, 0.000000,  -0.359375,
    0.000000,  0.000000,  0.000000,  0.000000,  0.000000,  -0.343750, 0.000000,  0.000000,  0.000000,  0.000000,
    0.000000,  0.000000,  0.000000,  -0.859375, 0.000000,  0.000000,  0.671875,  0.000000,  0.000000,  0.203125,
    0.218750,  0.000000,  0.000000,  0.000000,  0.000000,  0.000000,  0.468750,  -0.234375, 0.296875,  0.000000,
    -0.640625, 0.359375,  0.000000,  0.000000,  0.000000,  0.000000,  -0.343750, 0.203125,  -0.312500, -0.234375,
    0.000000,  0.250000,  0.187500,  0.000000,  0.000000,  0.000000,  0.000000,  0.531250,  0.000000,  0.000000,
    -0.250000, 0.000000,  0.000000,  -0.187500, 0.000000,  0.000000,  0.000000,  0.000000,  0.000000,  0.000000,
    0.000000,  0.468750,  -0.218750, 0.375000,  0.000000,  -0.265625, 0.000000,  -0.218750, -0.296875, 0.265625,
    -0.562500, 0.281250,  0.000000,  0.390625,  0.437500,  0.000000,  0.000000,  0.218750,  0.625000,  0.000000,
    0.000000,  0.218750,  0.000000,  0.000000,  0.000000,  0.000000,  0.000000,  0.203125,  0.000000,  0.750000,
    0.000000,  0.000000,  0.000000,  0.000000,  0.000000,  0.000000,  0.000000,  0.000000,  0.187500,  -0.234375,
    0.265625,  0.171875,  -0.328125, 0.328125,  0.000000,  0.250000,  0.000000,  0.000000,  -0.218750, 0.000000,
    0.000000,  -0.281250, 0.000000,  -0.312500, 0.000000,  0.000000,  0.000000,  0.000000,  0.000000,  0.000000,
    0.500000,  0.125000,  0.000000,  0.265625,  0.312500,  0.203125,  0.562500,  0.000000,  -0.234375, 0.187500,
    0.000000,  0.000000,  0.203125,  0.000000,  0.000000,  -0.156250, 0.515625,  0.000000,  0.000000,  0.000000,
    -0.187500, 0.000000,  0.000000,  -0.296875, 0.000000,  -0.093750, -0.296875, 0.000000,  0.484375,  0.000000,
    0.453125,  0.000000,  -0.203125, 0.000000,  0.000000,  -0.406250, 0.000000,  -0.187500, 0.250000,  -0.343750,
    0.000000,  0.000000,  0.000000,  -0.343750, 0.000000,  0.000000,  0.000000,  0.000000,  0.578125,  0.000000,
    0.000000,  0.000000,  0.000000,  0.250000,  0.000000,  0.000000,  0.171875,  0.218750,  0.000000,  0.000000,
    0.000000,  -0.281250, 0.000000,  0.468750,  -0.375000, 0.000000,  0.000000,  0.000000,  0.000000,  -0.343750,
    0.000000,  0.453125,  0.000000,  0.000000,  0.000000,  0.281250,  0.609375,  0.000000,  0.000000,  0.000000,
    -0.218750, 0.000000,  -0.406250, 0.000000,  -0.328125, 0.000000,  0.000000,  0.000000,  0.000000,  0.000000,
    0.000000,  -0.734375, 0.000000,  0.000000,  0.000000,  0.000000,  0.000000,  0.000000,  0.250000,  0.000000,
    0.000000,  0.000000,  -0.328125, 0.000000,  0.640625,  0.000000,  0.000000,  0.000000,  0.000000,  0.000000,
    0.000000,  0.000000,  0.000000,  -0.593750, -0.375000, 0.000000,  0.312500,  0.312500,  0.000000,  0.562500,
    0.000000,  0.000000,  -0.593750, 0.000000,  0.281250,  0.218750,  0.359375,  0.000000,  0.000000,  -0.296875,
    0.000000,  0.000000,  -0.296875, -0.250000, 0.000000,  -0.500000, 0.000000,  0.000000,  0.593750,  0.000000,
    0.000000,  0.000000,  0.000000,  -0.328125, -0.343750, 0.531250,  0.000000,  0.000000,  0.000000,  0.000000,
    0.000000,  0.000000,  0.000000,  -0.234375, 0.000000,  0.000000,  0.000000,  0.000000,  -0.421875, -0.250000,
    0.000000,  0.000000,  -0.375000, -0.437500, -0.437500};

#endif
