<?xml version="1.0"?>
<MethodSetup Method="BDT::BDT">
  <GeneralInfo>
    <Info name="TMVA Release" value="4.1.4 [262404]"/>
    <Info name="ROOT Release" value="5.34/07 [336391]"/>
    <Info name="Creator" value="laurent"/>
    <Info name="Date" value="Mon Dec  2 18:22:26 2013"/>
    <Info name="Host" value="Linux laurent-laptop 3.2.0-43-generic-pae #68-Ubuntu SMP Wed May 15 03:55:10 UTC 2013 i686 i686 i386 GNU/Linux"/>
    <Info name="Dir" value="/home/laurent/TMVA-v4.1.2/trainingforCMSSW700"/>
    <Info name="Training events" value="137304"/>
    <Info name="TrainingTime" value="3.93812416e+02"/>
    <Info name="AnalysisType" value="Classification"/>
  </GeneralInfo>
  <Options>
    <Option name="V" modified="Yes">False</Option>
    <Option name="VerbosityLevel" modified="No">Default</Option>
    <Option name="VarTransform" modified="No">None</Option>
    <Option name="H" modified="Yes">False</Option>
    <Option name="CreateMVAPdfs" modified="No">False</Option>
    <Option name="IgnoreNegWeightsInTraining" modified="No">False</Option>
    <Option name="NTrees" modified="Yes">2000</Option>
    <Option name="RenormByClass" modified="No">False</Option>
    <Option name="BoostType" modified="Yes">Grad</Option>
    <Option name="AdaBoostR2Loss" modified="No">quadratic</Option>
    <Option name="UseBaggedGrad" modified="Yes">False</Option>
    <Option name="GradBaggingFraction" modified="No">6.000000e-01</Option>
    <Option name="Shrinkage" modified="Yes">1.000000e-01</Option>
    <Option name="AdaBoostBeta" modified="No">1.000000e+00</Option>
    <Option name="UseRandomisedTrees" modified="No">False</Option>
    <Option name="UseNvars" modified="Yes">4</Option>
    <Option name="UsePoissonNvars" modified="No">True</Option>
    <Option name="UseNTrainEvents" modified="No">137304</Option>
    <Option name="UseWeightedTrees" modified="No">True</Option>
    <Option name="UseYesNoLeaf" modified="No">True</Option>
    <Option name="NodePurityLimit" modified="No">5.000000e-01</Option>
    <Option name="SeparationType" modified="No">giniindex</Option>
    <Option name="nEventsMin" modified="Yes">100</Option>
    <Option name="nCuts" modified="Yes">2000</Option>
    <Option name="UseFisherCuts" modified="No">False</Option>
    <Option name="MinLinCorrForFisher" modified="No">8.000000e-01</Option>
    <Option name="UseExclusiveVars" modified="No">False</Option>
    <Option name="PruneStrength" modified="Yes">5.000000e+00</Option>
    <Option name="PruneMethod" modified="Yes">costcomplexity</Option>
    <Option name="PruneBeforeBoost" modified="No">False</Option>
    <Option name="PruningValFraction" modified="No">5.000000e-01</Option>
    <Option name="NNodesMax" modified="Yes">5</Option>
    <Option name="MaxDepth" modified="Yes">6</Option>
    <Option name="DoBoostMonitor" modified="No">False</Option>
    <Option name="NegWeightTreatment" modified="No">ignorenegweights</Option>
  </Options>
  <Variables NVar="6">
    <Variable VarIndex="0" Expression="kftrack_secR" Label="kftrack_secR" Title="kftrack_secR" Unit="" Internal="kftrack_secR" Type="F" Min="4.13709021e+00" Max="6.96140671e+01"/>
    <Variable VarIndex="1" Expression="kftrack_sTIP" Label="kftrack_sTIP" Title="kftrack_sTIP" Unit="" Internal="kftrack_sTIP" Type="F" Min="-1.75273865e+03" Max="1.75426599e+03"/>
    <Variable VarIndex="2" Expression="kftrack_nHITS1" Label="kftrack_nHITS1" Title="kftrack_nHITS1" Unit="" Internal="kftrack_nHITS1" Type="I" Min="0.00000000e+00" Max="2.20000000e+01"/>
    <Variable VarIndex="3" Expression="kftrack_Epout" Label="kftrack_Epout" Title="kftrack_Epout" Unit="" Internal="kftrack_Epout" Type="F" Min="2.47735552e-05" Max="7.53741028e+02"/>
    <Variable VarIndex="4" Expression="kftrack_detaBremKF" Label="kftrack_detaBremKF" Title="kftrack_detaBremKF" Unit="" Internal="kftrack_detaBremKF" Type="F" Min="2.16660879e-07" Max="5.37052155e-01"/>
    <Variable VarIndex="5" Expression="kftrack_ptRatioGsfKF" Label="kftrack_ptRatioGsfKF" Title="kftrack_ptRatioGsfKF" Unit="" Internal="kftrack_ptRatioGsfKF" Type="F" Min="7.37829614e-05" Max="1.76310098e+04"/>
  </Variables>
  <Spectators NSpec="0"/>
  <Classes NClass="2">
    <Class Name="Signal" Index="0"/>
    <Class Name="Background" Index="1"/>
  </Classes>
  <Transformations NTransformations="0"/>
  <MVAPdfs/>
  <Weights NTrees="2000" AnalysisType="1">
    <BinaryTree type="DecisionTree" boostWeight="1.0000000000000000e+00" itree="0">
      <Node pos="s" depth="0" NCoef="0" IVar="0" Cut="7.5729136466979980e+00" cType="0" res="2.0606100559234619e-01" rms="4.5556432008743286e-01" purity="7.0606100559234619e-01" nType="0">
        <Node pos="l" depth="1" NCoef="0" IVar="-1" Cut="0.0000000000000000e+00" cType="1" res="8.1693075597286224e-02" rms="2.8836786746978760e-01" purity="9.0846538543701172e-01" nType="-99"/>
        <Node pos="r" depth="1" NCoef="0" IVar="2" Cut="1.0994502343237400e-02" cType="0" res="-3.6028048396110535e-01" rms="3.4669578075408936e-01" purity="1.3971951603889465e-01" nType="0">
          <Node pos="l" depth="2" NCoef="0" IVar="-1" Cut="0.0000000000000000e+00" cType="1" res="4.6334147453308105e-02" rms="4.4308990240097046e-01" purity="7.3167073726654053e-01" nType="-99"/>
          <Node pos="r" depth="2" NCoef="0" IVar="-1" Cut="0.0000000000000000e+00" cType="1" res="-9.2543318867683411e-02" rms="1.8945541977882385e-01" purity="3.7283405661582947e-02" nType="-99"/>
        </Node>
      </Node>
    </BinaryTree>
    <BinaryTree type="DecisionTree" boostWeight="1.0000000000000000e+00" itree="1">
      <Node pos="s" depth="0" NCoef="0" IVar="0" Cut="7.0820817947387695e+00" cType="0" res="1.8549275398254395e-01" rms="4.2753443121910095e-01" purity="7.0606100559234619e-01" nType="0">
        <Node pos="l" depth="1" NCoef="0" IVar="-1" Cut="0.0000000000000000e+00" cType="1" res="7.2459951043128967e-02" rms="2.9838669300079346e-01" purity="8.9930635690689087e-01" nType="-99"/>
        <Node pos="r" depth="1" NCoef="0" IVar="2" Cut="1.0994502343237400e-02" cType="0" res="-3.4874773025512695e-01" rms="3.0228728055953979e-01" purity="1.1410985141992569e-01" nType="0">
          <Node pos="l" depth="2" NCoef="0" IVar="-1" Cut="0.0000000000000000e+00" cType="1" res="3.2221108675003052e-02" rms="4.6494823694229126e-01" purity="6.8391066789627075e-01" nType="-99"/>
          <Node pos="r" depth="2" NCoef="0" IVar="-1" Cut="0.0000000000000000e+00" cType="1" res="-8.5686132311820984e-02" rms="1.6802430152893066e-01" purity="2.9077677056193352e-02" nType="-99"/>
        </Node>
      </Node>
    </BinaryTree>
    <BinaryTree type="DecisionTree" boostWeight="1.0000000000000000e+00" itree="2">
      <Node pos="s" depth="0" NCoef="0" IVar="0" Cut="7.5729136466979980e+00" cType="0" res="1.6705207526683807e-01" rms="4.0427845716476440e-01" purity="7.0606100559234619e-01" nType="0">
        <Node pos="l" depth="1" NCoef="0" IVar="-1" Cut="0.0000000000000000e+00" cType="1" res="6.7989110946655273e-02" rms="2.8836786746978760e-01" purity="9.0846538543701172e-01" nType="-99"/>
        <Node pos="r" depth="1" NCoef="0" IVar="4" Cut="5.3692306391894817e-03" cType="1" res="-2.9446586966514587e-01" rms="3.1458202004432678e-01" purity="1.3971951603889465e-01" nType="0">
          <Node pos="l" depth="2" NCoef="0" IVar="-1" Cut="0.0000000000000000e+00" cType="1" res="2.7885045856237411e-02" rms="4.4078886508941650e-01" purity="6.2147486209869385e-01" nType="-99"/>
          <Node pos="r" depth="2" NCoef="0" IVar="-1" Cut="0.0000000000000000e+00" cType="1" res="-8.0568566918373108e-02" rms="1.6229090094566345e-01" purity="3.1504064798355103e-02" nType="-99"/>
        </Node>
      </Node>
    </BinaryTree>
    <BinaryTree type="DecisionTree" boostWeight="1.0000000000000000e+00" itree="3">
      <Node pos="s" depth="0" NCoef="0" IVar="1" Cut="1.6399848461151123e+00" cType="0" res="1.5051464736461639e-01" rms="3.8353264331817627e-01" purity="7.0606100559234619e-01" nType="0">
        <Node pos="l" depth="1" NCoef="0" IVar="-1" Cut="0.0000000000000000e+00" cType="1" res="6.5489277243614197e-02" rms="2.6513406634330750e-01" purity="9.1124069690704346e-01" nType="-99"/>
        <Node pos="r" depth="1" NCoef="0" IVar="5" Cut="7.7360334396362305e+00" cType="0" res="-2.3454190790653229e-01" rms="3.4578996896743774e-01" purity="2.1722957491874695e-01" nType="0">
          <Node pos="l" depth="2" NCoef="0" IVar="-1" Cut="0.0000000000000000e+00" cType="1" res="7.7021755278110504e-02" rms="1.8584442138671875e-01" purity="9.4992214441299438e-01" nType="-99"/>
          <Node pos="r" depth="2" NCoef="0" IVar="-1" Cut="0.0000000000000000e+00" cType="1" res="-6.2963649630546570e-02" rms="2.9364144802093506e-01" purity="1.4036855101585388e-01" nType="-99"/>
        </Node>
      </Node>
    </BinaryTree>
    <BinaryTree type="DecisionTree" boostWeight="1.0000000000000000e+00" itree="4">
      <Node pos="s" depth="0" NCoef="0" IVar="4" Cut="1.8519248813390732e-02" cType="1" res="1.3571958243846893e-01" rms="3.6513453722000122e-01" purity="7.0606100559234619e-01" nType="0">
        <Node pos="l" depth="1" NCoef="0" IVar="-1" Cut="0.0000000000000000e+00" cType="1" res="6.0347892343997955e-02" rms="2.5335004925727844e-01" purity="8.9002686738967896e-01" nType="-99"/>
        <Node pos="r" depth="1" NCoef="0" IVar="0" Cut="1.4542778015136719e+01" cType="0" res="-2.3173624277114868e-01" rms="3.4864124655723572e-01" purity="2.3714751005172729e-01" nType="0">
          <Node pos="l" depth="2" NCoef="0" IVar="-1" Cut="0.0000000000000000e+00" cType="1" res="1.3448211364448071e-02" rms="4.5443108677864075e-01" purity="6.9404041767120361e-01" nType="-99"/>
          <Node pos="r" depth="2" NCoef="0" IVar="-1" Cut="0.0000000000000000e+00" cType="1" res="-7.9239621758460999e-02" rms="1.6284213960170746e-01" purity="3.0947558581829071e-02" nType="-99"/>
        </Node>
      </Node>
    </BinaryTree>
    <BinaryTree type="DecisionTree" boostWeight="1.0000000000000000e+00" itree="5">
      <Node pos="s" depth="0" NCoef="0" IVar="0" Cut="7.5729136466979980e+00" cType="0" res="1.2230838835239410e-01" rms="3.4845426678657532e-01" purity="7.0606100559234619e-01" nType="0">
        <Node pos="l" depth="1" NCoef="0" IVar="-1" Cut="0.0000000000000000e+00" cType="1" res="5.5857166647911072e-02" rms="2.7447912096977234e-01" purity="9.0846538543701172e-01" nType="-99"/>
        <Node pos="r" depth="1" NCoef="0" IVar="2" Cut="1.0994502343237400e-02" cType="0" res="-2.3744058609008789e-01" rms="2.7329006791114807e-01" purity="1.3971951603889465e-01" nType="0">
          <Node pos="l" depth="2" NCoef="0" IVar="-1" Cut="0.0000000000000000e+00" cType="1" res="3.4437123686075211e-02" rms="3.8839465379714966e-01" purity="7.3167073726654053e-01" nType="-99"/>
          <Node pos="r" depth="2" NCoef="0" IVar="-1" Cut="0.0000000000000000e+00" cType="1" res="-6.8841382861137390e-02" rms="1.6879972815513611e-01" purity="3.7283405661582947e-02" nType="-99"/>
        </Node>
      </Node>
    </BinaryTree>
    <BinaryTree type="DecisionTree" boostWeight="1.0000000000000000e+00" itree="6">
      <Node pos="s" depth="0" NCoef="0" IVar="4" Cut="1.6103722155094147e-02" cType="1" res="1.1026539653539658e-01" rms="3.3407700061798096e-01" purity="7.0606100559234619e-01" nType="0">
        <Node pos="l" depth="1" NCoef="0" IVar="-1" Cut="0.0000000000000000e+00" cType="1" res="5.5632326751947403e-02" rms="2.3304526507854462e-01" purity="9.0049529075622559e-01" nType="-99"/>
        <Node pos="r" depth="1" NCoef="0" IVar="0" Cut="2.2592414855957031e+01" cType="0" res="-1.8675845861434937e-01" rms="3.3830618858337402e-01" purity="2.6504331827163696e-01" nType="0">
          <Node pos="l" depth="2" NCoef="0" IVar="-1" Cut="0.0000000000000000e+00" cType="1" res="1.3069482520222664e-02" rms="4.3954280018806458e-01" purity="7.2447514533996582e-01" nType="-99"/>
          <Node pos="r" depth="2" NCoef="0" IVar="-1" Cut="0.0000000000000000e+00" cType="1" res="-7.2499550879001617e-02" rms="1.7655205726623535e-01" purity="3.7681467831134796e-02" nType="-99"/>
        </Node>
      </Node>
    </BinaryTree>
    <BinaryTree type="DecisionTree" boostWeight="1.0000000000000000e+00" itree="7">
      <Node pos="s" depth="0" NCoef="0" IVar="1" Cut="1.6399848461151123e+00" cType="0" res="9.9403344094753265e-02" rms="3.2061955332756042e-01" purity="7.0606100559234619e-01" nType="0">
        <Node pos="l" depth="1" NCoef="0" IVar="-1" Cut="0.0000000000000000e+00" cType="1" res="5.2590876817703247e-02" rms="2.4576029181480408e-01" purity="9.1124069690704346e-01" nType="-99"/>
        <Node pos="r" depth="1" NCoef="0" IVar="5" Cut="7.7360334396362305e+00" cType="0" res="-1.8478818237781525e-01" rms="2.9857230186462402e-01" purity="2.1722957491874695e-01" nType="0">
          <Node pos="l" depth="2" NCoef="0" IVar="-1" Cut="0.0000000000000000e+00" cType="1" res="6.5167337656021118e-02" rms="1.6840487718582153e-01" purity="9.4992214441299438e-01" nType="-99"/>
          <Node pos="r" depth="2" NCoef="0" IVar="-1" Cut="0.0000000000000000e+00" cType="1" res="-5.5358029901981354e-02" rms="2.6642900705337524e-01" purity="1.4036855101585388e-01" nType="-99"/>
        </Node>
      </Node>
    </BinaryTree>
    <BinaryTree type="DecisionTree" boostWeight="1.0000000000000000e+00" itree="8">
      <Node pos="s" depth="0" NCoef="0" IVar="4" Cut="2.0129600539803505e-02" cType="1" res="8.9714609086513519e-02" rms="3.0885842442512512e-01" purity="7.0606100559234619e-01" nType="0">
        <Node pos="l" depth="1" NCoef="0" IVar="-1" Cut="0.0000000000000000e+00" cType="1" res="4.7820452600717545e-02" rms="2.3682665824890137e-01" purity="8.8318312168121338e-01" nType="-99"/>
        <Node pos="r" depth="1" NCoef="0" IVar="0" Cut="2.3606800079345703e+01" cType="0" res="-1.9088092446327209e-01" rms="3.0882531404495239e-01" purity="2.2164191305637360e-01" nType="0">
          <Node pos="l" depth="2" NCoef="0" IVar="-1" Cut="0.0000000000000000e+00" cType="1" res="-1.2648665579035878e-03" rms="4.5632290840148926e-01" purity="6.7875361442565918e-01" nType="-99"/>
          <Node pos="r" depth="2" NCoef="0" IVar="-1" Cut="0.0000000000000000e+00" cType="1" res="-6.8940244615077972e-02" rms="1.6831400990486145e-01" purity="3.1910389661788940e-02" nType="-99"/>
        </Node>
      </Node>
    </BinaryTree>
    <BinaryTree type="DecisionTree" boostWeight="1.0000000000000000e+00" itree="9">
      <Node pos="s" depth="0" NCoef="0" IVar="0" Cut="6.5258054733276367e+00" cType="0" res="8.0864489078521729e-02" rms="2.9916957020759583e-01" purity="7.0606100559234619e-01" nType="0">
        <Node pos="l" depth="1" NCoef="0" IVar="-1" Cut="0.0000000000000000e+00" cType="1" res="4.3504677712917328e-02" rms="2.6515054702758789e-01" purity="8.9125621318817139e-01" nType="-99"/>
        <Node pos="r" depth="1" NCoef="0" IVar="2" Cut="1.0994502343237400e-02" cType="0" res="-2.0748846232891083e-01" rms="2.0974424481391907e-01" purity="9.8487921059131622e-02" nType="0">
          <Node pos="l" depth="2" NCoef="0" IVar="-1" Cut="0.0000000000000000e+00" cType="1" res="1.2808434665203094e-02" rms="3.7618851661682129e-01" purity="6.5124094486236572e-01" nType="-99"/>
          <Node pos="r" depth="2" NCoef="0" IVar="-1" Cut="0.0000000000000000e+00" cType="1" res="-6.4807288348674774e-02" rms="1.4033141732215881e-01" purity="2.2689403966069221e-02" nType="-99"/>
        </Node>
      </Node>
    </BinaryTree>
    <BinaryTree type="DecisionTree" boostWeight="1.0000000000000000e+00" itree="10">
      <Node pos="s" depth="0" NCoef="0" IVar="4" Cut="1.4224980957806110e-02" cType="1" res="7.2881668806076050e-02" rms="2.9088971018791199e-01" purity="7.0606100559234619e-01" nType="0">
        <Node pos="l" depth="1" NCoef="0" IVar="-1" Cut="0.0000000000000000e+00" cType="1" res="4.7752756625413895e-02" rms="2.1064157783985138e-01" purity="9.0892809629440308e-01" nType="-99"/>
        <Node pos="r" depth="1" NCoef="0" IVar="0" Cut="1.4542778015136719e+01" cType="0" res="-1.3902030885219574e-01" rms="3.1597048044204712e-01" purity="2.9209202527999878e-01" nType="0">
          <Node pos="l" depth="2" NCoef="0" IVar="-1" Cut="0.0000000000000000e+00" cType="1" res="8.2738520577549934e-03" rms="4.1833299398422241e-01" purity="7.4974769353866577e-01" nType="-99"/>
          <Node pos="r" depth="2" NCoef="0" IVar="-1" Cut="0.0000000000000000e+00" cType="1" res="-6.4981006085872650e-02" rms="1.8551921844482422e-01" purity="4.4531650841236115e-02" nType="-99"/>
        </Node>
      </Node>
    </BinaryTree>
    <BinaryTree type="DecisionTree" boostWeight="1.0000000000000000e+00" itree="11">
      <Node pos="s" depth="0" NCoef="0" IVar="1" Cut="1.6399848461151123e+00" cType="0" res="6.5720573067665100e-02" rms="2.8229534626007080e-01" purity="7.0606100559234619e-01" nType="0">
        <Node pos="l" depth="1" NCoef="0" IVar="-1" Cut="0.0000000000000000e+00" cType="1" res="4.4160582125186920e-02" rms="2.3368120193481445e-01" purity="9.1124069690704346e-01" nType="-99"/>
        <Node pos="r" depth="1" NCoef="0" IVar="5" Cut="7.7360334396362305e+00" cType="0" res="-1.4870280027389526e-01" rms="2.7235248684883118e-01" purity="2.1722957491874695e-01" nType="0">
          <Node pos="l" depth="2" NCoef="0" IVar="-1" Cut="0.0000000000000000e+00" cType="1" res="5.8535926043987274e-02" rms="1.5848495066165924e-01" purity="9.4992214441299438e-01" nType="-99"/>
          <Node pos="r" depth="2" NCoef="0" IVar="-1" Cut="0.0000000000000000e+00" cType="1" res="-5.1076855510473251e-02" rms="2.5367581844329834e-01" purity="1.4036855101585388e-01" nType="-99"/>
        </Node>
      </Node>
    </BinaryTree>
    <BinaryTree type="DecisionTree" boostWeight="1.0000000000000000e+00" itree="12">
      <Node pos="s" depth="0" NCoef="0" IVar="4" Cut="1.3419805094599724e-02" cType="1" res="5.9336412698030472e-02" rms="2.7475136518478394e-01" purity="7.0606100559234619e-01" nType="0">
        <Node pos="l" depth="1" NCoef="0" IVar="-1" Cut="0.0000000000000000e+00" cType="1" res="4.4675640761852264e-02" rms="2.0230282843112946e-01" purity="9.1258138418197632e-01" nType="-99"/>
        <Node pos="r" depth="1" NCoef="0" IVar="0" Cut="2.2592414855957031e+01" cType="0" res="-1.1938516795635223e-01" rms="3.0684539675712585e-01" purity="3.0530688166618347e-01" nType="0">
          <Node pos="l" depth="2" NCoef="0" IVar="-1" Cut="0.0000000000000000e+00" cType="1" res="6.8823257461190224e-03" rms="4.0709796547889709e-01" purity="7.6191323995590210e-01" nType="-99"/>
          <Node pos="r" depth="2" NCoef="0" IVar="-1" Cut="0.0000000000000000e+00" cType="1" res="-6.1638895422220230e-02" rms="1.8734371662139893e-01" purity="4.7984194010496140e-02" nType="-99"/>
        </Node>
      </Node>
    </BinaryTree>
    <BinaryTree type="DecisionTree" boostWeight="1.0000000000000000e+00" itree="13">
      <Node pos="s" depth="0" NCoef="0" IVar="0" Cut="7.6383576393127441e+00" cType="0" res="5.3508289158344269e-02" rms="2.6798328757286072e-01" purity="7.0606100559234619e-01" nType="0">
        <Node pos="l" depth="1" NCoef="0" IVar="-1" Cut="0.0000000000000000e+00" cType="1" res="3.8113150745630264e-02" rms="2.4728779494762421e-01" purity="9.0902692079544067e-01" nType="-99"/>
        <Node pos="r" depth="1" NCoef="0" IVar="2" Cut="1.0994502343237400e-02" cType="0" res="-1.4451304078102112e-01" rms="2.1910801529884338e-01" purity="1.4354777336120605e-01" nType="0">
          <Node pos="l" depth="2" NCoef="0" IVar="-1" Cut="0.0000000000000000e+00" cType="1" res="2.2672755643725395e-02" rms="3.1577137112617493e-01" purity="7.3853462934494019e-01" nType="-99"/>
          <Node pos="r" depth="2" NCoef="0" IVar="-1" Cut="0.0000000000000000e+00" cType="1" res="-5.8895483613014221e-02" rms="1.6572067141532898e-01" purity="3.8276273757219315e-02" nType="-99"/>
        </Node>
      </Node>
    </BinaryTree>
    <BinaryTree type="DecisionTree" boostWeight="1.0000000000000000e+00" itree="14">
      <Node pos="s" depth="0" NCoef="0" IVar="4" Cut="2.1739950403571129e-02" cType="1" res="4.8232339322566986e-02" rms="2.6249876618385315e-01" purity="7.0606100559234619e-01" nType="0">
        <Node pos="l" depth="1" NCoef="0" IVar="-1" Cut="0.0000000000000000e+00" cType="1" res="3.6314655095338821e-02" rms="2.1689596772193909e-01" purity="8.7649565935134888e-01" nType="-99"/>
        <Node pos="r" depth="1" NCoef="0" IVar="3" Cut="1.4483539581298828e+01" cType="0" res="-1.4467325806617737e-01" rms="2.8781881928443909e-01" purity="2.0803816616535187e-01" nType="0">
          <Node pos="l" depth="2" NCoef="0" IVar="-1" Cut="0.0000000000000000e+00" cType="1" res="4.3984651565551758e-02" rms="2.4550613760948181e-01" purity="7.4855107069015503e-01" nType="-99"/>
          <Node pos="r" depth="2" NCoef="0" IVar="-1" Cut="0.0000000000000000e+00" cType="1" res="-5.3896870464086533e-02" rms="2.7870145440101624e-01" purity="1.7103616893291473e-01" nType="-99"/>
        </Node>
      </Node>
    </BinaryTree>
    <BinaryTree type="DecisionTree" boostWeight="1.0000000000000000e+00" itree="15">
      <Node pos="s" depth="0" NCoef="0" IVar="1" Cut="1.6399848461151123e+00" cType="0" res="4.3520875275135040e-02" rms="2.5757488608360291e-01" purity="7.0606100559234619e-01" nType="0">
        <Node pos="l" depth="1" NCoef="0" IVar="-1" Cut="0.0000000000000000e+00" cType="1" res="3.7838265299797058e-02" rms="2.2450870275497437e-01" purity="9.1124069690704346e-01" nType="-99"/>
        <Node pos="r" depth="1" NCoef="0" IVar="5" Cut="7.7360334396362305e+00" cType="0" res="-1.2175098806619644e-01" rms="2.5601363182067871e-01" purity="2.1722957491874695e-01" nType="0">
          <Node pos="l" depth="2" NCoef="0" IVar="-1" Cut="0.0000000000000000e+00" cType="1" res="5.4492931813001633e-02" rms="1.5359482169151306e-01" purity="9.4992214441299438e-01" nType="-99"/>
          <Node pos="r" depth="2" NCoef="0" IVar="-1" Cut="0.0000000000000000e+00" cType="1" res="-4.7943290323019028e-02" rms="2.4563151597976685e-01" purity="1.4036855101585388e-01" nType="-99"/>
        </Node>
      </Node>
    </BinaryTree>
    <BinaryTree type="DecisionTree" boostWeight="1.0000000000000000e+00" itree="16">
      <Node pos="s" depth="0" NCoef="0" IVar="4" Cut="1.1272670701146126e-02" cType="1" res="3.9298094809055328e-02" rms="2.5262647867202759e-01" purity="7.0606100559234619e-01" nType="0">
        <Node pos="l" depth="1" NCoef="0" IVar="-1" Cut="0.0000000000000000e+00" cType="1" res="4.0914487093687057e-02" rms="1.8494305014610291e-01" purity="9.2269575595855713e-01" nType="-99"/>
        <Node pos="r" depth="1" NCoef="0" IVar="0" Cut="2.3606800079345703e+01" cType="0" res="-8.9285232126712799e-02" rms="2.9433754086494446e-01" purity="3.4556356072425842e-01" nType="0">
          <Node pos="l" depth="2" NCoef="0" IVar="-1" Cut="0.0000000000000000e+00" cType="1" res="7.0396722294390202e-03" rms="3.7620180845260620e-01" purity="7.9487180709838867e-01" nType="-99"/>
          <Node pos="r" depth="2" NCoef="0" IVar="-1" Cut="0.0000000000000000e+00" cType="1" res="-5.7269241660833359e-02" rms="1.9992643594741821e-01" purity="6.8563185632228851e-02" nType="-99"/>
        </Node>
      </Node>
    </BinaryTree>
    <BinaryTree type="DecisionTree" boostWeight="1.0000000000000000e+00" itree="17">
      <Node pos="s" depth="0" NCoef="0" IVar="0" Cut="6.2967505455017090e+00" cType="0" res="3.5447675734758377e-02" rms="2.4792857468128204e-01" purity="7.0606100559234619e-01" nType="0">
        <Node pos="l" depth="1" NCoef="0" IVar="-1" Cut="0.0000000000000000e+00" cType="1" res="3.0270194634795189e-02" rms="2.4218995869159698e-01" purity="8.8936865329742432e-01" nType="-99"/>
        <Node pos="r" depth="1" NCoef="0" IVar="1" Cut="3.2727384567260742e+00" cType="0" res="-1.3225223124027252e-01" rms="1.8514579534530640e-01" purity="9.5197528600692749e-02" nType="0">
          <Node pos="l" depth="2" NCoef="0" IVar="-1" Cut="0.0000000000000000e+00" cType="1" res="1.0627971030771732e-02" rms="2.9317504167556763e-01" purity="6.0822957754135132e-01" nType="-99"/>
          <Node pos="r" depth="2" NCoef="0" IVar="-1" Cut="0.0000000000000000e+00" cType="1" res="-5.7447198778390884e-02" rms="1.6093054413795471e-01" purity="4.3680556118488312e-02" nType="-99"/>
        </Node>
      </Node>
    </BinaryTree>
    <BinaryTree type="DecisionTree" boostWeight="1.0000000000000000e+00" itree="18">
      <Node pos="s" depth="0" NCoef="0" IVar="4" Cut="2.4692259728908539e-02" cType="1" res="3.1926959753036499e-02" rms="2.4467191100120544e-01" purity="7.0606100559234619e-01" nType="0">
        <Node pos="l" depth="1" NCoef="0" IVar="-1" Cut="0.0000000000000000e+00" cType="1" res="2.9981376603245735e-02" rms="2.1006715297698975e-01" purity="8.6405301094055176e-01" nType="-99"/>
        <Node pos="r" depth="1" NCoef="0" IVar="3" Cut="9.1192750930786133e+00" cType="0" res="-1.2841725349426270e-01" rms="2.7891033887863159e-01" purity="1.8905967473983765e-01" nType="0">
          <Node pos="l" depth="2" NCoef="0" IVar="-1" Cut="0.0000000000000000e+00" cType="1" res="2.5658586993813515e-02" rms="2.5804844498634338e-01" purity="6.0220128297805786e-01" nType="-99"/>
          <Node pos="r" depth="2" NCoef="0" IVar="-1" Cut="0.0000000000000000e+00" cType="1" res="-5.7369466871023178e-02" rms="2.7164971828460693e-01" purity="1.4369086921215057e-01" nType="-99"/>
        </Node>
      </Node>
    </BinaryTree>
    <BinaryTree type="DecisionTree" boostWeight="1.0000000000000000e+00" itree="19">
      <Node pos="s" depth="0" NCoef="0" IVar="1" Cut="1.6399848461151123e+00" cType="0" res="2.8793405741453171e-02" rms="2.4121092259883881e-01" purity="7.0606100559234619e-01" nType="0">
        <Node pos="l" depth="1" NCoef="0" IVar="-1" Cut="0.0000000000000000e+00" cType="1" res="3.2380927354097366e-02" rms="2.1841093897819519e-01" purity="9.1124069690704346e-01" nType="-99"/>
        <Node pos="r" depth="1" NCoef="0" IVar="5" Cut="7.7360334396362305e+00" cType="0" res="-9.9795222282409668e-02" rms="2.4428254365921021e-01" purity="2.1722957491874695e-01" nType="0">
          <Node pos="l" depth="2" NCoef="0" IVar="-1" Cut="0.0000000000000000e+00" cType="1" res="5.2009571343660355e-02" rms="1.5127833187580109e-01" purity="9.4992214441299438e-01" nType="-99"/>
          <Node pos="r" depth="2" NCoef="0" IVar="-1" Cut="0.0000000000000000e+00" cType="1" res="-4.4842757284641266e-02" rms="2.3886197805404663e-01" purity="1.4036855101585388e-01" nType="-99"/>
        </Node>
      </Node>
    </BinaryTree>
    <BinaryTree type="DecisionTree" boostWeight="1.0000000000000000e+00" itree="20">
      <Node pos="s" depth="0" NCoef="0" IVar="4" Cut="9.9307121708989143e-03" cType="1" res="2.5999225676059723e-02" rms="2.3795177042484283e-01" purity="7.0606100559234619e-01" nType="0">
        <Node pos="l" depth="1" NCoef="0" IVar="-1" Cut="0.0000000000000000e+00" cType="1" res="3.7728488445281982e-02" rms="1.7350342869758606e-01" purity="9.2912971973419189e-01" nType="-99"/>
        <Node pos="r" depth="1" NCoef="0" IVar="0" Cut="1.4542778015136719e+01" cType="0" res="-7.0514351129531860e-02" rms="2.8315937519073486e-01" purity="3.7649309635162354e-01" nType="0">
          <Node pos="l" depth="2" NCoef="0" IVar="-1" Cut="0.0000000000000000e+00" cType="1" res="5.1732817664742470e-03" rms="3.5499066114425659e-01" purity="8.1285297870635986e-01" nType="-99"/>
          <Node pos="r" depth="2" NCoef="0" IVar="-1" Cut="0.0000000000000000e+00" cType="1" res="-5.4987944662570953e-02" rms="1.9778224825859070e-01" purity="7.0536233484745026e-02" nType="-99"/>
        </Node>
      </Node>
    </BinaryTree>
    <BinaryTree type="DecisionTree" boostWeight="1.0000000000000000e+00" itree="21">
      <Node pos="s" depth="0" NCoef="0" IVar="0" Cut="7.7365241050720215e+00" cType="0" res="2.3451291024684906e-02" rms="2.3458200693130493e-01" purity="7.0606100559234619e-01" nType="0">
        <Node pos="l" depth="1" NCoef="0" IVar="-1" Cut="0.0000000000000000e+00" cType="1" res="2.7596589177846909e-02" rms="2.3127774894237518e-01" purity="9.0990746021270752e-01" nType="-99"/>
        <Node pos="r" depth="1" NCoef="0" IVar="2" Cut="1.0994502343237400e-02" cType="0" res="-9.6092924475669861e-02" rms="1.9919715821743011e-01" purity="1.5109123289585114e-01" nType="0">
          <Node pos="l" depth="2" NCoef="0" IVar="-1" Cut="0.0000000000000000e+00" cType="1" res="2.0167531445622444e-02" rms="2.7189993858337402e-01" purity="7.5104236602783203e-01" nType="-99"/>
          <Node pos="r" depth="2" NCoef="0" IVar="-1" Cut="0.0000000000000000e+00" cType="1" res="-5.5713783949613571e-02" rms="1.6667458415031433e-01" purity="4.0155481547117233e-02" nType="-99"/>
        </Node>
      </Node>
    </BinaryTree>
    <BinaryTree type="DecisionTree" boostWeight="1.0000000000000000e+00" itree="22">
      <Node pos="s" depth="0" NCoef="0" IVar="4" Cut="2.6302609592676163e-02" cType="1" res="2.1113060414791107e-02" rms="2.3204129934310913e-01" purity="7.0606100559234619e-01" nType="0">
        <Node pos="l" depth="1" NCoef="0" IVar="-1" Cut="0.0000000000000000e+00" cType="1" res="2.5284860283136368e-02" rms="2.0327922701835632e-01" purity="8.5730099678039551e-01" nType="-99"/>
        <Node pos="r" depth="1" NCoef="0" IVar="3" Cut="8.0464220046997070e+00" cType="0" res="-1.1077003926038742e-01" rms="2.7362722158432007e-01" purity="1.8139503896236420e-01" nType="0">
          <Node pos="l" depth="2" NCoef="0" IVar="-1" Cut="0.0000000000000000e+00" cType="1" res="2.0715419203042984e-02" rms="2.5232076644897461e-01" purity="5.6274104118347168e-01" nType="-99"/>
          <Node pos="r" depth="2" NCoef="0" IVar="-1" Cut="0.0000000000000000e+00" cType="1" res="-5.7614658027887344e-02" rms="2.6903715729713440e-01" purity="1.3439601659774780e-01" nType="-99"/>
        </Node>
      </Node>
    </BinaryTree>
    <BinaryTree type="DecisionTree" boostWeight="1.0000000000000000e+00" itree="23">
      <Node pos="s" depth="0" NCoef="0" IVar="4" Cut="1.1272670701146126e-02" cType="1" res="1.9036697223782539e-02" rms="2.2949437797069550e-01" purity="7.0606100559234619e-01" nType="0">
        <Node pos="l" depth="1" NCoef="0" IVar="-1" Cut="0.0000000000000000e+00" cType="1" res="3.2248001545667648e-02" rms="1.7692305147647858e-01" purity="9.2269575595855713e-01" nType="-99"/>
        <Node pos="r" depth="1" NCoef="0" IVar="0" Cut="4.0262348175048828e+01" cType="0" res="-6.5812729299068451e-02" rms="2.7694121003150940e-01" purity="3.4556356072425842e-01" nType="0">
          <Node pos="l" depth="2" NCoef="0" IVar="-1" Cut="0.0000000000000000e+00" cType="1" res="2.7717063203454018e-02" rms="2.8540694713592529e-01" purity="8.9322268962860107e-01" nType="-99"/>
          <Node pos="r" depth="2" NCoef="0" IVar="-1" Cut="0.0000000000000000e+00" cType="1" res="-3.7840582430362701e-02" rms="2.6790541410446167e-01" purity="2.5620076060295105e-01" nType="-99"/>
        </Node>
      </Node>
    </BinaryTree>
    <BinaryTree type="DecisionTree" boostWeight="1.0000000000000000e+00" itree="24">
      <Node pos="s" depth="0" NCoef="0" IVar="1" Cut="1.6399848461151123e+00" cType="0" res="1.7217829823493958e-02" rms="2.2723917663097382e-01" purity="7.0606100559234619e-01" nType="0">
        <Node pos="l" depth="1" NCoef="0" IVar="-1" Cut="0.0000000000000000e+00" cType="1" res="2.7238922193646431e-02" rms="2.1100892126560211e-01" purity="9.1124069690704346e-01" nType="-99"/>
        <Node pos="r" depth="1" NCoef="0" IVar="5" Cut="7.7360334396362305e+00" cType="0" res="-8.1199631094932556e-02" rms="2.3416276276111603e-01" purity="2.1722957491874695e-01" nType="0">
          <Node pos="l" depth="2" NCoef="0" IVar="-1" Cut="0.0000000000000000e+00" cType="1" res="5.0109677016735077e-02" rms="1.5003463625907898e-01" purity="9.4992214441299438e-01" nType="-99"/>
          <Node pos="r" depth="2" NCoef="0" IVar="-1" Cut="0.0000000000000000e+00" cType="1" res="-4.2323585599660873e-02" rms="2.3231522738933563e-01" purity="1.4036855101585388e-01" nType="-99"/>
        </Node>
      </Node>
    </BinaryTree>
    <BinaryTree type="DecisionTree" boostWeight="1.0000000000000000e+00" itree="25">
      <Node pos="s" depth="0" NCoef="0" IVar="0" Cut="6.0676956176757812e+00" cType="0" res="1.5547322109341621e-02" rms="2.2507581114768982e-01" purity="7.0606100559234619e-01" nType="0">
        <Node pos="l" depth="1" NCoef="0" IVar="-1" Cut="0.0000000000000000e+00" cType="1" res="2.1701287478208542e-02" rms="2.2854854166507721e-01" purity="8.8681787252426147e-01" nType="-99"/>
        <Node pos="r" depth="1" NCoef="0" IVar="4" Cut="1.8252007663249969e-02" cType="1" res="-9.3358300626277924e-02" rms="1.7307974398136139e-01" purity="9.2265337705612183e-02" nType="0">
          <Node pos="l" depth="2" NCoef="0" IVar="-1" Cut="0.0000000000000000e+00" cType="1" res="-4.5043300837278366e-02" rms="2.7110353112220764e-01" purity="2.6727712154388428e-01" nType="-99"/>
          <Node pos="r" depth="2" NCoef="0" IVar="-1" Cut="0.0000000000000000e+00" cType="1" res="-5.0589345395565033e-02" rms="6.7382492125034332e-02" purity="5.2250609733164310e-03" nType="-99"/>
        </Node>
      </Node>
    </BinaryTree>
    <BinaryTree type="DecisionTree" boostWeight="1.0000000000000000e+00" itree="26">
      <Node pos="s" depth="0" NCoef="0" IVar="4" Cut="2.8986528515815735e-02" cType="1" res="1.3994921930134296e-02" rms="2.2368903458118439e-01" purity="7.0606100559234619e-01" nType="0">
        <Node pos="l" depth="1" NCoef="0" IVar="-1" Cut="0.0000000000000000e+00" cType="1" res="2.0933384075760841e-02" rms="2.0063622295856476e-01" purity="8.4665066003799438e-01" nType="-99"/>
        <Node pos="r" depth="1" NCoef="0" IVar="1" Cut="1.8171264648437500e+01" cType="0" res="-9.9091105163097382e-02" rms="2.6704505085945129e-01" purity="1.6840589046478271e-01" nType="0">
          <Node pos="l" depth="2" NCoef="0" IVar="-1" Cut="0.0000000000000000e+00" cType="1" res="-7.9646281898021698e-02" rms="4.2906948924064636e-01" purity="3.2304525375366211e-01" nType="-99"/>
          <Node pos="r" depth="2" NCoef="0" IVar="-1" Cut="0.0000000000000000e+00" cType="1" res="-4.1331816464662552e-02" rms="2.3745904862880707e-01" purity="1.5397027134895325e-01" nType="-99"/>
        </Node>
      </Node>
    </BinaryTree>
    <BinaryTree type="DecisionTree" boostWeight="1.0000000000000000e+00" itree="27">
      <Node pos="s" depth="0" NCoef="0" IVar="0" Cut="1.1106903076171875e+01" cType="0" res="1.2632703408598900e-02" rms="2.2196964919567108e-01" purity="7.0606100559234619e-01" nType="0">
        <Node pos="l" depth="1" NCoef="0" IVar="-1" Cut="0.0000000000000000e+00" cType="1" res="2.7641519904136658e-02" rms="2.1037317812442780e-01" purity="9.3326556682586670e-01" nType="-99"/>
        <Node pos="r" depth="1" NCoef="0" IVar="2" Cut="1.0994502343237400e-02" cType="0" res="-5.7971388101577759e-02" rms="2.2267276048660278e-01" purity="3.2963758707046509e-01" nType="0">
          <Node pos="l" depth="2" NCoef="0" IVar="-1" Cut="0.0000000000000000e+00" cType="1" res="3.5422142595052719e-02" rms="2.0198525488376617e-01" purity="8.7770068645477295e-01" nType="-99"/>
          <Node pos="r" depth="2" NCoef="0" IVar="-1" Cut="0.0000000000000000e+00" cType="1" res="-5.0479464232921600e-02" rms="2.0958182215690613e-01" purity="1.5399356186389923e-01" nType="-99"/>
        </Node>
      </Node>
    </BinaryTree>
    <BinaryTree type="DecisionTree" boostWeight="1.0000000000000000e+00" itree="28">
      <Node pos="s" depth="0" NCoef="0" IVar="4" Cut="8.3203613758087158e-03" cType="1" res="1.1404730379581451e-02" rms="2.1919006109237671e-01" purity="7.0606100559234619e-01" nType="0">
        <Node pos="l" depth="1" NCoef="0" IVar="-1" Cut="0.0000000000000000e+00" cType="1" res="3.2430443912744522e-02" rms="1.5887017548084259e-01" purity="9.3619388341903687e-01" nType="-99"/>
        <Node pos="r" depth="1" NCoef="0" IVar="3" Cut="9.4170789718627930e+00" cType="0" res="-4.8225972801446915e-02" rms="2.6501825451850891e-01" purity="4.1761308908462524e-01" nType="0">
          <Node pos="l" depth="2" NCoef="0" IVar="-1" Cut="0.0000000000000000e+00" cType="1" res="3.9237584918737411e-02" rms="1.9698405265808105e-01" purity="7.8482949733734131e-01" nType="-99"/>
          <Node pos="r" depth="2" NCoef="0" IVar="-1" Cut="0.0000000000000000e+00" cType="1" res="-3.1437024474143982e-02" rms="2.6715663075447083e-01" purity="3.6852288246154785e-01" nType="-99"/>
        </Node>
      </Node>
    </BinaryTree>
    <BinaryTree type="DecisionTree" boostWeight="1.0000000000000000e+00" itree="29">
      <Node pos="s" depth="0" NCoef="0" IVar="1" Cut="3.3926107883453369e+00" cType="0" res="1.0347330011427402e-02" rms="2.1714846789836884e-01" purity="7.0606100559234619e-01" nType="0">
        <Node pos="l" depth="1" NCoef="0" IVar="-1" Cut="0.0000000000000000e+00" cType="1" res="2.5447623804211617e-02" rms="2.0169515907764435e-01" purity="9.2637377977371216e-01" nType="-99"/>
        <Node pos="r" depth="1" NCoef="0" IVar="3" Cut="9.6999192237854004e-01" cType="0" res="-5.8305412530899048e-02" rms="2.2827111184597015e-01" purity="2.9169988632202148e-01" nType="0">
          <Node pos="l" depth="2" NCoef="0" IVar="-1" Cut="0.0000000000000000e+00" cType="1" res="-5.1876809448003769e-03" rms="2.2702097892761230e-01" purity="4.2870497703552246e-01" nType="-99"/>
          <Node pos="r" depth="2" NCoef="0" IVar="-1" Cut="0.0000000000000000e+00" cType="1" res="-6.1798367649316788e-02" rms="2.1319921314716339e-01" purity="9.9707782268524170e-02" nType="-99"/>
        </Node>
      </Node>
    </BinaryTree>
    <BinaryTree type="DecisionTree" boostWeight="1.0000000000000000e+00" itree="30">
      <Node pos="s" depth="0" NCoef="0" IVar="4" Cut="3.2207228243350983e-02" cType="1" res="9.3316007405519485e-03" rms="2.1522906422615051e-01" purity="7.0606100559234619e-01" nType="0">
        <Node pos="l" depth="1" NCoef="0" IVar="-1" Cut="0.0000000000000000e+00" cType="1" res="1.7290024086833000e-02" rms="1.9625489413738251e-01" purity="8.3420026302337646e-01" nType="-99"/>
        <Node pos="r" depth="1" NCoef="0" IVar="0" Cut="7.6289796829223633e+00" cType="0" res="-8.9282527565956116e-02" rms="2.6032552123069763e-01" purity="1.5722036361694336e-01" nType="0">
          <Node pos="l" depth="2" NCoef="0" IVar="-1" Cut="0.0000000000000000e+00" cType="1" res="-4.5729316771030426e-02" rms="4.1467761993408203e-01" purity="4.3473547697067261e-01" nType="-99"/>
          <Node pos="r" depth="2" NCoef="0" IVar="-1" Cut="0.0000000000000000e+00" cType="1" res="-4.8902615904808044e-02" rms="6.1516962945461273e-02" purity="4.5332536101341248e-03" nType="-99"/>
        </Node>
      </Node>
    </BinaryTree>
    <BinaryTree type="DecisionTree" boostWeight="1.0000000000000000e+00" itree="31">
      <Node pos="s" depth="0" NCoef="0" IVar="0" Cut="1.1106903076171875e+01" cType="0" res="8.4116011857986450e-03" rms="2.1407695114612579e-01" purity="7.0606100559234619e-01" nType="0">
        <Node pos="l" depth="1" NCoef="0" IVar="-1" Cut="0.0000000000000000e+00" cType="1" res="2.4414611980319023e-02" rms="2.0689713954925537e-01" purity="9.3326556682586670e-01" nType="-99"/>
        <Node pos="r" depth="1" NCoef="0" IVar="2" Cut="1.0994502343237400e-02" cType="0" res="-5.0553403794765472e-02" rms="2.1274644136428833e-01" purity="3.2963758707046509e-01" nType="0">
          <Node pos="l" depth="2" NCoef="0" IVar="-1" Cut="0.0000000000000000e+00" cType="1" res="3.2314915210008621e-02" rms="1.9721327722072601e-01" purity="8.7770068645477295e-01" nType="-99"/>
          <Node pos="r" depth="2" NCoef="0" IVar="-1" Cut="0.0000000000000000e+00" cType="1" res="-4.7485038638114929e-02" rms="2.0326060056686401e-01" purity="1.5399356186389923e-01" nType="-99"/>
        </Node>
      </Node>
    </BinaryTree>
    <BinaryTree type="DecisionTree" boostWeight="1.0000000000000000e+00" itree="32">
      <Node pos="s" depth="0" NCoef="0" IVar="4" Cut="9.6623208373785019e-03" cType="1" res="7.5923423282802105e-03" rms="2.1198901534080505e-01" purity="7.0606100559234619e-01" nType="0">
        <Node pos="l" depth="1" NCoef="0" IVar="-1" Cut="0.0000000000000000e+00" cType="1" res="2.7317317202687263e-02" rms="1.6029967367649078e-01" purity="9.3023401498794556e-01" nType="-99"/>
        <Node pos="r" depth="1" NCoef="0" IVar="3" Cut="1.3560582160949707e+01" cType="0" res="-4.5360248535871506e-02" rms="2.6064068078994751e-01" purity="3.8287127017974854e-01" nType="0">
          <Node pos="l" depth="2" NCoef="0" IVar="-1" Cut="0.0000000000000000e+00" cType="1" res="4.5418661087751389e-02" rms="1.7912107706069946e-01" purity="8.3562785387039185e-01" nType="-99"/>
          <Node pos="r" depth="2" NCoef="0" IVar="-1" Cut="0.0000000000000000e+00" cType="1" res="-2.9480183497071266e-02" rms="2.6267656683921814e-01" purity="3.4067535400390625e-01" nType="-99"/>
        </Node>
      </Node>
    </BinaryTree>
    <BinaryTree type="DecisionTree" boostWeight="1.0000000000000000e+00" itree="33">
      <Node pos="s" depth="0" NCoef="0" IVar="0" Cut="5.9695291519165039e+00" cType="0" res="6.8910340778529644e-03" rms="2.1056354045867920e-01" purity="7.0606100559234619e-01" nType="0">
        <Node pos="l" depth="1" NCoef="0" IVar="-1" Cut="0.0000000000000000e+00" cType="1" res="1.6120871528983116e-02" rms="2.1754829585552216e-01" purity="8.8555806875228882e-01" nType="-99"/>
        <Node pos="r" depth="1" NCoef="0" IVar="4" Cut="1.8252007663249969e-02" cType="1" res="-6.9710507988929749e-02" rms="1.6282556951045990e-01" purity="9.1125935316085815e-02" nType="0">
          <Node pos="l" depth="2" NCoef="0" IVar="-1" Cut="0.0000000000000000e+00" cType="1" res="-4.3330069631338120e-02" rms="2.5387948751449585e-01" purity="2.6509544253349304e-01" nType="-99"/>
          <Node pos="r" depth="2" NCoef="0" IVar="-1" Cut="0.0000000000000000e+00" cType="1" res="-4.7226071357727051e-02" rms="6.2772676348686218e-02" purity="5.0590219907462597e-03" nType="-99"/>
        </Node>
      </Node>
    </BinaryTree>
    <BinaryTree type="DecisionTree" boostWeight="1.0000000000000000e+00" itree="34">
      <Node pos="s" depth="0" NCoef="0" IVar="4" Cut="7.5151864439249039e-03" cType="1" res="6.1936788260936737e-03" rms="2.0974972844123840e-01" purity="7.0606100559234619e-01" nType="0">
        <Node pos="l" depth="1" NCoef="0" IVar="-1" Cut="0.0000000000000000e+00" cType="1" res="2.8955196961760521e-02" rms="1.5103624761104584e-01" purity="9.3965232372283936e-01" nType="-99"/>
        <Node pos="r" depth="1" NCoef="0" IVar="3" Cut="7.5336680412292480e+00" cType="0" res="-3.6489106714725494e-02" rms="2.5428530573844910e-01" purity="4.4041466712951660e-01" nType="0">
          <Node pos="l" depth="2" NCoef="0" IVar="-1" Cut="0.0000000000000000e+00" cType="1" res="3.1501404941082001e-02" rms="1.9248151779174805e-01" purity="7.5476688146591187e-01" nType="-99"/>
          <Node pos="r" depth="2" NCoef="0" IVar="-1" Cut="0.0000000000000000e+00" cType="1" res="-2.7249526232481003e-02" rms="2.5937575101852417e-01" purity="3.8871872425079346e-01" nType="-99"/>
        </Node>
      </Node>
    </BinaryTree>
    <BinaryTree type="DecisionTree" boostWeight="1.0000000000000000e+00" itree="35">
      <Node pos="s" depth="0" NCoef="0" IVar="1" Cut="1.6399848461151123e+00" cType="0" res="5.6309602223336697e-03" rms="2.0840449631214142e-01" purity="7.0606100559234619e-01" nType="0">
        <Node pos="l" depth="1" NCoef="0" IVar="-1" Cut="0.0000000000000000e+00" cType="1" res="1.8969900906085968e-02" rms="2.0116288959980011e-01" purity="9.1124069690704346e-01" nType="-99"/>
        <Node pos="r" depth="1" NCoef="0" IVar="5" Cut="7.7360334396362305e+00" cType="0" res="-5.4278276860713959e-02" rms="2.1307985484600067e-01" purity="2.1722957491874695e-01" nType="0">
          <Node pos="l" depth="2" NCoef="0" IVar="-1" Cut="0.0000000000000000e+00" cType="1" res="5.0676330924034119e-02" rms="1.4644099771976471e-01" purity="9.4992214441299438e-01" nType="-99"/>
          <Node pos="r" depth="2" NCoef="0" IVar="-1" Cut="0.0000000000000000e+00" cType="1" res="-3.7340380251407623e-02" rms="2.1331536769866943e-01" purity="1.4036855101585388e-01" nType="-99"/>
        </Node>
      </Node>
    </BinaryTree>
    <BinaryTree type="DecisionTree" boostWeight="1.0000000000000000e+00" itree="36">
      <Node pos="s" depth="0" NCoef="0" IVar="4" Cut="3.5159539431333542e-02" cType="1" res="5.0860457122325897e-03" rms="2.0730626583099365e-01" purity="7.0606100559234619e-01" nType="0">
        <Node pos="l" depth="1" NCoef="0" IVar="-1" Cut="0.0000000000000000e+00" cType="1" res="1.3732743449509144e-02" rms="1.9183899462223053e-01" purity="8.2349520921707153e-01" nType="-99"/>
        <Node pos="r" depth="1" NCoef="0" IVar="1" Cut="1.7172351837158203e+01" cType="0" res="-7.7629946172237396e-02" rms="2.5305271148681641e-01" purity="1.4793866872787476e-01" nType="0">
          <Node pos="l" depth="2" NCoef="0" IVar="-1" Cut="0.0000000000000000e+00" cType="1" res="-7.6725929975509644e-02" rms="4.0988829731941223e-01" purity="2.8436467051506042e-01" nType="-99"/>
          <Node pos="r" depth="2" NCoef="0" IVar="-1" Cut="0.0000000000000000e+00" cType="1" res="-3.7553049623966217e-02" rms="2.2087569534778595e-01" purity="1.3466048240661621e-01" nType="-99"/>
        </Node>
      </Node>
    </BinaryTree>
    <BinaryTree type="DecisionTree" boostWeight="1.0000000000000000e+00" itree="37">
      <Node pos="s" depth="0" NCoef="0" IVar="0" Cut="1.4248227119445801e+01" cType="0" res="4.5919814147055149e-03" rms="2.0621596276760101e-01" purity="7.0606100559234619e-01" nType="0">
        <Node pos="l" depth="1" NCoef="0" IVar="-1" Cut="0.0000000000000000e+00" cType="1" res="2.2260494530200958e-02" rms="2.0149879157543182e-01" purity="9.3803954124450684e-01" nType="-99"/>
        <Node pos="r" depth="1" NCoef="0" IVar="2" Cut="1.0994502343237400e-02" cType="0" res="-3.8714107125997543e-02" rms="2.0499932765960693e-01" purity="3.7950444221496582e-01" nType="0">
          <Node pos="l" depth="2" NCoef="0" IVar="-1" Cut="0.0000000000000000e+00" cType="1" res="3.0936986207962036e-02" rms="1.8389409780502319e-01" purity="8.8962268829345703e-01" nType="-99"/>
          <Node pos="r" depth="2" NCoef="0" IVar="-1" Cut="0.0000000000000000e+00" cType="1" res="-4.2185831815004349e-02" rms="2.0207396149635315e-01" purity="2.0984250307083130e-01" nType="-99"/>
        </Node>
      </Node>
    </BinaryTree>
    <BinaryTree type="DecisionTree" boostWeight="1.0000000000000000e+00" itree="38">
      <Node pos="s" depth="0" NCoef="0" IVar="4" Cut="1.6640506684780121e-02" cType="1" res="4.1545941494405270e-03" rms="2.0457948744297028e-01" purity="7.0606100559234619e-01" nType="0">
        <Node pos="l" depth="1" NCoef="0" IVar="-1" Cut="0.0000000000000000e+00" cType="1" res="1.7795717343688011e-02" rms="1.7251655459403992e-01" purity="8.9801013469696045e-01" nType="-99"/>
        <Node pos="r" depth="1" NCoef="0" IVar="5" Cut="2.8216836452484131e+00" cType="0" res="-4.7820806503295898e-02" rms="2.5725510716438293e-01" purity="2.5856462121009827e-01" nType="0">
          <Node pos="l" depth="2" NCoef="0" IVar="-1" Cut="0.0000000000000000e+00" cType="1" res="5.4918892681598663e-02" rms="2.4633641541004181e-01" purity="6.5303087234497070e-01" nType="-99"/>
          <Node pos="r" depth="2" NCoef="0" IVar="-1" Cut="0.0000000000000000e+00" cType="1" res="-3.4877993166446686e-02" rms="2.5239044427871704e-01" purity="2.3103278875350952e-01" nType="-99"/>
        </Node>
      </Node>
    </BinaryTree>
    <BinaryTree type="DecisionTree" boostWeight="1.0000000000000000e+00" itree="39">
      <Node pos="s" depth="0" NCoef="0" IVar="1" Cut="3.3926107883453369e+00" cType="0" res="3.7632500752806664e-03" rms="2.0335410535335541e-01" purity="7.0606100559234619e-01" nType="0">
        <Node pos="l" depth="1" NCoef="0" IVar="-1" Cut="0.0000000000000000e+00" cType="1" res="1.9202452152967453e-02" rms="1.9426909089088440e-01" purity="9.2637377977371216e-01" nType="-99"/>
        <Node pos="r" depth="1" NCoef="0" IVar="3" Cut="2.9099264144897461e+00" cType="0" res="-4.2478583753108978e-02" rms="2.1182973682880402e-01" purity="2.9169988632202148e-01" nType="0">
          <Node pos="l" depth="2" NCoef="0" IVar="-1" Cut="0.0000000000000000e+00" cType="1" res="1.4545503072440624e-02" rms="2.0663377642631531e-01" purity="5.1776534318923950e-01" nType="-99"/>
          <Node pos="r" depth="2" NCoef="0" IVar="-1" Cut="0.0000000000000000e+00" cType="1" res="-4.2135685682296753e-02" rms="2.0747080445289612e-01" purity="2.0485566556453705e-01" nType="-99"/>
        </Node>
      </Node>
    </BinaryTree>
    <BinaryTree type="DecisionTree" boostWeight="1.0000000000000000e+00" itree="40">
      <Node pos="s" depth="0" NCoef="0" IVar="4" Cut="3.5159539431333542e-02" cType="1" res="3.3984452020376921e-03" rms="2.0213083922863007e-01" purity="7.0606100559234619e-01" nType="0">
        <Node pos="l" depth="1" NCoef="0" IVar="-1" Cut="0.0000000000000000e+00" cType="1" res="1.1744134128093719e-02" rms="1.8844763934612274e-01" purity="8.2349520921707153e-01" nType="-99"/>
        <Node pos="r" depth="1" NCoef="0" IVar="1" Cut="1.4175615310668945e+01" cType="0" res="-6.5087065100669861e-02" rms="2.4612917006015778e-01" purity="1.4793866872787476e-01" nType="0">
          <Node pos="l" depth="2" NCoef="0" IVar="-1" Cut="0.0000000000000000e+00" cType="1" res="-6.1537336558103561e-02" rms="4.1622865200042725e-01" purity="3.3893352746963501e-01" nType="-99"/>
          <Node pos="r" depth="2" NCoef="0" IVar="-1" Cut="0.0000000000000000e+00" cType="1" res="-3.2265212386846542e-02" rms="2.0414710044860840e-01" purity="1.2318977713584900e-01" nType="-99"/>
        </Node>
      </Node>
    </BinaryTree>
    <BinaryTree type="DecisionTree" boostWeight="1.0000000000000000e+00" itree="41">
      <Node pos="s" depth="0" NCoef="0" IVar="0" Cut="7.8346905708312988e+00" cType="0" res="3.0692727304995060e-03" rms="2.0134240388870239e-01" purity="7.0606100559234619e-01" nType="0">
        <Node pos="l" depth="1" NCoef="0" IVar="-1" Cut="0.0000000000000000e+00" cType="1" res="1.4488218352198601e-02" rms="2.0735266804695129e-01" purity="9.1088551282882690e-01" nType="-99"/>
        <Node pos="r" depth="1" NCoef="0" IVar="5" Cut="5.6435818672180176e+00" cType="0" res="-4.8497576266527176e-02" rms="1.7419886589050293e-01" purity="1.6115273535251617e-01" nType="0">
          <Node pos="l" depth="2" NCoef="0" IVar="-1" Cut="0.0000000000000000e+00" cType="1" res="4.5139092952013016e-02" rms="2.3140254616737366e-01" purity="7.9120880365371704e-01" nType="-99"/>
          <Node pos="r" depth="2" NCoef="0" IVar="-1" Cut="0.0000000000000000e+00" cType="1" res="-3.9818901568651199e-02" rms="1.6773058474063873e-01" purity="1.3238368928432465e-01" nType="-99"/>
        </Node>
      </Node>
    </BinaryTree>
    <BinaryTree type="DecisionTree" boostWeight="1.0000000000000000e+00" itree="42">
      <Node pos="s" depth="0" NCoef="0" IVar="4" Cut="7.2467946447432041e-03" cType="1" res="2.7601090259850025e-03" rms="2.0054043829441071e-01" purity="7.0606100559234619e-01" nType="0">
        <Node pos="l" depth="1" NCoef="0" IVar="-1" Cut="0.0000000000000000e+00" cType="1" res="2.5112297385931015e-02" rms="1.4578282833099365e-01" purity="9.4061732292175293e-01" nType="-99"/>
        <Node pos="r" depth="1" NCoef="0" IVar="0" Cut="4.0949508666992188e+01" cType="0" res="-2.8819870203733444e-02" rms="2.4316947162151337e-01" purity="4.4853928685188293e-01" nType="0">
          <Node pos="l" depth="2" NCoef="0" IVar="-1" Cut="0.0000000000000000e+00" cType="1" res="2.4846648797392845e-02" rms="2.3570197820663452e-01" purity="9.2228651046752930e-01" nType="-99"/>
          <Node pos="r" depth="2" NCoef="0" IVar="-1" Cut="0.0000000000000000e+00" cType="1" res="-2.5604303926229477e-02" rms="2.4169300496578217e-01" purity="3.6285725235939026e-01" nType="-99"/>
        </Node>
      </Node>
    </BinaryTree>
    <BinaryTree type="DecisionTree" boostWeight="1.0000000000000000e+00" itree="43">
      <Node pos="s" depth="0" NCoef="0" IVar="0" Cut="1.4346393585205078e+01" cType="0" res="2.5205563288182020e-03" rms="1.9964708387851715e-01" purity="7.0606100559234619e-01" nType="0">
        <Node pos="l" depth="1" NCoef="0" IVar="-1" Cut="0.0000000000000000e+00" cType="1" res="1.8818154931068420e-02" rms="1.9808347523212433e-01" purity="9.3809521198272705e-01" nType="-99"/>
        <Node pos="r" depth="1" NCoef="0" IVar="2" Cut="1.0994502343237400e-02" cType="0" res="-3.1669571995735168e-02" rms="1.9680474698543549e-01" purity="3.7998387217521667e-01" nType="0">
          <Node pos="l" depth="2" NCoef="0" IVar="-1" Cut="0.0000000000000000e+00" cType="1" res="2.9076598584651947e-02" rms="1.7931006848812103e-01" purity="8.8976210355758667e-01" nType="-99"/>
          <Node pos="r" depth="2" NCoef="0" IVar="-1" Cut="0.0000000000000000e+00" cType="1" res="-3.8681205362081528e-02" rms="1.9544005393981934e-01" purity="2.1037517488002777e-01" nType="-99"/>
        </Node>
      </Node>
    </BinaryTree>
    <BinaryTree type="DecisionTree" boostWeight="1.0000000000000000e+00" itree="44">
      <Node pos="s" depth="0" NCoef="0" IVar="3" Cut="3.7670692801475525e-01" cType="0" res="2.2820977028459311e-03" rms="1.9848388433456421e-01" purity="7.0606100559234619e-01" nType="0">
        <Node pos="l" depth="1" NCoef="0" IVar="-1" Cut="0.0000000000000000e+00" cType="1" res="7.0817149244248867e-03" rms="1.9264344871044159e-01" purity="7.4085992574691772e-01" nType="-99"/>
        <Node pos="r" depth="1" NCoef="0" IVar="1" Cut="3.8006439208984375e+01" cType="0" res="-9.5152787864208221e-02" rms="2.4001936614513397e-01" purity="2.7237963676452637e-01" nType="0">
          <Node pos="l" depth="2" NCoef="0" IVar="-1" Cut="0.0000000000000000e+00" cType="1" res="-1.2434744089841843e-01" rms="3.8583612442016602e-01" purity="2.7522936463356018e-01" nType="-99"/>
          <Node pos="r" depth="2" NCoef="0" IVar="-1" Cut="0.0000000000000000e+00" cType="1" res="-6.0360729694366455e-02" rms="2.3225703835487366e-01" purity="2.7231740951538086e-01" nType="-99"/>
        </Node>
      </Node>
    </BinaryTree>
    <BinaryTree type="DecisionTree" boostWeight="1.0000000000000000e+00" itree="45">
      <Node pos="s" depth="0" NCoef="0" IVar="4" Cut="6.1732274480164051e-03" cType="1" res="2.0558061078190804e-03" rms="1.9779673218727112e-01" purity="7.0606100559234619e-01" nType="0">
        <Node pos="l" depth="1" NCoef="0" IVar="-1" Cut="0.0000000000000000e+00" cType="1" res="2.5467574596405029e-02" rms="1.4106999337673187e-01" purity="9.4503599405288696e-01" nType="-99"/>
        <Node pos="r" depth="1" NCoef="0" IVar="3" Cut="7.1569857597351074e+00" cType="0" res="-2.4174066260457039e-02" rms="2.3623317480087280e-01" purity="4.8102948069572449e-01" nType="0">
          <Node pos="l" depth="2" NCoef="0" IVar="-1" Cut="0.0000000000000000e+00" cType="1" res="3.1146988272666931e-02" rms="1.7787015438079834e-01" purity="7.7341139316558838e-01" nType="-99"/>
          <Node pos="r" depth="2" NCoef="0" IVar="-1" Cut="0.0000000000000000e+00" cType="1" res="-2.2927533835172653e-02" rms="2.4269756674766541e-01" purity="4.2853331565856934e-01" nType="-99"/>
        </Node>
      </Node>
    </BinaryTree>
    <BinaryTree type="DecisionTree" boostWeight="1.0000000000000000e+00" itree="46">
      <Node pos="s" depth="0" NCoef="0" IVar="1" Cut="3.3926107883453369e+00" cType="0" res="1.8864815356209874e-03" rms="1.9686602056026459e-01" purity="7.0606100559234619e-01" nType="0">
        <Node pos="l" depth="1" NCoef="0" IVar="-1" Cut="0.0000000000000000e+00" cType="1" res="1.6096983104944229e-02" rms="1.9073018431663513e-01" purity="9.2637377977371216e-01" nType="-99"/>
        <Node pos="r" depth="1" NCoef="0" IVar="3" Cut="9.6999192237854004e-01" cType="0" res="-3.4614674746990204e-02" rms="2.0294936001300812e-01" purity="2.9169988632202148e-01" nType="0">
          <Node pos="l" depth="2" NCoef="0" IVar="-1" Cut="0.0000000000000000e+00" cType="1" res="-2.2582849487662315e-03" rms="2.0267310738563538e-01" purity="4.2870497703552246e-01" nType="-99"/>
          <Node pos="r" depth="2" NCoef="0" IVar="-1" Cut="0.0000000000000000e+00" cType="1" res="-5.4693195968866348e-02" rms="1.9530196487903595e-01" purity="9.9707782268524170e-02" nType="-99"/>
        </Node>
      </Node>
    </BinaryTree>
    <BinaryTree type="DecisionTree" boostWeight="1.0000000000000000e+00" itree="47">
      <Node pos="s" depth="0" NCoef="0" IVar="4" Cut="3.6769889295101166e-02" cType="1" res="1.6944318776950240e-03" rms="1.9596672058105469e-01" purity="7.0606100559234619e-01" nType="0">
        <Node pos="l" depth="1" NCoef="0" IVar="-1" Cut="0.0000000000000000e+00" cType="1" res="9.7304433584213257e-03" rms="1.8389330804347992e-01" purity="8.1773334741592407e-01" nType="-99"/>
        <Node pos="r" depth="1" NCoef="0" IVar="1" Cut="1.2177790641784668e+01" cType="0" res="-5.6297827512025833e-02" rms="2.3965615034103394e-01" purity="1.4446298778057098e-01" nType="0">
          <Node pos="l" depth="2" NCoef="0" IVar="-1" Cut="0.0000000000000000e+00" cType="1" res="-5.4140567779541016e-02" rms="4.1231891512870789e-01" purity="3.6553946137428284e-01" nType="-99"/>
          <Node pos="r" depth="2" NCoef="0" IVar="-1" Cut="0.0000000000000000e+00" cType="1" res="-2.8925875201821327e-02" rms="1.8878775835037231e-01" purity="1.0956326872110367e-01" nType="-99"/>
        </Node>
      </Node>
    </BinaryTree>
    <BinaryTree type="DecisionTree" boostWeight="1.0000000000000000e+00" itree="48">
      <Node pos="s" depth="0" NCoef="0" IVar="0" Cut="5.8386406898498535e+00" cType="0" res="1.5326124848797917e-03" rms="1.9533589482307434e-01" purity="7.0606100559234619e-01" nType="0">
        <Node pos="l" depth="1" NCoef="0" IVar="-1" Cut="0.0000000000000000e+00" cType="1" res="1.0582045651972294e-02" rms="2.0519056916236877e-01" purity="8.8406121730804443e-01" nType="-99"/>
        <Node pos="r" depth="1" NCoef="0" IVar="4" Cut="1.6104876995086670e-02" cType="1" res="-4.5797638595104218e-02" rms="1.4697091281414032e-01" purity="8.9647322893142700e-02" nType="0">
          <Node pos="l" depth="2" NCoef="0" IVar="-1" Cut="0.0000000000000000e+00" cType="1" res="-3.9354726672172546e-02" rms="2.3759712278842926e-01" purity="2.8363832831382751e-01" nType="-99"/>
          <Node pos="r" depth="2" NCoef="0" IVar="-1" Cut="0.0000000000000000e+00" cType="1" res="-4.1464883834123611e-02" rms="6.2104035168886185e-02" purity="5.7275900617241859e-03" nType="-99"/>
        </Node>
      </Node>
    </BinaryTree>
    <BinaryTree type="DecisionTree" boostWeight="1.0000000000000000e+00" itree="49">
      <Node pos="s" depth="0" NCoef="0" IVar="4" Cut="2.0397990942001343e-02" cType="1" res="1.3701249845325947e-03" rms="1.9491252303123474e-01" purity="7.0606100559234619e-01" nType="0">
        <Node pos="l" depth="1" NCoef="0" IVar="-1" Cut="0.0000000000000000e+00" cType="1" res="1.2431549839675426e-02" rms="1.7045558989048004e-01" purity="8.8206130266189575e-01" nType="-99"/>
        <Node pos="r" depth="1" NCoef="0" IVar="5" Cut="2.8216836452484131e+00" cType="0" res="-3.8191273808479309e-02" rms="2.4612995982170105e-01" purity="2.1917432546615601e-01" nType="0">
          <Node pos="l" depth="2" NCoef="0" IVar="-1" Cut="0.0000000000000000e+00" cType="1" res="5.7089660316705704e-02" rms="2.3950560390949249e-01" purity="6.2269937992095947e-01" nType="-99"/>
          <Node pos="r" depth="2" NCoef="0" IVar="-1" Cut="0.0000000000000000e+00" cType="1" res="-3.2687492668628693e-02" rms="2.4176318943500519e-01" purity="1.9222778081893921e-01" nType="-99"/>
        </Node>
      </Node>
    </BinaryTree>
    <BinaryTree type="DecisionTree" boostWeight="1.0000000000000000e+00" itree="50">
      <Node pos="s" depth="0" NCoef="0" IVar="0" Cut="1.2088566780090332e+01" cType="0" res="1.2454354437068105e-03" rms="1.9400574266910553e-01" purity="7.0606100559234619e-01" nType="0">
        <Node pos="l" depth="1" NCoef="0" IVar="-1" Cut="0.0000000000000000e+00" cType="1" res="1.5341284684836864e-02" rms="1.9467866420745850e-01" purity="9.3524843454360962e-01" nType="-99"/>
        <Node pos="r" depth="1" NCoef="0" IVar="2" Cut="1.0994502343237400e-02" cType="0" res="-2.8189359232783318e-02" rms="1.8923169374465942e-01" purity="3.4797701239585876e-01" nType="0">
          <Node pos="l" depth="2" NCoef="0" IVar="-1" Cut="0.0000000000000000e+00" cType="1" res="2.6872470974922180e-02" rms="1.7793835699558258e-01" purity="8.8230365514755249e-01" nType="-99"/>
          <Node pos="r" depth="2" NCoef="0" IVar="-1" Cut="0.0000000000000000e+00" cType="1" res="-3.7448570132255554e-02" rms="1.8746675550937653e-01" purity="1.7460513114929199e-01" nType="-99"/>
        </Node>
      </Node>
    </BinaryTree>
    <BinaryTree type="DecisionTree" boostWeight="1.0000000000000000e+00" itree="51">
      <Node pos="s" depth="0" NCoef="0" IVar="1" Cut="5.0713512420654297e+01" cType="1" res="1.1256210273131728e-03" rms="1.9318328797817230e-01" purity="7.0606100559234619e-01" nType="0">
        <Node pos="l" depth="1" NCoef="0" IVar="-1" Cut="0.0000000000000000e+00" cType="1" res="2.4069102946668863e-03" rms="1.8962451815605164e-01" purity="7.0870703458786011e-01" nType="-99"/>
        <Node pos="r" depth="1" NCoef="0" IVar="3" Cut="1.7641059875488281e+01" cType="0" res="-2.5986605882644653e-01" rms="3.8228839635848999e-01" purity="3.6137667298316956e-01" nType="0">
          <Node pos="l" depth="2" NCoef="0" IVar="-1" Cut="0.0000000000000000e+00" cType="1" res="1.4007869176566601e-03" rms="2.6502481102943420e-01" purity="8.7128710746765137e-01" nType="-99"/>
          <Node pos="r" depth="2" NCoef="0" IVar="-1" Cut="0.0000000000000000e+00" cType="1" res="-1.0266077518463135e-01" rms="3.8225921988487244e-01" purity="3.0687829852104187e-01" nType="-99"/>
        </Node>
      </Node>
    </BinaryTree>
    <BinaryTree type="DecisionTree" boostWeight="1.0000000000000000e+00" itree="52">
      <Node pos="s" depth="0" NCoef="0" IVar="1" Cut="1.6399848461151123e+00" cType="0" res="1.0145715204998851e-03" rms="1.9290062785148621e-01" purity="7.0606100559234619e-01" nType="0">
        <Node pos="l" depth="1" NCoef="0" IVar="-1" Cut="0.0000000000000000e+00" cType="1" res="1.2448512949049473e-02" rms="1.9091239571571350e-01" purity="9.1124069690704346e-01" nType="-99"/>
        <Node pos="r" depth="1" NCoef="0" IVar="5" Cut="7.7360334396362305e+00" cType="0" res="-3.3775702118873596e-02" rms="1.9315880537033081e-01" purity="2.1722957491874695e-01" nType="0">
          <Node pos="l" depth="2" NCoef="0" IVar="-1" Cut="0.0000000000000000e+00" cType="1" res="4.8272613435983658e-02" rms="1.3642060756683350e-01" purity="9.4992214441299438e-01" nType="-99"/>
          <Node pos="r" depth="2" NCoef="0" IVar="-1" Cut="0.0000000000000000e+00" cType="1" res="-3.0938670039176941e-02" rms="1.9508360326290131e-01" purity="1.4036855101585388e-01" nType="-99"/>
        </Node>
      </Node>
    </BinaryTree>
    <BinaryTree type="DecisionTree" boostWeight="1.0000000000000000e+00" itree="53">
      <Node pos="s" depth="0" NCoef="0" IVar="4" Cut="6.1732274480164051e-03" cType="1" res="9.1976096155121922e-04" rms="1.9236555695533752e-01" purity="7.0606100559234619e-01" nType="0">
        <Node pos="l" depth="1" NCoef="0" IVar="-1" Cut="0.0000000000000000e+00" cType="1" res="2.3023709654808044e-02" rms="1.3795201480388641e-01" purity="9.4503599405288696e-01" nType="-99"/>
        <Node pos="r" depth="1" NCoef="0" IVar="3" Cut="1.3560582160949707e+01" cType="0" res="-2.0518317818641663e-02" rms="2.3017793893814087e-01" purity="4.8102948069572449e-01" nType="0">
          <Node pos="l" depth="2" NCoef="0" IVar="-1" Cut="0.0000000000000000e+00" cType="1" res="4.3883662670850754e-02" rms="1.4559875428676605e-01" purity="8.8228571414947510e-01" nType="-99"/>
          <Node pos="r" depth="2" NCoef="0" IVar="-1" Cut="0.0000000000000000e+00" cType="1" res="-1.9506907090544701e-02" rms="2.3574112355709076e-01" purity="4.3694576621055603e-01" nType="-99"/>
        </Node>
      </Node>
    </BinaryTree>
    <BinaryTree type="DecisionTree" boostWeight="1.0000000000000000e+00" itree="54">
      <Node pos="s" depth="0" NCoef="0" IVar="3" Cut="3.7670692801475525e-01" cType="0" res="8.5791526362299919e-04" rms="1.9162860512733459e-01" purity="7.0606100559234619e-01" nType="0">
        <Node pos="l" depth="1" NCoef="0" IVar="-1" Cut="0.0000000000000000e+00" cType="1" res="5.5355946533381939e-03" rms="1.8709339201450348e-01" purity="7.4085992574691772e-01" nType="-99"/>
        <Node pos="r" depth="1" NCoef="0" IVar="2" Cut="5.0074963569641113e+00" cType="0" res="-7.6013870537281036e-02" rms="2.2747193276882172e-01" purity="2.7237963676452637e-01" nType="0">
          <Node pos="l" depth="2" NCoef="0" IVar="-1" Cut="0.0000000000000000e+00" cType="1" res="-1.2830124795436859e-01" rms="3.8041737675666809e-01" purity="4.6791443228721619e-01" nType="-99"/>
          <Node pos="r" depth="2" NCoef="0" IVar="-1" Cut="0.0000000000000000e+00" cType="1" res="-5.2526589483022690e-02" rms="2.1650050580501556e-01" purity="2.6493638753890991e-01" nType="-99"/>
        </Node>
      </Node>
    </BinaryTree>
    <BinaryTree type="DecisionTree" boostWeight="1.0000000000000000e+00" itree="55">
      <Node pos="s" depth="0" NCoef="0" IVar="4" Cut="3.9453808218240738e-02" cType="1" res="7.7476241858676076e-04" rms="1.9110295176506042e-01" purity="7.0606100559234619e-01" nType="0">
        <Node pos="l" depth="1" NCoef="0" IVar="-1" Cut="0.0000000000000000e+00" cType="1" res="7.8387670218944550e-03" rms="1.8129396438598633e-01" purity="8.0856370925903320e-01" nType="-99"/>
        <Node pos="r" depth="1" NCoef="0" IVar="1" Cut="1.3569368362426758e+01" cType="0" res="-4.8851236701011658e-02" rms="2.3192679882049561e-01" purity="1.3983654975891113e-01" nType="0">
          <Node pos="l" depth="2" NCoef="0" IVar="-1" Cut="0.0000000000000000e+00" cType="1" res="-5.2527341991662979e-02" rms="4.0079930424690247e-01" purity="3.2508975267410278e-01" nType="-99"/>
          <Node pos="r" depth="2" NCoef="0" IVar="-1" Cut="0.0000000000000000e+00" cType="1" res="-2.6446836069226265e-02" rms="1.8943187594413757e-01" purity="1.1478504538536072e-01" nType="-99"/>
        </Node>
      </Node>
    </BinaryTree>
    <BinaryTree type="DecisionTree" boostWeight="1.0000000000000000e+00" itree="56">
      <Node pos="s" depth="0" NCoef="0" IVar="0" Cut="4.6606440544128418e+00" cType="0" res="7.0156011497601867e-04" rms="1.9060294330120087e-01" purity="7.0606100559234619e-01" nType="0">
        <Node pos="l" depth="1" NCoef="0" IVar="-1" Cut="0.0000000000000000e+00" cType="1" res="8.7081687524914742e-03" rms="2.0097449421882629e-01" purity="8.7358605861663818e-01" nType="-99"/>
        <Node pos="r" depth="1" NCoef="0" IVar="4" Cut="1.5836486592888832e-02" cType="1" res="-3.9741482585668564e-02" rms="1.3838426768779755e-01" purity="8.3035469055175781e-02" nType="0">
          <Node pos="l" depth="2" NCoef="0" IVar="-1" Cut="0.0000000000000000e+00" cType="1" res="-3.9236128330230713e-02" rms="2.2685258090496063e-01" purity="2.7007725834846497e-01" nType="-99"/>
          <Node pos="r" depth="2" NCoef="0" IVar="-1" Cut="0.0000000000000000e+00" cType="1" res="-3.9912361651659012e-02" rms="5.7826545089483261e-02" purity="5.3031039424240589e-03" nType="-99"/>
        </Node>
      </Node>
    </BinaryTree>
    <BinaryTree type="DecisionTree" boostWeight="1.0000000000000000e+00" itree="57">
      <Node pos="s" depth="0" NCoef="0" IVar="3" Cut="5.2735748291015625e+00" cType="0" res="6.2257691752165556e-04" rms="1.9026762247085571e-01" purity="7.0606100559234619e-01" nType="0">
        <Node pos="l" depth="1" NCoef="0" IVar="-1" Cut="0.0000000000000000e+00" cType="1" res="3.2981965690851212e-02" rms="1.3516750931739807e-01" purity="8.7426197528839111e-01" nType="-99"/>
        <Node pos="r" depth="1" NCoef="0" IVar="1" Cut="1.0125365257263184e+00" cType="0" res="-1.0528597980737686e-02" rms="2.0248159766197205e-01" purity="6.5598005056381226e-01" nType="0">
          <Node pos="l" depth="2" NCoef="0" IVar="-1" Cut="0.0000000000000000e+00" cType="1" res="3.4670855384320021e-03" rms="2.0821408927440643e-01" purity="8.6330068111419678e-01" nType="-99"/>
          <Node pos="r" depth="2" NCoef="0" IVar="-1" Cut="0.0000000000000000e+00" cType="1" res="-3.7240393459796906e-02" rms="1.8286591768264771e-01" purity="1.5377648174762726e-01" nType="-99"/>
        </Node>
      </Node>
    </BinaryTree>
    <BinaryTree type="DecisionTree" boostWeight="1.0000000000000000e+00" itree="58">
      <Node pos="s" depth="0" NCoef="0" IVar="1" Cut="5.0713512420654297e+01" cType="1" res="5.6792219402268529e-04" rms="1.8946102261543274e-01" purity="7.0606100559234619e-01" nType="0">
        <Node pos="l" depth="1" NCoef="0" IVar="-1" Cut="0.0000000000000000e+00" cType="1" res="1.9394124392420053e-03" rms="1.8619291484355927e-01" purity="7.0870703458786011e-01" nType="-99"/>
        <Node pos="r" depth="1" NCoef="0" IVar="1" Cut="6.1781688690185547e+01" cType="1" res="-2.3289896547794342e-01" rms="3.7535995244979858e-01" purity="3.6137667298316956e-01" nType="0">
          <Node pos="l" depth="2" NCoef="0" IVar="-1" Cut="0.0000000000000000e+00" cType="1" res="-6.2100999057292938e-02" rms="3.5901272296905518e-01" purity="5.4979252815246582e-01" nType="-99"/>
          <Node pos="r" depth="2" NCoef="0" IVar="-1" Cut="0.0000000000000000e+00" cType="1" res="-1.0576508939266205e-01" rms="3.7266328930854797e-01" purity="2.0035460591316223e-01" nType="-99"/>
        </Node>
      </Node>
    </BinaryTree>
    <BinaryTree type="DecisionTree" boostWeight="1.0000000000000000e+00" itree="59">
      <Node pos="s" depth="0" NCoef="0" IVar="3" Cut="7.5338912010192871e-01" cType="0" res="5.1151437219232321e-04" rms="1.8921859562397003e-01" purity="7.0606100559234619e-01" nType="0">
        <Node pos="l" depth="1" NCoef="0" IVar="-1" Cut="0.0000000000000000e+00" cType="1" res="1.0209384374320507e-02" rms="1.7667333781719208e-01" purity="7.7227020263671875e-01" nType="-99"/>
        <Node pos="r" depth="1" NCoef="0" IVar="1" Cut="3.3802211284637451e+00" cType="0" res="-3.1581692397594452e-02" rms="2.1646678447723389e-01" purity="5.2628731727600098e-01" nType="0">
          <Node pos="l" depth="2" NCoef="0" IVar="-1" Cut="0.0000000000000000e+00" cType="1" res="-6.2212008051574230e-03" rms="2.3961050808429718e-01" purity="8.7892353534698486e-01" nType="-99"/>
          <Node pos="r" depth="2" NCoef="0" IVar="-1" Cut="0.0000000000000000e+00" cType="1" res="-5.2852030843496323e-02" rms="1.7818790674209595e-01" purity="7.3710225522518158e-02" nType="-99"/>
        </Node>
      </Node>
    </BinaryTree>
    <BinaryTree type="DecisionTree" boostWeight="1.0000000000000000e+00" itree="60">
      <Node pos="s" depth="0" NCoef="0" IVar="4" Cut="4.2406115680932999e-02" cType="1" res="4.5192710240371525e-04" rms="1.8862532079219818e-01" purity="7.0606100559234619e-01" nType="0">
        <Node pos="l" depth="1" NCoef="0" IVar="-1" Cut="0.0000000000000000e+00" cType="1" res="6.9049797020852566e-03" rms="1.8025083839893341e-01" purity="7.9872506856918335e-01" nType="-99"/>
        <Node pos="r" depth="1" NCoef="0" IVar="1" Cut="3.2569942474365234e+00" cType="0" res="-4.7457933425903320e-02" rms="2.2789081931114197e-01" purity="1.3543947041034698e-01" nType="0">
          <Node pos="l" depth="2" NCoef="0" IVar="-1" Cut="0.0000000000000000e+00" cType="1" res="-4.1831169277429581e-02" rms="3.8478559255599976e-01" purity="4.0303403139114380e-01" nType="-99"/>
          <Node pos="r" depth="2" NCoef="0" IVar="-1" Cut="0.0000000000000000e+00" cType="1" res="-2.2430917248129845e-02" rms="1.2168838083744049e-01" purity="4.4183444231748581e-02" nType="-99"/>
        </Node>
      </Node>
    </BinaryTree>
    <BinaryTree type="DecisionTree" boostWeight="1.0000000000000000e+00" itree="61">
      <Node pos="s" depth="0" NCoef="0" IVar="2" Cut="1.0994502343237400e-02" cType="0" res="4.1132315527647734e-04" rms="1.8818105757236481e-01" purity="7.0606100559234619e-01" nType="0">
        <Node pos="l" depth="1" NCoef="0" IVar="-1" Cut="0.0000000000000000e+00" cType="1" res="2.9881291091442108e-02" rms="1.6453330218791962e-01" purity="9.3034052848815918e-01" nType="-99"/>
        <Node pos="r" depth="1" NCoef="0" IVar="0" Cut="2.2995275497436523e+01" cType="0" res="-9.4509376212954521e-03" rms="1.9298589229583740e-01" purity="6.4464831352233887e-01" nType="0">
          <Node pos="l" depth="2" NCoef="0" IVar="-1" Cut="0.0000000000000000e+00" cType="1" res="8.9096641167998314e-03" rms="1.9616441428661346e-01" purity="9.3115568161010742e-01" nType="-99"/>
          <Node pos="r" depth="2" NCoef="0" IVar="-1" Cut="0.0000000000000000e+00" cType="1" res="-3.2672930508852005e-02" rms="1.8395088613033295e-01" purity="2.1158954501152039e-01" nType="-99"/>
        </Node>
      </Node>
    </BinaryTree>
    <BinaryTree type="DecisionTree" boostWeight="1.0000000000000000e+00" itree="62">
      <Node pos="s" depth="0" NCoef="0" IVar="4" Cut="4.2944848537445068e-03" cType="1" res="3.7972987047396600e-04" rms="1.8745535612106323e-01" purity="7.0606100559234619e-01" nType="0">
        <Node pos="l" depth="1" NCoef="0" IVar="-1" Cut="0.0000000000000000e+00" cType="1" res="2.5552233681082726e-02" rms="1.2826472520828247e-01" purity="9.5309609174728394e-01" nType="-99"/>
        <Node pos="r" depth="1" NCoef="0" IVar="1" Cut="3.7183002471923828e+01" cType="1" res="-1.4780639670789242e-02" rms="2.1656234562397003e-01" purity="5.4296702146530151e-01" nType="0">
          <Node pos="l" depth="2" NCoef="0" IVar="-1" Cut="0.0000000000000000e+00" cType="1" res="-8.4408083930611610e-03" rms="2.1075229346752167e-01" purity="5.4458105564117432e-01" nType="-99"/>
          <Node pos="r" depth="2" NCoef="0" IVar="-1" Cut="0.0000000000000000e+00" cType="1" res="-6.3024617731571198e-02" rms="3.5938429832458496e-01" purity="4.7577318549156189e-01" nType="-99"/>
        </Node>
      </Node>
    </BinaryTree>
    <BinaryTree type="DecisionTree" boostWeight="1.0000000000000000e+00" itree="63">
      <Node pos="s" depth="0" NCoef="0" IVar="3" Cut="7.1569857597351074e+00" cType="0" res="3.6042911233380437e-04" rms="1.8697322905063629e-01" purity="7.0606100559234619e-01" nType="0">
        <Node pos="l" depth="1" NCoef="0" IVar="-1" Cut="0.0000000000000000e+00" cType="1" res="3.5054925829172134e-02" rms="1.2218584120273590e-01" purity="9.0163326263427734e-01" nType="-99"/>
        <Node pos="r" depth="1" NCoef="0" IVar="1" Cut="1.0125365257263184e+00" cType="0" res="-8.3316080272197723e-03" rms="1.9865342974662781e-01" purity="6.5832155942916870e-01" nType="0">
          <Node pos="l" depth="2" NCoef="0" IVar="-1" Cut="0.0000000000000000e+00" cType="1" res="3.3480797428637743e-03" rms="2.0483535528182983e-01" purity="8.6401873826980591e-01" nType="-99"/>
          <Node pos="r" depth="2" NCoef="0" IVar="-1" Cut="0.0000000000000000e+00" cType="1" res="-3.2205708324909210e-02" rms="1.7928549647331238e-01" purity="1.6042150557041168e-01" nType="-99"/>
        </Node>
      </Node>
    </BinaryTree>
    <BinaryTree type="DecisionTree" boostWeight="1.0000000000000000e+00" itree="64">
      <Node pos="s" depth="0" NCoef="0" IVar="4" Cut="1.4224980957806110e-02" cType="1" res="3.3334680483676493e-04" rms="1.8636898696422577e-01" purity="7.0606100559234619e-01" nType="0">
        <Node pos="l" depth="1" NCoef="0" IVar="-1" Cut="0.0000000000000000e+00" cType="1" res="1.2190839275717735e-02" rms="1.5418314933776855e-01" purity="9.0892809629440308e-01" nType="-99"/>
        <Node pos="r" depth="1" NCoef="0" IVar="2" Cut="8.9955022558569908e-03" cType="0" res="-2.4009026587009430e-02" rms="2.3710189759731293e-01" purity="2.9209202527999878e-01" nType="0">
          <Node pos="l" depth="2" NCoef="0" IVar="-1" Cut="0.0000000000000000e+00" cType="1" res="2.7321238070726395e-02" rms="2.8251391649246216e-01" purity="7.1255230903625488e-01" nType="-99"/>
          <Node pos="r" depth="2" NCoef="0" IVar="-1" Cut="0.0000000000000000e+00" cType="1" res="-2.5731785222887993e-02" rms="2.2858963906764984e-01" purity="2.4231617152690887e-01" nType="-99"/>
        </Node>
      </Node>
    </BinaryTree>
    <BinaryTree type="DecisionTree" boostWeight="1.0000000000000000e+00" itree="65">
      <Node pos="s" depth="0" NCoef="0" IVar="3" Cut="3.7670692801475525e-01" cType="0" res="3.1000320450402796e-04" rms="1.8581283092498779e-01" purity="7.0606100559234619e-01" nType="0">
        <Node pos="l" depth="1" NCoef="0" IVar="-1" Cut="0.0000000000000000e+00" cType="1" res="4.3741259723901749e-03" rms="1.8236283957958221e-01" purity="7.4085992574691772e-01" nType="-99"/>
        <Node pos="r" depth="1" NCoef="0" IVar="2" Cut="5.0074963569641113e+00" cType="0" res="-5.8657906949520111e-02" rms="2.1587054431438446e-01" purity="2.7237963676452637e-01" nType="0">
          <Node pos="l" depth="2" NCoef="0" IVar="-1" Cut="0.0000000000000000e+00" cType="1" res="-1.1325893551111221e-01" rms="3.6766806244850159e-01" purity="4.6791443228721619e-01" nType="-99"/>
          <Node pos="r" depth="2" NCoef="0" IVar="-1" Cut="0.0000000000000000e+00" cType="1" res="-4.4125895947217941e-02" rms="2.0509247481822968e-01" purity="2.6493638753890991e-01" nType="-99"/>
        </Node>
      </Node>
    </BinaryTree>
    <BinaryTree type="DecisionTree" boostWeight="1.0000000000000000e+00" itree="66">
      <Node pos="s" depth="0" NCoef="0" IVar="1" Cut="5.0713512420654297e+01" cType="1" res="2.8096212190575898e-04" rms="1.8545497953891754e-01" purity="7.0606100559234619e-01" nType="0">
        <Node pos="l" depth="1" NCoef="0" IVar="-1" Cut="0.0000000000000000e+00" cType="1" res="1.5159210888668895e-03" rms="1.8262858688831329e-01" purity="7.0870703458786011e-01" nType="-99"/>
        <Node pos="r" depth="1" NCoef="0" IVar="1" Cut="6.1781688690185547e+01" cType="1" res="-1.8876974284648895e-01" rms="3.6592444777488708e-01" purity="3.6137667298316956e-01" nType="0">
          <Node pos="l" depth="2" NCoef="0" IVar="-1" Cut="0.0000000000000000e+00" cType="1" res="-4.9368657171726227e-02" rms="3.5031840205192566e-01" purity="5.4979252815246582e-01" nType="-99"/>
          <Node pos="r" depth="2" NCoef="0" IVar="-1" Cut="0.0000000000000000e+00" cType="1" res="-9.2150233685970306e-02" rms="3.6678880453109741e-01" purity="2.0035460591316223e-01" nType="-99"/>
        </Node>
      </Node>
    </BinaryTree>
    <BinaryTree type="DecisionTree" boostWeight="1.0000000000000000e+00" itree="67">
      <Node pos="s" depth="0" NCoef="0" IVar="0" Cut="4.6606440544128418e+00" cType="0" res="2.5257564266212285e-04" rms="1.8528281152248383e-01" purity="7.0606100559234619e-01" nType="0">
        <Node pos="l" depth="1" NCoef="0" IVar="-1" Cut="0.0000000000000000e+00" cType="1" res="7.2299600578844547e-03" rms="1.9626793265342712e-01" purity="8.7358605861663818e-01" nType="-99"/>
        <Node pos="r" depth="1" NCoef="0" IVar="4" Cut="1.5836486592888832e-02" cType="1" res="-3.1696081161499023e-02" rms="1.3208632171154022e-01" purity="8.3035469055175781e-02" nType="0">
          <Node pos="l" depth="2" NCoef="0" IVar="-1" Cut="0.0000000000000000e+00" cType="1" res="-3.5413786768913269e-02" rms="2.1851016581058502e-01" purity="2.7007725834846497e-01" nType="-99"/>
          <Node pos="r" depth="2" NCoef="0" IVar="-1" Cut="0.0000000000000000e+00" cType="1" res="-3.6834411323070526e-02" rms="5.6788578629493713e-02" purity="5.3031039424240589e-03" nType="-99"/>
        </Node>
      </Node>
    </BinaryTree>
    <BinaryTree type="DecisionTree" boostWeight="1.0000000000000000e+00" itree="68">
      <Node pos="s" depth="0" NCoef="0" IVar="4" Cut="4.2406115680932999e-02" cType="1" res="2.2055652516428381e-04" rms="1.8506619334220886e-01" purity="7.0606100559234619e-01" nType="0">
        <Node pos="l" depth="1" NCoef="0" IVar="-1" Cut="0.0000000000000000e+00" cType="1" res="5.9966868720948696e-03" rms="1.7752408981323242e-01" purity="7.9872506856918335e-01" nType="-99"/>
        <Node pos="r" depth="1" NCoef="0" IVar="1" Cut="9.1497793197631836e+00" cType="0" res="-3.9544500410556793e-02" rms="2.2192697227001190e-01" purity="1.3543947041034698e-01" nType="0">
          <Node pos="l" depth="2" NCoef="0" IVar="-1" Cut="0.0000000000000000e+00" cType="1" res="-4.1280701756477356e-02" rms="3.8889116048812866e-01" purity="3.7473168969154358e-01" nType="-99"/>
          <Node pos="r" depth="2" NCoef="0" IVar="-1" Cut="0.0000000000000000e+00" cType="1" res="-2.0613707602024078e-02" rms="1.5923003852367401e-01" purity="8.6426734924316406e-02" nType="-99"/>
        </Node>
      </Node>
    </BinaryTree>
    <BinaryTree type="DecisionTree" boostWeight="1.0000000000000000e+00" itree="69">
      <Node pos="s" depth="0" NCoef="0" IVar="0" Cut="1.1041459083557129e+01" cType="0" res="2.0124316506553441e-04" rms="1.8472853302955627e-01" purity="7.0606100559234619e-01" nType="0">
        <Node pos="l" depth="1" NCoef="0" IVar="-1" Cut="0.0000000000000000e+00" cType="1" res="1.0885721072554588e-02" rms="1.8885616958141327e-01" purity="9.3288761377334595e-01" nType="-99"/>
        <Node pos="r" depth="1" NCoef="0" IVar="2" Cut="1.0994502343237400e-02" cType="0" res="-2.0016914233565331e-02" rms="1.7577710747718811e-01" purity="3.2753458619117737e-01" nType="0">
          <Node pos="l" depth="2" NCoef="0" IVar="-1" Cut="0.0000000000000000e+00" cType="1" res="2.2933850064873695e-02" rms="1.6882623732089996e-01" purity="8.7698477506637573e-01" nType="-99"/>
          <Node pos="r" depth="2" NCoef="0" IVar="-1" Cut="0.0000000000000000e+00" cType="1" res="-3.2458860427141190e-02" rms="1.7506895959377289e-01" purity="1.5175226330757141e-01" nType="-99"/>
        </Node>
      </Node>
    </BinaryTree>
    <BinaryTree type="DecisionTree" boostWeight="1.0000000000000000e+00" itree="70">
      <Node pos="s" depth="0" NCoef="0" IVar="4" Cut="4.0260930545628071e-03" cType="1" res="1.8123834161087871e-04" rms="1.8431292474269867e-01" purity="7.0606100559234619e-01" nType="0">
        <Node pos="l" depth="1" NCoef="0" IVar="-1" Cut="0.0000000000000000e+00" cType="1" res="2.4204483255743980e-02" rms="1.2597449123859406e-01" purity="9.5414155721664429e-01" nType="-99"/>
        <Node pos="r" depth="1" NCoef="0" IVar="3" Cut="1.5820675849914551e+01" cType="0" res="-1.2068484909832478e-02" rms="2.1157820522785187e-01" purity="5.5274569988250732e-01" nType="0">
          <Node pos="l" depth="2" NCoef="0" IVar="-1" Cut="0.0000000000000000e+00" cType="1" res="4.3794725090265274e-02" rms="1.1726453155279160e-01" purity="9.2846125364303589e-01" nType="-99"/>
          <Node pos="r" depth="2" NCoef="0" IVar="-1" Cut="0.0000000000000000e+00" cType="1" res="-1.4026204124093056e-02" rms="2.1854546666145325e-01" purity="5.1131087541580200e-01" nType="-99"/>
        </Node>
      </Node>
    </BinaryTree>
    <BinaryTree type="DecisionTree" boostWeight="1.0000000000000000e+00" itree="71">
      <Node pos="s" depth="0" NCoef="0" IVar="3" Cut="7.5338912010192871e-01" cType="0" res="1.8628433463163674e-04" rms="1.8380181491374969e-01" purity="7.0606100559234619e-01" nType="0">
        <Node pos="l" depth="1" NCoef="0" IVar="-1" Cut="0.0000000000000000e+00" cType="1" res="8.6387721821665764e-03" rms="1.7237457633018494e-01" purity="7.7227020263671875e-01" nType="-99"/>
        <Node pos="r" depth="1" NCoef="0" IVar="1" Cut="-2.6928124427795410e+00" cType="0" res="-2.4791913107037544e-02" rms="2.0971584320068359e-01" purity="5.2628731727600098e-01" nType="0">
          <Node pos="l" depth="2" NCoef="0" IVar="-1" Cut="0.0000000000000000e+00" cType="1" res="-1.8323676660656929e-02" rms="2.0658491551876068e-01" purity="5.4176104068756104e-01" nType="-99"/>
          <Node pos="r" depth="2" NCoef="0" IVar="-1" Cut="0.0000000000000000e+00" cType="1" res="-7.0777289569377899e-02" rms="2.6360946893692017e-01" purity="6.2814071774482727e-02" nType="-99"/>
        </Node>
      </Node>
    </BinaryTree>
    <BinaryTree type="DecisionTree" boostWeight="1.0000000000000000e+00" itree="72">
      <Node pos="s" depth="0" NCoef="0" IVar="1" Cut="5.2466140747070312e+01" cType="1" res="1.7037124780472368e-04" rms="1.8345434963703156e-01" purity="7.0606100559234619e-01" nType="0">
        <Node pos="l" depth="1" NCoef="0" IVar="-1" Cut="0.0000000000000000e+00" cType="1" res="1.2533668195828795e-03" rms="1.8103788793087006e-01" purity="7.0861929655075073e-01" nType="-99"/>
        <Node pos="r" depth="1" NCoef="0" IVar="0" Cut="1.3697514533996582e+01" cType="0" res="-1.7513521015644073e-01" rms="3.6198845505714417e-01" purity="3.3333334326744080e-01" nType="0">
          <Node pos="l" depth="2" NCoef="0" IVar="-1" Cut="0.0000000000000000e+00" cType="1" res="-9.4931408762931824e-02" rms="3.8413545489311218e-01" purity="3.9929327368736267e-01" nType="-99"/>
          <Node pos="r" depth="2" NCoef="0" IVar="-1" Cut="0.0000000000000000e+00" cType="1" res="-5.5903013795614243e-02" rms="3.4058305621147156e-01" purity="3.0474731326103210e-01" nType="-99"/>
        </Node>
      </Node>
    </BinaryTree>
    <BinaryTree type="DecisionTree" boostWeight="1.0000000000000000e+00" itree="73">
      <Node pos="s" depth="0" NCoef="0" IVar="0" Cut="5.8713631629943848e+00" cType="0" res="1.5384663129225373e-04" rms="1.8331955373287201e-01" purity="7.0606100559234619e-01" nType="0">
        <Node pos="l" depth="1" NCoef="0" IVar="-1" Cut="0.0000000000000000e+00" cType="1" res="6.7155957221984863e-03" rms="1.9467547535896301e-01" purity="8.8435208797454834e-01" nType="-99"/>
        <Node pos="r" depth="1" NCoef="0" IVar="4" Cut="1.5836486592888832e-02" cType="1" res="-2.6656124740839005e-02" rms="1.3359174132347107e-01" purity="8.9982800185680389e-02" nType="0">
          <Node pos="l" depth="2" NCoef="0" IVar="-1" Cut="0.0000000000000000e+00" cType="1" res="-3.1011676415801048e-02" rms="2.2036315500736237e-01" purity="2.8696972131729126e-01" nType="-99"/>
          <Node pos="r" depth="2" NCoef="0" IVar="-1" Cut="0.0000000000000000e+00" cType="1" res="-3.2822370529174805e-02" rms="5.9747669845819473e-02" purity="5.9259259141981602e-03" nType="-99"/>
        </Node>
      </Node>
    </BinaryTree>
    <BinaryTree type="DecisionTree" boostWeight="1.0000000000000000e+00" itree="74">
      <Node pos="s" depth="0" NCoef="0" IVar="4" Cut="3.2207228243350983e-02" cType="1" res="1.3360039156395942e-04" rms="1.8317340314388275e-01" purity="7.0606100559234619e-01" nType="0">
        <Node pos="l" depth="1" NCoef="0" IVar="-1" Cut="0.0000000000000000e+00" cType="1" res="6.8358932621777058e-03" rms="1.7132455110549927e-01" purity="8.3420026302337646e-01" nType="-99"/>
        <Node pos="r" depth="1" NCoef="0" IVar="5" Cut="1.8969925642013550e+00" cType="0" res="-2.9821578413248062e-02" rms="2.2458103299140930e-01" purity="1.5722036361694336e-01" nType="0">
          <Node pos="l" depth="2" NCoef="0" IVar="-1" Cut="0.0000000000000000e+00" cType="1" res="5.6651186197996140e-02" rms="2.2463503479957581e-01" purity="4.7363981604576111e-01" nType="-99"/>
          <Node pos="r" depth="2" NCoef="0" IVar="-1" Cut="0.0000000000000000e+00" cType="1" res="-3.4839257597923279e-02" rms="2.1986407041549683e-01" purity="1.2545515596866608e-01" nType="-99"/>
        </Node>
      </Node>
    </BinaryTree>
    <BinaryTree type="DecisionTree" boostWeight="1.0000000000000000e+00" itree="75">
      <Node pos="s" depth="0" NCoef="0" IVar="2" Cut="1.0994502343237400e-02" cType="0" res="1.2397339742165059e-04" rms="1.8248379230499268e-01" purity="7.0606100559234619e-01" nType="0">
        <Node pos="l" depth="1" NCoef="0" IVar="-1" Cut="0.0000000000000000e+00" cType="1" res="2.5819623842835426e-02" rms="1.5987083315849304e-01" purity="9.3034052848815918e-01" nType="-99"/>
        <Node pos="r" depth="1" NCoef="0" IVar="0" Cut="2.2995275497436523e+01" cType="0" res="-7.3410505428910255e-03" rms="1.8751248717308044e-01" purity="6.4464831352233887e-01" nType="0">
          <Node pos="l" depth="2" NCoef="0" IVar="-1" Cut="0.0000000000000000e+00" cType="1" res="6.8815140984952450e-03" rms="1.9195766746997833e-01" purity="9.3115568161010742e-01" nType="-99"/>
          <Node pos="r" depth="2" NCoef="0" IVar="-1" Cut="0.0000000000000000e+00" cType="1" res="-2.7599517256021500e-02" rms="1.7823179066181183e-01" purity="2.1158954501152039e-01" nType="-99"/>
        </Node>
      </Node>
    </BinaryTree>
    <BinaryTree type="DecisionTree" boostWeight="1.0000000000000000e+00" itree="76">
      <Node pos="s" depth="0" NCoef="0" IVar="3" Cut="5.2735748291015625e+00" cType="0" res="1.1784907110268250e-04" rms="1.8205645680427551e-01" purity="7.0606100559234619e-01" nType="0">
        <Node pos="l" depth="1" NCoef="0" IVar="-1" Cut="0.0000000000000000e+00" cType="1" res="2.7896063402295113e-02" rms="1.2775748968124390e-01" purity="8.7426197528839111e-01" nType="-99"/>
        <Node pos="r" depth="1" NCoef="0" IVar="1" Cut="2.4691405296325684e+00" cType="0" res="-7.4508022516965866e-03" rms="1.9468876719474792e-01" purity="6.5598005056381226e-01" nType="0">
          <Node pos="l" depth="2" NCoef="0" IVar="-1" Cut="0.0000000000000000e+00" cType="1" res="3.9045989979058504e-03" rms="2.0168329775333405e-01" purity="9.0403151512145996e-01" nType="-99"/>
          <Node pos="r" depth="2" NCoef="0" IVar="-1" Cut="0.0000000000000000e+00" cType="1" res="-2.6554528623819351e-02" rms="1.7904894053936005e-01" purity="1.9886073470115662e-01" nType="-99"/>
        </Node>
      </Node>
    </BinaryTree>
    <BinaryTree type="DecisionTree" boostWeight="1.0000000000000000e+00" itree="77">
      <Node pos="s" depth="0" NCoef="0" IVar="4" Cut="7.5151864439249039e-03" cType="1" res="1.1249729141127318e-04" rms="1.8164397776126862e-01" purity="7.0606100559234619e-01" nType="0">
        <Node pos="l" depth="1" NCoef="0" IVar="-1" Cut="0.0000000000000000e+00" cType="1" res="1.6180416569113731e-02" rms="1.3465078175067902e-01" purity="9.3965232372283936e-01" nType="-99"/>
        <Node pos="r" depth="1" NCoef="0" IVar="0" Cut="3.9673347473144531e+01" cType="0" res="-1.4467898756265640e-02" rms="2.2248236835002899e-01" purity="4.4041466712951660e-01" nType="0">
          <Node pos="l" depth="2" NCoef="0" IVar="-1" Cut="0.0000000000000000e+00" cType="1" res="1.9643362611532211e-02" rms="2.2960299253463745e-01" purity="9.1675490140914917e-01" nType="-99"/>
          <Node pos="r" depth="2" NCoef="0" IVar="-1" Cut="0.0000000000000000e+00" cType="1" res="-1.8716294318437576e-02" rms="2.1981954574584961e-01" purity="3.4850427508354187e-01" nType="-99"/>
        </Node>
      </Node>
    </BinaryTree>
    <BinaryTree type="DecisionTree" boostWeight="1.0000000000000000e+00" itree="78">
      <Node pos="s" depth="0" NCoef="0" IVar="5" Cut="8.8111734390258789e+00" cType="0" res="1.1318711040075868e-04" rms="1.8129755556583405e-01" purity="7.0606100559234619e-01" nType="0">
        <Node pos="l" depth="1" NCoef="0" IVar="-1" Cut="0.0000000000000000e+00" cType="1" res="5.6035019457340240e-02" rms="1.2309417128562927e-01" purity="9.6884554624557495e-01" nType="-99"/>
        <Node pos="r" depth="1" NCoef="0" IVar="5" Cut="2.3205211162567139e+00" cType="0" res="-2.5386966299265623e-03" rms="1.8271860480308533e-01" purity="6.9565087556838989e-01" nType="0">
          <Node pos="l" depth="2" NCoef="0" IVar="-1" Cut="0.0000000000000000e+00" cType="1" res="4.3945532292127609e-02" rms="1.5599237382411957e-01" purity="8.3202022314071655e-01" nType="-99"/>
          <Node pos="r" depth="2" NCoef="0" IVar="-1" Cut="0.0000000000000000e+00" cType="1" res="-7.3913563974201679e-03" rms="1.8391397595405579e-01" purity="6.8413925170898438e-01" nType="-99"/>
        </Node>
      </Node>
    </BinaryTree>
    <BinaryTree type="DecisionTree" boostWeight="1.0000000000000000e+00" itree="79">
      <Node pos="s" depth="0" NCoef="0" IVar="3" Cut="3.7670692801475525e-01" cType="0" res="1.2150932161603123e-04" rms="1.8063487112522125e-01" purity="7.0606100559234619e-01" nType="0">
        <Node pos="l" depth="1" NCoef="0" IVar="-1" Cut="0.0000000000000000e+00" cType="1" res="3.6835852079093456e-03" rms="1.7774966359138489e-01" purity="7.4085992574691772e-01" nType="-99"/>
        <Node pos="r" depth="1" NCoef="0" IVar="2" Cut="6.0069966316223145e+00" cType="0" res="-4.6309385448694229e-02" rms="2.0781359076499939e-01" purity="2.7237963676452637e-01" nType="0">
          <Node pos="l" depth="2" NCoef="0" IVar="-1" Cut="0.0000000000000000e+00" cType="1" res="-1.0548513382673264e-01" rms="3.5983228683471680e-01" purity="4.7222220897674561e-01" nType="-99"/>
          <Node pos="r" depth="2" NCoef="0" IVar="-1" Cut="0.0000000000000000e+00" cType="1" res="-3.7282083183526993e-02" rms="1.9751951098442078e-01" purity="2.6506757736206055e-01" nType="-99"/>
        </Node>
      </Node>
    </BinaryTree>
    <BinaryTree type="DecisionTree" boostWeight="1.0000000000000000e+00" itree="80">
      <Node pos="s" depth="0" NCoef="0" IVar="4" Cut="5.5288922041654587e-02" cType="1" res="1.1112588254036382e-04" rms="1.8037950992584229e-01" purity="7.0606100559234619e-01" nType="0">
        <Node pos="l" depth="1" NCoef="0" IVar="-1" Cut="0.0000000000000000e+00" cType="1" res="4.3216091580688953e-03" rms="1.7656071484088898e-01" purity="7.7176791429519653e-01" nType="-99"/>
        <Node pos="r" depth="1" NCoef="0" IVar="1" Cut="3.2569942474365234e+00" cType="0" res="-3.8593210279941559e-02" rms="2.0735000073909760e-01" purity="1.2164012342691422e-01" nType="0">
          <Node pos="l" depth="2" NCoef="0" IVar="-1" Cut="0.0000000000000000e+00" cType="1" res="-4.2180512100458145e-02" rms="3.5504055023193359e-01" purity="3.5596707463264465e-01" nType="-99"/>
          <Node pos="r" depth="2" NCoef="0" IVar="-1" Cut="0.0000000000000000e+00" cType="1" res="-1.2960484251379967e-02" rms="1.0860917717218399e-01" purity="4.5536991208791733e-02" nType="-99"/>
        </Node>
      </Node>
    </BinaryTree>
    <BinaryTree type="DecisionTree" boostWeight="1.0000000000000000e+00" itree="81">
      <Node pos="s" depth="0" NCoef="0" IVar="1" Cut="3.3926107883453369e+00" cType="0" res="1.0195231880061328e-04" rms="1.8007409572601318e-01" purity="7.0606100559234619e-01" nType="0">
        <Node pos="l" depth="1" NCoef="0" IVar="-1" Cut="0.0000000000000000e+00" cType="1" res="9.6011096611618996e-03" rms="1.7982558906078339e-01" purity="9.2637377977371216e-01" nType="-99"/>
        <Node pos="r" depth="1" NCoef="0" IVar="5" Cut="7.7360334396362305e+00" cType="0" res="-1.7697975039482117e-02" rms="1.7919152975082397e-01" purity="2.9169988632202148e-01" nType="0">
          <Node pos="l" depth="2" NCoef="0" IVar="-1" Cut="0.0000000000000000e+00" cType="1" res="5.1694035530090332e-02" rms="1.2668688595294952e-01" purity="9.5752400159835815e-01" nType="-99"/>
          <Node pos="r" depth="2" NCoef="0" IVar="-1" Cut="0.0000000000000000e+00" cType="1" res="-2.3086339235305786e-02" rms="1.8204289674758911e-01" purity="2.1911720931529999e-01" nType="-99"/>
        </Node>
      </Node>
    </BinaryTree>
    <BinaryTree type="DecisionTree" boostWeight="1.0000000000000000e+00" itree="82">
      <Node pos="s" depth="0" NCoef="0" IVar="3" Cut="1.3183900833129883e+01" cType="0" res="9.9801749456673861e-05" rms="1.7970392107963562e-01" purity="7.0606100559234619e-01" nType="0">
        <Node pos="l" depth="1" NCoef="0" IVar="-1" Cut="0.0000000000000000e+00" cType="1" res="4.1728898882865906e-02" rms="9.5103524625301361e-02" purity="9.4990146160125732e-01" nType="-99"/>
        <Node pos="r" depth="1" NCoef="0" IVar="1" Cut="3.8884239196777344e+01" cType="1" res="-5.0757694989442825e-03" rms="1.8947575986385345e-01" purity="6.6622322797775269e-01" nType="0">
          <Node pos="l" depth="2" NCoef="0" IVar="-1" Cut="0.0000000000000000e+00" cType="1" res="-2.9869847930967808e-03" rms="1.8526324629783630e-01" purity="6.6851866245269775e-01" nType="-99"/>
          <Node pos="r" depth="2" NCoef="0" IVar="-1" Cut="0.0000000000000000e+00" cType="1" res="-5.4380156099796295e-02" rms="3.3364441990852356e-01" purity="5.4024618864059448e-01" nType="-99"/>
        </Node>
      </Node>
    </BinaryTree>
    <BinaryTree type="DecisionTree" boostWeight="1.0000000000000000e+00" itree="83">
      <Node pos="s" depth="0" NCoef="0" IVar="2" Cut="1.0994502343237400e-02" cType="0" res="1.0367482173023745e-04" rms="1.7933753132820129e-01" purity="7.0606100559234619e-01" nType="0">
        <Node pos="l" depth="1" NCoef="0" IVar="-1" Cut="0.0000000000000000e+00" cType="1" res="2.4058450013399124e-02" rms="1.5716826915740967e-01" purity="9.3034052848815918e-01" nType="-99"/>
        <Node pos="r" depth="1" NCoef="0" IVar="0" Cut="2.2603078842163086e+01" cType="0" res="-6.3472655601799488e-03" rms="1.8442097306251526e-01" purity="6.4464831352233887e-01" nType="0">
          <Node pos="l" depth="2" NCoef="0" IVar="-1" Cut="0.0000000000000000e+00" cType="1" res="5.7479664683341980e-03" rms="1.8959847092628479e-01" purity="9.3111205101013184e-01" nType="-99"/>
          <Node pos="r" depth="2" NCoef="0" IVar="-1" Cut="0.0000000000000000e+00" cType="1" res="-2.4569327011704445e-02" rms="1.7463599145412445e-01" purity="2.1137036383152008e-01" nType="-99"/>
        </Node>
      </Node>
    </BinaryTree>
    <BinaryTree type="DecisionTree" boostWeight="1.0000000000000000e+00" itree="84">
      <Node pos="s" depth="0" NCoef="0" IVar="4" Cut="3.2209178898483515e-03" cType="1" res="9.8481847089715302e-05" rms="1.7902851104736328e-01" purity="7.0606100559234619e-01" nType="0">
        <Node pos="l" depth="1" NCoef="0" IVar="-1" Cut="0.0000000000000000e+00" cType="1" res="2.4306697770953178e-02" rms="1.2089652568101883e-01" purity="9.5770978927612305e-01" nType="-99"/>
        <Node pos="r" depth="1" NCoef="0" IVar="0" Cut="3.9836959838867188e+01" cType="0" res="-8.4593696519732475e-03" rms="2.0103617012500763e-01" purity="5.8213222026824951e-01" nType="0">
          <Node pos="l" depth="2" NCoef="0" IVar="-1" Cut="0.0000000000000000e+00" cType="1" res="1.9290853291749954e-02" rms="1.9706040620803833e-01" purity="9.3943840265274048e-01" nType="-99"/>
          <Node pos="r" depth="2" NCoef="0" IVar="-1" Cut="0.0000000000000000e+00" cType="1" res="-1.3317316770553589e-02" rms="2.0113450288772583e-01" purity="5.1256412267684937e-01" nType="-99"/>
        </Node>
      </Node>
    </BinaryTree>
    <BinaryTree type="DecisionTree" boostWeight="1.0000000000000000e+00" itree="85">
      <Node pos="s" depth="0" NCoef="0" IVar="4" Cut="2.6302609592676163e-02" cType="1" res="1.0339871369069442e-04" rms="1.7868527770042419e-01" purity="7.0606100559234619e-01" nType="0">
        <Node pos="l" depth="1" NCoef="0" IVar="-1" Cut="0.0000000000000000e+00" cType="1" res="6.8200989626348019e-03" rms="1.6410979628562927e-01" purity="8.5730099678039551e-01" nType="-99"/>
        <Node pos="r" depth="1" NCoef="0" IVar="5" Cut="2.8226745128631592e+00" cType="0" res="-2.1690193563699722e-02" rms="2.2056646645069122e-01" purity="1.8139503896236420e-01" nType="0">
          <Node pos="l" depth="2" NCoef="0" IVar="-1" Cut="0.0000000000000000e+00" cType="1" res="5.4810076951980591e-02" rms="2.2405304014682770e-01" purity="5.9196960926055908e-01" nType="-99"/>
          <Node pos="r" depth="2" NCoef="0" IVar="-1" Cut="0.0000000000000000e+00" cType="1" res="-2.4732204154133797e-02" rms="2.1767523884773254e-01" purity="1.5519391000270844e-01" nType="-99"/>
        </Node>
      </Node>
    </BinaryTree>
    <BinaryTree type="DecisionTree" boostWeight="1.0000000000000000e+00" itree="86">
      <Node pos="s" depth="0" NCoef="0" IVar="0" Cut="4.6606440544128418e+00" cType="0" res="9.7608688520267606e-05" rms="1.7825190722942352e-01" purity="7.0606100559234619e-01" nType="0">
        <Node pos="l" depth="1" NCoef="0" IVar="-1" Cut="0.0000000000000000e+00" cType="1" res="5.6409542448818684e-03" rms="1.8971163034439087e-01" purity="8.7358605861663818e-01" nType="-99"/>
        <Node pos="r" depth="1" NCoef="0" IVar="4" Cut="1.5836486592888832e-02" cType="1" res="-2.2196698933839798e-02" rms="1.2434191256761551e-01" purity="8.3035469055175781e-02" nType="0">
