#ifndef RecoTracker_LSTCore_src_alpaka_pT3NeuralNetworkWeights_h
#define RecoTracker_LSTCore_src_alpaka_pT3NeuralNetworkWeights_h

#include <alpaka/alpaka.hpp>

#include "FWCore/Utilities/interface/HostDeviceConstant.h"

namespace ALPAKA_ACCELERATOR_NAMESPACE::lst::dnn::pt3dnn {
  HOST_DEVICE_CONSTANT float bias_layer1[32] = {
      -1.0316417f, -0.5292138f, -1.3838978f, -0.7517025f, -0.8418103f, 0.8087351f,  -0.1664009f, 0.2809185f,
      1.3140178f,  0.7565588f,  0.0890440f,  -0.4908848f, 0.4201532f,  -0.4334770f, 0.5002150f,  -0.5591785f,
      1.2298888f,  0.0346711f,  -0.4166603f, -0.0064792f, -0.2969901f, -0.3028315f, 0.0721094f,  0.2584246f,
      -0.2035742f, -0.2888707f, -0.1322349f, 0.5589037f,  0.4285649f,  0.1511498f,  0.1774099f,  -0.9249431f};

  HOST_DEVICE_CONSTANT float wgtT_layer1[6][32] = {
      {-0.2303199f, -0.0356287f, 0.1646899f,  -0.1455843f, -0.0290584f, 0.2789465f,  0.0559607f,  -0.2009920f,
       -0.0174202f, -0.0237667f, 0.1854273f,  -0.0269862f, -0.0826555f, 0.7338054f,  0.0937388f,  -0.8827202f,
       -0.0182344f, 0.0352709f,  -0.1331034f, -0.0432344f, 0.0208153f,  -0.1124316f, 0.1652907f,  -0.1187222f,
       -0.0506563f, 0.2842667f,  -0.7510378f, 0.0503595f,  -0.0329987f, -0.8018139f, -0.0368841f, -0.0285996f},
      {0.7176192f,  -0.1105556f, 0.8051441f,  -0.4914712f, -0.0188390f, -0.2385275f, -0.2936262f, 0.3048217f,
       -0.2883293f, -0.3593645f, -0.4168207f, -0.0530377f, 1.0154706f,  -0.5427814f, -0.9457486f, -0.4481009f,
       -0.4298896f, 0.0229893f,  0.0285739f,  0.1118112f,  -0.2768153f, -0.6592747f, 0.5621189f,  0.7928397f,
       -0.8139476f, -0.1173517f, -0.2300215f, -0.4201365f, 0.2074883f,  0.3603764f,  -0.3421177f, 0.1743037f},
      {0.0283383f,  0.3209993f,  -0.0528482f, 0.9225417f, 0.4743758f,  -0.3381493f, -0.1023181f, 0.0761002f,
       -0.4110529f, 0.0935502f,  0.4090216f,  0.1871852f, -0.7008697f, 0.3572226f,  0.6193281f,  -0.3993059f,
       0.4011126f,  -0.3016730f, 0.1985772f,  0.1066906f, -0.1462973f, 1.0643306f,  -0.6703950f, -0.7412036f,
       0.8931519f,  -0.3644519f, -0.0444721f, 0.7265502f, -0.2158535f, -0.7507963f, -0.2511281f, -0.2659404f},
      {0.6280951f,  -0.1979905f, 0.2835749f,  -0.2547665f, 0.2009394f,  0.5826684f,  0.0070924f,  0.7995070f,
       -0.1270987f, 0.2988422f,  1.2406983f,  0.5875431f,  0.2251529f,  -0.5355389f, -0.2763741f, 0.0566486f,
       0.8032280f,  0.1221172f,  0.0441896f,  1.3281344f,  0.0374645f,  0.1209982f,  -0.7381684f, -0.0807755f,
       -0.4638562f, -0.2137405f, -0.1491151f, 0.3022155f,  -0.1751741f, -0.0065741f, 0.1841483f,  -0.0963122f},
      {0.0176033f,  -0.1465057f, 0.0613830f,  0.1969667f,  0.3062224f,  -0.2499068f, -1.2580094f, -0.1081307f,
       -0.3870914f, -0.2593474f, 0.4072658f,  0.0381806f,  -0.3507286f, 0.3829739f,  -0.1012198f, -0.6614094f,
       0.0203835f,  -0.2897506f, -0.4447211f, -0.4430839f, -0.0040086f, -0.0372864f, -0.4039490f, 0.4331785f,
       0.2907649f,  -0.1092023f, 0.0977807f,  -0.6611776f, 0.7277890f,  0.5314985f,  -0.0860426f, 0.0131469f},
      {0.0536266f,  0.2549676f,  -0.3011957f, -0.4934275f, 0.6024259f,  1.5041729f,  1.3324199f, -0.7268062f,
       0.5070686f,  1.0215880f,  0.7595061f,  1.1927116f,  -0.6326223f, 0.4896784f,  0.1556831f, 0.4490171f,
       -1.1741296f, -0.0409376f, 0.3861921f,  0.4442228f,  0.0257449f,  -0.3155618f, 0.0957184f, -0.0695736f,
       0.1083985f,  0.1015484f,  0.8968495f,  -0.1153277f, -0.5456764f, -0.1840984f, 0.3110001f, 1.6959499f},
  };

  HOST_DEVICE_CONSTANT float bias_layer2[32] = {
      -0.1015397f, -0.2844371f, 0.3264084f, 0.1813205f,  -0.5612066f, 0.0906685f,  0.0845674f, 0.4616135f,
      -0.2177648f, -0.1652546f, 0.4002015f, -0.0791563f, 0.2383104f,  0.4796737f,  0.4520915f, -0.1967489f,
      0.3534851f,  0.5968352f,  0.5477327f, 0.5137501f,  0.3921396f,  -0.3068429f, 0.3759635f, 0.4266470f,
      -0.0625485f, 0.1195836f,  0.3834727f, -0.1557929f, 0.2742889f,  -0.3761551f, 0.1094945f, 0.0651921f};

  HOST_DEVICE_CONSTANT float wgtT_layer2[32][32] = {
      {0.0398679f, -0.3098788f, 0.6160386f,  0.1663042f,  0.0616995f,  -0.5468591f, 0.0629986f, 0.9667135f,
       0.1226420f, -0.1594982f, 0.8811188f,  -0.0122212f, -0.1866431f, -0.0127864f, 0.8248008f, 0.0109573f,
       0.6348554f, 0.7169302f,  -0.4604602f, 0.7598190f,  0.4718021f,  -0.0390644f, 0.8688850f, 0.1144402f,
       0.2909767f, -0.0373881f, 0.7398790f,  -0.1475801f, 0.1209616f,  -0.2457073f, 1.5780616f, -0.9071835f},
      {-0.1679361f, -0.1377337f, -0.0434273f, -0.0693874f, 0.1072921f,  -0.0385521f, -0.1659795f, -0.0850864f,
       -0.0472408f, 0.0961263f,  -0.0083223f, 0.1163423f,  -0.4766918f, -0.2465681f, -0.0924990f, -0.1210379f,
       -0.1053123f, -0.5663610f, -0.0639742f, -0.2473114f, -0.1664381f, -0.2532910f, 0.2278630f,  -0.1883525f,
       0.1034932f,  -0.1848536f, -0.1000912f, -0.0118117f, -0.6502397f, -0.2686550f, -0.0506822f, 0.0806257f},
      {-0.9741716f, 2.8353660f,  0.3112126f, -2.3845534f, 1.0973041f,  -1.0202811f, 0.0325992f,  0.3779927f,
       0.0220244f,  0.0176618f,  0.5749296f, 0.0441563f,  0.1922859f,  -0.1661071f, 0.3079973f,  -0.0444220f,
       0.2683854f,  0.6849532f,  0.1716617f, 0.5063406f,  0.7730200f,  0.0671466f,  0.5224924f,  -2.8718150f,
       -1.4443614f, -0.1455812f, 0.0810298f, -0.3216130f, -0.3000851f, 0.7883633f,  -0.6158253f, 1.2222605f},
      {-0.5756851f, -0.0641467f, -0.8851644f, -1.1059726f, -1.4682759f, 0.3964167f,  -0.0009879f, -0.6186015f,
       -0.0061868f, -0.1787315f, -0.4631928f, -0.1590177f, -0.3159569f, -0.5368351f, -0.4180341f, -0.1800581f,
       -0.4896149f, -1.3214008f, -2.5101123f, -0.8682919f, -0.5497130f, -0.2457729f, -0.3258826f, 0.5641282f,
       -0.7060823f, -0.1749261f, -0.2885247f, -0.1631423f, 0.0304128f,  -0.0907670f, -0.2878378f, -0.6338934f},
      {-1.0935251f, -0.9992083f, -0.0633413f, -0.1609752f, -0.3885693f, 0.3524578f,  0.0127510f, 0.1163242f,
       -0.1016347f, 0.0687914f,  0.0947863f,  -0.0067241f, -0.1876621f, -0.0223206f, 0.1423765f, -0.1802772f,
       -0.0291052f, 0.0450566f,  -0.4598204f, -0.1165596f, -0.3479767f, -0.0701668f, 0.2881460f, 0.1044018f,
       -0.0239950f, -0.1551994f, 0.2170918f,  -0.2169842f, 0.4257921f,  0.3812013f,  0.4517531f, -0.1721758f},
      {-0.2656136f, -1.6221433f, 0.0597067f,  0.4315053f, -0.0760466f, -1.1311982f, -0.1951133f, -0.0456391f,
       -0.3352800f, -0.1049919f, 0.3278280f,  0.0194480f, -0.2923800f, 1.0222012f,  0.0098873f,  -0.0653058f,
       0.2413959f,  0.7756509f,  -0.5178695f, 0.2742799f, 0.2555766f,  0.0098521f,  0.1389581f,  1.2634234f,
       -0.1592175f, 0.0732114f,  -0.1383710f, 0.0594422f, 0.2089978f,  0.4949785f,  -1.7492013f, -0.6352664f},
      {-0.4342200f, 2.3557084f,  -0.3712214f, -0.7716209f, -0.4416530f, 0.1379044f,  0.0727059f,  0.5425858f,
       -0.0196064f, 0.1223867f,  -0.0692875f, 0.1327683f,  0.4494519f,  0.0952457f,  0.1334870f,  0.0676249f,
       0.3728006f,  0.7255252f,  -1.6268474f, 0.8089049f,  0.1800606f,  -0.1145329f, -0.1641574f, -3.0665483f,
       0.5469566f,  -0.0040791f, 0.0806037f,  -0.0413218f, -4.4606824f, -1.1090307f, -4.0268488f, -1.1893214f},
      {-0.2475177f, -0.6829165f, -0.0234359f, -0.0061992f, -0.0379326f, 0.4335875f,  0.0828241f,  0.0840699f,
       -0.0683035f, -0.1582910f, -0.0177477f, 0.1024636f,  -0.0703338f, -0.1498718f, -0.0622758f, -0.0744936f,
       -0.0358834f, -0.1732212f, -1.1194228f, 0.0808573f,  0.0806586f,  -0.1502637f, -0.0854174f, 0.6450295f,
       0.1303551f,  -0.1633945f, 0.0709481f,  0.0788564f,  -0.1573547f, 0.2853298f,  0.3992899f,  -0.2722275f},
      {-0.0024052f, 0.0832400f,  -0.1240560f, 0.1827071f,  0.5078100f,  -1.9449767f, 0.1166574f,  -0.4264094f,
       -0.3462796f, 0.0000746f,  0.0312783f,  -0.1609135f, -0.2486863f, -0.0109304f, -0.3259882f, -0.0161246f,
       -0.1272729f, 0.3718676f,  0.7143661f,  -0.0934052f, 0.2293939f,  -0.1234700f, -0.5969369f, -0.0931792f,
       0.1510706f,  -0.1806178f, -0.3079583f, -0.0738148f, -0.3563280f, -0.2019677f, -2.4623275f, -1.5662863f},
      {-1.0340914f, -0.0264978f, 0.1637420f,  -0.2267127f, -0.0878844f, -0.9779887f, -0.0298158f, -0.0878086f,
       -0.2519222f, -0.1923419f, 0.1495816f,  -0.1703948f, -0.4357837f, 0.2593633f,  -0.1618164f, -0.0063047f,
       0.1708476f,  0.1812407f,  -0.1949099f, -0.0840897f, 0.0365015f,  -0.1204635f, -0.1736511f, 0.1234083f,
       -0.2201642f, -0.2357494f, -0.1014172f, 0.1092978f,  0.1652685f,  -0.3343832f, -0.7220409f, -1.6212125f},
      {-0.2753425f, -1.0450485f, 0.0862796f,  0.5330997f,  0.2215044f,  1.0313069f,  -0.1288254f, -0.4092823f,
       -0.2298029f, -0.1440723f, -0.4615285f, -0.0421680f, 0.2838994f,  -0.4270649f, -0.4212369f, -0.0371355f,
       -0.4017382f, -0.3131837f, 0.0822975f,  -0.1237065f, -0.3185453f, 0.1537958f,  -0.2095980f, -1.3749454f,
       0.8085594f,  -0.1836801f, -0.2636165f, 0.0256138f,  0.2858065f,  0.2371098f,  -1.3770546f, 0.1130755f},
      {-0.9280756f, -0.7408227f, -0.2019696f, -0.2414151f, 0.1294307f,  0.5904933f,  -0.1836856f, -0.1364715f,
       -0.1818316f, 0.0698972f,  -0.0663465f, -0.0624342f, -0.5138503f, -0.8630795f, -0.2610115f, 0.1374615f,
       -0.0169794f, -0.5805362f, -0.1026141f, -0.1647637f, -0.2088510f, 0.0510566f,  -0.1424105f, -3.4270186f,
       0.2712817f,  -0.1466969f, -0.1463187f, -0.1640311f, 0.4300542f,  0.0572317f,  -0.2324502f, -1.0792063f},
      {-0.0307543f, -0.0768560f, 0.8240007f, 0.7662915f,  0.1543863f,  -0.1713554f, -0.1223227f, 0.4386547f,
       -0.2540433f, -0.1332257f, 0.7341567f, -0.0580215f, -0.2693185f, 0.5857823f,  0.4592545f,  -0.0942196f,
       0.5861048f,  0.5916333f,  0.8047288f, 0.6647347f,  0.6680315f,  0.0370881f,  0.5487651f,  0.4163764f,
       0.1050351f,  -0.0590813f, 0.7615875f, -0.0326647f, -0.3096285f, -0.0770774f, 0.4334740f,  0.0817739f},
      {-0.3358265f, -1.4673307f, -0.0814484f, -0.1950698f, 0.2350309f,  -0.8171171f, -0.0790631f, -0.0033560f,
       -0.2415340f, -0.1976242f, -0.0537354f, 0.0254026f,  0.6134555f,  0.0668075f,  -0.0584858f, 0.0701805f,
       -0.0682784f, -0.1794098f, -0.0583040f, -0.1624253f, -0.1456280f, -0.2352183f, -0.0143530f, -0.1338016f,
       -2.4032581f, 0.1073783f,  0.1195123f,  0.0956468f,  0.1293423f,  1.1435740f,  0.3386673f,  0.1772921f},
      {-1.6261140f, 1.0616504f,  -1.4311931f, -2.4396446f, -0.9056627f, 0.4331071f,  -0.0649640f, -1.3435462f,
       -0.0458936f, -0.0711545f, -1.6348053f, -0.1845289f, -0.0306016f, -1.4271052f, -1.3648096f, 0.0524831f,
       -1.7654743f, -1.1757706f, -0.6089430f, -1.3503740f, -1.7567536f, -0.0602079f, -2.0782607f, -0.3474989f,
       -1.6194628f, -0.1068030f, -1.7532518f, -0.1791241f, 0.8444587f,  -1.6989282f, -0.3120632f, -0.3003300f},
      {-0.1823801f, 3.2780595f,  0.0046086f,  0.3211953f,  2.8119521f,  -2.4034190f, -0.1202310f, 0.0593807f,
       0.0990012f,  -0.0647286f, 0.1925517f,  -0.0071298f, -0.4552369f, -0.0450624f, 0.2038983f,  -0.1544811f,
       0.2431807f,  2.5275569f,  0.4051182f,  0.1717180f,  -4.4179425f, -0.0382397f, 0.1282281f,  1.3789687f,
       0.2157716f,  0.0339806f,  -0.0445110f, -0.1175756f, -0.2876654f, 0.6454542f,  -4.1663256f, -4.9532986f},
      {-1.5354282f, 1.1725403f,  -1.3999028f, 1.4599746f,  0.7842735f,  -0.2761331f, -0.1681113f, -1.2318107f,
       -0.1268664f, -0.1008263f, -1.1240377f, 0.0714637f,  1.0816231f,  0.0337652f,  -1.0600177f, -0.0118573f,
       -0.9776441f, -1.1751970f, -4.1702838f, -1.4578556f, -0.5371085f, -0.1503768f, -0.7648986f, -0.1425661f,
       -3.3017726f, 0.1108525f,  -1.1741784f, -0.0334351f, -0.5934044f, -0.0111621f, -0.9253456f, 0.9225865f},
      {0.1424126f,  -0.1699037f, 0.0217177f,  0.1220412f,  -0.0906500f, 0.0009671f,  -0.1639844f, -0.0527305f,
       0.0128741f,  -0.1168858f, -0.0302848f, -0.1783690f, 0.0221473f,  0.1693649f,  0.2265290f,  0.0589060f,
       0.0021857f,  0.0242652f,  -0.0775702f, 0.0388727f,  0.0707951f,  -0.1567841f, 0.1732654f,  0.0437058f,
       -0.1407849f, -0.0657614f, -0.1040369f, 0.1652682f,  -0.1807958f, 0.1050604f,  -0.1204055f, 0.0295164f},
      {-0.0865003f, -0.5563657f, 0.0262170f,  0.1092112f, 0.1299964f,  -0.2665305f, -0.0594379f, -0.3092700f,
       -0.1140931f, -0.1025264f, -0.0924060f, 0.0661781f, -0.6323586f, -0.1840952f, -0.3743987f, 0.0433477f,
       0.1879622f,  -0.2726538f, 0.0839276f,  0.0398268f, -0.2266287f, -0.0569720f, 0.1651291f,  0.0004582f,
       0.0672146f,  -0.0313096f, 0.0879014f,  0.0798023f, -0.6620474f, -0.3207071f, 0.0426169f,  -0.2612755f},
      {-0.0320727f, -1.2532046f, 0.2544250f,  -0.2982330f, -0.4790863f, -0.5560963f, -0.1201061f, -0.0375240f,
       -0.1868488f, 0.0521472f,  -0.0850537f, -0.1624364f, 0.1665921f,  -0.1470270f, 0.2794432f,  -0.1671568f,
       0.0176426f,  -0.4760583f, -0.1061204f, 0.3590186f,  0.1793246f,  -0.0764172f, 0.3327765f,  1.3718973f,
       -0.6579911f, -0.2003471f, -0.0251827f, -0.0495654f, 0.0083008f,  -0.2771839f, -0.8300866f, -3.0943394f},
      {0.0621519f,  -0.1735040f, 0.1486671f,  -0.1150359f, 0.1008294f,  -0.0092464f, 0.0799274f,  0.1733976f,
       0.0848012f,  -0.1365137f, -0.0797485f, 0.1167114f,  0.1286604f,  -0.0544559f, 0.0424396f,  -0.1382235f,
       -0.0363623f, 0.0376997f,  -0.0940855f, -0.0822849f, 0.1207218f,  0.0484856f,  -0.0699596f, 0.1332577f,
       -0.1111775f, -0.1007963f, -0.0908793f, -0.1231520f, -0.0480829f, 0.0872541f,  0.0143959f,  0.1434527f},
      {-0.7731760f, -0.1756437f, -0.5544511f, -1.1350045f, -0.8066334f, 0.4560536f,  0.0514501f,  -0.5005841f,
       -0.1125634f, -0.1759978f, -0.5758266f, -0.1267792f, -0.1993223f, -0.3803072f, -0.4573608f, -0.0674755f,
       -0.4743742f, -0.6225397f, -1.0214270f, -0.5803681f, -1.1637334f, -0.0488763f, -0.4069555f, 0.3787926f,
       -1.1097326f, -0.1770509f, -0.3172881f, 0.0409949f,  -0.0639247f, -0.3521400f, 0.4321971f,  0.0638231f},
      {1.1334474f, 0.2912367f, 0.9589775f,  1.3626057f,  -0.5325903f, 0.0380656f,  -0.1852983f, 0.4992394f,
       0.0062829f, 0.1194302f, 0.6635179f,  -0.1749409f, 0.9010410f,  0.4779315f,  0.6941727f,  -0.0554726f,
       0.6099629f, 0.6952612f, -0.6230863f, 0.5901819f,  0.8190935f,  -0.3441652f, 0.6224667f,  0.4739881f,
       0.6536815f, 0.0891643f, 0.6636505f,  -0.1713116f, -0.1173943f, 1.0364656f,  0.1431172f,  0.4249419f},
      {0.8033506f, 0.0300558f,  0.6656652f, 1.2101313f,  -0.8615839f, 0.5132746f, -0.0265759f, 0.5377895f,
       0.0152243f, 0.0114079f,  0.6099907f, -0.1249313f, 0.2723404f,  0.3610747f, 0.8165271f,  -0.1239832f,
       0.4873835f, 0.8119840f,  1.0779978f, 0.7688931f,  1.2414374f,  0.0522347f, 0.5015374f,  0.3038165f,
       0.7020112f, -0.5665528f, 0.5736545f, -0.2835588f, 0.2212313f,  0.1219948f, 0.3844957f,  0.3401546f},
      {-0.7439671f, 0.1166124f,  -0.5117782f, -0.8712475f, 0.5832991f,  0.8349549f,  -0.0009121f, -0.2292912f,
       -0.1560434f, 0.1009018f,  -0.3865246f, 0.0456842f,  -0.0389204f, -0.4212565f, -0.4042930f, -0.0817643f,
       -0.4844481f, -0.5429400f, -0.0883068f, -0.2933508f, -1.4754379f, -0.0470565f, -0.3384019f, -0.2567133f,
       -1.3822908f, -0.4623447f, -0.3862867f, -0.1395572f, 0.4184268f,  -0.4738576f, 0.5919805f,  0.4029315f},
      {0.0951967f,  -0.0264262f, 0.0745322f,  0.1399388f,  0.1192624f,  -0.0836915f, 0.1539033f, -0.1881727f,
       0.1124343f,  0.1572933f,  -0.0205816f, -0.0527924f, -0.0939525f, -0.0599392f, 0.0312916f, -0.1276211f,
       -0.0861412f, -0.2229238f, 0.0862552f,  0.1315805f,  0.1222533f,  0.1245137f,  0.0553789f, -0.0982146f,
       -0.1024362f, -0.0534966f, -0.1330877f, -0.0255273f, -0.0186730f, -0.0708270f, 0.1567561f, -0.0844505f},
      {-0.0146923f, 0.2591865f,  -0.2036884f, -0.0632321f, 1.3047949f,  -0.5502592f, -0.1978513f, -0.0660495f,
       0.0529672f,  -0.0396357f, -0.5039385f, 0.0635856f,  0.2173319f,  -0.2249199f, -0.2624365f, 0.0801869f,
       -0.5361095f, -0.7585190f, 0.2618334f,  -0.3435789f, -0.0586956f, -0.1631703f, -0.4265099f, -0.0447214f,
       -1.0177643f, 0.0323080f,  -0.3818924f, -0.1746079f, 0.5966771f,  0.6934303f,  -0.2669153f, -0.4290505f},
      {-0.7751231f, -0.3161191f, -0.2155289f, -0.6773937f, 0.1730236f,  -0.4401509f, -0.1782488f, -0.2299091f,
       -0.2481384f, -0.1676966f, -0.2118478f, -0.1280043f, -0.3889951f, -0.2434384f, -0.3576782f, -0.1191592f,
       0.0488413f,  -0.3035202f, -0.1206791f, -0.3636490f, -0.4272992f, -0.0747663f, 0.1205972f,  0.3637502f,
       -0.4497322f, -0.0998606f, -0.2597706f, -0.0395944f, -0.1047684f, -0.1457169f, -0.3183976f, -0.4862959f},
      {-0.3920153f, 0.0499827f, 0.0303043f,  0.1732283f,  -5.3812666f, 0.5284207f,  -0.0502357f, 0.4224207f,
       0.0811522f,  0.0420046f, -0.0458250f, -0.1272357f, 0.0563048f,  0.0414863f,  0.3250322f,  -0.1368608f,
       0.2093009f,  0.2632169f, 0.2363917f,  0.2263645f,  0.2523394f,  -0.0778029f, 0.0646684f,  0.4740721f,
       0.3888938f,  0.0414786f, 0.1371806f,  0.0576984f,  0.2861594f,  -0.3092689f, 0.3796774f,  0.4443598f},
      {-0.8123505f, 0.2358683f,  0.1019373f, 0.2282849f,  -1.2557510f, 0.1555537f,  -0.0974192f, 0.5895486f,
       0.0036116f,  -0.1097254f, 0.1486044f, -0.0238196f, -0.6786419f, 0.3634615f,  0.6986865f,  0.0832033f,
       0.2520329f,  -2.2602396f, 0.1090904f, 0.7121069f,  -1.6000881f, -0.0334629f, 0.5868925f,  -0.1816964f,
       0.4748906f,  0.0168051f,  0.6019380f, -0.1252660f, -0.6808432f, 0.4272106f,  -0.0474080f, 1.0566397f},
      {0.0639796f,  -0.0572261f, 0.0528333f,  -0.0733780f, -0.0679085f, 0.1477537f,  0.1640870f,  -0.0076429f,
       -0.1674436f, -0.0890600f, -0.0843337f, 0.0499240f,  0.1675422f,  0.0999710f,  -0.0753364f, -0.1303664f,
       0.0212046f,  0.1698232f,  -0.0764421f, 0.0027978f,  0.0988120f,  0.0586733f,  -0.0051097f, -0.0913044f,
       -0.0019131f, 0.1084543f,  -0.0796013f, -0.0472390f, 0.1328194f,  -0.1429810f, -0.1264632f, -0.1601117f},
      {0.6985479f, -0.0771215f, -0.0554999f, 0.6879453f,  1.2087054f,  0.5267281f,  -0.0005624f, -0.4339048f,
       0.0174754f, -0.0884810f, 0.0628883f,  0.0359151f,  1.9782046f,  0.0839531f,  -0.0512894f, 0.1214923f,
       0.1118447f, -0.2496938f, 1.8209995f,  -0.1433189f, -0.6471683f, -0.3243633f, -0.2157310f, -9.1764698f,
       0.9299871f, -0.1122522f, -0.0976612f, 0.0127003f,  0.8123280f,  0.9145623f,  -1.1885530f, 3.2752204f},
  };

  HOST_DEVICE_CONSTANT float bias_output_layer[1] = {-0.2746492f};

  HOST_DEVICE_CONSTANT float wgtT_output_layer[32][1] = {
      {-3.9178145f}, {2.2943201f},  {0.9315882f},  {-5.2151937f}, {2.5372679f}, {-1.1143198f}, {0.1008911f},
      {0.3630357f},  {-0.1294091f}, {0.1117750f},  {0.6620483f},  {0.0155139f}, {-0.4766000f}, {0.2999536f},
      {0.7013811f},  {-0.0866368f}, {0.5150933f},  {1.5360959f},  {1.9393219f}, {0.6595656f},  {-5.3660374f},
      {0.0038123f},  {0.6477750f},  {1.6103860f},  {-3.5332921f}, {0.1317881f}, {0.6166227f},  {0.0163189f},
      {-0.3913481f}, {-1.1696485f}, {-1.3807020f}, {-1.1326467f},
  };

}  // namespace ALPAKA_ACCELERATOR_NAMESPACE::lst::dnn::pt3dnn

#endif
