#ifndef RecoTracker_LSTCore_src_alpaka_pT3NeuralNetworkWeights_h
#define RecoTracker_LSTCore_src_alpaka_pT3NeuralNetworkWeights_h

#include <alpaka/alpaka.hpp>

#include "FWCore/Utilities/interface/HostDeviceConstant.h"

namespace ALPAKA_ACCELERATOR_NAMESPACE::lst::dnn::pt3dnn {
  HOST_DEVICE_CONSTANT float bias_layer1[32] = {
      1.5759399f,  -0.3994772f, 0.4280974f,  -1.6780146f, -0.1957098f, 1.0180659f,  -1.9818025f, -0.1394756f,
      -1.4738522f, 0.0708124f,  -0.5468803f, 1.2533343f,  -1.1387161f, -2.0035551f, 0.4606403f,  0.0548070f,
      1.4314936f,  -1.5471562f, 0.3910650f,  0.3814445f,  0.0796451f,  1.3981149f,  -1.1356467f, 0.2222562f,
      -1.0622172f, 0.4750573f,  0.8418977f,  -1.1704211f, 0.5557163f,  1.0719343f,  -0.1916229f, -0.1679582f};

  HOST_DEVICE_CONSTANT float wgtT_layer1[7][32] = {
      {-0.3474015f, -0.0542566f, -0.0485157f, -0.1675780f, -0.0212521f, 0.1759759f,  0.1139071f, -0.2667485f,
       -0.0165271f, -0.0347156f, 0.4947113f,  0.0382834f,  -0.0552550f, 0.9252654f,  0.5341441f, 1.4342718f,
       -0.1430950f, 0.1060660f,  0.5926535f,  0.1332781f,  -0.1583868f, 0.0271739f,  0.0117791f, 0.0304052f,
       1.6017749f,  -0.1401283f, -0.0122920f, -0.3759536f, 0.4417094f,  -0.0377251f, 0.0144219f, -0.0226532f},
      {-0.3667378f, -0.6746863f, -0.1338243f, 0.6204596f, 0.3356600f,  0.7120172f,  0.1330214f,  -0.6221143f,
       -0.0564318f, 0.2346845f,  0.1244973f,  0.4769411f, 0.4258578f,  0.0729432f,  -0.2850539f, -0.3040272f,
       0.8562855f,  0.4726804f,  -0.7165542f, 0.7134872f, -0.2329236f, 0.3889499f,  -0.6498508f, -0.2344403f,
       0.1508345f,  -0.6553926f, -1.2838581f, 0.6704699f, -0.0164178f, -0.1384076f, -1.3686306f, -0.2951273f},
      {-0.0033338f, 1.0484898f,  0.0934406f,  0.6629775f,  0.0689807f,  -1.1568865f, 0.1024116f,  0.4815159f,
       0.0265825f,  0.4487650f,  -1.1510973f, -0.5330415f, 0.2701699f,  -0.0978494f, -0.6516586f, -1.0671266f,
       -0.9100941f, 0.3921767f,  0.7421433f,  -0.6886612f, -0.2447457f, -0.1413060f, 0.4859841f,  -0.3933356f,
       -0.6321754f, -0.4077085f, 1.1842752f,  -0.5343203f, -0.1710724f, 0.0216467f,  1.4579115f,  -0.2839714f},
      {0.8917388f,  -0.7346919f, -1.0463046f, 0.3775975f,  -0.2740558f, -0.1719273f, -1.6515648f, -0.0594413f,
       -0.0161534f, 1.8667692f,  -1.3330016f, 1.3834783f,  0.5481292f,  1.6257373f,  -0.5960386f, 0.6260622f,
       -0.0309609f, -0.3098203f, 0.6279967f,  0.1124809f,  0.0632304f,  0.6663120f,  -1.1266142f, -0.1777018f,
       1.0009360f,  1.2932386f,  0.0652186f,  -1.1581264f, 0.5031686f,  0.0336957f,  -0.0625242f, -0.1789904f},
      {0.0823773f,  -0.0237806f, 0.0231955f,  -0.2387511f, 1.3429683f,  -0.2781298f, -0.1326117f, -0.8409966f,
       0.0176393f,  -0.7999352f, 0.2072813f,  0.0830497f,  0.8846267f,  1.2500743f,  0.8939823f,  0.2052755f,
       -0.1248793f, 0.1011277f,  -0.4228626f, 0.3400199f,  0.0078322f,  -0.1107475f, 0.0859198f,  -0.1192811f,
       0.1106006f,  1.0854321f,  -0.0505248f, -0.0817660f, -0.3809140f, -1.2869573f, -0.0195171f, 0.3124282f},
      {0.4168696f,  -0.9958051f, -1.0782611f, 0.0483475f,  -2.5998909f, 0.0348478f,  0.6023145f, 1.0806988f,
       2.6250148f,  -0.2734412f, 1.4678140f,  1.0709250f,  -0.6433306f, -0.0089214f, 0.1489374f, 1.3227717f,
       -0.7333025f, 0.1609016f,  -1.5507437f, -0.5899166f, 0.0414102f,  -3.2541153f, 1.8059956f, 0.1203557f,
       -1.0024394f, 1.7739828f,  -0.7335321f, 0.2512074f,  1.0371581f,  0.5389997f,  0.1913349f, 0.0377848f},
      {0.2068907f,  -0.3248565f, -1.4888443f, -0.0131287f, -0.2557163f, -0.3526284f, -0.0145357f, 0.4690470f,
       0.0009708f,  -0.0066097f, 0.0057493f,  -0.1048828f, 0.2419544f,  0.6448194f,  -0.1596510f, 0.3632039f,
       -0.6935519f, -0.5823233f, 0.6461959f,  0.1147442f,  0.0070467f,  0.4247423f,  -0.0347635f, 0.3406380f,
       -0.5819650f, 1.2055371f,  -0.2521732f, 0.0640389f,  -0.1645643f, -0.7498630f, 0.0020844f,  -0.0390695f},
  };

  HOST_DEVICE_CONSTANT float bias_layer2[32] = {
      0.0633579f,  0.4593537f,  -0.0691272f, -0.1438287f, 0.9361685f, 0.3662346f,  -0.2419607f, -0.0675904f,
      -0.4386955f, -0.2246882f, -0.0935369f, 0.3542993f,  0.4584119f, 0.5028061f,  0.4449652f,  1.2404934f,
      -0.5558411f, -0.3967998f, 0.0831212f,  -0.0098973f, 0.7216183f, -0.1581921f, -0.3491245f, 0.7059122f,
      -0.1213400f, 0.4677292f,  0.1029293f,  -0.1900419f, 0.2904402f, -0.3979444f, 0.6306248f,  -0.0274149f};

  HOST_DEVICE_CONSTANT float wgtT_layer2[32][32] = {
      {0.5722624f,  0.3368938f,  -1.8218364f, -0.0252748f, 1.5809534f,  0.2587431f,  -0.6395526f, 0.5076606f,
       0.4096195f,  -0.2980015f, -0.1375373f, 0.3789146f,  -0.1753593f, -0.4023470f, 0.6979520f,  0.5800683f,
       -0.0671642f, 0.4383081f,  -1.3142579f, 0.6820988f,  0.8866743f,  -1.1919681f, -0.2027263f, 0.3941090f,
       -0.0666155f, 0.5440816f,  0.4285937f,  -0.0317254f, -0.1329492f, -0.2470990f, -0.2849207f, -0.1176251f},
      {-0.8871774f, -0.2179974f, -0.1079302f, 0.9039204f,  -0.4705651f, 0.1925211f,  0.0755439f,  0.1389809f,
       -1.4630297f, -0.0017908f, -0.0631670f, -0.2407371f, -0.2585385f, -0.5484543f, 0.3416178f,  -0.0216174f,
       0.8194001f,  -0.2063909f, 0.2815488f,  0.5976820f,  -0.6059444f, -0.1075521f, 0.5155245f,  -1.6846395f,
       0.0065877f,  -0.3828012f, 0.4599103f,  0.0360636f,  0.2934900f,  -5.5452971f, -1.1569753f, 0.0255817f},
      {0.0519854f,  -0.4948820f, 0.2204677f,  -0.6243419f, -0.3774720f, -0.6173939f, -0.2524445f, -2.5313017f,
       0.3356981f,  0.0689486f,  0.0323522f,  -1.5858946f, -0.6532866f, 0.0619118f,  -0.1582293f, -0.0257011f,
       -0.0474944f, 0.7667286f,  -1.2864348f, -0.7174448f, -0.0002346f, 0.7189957f,  0.0479244f,  1.0770253f,
       -0.1780624f, 0.2248868f,  0.6263909f,  0.0451234f,  -0.0534327f, -0.4738616f, 0.3782449f,  0.0050786f},
      {0.3960356f,  1.0248016f,  0.8356014f,  0.5838362f,  0.0791774f,  0.9768089f,  1.1142952f,  0.1955252f,
       -0.8004215f, -0.6554992f, -0.1569969f, 0.8316295f,  -0.0268809f, -0.2897643f, -0.1670559f, -0.1341080f,
       0.5600795f,  -0.4190452f, 0.0870086f,  -0.2409004f, -0.0377129f, 0.6863511f,  0.1008233f,  -1.1172857f,
       -0.0041256f, -1.9536994f, 0.1110794f,  -0.0979697f, -0.4513276f, -0.4688559f, -0.4195471f, 0.0759091f},
      {-0.6842685f, 0.7935900f, -0.3802448f, -0.2899687f, -0.7212173f, -0.5166797f, -0.1685155f, -1.2450526f,
       1.4128737f,  0.1112472f, -0.0251580f, 0.7895823f,  -0.3734271f, -0.1513002f, -0.3833641f, -0.7049287f,
       -0.1408319f, 0.0242678f, 1.0973767f,  1.3055599f,  -0.2380463f, -0.1357138f, 1.2763869f,  -0.4926352f,
       -0.0567776f, 0.3115025f, 0.6529822f,  0.0258648f,  1.0559049f,  -2.6399384f, -1.8593594f, 0.0761756f},
      {1.0198060f,  0.5413188f,  -0.1466975f, 0.1815583f,  -0.1170207f, 0.4244478f, 0.0319607f,  0.9993107f,
       -1.1465575f, -0.0102748f, -0.1691968f, 0.4293271f,  0.7111287f,  0.8226286f, 0.5065497f,  -0.1964381f,
       -0.8229968f, 0.3713945f,  -6.1896348f, -0.3797095f, -0.2064250f, 0.1242395f, -0.3895251f, 0.5575079f,
       -0.1371019f, 0.2870941f,  -0.3741273f, -0.0312969f, 0.5065262f,  0.2498390f, 0.7588174f,  -0.0834824f},
      {-1.1005622f, 0.6101134f,  -0.0874131f, 0.6169051f,  -1.5529906f, 2.1574590f, 0.6588187f, 1.0185667f,
       -0.4574422f, 0.2869343f,  0.0743489f,  -0.0826598f, 0.5253894f,  0.1745321f, 1.7068485f, -0.1402569f,
       0.8130929f,  1.0529518f,  -0.0720364f, -0.3282907f, -2.3570311f, 0.7384629f, 0.4207625f, -1.9920623f,
       -0.1792511f, -1.2463542f, 0.2048784f,  0.0280013f,  -2.0179057f, 1.1997482f, 0.0754208f, -0.0118306f},
      {0.3865936f,  0.3318528f,  -1.0279512f, 0.1368982f, -0.0461441f, -0.2094522f, -0.2325482f, 0.0131031f,
       -0.9027597f, -2.1355910f, -0.0524198f, 0.3042864f, -0.9695396f, -0.1095738f, 0.0636847f,  0.4319417f,
       0.4346441f,  -0.6896937f, -0.0379933f, 0.8687896f, 0.3343717f,  1.1595794f,  1.0436133f,  0.4052865f,
       -0.1610223f, -0.5222809f, -0.9897834f, 0.0696832f, -0.5706311f, -1.1850901f, 0.2504498f,  -0.1874883f},
      {-0.1753103f, -4.8075385f, 1.3211262f,  0.3022377f,  1.6459174f,  -0.8120282f, 0.2033681f,  0.3338327f,
       1.5332142f,  4.9007325f,  -0.1628737f, -0.8212898f, -1.9484377f, 0.1468963f,  0.6109570f,  -19.1056442f,
       -0.7373948f, 1.0576172f,  -1.1068689f, 0.4797799f,  -0.3964227f, -1.4101220f, 2.3093228f,  -1.4918159f,
       -0.0936932f, 1.1123024f,  2.4177876f,  0.0977647f,  -0.4128056f, 0.3965254f,  -1.2836667f, 0.1239657f},
      {-0.8128132f, -1.0773605f, -0.1122338f, 0.6347984f,  0.1137699f, 0.3421929f, -0.2553200f, 0.1529037f,
       1.3286103f,  0.1641684f,  -0.0845387f, -1.2958752f, 0.2876272f, 0.2354304f, -0.2071219f, 0.0102590f,
       0.6755572f,  1.0493816f,  0.8021399f,  0.0296581f,  0.1924900f, 0.3102576f, -1.4225770f, -0.4109799f,
       -0.0674724f, -0.9343492f, -0.7805969f, -0.0797405f, 0.2720354f, 0.1434160f, 0.2785307f,  0.0066909f},
      {-0.9222970f, 0.2522908f,  -0.8254806f, -0.1906937f, 1.6711587f,  1.2277987f,  0.1991323f,  -2.0555885f,
       0.7464225f,  -0.6037270f, 0.0300641f,  1.9388044f,  -0.6001194f, -0.5150595f, 0.3445944f,  -0.6878693f,
       1.0416027f,  0.3577910f,  -0.5343616f, 1.8308610f,  -0.6141064f, -3.0963488f, -2.0578072f, 0.3232226f,
       -0.0398607f, 1.7776744f,  -0.8222060f, 0.0287887f,  -0.5634399f, 1.3440483f,  0.0423750f,  0.0685727f},
      {0.3721088f,  -0.4299771f, 0.0993314f,  -1.5196574f, 0.1254475f, -0.6973576f, -0.3545670f, -0.0460710f,
       0.8946281f,  -1.2984545f, -0.0048220f, 0.3865936f,  0.2544036f, -0.2282323f, 0.3174834f,  -0.0347605f,
       -0.6922470f, 0.7850752f,  -0.6170731f, -0.2301883f, 1.2020174f, 0.4293755f,  -0.0504088f, 1.2412726f,
       -0.0564411f, 0.8810320f,  0.2918807f,  0.0937446f,  0.6590444f, 0.2418903f,  0.4778298f,  -0.1782496f},
      {0.7988566f,  -0.6527615f, -0.5718162f, 0.5032688f,  -0.4823666f, 0.0584276f,  0.9085317f,  -0.2084765f,
       0.1204882f,  0.3082633f,  -0.1590981f, 0.3340847f,  0.0309015f,  -0.1084387f, 0.4231290f,  -0.0378121f,
       0.5511918f,  0.3005213f,  0.5125559f,  0.4384551f,  -0.6277609f, 0.6739240f,  -0.0113177f, 0.1563658f,
       -0.1406748f, -0.3406479f, -0.8544245f, -0.1181284f, -0.5623586f, 0.1780860f,  -1.6392833f, -0.0942076f},
      {1.1208180f,  -6.3328695f, 1.9148669f,  0.5880720f,  -0.5254930f, 0.3938402f,  2.2949946f,  -0.2063849f,
       -1.9910876f, 0.5926652f,  -0.0902372f, 1.7201430f,  1.4736956f,  0.0300882f,  0.2424765f,  0.3216630f,
       -0.2475029f, -1.4229246f, -0.7638879f, -0.4592536f, -0.5433440f, -0.9651304f, -1.0403175f, 1.2419538f,
       -0.1471411f, -0.1633304f, 2.9328635f,  -0.0350444f, 1.9198908f,  0.8451792f,  -0.8586314f, 0.0229657f},
      {1.8222539f,  -0.6978710f, 0.7939411f,  0.1048962f,  0.4239220f,  0.0028993f, 0.1976198f,  -0.1287343f,
       0.0576430f,  0.2253173f,  0.0516658f,  0.8788821f,  0.9754007f,  0.3910621f, 0.8819395f,  0.4372335f,
       -0.6143405f, 0.6549071f,  -0.0622513f, 0.6025750f,  0.2212418f,  0.6729483f, 1.4294475f,  0.0735264f,
       -0.1532093f, -0.1773045f, -0.1041135f, -0.0847967f, -0.0847790f, 0.3712001f, -0.6697780f, -0.0266177f},
      {0.6385242f,  -1.0060105f, -0.8198127f, 0.7695595f,  1.3084469f,  1.0535327f,  0.6188902f,  -1.0430634f,
       -0.1468703f, -2.5098417f, -0.0959021f, -2.7698650f, -1.1216303f, -0.1102578f, 0.4281122f,  -0.7296471f,
       0.3373347f,  0.5040104f,  0.4590167f,  0.0067346f,  1.8469110f,  -0.9651734f, -1.4059519f, 0.5914748f,
       -0.0128208f, 0.2532027f,  -1.4032685f, 0.1035364f,  1.1790072f,  1.1229508f,  0.8365484f,  0.0907936f},
      {0.7891247f,  0.1306015f, -1.3241760f, -0.3785312f, 0.7881665f, -0.5123938f, 0.1097103f,  -1.1037354f,
       0.1139448f,  0.3945138f, -0.0570675f, -0.1483177f, 1.3997582f, 1.3245368f,  0.3402426f,  -0.5615861f,
       -1.6064751f, 0.1096867f, -0.5077539f, -0.2007247f, 0.7089014f, -0.1658731f, -0.4755763f, 0.4147099f,
       -0.1853163f, 0.6112117f, -0.4934111f, -0.1672353f, 0.9248938f, -0.1286147f, 1.5956756f,  -0.0934100f},
      {-0.2354999f, 0.6593857f,  0.4466551f,  0.7473737f,  0.3107813f,  0.6484476f,  -0.0295832f, 0.3290562f,
       -0.6010941f, 0.1952592f,  -0.0409567f, -0.5355819f, 0.1871330f,  0.4180622f,  0.0900965f,  -0.4758534f,
       0.1269251f,  -0.0814411f, -0.5455685f, -0.6601026f, -0.3417285f, -0.1942614f, -0.6587195f, -0.9504131f,
       -0.1723215f, -1.0989089f, -0.6017314f, -0.1773497f, -0.5387052f, 0.2000405f,  0.2440681f,  -0.1725183f},
      {0.1849156f,  1.0356791f,  -1.3648641f, 0.4475305f,  0.4527933f,  -0.8054384f, -0.0944429f, 0.5726690f,
       -0.9949646f, -0.0294485f, 0.0056633f,  0.8237581f,  0.9483374f,  0.0487413f,  -1.8764948f, 0.6051844f,
       0.2517006f,  -0.3936634f, -0.8272371f, 0.5685397f,  -0.2556044f, -1.2054704f, 1.4894514f,  0.3256601f,
       -0.1737982f, -0.2240586f, 1.9796519f,  -0.0818237f, 0.4227292f,  0.6391121f,  0.3150747f,  0.0057420f},
      {0.4697051f,  -0.1305843f, 0.5515794f,  0.0385911f,  0.3896470f, 0.2923502f,  0.1221989f,  -0.7075058f,
       -0.1766742f, 0.3950472f,  -0.0094887f, 0.6944149f,  0.6976904f, 0.6521913f,  1.1389599f,  0.1562081f,
       -0.3547825f, 0.7349009f,  0.0579283f,  -0.3351633f, 0.7089083f, -0.0525217f, -0.0792412f, 0.4900373f,
       -0.0199860f, -0.1168333f, 0.3859770f,  0.0996692f,  0.1690076f, -0.3955406f, 0.7028608f,  -0.0965852f},
      {0.0080151f,  -0.0178046f, -0.0514502f, 0.0378601f,  -0.0684637f, 0.1478085f,  0.1445412f,  0.0867788f,
       -0.0046887f, 0.1278147f,  -0.0629931f, 0.0917773f,  -0.1515353f, -0.1290499f, 0.1762302f,  0.1504106f,
       0.0768159f,  -0.0311486f, 0.1482349f,  -0.1134991f, 0.0692187f,  0.0303672f,  0.1628487f,  -0.0678173f,
       -0.1263500f, -0.0319935f, 0.1651396f,  0.1085092f,  0.0297102f,  -0.0214256f, -0.1085957f, -0.0054797f},
      {0.1635808f,  0.6696899f,  1.1459655f,  -1.8620111f, -1.4723020f, -1.8911736f, -0.0227967f, 1.2425743f,
       0.0095291f,  -0.1510487f, -0.0130580f, 0.6183267f,  -0.0942807f, 0.2249234f,  -1.0037369f, 0.0586605f,
       -1.7465464f, -0.3196641f, -1.3911572f, 0.3639389f,  1.1854845f,  0.6542436f,  -0.0695166f, 0.1274556f,
       -0.1205573f, 1.1984328f,  -0.2620020f, -0.1687358f, 1.1193085f,  -1.3924385f, 0.0540378f,  -0.1712857f},
      {-0.8728495f, 0.6987583f,  0.6107583f,  1.0872483f,  -0.2612286f, 1.5490466f,  0.2575256f,  0.7357552f,
       0.4177470f,  -0.8231928f, -0.1985539f, -0.7666418f, 0.4094535f,  -0.6662753f, 0.8739655f,  0.1329452f,
       1.0075372f,  -0.8501315f, 0.7179881f,  0.5654334f,  -1.6843783f, 0.1463230f,  -0.3960015f, -1.1047410f,
       -0.1838727f, -2.5201492f, 0.4211314f,  -0.0157428f, -1.2194939f, 0.6605545f,  -0.1484727f, -0.0471320f},
      {-0.0208039f, -0.0941521f, 0.1715404f,  0.1244262f,  0.1108568f,  0.0015475f, 0.0266803f,  -0.1017057f,
       -0.1097517f, -0.0875320f, 0.0176085f,  -0.0487771f, 0.0735395f,  0.1269764f, 0.0814725f,  -0.0673299f,
       0.1156253f,  -0.1690659f, 0.1654003f,  0.0281075f,  -0.0150414f, 0.0688313f, -0.0090835f, -0.0755056f,
       0.1433578f,  -0.1316643f, -0.1251376f, 0.0762050f,  -0.1321571f, 0.1860849f, -0.1635163f, -0.1175106f},
      {-0.3658982f, -3.4244840f, 2.5753267f,  -0.1196649f, -0.5111231f, -0.7399639f, -0.2092710f, -0.5111302f,
       -1.4803964f, 3.1929042f,  0.1015677f,  0.1454117f,  -0.3266153f, 0.7451766f,  0.4969999f,  0.2876650f,
       -0.4761235f, 0.4963956f,  1.2623167f,  1.2729640f,  -0.9209481f, -7.7068243f, 1.2757560f,  -2.6170399f,
       -0.1536412f, 1.6609026f,  -2.2786829f, -0.0751027f, 0.1190552f,  0.7398465f,  -3.9555848f, -0.0629902f},
      {-0.5108770f, -0.2491422f, -1.0344092f, -0.1021060f, -2.3563685f, -0.8229386f, -1.1861585f, 1.4563291f,
       -0.2268777f, 1.5420488f,  -0.0896737f, 0.5602717f,  0.3522401f,  -0.1445159f, -0.2329012f, 0.5504952f,
       0.2836413f,  0.2245877f,  -0.6218588f, 0.1366249f,  0.0172137f,  0.6798177f,  -0.2639569f, -0.1645236f,
       -0.0784609f, -0.2883270f, -0.0564055f, -0.0055247f, -1.5309701f, 0.3969671f,  1.8172739f,  -0.0227272f},
      {-0.9351805f, -2.4521739f, -1.1779455f, -0.1147421f, 2.1596577f,  -1.7755131f, -2.9028165f, 0.0652323f,
       -1.1070383f, -0.1882304f, -0.0795557f, -0.2530831f, -1.6575696f, -4.2802634f, -2.7123969f, 0.2177701f,
       2.0433569f,  -3.7647798f, -0.5291906f, 2.3641863f,  1.4638669f,  -3.1755233f, 2.1239731f,  1.1620560f,
       0.0163967f,  -0.1226057f, -0.6799309f, -0.1149374f, -0.8949907f, -7.5501499f, -0.0999937f, 0.0948916f},
      {-0.5796216f, -0.4099113f, 0.4310489f,  0.2779022f,  -1.5068766f, 0.3203520f, 1.0939468f, -0.5150675f,
       0.8022348f,  -0.0348284f, -0.1581970f, 0.8606878f,  -0.1459637f, 0.5056880f, 0.1700027f, -0.0999308f,
       -0.0036557f, 1.5873796f,  0.2363566f,  -0.9106732f, -1.7199920f, 0.8135584f, 0.2998293f, -0.4289346f,
       0.1315143f,  -0.0617834f, 0.2050890f,  -0.1437266f, -0.1175391f, 0.7528495f, 0.7890192f, -0.0363525f},
      {0.2810111f,  0.4123453f,  0.6784044f,  -0.6179276f, 0.0515678f,  -0.2369226f, -0.4901982f, 0.7606613f,
       0.7496457f,  -1.1481746f, -0.1646169f, -0.5684467f, -0.5577074f, -0.3330893f, 0.1603930f,  0.0298266f,
       -0.6632493f, 0.5865896f,  0.1378208f,  -0.0404083f, 0.6536301f,  0.5165275f,  0.2557961f,  0.1148743f,
       0.0224334f,  0.1064130f,  -0.6607357f, -0.0877633f, -0.4062766f, 0.4619230f,  0.1384063f,  -0.1500547f},
      {0.5768040f,  0.0763197f,  -1.1055049f, -0.1287479f, 0.2866294f,  -0.1598310f, 0.5998008f,  -0.4732241f,
       -0.2865516f, -3.1452153f, 0.0515751f,  -2.5850151f, 0.5317019f,  0.0290872f,  -0.1248025f, -1.0719649f,
       0.0538755f,  -0.8568730f, 0.3467563f,  0.2021242f,  -0.0663058f, 0.4546203f,  -1.1581416f, 0.0227904f,
       -0.0683903f, 0.3332043f,  -0.5567750f, 0.0531820f,  0.3950544f,  0.1517823f,  -1.3964405f, 0.0268177f},
      {-0.3688937f, -0.8499152f, 0.0763780f,  2.9355760f,  -0.5730656f, 0.0875161f,  0.1182916f,  1.4291385f,
       -0.9594801f, 0.8865954f,  0.0026722f,  0.9416156f,  -3.0508001f, -4.3402481f, 0.7758306f,  -0.6752788f,
       3.2039535f,  -0.5234624f, 1.8154153f,  2.5595496f,  0.0432465f,  1.4511095f,  -0.2832824f, 0.6166583f,
       0.0722110f,  -1.0498918f, -3.4538679f, -0.0362559f, 0.7699417f,  -1.7401149f, 0.4968873f,  -0.1978272f},
      {0.0179032f,  -0.1739047f, -0.0826548f, -0.1164299f, 0.1647398f, -0.1400619f, -0.1415714f, -0.0292283f,
       0.1746308f,  0.0184301f,  -0.0927308f, 0.1593546f,  0.0693988f, -0.1222979f, 0.0824402f,  0.0501017f,
       -0.0612161f, 0.1525431f,  0.1578687f,  -0.1254782f, 0.0663695f, 0.1054125f,  -0.1706932f, 0.1014426f,
       0.0462569f,  0.1292049f,  0.1683123f,  -0.1621062f, 0.1438605f, 0.0916909f,  -0.1403798f, 0.0285798f},
  };

  HOST_DEVICE_CONSTANT float bias_output_layer[1] = {-0.1911382f};

  HOST_DEVICE_CONSTANT float wgtT_output_layer[32][1] = {
      {0.3833938f},  {0.8938782f},  {-0.6683310f}, {-2.0997012f}, {1.0822421f},  {-1.6222913f}, {0.5798858f},
      {-0.3351963f}, {-0.6017966f}, {-1.4739996f}, {0.0138155f},  {-0.6730824f}, {0.6080490f},  {-3.3383362f},
      {0.5202572f},  {1.6656327f},  {2.2888272f},  {0.7616234f},  {-0.8992535f}, {-0.4048433f}, {-1.0768006f},
      {0.6336359f},  {-0.5348358f}, {-1.4301811f}, {-0.0362373f}, {-1.9248599f}, {-0.6708170f}, {0.0836050f},
      {1.1138842f},  {-0.8488451f}, {1.2371943f},  {0.1396129f},
  };

}  // namespace ALPAKA_ACCELERATOR_NAMESPACE::lst::dnn::pt3dnn

#endif
