#ifndef RecoTracker_LSTCore_src_alpaka_T4NeuralNetworkWeights_h
#define RecoTracker_LSTCore_src_alpaka_T4NeuralNetworkWeights_h

#include <alpaka/alpaka.hpp>

#include "FWCore/Utilities/interface/HostDeviceConstant.h"

namespace ALPAKA_ACCELERATOR_NAMESPACE::lst::dnn::t4dnn {
  HOST_DEVICE_CONSTANT float bias_layer1[32] = {
      0.3130181f,  -0.3157252f, -0.0845900f, -0.2268437f, 0.1305549f,  0.3839142f,  0.3933745f, -0.6758229f,
      -0.4188058f, -0.2523611f, 1.4036129f,  0.8239079f,  0.1575654f,  0.2041763f,  0.8787493f, 0.2706699f,
      -0.1112185f, 0.8988609f,  0.9274163f,  -0.1023219f, 0.2916122f,  -0.2606929f, 0.3098971f, -0.0602703f,
      -0.6031470f, -0.0826582f, 0.3605700f,  0.4836628f,  -0.3951748f, 0.0171050f,  0.5156327f, 0.0655813f};

  HOST_DEVICE_CONSTANT float wgtT_layer1[30][32] = {
      {-0.3409404f, -0.2000102f, -0.0890483f, -0.6186467f, -1.7570605f, 0.7890699f,  -0.8753229f, 0.5488843f,
       -0.5376814f, -0.2228569f, -0.3573552f, 2.1554949f,  0.2248887f,  -0.6073594f, 0.2075009f,  -0.1408760f,
       -0.7051892f, -0.0664303f, 0.2747473f,  0.1450685f,  -2.2709231f, -0.4088669f, 0.5452566f,  0.3086576f,
       -0.1213564f, -0.9737034f, 0.2679004f,  -0.1193755f, 0.9693206f,  -0.7785844f, 0.4612639f,  0.7628022f},
      {0.0309823f,  -0.5052885f, 0.0509167f,  0.1379152f,  0.2392345f,  0.0935747f,  0.1001187f,  0.2049023f,
       -0.1292204f, -0.1732666f, 0.0397899f,  -0.1621571f, -0.5934961f, 0.1731108f,  -0.0290751f, 0.1774067f,
       0.0519257f,  0.0035256f,  -0.0188142f, -0.0639332f, -0.2388456f, 0.0038807f,  0.0088869f,  -0.1521942f,
       0.0138392f,  0.0613728f,  -0.0693704f, 0.0792511f,  -0.0990796f, -0.4666552f, 0.0071133f,  -0.1573301f},
      {0.0850391f,  0.1398510f,  0.7312427f,  1.6511540f,  -0.1157119f, 1.8312333f, 0.4276405f,  0.1428780f,
       -0.0762665f, -0.1204791f, 0.5231065f,  -1.9012266f, -0.2759933f, 2.1613867f, -0.3789352f, -0.7384162f,
       0.9980950f,  -1.3757244f, -0.3345136f, -0.1468498f, -0.8294499f, 0.0777341f, 1.4606416f,  0.5440134f,
       2.1587088f,  0.0192866f,  -4.7703443f, -0.3778406f, 2.0303624f,  0.4716987f, -0.5599666f, 1.0512540f},
      {0.1225046f,  0.1352115f,  -0.6140373f, -0.4254693f, 0.2660460f,  -0.7739570f, 1.0955174f,  1.2222520f,
       -0.1673346f, -0.0774871f, 0.4850340f,  -0.2480809f, 2.9553666f,  -0.6026165f, -0.5579752f, -0.3300077f,
       0.0972013f,  1.9986047f,  0.9151404f,  0.0942718f,  -0.0422994f, -0.0338943f, -0.3063800f, -0.6567743f,
       2.2631214f,  0.6305654f,  0.2954915f,  0.8076106f,  0.7743834f,  0.7023419f,  -1.6891261f, -0.6115909f},
      {2.2928166f,   8.8309431f,  -1.5345458f, -4.7059007f,  1.2810588f,  -0.4951739f, 4.4845004f, 7.7040706f,
       -1.8243797f,  0.0956211f,  -0.3696172f, 0.6678835f,   4.7292924f,  -9.7971382f, 2.0854435f, -3.7175915f,
       3.1399553f,   -0.6623941f, 0.1497208f,  -0.0905410f,  -3.9599996f, 3.3040602f,  2.2535894f, -8.0852966f,
       -16.3342419f, 14.6141891f, 2.6647313f,  -10.8139477f, 0.5194562f,  -2.2337329f, 1.4479593f, 10.4768066f},
      {6.3267903f,  8.4862614f,  18.2483406f, -2.5856876f, 2.9871955f, 6.0332689f,  -11.9952469f, -1.8413588f,
       1.3217239f,  -0.1347535f, 0.8526750f,  -4.6671519f, 1.7776268f, 0.2549058f,  -14.5247345f, 3.1438231f,
       -9.3088989f, 1.1253707f,  0.0789171f,  0.1527994f,  1.7165481f, -0.9345309f, -5.6528535f,  -9.5160980f,
       -1.0419953f, -1.0004028f, 1.2163434f,  6.5496387f,  0.0804405f, -6.1611404f, -9.2283039f,  -5.5179152f},
      {-2.3399000f, 4.7614522f,  -0.7949132f, -1.8299819f, -3.5392070f, -0.0867105f, -0.6724365f, 0.4369151f,
       5.0728159f,  -0.2512915f, 0.8541925f,  -0.0066838f, -3.1859064f, -1.5541859f, 0.0789470f,  -1.3237801f,
       2.6402714f,  -0.0662765f, -0.2674660f, 0.0608886f,  1.1315312f,  -0.1070065f, 1.8663841f,  -0.4901078f,
       -1.0676215f, 1.3194273f,  -1.2205451f, -1.0945961f, 0.2475978f,  0.9682984f,  0.2073012f,  1.7876559f},
      {-0.4367641f, 0.4319819f,  1.1654582f,  -3.1896923f, -1.2711153f, -0.6044747f, -3.3841281f, 0.1955531f,
       4.4088063f,  -0.1708138f, -0.3717940f, 0.1636910f,  -2.8220074f, -0.1908980f, 1.0748017f,  -0.3119625f,
       -1.5694339f, -0.1778283f, 0.9781732f,  -0.0754240f, 4.2073040f,  2.0899282f,  1.2668608f,  0.0779037f,
       -1.9252455f, 2.5578146f,  -0.9014751f, 0.0522716f,  0.4070499f,  -0.2140355f, 0.7342044f,  0.8045168f},
      {-6.6071205f, 0.6651391f,  -5.2370253f, 5.0692110f,  0.7510651f,   2.4857941f, 11.5648117f, -1.7613629f,
       1.9677536f,  0.1799172f,  -0.3524120f, -1.9071139f, -7.4744873f,  2.6429889f, -0.1444485f, 2.3542099f,
       1.9711516f,  0.3886011f,  0.0591138f,  0.0699189f,  -3.0183461f,  5.6741471f, -1.1488796f, -5.7687993f,
       -7.4685879f, -9.6448822f, -3.4691532f, 5.0486813f,  -12.6432810f, 8.1007729f, -1.7438285f, -17.6806660f},
      {2.1428952f,  -6.8331566f, 13.9079485f, 0.1021993f,  -3.7234893f, 4.1696281f,  -2.8855472f, 2.6500645f,
       0.2383825f,  0.0089392f,  -1.2698770f, -1.4507635f, 1.9835703f,  1.9673402f,  0.0971966f,  -3.0400901f,
       -1.6690960f, -1.8351660f, -0.5974421f, -0.1041481f, -4.3467126f, -0.8935851f, -4.2216101f, -3.5241582f,
       -1.7024223f, 2.4351561f,  -3.5994439f, 8.1877632f,  1.3503532f,  -8.8505297f, -4.3802824f, -1.2580007f},
      {0.5120507f, -0.8167784f, 0.0356091f,  0.9550222f,  -0.0856578f, -1.6678712f, -1.3589050f, -0.4634860f,
       1.7959082f, -0.0221804f, 1.6858692f,  -0.2350332f, 1.5413535f,  -0.8954431f, -1.9626563f, -0.8659950f,
       1.5534185f, -0.2663006f, -0.0141180f, -0.0641252f, -2.7467253f, 1.3316264f,  0.1042683f,  1.3546844f,
       1.3957758f, -1.1120845f, -0.4499652f, -1.0622435f, 1.5979129f,  -2.7754719f, -1.8175740f, -0.2714084f},
      {2.8423781f,  -0.5802551f, 2.4059951f,  -0.1214163f, 0.6598997f,  -2.7015202f, -0.6345362f, -0.1668582f,
       0.9119438f,  -0.1413521f, -0.1243188f, -1.5296214f, -2.2767708f, -0.4354365f, -0.2501381f, -4.5476084f,
       -2.0407526f, -0.1834106f, 0.4992486f,  -0.0249097f, 4.2349467f,  -2.2088041f, 0.8245230f,  3.3258171f,
       -0.8291156f, 1.8809289f,  2.0291409f,  -0.1829567f, 0.3753935f,  -2.1255214f, 0.3044383f,  -0.8117877f},
      {1.0955867f,  -10.5214415f, -2.5690074f, 5.7836456f,  8.4926434f,  -0.9013922f,  3.8609581f,  -18.2928333f,
       -0.1085265f, -0.1957067f,  0.4130777f,  8.3614740f,  -0.1366454f, 15.5778351f,  4.3706384f,  -6.1245522f,
       -0.2726971f, -2.2554579f,  0.1885025f,  0.1015946f,  3.1017957f,  -9.0225515f,  -2.1712937f, 3.6819403f,
       0.3107212f,  5.4358387f,   0.1556205f,  -5.7449660f, -8.0870762f, -15.4704018f, 2.6353786f,  3.1047711f},
      {7.6964021f,  5.5716128f,  10.1820107f, 0.3581720f,  -3.3344195f, 0.0203794f,  4.8660736f, 0.9843333f,
       1.5092058f,  -0.1621139f, 1.0461260f,  -3.6782911f, -3.2391973f, -1.3214555f, 2.3153496f, -0.1955887f,
       -0.4074941f, 1.3566486f,  0.4631876f,  -0.1068150f, 0.6354957f,  0.4232795f,  1.1560757f, -1.6600587f,
       5.4032493f,  -0.7661732f, 0.9706129f,  -1.9504737f, -2.6826806f, -1.7078609f, 0.2543025f, -0.4549442f},
      {-0.9363269f, 3.2511759f,  1.4988805f,  0.3896330f,  3.5761805f,  -1.8898439f, -0.5672647f, 0.0965158f,
       2.3343837f,  -0.2087380f, -1.6115571f, -2.6963377f, -2.8213720f, -1.1722008f, -0.7269015f, -3.2212329f,
       -2.5389972f, 1.8190597f,  -0.3862028f, 0.0262889f,  -0.8232661f, -0.2829636f, 0.9204201f,  -0.5837291f,
       1.1138207f,  1.4175742f,  0.6769784f,  -1.8336256f, -0.9406338f, 1.4764718f,  -0.4086397f, 1.3364717f},
      {-0.2418238f, 0.2686039f,  0.5018921f,  3.8336344f,  0.0712455f,  -2.2001183f, -0.9898972f, 0.2089690f,
       3.5906739f,  -0.1943938f, -0.6164807f, -2.6908536f, 0.5925170f,  -0.3563481f, -1.3926654f, -1.4510415f,
       0.0248772f,  0.8849464f,  0.3642189f,  -0.1435763f, 1.5389724f,  0.9731716f,  0.7003614f,  1.1896435f,
       0.0179679f,  -0.7365713f, 0.8497150f,  0.2604503f,  -2.4675038f, 1.0341363f,  1.5702873f,  0.1958498f},
      {-2.8209245f, -8.6002207f, -7.2007174f, -4.5361319f, 1.8299714f,  -10.6522865f, -11.7428637f, -5.2347007f,
       7.4452977f,  -0.1641102f, 0.6734878f,  6.6603560f,  0.1524790f,  10.6615028f,  -19.3698826f, 2.1673820f,
       11.9764709f, 1.0121659f,  4.0597305f,  -0.1707846f, -2.1111398f, -6.5540004f,  -18.7466564f, -9.4047441f,
       3.0535262f,  2.7488508f,  9.8994598f,  1.6856064f,  19.2076931f, 6.8278632f,   -21.9050026f, 9.4619055f},
      {-9.7272358f, 11.2765751f, -7.5082231f, -1.7225909f, 13.1407022f, -14.8349190f, -3.2504196f,  15.8990402f,
       10.4930105f, 0.0052292f,  -1.3149272f, 4.6401610f,  -0.3964378f, -4.2996163f,  0.8589647f,   3.0086250f,
       16.7304554f, -1.8806626f, -2.5309651f, -0.1554628f, -1.7752417f, 6.6541591f,   -16.9228725f, -4.0883851f,
       2.5308323f,  1.2640512f,  6.7352295f,  4.6456785f,  8.4472675f,  6.6682787f,   -22.7476864f, 5.0754099f},
      {-0.0464466f, 0.0371061f,  -0.3150824f, 0.2278159f,  0.0781510f,  0.3682392f,  -0.0076914f, -0.0199720f,
       -0.0213357f, -0.0197757f, -3.6537273f, -1.3694360f, -0.1145320f, -0.1972410f, -1.1493046f, 0.5570444f,
       0.0053487f,  -2.8934319f, -3.5391710f, -0.0754734f, -1.4390492f, 0.5983394f,  -1.1443400f, -0.0306496f,
       -0.0482763f, -0.3964492f, 0.0067964f,  -0.3276957f, 0.0020439f,  -0.3366909f, -0.0156225f, 0.0541534f},
      {-19.9178314f, -10.1069622f, 4.6057873f,  -1.6936491f, -1.3457170f, 4.9226985f,  9.7256756f, 3.1693432f,
       -14.5028820f, 0.0931624f,   0.0866399f,  0.5221885f,  -5.0346432f, -9.0003071f, 6.8700786f, -0.3239930f,
       10.3604975f,  0.2665467f,   -0.8745342f, 0.1671114f,  11.8470201f, 7.2739577f,  0.3534940f, 9.4823771f,
       7.6572828f,   -0.6058345f,  4.8220043f,  -4.4774542f, 6.0150776f,  13.1617508f, 8.9563951f, -5.3839235f},
      {-15.3784885f, -4.7021117f, 1.3418291f, -5.5577135f, -3.5915122f,  2.1950095f,  9.0849819f, 4.1605716f,
       -9.9853363f,  -0.2489175f, 0.0786141f, 1.3932520f,  -13.3884411f, -7.0676465f, 8.2610102f, -0.6629214f,
       9.6442671f,   -1.4963982f, 0.0448971f, 0.0271809f,  11.0636673f,  10.8506622f, 1.5703944f, 11.9227686f,
       8.8615837f,   2.9824717f,  6.5997915f, -5.1319938f, 6.7163310f,   8.8659868f,  8.8796968f, -0.0585466f},
      {-0.5536407f, -0.0183597f, -0.8522137f, -1.6674993f, -0.5186954f, 0.2934249f,  -0.3867851f, -0.2717040f,
       0.3141194f,  0.0803582f,  0.9972823f,  1.0203497f,  0.1344238f,  0.2180226f,  0.3881106f,  -0.5604802f,
       0.8635465f,  0.7390655f,  0.9010500f,  -0.1396771f, -0.5388748f, -0.0631624f, 0.1186292f,  -0.5192882f,
       0.4407078f,  -1.0921305f, 0.4530205f,  -0.2301908f, -0.0831401f, -1.6932087f, 0.6916737f,  -7.0294051f},
      {-0.7002707f, -1.2612772f, 0.1443634f,  0.1889855f,  -1.5781668f, 0.5102594f,  1.0737917f, -0.3611829f,
       -9.7292194f, -0.2542418f, 0.7840535f,  -0.1868368f, -3.0662625f, 0.1156164f,  1.8433700f, 0.5661708f,
       -0.7161480f, 0.5610115f,  1.1667061f,  0.0282633f,  2.0658562f,  -0.1299639f, 0.8088669f, -0.3167280f,
       0.0436082f,  0.2469898f,  -0.0169766f, 1.4717587f,  -0.6065165f, 0.3588113f,  2.0036082f, 1.5167968f},
      {0.8769321f,  0.4987610f, -0.1006753f, 0.1093301f,  0.6219906f,  -0.0845869f, 0.5858616f,  -0.3685570f,
       0.1055476f,  0.0447120f, 0.9492686f,  0.6054065f,  0.3753049f,  -0.0302966f, 0.1571343f,  0.5852838f,
       -0.0052162f, 0.6741483f, 1.0925988f,  -0.0104674f, -0.2353034f, -0.2112046f, -0.1704750f, 0.2319756f,
       -0.6973480f, 0.5177563f, 0.0008280f,  0.0842060f,  -0.4818317f, 0.2600521f,  -0.8436811f, -0.3244939f},
      {-0.2498078f, -0.0665436f, -0.6455372f, -11.8636007f, 0.5546330f,  -0.1828474f, 0.4531056f, -0.5045753f,
       0.0021860f,  -0.1727674f, 0.8539888f,  0.9355938f,   0.1768771f,  0.1097697f,  0.3439056f, -2.7710619f,
       0.5562497f,  0.7414805f,  0.9723032f,  -0.0587594f,  -0.2656697f, -0.2262570f, 0.2070577f, -0.4649415f,
       0.6072245f,  0.4071639f,  0.7271490f,  -0.3399665f,  -0.2358655f, -0.6572027f, 0.3878818f, -2.0380676f},
      {-1.0040656f, -15.5001106f, 0.1743044f, -0.1830439f, -12.8375502f, 0.6479514f,  0.4189325f, 0.0413221f,
       -2.3929427f, 0.0917285f,   0.8877478f, -0.4985425f, -3.9854083f,  0.2641849f,  1.1492108f, 1.1804928f,
       -0.4219547f, 0.7097337f,   0.7229153f, -0.1290352f, 1.0844772f,   -0.2112084f, 0.2665555f, -0.0124178f,
       -0.7096525f, -0.0406028f,  0.1377101f, 0.9613231f,  -0.5315894f,  0.3310910f,  1.4178389f, 1.1687748f},
      {0.6737692f,  0.5887758f,  -0.0501311f, 1.0043997f, 0.9804797f,  0.1708015f,  0.1819106f,  -0.5253279f,
       -0.4184220f, -0.0125217f, 1.0117618f,  0.4730924f, 0.6627691f,  -0.1479898f, 0.2580604f,  0.7293127f,
       0.0848437f,  0.7156146f,  0.7816427f,  0.0669967f, -0.1618401f, -0.0909416f, 0.1740791f,  -0.0961089f,
       -0.9237953f, 0.1705291f,  0.2970416f,  0.2243806f, -0.2949813f, 0.1089575f,  -0.3233873f, -0.5519235f},
      {0.8008638f,  0.1581205f,  -0.0660521f, -1.8700145f, 1.8415585f,  -0.1517836f, 0.9849059f,  -0.3305838f,
       -0.1100404f, 0.1668913f,  0.0475755f,  -0.7035441f, 0.0815494f,  -0.4517657f, 0.3797469f,  -0.7237183f,
       -0.4326949f, -0.0045456f, -0.1520977f, 0.0641505f,  0.3261537f,  0.3451711f,  0.3400122f,  0.1905922f,
       0.5979490f,  1.8726524f,  -0.0212991f, 0.5759162f,  -0.3411353f, 0.6154488f,  -0.6591337f, 1.1044852f},
      {-0.5229920f, -1.9910779f, 0.0082411f,  -1.0964926f, -2.8197410f, 0.0379619f,  -0.6362457f, 0.2922821f,
       2.1298475f,  0.0429705f,  0.0860498f,  0.0998842f,  -1.5189127f, 0.8646886f,  -0.3320501f, 0.8533753f,
       0.2106902f,  -0.1353741f, 0.1139200f,  0.1223277f,  -1.3724730f, -0.4976718f, -0.8456128f, 0.6275283f,
       -0.7746818f, -0.4165801f, -0.3285437f, -1.1218213f, 0.2541133f,  -0.0699065f, -0.3644446f, -0.1836386f},
      {-0.3121711f, 0.6553325f,  0.0358024f,  2.9133885f,  0.0601561f, 0.0650956f,  -0.3388072f, -0.1669552f,
       -1.0281963f, 0.0421454f,  -0.0252209f, 0.6697660f,  0.3152214f, -0.1007413f, 0.0397672f,  0.0762647f,
       0.6438169f,  -0.1315191f, -0.0042900f, -0.0298286f, 0.4026648f, 0.1243395f,  0.5714200f,  -0.5934660f,
       0.1301748f,  -0.8935670f, 0.3112782f,  0.2476320f,  0.3565531f, -0.2412163f, 0.8716605f,  -0.7849768f},
  };

  HOST_DEVICE_CONSTANT float bias_layer2[32] = {
      -0.2339502f, -2.1117039f, 1.3029057f,  0.1388091f,  -0.1596625f, -0.0429177f, -1.2913821f, -3.2888331f,
      -0.1078175f, 0.3783462f,  -0.1941358f, -0.4196923f, 1.5371246f,  1.0102557f,  0.0155053f,  -0.1713930f,
      -0.8003848f, 1.2788725f,  1.2547292f,  0.9737166f,  0.0159556f,  -0.9538616f, -0.6874874f, 1.4604672f,
      -0.0163722f, -0.6740248f, 0.4310561f,  0.4786355f,  0.4338695f,  -0.2144726f, -0.3379008f, 0.9070537f};

  HOST_DEVICE_CONSTANT float wgtT_layer2[32][32] = {
      {-0.1525858f, -1.7981244f, 0.8225231f,  0.9017935f, -0.1756990f, -0.1731562f, 0.3533860f,  -0.1859016f,
       0.0066088f,  -1.9248251f, -0.1184793f, 0.0248543f, 0.5696007f,  -0.0907341f, 1.2301605f,  -0.2350527f,
       -1.4149488f, -0.1846859f, -1.7834854f, 1.0467646f, -0.1320335f, -0.5828664f, -0.9305819f, -1.3805257f,
       -0.0421591f, -0.9069743f, -1.1278086f, 0.2304732f, -0.5726073f, 0.0060693f,  -0.6733936f, 2.4653385f},
      {-0.1177371f, -13.0121050f, -1.2429829f, -2.7850580f, -0.0618916f, -0.1455433f, -2.9844699f, 2.1670566f,
       0.0382921f,  1.7592702f,   0.0663455f,  -0.6991704f, 1.1692400f,  -1.3941003f, -0.7780491f, -0.1350629f,
       -3.8783550f, -0.2548187f,  0.3231797f,  1.3278724f,  -0.3614419f, -0.6638193f, -0.3801469f, 0.3153987f,
       2.9468744f,  0.4463870f,   -2.2508523f, 0.2242093f,  -0.7827371f, 0.0342467f,  -0.1136825f, -1.4055092f},
      {-0.0814950f, 1.1034510f,  -2.7856872f, 1.1012450f,  -0.0762363f, 0.0192755f,  0.0942746f, -0.8603304f,
       0.0463609f,  -0.4289516f, -0.2340941f, 0.7183347f,  -0.3241202f, -3.3051322f, 0.6164730f, -0.1720765f,
       -2.9967003f, -0.2995018f, 1.4385067f,  -3.2133255f, -0.0849749f, 1.7341144f,  0.7924995f, 2.0554399f,
       1.0967957f,  0.3311919f,  -0.9581537f, -0.7702340f, 1.0316148f,  0.0471946f,  0.9495452f, 2.0788605f},
      {0.0446539f,  -0.7262716f, 0.2242534f,  -2.2987046f, -0.1550755f, -0.2146342f, 0.2053458f,  0.1453160f,
       -0.0573685f, -0.6836352f, -0.1972867f, 0.3058005f,  -0.2511542f, 1.0547395f,  0.2851569f,  -0.1420605f,
       0.1955147f,  -0.8554440f, -0.7066809f, -0.3464343f, -0.0067930f, -0.3269323f, -0.2229819f, -0.3971729f,
       -0.6963940f, -0.2993692f, -0.1417452f, -0.7594388f, 0.5256453f,  -0.1079851f, 0.1336530f,  -1.2257522f},
      {-0.0354096f, -10.4679108f, 2.8168788f,  0.2949276f,  -0.1779284f, -0.1868454f, -1.4323943f, 0.8472028f,
       -0.0747709f, 0.2078577f,   -0.1229924f, 0.0567793f,  2.0551534f,  -0.4557192f, -0.7714190f, -0.0745471f,
       -0.1583210f, 1.3936666f,   -1.1807573f, -0.6911215f, -0.1539799f, -0.6865327f, 0.5996337f,  -0.7800899f,
       0.1926797f,  0.4295036f,   -1.3045609f, 1.3919017f,  -0.6824273f, -0.0342412f, -0.1761061f, -0.6753551f},
      {-0.1453138f, -2.1702523f, -0.8408509f, 0.0124695f,  0.0548023f,  -0.0599126f, -1.3220210f, -0.9635140f,
       0.0304381f,  0.8915846f,  -0.0114084f, -0.1811013f, -1.0392225f, 0.9355077f,  0.5600502f,  -0.1725564f,
       1.3016142f,  0.0637798f,  0.2127237f,  -0.4201719f, -0.1813546f, -2.8520944f, -1.0162476f, 0.4036767f,
       -1.3526999f, -0.3187918f, 0.2210670f,  -0.0195748f, 0.5739521f,  -0.2086164f, -4.5898190f, 0.8253796f},
      {-0.1084008f, -1.1329324f, -1.6204234f, 1.1476817f,  -0.0628205f, -0.1122542f, 0.5731813f,  0.2743464f,
       -0.0484099f, -0.8538088f, 0.0105360f,  -0.7381154f, -1.1602422f, -1.2242011f, 0.2023281f,  -0.2181710f,
       -1.7745955f, -0.0181406f, 1.6978747f,  -1.8673037f, -0.1872354f, 1.3988467f,  -1.3061260f, 0.6495667f,
       -0.6886965f, -0.6353581f, 0.2563086f,  0.4972568f,  1.2073671f,  -0.0324760f, 0.6208668f,  2.0307891f},
      {-0.0193408f, -0.4770618f, 1.1954961f,  -4.2316422f, -0.0323112f, -0.1459102f, -0.8704525f, 0.0916627f,
       0.1220654f,  1.4996083f,  0.1548122f,  -1.9588864f, -1.5469869f, -1.3433179f, -1.0718721f, -0.0825612f,
       -0.4096117f, 0.9981126f,  -1.7012634f, -1.8265936f, -0.0371830f, 2.3563027f,  -1.3538713f, 0.6455814f,
       1.7223636f,  0.7526782f,  -2.3576136f, 1.1849345f,  2.1408458f,  -0.1714138f, 0.4818093f,  -0.3588967f},
      {0.0729335f,  -6.1714144f, 2.1946981f,  -4.1299558f, 0.0044464f,  -0.1933377f, 0.6864235f,  -0.3803750f,
       -0.2148182f, 0.9621077f,  -0.1807104f, 2.4574375f,  1.2062972f,  2.5480094f,  0.6602007f,  -0.0865193f,
       -1.3168519f, 1.7552648f,  0.5018759f,  1.1154609f,  -0.2282289f, 0.7631954f,  -1.0011274f, -1.3729336f,
       0.9056255f,  -0.0414166f, -1.8079906f, 1.0183337f,  0.3374647f,  0.0572285f,  -0.4237293f, 1.7220364f},
      {-0.0589474f, -0.0295253f, 0.1225147f, 0.1446855f,  0.1071389f, 0.1601978f,  -0.0401577f, -0.0364199f,
       0.0953632f,  0.0868486f,  0.1608090f, 0.0642403f,  0.1249414f, 0.1899325f,  0.0255690f,  -0.0968316f,
       -0.1216723f, -0.1698821f, 0.0820711f, 0.1747911f,  0.0620590f, -0.1446941f, -0.1555044f, 0.0741209f,
       -0.0763885f, -0.1246467f, 0.1337765f, -0.0873028f, 0.0942246f, 0.0860358f,  0.1234084f,  0.1226101f},
      {0.0643494f,  -0.8147358f, -1.5970768f, -1.5264196f, -0.1014192f, 0.0894014f,  -0.2399453f, 1.0807495f,
       -0.1235767f, -1.2951756f, -0.0810054f, -1.1764668f, 0.4282590f,  0.0908309f,  0.6702700f,  0.0942179f,
       -0.8752475f, 1.0613892f,  2.6491807f,  0.4649454f,  0.0426983f,  -0.8645003f, -1.2832506f, 1.0818568f,
       -0.6891628f, -2.6222782f, -0.0669045f, -5.2834606f, -3.7087319f, -0.1093205f, -3.0082226f, 0.0202389f},
      {-0.2165046f, -2.3887262f, 1.3350971f,  3.2154691f,  -0.0899850f, -0.1132472f, 3.4892216f,  0.6763555f,
       -0.0366738f, -0.3074943f, -0.0737181f, -0.2638237f, -2.1615725f, 0.9533494f,  1.0567867f,  -0.0743023f,
       -1.5021936f, -2.1020463f, -0.4901834f, 0.3259082f,  -0.2369750f, -0.1386719f, -0.1885716f, -0.6453994f,
       -0.2157237f, -0.3096344f, -0.7145861f, -0.0144529f, -1.7015969f, 0.0518598f,  -0.8833122f, 0.1368720f},
      {-0.1693773f, -1.7163130f, 1.4214562f,  -5.3610578f, -0.1453443f, 0.0007269f,  2.3939090f, -0.4252889f,
       -0.2080639f, 0.4997855f,  -0.1604623f, -0.9568118f, 0.1174134f,  1.5827537f,  0.0471937f, 0.0410202f,
       -5.9910173f, -1.7195174f, 2.6566005f,  -0.1300166f, -0.3056662f, -0.4734422f, 0.5415567f, -0.6322125f,
       -0.6389906f, 0.8110722f,  -1.7760222f, -0.1890267f, 0.4568902f,  0.0178664f,  0.9815944f, -0.6494362f},
      {-0.0803987f, -0.4049147f, -1.1458402f, -3.8709407f, -0.0748584f, 0.0285123f,  1.0476711f,  -0.4686022f,
       -0.1482179f, -1.3519528f, -0.1977116f, 1.0795574f,  -2.0080688f, 0.8830637f,  -1.8861086f, -0.1462930f,
       -0.4670950f, -2.0300276f, -1.3247769f, 1.1512129f,  -0.1377436f, 1.7818434f,  0.5111244f,  -1.0817790f,
       -1.9341105f, -0.2747863f, 1.7866142f,  -0.6981304f, 0.2916693f,  -0.0235312f, -0.8175534f, -1.6998042f},
      {-0.1061751f, 0.6215375f,  -0.4626823f, 0.7672512f,  0.0020817f,  -0.1591142f, 1.0898968f,  -0.9204068f,
       0.0574663f,  0.1774926f,  0.0484907f,  -0.3295842f, 0.4489160f,  -1.1343844f, 1.5402520f,  -0.1346410f,
       -1.5354218f, -0.7182790f, 0.2196787f,  -4.9884086f, -0.1196452f, -0.7342232f, -0.2625498f, -0.1683128f,
       -3.4147658f, 0.4656263f,  -0.1907654f, -1.5676821f, -0.1993192f, 0.0392413f,  -0.4939966f, 0.2587339f},
      {-0.1575988f, 0.3401670f,  0.3991243f,  0.7242632f,  -0.1744899f, -0.1183499f, 0.0967574f, -0.3592824f,
       -0.2704069f, -0.2581256f, -0.2485954f, 0.3446464f,  -0.7076147f, -0.6296598f, 1.0094991f, -0.1585015f,
       -0.0655680f, -0.1737440f, -0.6190755f, 0.2832435f,  -0.0455194f, -1.0389528f, 1.4021788f, 0.1367040f,
       -0.2918817f, -0.8456540f, -0.1551147f, -0.8092477f, 0.2053470f,  0.0517656f,  0.3124267f, -0.0847588f},
      {0.0037535f,  1.7123971f,  -0.0702230f, -7.8142509f, -0.1969137f, -0.0857682f, -0.2811019f, -0.4737110f,
       -0.1132331f, -0.1521158f, -0.0600281f, 0.0706206f,  1.0167074f,  0.2372540f,  0.5142798f,  -0.1154348f,
       -0.4991046f, 1.8288782f,  -0.2266811f, 0.5554674f,  -0.2068119f, -1.1852149f, 1.3449707f,  -2.0556967f,
       -0.9963455f, 0.2519412f,  0.1331067f,  -0.4544231f, 1.0645961f,  -0.1106808f, 0.9460998f,  0.4178981f},
      {-0.2119178f, 1.9799466f,  -0.2797689f, -1.0932020f, 0.0028856f,  -0.1588331f, -0.3786546f, 1.1156173f,
       -0.0215458f, -5.3119068f, -0.0948427f, -1.5506617f, -1.4219491f, 2.4189386f,  1.4762870f,  -0.0996478f,
       1.9492981f,  0.9989491f,  0.9490891f,  -0.7439177f, -0.0704944f, -0.7028235f, 0.2047088f,  -2.2349808f,
       0.5578019f,  -2.0313745f, -0.0651128f, -0.3024914f, -2.0939598f, -0.0180862f, -1.0688573f, -1.6645123f},
      {-0.0167054f, -0.9788288f, 0.5361816f,  1.6640991f, -0.0242798f, 0.0521166f,  -0.4116896f, -0.8344618f,
       -0.0963774f, 3.8331950f,  -0.0267836f, 2.8407450f, 1.5915482f,  -1.3799198f, -2.6205218f, -0.0732574f,
       0.7984170f,  -2.0659196f, -3.5870969f, 2.8777542f, -0.1461587f, 1.1945763f,  1.1590073f,  1.2939118f,
       0.4921311f,  4.3183928f,  0.2045673f,  4.7427683f, 3.8618271f,  -0.0308256f, 4.8768749f,  1.0944498f},
      {-0.1358386f, -0.1472694f, -0.1158773f, -0.0939915f, 0.1222765f,  0.1192099f,  0.0518727f,  0.0441144f,
       0.0335920f,  0.1631196f,  -0.0097409f, 0.0913221f,  -0.1351816f, -0.0724972f, -0.0489905f, 0.0919923f,
       -0.0411735f, 0.0600587f,  0.0222677f,  0.0181216f,  -0.0119533f, 0.0149932f,  0.1105281f,  0.0120449f,
       -0.0900230f, 0.1096532f,  -0.0958123f, 0.0478526f,  -0.0528525f, -0.0530951f, 0.1649548f,  0.0884538f},
      {-0.1365108f, -1.4470286f, -3.3190532f, -0.6094688f, -0.2091497f, -0.0999000f, -0.9306201f, -1.0360260f,
       -0.1827736f, 0.0683407f,  -0.0502374f, 0.3790842f,  -3.5734098f, -0.9349656f, 0.3886600f,  0.1461777f,
       -2.0582819f, 1.1910707f,  -1.9501384f, -2.9547875f, -0.1470737f, -1.4672521f, -0.8007376f, -0.9336768f,
       1.3155514f,  0.4972472f,  -5.6431427f, -3.5151341f, -5.8025484f, -0.0358306f, 0.4548545f,  0.2571939f},
      {-0.1756670f, -1.3679352f, -0.3739035f, -0.4339395f, -0.2128811f, -0.1038225f, 0.5042853f,  0.4281598f,
       -0.2762718f, -0.3050812f, -0.0561761f, -0.3663020f, -0.7264599f, -0.7135370f, -1.4355675f, -0.0855041f,
       -1.6003639f, -3.3269587f, 0.3331296f,  -0.2510884f, -0.0435672f, 2.3782334f,  -0.8790841f, -0.4602313f,
       0.3282675f,  1.0674137f,  -0.4261901f, 0.6184355f,  -0.6284660f, -0.2009129f, -1.3984579f, -0.1182039f},
      {-0.0179437f, -2.4176567f, -0.0757853f, -0.9053250f, -0.1604971f, 0.0653039f,  -0.0456533f, -1.2324991f,
       -0.2042288f, -1.4000354f, -0.1496307f, 0.7025797f,  -0.8148692f, -2.2639663f, -0.1080219f, -0.1692714f,
       -0.0350256f, 1.1112232f,  -1.2173100f, -3.3865623f, -0.0014034f, 1.0519972f,  -0.4149089f, -0.9822370f,
       1.0764426f,  1.0734540f,  0.2395243f,  -0.9695317f, -0.2875118f, 0.1405493f,  -0.8919160f, 0.4231086f},
      {-0.2191032f, 1.8018681f,  -1.7559167f, 0.0348163f,  -0.0597553f, 0.0096346f,  0.4048410f, -2.5880859f,
       -0.2669998f, 0.5746318f,  -0.1141291f, 0.3722134f,  -0.6411135f, -0.8711343f, 0.9618454f, -0.1413043f,
       0.5999789f,  0.4171342f,  -0.0654649f, -1.1597379f, -0.0378705f, -1.1590790f, 1.3731012f, -0.1211245f,
       -0.4004700f, -0.8745431f, 0.3397753f,  -0.4758925f, 0.4651093f,  -0.1950274f, 0.7756749f, 0.2193565f},
      {-0.0431680f, 1.4789274f, -1.2237777f, 1.1632382f,  -0.0625869f, -0.0474214f, -1.3440026f, 1.4450136f,
       -0.1436337f, 0.7880324f, -0.2373608f, 1.4573339f,  0.7586362f,  -0.9148275f, -0.2211355f, 0.0550283f,
       -6.0262470f, 0.3978752f, -0.1995126f, -0.0479593f, -0.1120174f, -1.2093679f, 3.4314570f,  0.0222109f,
       -1.1163449f, 0.2131999f, 2.2462623f,  -0.4972607f, -0.5182921f, -0.0701132f, 0.5019436f,  -0.1937658f},
      {-0.1667943f, 0.0196575f,  -0.9141287f, -0.2902696f, 0.0318007f,  -0.0335459f, 0.5858797f,  -0.0900941f,
       -0.0614002f, 1.2998632f,  -0.0909332f, -0.5147573f, -0.0871529f, 1.2078508f,  -0.2408318f, 0.0943059f,
       2.0550728f,  -2.3531728f, -0.4569368f, -0.0462965f, -0.1727646f, 0.8314115f,  -0.0838026f, 1.1487722f,
       -2.3224678f, 0.6001235f,  0.4483957f,  -2.0149994f, -0.5540643f, -0.0993498f, -0.3938250f, 1.0691496f},
      {-0.2128484f, -0.9067336f, -0.8067648f, -0.5638098f, 0.0466387f,  -0.1250697f, -1.0633522f, 2.0702426f,
       -0.2612922f, 0.4281299f,  0.0145171f,  0.8089548f,  1.0637047f,  -1.6296221f, -0.0324031f, -0.1453255f,
       0.5244270f,  0.4705407f,  0.3187122f,  0.8282533f,  -0.0451930f, 0.6502138f,  -0.3958839f, 0.8502606f,
       0.9307000f,  0.3706145f,  -1.7802641f, 0.1567971f,  0.0740849f,  -0.0895442f, 0.3950359f,  -1.7540554f},
      {0.0023149f,  0.7263200f, 1.8512523f,  -0.4771179f, -0.1163291f, 0.0224466f,  2.1579833f,  -0.2968757f,
       -0.0573871f, 0.9053006f, -0.0305074f, -0.9798708f, -0.0732942f, 1.8749733f,  0.1304994f,  -0.1875225f,
       1.1224291f,  0.5052640f, -0.4813080f, -1.1107147f, -0.1909173f, -2.3484604f, 0.1204147f,  -0.4592973f,
       -0.2538125f, 0.4104489f, -0.7043998f, 1.0401071f,  0.0527195f,  -0.1755383f, -0.0225556f, -1.7959408f},
      {-0.1738733f, -2.5466421f, 0.4712865f,  -4.1575985f, -0.0673208f, -0.0929229f, 1.4804220f,  -2.0162396f,
       -0.0699170f, -1.2635130f, 0.0033261f,  -0.2207318f, 1.6315613f,  -0.2808344f, 0.6500907f,  0.0873509f,
       1.2061590f,  0.9874881f,  0.0503163f,  1.1066431f,  -0.2690387f, 3.0120494f,  1.0901014f,  -0.8387108f,
       -0.1055128f, 0.7355948f,  -1.6113559f, 0.1626149f,  0.6186574f,  -0.1442034f, -1.3751197f, -0.7357581f},
      {0.0801182f,  -1.7048576f, -0.6614535f, 0.2159117f,  -0.1067486f, -0.0390127f, -1.7236508f, -4.8257847f,
       -0.1392784f, 2.6549494f,  -0.0076066f, -0.2928389f, -1.4872373f, -2.2248919f, 0.3740856f,  0.0089244f,
       -2.1601932f, 0.2364899f,  2.2799277f,  0.6705108f,  0.0404501f,  0.8240705f,  0.9378061f,  1.7379807f,
       0.6561645f,  -2.2824814f, 0.4317684f,  0.9481612f,  3.3949718f,  -0.1386193f, -0.5392355f, -0.2192377f},
      {-0.0682519f, 2.1510222f,  -1.3331705f, 1.7252599f,  -0.0390061f, -0.0311894f, -1.4449217f, 0.7528419f,
       0.0482161f,  -0.9996649f, -0.1083589f, 0.7481404f,  -1.0902423f, 0.3155636f,  -0.7373950f, -0.0225023f,
       -0.5480027f, -1.7043972f, 0.1796622f,  -1.9089470f, -0.0284076f, 0.1727537f,  0.9399895f,  1.2661113f,
       -0.1629798f, 0.9542015f,  -0.3868639f, -0.2013974f, 0.7035374f,  -0.1902321f, 0.0618807f,  1.6585518f},
      {-0.0382449f, -0.3556600f, 0.7932450f,  -1.7579209f, 0.0754038f,  -0.1452644f, -0.0262194f, 0.0631723f,
       -0.1482574f, 0.4631275f,  0.0041328f,  -0.5673072f, 0.6279140f,  -0.4053148f, 0.7965385f,  0.0043115f,
       -0.7390732f, -0.1081802f, -0.3900261f, 0.2581029f,  -0.0874927f, 0.5915189f,  -1.1614733f, 0.6526067f,
       -0.0630925f, -1.2862672f, 0.0975272f,  -1.6696635f, -2.1918375f, 0.0246310f,  -0.5078331f, -1.6059371f},
  };

  HOST_DEVICE_CONSTANT float bias_output_layer[3] = {-0.0299599f, -0.5291600f, 0.4870134f};

  HOST_DEVICE_CONSTANT float wgtT_output_layer[32][3] = {
      {0.0675000f, 0.0580845f, 0.0252083f},   {-0.5480256f, 0.5014070f, -0.4848022f},
      {0.0558893f, -0.9268196f, 0.6123658f},  {-0.1926070f, 0.4826855f, -0.7119671f},
      {-0.0407576f, -0.0624052f, 0.0473613f}, {0.0114524f, -0.0661213f, 0.0861401f},
      {0.4889011f, 0.3984242f, -0.1460386f},  {-0.0307660f, -1.1088817f, 0.5681090f},
      {-0.0103742f, -0.0451352f, 0.0913075f}, {0.2240870f, -0.4127513f, -0.3115116f},
      {-0.1053132f, 0.0329629f, -0.0964765f}, {0.1293648f, -0.0118805f, -0.5233608f},
      {0.0734460f, 0.5619589f, -0.4186259f},  {-0.3173129f, 0.1465155f, -0.1484945f},
      {-0.5634108f, 0.2698199f, 0.1681544f},  {0.1714749f, -0.1649845f, 0.1014268f},
      {0.1057630f, 0.9072341f, -1.1890781f},  {-0.3175716f, -0.2992002f, 0.3401313f},
      {-0.4994496f, -0.1189708f, 0.3650176f}, {0.4023024f, -0.9219202f, 0.0693439f},
      {-0.1709604f, -0.0994071f, 0.0222464f}, {0.3324146f, 0.0158491f, -0.4939574f},
      {0.0952293f, -0.5191534f, 0.3818873f},  {0.0176812f, 0.2723607f, -0.3078566f},
      {0.1919187f, -0.8505318f, 0.1964855f},  {0.0822281f, 0.0565761f, -0.5816049f},
      {-0.0743144f, 0.0852944f, -0.7256451f}, {0.1760607f, 0.0578475f, -0.8243266f},
      {0.1617602f, 0.1823115f, -0.4042889f},  {-0.0384557f, -0.0115344f, 0.0508929f},
      {0.5513267f, -0.0695007f, -1.2113558f}, {0.0910288f, -0.4101452f, 0.3242988f},
  };
}  //namespace ALPAKA_ACCELERATOR_NAMESPACE::lst::dnn::t4dnn
#endif
