#ifndef RecoTracker_LSTCore_src_alpaka_T5EmbedNetworkWeights_h
#define RecoTracker_LSTCore_src_alpaka_T5EmbedNetworkWeights_h

#include <alpaka/alpaka.hpp>

#include "FWCore/Utilities/interface/HostDeviceConstant.h"

namespace ALPAKA_ACCELERATOR_NAMESPACE::lst::dnn::t5embdnn {

  HOST_DEVICE_CONSTANT float bias_fc1[32] = {
      0.4077676f, -0.2279155f, -0.2884339f, 0.3470485f, 0.2260163f,  0.3343305f,  0.2159934f, 0.3737450f,
      0.5172617f, 0.4149252f,  0.4305608f,  0.8852963f, -0.0304266f, 0.4297696f,  0.3520102f, 0.1646055f,
      0.2715247f, 0.5041977f,  -0.3354747f, 0.1381416f, -0.2057779f, -0.6174472f, 0.3763988f, 0.2417004f,
      0.6029384f, -0.5503362f, 0.1589353f,  0.0196475f, 0.1615662f,  0.4879072f,  0.7081229f, 0.0848025f};

  HOST_DEVICE_CONSTANT const float wgtT_fc1[30][32] = {
      {0.0024744f,  -0.0393794f, 0.0012607f,  -0.0463855f, -0.0008486f, -0.0039237f, 0.0104747f,  0.0094048f,
       -0.0152672f, 0.0009938f,  0.0101450f,  -0.0166616f, 0.0049875f,  -0.0070639f, -0.0500429f, -0.0172534f,
       0.0688348f,  0.0009360f,  -0.0225526f, 0.0062404f,  0.0079217f,  -0.0171006f, -0.0016421f, -0.0123498f,
       -0.0035078f, 0.0132192f,  0.0036508f,  -0.0103952f, 0.0018321f,  0.0288714f,  0.0098612f,  -0.0000296f},
      {-0.0058784f, -0.0120812f, 0.0049086f,  0.0155617f,  0.0009917f,  -0.0040435f, 0.0133419f,  -0.0072605f,
       0.0024925f,  0.0068197f,  -0.0006385f, 0.0031977f,  -0.0114677f, -0.0033108f, 0.0209282f,  0.0015631f,
       0.0125927f,  -0.0031000f, -0.0068791f, -0.0123153f, -0.0049826f, -0.0070589f, 0.0026653f,  0.0113343f,
       0.0100663f,  -0.0192249f, -0.0090349f, 0.0177071f,  -0.0093298f, 0.0316960f,  -0.0035137f, 0.0034051f},
      {-0.0012076f, -0.0271521f, 0.0020420f,  -0.0111024f, 0.0028394f,  0.0007962f,  -0.0022592f, -0.0033232f,
       0.0035402f,  -0.0087297f, -0.0111310f, -0.0055134f, -0.0189009f, 0.0056956f,  0.0075314f,  -0.0220869f,
       -0.0052434f, 0.0041410f,  0.0126735f,  0.0046679f,  -0.0063149f, -0.0643957f, 0.0093661f,  -0.0139448f,
       -0.0077514f, 0.0037926f,  0.0074050f,  0.0076167f,  -0.0104248f, 0.0317166f,  -0.0028450f, 0.0173832f},
      {0.1251217f,  0.1800787f,  -0.1867869f, 0.1595200f,  0.1434205f,  0.1503779f,  -0.4537136f, -0.5901821f,
       0.0563463f,  0.7319781f,  -0.1496763f, -1.5963429f, 0.2045313f,  0.3836967f,  -0.9270357f, -0.0226355f,
       -0.2698695f, 0.3014301f,  0.1243785f,  0.1064028f,  -0.1828626f, -0.0126028f, -0.6539689f, 0.4266773f,
       0.1370417f,  -0.1538948f, -0.3513461f, 0.1182490f,  -0.0221514f, -0.1990412f, -1.7690033f, -0.2758574f},
      {-0.5385936f, -0.0012131f, 1.0062443f, -0.0004652f, -1.5250168f, -0.6941552f, 0.4669687f,  -0.3101588f,
       -0.1252819f, -0.5553900f, 0.4493555f, -1.0237653f, 0.0137464f,  -0.9620051f, -1.1179942f, 0.8291886f,
       -0.4238032f, -0.9437180f, 0.4450281f, 0.4106119f,  2.0104270f,  1.1056167f,  1.1838503f,  -0.2184737f,
       -0.6447318f, 1.0383023f,  0.2861722f, 0.4638089f,  0.0827050f,  -0.7214339f, -0.8271918f, 0.0903803f},
      {0.0925784f,  -2.2875428f, 0.4228307f,  0.7384776f,  -0.6291643f, -0.5331570f, 0.6747525f,  -1.1195320f,
       -0.4872814f, 1.1755321f,  -0.2841410f, 0.7739045f,  -0.5575562f, -0.8809059f, -0.2960616f, -8.8249207f,
       0.7914539f,  -1.7136964f, 0.6188551f,  -1.4344710f, 5.3693213f,  -1.2444569f, -0.4813018f, -0.8091519f,
       0.8857184f,  -2.0941384f, -0.2130339f, -0.5814816f, 0.3258826f,  -0.2931088f, 1.4789020f,  0.4618642f},
      {0.6531625f,  1.1529071f,  0.1371508f,  2.8411951f,  -0.8554673f, -0.1095216f, 1.2860730f,  0.4513414f,
       0.9408586f,  0.0923639f,  1.0380499f,  -0.0617734f, 0.3752534f,  0.4164129f,  -0.6928972f, 0.5165285f,
       0.2846950f,  -0.4395047f, -0.4500486f, -1.5119061f, -0.1637943f, 0.3001703f,  -0.1272881f, 0.6307207f,
       -0.4045023f, 1.5478576f,  2.8443282f,  0.3571231f,  -3.8504515f, -0.5279408f, 0.2419337f,  1.0267982f},
      {-0.4495021f, -0.6836431f, 0.6723049f,  0.7558293f,  -0.3250372f, 0.1810641f,  -0.5758181f, -0.3216294f,
       -0.8515261f, 0.7419527f,  -0.1002971f, -3.8079274f, 1.1104699f,  -0.5206310f, -0.1571004f, -0.0966715f,
       -0.5530408f, -0.2359556f, 1.0117108f,  0.5562274f,  0.8772307f,  0.0218807f,  -1.3814380f, -0.2966548f,
       -0.7360181f, 1.1440719f,  -0.0740981f, 0.4694696f,  -0.1318757f, 0.3080833f,  -1.6074529f, -0.6576584f},
      {-1.1813462f, 0.8606730f,  0.5925826f,  -0.4136417f, -0.1687684f, -1.2883703f, 1.0737853f,  -0.4584215f,
       -0.0107126f, -1.4510404f, -0.5694596f, -0.9614651f, -0.0733704f, -0.6900919f, -1.1785636f, 0.0102372f,
       0.7968284f,  -1.2490059f, 1.3178346f,  1.0213394f,  -1.3799534f, 1.1048131f,  1.0791637f,  -0.7684139f,
       -1.5358402f, 1.0583841f,  0.7784582f,  -0.9112529f, 0.1112473f,  -0.3522860f, -0.1625194f, 0.6646042f},
      {2.8097115f,  0.2189469f, 0.4759579f,  -0.4399420f, -1.9096129f, 4.4731107f,  -1.7415184f, 0.7458996f,
       2.6043866f,  0.0228842f, -0.9860933f, -1.5356710f, -1.1698126f, -0.9608816f, -4.6475010f, -0.2212112f,
       0.3191188f,  3.6182191f, -0.5279332f, 1.2250533f,  -1.8226494f, 1.4215574f,  0.0107232f,  -1.3500752f,
       -2.1345067f, 4.0902228f, -0.1406621f, 0.1988346f,  0.1143996f,  0.1584920f,  1.9306198f,  0.2264732f},
      {-0.6330162f, -0.8606266f, -0.2506120f, 2.8644457f,  -2.5139024f, -0.1396846f, 3.2136893f,  -0.5183797f,
       1.0188060f,  -0.1992519f, 4.1541386f,  0.0795280f,  2.1208901f,  0.5972226f,  -0.1704281f, 1.1748037f,
       1.6950256f,  -0.1650027f, -0.3023618f, -0.9703765f, -0.4939895f, 0.1733194f,  -0.5587181f, -0.3252590f,
       -0.6592528f, -0.6176721f, 2.8412099f,  1.9992446f,  -5.7545681f, -1.3432568f, 0.3551563f,  4.1674385f},
      {0.0463279f,  0.4675750f,  0.9041724f,  -0.5633961f, 0.3415673f,  0.4415232f,  -0.1690769f, 0.7954109f,
       -0.9843888f, 0.3741962f,  -1.6147419f, -1.4149523f, 1.1648459f,  -0.3204101f, -0.9185460f, -0.6581141f,
       0.7857524f,  -0.3287453f, 1.6249634f,  -0.0135078f, 0.1881986f,  0.7690734f,  -1.9673315f, -0.0688100f,
       -1.6302046f, -0.5908383f, -0.4823549f, 0.1704361f,  -0.4471235f, -0.4368535f, -1.3240870f, -0.3216266f},
      {-1.4061178f, 0.5022576f,  1.0982580f,  -0.6220022f, -0.9696901f, -1.9179952f, 1.7193460f, -0.2582918f,
       -0.5588899f, -1.3507159f, -0.3256070f, -1.3323994f, 0.1045043f,  -1.4346679f, 0.1656233f, 0.2692206f,
       1.4507416f,  -1.7721831f, 2.1165068f,  -0.1257402f, -0.3827015f, 2.1512969f,  1.3777891f, -1.3536407f,
       -0.6973501f, -2.4181912f, -0.2530868f, -0.5596736f, -0.3524390f, -1.1098257f, 0.0365084f, 0.2368104f},
      {1.1295713f,  1.1852584f,  -3.0161581f, -0.0101437f, 3.0580411f,  -2.0414307f, 0.9559101f,  1.2531452f,
       -0.9469447f, -1.5319313f, -1.2981234f, 1.0231872f,  3.5623341f,  7.2042856f,  1.8736403f,  0.0048688f,
       -0.0679021f, -0.0448611f, 1.4677920f,  1.7590126f,  1.2858278f,  -1.1959839f, 0.1288983f,  3.8290095f,
       -1.9789371f, 0.7309756f,  0.2280468f,  -1.1718543f, -0.7974834f, -1.4442098f, -1.0101110f, -0.6817204f},
      {-1.5343865f, -0.3796017f, -0.1856368f, 1.7139316f,  -1.0014790f, 0.4724852f,  1.6746861f,  -0.9341705f,
       1.9503918f,  -0.1495848f, 1.9440095f,  0.3956429f,  2.0056448f,  0.3137310f,  -0.0619077f, -0.1152982f,
       2.3105996f,  0.2760705f,  0.0417842f,  -1.7413501f, -0.0536200f, -0.4784753f, -0.2405750f, -1.6337229f,
       -0.0542544f, 0.2359948f,  1.3707143f,  4.4994383f,  -2.4251237f, -2.7904398f, -0.5763192f, 8.6687193f},
      {0.1907782f,  0.1742647f,  0.1050308f,  -1.5279845f, -0.0656458f, 0.0819947f,  -0.0015410f, 0.5593292f,
       -0.6139901f, 0.3406654f,  -0.9734358f, -1.1476587f, 0.2998652f,  -0.1892694f, 0.2782348f,  -0.2697246f,
       0.5776731f,  -0.1273671f, 1.2335502f,  0.3768652f,  -0.0987652f, 0.3744551f,  -1.6916909f, -0.0789046f,
       -0.2746910f, -1.0240086f, -0.7310969f, 0.1137805f,  -0.7809454f, -0.0526637f, -0.9586000f, 0.4703661f},
      {-1.3799059f, 0.5441812f,  1.3961957f,  -1.9208598f, -1.4421672f, -0.8509293f, 0.8990977f, -0.4459707f,
       0.4297855f,  -1.0108874f, -0.5225446f, -1.4302559f, -0.3395956f, -2.3660328f, 0.4259947f, 0.3851134f,
       0.8479792f,  -1.1961648f, 1.9343091f,  -0.5853942f, 0.0132326f,  0.8586328f,  1.1753848f, -1.2850294f,
       -0.1286860f, -0.1348000f, -0.4805126f, -0.0016954f, -0.0379165f, -0.6723653f, 0.0858779f, 0.1319384f},
      {-0.9047911f, 0.8236033f,  -2.6236243f, -1.5834204f, 3.8662889f,  -0.8257350f, 1.3124079f,  2.4033010f,
       -1.5704441f, -0.7072982f, -0.7994226f, -0.0691188f, 3.0421026f,  0.1919740f,  2.0499594f,  0.6489547f,
       -0.8396980f, 0.1463669f,  0.8795691f,  1.3042110f,  0.8791811f,  -0.4357574f, 0.0453697f,  1.2778367f,
       -0.8345951f, 1.4902275f,  0.4830694f,  -0.4929650f, -0.4718537f, -1.5530992f, -0.2699516f, -0.1341021f},
      {-2.0305204f, 0.0984210f,  -0.0239505f, 0.1666152f,  0.6038550f,  -0.1785676f, 0.0119116f,  -1.8020983f,
       0.4221218f,  0.1879676f,  1.2715919f,  -0.2330815f, 1.6620227f,  0.1919266f,  0.8790883f,  -0.7307991f,
       1.8224788f,  0.3670009f,  0.2779024f,  -2.6210845f, 0.4713250f,  0.2567338f,  0.0020450f,  -1.1362463f,
       0.2114117f,  -1.4463605f, 0.5499513f,  1.6433896f,  -1.3871042f, -0.0372309f, -0.1722469f, 5.9508014f},
      {0.4799454f,  0.0895001f,  0.0813640f,  -0.8274580f, -0.0076796f, 0.1678302f,  -0.2162840f, 0.8216277f,
       -0.2604735f, 0.3912535f,  -0.6308332f, -0.6842828f, 0.8903456f,  -0.2615999f, 0.8842036f,  -0.1237010f,
       0.2321620f,  0.0538414f,  0.6234514f,  0.4964478f,  -0.6074837f, 0.8388720f,  -0.9905877f, -0.1521280f,
       0.0861136f,  -1.0650748f, -0.0565484f, -0.1423324f, -0.5450467f, 0.2223674f,  -0.6242210f, 0.0313438f},
      {-0.7937829f, 0.2845238f,  1.2092232f,  -1.1336080f, -0.9974707f, -1.1016089f, -0.0631481f, -0.4682118f,
       -0.1199169f, -0.7368876f, -0.0465959f, -0.9095205f, -0.2594349f, -1.3799951f, 0.3178478f,  -0.0327526f,
       1.1278658f,  -0.5821651f, 1.1199970f,  -0.2503546f, 0.4231540f,  0.5824918f,  0.8323092f,  -0.6453368f,
       -0.5815063f, 0.2947850f,  0.2406827f,  -0.6469781f, 0.3573758f,  -0.5031040f, 0.1713905f,  -0.0302581f},
      {-2.2269943f, 0.6610296f,  -1.7370876f, 5.0489988f,  1.4102260f, -4.3013086f, -5.6990528f, -0.1390589f,
       -6.4011965f, -0.6442785f, 2.5386147f,  2.1181786f,  1.3405606f, -0.6832275f, -7.0846601f, 0.4763132f,
       -0.6197824f, -0.7640664f, -3.1181791f, -0.7982330f, 2.4704344f, 3.4750955f,  -0.3471056f, -1.6380967f,
       -3.9228339f, 11.7434921f, -0.2882336f, 3.3142335f,  0.1535466f, -0.9270810f, 0.3529454f,  -2.4928286f},
      {4.4015613f,   -5.9851208f, -1.9783058f,  1.6264094f, 1.7628051f,  2.7426465f,  -0.5450913f, -6.3433137f,
       -5.4693661f,  -0.1209920f, -16.1616745f, 4.4307213f, 7.2333970f,  0.2126676f,  10.5992460f, 1.1452266f,
       -3.8010271f,  0.6511117f,  -8.6552525f,  1.5934747f, -7.1460495f, 15.8349514f, 2.6939518f,  -0.8971478f,
       -11.3297014f, -1.1788586f, -6.3313837f,  9.6355791f, -9.7328720f, 6.8267646f,  2.6127393f,  -0.7299617f},
      {-0.6623970f, -4.0980029f, 1.2968158f,  1.0465623f,  2.1909347f,  0.0799154f, -1.3850753f, -8.0645733f,
       -2.6519508f, 1.1716766f,  -4.2621017f, -2.2514622f, -3.2109861f, 0.4872084f, -2.9294157f, -0.3134519f,
       -2.2041106f, -1.0412875f, -3.0902727f, -4.6903996f, -3.8038359f, 0.4521285f, 1.0808827f,  -3.5509176f,
       -2.8755074f, -2.5900049f, -4.5624914f, 2.9023614f,  -7.7391887f, 2.4571869f, 1.7540874f,  -6.6134629f},
      {0.3097464f,  -9.6223412f, 0.3082687f,  0.7898668f,  0.7815887f,  0.4838023f,  0.1623738f, -0.0818605f,
       0.3574537f,  0.3066830f,  0.5159593f,  0.6699249f,  0.2457049f,  0.2043623f,  0.6524037f, -0.1482845f,
       -0.1602189f, 0.3730888f,  -0.1839945f, -0.2401724f, -0.2355313f, -0.0997447f, 0.3465509f, 0.3330808f,
       0.4187172f,  -0.9872412f, -0.2174625f, 0.3022898f,  0.0381315f,  1.0602703f,  0.6490645f, 0.1669758f},
      {0.0852926f, -0.3854031f, -0.3749264f, 0.0002517f,  0.3914049f,  0.3182451f,  -0.0910236f, 0.3999062f,
       0.2172160f, 0.3263556f,  0.2230883f,  0.6801209f,  0.0475812f,  0.3868748f,  -0.1011033f, -0.2097718f,
       0.2077924f, 0.4337954f,  -0.3955855f, -0.0072284f, -0.0933287f, -1.2635084f, 0.1973505f,  0.3029268f,
       0.4028932f, -0.2411875f, 0.4648659f,  0.0376468f,  0.3943195f,  0.1931429f,  0.5153960f,  0.1185977f},
      {0.2859749f,  0.1709675f,  -0.3392698f, 0.3881494f, 0.2809920f,  0.1887885f,  0.1355904f, 0.0287555f,
       0.4615551f,  0.3263117f,  0.1106815f,  0.6479899f, 0.1063091f,  0.3925818f,  0.3228856f, -0.0470499f,
       -0.3389811f, 0.3753765f,  -0.2780865f, 0.1694021f, -0.2127821f, -0.2860769f, 0.1801637f, 0.5115150f,
       0.3644554f,  -0.0983620f, 0.2620682f,  0.3451013f, 0.0243843f,  0.5946212f,  0.5975426f, 0.1038395f},
      {-0.0843795f, 0.9882024f,  0.5935462f,  0.2965513f,  0.2589141f,  0.3455611f,  0.1083200f,  -0.2048762f,
       -0.0654019f, 0.0330168f,  0.1223004f,  0.0961272f,  -0.0632822f, -0.0130484f, 0.1102193f,  0.0131898f,
       0.2154029f,  -0.0936573f, -0.0239458f, -0.1067562f, -0.0749452f, 0.0408518f,  0.2206942f,  -0.1217940f,
       0.1881429f,  -1.3144898f, 0.0536983f,  0.0670688f,  0.0735033f,  0.2690658f,  -0.1175179f, 0.0656617f},
      {-0.1368900f, -0.5260106f, -0.2468513f, -0.2262946f, -0.0182993f, -0.0015103f, -0.0237845f, 0.1924657f,
       -0.1337850f, -0.0133332f, 0.0452632f,  0.0729232f,  0.0309925f,  0.0197245f,  -0.3428172f, -0.0070602f,
       0.1913371f,  0.0050748f,  0.0171828f,  -0.0170928f, 0.0061459f,  0.1604311f,  0.0312920f,  -0.1243916f,
       0.0741778f,  0.7906619f,  0.0470147f,  -0.1912991f, 0.1659433f,  -0.2616988f, -0.0205733f, 0.0721926f},
      {0.0410583f,  0.2570575f,  -0.2349126f, -0.1249535f, -0.1147267f, -0.0586542f, 0.0945731f,  -0.1528569f,
       0.0223845f,  -0.0114466f, 0.0076511f,  0.0425091f,  0.0635790f,  0.0743543f,  0.2056053f,  0.1009817f,
       -0.1276455f, -0.0420704f, 0.0873579f,  0.1406774f,  -0.0373695f, -0.1381779f, 0.0274649f,  -0.0109214f,
       0.0446802f,  -0.0897308f, -0.0049318f, 0.0483357f,  -0.0019486f, 0.0062029f,  -0.0166061f, 0.0277916f},
  };

  HOST_DEVICE_CONSTANT float bias_fc2[32] = {
      0.2420192f, 0.1498822f, 0.3024662f,  0.3672144f,  0.0681908f, 0.2503948f,  0.3133035f,  -0.1726400f,
      0.3422103f, 0.3013457f, 0.0799109f,  0.5581454f,  0.0360919f, -0.1259440f, 0.1672565f,  0.5968557f,
      0.3310452f, 0.3513657f, 0.0095852f,  -0.5643460f, 0.3940795f, 0.1897698f,  -0.0710970f, -0.6519080f,
      0.0576156f, 0.2428404f, -0.1078773f, 0.2108476f,  0.1875714f, 0.1078442f,  -0.0107385f, -0.1956442f};

  HOST_DEVICE_CONSTANT const float wgtT_fc2[32][32] = {
      {0.9477844f,  0.0790645f,  0.2978441f,  0.2175170f, 0.5990626f,  0.4165306f,  0.0300093f,  -0.0033081f,
       0.0664389f,  -0.2740595f, -0.0570693f, 0.1170626f, -0.6052473f, -0.0285526f, -0.9750593f, -0.3751386f,
       -0.3696023f, -0.0711362f, 0.1896876f,  0.5425194f, -0.3994021f, -0.3224111f, -0.0439428f, 1.2177781f,
       0.0406177f,  0.0248419f,  -0.1460319f, 1.1979570f, -0.6026343f, -0.3181922f, -0.0349307f, 0.1294153f},
      {-0.4457576f, -0.4166358f, 0.1140768f,  -0.0995491f, -0.9297115f, -0.8484927f, 0.3921157f,  0.1671217f,
       0.0391290f,  0.7723724f,  -0.7536542f, -0.0683614f, 0.5181671f,  -0.1488807f, 0.2528050f,  -1.1527445f,
       0.0186907f,  0.4965201f,  -0.2928216f, -0.2430153f, 0.8413167f,  0.3416253f,  -0.3918425f, -0.1520794f,
       -0.5800689f, -0.6464683f, 0.0246702f,  0.0182789f,  -0.5166554f, 0.3883571f,  -0.2517799f, -0.0094098f},
      {-0.6032159f, 0.6876090f,  0.2889559f,  0.1468648f, -0.5641968f, 0.3478630f,  -1.1751226f, -0.1272719f,
       -1.5550770f, -0.6672150f, 1.0173961f,  0.2250547f, 0.2266909f,  0.0112633f,  -0.2033706f, 0.3649680f,
       0.2778299f,  0.1591411f,  0.5714924f,  0.3382102f, -0.3199378f, 0.1030864f,  0.3654917f,  1.0137405f,
       0.6059799f,  -0.0892025f, -0.1926481f, 0.5751148f, -0.0483990f, -0.2362603f, 0.2127502f,  0.1076699f},
      {0.0864884f,  -0.1346420f, -0.0590672f, 0.2709527f, 0.0059497f,  0.8278427f,  -0.0376555f, -0.0993137f,
       0.1544702f,  1.5397516f,  1.3985173f,  0.1458596f, -0.1318251f, -0.1708164f, -0.2529704f, 0.1802474f,
       -0.4465636f, -0.3608373f, -0.6186194f, 0.1104736f, -0.2197167f, 0.6114312f,  3.0708153f,  -0.0367185f,
       -0.6026717f, 0.0437186f,  -0.0068691f, 0.7994439f, -0.4641058f, 0.6231949f,  0.2994401f,  -0.1114754f},
      {0.4865573f,  -0.2257494f, -0.0622113f, -0.2906855f, -0.4806692f, -0.1878923f, 0.2063936f,  -0.0085900f,
       -0.3972982f, 0.6918074f,  -0.1789056f, 0.1042560f,  1.7135161f,  0.1607887f,  -1.0253457f, 0.4387689f,
       0.2900070f,  0.8834500f,  0.1100190f,  -0.3313121f, -0.1400318f, -0.2239047f, -0.4258100f, -0.5461789f,
       0.3623838f,  -0.2245702f, 0.0109423f,  1.2249749f,  0.6720605f,  -1.2524203f, -0.2595521f, -0.0136557f},
      {-0.8114674f, -0.0589685f, -0.4537889f, 0.1343803f, 0.6155490f,  0.4542705f,  -0.1784246f, -0.0367607f,
       1.3722695f,  -0.5036284f, 0.1591292f,  0.4921753f, 0.1966196f,  -0.0245796f, -0.4362302f, 0.7561527f,
       -0.9307599f, -0.4161506f, -0.0985663f, 1.0505419f, -0.4145910f, -0.2383539f, -0.3260167f, -0.2006534f,
       0.1461904f,  -0.1774964f, 0.0748390f,  0.2687811f, -0.5755305f, -0.2619618f, 0.0031019f,  0.1053678f},
      {-0.1671602f, 0.5898983f,  -0.3010138f, 0.1428170f,  -0.4395862f, 0.6011736f,  -0.6824208f, 0.0834212f,
       -0.3083069f, -0.8161052f, 0.8446352f,  -0.1289981f, 0.1454613f,  -0.0669884f, -0.2147270f, -0.0693433f,
       0.4310409f,  0.3372035f,  0.4923474f,  0.0451390f,  -0.2172501f, 1.1826969f,  -0.0953328f, -0.1689639f,
       0.5121273f,  0.5773017f,  -0.2540970f, 0.9814218f,  0.2213568f,  0.1745940f,  0.6629733f,  -0.0703891f},
      {-0.0943655f, 0.0389990f,  0.3364168f,  0.2098130f,  0.1929279f, -0.0962308f, -0.0018474f, 0.0439214f,
       -0.7385208f, -0.4517773f, -0.0386891f, 0.0602551f,  0.1148888f, -0.1283621f, 0.0058366f,  -0.3934270f,
       -0.1337466f, 0.0654528f,  0.4067565f,  -0.4707848f, 0.1162578f, 0.5017020f,  0.3304436f,  0.0872209f,
       0.4889075f,  0.2807720f,  -0.1973572f, -0.4155709f, 0.0309771f, -0.7092831f, -0.7794424f, -0.1459839f},
      {-0.5295035f, 0.7356530f, 0.3039915f,  0.0810916f,  -0.2164448f, 0.1579250f,  -0.3331033f, 0.0239585f,
       0.4926797f,  0.4662276f, 0.1003408f,  0.5102254f,  0.1000184f,  -0.1730865f, 0.1500007f,  0.0569007f,
       0.0662431f,  0.4424641f, -0.2252309f, -0.0009742f, -0.0801667f, 1.1692612f,  0.2382815f,  -0.4052627f,
       0.1667125f,  0.2946294f, -0.2483962f, -0.1908208f, 0.6336688f,  0.2673290f,  0.2469455f,  0.1539024f},
      {-0.7377842f, 0.1239449f,  -0.2160517f, 0.0836856f, 0.0563133f,  -0.1287455f, -2.4090533f, 0.0182498f,
       -0.3940274f, 0.3978150f,  -0.0008089f, 0.8301392f, 0.3864959f,  0.0828013f,  0.1775530f,  -0.0267429f,
       0.3220538f,  -0.1131186f, 0.0929232f,  0.7917365f, -0.2574012f, -0.3485697f, -0.3520234f, 0.0321406f,
       0.5416895f,  -0.7747179f, 0.0263138f,  0.0156633f, -0.6029642f, -0.4099184f, 0.1297072f,  -0.0763408f},
      {-0.9725084f, -0.6225982f, -0.0241479f, -0.8526779f, -1.8055981f, -0.0342978f, -0.0353824f, -0.0487756f,
       -0.0194707f, 0.8823376f,  0.9235744f,  0.3005395f,  0.2835868f,  -0.1148965f, 0.3521956f,  -0.3969032f,
       -0.1618436f, 0.5247192f,  -1.2570199f, -1.2933259f, 0.2353207f,  0.0522201f,  -0.3407558f, -0.7083238f,
       -0.8502682f, 0.2354126f,  -0.0983525f, -0.5225297f, -1.1363075f, 0.1191391f,  0.3688005f,  -0.0721454f},
      {-0.4978539f, 0.0213132f,  -0.9456733f, 0.4147929f,  0.4021548f,  0.4828983f,  1.7751889f,  -0.0557035f,
       0.2536854f,  -0.8965177f, 0.0013453f,  -0.1397893f, -0.2014100f, -0.1129207f, 0.0604085f,  0.0149230f,
       -0.0841563f, 0.5373021f,  0.8044986f,  -0.0295436f, 0.2773425f,  0.8043463f,  -0.1877888f, -1.1105905f,
       0.2900093f,  0.8607606f,  -0.1415148f, -0.4507093f, 0.9467223f,  -0.1084260f, 0.6052061f,  -0.1686843f},
      {-0.2258019f, 0.1889428f,  -0.2686882f, -0.3063822f, -0.3166457f, -0.2806566f, 0.1178042f,  0.0608205f,
       -0.2645664f, -1.0405049f, -0.0519723f, 0.3019978f,  0.0006940f,  -0.1020586f, -0.3942995f, 0.4342203f,
       -0.3345312f, 0.4574130f,  -0.4044704f, 0.6222502f,  0.2347430f,  0.0962147f,  0.4692436f,  1.0109904f,
       -0.1394140f, -0.0479612f, 0.0143121f,  0.3230010f,  -0.0837017f, 0.3180766f,  0.4171008f,  0.0107547f},
      {-2.1767504f, -0.5494305f, 1.7831416f,  -0.1602608f, -0.7913717f, -0.5385063f, -1.3010976f, -0.0732973f,
       -0.7383692f, -0.4942359f, 0.0797735f,  0.9569775f,  0.5248573f,  -0.0532136f, 1.1371235f,  0.0740525f,
       -0.3389917f, 0.0862791f,  -0.3393867f, -1.7828649f, -0.2016756f, -0.3977666f, 0.7217023f,  0.4741161f,
       -0.2263446f, 0.1031418f,  -0.1255716f, 0.2873176f,  -0.1175444f, 0.4997679f,  -0.0171211f, -0.1910678f},
      {0.5997473f,  0.3704447f,  -0.1027960f, 0.0615773f,  0.3142829f,  0.3180274f,  0.9900225f,  -0.2466927f,
       -0.1713584f, -0.6912794f, 0.4348271f,  -0.2014036f, 0.1685447f,  -0.1432491f, -0.2384894f, 0.4297218f,
       0.2628476f,  0.0755370f,  -0.6512125f, 1.0776943f,  -0.2526596f, -1.0413667f, 1.0825540f,  0.0121419f,
       -0.4139650f, 0.1953526f,  0.0228532f,  0.7276669f,  0.2967961f,  0.3857630f,  -0.0092882f, -0.0652729f},
      {0.3495303f,  0.0528409f,  -0.1238677f, -0.1436307f, -0.3670696f, -0.5042573f, -0.7938571f, -0.1738083f,
       0.0205153f,  0.0897479f,  -0.2325604f, -0.0440110f, -0.3223808f, 0.1715952f,  0.2273175f,  0.0355640f,
       -0.3030194f, -0.0378800f, 0.1169375f,  -0.8088371f, 0.3684180f,  0.1068725f,  -0.5171835f, 0.1674343f,
       0.2052878f,  0.3094593f,  -0.2305119f, 0.2525437f,  0.1789630f,  -0.4817703f, -0.0030947f, -0.1891324f},
      {0.6293146f,  0.2584574f,  0.0100317f,  -0.5799903f, 0.2948301f, -0.4371910f, -0.0477715f, -0.0218286f,
       -0.1696342f, -0.4813184f, -0.8331993f, 0.3223454f,  0.0029136f, 0.1666087f,  -0.3873546f, -0.2286834f,
       0.1122524f,  -0.3860610f, -0.8188475f, -0.9623070f, 0.1606599f, -0.6897836f, -0.3358153f, -0.1685106f,
       -0.2947677f, 0.2129448f,  0.0359219f,  -0.1852056f, 0.1128887f, 0.0618916f,  0.2507945f,  0.0447627f},
      {0.0554332f,  -0.0027592f, 0.3535706f,  -0.4331247f, -0.2471175f, -0.3155170f, -1.5408354f, -0.2673851f,
       -0.5063978f, -0.5054772f, -0.4510890f, 1.1381546f,  0.7692682f,  -0.1762980f, -0.2943404f, 0.0445386f,
       -0.2057083f, 0.2759189f,  -0.3914460f, -0.6832695f, -0.1839541f, -0.3678920f, -0.2850055f, -0.5779636f,
       0.0224292f,  -0.4669296f, -0.2568997f, 0.1900256f,  -0.2664030f, 0.2227556f,  0.3770681f,  -0.1686298f},
      {-0.8099023f, 0.6079454f,  -1.0392671f, 0.1853553f,  -0.0657482f, 0.0594661f,  -2.7382996f, -0.2678560f,
       -1.0898361f, -1.1456356f, -0.0590183f, 0.3825967f,  -0.5998831f, -0.0217187f, -1.8030874f, -0.5415536f,
       0.0403031f,  -0.4595840f, 0.2551507f,  -0.5179180f, 0.0030503f,  0.6006228f,  -0.2032869f, -0.3312562f,
       0.2309013f,  0.2453417f,  -0.0373306f, -1.2156100f, -0.1305973f, -0.6529071f, -0.4165395f, 0.0850382f},
      {0.2420593f,  0.2877297f,  0.0347489f, 0.4107040f,  0.0560220f,  0.1383768f,  -0.0290268f, 0.0368654f,
       -0.3878137f, 0.2399966f,  0.2518795f, 0.2886151f,  -0.1897193f, -0.1605257f, 0.0932711f,  -0.2438373f,
       0.1869382f,  -0.5400008f, 0.6079569f, 0.6714113f,  -0.0769095f, 0.2528530f,  0.1480197f,  0.5479824f,
       0.4374030f,  0.3420986f,  0.0413617f, -1.0413530f, 0.2686166f,  -0.5624301f, -0.4255804f, -0.0650254f},
      {-0.1250933f, -0.1136944f, 0.0993298f,  0.3014838f,  -0.6356226f, -0.0490545f, 0.7753500f,  -0.0809311f,
       0.5323648f,  -0.0345059f, 0.1949496f,  0.0198230f,  0.5341202f,  0.0308399f,  -0.2006068f, -0.2500929f,
       -0.2550136f, 0.3400015f,  0.3697634f,  -0.5224004f, -0.7527751f, 0.5704774f,  -0.6227463f, -0.3936085f,
       0.2489994f,  0.0875356f,  -0.2447212f, 0.6399952f,  -0.4011181f, -0.0860382f, 0.0883997f,  0.0172180f},
      {0.5448795f,  0.8173789f,  0.0075663f,  1.1805303f,  1.7203569f,  -0.6815717f, 0.3134039f, 0.0906886f,
       0.0756090f,  -0.4353962f, -0.5386847f, -0.0507332f, 0.5440259f,  0.0605894f,  0.2524048f, 0.3851925f,
       -0.4258735f, -0.6799555f, 0.3980977f,  0.7769310f,  -0.5134005f, 0.5598153f,  0.4308333f, 0.3054441f,
       -0.0727649f, 0.5660210f,  -0.0176415f, 0.1353741f,  -0.2483104f, 0.1738807f,  0.6208159f, -0.0776369f},
      {-0.5709571f, -0.7984408f, -0.8615161f, 0.7372646f,  0.9487120f,  0.7898567f,  -0.1343847f, -0.0519288f,
       1.2782260f,  0.9464526f,  0.2376383f,  -1.0223522f, -1.4201926f, -0.1367096f, 1.2966657f,  0.6358539f,
       1.0579402f,  -0.1776328f, 0.4553668f,  1.6561530f,  1.7639430f,  -0.0572736f, 0.1825964f,  0.6839079f,
       -1.1312269f, 2.2394719f,  -0.1153456f, 0.0832286f,  1.1678441f,  0.9995819f,  -0.6752121f, -0.0294776f},
      {0.5853618f,  0.0476583f,  0.3115363f,  0.2302655f,  0.1206093f, 0.1423729f,  -0.0688958f, -0.1274807f,
       -0.7104061f, 0.6695569f,  0.3462166f,  0.1399361f,  0.0738895f, 0.1395106f,  -0.0947572f, -0.4398190f,
       0.8046142f,  0.1796375f,  0.6236497f,  -0.3355125f, 0.0665246f, 0.1648258f,  0.1719281f,  -0.0215839f,
       0.2948838f,  -0.0364384f, -0.0132194f, -0.3336160f, 0.1608825f, -0.3809827f, 0.0427708f,  -0.1653370f},
      {-0.2396747f, 0.5994402f,  0.1901325f,  0.0756556f,  -0.1019675f, 0.1934567f,  2.2492085f,  0.0405573f,
       0.7990069f,  -0.0031116f, 0.1399053f,  0.2491723f,  -0.4884324f, -0.0280764f, -0.2176450f, -0.3256943f,
       0.6038598f,  -0.7596282f, 0.7370521f,  -0.6102398f, 0.0417237f,  0.6308144f,  0.2804313f,  -1.0541338f,
       0.4447262f,  -0.1072341f, -0.1903439f, -0.4858476f, 0.7604120f,  0.1830743f,  -0.3262461f, -0.0845358f},
      {-1.8205953f, 0.0579756f,  0.2186305f,  -0.7704644f, -1.0015099f, -0.5109156f, 0.5111710f,  0.1077972f,
       0.5853909f,  1.1057258f,  -0.5496864f, -0.0546181f, -0.1387448f, -0.0367158f, 0.0563303f,  -0.9073950f,
       1.1649257f,  0.6930003f,  -0.0609807f, -1.1429670f, -0.1540745f, -1.2014219f, -0.2904009f, 0.2807863f,
       0.1425838f,  -0.2909705f, -0.0341960f, 2.6969550f,  0.1141804f,  0.7014298f,  0.1753227f,  0.0768410f},
      {-1.1060591f, 0.0567899f, -0.1571269f, -0.9480476f, -0.4812395f, -0.3905266f, -0.4127474f, -0.0700787f,
       -0.1037446f, 0.6893422f, -0.4761419f, 0.0626154f,  0.1033659f,  0.1149158f,  0.3811806f,  -0.0267461f,
       0.1825537f,  0.6764455f, -0.6284249f, -0.4999892f, 0.1400735f,  -0.3666739f, -0.8226722f, -0.2742531f,
       0.0038938f,  0.1431945f, -0.2304713f, 0.1959182f,  -0.0833413f, 0.1036758f,  0.5925360f,  -0.1728666f},
      {0.8618100f,  0.1624423f,  -0.0119217f, -0.3260103f, 1.2995098f,  -0.6950228f, 0.2578443f,  -0.0584942f,
       -0.1956889f, -1.1657989f, -0.9274270f, 0.0248109f,  0.3926098f,  -0.0011959f, 0.4083188f,  0.6157458f,
       -0.1829408f, 0.0255032f,  -0.9857827f, 0.9257624f,  0.1254213f,  -0.7773420f, -0.8070686f, 1.0248510f,
       -1.0815803f, -0.1019331f, -0.0273850f, -0.0287858f, -0.5333901f, 0.2750031f,  0.4854398f,  0.0430395f},
      {-2.2706361f, -0.0563411f, 0.0747649f, 0.0839579f,  -0.7418628f, -0.5147710f, -0.4589594f, -0.1936616f,
       0.0085840f,  0.2041321f,  0.0634176f, -0.1194840f, -0.3277527f, -0.1171821f, -0.4370427f, -1.7333642f,
       -1.0109788f, -2.2809637f, 0.5498678f, -1.5792087f, 0.3492494f,  -0.2270884f, -0.0219570f, 0.2369912f,
       0.3975051f,  0.1427489f,  0.0350726f, -0.5830398f, -0.1225577f, -1.1089261f, -2.2723722f, -0.0715627f},
      {1.6286877f,  0.6170489f,  0.2090771f,  0.7154092f, 0.3796651f,  0.3692173f,  0.5580201f,  -0.2510560f,
       0.2133680f,  -0.1495305f, 0.4843171f,  0.1983987f, -0.3489809f, 0.0815524f,  -0.4780030f, -0.2526886f,
       -0.1224521f, -0.3420408f, 0.6007171f,  0.7295829f, -0.1047851f, 0.4106947f,  0.1101658f,  -0.8703307f,
       0.2298607f,  0.3555209f,  -0.2199591f, 0.3845321f, 0.0053869f,  -0.3889537f, -0.3812927f, -0.1833587f},
      {1.1275142f,  -0.0847157f, 0.7803201f,  0.6043309f,  0.0697254f,  -0.1595450f, 0.8116972f,  -0.2051597f,
       1.3941048f,  -0.2311134f, 0.1249815f,  -0.1849142f, -0.0676029f, -0.1570321f, -0.0248682f, 0.1011748f,
       0.2924128f,  0.2810532f,  0.5785351f,  -0.2909298f, -0.0618236f, 0.3666790f,  0.1437915f,  -0.1709863f,
       -0.0455444f, 1.0872705f,  -0.1216226f, -0.5141663f, 0.0893981f,  0.0563621f,  0.3713191f,  0.1215324f},
      {0.3138374f,  -0.2366744f, 0.3531516f,  -5.1496854f, -0.7201742f, -5.3525457f, 0.4425960f,   0.0024644f,
       -0.0003756f, -1.9120497f, -3.6601391f, -0.4874162f, 0.3136120f,  -0.0846221f, 0.1454570f,   -0.0903244f,
       -0.7935557f, -0.1082042f, -6.7450323f, 0.1083279f,  -0.0658780f, -3.3311872f, -11.0901842f, 0.3452957f,
       -0.4402857f, 0.1120452f,  0.0429914f,  -0.4037071f, -0.1304435f, 0.3757658f,  0.5700281f,   -0.0560347f},
  };

  HOST_DEVICE_CONSTANT float bias_fc3[6] = {0.4638648f, 0.2592537f, -0.0224077f, -0.3610995f, 0.2049032f, -0.1270025f};

  HOST_DEVICE_CONSTANT const float wgtT_fc3[32][6] = {
      {-0.0825683f, 0.0410914f, 0.3665631f, 0.1153224f, 0.2717541f, 0.0572775f},
      {0.3823453f, 0.1005642f, -0.0687870f, -0.5702714f, -0.0982427f, -0.0720022f},
      {0.2767557f, 0.3633989f, 0.3004855f, -0.2707561f, 0.4023620f, -0.0316385f},
      {-0.6080245f, 0.5111613f, 0.0303876f, 0.1534717f, 0.6780844f, 0.1847766f},
      {0.1950710f, -0.0140113f, -0.0460127f, 0.4004743f, -0.0588760f, -0.1026509f},
      {-0.4413157f, -0.1262633f, 0.0999593f, -0.1316405f, 0.0456409f, 0.1524025f},
      {-0.2625964f, -0.2398003f, 0.0026281f, 0.2827081f, -0.1214944f, 0.0673692f},
      {-0.0405760f, -0.0274085f, -0.0738333f, -0.1128784f, -0.1568583f, -0.0800972f},
      {-0.3202673f, -0.3390695f, -0.1534856f, 0.3196714f, -0.2789583f, 0.0711831f},
      {-0.1860698f, -0.1582274f, 0.1985906f, 0.2078834f, 0.0358276f, 0.0675854f},
      {0.3786796f, 0.1351469f, -0.1311201f, 0.4751540f, -0.0107362f, -0.1871149f},
      {0.6353824f, 0.5677436f, 0.1590982f, -0.6899668f, 0.3740025f, -0.1411532f},
      {0.3073860f, 0.2839593f, 0.1694280f, -0.3355140f, 0.2433507f, -0.0488098f},
      {-0.0928499f, 0.0616765f, -0.0771306f, 0.1355574f, -0.1019612f, -0.1266196f},
      {-0.2041278f, -0.1548309f, 0.0368690f, 0.1600682f, -0.0518508f, 0.0607208f},
      {0.1211834f, -0.1294493f, 0.2249328f, 0.3190344f, 0.0067060f, -0.0251227f},
      {-0.0526831f, -0.0509629f, -0.3755513f, -0.1174352f, -0.2525741f, -0.0183803f},
      {0.0209530f, -0.1739729f, 0.2555005f, -0.2378753f, -0.0424013f, 0.0581072f},
      {-0.0075336f, -0.5307564f, 1.0589222f, 0.3346883f, 0.1339612f, 0.1346273f},
      {0.2160633f, 0.0964605f, -0.0941461f, 0.2930759f, 0.0173386f, -0.0748447f},
      {-0.6522665f, -0.5073403f, -0.2431537f, 0.4983193f, -0.3755145f, 0.1643617f},
      {0.1971257f, -0.0410421f, -0.5036770f, -0.2652275f, -0.4003507f, -0.1095356f},
      {-0.1139918f, -0.1514564f, 0.1970165f, -0.2130822f, -0.0206673f, 0.0784776f},
      {-0.0165255f, -0.0692864f, -0.2636001f, -0.0269720f, -0.2099786f, -0.0313033f},
      {0.1173475f, 0.6424626f, -0.0928475f, -0.1411267f, 0.4882753f, -0.0760400f},
      {-0.6952152f, -0.8492880f, -0.6860636f, 0.6728117f, -0.9144394f, 0.0992556f},
      {0.0875367f, 0.0357710f, -0.1389648f, 0.0625666f, 0.1185083f, -0.1085772f},
      {0.0125439f, 0.1258396f, 0.0932084f, 0.0433826f, 0.1670030f, -0.0043936f},
      {-0.2513180f, -0.2649883f, -0.3022399f, 0.2805146f, -0.3223124f, 0.0125926f},
      {-0.3392999f, -0.4831693f, 0.0285935f, 0.2977640f, -0.3052610f, 0.1079501f},
      {-0.1047532f, 0.2985990f, 0.5575675f, 0.3046419f, 0.6408112f, 0.0676042f},
      {0.0253204f, 0.0201008f, 0.0023553f, 0.0057190f, -0.0633111f, -0.1201030f},
  };

}  // namespace ALPAKA_ACCELERATOR_NAMESPACE::lst::dnn::t5embdnn

#endif
